-0.38864 -0.61096 -0.153403 0.310341 0.0537944 0.388338 0.568312 -0.119757 0.203726 0.381043 1.19354 0.197974 0.367872 0.122594 -0.64376 0.330437 -0.137791 -0.134996 0.118565 -0.921861 0.033064 -0.14468 -0.389069 0.0892376 -0.300903 -0.325541 -0.387172 -0.0475741 -0.192219 0.226683 0.862924 -0.147925 0.182182 0.404685 0.0951917 0.396083 0.150355 -0.24304 -0.255512 0.0302003 -0.648237 0.185896 -0.892901 -0.0619492 0.355261 0.245495 -0.341448 0.232476 -1.01129 0.294764 0.237259 0.268081 -0.0223478 -0.233654 -0.486402 0.195948 0.0560272 0.0525895 0.092921 -0.780944 0.00827253 -0.0952517 -0.121908 -0.562821 0.398173 -0.103905 0.331238 -0.0746567 0.114492 -0.282205 -0.395542 -0.721636 0.138567 -0.408451 0.389547 -0.190187 -0.279635 -0.396631 -0.591318 0.278271 -0.229022 0.552711 -0.343677 0.0522795 0.792775 -0.0497568 0.169011 -0.371561 0.0398358 -0.381648 0.735223 0.419328 -0.413076 0.424775 0.724782 0.290025 
0.356759 -0.568321 0.997993 0.474951 0.315456 0.56783 -0.000477081 0.819443 0.723443 0.694503 -0.101366 0.421742 -0.150444 -0.0458851 -0.381684 0.215469 0.0270117 0.803365 -0.00218898 0.800689 -0.267471 -0.568608 -0.618508 0.579085 0.473074 0.0336993 0.0137461 0.187192 -0.837484 -0.112514 0.0152377 -0.180018 0.11842 0.284749 0.113047 0.139778 -0.527558 0.0198694 1.28614 0.392874 0.00587432 0.0155184 -1.58406 -0.481636 -0.241068 0.29234 0.19706 -0.00727367 0.266263 0.11769 -0.350019 -0.0220561 -0.26141 0.000504062 0.0994428 0.654434 0.648939 0.0715878 -0.0862099 0.325777 0.0426523 0.155633 -0.302326 -0.360747 -0.0585572 0.198056 0.525304 0.368109 -0.424948 -0.32113 -0.232237 -0.198339 -0.376743 -0.0322753 0.743504 -0.499115 0.600923 -0.29869 -0.917054 0.254974 -0.0759551 -0.338514 0.120257 0.0767975 -0.548448 -0.423921 -0.312166 -0.656485 -0.0281304 -0.416435 0.325157 0.665885 0.429463 -0.0430315 0.191262 -0.272193 
-0.357453 -0.0859055 0.260424 0.294687 0.113391 -0.110096 0.898992 0.0910053 0.060347 0.354148 0.271095 0.0109293 -0.47199 -0.897472 0.0221094 0.340186 0.38323 0.0659446 -0.774152 0.237164 0.419377 0.450127 -0.174228 0.357229 -0.300668 0.324323 0.0569641 -0.071609 0.321825 -0.590394 -0.0981637 0.940765 -0.735797 0.650266 -0.466613 -0.0240426 -0.763727 -0.144819 -0.26464 -0.328725 0.423165 0.248521 -0.0403548 -0.346109 -0.19361 0.214151 -0.532643 0.425176 0.288204 0.352711 0.2183 -0.891549 -1.04907 -0.180602 0.25584 -0.0778743 -0.279315 -0.595439 0.221076 -0.471951 0.280952 -0.0285828 0.282135 -0.973713 -0.568065 -0.177526 0.979205 0.178015 0.458046 0.209614 0.0311014 -0.258878 0.438152 0.24064 0.214162 -0.269166 0.241082 -0.262646 -0.124742 -0.285572 -0.88916 -0.0915651 0.45658 0.336051 0.173579 0.878834 -0.532942 0.0224828 -0.471907 0.742493 0.28394 1.01354 0.0735501 0.823777 0.0149768 -1.5136 
0.34149 0.105043 0.684918 0.616193 -0.418243 0.662992 0.942148 0.575138 -0.608158 0.176423 0.355535 -0.875934 -0.234095 0.227002 0.0563113 -0.0406942 -0.105159 0.00723592 0.422759 0.234965 -0.328405 -0.208748 0.288198 -0.671999 0.21344 0.322002 0.177061 0.0298849 -0.550104 -0.81984 0.26451 -0.173586 -0.23714 0.198034 1.02274 -0.0350788 0.218031 0.6761 0.2522 0.286249 -0.299483 0.228492 0.317215 -0.377754 -0.118686 -0.00475122 0.20867 -0.386995 0.876359 -0.471142 -0.920752 -0.247784 0.0686042 0.637699 0.368979 -1.34318 -0.409367 -0.444797 0.0728297 -0.206342 -0.818231 0.31964 -0.660056 0.129215 -0.139259 0.619994 0.84602 0.534596 0.19795 -0.115521 -0.503664 -0.299249 -0.338193 0.256097 0.114386 -0.155548 -0.720527 0.281677 -0.0738235 -0.191504 -0.531682 -0.566141 0.0158237 -0.283825 -1.10775 -0.281405 0.27463 -0.159095 0.216059 -0.40002 -0.311009 -0.152122 -0.0367278 0.100522 -0.570328 0.520948 
0.0766737 -0.0555868 -0.41637 -0.220047 0.460383 -0.331355 0.904886 0.90914 -0.595122 -0.406668 -0.826472 0.626275 -0.500248 -0.221071 -0.655296 0.659081 0.206305 -0.212706 0.623366 0.994512 0.0484073 -0.207548 -0.178834 0.025641 -0.379511 0.0173749 0.408474 0.0389549 0.825862 0.371964 -0.0143525 -0.546233 0.557745 0.165688 0.0898731 -0.527989 0.370513 -0.379475 -0.238083 -0.418834 0.0199455 -0.542481 0.120825 0.47444 -0.103184 0.619671 0.0858801 0.14864 -0.0832693 0.2083 0.435526 0.47157 0.0157716 -0.510976 -0.206788 -0.0656545 0.346478 -0.441569 0.285209 -0.107825 -0.303602 0.199121 -0.109521 0.702449 -0.311112 -0.21706 -0.337478 0.599929 0.234652 -0.0690282 -0.471598 0.460286 0.341558 -0.265145 -0.337828 0.785517 0.112925 -0.365516 0.104983 -0.344437 0.702048 -0.204746 0.44193 -0.349308 -0.343259 -0.4235 0.0426793 0.135466 0.409428 0.105809 -0.178676 0.156352 -0.501614 0.581842 0.412874 -0.293148 
-0.487643 -0.234655 0.233091 0.0876265 -0.1583 -1.00822 -0.522328 -0.439633 -0.203208 0.797379 -0.264999 0.503495 0.512795 0.0786894 0.113973 0.344795 -0.0908885 -0.0995312 0.160131 -0.0113435 0.597416 -0.324471 0.339454 -0.391595 -0.832245 0.12129 0.571958 -0.591988 0.234345 0.0839388 -0.278484 -0.25598 -0.119449 0.208805 -0.50562 0.51524 0.288319 -0.0911179 -0.437655 0.14729 -1.04769 -0.334746 0.902901 0.291978 -0.285161 0.0668803 0.754003 0.394219 0.0196912 -0.181928 0.600267 -0.639416 0.194425 -1.1505 0.880776 0.473525 -0.2442 0.0168254 -0.635601 -0.420465 -0.50679 0.294905 -0.0478917 0.18025 0.405579 -0.754814 -0.494805 -0.243425 -0.156585 -0.380735 0.126789 0.196222 -0.637644 -0.340233 -0.173771 0.294639 0.176839 0.266062 -0.775578 -1.00941 -0.0573935 0.636353 -0.559584 0.221691 0.154662 -0.773147 -0.783818 0.278392 0.44468 0.371119 0.112659 -0.117879 -0.525889 -0.0985185 0.0173346 0.656299 
0.14629 -0.419985 0.385822 0.386235 -0.488493 -0.794446 0.184999 -0.240383 0.221425 0.127083 -0.697865 0.753671 -0.373963 0.623919 0.00200447 -0.105263 0.00705744 -0.476165 -0.391674 -0.0508128 -0.378776 -0.755952 -0.0044566 -0.580409 -0.681402 0.0603648 -0.43136 -0.588334 0.255594 -0.249824 0.23523 -0.212841 0.523604 -0.214382 0.146106 0.170713 0.126236 0.39434 0.468635 -0.0222145 0.40026 0.508254 -0.0213212 -0.48141 -0.000242812 -0.101197 0.283591 -0.719037 0.0792469 -0.187888 0.726031 0.150386 -0.203313 -0.441068 -0.725781 -0.0802334 -0.350198 -0.191968 -0.139358 -0.116375 -0.331107 0.0422866 -0.102971 0.20458 0.633077 0.309225 -0.965019 0.243714 0.0804939 0.457059 -0.0743024 -0.924107 -0.21004 0.153155 0.993274 0.534863 -0.33279 -1.10477 1.0388 0.169312 -0.631212 1.07409 0.333801 0.165078 -0.25195 -0.675126 -0.428549 -0.240601 0.0978908 -0.618892 -0.075794 -0.865388 -0.5881 0.189706 -0.523822 0.13262 
-0.564955 0.233602 -0.258708 -0.260589 -0.300276 -0.525413 -0.847811 0.339508 0.269369 0.908642 -0.261909 -0.309382 -0.247603 -0.739104 0.419292 -0.175119 0.12056 0.29434 -0.235905 -0.436457 -0.361767 0.230019 -0.671754 0.375794 0.0156631 -0.870853 0.0234785 0.283113 -0.0378784 -0.0857992 -0.149106 -0.15187 -0.47165 0.118933 0.103246 -0.984963 -0.315072 0.299396 -1.31288 -0.0709348 0.335451 0.349468 0.462278 0.830319 -0.791108 0.308398 -0.129883 -0.497035 -0.36081 0.793492 -0.080009 0.0781908 -0.329034 0.0320211 0.427674 0.434469 0.186815 0.170638 0.627244 -0.62071 -0.114344 0.222675 0.631806 0.325522 0.680126 -0.629157 0.543836 -0.478479 -0.276545 0.274055 -0.647649 -0.855342 0.413565 0.351627 0.237872 0.217784 -0.138776 0.317952 0.301291 0.222023 -0.344995 -0.0468642 -0.924887 0.196991 -0.542084 0.0406506 -0.23852 -0.588225 -0.177618 0.0407405 -0.415169 -0.381071 -0.192998 0.730586 0.543852 -0.00621288 
-0.48232 0.146479 -0.573495 -0.510161 0.203397 0.509862 -0.890424 0.553797 -0.484882 0.223462 0.476832 -0.0850188 -0.143722 -0.0526313 -0.665061 0.131463 0.17308 -0.789277 -0.802564 0.0892788 -0.0277126 -0.652434 0.809688 -0.553146 0.158725 -0.0672942 -0.518908 -0.52008 -0.0281903 0.196024 -0.145908 0.102236 0.63877 -0.270609 -0.299647 -1.13676e-05 0.494674 0.970605 0.117359 0.912635 1.02412 -0.485915 -0.367376 0.341702 -0.111209 0.00511362 0.346449 -0.0679894 -0.396186 0.100847 0.134832 0.230449 -0.712629 0.00215151 0.341933 0.024586 0.710246 0.109009 0.445336 -0.100351 -0.0954687 0.353691 0.165275 -0.292652 0.604757 -0.795322 -0.333907 0.214233 -0.263821 -0.429094 0.438394 -0.13612 0.928735 0.0168671 0.205694 -0.200361 0.199961 -0.209281 0.0760141 0.385586 -0.00622192 -0.57266 0.317609 0.00401236 0.186731 -0.341377 0.541239 0.346602 0.0842361 -0.428348 0.1213 0.299159 -0.641664 0.858107 -0.105696 -0.76981 
-0.0342441 0.404839 -0.173583 0.208755 0.168464 0.111586 0.793503 0.387277 0.302223 1.05435 -0.220793 0.152225 0.0485278 -0.527002 -0.117394 -0.379318 0.738349 -0.491946 -0.516083 -0.0987797 -0.39629 0.322069 0.432179 -0.510198 -0.552665 -0.052024 -0.542304 -0.123727 -0.0772421 0.391697 -0.368415 -0.106409 0.09223 0.157994 -0.173301 -0.153979 0.277241 0.259564 -0.60066 -0.00735201 -0.365056 0.558096 0.507574 0.169121 -0.532523 0.509528 0.360116 0.282735 -0.701166 0.0302688 0.460225 -0.803885 0.936444 0.51462 -0.274409 -0.596185 0.106549 -0.0140606 -0.357262 -0.0964389 0.447848 0.502314 -0.0749726 -0.144545 0.268807 -0.0740964 -0.427422 0.180088 -0.0895741 -0.257834 -0.154334 -0.168506 0.134182 -0.592834 -0.453229 0.213863 0.0148037 0.505179 0.399616 0.135465 0.0809595 0.288982 0.706317 -0.244283 -0.981407 0.770259 0.340394 -0.782366 -0.396204 0.810403 -0.493432 -0.35754 -0.564529 0.067763 0.144001 0.499729 
-0.375857 -0.203588 -0.197872 0.47862 0.137541 -0.291483 0.261125 1.10451 0.090716 -0.602038 0.406386 -0.0386474 0.11628 -0.422198 0.0501902 -0.642561 0.23275 -0.251302 -0.0801481 0.261523 0.333185 -0.796911 0.223171 0.158751 0.961471 -0.739465 0.0717258 0.69507 -0.37693 -0.194648 0.304689 0.245705 -0.0110007 -0.379316 0.302703 0.296156 -0.147201 -0.649597 0.540708 -0.253276 -0.128483 0.0294573 -0.206196 0.188797 -0.105695 0.560438 -1.0171 -0.209956 -0.343006 0.979363 -1.19628 0.308841 -0.265685 -0.2271 -0.148887 -0.0845524 -0.0249009 0.36133 0.441025 0.295195 -0.744468 -0.145125 0.0506421 -0.310119 0.201827 0.138729 0.580414 -0.155665 0.0291741 -0.0433186 -0.287649 0.282203 -0.0761957 0.25996 0.125184 -0.0161396 0.405362 -0.0594112 -0.778197 0.469233 0.533674 0.0877508 -0.339199 0.188399 -0.140868 0.634343 -0.165029 -0.28515 0.33629 0.553733 -0.319443 -0.53684 -0.343926 0.164261 -0.0287901 -0.246685 
0.235041 -0.764338 -0.121665 -0.267052 -0.435643 0.442892 -0.342141 -0.177841 0.0355468 -0.110448 -0.202283 0.454231 0.0541109 -0.127004 -0.221365 -0.156227 0.0865032 0.356981 -0.0969705 0.629027 -0.85817 -0.0906947 -0.467379 0.0190484 -0.386864 0.322089 0.741889 0.292389 -0.143393 0.448084 0.217893 -0.702178 -0.116976 0.0193642 -0.35381 0.483564 0.147731 -1.0878 0.511537 0.302124 -0.637186 0.239181 0.0083418 -0.588911 -0.562837 0.213355 0.0765713 0.678221 0.614936 -0.216181 -0.0435691 0.360125 -0.181966 0.493798 0.0380423 -0.0597215 -0.779017 0.401178 0.330251 0.944969 -0.285394 -0.544752 -0.4326 -0.160512 0.604074 0.0513795 -0.13396 -0.444838 -0.064243 0.497456 0.0556816 0.532026 -0.717555 0.54695 0.301755 -0.0826576 0.627411 -0.44817 -0.751996 0.457184 -0.805656 -0.178901 0.0438469 -0.147897 -0.185453 -0.651898 0.730144 0.083792 1.44016 -0.780528 0.929073 -0.14782 -0.340684 0.167905 0.39356 0.225849 
0.100301 -0.286802 -0.0323079 -0.444434 0.135133 -0.415403 -0.372155 0.88762 -0.461959 0.31664 0.0415604 0.279781 0.000508923 0.242005 -0.202555 -0.0934568 0.0394528 -0.665646 -0.0854989 0.293445 -0.608207 0.520237 1.25574 -0.211552 -0.229874 0.216388 -0.0784684 0.729842 0.731191 -0.513044 -0.0971604 -0.654429 -0.505103 0.429476 0.15176 0.513436 0.677413 -0.242456 0.147899 0.454932 0.0612139 0.150273 -0.789693 0.248235 0.438867 0.207845 -0.894963 -0.37444 -0.247951 -0.202384 -0.507758 0.360102 0.114069 -0.0961221 0.0869241 0.114156 -0.42419 0.536607 -0.516263 0.146689 -0.285897 -0.144711 -0.0706457 -0.731111 0.623094 -0.672564 0.138674 0.130266 0.645348 -0.239736 0.399041 0.539311 0.922056 -0.161591 0.238624 0.0583556 -0.0656957 -0.0986346 0.0404623 -1.28469 -0.139826 -0.229395 0.154654 -0.151384 0.520318 0.914135 -0.0688363 0.734762 -0.0518848 -0.00347243 0.0183689 -0.127284 0.25922 -0.312494 0.648841 -0.0649836 
0.335626 -0.794816 -0.231318 0.0439494 0.509424 -0.35688 -0.0590952 0.224587 -0.204851 0.376422 -0.194195 -0.459933 -0.356928 -0.111591 0.0331892 -0.0514654 0.85881 0.335898 0.501314 -0.446482 -0.60823 -0.0108402 0.565344 0.397345 -0.404342 -0.0321349 0.770254 -0.445751 0.741812 -0.459142 -0.00430753 0.613666 -0.0824877 0.170122 -0.409691 0.112933 0.541902 -0.664566 0.119656 0.213701 0.0848424 -0.74756 -0.847316 0.0892786 0.0231606 0.247208 -0.44919 0.0597906 -0.217256 -0.260759 0.707939 -0.333706 -0.313583 -0.748202 0.328199 0.283141 0.10481 0.270724 0.584203 -0.0128932 -0.29079 1.03642 0.00199954 -0.234286 0.428471 -0.137113 -0.10729 -0.0165764 -0.059471 -0.5341 0.124769 -0.697694 0.148906 -0.110003 -0.358789 0.481053 0.0378481 -0.0763846 0.489372 0.190194 -0.957833 0.462917 0.386437 0.144513 0.422561 0.385183 0.0540627 -0.125121 0.265463 0.349959 0.424605 -0.471219 -0.017635 0.540966 -0.27619 0.246014 
-0.1134 -0.474966 -0.268756 -0.572762 0.198629 -0.720075 0.0312745 -0.429242 -0.310391 -0.121235 0.128404 0.319825 0.494509 -0.25656 0.307333 -0.0104632 0.771029 0.0305772 -0.623924 -0.433347 0.262533 0.289317 0.426626 0.759079 -0.100662 0.483121 0.440124 0.0623438 -0.1171 -0.818724 -0.507866 0.335926 0.848178 -0.342881 -0.195709 -0.768021 0.500732 0.120188 -0.642494 0.450355 0.157827 -0.362147 1.11031 0.230463 -0.597121 0.176888 -0.391871 0.233486 0.800809 -0.423729 -0.00364425 0.284362 -0.117587 0.129666 0.488427 0.552072 -0.4443 0.998707 0.0242002 -0.548921 -0.655494 -0.620303 0.101712 -0.428797 0.463455 -0.241281 -0.262281 0.574622 0.0807279 0.321393 -0.508586 -0.0282172 -0.294166 -0.35919 0.851615 -0.0518463 0.368191 -0.286453 1.09132 0.41088 0.948505 -0.412366 0.307705 -0.024884 -0.803167 0.875264 0.0375531 0.0443288 -0.00266215 0.103126 -0.445509 -0.370828 0.159851 0.881664 0.284139 0.17251 
0.394425 0.0274985 -0.113245 0.398305 -0.276669 0.871491 0.21181 -0.516148 0.492534 0.411838 -0.344562 -0.29461 0.347982 0.415642 0.102236 0.118557 0.337317 0.297014 -0.00804565 0.617147 -0.640624 0.804018 -0.0167888 0.0533624 -0.212012 0.158284 -0.0863348 -0.0434351 -0.0132853 -0.78745 0.145337 -0.109093 0.749174 0.42018 0.949468 -0.0561036 -0.583537 -0.225183 -0.138001 -0.264949 -0.292221 -0.062094 0.454902 0.336335 -0.0316924 -0.178861 0.487587 -0.284368 -0.191223 -0.173096 0.308656 0.853557 -0.0127685 -0.593033 -0.0604968 0.346121 -0.14267 0.0538183 -0.952939 0.0706798 1.24257 -1.09283 0.217064 0.097373 0.0858745 -0.621992 0.0232559 -0.28748 -0.25043 0.783066 -0.0133561 -0.557988 0.0480658 0.185148 0.353891 -0.696518 -0.2893 0.449244 -0.318036 0.0159396 0.0793628 -0.247088 -0.303923 -1.38638 -0.440391 -0.542107 -0.116884 0.221095 -0.511108 0.513336 -0.120456 0.973912 0.870209 0.406318 -0.0386814 -0.641551 
-0.413054 0.199885 -0.227936 -0.318689 0.432522 -0.190075 -0.0396677 -0.167546 0.221867 -0.575563 -0.017201 -0.751051 -1.04476 -0.374326 -0.36634 0.249582 -0.551172 0.0967992 0.3368 -0.530114 -0.0140445 -0.0760923 0.411549 -0.419969 -0.616961 0.687694 0.60225 0.621208 0.324288 0.362897 0.747762 0.79813 -1.07664 0.0161256 0.647763 0.181051 0.205546 0.123487 0.421623 -0.311718 0.139892 -0.171855 0.0408691 0.359708 -0.0639775 0.718198 -0.269946 -0.27216 -0.512546 -0.21799 0.0433323 -0.210822 0.336393 0.20123 -0.601822 -0.347999 -0.268889 -0.0843919 -0.215115 -0.147682 0.230764 -0.169739 -0.586644 -0.451432 -0.109137 -0.210139 -0.520911 -0.155773 -0.145493 0.113938 0.00831676 -0.369059 -0.318305 -0.0909296 -0.312425 0.753309 0.561519 -0.644461 -0.510595 0.568566 -0.369046 -0.265541 0.0907058 -0.361485 0.387455 -0.478266 -0.00401008 -0.449468 -0.322832 0.44628 -0.395695 0.212402 -0.170639 0.303685 0.195053 -0.478174 
-0.226982 -0.10029 0.264628 0.0818968 -0.322885 -0.353672 0.600846 -0.580725 -0.410121 -0.318814 -0.404257 0.116913 0.201462 0.119043 0.211364 0.410325 0.222596 0.338731 0.134959 0.0245569 -0.00896684 0.81988 -0.0509195 -0.717111 0.16187 -0.426222 -0.085394 0.420776 0.0534387 -0.287401 -0.301737 -0.360483 0.406874 -0.226697 0.32182 0.593628 -0.119313 -0.130391 -0.261936 0.0610998 -0.474473 -0.181115 -0.0428723 0.586799 0.304702 -0.526854 -0.335395 0.165777 -0.484509 -0.58259 0.151778 -0.0841702 0.601502 -0.609635 0.491035 0.158172 -0.57102 -0.609466 -0.406932 -0.747081 -0.240116 0.0774676 0.343793 0.516622 -1.05414 -1.29607 -0.525037 -0.282303 -0.306522 -0.128777 -0.455101 0.713164 -0.971892 -0.0786057 0.113858 0.098879 -0.0588223 0.147236 0.0215673 0.438553 0.477718 0.129858 0.225715 -0.245628 0.702895 0.112857 0.485721 0.203434 -0.251096 0.133553 -0.83424 0.544349 -0.838534 -0.122737 0.674184 -0.393963 
0.712999 0.182911 -0.741596 -0.611266 -0.21114 -0.236331 -0.0303477 0.395811 -0.29235 -0.00656715 -0.182552 -0.0496802 0.0792173 -0.191483 -0.377362 0.168095 -0.443071 0.342345 -0.0725647 0.0491515 -0.0558887 0.650268 0.280386 -0.144094 0.875091 0.691716 0.587755 -0.243188 -0.943094 0.0578542 0.0172966 0.163316 0.288063 -0.416243 -0.37219 0.512206 -0.448923 0.14303 -0.109107 -0.315511 -0.203311 -0.791304 0.469614 0.705316 0.91246 -0.324006 0.443949 -0.16474 -0.397027 0.192681 -0.278057 -0.017576 -0.174817 -0.770297 -0.566001 -0.522232 -0.187861 -0.0496152 0.329861 -0.35292 0.246199 0.446075 0.0580585 -0.840098 -0.216668 0.17617 0.807699 0.186383 0.231913 -0.00930212 0.632674 0.686985 -0.243743 0.274078 -0.600694 0.0505823 0.0591427 0.27329 0.449714 -0.433174 0.408343 0.12891 0.277678 -0.497463 0.0506826 0.114148 -0.210391 -0.607556 0.18878 -0.00676786 -0.320135 0.0352967 0.908031 -1.13459 0.341716 -0.506712 
0.326145 0.4645 -0.103559 0.510382 0.240731 -0.1722 -0.31081 0.485986 0.863966 -0.134955 0.0600801 -0.263469 0.144599 0.0169025 -0.269829 -0.437566 -0.544423 0.809907 0.367301 0.687156 -0.0792291 0.437479 0.429465 0.270312 -0.0384554 -0.0290618 -0.54216 0.327943 0.164297 -0.521524 0.386826 0.969605 -0.137901 -0.0444574 0.843791 0.362197 0.235272 0.498599 -0.0591071 0.173036 -0.062297 0.0864444 -0.0419091 0.688286 0.819456 0.317274 -0.291724 0.182331 0.354376 0.942013 0.630799 0.131593 -0.0669791 0.40687 -0.365126 0.34854 -0.950922 -0.618644 0.374879 -0.398429 0.337067 0.265518 -0.641284 -0.472942 0.862063 0.000918816 1.15342 0.657317 -0.167205 -0.586093 0.134182 0.00603868 -0.0538906 0.734521 0.0598172 0.565741 0.164804 -0.0830685 0.188346 0.368623 0.321243 0.060688 0.00115112 -0.152144 0.294726 -0.222078 -0.10259 -0.580506 0.537101 -0.820878 0.2092 -0.224389 0.372606 -0.175626 0.0641071 0.376115 
0.39045 0.133344 -0.521391 0.921663 0.0702833 -0.101178 0.474242 -0.0928804 0.149023 -0.782831 0.433452 -0.117793 -0.0714186 -0.292073 0.465306 0.0367376 -0.505538 -0.548167 -0.164314 0.111325 -0.234253 0.217756 -1.04242 0.0559827 0.624003 -0.582665 0.0827646 0.00213896 0.321072 0.860312 -0.741618 -0.148319 0.040211 0.10288 0.368381 0.397836 0.339998 -0.466821 -0.13288 0.0352736 0.875678 -0.262845 0.823506 -0.510253 -0.228699 0.989772 0.713087 -0.14819 -0.354362 1.34055 0.19093 -0.0396575 0.0955953 0.430598 0.41457 0.131994 -0.44519 -0.87947 -0.517275 -0.292897 0.227141 0.0799176 0.175411 0.0340686 -0.351112 -0.208307 -0.158535 -0.523756 -0.323836 0.235264 -0.109782 -0.625788 0.470943 0.0797501 0.217395 0.485208 0.28743 -0.20848 -0.151105 0.709779 0.199162 -0.038452 0.426335 0.266485 -0.569941 0.0426149 -0.043594 -0.132228 -0.0701989 -0.143276 -0.51778 -0.149211 -0.00231456 -0.364859 0.302432 0.31341 
-0.721098 -0.158767 0.199577 -0.0656169 0.307951 0.0803679 0.257788 0.179884 -0.433186 0.0748432 0.506186 -0.418098 0.143227 0.61796 -0.0277021 0.544634 -0.326712 0.0660289 -0.124157 -0.643762 -0.205227 0.348036 -0.0396816 -0.877925 0.178912 0.821032 -0.387346 -0.468237 0.292309 0.412438 0.852589 0.517696 -0.760312 0.901889 -0.0885831 0.567153 -0.471786 0.460035 -0.962499 -0.499891 0.212528 -0.464382 0.479074 -0.927722 -0.212974 0.0658446 -0.39481 0.329117 0.357008 -0.522287 0.143801 0.437508 0.612503 -0.368351 0.117769 -0.121365 0.302209 -0.43007 0.570353 -0.213049 -0.19119 0.279383 0.0524819 0.515462 -0.409268 0.32431 0.377401 0.00830414 -0.384747 0.62307 0.371136 0.679838 0.140248 -0.180127 -0.66452 0.121041 0.184806 0.00384927 0.315515 0.034912 0.122975 0.44698 -0.205881 -0.0258308 0.12678 0.587856 0.0576934 0.512345 0.088764 -0.42994 0.655661 -0.092246 -0.249224 0.445154 0.223657 -1.01744 
-0.265329 -0.0132783 0.35615 -0.442896 0.390851 -0.662014 -0.0197025 -0.0215241 0.00147491 -0.616315 -0.162211 0.798644 0.416379 -0.345949 0.394157 -0.574587 -0.143768 -0.298306 -0.804175 0.357686 0.0232457 -0.601312 -0.256522 -0.52683 -0.095721 -0.429891 -0.531587 0.209729 0.161479 -0.184205 0.911775 -0.619168 -0.263303 -0.0994921 -0.815261 0.250402 0.911104 -0.306798 0.313389 -0.692752 0.40663 -0.836284 0.308569 -0.0975429 -0.757227 -0.0312608 0.919756 -0.162193 -0.0998061 0.392213 -1.5299 -0.391106 -0.351305 0.529819 0.430316 -0.30566 0.228065 0.037532 -0.520993 -0.179718 -0.226983 0.770021 -0.304539 -0.0377373 0.628994 -0.233993 -0.709239 0.224296 0.406227 0.735737 0.0621925 0.405545 0.405689 0.542502 -0.510578 0.399823 0.373092 0.291399 -0.527649 0.409822 -0.305564 -0.466733 0.0441293 -0.0554975 -0.137413 -0.0536032 -0.253749 0.564287 -0.743642 -0.367187 -0.542452 -0.668804 -0.0196139 -0.415958 -0.0782285 0.439441 
0.207331 -0.0394776 -0.844635 0.482595 0.393291 0.950781 0.441648 0.224346 -0.0356251 -0.0579664 0.00294271 0.136159 0.173278 0.749458 -0.264774 0.614651 -0.241789 0.295649 -0.151244 0.350232 0.153363 -0.203181 -0.0563523 0.37367 -0.427261 -0.0642274 -0.315385 0.77811 0.512466 0.169779 0.821914 0.576404 -0.0806244 -0.293248 0.725867 -0.115388 -0.492017 0.391709 0.823847 -0.0619528 -0.340241 0.317204 0.0903847 0.690302 0.105251 -0.8558 0.103559 0.297454 0.691916 -0.155904 0.124494 0.225106 0.575288 0.345776 -0.399134 -0.118842 -0.519109 -0.318443 0.468518 -0.280206 -0.281448 -0.30485 -0.173099 0.609441 -0.629632 -0.0189415 -0.967855 0.591051 -0.717029 0.676161 0.115609 0.144471 0.45616 0.2699 -1.16862 0.627629 -0.504747 0.0018736 -0.30211 -0.688987 -0.484586 -0.00590356 -0.171147 0.603667 0.00402999 -0.534573 0.500385 0.203438 0.260022 0.681644 -0.282966 -0.0807818 -0.268652 -0.108817 -0.145501 -0.18598 
-0.201313 -0.627685 0.0430161 -0.424074 -0.027927 -0.147959 -0.40352 0.00564808 0.215813 -0.133075 -0.314427 -0.605533 0.526619 -0.345298 0.273863 -0.00875373 -0.498677 -0.264976 -0.24543 -0.0790581 -0.744205 -0.0825274 -0.477571 -0.170033 -0.206477 -0.858213 -0.165835 0.00758102 -1.01697 0.622893 -0.283015 0.12471 0.347694 0.0393912 0.676757 -0.984368 0.073247 0.115174 1.02007 0.818209 -0.478665 0.411953 0.218159 0.209411 -0.0751576 -0.493284 0.108298 -0.56858 0.324181 0.223122 0.748614 -0.774244 0.873412 -0.102851 -0.239354 0.35432 0.349988 -0.762832 -0.59142 -0.949775 -0.173959 -0.366413 -0.555847 0.297855 -0.55576 0.271166 0.348482 -0.561923 -0.871887 0.328646 0.0966113 0.254409 0.240661 0.0546464 0.395247 0.358084 -0.328658 0.366159 0.166565 0.841667 -0.0801682 0.019684 0.109474 0.129329 -1.10168 0.397275 -0.0375609 -0.423131 0.115159 -0.170382 1.23111 0.487754 0.924248 -0.233223 -0.240893 -0.215114 
0.493533 -0.218449 0.487938 -0.509343 0.206303 -0.73913 -0.566927 0.174949 -0.0191 0.718569 0.35559 -0.0131194 0.57719 -0.628407 0.794034 0.155042 -0.612057 -0.185636 -0.32913 0.0497574 0.214979 0.36414 -0.310682 -0.689573 0.179684 -0.00212548 -0.383912 -0.817027 0.0408975 -0.670051 0.0617584 -0.0640515 -0.688934 -0.117432 -1.22561 -0.270332 0.416502 0.244265 -1.20463 -0.0547161 0.435378 0.0539295 -0.0997271 -0.318821 0.332771 -0.104099 0.596889 0.096689 1.03324 -0.390786 0.172 0.649945 1.1024 0.208311 0.100352 -0.535293 -0.330722 -0.292425 -0.0481756 0.0414704 -0.218579 -0.238603 -0.131372 -0.495387 -0.0358932 -0.603303 -0.335001 0.934565 -0.333954 -0.20125 -0.250394 -0.641201 0.123061 -0.223132 0.74161 -0.26871 0.3418 -0.297226 0.532956 0.240586 0.0111496 0.329239 -0.159251 -0.550702 -0.525967 0.267479 1.01878 0.0646856 -0.626333 0.790538 -0.476947 0.384719 -0.20324 0.440176 0.145269 0.521706 
-0.346011 -0.234114 -0.128396 0.236057 -0.54035 0.112649 -0.345634 -0.318618 -0.213926 -0.889513 -0.0577557 0.404169 0.0818404 0.621023 0.322509 0.41044 0.142773 0.474529 0.586368 0.171949 -0.602992 0.714891 -0.357584 -0.158359 0.283158 -0.0601946 -0.504518 -0.383054 0.591413 -0.497239 -0.159945 -0.554482 -0.231889 0.243379 0.380774 -0.518089 -0.771341 0.540509 -0.540168 0.659586 0.192762 0.2177 0.17964 -0.0641133 -0.0193979 -0.728812 -0.548239 0.204244 -0.00940227 0.826604 -0.0236467 0.572299 0.0233255 0.526417 0.144409 -0.215774 0.513118 -0.468739 -0.0731856 0.441209 -0.818896 -0.170333 0.140783 0.825284 0.0870981 -0.0496987 0.00457424 -0.386817 0.609805 0.099944 0.515853 -0.900379 0.0596463 -0.370081 -0.276889 -0.603378 0.78795 -0.692183 0.0901292 0.228903 0.00609531 0.425139 -0.599581 -0.330354 0.339683 0.151631 0.362808 -0.0714217 -0.817568 0.164733 -0.53605 0.8346 -0.894343 0.505412 0.374241 -0.261003 
-0.451891 0.152989 0.431083 -0.505798 0.101172 -0.065452 0.372773 0.579571 0.436666 -0.524536 -0.0192089 -0.389229 0.201796 -0.0238691 0.0248577 -0.092307 0.200283 -0.708485 0.0165105 -0.113648 -0.882773 0.160877 0.341984 0.654474 0.130122 0.43457 -0.32214 0.0307304 0.53789 -0.21506 -0.563502 -0.310886 0.12741 -0.147368 -0.0368618 -0.119542 -0.327126 0.616501 0.11354 -0.11742 -0.028901 0.307649 0.23705 0.709591 0.150813 -0.0199941 -0.913449 -0.247921 -0.0916022 -0.0618121 0.184627 0.120869 -0.585038 0.451976 -0.0953804 0.313926 -0.054323 0.133407 -0.593286 0.209831 -0.890932 -1.29864 -0.104127 0.526045 -0.229034 -0.0955853 0.336491 0.0762465 0.195346 -0.791677 0.267314 0.223451 -0.188145 0.0159675 -0.263342 -0.0503299 0.149909 0.113111 0.165061 0.505047 0.565504 -0.399707 0.188702 0.101539 -0.58546 -0.132741 -0.118727 -0.221178 0.403322 -0.11071 -0.342733 -0.475424 -0.4007 -0.0792206 -0.76466 -0.572321 
-0.280445 0.0201938 0.456771 0.270222 0.502487 0.447265 -0.435984 0.559245 0.670263 0.565836 0.0562064 0.592883 -0.355547 -1.61348 -0.0952856 0.439163 0.381688 0.200134 0.151745 0.237627 -0.735977 -0.478149 -0.396148 0.0410223 0.564695 -0.150261 -0.11181 -0.154485 -0.437515 0.501648 -0.712393 -0.589046 -0.0377447 -0.406415 0.0560159 -0.0621845 0.544052 -0.681151 0.72501 -0.366665 0.0651401 0.432008 -0.0888415 0.317757 -0.397488 -0.124179 0.374949 0.081109 -0.0815852 0.10315 -0.370209 0.263476 0.105361 -0.3379 -0.10337 -0.254495 -0.652073 -0.142839 -0.60079 0.108428 0.31897 0.437834 0.0394133 0.486651 0.534142 -0.434793 -0.265622 -0.0320581 -0.91268 -0.772661 -0.215429 -0.330845 -0.731858 0.174843 -0.0643647 -0.754709 0.40144 -0.0906593 1.13297 0.149655 -0.0375141 -0.0640523 0.265725 0.189798 0.701676 0.0303296 -0.443652 -0.0651472 -0.236973 -0.339898 0.24497 -0.920647 0.61853 0.110555 -0.000596801 0.260061 
-0.680658 0.344104 0.232303 0.264436 -0.464906 -0.506897 -0.0360252 0.341337 -0.462138 0.0222657 0.564867 0.0772278 -0.133689 0.189312 0.117826 -0.186026 0.87221 0.462125 -0.086003 -0.246995 0.0825791 0.048429 -0.0537269 -0.540059 -0.291009 -0.17468 0.527603 -0.237956 -0.104771 -0.35889 0.221895 0.505724 -0.118484 -0.598085 -0.399664 -0.253603 -0.786508 0.011536 0.0590355 -0.0233822 -0.776233 -0.542036 0.15405 -0.139554 -0.953002 0.321135 0.254128 -0.837017 -0.483211 0.235542 -0.141296 -0.15872 -0.607501 -0.175825 -0.609113 0.0921282 0.22939 -0.458042 -0.513427 0.100728 1.27 0.986958 1.2979 0.0468909 0.15712 -0.463069 -0.0590617 0.262545 -0.161024 0.429198 -0.104925 0.145806 0.400037 0.0514572 0.380467 -0.471802 0.0761144 -0.151264 -0.404353 0.335584 0.895032 0.734534 -0.219831 -0.563151 0.1642 -0.57864 -0.124742 -0.331672 0.360133 -0.625826 -0.396858 -0.401472 0.443366 0.720881 0.136737 -0.219922 
0.0468495 0.264265 0.501582 -0.0195518 -0.167606 0.051225 0.627665 0.0153922 0.063901 0.492171 0.130723 0.142723 0.0644208 0.739365 -0.00302222 0.135834 0.234121 0.282803 0.359164 0.120741 0.247135 0.320273 -0.645681 0.00561573 0.194897 -0.571593 -0.615428 0.0395233 0.14777 -0.559008 -0.221261 -0.26238 0.454851 0.241538 0.610058 0.503792 0.504686 0.0644729 -0.840252 0.247183 0.510403 0.0107995 -0.33363 0.573849 -0.609444 -0.387082 -0.122317 -0.411953 -0.17329 -0.347792 -0.143022 0.0741425 0.686162 -0.640257 -0.333053 0.066687 0.743306 0.0952721 0.0370854 0.0826992 -0.227077 0.128738 -0.099285 -0.581258 -0.359443 0.183006 -0.146945 -0.422124 -0.122401 0.310017 0.040531 0.0484766 -0.254825 0.171809 0.333379 0.350391 -0.172186 -0.335711 -0.49994 -0.824504 -0.278411 0.0149038 -0.429105 -0.126839 -0.115074 0.10748 -0.555195 0.118614 -0.405978 -0.770136 -0.54032 -0.18405 0.0316714 0.00349624 0.464087 -0.101747 
0.135421 0.58366 0.523086 -0.49158 -0.254476 0.919201 -0.410717 -0.0478783 0.0828101 0.363478 0.580673 0.199388 -0.534728 0.130705 0.130017 -0.434034 -0.00767409 -0.00242428 0.218862 0.038479 0.0560429 0.431729 -0.236371 -0.29599 0.0729764 0.211134 0.400844 -0.19321 -0.0924666 0.602302 -0.466735 0.338271 0.0319415 0.131377 0.262041 -0.299678 -0.691052 -0.177711 1.27502 -0.179753 0.351684 0.00811291 -0.864789 -0.555509 -0.768604 0.255231 -0.675291 -0.173464 -0.302405 0.155224 0.294512 0.113235 0.329648 -0.861603 0.335171 -1.17587 0.0798352 0.0997512 -0.138838 -0.73431 -0.0426096 0.106571 -0.364678 -0.0443217 -0.322432 0.1171 0.078223 0.0102104 0.21166 0.272134 0.746894 -0.170843 -0.215892 -0.00313335 0.0981009 -0.123989 -0.378843 -0.110774 0.329199 0.362047 -0.0795815 0.0269402 0.349313 -0.516249 1.08854 -0.509913 0.322925 -0.567241 -0.843996 0.141654 -0.281298 -0.159175 -0.777414 0.50056 0.0851878 -1.00541 
-0.00353805 -0.373077 -0.489404 -0.436011 -0.267477 0.0404723 -0.446248 0.76004 -0.393147 0.0258104 -0.21873 -0.719645 -0.395023 0.120341 1.08027 -0.55561 -0.0195323 0.360501 -0.19634 0.120401 -0.572784 0.252125 0.00516758 -1.19456 -1.24463 -0.217589 0.277253 0.317837 0.127545 -0.128283 -0.0561128 -0.0815846 0.0569864 0.38921 0.341883 -1.17532 0.156632 0.748113 0.490062 -0.558318 0.0187634 0.391428 -0.070409 -0.356451 -0.332255 0.411309 -0.568179 0.121918 -0.196704 -0.241157 0.422017 -0.340631 -0.310691 1.39426 -0.0483251 0.358722 -0.294358 -0.255014 -0.208991 0.186186 0.240817 -0.089147 -0.213597 -0.372379 0.241372 -0.121795 -0.0623312 -0.170675 0.490509 -0.144434 -0.195264 -0.747564 -0.611207 0.782286 0.0538069 0.26255 0.298047 -0.0146886 0.510183 0.274773 -0.624913 0.352035 0.549471 0.0311157 -0.154198 -0.715133 0.396755 0.22583 0.147033 -0.366399 -0.207984 0.0003041 0.236037 0.136607 -0.226314 0.350154 
0.192332 0.887382 -0.66424 -0.27263 -0.626393 -0.591895 0.108607 -0.06081 -0.632191 0.393238 0.302707 0.0532134 0.449972 0.873481 0.5358 0.232982 -0.770822 -0.0646229 0.140567 0.358923 -0.508496 -0.104053 0.178109 0.607467 0.447275 -0.702746 0.218253 -0.145801 0.416057 0.184114 0.0162034 0.871546 0.157768 -0.139425 -0.031731 -0.0379636 -0.470375 -0.2254 -0.21472 -0.0892135 -0.085566 -0.0165551 -0.0582601 -0.208776 0.800942 -0.411702 -0.224638 -0.302472 -0.580893 0.499673 -0.880154 -0.472104 -0.0665546 -0.328461 -0.399831 -0.0179626 0.498261 0.598551 0.141757 0.060814 0.6168 -0.780749 -0.369846 -0.592157 -0.497471 0.620758 -0.733958 -0.292477 0.348994 0.0643104 0.349274 0.836219 0.178332 -0.614677 0.92245 0.954242 0.0390809 -0.287337 0.636359 -0.301998 0.128285 0.779857 -0.449738 0.480418 -0.624951 -0.175772 0.437433 -0.186294 0.377568 0.269563 0.105257 0.0583178 0.541818 -0.119108 -0.561121 0.423831 
-0.146307 0.0348622 -0.0668314 0.138005 -0.757239 0.00740698 -0.124092 0.390989 -0.924514 0.0834491 -0.0538134 0.628954 0.967952 0.326255 0.0552126 0.622748 -1.02419 0.412711 -0.199371 -0.118581 -0.138071 -0.17442 1.15013 0.285434 -0.29711 0.040502 -0.174883 -0.0339851 -0.316979 -0.388354 0.192458 -0.737623 0.0636075 -0.251686 -0.54437 -0.538023 0.331821 -0.175606 -0.464469 -0.168863 -0.13557 -0.387343 0.0144231 0.255357 0.561268 -0.117761 -0.312228 0.877041 -0.247718 -0.310474 -0.435743 -0.472477 0.00947375 -0.0660376 0.0622091 -0.15683 -0.299877 -0.15987 -0.470717 1.44635 0.000541175 0.0415581 -0.0254846 0.169821 1.05312 -0.211493 -0.0474054 0.340961 0.111516 0.172672 0.28694 0.523372 0.321682 0.51315 0.430657 0.113744 -0.46479 -0.424569 0.458111 0.30286 0.0846475 0.0619347 -0.229921 -0.508273 0.241606 -0.398136 -0.0957666 -0.356725 0.0561385 -0.138846 -0.202615 0.869901 0.717493 -0.245897 -0.331479 -0.680872 
0.534078 -0.0850914 0.207775 -0.391765 0.291707 0.162274 0.355749 0.0636412 0.142413 0.118302 -0.755238 -0.210302 -0.645196 -0.55341 0.880799 -0.262328 -0.296019 0.504151 0.183536 -0.384423 0.189864 0.133347 0.429837 -0.221969 0.0452284 0.0432775 0.478985 0.00164091 -0.683044 -0.276279 0.17658 0.612376 -0.712273 -0.540413 0.827907 -0.0485272 -0.192171 -0.207168 -0.0755281 0.193204 -0.38788 0.131341 5.69199e-05 0.938022 0.047514 0.325853 -0.726213 -0.113327 0.724594 0.0317674 -0.0921037 0.428149 -0.08818 -0.46593 -0.166963 -1.18486 0.149117 0.162708 0.203437 -0.341939 0.00284754 -0.114379 0.63749 -0.164506 0.0470912 0.955797 0.536036 -0.464521 0.186106 0.0981148 0.230148 -0.118948 0.405376 0.305824 1.05832 0.751572 0.223185 -0.11966 0.212161 -0.0544461 -0.030388 -0.653493 0.253182 0.345241 -0.132878 0.420155 0.268024 -0.068864 -0.10617 0.241048 0.270519 0.56938 -0.832979 -0.270264 -0.0344653 -0.27197 
0.212154 0.808863 -0.0882706 -0.156983 -0.579776 -0.201103 0.235232 -0.703969 0.472562 -0.159407 -0.418746 0.540895 0.524193 0.308672 -0.04961 0.347601 -0.551046 0.330255 0.128996 0.511788 -0.153404 -0.183498 -0.135014 -0.844437 0.110333 -0.371116 0.185649 -0.453782 0.467775 0.431462 0.397604 -0.257101 0.32942 0.144909 -0.0662404 -0.161845 0.612904 -0.129853 -0.54287 -0.423493 -0.71626 -0.106939 0.234344 0.0030338 0.362728 -0.0587107 -0.0235412 0.119996 -0.461462 -0.582413 0.0448962 0.0183983 -0.402563 0.268345 -0.0144462 -0.286191 -0.103241 0.0536222 -0.339042 0.663128 -0.0988774 -0.734206 0.129032 -0.214119 -0.704408 0.583321 -1.41639 -0.760127 0.464112 -0.687217 -0.43573 0.461033 -0.174753 0.553356 -0.558142 0.597159 -0.28304 0.284617 0.41172 0.0836917 0.138927 0.158686 -0.166447 0.548843 0.400292 -0.0745252 -0.00523985 0.906026 0.34017 0.348235 0.388031 -0.0499409 -0.117211 0.561768 -0.128493 0.352244 
0.250534 0.166339 0.136683 0.429068 -0.32341 0.442679 -0.225789 -0.737152 -0.893633 0.372993 -1.09876 0.341926 -0.152469 0.5563 0.771551 0.18045 0.896129 1.2393 0.324321 0.659377 0.182741 0.086903 -0.133393 0.241337 -0.320694 -0.232765 -0.372914 -0.0968948 0.193509 0.765423 -0.274977 -0.0171726 -0.306399 0.936726 0.45596 0.839395 0.248279 0.0365606 -0.350271 0.511206 0.273052 0.0429519 -0.198705 -0.581121 0.477129 0.149169 0.0122037 6.97403e-05 -0.519826 0.0539307 0.56641 -0.593832 -0.243745 0.499884 0.111131 -0.262245 0.786171 -0.831075 -0.56017 0.618847 -0.0151962 0.226609 -0.567774 -0.627065 0.120564 0.563987 0.0259566 -0.170008 0.0351434 -1.03176 0.1796 -0.370169 0.089642 -0.548227 0.137598 -0.222483 0.0433985 0.581232 -0.540634 -0.0142199 0.528545 -0.289193 0.690105 -0.157264 -0.104709 -0.193242 0.0296107 -0.358774 0.753781 0.507382 -0.0775745 -0.759927 0.348271 0.228892 0.726356 -0.46762 
-0.470121 0.0705167 0.0783013 -0.0996727 -0.401268 -0.167503 -0.470634 -0.110168 0.622367 0.162452 -0.450043 -0.101514 -0.0812668 -0.337213 -0.362735 0.330409 0.0101352 0.145069 0.569551 -0.00241235 0.0317112 0.533955 -0.12676 0.155596 -0.615469 0.738703 0.664314 -0.306737 0.0495799 0.275642 -0.193652 0.579733 -0.410323 0.236023 -0.0620416 0.410182 0.174951 -0.16076 1.38018 0.488627 -0.218264 -0.503319 -0.181545 -0.485931 -0.481248 0.064008 -0.477816 0.317919 0.40485 1.17638 -0.0421426 -1.02601 -0.583097 0.58003 -0.324861 0.79535 0.566972 0.323651 0.569133 -0.381618 -0.759128 0.173801 -0.0631854 -0.638049 0.183006 -0.920178 0.120428 0.416736 -0.28788 -0.498299 0.620176 0.342063 -0.505142 0.639088 0.696393 -0.185257 0.531437 -0.252805 0.626872 -0.190175 -0.268395 -0.339512 -0.220938 -0.225193 0.0338798 -0.0646644 0.876188 0.39357 -0.168681 -0.573505 -0.342662 0.609263 -0.491508 0.532628 -0.104999 0.408289 
-0.445919 0.708918 -0.808855 0.162173 -0.306828 -0.306952 -0.0894346 0.228091 0.166506 -0.0127724 -0.142111 -0.930894 -0.282234 -0.756239 0.408392 0.00331405 -0.0644246 -0.130427 0.0365191 -0.125918 0.126202 0.240106 -0.830425 0.449507 0.750974 -0.670308 0.172443 -0.138976 -0.0430206 -0.247658 0.207813 -0.402175 -0.176941 0.629213 -0.494228 -0.0457142 -0.241159 -0.388522 0.076038 0.487468 0.169713 0.621561 0.239576 -0.00664979 -1.34074 0.111302 0.591952 0.473152 -0.507044 0.128604 -0.092335 0.854714 -0.254078 0.755855 0.567046 0.227897 0.465616 0.598111 -0.305201 0.162508 -0.278614 0.100365 -0.0337844 0.687631 0.859498 -0.218008 0.0172182 -0.336644 0.254966 0.424014 0.0391821 -0.0744423 0.497968 -0.500303 0.239347 0.830688 -0.229232 -0.162511 0.119114 0.468828 0.0369827 -0.632519 -0.118278 0.553748 0.366134 -0.568203 -0.634885 -0.703232 0.424453 0.0812604 -0.0346974 1.11089 -0.0664727 0.147796 -0.504279 -0.458298 
0.221912 -0.824787 -0.192778 -0.0606293 -0.0870652 -0.323112 -0.330303 0.972829 0.463806 -0.150625 0.465662 -0.118143 -1.14617 -0.194429 -0.0234282 0.0218433 -0.0876728 -0.112488 -0.41194 -0.308792 -0.403736 -0.566515 -0.363067 -0.347647 0.189968 -0.756821 -0.662793 0.533413 1.23357 -0.273533 -1.00978 0.296345 0.16942 0.188977 -0.412177 -0.539679 -0.597108 -0.868067 -0.0731403 -0.550661 0.5429 -0.0679399 -0.418896 0.426931 -0.911513 -0.833272 -0.101299 0.0518733 -0.114534 -0.41565 0.818452 -0.554042 0.0353778 0.482604 0.419413 0.610729 0.418435 0.320175 0.0442671 -0.329566 0.212712 0.310211 -0.313258 0.251491 0.85129 -0.298901 -0.3251 -0.288015 0.0891438 -0.45333 -0.163575 0.163547 -0.133109 0.331324 -0.235749 -0.986366 0.198666 0.30674 -0.156183 0.248637 -0.835377 0.208267 0.220535 -0.945628 -0.389709 -0.0606433 -0.542739 0.774366 0.334322 -0.495632 -0.210709 -0.380932 0.0222725 -0.0521176 0.140464 0.392258 
0.437665 0.265608 0.00850554 -0.0892502 0.792518 -0.0516766 -0.558373 -0.10612 -0.84029 0.0891524 0.135185 0.0559766 0.504277 -0.237731 -0.0952459 0.832098 0.00701168 0.0378743 -0.529788 0.497074 -0.257666 -0.210947 -0.883102 0.473885 -0.576791 0.362397 0.239891 -0.111954 -1.02164 0.771606 0.489393 -0.0408325 0.0956876 -0.253185 -0.458053 -0.00328339 0.404992 -0.585108 0.536164 -0.332309 0.0810765 -0.011788 0.166792 -0.557832 0.192459 0.0441303 -0.115548 -0.232832 -0.276788 0.249867 0.302958 -0.302296 -0.0233035 -0.74008 -0.0895245 -0.154891 0.0676598 -0.00373369 0.943541 0.261268 -0.08867 -0.94338 0.252112 0.168849 -0.219454 0.253415 -0.539231 -0.810359 -0.0296493 -0.21818 0.542198 0.30483 0.143653 0.00675461 -0.649276 1.01106 -0.66882 -0.385668 -0.670308 -0.717232 0.0360652 0.0309677 0.358719 0.00610239 -0.105125 1.09003 0.129555 0.163544 -0.122139 0.115968 -0.0332218 0.429236 -0.119055 0.547693 -0.417607 0.231244 
0.309433 0.223544 0.978216 0.00513305 0.638617 0.43682 -0.307942 -0.0555742 -0.299806 -0.117133 0.341804 -0.651529 -0.102934 -0.0323255 0.591046 0.222817 0.0638194 -0.293249 -0.779716 0.276392 0.538106 0.539062 0.94673 0.458579 -0.308679 -0.959118 0.353734 0.29073 -0.0204002 0.267415 -0.175076 0.167079 -0.0290215 -0.82434 -0.480504 0.0450473 -0.419723 -0.0723992 0.589038 -0.281501 0.546579 0.0779637 -0.525208 0.354628 0.353313 0.310152 -0.197837 -0.399794 0.276817 0.254521 -0.151784 0.251404 -0.452212 -0.933893 0.29212 0.167793 -0.208079 0.211928 -0.56511 -0.574443 -0.58043 0.116419 -0.200691 0.328172 -0.323633 -0.418436 0.80519 -0.562573 -0.0816158 -0.232735 0.371966 0.342873 0.00228499 0.219817 -0.352579 0.110595 0.107763 1.07668 -0.211727 -0.0128783 -0.646653 0.448496 -0.251857 -0.274128 0.0757689 -0.695957 0.515138 0.824983 -0.325662 -0.866078 -0.0192247 -0.0315296 0.402823 0.0291593 0.123305 -0.509236 
-0.834278 0.245845 -0.363708 0.00792124 -0.154106 -0.201099 -0.164989 -0.716196 0.198749 0.510832 -0.306616 0.686388 0.188217 0.0594475 0.346714 0.233554 0.778706 0.762878 -0.554241 -0.415936 0.756481 -0.172332 -0.929684 0.0499457 -0.0833337 0.030972 0.228418 -0.167906 0.177722 0.423607 0.0646024 0.439209 0.274889 -0.376709 -0.540012 0.946975 -0.275059 0.197255 0.154956 -0.154345 -0.255928 -0.608489 -0.544118 -0.598271 -0.57661 0.248135 -0.67555 -0.473813 -0.0789717 0.252981 0.762482 -0.617232 0.409624 -0.109407 0.0307387 -0.482853 -0.0531378 0.245966 0.098908 0.0789417 -0.334966 -0.150016 -0.173718 0.0979964 -0.303878 -0.0112463 0.596252 0.140821 -0.421812 -0.435639 -0.306357 -0.500218 -0.403638 0.199984 0.736238 -0.277064 -0.254014 0.23851 -0.0626197 -0.210724 -0.147598 0.383145 0.197119 -0.221236 0.976174 0.156837 -0.0129219 -0.365611 0.295719 -0.035371 -0.501945 -0.572279 0.814854 0.222736 -0.352353 -0.504967 
1.06375 -0.554747 -0.357663 -0.152794 1.01249 -0.611837 0.00661043 -0.795374 -0.37059 -0.21144 -0.203913 -0.366905 -0.220424 -0.235862 -0.417138 -0.278253 -0.330266 0.197175 0.305124 0.119739 0.12722 -1.10157 -0.0679905 -0.369521 0.939368 0.34602 0.474792 -0.774212 -0.0899717 0.376165 0.831943 -0.208243 -0.377011 -0.254135 -0.321806 -0.401265 -0.385019 -0.0319995 -0.418908 -0.158268 -0.391251 -0.868518 -0.347807 0.538107 0.153588 0.3778 0.271818 0.0929092 0.102646 0.307805 -0.329927 -0.379527 1.05498 -0.771392 0.377428 -0.35496 0.308015 0.825726 -0.158426 0.648143 -0.0905717 -0.320558 -0.554158 0.54133 -0.986751 0.526768 0.322418 0.0863574 0.0119602 0.369859 0.209228 -0.0946185 -1.01977 0.600683 -0.766682 -0.801592 0.0589812 0.571039 -0.432009 -0.516991 0.385708 -0.568386 -0.67738 -0.272229 -0.283501 -0.156528 0.0563534 0.771524 0.869555 0.120019 0.530867 0.35334 0.187767 0.489631 0.153099 -0.867599 
-0.501514 0.495895 -0.164688 0.0476624 0.432825 0.225467 -0.361477 -0.418089 -0.504308 0.412091 0.523077 -0.136593 0.444008 -0.293289 0.0769851 -0.820761 0.265076 -0.425732 0.532213 -0.962981 -0.499049 -0.211586 -0.44835 0.49956 0.246656 -0.917125 -0.398701 -0.13619 0.053802 -0.143952 0.21753 -0.0498537 0.113407 0.474731 -0.17347 -0.65407 0.0543643 0.245992 -0.236714 -0.327342 0.184911 -0.711966 -0.0177888 0.113639 -0.477231 0.285115 -0.178158 0.660566 -0.37396 0.428244 0.109287 -0.0407732 0.980675 -1.19641 -0.606809 -0.315434 -0.00383799 0.000887079 -0.157299 -0.104758 0.345878 1.11117 0.172199 -0.219667 0.721743 0.790204 0.899001 -0.493949 0.24402 0.146972 -0.8671 -0.12368 -0.0806196 -0.915502 0.516387 -0.37006 -0.201348 -0.319842 -0.615783 -0.347955 0.259492 0.224503 -0.0721632 0.457902 0.101864 -0.0385655 0.302868 -0.21064 -0.263711 -0.0800506 0.319835 0.487601 -0.556082 -0.325193 -0.706915 -0.651524 
0.160832 -0.243504 0.373509 -0.0546728 0.414153 -0.141469 0.0938214 -0.447727 -0.709636 -0.935223 0.401408 0.42778 1.41879 -0.288904 0.186584 -0.359522 0.789628 -0.15433 0.117565 -0.326927 -1.10426 0.411132 -0.188154 0.749656 0.120289 -0.292256 -0.129526 -0.173101 -1.35706 -0.645333 -0.23023 0.463077 -0.11191 -0.414323 -0.118359 0.215691 -0.152928 -0.641326 -0.0768224 0.195899 0.911704 -0.868287 0.268236 -0.191232 0.410815 -0.626786 -0.149561 0.48844 0.183644 0.340529 0.0786865 0.432989 0.330869 0.722305 -0.0899491 0.150001 0.260372 0.13008 0.487549 -0.0298031 -0.0551564 -0.502712 1.1572 0.438527 1.3998 -0.51377 -0.554909 0.322715 0.100457 -0.407471 0.353763 -0.621975 0.0882349 -0.516925 0.194564 -0.314188 0.411868 -0.371644 0.651834 -0.31796 0.625163 0.0379802 0.150141 0.774735 -0.51351 0.394333 0.132015 -0.404394 -0.160041 0.189969 0.269081 0.327731 0.164216 0.0555073 0.190989 -0.300235 
-1.09844 0.553367 -0.147302 -0.476411 0.240278 0.631506 0.423156 -0.458047 -0.703447 0.491576 0.710293 -0.0902545 0.25642 0.113723 -0.138912 -0.210806 -0.230842 -0.0203328 -0.658021 0.122003 -0.0957195 0.833148 0.227083 -0.369955 -0.545953 -0.184919 0.261963 -0.139267 -0.43271 0.245945 0.42434 -0.0376154 -0.291782 -0.0560849 0.423566 -0.145051 0.512175 -0.25568 -0.093453 -0.515229 -0.581596 -0.723523 -0.53096 -0.591012 -0.374672 -0.0913417 0.125557 0.328623 0.67954 -0.0325303 -0.528997 -0.0466324 0.0887947 0.22008 0.566397 -0.329452 -0.555212 0.0952698 0.047704 -0.507983 0.1975 -0.243194 -0.181984 -0.658837 -0.331685 0.0869623 0.306951 -0.0825445 0.404301 -0.402864 -0.314286 -0.0797604 0.864788 0.0977534 -0.543255 -0.189436 0.131686 0.193405 -0.266535 -0.686052 -0.158269 -0.988862 0.150121 0.391938 0.704695 -0.227937 -1.0618 0.558134 -0.97086 -0.396281 0.264866 -0.0577244 0.222309 1.2464 0.647298 -0.500621 
-0.250162 -0.0538877 -0.701407 0.347332 -0.45223 0.391219 0.12061 0.119311 -0.0791958 -0.402777 -0.0454305 0.145042 0.970124 -0.492033 -0.0657675 0.446692 -0.1356 0.167987 0.0676515 -0.283362 -0.751031 -0.44795 0.512397 0.705529 0.105327 0.118783 0.187165 -0.827316 0.754004 0.552923 0.244387 0.124931 0.508182 -0.193899 -0.0470457 0.630915 -0.00210979 0.288012 0.458284 -0.388815 0.555437 -0.556057 -0.219464 0.0542073 -0.149402 -0.297899 -0.0196805 0.172618 -0.319038 0.09966 -0.585751 0.167792 0.614019 0.923227 0.534849 -0.382114 -0.596287 -0.408531 0.254034 -0.176201 -0.106523 0.214176 -0.683267 -0.459713 0.388422 0.00818501 0.89082 -0.128882 -0.43122 0.570379 0.0770464 0.0956926 -0.284844 -0.570595 -0.118848 0.169067 -0.624114 -0.146024 -0.158 -0.574124 -0.438222 0.314901 -0.649369 0.0803822 -0.200053 -0.088537 0.319013 0.0764002 -0.604658 -0.632613 -0.353506 0.280263 -0.322845 0.354803 0.42047 -0.438244 
0.0576388 0.357216 -0.381113 0.171716 -0.3882 -0.0162565 -0.398245 -0.556828 -0.306247 -0.0621095 0.24721 -0.13806 0.328544 0.160425 0.0731615 0.411112 -0.596571 0.225073 0.357568 -0.42926 0.426947 0.0216665 -0.374659 -0.603803 0.0184766 -0.375608 -0.115098 -0.318204 -0.549984 0.00833753 0.235856 0.227212 -0.268806 -0.0788063 0.3493 0.0748943 -0.276191 0.250021 0.470001 -0.40505 0.204182 0.629938 -0.156312 -0.664698 -0.239809 0.273313 -0.152732 0.0172274 -0.0520321 -0.10711 0.341074 0.447465 0.696512 -0.81238 -0.677744 0.215058 -0.401631 0.775294 0.322081 0.497466 0.227218 -0.263588 0.193156 -0.5548 -0.519752 -0.657691 0.0760919 -0.259005 -0.38362 -0.505807 -0.0452445 -0.497669 -0.189433 -0.111786 0.0163597 -0.0141884 -0.202486 0.416782 0.0744616 0.134652 -0.399064 -0.094306 -0.0580517 -0.223231 0.747393 -0.201423 -0.607671 -0.100948 -0.0516907 -0.821546 0.0994618 -0.222868 -0.28554 -0.806076 -0.179509 -0.421158 
-0.53248 0.0135174 0.254464 -0.167033 -0.075262 0.389408 -0.0876022 -0.331159 0.326762 0.606095 0.0169152 -0.202179 0.164781 -0.930357 0.537111 0.311897 -0.343232 -0.501522 1.10981 0.126748 -0.0405294 0.146219 -0.237235 -0.604605 0.648705 0.0635902 0.77827 0.367221 0.246241 0.0407443 -0.105195 0.24045 0.0667101 -0.14022 -0.278123 -0.248576 0.0972245 0.274911 -0.346519 -0.0735194 -0.471414 0.0953217 -0.212964 -0.117888 -0.344535 -0.209129 0.0671809 -0.519645 0.0657766 -0.566375 0.363851 -0.626854 -0.992148 0.863447 0.0313584 -0.352088 -0.182157 -0.0553579 -0.245335 0.631976 -0.194836 -0.620121 0.966691 0.16386 0.207575 0.221886 0.105734 0.0373269 -0.518785 -0.570251 -0.044709 0.657285 0.730696 0.622751 -0.0537187 -0.689845 0.228185 0.225497 -0.448718 -0.0771877 0.131049 0.554072 -0.398793 -0.291933 0.212952 -0.89452 -0.886809 -0.568115 0.0932021 -0.0636446 -0.864105 -0.0685796 0.262767 -0.669783 -0.448008 0.140379 
-0.412567 -0.505746 -0.0894085 0.514729 0.452785 -0.762509 0.822231 0.251761 -0.212423 -0.106649 -0.539294 0.0751832 0.0396752 -0.190374 0.594234 -0.356663 0.202201 0.717308 0.0246091 0.158329 -0.377775 -0.201764 -1.22532 0.136698 0.434067 0.33525 0.333469 -0.614606 0.557541 0.308937 0.303656 -0.957789 0.363505 0.893108 0.783428 -0.464507 -0.102331 -0.53538 -0.227858 -0.302561 0.414464 -0.230614 -0.191182 -0.680193 0.306835 0.752384 -0.739968 0.397503 0.139175 0.164337 -0.0792926 -0.45313 -0.567778 -0.184905 0.0948972 0.616944 0.503234 1.05435 -0.987059 -0.103983 -0.517252 -0.200049 0.0835511 0.248173 -0.275444 -0.101951 -0.876593 -0.221253 1.04007 0.05272 0.537383 -0.687886 0.0356243 0.053863 -0.226775 -0.0949266 -0.480971 0.0269662 0.0367266 0.0637894 -0.179848 0.250787 -0.584198 -0.0492386 -0.526826 -0.0126471 -0.528966 0.0492092 -0.37546 0.268255 -0.171298 0.939755 0.531836 -0.533634 0.449668 0.0219993 
-0.52047 -0.129142 -0.198135 0.137032 0.0840777 -0.561119 0.395161 0.0742276 -0.0132391 -0.211452 -0.854105 0.389852 0.574794 -0.265039 0.0195782 0.180809 -0.866894 0.202242 0.0659488 0.516259 -0.18903 -0.24282 -0.0162752 0.0999714 0.0846878 0.0774459 0.545027 0.105224 -0.280856 -0.12379 -0.212056 0.190815 0.224637 -0.418053 0.150489 -0.0912425 0.329848 0.620421 -0.773396 -0.425884 1.09382 1.02013 -0.395245 0.142875 -0.498786 0.511726 -0.720406 -0.220245 0.24316 -0.312946 0.492383 -0.431438 -0.301943 0.279715 0.770055 0.168383 0.0367795 -0.572385 0.60594 -0.624455 -0.471671 0.00220301 0.0829317 0.0176093 -0.413131 -0.434353 -0.939477 -0.356154 0.423091 -0.0224947 -0.645328 -1.15457 0.755821 0.0707151 0.14075 0.411254 0.323814 -0.486226 0.0151779 -0.0953542 0.024914 0.489233 -0.158645 1.04726 0.179009 0.255572 -0.579146 -0.620113 -0.155566 -0.121746 0.414114 0.46578 -0.0839939 -0.169811 -0.801766 -0.158421 
-0.554171 0.810008 -0.0238854 0.917191 -0.143648 0.0244068 -0.21423 -0.409107 -0.353217 0.30104 0.0332408 -0.112082 -0.446091 -0.0495431 0.906568 -0.0359255 0.522685 0.212633 -0.926873 -0.150812 0.281119 -0.641171 0.701344 -0.131642 -0.588698 0.126331 1.1782 -0.198246 -0.0590338 0.360243 -0.207741 -0.594579 0.40471 -0.480789 -0.520729 0.602851 -0.572848 0.295522 -0.263531 0.0223466 -0.216176 -0.926831 -0.16861 -0.115651 -0.450372 0.227615 0.0353457 -0.0314842 -0.468334 0.110367 0.0787102 0.282332 -0.13973 0.670971 -0.0449047 -0.0981648 0.13747 -0.136424 0.154395 -0.373919 0.715199 -0.566915 -0.55603 -0.307605 0.116903 0.857107 -0.337755 0.870933 0.0330158 0.0230189 0.239354 -0.388573 0.831363 -0.625499 -0.642836 -0.161335 0.676766 -0.0475582 0.151039 0.609941 -0.522663 -0.821347 -0.55711 -0.331008 -0.0726324 0.0682199 -0.513557 -0.455663 0.374869 0.180713 -0.198918 -0.0798569 0.533549 -0.166554 0.0640729 -0.416534 
-0.404131 -0.606537 -0.346633 0.801114 0.601087 -0.359754 0.183589 -0.00325843 -0.239552 -0.209999 -0.350146 0.260368 -0.508955 -0.700622 -0.281185 -0.622075 -0.796809 0.248451 0.48917 -0.928954 -0.59283 -0.120024 -0.229688 -0.00688121 0.242833 -0.14962 -0.21121 0.4066 -0.176619 -0.182594 -0.20149 0.0784532 -0.872767 0.277966 0.0254557 0.499554 -0.415455 -0.292091 -0.184438 -0.213421 0.409122 0.0350296 -0.207254 0.990087 0.15656 0.239107 -0.477203 0.262893 0.732533 -0.493713 -0.255432 -0.0619605 -0.807467 0.284712 0.0726805 -0.572644 0.159543 0.124418 0.141378 -0.153519 -0.0165225 -0.49276 0.501433 0.115346 0.0438423 0.653711 -0.102145 0.0101347 0.258167 0.250496 0.0917532 0.507325 -0.30347 0.723284 0.0119037 0.0308971 -0.120074 -0.0427835 -0.408885 -0.138142 0.191552 0.603486 0.811359 0.278577 -0.174509 -0.336707 -0.428516 0.15871 0.0604575 0.33342 -0.0892877 0.433952 0.439473 -0.493905 -0.611458 -0.625997 
-0.0101181 -0.194709 0.15833 0.0163947 -0.354743 -0.366663 0.0201836 -0.00528188 0.165979 -0.342873 -0.531777 -0.614219 -0.284772 0.129704 -0.0232545 0.374618 -0.114524 0.0360669 -1.12304e-05 -0.27626 -0.417521 0.104002 0.434037 0.00726642 -0.475702 -0.0404309 0.00815041 -0.590051 -0.0844445 0.443429 0.102857 -0.185068 -0.0509537 -0.331598 0.545762 0.0164247 1.06362 -0.55511 0.193919 -0.30273 -1.12448 -0.601066 -0.23243 0.0353247 -0.243659 0.510124 0.936233 -0.216284 -0.654971 -0.201714 0.458545 -0.273069 -0.506968 -0.137651 -0.145556 -0.218711 0.407763 0.196678 -0.389676 0.647317 -0.278172 0.0739129 -0.492149 -0.0356942 0.224246 0.427183 -0.0341374 0.415188 1.32923 0.53959 0.555691 -0.111852 -0.786193 0.0820605 -0.366894 -0.0148342 -0.571424 -0.0774808 0.261678 -0.0551953 -0.240337 -0.259686 0.656572 -0.661547 0.128872 0.490592 0.162228 0.0446792 0.483747 0.251147 -0.545474 0.111333 -0.104889 -0.976576 0.520901 -0.327106 
0.158267 -0.350667 0.435859 0.19268 -0.303179 -0.270393 -0.505397 -0.188861 0.115956 0.424081 0.437167 -0.836857 0.0281816 0.043484 -0.0881783 -0.370036 -1.06425 0.284297 -0.100041 -1.22906 -0.731171 -1.03379 -0.683892 0.736987 -0.395678 -0.46926 -0.26107 0.912119 -0.119694 -0.150916 -0.269123 -0.270604 1.3033 0.69407 0.512263 0.989415 0.265331 -0.0601027 0.601895 0.373868 -0.453422 -0.285672 0.398846 0.071752 0.0330241 -0.252878 -0.0969179 0.686595 0.164847 0.0429812 0.21673 -0.619442 -0.0938677 -0.116533 0.371992 0.164955 -0.0783792 -0.732815 0.23598 -0.19426 0.0756938 0.137792 -0.466171 0.659518 0.581691 0.0456 0.0776278 -0.29145 -1.04717 -0.140339 0.449569 -0.0293187 0.511869 -0.13483 -0.0650462 -0.113231 -0.109709 1.29507 0.406905 0.250793 0.846008 0.251196 -0.0576688 -0.0606534 -0.650348 0.50384 0.539856 -0.00182549 0.0511546 -0.4434 -0.744715 0.166581 0.0165131 -0.151648 0.0414289 0.586194 
0.0398864 -0.0373162 0.206466 0.113983 0.301234 -0.337347 -0.567799 0.30467 0.0013948 -0.0932507 -0.495867 0.425753 0.392677 -0.100766 0.0360939 -0.300891 -0.395521 -0.938399 -0.256419 0.462917 0.803778 -0.892349 -0.163499 -0.432348 -0.853717 -0.0163001 -0.262226 0.39305 0.369589 0.452216 -0.34297 0.0834847 0.0825494 -0.364601 -0.319157 0.492114 -0.127215 -0.660458 0.412084 0.626902 0.221921 0.240175 0.680974 0.295576 -0.104559 -0.48526 0.15211 -0.567709 0.070569 -0.274588 -0.157822 0.518188 0.00932275 -0.277222 0.630172 -0.0780355 0.261861 0.448327 -0.298062 -0.16409 -0.558586 -0.281184 -0.700689 -0.266807 0.396705 0.215377 -0.774368 0.00757453 0.789266 0.36922 0.161641 0.32862 -0.268489 0.67095 -0.157653 0.967533 -0.538392 0.157134 -0.0274619 0.532133 0.136249 0.829681 -0.65918 -0.319974 0.537881 -0.2459 0.163061 0.0868164 0.116428 -0.154731 -0.753553 0.415919 -0.558982 -0.0945195 -0.196633 -0.5458 
0.206656 0.240447 -0.120335 -0.877053 0.319779 -0.0457295 0.456037 0.315384 -0.556736 -0.338496 -0.0143926 -0.146513 0.190694 -0.666485 -0.0794966 0.794935 0.0741205 0.544322 0.282167 0.12592 -0.491907 0.890371 0.0227074 -0.221009 -0.169965 -0.452875 0.428837 0.672581 0.426879 0.131809 0.300778 0.362053 -0.616934 -0.346658 -0.774969 -0.381476 -0.347264 -0.624376 -0.152906 -0.626993 -0.0737504 0.378586 -0.545561 0.0468822 -0.0490651 0.476736 -0.283055 -0.799487 0.550464 -0.322908 -0.151576 0.0836579 -0.0643849 0.193824 -0.275203 -0.301972 0.439949 0.127086 -0.214389 0.498888 -0.555039 0.392186 0.867836 0.210249 0.0471525 0.971703 -0.575615 0.12136 -0.623853 -0.224166 0.256911 -0.0165009 -0.368535 0.119457 -0.220859 0.176545 -0.112472 0.00247409 -1.00614 0.622181 0.359688 -1.32581 0.441847 -0.0327827 0.0436012 -0.0574426 0.33247 0.222784 -0.0511233 -0.33466 -0.560731 -0.33891 0.503687 0.930303 0.406626 0.118842 
0.038025 0.446984 0.543285 0.0953113 0.191862 -0.0667483 0.619303 -0.120289 0.0655135 -0.936028 -0.0891639 0.393499 0.189923 0.218773 0.0726875 -0.634438 -0.965699 -0.162104 0.166509 0.0681647 -0.132262 0.261583 0.613235 0.254187 -0.207511 0.0775274 -0.65001 0.158405 -0.119204 -0.420868 -0.517563 -0.0564128 -0.0988333 -0.804388 -0.422937 0.112258 0.19187 -0.283187 0.115655 0.108464 0.598732 0.0843731 0.0312978 -0.594538 0.591534 0.206052 -0.388765 0.941155 0.251644 -0.386495 0.49756 0.308007 0.603305 -0.776973 -0.225507 -0.471614 0.52503 0.437137 -0.343382 -0.278856 -0.534827 0.61089 -0.0866068 -0.112216 0.0280298 0.243219 -0.278107 -0.289732 -0.971508 0.145818 0.267984 0.210075 -0.0713332 0.149441 -0.486319 -0.382832 -0.83099 0.202725 -0.16467 -0.288515 -0.291548 0.0983208 -0.428125 0.349198 -0.187086 -0.201974 0.602333 0.365846 -0.419056 0.402498 -0.285851 0.590311 0.00888501 0.333332 -0.0373741 0.447921 
-0.0948428 0.239233 0.328572 0.17485 0.764004 0.100052 -0.128947 -0.145521 0.699241 -0.651646 0.504327 -0.191702 0.509804 0.180464 0.409923 0.429155 0.513871 -0.0854371 -0.127374 -0.210149 0.265078 -0.288542 0.212419 0.844457 0.284951 0.19722 0.363768 -0.433769 -0.489322 -0.16061 0.500192 0.425606 -0.0964164 0.136552 0.347226 0.0302323 0.108612 0.174038 -0.896478 -0.440203 0.781999 -0.0836772 -0.404514 0.0165365 -0.262024 -0.180151 0.781321 -0.302709 -0.708039 0.821251 -0.201525 -0.53106 0.15819 -0.912731 -0.220034 0.690891 0.348447 0.273217 -0.196385 0.0947193 -0.718929 -0.0669301 -0.136884 0.542731 0.0470205 0.012701 0.0018708 0.0129982 0.453069 0.200278 0.320027 0.48777 -0.313641 0.337232 -1.20842 -0.0816261 -0.700498 0.440061 0.323745 -0.0899662 0.296631 -0.0293423 0.172788 -0.353701 0.619744 0.505849 -0.221182 0.47502 -0.153621 -0.593272 -0.44015 0.657109 0.654508 0.670157 -0.489999 -1.18712 
0.102494 -0.593963 -0.138628 -0.176592 0.155439 -0.627947 0.354338 -0.27619 -0.0622237 -0.720715 -0.247632 -0.0182743 -0.77572 -0.416871 -0.358129 -0.37288 0.10236 -0.129193 -0.61383 0.19975 -0.534237 0.619547 -0.38275 -0.0918359 -0.211642 -0.569759 0.0551124 -0.38077 0.117568 0.294102 -0.576316 -0.271414 -0.632766 0.359129 -0.0375713 -0.0586778 -0.17993 0.0856601 0.0868086 -0.608707 -0.264245 0.715867 -0.161216 0.320937 -0.148516 0.652855 -0.248497 -0.0648125 -0.106775 -0.424079 0.589954 0.594606 -0.22252 0.278041 -0.127512 -1.52435 0.248524 0.872943 -0.658871 0.124545 0.570168 0.365674 0.679586 -0.360026 0.364253 -0.417398 -0.338077 0.161681 0.150142 -0.156302 -0.0938263 -0.20461 -0.472184 -0.355065 0.744195 -0.579707 -0.587152 0.28129 0.525817 -0.464855 -0.701127 0.0196171 -0.114077 0.0648293 0.215057 0.18209 -0.586411 0.3168 -0.176571 0.676758 0.617288 -0.3325 -0.655345 0.412634 -0.202114 -0.210103 
0.00814699 -0.313091 -0.150755 1.02527 0.393079 -0.213004 0.558394 -0.236257 0.880755 -0.165349 0.4774 0.06998 -0.0520918 -0.232009 -0.119285 0.401714 0.316292 0.175747 -0.000536731 0.210554 0.0362824 -0.174472 0.630245 -0.385426 0.166251 0.199379 0.439283 -0.240188 -0.00750011 -0.309718 -0.439181 0.781779 -0.124107 -0.723268 0.406811 -0.278507 -0.587683 0.667918 -0.368449 -0.729876 -0.155541 0.336015 -0.482204 -0.372396 0.61426 -0.312669 -0.721159 1.37833 0.518435 -0.595601 -0.852122 -0.31359 -0.5899 -0.445594 -0.38285 0.320152 -0.426376 -0.0835239 -0.59572 -0.230376 -0.467781 -0.708127 -0.235671 0.307898 -0.37133 -0.264044 0.296901 0.640919 -0.0557828 0.20714 -0.365701 -0.275902 -0.454948 -0.261995 -0.693015 -0.285183 0.0342176 -0.482307 -0.27819 -0.00695107 0.050517 -0.272383 0.0552284 0.115674 -0.0607327 0.294416 -0.201019 0.0118532 0.251086 -0.519215 0.677393 0.509782 -0.479202 -0.0909808 0.357859 0.28462 
-0.192851 -0.338868 -0.317956 -0.321667 0.330854 -0.227072 -0.0754833 0.126293 -0.154434 -0.352825 -0.0326288 0.0444753 -0.598503 -0.14359 0.476375 -0.453589 -0.187848 -0.186831 -0.460688 0.522857 -0.416857 -0.146272 0.637655 0.247556 0.382603 -0.200573 -0.0916005 0.0775595 0.755847 -0.0410097 0.311927 0.250961 0.313103 -0.434682 0.120573 0.142422 0.268228 -0.490013 0.315234 -0.196942 -0.0803924 0.344094 0.137708 0.454741 -0.412333 -0.573423 0.688306 -0.170468 -0.152713 -0.599871 -0.229472 0.429042 -0.0212178 -0.28128 -0.370359 -0.549634 -0.0409916 -0.0842466 -1.04548 0.843484 0.0303382 -0.120351 -0.280666 -0.645052 -0.173849 0.555647 0.207573 0.164802 -0.0122877 -0.500338 -0.109914 -0.471287 0.883829 0.391768 -0.480256 0.41899 -0.258503 -0.189524 0.0639748 -0.104488 -0.134058 -0.135825 0.0978506 0.107008 0.0705922 -0.176815 0.0261095 -0.846605 -0.116778 0.257216 0.0947364 0.175112 0.2334 0.695882 0.261272 -0.0187658 
-0.216975 0.679848 0.616778 0.415467 0.435952 -0.589893 0.148543 -0.396765 -0.571412 0.224219 0.412202 0.632377 0.167545 1.00366 -0.0887941 -0.286725 -0.173093 0.155863 -0.162275 -0.740599 -0.187356 -0.492759 0.415005 -0.0235023 0.375806 -0.126451 0.178273 0.516113 0.419328 0.343316 -0.452663 0.271422 0.11656 0.476045 0.317324 -0.904115 -0.732042 0.0345999 0.177334 -0.267529 -0.246733 -1.01207 0.0725523 0.810055 -0.194325 -0.215869 -0.407061 -0.0588457 -0.348011 -0.0868635 1.0897 -0.356377 0.389412 -0.857813 -0.312779 -0.875418 -0.204515 -0.16644 0.151303 0.384252 -0.59766 -0.22183 0.249223 -0.335782 -0.550248 -0.222812 -0.346444 -0.458021 -0.809814 -0.0539192 -0.142263 1.0558 0.36702 -0.554463 0.33757 -0.48065 -0.556575 0.0736383 0.382199 0.223131 -0.617613 0.249338 -0.0638897 0.370251 -0.00656253 0.480996 1.21182 0.374647 0.167651 -0.352865 -0.299677 0.0541533 0.184952 -0.163214 -0.775397 0.00219738 
0.481879 -0.269359 0.525243 -0.576723 -0.552897 0.22922 -0.680164 -0.0490667 -0.507865 0.303747 0.442846 0.210031 0.111854 0.195146 0.235112 -0.441805 0.612186 0.570777 -0.372507 -0.0513489 -0.745079 0.189392 -0.462664 -0.239039 -0.0482379 0.110928 -0.444265 -0.0808422 -0.203311 -0.549946 -0.384352 0.264445 -0.195297 0.00217997 -0.557279 0.195814 0.593267 0.115286 0.0141239 0.394685 -0.180781 -0.354841 -0.218091 0.274449 0.233396 -0.454538 0.00285719 -0.847519 -0.549329 -0.0187599 0.884538 -0.564038 -0.444191 -0.144435 0.0564334 0.343164 -0.209385 -0.35855 0.125132 -0.232288 0.270691 -0.673445 0.229499 -0.190023 -0.655268 0.40953 0.291232 -0.00879375 -0.619376 -0.517214 -0.325159 -0.104446 -0.171236 0.672668 -0.631503 0.165555 0.365125 0.204428 -0.347308 0.110908 -0.304081 -0.00976619 0.0202274 -0.108888 -0.44923 -0.259061 0.0154803 -0.453153 0.20098 -0.707727 -0.0115014 -0.503328 -0.505313 0.555928 0.161502 0.101616 
-0.309248 -0.181632 0.919454 0.0111416 0.135442 -0.581627 0.95199 -0.435932 -0.359442 -0.63681 -0.187191 0.379055 0.976437 -0.455987 0.420071 -0.0482407 0.802924 -0.323235 0.717564 0.0394256 0.40349 -0.331169 -1.28539 0.830223 0.700781 -0.313246 -1.22276 0.555063 -0.110636 0.0354753 -0.707567 0.601429 0.273378 -0.219428 -0.0431655 0.325874 0.476813 0.0971745 0.252669 -0.0400949 -0.283146 0.322043 -1.09707 -0.121995 0.548574 -0.431771 0.0572756 -0.618687 0.351425 -0.522917 0.219903 0.382057 0.616855 0.285882 -0.953684 -0.142767 0.224964 0.0902372 0.551538 0.581116 -0.278648 -0.66434 0.38166 0.00497132 -0.0677116 -0.404245 -0.200941 -0.415376 -0.282429 0.13732 0.541385 -0.248336 -0.801985 0.623324 -0.0866263 -0.671469 -1.04514 -0.204952 -0.126598 0.253168 -0.746222 0.166021 0.379685 -0.424549 0.343267 -0.154373 -0.0443964 0.134076 -0.38397 0.0437934 -0.0789909 0.184508 -0.0805021 0.2174 0.27918 -0.417095 
-0.157655 -0.0589952 0.860004 0.44289 0.013582 -0.316261 -0.164211 0.188613 0.335703 0.314846 -0.283092 1.06443 -0.437956 0.423186 0.555347 -0.121924 0.363354 -0.27191 -0.580361 -0.472956 0.474166 0.0308747 0.716429 -0.20178 0.493778 0.0167877 0.521695 -0.138936 0.475998 -0.143569 0.250041 -0.0622195 -0.412501 0.137986 0.649706 -0.781315 0.00797981 0.222088 -0.16496 -0.107213 0.267184 -0.358228 -0.572141 0.205961 0.059942 -0.120104 -0.589752 0.12515 -0.672562 0.853664 -0.260124 0.535619 0.146044 0.313267 0.090058 -0.204212 -0.482009 0.274367 -0.451962 -0.457445 -0.639898 0.0354468 -0.365771 0.414419 0.229317 -0.0164694 -0.143383 -0.315123 -0.436847 0.218774 -0.031725 -0.928285 -0.256607 -0.771684 -0.238101 -0.277865 0.528855 1.29661 -0.253521 0.488528 -0.301994 0.27663 0.236442 -0.987377 -0.30384 -0.857501 0.246179 -0.0869588 0.412659 -0.177911 0.613447 0.272521 -0.178892 0.0262368 0.379553 -0.39904 
-0.439269 -0.703622 -0.462893 -0.069055 -0.698464 -0.691519 -0.272911 0.734259 -1.01513 0.370041 0.188942 0.668077 0.0750097 0.576921 0.699966 -0.0215322 0.334333 0.401735 0.46901 -0.576599 -0.0857011 0.0980031 -0.075533 0.315469 -0.079379 0.494887 -0.359458 0.514867 -0.525789 0.494718 0.200144 -0.137221 0.121831 -0.861542 -0.673984 0.394132 0.5526 -0.282238 0.513406 -0.331084 -0.618787 0.247424 -0.522997 0.179522 -1.0271 -0.445839 -0.00924872 -0.234206 0.193594 0.0711717 0.448487 0.177593 -0.0685359 0.571097 0.606239 1.11997 -0.358716 -0.342465 -0.285599 0.466464 -0.0611628 -0.749042 -0.0638914 0.15497 0.126091 0.148331 0.335199 0.270438 -0.222831 0.0937024 0.356385 0.964088 0.392598 0.0734186 0.0420177 -0.452876 -0.171805 0.343621 0.0319391 0.813146 0.0692843 -0.176398 0.143226 -0.524991 0.432701 0.497253 0.347419 -0.0577861 -0.525838 -0.405708 0.541789 -0.568421 0.467652 0.00879491 -0.217436 0.479592 
-0.773185 -1.22319 -0.404887 0.935126 -0.152209 -0.0915456 0.00755878 -0.308122 -0.754401 -0.5094 0.0458567 -0.268305 0.578341 -0.294429 0.318573 -0.374132 -0.686346 1.00297 -0.689889 0.0415818 0.171826 -0.193163 0.502197 -0.0368109 0.672034 0.167594 -0.576261 0.32407 0.0133561 0.21812 0.361867 0.154807 -0.0275496 0.0650909 0.689742 0.373964 -0.781958 0.420342 -0.103361 -0.440284 0.838324 -0.133518 0.185745 -0.159705 -0.0474895 -0.260565 -0.186677 -0.365853 0.248935 -0.680248 0.0404769 -0.388323 -0.104525 0.165959 -0.151885 -0.185618 -0.866699 -0.21533 -0.388873 -0.220353 0.138099 0.467806 -0.586053 0.0984074 0.116955 -0.551788 -0.783511 0.574385 -0.112297 -0.265478 -0.443833 0.440251 -0.00823728 0.145752 -0.240315 0.233123 0.213467 -0.143525 0.757725 -1.09815 -0.427956 0.608678 -0.0408495 0.826061 0.136046 -1.08713 -0.463847 -0.480831 0.312512 0.758712 0.354136 -0.00802086 -0.214631 -0.000246399 0.111693 0.422879 
-0.89218 0.387418 0.501669 -0.526375 -8.00344e-05 -0.305701 -0.359064 1.12921 0.355317 0.0329931 0.0932449 0.170633 0.114196 -0.309788 -0.386777 -0.113165 0.535336 -0.538984 0.657346 -0.457359 0.358197 0.267387 0.871093 -0.430511 0.360805 -0.306312 -0.117394 -0.442788 -0.155748 -0.442272 0.156768 -0.0694666 0.566956 0.111088 -0.217689 -0.624059 0.359889 -0.188544 -0.576362 -0.111758 -0.0799798 0.031021 0.287865 0.00758784 -0.0395163 -0.56611 -0.19689 0.171263 -0.521745 0.367108 0.0278387 0.640947 -0.555497 0.307255 0.163583 0.41952 0.238072 -0.161023 -0.0975166 -0.863504 0.591316 0.358438 -0.0412179 -0.929585 -0.387327 0.0407293 -0.530334 -0.147696 0.257442 0.620494 -0.432152 0.349856 -0.655417 0.509028 -0.27994 -0.300054 0.671634 -0.157019 0.0485639 -0.132761 -0.186972 -0.0873726 0.115117 -0.168818 -0.478211 -0.0737569 0.0321836 -0.703255 0.0511395 0.530884 -0.306361 -0.559909 0.525089 0.470175 0.18284 0.594991 
-0.574823 -0.266756 -0.455397 -0.759111 -0.203574 -0.63502 0.411578 -0.653318 0.10696 0.196747 -0.0590792 -0.328222 -0.112314 -0.769214 -0.707481 -0.11716 0.144923 -0.289507 0.00659687 -0.0194887 -0.603226 0.623708 0.685599 -0.0573122 -0.392851 0.500928 -0.230926 -0.217351 0.330042 0.82712 -0.255658 0.166258 0.315875 0.13316 0.254768 0.0252757 0.00768513 -0.0957462 0.0969518 -0.657024 -0.693795 0.550825 0.0131343 0.431109 0.156697 -0.504223 -0.40676 -0.310178 0.519272 1.03856 0.30109 -1.30039 0.0889333 -0.867989 0.298929 0.19304 -0.39327 -0.31085 -0.0385921 -0.652002 -0.431632 -0.170816 1.10234 0.508985 0.312683 -0.349803 0.0106992 0.342637 -0.298005 0.273869 -0.376476 -0.21894 0.0268948 -0.55761 -0.298948 -0.0566124 0.113359 0.250309 -0.120846 0.199326 0.152976 -0.319191 -0.336395 0.140436 -0.262503 0.0186322 -0.159417 -0.423657 -0.554895 -0.129053 0.298456 0.0641537 0.218649 0.603499 0.0281727 -0.437703 
-0.405191 0.0531204 0.464797 0.347264 -0.312097 0.339518 -0.221786 0.0111187 0.514484 0.0698367 -0.214765 0.0115721 -0.230253 0.247512 -0.0176546 -0.250364 0.10006 -0.444891 0.0460053 -0.101523 0.825374 0.0471006 0.0844677 0.653638 -0.148536 -0.369352 0.635774 -0.0526151 -0.210617 -0.30987 0.607121 0.175545 -0.143845 -0.269516 0.335311 -0.202007 -0.806325 -0.0728991 0.0544636 -0.509884 0.102775 0.336863 0.515213 -0.831142 -0.271147 0.30916 -0.566141 -0.312103 -0.186227 -0.954801 0.114177 -0.279947 0.638418 0.0072251 0.591865 0.764807 -0.407284 -0.530079 0.214411 -0.443394 -0.794317 -0.375455 -0.447444 0.648853 -0.518623 0.610911 0.060914 0.0839271 -0.000417236 0.124652 -0.177248 -0.0406829 -0.931547 0.638269 -0.284764 -0.39448 -0.0662467 -0.511568 -0.286815 -0.658175 -0.394929 0.0379381 0.0299508 0.151437 -0.920971 0.799737 -0.0161739 0.0805093 0.290271 -0.170472 0.223304 0.158654 0.171244 0.487217 -0.157152 -0.168504 
0.99394 0.196688 0.902232 0.607805 0.0442801 -0.630407 0.58518 0.410277 0.250838 0.342737 -0.0428449 -0.0135573 0.101117 0.675014 0.102222 0.558583 0.482134 -0.641031 -0.649291 -0.297733 -0.944465 -0.18607 0.580324 -0.147352 0.422566 -0.334439 0.298266 -0.0689743 0.160775 0.263174 0.65334 -0.333905 -0.677384 0.178924 0.462166 0.742337 0.2244 -0.873174 0.0396909 0.320111 0.256591 -0.755287 0.0933214 -0.407602 1.24135 0.981518 -1.18512 -0.722661 0.588913 -0.277505 0.446322 0.456407 -0.81871 -0.892816 0.51189 0.095727 0.939766 -0.286278 -0.117576 0.338656 -0.159273 -0.345236 -0.238757 -0.246114 -0.15865 -0.361659 -0.796917 -0.997221 -0.192316 -0.661002 -0.431488 0.890337 0.352215 0.0700557 -0.249898 -0.269726 0.0599905 -0.349926 -0.0987198 0.0905781 0.492671 -0.612529 -0.258273 0.678032 0.437378 -0.301772 -1.03634 1.05766 -0.220562 -0.0887529 -1.16783 -0.0781994 -0.217264 0.218166 -0.187622 1.4176 
-0.0140927 0.515022 -0.576593 0.497068 -0.459843 0.172505 -0.0280108 -0.547499 -0.252274 0.111601 0.397819 0.361414 0.761861 -0.129203 -0.0104687 0.113623 0.127752 -0.637562 0.188135 -0.229546 0.208183 -0.989484 -0.41311 -0.313047 -0.188346 0.0783355 0.140245 0.418387 0.176365 -0.00100032 0.346905 -0.229221 -0.651886 0.750619 -0.581115 -0.301796 -0.408502 0.272024 0.993475 -0.222095 0.0847029 0.126659 -0.989287 -0.262822 0.530778 -0.255023 0.303415 0.106368 -0.15223 0.365392 0.0567799 0.149824 -0.285592 -0.134136 0.0325265 -0.513107 0.353338 -0.194376 -0.705493 -0.569117 -0.231324 -0.151988 -0.131279 0.909936 0.307812 0.501495 -0.0626582 -0.640182 0.337244 -0.754748 -0.177923 0.105091 0.371086 -0.333789 -0.218082 0.211965 -0.0391674 0.268687 -0.127305 -0.23282 -0.202112 0.927639 0.432113 -0.708552 0.842462 0.494104 0.123338 -0.429387 0.714596 0.40546 -0.0703792 0.524322 -0.685209 -0.451622 -0.0627831 0.222616 
-0.992406 -0.614103 -0.839657 0.261454 0.192412 -0.0410036 -0.12206 0.479756 -0.117331 -0.0116718 -0.432283 0.75448 0.125542 0.103933 0.333601 0.102515 -0.331232 -0.248842 -0.141371 -0.57366 -0.0392252 0.172881 0.185923 -0.625985 0.45974 -0.737504 -0.514299 -0.702781 -0.241793 -0.503758 1.14036 1.20475 -0.374405 -0.283508 0.143057 -0.156867 -0.464273 -0.918345 -0.19749 -0.0105654 -0.298754 -0.0927324 0.106927 0.163892 0.567293 -0.337439 -0.343391 0.729146 -0.312004 0.0200986 0.509994 -0.474312 -0.42737 0.017969 -0.0477286 0.416032 -0.0210888 -0.0402621 0.216958 -0.483721 -0.152898 -0.297536 0.377604 0.687388 0.686132 0.429037 -0.114979 -0.449107 -0.00631964 -0.519828 -0.0712411 -0.0718284 -0.401436 0.0105675 0.143735 0.036822 0.326642 -0.637736 -0.281542 -0.624676 0.606488 -0.524235 0.494645 0.194433 0.238053 0.344157 -0.194074 0.361089 -0.367202 -0.80042 -0.0461048 0.41582 -0.0401301 0.551659 -0.173349 0.0760872 
-0.236002 0.39299 0.538044 0.188801 0.360285 0.287393 -0.718264 0.179869 -0.256937 -0.616876 -0.462384 -0.120703 0.0241884 0.229936 -0.510692 -0.594996 0.83131 0.261441 0.18044 0.846241 0.405094 -1.02534 -0.170146 0.272647 -0.617598 -0.111824 0.0384867 0.060258 0.437084 0.132545 -0.333862 -0.157373 0.522555 -0.283913 0.226886 0.264013 -0.137753 -0.228649 0.25327 -0.550335 0.0955691 0.381575 0.262755 0.515032 -0.547248 0.4097 -0.614659 0.327371 0.0133439 -0.635145 -0.365604 0.220619 -0.500195 0.0389994 -0.401721 -0.723545 0.0197697 -0.258027 -0.0979325 -0.0746332 -0.0131104 -0.279587 0.538498 -0.725416 -0.00297722 0.439664 -0.223564 -0.0700783 0.484273 -0.166277 -0.276834 0.242009 0.0181021 0.868496 0.166805 -0.250056 0.189161 0.547962 -0.0554283 -0.440513 -0.0534021 0.0350984 -0.14131 -0.144078 0.158691 -0.645186 0.452027 -0.671197 -0.634223 -0.606165 0.0390869 -0.336922 -0.110055 0.00950529 0.0351687 -0.427048 
0.797081 0.123731 -0.478805 -0.260363 -0.666121 -0.00753541 0.775583 -0.29359 -1.06366 0.882397 0.240467 0.221158 0.146552 -0.380861 -0.00904738 0.441258 -0.0621945 -0.147714 -0.036075 0.270967 -0.564574 -0.0207616 0.509703 -0.130253 0.292504 0.167025 0.767134 0.677478 0.399714 0.49383 -0.02645 -0.214574 -0.138837 -0.0291447 0.0733884 -0.894294 0.733355 0.351169 0.14858 0.423213 -0.436029 -0.792228 0.183393 0.829448 1.0388 0.0830903 -0.222389 0.146145 -0.775817 0.723032 -0.758014 0.0206807 -0.516709 0.111507 0.423356 -0.105415 0.0676761 -0.330639 -0.00745623 -0.0180419 0.514844 -0.198556 -0.159644 0.977973 -0.350827 0.474708 0.0666981 -0.119325 -0.0631172 -0.0989837 0.0936026 0.019359 0.147719 0.258206 -0.618021 -0.584709 -0.000943494 -0.216751 0.0182438 0.154677 0.346277 0.518804 0.642575 -0.376283 0.092553 0.197453 -0.134332 0.359272 0.0255031 -0.145798 0.295499 -0.203431 -0.748212 -0.164796 -0.422402 1.01263 
0.645884 -0.393841 0.409059 -0.982583 -0.34309 0.241649 -0.438436 1.10966 -0.294034 0.0353915 0.123754 -0.0479431 -0.181381 0.163511 -0.586235 -0.0211573 -0.0960755 0.47707 -0.255382 -0.456926 0.102997 0.548125 0.248422 0.668999 0.0436475 0.492522 -1.02334 0.0338939 0.0816168 0.0977752 0.078685 0.218429 -0.722002 0.552453 0.0409656 0.662469 0.185399 0.694651 0.0854059 -0.0585356 -0.144448 0.0379188 0.435529 0.396582 -0.119587 -0.108336 0.391095 0.258864 0.837207 0.343546 0.405211 0.528468 0.12397 0.0695105 -0.348681 0.597547 0.0616432 0.0133148 -0.273561 0.177032 0.470126 0.673464 0.0977174 0.684522 -0.655481 0.325501 -0.836243 -0.219 -0.12473 0.39307 -0.433561 -0.176444 1.42364 0.102008 1.20122 0.385886 0.770254 0.209512 0.192041 -0.0120367 -0.0363859 -0.133299 -0.0785284 -0.307579 0.407624 0.292734 0.0529372 0.0427121 -0.574215 0.356429 0.541926 -0.0605651 0.0312734 0.0172219 -0.246825 0.0961892 
-0.218923 0.645649 -0.665241 0.351072 0.592646 -0.0146496 0.157116 0.80073 -0.00424945 -0.325136 -0.86789 0.692575 -0.0662118 0.186325 -0.110833 0.157464 0.172617 0.353297 0.277702 0.354918 -0.0248719 0.326951 -0.398503 -0.1781 -0.167036 0.358086 -0.325052 -0.195157 0.220062 -0.440945 0.0759414 0.125364 -0.0112013 -0.24715 0.435096 0.221335 -0.109378 -0.400277 -0.317685 0.125131 -0.0152652 -0.428195 0.505413 -0.329796 -0.225748 0.00132667 0.920924 -0.139575 0.112457 0.259996 -0.41409 -0.900953 -0.144295 -0.0195074 0.317277 0.359687 -0.638159 -1.21904 -0.450828 0.568446 -0.0953543 -0.386207 -0.207646 -0.0531717 0.0131814 -0.0452198 -0.0789904 0.594746 0.15589 -0.430254 -0.581258 -0.522327 -0.800695 0.136257 -0.249104 0.236459 0.287183 0.198631 0.0465801 0.26726 -0.254692 0.485723 0.517373 0.115815 0.213903 -0.740648 0.380429 0.507875 0.328232 0.0175024 -0.398736 0.499995 -0.0595255 -0.61862 -0.391403 -0.109772 
-0.535981 -0.0646343 0.484336 -0.156118 -0.150244 0.0451504 0.0088182 -0.071114 0.542765 0.169255 0.356844 0.345991 -0.442277 -0.108587 -0.23201 -0.518054 0.532297 -0.605387 -0.15752 -0.343513 0.350525 0.538221 0.338892 -0.235807 -0.83932 0.542201 -0.487979 -0.789343 0.181134 0.0610972 -0.346886 -0.508444 -0.411425 -0.0210551 -0.560787 0.10306 0.872641 0.00349561 1.08098 -0.594505 0.0611665 -0.229364 0.153037 0.0291614 -0.171671 -0.266524 0.292793 -0.121154 -0.431761 0.235717 -0.0694284 -0.321753 0.367095 -0.0884893 -0.950114 -0.131732 -0.0289357 0.759366 -0.0595351 0.437063 -0.446285 0.237936 -0.499782 -0.23991 0.669864 -0.0593016 0.0879453 -0.129793 0.359128 0.00490613 -0.193947 -0.185946 0.173215 0.106929 -0.0830432 0.441877 -0.353455 0.466641 0.664506 -0.456838 -0.285273 0.239981 -0.348859 0.62228 -0.0260635 -0.474298 -0.935746 -0.474974 0.781545 -0.788926 0.0065002 -0.313825 -0.959885 0.457539 -0.274696 0.242542 
-0.264309 -0.98973 0.320432 -0.533708 0.347717 -0.540572 -0.987031 0.403711 -0.156972 0.89324 0.218638 0.656027 -1.12524 -0.215356 0.41268 0.193254 -0.0701042 0.432957 -1.22146 0.357531 0.967106 -0.256566 -0.508886 -0.489565 -0.683231 -0.0381152 -0.692221 -0.0840996 0.359457 0.337484 0.799964 0.550054 0.0685348 0.310456 -0.317324 0.881296 -0.0552927 -0.38582 -0.142341 -0.208094 0.280758 0.0792801 0.345658 -0.345809 -0.359147 0.0529897 -0.209028 0.483331 0.224189 0.329491 -0.348162 0.777963 0.378911 0.253581 0.709119 0.327433 0.196219 -0.934181 -0.136833 -0.714221 -0.23164 -0.206719 -0.230706 0.142485 0.113981 0.539185 -0.203996 -0.16426 0.135703 -0.022791 -0.287452 0.0131971 0.314067 0.553843 0.684845 0.14609 -0.939301 -0.445408 0.148093 0.221232 -0.829925 -0.0555467 -0.0143108 -0.77684 -0.176537 0.284572 -0.982346 0.234457 0.0203612 -0.728335 0.111471 -0.73513 -1.02689 0.222715 -0.0514964 -0.443508 
0.505635 0.526205 -0.0335942 -0.25036 0.212913 0.109803 -0.394893 0.396746 -0.453 -0.0722542 -0.665017 -0.0158571 0.300694 -0.192013 0.00558168 -0.663239 0.0683041 0.111513 -0.0368535 -0.441585 0.847356 -0.453683 0.364203 -0.056612 -0.0437157 0.136225 0.506004 -0.145751 0.225233 -0.923809 -0.431234 -0.100595 -0.166455 0.0464519 -0.174342 -0.218462 0.276483 -0.347568 -0.154052 -0.24964 -0.46544 0.268311 -0.480862 0.0140326 0.705437 0.349784 -0.0669537 0.437194 -0.267285 0.101373 -0.005088 0.431253 0.251233 0.828639 -0.0750529 0.166809 -0.489945 -0.30197 0.558657 -0.0164422 -0.0446525 0.324353 -0.353144 0.293444 0.034982 -0.152424 0.518416 0.231004 0.14368 -0.411979 0.329956 0.314693 -0.81736 -0.253835 -0.422974 -0.36911 0.00588532 0.927295 0.71082 0.138594 0.160293 -0.490871 0.531912 -0.646955 0.139066 -0.0750692 0.234878 -0.0677799 0.767954 -0.439489 0.0998679 -0.114579 -0.535784 0.599474 -0.355626 0.0757736 
0.214551 -0.386339 0.749834 0.829572 0.368298 0.141231 0.862306 -0.0548107 -0.451701 0.651959 0.562652 -0.51149 0.434906 0.0365693 -0.0531106 0.680698 -0.171042 0.433298 0.748836 -0.244312 -0.485973 -0.564289 -0.487219 0.0228947 0.122102 0.59378 0.313556 -0.0324973 -0.329966 1.26044 0.737015 0.540164 -0.533436 0.23287 -0.265719 0.643788 -0.0373198 0.577723 -0.187814 0.113812 0.42249 -0.645515 -0.637692 0.267794 0.575739 0.139052 -0.357285 0.14693 -0.158078 0.1789 -0.359763 0.424263 -0.0821 -0.0248361 -0.184594 0.694499 0.278054 0.375114 -0.335399 0.00395874 0.214494 -0.44146 0.596445 -0.538492 0.223839 -0.0109556 0.0411678 -0.468893 -0.278036 0.497381 -0.115881 0.00286777 -0.580234 0.0705907 0.537273 0.612196 0.0912538 0.0145409 -0.0311526 0.597085 0.0240589 -0.312067 0.111763 0.104872 0.00361314 -0.449976 0.459742 0.234772 -0.212666 0.0187504 0.238281 0.327187 0.0368708 -0.143889 0.337979 -0.241782 
0.567196 0.094692 0.408405 0.710471 0.765898 0.0941963 -0.3333 -0.736645 0.0806224 -0.592925 0.175065 -0.699913 0.542032 -0.742744 -0.424344 -0.374941 0.180032 -0.254924 0.0827906 -0.475481 -0.302445 0.260591 0.286254 -0.799583 0.11568 -0.214268 0.0752762 -0.448923 -1.25387 0.210178 0.197891 0.285557 0.449518 -0.53408 0.331228 -0.132891 -0.12827 0.379888 0.140616 -0.237162 0.391824 -0.0456813 -0.205538 -0.257323 0.220542 -0.548563 0.151337 0.208706 -0.148661 -0.686766 -0.318374 -0.313584 -1.07689 -0.149732 0.598458 -0.104207 0.251765 -0.0915723 -0.0243092 0.314039 -0.703638 -0.223725 0.321877 -0.946672 -0.430306 0.293904 -0.471095 -0.0715606 0.430003 0.696736 -0.00598999 -0.534131 0.385082 0.626619 0.801503 -0.559539 -0.0202856 0.206504 0.0872959 0.143375 -0.00911852 -0.33121 -0.370308 -0.204191 0.0279936 -0.348205 0.807433 -0.310457 -0.443617 0.447681 0.00994554 -0.0469703 0.459616 -0.254764 -0.250456 -0.3026 
0.192836 0.117068 -0.0634465 0.320723 -0.122639 0.000425829 1.15756 0.162053 -0.25653 -1.1205 0.207055 0.422168 -0.0731592 -0.0793371 0.41786 0.133254 0.0974091 -0.804311 0.0603299 -0.663983 -0.0941073 -0.922977 -0.760341 -0.0537182 1.19776 -0.855594 -0.000645143 -0.28201 -0.318838 -0.0507381 0.271565 -0.529648 0.17103 -0.398583 0.837802 0.755638 -0.353427 0.329942 0.0295432 -0.598669 -0.13331 -0.00444145 -0.323493 0.148926 -0.211483 -0.0931599 0.0387669 -0.688998 0.4669 0.000773696 1.03119 -0.123955 -0.147012 -0.155939 -0.0694421 -0.0834917 0.303263 0.0452193 -0.548585 -0.205176 0.0906235 -0.262931 0.359263 0.310532 -0.18805 -0.933422 0.220524 -0.584979 0.296804 0.0480772 0.484151 0.30874 -0.128108 0.505326 0.441077 0.0786756 0.338669 0.111203 0.753214 0.131815 -0.0636142 -0.757681 0.315546 0.274088 0.164548 0.687673 0.691775 0.174712 -0.709783 0.527013 -0.243388 0.399773 0.181962 0.145116 0.26709 -0.44523 
-0.4238 -0.514018 0.0375271 -0.563674 0.415767 0.811243 -0.0490477 -0.0534436 0.254132 -0.613935 0.392717 -0.312537 0.331518 0.049964 0.122764 -0.491705 0.324491 0.405622 -0.428871 0.134281 0.643899 -0.380758 0.570455 0.48276 -0.545479 -0.311226 0.153703 0.0304954 -0.0447951 0.490796 -0.257382 0.366794 0.909454 0.651283 -0.0978967 0.919202 -0.335456 -0.285795 0.00612131 -0.521178 -0.222085 -0.421243 0.432501 0.48054 0.255304 -0.969799 -0.254785 0.273676 -0.957779 0.17798 -0.0230827 0.689166 0.730545 -0.264665 0.46114 -0.231668 0.551432 0.755499 0.287745 0.151798 0.0924532 -0.178742 0.0378261 0.17088 -0.155788 -0.253289 0.856692 0.645321 0.167682 0.222547 -0.00665489 0.121405 -0.0163941 -0.136791 -0.0934973 -0.2412 -0.0607189 0.392414 0.48444 0.654705 0.0185512 0.0488913 -0.235389 -0.712478 -0.4394 0.772046 -0.213532 -0.200839 0.17206 -0.322731 -0.127696 0.368008 0.255227 -0.517146 0.145909 -0.88319 
0.410014 0.0753864 -0.948569 0.139041 0.336073 0.513347 -0.430023 -0.226617 0.00232872 -0.314797 -0.661902 0.0449572 -0.010954 0.21979 0.396697 -0.113917 -0.494725 0.351981 -0.0744266 0.478578 0.226406 0.00329016 -0.593206 -0.0238001 1.31447 0.0606446 0.049201 0.376561 -0.742957 0.158462 -0.267617 0.506734 -0.418633 0.394431 -0.0511144 -0.569912 -0.692065 0.204595 -0.237755 0.216572 0.0688397 0.0284625 -0.263931 -0.0105804 0.10004 0.772408 -0.76294 -0.42104 -0.916459 0.39729 -0.520565 0.379964 0.493576 -0.160114 0.456384 -0.103794 -0.304082 -0.231365 0.0951877 -0.425089 0.0422748 -1.06215 0.111386 1.07636 -0.385091 -0.530606 0.0691214 -0.0801897 -0.238663 0.294723 -0.554026 0.448387 0.848119 -0.352349 -0.250462 -0.16122 -0.180171 0.15439 -0.5974 -0.157079 -1.14386 -0.154274 0.448711 0.339419 -1.05119 0.243611 0.0543171 0.119028 -0.132572 0.17359 0.21936 0.27168 -0.423611 -0.0512867 0.396205 -0.498659 
-0.498259 0.446932 -0.0348591 -0.244067 0.261735 -0.1395 0.248834 0.0956881 -0.133309 -0.12198 -0.387223 0.136041 0.150614 0.0199032 -0.325982 -0.597516 0.214695 -0.815516 0.516424 0.846903 -0.353371 0.1855 0.30389 -0.111131 0.505625 0.0844474 0.178713 -0.115563 -0.331473 -0.206012 0.788703 0.73421 -0.315385 0.166763 0.0688732 0.751145 -0.0960485 -0.497977 -0.0549932 0.904887 0.212383 0.583856 0.225426 0.504299 0.655119 0.557665 0.759308 -0.434577 -0.0206243 0.139089 -0.148677 0.722112 -0.361726 -0.3487 0.760842 0.19832 -1.00851 0.409094 0.428259 0.10508 0.826457 0.250567 1.01843 0.167808 -0.28074 0.527135 -0.144668 -0.483221 -0.354432 -0.327156 -0.297044 -0.486522 -0.471002 -0.394485 0.76492 0.0206295 0.234849 0.108495 -0.302285 0.31154 -0.147514 -0.334323 0.290149 -0.560908 -0.9564 0.016454 0.422533 -0.428445 0.183163 0.209356 0.0320221 -0.0564533 0.330602 0.619767 0.564325 0.993505 
0.220823 -0.153623 -0.106031 -0.536905 0.106268 0.514217 0.482694 -0.345712 -0.268691 0.0119023 0.314644 0.328924 -0.140613 0.743038 -0.191567 -0.240848 0.29254 0.0981283 -0.325133 -0.124448 -0.435691 -0.463664 -0.213279 0.523275 0.320354 -0.350351 0.0243235 0.792764 1.09116 -0.273298 -0.360962 -0.773973 -0.856767 0.272638 -0.239526 -0.1183 0.132327 0.243091 0.529563 -0.0556215 0.13012 0.45075 0.734998 0.0987434 -0.173027 -0.364159 0.635116 0.115621 0.445857 -0.106664 -0.264396 0.416664 -0.206254 0.727505 -0.441181 -0.795119 -0.328115 -0.643187 0.0977677 0.239927 -0.670778 -0.800255 -0.303758 0.141011 0.23105 -0.0619488 0.201214 -0.525458 -0.634298 -0.449675 0.0802432 -0.415552 0.198641 0.554497 0.558726 -0.0162117 -0.0642488 -0.520662 -0.068174 0.64431 0.0880193 1.11066 0.185891 -0.175711 0.151527 0.143267 0.473036 -0.70325 0.177752 0.787856 0.816969 0.372667 0.0240007 0.147609 -0.100091 -0.802589 
-0.447249 0.171685 0.364332 0.154413 0.694977 0.370352 -0.12863 0.0528492 -0.77242 0.707306 0.439885 0.294944 -0.200911 -0.847737 0.200132 -0.308568 -0.393747 0.763454 -0.392971 -0.0775929 -0.142009 -0.0408001 0.449287 0.449736 0.0557366 -0.103853 -0.57884 0.526273 -0.224675 0.553599 -0.0289163 -0.43159 -0.154834 0.284725 -0.192602 -0.351589 -0.363249 0.263255 -0.451023 -0.559442 -0.704666 -0.0847216 -0.229287 0.023884 -0.183824 -0.482608 -1.63169 -0.399813 -0.213748 0.188929 -0.710225 -0.000106156 0.343089 -0.467804 0.239332 0.225439 -0.110919 0.776857 0.162231 -0.0961447 -0.743367 0.47062 0.565318 -0.0244659 0.0123564 0.981256 -0.692394 -0.0853211 -0.219432 0.124485 0.0353042 0.120753 0.586396 0.369511 -0.816536 -0.884949 -0.456222 0.595424 -0.541557 -0.791678 0.650225 -0.753122 -0.245836 -0.51822 0.252283 -0.411799 0.394617 -0.731702 0.614286 0.291951 0.114356 -0.932741 -0.307107 0.870354 -0.311154 -0.33555 
0.467722 -0.202634 0.201702 -0.0814171 0.633808 -1.10903 0.643266 0.0855331 -0.913629 0.0165047 -0.450414 -0.149566 0.17687 -0.00554147 0.767405 -0.0748201 -0.358094 -0.232655 -0.261478 -0.308496 0.236092 -0.406554 0.543506 -0.523467 -0.623568 0.0602885 0.9031 0.511889 -0.36163 -0.000450748 -0.206428 -0.383395 -0.65059 -0.479302 -0.113462 0.661416 0.0848384 0.0111229 -0.998289 0.32044 -0.545987 0.492636 -0.55935 -0.0238112 0.138793 0.310755 -0.476164 0.415057 -0.513738 0.311645 -0.343458 0.0031465 -0.226815 0.467303 -0.31678 -0.0768696 0.0215873 -0.189544 0.600095 0.419685 -0.533675 -0.0216391 0.137647 0.358722 0.00529254 -0.108916 0.141916 -0.264219 -0.0585234 -0.754602 -0.873647 -0.00379071 0.0992843 -0.0977824 0.245157 -0.422637 -0.221735 0.0805059 0.410021 0.116882 0.333703 -0.418377 0.35935 -0.747147 -0.662441 0.0474624 0.0886194 -0.421923 0.323964 -0.125859 -0.533823 0.304855 -0.785812 -0.406412 0.840431 0.343104 
-0.188334 -0.0602527 -0.431308 -0.833566 0.547544 0.453533 -0.185563 -0.490145 0.293288 0.14829 0.1311 -0.0360114 -0.141747 -0.0933619 -0.130271 -1.00125 -0.0889341 -0.76655 0.830718 0.519715 -0.606218 -0.742866 0.108357 -0.273782 -1.35587 0.230061 -0.420388 0.505671 0.554581 -0.10616 -0.299521 0.53212 0.0728882 -0.366481 0.227126 -0.198021 0.0417586 0.87524 -0.22656 0.678748 -0.58788 -0.322961 -0.728809 0.387627 0.294935 0.300768 0.497778 0.793294 0.14549 -0.632494 -0.27827 -0.23671 -0.24753 0.158061 -0.10128 -0.519321 -0.0905146 0.309545 -0.629017 0.400986 -0.172779 -0.328977 0.839423 -0.0639023 -0.68818 0.393195 0.136486 -0.506025 0.020503 -0.0639711 0.579715 0.252783 0.584769 -0.233851 0.0926236 -0.391147 -0.0239607 -0.337283 0.438119 0.566408 0.491285 -0.731707 -0.00236465 -0.694292 0.633053 -0.744347 -0.825031 -0.171547 -0.560628 0.408938 0.772214 -0.346711 -0.0562913 0.455026 0.43141 -0.213077 
0.371814 0.316671 0.389706 0.468533 0.354431 0.74345 0.204057 0.063559 0.17403 -0.141109 0.135327 0.213407 0.174478 0.432525 -0.775749 -0.159464 -0.00174988 0.0619211 0.417396 -0.390571 0.0426012 0.1878 0.114733 -0.63593 0.032413 -0.426392 0.440198 0.122441 0.214487 0.184301 -0.219751 -0.33795 0.461581 0.0389459 0.174636 0.342006 0.0550819 -0.0925738 0.644723 0.554423 0.372999 -0.253376 0.282606 -0.018997 0.646473 -0.25338 -0.167832 -0.414606 -0.601247 0.319684 -0.110597 -0.144904 0.449983 0.524547 0.330967 0.359632 0.105695 -0.634521 0.0143204 0.373905 0.352773 0.336687 -0.106639 0.0185895 -0.206623 0.166629 -0.0954068 0.362364 -0.290602 0.268125 -0.255133 0.113647 -0.337027 -0.165876 -0.107475 0.571019 0.0536091 -0.144219 -0.0394454 -0.247557 0.493768 -0.783274 0.241743 0.503368 -0.189984 0.824807 0.0726728 0.415186 0.0953218 0.41049 -0.792128 0.148083 -0.0366445 -0.116147 -0.230741 0.147326 
-0.726405 0.304716 -0.414156 0.263419 -0.492663 0.247633 -0.994766 -0.31809 0.146008 0.060685 0.367533 -0.423628 0.109779 0.221589 -1.01663 0.338698 0.00470867 0.859268 0.0423114 -0.916307 -0.0710877 0.107801 -0.871878 0.00725289 -0.555628 0.681827 0.0753449 0.26082 0.515656 -0.354599 -0.129601 -0.115818 -0.465236 0.0944688 -0.444895 -0.00479031 -0.167729 0.307771 0.186534 -0.0359733 -0.266871 0.0848519 -0.365692 0.0936151 -0.690508 -0.134259 0.0290857 -0.392007 0.195322 0.202947 -0.232418 -0.176906 -0.395311 -0.660408 -0.0230823 0.303813 0.329854 -0.0947197 -0.561812 -0.847087 -0.654142 0.113282 0.485896 -0.0553321 -0.465525 -0.596067 -0.103371 -0.446789 -0.132739 0.210635 -0.295581 -0.403691 -0.242679 0.818412 0.411603 0.695605 0.402114 0.282834 -0.327331 -0.314199 -0.331853 0.241241 -0.381993 -0.306654 0.620203 -0.263355 0.652107 -0.065308 0.0341125 -0.597362 -0.12039 0.0201282 0.161572 -0.786408 0.159938 -0.466208 
0.651373 -0.180442 -0.209126 0.3888 0.107271 0.60409 -0.599221 0.213448 0.081327 -0.346994 -0.138588 0.232635 0.0085203 -0.479949 0.0856905 0.128301 -0.682226 0.191719 0.0572848 -0.33173 0.0886913 0.334496 -0.101383 -0.52565 -0.258649 0.600993 0.954056 0.609802 -0.330374 -0.0159539 0.103089 -0.683927 0.921016 0.0369641 -0.61326 0.256748 0.595895 -0.655941 0.31168 1.37516 0.235172 -0.73957 0.463534 -0.226446 0.148287 -0.133687 0.0348767 -0.324941 0.498852 0.583515 0.143104 -0.128003 0.408564 -0.621131 0.806567 0.436865 -0.264677 -0.371594 0.193469 0.23338 -0.329662 0.194997 -0.285659 -0.909205 -0.83936 -0.356286 0.679755 -0.376357 -0.258593 -0.560452 -0.218414 0.682267 0.535359 0.329532 -0.165167 -0.124535 0.150719 0.16592 0.208966 0.677957 0.824673 0.249407 0.194268 -0.0687545 0.488444 -0.165969 -0.672742 0.402524 -0.6793 -0.0702781 0.421094 0.393291 -0.394888 0.0387379 0.126293 0.830866 
-0.0550385 -0.0704856 -1.07222 -0.205233 0.252351 0.38224 -0.187468 -0.492663 -0.796839 -0.0701867 -0.00726467 -0.289437 0.504085 -0.784894 -0.0852907 0.192454 -0.350122 0.20538 0.177213 -0.866182 -0.368208 0.285938 -0.305655 -0.312506 -0.707444 -0.0311776 -0.0237319 0.66867 0.280182 -0.162148 0.782471 0.0851786 0.76698 0.656553 0.957263 -0.138363 0.652805 -0.0738569 0.0487909 0.0769052 -0.460399 -1.02603 0.797266 -0.0625002 -0.190708 -0.248734 0.251348 0.035319 0.829689 -0.100706 0.534732 -0.118864 0.400045 -0.572744 -0.313883 1.10252 0.296715 0.217818 0.716975 0.135463 0.485262 0.158354 -0.49467 -0.605875 -0.336558 0.259958 -0.449477 0.300263 0.335228 0.572577 0.0198676 -1.1601 0.135975 -0.668526 0.406167 0.0838916 0.332194 -0.133781 -0.578052 0.549473 0.371905 0.198885 0.0813273 0.352079 0.352789 0.0550001 0.0717754 -0.261146 -0.265682 0.524001 0.49609 0.278172 0.198867 0.653496 -0.50314 -1.16423 
0.0749564 -0.622933 0.0396169 -0.216398 0.237371 0.0600752 -1.01424 -0.449465 -0.378703 -0.727846 -0.307162 -0.331963 -0.255521 0.649324 -0.234836 0.924022 -0.272413 -0.580818 0.33751 -0.887945 -0.306114 0.217369 -0.0939006 0.187846 -0.481142 -0.131455 -0.341821 0.588993 0.432882 0.0416621 0.366433 0.590612 -0.811474 0.109188 -0.0816197 -0.338963 0.598792 -0.115199 -0.649343 -0.543256 -0.115079 -0.38821 0.885434 0.00729504 -0.59264 0.10138 0.0828853 -0.355982 0.400543 0.507347 -0.660392 -0.382541 -0.0405984 0.67997 0.0266169 0.517653 0.348257 0.0436066 0.523159 0.47181 0.124653 -0.337023 0.597172 0.21217 0.0238656 0.080216 -0.139012 -0.80049 0.600475 0.374856 -0.253587 -0.266704 0.057594 0.593333 -0.12799 -0.682505 -0.772409 -0.43373 -0.209287 0.648192 -0.925481 -0.0806022 0.578575 -0.186007 0.000867452 0.241319 -0.127814 -1.05212 0.0581257 -0.543367 -0.27981 -0.0589554 0.314248 0.410343 0.127811 0.940366 
-0.527126 -0.200926 0.170223 -0.000531557 -0.00640377 0.595412 0.370367 0.0538715 0.440115 0.430124 -0.762562 -0.0985053 0.526804 0.460748 0.743351 0.490066 -0.156071 -0.387917 -0.588577 -1.09677 -0.180253 -0.032661 -0.5427 -0.39154 0.472302 0.477203 0.330405 0.210164 0.0400048 -0.423904 0.239125 -0.144228 -0.382048 -0.514603 -0.745031 0.0677916 -0.530041 -0.485313 -0.592786 0.137693 0.799696 -0.189003 0.335275 0.156137 0.788366 -0.214379 -0.694233 0.284174 0.388741 0.471535 0.186333 0.104351 0.568244 -0.492157 0.0311565 0.0496265 -0.0474873 -0.329525 -0.120299 0.0924234 -0.34237 0.328853 0.735653 -1.00025 0.420572 -0.40442 0.133123 0.35297 -0.268596 -0.402081 -0.298855 -1.09467 0.230718 0.236172 -0.555637 -0.407339 -0.0314474 -0.197878 -0.0726336 -0.117317 -0.223327 0.844775 -0.00512623 0.86606 0.367196 0.462444 -0.909537 -0.0606097 -0.497987 -0.543101 0.37605 -0.508705 -0.0339313 -0.151351 -0.536586 -0.113813 
0.034888 -0.146174 0.00575912 -0.3895 0.605448 -0.725019 1.40245 -0.618026 0.180211 0.501612 -0.137616 -0.442321 -0.177483 0.394369 -0.104033 0.724769 0.307446 -0.311304 0.877484 1.04502 -0.708938 -0.179816 -0.226799 -0.859359 -0.429207 -0.0624942 -0.557085 -0.140067 0.23328 -0.349482 0.284865 -0.367245 -0.226659 0.314564 0.17422 -0.285213 -0.241908 -0.209603 0.499159 0.564986 0.567198 -0.907919 -0.0342525 0.284705 0.288115 -0.279671 0.546995 -0.271375 -0.128612 -0.107361 -0.13351 0.753255 -0.761129 -0.651331 -0.144824 0.517197 -0.649032 0.0584644 -1.03945 0.225525 -0.172075 -0.622279 -0.0516083 -0.267204 -0.528114 -0.480424 0.783306 0.0832996 -0.264073 -0.04644 -0.220322 -0.105932 0.369392 -0.607443 -0.208928 -0.372169 -0.294169 -0.463366 0.975419 0.200676 -0.387985 0.406832 0.157819 0.0616921 0.236087 -0.714842 -1.00523 0.15779 0.00893956 -0.0766401 0.0929353 -0.241674 0.411905 -0.298013 -0.203823 -0.0411434 
-0.111691 0.0746305 -0.266825 -0.41751 0.636855 -0.10044 0.458812 0.0778056 0.870068 -0.77535 0.139406 -0.469051 -0.46876 0.148523 0.126043 0.399018 0.133778 0.00872398 -0.324119 0.228738 0.430461 0.265933 -0.578091 -0.756573 0.923505 0.449739 -0.0312841 -0.0138865 -0.125133 -0.0879926 -0.121117 0.17423 -0.258966 0.193993 -0.75542 0.131712 -0.278956 -0.787626 -0.413846 0.297142 -0.284767 -0.0987882 -0.305096 -0.223743 -0.152816 0.115647 -0.0567184 -0.572123 -0.748239 0.110597 0.0146112 1.32911 -0.153974 0.228182 -0.189691 -0.380758 -0.0252361 0.733318 0.313081 0.0803312 -1.24566 -0.26877 -0.147799 0.346666 -0.167669 -0.758844 -0.399922 0.209757 -0.0367789 -0.05418 -0.0859815 0.0321078 -0.500565 -0.104209 0.284924 0.116666 -0.247379 0.703645 -0.183517 0.417303 -0.430284 -0.835401 -0.294957 -0.196334 0.748063 0.893821 -0.215866 -0.451947 -0.252409 0.259416 -0.169819 -0.517638 0.482951 -0.693461 -0.117476 0.206224 
-0.604055 0.148143 0.646126 0.879196 0.847662 -0.858862 0.100717 0.590644 0.456109 -0.172026 -0.0447749 0.428906 0.25575 0.312278 0.87424 -0.0082299 0.0681588 -0.1049 0.766755 0.0418751 0.505772 0.306881 0.419187 0.283571 -0.80575 -0.030582 0.398195 -0.0847055 0.909333 0.424467 0.204492 -0.583854 0.0249897 -0.248291 -1.16446 -0.412523 0.295912 -0.743099 0.104418 -0.444903 0.342101 0.382398 0.617653 0.236782 -0.0584072 -0.0884477 0.666522 -0.51209 -0.0455306 -0.795992 0.389384 -0.247919 -0.421134 0.296715 -0.472292 -0.318284 -0.0461789 -0.177084 0.352238 -0.393688 0.317429 0.712127 -0.131741 -0.505286 -1.08725 0.915066 0.139758 0.0509402 0.480762 0.843761 -0.421095 0.20754 0.335811 0.132135 -0.193887 -0.278361 0.385456 0.853591 -0.267975 -0.174423 0.375279 0.355637 0.269068 -0.366393 -0.104103 0.0958952 0.079449 0.2071 -0.0179327 0.21344 0.384429 0.0169507 0.177581 0.688593 -0.24083 1.10697 
-0.857216 -0.459198 0.0796302 -0.42813 0.472757 -0.303733 -0.477484 -0.420711 0.0457321 0.65567 0.691679 -0.455383 0.160439 0.0119366 -0.0678197 -0.772372 -0.179638 0.615823 0.234053 -0.337098 -0.367585 -0.0114525 -0.642418 0.263006 0.0530911 -0.146113 -0.551926 0.811004 -0.0114515 -0.0751564 0.130852 0.208907 0.516939 0.995625 0.604376 -0.32303 0.0754532 -0.450697 0.153419 0.699637 0.0731488 -0.349342 0.16049 -0.899733 -0.0884324 0.702902 -0.33292 -0.731538 0.0455481 0.0440009 -0.296496 -0.601846 -0.125228 -0.454909 -0.855743 -0.0767117 -0.211153 -0.349852 -0.403514 -0.0325778 -0.395252 -0.522818 0.881322 0.125927 -0.34077 -0.529485 0.194297 -0.642587 0.0331566 0.249819 0.210374 0.968979 0.0788289 -0.362206 0.0575805 0.135619 0.483762 0.58867 0.482799 0.169944 -0.654433 -0.0349391 -1.25753 -0.158787 -0.380139 -0.727347 -0.510555 0.576494 -0.0897985 0.338794 0.0476685 0.509808 -0.133917 0.0667114 -0.19719 -0.155767 
-0.0101207 -0.159308 0.170065 -1.2808 -0.264329 -0.106813 0.0658182 0.649749 0.00431346 -1.10172 -0.0497796 -0.218689 -0.158181 0.120655 0.517401 0.0477773 -0.308715 0.265693 0.157957 -0.750539 -0.0797779 -0.292442 0.333151 0.709069 -0.223432 0.37595 -0.21462 0.411428 -0.59591 0.736887 -0.302033 -0.579725 -0.498055 -0.116514 -0.541838 -1.0618 -0.487398 0.331537 1.48756 -0.432504 0.0875696 0.209776 0.699102 0.219391 0.197823 -0.182355 0.451268 -0.666176 -0.0955027 0.226981 -0.13864 -0.0321253 0.277151 0.0957583 -0.0976096 -0.16901 0.519224 0.123189 -0.578199 0.939822 0.362389 -0.809226 -0.175411 -0.344868 0.215007 0.101386 0.971321 -0.354308 -0.312612 -0.191072 0.528694 0.0924676 0.0220246 0.166679 0.112614 0.836612 0.714339 -0.0125415 0.107646 0.839112 0.127825 -0.263218 -0.277213 -0.19703 -0.32783 -0.0824882 -0.449002 -0.0767145 0.187995 -0.184573 -0.05968 -0.159665 -0.206183 0.0147031 -0.681164 0.0805592 
-0.165669 0.515121 0.53625 0.378169 0.0528234 0.477222 0.503265 0.0360855 0.958192 -0.34898 -0.266892 0.183841 0.33751 0.310573 -1.10453 -0.861646 -0.146413 0.3352 -0.0904207 -0.0157083 0.0426285 -0.210712 -0.949266 -0.333578 0.299594 -0.422846 -0.163899 -0.208096 -0.107352 0.851508 -0.712549 0.252642 0.266199 0.279651 -0.590644 -0.142883 0.239024 0.895714 -0.18585 0.0136851 -0.116176 0.0628747 -0.377576 -0.66908 0.571726 0.0492764 -0.80904 -0.833554 -0.302096 0.793595 -0.480878 0.30789 -0.247939 -0.138013 -0.562846 0.554154 -0.013978 0.0354871 0.379286 0.018279 -0.352148 -0.436808 0.280914 0.597124 0.3181 0.304937 -0.255947 -0.40241 0.459833 0.203284 -0.692787 -0.616798 -0.558276 0.100063 -0.85348 -0.11418 0.43124 -0.237049 0.186882 0.94173 0.376594 -0.129002 0.460639 0.0438116 -0.303766 -0.0169581 -0.535085 0.59927 -0.0529033 0.0698547 0.0234624 0.168744 -0.626365 -0.67623 -0.125799 0.390594 
-0.333526 0.10743 -0.436064 -0.0370487 -0.275248 0.00724433 -0.244595 -0.402709 -1.20421 -0.359762 -0.462348 0.0690732 0.468055 0.37625 -0.329462 -0.142452 0.118203 -0.0409339 -0.581363 -0.569463 0.109597 0.380847 -0.528807 0.0707054 0.328325 -0.723562 0.164705 0.529776 -0.0349179 0.54091 0.0676563 0.501625 0.366779 0.662489 -0.0482206 0.147355 0.25984 -0.829743 -0.180568 0.29354 -0.33016 -1.19677 0.130921 0.434611 0.296871 0.0386373 0.496285 -0.301629 -0.120954 0.442289 -0.42395 -0.115145 0.212153 0.0634352 -0.869429 -0.114427 0.455015 0.246526 -0.509917 0.445062 0.355464 -0.590622 -0.442752 0.130728 -0.322592 0.470503 0.565446 0.121041 -0.349805 -0.209781 0.343634 0.119738 0.577998 0.0381806 -0.194726 -0.501306 0.230425 -0.130919 -0.600923 -0.0137345 -0.252401 0.465892 0.0206048 -0.303795 0.0487796 -0.193691 0.196196 -0.0555754 -0.165466 0.0311435 0.00134429 -0.589785 0.491087 -0.405932 -0.0721953 0.488381 
-0.18668 -0.196403 0.0726262 -0.383594 -0.510573 -0.0969844 -0.0854024 -0.692681 -0.426606 0.514107 -0.0696299 0.0417454 0.123641 0.219677 -0.735707 0.239924 0.164962 0.264126 0.780848 0.281688 -0.456821 -0.439956 0.641127 -0.472672 0.279067 -0.110326 0.162626 0.249145 -0.241269 0.0989476 -0.166399 -0.0560389 0.929562 -0.749535 0.254052 0.202627 0.0540008 0.168448 -0.0465077 -0.0661082 -0.187691 0.528432 0.241772 0.0647022 -0.821525 0.374918 -0.0729461 0.513692 0.48981 -0.0646707 -0.419481 -0.655041 0.090521 -0.114046 0.341504 0.45715 -0.450587 -0.177925 -0.136631 -0.319499 0.0631261 0.0696796 -0.537363 -0.454652 -0.697887 -0.49728 -0.0331252 -0.162567 0.338355 0.204263 0.596646 0.675512 -0.00328314 0.539157 -0.870896 -0.151012 0.390853 -0.402073 0.0323472 -0.672198 0.395767 -0.822159 -1.10194 -0.139981 0.104192 -0.23252 0.259224 -0.428165 -0.55974 -0.0305988 0.621856 0.168485 -0.445148 0.302824 -0.186031 -0.0768526 
-0.157502 0.169151 -0.375902 0.624654 -1.03436 -0.190598 0.268077 0.289329 -0.331455 0.950706 -0.166051 -0.312954 -0.321673 -0.398015 0.236425 0.00311463 0.765982 -0.523421 0.441282 -0.828617 -0.0372614 0.0258199 0.102309 -0.35901 0.0879514 0.283603 -0.668072 0.0675897 -0.291499 -0.401309 0.613867 -0.506801 -0.398 0.618422 -0.388409 -0.0452753 0.00135626 0.775499 0.435191 -0.450709 -0.339967 -0.39421 0.176182 0.212056 -0.313054 0.370343 0.432415 -0.178901 -0.330013 0.492768 -0.106212 0.873712 -0.188498 -0.205608 -0.690126 -0.598343 0.127213 0.0336942 0.121445 -0.106785 -0.478355 0.00494698 0.610883 0.216249 -0.240409 0.82183 -0.155251 -1.03912 0.563118 1.00367 -0.245558 0.195833 -0.381201 0.0857427 0.521606 0.262964 0.449147 -0.606227 -0.1908 0.524996 -0.790006 -0.0352073 -0.0740471 0.0972083 0.0592805 -0.0528411 0.145522 0.584023 -0.721824 -0.585227 -0.184776 0.125352 -0.182918 0.697869 0.38681 0.502657 
