-1.28098 0.603508 -0.124498 0.516402 -0.00641726 -0.347398 -0.146753 0.376959 1.95336 -1.06634 0.617185 0.269144 1.3431 0.418253 0.202508 0.22576 0.197938 -0.633189 0.37174 -0.505978 -0.516098 -2.0673 -0.782297 0.248097 0.361715 -0.964103 -0.0483027 -0.731406 -1.72504 -0.273792 0.785544 1.59661 
0.960521 1.46583 1.29196 0.357272 -0.301421 0.719917 0.834736 0.388285 -1.26474 -0.478449 0.185575 0.134706 -0.165196 0.360097 -1.18636 -0.409139 1.05324 -1.28372 0.387853 0.63402 0.928973 -0.278503 -0.179456 0.00273256 1.87634 0.190271 0.500064 0.818132 -0.113105 -1.02351 0.30234 -0.860505 
0.271867 0.75176 -0.26831 -1.04673 0.796749 -2.0496 -0.80822 -0.325968 1.95191 -0.134781 0.30458 0.270184 1.08887 0.237013 -0.0943515 0.317056 -1.35276 1.44855 -0.159295 1.07287 0.477207 0.182216 0.174238 -1.45598 0.742939 0.475695 -1.29395 0.956895 -0.872629 0.466 0.535727 0.764843 
-0.745485 -0.139533 -0.0372036 -0.566716 0.373874 -0.24808 0.0614881 0.686645 2.68071 0.467297 -0.49886 -0.854762 0.617677 -0.0192248 -0.80008 0.354213 0.127448 -0.0343095 0.524019 1.02318 1.16594 0.0167906 1.40474 0.124381 2.10794 -0.862628 0.120487 -0.861762 -1.85848 -1.46137 -0.497082 -0.105025 
1.7368 0.276076 2.00549 -0.868617 -1.29154 -0.293831 -0.128754 0.432796 0.305793 -1.10263 -0.300296 -0.805019 1.57406 0.172799 -1.39997 -0.305381 -0.0833911 -0.278763 -0.203338 -1.33532 0.409135 -0.708065 0.369071 -0.65045 -0.260216 -0.643441 0.417607 0.0396209 0.944127 0.582254 0.231428 -1.02689 
-1.43354 1.63172 1.67955 -0.503492 -0.122712 0.0700661 0.58507 0.889819 -1.81884 -0.512408 0.244366 -0.881448 1.5608 0.731172 -2.18668 -1.23511 1.25625 -0.624195 0.203951 0.237444 0.630151 -0.0914512 -0.310013 0.603037 -1.23454 -0.519672 0.40794 1.45946 -0.270193 0.47175 0.465117 -1.21539 
-1.31932 -1.21027 -1.98508 -0.431828 0.601963 -0.245729 0.244243 -0.147168 2.0263 1.35253 1.00731 -0.830791 -1.00108 -0.979357 -1.08145 0.416928 -0.968019 -0.747425 0.249062 -0.560873 -1.4449 0.202807 -1.31451 -1.20105 1.04683 0.346709 -0.970198 -0.683895 -0.629779 -0.855054 0.757967 0.119689 
0.711388 -1.04617 -1.69017 0.179064 0.353374 -0.716218 0.092367 -0.193038 -0.664464 0.409914 0.570017 -0.0767687 0.589574 1.9465 0.869278 0.941149 1.28012 -0.59272 0.903371 -0.0431914 -0.951525 0.389279 0.176125 -0.579831 -0.904181 -2.0551 -0.756002 -0.41344 0.110079 0.181873 1.30336 -1.02872 
0.100849 -0.672663 -0.294075 -1.17633 -0.566527 0.314078 -1.13804 0.10704 0.943401 0.921304 -1.12262 -0.553112 -0.510748 0.681255 -1.06649 -0.104113 -0.521996 -1.34959 0.552725 0.480848 0.431115 0.485619 0.321829 0.367781 0.0589433 -0.892084 -2.54171 2.04343 -0.704895 1.42597 0.0417145 -1.44304 
1.12128 -0.420581 0.553646 1.16595 1.03066 0.249611 -0.570083 0.385937 1.18498 0.0896164 -0.175936 0.0768604 -0.364633 -1.18084 -0.265071 0.390479 -0.130816 0.269284 0.153773 0.465877 0.435909 -0.521127 -1.23308 -0.0994396 0.859672 0.136813 0.464807 -0.58832 -0.634438 0.184024 -0.331852 -0.36776 
-1.85243 -0.72543 -0.223303 0.591113 0.784581 1.4307 0.67125 -1.16754 0.475835 0.872852 0.135498 -0.448211 0.956844 0.885028 -0.586254 -0.649597 1.25423 0.327741 -0.384575 -1.28822 0.433589 1.70251 -0.875184 -1.45449 1.1203 0.231537 -0.562749 -1.4742 -0.32487 1.3002 0.405759 -0.905651 
-0.894641 2.20433 -0.0855082 1.01468 -0.577426 -0.760057 0.335532 0.958451 1.13238 0.668094 0.0568911 -0.835831 -0.594354 -0.527709 -0.704234 1.47573 -0.700853 2.25883 1.09059 0.548604 0.0466437 -0.381186 0.204644 -0.228042 0.020499 -0.776689 0.0805709 1.6806 0.0897128 -0.548208 0.452978 0.0289581 
0.743111 0.317395 0.0359274 -0.305629 -0.251849 0.366946 -2.06869 1.12426 -0.497344 -1.13268 1.12565 -0.350969 -0.495037 -0.906222 -0.729645 -0.119092 -0.541323 -0.879799 -0.15577 1.882 -0.467639 0.952027 0.87424 0.428536 -1.45751 0.594923 1.79601 0.357638 0.197945 -0.0874751 -0.422599 0.788634 
0.334331 -0.950418 -0.145554 -1.20272 -1.21765 -0.730963 -1.30794 0.526807 -0.139945 -1.19365 -0.985311 -1.45091 -0.698522 1.54435 0.444821 0.903172 -0.706544 -0.917931 2.00601 2.35445 0.669569 -1.57107 -0.856527 -0.909478 1.72052 0.461768 -0.957914 0.357836 0.94042 1.13012 -1.4945 -1.16512 
-1.28896 -0.316903 0.127652 0.869201 1.42213 0.911396 -0.177883 0.84059 -0.69404 -1.65513 -0.810094 1.48794 0.381438 -1.22572 0.648226 -1.30223 1.23801 -0.572919 -0.0689336 -0.618103 -0.159362 -0.663784 0.85675 0.129598 -0.077409 2.71242 0.498417 0.573746 0.770851 1.78251 1.52829 -1.21943 
-1.32361 0.575192 -1.06953 -1.09233 -0.77217 -1.18085 0.590703 0.283151 -0.653 0.286507 0.150389 0.588946 0.706947 0.989095 -1.18359 0.548696 0.128723 -0.38407 1.0729 -0.579041 0.925393 1.59993 0.212979 0.314643 -1.66004 -0.47736 -0.258004 -0.777689 1.18721 2.00633 0.105004 -0.0434717 
-0.333733 1.62856 0.169544 0.650975 0.566164 -1.01087 1.03535 -0.64088 0.040739 0.841625 1.59073 0.00153164 0.267558 0.414478 0.977946 1.5212 0.936555 -0.508676 0.989892 1.28838 0.34643 -0.929083 0.670029 -1.2609 -0.813479 1.56646 0.546894 -0.270894 -0.590015 0.262081 -1.61196 -0.491977 
0.169313 -1.06573 -0.018572 0.0781426 -1.1791 0.2096 1.33337 -0.4917 2.276 -0.538763 1.19343 1.21996 -0.672954 -0.892722 -0.12653 -0.0504393 0.365845 2.07889 -0.168396 1.48448 -0.250892 0.211103 -0.893569 1.52264 -1.17072 -1.59403 -0.268567 -0.560149 0.797644 -0.415603 0.855411 -0.697149 
0.316467 -0.0336961 0.680138 2.09768 -1.09114 0.199213 0.870205 -0.204726 1.40227 -0.181297 -0.610891 0.561706 -0.755863 1.85918 0.299551 -0.326557 2.38711 -0.990287 0.745238 0.722748 -0.914228 -0.299333 1.12813 0.479599 -1.14682 0.172311 -0.686326 0.396039 -0.0748424 0.742561 0.0400123 -1.05758 
0.261421 -0.936852 0.124181 0.454208 -0.659711 0.33998 -0.295951 -1.31948 0.580217 0.330791 1.33919 0.209867 0.139748 0.669298 -0.464444 -0.65396 2.40504 -0.851144 0.809262 -0.600117 -1.2936 -1.40301 1.30904 0.1615 -0.155154 0.248542 -0.735552 -1.20338 -0.321357 0.0228898 0.0956554 -0.0800839 
0.276433 0.536303 -0.782106 0.387483 -1.62625 1.08875 0.171687 -0.437083 -0.23289 -0.3222 -0.274501 -0.104527 1.29462 -1.09504 0.609085 -0.419071 -0.0371926 -1.00997 0.699816 -0.257933 -0.26113 1.50009 0.385011 -0.500077 -0.106813 -0.286176 -1.11479 1.11163 0.561175 0.542199 -1.13598 0.524265 
-1.07576 -0.347157 0.0651544 -0.61327 0.121653 -0.820547 0.987311 0.397101 -0.160613 0.329365 -0.427474 -0.635755 -0.0725341 -0.0523709 0.862183 0.701033 -1.80298 1.07858 0.102358 0.0363317 -0.809733 -0.945508 -0.0418271 -0.82093 2.02532 -0.325086 0.847745 -0.748973 0.25786 0.180744 -2.09305 -0.258645 
-0.941265 -1.03822 0.885195 -1.4857 -0.189174 1.00857 -1.51112 -0.267128 0.421076 0.463487 0.706555 0.420617 -0.562154 0.657617 -0.134041 0.340293 -1.05643 -0.87122 0.676756 0.941044 1.09598 0.0723713 0.0431806 0.402845 0.759174 0.631005 -0.797539 0.111895 -0.445635 0.905719 -0.00725329 -0.276592 
-0.233797 -1.0443 0.65463 0.318625 -1.34541 0.244815 -1.9824 -0.151688 -2.1013 1.19001 0.659638 1.53514 0.0902778 1.43679 -1.62681 -0.807454 0.426993 0.347209 0.304078 0.524956 -0.0353695 0.813865 1.58048 0.468002 -0.362463 0.744119 0.150505 1.2517 0.92894 0.53454 0.254327 1.12322 
0.923537 -0.606426 -1.94568 0.417917 -0.428286 0.472072 -0.589908 -0.0155286 0.383755 -0.91754 0.145546 -1.15999 2.17859 -0.70232 0.074181 0.263688 -0.239682 -0.299566 -0.994713 -0.200793 0.235379 0.639009 0.0195714 -0.359782 0.0463325 -2.15044 -0.472193 0.992314 -0.44801 -1.42837 0.230581 0.380857 
-0.692978 0.742834 -0.377863 0.0783342 0.952005 1.14792 -0.0777992 1.21694 2.40223 -0.888237 0.85629 -0.363848 -0.516136 1.39299 0.413247 -0.305149 0.362411 -0.813921 -0.53582 -1.72837 0.786181 -0.289131 1.60118 -0.15361 0.561828 1.29402 0.140163 -0.454571 -0.564443 0.780746 0.466714 -0.235779 
1.03823 -0.462059 1.08022 -0.433188 -0.578475 -0.550605 0.295358 -1.45526 0.516721 0.526449 -0.820079 0.375866 0.0361211 0.841923 0.468463 1.72974 0.764421 0.289454 -0.421114 -0.713663 0.308598 -1.00541 0.947103 0.254463 -0.425904 0.329763 -0.145904 1.00052 0.204951 1.48335 -0.210582 0.124089 
-0.0950891 1.40726 0.329894 -2.99102 0.228706 -0.47065 0.547785 0.327383 -0.0349986 -0.916491 -0.537793 -1.93683 1.39218 1.11819 -1.69874 -0.239573 0.399655 0.103436 0.147155 0.525253 -2.14934 -0.433044 -0.299428 -1.20904 -1.15612 -1.70905 -3.11127 -0.932532 1.35738 0.306948 0.390603 0.472012 
1.16497 -0.685911 0.994997 -0.952803 1.63279 0.141032 -0.726923 -0.732383 -1.45601 -0.733844 2.82192 -0.284603 0.290238 1.15812 -1.0865 -0.723901 0.677333 0.197816 1.54391 -2.04533 0.00127363 -0.128518 0.117452 0.226329 0.465119 -0.519596 -1.20641 -0.18629 0.104337 1.01214 0.92657 -1.37351 
0.250293 -0.600292 1.20002 0.548114 -0.260279 0.033489 -0.491068 0.180384 -0.429753 -0.216461 0.160696 -1.47422 -0.485869 -0.320319 0.111138 -0.464881 0.332876 -1.23938 -1.07327 -0.0490199 -0.659828 0.790061 0.975185 -0.666799 -0.483648 1.00874 0.517804 -1.77028 0.00170027 1.08268 0.841529 0.626597 
0.416023 -0.527773 -0.917982 -1.49201 0.423696 -1.99922 0.299463 -1.11723 0.331079 -0.144346 0.408866 -0.25345 0.440546 0.979702 0.399459 0.799214 -0.21659 -0.969679 -0.645126 0.466041 2.19656 1.37312 2.35142 -0.326573 -0.264241 -0.943036 -0.0849583 1.38664 0.983027 -0.852921 -1.55999 -0.256115 
-0.163269 -0.117862 -0.832238 -0.63952 0.637421 -0.443349 -0.656936 0.106944 -0.227942 0.0310715 1.73451 0.0282534 0.427338 -0.818536 -1.71865 -1.74662 0.972068 0.766672 -1.19928 1.0458 -0.387778 1.56918 -0.936544 -0.179129 0.237563 0.500246 0.135519 0.14281 -1.17124 -0.333519 -0.95039 -1.57891 
1.27835 0.219866 -0.893177 -1.10857 0.440144 -0.0103967 0.664212 1.39254 1.25481 -0.306647 -0.189039 0.997992 0.142292 1.17351 0.00499516 0.191387 1.75324 -1.82361 -1.38596 0.804977 -0.128683 0.805589 0.0825405 -1.55982 0.47954 1.74605 0.221055 0.458215 -1.07401 -0.837887 -0.669067 0.70852 
0.710426 -1.29956 0.331665 0.430114 -0.754669 0.923501 1.01491 -1.4072 0.154049 0.557523 0.853105 -0.401232 0.419245 0.550188 0.397059 -0.88776 1.83073 1.16511 -0.912569 0.0980675 -1.15242 -0.738682 -0.686511 0.0348237 0.292346 -0.0443081 0.0901951 0.350049 1.07426 -1.19911 0.710911 -0.72745 
0.111457 -0.576097 1.11347 -1.19943 -0.343594 0.389755 -0.754163 0.316826 -0.935691 -0.6672 0.469156 -0.669491 -0.0963085 0.167881 -2.64501 -0.534508 0.697162 -0.00473816 0.275845 1.19367 -0.0355975 -0.914694 -0.250048 -1.54666 0.163176 0.171301 -0.0306653 1.02424 0.504213 -0.194086 -2.07818 1.13731 
0.487513 -1.11343 0.124785 -0.475496 -0.238167 0.531552 -0.203603 -0.337165 -0.167893 0.311501 1.32062 -0.216067 -1.16641 0.267286 -0.306685 0.878056 0.416209 -0.191132 -0.312281 0.648068 -0.155193 -0.815184 0.665819 1.2634 1.42214 -1.16181 1.58491 0.135624 -0.555439 -1.23813 -0.562324 0.601866 
1.20171 0.781458 0.51494 -0.175029 0.48862 -1.03689 0.903065 0.0285677 0.25057 0.929444 0.269141 1.41398 -1.23134 -0.0373402 0.947986 -0.459049 -0.832918 -0.91574 1.45088 -1.26019 -0.445375 0.236639 -0.0121516 -0.326097 0.49601 -1.04226 -0.542461 0.336916 -2.81287 1.23663 0.836033 0.0887528 
-0.734563 0.184324 -0.235606 2.23896 1.35376 0.952014 -1.43899 -0.382187 -0.629593 0.424784 -0.426337 0.238267 -0.597837 -0.584446 -0.274545 0.2499 0.723487 -0.379368 -0.670731 0.629893 0.76847 1.04128 1.02741 0.739624 -0.984157 1.25269 -1.62558 -0.258761 0.289872 0.0738806 0.483662 1.36341 
-0.268649 -1.61256 -0.594168 -1.42771 -0.627271 -0.560519 -0.695936 -0.0739833 -1.56975 0.854831 -0.531542 -0.997538 0.166768 -0.722911 0.233968 -0.74999 -0.16618 -0.636115 -1.17885 -0.490876 -1.08433 -0.543159 0.275125 -0.353599 0.0980275 -1.99063 -0.434926 -0.667463 0.312893 0.159847 0.115968 -1.63919 
0.559473 -1.11987 0.371424 -0.726639 0.461539 -1.54687 -0.645943 -0.454403 -0.333847 1.051 0.0352637 -0.00922323 0.0123368 -0.777677 1.48061 -0.892875 -0.718176 1.10615 0.0612928 -0.661913 0.310299 0.0744812 -0.189428 1.10316 0.349497 0.149375 -0.33987 -2.2946 1.22712 1.02412 -0.506113 -0.418026 
-1.64455 1.07686 -0.528059 0.116038 0.109019 -1.81468 0.203104 -0.219143 -0.79675 0.134275 -0.464476 -0.382125 -0.548891 -1.07927 -1.03941 0.500361 -0.760605 -0.633901 0.790863 -1.25335 -0.543797 -0.1154 -1.3785 -0.598792 0.611053 -0.429568 0.773513 -0.164157 -0.0689565 0.0163525 -1.04629 1.66336 
0.255599 1.13917 -0.428052 -0.177928 1.05105 -0.475492 -0.604276 -1.43434 -0.201903 -0.473063 -1.07972 0.119304 1.01237 -0.125325 0.0810273 -0.690012 -1.73634 0.241483 -0.164086 -0.658449 -0.775776 1.27601 1.09654 0.640128 0.665645 0.957775 1.81377 0.703173 1.10484 -0.603454 -0.582545 0.925692 
0.376913 0.593127 0.330022 -0.367546 -0.432133 0.0728125 1.1389 -0.62209 -1.36283 -0.620877 -0.501293 -0.590505 -0.501829 -0.481009 0.913282 1.04554 0.326777 -0.53752 0.145172 0.77713 -0.61424 0.56911 0.547696 0.705519 -0.352 0.75088 0.222938 -0.981447 -1.55884 0.926328 -0.591124 0.260311 
1.14816 -0.814592 -0.478444 0.386507 0.752291 0.251644 -2.0412 -0.462537 -0.482463 0.674035 1.81671 0.151675 -1.16615 1.02721 1.14607 -0.271782 -1.03402 0.396416 -0.888167 -0.339783 -0.046273 0.877342 0.435067 -0.813524 -0.206259 0.46758 1.45278 -0.657045 -0.333517 -3.02847 -1.40362 0.497495 
-0.641791 0.0341321 1.13912 -0.377144 -0.8527 -1.08559 -0.0388973 1.52786 1.0075 -0.904448 -0.588112 0.0723053 -1.49534 -0.266615 1.72862 -0.486623 0.112197 -0.135113 -1.69676 -2.05745 0.274048 1.33259 -0.58211 -0.0961086 0.451246 -1.00275 -0.181891 -0.105213 0.0663231 1.8091 1.50336 0.711585 
0.598456 1.13041 0.328157 -0.229716 0.868695 0.386855 -0.526025 -0.784689 -0.522527 -0.1617 -0.410044 1.10323 -1.06114 0.173843 1.26348 -1.81935 0.848252 0.608582 1.01952 1.04323 0.877622 -0.315099 -0.452886 0.340127 -1.51171 0.0628405 0.164696 0.885201 -0.75075 2.68256 0.809993 -1.06064 
1.13955 -0.83483 0.811958 0.391761 0.308532 0.40043 -0.572181 0.752975 -0.384086 0.189082 0.253609 0.982965 -0.0425038 0.048167 0.651867 -1.92692 -0.138659 0.732148 0.298061 -0.158708 -0.687326 0.66744 0.138118 0.885912 -0.425766 0.388205 -0.443703 0.23412 2.17655 -1.05772 -0.772952 0.0459832 
-0.427054 -0.518389 -0.253716 1.34274 -0.866764 -0.809554 1.05978 -0.727264 -0.12577 -2.18026 -0.136836 0.408279 -0.16441 0.244248 -0.578777 -0.689405 -0.70916 -0.0827331 -1.38116 -0.710402 0.940732 -0.920814 0.609776 -0.41105 -0.897335 1.95991 0.615465 0.320401 -0.392432 1.12305 -0.541971 -0.0703696 
-0.103211 1.35945 -2.16362 -0.450456 0.884011 0.41977 0.843747 -0.328154 -0.125311 -0.708825 -0.310587 -0.708756 1.12183 0.405874 0.296215 0.480458 -1.18047 0.825433 -0.179183 0.365937 -0.384067 -0.205714 0.232185 1.96825 -0.294718 1.12633 -0.610777 1.84107 -0.83278 0.378966 -0.506271 -0.494157 
-0.834391 -1.24161 0.340433 1.08319 1.79016 -0.652147 0.0155448 -0.438786 1.29509 -0.563978 0.0341928 0.0209955 -0.791098 -1.05513 -1.30502 2.22077 -0.971322 0.670837 0.201775 -0.958516 -0.0149369 -1.03952 0.797772 -0.373143 -0.914912 0.491641 0.714273 0.362456 0.215585 0.0983129 0.0835747 -1.71857 
-1.35749 0.438462 0.898323 1.20717 -1.06797 0.780762 1.59214 -0.436902 1.33574 -0.262044 -0.561011 0.607195 -0.280776 -0.0484288 -1.35257 0.0790505 -0.0116573 0.779233 0.473614 0.200706 0.766696 -0.842369 0.307937 -1.14866 -1.45425 0.193968 0.574465 0.238037 0.492164 0.642792 0.57019 0.592263 
0.699431 0.765368 0.971849 1.38696 0.194837 1.3024 -0.185302 -1.05476 -0.729218 0.262687 -0.0309835 0.744791 0.509348 -0.278908 0.400477 -0.132798 -0.418396 -1.29045 -0.657274 0.5502 -0.0376524 0.298174 1.00392 0.0223907 -1.66186 0.584727 -0.87451 1.00916 -0.046237 -1.18697 -0.200635 -0.0464832 
1.10393 -1.13411 -0.515917 1.4184 0.890493 0.0175123 0.109886 -0.370365 -0.927971 -0.0600748 -0.913908 0.0941258 -0.734983 -0.138556 -0.418754 -0.397722 -0.71631 -0.901276 0.00181779 -0.0464786 0.827364 -0.656516 0.514202 -1.33623 -1.01308 0.370642 -1.1946 -1.25875 -0.385255 2.08074 -0.806548 0.0652014 
-0.32642 -0.478073 0.625074 -0.206722 -0.147373 -1.56018 0.0791499 1.12606 -1.34408 0.565016 -0.169542 1.11678 0.277188 1.48337 -1.25539 0.486173 0.69033 0.859645 -1.62173 0.00198408 1.25986 -1.34023 1.40932 1.4523 -1.05765 0.523432 -1.05259 -0.705811 -1.0811 0.718654 0.989321 -0.110974 
1.07726 -0.468028 -1.79513 0.333545 0.516072 -1.87618 -0.0996848 0.568466 -0.655782 -1.45761 0.302936 0.953559 0.707163 -0.511388 -0.307034 0.654123 0.516299 0.124214 0.942956 0.317002 -0.357891 0.133071 -0.355472 -0.719105 -1.28398 2.21599 -0.228189 0.11995 0.420438 -0.308436 2.45586 -0.644782 
0.300363 -0.142157 -0.0153543 0.318249 -0.557375 0.789511 -0.933815 -1.38287 -0.939518 -0.958814 -0.147077 1.12998 0.210434 -1.0085 -0.460202 0.898245 0.0746283 0.821969 -0.601439 -0.366057 -1.61277 -0.356936 -0.129308 0.449517 -0.0745371 1.53961 2.55502 0.643478 1.50293 0.156207 0.593556 0.0318486 
-0.60446 0.602739 0.923349 -1.92212 1.9682 -0.333049 -1.38147 0.413659 0.376785 -0.935626 0.267871 0.508959 0.831111 1.42022 0.289088 -0.134481 0.482675 0.0751275 0.0406131 -0.925673 0.717122 0.513039 -1.36529 -0.785717 -0.264571 -0.169704 0.153592 0.593529 -1.45673 0.0305726 0.353314 -0.247406 
-0.145118 -0.0783121 0.162249 -0.353663 0.0210952 1.51944 -1.10065 0.843751 -0.487176 -0.494947 1.11191 -0.353302 0.300939 0.461674 0.461418 -0.217373 -0.558095 0.836606 0.835605 -0.0921271 1.3482 0.234181 0.587958 1.50316 1.08678 0.817916 1.37477 -1.22854 -2.38295 -0.623344 1.01014 1.49764 
-0.832354 0.106857 -0.674572 1.51448 -0.211847 -0.186447 -0.404884 0.038416 0.626631 0.240111 0.0455456 0.231553 0.705552 0.418222 -0.23692 -0.786102 0.110442 -1.44892 1.4573 -0.17552 0.229957 0.166063 -0.697155 0.39965 0.0728018 0.048954 1.20497 0.14324 1.14512 0.17706 0.782545 0.545621 
-0.160222 0.285532 -0.221558 -0.242114 -0.602845 0.929107 -1.0811 0.614901 1.16706 -0.142853 -1.00229 1.3793 0.665746 -1.78667 -0.251125 -0.0784372 -0.789335 0.0377049 1.45997 0.10246 0.642744 0.57763 0.339251 -0.116239 0.242744 -0.0554678 -1.18228 -0.0257576 -0.837499 0.0454537 0.806926 -0.891604 
-0.919798 0.591343 0.40322 0.349054 -0.179618 -0.486169 0.994244 0.717754 0.677062 -0.580546 0.828391 -0.302096 0.233764 1.05351 1.5319 0.530769 -0.819631 0.100512 0.409151 0.0955314 1.00113 0.317544 -1.81367 0.6397 0.429596 -1.16289 -0.199386 -0.669525 -0.675735 -0.911624 -1.28558 -0.462851 
-0.964958 -1.05398 0.0119107 -0.0291297 0.824186 -0.464205 0.473222 -0.239937 -0.0834891 -0.31029 -1.33968 1.50833 -0.863513 0.388975 -0.643894 1.32011 -0.284511 1.20882 -0.772729 -0.70809 0.586292 0.131492 1.11278 0.509687 -0.544658 -0.999886 -0.498525 -0.0414011 -0.763583 -0.693711 0.223399 1.32198 
-0.533189 -0.017342 -0.520328 0.361436 -1.91649 1.32031 1.02849 -1.81455 0.716559 1.01931 -0.308387 0.471042 1.56593 0.196693 -1.57147 0.503941 0.593564 -0.350551 2.14252 0.247276 -0.0908305 0.621849 -1.55291 0.0389857 -1.11419 0.249013 1.97775 0.634303 -0.775271 0.339742 0.100909 1.15678 
-0.654151 -0.925506 -0.427109 -0.969861 1.49695 0.857356 -1.23218 0.932717 -0.694038 0.593961 0.217867 1.28051 -0.246633 -0.202888 1.49374 -0.0695427 -0.748551 -0.481083 -0.153657 -0.0939375 -0.984754 -0.105688 0.480819 -2.46678 -0.447839 -0.066939 0.659719 0.622979 1.97227 -0.635311 0.556992 1.05506 
#
-0.423512 
0.333962 
0.268061 
0.339953 
-0.851524 
-0.0583656 
-0.490304 
-0.418671 
1.53548 
-0.418179 
0.515432 
0.555429 
-1.44354 
0.225763 
-0.140725 
0.358036 
-0.51702 
1.15034 
0.045322 
-0.000802507 
-0.367826 
0.414689 
-0.129187 
-0.690987 
0.507483 
-0.388485 
-0.128824 
-0.736709 
1.14378 
0.203019 
0.398256 
0.79557 
#
