-0.000190124 -0.0237259 0.00627777 -0.181297 0.301197 0.736851 0.195348 -0.40583 0.392654 0.422687 0.52001 0.192116 0.706315 0.143851 0.237592 0.0851951 -0.118978 0.0551707 -0.574003 -0.755786 -0.666701 -0.0202213 -0.620423 -0.209569 -0.394767 0.0433037 -0.238445 -0.134426 0.352498 0.641057 -0.226292 -0.220918 0.463515 0.0948921 0.158798 0.167458 0.419568 0.295149 -0.128225 0.821683 -0.271507 -0.224936 0.052074 0.301593 0.548453 -0.302076 0.155214 -0.364181 0.070476 -0.115373 -0.302665 0.176472 0.0537325 -0.450043 -0.191176 0.453901 0.0790593 -0.122418 0.074999 -0.489295 -0.0622067 -0.452093 0.28301 -0.133756 -0.0531152 0.0538241 -0.590481 -0.199963 0.358175 0.147322 -0.209949 0.188766 0.0428297 -0.381721 0.508349 -0.167816 -0.142909 0.13038 -0.188349 0.451081 0.410216 0.194327 0.409759 0.18105 0.321038 0.347409 -0.665214 -0.665828 0.239138 -0.124061 0.207289 -0.0832975 0.39008 0.152713 0.65735 0.0958046 
-0.112866 -0.648546 0.111582 0.364346 -0.0797828 0.197698 -0.324735 0.442913 0.553487 0.0134911 -0.710625 0.245197 0.474947 -0.179674 -0.138061 -0.250363 0.0133954 0.38851 -0.303682 0.341643 0.151798 -0.137698 -0.164489 -0.144537 0.479405 0.335105 0.500108 0.764781 -0.344131 0.316555 0.304162 -0.445796 0.784986 0.205939 0.194865 0.0149067 -0.58306 0.472571 0.665022 0.370276 -0.55937 -0.43392 -0.734909 0.0670327 0.04872 -0.0549888 1.03795 -0.0718223 0.960492 -0.0683672 -0.349755 -0.22507 0.0691622 -0.248707 0.242558 0.279013 0.528094 0.652168 0.922865 0.558746 0.120066 0.439314 -0.206071 -0.459095 0.0566992 -0.156117 0.77694 -0.0904711 -0.386324 -0.547361 -0.511152 -0.0908776 -0.0819885 -0.0654666 0.606201 -0.60411 0.285706 0.0584172 -0.67781 0.11569 -0.0586765 0.0133768 -0.253614 0.742501 0.0924871 -0.228982 -0.130523 0.0526914 -0.467003 -0.426314 0.201464 0.0554804 0.690643 -0.0703592 0.110614 -0.82302 
0.537455 -0.679576 0.256633 -0.215893 -0.501092 -0.200039 -0.398529 0.0818344 -0.0245047 0.0171678 0.335488 -0.784369 -0.22793 -0.333367 -0.509442 -0.285193 -0.174956 -0.196939 -0.487203 0.685448 0.143 -0.10085 0.160596 -0.139174 -0.63806 0.590762 -0.071478 -0.819741 0.262662 -0.235013 0.362403 0.336528 -0.0677134 0.534763 -0.869063 -0.160729 -0.239109 0.123367 0.258615 -1.10998 0.235749 0.27785 -0.0649264 -0.43058 -0.378736 0.397167 -0.377967 0.114241 0.262019 -0.196744 0.67955 -0.490924 -0.41053 -0.622122 0.166448 0.13678 0.166863 -0.245933 -0.177226 -0.511137 -0.0768117 0.220861 0.136393 -0.0735179 -0.0395643 0.0550603 -0.039517 -0.228824 0.252955 0.345342 0.105991 -0.429873 0.232291 0.325659 -0.748249 -0.441647 0.0391023 0.276466 -0.360739 -0.30425 -0.266713 0.0186649 -0.190197 0.471235 0.392702 -0.190366 -0.440618 -0.19739 0.774569 0.853967 0.348566 0.742388 -0.145403 0.23462 0.203203 -1.12172 
-0.0310249 -0.43992 0.521909 0.452977 -0.354145 0.485737 -0.22224 0.501352 0.128764 -0.0838946 0.270878 -0.270289 0.561559 -0.200466 0.322395 -0.368267 -0.130197 0.420337 -0.350146 -0.407999 0.114847 0.336428 0.169688 -0.466611 -0.218647 0.546911 -0.0308104 -0.0491746 -0.643712 -0.619048 -0.526448 0.180152 -0.334183 0.033006 0.794102 0.201333 -0.343525 -0.112535 -0.0462841 0.560368 -0.60628 0.131426 0.945666 -0.823855 -0.464077 -0.000241206 -0.13862 0.183851 0.588854 -0.426437 0.111655 -0.333054 -0.592344 0.149627 0.522233 -1.39956 -0.0436886 -0.644476 0.0772957 -0.178238 -0.872047 0.114836 -0.479913 0.286758 -0.00542815 -0.00299282 0.580487 0.176345 -0.194158 0.347559 -0.0928151 -0.538956 -0.260057 0.698258 0.340716 0.307561 -1.15933 0.514784 0.435569 0.560032 -0.23659 0.32322 0.187802 -0.0024606 -0.320791 -0.27379 -0.423283 0.127187 -0.507638 -0.196659 -0.274899 0.311473 -0.103283 -0.627465 -0.315483 1.37788 
0.10164 0.235767 0.130091 -0.507226 0.339886 0.610487 0.68426 0.181678 -0.559503 0.557481 -0.84528 -0.245705 0.182883 -0.524258 -0.178522 0.105149 -0.0765611 0.296064 -0.0262589 0.0783232 -0.386799 0.486504 -0.249488 0.214582 0.105102 -0.186861 -0.0873234 0.287018 0.252337 0.550495 -0.833121 0.159112 -0.612729 -0.391807 -0.348601 -0.118334 0.0299504 0.0920054 0.307376 0.508934 -0.276346 -0.247279 -0.222269 0.288732 -0.51601 0.708309 -0.379352 -0.0749597 -0.0668484 0.105223 0.367388 0.562309 -0.259707 0.184853 0.408445 -0.0058134 0.0564773 -0.13943 -0.0618986 0.442671 -0.270231 -0.0384808 -0.295703 0.308336 -0.0206235 -0.394608 0.104588 0.273139 0.000162842 0.259037 -0.578458 0.77373 0.271824 0.404289 -0.202551 0.450587 0.200709 -0.391486 0.374706 -0.32672 0.322215 -0.25713 0.402135 0.207711 -0.444984 -0.00799201 -0.376585 0.0830931 -0.0181259 0.291537 -0.0779452 0.146022 0.0334878 0.892528 0.126437 -0.113567 
-0.31718 -0.345043 -0.695209 0.115588 0.19857 -0.609928 -0.0475252 -0.584306 0.204324 0.225025 0.0473363 0.194238 0.67836 0.914747 -0.74818 -0.00160349 0.149965 0.252673 -0.393682 0.16033 -0.297675 -0.197949 0.382071 -0.0928157 -0.623225 -0.0648969 0.389293 -0.952726 -0.25833 -0.139005 -0.524534 -1.04885 0.757966 0.431162 -1.1137 -0.162757 -0.295614 -0.0654002 -0.0668766 -0.716027 -0.370159 0.0272626 0.829485 0.158235 0.0463118 0.225708 0.265391 0.578367 0.269506 -0.232713 0.432053 -0.855895 0.368413 -0.202972 0.246427 0.710643 -0.0604971 0.04854 0.260074 -0.493708 -0.384778 0.525216 -0.19195 0.00402245 0.0313217 -0.247763 -0.200244 0.510188 -0.283046 -0.175704 0.193022 0.208529 -0.525264 -0.445654 -0.220286 0.237376 0.585464 0.436639 -0.530082 -0.0618339 0.3663 0.492692 -0.252487 -0.0561319 -0.355912 -0.21504 -0.611624 0.50623 0.222454 -0.48652 0.163302 -0.0681 -0.104235 -0.313574 -0.225253 0.132633 
-0.143112 -0.211256 0.0020294 0.800703 -0.433591 -0.514388 -0.0688736 0.147611 0.15355 0.0521503 0.0673246 0.237972 0.100405 0.392422 0.113413 0.491357 -0.39749 -0.605934 -0.0900976 -0.370963 -0.270143 -0.541805 0.55501 -0.102529 -0.251871 0.00628009 -0.0799827 -0.372059 -0.0132831 0.282134 0.172063 -0.179224 0.224277 0.0423744 0.444362 0.578168 0.126431 0.46075 0.408674 -0.389443 -0.148757 -0.0252886 -0.0143948 -0.643751 -0.111032 0.408558 0.120528 -0.0196055 0.00980015 0.311974 0.0945211 0.594314 -0.260244 -0.126548 0.110081 0.33111 -0.439232 0.300344 -0.143904 -0.291221 -0.480819 -0.613353 0.295659 0.317029 0.41098 -0.245113 -0.104932 -0.013363 0.0309552 0.416036 -0.559056 -0.586833 0.0413962 -0.325189 0.578005 0.378041 -0.458554 -0.392364 0.660889 -0.188494 -0.320984 -0.0379566 0.329259 -0.493745 0.380557 -0.368731 0.113568 -0.174355 -0.616053 -0.0891866 0.19959 -0.210121 0.306923 -0.294351 -0.180708 -0.128773 
-0.407785 -0.248142 -0.0165561 -0.225281 -0.148005 -0.422307 -0.301632 0.352853 0.37415 0.934395 -0.114777 -0.301929 0.241496 0.22634 0.142416 -0.368292 -0.302993 0.192734 0.626146 -0.227021 -0.00599069 0.296951 0.490001 0.168539 -0.355672 -0.128567 -0.0100644 -0.0885471 -0.14351 0.119286 0.0399213 0.28005 -0.474283 0.3326 -0.430112 -0.693282 -0.0420563 0.450846 -0.609749 -0.0173147 0.66401 -0.201102 0.540187 0.138426 -0.742563 0.11381 0.250041 -0.0671914 0.0920068 0.489502 -0.179242 -0.0558903 -0.143368 0.766982 -0.20316 0.0385361 0.600729 0.250368 0.521388 -0.215838 -0.362734 0.31193 0.241118 -0.364288 0.452684 -0.312748 0.134723 0.00111913 0.00690805 0.321603 -0.840852 -0.153053 0.277478 -0.444126 -0.352762 -0.321355 -0.235196 0.649056 0.110024 0.236157 -0.42149 -0.212043 -0.612968 0.0586274 -0.791047 0.034519 0.0206729 -0.288535 0.131251 -0.199776 0.0611019 -0.348097 0.021669 0.171876 0.339352 0.114168 
-0.237365 0.0745583 -0.165589 0.211062 0.0410359 0.789192 -0.612157 0.0419099 -0.448314 0.183851 -0.00587595 0.407205 -0.209891 -0.485801 -0.363105 0.00772698 -0.0788971 -0.450242 -0.935958 0.12204 -0.772979 -0.706914 0.64534 -0.294934 -0.146889 -0.548201 -0.188136 -0.597168 -0.16607 -0.40682 0.264628 -0.101087 0.898751 0.0145559 -0.338103 -0.254757 0.836291 0.570795 -0.268019 0.552925 0.851734 -0.063627 -0.0248948 0.369837 0.292798 -0.140247 0.617499 0.103991 0.266013 -0.496941 -0.191682 0.419932 -0.100284 0.378163 0.381112 0.0977649 0.193287 0.314622 0.556373 -0.125552 0.238736 0.0188744 -0.185762 0.32404 0.203983 -0.253165 -0.236488 0.266882 0.142406 -0.905875 0.56252 -0.497344 0.473986 0.0556922 -0.0555941 -0.117301 -0.314095 0.478441 0.342372 -0.106018 -0.260741 -0.0859672 -0.16445 0.370083 -0.191462 -0.186864 0.866913 -0.10591 0.543074 -0.239091 -0.336835 0.148999 -0.797745 0.214347 -0.482065 -0.567177 
-0.336828 -0.113345 -0.274598 -0.256556 -0.183016 -0.347901 0.492205 0.00234028 -0.0435547 0.0228769 -0.366502 -0.0562794 0.330908 0.295698 -0.186876 0.204427 0.0405787 -0.0576357 -0.0665098 -0.0966549 -0.109537 0.318581 0.901772 -0.52372 -0.672311 0.39098 -0.303912 -0.161509 0.125416 -0.0326424 0.518055 0.688871 -0.520836 -0.00841525 0.400692 -0.512904 0.831441 0.167901 -0.0461661 0.00105811 0.393517 0.188722 -0.143741 -0.292452 0.188062 0.33535 0.102261 0.268621 -0.280037 -0.336107 -0.0932653 -0.677331 0.766607 0.370141 -0.735496 0.526634 0.152207 -0.298538 -0.242688 0.216829 0.543053 0.554516 -0.278753 -0.273224 -0.0626827 -0.332392 -0.376427 0.459363 -0.554248 0.388333 -0.209892 -0.854808 0.198174 -0.946307 0.0712125 -0.109928 -0.238725 0.0725757 0.66696 0.150469 -0.188134 0.238712 0.448922 0.37931 -0.329222 0.315077 0.0365211 0.227097 0.121267 -0.102488 -0.509306 -0.549559 -0.847879 0.164009 -0.269103 0.0579178 
-0.439015 -0.688212 -0.02759 -0.259693 -0.230538 -0.00849194 0.566556 0.311961 -0.0766506 -0.832364 -0.0735868 -0.345605 -0.393022 0.0559091 -0.299082 -0.219689 -0.102647 0.0208884 -0.332163 -0.361823 0.599359 -0.191676 0.218024 -0.362943 0.695395 -0.0863758 -0.3497 0.565685 -0.805035 0.170564 0.0351838 0.000190485 -0.302224 -0.135945 0.360658 0.544921 -0.0541733 -0.533155 0.00984135 -0.208801 -0.136295 0.372823 0.0779844 0.0212217 -0.146358 0.504282 -0.739279 -0.394549 0.0462553 0.508629 -0.868104 0.204051 -0.43292 -0.19822 -0.631189 0.0152706 -0.00427287 0.0871035 0.21015 0.878307 -0.919549 0.0138731 -0.237387 0.105861 -0.108972 -0.372496 0.415998 0.0652077 -0.112829 0.443186 0.135599 0.107928 -0.053958 0.663073 0.488252 -0.223316 -0.47102 -0.343001 -0.670914 0.728235 0.663961 -0.21456 -0.58563 -0.0402611 -0.0967658 0.512003 0.148108 0.297433 0.505559 0.515659 -0.759528 -0.486937 0.631109 0.0365782 0.297828 -0.591742 
-0.0344436 -0.0810676 -0.278802 -0.0926142 -0.860345 0.276777 -0.370211 -0.647879 0.403968 -0.05548 -0.256848 0.509084 -0.0983228 -0.0562959 -0.17291 -0.278902 -0.00990483 0.460478 -0.319319 0.0294791 -0.43256 0.356106 -0.44366 0.38338 0.382137 0.238184 -0.161795 0.0288148 -0.0635677 0.406167 0.299534 -0.559582 -0.0409624 -0.267576 -0.39996 -0.383086 0.222529 -0.313698 0.419379 0.357936 -0.312341 -0.311998 0.0973778 -0.598196 -0.640661 -0.0755886 -0.670947 0.635387 0.612192 -0.0655021 0.367695 0.216797 0.16722 -0.191397 0.00818813 -0.23794 -0.136381 -0.160748 -0.460344 -0.747008 -0.0525122 -0.447401 -0.824729 0.437627 -0.225491 0.546725 -0.327558 0.0457981 -0.393737 0.168191 0.345555 0.291664 -0.397214 -0.043016 0.201951 0.0563993 0.0762477 -0.273679 -0.238265 0.22425 -0.601304 -0.0635564 0.0320845 0.0992471 -0.322107 -0.393818 0.456554 0.761952 0.500704 -0.496594 1.569 -0.499634 -0.490531 -0.0918905 0.466981 -0.030109 
0.284269 -0.299277 0.579469 -0.581277 0.0418574 0.165693 -0.114973 0.31743 -0.498514 0.533681 0.100228 0.423503 0.135615 -0.979479 -0.0786133 -0.0732099 -0.400918 -0.539369 0.466179 0.639689 -0.475593 -0.0753936 0.808737 -0.776753 -0.127062 0.340065 -0.237392 0.424438 0.277882 -0.400271 -0.54965 -0.441417 -0.232052 0.39181 0.256509 0.839881 0.854061 -0.391324 -0.767296 0.0495404 0.157304 0.105593 -0.196335 0.0574604 0.489056 -0.0954471 -0.172943 -0.058413 0.0586909 -0.518586 -0.375372 -0.0903373 -0.423975 0.275039 0.643593 -0.120419 -0.398161 0.371241 -0.652836 -0.155665 -0.386474 0.127428 -0.243763 0.478704 0.329995 -0.22526 0.0932319 -0.0550384 0.371344 -0.0145499 0.203887 0.591184 0.387286 -0.0471143 0.497588 0.168681 0.05379 -0.0355136 -0.132077 -1.08296 -0.0875079 0.0158044 0.444415 -0.0356123 -0.094003 0.613686 0.0038071 0.139105 0.222018 -0.457667 0.233912 0.543128 0.511467 -0.671297 -0.104878 -0.538262 
0.464464 -0.215561 -0.0107675 -0.621196 -0.201661 -0.258266 -0.265502 0.0786861 -0.41942 0.305197 -0.30332 -0.192378 0.320377 0.115947 -0.208706 0.332971 0.401179 0.534633 0.41342 -0.871379 0.3136 -0.670315 0.192425 0.0912219 0.341211 0.381722 0.101812 -0.338211 1.10141 0.0861518 0.0328275 0.295689 0.21247 1.00659 0.319921 0.79912 0.525823 -0.522994 0.155168 0.104366 -0.119752 -0.432568 -0.434794 -0.468939 -0.106875 -0.27693 -0.67286 0.511041 -0.365832 -0.413654 0.451447 -0.706029 -0.539038 -0.213176 -0.124425 0.252107 0.321726 -0.0273986 -0.00674859 0.112937 0.196702 0.0944766 -0.0679261 -0.251602 0.0589233 0.189471 -0.101138 0.119732 -0.221987 -1.07551 0.214867 -0.113003 0.374528 0.279455 -0.487987 0.0769136 0.211419 -0.145614 0.232728 0.526962 -0.153057 0.689987 -0.31191 0.141205 -0.289343 0.116426 0.5564 0.0310242 0.00916536 0.337173 0.638268 -0.135305 0.152848 0.321577 0.115087 0.424365 
-0.214499 0.127531 -0.110937 -0.519495 -0.322049 0.290831 0.193951 0.0788937 -0.288814 0.513398 0.135889 0.0845031 -0.1183 0.0122036 0.552405 0.0369514 0.64521 -0.394308 -0.18765 -0.610683 -0.584428 0.345049 0.676886 0.0121894 -0.295936 0.298884 0.00461946 -0.410171 0.234153 -0.176967 -0.228795 -0.357748 0.459252 -0.153258 -0.140787 -0.805145 -0.0265826 -0.00278266 0.254936 -0.273535 0.161486 -0.786007 0.417704 0.0244258 -0.699557 0.199085 0.44219 -0.510692 0.071183 -0.221925 0.00524989 0.781873 0.348215 0.107665 -0.154577 -0.146865 0.342191 0.848215 0.201853 -0.153583 -0.136442 -0.609681 -0.781623 0.117255 0.316078 -0.173259 -0.0910068 0.252008 -0.0118853 0.556874 0.192606 0.137473 0.0855617 0.0975689 0.143434 -0.128365 -0.341847 0.0172535 0.496912 0.163413 0.728347 -0.352286 -0.273668 0.201838 -0.193899 0.457975 -0.300639 -0.0182421 -0.158029 0.234158 -0.256452 -0.413174 0.143755 0.102057 0.134163 0.1632 
0.150474 -0.235051 -0.405909 -0.575781 -0.657647 0.24064 -0.406972 0.277752 0.181099 0.403269 -0.0422397 0.13988 0.0506592 0.0263642 0.438763 -0.154996 0.119234 -0.436323 0.277676 -0.00909933 -0.409244 0.35417 0.0510912 0.0440669 -0.119373 -0.26577 -0.0972569 -0.619399 0.130394 -0.0929331 -0.185464 -0.476374 0.408194 -0.541245 0.562517 -0.226474 0.466649 0.015952 0.0441354 0.319344 -0.16184 0.132352 0.0873925 0.0639356 -0.0228086 -0.0764655 0.808421 -0.357643 -0.343173 -0.693456 0.621967 0.818281 -0.0387233 -0.455976 0.0531712 -0.204593 -0.328321 0.59348 -0.461708 -0.421255 0.29492 -0.476724 -0.160166 0.348852 0.725093 -0.126243 -0.209417 -0.265424 -0.386771 -0.279844 0.381044 -0.0945935 0.223644 -0.258209 -0.307227 -0.528798 0.0491796 0.0599763 0.206171 0.0171581 0.103221 -0.203308 -0.194794 -0.475526 0.28536 -0.116624 0.0392688 -0.115101 0.383558 0.332471 0.469807 0.549192 0.522279 -0.572363 0.181301 0.0972852 
-0.545115 -0.51445 -0.822866 0.0559658 0.369404 -0.211322 0.0730689 0.893109 -0.0756402 -0.854229 0.380543 -0.235613 -0.425386 0.20972 0.214682 0.403656 -0.611037 0.311541 -0.109576 0.168714 -0.306657 -0.504982 0.136202 0.235477 -0.57697 0.387372 0.449629 0.100327 -0.0415358 -0.395885 0.507629 0.560857 -0.333609 -0.472486 0.113979 -0.102102 -0.369063 0.177566 0.115851 0.271601 -0.0774887 -0.169199 0.331828 0.288384 0.0339731 0.419003 -0.237029 -0.195729 -0.5639 -0.00740347 0.17198 -0.558678 -0.285074 -0.788874 -0.656032 -0.183466 -0.483102 -0.0264809 -0.422176 -0.0174411 -0.0169159 0.329405 -0.697834 -0.696022 -0.515762 0.054282 -0.297222 -0.244667 -0.0573227 0.363859 0.583765 0.0888499 0.300571 -0.246158 -0.397664 0.628821 0.373685 -0.425098 0.146036 0.110377 0.143915 0.0654201 0.348538 -0.562869 0.118694 -0.509154 0.150273 0.221231 -0.234577 0.68626 -0.66271 0.350261 -0.0814479 0.260236 0.0539342 -0.0993905 
0.331744 0.168717 0.166508 0.821307 -0.288508 -0.0756084 0.498263 -0.954924 -0.221959 0.0258532 -0.534269 -0.0620012 0.24401 -0.121575 0.176202 0.0898229 -0.0923886 0.283699 0.36389 0.0757467 -0.387471 -0.372511 0.253394 -0.988207 0.282654 0.358725 0.232507 -0.0450688 0.3368 -0.0260215 -0.172321 -0.185643 0.326416 -0.464647 -0.250966 0.0669637 0.441566 0.235108 -0.5652 -0.278698 0.197082 -0.106903 0.120373 1.02676 0.602251 0.197251 0.215617 0.472177 -0.123269 -0.686102 0.0097974 0.314369 0.239304 0.250952 0.449462 0.179478 -0.513915 0.21139 0.0906075 -0.57945 -0.479118 0.208927 0.255744 0.843715 -0.0850859 -0.55098 0.0841603 0.440079 -0.344472 0.266873 0.0358792 -0.507837 -0.719887 0.558902 -0.371152 -0.474185 -0.00698106 0.267814 -0.0766285 0.269327 0.550199 0.0485759 0.474776 -0.151467 0.513487 -0.346782 0.117196 0.00321648 -0.349604 0.377766 -0.819504 0.306144 -0.161913 0.186636 0.389957 0.0786286 
0.173859 -0.0240718 -0.405991 -0.108669 -0.224065 -0.257214 -0.527349 -0.0626699 -0.132058 -0.145442 -0.0318741 -0.17078 0.19871 -0.926626 -0.610185 0.280782 0.0720929 -0.350303 -0.371628 -0.139058 -0.0581241 0.793757 -0.0363205 0.0211364 0.547896 0.674501 0.581726 -0.32304 -0.931319 0.91218 0.564291 -0.0696831 0.366121 0.0405269 0.251692 0.133884 -0.503942 0.249926 -0.715073 -0.910954 -0.290009 -0.591567 0.0206301 0.540994 0.113052 -0.964482 -0.226999 0.0194839 0.0434958 0.315339 0.272204 -0.0926175 -0.284005 -0.201367 -0.137216 -0.394896 0.488585 -0.307783 0.252482 0.37146 -0.421114 0.426056 -0.271017 0.262381 -0.49382 -0.0609224 -0.125711 0.0240565 0.183521 0.326368 -0.299135 0.324258 -0.765688 0.196812 0.484912 -0.0836572 -0.470722 0.263178 0.387462 0.128201 0.197043 0.341391 -0.319641 0.29484 0.0922713 -0.0145997 -0.000668388 -0.630523 -0.0936039 -0.207651 0.0607763 0.0423989 -0.0918309 -0.118104 0.555866 -0.383697 
-0.165792 -0.0852498 -0.329501 0.41313 0.713446 0.178007 0.0824023 0.502168 0.811206 -0.501381 0.423191 -0.240113 0.641376 -0.187505 -0.17963 -0.176751 -0.430485 0.391217 0.379795 0.433273 -0.218116 0.500722 0.264051 0.0736546 -0.0333318 -0.149452 -0.306921 0.330448 0.169985 0.247126 -0.00282096 0.958193 -0.380047 0.281575 0.855163 -0.00456928 -0.137605 -0.135321 -0.0603575 0.615259 0.263982 0.335791 -0.431102 1.37856 0.00580512 -0.430532 -0.217163 -0.0644986 0.126908 0.673413 0.664504 0.563815 -0.224839 -0.268092 0.273719 -0.183099 -0.53351 -0.506335 0.810309 -0.110791 0.361752 0.106893 -0.286682 -0.0649864 0.354303 -0.0291688 0.0212082 0.346501 0.147191 -0.359759 0.0452759 0.02663 0.113636 0.881514 -0.11063 0.707498 -0.253763 0.176877 -0.194297 -0.0324829 0.826844 0.625286 0.180887 -0.695143 -0.405677 -0.115978 0.0149244 -0.517508 0.496121 -0.0327126 0.473464 0.159587 0.244097 -0.0200962 -0.325557 -0.15265 
0.15317 -0.14555 -0.510092 0.515972 -0.050336 -0.108551 -0.250254 -0.259939 0.807539 -0.930332 -0.0119103 0.189131 0.0700198 0.194089 0.405995 0.240439 -0.489439 -0.669447 0.175326 -0.188155 -0.442583 -0.4147 -0.385159 0.258356 0.372995 -0.815756 0.125687 0.0453979 0.268256 0.616264 -0.377566 -0.537479 -0.35012 0.0939935 0.342599 0.287426 -0.218316 -0.320473 0.0147342 -0.272428 -0.0894407 -0.390289 0.0402078 -0.638349 -0.0841247 0.654635 -0.220146 0.0476624 -0.551706 0.241737 0.422356 -0.455982 0.156592 -0.0883494 0.339521 0.178091 -0.473098 -0.789094 -0.735096 -0.544537 -0.179237 0.204076 0.177193 0.740606 0.293326 -0.0535393 0.0609598 0.139836 -0.338818 -0.446119 -0.301728 -1.25194 -0.373656 0.0965975 -0.326325 0.374189 0.208921 -0.463374 -0.160765 0.12342 0.114714 -0.678749 0.324119 0.0312795 -0.191072 0.0585439 -0.427948 -0.611907 0.543342 -0.0499553 -0.36839 0.0661569 -0.000387141 0.20643 0.199015 0.334479 
-0.297393 -0.338422 0.336309 -0.539461 -0.0176243 0.376247 0.24898 0.254992 0.240116 0.166405 -0.303899 0.0810672 -0.00590303 0.594193 -0.586711 0.264481 -0.135431 -0.0397142 0.943651 -0.234989 0.348887 -0.431368 0.0687135 -1.27242 0.560788 0.552491 -0.410071 -0.465642 -0.264637 0.489974 -0.25135 -0.071648 0.0230201 -0.113553 0.230088 0.302864 0.145566 -0.100193 -0.25174 -0.232786 0.238139 -0.332268 0.417288 -0.8339 -0.525211 0.158597 -0.148082 -0.179698 0.165311 0.135689 0.323014 0.127901 0.324858 -0.0363862 0.0371523 -0.0185041 -0.327128 -0.343144 0.287182 0.45052 -0.00701214 -0.285989 0.594587 0.132734 0.208021 -0.236904 -0.152864 0.0219296 0.193525 0.122383 -0.624727 0.19871 -0.00201867 -0.138409 -0.0421517 0.101488 0.441146 0.258354 0.415938 0.696759 0.510626 0.0503887 -0.212839 0.0390022 0.224754 -0.428425 -0.0383822 0.307763 -0.180358 -0.243997 -0.619397 0.197255 -0.652987 0.0474826 0.272243 -0.58919 
0.0234991 0.35921 -0.31482 -0.327526 0.710799 -0.815681 0.260626 -0.342502 -0.380262 -0.243168 -0.579455 0.266091 0.240932 -0.138466 0.417568 0.156991 -0.572491 -0.451095 0.0538256 0.430051 0.32275 -0.340919 -0.714896 -0.0624372 -0.192815 -0.298516 0.0360195 -0.551482 -0.190918 0.603802 0.619005 -0.236883 -0.613282 0.277076 -0.133425 0.317925 0.465483 -0.0331675 -0.0788209 -0.123341 0.108853 -0.213987 -0.18325 -0.113336 -0.251497 -0.219046 0.336307 0.0881694 0.167773 -0.201073 -0.599319 -0.274692 -0.357818 -0.0420339 0.237951 0.0650124 0.245397 0.424237 -0.692887 -0.685348 0.341231 0.353228 -0.448329 -0.243172 0.658552 -0.0185082 -0.556045 -0.168627 -0.12611 -0.194782 -0.271402 0.43203 -0.0209849 -0.470934 0.126753 0.391583 1.0084 0.438562 0.165917 0.136592 0.0220185 0.230476 -0.0927086 0.19186 0.114457 -0.152566 0.701198 -0.209924 -0.483012 0.838976 -0.927462 -0.209315 0.0438435 -0.129111 0.512302 -0.00649199 
0.702397 -0.0189338 -0.205591 -0.200651 -0.46326 0.544352 0.281639 0.812591 -1.16432 -0.266765 0.494158 0.575249 0.00179529 0.978435 0.356662 0.164729 -0.256972 -0.443296 -0.596326 -0.0121461 0.376326 -0.0427067 -0.367239 0.010591 0.0520604 0.0250642 -0.163392 0.23352 -0.388837 -0.464992 0.696261 0.561057 0.271701 0.302803 -0.228482 -0.411648 -0.393464 0.523511 0.579425 0.758569 -0.026467 0.0325741 0.602885 0.527468 0.266706 0.140252 0.335157 0.222236 0.395029 0.0196224 0.0236622 0.220195 -0.434589 0.180566 -0.559661 0.185796 -0.332024 -0.787832 0.2077 -0.806822 -0.245867 -0.0506549 -0.13331 0.358296 -0.030283 -0.415202 0.672925 0.443436 -0.811745 0.169447 0.271283 0.370994 -0.453453 -0.0503079 -0.509849 -0.116214 -0.584833 0.557106 0.0562996 -0.301442 -0.697741 -0.434903 0.188509 0.149358 -0.277117 -0.217437 -0.211336 0.403811 0.668466 0.92617 -0.350372 -0.0325104 0.0607311 0.402411 -0.109397 0.0311391 
0.474161 -0.351715 0.452222 -0.45922 -0.240356 -0.164173 -0.0121491 0.18332 -0.195085 -0.0431079 -0.147599 -0.0698237 -0.164813 -0.272754 -0.249517 -0.178666 -0.577687 -0.14016 -0.243284 -0.0449476 -0.75327 0.0509547 0.050922 -0.548893 -0.249521 -0.861186 -0.362731 -0.371579 -0.463875 0.772605 -0.147543 -0.159353 0.36949 -0.371447 0.600921 -1.06812 -0.0162386 0.523312 0.295297 0.526091 -0.546943 0.145085 -0.246576 -0.557793 -0.46869 -0.448897 0.0204047 -0.544848 0.111585 -0.208451 0.388328 -0.460449 -0.0936212 -0.376835 -0.0633183 0.407196 -0.0719046 -0.683109 -0.310308 -0.963516 -0.790804 0.0501512 -0.365986 0.406737 -0.295297 0.141342 0.1367 -0.177157 -0.389589 -0.524718 -0.039967 -0.187381 0.386761 0.370129 0.0560032 0.151778 0.406891 0.434678 -0.144046 0.596579 0.48509 -0.326962 0.0836354 0.852261 -0.379375 0.611633 0.35413 -0.361543 -0.116658 1.12869 0.727814 0.279385 0.436692 0.0104956 0.155003 0.182509 
0.625442 -0.446005 -0.109584 -0.080776 -0.279373 -0.0885622 -0.536133 0.842034 0.181805 0.0401063 0.0156751 -0.184336 0.13929 -0.237068 0.0624559 0.610071 -0.637479 -0.236376 -0.353103 0.222671 0.259446 0.449031 -0.171003 -0.406026 -0.575622 -0.174617 -0.0356458 -0.933714 0.651057 -0.471532 0.137608 -0.200602 0.112655 -0.128337 -0.420803 -0.102443 0.632306 -0.400462 -0.682491 0.359255 -0.205484 0.00959823 -0.470593 -0.0842294 0.243615 -0.226381 0.307965 -0.092229 0.859181 -0.0519572 -0.263746 -0.109962 -0.0472847 0.12577 0.204252 -0.402177 -0.221358 -0.149722 -0.0339955 -0.453247 0.450371 0.0744416 -0.268794 -0.125121 -0.0266318 -0.178067 0.228487 0.702842 -0.665882 -0.0339668 -0.32521 -0.651598 0.0399341 -0.0300613 0.34356 -1.12893 0.323149 -0.49487 0.105237 0.352446 -0.496441 0.018174 0.100692 -0.436465 -0.202996 0.0664681 1.34377 -0.0959664 0.116511 0.0782924 -0.235129 0.499281 -0.516537 0.366219 -0.131166 0.146769 
-0.43889 0.45381 -0.153908 -0.0789241 -0.459193 -0.103728 -0.844225 0.720671 0.135545 0.0962616 -0.564053 0.14497 0.249436 0.171978 0.278433 0.523472 -0.383686 -0.100936 0.166961 0.276233 0.274032 0.657126 0.444044 0.392215 0.904768 0.0406147 -0.54296 -0.294689 0.527125 0.178 0.332635 -0.388921 0.541777 -0.104333 0.0922502 -0.197493 -0.00318588 -0.122251 -0.843662 0.476332 -0.340665 -0.273394 -0.0928912 0.0977274 0.0787001 -0.306706 -0.0441467 -0.365927 0.125391 0.82361 0.289335 0.144955 -0.0999783 -0.297924 0.241262 0.507628 0.0491842 0.0740001 0.303428 0.780238 -0.932869 -0.162038 0.643963 -0.270132 0.107865 -0.473976 -0.647635 -0.14683 0.0255988 -0.536849 0.381227 0.0304585 -0.273693 0.292352 -0.607453 -0.418969 0.156154 -0.037547 -0.0498664 -0.0056961 -0.532762 0.830441 -0.362809 -0.304456 0.348334 -0.4403 0.425074 0.0815374 -0.334196 -0.136306 0.186625 0.412798 -0.892858 0.611899 -0.180692 0.438852 
0.169456 -0.1467 0.0413692 -0.359414 0.267768 0.633415 -0.21652 0.551088 0.161938 -0.77279 0.501769 -0.466437 0.348701 0.412305 0.302698 0.158434 -0.0854914 -0.541358 -0.0147294 0.00356769 -0.79939 0.757682 -0.230912 0.529953 0.251086 -0.436387 0.0170555 -0.326138 0.0705318 -0.041162 -0.747088 -0.302051 0.190318 -0.24825 -0.83915 0.150978 -0.219419 -0.219968 -0.309857 0.510587 -0.228868 0.541827 0.244033 0.836787 -0.0713056 0.0947843 -0.0624644 0.105979 -0.608775 -0.191223 0.191661 0.048532 -0.324906 0.706376 0.725034 0.359843 0.310051 0.349899 0.114308 -0.197313 -0.162883 -0.864432 -0.607444 0.955788 -0.291355 -0.467164 0.692835 0.0226966 0.735429 -0.240607 -0.690107 0.54933 -0.284308 0.11149 0.153325 -0.146699 -0.396564 0.390855 0.622885 -0.0767379 -0.297703 -0.113678 0.00223502 0.0730051 0.470155 -0.348141 -0.28313 0.573094 0.3328 -0.619199 -0.0103338 -0.275237 -0.133468 -0.0611549 -0.251435 0.520917 
-0.439076 -0.210318 0.138738 0.154223 0.472646 0.449769 -0.332874 0.280705 0.37349 0.278109 -0.271643 0.233783 -0.180564 -0.720661 -0.697124 -0.211971 -0.397654 -0.210919 0.447215 0.664114 -0.0431129 -0.622356 -0.30701 -0.0803537 0.0764796 -0.0447879 -0.00382519 0.324366 -0.018826 0.227288 0.26769 0.0769945 -0.872401 -0.314833 0.233562 -0.533336 0.114353 -0.00700628 0.0131511 -0.528617 -0.254315 0.0298204 -0.175626 0.308082 -0.345741 -0.657912 -0.371135 -0.559598 -0.148999 -0.254305 0.413179 0.340764 -0.157975 0.0957384 0.702149 -0.0753845 -0.225728 0.567157 -0.547041 0.0513375 -0.100799 0.145333 0.354218 0.795445 0.259948 -0.423051 0.0211413 0.346229 0.0143692 -0.0915681 0.0254825 -0.722335 -0.0503128 0.0576997 0.419322 -0.216088 0.210572 0.333082 0.852133 -0.232888 0.116795 0.309952 -0.0891557 -0.280624 0.0871327 -0.449818 0.0328087 -0.641769 -0.366436 -0.421549 -0.246801 -0.102526 -0.0774298 0.68147 0.281518 -0.0918756 
-0.368019 0.914289 0.654364 0.33189 -0.767587 -0.298574 0.234007 -0.393021 -0.199322 0.231133 -0.259009 0.145071 0.431846 -0.0689281 -0.385681 -0.226264 0.435125 0.637149 -0.324319 -0.456161 -0.279524 0.150374 -0.17385 -0.0612667 0.577935 -0.728796 -0.0602405 0.1376 -0.385093 -0.384071 -0.135437 -0.125449 0.114833 -0.516076 0.138391 -0.615621 -0.328689 0.0585786 0.234919 -0.165554 -0.502017 0.301369 -0.358323 -0.128172 -0.257238 -0.267878 -0.335735 -0.488153 -0.10618 0.101963 0.212131 -0.178032 0.0660352 0.700793 -0.987353 -0.398393 0.448296 -0.968724 -0.576439 0.135427 0.413671 0.536258 0.673884 0.00585929 0.337204 -0.427199 -0.223245 -0.0632694 -0.211917 -0.291335 -0.184157 0.100351 0.443235 -0.273418 0.449499 -0.340218 0.728998 -0.118305 0.244787 0.222612 0.47556 0.460964 -0.561028 -0.411584 -0.566946 -0.176631 0.0572712 -0.191606 -0.0829932 -0.125647 -0.22631 -0.0450215 0.292319 0.72553 -0.175974 -0.0329571 
-0.451805 0.19785 0.552057 0.50654 -0.169878 0.154269 0.307043 -0.00620179 0.110406 0.0471988 0.198851 0.245967 -0.0543274 0.247858 -0.380758 0.303459 0.2291 -0.122909 0.406778 0.217341 0.185994 -0.035064 -0.608893 -0.449572 0.292459 -0.555675 -0.00241927 0.0149053 0.535822 -0.474902 -0.0267405 -0.302139 0.365918 -0.0240841 0.298521 0.0213917 0.0179742 -0.184919 -0.290593 0.00812533 -0.0878411 0.0151537 -0.119831 -0.215344 -0.235886 -0.602317 0.811294 -0.211842 -0.10941 -0.538961 -0.3164 0.502804 -0.155283 -0.128712 -0.110917 -0.151305 0.326385 0.288344 -0.0989059 0.0984599 -0.08231 -0.311966 -0.185038 -0.631366 -0.349652 0.269889 -0.241517 -0.543789 -0.221467 0.158547 -0.825634 0.281898 -0.0646621 -0.432054 -0.35394 0.0891377 0.28522 0.391088 0.0523433 0.00838488 -0.551362 0.044754 -0.449495 0.00409493 0.130093 -0.570837 -0.374926 0.616015 -0.234142 -0.643629 -0.0608323 -0.0120851 -0.19794 0.778075 0.336834 -0.13147 
-0.115785 -0.0593817 0.169599 -0.0150554 -0.301312 0.672114 -0.226099 0.147354 0.314947 -0.0868315 0.597069 -0.476899 0.442296 0.341804 -0.471453 -0.347774 0.758911 -0.0946697 -0.432497 0.206922 -0.61859 -0.0546969 0.354782 0.0528713 -0.239574 0.847224 0.439225 0.589554 0.144033 0.302985 -0.192207 0.378459 -0.174028 -0.141725 -0.188984 0.167843 -0.515973 0.252428 0.239449 0.187751 -0.0796909 -0.135163 0.0767927 0.108797 -0.56971 0.155463 -0.019282 -0.459531 0.556332 0.106197 0.179836 0.0928435 0.586767 -0.387114 0.0806135 -0.838058 -0.172963 -0.0805053 0.110756 -0.5485 -0.228502 -0.147619 -0.123736 -0.106766 -0.0454306 0.339295 -0.211698 0.183446 0.819369 -0.280413 -0.304318 0.151842 0.170008 0.241835 0.390946 -0.252156 -0.424806 -0.0506523 0.0644943 -0.360559 0.353262 -0.119948 1.03077 -0.377041 0.738973 -0.450376 -0.108719 -0.269783 -0.23557 -0.0583039 -0.791325 0.259888 -0.46892 0.0719409 -0.336561 -0.691142 
0.0487907 -0.36806 0.244963 -0.0423617 -0.233124 0.628612 0.0581763 0.941777 -0.197209 0.0707811 -0.318983 0.00680227 -0.297569 -0.132802 0.435486 -1.12642 0.713524 0.405371 0.240233 0.086792 -0.929222 -0.0258747 0.0939382 -0.808281 -1.05661 0.0163152 -0.120674 0.102154 -0.196035 0.527791 0.5365 -0.0994801 -0.182598 0.669574 0.013011 -0.257958 -0.0172323 0.670267 0.020775 -0.499146 0.634965 -0.0536703 -0.275579 -0.692355 0.503058 -0.0709433 -0.582241 -0.318498 -0.648829 -0.231908 0.239052 -0.553511 -0.256472 0.694757 -0.362216 0.27801 0.048867 -0.127111 0.209545 -0.334129 0.00697108 -0.173137 0.681445 0.0369341 -0.407974 -0.415767 -0.0272051 0.0828746 0.0832214 0.0378578 -0.607778 -0.0829017 -0.316401 -0.155606 -0.250524 0.0640259 0.121065 0.0938428 0.211755 0.47126 -0.197993 0.463044 0.60117 -0.555817 -0.00433491 -0.109315 0.428424 0.718155 0.0217509 -0.0689395 -0.331106 0.0811671 -0.125443 0.495896 -0.332827 -0.000850686 
-0.139803 0.4129 0.00700244 -0.568915 -0.74742 -0.705581 0.919872 0.143521 0.211995 0.204286 0.277398 0.416894 -0.0974912 0.568634 1.06831 -0.456244 0.355143 -0.530738 0.221228 0.434755 -0.0333391 -0.638349 0.0225817 -0.0341558 0.184897 -0.805394 0.564471 -0.174201 0.178534 0.23195 -0.477572 0.230884 0.140668 0.0657181 -0.0137556 -0.656536 0.144392 -0.340434 0.234897 -0.132052 -0.0611726 -0.163064 0.222235 -0.468027 0.0613596 -0.1351 -0.585461 -0.360241 -0.353532 -0.28718 -0.393003 -0.395921 0.132714 -0.521377 0.186016 0.55218 -0.0508344 0.343144 -0.208451 -0.357122 0.0128529 -1.05383 -0.392497 -0.061184 0.116502 0.0295733 -0.416573 0.368468 0.325351 0.242866 0.174607 0.254236 -0.00937507 -0.340237 0.60156 0.486831 0.0195313 0.517884 0.189607 0.535415 -0.0423877 0.574664 -0.207386 0.0646655 -0.495018 -0.078456 0.284324 -0.273118 0.118066 0.267618 -0.639111 0.731834 -0.218189 -0.160717 -0.573986 0.0368885 
-0.49141 -0.0641835 -0.0694118 0.212176 -0.145751 0.551762 0.0608956 -0.190776 -0.134455 -0.00723687 0.128991 0.797051 0.77908 0.257685 -0.778058 0.185351 -0.712191 -0.082662 -0.443223 0.263625 -0.133657 -0.12065 0.751008 0.313147 0.132355 0.155553 0.192088 -0.268315 0.0128341 -0.105724 -0.449573 -0.492661 0.0437825 -0.10681 -0.847208 -0.158472 0.089942 -0.816888 -0.247158 -0.128287 -0.291615 0.0448776 -0.528767 0.422972 0.0980302 -0.439702 0.128846 -0.0948054 0.1539 -0.378008 -0.144388 -0.211217 0.378229 -0.276003 0.108523 0.338815 -0.77283 -0.373757 -0.0153534 0.521019 0.283022 -0.709332 -0.278859 -0.285115 0.0888756 -0.362797 -0.0207534 0.068631 0.337014 -0.476981 0.42396 0.619197 0.0868941 0.166494 -0.577719 -0.0448279 -0.0903942 0.0675829 -0.0957136 -0.275754 0.151351 0.132919 0.425967 0.0137883 0.442755 -0.451149 -0.421014 -0.370794 -0.388995 0.0271063 -0.227516 1.04335 0.85091 -0.245603 -0.617948 -0.704373 
0.0312657 -0.0348714 0.156905 -0.0572968 0.0636349 0.326236 0.109737 0.0543165 0.557767 0.0679909 -0.512633 -0.371066 -0.903146 -0.330274 0.446379 0.251903 -0.620959 0.139087 0.26295 -0.402204 0.0115551 0.265795 0.112124 -0.503516 -0.067504 0.477186 0.534485 0.374986 -0.323052 -0.534212 0.440838 0.309572 -0.446599 -0.272627 0.230869 0.0228556 0.0613988 -0.177113 -0.160546 0.165353 0.0475708 0.688652 0.46195 0.335008 0.103101 0.448574 0.0434313 -0.24773 0.631244 0.0643386 0.511386 0.238289 0.023827 -0.516674 0.254115 -0.591529 0.179673 -0.0732102 0.572117 -0.568655 0.64305 -0.444436 0.157836 0.0306415 0.0790294 0.704084 0.0144525 -0.34486 -0.482471 -0.439875 0.636201 0.0708298 -0.415671 -0.393682 0.868283 0.21293 -0.527137 0.239177 0.300827 0.179516 0.0470354 -0.178688 0.586332 0.0298321 0.0144934 0.608441 0.208657 -0.0343508 0.268615 0.241521 0.54888 -0.222963 -0.0899856 -0.20453 -0.154326 0.205665 
0.626142 0.752553 0.289648 0.161665 -0.0426856 0.0723511 0.451328 -0.599195 -0.576165 0.0569971 0.296337 0.123645 0.613839 0.571668 -0.000178796 0.0304467 -0.627497 -0.182217 -0.0370063 0.408472 -0.113518 0.664213 0.299443 -0.389547 -0.45774 -0.293189 -0.344836 -0.233607 0.0583135 -0.374016 0.621892 -0.75674 0.224039 0.110033 -0.0378882 0.0443156 -0.233693 -0.151637 -0.564413 -0.375174 -0.834683 0.25068 -0.0383918 0.428745 0.36827 0.450623 0.212371 -0.451294 -0.25454 -0.00670265 -0.0455257 0.732355 -0.154575 0.452555 -0.48816 -0.306597 0.342967 0.337192 -0.7269 -0.0685771 0.274218 -0.234648 -0.236824 0.508906 0.153496 1.16353 -0.891301 0.229398 0.755055 0.576701 -0.660665 0.254803 -0.743987 0.574774 -0.211082 -0.245334 -0.451026 0.0906485 -0.545516 0.356985 -0.656584 -0.130633 -0.0977308 -0.550539 -0.127357 -0.341154 -0.126906 0.112707 0.171307 0.0708322 0.19195 0.55509 -0.0802468 0.198696 0.554421 0.187579 
-0.180971 0.282528 0.202998 -0.240599 -0.216294 0.599186 0.0402819 -0.46955 0.000827738 0.230699 -0.228397 0.989996 0.289107 -0.124043 0.496228 0.463767 0.961515 0.847373 0.41523 1.06175 0.453017 0.267162 0.308145 0.0785312 -0.443538 -0.518682 0.308817 0.507212 0.346063 0.173486 -0.314417 -0.0190238 0.0666621 0.410274 0.166681 0.248914 -0.268879 0.112827 -0.00678591 -0.0341273 0.235908 -0.169699 0.0919319 0.193947 0.54362 0.674682 0.181136 0.469983 0.120123 0.586723 -0.32812 -0.656183 0.0469876 0.215819 -0.109787 -0.224351 0.501011 -0.148915 -0.103902 0.561024 -0.290401 -0.242702 -0.893732 -0.286971 -0.23745 -0.116942 -0.210832 -0.0436383 -0.186715 -0.487986 0.250334 -0.256457 -0.225498 0.25801 0.313099 0.0483701 -0.132676 0.441432 0.485952 0.033855 -0.0745696 -0.244635 0.161076 -0.309815 -0.0793225 -0.292592 0.00674993 0.219251 -0.848873 0.40771 0.30167 -0.43003 -0.210412 0.1956 0.566525 -0.29471 
-0.495775 0.12528 -0.444069 -0.287821 -0.112479 0.608676 -0.447846 0.169539 0.798986 0.397332 -0.15571 0.0502332 -0.391163 -0.390142 -0.0271448 0.285656 0.125489 0.0651588 0.577804 0.612008 -0.0341667 0.620543 -0.66139 0.0247035 -0.314354 0.475827 0.669379 -0.72447 0.249992 -0.0161327 -0.122821 0.884076 -0.537534 0.335197 0.284562 -0.516812 0.364625 -0.316072 1.12885 -0.00608362 0.238236 0.20573 -0.0497528 0.0547272 -0.0148694 -0.125319 -0.295629 0.26518 -0.15678 0.71452 -0.0390997 -1.01784 0.451267 -0.253606 -0.195451 0.21789 0.407108 -0.0973408 0.0038039 0.00694109 0.0997374 0.123755 0.109536 -0.618881 0.00990305 -0.919505 0.227309 0.12916 -0.389202 0.198552 0.311455 0.232155 -0.500045 0.98103 0.661972 -0.299561 0.326221 -0.29726 0.376092 -0.26738 0.208739 -0.212747 0.0720481 0.659438 -0.231381 -0.0888433 1.17274 1.12149 0.812194 -0.316947 -0.0488496 0.548517 -0.731496 0.472407 0.330851 0.270429 
-0.578428 0.342871 -0.282259 -0.179812 -0.0627033 -0.496939 0.0523025 0.820605 0.363063 0.050459 0.16025 -0.92666 -0.378516 -0.526604 0.364569 -0.444373 -0.0211536 -0.44395 -0.100102 0.158299 -0.0441697 -0.478411 -1.2871 -0.624595 -0.303392 -0.48486 0.607106 0.107606 0.269778 -0.169247 0.610799 -0.567671 -0.357013 -0.467192 -0.522925 -0.156275 -0.703097 0.168724 -0.512679 0.588427 0.620274 0.0591797 -0.526265 0.597211 0.0584722 0.064281 -0.0350418 0.105289 -0.23428 -0.128031 -0.0171084 0.211214 -0.12593 0.13027 0.425141 -0.505123 0.380337 0.313016 0.272982 0.0116676 0.0428603 0.0326152 -0.49212 0.248207 -0.0852204 -0.251454 0.0909902 -0.227491 -0.0181083 0.519701 -0.0486887 -0.21 0.433018 -0.0159567 0.188145 -0.18187 -0.479527 -0.327653 0.340267 0.161475 0.536087 0.0769428 0.0748008 0.245348 0.44921 0.340725 -0.323545 -0.142607 -0.536312 -0.393326 0.033856 1.38475 -0.208614 -0.245578 -0.330162 -0.171774 
0.0138994 -0.438886 -0.146604 -0.252701 0.0898823 -0.0816924 -0.136991 0.376391 -0.0153777 -0.363305 -0.0205459 -0.230611 -0.773849 0.14397 -0.933115 0.170663 0.227347 -0.202602 -0.699849 0.17715 -0.502623 -0.683586 -0.144429 -0.20094 0.0661682 0.21085 -0.167469 0.318577 0.237313 0.264124 -0.486679 0.0694156 -0.235711 -0.165218 -0.229429 -0.431411 -0.67106 -0.360425 -0.821713 -0.396214 0.633652 0.21244 -0.0226456 0.477655 -0.691077 -0.227845 0.115475 -0.00202896 0.165808 0.0836458 -0.144731 -0.282294 -0.189126 0.377452 0.127551 0.529405 0.271884 -0.105072 0.373588 -0.392218 -0.0949782 0.110205 -0.346907 -0.304598 0.82812 -0.614842 -0.777867 0.339404 -0.356245 -0.0940696 -0.995391 0.0219246 -0.232717 -0.308596 -0.190074 -0.508396 -0.142355 -0.203776 -0.349354 0.0513783 -0.434819 0.131644 -0.155502 -1.03414 -0.190971 -0.176437 -0.200262 0.325392 0.0491906 -0.81684 -0.146853 -0.244841 -0.238296 -0.389638 -0.687503 -0.417542 
0.336412 0.59899 0.617073 0.200122 0.969405 0.353694 0.00288197 -0.183938 -0.105327 0.028075 -0.165644 0.0385994 0.666946 -0.313458 -0.0311705 0.188092 0.147122 -0.207727 -0.606339 0.137572 0.0519022 -0.339499 -0.373231 0.235455 -0.645877 -0.157115 0.541956 -0.478595 -0.25887 0.263853 -0.426299 0.70339 -0.296744 -0.591743 0.0632442 -0.252446 0.642121 -0.565857 0.852872 -0.135355 -0.0684965 0.484709 0.780069 -1.15324 0.431192 0.230295 -0.0592647 0.00824142 -0.090429 0.832083 -0.30696 -0.0573413 0.257584 -0.463826 0.118209 -0.299892 0.467859 0.197222 0.406125 -0.0322006 -0.414489 -0.580284 -0.483965 -0.117423 0.051381 0.166414 -0.477517 -0.849624 0.0527483 -0.724327 0.744043 0.215037 -0.150908 0.0733307 0.27388 0.63579 -0.435662 -0.149954 -0.435961 -1.31751 -0.843837 0.155569 -0.351784 0.00552549 0.235397 0.773518 0.392445 -0.280997 -0.0957103 -0.178372 -0.0245004 0.13098 0.0454251 0.497186 0.0325605 -0.0820427 
0.325141 0.231213 0.838322 -0.318837 0.415383 0.0552448 -0.360433 -0.156903 0.00183486 -0.069287 0.220031 -0.430925 0.0603894 -0.294772 0.472844 -0.00778717 0.0769811 0.642118 -0.461695 -0.169679 0.103933 -0.111265 0.138041 -0.348529 -0.0719425 -0.462237 -0.176921 0.0352363 -0.115198 -0.184172 0.383445 0.536364 0.557553 -0.167496 0.818541 -0.476032 -0.664421 -0.0485663 0.0628474 -0.380862 0.930466 -0.13069 -0.329931 0.474107 0.138966 -0.467505 0.352218 -0.265185 0.189294 0.14728 -0.108391 0.43304 0.293966 -0.133872 0.369159 0.0518994 -0.373285 0.115932 -0.778613 0.250326 -0.293072 -0.120348 0.272586 0.107221 0.374531 0.289686 0.179188 -0.200949 -0.12536 0.169519 -0.143247 -0.373741 -0.127394 0.140807 0.25438 0.182274 -0.271775 1.03995 -0.387278 -0.0836892 -0.0244636 -0.536097 -0.00922476 -0.369252 0.0233223 -0.111789 0.589446 0.679572 0.133902 -0.377239 -0.211159 0.153707 0.525632 0.101437 0.143008 -0.271843 
-0.297722 -0.0649982 -0.861186 0.277315 -0.302181 -0.0449325 -0.0137981 -0.201243 -0.0821648 0.337333 0.0753572 0.157112 0.347063 0.224355 0.519634 -0.0797391 0.388345 0.26684 -0.434632 -0.946405 0.198538 0.296612 -0.286443 0.401159 0.0951388 -0.294242 0.160679 -0.580013 0.857336 0.341738 1.10852 -0.0403715 -0.302798 -0.0851343 -0.552357 0.552977 0.326417 0.259274 -0.501075 -0.0727385 -0.0180423 -0.600555 -0.0123053 0.26256 -0.34545 0.707336 0.0303217 -0.780126 -0.350011 -0.283932 0.297309 -0.410687 0.52642 -0.100753 -0.00568477 -0.257554 -0.181413 -0.0984033 0.56734 -0.513056 0.060358 -0.244335 -0.144783 -0.446959 -0.294545 -0.23576 -0.0459288 -0.404828 -0.220776 -0.759149 -0.295834 -0.730785 -0.776258 -0.462329 0.295722 0.149606 0.0567211 0.446961 -0.429065 0.272435 -0.336827 0.587652 0.421364 0.00935617 0.408581 -0.0142166 0.12289 -0.521562 0.152311 -0.646581 0.0811382 0.289568 -0.0145639 -0.0788969 -0.160729 -0.806993 
0.49459 -0.298311 -0.349695 0.235326 0.773088 -0.364999 0.361033 -0.112167 -0.422191 0.174185 -0.505788 -0.55463 0.20488 0.131214 -0.555056 -0.197393 0.260772 0.481018 0.530179 0.329853 -0.0357412 -0.857507 -0.329093 -0.338085 0.493524 0.0430578 -0.149564 -0.806515 -0.199496 0.498878 -0.0210107 -0.266779 -0.481361 -0.83113 -0.51428 -0.431096 -0.325412 0.688834 0.274057 -0.00163274 -0.704002 -0.263241 0.192037 -0.415724 -0.107074 0.945634 -0.0380724 0.0453725 -0.0608567 0.488158 0.165708 -0.106141 0.247962 -0.117019 -0.120469 -0.154709 0.789714 0.0756455 -0.263778 0.316706 0.300992 0.0817456 -0.381128 0.170954 -0.290814 0.177678 -0.158748 -0.139468 -0.183366 -0.229832 -0.0384431 0.172737 -0.624511 0.117394 -0.398806 -0.12011 -0.260731 0.55334 -0.486283 -0.342896 0.0389778 -0.400002 -0.173876 -0.118714 0.410876 -0.0951339 -0.133254 0.158738 0.695656 0.211074 -0.0227125 0.125633 -0.0508084 0.154141 -0.812928 -0.980943 
-0.937935 -0.173563 0.298684 -0.21503 0.18118 -0.0850779 0.0536917 -0.445589 0.136463 0.473834 0.17392 -0.723706 0.36398 0.57039 -0.39986 -0.439892 -0.261434 -0.589616 0.323191 -0.329874 -0.262265 -0.148903 -0.341747 -0.114756 0.657993 -0.637107 -0.356141 -0.335986 -0.266411 -0.0599848 0.0157591 0.464046 -0.0309896 0.259835 0.0335269 -0.478177 -0.389 -0.47324 -0.389525 -0.107842 0.515437 -0.721207 0.119934 -0.0957997 -0.154082 0.731542 0.384025 -0.0303292 0.0153538 -0.769426 -0.0562125 0.0648124 1.18025 -0.290381 -0.0939627 0.205587 0.187004 0.328053 -0.641972 0.537297 0.508822 0.0820034 0.246255 0.50499 0.465266 0.232608 -0.362273 0.20241 -0.295301 0.297254 -0.565754 0.0366183 0.282675 -0.35436 0.515817 -0.169666 -0.807863 -0.499164 -0.529884 -0.14702 0.083527 -0.0357141 0.0200851 -0.431108 0.551983 0.0800717 0.511306 0.173719 -0.240595 0.39148 0.483622 0.295113 -0.243531 0.580146 -0.615139 0.494693 
-0.0956037 -0.413923 0.293709 -0.18185 -0.255799 -0.116494 0.615582 0.185782 -0.412996 -0.410546 0.9455 0.527857 0.259858 -0.118916 -0.199273 -0.674085 0.576968 -0.349379 0.185913 -0.478006 -1.2052 0.264588 0.0713066 0.383446 0.367322 0.15021 -0.0243584 -0.227509 -0.851207 -0.748496 -0.237801 0.0671565 -0.31518 0.169501 -0.73805 0.27855 -1.06007 -0.0141913 -0.187527 -0.79826 0.139632 -0.676357 -0.0836932 -0.317365 0.134423 -0.116167 0.0619971 0.074853 0.411623 0.327658 0.0459344 -0.327288 0.17528 0.00692603 -0.99296 -0.251939 0.705391 -0.0974356 -0.498408 -0.0852484 0.178885 0.169748 1.25689 0.0185078 1.00556 -0.220882 -0.0542906 0.331408 0.614598 -0.722279 0.505093 -0.142432 -0.417261 0.200087 0.0779086 -0.599392 -0.223959 -0.0804515 -0.102898 -0.190688 0.477938 -0.0172544 -0.0525029 0.153686 -0.397616 -0.378264 0.236424 -0.810516 -0.284971 0.0201024 0.178952 0.487288 0.166803 0.909903 0.000222216 0.199947 
-0.164142 0.516182 -0.34886 -0.294109 -0.193999 0.565326 0.445351 -0.195882 -0.252106 0.89221 0.257982 -0.000402217 0.40897 0.227512 0.0236022 0.241182 0.457981 0.117006 -0.150088 0.748334 0.290675 0.585067 0.553355 -0.0318191 -0.701952 -0.161021 0.485869 -0.459479 0.124617 -0.106762 -0.350816 -0.17237 -0.28706 0.248048 0.394637 0.016227 0.572136 -0.353533 0.215154 0.00459357 -0.40084 -0.0973055 -0.462034 0.415747 0.551401 0.439067 0.554452 0.0524262 0.736132 0.211856 -0.355706 0.0571961 -0.182252 -0.0445825 0.224968 -0.220857 0.228755 0.131526 -0.186264 0.190787 -0.120937 0.0414428 0.285161 -0.247843 -0.23996 0.0741909 -0.0293181 -0.555142 0.287218 -0.571741 -0.264787 -0.0935713 0.245871 -0.21561 -0.445053 -0.396706 0.183252 0.451898 -0.170017 0.00921907 -0.0459131 -0.2744 -0.326024 -0.321416 -0.134046 0.483166 -0.413476 0.800489 -0.238469 -0.157386 0.33537 0.260874 0.383445 0.2248 0.083711 -0.038584 
-0.249794 0.0965671 -0.679638 0.242514 -0.61777 -0.146731 0.257145 0.0860049 0.408195 -0.103476 0.946833 0.680396 0.44231 -0.517275 -0.429069 0.321492 -0.267482 0.204137 0.592301 -0.620234 -0.191517 -0.159151 0.0315114 0.274113 -0.385399 0.0258558 -0.00942409 0.0848175 0.92495 0.0680936 0.103741 -0.359239 -0.0272748 0.271107 0.000302342 0.146298 0.0474832 0.226664 0.313324 0.352885 0.557828 -0.203723 -0.273212 0.203509 -0.328153 -0.132428 -0.537666 -0.123411 -0.0927548 -0.308746 -0.211999 0.572787 -0.234821 0.141473 0.125209 -0.151565 -0.455677 -0.546313 0.199844 0.579223 -0.102286 -0.277685 -0.515876 -0.177146 0.091245 0.0621113 0.237434 -0.294736 0.149876 -0.1168 0.512047 0.0800619 -0.51044 -0.929552 -0.286448 -0.347294 -0.625857 -0.172735 -0.524536 -0.567699 -0.0724555 0.418725 -0.507269 -0.232838 0.15576 -0.071313 0.540492 0.496974 -0.387548 -0.892486 -0.685513 0.616818 -0.265988 0.4043 0.258446 -0.612241 
-0.0310636 0.599688 0.251562 -0.0720416 -0.328174 0.2386 0.0268231 0.225933 -0.117422 0.281299 0.13059 -0.400303 0.193315 0.883335 -0.323684 -0.408291 0.280418 0.929317 0.325387 -0.500076 0.143265 -0.374756 0.0679611 -0.638922 -0.373011 0.319223 0.536124 -0.538978 -0.107302 -0.204699 -0.140912 0.609604 -0.313462 -0.098306 -0.29373 0.132842 0.0328292 -0.13106 0.308829 -0.0474071 0.259269 0.229903 -0.0104728 -0.56505 0.474917 0.0781777 0.00760158 0.128358 0.0416026 0.405911 -0.241128 -0.0872818 0.516895 -0.302979 0.34443 0.342886 0.274576 0.302958 -0.0443759 0.526026 0.0713732 -0.366032 0.143372 0.0912757 -0.30062 -0.0842504 0.155742 -0.183181 -0.0677235 -0.551028 -0.106419 -0.18166 -0.0357556 -0.117241 -0.0736781 -0.122533 -0.241132 0.130461 0.0230349 -0.0791482 -0.700331 -0.602676 0.111538 0.180716 0.999294 0.429802 -0.0634458 -0.15054 -0.934237 -0.592411 0.63398 0.245444 -0.277207 -0.259725 -0.486103 0.27234 
0.374405 -0.255133 0.10381 0.0833567 -0.332077 0.304287 0.0816638 -0.377418 0.289899 0.196548 -0.355493 -0.274811 0.131491 -0.243066 -0.099355 0.00045405 -0.390125 -0.681694 0.882982 0.547218 -0.624671 0.70316 -0.0924238 -0.612174 0.407142 0.469102 0.322108 0.294272 0.440453 -0.31013 0.134525 0.456195 0.254933 -0.13759 -0.485609 -0.37369 -0.318922 -0.125162 -0.245923 -0.0126941 0.575758 0.13533 -0.290152 -0.651771 0.423515 -0.29595 0.00716573 -0.245269 0.114365 0.014663 0.0304787 -0.317659 -0.939489 0.369344 0.104159 0.0376169 0.562203 0.0875965 0.398505 0.232275 -0.225042 -0.117434 0.42451 -0.216544 0.383135 0.498396 0.113033 -0.0296988 -0.503552 -0.243603 -0.103072 0.130824 0.146969 0.758019 0.0515901 -0.309803 0.677647 0.261683 -0.199994 0.0200222 -0.211593 0.638812 0.4001 0.0817727 -0.507486 -0.156967 -0.79102 -0.700623 -0.0356444 -0.226219 -0.435895 -0.371928 0.128459 -0.641538 -0.415367 0.0547742 
-0.273265 -0.157134 -0.227529 0.317028 0.184714 -0.435247 0.146468 0.364884 -0.172027 -0.47922 -0.319396 0.0281187 -0.211658 0.247367 -0.102312 -0.469921 0.0989092 -0.101441 -0.344369 0.381492 0.193377 0.329512 -0.524457 0.188614 0.284051 -0.105563 0.0104287 -0.706843 0.717937 0.568537 0.338196 -0.830893 0.0447562 0.644581 0.629597 -0.093761 -0.0318123 0.445898 0.0511357 0.321428 0.110163 -0.07428 -0.678875 0.106455 -0.371561 0.114963 -0.0747205 0.771492 -0.29202 0.229679 0.0645921 -0.350603 -0.604225 -0.237279 0.116596 0.254545 1.06788 0.554501 -0.917147 -0.236925 0.199645 0.147874 0.692367 -0.000887515 0.167298 0.0175822 -0.532225 -0.0813791 0.405537 -0.488372 0.321589 -0.0332244 -0.377784 0.466388 0.260823 0.0104855 -0.122595 -0.562928 -0.152952 0.0902007 -0.416607 0.26218 -0.763633 0.263389 -0.0265917 -0.247211 0.0951975 0.0518842 -0.561812 0.0680692 0.055682 0.158185 -0.225915 -0.0393259 -0.0730218 -0.194485 
0.0240714 -0.0506453 0.422063 0.28039 -0.491403 -0.526945 -0.0422563 -0.512956 -0.0646289 0.215356 -0.613598 -0.11404 0.341917 -0.708929 -0.726807 0.169636 -0.254431 0.0425146 -0.160907 0.516244 0.229709 0.298577 0.0183948 -0.236355 -0.0333679 -0.0410584 0.354952 0.691613 -0.0454507 -0.376976 0.16265 -0.155206 -0.767357 0.0432722 0.570675 0.163468 -0.278911 0.0821345 -0.959936 -0.47648 0.0318946 0.47626 -0.0441621 0.167323 -0.506738 -0.336604 -0.224876 0.287201 0.0587323 0.404603 0.718015 -0.47981 -0.771621 0.707339 0.377147 -0.26797 -0.415597 0.209774 0.17582 -0.158235 -0.199189 0.0881162 0.328836 0.261283 0.139231 -0.206035 -0.188675 0.171184 0.544147 0.463844 0.0978029 -0.861356 0.183192 -0.0926151 0.492551 0.327803 -0.0807082 -0.0895894 0.27185 0.275388 -0.116515 0.357044 0.183751 0.766412 0.242262 -0.0519934 -0.0975271 -0.120889 -0.00258453 -0.00580884 0.0297854 0.403944 -0.470461 -0.110336 -0.126653 -0.0553641 
-0.254927 0.458269 -0.183295 0.794711 0.0548604 0.591159 0.1003 0.246595 0.0658982 0.423348 0.466883 0.367175 -0.682805 0.205438 0.631511 0.0520726 0.89448 -0.0670581 -0.13573 0.0596859 -0.224116 0.350054 0.0281789 0.3869 -0.521574 -0.255077 0.502379 0.298959 -0.278754 0.186209 -0.405203 -0.181612 0.0519951 -0.310035 -0.0674346 -0.196225 -0.563944 0.0203927 -0.173168 0.290336 0.0467112 0.172973 -0.39821 -0.540111 -0.159735 0.325776 0.0424832 0.291452 0.0881883 -0.0618519 0.161884 -0.171854 0.69098 0.506292 -0.18697 0.12076 0.682572 0.261068 0.498684 -0.389393 0.439517 -0.335604 -0.419785 -0.555915 0.0179419 0.431949 -0.0692595 0.102688 -0.0606663 0.082206 0.0244027 -0.381961 0.180464 -0.0484657 -0.54386 -0.178351 -0.149609 -0.375361 -0.249634 0.061398 0.217307 -0.100807 0.0979298 -0.339398 -0.0617504 -0.119244 -0.0346417 -0.22556 0.246137 0.126767 -0.0244268 -0.536879 0.459137 -0.23092 -0.508148 0.539265 
-0.561615 -0.365611 -0.679706 0.426185 0.0212479 -0.333175 -0.380832 -0.0727993 0.0972399 -0.105579 -0.870742 -0.514436 -0.622305 -1.00442 0.0546711 -0.598986 -0.742276 0.533024 -0.249152 -0.370952 -0.372677 0.559967 -0.0298662 -0.538842 0.503045 0.369015 0.147769 -0.405077 0.149168 -0.10004 0.0967782 -0.291359 -0.318599 0.44301 0.524487 0.0406215 -0.341369 -0.19657 -0.0634765 -0.18458 0.439596 0.138328 0.09894 0.00963435 0.0717216 0.205505 -0.0186947 -0.068907 0.427328 0.415928 0.489518 -0.401315 -0.189527 -0.241235 0.00932052 0.0204407 0.443987 0.304116 0.123405 -0.269424 -0.00716839 -0.0839242 -0.212716 -0.152807 -0.142297 0.655825 0.26808 0.35778 0.40097 0.103328 0.0327005 0.367605 -0.600441 0.319748 -0.0783435 -0.148886 -0.226807 -0.137359 0.192999 0.251928 0.282994 -0.0918934 0.108937 -0.34457 -0.369716 -0.663086 0.0363254 0.443024 0.128767 0.449505 -0.0793907 0.411042 0.0697234 -0.170955 -0.521516 -0.505029 
0.235554 -0.197696 0.0967795 0.78014 -0.0838147 -0.333266 -0.236019 0.0638556 0.263225 0.527625 -0.454639 -0.823861 0.277019 -0.16453 0.483339 0.101005 -0.377879 0.506286 -0.354978 -0.174003 -0.357622 0.248124 -0.0745603 0.284526 -0.427324 0.234694 -0.0465866 -0.0816796 -0.0375665 0.143053 0.220518 0.0335631 0.161494 -0.441729 0.549549 -0.0968446 0.298188 -0.450465 0.433027 -0.224517 -0.328008 -0.883211 -0.0628794 0.0218627 -0.015504 0.765987 0.749506 -0.0101707 -0.256285 -0.0643219 0.252758 -0.508602 -0.151343 0.486673 -0.189739 -0.0911682 0.377236 -0.151771 -0.463141 0.692103 0.289521 -0.298607 0.197416 -0.310816 -0.0299943 0.459446 0.221313 0.282947 0.304284 -0.325944 -0.266082 -0.384285 -0.958495 0.281265 -0.144415 0.293128 -0.658552 0.0158232 0.633384 0.248529 -0.0696845 0.299958 0.228843 -0.361278 -0.249068 0.577077 0.505483 -0.209303 0.750004 0.679285 -0.401015 -0.17939 0.154994 -0.276151 0.776427 0.212425 
-0.430172 0.129815 -0.209807 0.288903 -0.423756 0.201146 -0.335372 0.233292 0.0598196 0.261814 0.146635 -0.924886 0.268896 0.0636262 0.136739 -0.342935 -0.959752 7.6987e-05 -0.259542 -0.453595 -0.208344 -0.0576627 0.416819 0.215503 0.113627 -0.367733 -1.11712 0.219053 0.0483698 -0.200269 -0.526778 -0.0657752 0.653426 0.267344 0.40404 0.836901 0.541933 -0.26765 0.372515 0.322195 -0.50706 -0.51343 0.131014 -0.22471 -0.742596 -0.214565 -0.43773 0.443224 -0.429301 0.469585 0.324148 -1.18915 -0.431838 0.223594 1.09168 0.00639346 -0.14184 0.188733 0.304346 -0.26167 0.406318 -0.293711 -0.17747 0.775577 0.21322 0.105879 -0.17196 -0.0150526 -0.673751 -0.975605 -0.05012 0.207133 -0.325867 -0.26014 -0.568584 -0.468935 -0.162491 0.882605 0.150728 -0.398623 0.787046 0.0647919 -0.331364 -0.815898 0.0823283 -0.0561484 0.162633 -0.0208256 0.158181 -0.394625 -0.194961 -0.172663 -0.8007 -0.298223 0.300887 0.305659 
-0.363649 0.423881 0.589336 0.311153 -0.0477104 -0.19162 -0.280496 -0.0293408 -0.108347 0.919256 -0.632738 -0.539347 0.290267 -0.380994 0.18541 -0.925155 0.0179149 -1.00547 -0.648207 -0.169386 0.427836 -0.75323 0.23131 -0.707631 -0.1797 -0.563123 -0.712635 0.290804 0.548909 0.877575 0.094359 0.276626 0.0778811 -0.423266 -0.26847 0.148893 -0.333349 -0.0590602 0.0143044 0.00700432 -0.0268054 0.134577 0.246029 -0.331977 -0.154149 0.105554 0.452899 -0.391267 0.0418608 0.0647682 -0.0648278 -0.438243 0.259784 0.204638 -0.0363072 -0.447405 0.326807 0.232478 -0.54087 -0.0454695 0.261721 0.528375 -0.38509 0.0133282 0.0254573 0.103793 -0.134928 -0.408909 0.805628 -0.116828 0.365255 0.548061 0.00497373 0.182347 0.343689 -0.22449 -0.597628 0.52621 0.0666001 0.987461 0.0769131 0.325848 -1.02344 0.0305592 0.952522 -0.0667147 0.0892828 -0.225699 0.0032313 0.656328 -0.61629 0.537573 -0.563091 0.260957 -0.0583773 -0.57114 
0.598759 -0.677606 0.0312943 -0.0797668 -0.132677 0.224803 0.276144 0.19436 -0.33689 0.0523005 -0.174485 0.0238838 -0.507767 -0.945591 0.098777 0.286841 0.184725 0.0349672 0.193067 0.651733 -0.357429 0.204873 0.0282736 -0.191022 -0.30758 0.398 0.165612 1.02543 0.159475 0.399682 -0.288963 0.356562 -0.286625 -0.438413 -0.200021 0.0156678 -0.502613 -0.0996782 0.108957 -0.497627 -0.334063 0.146984 -0.228042 0.400208 -0.284584 -0.172357 -0.14319 -0.574591 -0.0377148 -0.8292 0.236689 -0.0769047 0.149125 0.234206 -0.10424 -0.0588853 0.0886167 0.264922 -0.117288 0.0866896 0.0270658 0.505208 0.722603 0.111181 0.71707 0.608937 -0.551553 -0.39704 0.00474585 0.000617649 0.277308 0.148592 -0.471277 -0.192812 -1.08304 0.00155506 -0.616091 -0.134163 -0.745867 -0.121906 0.436822 -0.79537 -0.00118915 -0.0721947 0.441709 -0.0806711 0.203177 -0.179185 0.228682 -0.247116 -0.295031 -0.799305 0.310549 -0.261958 0.311877 0.0180331 
-0.540414 -0.162932 -0.180143 -0.457362 0.235937 -0.19054 0.114261 0.288323 -0.542032 -0.229031 -0.0415251 0.125617 -0.114875 0.570494 0.167558 -0.465799 -0.620282 -0.225929 -0.258306 -0.129757 0.227532 0.566897 0.740476 -0.1002 0.439918 -0.0543631 0.56069 0.107644 0.359143 -0.372068 -0.298145 -0.413751 -0.16201 -0.408419 0.0511589 -0.0170267 0.227535 0.106265 -0.361971 -0.196459 0.554097 -0.147912 0.585578 -0.512985 0.152805 -0.506636 -0.242324 0.242622 0.0443061 -0.128021 0.173346 0.167381 0.674425 -1.06642 0.461185 -0.859531 0.190384 0.21086 -0.271313 0.526704 0.0230914 0.501097 -0.281168 -0.318902 -0.324433 -0.157167 -0.759331 -0.576971 -0.605173 -0.444288 -0.176676 0.254352 -0.142719 0.240553 0.104962 0.0346115 0.606578 -0.819803 0.152923 -0.0648218 -0.182867 -0.203312 -0.519246 0.306333 0.381538 -0.208424 0.21465 0.0661415 -0.185312 0.401818 -0.0851438 0.432202 0.251432 0.693015 -0.0979018 -0.266347 
0.0846899 0.611426 -0.302225 -0.409649 -0.278433 -0.383249 -0.0678542 0.0764362 0.515537 0.34599 0.470086 -0.46939 -0.00389038 -0.20985 -0.536119 0.458684 0.50452 0.174975 -0.110239 -0.0945441 0.330374 0.0907643 -0.177876 0.806149 -0.41355 0.158221 0.468849 -0.293302 -0.561369 -0.541511 0.15936 0.111715 -0.161216 0.207589 0.863652 -0.0343664 -0.654071 -0.437175 -0.478356 -0.263575 0.0596323 -0.202442 -0.266673 -0.434725 -0.153162 0.412566 0.380471 0.308727 -0.386623 0.415698 0.0507159 0.183243 -0.0400495 -0.579719 -0.257606 -0.283329 0.643289 0.607072 -0.260271 -0.00857286 0.102741 0.0616966 0.268012 0.723467 -0.387919 -0.412695 0.47262 -0.0751016 0.756534 0.63378 0.0532373 0.416959 -0.242544 0.27722 -0.0819812 0.183587 -0.470668 0.278596 0.234685 0.0270727 -0.146565 -0.634646 -0.276774 -0.0187865 0.406921 -0.0476268 0.188151 0.383594 -0.424799 0.032376 -0.478292 0.620882 0.81475 0.365277 -0.14627 -0.961564 
0.342059 -0.464352 0.466183 -0.105573 0.0640677 -0.132628 -0.651456 -0.26906 -0.437938 -0.305719 -0.638205 0.0899608 -0.173806 -0.15729 0.516553 0.298233 0.241628 -0.0404925 -0.690359 0.106012 -0.834429 0.181869 0.164067 -0.277788 0.21059 -0.03356 -0.471727 -0.37505 -0.0383028 0.378094 -0.923941 -0.535564 -0.657658 0.810943 -0.546359 -0.0963938 -0.218619 0.343721 -0.463063 -0.536756 0.141334 0.345961 0.0564602 -0.0443208 -0.267938 0.530188 -0.321692 -0.0754976 -0.506265 -0.697008 0.619757 0.622688 -0.116704 -0.159047 0.185467 -0.700865 -0.200423 0.109326 -0.0270199 0.752717 0.281996 0.369607 0.502203 -0.573798 0.436627 -0.930338 -1.02027 -0.365932 -0.366137 -0.00537743 0.382419 -0.949481 -0.319221 -0.483083 0.192837 -0.666822 0.0454655 0.362038 1.00179 -0.611842 -0.752677 -0.132254 -0.430089 0.541728 0.388618 -0.0594737 0.407231 0.142253 -0.0212065 0.0565805 1.07987 0.181356 -0.137386 0.211295 -0.494247 -0.346663 
0.241644 -0.311305 0.485986 0.117153 0.129871 -0.0822153 0.441421 0.486117 -0.20351 -0.248079 -0.194615 0.0469911 0.300323 -0.228942 0.0366147 0.170754 0.236592 0.255294 0.327201 0.121004 -0.111063 -0.150584 0.961401 -0.0974124 0.320838 -0.523606 -0.158217 -0.235489 -0.110996 -0.313262 -0.456933 0.132332 -0.0697479 -0.383465 0.0361224 -0.0408073 -0.0642979 0.496258 -0.132976 -0.273284 -0.136728 -0.0687441 -0.0898225 0.49018 -0.120126 0.132044 -1.05935 0.323184 -0.232272 -0.235227 -0.694113 -0.762011 -0.0412424 -0.339268 -0.121164 0.271355 -0.0827287 -0.563773 0.0518662 -0.138494 -0.35612 -0.468552 -0.0624578 -0.295534 0.241391 -0.504918 0.433102 0.378314 0.186339 0.303329 -0.247952 0.0424167 -0.193242 -0.148897 -0.28303 -0.209793 0.195955 -0.370118 -0.164516 0.060204 0.00530493 0.383636 0.564137 -0.344684 -0.387596 -0.237279 -0.143231 0.661022 -0.373082 -0.0883109 0.559717 0.00592741 0.147697 -0.0683769 0.323115 0.346445 
-0.0782947 -0.807005 -0.115522 -0.607897 0.405233 -0.48259 0.0252601 -0.249274 0.529196 0.109705 0.215719 0.0954446 -0.108421 0.102327 -0.0487049 -0.629969 -0.154053 0.285512 -0.0485782 -0.0724375 -0.629302 -0.293011 -0.0864122 0.545203 -0.0565943 -0.208142 -0.493239 0.240044 0.18901 0.186689 0.205499 0.432916 0.360282 -0.142466 0.0833176 -0.277336 0.215124 -0.316163 0.276998 -0.623843 0.21471 -0.564813 0.137422 0.133148 0.328198 -0.0195803 0.674161 0.356153 0.412579 -0.784056 -0.307617 -0.228153 -0.171686 0.000921078 0.367733 -0.1184 0.0695816 -0.700839 -1.30021 -0.33394 -0.37855 0.169069 -0.668672 -0.30972 0.0726772 -0.0301859 0.273128 -0.291004 -0.0169875 -0.324847 0.0298045 0.0700909 0.586445 0.178911 -0.436613 0.367014 -0.272304 -0.258117 0.338596 -0.23125 0.319963 -0.507057 -0.726645 0.00795883 -0.0574003 -0.0539519 0.248586 0.105833 0.0201021 0.189022 0.0264882 -0.0908749 -0.214977 0.944997 0.0329185 -0.614987 
0.127671 0.124729 0.339716 -0.00596991 0.429502 -0.416324 -0.00498382 -0.367498 0.31919 -0.334682 0.150974 0.566876 0.436429 0.455542 -0.192983 -0.00344228 0.252505 -0.672752 -0.532365 -0.211259 -0.297845 0.489763 0.251276 0.159807 0.485075 0.628581 0.466093 0.844341 0.188016 0.25582 0.417831 0.177051 0.392959 0.0290497 0.426269 -0.847742 -0.702884 -0.0791914 0.165978 -0.261769 0.450559 0.149767 0.200498 0.0218253 -0.598045 -0.632555 0.11458 -0.416383 -0.405448 0.653749 0.764942 0.0150493 -0.254377 -0.184002 -0.561397 -1.04347 0.00243741 0.186082 0.0593648 0.4803 -0.640971 0.0832238 -0.0201295 -0.302774 -0.076316 -0.383918 0.00635512 0.364005 -0.210124 0.301445 0.613607 0.0433041 -0.134576 -0.276187 0.407291 -0.412603 -0.373485 -0.0253542 -0.553661 0.637783 0.12859 -0.352473 0.686434 -0.180646 -0.404202 0.271225 0.53417 0.0642724 0.149239 -0.545433 -0.304595 0.105895 -0.211193 0.0543077 -0.322342 0.0559182 
0.00120136 -0.779501 0.367737 -0.903035 -0.475214 0.307646 -0.693225 -0.154147 -0.367666 0.126068 0.445765 -0.041489 0.366448 0.184475 -0.000109838 -0.186358 -0.0843124 -0.207511 0.00182921 0.0473878 -0.0821001 0.212767 -0.401023 -0.423591 -0.329326 0.671345 -0.45423 0.620173 0.0488176 -0.152322 -0.365044 -0.523214 -0.231739 -0.222995 -0.146219 0.120159 0.176042 0.220506 0.548367 0.707149 0.261691 -0.344142 0.292214 0.0849639 0.134447 -0.278226 -0.528509 -0.733792 0.52853 0.197413 0.106508 -0.0723581 -0.455546 0.0157744 0.180493 0.038162 -0.485406 0.17542 -0.116329 -0.669437 -0.012847 -0.781287 -0.120726 -0.668716 -0.236343 0.136941 -0.0649716 0.0911683 0.104673 -0.336942 -0.0216776 -0.209545 0.31813 0.41725 0.260573 -0.376623 0.400458 -0.299077 -0.435973 0.145178 -0.119063 0.371616 0.0241654 0.450561 -0.444163 -0.0698785 -0.666078 -0.0831291 -0.292463 -0.297896 -0.0454047 -0.793275 -0.325948 0.522531 0.276738 -0.163335 
-1.11691 -0.413565 -0.0377964 0.287981 0.141883 -0.0156135 0.644548 -0.583822 -0.52188 0.0207814 -0.124553 0.116683 0.546791 -0.505552 -0.0479983 -0.140253 -0.105848 0.664599 0.457089 -0.0535316 -0.228181 -0.52378 -0.557524 0.736653 0.0837591 -0.276904 -0.424923 -0.180323 -0.582187 0.228589 0.127256 0.679742 0.183051 0.468895 0.629555 0.526306 0.313787 0.281917 0.622694 0.123634 -0.0264426 -0.0819362 -0.713992 -0.657154 -0.0350993 -0.399108 -0.0597646 -0.163467 0.307526 -0.463871 -0.0885156 0.354538 0.061507 -0.0425405 0.213768 0.305227 0.232534 0.648919 0.588812 0.198981 0.106059 -0.388492 0.0391068 0.0188105 0.150021 0.43933 0.0671849 -0.69992 -0.244217 0.349136 0.578944 -0.53506 -0.688821 0.0816971 0.391453 -0.439633 -0.998905 0.0469371 0.119386 0.0782401 -0.564142 0.0794923 -0.219418 -0.230736 -0.242883 0.51341 0.481242 0.42369 0.0198147 -0.309165 -0.244277 -0.374337 0.213076 0.591854 0.325678 -0.514709 
0.143488 -0.0557973 0.493553 -0.0276995 0.283879 -0.332865 0.549003 -0.0449722 0.200483 -0.272791 0.0656654 0.679926 0.168479 0.897979 0.230252 -0.472776 0.496618 -0.523776 -0.414485 -0.518011 0.377958 -0.181266 0.621868 -0.765143 0.0481188 0.37363 0.61553 -0.218024 -0.703151 -0.251101 -0.0278083 -0.605258 -0.518487 0.369826 0.195913 -0.438234 -0.301464 0.589604 -0.258731 -0.126001 -0.0607883 -0.35473 0.154312 0.124046 -0.00984884 0.126813 -0.95042 0.030243 -0.435312 0.373435 0.295956 0.028294 0.764048 0.1652 -0.196166 -0.325047 -0.400263 0.206464 0.322031 0.304093 0.0709723 0.0255962 -0.577786 -0.665768 0.240459 0.347083 -0.179078 -0.478906 -0.831275 0.0641048 -0.226753 0.000579833 -0.627862 -0.422221 -0.0393497 -0.54261 0.292199 0.435227 -0.694868 0.148253 -0.467519 0.0606058 -0.0562987 0.0707699 0.139779 -0.336993 0.435946 -0.325661 0.269207 0.0863351 0.0501646 0.487352 -0.375815 0.030878 -0.433073 -0.0499606 
0.853421 -0.368996 -0.485024 -0.605961 -0.266001 -0.402234 0.716169 -0.027889 0.174405 0.139345 0.179028 0.288374 0.197209 0.354668 -0.162728 -0.310165 -0.510451 0.0720919 0.201368 -0.482662 -0.332084 -0.0341839 0.00817054 0.020143 0.333389 -0.0368978 0.0362389 0.597186 -0.564293 0.219668 0.43358 -0.274239 -0.426539 -0.221372 0.358177 0.541471 0.0804884 -0.185743 0.2677 0.0497675 -0.23385 0.693141 -0.162468 -0.415163 -0.661874 -0.621947 0.473189 -0.164895 -0.694295 0.450141 0.682629 -0.331799 0.0647624 0.526537 0.201813 0.617404 -0.853475 -0.710247 -0.0755582 -0.0968541 -0.127899 -0.88805 -0.330177 0.550016 0.23257 -0.2211 -0.175202 0.32043 0.398449 0.140005 0.195434 0.6182 0.865981 0.337672 -0.594447 -0.0675655 0.182575 0.189005 0.467378 0.702044 -0.276536 0.232757 0.095799 -0.340059 -0.0609142 0.273509 0.123726 -0.156482 0.363045 0.182669 0.344498 -0.772095 0.601459 0.654763 0.0909145 0.711295 
-0.2633 -0.156941 -1.04842 0.24767 -0.752896 0.347145 -0.13203 -0.17313 -0.614083 -0.330111 0.168876 -0.279825 0.268229 -0.708721 -0.270171 -0.482766 -0.255932 0.0676131 -1.15447 -0.434188 0.305807 -0.10731 0.624858 -0.36426 0.768862 -0.020952 0.194063 -0.124195 0.14658 -0.311632 -0.213414 0.0444712 -0.184666 0.306098 0.178338 0.600775 -0.560982 -0.28685 -0.689437 -0.00823044 0.452138 0.530234 -0.783013 0.45033 -0.302834 -0.396732 -0.306326 -0.039284 0.868526 -0.0184812 0.417154 -0.255988 0.14784 -0.572448 0.0246081 -0.479713 -0.715444 -0.600427 0.0807488 0.220879 -0.249241 0.0418218 -0.419988 0.0277616 -0.0344194 -0.391168 -0.201476 0.488066 0.344336 0.0922933 0.431979 0.1258 0.0359378 0.266295 -0.384021 0.118898 -0.136659 0.388112 0.438856 -0.37592 -0.350683 -0.120993 -0.06984 0.0617264 0.492603 -0.992838 -0.198253 -0.393555 0.630228 0.309627 0.186627 0.288637 0.309052 -0.682692 0.0740218 -0.037873 
0.099751 -0.00667204 0.936709 -0.720334 -0.0455337 0.0164301 -0.284095 0.976897 0.524134 0.0364877 0.119172 0.599501 0.0197552 -0.659248 0.343875 -0.137286 -0.542842 -0.203112 0.42243 -0.59703 -0.244577 0.547599 0.314711 -0.229636 0.20052 0.103652 0.119445 -0.0205872 0.0501912 0.212958 -0.111804 -0.26964 -0.0672295 0.113919 0.0950605 -0.56227 0.0414234 0.197669 -0.520938 -0.158245 0.249349 -0.0506229 0.382297 -0.0780576 -0.212493 -1.22688 -0.787594 -0.157697 0.264096 0.254245 -0.111904 0.94344 -0.413393 -0.516015 -0.120386 -0.156998 0.278856 0.477299 -0.303176 -0.0988478 -0.0152675 0.0602162 -0.889435 -0.362254 -0.614753 -0.196277 -0.723084 0.246833 0.2566 0.379649 -0.182989 0.307088 -0.527316 0.207397 -0.246933 -0.47249 -0.298724 0.258917 -0.374677 -0.514102 -0.411851 0.852235 0.39923 -0.395053 0.255566 0.27316 0.293351 -0.838629 -0.468226 -0.0632236 -0.180197 0.105111 0.243216 0.492595 0.146558 0.0584656 
0.247073 -0.771604 0.117901 -0.6458 -0.328974 -0.875142 0.675273 -0.313446 0.158669 -0.0744756 -0.0230441 -0.515956 0.4732 -0.516846 -0.42136 -0.00576632 0.465852 -0.355243 0.361423 0.119827 -0.328483 0.350394 0.73883 0.392109 0.312671 1.17717 -0.758206 0.593972 -0.00674624 0.267152 0.092478 0.698084 0.180736 0.439976 0.564687 0.224669 -0.0753803 -0.320444 0.00681562 0.200844 0.150994 0.277673 0.0478674 -0.072832 -0.512436 -0.614255 0.127751 0.019442 0.894124 0.0468908 0.319716 -0.636254 -0.125764 -0.394543 -0.00485382 0.528581 0.057996 -0.176533 0.58981 -0.64134 0.127593 -0.078885 0.0969921 0.457669 -0.20834 -0.314086 -0.734338 0.430499 -0.246268 0.103488 -0.384956 -0.0537052 0.0834026 -0.00694069 0.318963 -0.890701 0.235499 -0.369475 -0.568301 -0.116172 0.443587 -0.160862 -0.706104 0.310281 0.358691 -0.132069 -0.0134229 0.0529111 -0.149766 0.157424 0.4908 0.346817 0.529354 0.214704 -0.173448 -0.18543 
0.0669567 0.295308 0.383016 0.158769 -0.0604353 1.26257 0.129346 0.438326 0.0120686 0.230922 -0.300899 -0.195979 -0.18417 -0.111598 -0.378358 -0.0699889 -0.118067 -0.533057 -0.212642 0.358286 0.0852136 -0.186193 -0.396116 0.320095 -0.369084 -0.155272 0.852053 -0.176877 0.213875 -0.137949 0.871904 -0.183422 0.260456 0.155218 -0.119754 -0.237627 -0.177638 -0.180895 -0.0290403 -0.176768 -0.255761 0.414422 -0.0840798 -0.593016 -0.11589 0.585439 -0.207049 -0.356685 -0.0762106 -1.1756 0.341907 0.134018 0.540633 -0.229528 0.368399 0.495656 -0.244602 -0.579478 0.099698 -0.0810082 -0.516953 0.399577 0.173487 0.283835 -0.431013 0.0603568 0.0357205 -0.182581 0.0419587 0.360204 0.512676 0.196526 -0.581741 0.520194 -0.132931 -0.623276 -0.0469796 -0.1904 -0.151987 -0.0700866 -0.223474 -0.367293 -1.00046 0.460732 -0.734193 0.20852 8.34393e-06 0.441722 0.403233 -0.70269 0.0766595 0.419001 -0.341718 0.168149 -0.41527 -0.534255 
0.735303 0.266591 0.0908239 0.394408 -0.0604558 -0.69825 -0.244079 0.0668283 -0.200576 0.150742 -0.261592 -0.216604 0.554476 0.0671328 0.31602 0.152327 0.121428 -0.478467 -1.01101 -0.461456 -0.490356 0.0807655 0.0611491 -0.619733 -0.13806 0.0780992 0.429361 -0.163429 0.289873 -0.463898 0.319802 -0.441116 0.0926865 0.294777 0.524639 -0.388336 0.464342 -0.123744 -0.101111 -0.0397558 -0.384632 -0.261925 0.191708 -0.36454 0.630811 0.375192 -0.161854 -0.0739779 0.447915 0.140733 0.395073 -0.265812 0.0942943 -0.339632 -0.230148 -0.215885 0.482208 -0.290996 0.212843 -0.118474 -0.589474 0.141434 -0.438279 0.11937 0.17181 -0.129512 -0.512126 -0.716191 -0.2606 -0.148898 0.0705719 0.337188 -0.274309 0.537418 0.32867 0.133062 -0.215497 0.460523 -0.277675 -0.187484 0.308676 -0.499772 -0.140222 -0.618891 0.42667 0.336457 -0.489948 1.37487 -0.360649 -0.286949 -0.754699 0.199546 -0.155359 -0.206344 0.720731 0.953035 
-0.0785776 0.156966 -0.92178 0.076437 -0.771361 -0.317599 0.47801 -0.224019 -0.165537 -0.517623 0.472417 -0.00585975 0.348569 0.416786 0.0990906 0.186386 -0.300089 -0.364297 0.199345 0.431287 0.633732 -0.728936 0.0813653 -0.58146 -0.308578 0.0118909 -0.116421 0.308103 0.412594 0.31079 0.305436 -0.228443 -0.121726 -0.143216 -0.523758 -0.557677 0.108078 0.0516132 0.718403 0.639233 -0.127542 -0.475671 -0.173878 0.0329211 0.0824121 -0.395119 0.463778 0.114265 -0.164342 0.200797 0.32688 -0.21852 -0.676924 0.0311862 0.498236 -0.540144 0.809574 0.0689626 -1.0034 0.0188718 0.349981 -0.265617 0.0788339 -0.0606018 0.0453038 0.562506 0.0644388 -0.350955 0.0257714 -0.359761 0.536821 -0.168007 0.758617 -0.103586 0.0640547 0.560875 0.207959 -0.4885 0.131233 -0.183561 -0.59067 1.21988 -0.58247 -0.423601 0.741512 0.580944 0.441535 0.142031 0.252331 0.215522 -0.458821 -0.0175915 0.052885 -0.391 -0.0622711 0.334774 
-0.179265 -0.182962 -0.338344 0.177686 -0.103726 -0.357035 -0.476699 0.669536 0.0303634 -0.529686 -0.376241 0.665994 -0.0665181 0.0671193 0.386021 0.417034 0.496298 -0.75309 -0.179547 -0.144638 -0.522992 0.0792986 0.249439 -0.0906364 0.191199 -0.410936 -0.81799 -0.459168 -0.204491 -0.146222 0.589735 0.139409 0.151389 0.165082 -0.573909 -0.199821 -0.531375 -0.413326 -0.255163 0.587318 -0.471049 -0.752197 -0.250908 0.507226 0.635317 -0.217723 0.275575 0.695945 -0.0873073 0.384804 0.839602 -0.610188 -0.541803 -0.0629481 -0.269283 0.121812 -0.457089 -0.189443 -0.153264 -0.193083 -0.478525 -0.118888 -0.589512 0.273677 0.561353 0.157923 0.37633 -0.636331 -0.115342 -0.0186326 -0.550186 -0.0291954 -0.23284 0.733 0.268918 0.297193 -0.240438 -0.648252 0.0765555 0.28924 -0.193898 0.670946 0.507898 0.131369 0.316132 0.613877 -0.13544 -0.251126 -0.057749 0.0261321 -0.246477 0.12966 -0.0780154 0.169669 -1.11975 -0.199566 
-0.15189 0.109808 0.487294 0.214978 -0.376417 0.128572 -0.861149 -0.0728067 -0.269002 0.257543 -0.135011 -0.0678495 0.418003 0.601933 -0.242463 -0.303522 0.360201 0.571755 0.0521542 0.484882 0.50823 -0.642799 0.452371 -0.0783 0.0900671 -0.336422 -0.207628 -0.0907228 -0.474233 0.148356 -0.100182 0.688792 0.379072 0.0117238 0.230708 0.269259 -0.470403 -0.984462 0.765208 -0.0290359 -0.28762 -0.172327 -0.180039 -0.144648 -0.484417 0.446155 0.0500898 0.129567 0.272055 0.0940497 -0.414748 0.514578 -0.258889 0.334747 0.261222 -0.125773 -0.562338 -0.517375 -0.0384746 -0.0546507 0.123226 -0.210528 0.370045 -0.445143 -0.453003 0.398483 0.0533556 0.420487 0.489836 -0.167175 -0.353147 -0.28586 -0.0733049 0.298258 -0.367958 -0.212508 0.198262 0.694135 -0.042341 -0.930451 0.0828337 -0.102593 -0.396845 0.541819 -0.368309 -0.0986679 0.170953 -0.626864 -0.744611 0.421067 -0.153205 -0.234346 -0.0851519 0.098378 -0.0800109 0.408543 
0.088263 -0.442174 -0.630576 -0.206766 -0.162703 -0.568365 -0.456569 -0.283318 -0.764768 1.15162 -0.456573 0.304579 -0.0927649 0.320902 -0.437782 0.0931134 -0.304972 0.253845 -0.192069 -0.203498 -0.509522 0.155559 -0.134122 0.382111 0.0969739 -0.298378 0.583954 0.0704128 0.23333 0.438785 -0.0849641 -0.0714577 -0.0757043 0.147861 -0.0112793 -0.97851 0.242045 -0.0574377 -0.0967242 -0.734265 -0.751698 -0.0258665 0.000810407 0.441839 0.260569 -0.0249727 -0.529007 0.209153 -0.741853 0.596086 -0.311655 0.290471 -0.641704 0.236663 0.593547 0.0513034 -0.0761127 0.203012 0.268077 -0.29413 -0.0170814 0.355741 0.384514 0.838383 -0.474154 0.737483 0.215736 -0.135427 0.411574 -0.121672 0.121513 -0.525158 0.526002 0.511655 0.516536 -0.468282 0.091228 0.510797 0.415095 -0.059558 0.423626 0.220776 -0.0906758 -0.171168 -0.0603124 0.246283 -0.248766 0.194389 0.099924 -0.286765 0.227166 -0.187273 -1.0036 -0.25821 -0.0386497 0.206657 
-0.11841 0.0657048 0.55402 -0.885378 -0.13251 -0.0074122 -0.701068 0.902593 -0.584003 -0.319689 0.0334036 0.140779 -0.202632 0.173766 -0.000481228 -0.0266615 -0.277338 0.419245 -0.172257 -0.486589 0.439353 0.561153 0.311941 0.315517 -0.165975 -0.364249 -1.41994 -0.404825 -0.00974205 0.751814 0.520279 0.144529 -0.447738 0.140637 0.257744 0.116839 0.00707787 0.0691188 0.386517 -0.488047 0.245515 0.00408183 -0.244165 0.664647 0.0258618 -0.161502 0.413095 -0.470067 0.846298 -0.191227 0.803905 0.369601 0.455094 -0.154584 -0.564557 0.531025 -0.136555 -0.151119 -0.00538218 -0.337402 0.0664612 0.350837 -0.284538 0.824115 -0.164522 0.0827397 -0.117985 0.0682173 -0.495734 0.366917 -0.0530055 -0.471509 0.932454 -0.428309 0.992767 0.52347 0.357527 0.0149954 0.231372 0.0276744 -0.355901 0.115534 0.261585 -0.329137 -0.359626 0.459772 -0.719977 0.602105 -0.732464 0.425872 -0.0306216 0.0194914 -0.270091 0.260684 -0.350535 0.528444 
-0.279179 0.249415 -0.397589 0.384483 -0.037714 0.0428654 -0.408329 0.188369 0.184961 -0.358747 -0.677939 0.983945 0.159155 0.319684 0.0070877 0.0961858 0.0190042 0.57111 0.34489 0.0483131 0.0670934 0.183523 -0.675382 -0.15646 -0.0203918 0.20248 -0.37978 -0.012639 -0.0806896 -0.312434 -0.360017 0.366968 0.477981 0.0293162 -0.0663563 -0.522058 -0.237474 -0.475903 0.209637 0.316087 -0.155335 0.242996 0.518967 0.246618 -0.0734625 0.149103 0.796587 -0.168149 -0.0868834 -0.721305 -0.101335 0.00109192 0.293365 -0.260989 0.744267 -0.536217 -0.0290272 -0.824567 0.52116 0.225903 -0.160893 -0.188952 -0.4489 -0.231174 -0.22707 0.194715 -0.264264 0.298231 0.546126 -0.270281 -0.354119 -0.233904 -0.337164 0.357185 -0.151291 0.283597 0.759574 0.130201 0.265669 0.0984986 -0.0606803 -0.613291 0.176914 -0.165071 0.617285 -0.417234 -0.37106 0.486592 -0.0177456 0.251952 -0.432651 0.260806 -0.720255 0.436038 -0.197497 -0.240324 
-0.546884 -0.246824 0.565111 -0.333075 -0.197189 -0.303968 0.288952 0.136559 0.276798 -0.0406349 0.210633 0.118119 -0.848311 -0.134443 0.230206 0.186453 0.470127 0.310972 -0.00596951 -0.24724 0.810766 0.00615711 -0.187773 0.0224595 -0.833548 0.417101 -0.84032 0.190031 0.821882 -0.316805 0.384017 -0.64512 -0.138714 0.397419 0.42915 0.0735893 0.250701 -0.566575 0.829213 0.156432 0.0709046 0.166034 0.305367 0.412879 0.322482 -0.44466 0.24307 -0.506296 -0.0993888 -0.302178 0.0336171 -0.0338239 1.0258 -0.344529 -0.541425 0.102527 0.0428007 0.0994792 0.276611 0.219102 -0.54883 -0.131427 -0.409793 -0.424615 0.297858 -0.0188832 -0.0844644 0.076967 0.00372575 0.0415351 -0.236775 -0.509349 0.0547862 0.430525 0.16046 0.587215 -0.42175 0.551107 -0.143825 0.0388719 -0.560277 0.125719 -0.347996 0.394808 0.256552 -0.110349 -0.824325 0.257964 0.344513 -0.112 -0.10394 0.766216 -0.599666 0.0554003 0.563417 -0.765722 
-0.529306 -0.232814 0.72034 -0.459426 0.141877 -0.0397091 -0.407257 0.186831 -0.574955 0.796122 0.110434 0.481585 -0.713387 0.444396 0.179727 0.505024 0.0575396 0.188161 -0.519878 -0.13528 0.722356 -0.299473 0.259066 -0.409895 0.0562608 0.311287 -0.397195 0.15876 0.72133 0.330601 0.888283 -0.401799 0.0566582 -0.161657 -0.23524 0.318319 0.255621 0.0963142 0.177162 -0.285614 0.0913033 0.448277 0.15059 -0.583732 -0.105115 -0.607246 0.300941 -0.225267 -0.0604237 -0.0262425 -0.0374057 -0.167446 0.34237 -0.444571 -0.122201 0.417883 0.142761 -0.992158 -0.523467 -0.410701 -0.146279 0.133697 -0.504631 -0.222136 0.0930824 0.710158 0.0141927 0.292091 -0.0775329 -0.0163841 -0.29146 0.543886 0.270838 0.434727 0.512149 0.0273661 -0.572376 -0.746111 -0.14654 0.0635585 0.10535 0.163955 -0.396502 -0.451793 0.278038 0.0411326 -0.599663 -0.191369 0.615857 -0.0839933 -0.389581 -0.326077 -1.54801 -0.303151 -0.418973 -0.00332949 
0.30505 0.324693 0.457886 0.357015 -0.448553 -0.212454 -0.0149062 0.492699 -0.678663 0.541164 -0.355765 0.431906 0.143608 0.252976 -0.219048 -0.216414 -0.30081 1.00224 -0.264532 0.256063 -0.19727 -0.726012 0.0836366 0.0782036 0.389525 -0.052771 -0.0219096 0.446251 0.208304 -0.351671 -0.858146 0.0262699 0.274845 -0.600136 -0.381146 -0.621006 0.215129 -0.424592 -0.213582 -0.0576947 -0.526866 0.168894 -0.632342 -0.0695051 0.36765 -0.0285198 0.10058 -0.457237 -0.395159 0.947113 -0.663381 -0.113352 0.307574 0.130438 0.124347 0.122743 -0.460482 0.358185 -0.148153 0.412598 -0.0925696 0.327981 -0.123995 0.211774 0.0862578 -0.34775 0.0584054 -0.198341 -0.0214411 -0.269651 0.376166 -0.240456 -0.664752 0.180537 -0.329359 0.0211142 -0.0648675 0.000610802 0.722074 -0.0859446 0.766103 -0.111583 -0.0488269 0.0948351 -0.391731 0.166446 0.221384 0.234664 -0.202733 -0.53931 -0.0976022 -0.229336 -0.895592 0.515924 0.161687 0.368288 
0.146463 0.289663 1.38679 0.448619 0.345934 0.59189 0.670076 -0.0153807 -0.141624 -0.0759469 0.0446653 -0.316314 0.638559 -0.0739815 -0.00260198 0.172337 0.379465 -0.235463 -0.0688323 -0.208151 -0.275366 0.180422 -0.00231648 0.210976 -0.0586026 0.481092 0.181963 0.00969828 0.478024 0.463842 0.344582 0.0565604 -0.921017 -0.411391 -0.383541 0.881202 -0.0535634 0.427333 -0.00712357 0.0542627 0.416941 -0.217037 -0.847875 0.84619 0.491172 0.135853 -0.0549867 -0.328226 -0.361158 -0.320765 -0.24879 0.938781 0.377157 0.348506 -0.188101 0.575798 0.048733 0.391266 -0.372097 0.0709234 0.255285 -0.140034 0.559822 -0.25643 -0.275869 0.104772 0.563347 -0.284571 0.0676815 -0.103045 0.0244325 0.258983 0.0241798 0.0337685 0.628309 0.647353 -0.527721 0.00256954 -0.0635213 -0.079131 0.245741 0.5504 0.172911 -0.145374 -0.437374 0.330776 0.338162 -0.0418861 0.228451 0.171298 -0.0206809 0.0999741 -0.409201 -0.201161 0.469761 -0.200972 
0.536549 0.16573 0.328713 0.178286 -0.456328 0.149 -0.627469 -0.783937 0.00326823 -0.958272 -0.087473 -0.246703 -0.21734 -0.361184 -0.66946 -0.301857 -0.0187088 0.753065 -0.168828 -0.139553 -0.680733 0.400251 0.24249 -0.45163 0.0409078 0.168823 0.485749 -0.923552 -0.680251 0.115292 -0.0451139 0.704611 0.627837 -0.573746 -0.219428 -0.00455511 -0.226783 0.405209 -0.27862 -0.359052 0.250516 -0.489763 -0.489398 -0.0777847 -0.106494 -0.644464 0.190908 0.0161855 -0.0299639 0.273613 0.183428 -0.154142 0.243934 0.0873379 0.342178 -0.0661068 0.640054 0.0270886 -0.598871 0.571873 -0.42115 -0.409521 0.543496 -0.537303 -0.161538 0.133813 -0.132563 0.19044 0.506112 0.572643 0.717595 -0.501885 0.495111 0.0634747 0.576999 0.369313 -0.0449519 0.158332 0.160001 -0.400354 -0.0610591 -0.238772 0.14001 -0.709828 -0.436021 -0.0390508 -0.154929 -0.182104 -0.270997 0.259573 0.296178 0.387671 -0.0882496 -0.484563 -0.213818 -0.779199 
-0.22703 0.176864 0.3681 -0.0902653 0.0435944 -0.0412427 0.329988 0.351884 -0.509522 -1.20182 -0.465191 0.256709 -0.516158 -0.18836 0.123467 0.533504 0.733103 -0.239843 0.0324711 -0.0263331 -0.112167 -0.0359234 0.338031 0.129651 0.775455 -0.286145 -0.19228 -0.215103 -0.441041 -0.0477417 -0.282071 -0.885921 0.334576 -0.618239 0.342512 0.241206 -0.00956807 0.145445 0.197954 0.407952 0.16626 -0.400793 -0.289589 -0.116017 0.225334 -0.602543 0.668536 0.0261063 -0.0872059 -0.104392 0.0885758 0.576348 0.636001 -0.251362 -0.285818 -0.331872 0.0110089 0.00389437 -0.150584 0.113274 0.521565 -0.244168 0.0683426 0.200592 0.279812 0.0458124 -0.0605219 -0.171377 -0.00594789 -0.0234228 -0.142456 0.320302 0.391901 0.294323 0.27324 -0.132172 0.297929 -0.455582 0.480282 0.493288 -0.00517562 -0.144032 -0.174667 -0.474121 0.625681 -0.302076 -0.502418 -0.218064 -0.157694 0.0855625 -0.125496 0.343913 0.159146 0.141805 0.430057 0.648186 
-0.314193 0.117211 -0.2113 -0.554678 -0.0424177 -0.0319304 0.228778 -0.176653 0.0315337 -0.237483 0.0538069 -0.224956 -0.33488 0.0263781 0.414271 -0.376633 0.531289 0.639168 -0.854332 0.0350065 0.077727 0.0101508 0.567333 0.219664 -0.293167 -0.293284 0.208909 0.84415 -0.217859 0.428438 -0.104034 0.727988 -0.0253436 -0.124604 -0.630484 0.883021 -0.54022 -0.212068 -0.00153221 -0.135755 0.273071 -0.631284 0.564199 -0.102134 0.431163 -0.300794 0.423481 0.000441609 -0.383052 -0.185119 -0.115847 0.382556 0.240193 0.00762778 -0.276028 0.399119 0.254458 0.154644 -0.0519045 0.400349 -0.0026649 0.115329 0.065051 0.40863 0.310583 0.0632359 0.780216 0.241553 0.077008 -0.0987756 0.534216 0.166125 -0.202691 -0.101156 0.410935 0.0892031 0.128876 -0.367109 0.0353373 0.341669 -0.254989 -0.109956 0.211778 -0.458558 0.0402087 0.34487 0.16071 0.186671 0.0788932 0.203669 -0.659037 0.0122063 0.0242138 0.152264 0.389735 -0.0129131 
0.224688 -0.414375 -0.0977621 -0.032683 0.846003 0.409991 -0.524263 -0.467371 -0.535016 -0.174251 -0.326481 0.290625 -0.251302 -0.352574 -0.0255348 -0.0559366 -0.215061 0.600286 -0.35338 0.48043 -0.0474866 0.0320483 -0.276693 -0.165727 0.748046 0.290423 0.417948 -0.331417 0.0739844 0.0682131 0.428356 0.447544 -0.665176 0.32124 -0.00360171 -0.289264 -0.191198 -0.0172348 -0.253692 0.111214 -0.529112 0.121413 0.214691 0.599785 -0.260918 0.639837 -0.844365 -0.244385 -0.665661 0.570494 -0.570586 0.127936 0.100426 -0.375777 -0.187831 -0.473732 -0.757921 0.0175033 -0.454683 -0.413036 0.532812 -0.132496 0.122645 1.03551 -0.00886134 0.164645 0.379245 0.014309 -0.0514161 0.375386 -0.398135 -0.387127 0.944398 0.24681 -0.0297616 -0.532406 -0.40961 0.038964 -0.416823 -0.192802 -0.521226 -0.123947 0.144138 0.490366 0.23494 -0.947254 -0.324654 0.174231 0.200748 0.290134 0.0706771 0.588406 -0.372841 0.209259 0.174563 -0.181447 
-0.00867436 0.0985521 0.365442 -0.231142 0.292851 -0.0521427 -0.0360224 -0.436773 -0.705026 -0.170748 -0.359234 -0.195186 -0.233901 -0.194993 -0.158999 -0.136289 -0.331469 -0.393849 0.229903 0.397703 -0.0180667 -0.804333 -0.0229185 -0.41142 0.513805 0.185397 -0.0924566 0.426805 -0.184924 0.434665 0.449736 0.569269 0.400852 0.251188 -0.306436 0.58601 -0.397779 -0.686236 -0.513414 0.473322 -0.0939686 0.594015 -0.256728 -0.357265 -0.290389 0.212459 0.544233 0.60235 0.181847 0.139946 0.221439 0.315575 -1.08634 -0.766811 0.0533361 -0.476781 -0.11827 -0.222275 0.0356525 -0.0311538 0.207689 -0.0307596 0.715412 0.343327 -0.226968 0.473616 -0.503213 -0.280018 -0.085239 -0.157701 0.0260478 -0.65708 -0.0304301 -0.806459 0.0515931 -0.258006 0.256384 -0.119964 -0.0701817 -0.039989 -0.081134 -0.184004 0.164515 -0.981542 0.232062 -0.29164 0.280324 -0.513687 -0.035911 -0.225355 0.390547 0.166188 0.187539 0.351409 0.736231 0.123256 
0.626293 0.276841 -0.0400025 -0.571458 0.0115954 4.85651e-05 0.329881 -0.432084 0.000833019 0.402205 0.2697 0.688734 -0.686979 0.393367 -0.245019 -0.440811 0.223165 0.118895 0.430935 -0.955918 -0.0289179 0.113156 -0.21756 0.468919 0.536168 0.165069 -0.103521 0.296708 -0.148661 -0.402544 -0.168635 0.235174 -0.887448 0.108247 0.14143 -0.18208 -0.0416328 0.220566 0.507225 -0.452111 0.156094 -0.00775024 -0.157936 0.134599 -0.152666 -0.724607 0.871658 -0.286661 0.286637 0.451106 -0.552592 -0.187748 -0.235784 0.473278 -0.574413 -0.0860894 -0.392769 -0.298971 -0.381017 0.525661 -0.792522 -0.264689 -0.147389 0.376618 0.425851 0.3315 0.0255839 -0.483128 -0.0303345 -0.56496 0.0822662 -0.762111 -0.244636 -0.218719 -0.127393 0.282256 -0.450426 -0.255189 -0.165342 0.186271 0.423758 0.346327 0.0173149 -0.112181 0.097176 0.0973778 0.210802 -0.585855 0.107669 -0.164893 -0.0751683 0.0468393 0.493877 -0.183998 0.0717485 -0.429124 
-0.61704 0.138474 0.101786 0.033805 0.0802252 -0.220361 -0.599008 -0.238004 -0.226864 0.777328 -0.264963 0.40825 0.0474264 -0.235962 0.0139986 -0.429177 -0.467108 0.377278 -0.531016 -0.152273 0.0933757 -0.616665 -0.177578 0.519937 0.0445462 -0.00109426 -0.467109 -0.385101 -0.107821 0.255189 -0.26354 0.00751831 -0.475956 -0.0690419 0.187016 -0.169837 -0.150721 0.609921 -0.31044 -0.394347 -0.461302 0.548017 0.109947 0.103774 -0.238902 -0.945112 -0.507871 0.472586 0.0481432 0.300809 0.366229 -0.0241032 0.595711 0.138836 0.0588274 0.0969439 -0.0227404 0.398951 0.243728 -0.327493 -0.783637 0.112689 -0.104454 0.0505979 -0.296723 0.67227 -0.358613 -0.302014 -0.12271 -0.186134 0.0187085 -0.275971 0.5 -0.523734 -0.759895 -0.916858 -0.471331 0.338118 -0.362979 -0.504192 -0.0498639 -0.327836 -0.523785 -0.226192 0.00364011 -0.0630745 -0.165388 -0.405817 0.14461 -0.0963654 0.328181 -0.705823 -0.301703 0.448244 -0.314928 0.0106496 
0.460364 -0.238779 -0.0168053 0.20748 0.182628 -0.85093 -0.52533 0.374217 -0.0316938 -0.220225 -0.222259 -0.161505 -0.118421 0.0210584 0.0246555 0.369869 0.229004 -0.320832 -0.330135 -0.0888242 0.0111615 0.19674 0.462918 -0.377654 0.181869 -0.374793 -0.124172 0.397806 -0.128901 -0.302579 0.0886487 -0.786737 -0.658457 0.462552 -0.208055 -0.0234918 -0.389631 0.101745 -0.57311 -0.148856 -0.614964 0.26989 -0.231294 0.0196799 0.220872 0.102999 -0.270228 0.73277 -0.53068 0.568098 -0.568357 -0.137322 -0.153193 -0.12549 0.186749 -0.125303 0.672597 -0.180133 0.49808 0.0720104 0.100404 0.156703 0.162229 0.150464 0.0260709 0.117818 0.131933 -0.114629 -0.170116 -0.0993952 0.0830959 0.453158 -0.147775 0.547605 0.0348671 0.0727185 -0.335147 0.626012 -0.429034 0.230673 0.0322721 -0.243867 -0.0365682 -0.380763 0.628193 -0.203427 0.691137 -0.0570218 0.309342 -0.00981689 -0.766669 0.0275339 -0.636292 -0.608196 0.195657 -0.00294967 
-0.319659 0.326791 0.50776 -0.591488 0.421161 -0.0578034 -0.0774668 -0.0297038 -0.354076 0.199835 0.114612 0.0073509 -0.469838 -0.105963 0.260652 -0.34847 -0.598128 -0.516569 0.19778 0.0950169 -0.229004 -0.00184591 0.140478 -0.457676 -0.637536 0.0600847 -0.651719 0.300924 0.0204368 0.0971912 -0.245962 0.0759461 0.0852738 -0.263999 -0.267569 0.40998 -0.778237 0.179034 0.382048 0.243986 -0.584432 0.0330462 -0.69029 0.651806 -0.0163372 0.737855 0.116487 0.389499 -0.24802 -0.194954 -0.0522621 0.1092 -0.176486 0.396272 -0.28275 -0.134024 -0.918233 0.00922092 -0.237446 0.406254 0.360604 -0.418894 0.493692 0.290892 -0.418848 0.0462989 0.315842 -0.747127 -0.536173 0.364747 0.346218 0.300884 -0.041446 0.391355 0.334587 0.00434927 -0.522313 0.251682 0.0772425 0.286733 0.658533 0.0803622 -0.087896 -0.372369 -0.762969 -0.369645 -0.0138039 0.167754 -0.216244 0.0437211 0.18565 -0.560765 -0.494233 -0.439814 0.104258 0.0257182 
0.180397 0.0693236 -0.206893 0.0178994 0.0360919 0.121467 -0.199365 0.236238 0.594799 0.182866 -0.19883 0.0847481 -0.27154 0.767924 -0.221795 0.32028 -0.327559 0.549985 0.0615773 0.11226 -0.172326 0.110045 0.0626806 -0.18389 -0.910553 -0.294275 0.635368 0.00718183 -0.242453 -0.174669 -0.588371 -0.504807 0.25199 0.135895 0.13515 -0.26018 0.458958 -0.493753 -0.296147 0.0284275 0.509827 0.332649 0.252757 -0.143032 0.586536 -0.0550122 0.258937 0.187135 -0.687659 0.640553 -0.599455 -0.0854218 0.00554044 0.176606 -0.112805 -0.221275 0.217385 -0.237534 -0.748802 0.433543 0.368579 -0.318885 -0.451851 -0.271335 -0.0102322 0.368703 -0.426589 0.133591 -0.448745 0.352663 -0.541437 0.147368 0.491461 -0.02059 0.0709624 0.471793 0.109335 0.217899 -0.320885 -0.467338 0.184778 -1.30386 0.28157 0.798214 -0.0755517 -0.173268 -0.0548664 0.281658 0.354768 -0.515468 -0.160476 -0.0463368 -0.0287265 -0.0161013 -0.365128 0.578157 
-0.0470954 0.515579 -0.241124 0.552846 0.446412 0.822513 -0.6308 0.0404378 0.0966107 -0.795002 -0.182456 0.515567 0.0845836 0.334092 -0.735801 -0.0710647 0.508867 0.421007 0.577555 -0.209756 -0.454472 0.287111 -0.229766 0.208557 -0.0996573 0.481331 -0.587292 0.224569 0.734707 0.0944848 0.217548 -1.10422 -0.0706295 0.0628137 -0.961928 0.182911 0.397788 0.0955481 -0.189697 -0.293398 0.192383 0.883762 -0.298931 0.166833 -0.627119 -0.214244 0.713414 0.249398 -0.727596 0.228512 0.243101 0.378307 0.0168422 -0.437645 -0.0692122 -0.0886285 0.248577 0.00306984 0.0495878 -0.0299312 -0.233699 0.856385 -0.302489 0.017374 -0.697863 -0.121608 -0.340873 -0.282265 -0.251405 -0.0391491 -0.316411 -0.446511 -0.29819 0.468639 0.764535 0.0725624 0.474343 0.304858 -0.243685 -0.224207 -0.302274 -0.0643252 0.388723 -0.0326294 0.59412 -0.552502 1.04622 -0.346898 0.116115 -1.04526 -0.0729372 -0.188194 0.410952 0.21919 0.349475 -0.242287 
0.447557 -0.140969 0.153227 -0.0131683 0.27355 0.346202 -0.482353 0.371755 0.173383 -0.618215 0.515417 0.252662 0.247192 0.141174 0.438399 -0.418956 -0.261961 0.19453 0.388056 -0.387661 0.00642175 0.393109 0.456322 -0.402832 -0.231504 0.491277 0.786999 -0.163927 -0.563851 -0.643049 0.126253 -0.393648 0.87157 0.217579 -0.463326 -0.559333 0.712511 -0.220467 -0.22584 0.907131 0.270326 -0.436892 0.252805 -0.175183 -0.161247 -0.138503 0.0203279 -0.5566 0.614969 0.194865 0.117483 0.225132 -0.135986 -0.0125004 0.222961 0.4725 -0.467515 0.343362 -0.0145299 0.10507 -0.43209 0.390068 0.0906046 -0.782603 0.029412 -0.0477225 -0.0251303 -0.930804 -0.00809535 -0.539902 0.343411 0.569178 0.433739 0.39763 0.592514 0.182502 -0.393545 0.219575 -0.116347 0.512616 0.418367 -0.0769059 0.255151 -0.246625 0.176962 -0.0700393 -0.193988 0.31712 -0.320819 -0.155762 0.217047 0.247336 -0.569008 -0.34371 -0.836812 0.354852 
-0.161204 0.493324 -0.730437 0.35042 -0.480407 0.200601 0.118728 -0.512353 -0.674861 -0.126426 -0.398844 -0.282684 0.00914437 -0.556878 -0.216536 0.0253135 0.0571502 0.459476 0.116866 -0.313176 0.2375 0.803295 -0.0969229 -0.0332038 -0.354946 0.0813288 -0.0894807 0.794733 -0.545887 -0.214482 0.370525 0.3051 0.321967 0.981181 0.513288 -0.298707 0.340097 -0.253803 -0.690565 -0.134455 -1.08251 -0.350646 0.0787035 0.328186 -0.170744 0.137188 0.3049 0.307421 0.448529 0.108251 0.494088 -0.485363 0.641953 0.103936 0.140754 0.588396 0.218638 -0.11497 0.579911 -0.304997 0.836605 0.435216 0.209941 0.235894 -0.189119 -0.228778 -0.325936 0.522917 0.129281 0.795615 -0.393413 -0.599082 0.148374 -0.773954 0.349257 -0.606106 -0.355051 -0.0129487 0.0160963 0.625791 0.476455 0.893544 0.04941 0.828547 -0.0467903 0.110268 0.400442 -0.196588 0.0668325 0.307771 0.632845 -0.0700155 0.296003 0.914139 -0.351976 -0.751873 
0.442282 -0.963832 0.143513 -0.436939 0.485541 0.911179 -0.472298 -0.223138 -0.427903 -0.356962 -0.299613 0.130255 0.0704007 -0.149361 0.0417458 -0.390368 -0.178923 -0.443515 0.382593 -0.25128 -0.585709 -0.538164 0.161406 0.119945 -0.38377 -0.281798 -0.375189 0.0342415 0.0702377 0.251404 0.701915 0.719944 -0.073949 0.361819 -0.227418 -0.499464 0.569349 -0.453862 -0.672607 -0.408016 0.218238 -0.125073 0.183724 -0.0784773 -0.7846 0.473926 -0.196673 -0.830392 0.520785 0.46084 -0.849676 0.210596 -0.54181 0.0733837 -0.186108 0.0735774 0.506817 -0.253374 -0.11745 0.846781 0.0143687 -0.509911 0.382175 -0.0365513 -0.350646 0.517032 -0.24332 -0.860014 0.0476139 -0.307557 -1.01185 -0.197735 0.333139 0.602775 -0.264566 -0.871211 -0.285326 0.446066 -0.923478 -0.169191 -0.0881268 -0.398187 -0.114598 -0.393264 -0.00913833 -0.208452 0.0339757 -0.580574 0.00193157 0.128789 0.224553 0.386539 0.265499 0.154306 -0.383501 0.904286 
-0.152153 -0.68008 -0.286816 0.666556 0.270638 0.181682 0.227343 0.539138 0.296033 -0.236222 -0.512668 -0.186513 0.261895 -0.422815 0.290136 0.636197 -0.10236 0.0706378 -1.17951 -0.437 0.225399 -0.0417252 0.447169 -0.461489 0.128169 0.64486 0.210388 -0.558564 -0.114786 0.0523891 -0.361984 -0.313928 -0.282659 -0.167642 -0.675782 0.126547 0.0389568 -0.22142 -0.243128 0.341829 -0.25259 -0.633561 -0.0764417 -0.0979534 0.547807 0.184224 -0.41652 0.819561 0.304518 0.541966 0.0614661 -0.363552 0.776588 -0.720799 0.164917 -0.373757 -0.187571 -0.351243 -0.510395 0.20392 -0.365659 0.0794228 -0.00992324 -0.816022 -0.363853 -0.902 0.0480443 0.178613 -0.665759 -0.177203 -0.481744 -0.622591 -0.341611 0.888691 -0.524812 -0.197565 -0.0516561 -0.389853 -0.300498 -0.0119145 0.0999491 1.02482 -0.024857 0.73463 0.589662 -0.0393159 -0.612016 -0.0761091 -0.225275 -0.208962 0.0741527 -0.248009 -0.155201 0.341021 -0.00880331 -0.316935 
0.275534 0.440676 0.123826 -0.252092 0.694206 -0.384512 0.065162 -0.349087 -0.242676 -0.0295461 0.4383 -0.151791 -0.333955 0.237407 -0.0955841 0.625977 0.455382 0.185616 0.279137 0.458293 -0.23836 -0.137032 0.380335 0.0657592 -0.617219 0.210983 -0.127006 -0.465981 -0.029833 -0.357116 0.353911 -0.312924 -0.0331159 0.219419 -0.363015 -0.281648 -0.171308 -0.245366 0.370858 -0.0899503 -0.263632 -0.440948 0.400575 0.583686 0.153615 -0.0539769 0.183484 0.422102 0.131625 0.450966 -0.438735 -0.029372 -0.0802885 -0.62504 -0.159996 0.0175762 0.06721 -0.572615 -0.762362 0.242517 0.190797 -0.333628 0.266254 -0.583915 0.346555 -0.142596 0.42177 0.184298 -0.200607 0.363557 -0.795526 -0.0739466 0.0471587 0.0814036 -0.69107 0.384654 -0.601814 0.150702 1.07791 0.135781 0.345466 0.32131 -0.325862 -0.112875 0.263064 -0.235837 -0.324837 0.0292524 0.266038 -0.0128377 0.64871 -0.0897565 0.132605 -0.332437 -0.153062 -0.0111368 
-0.8966 -0.173271 -0.00992713 0.453875 0.0133861 -0.216421 0.216903 0.093706 0.383996 -0.2647 0.111405 0.526557 -0.268674 0.42302 0.150533 0.282313 -0.237214 0.37773 -0.918906 0.0143333 -0.00606985 -0.560038 -0.449767 0.0907338 0.0581915 0.184437 -0.206579 0.229438 -0.564559 -0.596495 -0.0149577 -0.321096 0.0852912 0.290218 -0.397696 -0.0104334 -0.0826422 -0.28679 0.18346 -0.174166 0.163452 -0.257966 0.290931 -0.208291 -0.192845 0.182528 0.178363 -0.519211 -0.550241 -0.105255 0.259618 0.479457 -0.610701 0.549151 -0.111779 0.236173 0.464844 0.30215 0.0287317 0.328358 -0.90324 0.169627 -0.0358078 -0.0989291 -0.281245 -0.475031 -0.0774735 -0.173054 -0.898282 -0.3143 -0.746707 0.054061 -0.846472 0.34768 0.189423 0.405884 -0.73106 -0.0709003 0.702306 0.0228384 0.244257 -0.895448 -0.191871 -0.25568 0.727613 0.506425 -0.105336 0.0122311 0.246507 0.0376868 -0.214063 -0.237137 0.29559 -0.176178 0.453044 0.323127 
-0.325125 -0.206395 -0.218025 0.246327 0.688851 -0.334318 0.345628 0.165359 0.696665 0.112487 0.222343 0.178571 -0.218303 -0.607031 0.783061 -0.110683 -0.25944 -0.748844 0.248542 -0.208386 0.464836 -0.647569 0.0101477 -0.244547 -0.435168 0.209751 0.570113 0.135981 0.125492 0.0666601 0.199568 0.0169368 -0.240386 0.0451244 -0.527821 -0.248496 0.242199 -0.411096 -0.648061 -0.141309 0.271744 -0.169679 0.300518 0.569788 -0.287435 -0.194037 -0.0090602 -0.434979 -0.197721 -0.777231 0.459275 -0.153104 -0.0811118 0.283103 -0.516862 -0.287066 0.07027 0.266033 -0.205581 0.273335 0.428794 0.850401 -0.449397 -0.853067 -0.481284 0.378773 0.0108705 -0.22173 -0.0714998 0.557971 -0.289458 0.304682 0.774986 0.372364 -0.474383 -0.129855 -0.592281 0.480356 0.706098 -0.188313 0.0959485 -0.222131 0.669631 0.0784034 -0.122537 0.234089 0.141288 0.199221 0.404807 0.516219 -0.0749759 -0.421856 0.243054 0.278587 -0.0423706 0.736861 
-0.45595 0.468498 0.105216 0.274425 0.298976 -0.669768 -0.701419 -0.358886 -0.316679 0.113027 0.120804 -0.31137 -0.0396341 0.225702 -0.565312 -0.714215 0.18796 -0.0459628 0.451939 -0.133269 0.0158251 0.172735 -0.560972 0.652597 -0.0765204 0.0422805 -0.345219 0.44528 -0.257384 0.0262636 0.21416 -0.151561 0.265475 -0.08364 0.627545 -0.758216 -0.366477 0.40298 -0.157099 0.144467 -0.0243073 -0.262513 0.0784865 -0.349679 -0.130294 -0.0367587 -0.0064082 -0.434314 -0.114368 0.427085 -0.749822 -0.648608 0.322963 0.0674793 -0.553394 -0.072482 0.162585 -0.392675 -0.492469 -0.661157 -0.200717 -0.111132 0.474919 -0.417302 -0.662961 0.331153 0.556102 -0.160603 0.492266 -0.462242 -0.486295 0.243718 0.497839 0.214834 0.353942 0.306448 0.604666 0.525328 -0.207901 0.250811 0.32115 0.755006 -0.391977 -0.177425 0.663595 0.066779 -0.44322 0.00815312 0.20217 0.295998 0.214082 -0.107704 -0.62234 0.071348 -0.0164351 -0.207518 
-0.0520929 -0.327542 -0.105045 -0.772451 -0.208281 -0.0243523 0.384101 -0.144475 0.0829031 -1.04525 -0.377267 -0.656985 -0.487739 -0.114502 0.449177 0.111433 -0.444739 0.1576 -0.33865 -0.716467 0.314846 -0.238005 0.516138 0.168714 0.140074 0.0445829 0.158625 0.981218 -0.546558 1.03864 -0.106334 -0.575758 -0.294274 0.523562 0.318055 -1.00621 -0.713135 0.328599 0.486886 -0.301691 0.0590016 -0.407992 -0.601374 -0.104099 0.155426 -0.479967 0.313134 0.131758 -0.005853 0.539907 -0.837476 0.162193 -0.461062 0.452743 0.0011673 -0.064208 0.597284 0.146217 -0.330448 0.852721 0.289783 0.476122 -0.133456 0.0776256 -0.372509 -0.00273421 0.185366 -0.214624 -0.118308 -0.53305 0.529903 0.605835 -0.798121 0.405814 0.509874 0.807232 0.257341 0.262702 -0.207108 0.4825 -0.205509 -0.524728 0.105164 0.339668 0.341807 -0.180881 -0.656821 -0.292466 -0.267626 0.0851436 0.0770962 -0.288032 -0.366993 0.309845 -0.387354 -0.11295 
-0.0314653 0.186324 -0.136648 -0.196945 0.496879 -0.0820801 0.893742 -0.196499 0.0717884 0.233653 -0.056188 -0.280568 0.476745 -0.119909 -0.13125 -0.370698 -0.196084 0.229169 0.481487 -0.209188 0.399351 -0.044072 -0.676971 0.210479 -0.220592 -0.118968 0.353424 0.0944229 0.423392 0.610211 0.230766 0.131315 -0.158604 0.133607 -0.775001 -0.155143 0.428529 -0.231591 -0.192129 -0.218587 -0.162678 -0.0701379 0.447672 -0.342658 -0.0117152 0.0954425 -0.439153 -0.171925 -0.112165 0.0854854 -0.267218 0.220532 -0.211163 -0.035549 -0.277781 0.401465 0.0822031 -0.749098 0.12005 0.203071 -0.404752 -0.19221 0.325459 0.772445 -0.618144 0.0115836 -0.295057 -0.387801 0.211701 -0.0458433 -0.166653 -0.171079 -0.366282 0.320476 -0.890105 -0.287584 0.323716 -0.10682 -0.412566 0.619174 0.61934 -0.0112092 0.30408 0.157277 -0.208417 0.114567 -0.223716 0.771352 0.443563 -0.13135 -0.334334 0.0430558 -0.993432 0.321793 -0.0465993 0.419174 
-0.00884587 0.114706 0.173122 -0.168841 -0.0141488 -0.0147346 -0.087843 -0.0766213 -0.507896 -0.449777 -0.104452 -0.270856 0.151651 0.267231 -0.180387 0.0565587 -0.102285 0.0696875 -0.0421638 0.0416732 0.195281 0.44238 -0.131186 -0.315408 -0.0356823 -1.1356 -0.253934 0.539823 0.0735486 0.69413 0.0660926 0.260798 0.43184 0.286428 -0.348807 0.262855 0.84692 0.110489 -0.293644 1.03052 0.987765 -1.02683 0.0497279 0.228607 -0.0622851 0.391859 0.580386 -0.141372 0.134474 0.341468 -0.534958 0.0653075 0.546357 0.503878 -0.190512 -0.153788 -0.468035 -0.0904402 -0.160767 0.615524 -0.412446 -0.623825 0.219799 -0.136606 0.153652 -0.112506 0.260944 0.0309202 -0.196089 -0.0293337 -0.380489 0.110502 0.599106 -0.457245 -0.401909 -0.260291 0.134566 0.133016 -0.234801 -0.0990472 0.0703643 0.55405 0.180262 0.321309 0.247194 0.0521644 0.35914 -0.260614 -0.0370423 -0.113509 0.279068 -0.733486 0.32804 -0.385514 -0.261134 0.189999 
-0.192297 0.119164 -0.126608 -0.204138 0.0939174 -0.115852 -0.152659 -0.0253316 -0.38025 -0.177843 -0.278096 0.311935 -0.37046 -0.0368169 0.359077 0.183474 -0.0122778 0.180583 0.210241 0.296943 -0.457686 -0.0800046 0.349198 0.0454839 0.0247085 -0.566494 0.261144 0.00220599 -0.013264 0.0797174 0.536552 -0.555154 0.210209 -0.0675026 -0.0332752 0.195428 0.657808 0.504775 -0.539507 -0.255177 0.0715284 0.276637 0.456505 -0.228876 -0.55512 0.356574 0.281655 0.477011 -0.20337 0.43377 -0.340993 0.11878 -0.286198 0.31285 0.304487 0.35629 0.821381 -0.241273 -0.214317 -0.126664 0.367213 -0.682961 -0.667899 -0.689061 -0.323861 -0.413323 -0.280471 0.374265 0.40935 0.604108 -0.0584841 0.212633 -0.83913 0.962287 -0.365783 -0.0358106 0.497683 -0.719584 0.119581 -0.671723 -0.235342 0.00521231 -0.236148 0.206723 -0.0396307 -0.023614 0.0245377 -0.503312 -0.331313 0.752938 0.184192 0.05958 -0.526546 0.520079 -0.296632 0.133908 
-0.138509 -0.157882 0.0773885 0.250179 -0.272908 -0.3627 0.43947 1.02356 0.296578 0.083681 0.0691517 -0.10064 -0.0331007 -0.316523 0.619774 0.149602 0.461865 -0.529819 -0.246583 -0.836545 -0.266569 -0.0885694 -0.562396 -0.051487 0.0462675 -0.106003 -0.571745 0.248985 0.260958 -0.5224 0.589901 0.286099 -0.494661 0.256443 -0.161253 -0.0720828 0.306571 0.774268 -0.254853 -0.267342 -0.17657 -0.415276 0.24115 0.304535 -0.430612 0.681193 0.66173 -0.000230433 0.269236 0.0988928 0.161883 0.421987 0.0815242 0.127727 -0.275132 -0.266503 0.0351454 0.0754651 0.186775 -0.262718 -0.246176 -0.590869 0.566942 0.217582 0.439351 0.249476 -0.369657 -0.548144 0.264288 0.637515 -0.228496 0.00339668 -0.119003 -0.293941 0.0185001 -0.362857 -0.338816 0.477224 0.101685 0.978843 -0.194126 0.155504 0.617527 -0.0654894 -0.0226096 -0.0219124 0.117907 0.458079 -0.468754 -0.412554 -0.46125 -0.171568 0.253494 0.747861 0.266572 -0.302535 
