-0.0365897 -0.326045 0.205287 -0.322557 0.00998084 0.223451 0.0100818 -0.157991 0.13876 0.0602098 0.637403 0.111516 0.306289 0.235022 -0.0383526 -0.101044 -0.206146 0.392526 -0.280753 -0.80171 -0.231822 -0.15647 -0.604586 0.0151104 -0.268387 -0.00394994 -0.0554041 -0.203836 -0.0221215 0.257474 0.113074 -0.224782 
0.420692 0.24177 -0.10057 0.201771 0.363457 0.0139442 -0.0855344 0.34526 -0.394283 -0.0393246 -0.141288 0.0216812 0.50198 -0.00307278 -0.121682 -0.094577 -0.182088 -0.478898 -0.296436 0.239142 0.33141 -0.397671 -0.291525 0.470871 0.0476216 -0.0485713 0.425452 -0.598092 0.170387 -0.00424418 0.15468 -0.359263 
0.335024 0.167199 -0.430717 -0.034208 0.282302 -0.0656525 -0.125371 -0.314498 -0.0404539 -0.330283 0.223832 -0.0247334 0.0287546 -0.0200232 0.00565322 0.342523 -0.0473549 0.398307 0.330648 0.135171 0.0397826 0.0177026 0.038075 -0.555731 0.297181 -0.0678476 0.279021 0.297272 -0.222571 0.0127907 0.601434 -0.0365284 
0.232744 -0.856972 0.403594 -0.0793295 -0.148404 -0.123592 -0.174057 0.480931 0.27454 0.14735 -0.372364 0.168432 0.165614 -0.041141 -0.277638 -0.29669 -0.21129 0.275325 -0.115015 0.361032 -0.107222 -0.101223 -0.134832 -0.0821901 0.359327 0.164222 0.209249 0.396669 -0.496565 0.269122 0.0210575 -0.308377 
0.497094 0.215473 0.0473082 -0.0444303 -0.559974 0.172977 0.741155 0.240115 -0.585789 -0.312148 -0.640069 -0.303199 -0.0465723 -0.0798173 0.35221 0.271523 0.61168 -0.149989 -0.3219 0.0972679 0.0930978 -0.637514 -0.0463019 0.359938 0.471122 -0.118593 0.31688 0.244253 0.0740988 0.121146 0.00246513 -0.0658568 
-0.44099 0.0683157 0.433674 0.262835 -0.24846 -0.426179 -0.19461 -0.0932426 -0.148814 -0.249071 0.673994 -0.748418 0.0762311 -0.0798878 -0.542086 0.249734 -0.00323779 -0.147256 0.0767607 0.50577 -0.0554853 -0.0671918 -0.284448 0.0867832 -0.148525 -0.473043 0.073431 0.112116 0.594542 -0.172966 0.0697622 -0.431328 
-0.0792183 -0.376973 0.268041 0.149417 -0.226421 0.244176 0.226917 0.245 -0.0357791 0.0140194 0.194452 -0.354617 -0.391615 -0.189014 -0.0932522 -0.0915612 0.121175 0.0437031 -0.0449881 0.0112967 -0.0302911 0.0150586 -0.223567 0.00986293 -0.216317 0.160137 -0.0812147 -0.243954 0.240281 -0.540717 0.239672 0.309795 
-0.0546337 0.172415 -0.473285 -0.0819218 -0.503206 -0.187706 0.043328 -0.447843 0.125377 0.215502 -0.230167 -0.670289 -0.312268 0.164212 -0.490292 0.340779 0.38028 0.0109854 0.33648 -0.435569 -0.455578 0.0314655 0.077822 -0.154922 -0.215803 -0.422653 -0.0535194 -0.469179 0.0248586 -0.127121 0.129092 -0.602271 
0.128189 -0.0264717 0.177593 0.0573686 0.088985 0.385494 -0.212692 -0.0824418 0.359771 0.31638 -0.16392 -0.327585 -0.113511 -0.146521 -0.11492 0.0208692 -0.0362899 0.0225242 -0.0372561 0.227918 0.106581 0.347367 -0.373235 0.0213158 0.315417 0.746309 0.172641 0.591748 0.236103 0.554005 0.0340085 -0.877402 
0.00715941 -0.151973 0.644671 0.300718 -0.0228693 0.467093 -0.0385235 0.577087 -0.305105 0.287479 0.0742522 -0.53552 0.156971 -0.426095 0.0950852 -0.0641952 0.160392 0.0557459 0.111951 -0.208479 0.366138 -0.220892 0.23785 -0.550049 0.421656 -0.0112832 -0.0648497 -0.0629401 -0.361586 -0.569031 -0.152504 0.0524558 
-0.535135 0.0533561 0.38104 0.106119 0.0358558 0.197489 -0.0502287 0.061608 -0.107978 0.0553425 0.527801 -0.251384 0.171122 0.198876 -0.00983972 0.288388 0.450086 -0.293971 -0.0128758 -0.243692 -0.32198 0.424001 -0.0236191 -1 -0.0499553 -0.228322 0.0993005 -0.398482 -0.541132 0.351762 -0.323403 0.0922039 
-0.134692 0.342248 0.656007 -0.0905515 -0.165502 0.347723 -0.26842 -0.125246 -0.371907 0.334887 0.221017 0.0537008 -0.517961 0.0363029 0.128792 0.319205 -0.360428 -0.0439415 0.326713 0.18389 -0.298189 -0.35131 -0.281564 0.230157 -0.197151 -0.0585883 -0.575327 0.491644 -0.282232 -0.409967 -0.293606 0.710696 
0.308898 0.0813675 0.0316611 -0.418975 0.234198 0.152709 0.36798 0.41136 -0.594994 0.117523 -0.511027 -0.131868 0.130798 -0.607757 -0.43877 0.167727 0.139839 -0.126448 0.452318 0.324762 -0.150838 0.584282 -0.143185 0.0525263 -0.245139 -0.167052 0.0623073 0.262866 0.194382 0.535243 -0.41332 -0.0911978 
-0.275911 -0.245544 0.168451 -0.00841399 0.200865 -0.200948 0.0251346 0.157538 0.00163814 -0.327812 -0.311823 0.0041339 -0.316992 0.472594 0.290931 0.123545 -0.0842927 -0.23914 0.181319 0.490876 -0.0914642 -0.0947688 0.224644 0.0995915 0.38627 -0.305999 -0.201894 0.270684 -0.202976 0.151397 -0.107039 0.442599 
-0.0431521 0.0792687 -0.187551 0.191941 0.197608 -0.0550464 -0.464584 0.376939 0.174379 -0.180943 -0.353134 0.464376 0.185279 -0.0754356 0.343538 -0.110401 0.276517 -0.569024 0.104336 0.113176 -0.582134 -0.2494 0.0523071 0.0896348 0.162021 0.399664 -0.228292 -0.113141 -0.0799426 0.487452 0.226093 -0.326116 
-0.117079 -0.15416 -0.175287 0.0389614 0.149602 -0.436563 -0.0867573 -0.452585 0.00707911 0.227077 0.0933901 0.306708 0.447336 0.384182 -0.304325 0.0483993 0.0393462 -0.334611 -0.0893534 0.251399 0.157386 -0.076516 0.554359 -0.146589 -0.716674 -0.231434 0.45726 -0.852155 -0.241846 0.504193 -0.191688 -0.472293 
0.249752 0.417623 -0.603243 -0.025907 -0.094062 -0.301098 -0.337966 -0.168666 -0.422488 0.0606363 0.734825 0.0935982 -0.127968 0.108093 0.783006 0.260006 0.267937 0.138936 0.357599 -0.246034 0.363708 -0.637631 0.449854 0.452125 -0.0322928 -0.094981 -0.0849832 -0.366702 -0.239643 0.410901 -0.0481789 -0.243381 
0.205107 -0.560142 -0.212223 0.0153754 0.0370957 -0.292082 0.355017 0.0505396 -0.148922 -0.234141 -0.194106 0.0434987 -0.00923197 0.0190514 -0.405408 -0.0930564 0.228907 0.343477 -0.276567 0.152971 0.157185 -0.30064 -0.854054 0.452 -0.0357628 -0.264809 0.246115 0.0978709 0.0448471 -0.286776 0.0365613 0.297999 
0.220464 -0.0065401 0.479183 0.0925059 -0.123529 -0.338377 -0.0890628 0.139298 0.149582 0.243629 -0.26786 0.0172468 -0.208665 0.306394 0.214835 0.379317 -0.0462914 -0.357272 -0.0933588 -0.346541 -0.356894 -0.407746 0.331597 -0.417146 -0.502903 -0.0180554 -0.253553 -0.242156 0.347633 0.0486662 0.270875 0.0388192 
0.412831 -0.210113 0.200312 0.376563 -0.0543198 0.112101 0.175493 -0.205382 -0.02788 -0.104673 0.119992 -0.379792 0.44786 0.0800026 0.19426 0.105545 -2.85092e-05 0.0621659 0.249572 0.326831 -0.161398 -0.244337 -0.0584013 0.238294 0.0327849 0.272835 -0.26166 -0.2346 -0.171226 -0.597422 0.304283 0.159293 
0.492768 0.0836265 -0.157319 0.436443 0.303568 0.380981 -0.285625 -0.321692 -0.0209942 0.110574 0.133722 0.388081 -0.43787 -0.468189 0.539218 0.16014 -0.493713 0.140147 0.120036 -0.131743 0.160099 -0.333188 -0.056399 -0.199022 -0.451357 -0.0107294 0.236613 -0.0886198 0.100344 -0.0126634 -0.329238 0.0707265 
-0.254952 -0.000100681 -0.128117 -0.334216 -0.150453 -0.198172 -0.20119 0.235012 0.264758 0.862537 -0.315836 -0.532924 0.0404443 0.244961 0.378428 -0.12288 -0.156443 0.26675 0.0731526 -0.168169 -0.149646 -0.131738 0.0955661 -0.0777569 -0.0618787 -0.100106 0.331262 0.015366 0.0511133 0.0101551 0.162611 0.281555 
-0.397399 0.492201 -0.215506 -0.774661 -0.176372 0.269553 -0.77609 -0.28166 0.62091 -0.141286 0.570274 0.211973 -0.389709 0.2697 -0.208382 -0.241375 -0.0575552 0.511289 -0.0408878 0.0693738 -0.0838225 0.591143 0.379451 0.00723652 0.41395 -0.158337 0.635451 -0.212196 -0.262816 0.279122 0.155881 -0.173157 
0.334454 -0.124969 0.152452 -0.114477 -0.150556 0.456187 -0.513482 -0.358443 0.160239 -0.146618 -0.0247485 0.138632 -0.181265 0.480309 0.034571 0.0073308 -0.334881 0.226292 -0.255982 0.130696 -0.213441 0.0494586 0.196318 -0.250704 0.160334 -0.134519 -0.214506 -0.263224 0.119305 0.32625 0.520868 -0.0977461 
-0.26559 -0.0582031 -0.4633 -0.11555 0.217593 0.642649 -0.622642 -0.114354 -0.13528 0.216143 0.215817 0.118481 0.0388668 -0.399617 -0.275513 0.234519 0.20022 -0.162918 -0.66467 -0.0564248 -0.151198 -0.267012 0.356399 0.0992524 0.117296 -0.412318 -0.141939 -0.254374 -0.106632 -0.0301283 -0.248466 0.142237 
0.5427 0.187978 -0.368897 -0.0448947 0.585312 0.49121 0.0251167 0.530043 0.756212 -0.223938 -0.26357 0.384127 -0.346728 -0.0933504 0.288548 -0.14414 -0.203365 -0.0270308 -0.352957 0.174938 -0.30358 0.431127 0.0556766 -0.0668822 0.51161 0.0890929 0.53936 0.129565 0.290372 0.312507 -0.353201 -0.131817 
0.326509 -0.319375 -0.399367 -0.0121268 0.0491431 -0.472081 0.380463 -0.35095 0.363279 0.109501 -0.152405 -0.0853293 0.193953 0.184034 0.00627858 -0.0239003 -0.335071 -0.351195 0.176673 0.234234 -0.116384 -0.234417 0.277523 0.0852112 0.361398 -0.146368 -0.161361 0.0546101 -0.515322 0.280676 -0.198763 -0.145252 
-0.111416 0.0559045 -0.172166 -0.206305 -0.165519 -0.326823 0.165118 0.0624347 0.184803 0.34976 -0.170976 -0.224511 -0.00455194 -0.133035 -0.075732 0.0907539 0.189882 -0.163775 -0.397149 0.0547757 -0.093968 0.167736 0.403765 -0.30974 -0.571 0.271027 -0.299088 -0.351586 0.155061 0.0580504 -0.194032 0.297402 
-0.125939 -0.0505947 0.0218981 -0.420696 0.668216 0.257054 -0.140914 -0.132491 -0.0495292 0.206966 0.166413 -0.167937 0.082066 0.375174 0.241117 0.368577 -0.394724 0.00828692 -0.0996745 -0.509661 0.756146 0.123583 -0.238672 0.376557 0.0424541 -0.0570777 -0.298806 -0.0994736 0.186048 0.498646 -0.0518513 -0.181862 
0.106673 -0.275496 -0.380605 0.39786 -0.27627 -0.0113335 -0.0676748 -0.315815 0.137764 -0.477079 -0.117612 -0.106484 -0.250934 0.0626731 0.190819 -0.0717032 0.114328 0.395391 0.0216728 0.411081 -0.342486 0.466857 0.0790982 -0.405359 -0.314783 0.269104 -0.276619 -0.219736 -0.572417 0.023201 0.163351 0.280735 
-0.174877 -0.142131 -0.150949 0.0719239 -0.103276 -0.144822 -0.107816 0.29355 0.18889 -0.297706 -0.202586 -0.16962 -0.28851 -0.158367 0.161557 0.0530695 -0.091125 0.442603 -0.111518 -0.258169 0.414814 -0.246085 0.144638 0.107949 0.547945 -0.280817 -0.148591 0.686915 -0.227891 0.260234 0.0404094 -0.251815 
-0.235491 -0.129629 0.286929 0.249863 0.0539815 -0.123003 -0.00931418 -0.131546 -0.411694 -0.123193 -0.11912 0.126873 -0.0413505 0.399885 -0.486294 -0.294724 0.00696676 0.265599 -1 0.367362 0.147972 -0.0822255 -0.569843 0.102915 0.118155 -0.0342515 0.281638 0.536853 -0.691922 0.0916016 -0.178744 0.0151002 
0.0534357 -0.265975 0.331562 0.148583 -0.321285 0.129871 0.247471 0.354903 0.0593137 0.0329505 -0.0518154 -0.165841 -0.165936 -0.228571 -0.24465 0.814885 0.275895 0.175616 -0.497754 0.258501 -0.180775 0.201506 -0.249517 -0.195551 0.319052 0.535963 -0.423052 -0.104664 -0.0404287 0.125254 -0.103959 -0.136365 
0.122611 -0.244003 -0.289918 0.264899 -0.459819 0.369785 -0.290772 -0.116265 0.338095 0.0194561 -0.0767552 0.232874 0.21431 0.0413688 0.10693 -0.298206 0.0897444 0.296534 -0.670542 0.1407 -0.542911 0.132998 -0.385854 0.0956838 0.081452 0.45583 0.449537 -0.02367 -0.26503 0.364034 0.209941 -0.17509 
-0.211135 -0.191126 -0.666995 0.135105 -0.112056 -0.51899 0.227772 -0.00199207 -0.506011 -0.119491 0.108101 -0.532935 -0.316484 0.104141 -0.464476 0.436814 0.511134 -0.10472 -0.136646 0.0316839 -0.186291 -0.149563 -0.0080824 -0.229345 -0.248466 0.126954 -0.0506148 0.0765188 -0.23781 -0.212745 -0.357349 0.199263 
0.125497 0.237433 -0.263929 -0.191835 0.0678754 0.246811 0.0883644 0.242799 0.0175774 0.340884 -0.061817 -0.00178317 0.0595353 -0.370812 -0.33326 0.276093 -0.441643 -0.131494 -0.26953 -0.0531914 -0.396212 -0.711396 0.393915 0.202493 0.491922 -0.575173 0.59522 -0.387979 -0.469342 -0.043409 0.124084 0.00383825 
0.547264 -0.240012 0.177502 -0.19055 -0.117266 -0.100975 -0.0275937 0.526194 -0.231471 0.093046 -0.0890787 0.442664 0.0907907 -0.334096 0.104523 0.342452 -0.0172826 -0.427529 -0.224929 0.495167 0.0325743 0.234402 0.900143 -0.379047 -0.339676 0.0929357 -0.202744 0.47631 0.329913 -0.142364 -0.334425 -0.373014 
-0.387801 0.43324 0.373221 0.594149 0.547467 -0.34211 -0.315956 0.243847 0.137307 0.311975 -0.264561 0.367764 0.0268606 0.135793 0.0149547 -0.131529 -0.00666846 -0.559082 -0.130339 0.46266 -0.00470954 -0.0492803 0.56682 -0.199464 -0.651208 0.36577 -0.566302 -0.0119902 -0.117974 0.258322 0.181323 0.133829 
0.0841716 -0.458478 -0.00285677 0.233408 0.390046 -0.209696 -0.177767 0.563942 0.518353 0.123883 0.296127 0.20761 0.10721 0.13252 0.116852 -0.951997 -0.110996 0.00269496 0.208632 -0.0315491 -0.00932727 0.458208 0.0245723 0.561336 -0.0637249 -0.201979 -0.333376 -0.130735 0.456868 -0.456579 -0.0629795 -0.415432 
0.389889 -0.197604 0.0874195 -0.183212 -0.179881 -0.155643 -0.177538 0.217647 -0.487149 0.140448 -0.192811 -0.0230836 0.0680462 0.215428 -0.011609 0.0376914 0.411544 0.213907 -0.0307877 -0.508101 -0.00803332 -0.347872 0.501944 0.164493 0.22179 0.263511 0.377778 -0.107527 0.755494 0.211537 -0.270135 0.279255 
-0.146245 0.473767 -0.343408 0.298495 0.23347 -0.362404 -0.00433083 -0.117022 -0.0747881 -0.294557 -0.623881 -0.0665653 -0.0370882 -0.167334 -0.380766 0.581471 -0.267291 -0.0488102 0.78604 -0.273213 -0.0613255 -0.214724 -0.346814 0.15413 0.0398739 -0.190959 0.0231711 0.0283478 -0.127373 0.105395 -0.205155 -0.308141 
0.10897 0.0251854 0.0894173 0.132368 -0.126184 -0.422863 -0.0424896 -0.278906 0.205149 0.210226 -0.232959 0.0338044 0.162957 -0.479286 0.205442 0.0692458 0.0179116 0.481503 0.0213041 0.178101 -0.0525347 0.244809 0.507937 -0.0981492 0.156137 0.37553 0.567945 0.15423 0.172561 0.441769 -0.147969 0.165243 
-0.0889428 0.183596 -0.120157 -0.599937 0.078235 -0.0877874 0.195016 -0.117141 -0.200035 0.2173 0.236953 0.0390178 0.326525 0.128276 0.43421 0.102015 0.67843 0.135601 -0.0403351 -0.199767 -0.352947 0.415528 0.700544 0.0526286 -0.0276126 0.182455 0.00583314 -0.0123387 0.099198 -0.125873 -0.433397 -0.0718268 
0.415167 -0.0597174 -0.478956 -0.335648 0.173215 -0.161175 -0.513005 -0.152289 0.0642516 -0.679676 0.292338 -0.139291 -0.684879 0.209325 0.124494 -0.499979 0.209681 -0.175174 -0.0757268 0.367212 -0.250592 0.214012 0.308168 0.0738724 -0.163619 0.567719 0.0826814 -0.3812 -0.417122 -0.729698 -0.551939 -0.248852 
0.209293 -0.0575387 0.117773 0.506146 -0.0816381 0.0972525 -0.107683 0.143242 0.0278139 0.247777 0.266487 -0.19707 -0.289195 -0.214523 0.710101 0.243587 0.712638 -0.452921 -0.0870597 0.450714 -0.521754 0.169977 0.0166229 -0.209292 0.0560313 0.364452 0.170251 -0.102873 0.10816 0.351118 0.00546683 0.310071 
0.2769 -0.22725 -0.145066 -0.318724 -0.302761 0.0846767 -0.391605 -0.15653 0.0867236 0.076708 -0.0813467 0.190056 0.0255034 -0.0694729 0.232041 -0.126075 -0.0204929 -0.25536 -0.000619689 0.127108 -0.284374 0.500826 0.129115 -0.160411 -0.474571 0.0632631 0.000499815 -0.226602 -0.0199542 -0.175585 0.122479 -0.349811 
0.618027 0.0846413 0.55077 0.100851 0.193046 -0.0725664 0.0491171 0.00465056 -0.237485 0.308161 -0.117141 0.14322 0.128065 -0.292709 0.515947 -0.113047 -0.0606205 -0.519838 0.506909 0.496582 0.0959176 -0.203884 0.180204 0.124826 -0.268382 0.284765 -0.613945 -0.0448834 0.323771 -0.571551 -0.107918 0.375828 
0.241933 -0.368803 -0.0127115 -0.230889 -0.119865 0.296073 0.500034 -0.477779 0.10343 -0.123538 0.117124 -0.355313 0.0985618 0.183983 0.0505601 -0.0819821 -0.0428637 0.158436 -0.486008 -0.55767 -0.0195869 -0.181227 0.0798077 -0.114989 0.0333113 0.447392 0.296873 0.567972 0.524957 -0.0585836 -0.0534438 -0.0348571 
-0.412065 -0.370844 -0.457725 -0.0507356 0.333842 -0.228715 0.0724153 0.467739 0.126715 -0.467408 0.217469 -0.402584 -0.389719 -0.0265294 0.168019 0.263324 -0.326568 0.0734487 0.156476 -0.0346829 -0.301971 -0.398679 0.200411 0.325055 -0.248767 0.245743 0.198796 0.00671139 -0.147665 0.0359735 0.178759 0.260879 
-0.690081 -0.0781026 0.201609 -0.131091 0.162139 -0.230543 0.146923 -0.0882378 -0.080723 -0.240868 0.151846 0.222032 0.185386 0.0450823 -0.15701 -0.0894697 -0.518909 0.188816 -0.070547 -0.300204 -0.066339 -0.348909 -0.246713 -0.158322 -0.282444 0.0176974 -0.260758 0.162442 0.222038 0.245902 -0.440982 -0.392573 
-0.380294 -0.157032 -0.295974 -0.240001 -0.232987 0.007113 0.218049 0.023806 0.266482 -0.165197 -0.482554 0.403566 0.215801 -0.241846 0.158994 0.242732 0.0655487 0.252602 -0.00911899 -0.11252 0.222903 -0.000970171 0.181128 -0.0952234 -0.34645 0.393432 -0.371065 0.0551331 -0.197195 0.363117 0.121139 -0.316576 
0.00609236 0.170914 0.103398 0.0920835 -0.155047 -0.0520951 0.511703 -0.692098 -0.520961 0.218663 -0.476701 -0.253915 0.498539 -0.198881 0.11224 0.316513 -0.573234 0.409383 -0.0305877 0.168747 -0.182445 0.18179 -0.0262511 -0.517992 0.00583853 0.0716681 0.0255558 0.502901 0.215651 -0.177167 -0.370182 -0.14633 
0.846633 -0.27832 -0.285559 0.126096 0.450073 0.0405735 -0.028463 -0.0393537 -0.195417 -0.145944 -0.142353 0.500137 0.231452 -0.0681865 0.00357782 0.0320584 -0.134546 -0.418271 0.131384 -0.096206 -0.126209 0.108551 0.199943 -0.00628842 -0.503581 -0.398001 -0.0839012 -0.741934 -0.362581 0.110828 0.179458 0.200882 
-0.483453 -0.392002 0.197117 0.0579481 0.0452422 -0.0706938 -0.279909 0.088818 -0.567817 0.220283 -0.210889 -0.22358 0.179621 0.321153 -0.224426 0.198846 0.453929 -0.00808645 0.260191 -0.0430873 0.424628 -0.0466151 0.252747 0.254792 -0.0258209 0.568257 -0.840585 0.157568 -0.172036 -0.0781803 0.346665 0.120324 
0.188408 -0.319369 -0.248883 -0.0859119 0.0677627 -0.140435 -0.208022 -0.0674108 -0.127069 -0.0598324 -0.312084 0.223287 0.53872 -0.509974 -0.475789 0.347154 -0.390536 -0.143435 -0.160933 0.0895789 -0.102922 0.503159 -0.0581867 0.223234 0.706874 0.391938 0.528116 0.0827907 -0.500142 0.67224 0.275034 -0.299596 
0.251208 -0.295468 0.17749 0.292805 -0.140961 0.0480395 -0.420246 -0.70977 -0.334442 -0.460294 0.0682037 0.334574 0.252588 -0.665629 -0.0458024 -0.15736 -0.109691 0.229777 0.393347 -0.145362 -0.647241 -0.340012 -0.336371 -0.296879 -0.0739018 -0.152244 0.381547 0.112639 0.0411524 0.336671 0.187245 0.0775677 
-0.399512 -0.0232195 0.140419 0.205209 0.238629 0.181695 -0.323634 0.0500909 -0.452519 0.151252 -0.15204 0.10371 -0.329746 0.219972 0.466686 -0.0896506 0.208494 -0.2849 -0.0780377 -0.0251811 0.213252 0.254798 0.0298184 -0.430234 -0.294245 0.0457754 -0.115297 0.223756 0.179051 -0.339234 0.24734 -0.17142 
-0.162161 0.412795 -0.238484 0.0900739 0.39594 -0.0251487 -0.0107125 0.152722 0.527149 0.183795 -0.0502223 -0.29145 0.169916 -0.0558011 0.130068 -0.253575 -0.282437 0.339438 0.24092 0.550122 -0.0284477 0.340593 -0.0560352 0.290264 0.00595922 -0.183587 -0.205079 0.229439 -0.204004 -0.342713 0.609013 0.837152 
-0.197428 0.159419 0.348393 0.129717 0.107869 0.191537 0.0586044 0.526877 0.315629 -0.00642906 0.0336775 0.559847 0.164661 -0.0517505 0.0921037 0.0846414 0.510502 0.227222 0.538814 0.185595 -0.104286 -0.00512604 -0.115529 -0.107932 -0.455324 -0.164661 0.205712 -0.0024741 0.381081 0.0926507 -0.288164 0.0308967 
0.516116 -0.0198825 0.616867 0.374887 -0.136729 -0.38625 0.0996892 0.134036 0.117358 0.661237 -0.209986 0.433209 0.328436 0.0437706 -0.357394 0.0864308 0.434094 0.230394 0.193097 -0.268892 -0.220324 0.257378 0.269182 -0.475107 0.0714365 -0.169676 0.207683 0.110633 0.173342 -0.0210015 -0.271619 -0.201973 
0.0977506 -0.0703244 -0.410964 0.51184 0.0486997 -0.0871422 -0.16234 0.0267092 0.172205 -0.614626 0.0586433 0.11589 0.0695808 -0.0193823 0.445195 0.401833 -0.17114 -0.187108 0.114969 -0.15053 -0.22494 -0.235096 -0.392275 0.190564 0.202018 -0.779762 0.32128 0.182323 0.0770278 0.312849 -0.47431 -0.279538 
-0.370242 -0.0090705 -0.00397541 0.173714 0.114137 -0.20082 -0.142617 -0.0670226 0.25551 0.025608 0.260322 -0.419623 -0.277602 0.565641 0.102222 -0.0731506 -0.170896 0.398774 0.202012 -0.305236 0.299061 0.280876 0.397011 0.431 -0.191075 -0.589696 -0.42265 -0.513964 -0.217376 0.332476 -0.0225686 0.240319 
-0.0402158 0.108094 0.26924 -0.150816 -0.603893 -0.383914 -0.0551343 -0.990549 -0.0962017 0.136803 -0.351823 -0.139095 0.222956 -0.311928 0.0367397 0.437397 0.151026 -0.223855 0.333859 0.135104 -0.23845 0.177966 -0.00903492 -0.464025 0.178785 0.0155808 -0.246877 0.00552599 0.0730782 -0.057633 0.127821 0.175533 
-0.25684 -0.138575 0.17522 -0.153479 -0.133243 0.164326 0.189808 0.153277 -0.443049 0.255745 0.0463536 -0.0667357 -0.232158 0.716779 0.170962 0.381079 -0.13597 0.0347092 0.419595 0.16167 -0.144142 -0.0928541 -0.113633 -0.778161 0.0907832 0.335917 -0.265294 -0.214458 0.113382 0.371366 -0.00815765 0.355324 
#
-0.0649143 
0.195822 
0.118578 
0.0206339 
-0.05786 
-0.126565 
-0.208572 
-0.217729 
0.433846 
-0.192488 
0.26157 
-0.392391 
-0.289119 
-0.0553502 
-0.194419 
0.104649 
0.286268 
-0.0616387 
-0.0348723 
0.185626 
0.203879 
-0.0383236 
-0.0599809 
-0.268427 
0.169172 
-0.205823 
-0.152973 
0.0505569 
0.115059 
0.152123 
0.38474 
0.307401 
#
