0.408473 -0.111881 -0.218473 -1.26427 0.796389 -0.105415 -0.392497 -0.583884 1.09414 -0.200701 1.14658 -0.922692 0.206149 -0.0225753 -0.171247 0.291764 -0.41425 1.00744 1.02234 0.816921 0.00726365 0.370379 -0.467487 -0.790505 -0.0381083 0.716087 -0.109007 0.194622 -1.13926 0.367872 -0.00269146 -0.937533 
0.221156 0.335857 1.63944 0.178016 -0.733411 -0.895364 -0.551612 0.971975 -0.991368 0.23329 -0.179762 0.12738 1.10909 0.135254 -0.216401 0.872638 -0.827082 -0.648028 -0.280026 -0.390488 0.100479 -1.18424 -0.841811 -0.337989 1.36334 -0.0237332 0.456401 -1.0729 1.15521 -0.199883 -0.378465 -0.0945326 
0.157029 0.0898854 -0.201757 -0.0227353 0.481624 0.384559 0.11937 0.425992 -0.717776 -0.185114 0.924111 -0.879699 0.774065 0.87647 -0.027933 -0.468977 -0.362529 -0.0406521 0.600449 0.75507 0.874862 0.0942313 1.30424 -1.40611 0.342886 -1.01696 0.429724 -0.50651 0.720964 1.03254 0.803859 1.58392 
0.0350798 -0.369243 -0.00459253 -0.0383062 -0.33181 0.726066 -1.26056 -0.184052 -0.157576 0.26741 -1.96868 -0.196471 0.791176 -0.657962 -0.860601 -0.213694 0.183138 0.737154 -0.881887 0.19692 0.420276 0.516141 -0.463821 0.27152 0.456766 0.0930411 0.75342 -0.0599187 -2.2423 -0.0483031 0.181016 1.11139 
0.28927 0.383319 0.596941 -0.289928 -1.46544 0.181953 0.578383 -0.488097 -0.203291 -0.411788 -0.178855 -1.05087 0.360314 0.520127 1.22672 0.288986 0.478138 -0.299104 -0.105932 1.12514 0.107855 0.13887 -0.50019 1.64334 -0.273059 -0.410356 0.788832 0.0565168 0.954659 1.09197 -0.254477 0.31621 
-0.539486 0.520051 -0.312707 0.0136542 -1.03576 -0.561659 0.261662 -0.883412 -0.551125 0.173376 0.595441 -0.874523 -0.740578 0.0647852 -1.11862 -0.48479 -0.283162 -0.312005 -0.0622845 0.827912 -1.44537 -0.39403 -0.315586 0.22777 -0.96555 0.363965 0.295143 0.65854 -0.381038 1.27642 1.13526 0.290695 
1.25244 0.18953 1.18491 -0.132456 -0.675104 0.469671 0.0697763 0.0394739 0.394948 -0.637219 0.410046 -0.264106 -0.506379 -0.499247 0.101311 0.170763 -0.371595 0.287855 0.874335 0.163673 0.677413 -0.360769 -0.167356 -0.979768 -1.09761 -0.000178517 0.630539 0.364444 -0.111931 0.234013 0.896595 0.146426 
-0.191507 0.489901 -1.00274 0.560627 -0.863459 0.0639923 0.0180648 -0.00479795 0.622119 0.237529 0.42886 -0.610942 0.681824 -1.42543 0.247441 0.134855 0.221023 0.0852132 0.286208 1.02389 -0.962635 1.00023 -0.243244 -0.0646991 -0.620033 -0.497625 -0.211571 -1.26582 0.497885 0.310408 -1.10274 -0.995756 
-0.264565 0.0690029 0.0952016 0.717851 0.638221 0.024328 0.581976 -0.738445 0.693804 -1.05195 0.1437 -0.492631 -0.0555121 -0.946719 -0.560447 0.0393748 0.390193 0.604718 1.25966 0.0500393 0.813617 0.718231 -1.10827 1.04965 0.452212 0.619726 -0.418809 0.579002 0.212764 0.71508 0.459236 -0.065773 
-0.0550264 -0.126731 0.651583 0.747666 -1.76823 0.658136 -0.72726 0.577022 -0.867018 0.448244 0.394829 -1.25403 0.0062957 0.500414 -1.40235 -0.121085 0.761645 0.0195649 0.781164 -0.729889 0.509447 -0.497258 -0.175866 -0.752901 0.713566 0.904329 -0.857415 -0.221363 -0.624447 -1.23953 0.549397 0.180661 
-1.27594 0.45108 0.0415102 -0.275721 -0.158892 -0.632518 -0.654573 0.00928818 0.303911 -0.0826067 0.414623 -0.159673 0.122509 1.60384 -0.597834 -0.251974 0.376426 -0.918926 0.0829319 0.14095 0.328361 -0.144914 -0.207826 -0.663227 -0.281873 0.0805418 0.783745 -0.0677104 -1.20286 -0.0240938 -0.285458 -0.00223791 
0.071005 0.889139 0.24912 0.173908 -1.84884 0.488146 0.308878 -0.212912 -0.820079 1.5115 0.487879 -1.06622 -0.302126 0.370234 -0.0381627 -0.241083 -0.311624 -0.554575 0.773654 0.455407 -0.828637 -0.764351 -0.208275 0.0874289 0.46897 0.565748 0.169393 0.253534 -0.159513 -0.617306 -0.306849 0.483741 
0.457683 -1.04391 0.491477 -0.471458 -0.240181 0.883686 1.93352 0.549192 -1.35487 -0.087976 -0.588551 0.229138 0.767098 -0.74004 -0.393952 0.473715 -0.160939 0.602697 0.123705 0.617519 -1.00435 -0.264476 -1.14839 1.0476 -0.231271 -0.303762 0.144745 0.319057 0.11918 0.642624 -0.625266 -0.910076 
0.22189 -0.0324489 0.379374 0.482158 0.0784449 0.570214 -1.03128 0.511484 0.23531 -1.05737 -1.78461 0.759369 -0.16952 -0.0209475 -0.0571256 1.04492 -0.200706 -0.21694 0.752954 0.797322 0.253042 0.812758 0.297998 0.136756 0.807077 0.311767 -0.623446 0.847516 1.13744 0.0626917 -0.106089 0.404062 
-1.03092 0.67115 -0.42013 0.0626605 0.547161 -0.70625 -1.12756 0.790186 0.305601 0.275698 0.811336 -0.32282 0.279908 0.2487 0.578847 -0.684677 -0.205387 -1.74249 0.628246 -1.18378 -0.746031 -1.15658 -0.0856584 -0.322093 -0.0696745 -0.274701 1.22868 0.326563 -0.94713 0.402513 -0.555196 0.494759 
-0.15215 -0.36872 -0.133641 0.449972 1.27358 0.357504 -0.984164 -0.871893 -0.434599 0.536498 0.211108 0.311432 0.350268 -0.799194 -0.136697 0.249137 -0.701047 -1.16533 0.65042 0.0733555 0.28234 1.01198 0.1344 -0.597792 -0.963189 -0.589935 0.757694 -1.56841 -0.110006 0.849491 0.476752 -0.296715 
1.38611 0.386013 -0.328189 -0.383003 -0.330263 -0.741045 -0.243119 0.090791 0.512875 -0.0555297 0.15941 0.168903 -0.365711 0.142539 -0.280922 -0.0092423 0.298694 0.262732 0.672525 0.837569 0.654399 0.0581686 0.557293 0.294497 -0.370061 -0.434443 0.449521 -0.325957 -1.17671 0.765571 0.198807 0.294881 
0.343013 -0.497716 0.674192 -0.393869 -0.0764246 -0.0712289 0.443515 0.696873 -0.587088 -0.128761 1.18401 0.254878 0.408595 0.216495 -0.61936 0.421251 0.749902 -0.532681 0.840919 0.309944 -0.61645 -0.415971 -0.973766 -0.1411 0.618795 -0.247038 0.905288 -0.326149 0.26166 -0.393356 -0.419387 0.488408 
0.746793 0.0679737 1.2516 -0.163983 0.529044 -0.294821 -0.661644 0.674789 0.748263 1.49138 0.0562577 0.339215 -0.206977 -0.0808414 0.716343 0.142459 -0.207778 -1.30426 -0.755574 0.0927124 -1.16152 -1.43877 1.43588 -0.0317288 -0.612452 0.403953 -0.758538 -0.389094 0.494669 0.662239 0.644039 0.535974 
0.798416 -0.719087 -1.11356 1.2528 0.533031 1.09602 -0.33735 -0.788128 -0.0472759 0.0275696 -1.23214 -0.324752 0.534321 0.556591 0.162417 0.172426 0.229063 0.560953 0.368489 0.22988 0.0440574 -0.836442 0.00806444 0.165459 0.607209 0.515161 -0.432586 -0.155714 0.355226 -0.0668095 0.763228 -0.113325 
0.272689 1.04097 -0.719721 -0.281663 -0.648353 -0.407123 0.0841377 -0.916585 -1.47876 0.384644 0.283391 0.394068 -1.50708 -0.475768 0.963774 -0.180134 -1.29613 -0.175097 -0.270036 0.0981559 -0.0123359 -1.67679 0.0287018 -0.717873 0.126083 0.395545 0.27243 -0.580227 -0.117565 0.564714 0.155217 -0.050135 
-0.769785 -0.47417 -0.649833 0.357764 -1.49654 -0.47975 -0.245883 0.544643 0.116379 0.760539 -0.354888 -0.700657 0.583698 0.499637 -0.918032 -0.111379 0.84794 0.543713 0.425842 -0.0139369 0.0613716 -0.0422656 -0.213795 -0.469045 1.10414 0.500053 1.01342 -0.231327 1.65943 -0.211339 -0.143346 0.137967 
-0.1938 -0.40549 0.0209778 -0.556674 0.0255046 0.925556 -0.0764491 0.0735995 0.578812 -1.51707 0.00740507 -0.0955517 -1.76912 -0.0854164 0.510587 -0.136754 -0.446364 0.382173 -0.0053513 -0.191517 0.852816 0.425806 1.44294 0.0233467 -0.453747 -0.971021 0.880673 0.524223 -0.314235 0.504547 -0.489977 -0.0117475 
0.817003 0.667106 0.557943 -0.130374 -0.682761 0.398081 -0.471417 -0.631756 0.520404 0.738678 -0.125577 -1.1143 -0.239544 0.958773 -0.192001 0.303897 -0.0584029 0.52155 -0.0318038 0.577579 -0.888325 -0.0986207 0.801721 -0.00112876 0.469601 0.803201 -0.197198 -1.41552 -0.250116 -0.786207 0.45327 -0.126731 
-0.530466 -0.230013 -0.456463 0.400371 0.0179658 0.652315 -1.9134 -0.404561 -0.810759 0.0584526 0.499726 0.858907 -0.673835 0.430437 0.863681 0.57383 0.140967 0.23858 -0.0917321 -0.0272601 -0.790865 0.547304 0.250929 -0.421302 0.336834 0.742803 -0.95211 -0.0512819 -0.236035 0.361709 -0.258658 0.0256583 
0.845436 0.108521 -0.594186 -0.504084 0.141077 0.242313 0.635593 0.277574 1.71713 0.570222 -0.764326 0.207373 0.190103 0.512545 -0.385071 -0.149981 -1.07342 0.0110402 0.0602688 -0.584547 -0.395633 -0.160245 -0.698595 0.0959851 0.195549 0.8933 0.144221 1.13145 0.599412 0.472785 -0.408654 0.59863 
0.139134 -0.0578314 -0.360929 0.804985 0.760948 0.51023 0.918519 -0.595936 -0.567001 0.841233 -0.813288 -0.29638 -0.323151 0.292041 -0.279538 0.868643 -1.17074 0.527824 -0.449738 0.780935 0.218714 -0.340665 0.673608 0.939974 1.41708 -0.0337455 0.535231 -0.873192 -1.27336 0.724206 -0.594741 -1.23677 
-0.38933 0.267581 -0.637849 -0.34925 -0.674583 -0.201803 0.624033 -0.0390139 0.757811 -0.0963691 -0.226599 0.53814 -0.0408863 -0.366538 -0.12451 0.527846 0.133125 0.54356 0.309501 0.293311 -0.476913 1.00169 0.50203 -0.389219 -0.953007 0.380502 -0.504819 -0.757702 -0.818358 -0.129884 -0.302382 -0.274255 
-0.0394334 -0.514892 0.520001 -0.209103 0.66145 0.26801 0.383625 0.709148 -0.0514487 0.36818 -0.182154 0.46618 -0.221613 0.666357 1.59359 0.498779 -0.920658 0.652345 -1.04553 -0.169914 0.983253 0.862008 -0.694021 0.444021 0.360824 0.617758 -0.0961531 0.631459 0.340007 0.922537 -0.289227 -0.868028 
0.0524062 -1.62023 -0.387377 0.936002 -0.721683 -0.52432 0.107133 -1.56014 1.04986 -1.25209 -0.883651 -0.670228 -0.455693 -0.777793 1.06604 -0.454217 0.163845 0.492579 -0.29648 -0.339707 0.511735 0.386731 -1.27992 -0.0974242 -0.737084 0.30158 -0.585329 -0.432099 0.0805653 -0.182317 -0.21768 -0.135721 
-0.720382 1.01699 -0.117037 0.0761941 -0.703814 -0.767337 -0.531417 0.131932 -0.395437 -0.863431 -0.978685 -0.688787 -0.0835303 -0.424666 -0.337952 0.99112 -0.240265 0.566903 -0.209561 -0.735895 0.201424 -0.270791 0.164789 -0.497693 1.6363 -0.232696 -1.10148 0.7269 -0.458869 -0.292381 -0.473932 -0.479776 
-0.403005 -0.595434 -0.0676511 -0.13529 -0.746845 0.553613 0.365137 -0.531967 0.425725 0.626533 -0.49989 0.108423 0.0267457 0.505656 -0.645051 -0.0366715 -0.192918 -0.146785 -0.862856 1.01506 -0.0161354 -0.017956 -0.0410855 0.0146319 0.0166094 -0.471487 0.475504 0.564744 -0.0865557 0.850757 -0.345184 0.7698 
0.447364 -0.00533643 -0.82489 0.0785902 -0.453262 -0.402806 0.824846 0.281236 0.88351 -0.817901 0.957836 0.0926205 -0.301554 -0.606584 0.294661 0.281642 0.461667 0.611392 -0.763481 -0.00931619 -0.849946 0.000202999 0.943525 0.547571 -0.100983 1.1654 -0.85876 -0.208688 -0.281831 -0.449367 0.644088 -1.0326 
-0.4562 0.206434 -0.946476 -0.401156 -0.29217 0.440363 -1.34877 -0.197548 0.336132 -0.591688 -1.0374 0.707231 0.583536 -0.678745 0.189385 0.186283 -1.12939 0.174699 -0.900395 0.305405 0.144988 -0.960014 -0.998262 0.623287 0.506204 1.43416 1.3602 0.00312321 -0.658644 0.289755 0.694991 0.0718267 
0.479388 0.550042 -0.674224 0.900376 -0.0125964 0.437933 0.619407 -0.94782 0.0528173 0.244597 0.3184 -1.46351 -1.96355 0.265745 -0.291972 0.24581 0.160826 0.131786 -0.264723 0.440476 -0.502307 0.219701 0.129057 0.137212 -0.442651 -0.108676 0.346063 0.197901 0.501847 -0.766917 -0.393561 -0.168386 
-0.845383 1.26729 -0.297387 -0.689947 0.372532 0.270562 -0.281149 0.283973 -0.111696 1.08941 -0.781365 0.143669 0.694004 -1.88472 -1.10808 -0.369081 -0.160089 -1.00554 -0.230975 -0.710374 -0.154409 -2.11217 -0.25677 0.130032 0.355336 -0.254737 1.05667 -1.06174 -1.70709 0.752085 -0.13966 -0.342943 
0.315512 -0.639196 0.746602 -0.681749 -0.390792 -0.0527252 -0.574283 -0.707897 -1.54224 -0.429032 0.369398 1.09377 0.0506416 -0.405308 -0.473153 -0.114019 -0.540524 0.332531 -0.592495 1.5473 0.501552 1.00614 0.402452 -0.690935 -0.216477 -0.195087 -0.523961 -0.0634509 1.48536 -0.400301 -1.135 0.133399 
0.468431 0.994536 0.192416 1.6046 0.271689 -0.545068 -0.719764 -0.422499 0.288578 0.967853 0.102725 0.533036 0.647396 -0.0127815 0.787484 -0.0457615 0.237666 -0.137942 -1.08954 1.40224 0.078995 0.494488 0.0938703 -0.690811 -0.237273 0.392463 -0.818317 -0.0962494 -0.198048 -0.349888 0.767792 0.0933828 
0.17904 0.31066 0.0544622 -0.90322 -0.00209391 0.26584 0.364387 0.606551 0.0694034 -0.745517 0.415047 0.0828557 0.454945 -0.336339 -1.14425 -0.672596 -0.534235 -0.0658203 1.05674 -1.24966 -0.120302 0.482578 0.823864 0.594931 0.798855 -0.585931 0.0366659 0.3057 -0.418848 -0.118281 -0.708064 -0.966015 
0.219714 -0.196776 -0.429779 -0.428914 0.000576565 -0.424762 -0.940343 -0.35856 -0.674132 -0.270745 -0.316721 0.239054 0.321659 0.908889 0.433033 -0.409502 0.527321 0.227014 -0.208685 0.272513 0.821757 0.0149477 0.989861 0.294231 0.476342 1.25718 0.0262551 1.01339 1.6225 1.09781 -1.39151 1.01112 
0.0238767 0.954607 -0.0301402 1.11885 0.24733 0.341538 -0.401475 -0.280972 -0.308393 -0.334198 -0.309106 0.477941 0.743785 -0.572999 -0.5345 0.586142 -0.179128 0.219613 1.1472 0.556511 -1.10974 0.0778016 -0.029902 0.0287937 0.339643 0.403209 -0.229049 1.15863 0.270263 0.112359 -0.164517 -0.617453 
0.476163 0.855235 0.370804 -0.0411309 -0.622461 -0.327836 -0.699123 0.146885 0.183175 -0.136369 0.267846 0.0676655 0.242559 -1.07377 0.944706 0.495239 0.372541 0.0623799 -0.486925 0.653389 0.494619 0.500432 0.478485 0.141641 0.656739 0.337543 0.987744 0.110227 -0.207027 0.479551 -0.220744 -0.153017 
0.262553 0.166875 -0.245644 0.0706568 0.34277 -0.204898 0.88283 -0.428649 -0.850014 -0.771544 -0.00374683 -0.120179 1.20287 -0.321548 1.14391 0.285543 -0.594408 -1.16289 -0.104637 0.770493 -0.467325 0.737055 1.21697 0.255078 0.0189703 -0.873326 -1.18972 0.240405 -0.00332047 0.159864 -0.290431 -0.627067 
0.736832 -0.448133 0.0856611 -1.31956 0.493985 -1.23993 -0.310594 -0.234457 -0.196858 -0.224504 0.154452 0.534926 -0.312028 0.610795 0.0553371 0.633645 0.104579 0.50677 -0.654629 -0.217623 0.574975 -0.555821 0.155485 0.309241 0.529419 0.684703 0.446061 -0.422012 -0.746844 -0.806205 -0.832884 -0.241264 
-0.398173 0.30765 0.27591 -0.359191 -0.69114 -0.275115 -0.997961 0.693172 -0.294518 0.885847 0.82389 0.151012 -0.012748 -0.708926 0.908255 0.463627 0.0757588 0.227627 -0.502184 0.0402209 -0.263473 1.20698 -0.561681 -1.05035 -0.131277 0.113484 -0.824706 -0.218912 -0.54827 -0.778255 -0.0733551 0.39371 
0.399043 0.573124 0.0859348 0.150338 -0.141357 0.52514 -0.37569 0.264103 -1.05972 -0.113885 -0.471434 -0.213772 0.493251 0.271905 0.588072 -0.366511 -0.572963 0.00958682 -0.490969 0.820312 -0.366479 0.0193217 1.40032 0.840573 0.125206 0.0757806 0.542004 -1.09339 0.372128 -1.16467 -0.589401 -0.0186343 
0.83419 0.0270933 0.300969 0.10848 1.10568 0.26462 0.775176 -0.463086 -0.4228 0.466742 0.467037 0.802762 -0.118252 -0.996016 0.457744 -0.06989 0.473347 -0.772145 0.122306 0.49333 0.286226 0.810934 0.762772 -0.372618 -0.541074 0.168218 -1.91899 -0.330411 1.60665 -0.23626 0.367211 -0.418887 
0.265351 -0.0636749 0.503709 -0.507881 0.390151 0.94284 0.392001 0.18399 0.0879034 0.299049 -0.0246147 0.1189 0.480728 0.993031 -0.265685 0.712163 0.0290773 0.767362 -0.296331 -0.426597 -0.363714 -0.859553 0.977317 0.657928 0.0443199 0.955834 0.780398 1.63337 1.03922 0.144281 0.815401 -0.0560949 
-1.20262 -0.308582 -0.637418 0.519592 0.141982 -0.226434 0.430233 -0.775948 -0.973194 -0.206014 0.322177 -0.984082 -0.442515 -0.574699 0.0647085 -0.525163 -0.677735 0.114558 0.527245 0.178489 -0.375594 -1.25681 0.30063 -0.687598 -0.0124753 0.666934 0.138307 -0.779563 -0.895111 -1.38616 -0.111825 -0.197027 
-0.318214 -0.223277 0.372708 -0.612968 0.59757 -0.983027 0.491597 -0.725361 -0.00815469 -0.486867 0.292054 -0.0326141 0.31109 -0.680204 -0.0920908 -1.52397 -1.31369 0.219708 0.516153 0.00861581 0.0902503 0.0907539 -0.263704 -0.266774 -0.516039 0.223555 0.594312 0.247278 0.345802 -0.992225 -1.57253 -0.171498 
0.225925 0.98477 0.472135 -0.374577 -1.6955 0.143596 0.286667 0.146913 1.66551 -0.798939 -0.0308007 0.320634 0.563615 -0.0187822 0.89179 0.090971 0.393533 1.13165 -0.189396 0.0787983 -0.564076 0.587117 -0.473267 -0.758141 0.014107 0.25375 -0.0631698 0.857765 -0.661397 0.193395 -0.295297 -0.590166 
-0.154435 0.0442395 -0.43395 0.637625 0.755273 -0.3475 1.06921 -1.04943 0.14285 -0.755918 -0.658369 0.871333 0.446188 -0.646391 0.292906 0.797168 -1.83914 0.153324 -0.80137 0.762145 0.265643 -0.013431 0.847175 -0.548888 0.134727 -0.358067 -0.0294804 0.593333 0.316966 -0.864689 -0.340438 0.312101 
0.538149 -0.588901 -0.33681 -0.00440266 0.0821219 -0.850178 0.84789 -0.408616 -1.25824 0.364749 -0.910131 0.25329 -0.845428 -0.551211 -0.220966 -0.257425 1.36895 -0.82493 0.0979586 0.300135 0.159831 0.333725 0.054413 -0.181123 -1.53286 -0.0247742 0.118805 -0.875707 -0.718652 0.168108 0.103717 -0.1889 
0.783886 -1.74054 0.932682 -0.127145 -0.869803 -0.627688 0.039528 1.09033 -0.0696396 0.305762 -1.10209 -1.25614 0.377201 0.0781512 -1.55984 0.00275705 -0.196144 -0.269943 -0.013679 -0.356206 -0.264608 -1.5057 -0.305034 -1.13147 -0.607008 1.45499 -1.44607 0.24487 0.104025 -0.471424 -0.140432 0.249845 
0.697216 0.403176 1.48676 0.288768 -0.0995399 -0.733955 -0.592652 -0.0631954 -0.314146 0.128847 -0.223519 0.817807 0.683869 -1.2137 -0.109523 -0.619161 0.449953 0.420757 0.441386 -0.589398 -1.54683 0.825214 -1.63718 -1.07132 0.944425 -0.356598 0.418474 -0.310635 0.168161 0.646324 -0.113824 0.590423 
-0.368212 0.33708 0.110208 -0.561304 0.760677 0.159285 -1.4783 -0.359745 -0.967355 -0.0311328 -0.309997 -0.620545 0.305262 -1.20287 0.817696 -0.376753 0.208086 1.096 0.668386 -0.50338 -0.899657 1.27641 -0.345093 -0.0759061 -0.331236 0.318426 -0.53498 0.419363 -0.754348 0.6228 -0.400083 -0.0943657 
0.355201 0.580869 0.287209 1.34153 -1.05344 -0.00569592 -2.03641 0.442925 -1.3824 0.435592 -0.199408 0.683311 -0.27833 0.823497 1.07702 0.39889 0.882288 -0.677272 -0.346814 1.07885 0.113017 -0.24294 0.225663 -1.04825 -1.20839 0.136286 0.158559 0.170203 0.553772 0.0299927 -0.0762923 -0.343923 
-0.0166155 -0.176738 -0.815323 -0.974153 0.642943 -0.473797 -1.30875 0.00114406 0.572845 -0.644698 0.0573812 -0.301089 0.491484 0.0220041 0.423087 0.467877 -1.01096 0.815362 0.429738 0.159959 0.129986 0.111538 0.443456 0.792343 1.31171 0.643766 -0.443089 0.713426 -0.81609 0.0454067 -0.319517 1.19539 
-0.268519 -0.106731 0.0118418 -0.682071 0.296366 -0.635121 1.28678 0.980649 1.00993 0.037674 -0.262676 -0.0108694 -0.268751 0.352315 0.387052 0.223148 1.0513 0.254603 0.321132 -0.187809 -0.482829 0.6201 -0.388765 -0.970257 -1.15684 0.708392 0.202641 -0.369612 0.82698 -0.497678 -0.15191 0.947923 
0.663591 -0.990067 0.486193 0.298438 -1.01723 0.87717 1.41955 0.354228 0.726425 1.44383 -1.13728 0.522609 0.62256 -0.47266 -0.18442 1.30872 0.416361 1.19762 0.373343 -0.437429 0.112231 0.601739 0.250372 -1.22517 0.368781 -0.217749 1.13067 0.0966719 -0.187813 -0.35006 -0.0998656 0.388136 
0.0530192 0.149394 0.633791 0.555396 0.762173 0.142144 0.39856 -0.857077 0.847118 -1.19027 0.773758 0.744705 0.150586 -0.621851 0.387742 1.47267 0.193739 -0.889923 -0.909315 -0.353974 0.780679 -0.817485 -0.157274 0.215831 -0.952608 -0.348014 1.08443 0.0386966 0.668033 -0.214024 -0.980074 0.502947 
-0.870659 -0.478184 -0.0371387 -0.222004 -0.960133 -0.584395 -0.157781 1.09325 -0.620115 0.130291 1.02478 -1.07197 -0.5545 -0.412628 0.264245 0.299609 0.17261 0.908264 0.0211055 -1.00987 -0.0601169 -0.124006 -0.160468 1.30977 1.19038 -0.873271 0.700178 -1.03946 -0.236258 0.349404 1.0043 -0.765077 
0.172112 0.837931 -0.439241 0.11206 -1.19487 0.414603 -0.707339 -0.616231 -0.205795 0.11234 -0.313036 -0.0844148 -0.221146 -0.567137 0.153431 0.369436 0.685018 -0.0961328 0.471991 0.112415 -0.0540257 0.675288 -1.59165 -1.1798 -0.042018 -0.931149 0.923038 -0.835821 0.581136 -0.280145 0.48085 -0.497319 
-0.56933 -0.569959 -0.756594 0.280605 -0.348552 0.295344 0.259045 0.213622 -0.240476 -0.152306 0.211094 0.0696317 0.0652969 0.0613432 0.745942 0.525333 0.512369 0.529185 0.0199235 1.18224 0.0565394 -0.6224 -0.320768 -1.3899 -0.543387 -0.0673816 -0.570918 0.10156 -0.488776 0.740054 0.361475 -0.0733129 
#
0.446436 
0.291856 
0.407393 
-0.549973 
-0.375206 
-0.578287 
-0.166034 
-0.570552 
1.17927 
-0.63806 
-0.405572 
-0.510218 
0.363494 
0.126748 
0.15274 
-0.148588 
0.291569 
-0.0176849 
0.242675 
0.953945 
-0.776514 
-0.747622 
-0.0092922 
-1.28207 
0.988981 
0.413333 
0.204381 
0.0623819 
0.043954 
0.200115 
1.20102 
-0.77388 
#
