-0.567774 -0.23554 1.01793 -0.138272 -0.967769 0.438117 -0.657003 -0.0622103 -0.0388083 -1.06042 1.52054 1.21298 0.793843 -0.65894 1.27636 0.165801 1.52979 1.13051 0.867392 -0.39298 -0.550957 -0.21889 -0.0723884 -0.362129 0.78973 0.265431 -0.644346 -0.674685 0.830505 0.576315 -0.0103825 -0.796522 0.622175 1.13471 0.647884 1.65674 -0.528983 -0.475482 -1.12565 0.0942167 -1.57346 -0.892363 0.0411722 1.76672 0.594475 -1.58871 -0.161933 1.26967 -0.716123 -0.762096 -0.435319 -0.0705172 -0.14258 0.557625 -0.339774 0.379778 0.710084 -0.892073 -0.346962 -0.200682 0.675995 -1.00306 -0.527125 -1.51207 -0.196051 0.00376547 -0.990734 0.700906 -0.653275 -0.1577 0.999247 -0.908273 -0.350199 -0.973213 -0.673549 0.592524 -0.328771 -0.971837 1.04387 1.23179 -1.04722 0.98429 0.197507 -0.935144 -0.113614 -0.0439212 1.23365 -0.332293 -0.340315 -0.036872 -0.129942 1.1646 -0.958397 0.592719 0.916451 -0.201009 -0.0581472 -1.71766 -0.121013 0.9951 
0.153699 0.154792 -1.49904 0.382435 -0.469202 -0.805601 -0.278947 1.51077 0.223696 -1.76984 -1.01321 -0.0479668 -0.739514 1.39622 0.10374 -1.01109 0.262792 -0.815142 -0.534338 -0.58236 -0.677771 0.888302 -1.2622 0.535643 -0.781892 1.46067 -0.544175 -0.389366 -0.693146 -0.316629 -0.792023 -0.546321 -0.215266 0.00636606 0.078894 0.156418 -1.16837 0.153229 -1.16068 0.739015 -0.350583 0.0742824 0.00213342 -0.424376 0.896831 0.892383 -0.95638 -0.126832 1.01401 -1.7229 -0.136468 -0.509773 1.71091 -0.946433 1.25119 1.49512 0.805243 -1.4063 0.558057 0.234222 1.19802 1.57278 0.785289 -0.528538 -0.776636 -0.133012 -2.27036 0.224109 0.781659 -0.795454 0.929557 0.168235 -0.212597 -0.602379 -1.19932 1.21781 0.882599 0.257729 -0.237432 1.22076 -0.54637 -0.142911 -0.61188 -0.564424 0.335374 -1.8681 0.0339543 0.985545 0.290078 0.429452 -0.508053 -0.163552 -0.174771 -1.19123 0.25265 1.09512 -0.166883 -0.347784 -1.6822 0.343206 
0.453485 0.205554 0.129969 0.792155 -0.771252 -0.31927 -0.214841 -0.00647306 -0.185249 0.9209 0.631516 -1.22239 -1.55942 0.731196 0.31502 -1.68859 0.234798 0.379712 0.269138 -0.867334 0.65994 -1.96498 0.311629 -0.933505 0.852991 1.72572 -0.421794 -0.530533 -0.570908 1.25717 1.39132 -0.0653065 0.645208 -0.722781 0.632744 -1.65583 -0.538503 -0.138651 -0.787481 0.129097 -0.153356 0.86948 0.335781 1.2679 -0.379042 -1.00414 1.26516 -0.332614 0.162775 -0.286089 -0.379012 -1.10995 -0.899815 -0.346655 1.74384 -0.612574 0.149045 -0.761458 1.19582 -0.772565 0.0486106 0.343165 0.570782 -0.996333 0.731597 1.41448 0.529244 -1.33784 -0.548276 0.0568039 0.901703 0.217462 -0.235737 -0.140282 0.0879828 1.65515 0.053738 -0.0962228 -0.335757 -0.792948 -0.472678 0.160818 -2.31855 2.0138 1.35854 1.85646 0.638855 -2.19488 -0.00374822 -1.68528 0.176485 1.37413 0.806399 1.05022 -0.634966 0.704159 -0.144548 -0.374892 0.278846 -0.84573 
-1.14669 -0.633063 0.977351 -1.29497 0.0106881 1.16099 0.717782 0.388569 -1.57659 0.44726 -0.350001 -1.07683 -0.629204 0.863621 0.365133 -0.137023 -0.435284 -0.385005 0.761839 1.83036 -0.390576 -0.274491 0.187736 -0.0789445 -1.66298 1.50235 -1.24847 0.0132327 0.82584 1.25937 1.20967 0.540131 -0.00610949 0.336853 -0.015305 0.112337 1.3744 0.0916993 0.064261 0.0113504 -1.55349 0.305845 1.93633 -0.623383 -1.30046 -0.0702181 1.07581 0.63693 -0.766161 -0.227482 0.39528 0.225249 -0.640541 0.475684 -0.411527 -0.408108 -0.167524 1.37695 -0.78683 -0.108234 -0.606605 1.26656 -0.693131 0.412979 0.488488 0.378255 2.25833 0.343125 0.563116 0.134191 0.603615 -0.5241 -0.540585 0.0317238 -0.639648 1.53048 0.609273 0.179595 0.38538 0.897092 -0.403408 -1.25968 1.74237 0.524092 -1.01703 0.46991 0.111438 0.636721 0.288417 0.109941 0.331916 -0.0852389 -0.509517 -0.307381 0.0105019 -0.36486 -0.920671 -0.428945 -0.328705 0.51287 
0.454175 -1.11887 0.591273 2.27183 0.0561026 0.52032 0.490036 -0.185787 -0.535547 -0.435937 1.15867 1.22098 0.596794 0.458644 0.818417 0.340442 -1.31891 0.0668165 1.6329 0.774534 -0.229171 -0.590667 0.330984 0.111785 -0.959398 -0.817413 -0.986294 -0.871371 -0.991677 -0.822004 1.82497 -0.791178 0.931589 -0.299529 -0.39739 0.264335 1.36175 0.263738 0.560898 1.53921 -0.474613 -0.184338 -0.640873 0.47459 1.42752 0.139939 -0.109219 1.27652 -0.239848 -0.658312 -0.532522 -1.20881 1.6312 -0.12695 -0.874261 0.633804 0.642034 1.14014 -1.96909 0.465717 -0.882576 -0.622183 -0.0193875 -1.00305 0.950832 -2.02029 1.04416 0.988128 0.224728 -0.519845 -0.22181 -0.540116 -0.125506 -0.230078 1.09931 -0.937906 0.736823 -0.191598 0.72092 1.75547 -0.557568 -0.449437 0.339094 -0.980868 0.639148 -1.11882 -0.532264 0.416269 -1.03758 -0.421895 0.136206 0.625965 -0.516705 0.884244 -1.14075 -0.706727 -0.500303 -0.737213 0.106129 0.564808 
-0.353474 -0.558809 -0.248455 -0.855707 -0.0777713 -0.0342005 0.669843 -0.274341 0.492954 2.15531 -0.360685 0.470421 -0.750277 -0.524655 -1.33532 0.808438 0.0400272 -1.09643 -1.77685 0.268874 -1.66784 0.523156 2.22641 0.219619 -0.60057 1.40633 0.892322 1.2889 -0.33267 0.913664 1.22346 0.225547 1.25655 -0.251386 0.0985547 0.777204 -0.678958 -0.330654 -0.0991023 -0.914192 -0.962652 0.00499137 1.13933 -0.144914 -0.0177507 -0.338442 -1.26594 -0.355015 -0.65268 -1.27525 0.334062 0.88432 -1.09371 -1.92305 -0.408496 0.931406 -0.669635 -1.35198 0.625217 -1.78951 -0.317717 -0.851989 0.334558 1.02535 -1.97431 -0.203537 -1.98505 -0.188333 -0.480452 0.802722 0.726685 -0.583221 -1.36605 -1.2495 0.00304423 1.42949 1.26936 1.04173 1.75459 1.3505 0.390702 0.25332 0.0855857 0.625424 -0.309287 0.350554 -1.61079 -0.642554 0.469486 -0.704959 1.56387 0.7733 0.426987 -1.25568 -0.320819 0.321344 -0.963259 -0.606506 1.13444 0.477411 
-0.379327 0.162624 0.159089 0.696397 0.505768 -1.37268 1.09892 -0.335777 1.53307 -1.05263 0.0483176 0.0644816 -0.264397 0.64536 0.586566 -0.588527 0.324525 0.118163 -0.949196 -0.505844 1.11764 -1.06609 0.477287 1.1836 0.126146 -0.169804 -0.417733 -0.20414 0.632334 1.87644 0.155614 0.19346 -1.70486 -0.231299 -0.819459 0.564584 -0.725842 -2.39183 0.673024 -1.12995 0.0623292 -0.233823 0.489892 0.206421 1.02626 0.825495 -1.01366 -0.389766 -0.286919 -0.533551 0.298985 0.423845 0.311406 -1.00384 0.49688 0.529097 -0.725361 -0.589085 0.556699 0.241193 -0.192564 -0.749843 0.788793 0.484863 -1.79259 -0.689335 0.656448 1.80759 0.262652 -0.717227 -1.64768 0.0196175 1.16224 0.36526 -0.965745 -0.793678 -0.309481 0.716136 -0.387378 0.809341 -0.880183 0.720982 -1.55119 0.77225 0.328364 0.0809367 0.461508 0.863556 -1.08597 0.65494 -0.53012 -0.468525 0.354161 -0.356019 0.604087 0.311301 1.89061 -0.256865 0.825688 -0.728929 
0.808103 0.969545 0.251696 -0.423958 -0.812572 1.3247 -1.59553 -1.33125 -0.00574055 0.904246 -1.12214 -0.631422 0.111002 0.0499852 0.0318923 -0.846705 -0.58672 -1.10833 -1.90997 -0.518713 0.726301 -0.0577722 0.452233 -1.58587 0.626878 -1.1574 -0.293098 0.266217 0.878349 -0.806818 -2.16118 -1.32101 -0.180672 0.834391 0.402319 -1.29089 0.119937 0.404454 2.05655 0.289211 -0.191553 0.751698 0.441776 -0.365471 0.133212 -0.22653 -0.0220745 0.875633 -0.935523 -0.533524 0.856421 0.643266 -1.44841 -1.45817 -1.20474 -0.114528 -0.243637 -0.993091 0.0901983 0.192159 0.6475 -1.17107 -0.470296 -0.048944 -0.96312 0.587056 -0.0608459 0.15718 -0.651526 -0.707597 1.2499 0.244079 0.722371 2.09515 -1.26122 -0.689263 -1.32788 -0.638825 -0.387641 0.397183 0.319719 -0.457631 -1.11235 -0.824169 0.702765 0.345609 -0.591737 -0.102544 -0.436414 0.0114363 -1.37879 -1.88841 0.683425 -0.93458 -1.63923 -1.58946 0.0280326 0.268286 -1.77636 -0.254473 
1.82379 -0.639304 -1.44416 0.890705 2.19336 -0.0213239 -0.331803 0.785861 1.95831 -0.601955 -1.05219 0.130476 1.62536 1.09252 -0.0957773 0.678834 0.495931 -0.485028 0.574036 0.103546 -1.39402 1.49542 0.47681 -0.541394 0.911243 0.104503 0.741602 1.50219 1.47689 -0.185477 0.456231 -0.848441 0.331805 0.573368 1.11432 0.0980124 0.906975 -0.456894 0.487968 -0.80237 0.408098 0.759883 -2.48769 -0.355546 0.766959 0.34403 0.426121 -1.28803 0.135127 -0.139616 0.503831 0.0663238 -0.0926128 -0.578553 0.85578 -0.19905 1.07821 0.426959 -1.08123 -0.288619 0.0139092 -0.43161 -0.573263 0.288043 -0.0554457 -0.947931 -0.32768 -0.92032 -1.01482 0.0607972 0.965723 -0.366537 0.0229254 -0.0453814 1.1635 -1.24154 -0.0112897 0.300735 0.949396 -0.0737751 0.280791 -0.420587 -0.96289 0.866158 1.73344 0.732248 2.06855 -0.229861 -1.41342 0.439379 -0.710338 -1.41174 0.594455 0.197249 0.0483708 -0.662295 1.01167 1.87165 -0.913523 -0.390289 
0.955562 2.78828 0.959588 -0.658728 1.08037 0.385945 0.235594 -0.920956 1.46549 1.19097 0.102687 0.912094 -0.814138 -0.381236 1.25192 -0.747988 1.09274 -1.53671 -1.08743 1.18258 0.130801 1.68551 -1.29224 -1.00186 -0.0964196 0.803288 0.804507 0.346311 -0.238059 -0.62446 1.89866 -0.444105 0.658225 0.0808481 -1.3078 -1.52878 -0.614063 0.11638 1.21816 0.372457 1.30163 -0.97877 1.02539 -0.802402 0.176288 1.37216 -0.0626141 -1.31954 1.19664 1.11381 -0.298671 0.256318 0.0677672 1.19531 -1.45053 -1.25833 0.67417 -1.55316 -2.0041 0.427211 1.62337 1.0991 -1.50567 1.54648 -0.0837017 -1.05605 0.191784 -0.142792 -0.256641 0.36948 -0.960111 0.625096 -1.53243 -0.0300157 0.9742 0.398128 -1.14698 -0.311222 0.188271 -0.362229 0.272376 -1.80029 -0.258691 -0.0719959 0.970562 0.729951 -2.29589 1.12568 -1.14079 1.34329 -0.0734255 1.37586 -0.396691 0.589401 1.08256 1.10491 -0.60229 -0.384782 0.10866 -1.17265 
0.5815 1.69331 -0.485104 -0.528202 0.554932 -0.105417 -0.0439179 0.514767 0.326154 0.569238 -1.91294 1.37834 -1.34367 -0.198146 -1.74372 0.00796076 0.239817 -1.08172 1.19028 0.61869 -1.03981 -0.38246 -0.694528 -1.20465 0.275125 -1.32819 1.39242 0.205858 -0.744314 0.340859 -0.0225137 1.0225 -1.1017 -0.869726 -0.275282 -0.618385 -1.26227 -0.466067 0.828495 0.970418 1.04968 -0.259699 -0.328587 0.604393 -0.0272979 0.331931 -1.39608 0.433819 -0.48173 0.936477 -0.998636 0.28501 0.178393 1.25745 2.16855 -2.9044 -0.765489 -0.502802 -1.34542 -0.938338 -1.71901 3.02171 0.0213298 -0.50669 1.05139 -0.347874 -1.39443 -1.40362 1.15755 -0.594563 -0.940081 -0.441142 -0.776237 0.99866 -0.616621 0.734588 -1.11783 0.140043 -0.836259 0.00933146 0.106655 0.335389 -0.239315 -0.458226 -0.487617 0.375122 0.398037 -0.369837 0.186588 -0.88895 -0.521164 0.119143 1.66773 0.1439 -0.508188 -2.01083 -1.68411 -0.860978 2.16495 -0.256448 
-2.01555 0.668196 0.496432 0.869709 1.05292 0.56737 1.69522 -1.0623 0.885369 0.11329 -0.839567 0.688744 1.11476 0.287885 -0.0990064 0.583686 0.613675 0.666495 -1.86726 0.232143 -0.371485 -0.612366 0.780771 -0.178245 0.743813 -0.286827 1.01033 0.397209 0.24279 -0.167316 0.64249 0.00133518 -0.0461555 -0.740303 0.557614 0.323711 -2.54349 0.270871 -0.319639 0.901627 0.591621 -0.346431 1.18506 -0.0741989 0.594996 -0.444905 0.449019 -1.60507 -0.739139 -0.399984 -0.145076 -0.222186 -1.07701 -0.72623 0.974325 2.15828 -0.272875 0.10553 1.22054 0.634179 -0.50427 -0.15715 -0.637292 2.44486 0.756688 -0.0365136 0.00585203 -0.845861 -0.00318756 -1.62172 1.35998 0.379962 0.0379411 0.478146 0.663542 -0.81399 0.334262 -1.01924 -0.389528 0.84359 0.47956 0.667349 -0.799124 -0.86967 0.513312 0.888733 0.76846 0.382375 0.375961 0.917874 -0.0458295 0.708989 0.24623 -0.0832629 0.951051 0.756586 0.575375 0.00710254 -0.995664 0.744873 
0.194378 -0.30628 0.363593 0.649798 -1.54676 0.748832 0.447501 -0.959654 -0.842749 0.528022 -1.40764 0.470999 -0.771035 0.809279 0.431074 -1.2556 0.832021 -0.659504 -0.136976 0.25081 0.154089 0.0973921 1.04702 0.628733 0.669782 0.088584 0.636551 1.67657 0.489721 0.045479 -1.38767 -2.19734 -0.390502 -0.315276 -0.803001 -0.650466 -0.0461631 1.41044 0.94338 -0.00435704 0.704887 0.0665497 -0.510672 0.477285 0.418094 -0.881125 0.0873432 0.52102 0.769082 0.653725 0.627003 -0.547869 0.406147 -0.543869 -0.116349 0.1337 -0.660859 0.368932 -1.65871 0.157952 -0.958942 0.530531 -0.0996862 0.204017 0.611254 0.781599 -1.66166 0.605243 -0.535128 -0.512098 1.36449 0.921707 1.13339 0.986391 -0.337555 2.27363 1.06968 1.66594 -0.0273927 -1.31179 -0.583344 0.422075 1.40377 0.682302 1.90944 -0.968363 1.36401 -0.756309 -0.205489 -0.524501 0.0449671 -0.725323 0.682693 -1.79866 -0.465519 -0.0924885 -0.570004 -0.667407 -0.681591 -0.553079 
-0.431376 -0.0437093 -0.0335656 -0.833283 -0.626096 -0.405822 0.0254166 -0.384614 -0.165287 0.390886 0.38994 -0.268838 -0.713591 1.0892 0.466295 0.700377 0.100485 -0.714425 -0.414019 -0.660426 1.12076 0.524802 -0.810211 1.14297 -0.437651 -0.533094 0.747515 -0.283146 0.811472 0.175485 1.37777 1.01801 -0.0954175 0.658896 -1.36118 -1.00647 0.994078 1.53998 -0.0824218 1.27869 0.00630002 1.71225 -0.196144 -0.247073 0.426521 1.16052 0.129766 -0.311343 0.316736 0.558681 0.497406 -1.4198 -1.19708 -2.37959 -1.83359 0.0667092 0.584179 -0.347666 -0.0217414 0.0961539 1.44583 -0.0314796 0.524803 0.0209403 0.433495 -1.17249 -1.6727 0.041402 0.275696 0.0352363 -0.634139 -0.897282 0.396549 0.521331 1.00648 1.19745 -0.160391 0.881842 -0.479818 0.645305 -0.137944 -0.584279 -0.718595 -1.44972 -0.676699 0.463014 -0.87891 -0.0925864 -1.22287 -0.6106 0.602271 0.681619 1.85878 -0.833804 0.506535 1.71558 0.567084 1.51603 0.708029 -0.272411 
0.65923 1.36927 -0.309443 -0.0482328 -0.257695 -1.60524 -0.119199 1.62464 0.00646321 0.364714 -1.24622 0.427521 -0.533099 -0.895039 -0.0585776 -0.908161 -0.515647 0.478249 0.222761 -0.0619662 -1.45497 -0.240891 0.726288 -0.190496 0.851352 -1.77635 1.76877 2.05783 -0.671572 0.788733 -0.337309 -0.0809847 0.962343 0.831952 -0.352935 0.398164 -1.54339 0.424689 -0.478911 0.872391 -1.44609 -1.0936 -0.523729 -1.23183 -0.518184 0.468238 0.0772462 -1.1407 1.83374 -0.130207 0.000850498 -0.455852 0.00582084 -1.06877 0.937168 -0.247213 -0.450296 0.343832 0.465254 1.48313 0.0137723 0.0108561 0.367561 0.0473945 -1.86208 0.573518 -0.0801507 -0.79713 -1.04179 -0.441455 0.395257 -1.4674 0.894375 0.413348 0.83093 -0.427418 0.632354 0.0156234 0.80765 0.0219765 0.246065 -1.61021 0.490715 0.268413 -0.0129955 -1.09451 0.767528 -1.6021 1.10063 -1.14934 0.359978 0.578743 1.01055 -0.797349 1.04664 0.932153 0.775083 -1.33981 -2.4828 -0.115782 
0.634405 0.0207031 1.31635 0.0673957 1.14692 -2.36131 -1.93311 -1.17797 -0.879441 -0.148813 2.47387 -0.387218 1.08665 -2.00257 0.569243 -0.130123 -0.298784 -0.160382 -0.43679 0.718598 0.621937 -1.10419 -0.859048 -1.38795 -0.346109 0.590129 0.0505466 0.509209 -0.0016965 2.37217 -0.95322 0.652295 0.844084 -1.35876 -0.0498516 -0.295102 -1.10264 -0.602089 0.284908 0.296497 1.58759 -0.595593 -2.09919 -0.754624 -0.30131 0.631869 -0.04747 -1.21015 0.419446 0.507136 -0.94899 -1.10398 -1.32462 -0.854131 1.05919 -0.944316 -0.810387 -0.684902 1.51201 0.097383 -1.09794 0.930689 -0.94055 0.692794 -0.478348 0.511918 -0.509477 0.00547058 -0.236877 1.6942 1.93308 -0.422478 0.575807 -1.06282 -0.543679 0.104828 -0.686132 -1.12434 0.722288 0.0431348 0.836892 -0.00324929 0.482059 -0.0414494 -1.43499 -1.54687 1.23155 -0.254128 -1.11705 -0.346326 -1.08346 -0.0367607 -0.105293 1.82802 -1.25539 0.410076 -0.0411014 1.25317 0.444753 -0.0132311 
-0.600118 0.115864 -0.405634 -1.49181 -2.01435 -1.26512 1.00151 -0.95311 1.66388 -0.725888 -0.768424 0.210919 0.163205 1.05819 0.984798 -0.460296 -0.345397 -0.202615 0.11261 -0.770306 -0.674726 1.73012 0.306756 0.626255 0.239202 1.06328 -0.691187 1.37935 -0.248469 -0.245253 -0.349596 0.475273 -1.67359 0.106887 0.00842753 0.687195 -0.395425 -0.526081 0.210058 -1.80099 -0.626869 1.16164 -0.406491 -0.576268 -0.817081 -0.727087 1.34799 1.40244 1.119 1.44847 1.08085 0.284417 0.139535 0.571635 -1.27131 -0.607555 1.22632 -0.493655 -0.360703 1.19264 -0.834447 -0.0971341 -0.352922 0.85089 2.39836 -0.144393 0.354454 2.35115 0.753505 0.377597 -0.711865 0.655592 1.26336 0.184519 0.202399 -0.916104 0.0527468 -1.34514 0.249412 -1.21053 -0.987048 -1.78517 -0.966857 0.143108 -0.0596185 -0.234674 0.448591 0.68633 -1.24339 -0.260993 -0.4305 -0.236776 0.0288139 -0.41343 0.380038 -0.281179 -0.712354 0.159741 0.255638 -1.47314 
0.219848 0.0944811 0.54486 0.337454 -0.158706 0.0767509 -0.493758 -0.80391 0.91827 0.779499 1.35648 -0.974715 0.769662 0.148018 -0.309424 0.769973 0.90577 0.681983 2.27301 -0.137486 -0.654395 -0.675686 -1.60787 -1.18445 0.112055 0.457557 1.16152 0.429743 -0.639623 -0.907392 -0.16624 0.363717 0.491364 0.157662 -0.615566 1.14758 -1.46585 -0.790503 -1.98097 0.0971989 -0.145864 -1.24188 -0.293316 0.853154 -1.68177 -0.864039 -2.00348 1.68421 -1.46667 -0.916648 0.35207 -1.05861 0.711522 0.17305 0.141859 -0.102284 0.0499936 1.19272 2.22765 -1.25955 -0.439284 -0.209288 0.357582 0.220642 -1.10768 -1.26433 0.180289 -0.364593 -0.477582 -0.217052 0.143694 0.64581 0.796129 -2.5043 0.482564 0.23011 -0.08725 0.083793 1.11772 -1.9972 -1.28512 -1.22195 -0.146494 1.09996 -0.0767688 -0.182086 -0.499222 1.62067 0.703079 0.289851 1.48811 0.271877 0.512611 0.396793 -1.15644 1.78914 1.67751 -0.865222 0.710774 -0.583027 
0.581349 -0.44775 -2.61328 0.0736493 0.884466 -1.05714 0.207342 -0.641636 0.905741 -0.362705 1.53876 -0.127945 0.488372 -0.0126204 0.368247 -0.0718826 0.754096 0.140092 0.369334 -1.00224 -0.897409 -0.0566818 1.20081 0.114396 -0.280695 -0.383353 0.243115 -0.209963 -1.04952 -1.07174 0.726596 -0.0260995 1.98923 0.88567 -0.962452 -0.54397 -0.1986 1.10603 -1.31574 -0.194692 0.637625 -0.103711 0.153567 0.510143 0.525518 0.788044 -1.5127 -0.285918 -0.337498 0.538704 1.18158 -0.976673 -0.286102 -1.11784 0.45907 0.573343 1.13634 0.0766835 -0.305746 0.225707 -1.14701 -0.553678 0.242556 0.224154 -0.0128845 1.36313 -0.235382 0.387177 0.38481 -1.18026 1.23071 0.0492969 0.571689 1.52529 2.04524 -0.56331 0.966842 1.93501 0.705186 0.286048 0.161902 -0.866747 -0.274123 0.920256 0.614615 0.965912 0.428692 0.96066 0.157546 0.834198 1.66004 -0.793409 -0.00128977 -2.06 -0.297855 0.624005 1.83504 2.18689 0.0351701 -1.1709 
0.739727 1.10605 -0.206519 0.634743 -0.642799 1.69382 0.0473612 0.0967667 0.909543 0.500009 1.64224 -1.14425 0.772072 -0.312297 -0.661996 0.427326 -0.736494 0.902671 1.66883 -0.792527 0.806062 -0.938027 -0.942403 0.749039 0.0917887 -0.223075 -0.798143 0.261955 1.6395 -0.208048 -0.0267415 1.10559 1.28162 0.49767 -0.139714 1.42877 -0.464502 -0.0223634 -0.0315277 0.16322 -1.60078 -0.488617 -0.988704 -0.535973 1.77065 -1.09134 1.16263 0.533977 1.58573 0.410304 0.864686 0.45564 -0.054877 -0.315958 -0.580719 -0.64093 -0.846101 -0.955986 -0.335359 -0.317992 2.00107 0.576482 0.184292 0.626809 0.721369 1.15284 -0.7664 2.19041 0.742656 0.0269935 0.446154 -0.192643 0.0101384 0.973876 -1.39201 -0.373919 1.23602 0.79458 -0.307794 -0.959606 0.323406 0.900319 -1.35301 0.397173 0.852416 -0.434031 0.265177 -0.998431 -1.53036 -1.17651 1.30341 -0.279709 -0.0461035 -0.169621 0.220028 -0.585327 2.13759 -0.524396 0.754178 0.810997 
0.0057143 1.1149 0.449063 0.1527 -2.31204 -0.251746 -1.69367 -1.20717 1.25013 0.554426 0.7414 0.161988 0.0108584 -0.813238 0.543677 1.70708 -0.561053 -0.182601 1.32785 1.34874 0.574019 0.189009 -0.158975 0.808647 -1.01535 -1.21069 1.02791 -1.11205 1.45379 0.43305 -0.0173982 -0.356305 1.57061 -0.538935 0.391131 -0.814749 -0.61425 -1.68259 0.913269 -1.91743 0.438018 -0.242943 0.139763 -0.220431 -0.414714 -0.333801 0.501533 -0.241654 0.198373 0.743173 0.478496 -0.398376 -0.243785 -0.0722926 0.113547 0.0051522 -0.360876 -0.20442 0.361609 0.316676 0.914952 0.773575 0.314811 0.793758 -0.469775 -0.168468 0.581526 -0.558693 -0.973032 0.0154245 0.0204757 -0.500502 1.64082 -0.631106 0.898045 -0.0840739 -0.698317 -1.32708 0.51002 -0.8016 -0.209477 1.04062 0.284692 0.791913 -0.340842 -0.916017 1.65227 0.0912771 -0.877735 0.217382 0.0573913 -1.24739 1.19649 0.492595 0.81238 -0.545564 -0.400725 0.431464 -0.125467 -1.28528 
0.650545 0.985904 -0.501332 1.07273 0.154376 0.0347823 0.448295 -1.43048 0.0378411 1.14431 1.259 -0.12912 0.00534949 0.367636 -0.0581772 -0.18443 -0.182466 1.36543 0.12212 0.485203 0.123324 -1.16217 -2.1085 0.28185 -1.15172 -0.73894 0.739942 0.539347 1.17273 -1.68176 -1.31537 0.870317 0.602956 0.975631 0.448288 -0.308202 -0.391958 -0.59294 -0.383912 -1.04296 -0.920382 0.715339 0.408294 0.0844986 0.947721 -0.717831 -0.348707 -0.117044 1.43154 -0.0481119 -0.969493 1.17182 0.87571 -0.806475 0.732344 1.86981 0.306656 0.186641 0.437302 0.141296 0.16285 0.80983 -1.0656 0.322092 0.629321 0.414984 -0.585865 -0.214941 -1.00319 -1.94983 -1.38891 0.748142 0.772544 -0.567056 -0.848693 0.760302 0.629486 -0.0555962 -2.06514 -0.808636 0.22174 -0.232594 0.67781 -0.0129577 0.12344 0.611408 0.48884 0.389793 1.61411 1.00655 -1.13189 0.6876 0.484208 0.968107 1.70627 0.73141 0.199757 -1.16475 -0.55227 0.252413 
-0.611807 0.53899 -1.2692 -0.95593 -0.230899 -0.898283 -0.671781 -0.37868 0.355782 0.476134 0.80743 0.833558 -0.358128 0.847204 0.226243 -0.277108 -0.423774 -1.17185 0.53615 0.379128 0.332509 0.904686 -0.411744 -0.389366 0.597085 0.359982 -0.647213 0.445212 0.192353 0.618474 0.193736 -0.834099 1.17087 -1.14628 0.409992 0.777707 0.449912 -0.272232 -0.62004 0.434995 -1.08371 0.255365 -0.0766034 -2.99085 -0.761401 1.61178 0.443603 0.242848 -0.421049 0.121303 -0.683569 -0.197791 0.293776 -0.325123 0.720711 1.04455 1.00174 -1.22218 0.1664 -0.409599 -0.0546714 0.623305 -1.271 0.431668 -0.591062 -0.694658 2.07246 -0.637121 -0.294254 -1.13314 1.04175 -0.420902 0.303497 -0.0405914 0.230977 -0.0542247 -0.938547 1.62813 0.507345 -0.542277 -0.265443 2.51333 -0.666432 -1.47881 -1.96115 2.28598 -0.0125953 0.294944 -2.14697 -0.181186 -0.802778 -0.0256699 -0.982421 0.127627 -0.309891 0.419559 0.357512 1.71627 0.35799 0.0774421 
-0.00663098 1.45691 0.182062 0.494558 -0.549652 0.526241 0.717129 0.305204 0.930528 -1.41227 1.00896 0.605458 0.785815 1.51493 0.689366 0.0974254 -2.05327 -0.374449 -0.988229 -0.265345 0.115119 -1.75844 -0.13481 -0.312283 1.1125 0.128049 0.472435 -1.03974 -0.264116 -1.016 -0.26093 -0.308298 1.72396 0.623919 0.60935 -0.275767 1.2417 0.0428249 0.583038 -0.744982 1.42114 -0.361773 -0.777794 0.143318 -0.423816 0.324612 -0.739648 -0.552383 -1.79822 0.303532 -1.0797 0.333909 0.473507 -1.51813 1.07201 -0.118606 1.41684 -0.732282 0.217296 0.63784 0.745085 1.43174 -1.73693 -1.38588 0.77056 -0.603237 -0.421112 1.06863 -0.390011 1.04886 0.723841 -0.484686 -0.138523 -1.09592 0.253919 -0.511363 -0.0318616 -0.000833196 1.59722 0.0302025 -0.567992 0.81631 -0.144317 1.75049 0.468269 0.0832343 -0.148995 0.707562 0.139658 -0.981033 0.226291 -1.76789 0.0089687 0.150611 -0.725023 -0.197623 0.664581 1.31905 -0.831891 -0.510459 
-0.71665 -1.15049 -0.982823 -0.695203 -0.834797 -0.408408 -0.153979 -0.792184 -0.0943742 1.39587 0.265267 -0.0116454 0.637274 -0.24817 1.57013 0.0956979 -1.17652 1.67529 -0.0404519 0.0768811 0.143167 0.564102 0.684617 -0.617106 -1.91285 0.545125 1.48709 -0.762304 2.98515 0.763857 -0.409857 -1.95497 0.511371 0.154773 -0.915509 0.00753185 -1.08528 -0.279981 -0.0171254 -0.198008 -0.0824982 0.174687 -0.302067 -2.21843 -0.65283 -1.20445 -0.482801 -1.81023 1.45228 0.219535 -0.756777 0.769493 -0.00221024 -0.150478 -0.166643 1.31828 0.574072 -0.871312 -1.17167 0.66295 1.87133 0.369712 0.0147578 0.674824 0.344346 0.823604 0.875041 0.637372 0.200117 -0.80663 0.00829544 -1.85502 1.05387 -1.17908 -1.39977 0.840635 -0.366845 -0.894386 -0.233649 -0.277779 0.801207 -0.995602 1.83547 -0.316211 0.0878647 0.477325 -0.0795521 -1.42258 -2.6364 0.475511 -0.339891 0.443301 0.112218 0.611236 -0.307571 1.3601 0.508355 -0.0914727 -1.37565 -1.02705 
-0.137933 0.176876 0.56181 0.407755 -1.08936 0.190315 0.48488 -0.686357 0.369276 0.189884 0.07795 0.428793 0.487196 -1.14625 0.361337 -0.0497584 -0.0810972 2.6793 0.343114 -0.626378 -1.56691 -0.487401 0.297171 -1.27664 1.10116 -1.28555 1.08033 -0.331551 -0.250174 2.16464 1.37634 0.363865 -0.191118 -0.494207 -1.15588 1.38889 -1.65834 1.22777 0.380742 -0.0852619 0.63454 1.77205 -0.582461 0.206997 0.758952 1.35227 0.7289 -1.98651 -0.388334 1.40568 1.36031 -1.03928 0.722676 -0.258878 0.740748 -1.09328 0.190668 -0.161056 -0.0381227 0.50794 -0.554354 0.191443 -0.0486243 -0.619996 1.03734 -0.101043 -0.576997 -1.44941 0.715829 0.0929511 -0.716142 0.931163 -1.42174 -0.273147 0.056229 1.11744 0.505 0.224464 0.0220343 -1.10819 0.441062 0.395804 0.865929 -1.02753 -1.27397 0.953778 1.28304 0.697297 -0.0294071 0.315971 -1.52784 0.560556 1.30667 0.401974 -0.736701 0.00113479 0.380535 -1.12299 -1.38937 1.1243 
-0.795081 -0.309637 0.153854 -0.156733 -0.897773 0.922608 0.618239 0.82517 0.835312 -0.268335 -1.76072 -0.0760138 -0.664903 1.17973 -0.0428438 -0.817062 -1.48551 0.305141 -0.610971 0.19879 -0.86483 0.136505 -0.121432 -0.783138 -0.722554 -0.160502 -0.855876 1.51623 0.0970295 -0.834209 -0.453375 0.65812 -0.92956 0.765905 -0.957811 -0.340785 -0.371065 -0.653188 0.382252 0.0380652 -1.54513 -0.0759223 0.597772 2.4973 -0.319047 -0.961268 -0.669038 0.747966 0.183725 0.107061 -0.788231 -1.0188 -0.177252 0.101016 -1.43324 0.382451 -0.453222 -1.10158 -0.963563 -0.252746 0.5364 0.0388059 -0.587592 -0.22284 -0.0692743 0.0633482 0.350914 0.365692 1.58675 1.38506 0.186902 0.108111 -1.8389 -1.02666 -0.282672 1.10188 2.23365 -1.37847 -0.206273 0.561675 0.370693 -1.21737 -0.992983 0.199658 0.0625866 0.64343 0.380428 0.0233329 0.30969 0.399442 -1.14162 0.389699 -0.0331773 -0.820579 -0.57058 -0.379652 0.669527 0.829545 1.68323 -0.892714 
0.03075 0.461872 -0.408168 -0.75898 0.0749327 -0.497144 0.10705 0.264217 -0.16469 -0.104548 0.223439 -0.313806 0.985162 -0.435348 0.0685138 -0.945211 -0.199193 -0.102236 -0.101038 0.0141576 -0.707439 0.696084 0.0839699 -0.728615 -0.884392 0.354496 0.400456 -1.03282 0.593866 -0.232249 0.11168 -0.0888274 -0.950281 -1.25435 -0.867491 -0.735258 -1.3254 0.869164 -0.922231 -0.0776291 0.824858 -0.382952 2.06725 -0.925618 0.0808896 0.305813 -2.23799 -0.285187 0.222623 0.744691 0.869755 -0.162154 0.409526 -0.408967 0.119654 0.6689 -1.01938 0.499597 -0.0989513 0.373698 -0.563268 -0.0635325 0.591085 0.185812 0.198333 1.03089 0.528031 -1.00116 0.078358 -0.0275004 -0.164685 -0.393627 -1.37585 -0.964983 -1.49841 1.05115 0.2693 0.844825 -0.00198895 -0.854369 -0.159411 -0.228654 -0.000503667 1.2709 -1.34028 0.505855 0.98267 0.436072 1.02575 -0.962483 0.834871 -0.40883 1.56269 1.91078 -1.13797 -1.39437 -0.789116 -1.27891 -0.227136 -1.34341 
1.00173 0.953073 -0.484315 -0.661276 -0.772303 -1.22757 -1.23409 0.346571 1.13705 -1.78556 0.630807 -1.162 -0.372714 -1.23642 0.459616 1.86528 0.0590687 -0.262675 0.856356 0.0646354 -0.886035 0.413299 0.694526 0.230123 -1.23009 0.0830959 -0.657402 -0.743192 0.632953 1.09074 -1.30498 1.29187 1.03853 1.02698 1.58537 -1.57356 -1.90893 0.166034 -0.731261 1.66451 -0.0716676 -1.58522 0.904591 0.179472 1.40963 1.20527 0.0720768 3.20677 0.337354 0.350034 -1.38797 -0.236651 -0.957139 0.371006 -0.511305 0.795995 0.277812 0.158396 0.775771 0.349175 0.894963 -0.580837 -1.59729 1.17559 0.0224252 -0.392807 -1.17414 -0.877306 -0.470416 0.299665 -0.192869 -0.455138 0.215991 -0.74908 -0.531224 -0.800668 0.205522 0.325957 0.153997 -0.149036 0.360728 1.73172 -0.208073 0.0941476 0.475902 0.522599 0.624442 0.652731 0.270192 -0.273864 -0.157816 0.195082 0.153842 1.08943 0.0036966 -0.278462 -0.841333 0.487032 0.222038 0.240441 
-1.14209 0.20225 0.894434 1.01246 -2.41775 0.0846863 -1.40359 -0.790633 0.00694146 -1.01504 -0.608117 -1.05113 -0.0840055 0.640733 1.25243 0.507013 -0.86545 -0.461419 0.787389 0.147096 -0.58783 0.641753 -1.06223 1.26448 0.0523063 0.547742 1.88546 -0.223851 1.01373 1.71489 -1.38641 0.462259 -0.855559 -0.0127164 -1.16474 1.27505 1.84932 -0.306967 0.832675 0.421634 -0.116511 0.96717 0.0412861 -0.866787 -0.959104 0.841869 0.297418 0.489214 1.41922 -0.845249 -0.354478 1.02247 -1.66059 1.46335 -0.980368 0.2982 0.583276 -1.6273 -1.84523 1.73164 -0.364799 1.49918 0.42356 -0.289696 1.01656 1.44096 -0.7874 2.92299 -0.665742 0.385626 -1.01984 -1.34749 0.190501 0.842149 1.16577 -0.553601 -0.593185 0.08157 -0.0629352 0.333442 0.0468141 -0.031635 1.1562 -1.1423 -0.0476204 -0.625325 -0.208287 0.52921 0.880864 -1.08989 0.416926 1.16431 -0.195872 -1.71999 1.26884 -0.00260512 0.159499 0.07406 -0.82234 0.363516 
1.25038 0.323411 -0.672778 -0.0479274 -0.282077 0.257919 -0.259153 -0.432851 0.137491 -0.00786018 0.227033 0.623505 -0.662973 -0.0356525 0.679383 0.0453033 -1.01977 0.133138 1.50514 -0.556682 -1.02189 0.458745 -0.935231 0.637744 -0.101079 -0.357072 0.593142 -0.0416022 0.436008 -0.354018 0.912188 -1.10625 -0.194933 0.934278 -0.345283 -0.69648 -0.154619 -1.22265 -1.47608 0.707519 0.617948 0.957407 0.364579 1.01593 1.16509 0.0454384 0.0943108 0.156057 -0.299387 -0.375401 0.0497795 -0.968254 -0.808784 -0.918805 -0.945965 0.251237 0.310214 0.00512096 1.50911 -1.60201 -0.511256 0.455394 0.634088 0.166103 0.152007 -0.565401 -0.125601 -0.33822 -0.373289 0.846026 0.326469 -0.228441 -1.08442 0.169778 1.32258 -0.880828 -1.0642 1.74272 -1.28109 0.126532 -0.120762 0.0881457 -0.818155 -0.433461 -0.0651511 -0.191591 -0.374733 0.0917474 1.77917 -0.900798 0.932489 -1.03393 0.514356 0.256036 0.685264 -1.02153 -0.246819 -0.31501 -0.599805 0.00171912 
0.372198 0.343736 -0.0839743 -2.18723 -0.541674 0.45011 0.362951 2.06097 0.925617 1.32474 1.09967 -0.963413 2.19547 0.157444 -0.347663 1.63855 -0.287822 -0.645043 -0.0223242 0.807252 -0.782991 0.235132 0.943678 -1.01786 -1.59267 2.3278 -0.440494 -0.924654 0.141218 0.0314706 -0.482957 -1.17064 0.178987 0.76699 -0.10742 -0.534739 0.0904959 0.288018 0.292919 -0.610745 0.460933 0.13619 -1.68016 0.740343 1.27979 -1.3482 0.322392 -0.016062 0.473363 -0.7408 -1.1006 0.35262 -0.943041 0.882698 0.142762 0.208917 -1.20156 -0.0476869 -0.352486 0.425717 -0.410577 0.756187 -1.25812 1.51404 -1.19757 1.03333 0.803959 1.12897 -0.307963 1.63173 -1.29416 0.00470743 -2.3394 0.0771272 -0.766707 0.0809159 -1.48601 1.81045 -0.950076 -0.82019 0.467956 1.82001 -1.24684 0.376859 -0.56609 2.04344 0.419704 -0.00997812 2.11639 -1.5782 0.464546 -1.25625 0.898946 -0.54629 0.747034 -0.537362 -0.12465 -0.660806 -1.06121 0.764957 
-0.586906 -1.68749 0.366279 -0.735834 -1.72242 -0.624423 1.99749 0.714091 0.492296 -0.689503 0.257889 -0.77329 -0.511026 -0.33729 -0.736727 0.382587 1.55236 -0.746643 0.490862 -2.39053 0.036773 -0.316346 0.858281 0.670634 0.109076 2.75709 1.16522 -0.0213763 0.627567 -1.21904 2.4878 0.0166687 -0.323595 0.388225 -1.16657 0.192774 -0.201864 -0.545048 -1.11625 0.82185 -0.488098 0.201659 1.69099 0.867101 -0.673683 2.76552 0.485953 -0.00638395 -0.507051 1.91767 0.0932511 0.852978 -1.25626 0.746895 0.68841 -0.253654 0.286391 1.19103 0.550479 -0.108857 -0.231771 -0.324446 -0.895126 0.439811 0.284337 0.272779 -0.787295 0.877553 1.34543 0.0203368 0.138114 0.0564868 -0.234911 0.104432 0.289549 -0.309971 0.76141 1.86064 -1.39947 -0.93742 -0.156484 -0.882819 -0.433832 -1.34348 -0.157117 -0.466428 0.326231 -0.176558 -0.0732367 -1.25488 1.8422 1.04838 -1.06946 0.480019 -0.988416 0.196174 0.413958 0.763699 -0.337657 -0.640624 
1.68556 -1.66947 1.04154 0.641939 -0.141821 -0.36962 -1.16095 1.20666 0.219848 1.20072 1.34276 -0.683406 0.000649157 -0.356354 -0.400295 -2.25356 0.969416 0.88582 0.683766 1.49651 -1.11607 0.785609 0.859142 0.0617635 1.36603 -0.420342 0.201223 0.172453 0.425122 -0.663081 0.270691 -0.0644446 -0.32806 1.07168 -0.689537 -0.440501 1.5363 0.400642 1.32193 -0.471583 -2.33079 0.590539 -0.979286 0.412372 0.08623 -0.0522376 0.390095 1.17856 -1.24211 -2.08881 -0.15347 1.21537 -1.48365 0.238644 -1.55786 -0.313457 -1.86292 -1.72316 0.170047 0.157122 0.157019 -0.337479 -1.99758 -0.054842 -0.738432 1.53174 0.761807 1.5798 -0.246886 1.51165 -0.0715137 -0.445094 -0.272495 -0.377218 0.677457 0.0104085 -2.06099 0.734275 -0.795387 -0.137261 0.952259 -0.791713 0.698787 -0.579815 0.0339016 -1.19479 -1.25003 1.16933 -0.304224 -1.14829 0.990027 0.0734663 0.456459 0.455273 1.24335 0.627149 -0.0281911 -0.85847 0.758558 -1.15114 
0.326746 -0.794738 -1.17845 -0.305407 0.695577 0.208079 0.0458625 0.764042 -0.99261 -0.85335 -0.0369424 0.353609 -0.704401 -0.0281315 0.899607 -0.986123 -0.593235 -0.358034 -1.23364 0.811259 -0.0372718 -1.23723 0.139355 -0.518753 -1.41928 -0.363296 -0.0881519 -0.497027 1.31078 1.9245 -0.022554 -1.87948 -0.799547 1.45806 0.15477 2.17375 -0.124509 0.86844 -0.0829921 -0.531823 -0.756038 0.315665 1.74111 0.645563 0.786537 -1.29371 0.600705 -0.839968 -2.01684 0.0570691 2.74324 0.513935 0.570541 0.0653653 -0.849965 1.36951 0.584527 -0.369039 1.71439 -0.353943 -0.521947 0.437383 -0.333375 -0.671253 -0.831816 0.74338 -0.0216832 0.219312 1.2271 0.16188 -1.03516 -0.0969567 -0.928594 1.83814 -0.60114 0.989342 -1.03171 1.89338 -0.245779 -0.744884 0.391767 0.548462 0.513643 -0.0440943 -0.756497 -0.603303 0.511934 -1.22402 -0.18603 1.98334 0.621378 -0.490731 0.249526 0.076774 0.317089 -0.691469 0.683416 -0.0132909 -0.788406 -1.27748 
1.61265 -0.457514 0.0184957 0.303913 0.552407 -1.08001 0.318723 -0.417885 0.409893 1.27239 0.911635 1.2165 1.70738 -0.846048 0.493432 0.337273 0.888063 -0.0691592 0.251464 -0.209834 0.612469 0.131433 -0.0716867 -0.139819 1.11067 0.670026 -1.18649 -0.658545 -1.39442 -0.00871335 -0.307186 -0.292783 -0.102657 0.452718 0.440106 -1.79408 -0.122723 0.287905 0.70681 0.759357 -0.359387 0.377083 0.290297 0.847329 -1.697 0.577141 0.13424 -0.0323068 -0.316097 0.86935 0.488144 0.163422 0.0776978 -0.194708 -0.378572 1.46462 -1.06774 0.594014 -1.35869 0.128784 0.539547 0.483086 -1.30804 2.51475 0.251516 0.951544 0.529628 0.0182181 1.62607 2.23623 -0.56368 1.33851 0.279345 0.188841 0.692282 0.115228 -0.0495622 0.587808 -0.298536 1.45527 -0.328487 -1.34284 0.134529 -0.482127 0.404125 0.28659 -0.460568 -0.760215 -0.289126 0.32561 0.640485 -0.927235 0.969759 -0.327948 -0.183509 -1.55839 0.241953 -0.0653445 1.55855 -1.8173 
0.280509 0.0645906 -1.69914 -1.0447 0.0176656 2.56406 -1.62508 -1.02884 1.08577 0.888133 0.0906039 1.3534 -0.0371716 -0.378613 -1.27488 -1.03695 -0.761283 0.438265 -0.699395 -0.410195 -0.2153 0.336522 0.308831 -0.71677 0.357823 1.02455 0.62788 -0.0379571 0.333387 0.668798 -1.17094 0.657634 -0.627643 0.787317 1.35828 -0.284155 -0.646424 0.710214 -0.688112 0.518553 1.35335 0.178349 0.143681 -0.144077 0.642165 0.281063 1.14852 -1.32286 -0.0373619 -1.35792 0.442778 0.42429 -0.269283 0.171704 0.125342 0.842023 1.39763 -1.74425 0.711299 0.35445 0.848652 -1.4747 0.0366203 1.10341 1.16638 0.989522 1.08802 -0.221746 -1.25206 0.650649 -1.23043 -2.65154 0.887155 0.271753 0.529291 -0.226176 0.586753 0.569314 1.4699 -0.160793 -0.954858 -0.368023 0.965869 -0.932606 0.311401 -1.21327 1.89604 -1.23045 0.749257 -0.220779 -1.16769 0.921067 -0.846266 1.04849 -0.189676 0.56444 -1.17266 2.8597 0.106576 -1.92506 
1.30982 0.0387611 -1.12501 -0.368 2.02701 2.14469 0.110112 1.05146 0.592346 -0.220489 -0.191827 0.199017 0.62121 -0.557919 -1.02066 0.325897 -1.13187 -0.324705 0.843085 -1.18074 0.185126 0.586951 1.09553 0.192702 1.3835 1.58164 0.694352 -0.0984523 -0.152495 0.487439 -0.849708 0.202861 -0.743275 -0.172209 -0.0771728 2.38537 -0.232401 -0.546177 0.793594 0.160182 -1.59411 0.114639 1.17327 0.353866 -0.485707 0.0480894 -0.677507 0.337482 1.39808 -0.992839 0.842696 0.275988 0.514223 -0.12263 0.247241 0.515678 0.0709508 -1.19891 1.61002 -0.596357 0.353733 -1.31647 -0.459687 -1.29614 0.0129898 -0.522482 0.345861 1.9175 -1.53409 1.08321 0.543755 -0.547159 -1.72404 -0.661996 0.279774 1.24672 -0.563167 -0.404931 -0.717194 -0.833458 -0.497835 0.095808 -0.763453 -0.016389 -0.614351 0.0942371 0.946678 0.358987 -1.88145 1.19209 1.06799 2.42606 -0.924489 -0.472553 0.561528 -0.033666 -0.51811 -0.0546006 1.18253 -0.0423446 
0.0944668 0.38835 1.46861 0.128973 -0.969961 -0.217452 1.61559 2.98992 1.9392 -0.866798 -1.03372 0.14745 0.95955 -0.528146 -0.839599 2.40712 1.14931 -0.571888 -0.343565 0.199159 -0.576693 0.184642 0.165143 0.528734 0.987532 -1.07067 -0.868189 -0.11104 -1.39185 -0.994604 -0.647762 0.930651 0.659085 0.344304 1.78344 -0.391425 0.200603 1.196 0.715228 0.809397 2.97241 -0.595665 -0.75923 -0.00549496 1.49526 2.18684 1.03946 1.31921 -0.056463 -1.07546 1.31737 0.607599 0.000890871 -1.03603 -0.816489 0.230402 -0.632306 1.51046 -1.05287 0.593856 0.243979 0.364342 1.03596 0.506098 -0.972482 -0.869493 -0.702488 1.02886 -1.00682 0.148426 -1.41443 0.694147 -0.0933845 -1.96216 -0.267608 -2.44698 0.234066 -0.198879 0.391829 0.17846 0.282535 0.569843 1.50964 0.461723 -2.47671 0.425092 0.160329 -0.221603 1.43568 3.21071 -1.04811 -0.510227 -0.136337 -1.0934 0.0658384 -0.666798 -0.3183 0.444463 -1.67993 -0.257905 
0.548451 2.07025 1.41515 -0.747599 0.13046 -1.6773 -0.333216 -1.28091 -0.410123 -0.457881 -0.00157569 -0.373231 -1.01244 0.126632 1.27361 -1.18639 -0.0609611 -0.675917 -2.25751 0.236295 -1.02021 -1.03986 0.345915 -0.958722 0.738835 -0.396242 -0.78139 0.555605 0.637786 -1.0414 -1.35171 0.867353 0.76907 -0.143446 -0.426618 0.43348 -1.02169 0.553322 -1.00543 1.11442 1.31669 2.3792 1.49984 0.861159 -0.267643 -0.345351 0.715513 1.54866 -1.127 0.671939 0.347571 -0.0331907 0.339241 0.0142282 0.210039 -0.230469 -0.261684 0.180422 0.123006 0.174713 0.0536942 0.202907 -0.658317 1.78965 -0.523905 -1.19035 -0.682132 -0.081446 0.373513 -2.19113 0.107578 0.820227 1.73565 -2.38182 0.6512 -1.08727 -0.991767 -0.0767803 0.746371 -0.385231 1.09565 1.989 -0.664568 -0.308392 -0.601772 -0.439503 0.0204644 -0.382411 1.32941 -0.971528 -2.38747 1.90872 0.309523 -1.07609 0.849427 -0.294606 -0.49399 0.46912 0.24749 1.14447 
-0.995685 -1.21824 -0.233891 -0.435447 -1.75362 1.20351 1.27405 -0.860026 2.04934 0.155546 -0.0497631 -0.205096 0.622645 -0.701604 1.04435 -0.952195 -0.945242 -2.05938 -0.707676 0.231368 -0.0120083 2.48508 0.00684375 0.659366 -0.219382 -0.340046 0.313363 0.686508 -0.16413 -1.11677 0.415463 0.456211 -0.150722 -0.621306 0.702995 1.38801 0.558235 0.230583 -0.634965 0.83558 -0.00983522 0.727917 -0.243009 -2.25886 0.133019 -0.895394 0.00506753 2.05433 -1.32045 0.0989347 0.0687216 0.177163 1.31377 0.100509 -0.578898 -0.999829 0.293714 0.455974 -0.145632 -1.76772 -1.11194 1.90296 -0.164963 1.53657 -0.791739 0.213216 1.5355 -0.490133 0.357545 -1.45124 0.287488 -1.53801 0.459268 -0.196947 0.500324 1.62572 -0.760453 -0.851636 -0.495231 -0.176584 -0.29713 -0.810411 0.371493 0.166944 0.111693 0.258965 0.877322 -1.07299 -1.22147 0.472175 -0.948166 -1.28194 0.160275 0.742118 -0.940689 0.491715 -0.841065 -0.343353 0.450017 -0.709431 
-0.535271 -1.34586 -1.22454 0.0112916 -1.66425 0.217481 -0.245005 -0.775674 0.358926 0.237718 -1.36779 0.92031 -1.22172 -0.423368 -0.00743722 0.220081 0.328043 -0.873006 0.708509 1.60658 0.127916 0.253508 -0.827504 -0.56969 -1.0702 -0.152126 0.221823 -0.187666 -1.31804 -0.342779 0.945553 0.30871 0.310443 0.132292 -1.07759 0.00640924 -0.0228224 -0.302444 0.377481 2.00559 1.59174 -1.48314 -1.30516 -0.277114 0.578464 1.27365 1.21932 0.0224561 0.171759 -0.0163628 0.690565 1.52159 -0.45456 0.980159 -0.833722 0.912993 0.342513 -0.484429 1.43417 1.05814 -0.739419 -1.68826 0.446259 0.746337 0.900179 -0.640932 -0.626497 0.30423 0.252272 0.47631 -0.47919 -0.634249 0.107947 -1.15721 -0.146468 -2.15347 0.168058 0.505091 2.54976 0.279901 0.330444 1.50285 -0.719758 -1.0383 0.46286 -0.201571 1.42201 0.0213192 -0.906297 0.234985 1.14327 0.324034 0.790622 -0.167897 0.0135739 -1.09696 -1.21374 -0.663633 0.727681 -1.18483 
-0.767634 -0.590112 -0.120477 -0.794881 -1.03548 0.0725899 -0.949177 0.307987 0.868409 1.58748 -1.62905 0.92424 1.11408 1.1478 0.469617 0.193766 0.886256 -1.15421 -0.64609 -0.546195 0.901383 -0.932387 -0.358413 -1.38375 -0.943851 0.794781 1.05392 -0.169538 1.09724 0.726088 -0.394251 -0.763647 -0.377934 0.406421 0.33175 0.351878 0.139523 -1.17762 -0.619651 -1.58204 0.256577 -0.734923 -1.2554 -1.23818 -0.256503 -0.737243 -0.223702 -0.290762 0.831886 -0.144594 -1.35935 -0.788413 -0.0277783 -1.18283 2.11383 -0.959559 -2.86516 0.113868 -1.45438 -0.942973 -0.564273 -0.134516 1.1451 0.124873 -0.447133 -0.874081 -0.556804 -0.164387 0.588547 0.434388 -1.39915 -0.67648 1.47534 0.916235 -0.537795 0.446696 0.216867 1.51447 -0.623374 -0.626219 1.77519 -0.629257 0.512129 -0.8887 -1.5014 -2.32003 1.20984 0.0415991 0.391614 -0.882646 0.59728 -0.0418909 -0.439382 0.326565 -1.17585 1.09334 -0.142538 1.72207 0.193925 0.131795 
-0.178551 0.665846 -1.76829 -1.30131 -0.213264 -0.0668014 -1.18448 1.50272 -0.137646 0.698796 -1.0561 1.12131 1.88772 0.224114 -0.460208 0.850737 0.552187 -0.434793 0.579384 -0.966876 -1.17004 0.671466 -1.19482 -2.26153 0.924355 -0.31169 -0.221325 -0.624422 0.135027 1.1905 -0.403247 0.0271777 0.604375 -1.02536 1.52116 0.554519 -0.0546929 -1.01773 -0.715941 0.704556 -0.222399 -0.165592 -0.636493 -0.964579 0.803809 -0.00718326 -0.145289 -0.272063 0.00349212 0.00425432 -0.844719 -0.511584 0.631217 1.80553 -0.417946 0.254934 0.334898 0.623981 0.926589 -0.721048 1.00504 0.613326 0.253381 0.244602 -0.543862 0.776845 1.17487 2.2639 -0.729696 -0.330186 0.979301 1.12306 0.0811855 -1.40352 -0.264401 1.32235 -0.0986317 0.816783 -0.507143 -1.22347 -0.196281 -0.824785 -0.0389777 0.603874 0.417421 1.29343 0.408978 -0.0683717 -0.477099 -0.430267 0.221265 -0.814153 0.249679 0.734952 -0.474191 -0.00725888 0.496321 -1.38936 0.482434 -0.308501 
1.9085 0.282612 0.985423 -0.932239 -0.421603 0.147238 0.463923 -0.383095 -0.862725 -0.271652 2.22415 -0.359597 -0.963567 1.46188 0.31055 -0.041118 -1.34284 0.484472 -0.817885 0.826334 0.258098 -1.34106 0.103309 -1.32199 -0.572219 -1.81633 -1.15573 1.08588 0.78563 -0.568306 1.39321 -0.422932 -0.536913 -0.198611 -0.301886 0.778236 -1.09805 1.1164 0.139015 0.714459 -0.968354 -1.57308 -0.18081 -1.14598 -1.05304 0.284844 -0.181821 1.20227 -0.171387 -0.402281 -1.43704 -1.75885 -0.687386 -1.07893 0.984426 0.952135 0.872413 0.905024 -0.729737 -0.225298 0.288823 -0.990292 -0.779936 0.459194 1.71053 -0.146666 0.609075 0.628532 0.356256 1.99089 0.792046 0.377086 -0.129066 0.76818 1.08745 1.38506 -0.44265 -0.560851 1.76092 0.497826 1.6217 0.215612 1.30797 0.835125 0.643369 -0.438994 0.794021 -2.023 -0.240782 -0.107756 -1.08242 0.455904 0.359295 -0.0612445 0.178613 0.177816 -0.477025 0.281431 -0.162186 1.17885 
-0.873607 -1.37607 -0.450386 -1.11998 -0.751146 -1.18893 -0.668503 0.458376 0.31753 -0.414206 -0.211675 -0.393929 -0.0827044 0.338585 0.432642 0.18583 0.211266 1.26236 -0.575741 -1.16788 -0.38051 1.03514 0.941881 -0.973243 1.26454 -0.0631445 0.621976 -0.136261 -0.424216 -0.734152 0.678918 -1.13941 0.455817 0.377214 -1.42678 -0.780722 0.347076 0.664722 0.971861 0.901375 -0.017302 -1.34738 -0.0369212 -0.352513 0.102802 -0.275589 -0.772573 -0.0626689 0.105752 -0.458051 0.386547 -0.282847 -0.140308 -0.426202 -1.71664 1.44712 -0.284048 -0.24394 0.31114 -0.145953 0.512402 -1.36149 -0.179243 0.318578 -0.342976 -1.13994 -0.3849 0.166111 -0.0220532 1.12224 -0.279004 -0.420694 0.544864 -0.01217 -0.0144841 -0.491067 -0.521058 -0.500428 0.37773 -0.816838 0.909837 -2.51759 -1.29837 -0.918709 0.407816 -0.364415 0.337225 0.243045 0.49159 0.222653 -0.642884 -0.505498 0.0187123 -0.0255518 -0.591637 0.739579 -0.516562 0.478309 -2.18951 0.040849 
-0.555293 0.56681 1.00262 1.14051 0.746104 0.601462 -1.09533 1.79919 1.01701 0.966012 -1.21789 -0.399889 -2.03314 0.88289 0.452531 -1.15865 -0.0921448 -0.180695 0.260002 0.599847 0.485969 -0.164292 -1.39969 0.499179 -0.250353 0.275238 0.468841 -1.52258 -0.553575 0.49952 0.280654 0.0109791 -0.174971 -1.37668 1.7637 0.548641 -0.698248 -0.379923 1.15497 0.898662 0.388393 -0.614968 1.40466 2.01932 0.364692 0.220645 0.216167 0.336017 -0.837144 -2.96737 -1.07018 -0.0376585 -0.34678 -1.52139 1.46301 0.68207 -0.237412 -0.650869 -0.671264 2.34005 -0.301182 -0.283116 0.315332 -0.636846 0.592663 0.240032 0.0632686 -0.141456 -0.444814 -0.700092 0.538666 -0.658214 0.367866 -0.872482 -0.992336 -0.79734 -1.39885 -0.961346 1.35139 0.188635 0.259781 -0.653706 -0.646138 0.152216 -0.957158 1.36177 -0.746814 0.0010108 0.033541 -0.455475 -0.559731 0.271967 0.598609 -0.412311 -0.769198 0.542339 -1.89929 -1.22527 -1.10029 2.07392 
0.0131975 -0.546585 1.70195 -0.0759084 0.177844 0.288254 -0.0874671 1.77011 -0.669838 -0.235781 -0.239664 0.276266 0.522305 -1.17541 0.00763217 -0.867661 1.03974 2.50533 0.931899 0.711003 -0.243787 1.34862 -0.170615 -0.230824 -0.128876 -0.547773 0.962049 -1.321 0.428792 0.134583 -0.239689 -0.0559733 -0.303098 -0.871155 -0.450068 1.25015 1.08933 1.03984 -0.359096 -0.0682009 -0.955686 0.577358 -0.738082 -1.61669 -1.08127 -0.586473 -1.84731 -1.23447 -0.290124 -0.22474 0.499772 1.23318 0.914105 -0.572936 1.01545 1.00593 -0.0441634 -1.07238 0.0921534 -0.812883 -0.0894902 0.304022 -0.762201 -0.697989 0.00758066 -0.626557 0.473533 0.450234 -2.09336 -0.232093 -0.363884 0.202404 -0.469339 -0.798604 2.05493 -0.177107 -1.04086 -0.885203 0.521932 -1.43553 0.237361 -1.56949 -0.124712 -1.66578 -1.22139 -1.58812 -0.352906 -0.960424 0.0622529 0.680366 0.470272 0.0581284 -1.15901 0.0945227 1.15213 -0.113955 0.41024 -0.689179 -0.602824 -1.83993 
-0.0993445 -1.16541 -0.0238152 0.166462 0.395779 -0.00544021 -0.139223 1.05778 0.692153 -1.19713 -0.741398 -1.29139 -0.626264 0.664168 -0.802735 0.841683 -0.64559 -0.346635 -0.143445 -0.505245 1.41979 1.6675 -0.24413 -1.95496 -0.600034 0.912023 0.715137 -0.179894 -0.0257723 0.206983 0.369986 0.849969 0.709141 0.401669 -0.940963 -0.539478 -0.848133 -0.612319 0.0652161 -1.27856 0.609422 1.15216 -0.0322004 -2.00396 1.33682 0.486411 -0.282428 0.529913 -1.00269 0.581928 0.765593 -0.177685 -1.4259 1.19041 1.69968 -0.377935 -0.35705 -1.15224 0.0410241 0.381728 2.24367 -0.293613 0.44827 -1.44126 0.865829 0.430118 -1.01476 1.25718 -0.668213 0.685 0.6414 -0.652357 0.0652157 0.777101 0.752391 0.434289 0.0401232 -0.418768 0.00311283 0.513858 -0.802628 1.23195 -0.462588 -1.15703 0.593938 -0.798067 0.829258 -0.426118 1.36048 0.719209 0.229069 1.12666 -1.31714 0.408024 -0.76103 -0.909246 0.999295 -0.197378 -0.248157 0.182085 
-0.137007 0.401602 -0.439631 -0.038546 -0.818604 -1.03751 1.81654 -0.140202 -0.00624584 -0.942412 1.42678 -0.897024 0.82073 1.06852 -0.962205 -0.476539 0.882095 -0.591689 -1.18782 0.413562 -0.0454164 -0.840573 1.58475 0.855588 1.09213 0.762748 0.719644 -0.627156 -0.695949 -0.0934055 0.748169 0.544852 -0.154458 -0.829277 -0.0701803 -0.583963 0.775149 -0.800301 -2.39057 -0.760035 0.808809 1.01795 -0.0616145 -0.665114 -0.816827 -0.603149 -1.28666 -1.97251 0.322856 0.382641 0.69281 0.425929 0.848445 3.4859 -0.520773 -0.735794 0.83564 -1.53713 -0.182961 1.20722 0.614815 -1.53464 -0.611252 0.268214 -0.147862 0.8627 2.31274 1.38821 0.0801181 1.4087 0.172006 -0.520281 -0.340453 -0.724531 0.535101 0.19569 -0.620328 -0.232916 -0.124665 0.239308 0.389911 -0.572167 -0.20407 -1.44883 -0.856005 -0.44408 1.48674 -0.16579 0.171412 -0.585504 -0.209885 -1.68832 -1.58171 0.459094 1.92022 0.273028 0.0898466 1.60461 0.707448 -1.31078 
0.541381 0.268525 -2.68043 0.585263 0.780112 0.861225 -0.711776 0.655868 -0.176838 0.336464 -1.61824 -1.65242 0.515928 0.406627 -0.212164 0.350608 0.127918 -0.659148 -0.685458 0.551032 -0.171903 0.667409 -1.34787 0.932579 0.793697 -0.790596 0.379996 0.158694 -0.139268 -0.909484 -0.251733 -1.63229 2.98769 1.61723 0.362725 0.838149 0.153947 0.0115626 0.581509 0.0535347 -0.625418 -0.328411 1.20778 0.307723 -0.660924 -0.154693 1.0067 -0.484464 1.89345 -1.17618 1.62308 0.726614 1.22983 0.0400654 -0.488082 -0.852373 0.87257 -0.839529 -0.514611 2.43048 1.58189 1.17746 -2.20976 -0.842294 2.14441 0.0627968 0.93368 1.50679 -0.0131181 0.53482 -0.13888 0.195001 -0.22523 0.345389 -0.169408 0.215935 -0.558171 0.235354 -1.91962 0.868749 0.973381 -0.458406 -1.12052 0.0999507 -0.0554528 0.900873 -0.349922 -0.456101 0.965482 1.53818 -0.548647 0.347158 0.803788 1.57577 -0.955882 -1.36529 -0.10418 -1.00954 1.8891 -0.0954645 
-0.886066 -1.24688 1.18443 0.46314 -1.11969 0.935079 -0.529536 0.899831 0.632287 0.247857 0.0391164 0.928335 0.276125 -0.854535 0.485365 2.07768 0.779836 -1.05422 -0.788301 -0.277009 0.360892 -0.717274 -1.51064 0.176519 -1.23245 -0.666515 1.03135 -0.679378 -0.0843662 -0.921165 -0.586569 -0.626475 -1.35263 -1.99064 -0.213874 -0.0477484 -1.32264 -1.5935 -0.035311 1.43232 0.230039 0.881091 0.786235 -0.446914 2.37735 1.09327 0.0196045 -0.463018 -0.849121 -1.63585 -0.816929 0.0621553 1.0424 0.165752 -0.509835 1.49439 -1.1818 -0.661547 0.258987 -1.45445 -0.892405 1.44067 -0.228407 1.6197 0.432304 -0.572251 -2.5141 -0.348361 -0.190107 -0.921114 0.153503 -0.381678 0.928961 -0.984433 -0.342627 -1.6603 0.619448 -1.17311 -1.20974 0.639283 0.560717 -0.087108 0.157809 0.783023 -1.30131 0.563502 -0.428417 -0.391109 1.0925 0.862113 1.77518 -0.353414 -0.853971 0.909989 -0.239451 0.90016 -2.2644 -0.415592 -0.37898 -1.7852 
-0.109888 -0.541962 -0.582669 -0.346161 -0.689615 1.13789 -1.52773 -1.61097 -0.428468 -0.684034 0.044664 -1.83302 -1.10267 -0.722912 -0.691695 0.172539 0.170371 1.24415 1.52888 0.125545 -1.83454 0.358743 0.879069 -0.50783 1.6199 -0.978763 0.832306 1.71207 -0.0460992 -0.73592 0.661677 -0.451811 0.700804 -1.79076 -0.759059 1.34583 0.117452 -0.256494 0.93516 0.221235 1.27158 -0.108839 1.09497 0.055816 0.111374 1.61213 -0.715484 0.782877 1.11101 0.44343 -0.516488 0.499141 -0.365841 1.3662 -0.346274 0.895811 -0.636447 -0.756236 -1.17184 -0.156606 -0.213975 -1.39573 0.186361 0.275303 0.134245 1.4278 0.726853 -1.20253 -1.03239 -0.0591984 -0.216232 -0.482395 0.735702 1.46781 1.19643 0.19938 0.0257325 0.350113 -0.266628 -0.820643 -1.05113 -1.0148 -0.0518852 0.786907 -0.801887 0.727985 0.140161 1.3822 0.335247 1.02526 0.31016 -1.44454 0.78679 -0.45133 0.108745 -0.127692 -0.455962 0.489297 -2.25688 -0.97815 
-1.46976 0.110708 -1.23478 0.355398 -0.719702 -1.23798 0.352392 -0.138333 -0.650546 1.16185 0.5768 -0.127063 1.1607 0.408893 0.742193 -0.196686 0.721898 -0.0519192 0.111758 -0.0170853 0.276404 -1.08823 -0.214076 0.228889 -0.115351 -0.189305 1.54623 0.190449 0.619302 0.869309 0.235646 0.0292565 -1.30391 -0.0853072 1.02469 2.30685 0.497192 0.122713 -1.41621 1.85791 0.114634 0.042615 -0.00477166 0.100689 0.936575 0.423455 -0.221734 -0.644221 -0.894204 -0.798039 1.07166 -1.17579 -0.0182703 1.00707 -0.441792 -0.324444 -0.591754 -0.573091 2.25169 0.229293 0.0948162 -0.150996 -1.23127 0.104179 0.286862 0.704157 -1.63808 -0.365441 -0.351729 -0.586786 -0.981539 0.636963 -0.0488249 -1.19866 -0.114719 1.04942 -0.608835 -1.86937 -0.581618 0.666313 -0.0541748 -0.343062 -0.31588 -0.640949 2.40671 0.086501 0.794057 -0.557949 -0.49756 0.192031 -1.21491 -0.532142 -0.751017 -0.143057 0.836329 -1.20266 1.34102 -0.402782 1.04062 -0.516423 
-2.51995 -0.930605 -0.740789 0.748155 0.258252 -1.65076 1.08526 2.08719 1.53584 0.393299 -0.80142 1.63809 0.340022 1.00916 -0.485945 -0.275969 -1.09829 0.318033 0.551254 -1.44271 0.500355 -0.428873 -1.37365 -1.63471 -0.78173 -0.634311 0.238885 0.336754 0.169952 -1.1741 -0.37281 -0.117645 -0.770877 0.567832 -0.901218 0.0157887 0.0871256 0.459004 -0.496964 0.940416 0.798626 0.0416205 -1.27002 0.743553 -0.0964456 -0.900308 0.185085 0.323953 -1.38174 0.481534 -0.486136 0.903356 0.987631 1.58522 -0.767052 1.18577 0.231962 0.153344 -1.11677 0.893069 -0.344834 -0.55726 -0.108896 0.230181 -0.378317 0.286493 -0.921444 0.62071 0.589993 1.07166 -0.383637 0.339241 -0.828436 0.719967 0.651942 0.180239 0.0320218 -1.24427 0.356301 0.946043 -0.103816 0.151558 -1.40284 0.536677 1.04663 -0.478731 0.365455 0.574233 -0.856243 0.341178 -0.942251 -0.582705 -0.154099 -0.629805 -0.20112 -1.02589 0.261102 -0.664409 0.0261151 -0.687305 
1.664 1.99218 -0.537832 0.261615 -0.125462 -0.365937 -1.29624 2.64293 0.574044 -0.259731 1.37572 -0.344118 -0.230652 0.649403 1.19587 -0.0174985 -1.3994 -1.84843 -0.817152 -0.261451 -1.13662 0.461322 0.958101 -1.93784 -0.00292048 0.131205 1.66736 -0.285717 0.0179111 0.634231 -0.0490001 1.33493 0.443464 -0.317444 -0.6941 -0.875754 0.300751 0.0288794 -1.16715 -0.659067 1.95905 0.273209 -0.0479302 -0.358362 0.291065 0.994993 1.11747 -0.231811 -1.49957 -0.256563 0.525957 -0.855174 -0.228578 0.62535 -1.50489 -1.83756 0.0431551 -1.34113 1.21406 -0.286217 -0.916216 0.257617 1.09033 0.578144 0.62454 0.884638 -1.20326 -1.34997 0.1866 -1.21087 -0.428043 -0.0502298 0.246507 -0.346964 -0.478959 0.422457 -1.08235 1.49046 -0.654941 1.42899 -0.703665 -2.52799 -0.465458 0.564516 0.475581 1.70135 0.156341 -0.0477041 0.32158 1.62887 -0.0155501 -1.49901 0.261529 1.10643 -0.206986 -0.519146 0.410115 0.687453 0.244977 0.215666 
0.218751 0.131139 -1.35342 -0.746506 -0.0884744 1.67449 -0.591536 0.0910936 0.340431 1.39127 0.497865 2.26205 0.712666 0.842433 0.0612781 1.19111 0.834112 -1.18151 0.869643 -2.14101 1.11102 1.18042 -1.15316 0.467388 1.09659 2.60658 0.856079 0.840322 -1.19248 0.0999273 0.737169 0.00251605 0.334399 0.0879417 -0.368385 -0.0891996 0.428098 0.144902 -1.59617 1.1101 0.0541018 -0.0830163 2.26337 0.876994 -1.92252 -0.46148 -1.14979 -0.561619 0.474643 -1.17113 1.17513 1.04979 -1.11205 -1.6278 1.12863 -2.19209 0.0559412 0.731673 -0.559872 -2.10948 1.02333 0.42189 1.55001 1.58323 0.318889 -1.47782 -0.468988 -0.28571 0.660023 0.584437 -0.152868 -1.2584 -0.0429654 1.00866 0.18644 0.0364423 1.15492 -0.636824 0.569651 1.15768 0.348047 0.402393 0.545943 -0.738514 -0.333589 1.06513 1.18131 -0.0854107 -1.03096 0.796611 0.562679 -0.559321 -1.60291 0.111951 -0.0252818 0.822722 -1.58353 -0.334533 -0.598445 0.0737359 
-0.675432 0.0148314 0.0892525 -0.222974 1.60943 0.312191 0.192426 -1.61778 0.591292 -0.268639 -0.598683 0.714925 -0.117194 -1.10005 -0.285543 0.228892 -0.369451 -1.98173 1.03177 1.14763 -0.823661 0.0108703 -0.464978 -0.542606 -0.941346 0.117432 -0.0533608 -0.600427 0.27787 -0.78983 -1.03985 -0.476854 0.173551 -0.605083 0.69785 0.224015 1.13652 -1.64059 0.903304 -0.150223 -0.620251 0.0190342 -0.104022 -0.208718 -0.983333 -1.34414 0.417993 -0.00776582 -0.363796 -1.22276 1.34018 1.2775 -0.722906 0.551856 -0.178075 0.444107 1.48698 2.07406 -0.126658 -0.256527 1.13159 1.74924 0.534367 -1.14338 0.574437 -0.765211 0.954135 -0.130738 -0.0783558 1.14776 0.343363 -0.298508 -0.461157 0.409451 -1.3997 -0.100883 0.42675 1.37942 1.11116 -1.67793 -0.662557 -1.18672 0.294025 1.41396 -0.487927 -0.569407 0.861859 0.128539 0.702976 0.124592 1.36204 1.55543 -0.0131867 -0.349488 0.492284 0.471517 -0.970032 -0.680289 -0.899115 -0.278473 
0.301207 0.0419209 -1.3026 -0.383126 -0.574076 -0.393969 0.59134 1.14255 0.540374 -0.452703 0.428897 1.63185 -1.37721 -2.52415 2.38822 1.41692 -1.08418 -1.54417 1.27436 1.15352 0.26747 -0.887095 0.00505583 0.203613 -0.0144032 -0.859977 0.203801 0.2707 0.630007 1.00986 -1.8292 0.233225 0.265549 0.507976 -0.30085 -0.170705 -0.951183 -0.815674 -1.56463 1.01618 -0.0364106 -1.13922 1.05411 1.01897 -0.522886 0.363586 -0.0950151 0.926779 0.363442 1.04337 0.14837 -0.386741 -0.595036 0.73188 -2.40285 -1.70084 0.384587 0.455362 -0.844045 0.900625 0.749105 -0.365659 -0.549675 -1.56665 -0.242793 0.817489 -1.13041 -1.51744 -0.124776 0.224721 0.547418 0.364748 1.1829 1.27096 -0.290518 -0.308898 0.132456 0.980647 0.455365 -1.66723 -0.391196 -0.14584 -1.17195 -1.0156 0.158344 2.27033 -0.436024 -0.243894 -0.948006 0.468942 -0.578647 -0.780247 -2.4928 -0.253281 -0.207019 -0.712986 -0.839903 1.27237 -0.376972 0.690942 
-0.566444 -0.935128 -2.26688 0.225829 -0.251249 -1.01996 0.565427 1.25927 -1.45729 -0.484972 -0.112832 -1.73128 -1.56008 1.37802 -0.190703 2.38671 1.42519 -0.0760698 0.0837425 -1.17153 -0.493232 -0.673101 -0.851403 -0.392706 0.733058 -0.58572 -1.20632 -2.19468 0.373453 -0.423489 0.484826 0.312 -1.29546 -1.33806 0.667499 -1.21244 -0.592588 -0.00707061 -1.02693 0.531743 0.700506 0.207338 -0.678985 -0.00278075 -0.308191 0.946288 0.792164 0.861142 0.119445 -0.880034 1.48702 -0.865386 -0.554076 -0.292718 0.0658153 0.142381 0.644194 0.0317221 0.738391 -0.012129 0.354708 -2.05238 0.74994 -0.678808 1.3605 1.12339 0.435129 0.309393 -0.0792684 2.18526 -1.48552 0.0928246 -0.78273 -0.219269 -0.0292279 -0.76705 0.722511 -0.253934 -0.680829 -1.17425 -1.16136 -0.719407 -0.0455072 -0.559675 2.1544 -0.468657 0.993212 -0.234767 0.284973 -0.135737 0.826994 -1.22868 -0.203574 1.29494 -0.663619 -1.30683 0.183023 -0.990413 0.859419 0.920914 
-1.03212 -0.235594 0.26796 -1.33955 -0.58008 -0.119259 1.78951 0.00139273 -0.184995 -0.799183 -0.419215 -0.908466 -0.199106 -0.0802619 0.518058 -1.11521 0.142402 -0.288641 -0.738466 -0.819003 0.317923 1.84735 -1.29317 0.0795289 0.258226 0.479345 0.746918 -0.735438 -1.62241 -0.414985 0.361909 0.69276 -0.423527 0.596416 0.0224185 -0.940592 -1.45092 -0.0160795 1.28299 0.982458 1.14583 0.569463 0.550678 1.13974 1.01568 -0.292867 -0.694547 1.60813 1.29615 -0.454801 0.279266 0.582578 0.526855 0.498702 -0.125386 0.290836 1.03748 -1.43768 -0.142904 -0.0563729 -1.00692 1.42763 -0.871619 -1.35679 -1.10828 0.347077 0.251529 -0.202293 0.259482 -0.058064 0.247933 0.0481231 1.00581 -0.0468355 1.12461 -1.51916 -0.0426935 -0.0212489 0.712178 1.65946 -0.0101816 -0.415481 0.604266 0.28585 1.73857 -0.403397 -0.808082 -1.20911 1.04553 0.0184686 -1.00722 -0.0520265 -0.0801235 -1.10908 1.42932 0.899656 -0.251026 -1.94626 0.301429 0.343962 
-0.872938 -0.79593 -0.996216 0.714475 -0.453425 -0.650395 -0.378454 1.30675 0.044248 0.0313226 -1.02189 -1.55483 -1.31173 0.21527 0.678868 1.79961 -0.486434 1.07236 0.363116 0.956226 0.0368627 -1.12013 -0.0630488 0.155655 0.810574 -1.46221 -0.416524 0.0460014 -0.694759 0.727241 -0.179426 0.0636896 1.11706 -1.66333 0.714129 0.628518 1.70602 0.525193 -0.867381 -0.0960296 -1.35023 0.585797 0.622813 -0.0864642 -1.69502 -0.198465 0.742555 0.620916 -0.0365287 -0.234017 0.0417036 0.60192 -0.667223 -0.397116 -0.327112 -0.246483 -0.227154 0.371406 0.256526 0.556899 -0.891594 0.96245 -1.48493 -0.0583815 0.709178 -1.04976 -1.09529 0.0270333 0.299571 0.473353 -0.0978577 -1.23763 -0.553549 0.751216 -0.00611082 -1.25896 0.846738 -0.765755 -0.766059 -0.148323 -0.774782 0.374864 1.52457 0.00331066 -1.36157 -0.194507 0.696207 0.0787096 -0.151163 -1.33518 -0.974268 0.23206 -0.261285 0.950742 0.377047 -1.24256 0.692907 -0.805479 -0.35588 0.400543 
-0.628529 -0.720934 0.845061 -0.106967 -0.00787221 0.730416 1.2172 0.872181 -0.311885 0.245617 -1.28038 -0.629572 0.74342 0.652646 0.0587465 -0.744008 0.0310169 -0.105428 2.09924 -0.157871 -0.484381 0.113359 2.00751 0.108032 -1.93885 -0.526228 0.248255 1.23002 -0.305521 -0.36888 1.04487 0.0904078 0.401879 -0.92986 -0.817732 0.646645 -0.319838 1.05414 -0.490671 0.874668 0.144014 -1.57078 -0.265412 0.160603 -2.79406 0.241905 -1.61278 0.724716 0.91888 -0.454153 1.61069 -0.579427 -0.148215 0.533767 -0.894359 0.806031 0.292204 0.979339 0.839025 -0.328164 -0.611322 -0.951668 -0.869221 -0.873944 -0.40555 0.238468 -2.19571 1.49401 -1.78302 0.154929 -0.818638 -1.5354 0.242773 0.758542 -0.608497 -0.57322 -0.071241 0.0379485 -0.300218 1.71909 -1.08636 0.419616 -0.729174 0.148769 -0.647334 -0.31443 -1.09674 -1.62357 0.748627 -0.234613 0.825537 0.161426 -0.45864 -1.12197 0.420533 1.01449 -0.871645 1.00862 0.787977 -0.642985 
-2.05913 -1.41005 -0.924668 -1.72512 0.830721 0.227521 -0.187935 0.791175 0.0805423 0.554452 1.54676 -0.053382 -1.04056 -1.1279 0.530656 0.033345 0.326337 -0.865158 -0.829182 0.704531 0.00589436 0.335136 0.884889 0.0823358 -0.99269 -0.372126 -1.24786 -0.104339 0.273956 -0.855088 0.2231 -0.411617 -1.10782 -0.0278827 -0.0605013 -1.28929 0.842814 -0.0437524 -0.463402 0.332246 -0.187554 -0.932827 1.10268 -1.12263 -0.545613 -0.121653 -0.375856 -0.627157 0.341317 1.10393 -0.46113 1.131 1.19279 2.11617 -0.105132 -0.16543 -0.0994365 0.161649 -0.560641 -0.0445267 0.00817336 0.351763 -0.347893 0.329178 -0.00722081 -0.461457 1.86594 0.948815 0.532249 0.684085 2.17329 -1.45452 -0.164603 1.2107 -0.749884 -0.783596 1.90612 -0.484772 -1.80513 -0.0454501 0.531636 -1.08988 0.197225 0.438808 0.930837 -1.01127 -0.115609 0.158386 0.817996 0.554073 1.02897 -1.44761 -1.82878 -0.194408 0.301933 0.00601566 -0.0467763 -1.2906 1.41951 -0.0320071 
1.08026 0.634583 -0.172504 0.0484753 -0.369537 0.172785 0.722737 -0.20087 -0.866544 0.413871 -0.694952 -0.569841 0.169466 0.843043 0.590762 -0.389218 0.682114 0.728798 0.674168 1.97214 0.104733 0.0609696 1.38905 0.500342 -0.659774 -0.602254 0.0907166 0.366471 -0.788204 0.203877 -0.0981461 -1.37136 0.670544 -0.12614 0.799855 -0.851965 0.986399 -0.71724 0.63476 0.263794 -0.373275 1.75905 0.19898 0.309563 1.11733 0.361541 0.905128 -1.20973 -1.18451 -0.545945 -1.46377 1.75491 1.17959 -1.02254 -0.0758572 0.30748 0.0896861 -0.180194 -0.126829 -0.678255 -1.0835 -1.02797 -0.444967 -0.247108 -0.345271 1.2463 -0.0755663 -0.912244 0.0341356 -0.311622 -0.536574 0.694521 -0.518831 -1.0165 0.515405 0.0837776 -2.45735 0.0224146 0.22717 0.248174 -0.636231 -0.473215 0.236911 -0.482621 -0.244593 0.143841 -0.274347 0.545861 -0.752399 0.948299 -0.454269 0.298213 -1.23335 -0.525529 0.00372403 -0.681028 0.772455 -0.237731 -2.37975 0.430492 
0.149693 -0.66607 -0.471054 -1.18925 1.96991 0.47524 0.328691 -0.995692 0.623539 2.5336 -1.24308 0.0657222 -2.44171 0.00590335 -0.514353 0.36937 0.386833 -0.2074 0.603878 -1.67291 -0.30546 -0.83889 -0.213741 0.850408 -2.2773 0.253698 -0.171624 -0.0427238 0.615549 0.612201 0.612563 0.464684 2.54723 -1.30421 -0.557204 0.321562 0.194294 0.814038 0.24039 0.819391 -0.480841 1.08043 0.0881334 0.323442 -0.0568497 -0.722542 1.67833 -0.493946 -1.36565 1.02552 0.279288 -0.768799 1.42479 -0.832616 -1.23029 1.28158 -1.31417 0.046894 -0.380425 1.19264 0.183735 -1.47514 -1.1786 0.97104 -0.889242 -0.555902 -0.513878 0.142411 0.466365 1.17422 1.17912 -0.61324 -1.70949 -1.22162 1.19644 0.947317 -1.21222 0.665112 0.640097 1.1456 -0.175434 0.205426 0.923135 0.695204 -0.553676 -1.25453 1.13267 -0.309465 -1.7626 -0.676185 -0.64729 -0.0968248 -1.26926 -0.697005 0.312255 0.414035 -1.19093 0.0872003 2.06685 -0.821574 
2.13802 -0.571923 0.617941 -1.52333 -0.4742 -0.733611 -0.0255729 0.35291 -0.25409 -1.87122 0.922833 -0.751935 -1.0532 0.642309 1.36309 0.992623 -0.352511 0.193584 -0.317303 -0.703943 0.778423 0.174662 0.411577 0.154985 0.669574 -0.797836 1.20813 0.129965 -0.446647 -0.317421 0.268521 1.51515 -0.847517 0.551536 0.803044 0.1251 -0.233663 -0.784627 0.130502 -2.41056 0.156388 0.793438 0.00778814 -0.420976 0.448397 0.514002 0.229504 -0.305528 -0.770618 1.42599 -0.548506 -0.744387 -0.114995 -0.087736 -1.27207 -0.672902 0.551651 -0.774296 -0.199599 -0.503457 -1.0787 0.386625 -0.582269 1.00593 1.09647 0.368947 0.448332 -0.19329 0.606609 0.59989 -0.833718 -1.65496 1.35968 -0.140267 -0.165572 -1.22472 -0.147881 -0.364451 -0.946867 0.623393 -0.60754 -1.99655 -0.88317 -0.614345 -0.110425 1.96875 0.631517 -0.397449 1.9041 0.547447 0.878434 0.359808 -0.107143 0.139701 -0.809514 -0.778228 0.52601 -1.10596 -0.474058 0.195795 
0.448833 -0.00888887 -0.139417 -0.57517 -1.6983 -1.13756 0.0345453 0.945238 0.0631662 0.227283 -0.746435 -0.785885 -0.633766 1.05197 0.737618 0.640976 0.414591 -0.949897 -0.501439 0.966179 0.354729 -0.44686 -0.165413 -1.28012 0.454546 0.106817 -1.04663 1.49763 -0.235585 1.26783 0.815281 -0.118411 -0.333354 -0.708335 -0.946541 2.56781 -0.77874 -1.30979 -0.0403505 -0.316094 -0.979805 0.130648 0.25273 -0.0351359 0.600852 -0.692898 0.149811 -1.27496 -1.58249 -0.337768 -1.06982 -0.622041 -1.09265 -0.770805 -0.422859 -0.0030669 0.153793 1.49378 0.284218 1.56052 0.996042 -1.46306 -0.493217 -0.458211 -0.205229 -1.42118 -1.82767 -0.501635 -0.504936 0.395947 -0.370752 0.843496 -1.07029 1.82649 -0.135405 0.0741538 0.870856 -0.928546 -0.678289 -0.952805 0.499356 0.411352 -1.73407 -0.828646 -0.53757 1.32139 0.28002 -0.154973 0.396408 -1.50255 0.311471 0.0995251 -1.25944 -0.117868 -0.385847 -0.0181425 -0.309529 0.424694 -1.2627 1.59536 
0.159867 1.75706 1.60842 0.891006 0.137614 2.07086 -0.395937 0.685363 -0.467429 0.928377 -0.128132 1.08369 0.0999306 0.914172 -0.0203052 -0.210689 1.36386 0.0906692 -0.179312 -0.316315 1.76478 0.89773 -0.100245 0.774669 0.982003 -1.65519 -0.00696387 -0.402225 2.99519 -1.65524 -0.33674 -0.321139 -0.560666 -0.609366 0.00991117 -0.0476268 -0.937861 0.602911 1.62146 1.36218 -0.985032 -1.3107 0.33597 -0.141128 -0.227394 0.462866 -0.596297 -1.4154 1.42279 0.864497 1.17619 0.0451601 0.108111 -0.381675 0.200627 1.39461 0.672969 -0.66929 -0.466872 1.01135 -0.217615 -1.34942 0.0219057 -0.494127 -0.450545 -0.139733 1.4212 -1.76881 0.106089 -1.03993 0.203857 -0.677012 0.0654468 0.360442 -0.268922 -1.11421 -0.544798 0.00354509 1.32909 -0.593156 -0.453742 1.31846 -1.66591 1.52515 0.206599 -0.610334 0.270928 -0.900746 0.305797 1.35332 0.756486 0.334978 -1.64746 -0.661467 -0.114765 0.997964 0.725484 0.141186 -0.450206 0.290041 
0.686374 0.128618 -0.661529 -0.906077 -0.220327 0.987453 0.0154041 0.390216 -0.134972 -0.646587 -0.603124 1.66954 -1.28258 1.70912 -1.92451 0.771014 0.704044 -0.231473 -0.0230814 1.80548 -1.17449 -0.936192 0.316209 -0.884457 -0.689541 0.312953 -1.3656 -0.876108 0.083145 -0.19671 0.729847 1.35674 -0.466189 -1.89131 -1.23894 0.710749 0.105572 0.38392 1.23961 -0.0634351 -0.809883 0.0251871 -0.171833 0.0323744 -0.0294377 0.351935 -0.196043 -0.0206526 -1.08977 -0.55678 0.736853 -1.79686 0.4084 0.573215 -1.08414 1.03097 -0.572016 -0.522036 -1.56921 -0.399846 -0.373436 -1.72015 -1.23491 0.0254759 1.3578 -0.0899235 0.064311 -0.179289 0.420896 -0.0245616 0.12729 -1.23914 -0.895195 -0.69219 0.781166 -0.316118 0.60706 0.065926 0.19198 0.227629 -0.299177 1.42212 -0.736304 -0.497713 -0.0509714 -0.158263 1.82578 -0.263605 -0.0178653 -0.261781 0.738823 0.349021 0.474162 -0.363564 -0.660066 1.16416 -1.30186 1.59894 0.718187 -0.0445628 
-0.429084 -0.700477 0.667089 -0.714003 -0.229273 0.879373 0.809145 0.190566 -0.826347 -0.22551 0.0419604 -0.277859 -0.0490531 -0.842417 0.289864 0.399605 1.12155 -0.894756 -2.03282 1.04073 0.694041 -1.00229 0.344412 0.0789149 1.03342 -1.32914 -0.283165 -2.00708 -1.57137 0.18633 -0.432077 0.015965 0.721024 0.284662 -0.370837 0.46526 -1.55783 -0.434319 1.32414 -0.247337 0.176843 1.42471 -0.0475043 1.10809 1.40667 0.51316 0.0579714 1.71674 0.509701 -0.62301 -0.0928211 0.452095 1.21507 0.547202 0.751952 0.934082 1.76106 0.217739 0.920669 -0.855704 -0.139007 0.656302 0.806691 -1.15837 1.24745 -0.075118 0.784783 -0.367334 -0.189047 0.887682 0.89353 -0.185443 1.47823 -0.284179 -0.202784 -0.990327 -0.290341 -0.166979 -1.14105 0.525527 -0.73367 -0.332157 0.58281 -0.0714543 -1.5871 -1.43239 -1.33406 -0.0446384 0.222345 1.27444 1.31004 0.324473 -0.811377 0.0782883 -1.80782 1.85842 -0.76232 1.13241 -0.214922 0.677682 
0.56581 0.628024 1.55214 1.10719 0.744794 0.837477 -0.873051 0.476098 -0.599456 -0.788287 1.90568 -0.0134549 -0.773133 0.424146 -0.566295 1.3828 -0.250969 0.524493 1.65692 -0.872087 0.241076 0.0155248 -0.580029 0.855643 1.08423 -1.27049 0.710253 0.577839 0.342341 0.565919 -1.05362 1.48454 -0.104057 -0.318245 1.88749 1.10598 -0.440602 0.580407 -2.39184 -1.67111 0.860754 -0.178522 0.185879 1.69657 -0.854309 -0.224481 -0.65847 -0.643621 0.817509 -1.03644 -0.453584 0.810004 -1.00273 -0.660895 0.497434 0.410159 0.750621 -0.616533 -0.590564 -0.925682 -0.0363747 -1.07127 0.89288 -1.08398 1.10945 -0.399964 0.960643 0.896526 0.0550636 0.618443 0.126006 0.121708 -1.14586 -0.640375 0.339459 0.163481 -0.544902 1.31556 -0.445496 0.447185 0.0391928 -0.522117 -0.784783 -0.703315 0.0593554 2.2209 -0.481386 -1.28502 -0.0826577 1.6596 -0.190714 -0.396673 1.88936 -0.347749 0.497615 0.26622 -0.836111 0.784277 0.66264 0.389229 
0.135616 -0.527394 -1.96858 1.6124 -0.182916 -1.0284 0.331098 1.63068 0.863402 -0.897769 1.19881 0.355065 1.64473 -0.501241 0.298732 0.126342 -1.02286 -0.966104 1.18883 1.19177 0.565041 -1.55946 -1.16299 0.619623 0.802852 0.790265 -1.75732 -0.187903 0.198642 -0.527114 -0.0373259 0.53876 0.0157673 -0.977397 0.790653 -0.644139 -1.10196 -1.63287 1.14063 -0.566352 -1.63247 -0.641781 0.15287 -1.66554 -0.175748 0.215739 1.90626 -0.397644 0.304435 -0.25235 1.51195 0.203901 -0.354315 -0.68996 -0.651605 0.864079 0.239474 0.0873438 -1.31868 0.605993 2.27433 0.277864 -0.55097 -1.45758 -0.0438436 -0.0141561 -0.000339582 -0.394702 -0.529821 0.109505 0.717664 -0.597699 -0.598876 0.706857 -0.496676 0.762697 -0.611503 -2.44409 0.608533 0.379088 -0.577605 1.52066 0.792183 0.341993 0.922067 0.512137 -1.53327 0.739832 -0.208964 0.268859 0.368377 0.612889 -0.275205 0.0271622 -0.642129 -1.07576 -0.463224 0.603329 -0.0611429 -0.403722 
1.37078 1.75996 -0.106452 -0.0484201 0.350082 -1.28892 -0.688241 1.09111 -0.0984212 -0.293562 -0.674659 0.361302 -0.450988 1.96603 -0.231423 0.974487 -0.611863 -1.26634 0.439368 0.221615 0.352131 0.203247 0.205165 -0.0682721 -0.484308 1.29181 0.497168 0.377795 -0.554055 -0.677781 1.68032 -1.11594 -0.16475 -0.784678 1.77752 -0.0336909 -0.228589 -0.0892899 1.3681 0.987615 0.827914 0.569751 1.35602 -1.16504 -1.13096 0.0401282 -0.70148 0.183233 1.87787 0.374384 -0.0808656 -2.07867 -1.49713 -1.96978 -1.0727 0.00407441 -0.283617 0.00800202 -0.627458 0.237264 1.10595 0.189698 0.0163319 -0.0258451 1.04311 0.210206 -0.784608 1.13793 0.0652093 0.225486 0.42218 0.132823 1.74228 0.414097 1.21156 -2.32864 -0.255548 -0.707993 -0.226625 0.255361 0.0551196 -1.09489 0.97256 0.858704 -0.180563 -0.58402 -0.386213 -0.367882 0.624356 0.351468 0.45381 -0.390195 0.27283 0.461669 -1.55156 1.5878 -1.21674 -0.0621166 1.17791 -1.11574 
0.628919 0.711484 2.80827 0.798784 0.638619 0.390833 -1.52238 -0.976701 0.292451 -0.265461 -2.30106 1.36015 -0.653136 0.246442 0.982859 -0.208672 -0.869458 -0.155581 0.0645769 0.257854 -0.63762 0.451466 0.332937 -0.301938 -1.38765 -0.21199 0.97208 -0.417484 1.10131 1.47802 -1.5338 0.771248 0.659992 -0.438106 -0.201365 1.75331 1.56783 -0.93288 -1.18054 -1.51115 -0.948691 0.254272 0.670971 -1.33192 -0.511091 0.808483 0.174136 -0.454245 0.963042 -2.1523 -0.114879 0.886565 1.05556 0.395646 0.799083 0.0536538 -0.684532 1.18425 0.0344432 1.92568 -0.212714 0.826155 0.58434 -0.462819 -0.235045 0.0437187 -0.434942 -0.348958 -0.954229 0.668299 -0.504775 -0.118356 -0.29188 -1.3745 -1.12757 1.03769 -0.617206 1.15573 -0.667101 0.896276 -0.620278 -0.951169 1.55671 -0.935529 0.699213 0.719246 0.677236 -0.857591 1.01694 0.352669 -0.471269 -2.184 -0.647823 0.514493 -0.325944 1.29189 0.0872674 0.568196 0.211755 0.543954 
-0.878257 -0.86127 0.521508 -1.07288 0.0302276 0.668257 0.0439712 -1.61505 0.331901 -0.431839 -1.00089 0.432144 -0.383426 -1.19636 -1.53847 0.294892 0.766977 0.354979 0.532263 0.785575 -0.88685 0.00628371 0.3706 1.5066 0.104318 -0.583094 0.796417 -1.11408 -0.386289 0.456006 -0.275814 1.09843 -0.773907 2.25639 0.0453145 -0.65226 0.833869 1.07969 0.427123 -0.551224 0.081839 -0.155255 0.423495 0.773984 -0.19496 -1.96038 -2.39081 -0.946371 -0.239608 0.501291 0.174328 2.44995 -0.731549 0.412946 0.107952 -1.48133 -0.569562 -0.495166 0.772269 -0.85587 0.896254 -0.61788 0.800295 0.534479 -0.954574 0.645819 -0.497686 -1.08718 0.642097 -1.18573 -0.761172 -1.57878 -0.636942 -0.237367 -0.674959 1.38634 0.739867 -0.429595 -0.863587 -0.305187 1.37293 -1.73757 -0.791983 1.50384 0.621132 1.04297 0.618428 0.049029 0.466743 1.09946 0.829653 -0.369804 -0.0367196 -0.447316 -0.346607 0.0913858 0.272453 0.210814 0.0297333 -0.326303 
-0.462132 1.73931 -0.0988356 -0.158569 -0.792125 -0.70514 -1.9053 -0.208493 0.702382 -0.514812 0.67511 -1.25686 -0.313898 -0.928365 -1.80473 0.206027 0.344505 0.0836977 -1.10227 -1.43229 -0.399576 -1.73952 -0.321409 -0.460445 -0.648044 -0.0315269 0.445357 -0.0813075 0.889434 -0.0859627 1.58541 -0.323787 2.539 -0.752586 -1.11997 0.0195791 0.410149 -1.62299 -0.350657 2.31104 -1.56993 -0.190957 0.0192772 0.904248 0.1934 0.489933 -1.15816 -0.252492 -0.12254 -0.56098 -0.0839574 0.525994 -0.628711 1.04771 0.468566 -0.143113 0.0975745 0.620401 -1.14579 0.159759 0.770706 0.0134428 1.44763 -0.749818 -0.444021 -0.326978 0.107275 -0.557581 -0.352025 1.52363 -1.00938 1.23241 0.903701 -0.739394 -0.671358 1.73966 0.596686 0.281975 0.698993 0.881686 0.146736 -0.480411 -0.462531 1.36673 -0.634397 -0.908811 0.450475 0.390015 0.824878 -0.637544 1.13646 0.675048 0.0290508 1.87236 -0.0417068 0.246247 -0.644461 -1.15198 0.403809 0.355547 
0.725988 1.19813 -0.020454 -0.0391384 -0.356067 1.35689 1.01643 0.0652133 -0.0855613 1.34544 -0.556589 0.451491 1.50087 0.912676 -0.315307 2.015 -0.604083 -0.524638 -0.681275 0.0936853 0.665591 0.628434 -0.0417126 1.69655 1.54686 -0.76775 0.590234 0.708379 -1.11578 1.98071 0.932748 -0.237047 0.0249126 0.486458 -0.461148 0.0808908 0.630349 0.126663 1.64672 0.748509 -1.21966 1.07982 -0.721682 0.0130251 0.385747 0.108943 -1.11525 -1.12398 0.0265683 -0.155445 0.874784 -1.90415 0.81382 -0.830489 -0.155937 0.227555 1.4324 0.141002 1.01698 -0.615979 -1.05032 -0.384846 -0.819542 1.98402 0.858485 -1.01153 -0.648205 -0.2311 1.14668 0.640479 -0.356853 0.674876 -0.829222 0.903894 1.15664 -0.485717 -1.17662 -1.17667 0.714066 -0.853342 0.0137197 0.177048 -0.588348 0.959091 -0.447045 0.704567 -0.384405 -0.300071 -0.472449 -1.83896 -0.640854 1.10405 0.125471 0.973236 -0.0096606 -0.550865 0.766804 -0.120477 -1.81074 0.590732 
-0.264 -1.36391 -0.386353 -0.305061 -0.883609 1.23899 0.571843 0.0758043 -0.825005 -1.90527 0.520661 -0.884954 0.123363 -0.199009 -0.641433 1.01485 -1.09726 0.778031 1.31423 -0.211389 -0.315568 -0.481289 -0.767113 0.0789709 0.702169 -0.12185 -0.528272 -0.402132 0.239652 -0.593298 0.831961 -0.624203 0.151427 -1.60907 0.760455 -0.382616 -3.49641 -0.0205816 0.852676 -0.68142 -0.224308 -0.774867 -0.105428 1.04547 1.72045 0.346635 0.142361 0.0340102 -0.894542 0.317104 0.792875 0.622201 -0.253752 -0.714501 -1.03436 1.15158 0.507283 -0.607767 1.69503 -0.103688 0.366272 -0.769967 -1.15351 0.169477 0.00496989 0.136522 -0.219987 0.809225 -1.00111 -1.30392 -1.23946 -1.74138 0.338571 -0.985895 -1.44672 -0.673128 0.552105 0.0205887 -0.551482 0.756724 -0.592118 -0.640179 -0.0171149 -0.665496 -1.36741 -0.0167097 -0.378102 -0.945371 0.397811 1.57719 -0.453326 1.84046 1.2904 0.818219 0.45059 -0.648331 1.1245 0.420294 0.550115 -0.966927 
-0.213202 1.276 -2.10826 0.668518 -0.810413 -0.43276 -0.940028 0.85595 1.89388 -0.534214 2.3952 0.42618 0.509114 -0.141878 -0.118234 -0.850682 0.768064 -0.208583 -1.05842 -0.444718 -1.74123 1.55052 1.36695 -1.25508 1.93012 -0.22093 -0.168519 -0.163856 -0.817516 1.19692 0.520399 -0.109958 0.901621 -0.963888 -1.03999 -0.598901 0.362085 0.430511 1.1759 0.812257 1.39677 -0.0873255 -1.92203 -0.112279 0.158393 1.21636 -1.75135 -0.229599 -0.0774024 0.383302 0.0530233 1.24154 1.55418 -0.165288 0.565813 0.311711 -0.523887 0.226557 1.02522 0.212703 1.35974 0.0457646 0.458215 -0.547967 -0.145187 -1.3983 -0.701387 -0.0996279 0.275702 -0.00932264 1.06188 0.0291697 -1.87291 0.519602 -0.271558 0.779788 0.261391 0.681582 -0.571899 -1.51673 1.31055 1.16508 -1.21403 1.25204 -1.69319 -0.798424 0.272786 -1.75591 0.833064 0.430092 -0.0180951 0.97916 1.44046 0.781473 -0.095491 0.46162 -0.675356 0.475367 0.331414 0.621626 
-1.53525 -1.01445 -0.511329 -0.655407 -0.993229 0.374528 0.0183912 0.0327777 0.399821 -1.33051 0.401154 -1.74417 0.440208 -0.558544 0.0322031 0.243666 -1.11271 -0.208964 2.15207 -0.462962 -0.592147 -1.40944 -0.741763 0.286341 0.405477 0.364404 0.793542 0.0869576 0.443658 -0.110044 -0.411672 -0.116379 -1.82923 -0.0151241 -1.6021 0.165342 -0.027396 0.299367 -0.344479 -1.02245 1.21522 0.25211 1.27594 0.487724 -3.45301 -0.0608 -0.174811 0.893536 0.248265 -1.3202 -1.32857 -0.910787 -0.732837 -1.07557 0.676513 -0.610129 -0.559303 0.0952799 0.757227 0.0699435 -0.994751 -0.384019 1.16124 -0.845799 0.728272 -0.0864151 0.0064164 0.823716 0.066822 0.844894 -0.302531 0.469255 -0.110935 -1.39677 0.791517 -1.18455 -1.84257 -0.0632608 -1.83928 2.89427 0.667093 0.779989 0.6412 -0.167208 0.686828 1.13195 1.8442 -0.693078 -0.049434 0.0914464 1.05722 -0.310041 -0.26644 0.7987 0.779424 0.615908 0.884136 -0.116739 0.166187 -0.436259 
0.321406 -0.244746 -0.0130016 -0.137319 -1.0899 0.7467 -0.853568 0.117975 -0.899685 0.943313 1.08328 -0.305878 -0.192068 0.404316 1.71348 -0.330635 -0.201247 -0.877656 1.43239 0.120051 -0.34734 0.834886 -1.00168 -1.1003 -1.6596 -0.688083 0.761657 -0.321431 -0.920605 1.05205 0.706653 1.01172 0.764454 -0.696926 1.58839 -0.0749268 2.33134 -0.0919958 0.101154 -0.407269 0.434803 -0.901816 -0.0521507 -1.43524 -0.988464 -0.341163 1.82683 0.308645 0.0475118 0.963219 0.315757 -0.679805 0.103068 0.679185 0.972812 0.973975 0.292938 0.0392418 0.0883717 -0.808502 2.04399 -0.219687 0.871196 -0.0117787 -0.584684 -1.42896 -0.248582 -0.705532 -0.472672 -0.491964 -1.22063 -0.265861 0.122813 -1.12302 0.502128 0.624555 -0.432355 -0.394226 -1.36539 -0.882172 -0.457828 -0.525655 -0.0134112 0.378862 0.941504 -1.29398 0.19165 0.741053 0.336376 1.13415 0.00025362 -0.253077 0.78264 -1.50162 -1.293 -0.309662 0.772182 -1.41326 0.763524 -0.423229 
1.51039 -0.276626 -0.270587 1.14435 -0.481697 -2.00962 0.974745 -1.30631 0.750809 -0.205537 0.949762 -0.48729 1.30518 0.271919 -1.33164 0.506607 0.0778847 0.362518 1.57976 -1.31899 1.47909 -1.2121 2.45028 -1.09509 1.47994 0.251464 -0.489642 1.06961 0.745162 -0.838345 0.604376 -0.123591 0.368119 -0.416594 0.497118 -0.0863958 1.68252 -1.30041 0.253065 0.698119 0.446837 0.224502 1.15018 0.135954 -1.40357 -0.668334 -0.407382 0.203136 1.02176 0.512333 -1.69823 0.943147 0.331378 0.956227 -0.594391 -1.27651 1.09084 0.0807811 0.493368 -1.08138 -1.23315 -0.0977451 1.45193 -0.744055 -0.354233 -0.535381 -0.404813 -0.304226 -0.319484 -0.69418 1.25932 -0.424942 1.26199 -0.421026 -0.0944671 0.562348 -0.222653 1.1812 -0.239142 -0.752028 -1.35764 -1.03428 -0.588799 0.369331 1.51317 1.52036 0.449337 -0.709022 0.522668 0.621247 -0.4811 0.370648 -0.616581 0.817148 0.231384 0.376278 0.684684 -0.340079 -0.269547 0.874117 
0.0999436 -0.853709 0.0237325 -0.242805 0.0520102 -0.40314 -1.88314 -1.24788 0.0476634 0.935224 2.19128 1.02717 1.01746 1.49481 -0.935072 -0.592533 -2.0256 0.00268151 0.819414 -1.43586 0.815552 -0.0731591 1.37639 -0.405477 0.12247 1.49081 1.89211 -0.336476 0.45021 -0.201626 0.937317 -1.00184 -0.0610152 1.59369 0.989719 1.06915 0.149494 -0.796911 0.143004 -0.143696 -0.71212 1.10199 -1.59606 -0.364374 1.00409 0.108897 0.0237554 -0.392327 -0.771383 0.136843 0.11285 -0.417951 0.845306 0.186391 0.0302257 1.1546 1.72065 0.402838 0.406362 -0.868019 -0.902857 -0.41119 -1.24569 1.15191 -0.337519 -0.280377 0.280562 -0.89249 -1.50611 0.967867 1.79486 0.8677 0.723454 -0.916911 -0.0567539 1.29587 0.2679 0.203035 0.409766 0.371596 0.156412 -0.427543 0.614922 -0.19492 -0.295543 0.747937 0.243462 2.16795 0.131197 0.58306 -0.612217 0.933934 -0.465254 -1.79672 0.863071 -0.716433 0.585317 -0.206715 -1.43827 -0.126492 
0.516092 0.771525 -1.14577 2.43071 -0.362679 0.772294 -0.193889 0.359975 1.29342 -1.42338 -0.0451219 -0.226519 -0.476582 -0.346526 0.490118 0.486039 0.315427 -0.797593 -0.569765 1.80301 -0.126998 0.340024 0.610983 -0.863383 0.871504 0.857222 -1.13244 -0.416239 -0.826111 -0.503057 -1.19179 -0.966739 -2.74989 1.61347 1.92211 -0.731007 0.887922 0.0262503 -0.292086 -0.468725 -0.189493 1.98368 -1.19928 -1.15926 0.194725 -0.611746 0.366029 -0.298984 0.0745258 0.841751 -0.221606 1.86069 -1.26447 -2.17425 0.460765 -0.882585 0.0620457 0.142381 -1.13163 1.37953 0.512897 -0.586933 -0.953748 0.330124 0.857423 0.751797 0.750588 0.0634036 -0.102969 0.736849 -0.197314 0.00305038 1.61181 1.27788 -0.752126 0.197219 -0.528498 -0.37985 1.10671 0.45816 0.837606 0.402813 -0.722833 -0.211283 0.695992 -0.0907742 -0.254929 -1.56906 0.263389 -0.358538 -0.523053 0.860905 0.45293 0.880454 0.199655 0.161174 -0.108191 -0.489904 -1.25035 -1.04193 
0.0823637 -0.793952 -0.482357 0.692133 -1.69829 -1.09001 0.588249 0.346395 -0.5308 0.0120913 -0.534237 0.829782 0.692538 -0.286733 -0.083482 -0.664476 -0.751567 -1.27121 -0.0946097 -1.39328 -0.118122 -1.21403 0.270309 0.0633786 -1.17701 0.563376 1.86837 0.31654 0.39382 -0.703208 -0.701477 0.0731797 -0.0927636 -0.207078 0.109951 -0.638322 -0.666319 0.087586 0.396813 1.15803 -0.361405 -0.483912 0.670556 -0.452078 -0.9606 0.80913 -0.848663 -0.954007 0.0921906 1.03144 -0.368741 0.496931 -0.794156 -1.80894 0.318775 1.32252 0.20509 0.508299 0.201791 -1.32464 -0.570346 -1.25899 0.798861 -2.30816 -1.00665 -1.50876 0.409213 0.847513 -0.0306255 -0.263079 0.441163 -0.377526 -1.63496 0.639524 0.685412 1.2147 -0.677864 -0.0611236 -0.240734 -0.926742 -0.701594 0.761773 0.76758 -0.17626 1.27532 -0.165341 0.314466 0.0892692 -0.745819 -0.184004 1.17052 -0.169851 1.97866 -0.0913993 -0.425969 0.910874 -0.355763 0.42147 -0.27522 0.0522878 
1.25323 -1.00236 -0.470953 0.132861 -0.317208 -0.240757 -0.821314 0.761628 0.375621 0.596447 0.86571 -0.561919 -0.445884 -0.759625 0.81183 -0.835807 -0.631359 0.727147 0.35399 0.354479 -0.0614205 -0.729136 1.03591 -0.665256 -0.448922 1.14854 0.411323 0.366142 0.56065 -0.44038 1.77724 -0.791193 0.101442 -0.289696 -1.13455 1.83377 1.93058 0.913452 -1.37538 0.104121 -1.17805 0.298011 -1.03738 0.512042 0.745816 0.21913 0.539211 0.0760361 -1.39412 -0.0554878 1.00037 -0.360863 -0.379843 -1.10439 1.15285 1.20892 -0.674546 1.07947 0.768226 1.31577 -0.773537 -1.02799 1.18796 -1.05866 0.176626 -0.502627 -0.758875 -0.244051 -0.421849 1.20195 -0.300476 -1.45596 -0.214632 -1.26718 0.540872 -0.245173 -0.618231 0.908153 -0.910241 -0.422897 1.19804 -0.0326966 0.448276 1.73745 0.0461006 -0.0715457 -0.538911 -0.777962 -1.17683 0.0413772 0.0212471 1.29428 0.963146 0.122898 0.9977 2.20359 1.18259 1.61765 -0.954506 -1.49938 
-0.808849 0.643939 -0.720639 -0.786278 0.326492 1.34906 -0.776367 -0.0890171 -0.0914492 -0.977604 0.457258 -0.36516 -0.918372 2.43267 -0.959145 1.66059 -0.170655 0.694666 0.0408096 -0.475738 -0.48915 -1.00094 0.116265 -0.275038 0.503773 -0.921828 0.492253 -0.0176713 -0.236898 0.735345 0.386628 -0.0160841 0.597858 1.70153 0.226016 -0.0709872 0.00219308 0.676755 1.12477 -0.394873 0.0022252 -0.708208 1.53939 1.53067 -0.384868 0.510417 -0.319011 -0.770517 -0.248485 -0.467126 1.24598 0.117959 -0.156557 1.18495 -0.130742 -0.235239 0.462034 -0.198714 1.41345 -1.45651 -0.853295 1.10636 1.05975 1.02318 0.273609 -1.25614 0.158578 0.335764 -0.401179 -0.292095 0.901323 0.300069 -0.654654 -0.136272 1.03124 -0.46093 -0.602087 1.61975 1.27503 1.20402 -0.66878 1.70631 -0.606427 -0.550243 -0.144962 0.457203 1.51957 0.130682 -0.683247 -0.641701 -0.367174 -1.33996 0.727081 0.846406 -0.723953 -1.17772 -0.326402 -0.481447 0.902703 1.18374 
-1.47298 0.670052 0.0811651 0.269049 -0.332117 -1.44224 -0.503778 1.26057 -1.27522 0.477637 1.04527 -0.1635 -1.77869 1.03873 1.37231 -1.18094 0.0771078 0.0859028 -1.2296 -1.6663 -0.310346 -0.498657 2.14865 0.678766 -1.55609 0.401453 -0.834003 0.613523 -1.92406 -2.02959 -1.24357 -0.27156 -0.0689706 0.448993 -0.272882 0.720041 -0.874113 0.417393 0.462241 -0.74069 -1.24881 -0.0222879 -1.53583 0.06349 0.190846 0.0214478 -0.51037 -1.04154 0.298288 0.784906 -0.307574 0.09516 -0.229804 0.0739628 -1.37728 -0.0731209 -0.700043 -0.443552 -2.24163 -0.519206 0.295289 -0.446569 0.581099 -1.13468 1.46663 0.166852 -0.972332 1.07821 -0.740109 0.125153 0.868978 0.0842861 -0.638148 -0.139837 -0.256798 -0.00097722 -0.578095 0.144703 2.00443 -0.856528 -0.863834 -0.61726 0.96017 0.126138 -0.65437 -0.377564 -0.603996 -0.0213963 0.581594 0.21187 -0.129881 0.576061 -0.28491 1.82094 -0.0931203 -1.82677 0.475229 0.404951 -1.46531 -1.06817 
0.209182 -0.0717726 -2.91785 -0.346429 0.195768 0.39814 -0.26141 -1.12056 -1.47062 0.441659 -1.23676 1.84452 0.759109 -0.60709 -0.949305 0.437189 -0.856344 -0.87293 -0.494878 1.07905 -0.316826 -0.396403 -0.428407 0.346945 0.445791 0.575827 -2.08037 -0.797291 -1.71881 0.311468 -0.183687 -0.286404 0.0269903 0.937158 -0.818429 -0.416496 0.141861 -1.0439 -2.26387 -0.0678331 0.933719 -1.25918 -1.4323 -0.0426392 -0.192916 0.783219 -0.705678 0.423839 0.716103 0.34332 -0.992277 0.167011 0.136362 -0.717966 -0.810616 -0.46138 1.022 -1.91321 -0.279271 -0.804511 0.703827 0.452056 -0.0915924 -0.0055263 0.00637311 -0.181458 -1.39525 1.25492 -0.0297117 -0.525572 0.7491 0.919003 1.46852 0.440069 0.29096 -0.440658 -1.34888 0.822395 -0.296981 1.15054 -0.979521 0.968699 0.627684 -0.30921 -1.03509 -0.163303 -0.584805 -0.63226 1.14507 1.64343 -0.288591 1.12514 0.49588 0.674319 -0.578862 0.862578 -0.754128 -1.0563 0.771556 1.22915 
-0.153925 -0.153499 -0.493708 0.243986 1.03174 0.346721 0.900832 -1.90531 0.205347 0.258137 -0.263114 1.0251 -0.0593317 -0.777295 0.717385 -0.581998 -0.549095 -0.469415 -1.00426 0.839637 -0.825689 1.45008 -0.379501 0.690899 -0.886883 0.742781 0.00181063 0.594016 -1.06766 0.246794 -0.420275 0.478755 0.252997 -0.781254 0.848098 0.892397 -0.00551858 0.386548 -1.82029 0.237712 0.0659067 -0.243779 -0.585047 -2.10385 1.01237 0.338693 -0.165564 -0.14376 1.47626 1.40483 -1.30112 -0.0845446 0.427729 -0.313299 -0.320352 -1.19521 -1.35591 0.768078 -0.91517 1.27258 1.54796 0.585004 1.22187 -1.14104 0.224253 1.30766 -0.474875 1.13748 -0.67367 -0.886845 1.58507 -0.256696 0.993023 -0.230532 -1.35591 -0.281902 0.230003 -0.769455 -1.05786 -0.558731 0.32326 -1.29374 0.614181 -1.88705 0.46182 0.279093 0.543947 -0.643582 -0.446946 -0.397633 0.324004 0.610754 -0.274376 0.673413 -1.12832 1.12959 -1.13499 -1.4774 1.55907 0.1717 
0.544771 1.25485 0.350042 -0.710351 -0.301235 -1.50574 -0.738181 1.50719 0.974593 -0.21394 -0.347891 -0.99535 -0.199206 -1.05919 0.0164583 -0.458189 -0.419844 -0.808828 -0.0747365 0.600176 0.0786698 -0.460796 -0.575012 -0.762639 0.853229 0.946229 0.60617 -0.552553 -1.4742 1.52768 2.403 -0.309014 1.15407 -0.716285 1.55308 -1.29021 0.962663 0.85965 0.592185 -0.220935 0.426319 -0.700357 -0.937057 0.525387 -1.03251 -0.289857 0.112729 -0.15926 -1.03241 -0.181621 0.7985 0.326702 0.0694338 0.104998 -0.553841 0.679094 -0.0369756 -0.503267 -0.325641 0.478311 1.38171 -1.94714 -0.960507 -1.46907 0.211333 1.46267 -2.62636 0.167239 0.637263 1.69333 -0.842802 0.0250329 0.662481 -1.48819 -0.775258 1.39589 0.240885 1.24272 -0.678504 0.200444 1.63989 0.00286305 0.203529 -0.272097 0.484747 0.0281771 0.412185 -0.815954 -0.597789 -0.976006 -0.239892 0.620167 0.355336 0.770316 -2.52454 -0.951104 0.773065 0.418164 -0.365853 -0.254852 
-0.0838636 -0.00324522 -0.986508 -0.210822 0.387137 0.0436598 0.332861 0.795494 0.0746287 0.271629 1.10702 0.753876 1.0668 0.148679 0.00291925 1.6836 0.598605 0.324438 -0.874915 0.611014 0.0867582 -0.322055 -0.719336 -0.729258 -0.376032 -1.1325 1.04965 -1.04401 1.70817 -1.30462 -0.935332 0.801937 -0.0598665 0.95015 0.435561 -0.759766 -0.727863 1.31026 -0.315641 -1.87192 -1.08801 1.64783 -1.1756 1.14073 1.49276 -0.236536 0.20349 1.78597 -1.37896 1.22594 0.825993 -0.90952 -1.37561 0.395685 -1.09537 0.66388 -0.802769 0.0203607 -1.20572 0.715087 0.0370545 -0.220921 1.2121 2.70624 -0.999554 -0.399574 0.813324 -0.114422 -0.00311569 0.246132 -0.101328 0.606424 1.00288 0.318461 0.535287 -2.08324 -0.0122263 0.474542 0.759958 -1.03025 0.182013 0.13199 0.423745 1.6283 1.04444 -0.795851 0.637684 -1.56212 0.872089 -1.10881 0.224695 -0.49777 -1.16137 -1.28587 0.653349 -0.792288 -0.524487 0.0252029 1.4187 0.509294 
0.963899 -0.22247 0.908655 2.33542 -0.863528 -1.15172 1.47852 -0.349773 1.89123 -0.0446948 0.542859 -2.10158 0.107121 -0.552555 0.619376 0.277491 -0.0405148 0.773991 -0.0494024 -0.794687 -0.522076 0.194391 -0.399774 -0.502805 -0.192148 1.21133 1.69886 -1.58353 1.09003 -0.767518 2.98547 0.297495 0.199345 0.0323675 1.32685 0.26301 -0.493016 -0.75921 -0.218273 0.732459 1.56242 1.0473 -0.558362 0.756198 1.01763 0.48692 -0.103093 0.174525 -0.785664 0.0214896 -0.642069 0.516752 -0.619767 -0.151 0.448369 -0.963847 -1.77282 1.20958 -1.1367 0.206599 1.47618 -0.451275 0.215398 0.365396 -1.11921 -1.04735 -0.0571437 -0.0482851 -1.1944 0.0154765 -0.177577 0.790363 -0.0306381 -1.49785 0.126604 -0.171285 -0.875522 0.179971 0.718075 -1.76048 1.48438 -0.693754 -0.0510367 0.953864 0.065733 1.01556 -2.17243 -0.754253 -0.769863 0.526755 -0.202803 -0.731141 -1.44246 0.713699 1.19261 -0.123161 0.134838 0.0452714 0.409194 -0.98851 
0.273884 -0.0451756 -0.816644 -0.781242 0.926177 1.56446 0.136058 0.699724 1.10212 -1.63649 -0.0876881 -0.121985 -0.908328 0.193217 -0.265392 0.838108 -0.598758 -0.799885 -1.21388 0.742365 0.518118 1.03636 0.198375 0.240884 -1.24274 -0.473065 -0.130915 -0.23457 -1.36509 1.43165 0.479867 -1.44612 -0.0852644 -0.564464 -1.34558 -0.129498 0.585354 0.685739 -0.0754029 0.528727 1.08125 -1.52666 0.0518012 -0.751166 0.899342 -1.70257 -2.18896 0.869939 -0.0931256 -0.588779 0.0807556 -0.432457 0.33503 -0.930451 0.316157 0.0284511 0.079427 -0.739881 -0.722696 -0.837953 0.621044 0.453913 -0.863951 -0.417473 -0.118351 -0.887994 0.660052 1.36833 -2.14114 -0.917319 0.385374 -1.38915 0.319398 -0.338236 0.44226 0.575713 -2.04217 -0.389891 -0.632066 -0.946952 -0.348186 0.968611 0.46887 -0.417053 0.960768 0.245677 -1.7635 1.04046 -0.70025 0.908653 0.0167025 -0.512747 0.597862 0.306506 -1.41335 -0.295395 0.891262 -0.271881 2.41602 -0.848377 
0.392478 -0.394207 0.60247 0.125079 -0.401956 0.478708 1.79323 0.467425 -0.381638 -0.4378 -0.337437 -0.253363 0.325931 -0.208033 0.618165 -0.728491 0.471116 -0.354825 -1.06319 2.06543 -1.13184 -0.441794 0.346668 0.724711 0.799186 0.550904 1.45106 -1.13465 -1.98985 0.879069 -1.0335 -0.832717 -0.4703 0.902978 -0.178651 0.259394 -0.291976 1.1702 0.959797 -0.679327 1.02373 -0.684574 -0.700941 -0.431037 0.0522036 0.567753 0.415782 -0.554421 0.416545 -0.823089 1.6509 1.77662 -0.614722 -0.377662 -0.538051 1.2028 -1.1445 0.559145 -0.657314 1.16678 0.0890497 -0.564136 -0.636156 -0.175542 0.829634 -1.19849 0.356937 -0.933323 0.518172 -0.169445 -0.0593201 0.337542 -0.110346 1.17829 -0.803359 -1.01704 0.262043 -1.16044 -0.499602 0.892985 -0.0127333 -0.149891 0.591603 -1.02574 -0.348111 0.00716756 -0.194004 0.762447 0.703641 0.211529 0.156112 -0.165772 -1.6595 0.793009 0.228118 -1.06766 -0.0828526 0.227114 -1.00769 -2.05132 
-0.256619 -0.821359 -0.442681 -0.360577 0.691548 -0.873555 0.482647 -0.635119 0.766513 -0.259897 -1.17715 1.16607 -1.52931 -0.352144 0.37205 1.18476 1.15343 0.128879 -2.07029 -0.207333 -0.30384 1.73516 -1.1959 -0.248355 0.785338 -0.00221759 1.32415 -0.329563 -0.744977 0.181703 0.781611 -1.43908 1.74023 0.435343 0.0829365 -0.70742 0.650117 -0.121427 -1.86149 -1.3667 -0.195885 0.0192356 0.578508 -2.08139 0.082766 -0.744164 1.91843 0.183912 -0.0338337 1.17265 0.980224 0.95727 -0.265118 1.74686 -0.723949 -0.601101 -1.00362 0.341203 0.527727 -1.17818 0.299057 1.74761 -0.814564 -0.221653 0.536204 -0.0234156 -0.00901984 0.592068 -0.0618672 0.597138 -0.310402 -0.210416 0.243245 -1.22236 -0.420601 0.223415 -0.190284 -0.0628025 0.242372 0.345776 -1.74518 -1.37276 0.227052 -2.07148 0.679267 0.579189 -0.564343 0.52746 -0.00647119 0.0779607 -0.466838 -1.22855 -0.237863 0.430981 0.474125 -0.938118 -0.212854 0.43333 1.08324 0.623215 
0.917569 -1.05275 0.122275 0.512885 0.965615 -1.1338 0.111153 -0.264769 -1.44344 1.07339 1.30443 1.39396 0.573804 -1.3495 -1.4924 0.125382 0.033678 -0.221493 0.435397 -0.00164377 -0.0971195 0.476521 0.532682 -0.571177 -0.414947 0.160544 2.09342 -0.568385 1.35441 0.112749 -2.0349 -0.392497 0.100303 -0.529961 -1.11079 0.190147 0.0499525 -0.542625 0.5294 0.697433 0.628865 -0.310535 1.24556 -0.936469 -0.498936 -1.51711 0.145822 0.947316 -0.442971 1.04679 -0.258085 0.463367 0.148855 -0.351515 -0.730828 -0.681477 0.647082 0.717582 -1.03958 -0.327251 -1.1361 0.423699 0.201588 0.213904 0.726557 0.653176 -0.311869 -0.0386139 1.43939 0.304432 -1.09656 -1.13499 0.169683 0.00462807 -1.82688 0.403217 1.27075 0.180086 -0.637156 -0.890781 -0.496636 -1.36432 -1.04556 -0.819715 0.0586895 -0.737071 -0.271628 0.111553 -1.68784 0.792445 0.906252 0.991105 0.238633 2.10463 -0.649774 -0.242803 1.03993 0.316515 -0.562203 -0.121366 
-0.176376 0.00274371 1.42618 -0.754091 0.0135561 -0.341989 -0.520778 -1.91814 -0.311203 -0.339933 -0.106159 -0.201338 0.468928 -0.0793239 -0.473385 -0.421963 0.207497 1.42039 -1.9992 -0.34595 0.11351 0.652175 2.01141 -1.08802 -0.00857328 0.744305 0.766606 -1.17904 0.164456 0.733432 -1.41924 -0.783061 -0.227935 -0.195646 2.9454 0.0732033 0.658124 0.350244 1.10006 -0.380007 -0.152978 2.09395 -0.419245 1.35133 -0.213111 0.0774112 -1.18717 -1.36581 -1.08041 0.226682 0.0749219 -0.249225 0.99628 0.344043 0.382852 1.37193 -0.159972 -0.13108 0.493146 0.784341 0.0519508 -0.802676 -0.546314 0.306924 -0.635137 -0.493774 -0.570371 0.548621 -0.715784 0.386695 0.348982 0.754281 0.303954 -0.600303 0.226542 0.920786 0.18867 -1.20077 -0.723739 0.666092 -0.300747 -0.581613 -0.390571 -0.50542 -0.672644 0.382669 1.37638 -0.0650491 0.347948 -0.754167 0.507393 -1.02941 0.336273 0.211352 -0.849198 -0.364349 -0.160807 -0.0841928 -0.508114 0.39396 
-0.303694 -0.76116 -0.151792 0.669188 0.222957 -1.29821 0.500557 0.588227 -0.445871 0.342264 1.25461 0.987536 -0.44035 -0.528598 0.907035 0.754927 -0.182208 0.231445 0.6524 0.452462 -0.714433 -0.447547 0.202725 -2.24934 -0.347902 1.17264 -0.12302 0.432384 -0.4835 -0.533224 -0.922335 0.540081 0.612555 -0.371522 0.333607 0.621294 -0.797516 -0.147374 -1.52189 -0.99107 -0.712282 -1.24962 0.246097 -0.0547369 0.699489 2.57105 0.100276 1.42809 1.89968 -0.515426 -0.111536 0.738442 0.342906 1.60855 0.899588 0.206114 -0.624168 -1.73283 2.2813 -0.571977 -0.588826 0.699878 2.38012 -0.316766 1.75464 0.51342 0.0075113 -0.112864 -0.911512 0.432504 0.46501 0.172644 2.33004 -1.16633 -0.0105178 -0.824521 -0.453453 -1.40731 -1.09829 -0.120124 -1.02134 -2.07111 1.1048 -1.39332 0.589737 -0.411958 -0.483675 -0.983695 0.601446 0.0182958 2.28404 -0.893058 0.428216 0.329868 -0.952398 1.23772 0.311569 1.48874 0.112265 -0.183214 
-0.418171 1.28916 -0.177992 -0.0728585 1.98976 0.0904561 0.394239 0.0493486 0.573056 -0.282457 -0.498527 0.657454 -0.609133 0.636442 0.476612 -0.43934 0.795316 -0.164774 -0.427767 -1.49395 1.78459 -0.506078 -0.319897 -1.2981 0.17988 0.128728 -0.457528 -0.912935 1.88821 -0.318484 -0.113763 -0.626664 0.542579 1.15822 0.216478 0.133281 -0.670129 1.3691 -2.92356 -0.582047 -0.820409 -1.41627 -0.0694371 -1.07942 0.234874 0.471381 -0.980968 -0.506551 0.332926 -0.0863944 -0.709747 1.18773 1.04688 -0.43224 -0.529405 -0.140234 -1.7837 -0.888021 -0.796045 -0.737636 0.0796953 0.54242 -1.28527 -0.256021 -0.684874 -0.0374468 1.47225 0.483578 -0.159109 -0.505925 0.408377 -0.55442 1.18866 -0.124335 -0.270555 0.295601 -0.0500741 -1.29083 -1.00595 -0.543964 0.855713 -0.0886994 -0.985756 0.109639 -1.57884 0.988644 0.588945 0.472198 -0.132699 -1.16475 -0.0119532 -0.366813 0.48617 -0.146032 0.32401 0.921035 -0.0482312 -1.26977 -0.624069 0.915903 
0.316991 0.254159 0.0605445 -1.38454 -1.14612 -0.779921 0.644726 0.248747 -0.14558 0.128601 0.26599 -0.855735 0.881207 1.53107 -0.207481 -0.360862 0.465087 -0.471387 -0.315327 0.566028 -0.0541574 -0.583784 -0.276249 0.276887 0.606611 0.880692 0.337652 -1.05397 -0.515756 0.506914 1.39256 -1.2999 0.392176 1.06581 -0.82261 -0.212135 -0.149176 0.0514353 -1.32337 1.27469 1.43171 0.236507 1.41714 -0.0297628 0.508094 0.514266 0.738787 0.800778 0.393431 0.229561 1.08484 -0.156538 -0.767848 -1.17631 -0.389538 -0.878547 0.550542 -0.241591 -1.80483 0.105172 1.1449 -0.100614 -0.0141969 -1.35056 -0.927726 0.210734 0.301243 0.885198 0.637389 -0.0727728 -0.200723 -0.753241 -0.333083 0.40501 -1.63333 0.925455 -0.912389 -1.2168 -0.320243 -0.674193 0.143617 0.322209 -0.280081 0.670786 1.51125 -0.00027277 -1.8655 -0.397348 -0.321727 0.522564 0.386727 -1.11095 1.68499 -0.291629 -0.34298 -0.111834 -0.773488 0.408877 -0.640347 -0.907882 
0.282893 0.514859 0.757085 1.97482 -1.28908 -1.66266 1.69 0.324713 -0.189657 -1.22037 -0.454092 0.265713 0.227111 -0.579202 -0.366669 0.0766127 -0.906323 1.56275 0.797937 -0.486787 -0.149677 0.938505 0.524683 1.14955 0.394768 -0.611827 -1.13229 -0.516449 0.113118 0.274995 0.973385 0.39926 -0.36788 0.640056 1.53318 0.881957 0.217905 0.403612 -2.44347 -0.116813 -0.140052 0.484488 -0.834834 -0.285989 -0.765011 -0.391726 -0.304257 0.487625 -1.31862 -0.194907 -0.0488589 -0.291258 1.07257 0.212308 -0.307396 -0.409447 -0.325132 -0.41143 -0.0250513 -0.0697519 0.82543 0.0571119 1.68236 0.131701 0.280022 1.5161 -0.241278 0.199952 -0.823338 0.901021 0.3551 0.183434 0.625549 -1.18338 -0.495984 0.0254546 -1.18816 -1.58172 -0.592524 -0.17292 -0.0424239 0.828125 -0.313057 0.631252 1.20668 1.28138 -0.56056 1.01692 1.16653 -0.224343 -0.334428 -0.426955 0.400106 0.0303604 -1.70435 0.358562 -0.402544 0.273204 -0.870248 0.826553 
-0.49522 -1.47355 0.745866 -1.7037 -1.55144 0.0165416 -0.464501 -0.589854 0.810922 1.11089 -0.399207 0.369145 -0.648054 1.2692 -0.267262 1.32292 0.157136 -0.257659 -0.101097 1.19318 -1.19923 -0.395398 0.545983 -0.313059 -0.176426 0.779767 -0.608849 -0.221242 -0.797008 -1.1498 -0.467435 -0.42787 0.134044 -0.426383 0.256556 -0.151587 0.330679 1.75913 -1.30038 1.25313 -0.680909 0.795341 0.468034 -0.148274 0.331657 0.499606 -0.214115 0.667151 1.7706 -0.110075 -0.199173 -0.23708 -1.2758 -0.499836 0.391736 -1.6144 0.164298 0.195664 -1.1077 1.11058 -2.43836 -0.55434 -0.728492 1.23005 0.0997604 -0.460895 0.0961744 -0.690222 0.797715 -0.310741 -0.858547 0.0826881 1.04987 -0.0334509 -1.87168 -1.29972 -0.852465 0.613956 -0.351642 0.354356 1.03017 0.666561 -0.724417 0.585069 0.977995 -2.2559 0.276626 1.00094 -0.222258 -1.15616 -0.412498 -1.28591 0.835364 0.557839 0.57338 0.215227 0.626276 -1.24856 -0.0859286 -0.5515 
1.1289 0.752678 0.3648 0.52748 -0.628676 -0.877752 -0.476162 1.15509 0.292857 -1.00785 -0.282243 0.31921 -0.339871 0.666867 0.729251 1.76889 0.816948 1.36011 -0.346566 -0.299553 0.18327 -2.18225 0.38683 -0.335306 0.293898 -0.163709 -1.00266 0.266797 -0.138541 -0.420739 1.44809 1.27487 0.87299 0.336673 -1.38279 0.322596 -1.17568 1.78445 -1.16075 0.958182 0.58438 1.3683 -1.5276 -1.52976 -1.00346 0.0615101 0.375207 -0.836369 -1.94711 0.339255 -0.722185 -0.580115 -0.12508 0.259124 1.16419 1.04082 0.291633 -1.37198 -1.28138 -0.226468 0.883729 1.96235 -0.0033902 1.46813 -0.826748 -0.0715288 -0.19227 0.901291 0.0618135 -0.496589 -0.228219 -1.04407 -0.207247 0.513898 -1.34892 -0.314052 -1.09071 -0.355119 -1.82726 0.0589838 -0.984953 0.0519635 0.869153 -0.0414741 -1.21243 0.580483 0.491994 -0.0724672 1.24917 -1.4565 0.402172 -0.145061 1.6051 -0.140405 1.03752 -0.38785 -0.239555 0.37482 -0.845402 0.395988 
1.10691 0.441806 -0.176224 -0.273104 0.12914 0.544602 -0.421905 0.111999 -0.900989 0.284272 -0.485164 0.344475 -0.324952 -0.0975366 0.234714 0.147839 -0.713814 0.54397 -1.0303 -0.0756375 -0.916491 0.62077 0.864142 0.335426 -0.776608 0.450945 -0.468458 1.21419 0.414241 0.201123 -1.61221 -0.311811 0.740524 0.345872 -0.450901 1.13558 0.49097 0.737483 -0.825281 0.106837 0.731703 -0.307238 2.12969 -0.591988 -0.870213 1.42053 0.13813 -1.03592 -0.741193 0.170446 -1.8126 0.456204 -0.974457 -0.415257 0.248717 0.461927 1.37309 -0.294564 1.33031 -0.0906448 0.9142 -2.63982 -0.376239 -2.07896 -0.0686403 0.452055 -0.254288 0.112266 -0.574916 -1.20746 0.342584 -1.27252 0.0927232 -0.0215612 -0.414649 1.2252 -0.509206 -0.9691 0.466626 -1.12266 1.23965 -0.226399 1.06792 0.674456 -1.57107 0.139299 1.10126 1.72398 0.982818 -0.720347 0.482502 -0.758568 1.49176 0.626603 0.735518 0.51293 1.87865 0.463785 0.0867649 1.63369 
-0.946775 -0.673921 0.232244 0.812241 -1.01605 0.35729 0.258877 0.469636 -0.979434 0.475656 0.269277 -1.44808 0.424721 0.192122 1.00252 0.0661261 -0.45523 1.87646 -0.0167741 0.111862 -0.0593047 -1.12541 -0.00542389 -0.513002 -0.965793 -0.892554 0.568222 -0.104128 0.00319579 -0.394612 -0.338342 1.08003 1.3158 0.0414202 0.565942 0.94965 0.561846 -0.14989 -0.104064 -0.187289 -1.70684 1.08298 -0.123288 -0.0344624 0.772902 0.576454 -0.75443 0.207854 -0.656232 -1.0396 0.196061 -0.392749 -0.0237029 -0.284878 -0.118685 0.672851 0.767852 0.749678 1.19199 -0.208061 1.28511 -1.53103 -1.11153 0.721946 0.420781 0.0899806 -0.751444 0.476942 -0.156558 0.555192 0.138996 1.60463 0.728893 1.50147 -1.17935 0.824819 -2.21107 0.949445 0.166971 0.717816 0.963462 -1.59727 -1.5405 1.34529 -0.336423 -0.242762 0.225512 0.566104 0.792903 -1.40364 0.19338 1.81236 1.24576 -1.35094 1.66262 -0.86985 1.96404 -1.43086 2.5244 -0.998217 
-0.489595 1.38272 -0.155183 -0.928278 0.328583 -1.12996 0.535434 -0.924398 -0.454878 -1.39585 -0.312675 -0.365741 -0.563798 0.300895 -0.0843985 0.303977 0.193435 0.417725 0.246898 -1.08263 -0.248754 -1.25341 -1.09861 0.597314 -0.00502713 -0.424271 -0.365757 0.932869 -0.582082 -1.33892 -1.19159 -0.199033 -1.39718 0.160226 -0.369973 0.966599 0.112063 -1.03456 -0.713494 0.0293359 -0.520774 -0.250893 0.427727 -0.419539 -1.01003 -0.927345 -0.707881 -0.909138 -0.42514 0.710809 0.297765 -0.670253 -1.13685 -1.47298 0.757962 -0.384521 0.0683304 0.0341187 -0.354787 -2.67933 0.269772 0.469725 -0.856676 -0.432391 0.163717 0.524042 0.0740325 -0.0538711 -0.293435 0.516389 0.234888 -0.0485685 0.436198 -0.0387985 1.19877 0.176558 0.866931 -0.671973 1.86688 0.835583 0.0782246 0.309893 0.634656 -0.349665 -0.720439 0.774186 -0.94324 0.14915 -1.18509 1.60064 1.47232 0.54361 -0.548512 0.717041 0.254278 1.24864 1.8611 0.488569 0.540239 0.918151 
