0.427998 -0.0631277 -0.100424 -0.989362 0.118604 0.465669 -0.394565 0.850556 -0.281689 0.13436 0.928141 0.910058 -0.0515037 0.501473 0.749808 0.000556387 -0.141947 0.0422345 -0.568531 -1.3008 -0.436821 -0.458124 -1.11102 0.193644 -0.391692 -0.563776 -0.517733 -0.0349492 -0.472321 0.317811 -0.205242 0.866689 0.219303 0.66813 -0.643512 -0.300583 0.261345 -0.286027 1.30863 0.399589 -0.300122 0.18984 -0.540429 -0.187941 0.673279 -0.0451375 0.0752978 -0.540121 1.18521 -0.816461 -0.163526 0.905477 0.736174 -0.323842 -0.225113 0.282791 0.773055 0.345998 0.100708 -0.884725 -0.475596 -0.0332526 0.212925 -0.62101 0.61272 0.226346 -0.440665 -0.0652411 0.334665 -0.394563 -0.14334 -0.685645 -0.593308 0.596846 1.06014 -0.578614 0.442642 0.437187 0.68907 0.0943931 0.355646 1.42409 0.6365 -0.525624 0.27612 0.530553 0.993893 0.518182 1.09023 -0.0629587 0.598934 0.173816 -0.926052 0.407267 -0.103012 0.455723 
0.544615 -1.43148 0.947799 0.1708 -0.0952565 0.268446 -0.285265 0.34559 1.23209 -0.250251 -0.368601 0.846537 0.471231 0.27284 -0.374844 -0.8286 0.0436527 0.00233003 0.926898 0.680896 0.178311 -0.208982 -0.689915 0.676376 -0.651167 -0.180932 0.60355 0.168882 -0.794189 -0.251221 -0.540072 -1.12834 0.461517 0.185397 0.121684 -1.27058 -1.4726 -0.239726 0.957575 0.168601 0.340501 -0.187134 -0.12413 -0.606129 -0.217116 0.497341 0.179553 -0.160318 0.524215 0.678158 0.0260196 -0.333041 0.103981 -0.261488 0.441227 0.37278 -0.40174 -0.270973 -0.310228 0.201247 -0.118411 0.372547 0.71794 -0.622047 -1.16043 0.524803 -0.287248 0.38556 -0.356528 -1.04619 0.0346769 -0.0386604 0.670051 -0.735808 0.551043 -0.690915 0.0526393 0.120509 -0.639205 0.265686 -0.718798 -0.229341 1.15179 0.477642 -0.097536 0.328806 -0.142991 0.499161 -0.266677 0.025502 0.691309 0.64106 0.200291 -0.246422 -0.566237 0.441549 
0.081956 0.256371 -0.369755 1.3379 -0.414174 1.33754 -0.201548 -0.172146 -0.753641 -0.103674 -0.0219015 -1.14715 0.30746 0.985506 0.084367 0.170504 -0.32954 0.0253571 0.137403 -0.79024 0.69288 0.255436 -0.126917 -0.0902744 0.305218 0.774297 0.0640195 -0.867469 -0.0430325 -0.877896 0.0358532 0.588615 -1.41752 0.153422 -1.01998 -0.342982 0.272878 0.042978 0.173292 -0.613674 -0.109147 -0.0571629 -0.258463 -0.50792 0.224829 -0.264726 -0.915513 0.606441 0.41137 0.648353 0.31242 -1.04129 -0.774553 -0.561798 0.320645 0.330069 0.271367 -0.453996 -1.13519 -0.587116 0.767727 0.114091 -0.221229 -0.0242765 0.608834 -0.511771 -0.212136 0.289424 0.490552 0.857479 -0.676201 -0.765403 0.165786 0.661248 -0.333582 0.0896082 -0.293464 -0.418155 -0.283566 -0.00741273 0.861792 0.602898 -0.182492 0.038747 -0.275204 -0.411171 -0.0188501 0.214951 0.484056 0.531517 1.09035 0.734546 0.0821726 0.656549 0.117081 -0.556374 
0.517695 0.00841585 0.708294 0.0895634 0.562797 -0.694665 0.867667 -0.132054 -0.583594 0.72232 0.283005 -0.547876 0.388398 -1.29028 -0.0878607 0.492433 0.497908 0.0551144 0.339941 -0.227787 0.491652 -0.59794 0.875965 -0.535211 0.437496 -0.0221717 0.403191 -0.553369 0.0410114 -0.907355 -1.41032 0.759581 -0.16337 -0.292807 1.21502 0.0609351 0.910691 0.432914 -0.338398 0.314858 -0.121418 0.716984 0.0672012 -0.501947 -0.498478 0.240443 0.526799 1.01867 -0.759049 0.00963342 0.335523 -0.0293611 -0.524768 0.439888 -0.432858 -0.71635 0.7623 -0.381066 -0.512573 -1.08113 -0.268382 1.1512 0.105084 0.894719 -0.706713 0.784088 0.728925 -0.174184 -0.0790896 -0.657151 -0.503371 -0.599848 -0.0763351 1.08474 0.145038 -0.696971 -1.19408 -0.908213 0.0572502 0.243079 -0.458116 -0.163811 0.197584 0.924909 -0.506714 -0.175041 -1.03461 1.20954 -0.678753 -1.01727 -1.46653 1.188 -0.989303 0.257873 -1.06222 0.583826 
0.734893 0.899302 0.813658 -0.938601 -0.00874265 0.282303 1.04594 0.960613 -0.678687 0.421815 0.0527842 0.291023 -0.498469 -0.770263 -0.591429 -0.0482331 0.275168 -0.411754 0.629231 0.61156 0.170794 0.649528 -0.15946 -0.217146 -0.0734514 0.0685822 1.13426 1.20063 -0.379226 0.628181 -1.17518 -0.5767 -0.251613 0.257449 0.16766 0.198468 0.377954 -0.3136 -0.20609 0.227463 0.840586 -0.31296 -0.0292562 0.483262 -0.486091 0.0814616 0.344821 -0.186938 -0.991653 0.617201 -0.432984 0.17783 0.00478989 -1.11679 -0.0445439 -0.832245 0.634994 -0.271653 -0.115717 -0.016066 0.745499 0.800756 0.555843 0.241874 0.585786 0.609079 -0.437751 0.439906 -0.183171 -0.799348 -0.42389 0.408165 0.0458026 -0.52532 0.0325906 1.26898 0.5686 -0.436055 0.42889 0.316994 0.276013 -1.81814 -0.0999503 0.306166 -0.484782 -0.710858 0.359504 -0.483475 0.94532 0.00464025 -0.596416 -0.394945 0.57194 0.958879 -0.344207 0.0874344 
-0.222397 0.516707 -1.28953 0.179144 1.2528 -0.573007 0.419222 -0.49025 -0.462121 0.726238 0.165193 0.544341 1.22654 0.659425 0.428052 -0.28838 0.15831 -0.425689 -0.719998 0.197996 -0.60668 0.0812606 1.03411 -0.342049 -0.646668 -0.822546 -0.0664958 -0.464982 -0.940039 0.993057 -0.392906 -0.661055 0.460738 1.51895 -1.33433 0.557969 -0.563889 0.408759 -0.19275 -0.545149 -0.272597 0.352629 0.466242 -0.0563827 0.116231 0.465746 0.849867 0.663986 0.645564 0.132978 1.30239 0.0973434 -0.558986 -0.923684 -0.208817 0.572859 -0.401106 0.498446 0.137329 -0.159345 -0.811609 0.172451 0.355745 -0.456793 0.460035 -0.383129 -0.898974 -0.380965 0.257026 0.0527127 0.729999 -0.353434 1.06121 -0.00881267 -0.263256 0.501342 0.559711 -0.403691 -0.932201 -0.452707 0.364312 0.674614 -0.364308 -0.0782436 0.447654 0.605536 -1.68634 0.540995 -0.0541885 -0.481327 -0.252327 0.381379 0.733239 -0.965275 0.460098 -0.457187 
-0.130658 0.178543 0.391974 -0.264374 -0.245799 -1.28037 0.258616 -0.355291 0.365802 0.66446 -0.499768 0.273863 -0.188103 0.331551 -0.542005 0.33053 0.495693 0.622247 0.438647 -0.499381 -0.288389 -0.236639 -0.044083 -0.323936 -0.611243 0.764402 0.0663207 -0.652764 0.157591 0.542369 -0.285384 -0.0408472 0.95251 -0.902003 0.116185 0.510801 -0.607392 -0.640304 0.163533 -1.00553 0.113267 -0.735259 -0.594881 -0.198355 1.08584 1.25413 1.36969 -0.139785 -0.159803 -0.183891 0.16652 0.191998 -0.889169 -0.548606 -0.345769 0.133476 1.00729 0.399962 -0.185812 -0.742355 -0.466018 0.11721 0.94965 0.495282 -0.0404684 0.423887 -0.0556681 -0.340779 0.32662 -0.0310103 -0.461868 -0.0488436 0.171039 -0.27305 -0.588337 -0.116289 -0.347402 -0.860087 0.404787 0.319525 -1.04106 0.00912083 0.00326553 -0.240294 -0.274229 -0.195769 0.192817 -0.155206 0.366938 -0.562691 -0.161007 -0.630604 0.447442 -0.0582557 0.106347 -0.32052 
0.00309847 0.501595 -0.272669 -0.421869 -0.37216 -0.370597 -0.324221 -0.562721 -0.215693 0.707788 -0.0753685 0.0598973 -0.233757 0.0454439 -0.463688 0.0185295 -1.1471 0.0820652 -0.227826 -0.230114 -0.219605 0.0121786 0.483584 -0.119109 -0.653677 0.324078 0.28709 0.112474 -0.178386 0.389211 0.712385 -0.262157 -0.104221 0.991469 -0.249167 -0.888118 -0.562052 0.787688 -0.786944 -1.36596 0.530834 0.111858 -0.0597041 -0.452394 -0.762245 0.20579 0.321853 -0.962357 0.712723 1.18866 0.417925 0.217851 -0.888516 0.97227 0.592234 0.524806 -0.470647 0.505233 1.18011 -0.533999 -0.0980158 0.682772 -0.007663 -0.931022 -0.0998027 -1.00625 0.226353 -0.00208007 0.0946203 0.511793 -0.626227 -1.34993 -0.366451 -0.426173 -0.528889 0.157825 -0.808259 -0.253607 0.831706 -0.158917 -0.0170278 -0.159639 -0.0150263 -0.00834038 -0.685766 -0.0369463 0.0165495 -0.583295 0.692953 0.609459 0.438112 -1.17651 -0.252924 0.0256367 0.36996 -0.502085 
-0.330564 -0.38189 -0.989082 0.323691 -0.44102 1.04853 -0.182447 0.290248 -0.492958 0.0538838 -0.0913898 0.711227 0.274143 -0.552624 0.799307 0.525565 -0.148249 0.557606 -0.410502 0.145246 0.193504 0.777665 1.59151 -0.350747 -0.204378 -0.891214 0.93703 -0.424147 -0.0608226 -0.422052 -0.299889 0.593555 -0.364581 -0.459835 -0.329918 0.484171 0.998474 0.22138 0.17333 -0.319383 0.988706 -0.768318 -0.350501 0.342468 -0.106609 -0.325131 0.946774 -0.320193 -0.733532 -1.07785 -0.452024 0.305168 -0.952195 -0.158274 0.262149 0.510944 -0.596228 -0.665966 0.00769825 0.187837 0.871288 0.879118 -0.629003 1.27172 0.616794 -0.188221 -0.698846 -0.316998 -0.199358 -0.192356 0.222455 -0.876632 -0.687377 -0.261018 -0.186989 0.0671185 0.469623 0.147336 0.346099 0.0664536 -0.691646 -0.506603 0.702864 0.761133 0.1299 -1.19574 -0.376706 0.490352 1.1895 -0.590246 -1.22612 -0.0271548 -1.53358 0.180761 -0.649829 -0.00667979 
-0.0845366 0.335175 0.465954 -0.0645093 -0.0541387 -0.787975 0.749328 -0.16647 0.524514 0.370008 0.12084 -0.0120213 -0.224664 0.616086 -0.366112 0.0116355 0.254603 0.186928 -0.450713 0.841444 0.494501 0.338178 0.446969 -0.229228 -0.90177 0.390704 -0.268081 -0.519527 -0.114178 0.168847 -0.0245065 0.253707 0.696359 -0.307392 0.10505 0.368172 0.66248 0.115566 -0.114552 0.463215 -0.208527 -0.0495364 0.465767 -0.206312 -0.861516 0.880803 -0.322426 0.59083 -0.772904 0.327992 -0.986277 -0.107278 0.695791 0.158889 -0.416736 -0.00669161 -0.303952 0.536275 -0.530267 -0.540589 0.61814 -0.293393 -0.0407938 -1.04916 0.604229 -0.748526 0.495464 0.36675 0.128964 0.0830141 -0.216586 -0.565152 -0.460308 0.0425579 0.677695 -0.576338 -0.751252 0.238161 0.915903 -0.258196 -0.192507 0.470001 -0.0719597 1.14009 -0.0627914 0.0532041 0.0612585 -0.130757 -0.302293 0.253559 0.626651 -0.758495 -1.24215 0.0489092 0.863288 -0.244391 
-0.863722 -1.02365 -0.136614 0.071392 -0.188701 -0.473807 -0.177497 0.0639829 0.143869 0.129035 -0.598969 -0.289897 -0.642016 0.232778 -0.168482 -0.147096 0.100702 0.302689 -0.851804 -0.117824 0.44686 -0.53484 0.403099 1.3146 1.21678 -0.70583 -1.28095 0.630109 -0.263528 0.115203 -0.226707 -0.794465 -1.21217 0.0724633 1.01692 -0.147831 -0.380675 -0.0440665 0.136398 -0.171322 -0.652167 0.425204 0.357088 -0.587902 0.565748 -0.0826714 0.181282 -0.0155488 0.366509 0.704463 -0.870076 -0.398599 0.475055 -0.528307 0.0256233 1.51701 -0.0399799 0.804842 1.83457 0.818945 -0.166579 0.265069 0.2241 -0.270168 -1.00642 -0.0962837 0.167568 -0.110202 -0.403492 1.16399 -0.499494 -0.592782 -0.19146 -0.0959294 -0.130073 -0.0176638 -0.162875 -0.587911 0.257259 0.0760864 0.637519 0.301717 0.0793426 -0.199466 0.0599526 0.440954 -0.330548 -0.00509057 -0.553486 0.265117 -0.709971 0.490494 1.09483 -0.339659 -0.332632 -0.0403466 
0.8604 -0.0608148 -0.533451 -0.738611 0.0126993 0.633715 -0.423188 0.078773 -0.369492 0.262001 0.247026 0.530065 0.724103 1.21969 -0.164929 -0.557061 0.236091 0.540696 -0.336706 0.388043 -0.749896 0.204537 -0.329646 -0.159914 -0.606934 0.222386 -0.456069 -1.20608 -0.435621 0.834744 0.0805277 -0.489474 -0.680767 -0.0848183 -0.957436 -0.500193 0.563806 0.119702 0.491907 0.280566 -0.684691 0.479346 -0.749391 -0.264914 -0.518849 -0.394424 -1.55941 0.944284 1.26391 0.350063 -0.386408 -0.293551 -0.187333 -0.0975533 -0.795493 -0.72227 -0.683199 -0.185176 -0.160504 0.646387 -0.679123 0.124353 -1.61991 0.381463 0.266278 0.232971 0.752042 -0.0143744 -0.451201 0.576349 -0.368406 -0.0406074 0.694863 0.734271 0.355226 -0.781526 0.857278 0.29028 -0.167579 0.263631 0.255848 0.266357 -0.605441 -0.301512 -0.730686 -1.11975 -0.0839121 -0.235033 0.112129 -0.909463 0.648318 -0.397721 -0.502653 -0.439912 -0.0888661 0.366072 
1.51041 -0.928022 0.503666 0.706083 -0.836349 -0.877179 -0.790469 -0.0897178 0.257149 0.00753242 -0.291312 1.52362 -0.532808 -0.443272 0.427518 0.146885 -0.615709 0.147927 0.253829 1.09265 0.285596 -0.84741 2.03179 -0.487257 0.575845 0.43607 0.0110341 0.0975176 1.14466 0.025661 -0.613231 -0.296101 -0.434779 -0.224509 0.869231 1.03186 -0.145584 0.107371 -0.27495 0.652184 1.21048 0.205177 -0.644811 -0.495397 0.306997 -0.0686565 -0.15306 -0.27204 -0.45501 -0.154658 -0.899685 0.863131 -0.187473 0.12212 0.486761 -0.681455 -0.650806 -0.3482 -0.920322 -0.778045 -0.814257 -0.211882 -0.122099 0.512765 -0.48409 -0.777757 -1.0892 0.27906 1.64811 0.390081 -0.849806 0.759695 1.2825 -0.262188 -0.514781 -0.246362 1.02551 -0.671654 -0.874119 -0.952104 -0.314209 -0.825892 0.833221 -0.550958 -0.118197 0.899552 -0.249789 0.83444 -1.02631 -0.0704774 -0.644194 -0.160044 0.166469 -0.338382 0.644148 -0.251241 
0.211433 -0.374123 0.131158 -0.176702 0.455728 -0.414317 0.151087 -0.395122 -1.34772 -0.329321 -0.31619 -0.789015 0.761008 0.39881 -0.113031 -0.826104 0.65482 0.577483 0.310281 -0.763123 -0.272208 -1.21507 0.464421 0.510899 -0.387394 0.503178 0.787952 0.419829 0.470928 0.840412 -0.7958 -0.0362739 -0.214737 -0.0159615 0.0646416 0.535809 -0.241501 -0.97535 -0.832658 0.0219841 -0.781502 0.371257 -1.18231 -0.584513 -0.754999 -0.0325263 0.722997 0.397643 -0.155373 -0.796009 0.608931 0.186789 -0.013587 0.195201 -0.943819 -0.318506 -0.105533 0.0758403 0.027162 -0.482844 0.622947 -0.433943 -0.0868865 -0.297145 0.965784 0.251826 -0.23392 0.347829 -0.631837 -1.06495 -0.204584 0.0770033 -0.684172 0.204851 -0.15163 0.648479 0.0841271 -0.893488 0.414322 0.706875 0.308579 1.02432 0.346493 -0.49903 -0.362059 -0.0270357 0.385584 0.0124041 0.353856 0.226645 1.13541 -0.34192 0.158857 0.336936 -1.41261 0.357862 
-1.05674 -0.0940368 0.20396 -0.582033 0.239885 -0.683049 0.0385861 -0.59224 0.0700874 0.388011 0.153655 -0.79851 0.860783 -0.162327 0.932816 0.211066 0.100171 -0.221075 -0.0708589 -0.730956 -1.08762 0.918733 1.07884 0.346704 -0.427316 0.128448 0.177453 -0.0335529 0.0255033 -0.467894 -1.048 0.283554 1.4057 0.769773 0.532188 0.310653 0.180535 0.120538 -0.787765 -1.04382 0.485327 -0.42441 0.509175 -0.117705 0.0277492 0.364423 0.72509 0.077069 0.378423 -0.0795006 -0.690178 0.39889 -1.03736 0.612118 -0.102256 0.329416 -0.0552654 0.0359226 -0.172324 -0.345557 -0.204869 -0.877972 -0.280899 0.317024 -0.740741 0.568066 0.129083 0.925535 0.148666 0.362525 -0.121062 0.310357 -0.675466 0.690583 0.850661 0.0745788 -0.802234 -0.0516551 0.589784 -0.22402 1.24059 -0.871579 -0.177797 0.340015 -0.756633 0.984866 -0.304946 -0.663018 -0.0149708 0.518693 0.888237 -0.430494 -0.30973 -0.286516 1.22639 -0.0853058 
0.601934 -0.909841 -1.08061 -0.792369 -0.1949 0.310174 -0.76379 0.509052 0.606956 0.176349 -0.00148726 0.69338 0.13828 -1.06419 -0.447628 0.40157 -0.296632 -0.403874 0.141056 0.0302095 -0.127619 0.406602 -0.00388263 -0.292975 -0.0990647 -0.0297033 0.0759482 -1.14993 -0.226933 0.415516 -0.089713 -0.569585 0.194087 -0.443981 0.108955 0.188888 0.215729 0.19233 0.493795 -0.588296 -0.946636 0.0487259 0.0130926 0.253049 0.174628 -0.724338 0.212877 -0.562614 0.631984 -0.321535 1.66941 0.136184 0.512353 -0.523654 0.171145 -0.0642013 0.590801 0.342764 0.150179 0.160493 -0.298112 -0.508767 -0.165064 0.489465 -0.336544 0.184506 0.755818 0.100412 -0.238224 -0.678997 0.254834 -0.867863 0.435313 -0.0982212 0.00106889 0.0674735 -0.207634 -0.495564 -0.153431 -0.183265 0.132506 0.418732 -0.456086 -0.434833 -0.862621 0.10813 -0.516035 -1.00355 0.193414 0.486571 -0.383931 0.806663 0.833863 -0.519543 -0.210636 0.455216 
-0.881745 -0.0509482 -0.543336 0.804907 0.0662304 -0.595518 0.679945 0.10201 0.879362 -0.88371 1.02462 0.137447 -0.167259 -0.323209 1.06076 -0.103448 0.944408 0.23372 -0.781713 0.241151 0.0931128 -0.0144307 -0.553884 -0.335452 -0.261649 0.280685 0.192583 -0.559698 0.504354 -0.244413 0.899928 0.561306 -0.764443 -0.692999 -0.0949507 0.661175 0.181242 0.797454 -0.145357 0.279059 0.0584452 -1.13162 -0.645758 0.156546 -0.318057 0.0354848 -0.347614 0.356973 -0.760117 0.385705 0.666702 -0.783832 -0.169736 -0.181699 0.11033 -0.656205 0.176069 -0.0234463 -0.920563 -0.0897928 0.884505 0.385479 -0.53871 0.371118 -1.05765 0.65725 0.486614 -0.0849601 -0.960743 0.131827 0.0246206 0.440855 0.504837 -0.71857 0.219476 -0.161486 0.263521 -0.439016 -0.184384 0.0247879 0.620025 0.148022 -0.341311 -0.518491 -0.377976 0.245968 0.578818 -0.919704 -0.596491 0.211243 0.478509 0.220422 -0.177099 0.541014 -0.0304567 -0.558119 
-1.16448 -0.659932 -0.511888 -0.111011 0.820922 0.393407 1.30287 -0.616365 0.358321 0.633906 -0.438055 -0.673618 1.14877 -0.344642 -0.0642139 0.624222 -0.412799 0.288659 -0.957859 0.0379231 -0.12557 0.260228 0.189808 0.0386191 -0.0491494 0.388996 -0.0535878 0.596774 0.392793 -0.805361 -0.295416 -0.0184724 0.689388 0.11759 -0.801318 -0.310762 0.397881 -0.704103 0.203886 -0.0836783 0.0460732 -0.143903 1.04394 0.814603 1.36879 0.547922 -0.702325 -0.400172 0.188742 -0.281491 -0.0272543 0.573787 -0.206886 -0.316774 0.256189 0.508972 -0.0821085 -0.626762 -0.977793 -0.0547421 0.27188 -0.52536 0.117963 0.704015 -0.0142955 -0.524495 0.582759 1.27395 0.134887 0.312539 0.372626 0.159943 -0.418967 -0.154715 -0.36536 -0.641404 0.557231 -0.253918 -1.14537 0.660584 -0.241034 -0.669192 0.0957326 -0.496724 0.456326 0.471133 0.494649 0.0819441 0.616414 0.45639 -0.381068 0.81345 0.173493 -0.201753 -0.143015 1.02904 
0.581742 -0.673425 0.694976 -0.152736 0.522044 0.167749 -0.264534 -0.57087 -0.106086 0.551841 0.675245 0.372735 0.825711 -1.06221 -0.228705 0.250464 -1.08272 0.256495 -0.382831 0.197891 0.237645 0.844368 -0.470032 0.581014 1.24813 0.981898 0.863172 -0.377036 -0.746321 0.908151 0.594852 0.45772 -0.106002 0.247944 -0.310235 -0.457775 -0.568418 -0.822465 -0.8038 -1.26106 -0.125222 -1.01278 -1.02162 -0.458923 -0.437752 -0.640203 0.0672332 -0.453716 0.597174 0.916287 0.937449 -0.634029 -0.857689 -0.820706 -0.0871117 -0.0962721 -0.414534 -0.662776 -0.373233 0.109158 -0.221636 1.39503 0.248117 0.83936 -0.126371 0.839319 0.149304 -0.198078 0.177283 1.14352 -0.186276 0.13673 0.262981 -0.244416 0.41027 0.723992 0.103277 0.619535 0.604218 0.177167 -0.0113042 -0.498519 0.25513 0.824293 0.957508 -0.0267456 1.03429 -0.764708 -0.748821 0.0708556 -0.0235461 0.956943 0.638868 0.0245475 0.110455 0.166254 
-0.912065 1.12388 -0.285562 1.19963 0.250996 0.213298 -1.43569 1.05702 -0.510112 -0.428223 0.578229 -0.151531 -0.676249 1.42451 -0.335557 0.422369 -0.605647 1.0196 0.732643 0.717985 0.617206 0.301485 0.292566 1.40048 -0.858414 0.0859969 -0.319034 0.317246 0.364616 -0.346324 0.979438 0.500261 -0.0494292 0.268773 0.0377544 -0.900915 -0.191531 0.802216 0.36539 0.616753 1.05636 -0.0619321 0.0259256 0.489103 -0.308844 -0.433175 0.708952 -0.320948 0.0608775 -0.245736 0.398257 -0.14187 0.451687 0.569772 0.48291 -0.644133 -0.484026 -0.104613 0.103878 0.306579 1.28106 -0.577355 -0.823908 0.267487 -0.0226937 -0.136392 0.17791 0.430427 0.108113 -0.256937 0.0343912 -0.131808 0.186384 1.49541 0.194177 0.334404 -0.021745 -0.353308 -0.402226 -1.1569 1.18455 0.768249 -0.0516004 -0.291219 -0.462327 0.242857 0.102102 -1.05801 -0.477182 0.0675458 0.232689 0.0143871 1.01197 -0.405902 -0.453708 -0.285671 
1.13014 -0.308332 0.506463 -0.0804091 -0.0592909 -0.0700878 -0.412727 0.412034 -0.400163 -1.29832 -0.254113 0.225643 -0.0506826 0.440687 0.506357 0.240552 -0.941464 -0.433295 0.784857 0.0265038 0.0728966 -1.57843 -0.624999 0.113003 1.36523 -0.387342 -0.666451 -0.621082 0.0343038 -0.536764 -0.80516 -0.150701 -1.21908 0.451527 -1.16349 -0.116012 -0.252122 -0.615873 -0.0280839 -0.301525 0.583843 0.898041 0.370501 -1.05515 -0.669567 1.36792 -0.340539 -0.737716 0.0526783 0.116023 0.230583 -0.516541 -0.289299 0.220863 0.54302 0.849539 -0.15884 -0.500085 -0.848172 -0.166972 -0.448773 -0.427691 0.373649 -0.810835 -0.660682 0.116381 0.0986851 -1.0837 -1.79051 -0.294711 0.822699 -1.27215 0.129705 -0.135912 -0.237012 0.0587675 0.903194 -0.502302 1.14373 0.814161 0.23563 -0.107487 0.670097 0.389602 -0.759587 -0.210402 0.299563 -0.305133 -4.68094e-05 -0.410357 0.0680664 -0.0159613 -0.406761 -0.552834 0.407627 0.437301 
-1.15153 -0.762313 -0.100617 -0.224334 -0.421214 0.607538 0.29869 0.735466 -0.859838 -0.316954 0.74121 -0.0391648 0.879731 -0.17309 1.34942 0.250537 0.00517475 -0.0376477 0.284193 0.270747 0.308338 0.674993 -0.551025 -0.515194 0.797982 0.118455 -0.518207 0.582119 -0.423578 0.0148578 -0.270703 -0.047718 -0.522717 -0.124743 0.136704 0.0444794 0.673277 0.426958 -0.450727 -0.631305 1.41545 -0.749427 0.0735034 -0.759601 -1.17985 -0.110597 -1.34653 0.49288 -0.0650899 0.307054 -0.615678 -0.0131341 -0.937523 -0.79423 -0.163437 -0.531677 -0.068817 0.534464 -0.843228 -0.306742 0.960368 0.109758 0.55882 0.603326 0.326237 0.0414539 0.00650731 -0.659581 -0.150954 0.793968 -0.167144 0.0757712 -0.187526 -0.620739 0.407226 0.421515 -0.142626 -0.965595 0.387087 0.411992 -0.114725 -0.00340508 -0.453798 -0.653443 -0.549023 1.46299 0.433697 0.336089 0.0687347 0.459431 0.695503 0.193881 -0.616912 0.108831 1.17548 -0.814974 
-0.404212 -0.401799 0.242914 -1.21211 0.542562 -0.353923 -0.236957 -0.919916 -1.59578 0.496712 0.16283 0.0761253 0.123129 0.834461 0.488719 -0.278966 0.353811 -0.426536 -0.420647 0.486759 -0.320194 -0.712071 0.261568 -0.551639 -0.782555 -0.105218 -0.713021 -0.556358 0.159443 -0.527293 0.480917 -0.478137 -0.618412 0.781603 -0.244318 0.830576 1.00235 -0.116908 0.624876 -0.998579 -0.10829 -0.503791 -0.349567 -0.805095 0.986595 0.226018 0.89292 0.299655 -0.240249 0.319728 -1.45147 -0.643851 -0.752801 0.832154 1.34597 0.0598809 -0.18063 0.330806 -0.351127 -0.350533 -0.547427 0.256922 0.790256 -0.17876 1.43586 0.423169 -0.00261104 0.748998 0.392393 -0.625034 0.220628 0.482991 -0.217455 -0.324963 -0.356601 1.23373 0.748221 1.19845 -0.574688 0.800882 -0.304847 -0.587065 0.686367 -0.063594 0.365993 -0.039858 -0.351352 0.482654 -0.0360649 0.324798 -0.970758 -0.464551 0.166518 -0.458763 -0.374942 -0.273572 
1.03699 0.246163 -0.470303 0.324995 -0.84247 0.729967 0.514042 1.64646 0.0548619 -0.308113 0.198481 -0.71945 -0.880893 0.281151 0.566523 0.271849 -0.540419 -0.816727 0.277092 0.410989 0.8052 -0.491564 -1.06083 1.33988 0.173159 0.348623 0.742623 0.378541 -0.0634268 -0.472581 0.868525 0.178293 0.223361 -0.513777 0.11208 -0.964435 -1.10901 -0.361672 -0.354799 0.218025 -0.789 -0.468823 0.644811 0.930151 -0.0759163 -1.10901 -0.431926 -0.35554 0.511096 -0.0123015 -0.447918 0.346631 -0.24078 0.629959 0.0345594 0.0998629 -0.495317 0.00490879 0.0249111 -0.378862 0.0719331 -0.654406 -0.629886 0.321517 -1.01808 -0.429589 -0.319633 0.318314 -1.22163 -0.275945 0.748386 0.74695 -0.0625317 -0.0452993 -0.00907544 0.791769 -0.428353 0.325784 -0.797463 -1.32456 -0.587985 -0.11676 1.25289 0.740523 0.794279 -0.956378 0.654086 0.572631 -0.138295 1.69155 -0.0505998 -0.201463 0.168816 0.680887 -0.00711685 -0.329881 
0.8721 0.0252524 1.19568 -0.245204 0.165206 0.637077 -0.578116 0.292783 -0.0200286 -0.0390981 -0.663936 -1.00434 0.624824 0.171829 0.257157 0.834008 -0.773695 0.152587 -0.0608453 -0.0664743 -0.584898 -0.145684 0.404048 0.280047 -0.109697 -0.576901 -0.143663 -0.062633 -0.817978 1.0282 -0.107491 0.546671 1.07728 0.106698 0.0593161 -0.442868 -0.200829 0.0796006 -0.554498 0.0598208 -0.19301 0.781921 -0.237735 -0.589208 -0.398661 -1.45226 0.466535 -0.988393 -0.147119 -0.816188 0.867119 -0.191538 0.434776 -0.190725 -0.981987 -0.629083 -0.0787065 0.0787392 -0.316291 -1.25512 -0.809495 0.538435 -0.177075 0.878202 -0.101382 -0.0419065 0.753597 0.0597018 -0.759524 -0.330729 0.142695 0.42164 1.20961 -0.309283 0.799209 -0.419778 0.150557 -0.140694 -0.214886 1.31163 0.242072 -1.21252 0.035559 -0.4041 -0.536978 0.811519 0.588552 -0.25209 -0.344432 1.58007 0.503818 -0.1693 0.535547 0.792353 -0.67347 0.00736935 
-0.372724 0.425439 -0.0169563 -1.10161 -0.364675 -0.522267 -0.20586 1.05253 -0.213624 -0.0524931 0.765805 0.385391 0.470396 0.190823 -0.453989 0.359872 0.57747 0.112687 -0.900057 1.1519 0.472341 -0.392196 -0.992575 -0.921147 -0.396089 -0.441402 0.193187 -0.26703 0.558263 0.50654 -0.331097 0.748042 -0.147412 -0.387034 -0.242571 -0.13121 -0.0946357 0.379053 -0.531249 0.206974 -0.695984 -0.522162 -0.100122 -0.408658 -0.249178 -0.00558923 0.285275 -0.480623 -0.236853 -0.131509 -1.22226 0.346632 -0.686551 0.597464 -0.148745 -0.39613 -0.0480972 0.0242093 0.145525 0.21639 0.496727 0.413055 -0.120972 0.209058 0.523549 0.0894228 -0.137615 0.704602 -0.183261 0.26157 -0.694304 -0.908424 -0.0475062 -0.565541 0.189441 -0.544688 -0.0676798 0.254647 0.249713 -0.18692 -0.442359 -0.287114 0.239389 -0.668123 -0.347483 0.618128 0.754768 -0.0599911 -0.381593 -0.423101 0.955465 0.369577 -0.0467811 0.127676 0.383583 0.707016 
1.04063 0.885994 -0.354699 1.02601 -1.52524 -0.40101 -0.503693 1.13024 0.359524 0.816953 -0.0641943 0.608196 -1.17278 0.279523 -0.136218 0.894418 0.0407257 1.09409 0.29769 -0.39536 -0.240408 0.342893 -0.312494 0.526062 1.1296 0.596342 -0.876193 -0.357788 0.48009 0.402938 1.10154 0.0622776 -0.931502 0.178063 0.412534 0.341914 -0.52259 -0.665507 -0.295179 0.138733 0.00314592 -0.257164 0.875656 -0.659339 0.161834 -0.384762 -0.0117798 -0.46328 -0.404139 0.540917 0.404104 -0.0317467 -0.103119 -0.0870583 0.476131 0.198194 0.0741681 0.675404 -0.0672448 -0.251605 -0.202445 0.92976 0.0795856 0.145842 1.20687 -0.047773 -0.288801 -0.0925821 0.723935 -0.511838 0.806025 -0.181718 0.912262 -0.346538 0.30573 -0.472257 0.312118 -1.03277 -0.0911647 -0.836635 0.432168 -0.342578 -0.510054 -0.480966 -0.922187 0.594462 0.510247 -0.843704 -0.955356 -0.391466 -0.128973 0.24737 -0.313102 0.200554 0.103699 0.344948 
0.452887 0.119895 -0.465434 -0.238566 0.0161181 -0.267186 0.358342 0.597456 -0.213058 0.104985 -0.326692 0.605498 1.08344 -0.063368 0.78476 -0.0705895 -0.458251 -0.610288 -1.26854 -0.419154 -0.718504 0.104131 0.730282 0.733105 -0.0461184 -0.168003 -0.0225389 -0.244412 -0.103104 0.0765077 -0.591861 0.3415 0.371719 0.30142 -1.18652 0.180659 -1.83225 0.6318 -0.336395 0.968679 -1.06946 0.507475 0.072122 0.449018 0.458319 -0.692078 0.361529 0.0636976 -0.412425 0.310529 0.463793 1.12105 -0.363638 0.18736 0.103949 -0.026337 -0.6762 0.106134 0.532337 0.0351304 0.275176 -0.105717 -0.480245 -0.267354 -0.162576 -1.08872 -0.0608285 -0.371359 0.040894 -1.08134 -0.187035 0.680629 0.0555928 0.580127 -0.524305 -0.224492 -0.184168 0.522964 0.0526109 0.156 1.30731 -0.419195 -0.218183 -0.559875 0.506036 -1.26823 0.608152 0.112644 0.0618077 0.321282 0.406346 -0.294227 -0.00676252 0.449839 -1.14272 -0.342045 
-0.351499 0.184253 0.137772 0.501361 0.75466 1.9083 0.48598 0.465869 0.207123 -0.113205 0.1344 -0.0847337 -0.897382 -0.997986 0.136729 -0.0362476 -0.593051 0.207308 0.767872 0.950555 0.179988 -0.446352 -0.25597 0.458378 0.272993 0.44703 0.170911 0.0252787 0.510195 0.652733 -0.085767 0.0949923 -0.429622 0.541013 -0.166524 -1.1644 0.644449 -1.33789 0.121319 -0.821843 -0.653425 -1.18613 0.611337 -0.691933 -1.0795 -1.37742 0.009006 -0.288181 -0.422554 -0.0656734 0.04812 0.58289 -0.470652 -0.0362994 0.793506 0.329747 -0.224833 0.550291 -0.798253 0.340527 0.439339 -0.569736 -0.107002 1.00055 -0.248678 -0.160222 0.560104 -0.305823 -0.262356 0.0949343 0.471502 -0.247011 -1.44873 -0.784926 -0.200842 -0.42649 0.0765603 0.0312296 1.05735 -0.208147 0.598314 -0.810777 -0.156686 -0.331424 0.438289 0.457373 -0.0735211 -0.944363 -0.570568 1.08589 -0.218039 0.53389 -0.745573 0.947581 0.491888 -0.36409 
-0.270122 0.311647 -0.280739 0.315542 -0.0879183 -0.662085 -0.90698 -0.197687 -0.765298 0.261966 0.255204 -0.0845185 0.351813 -0.0180859 -0.550649 -0.546152 -0.0417384 0.571655 -0.567168 0.718403 -0.065104 0.725556 0.278306 -0.441489 0.34643 -0.0914741 -0.163403 -0.0734633 -0.276629 -0.0415194 -0.843536 -0.0968572 0.587665 -0.844587 -0.26641 1.22885 -0.206809 -0.812128 0.545022 -0.166318 -1.07503 0.431726 0.330739 0.398047 -0.641706 0.0393895 -0.365894 -1.18024 -0.68729 0.512467 0.641943 -0.0275137 -0.969297 -0.0604964 -0.379891 0.344526 0.0681627 -0.794701 0.838645 -0.0924751 0.663687 0.638342 0.368019 0.596661 -0.598842 -0.685204 0.130998 -0.506606 0.0426015 -0.354597 -0.479384 -0.286049 0.796369 -0.510925 -0.240108 -0.264958 1.34462 -0.625574 0.422138 0.233599 0.55271 -0.0338517 1.22889 0.632499 -0.0579789 1.22151 0.181981 0.663276 -0.289719 -0.177438 -0.659064 0.547735 0.0823039 0.983215 0.454494 0.288997 
0.508317 0.460651 -0.168763 0.315613 0.128191 0.00748081 -0.0725106 -0.256993 0.421236 -0.138149 0.0559547 0.153828 -0.350206 0.748721 -0.524022 -0.481578 0.124352 0.194218 0.206427 -0.953272 -0.0233923 -0.0746747 -0.823493 0.0595723 -0.0588739 0.0390378 0.020794 0.0472637 -0.0534187 -0.566875 0.359012 0.0460432 0.357757 0.203118 0.130129 1.43246 -0.514866 -0.0791343 -0.167719 -0.395023 0.389365 0.442255 -0.79227 -0.324834 -1.3699 -0.315851 0.651964 -0.185836 -0.38354 -0.333822 -1.2769 0.194426 -0.0862315 -0.382029 -0.265212 -0.0935466 0.0872544 -0.177841 -0.00866746 -0.35576 -0.339579 0.394855 -0.0319359 -0.323983 -0.694552 -0.049499 0.0942788 -0.132536 -0.184852 0.278853 -0.179713 -0.603021 -0.344591 0.383577 -0.25179 1.05039 0.0946655 0.233267 0.246155 -0.849701 -0.301591 0.655309 -0.0836905 -0.463335 -0.287328 -0.294817 0.00644543 1.13417 -0.062418 -0.922796 -0.586135 0.392909 0.149411 0.458555 0.685879 0.830536 
0.612946 -0.956441 -0.546408 -0.27 -1.01762 0.488348 -0.0280313 -0.265274 0.171375 -0.420296 0.5551 -0.383855 0.676926 0.698826 0.540172 0.440004 0.335347 -0.483103 0.496783 1.25227 0.471409 0.0779012 0.118893 -0.459738 -1.10643 0.0523999 1.07126 0.36722 -0.610419 0.374915 0.286419 -0.0162651 0.403788 -0.181357 -0.0914467 0.0733257 -0.594773 -0.128094 -0.430572 0.228765 -0.151168 -0.986192 -0.165065 0.588786 -0.825052 -0.539739 -0.380314 0.150821 0.309147 0.158316 0.0912076 -0.356514 -0.301455 -0.959629 1.20524 -0.986999 0.37923 0.188367 0.0096261 -0.532655 -0.0652439 -1.22904 0.259998 0.180996 -0.566674 0.301449 0.0315256 -1.1713 -0.602763 -0.556609 -0.519561 -0.354061 -0.271339 0.448984 -0.0820306 -0.232823 -0.170089 -0.267926 -0.22094 0.245398 0.155536 -0.263979 0.46437 0.334641 0.631352 -1.69926 0.712647 -0.198556 -0.267343 0.425341 0.321204 -0.579522 -1.15593 0.482506 0.413801 -0.194717 
0.0516042 -0.263738 0.326883 -0.529196 0.640759 0.184112 -0.699021 0.616251 -0.0594842 -0.255339 0.602789 0.201017 -0.439009 -0.220047 0.596848 -1.61722 0.468083 -0.282209 -0.667348 0.275849 -1.04866 0.232497 0.248612 -0.675996 -1.11617 -0.120501 0.16052 -0.811902 -0.22559 0.297952 -0.712738 0.0203764 -0.172237 -0.260062 -0.280088 0.363958 -0.314416 0.817385 -0.462408 -0.577802 -0.572988 -0.968547 -0.0121101 -0.596066 -0.728318 -0.161698 0.0238549 0.185026 0.61293 0.378376 0.546065 -0.496968 0.385259 0.833928 -0.335877 0.0657961 0.592821 -0.332236 -0.521765 0.650451 -0.28856 0.609364 0.61671 0.0218353 0.320006 -0.879997 0.870319 -0.0304762 -0.0156391 1.09098 0.121289 0.238866 -0.0679621 -0.248532 0.405965 0.240646 1.2823 0.226246 0.447686 0.48385 -0.784106 -0.19618 0.534865 -0.549977 -0.686737 -0.728446 0.277429 1.22441 0.31437 0.631069 0.0269674 -0.807809 -0.0701398 0.0865097 -0.738923 -0.79288 
0.220033 -0.0776509 -0.242584 -0.352861 -0.783554 -0.157853 0.601912 0.249274 -0.215286 -0.555743 -0.0644904 -0.922669 0.140974 0.840375 0.885124 -0.0193331 -0.340044 -0.672672 0.909789 0.0411312 0.0765275 0.419018 0.719388 -0.235678 -0.034136 0.61505 -0.171027 -0.771973 -0.253205 -0.727156 -0.861449 0.147621 -0.151154 -0.675011 0.602363 -0.233602 -0.956203 0.0155448 1.06339 -0.549743 0.750839 0.0339156 0.683972 0.485606 -0.0684258 0.148995 -0.0316688 -0.0537474 -0.911016 -0.438052 0.374364 -0.355846 0.0260815 -0.876842 0.12797 1.3877 -0.459928 0.310213 0.0881198 -1.33678 0.348883 -1.37291 0.128689 0.362985 0.072324 0.691215 -0.17894 0.495193 -0.167553 -0.511724 0.553478 0.429035 0.464816 -0.38129 0.180683 0.160765 0.710285 0.682038 0.89838 0.363154 -0.69583 0.944146 0.0434154 0.783824 -0.51842 -0.1263 -0.259552 0.401274 0.546534 0.695487 -1.18679 0.788726 -0.26417 -0.0956423 -0.136417 0.0271109 
-0.233034 0.371139 0.180116 0.0669474 -0.14948 0.344178 -0.332547 0.327102 1.10901 -0.092589 -0.0938683 -0.145624 0.389053 0.305941 -0.489072 -0.16404 -0.817596 -0.167941 -1.08235 0.639587 0.415033 0.335572 0.585715 0.573863 -0.0207491 1.11367 0.420261 0.488782 0.490018 -0.050415 -0.511699 0.096248 -0.14267 -0.335685 -0.26092 -0.254156 0.0794745 -0.297794 -0.56053 1.35186 -0.887718 0.236377 -0.950803 0.0793641 0.362284 -0.58866 -0.233584 0.487667 0.523458 -0.313556 -0.237444 0.707918 0.391682 0.0749227 0.472933 -0.310951 -1.33889 0.0312394 0.124089 0.745832 0.0967502 0.156837 -1.06568 0.287977 0.859948 0.268489 -0.364087 -0.444816 -0.151002 -0.213005 0.166975 0.0558009 -0.218414 0.271668 -0.135403 -0.88098 -0.165257 -0.346709 -0.0869831 -0.290528 1.24893 -0.273352 0.599761 -0.357835 -0.33996 0.704627 0.0646816 -0.0891131 0.222816 0.273057 -0.0824587 0.113445 -0.817382 0.910445 -0.510793 0.197126 
0.111931 -0.427068 -0.487758 -0.394074 -0.523408 -0.287007 -0.596369 0.344066 0.568057 -1.25189 -1.11894 0.27764 -0.701648 -0.396968 0.225175 0.0976114 -1.19399 -0.951298 -0.148137 -0.175878 -0.847465 -0.0243399 -0.114867 -0.552025 0.26087 0.905838 1.15529 -0.229487 0.388485 0.354539 0.309372 0.517881 0.125498 -0.620278 1.40117 -0.822371 0.25884 1.1174 0.283962 0.0682715 -0.306265 0.174646 -0.641048 0.0302266 0.537738 1.01438 -0.443547 -0.45588 0.60725 0.002784 0.528991 0.338335 -0.615386 -0.764211 -0.538378 -0.474119 0.408174 0.471681 1.58566 0.390609 0.62475 0.0083335 0.772024 -0.834351 0.468442 0.861349 -0.0996638 -0.55603 -0.792988 0.217074 0.996091 0.747341 -0.455332 0.001231 0.392769 0.155256 -0.181356 0.223715 0.00437467 0.0115573 -0.644836 -0.781534 -0.078686 0.195019 0.2348 0.42873 -0.177698 -0.264422 -0.278803 -0.188676 0.6324 0.729491 0.351448 -0.169621 0.906545 -0.0814503 
-0.197329 0.186041 -0.462597 0.953623 -0.730887 0.646016 -0.486658 -0.850806 -0.0776957 -1.10787 0.309109 0.641134 0.149443 -0.767045 -0.656218 -0.478698 -0.816825 -0.049822 -0.0401275 0.161288 0.687454 0.328324 0.40788 -0.930673 -0.572052 0.0565467 1.24002 0.736939 -0.102707 -0.506954 1.21535 -0.662521 0.0534706 -0.563466 -0.149294 -0.547644 -1.47727 0.112446 0.696462 -0.320582 -0.767554 0.636516 0.457166 -0.572423 1.12246 0.00576765 0.0330355 -0.769133 -0.567254 0.451766 -0.536956 -0.165536 -0.0661323 1.06583 -0.37019 -0.147029 -0.463448 0.828206 -0.579259 -0.145749 -0.0577159 -0.321797 -0.619523 1.23031 0.776815 -0.37678 -1.16808 -0.103686 -0.337977 1.57118 0.912091 0.62828 -0.681552 -0.0170648 0.396388 0.645878 -0.599965 0.859778 0.552182 -0.13899 -1.13304 0.0751884 -0.861338 -0.330139 -1.56528 0.700304 0.319572 1.28386 0.528236 -0.214035 0.996136 -0.574879 0.404315 0.519908 0.573378 -1.51767 
0.636182 0.193279 0.650382 -0.580076 -0.422029 0.0917517 0.274069 -0.893473 -0.325712 0.0319237 -0.687635 0.900026 0.812581 0.120204 1.5844 -0.507934 0.0919729 0.233056 0.934896 0.0755304 -0.32137 0.123403 -0.105182 0.59771 -1.05902 -0.637016 1.4727 -0.155479 0.846096 -0.0138098 -0.0726136 0.290847 0.339614 0.0480388 -0.091956 0.0512716 0.0534838 0.624778 0.0968038 -0.436955 -0.400014 -0.220573 0.214349 0.190338 0.829095 -0.220467 -0.48703 -0.0165595 0.374094 0.692392 0.322792 0.0513717 0.00565779 0.372783 0.845014 0.322819 0.0777446 -0.116752 0.473979 0.948537 -0.313334 -0.661947 -0.136235 -0.164869 0.74495 -0.52975 0.682632 -0.810829 -0.067773 -0.504881 -0.56061 -0.558206 0.417231 -0.147507 0.53013 -0.224298 0.2314 1.07461 0.53023 0.218368 -0.385524 -0.12944 -0.0028969 0.989191 -0.711491 -0.721331 -0.542219 0.869126 -0.382509 -0.0957711 -0.026454 -0.395221 -0.411007 -0.814415 1.43223 -0.435513 
-0.992949 0.516825 0.833892 0.160095 0.936915 0.887813 -0.13116 0.117069 0.733646 0.615506 -0.367372 -0.500649 -0.394361 0.143344 0.223504 0.527329 0.0288708 -0.416191 -0.476823 0.328098 -0.815219 0.247979 0.264534 -0.729525 -0.717888 0.151913 0.465503 0.131336 0.476472 0.389635 0.649478 1.0236 -0.143338 -0.426616 0.115404 0.0511628 0.1856 -0.294408 0.474747 0.120527 0.245494 0.221245 -1.1996 -0.245784 -0.380758 -0.161837 0.608115 0.390393 -0.805099 -0.263278 0.130243 0.363362 0.114519 0.0400973 0.0760407 0.173895 0.461009 -0.268101 -0.264042 0.891479 -0.451788 -0.0714203 0.267861 -0.0505578 0.612662 -0.816674 -0.367319 -0.634553 -0.68508 0.285952 -0.343376 0.767259 -0.475059 1.26717 0.646137 -0.165619 0.795656 -0.106412 -0.00848497 0.292866 0.488241 0.90313 0.0370402 -0.578519 -0.241521 0.281351 1.10733 -0.0891362 0.360459 -1.66967 -0.0869862 1.26924 -0.0661826 0.934881 0.0930272 0.613545 
-1.22585 0.751392 -1.19366 -0.212803 0.326508 -0.498154 0.301001 1.07349 0.618816 0.634735 0.307623 -0.726958 0.478711 -0.656811 -0.101482 -0.32245 0.432476 -0.904028 -0.184971 0.892043 -0.455354 -0.601826 -1.563 0.385275 -0.120536 1.03694 -0.165184 -0.421261 -0.989816 -0.187309 -0.212204 -0.197174 0.11178 0.4215 0.00854275 -0.262396 -0.102038 -0.421562 -0.504091 0.58091 0.0014783 0.332849 0.390673 0.442956 -0.739859 0.984391 0.43244 0.0302088 -0.423961 -0.527743 0.530276 0.243071 -0.222181 -0.169808 -0.118621 0.84121 -0.776879 0.721436 0.53994 0.494359 -0.836218 1.38558 0.606431 -0.593961 -0.660656 -0.528879 -0.401524 0.0327817 0.415212 0.833757 0.179072 0.239247 0.271166 -0.601305 -0.540275 0.105432 -0.555098 0.769002 -0.331671 0.567985 0.751253 -0.427365 -0.0415609 0.322349 -0.565062 0.193218 -0.31043 -1.1952 -0.75306 0.271753 -0.157874 0.590525 -0.539405 0.391661 -0.597052 -0.370233 
1.24688 0.13313 -0.455341 0.299608 -0.384576 0.353375 0.512728 -0.317985 0.0166261 -0.649734 1.23838 0.148456 -1.23314 0.490265 -0.720824 -0.236491 -0.511683 -0.3068 0.146934 0.690207 0.366869 0.105588 0.337892 0.646438 -0.101639 0.7072 0.584736 0.419824 0.319337 -0.122949 -0.502819 -0.548025 -0.57071 -0.788761 -0.00908272 -0.383022 -0.417913 -0.513197 -1.11307 0.0327432 0.47352 -0.0915992 0.433693 0.670677 -0.580366 -0.477377 -0.168906 0.52102 -0.277644 0.394405 0.0348579 -0.30212 -0.391285 0.798322 -0.271352 1.23887 0.665761 0.428838 -0.609559 0.03587 0.352159 0.73875 -0.178651 0.115817 0.601987 -0.413067 -0.0983311 0.812603 -0.312778 -0.206007 -1.16403 -0.0645134 -0.599306 0.586425 0.15406 -0.942919 -0.315312 0.782591 -0.138936 0.212857 -1.40936 -0.0839405 -0.825414 0.262209 -1.364 0.0616264 -0.48438 0.117661 -0.169757 -1.13988 0.370037 0.549065 -0.343503 0.189084 -0.655125 0.576666 
0.524435 0.0262519 0.40705 0.206629 -0.521298 0.553452 -1.13786 -0.0962827 -0.289151 0.311384 0.450207 0.324758 0.902381 -0.393378 -0.305197 -0.176439 0.0100276 -0.416408 0.344549 -0.34923 -0.157266 -0.00385696 -1.18241 0.404728 0.0817327 0.420556 -0.220832 -0.173622 0.0542906 0.935942 -0.870815 0.0904784 -0.381985 -0.231058 0.0330229 -0.00938018 0.0694171 -0.720582 0.804923 -0.460718 0.72166 -0.27411 1.11095 -1.13161 0.282172 0.675671 -0.634224 -0.423781 -0.422497 0.854278 -0.0387743 0.641921 0.600609 -0.217193 -0.437589 -0.147908 0.338783 0.27255 -0.414413 0.10982 -0.211672 -0.954207 -0.728773 0.140076 -0.450017 -0.0923467 -0.574335 -0.994596 -0.341941 -0.468411 0.985331 0.0902614 -0.429358 -1.18369 -0.604397 -0.0688194 0.18326 0.845992 -0.938176 -1.18221 -0.0780791 0.218655 0.343992 0.0660707 0.325671 0.67147 0.354296 1.00025 0.172169 0.248695 -0.477678 1.30119 -0.473429 -0.020311 0.15669 0.653252 
0.0291142 0.338468 1.23925 0.228864 0.338193 0.286422 -0.76365 0.486245 0.163169 -0.353494 0.493394 -1.18973 0.457848 0.401742 0.364377 0.646164 -0.733088 -0.285873 -0.510288 -0.644989 -0.301633 -0.331794 0.507681 -0.455576 -0.0314035 -0.465145 0.103291 0.117119 0.89657 0.708328 1.14179 0.916559 0.775692 -1.05313 0.352363 -0.275361 -0.796845 -0.712948 -0.765924 -0.264427 0.400949 0.481334 0.130201 0.637 0.456578 -0.12478 0.538526 -0.353334 -0.353177 -0.0835784 -0.0564694 0.453143 -0.97117 0.23693 0.426106 0.239076 -0.595269 0.960314 -0.90668 0.385677 0.55022 -0.0646269 -0.0967716 -0.0278095 -0.798163 -0.255831 0.606644 -0.919198 -0.690446 -0.0946271 -0.175015 -0.372574 0.420388 0.743329 0.365516 -0.177622 -0.679929 0.935167 -0.680956 0.935374 0.609972 0.389118 0.277007 -0.126866 0.301931 -0.162443 -0.596032 0.521306 0.205892 -0.712202 -0.845892 0.0375065 -0.118535 0.144935 -0.263002 -0.409943 
-0.173813 0.898372 -1.25675 0.804243 -0.183 0.402525 0.329312 0.225276 -0.292997 -0.108854 -0.0557313 -0.809523 0.762619 -1.26123 0.187292 -0.201657 -0.110349 0.173258 -0.602705 -0.670954 0.301254 0.563064 -0.401577 -0.682365 -0.458461 -0.604982 -0.173015 -0.149467 0.303889 0.474703 0.0611144 -0.29803 -0.940878 0.14789 0.143588 -0.581661 0.440672 0.154672 0.776761 -0.375608 -0.0353213 -0.214317 -0.772956 0.24032 -0.543614 0.190455 -0.175556 -0.284044 -0.11923 -0.353142 -0.026004 -0.816463 0.39349 -0.283146 -0.55153 -0.589896 -0.0316497 -0.495106 -0.190113 -0.123371 0.432135 -1.16584 -0.0711403 0.116131 0.0956144 0.154793 -0.0507823 0.895467 -0.0850845 0.125875 -0.0683662 -1.08135 -0.0103712 -0.550336 1.14376 -0.366705 0.0889775 -0.0285192 -0.883261 -0.0363385 -0.73263 -0.138808 -0.246971 -0.671155 0.733624 0.729759 0.867235 0.364397 -0.212057 -0.788559 0.395233 0.505387 0.0836676 0.335898 -0.287483 -0.0843508 
-0.817504 0.469611 -0.0856554 -0.110174 0.232421 -0.558766 0.249765 -0.270986 -0.514264 -0.0449844 -0.148265 -0.807748 0.273607 0.368271 -0.156878 -0.580516 -0.143015 -0.047189 0.412064 -0.0866231 0.446308 -1.02565 -0.0537661 0.965557 -1.03897 0.200899 0.400734 -0.910568 -0.0454771 -0.210101 0.0169229 0.773799 -1.02036 -0.0344035 -0.780763 -1.11637 -0.704347 0.334627 -0.793866 0.0413937 -0.072224 0.285289 -1.14685 -0.295621 0.115768 0.170853 0.200393 -0.872116 -1.00671 1.06858 0.889984 0.0131118 0.121825 -0.302241 -0.785127 -0.240798 0.941726 0.356877 0.893255 0.562746 0.374349 0.784566 -0.850358 0.165562 -1.01665 1.15855 0.093728 -0.0708046 -0.324423 0.654388 0.429312 -0.0478793 -0.66106 0.451242 -0.396459 0.0426779 -0.597842 0.717956 -0.105294 -0.871817 0.306803 0.125534 -0.45614 0.462165 0.821297 -0.0284842 -0.681991 0.220846 0.983764 0.255525 -0.0204103 0.8918 0.184653 0.462821 0.460128 -1.62841 
-0.17466 0.534692 0.58839 0.000366752 0.722955 -0.165222 -0.210281 -0.345303 -0.526402 0.205976 -1.10113 -0.308653 -0.243948 -0.487676 0.117414 -0.279916 -0.251461 -0.314399 1.25046 0.0535326 0.234785 -0.545578 -1.33584 -0.0454423 1.13508 -0.0491402 0.241365 0.690565 -0.111479 0.252316 -0.385614 0.304371 0.336633 0.289181 0.538106 -0.25327 -1.59521 -0.332589 0.623176 0.119688 -0.35107 -0.821365 0.344965 -0.638755 0.188565 0.520879 -0.222323 1.10347 0.626727 -0.742329 0.233333 -0.197812 1.03077 -1.25914 -0.680606 0.208756 1.17455 -0.421532 -0.796701 -0.22354 -0.763926 0.712257 -0.172497 0.423365 0.964108 0.375136 -0.433292 0.437813 -0.409941 -0.34123 -0.12997 -0.0401354 0.943088 -0.768337 0.493962 1.15936 -0.932928 0.586454 0.0161519 -0.273663 0.47792 -0.3414 0.0675869 0.787872 1.44736 0.181879 0.029689 -0.658772 0.423597 1.10947 0.0168307 0.812765 0.0544423 -0.833157 0.061129 0.729782 
0.276553 -0.4782 1.03946 0.05619 0.596357 0.158444 0.400901 -0.103489 -0.54451 0.0741143 1.34068 0.796847 0.569699 0.239965 0.144277 -0.405594 -0.40188 0.623344 0.409515 0.145197 -0.786917 0.523942 -0.710408 0.393189 0.36569 0.493709 -0.720042 -0.120417 -0.995152 -0.39051 0.258599 0.685281 0.553272 -0.236055 0.410203 0.630192 0.376428 -0.893358 1.05175 0.351509 -0.360979 -0.241598 -0.00883014 0.390954 0.294026 -0.469245 0.73541 0.656848 -0.35888 -0.206907 -0.315548 -1.19116 -0.314717 0.972565 -0.315245 0.197525 0.0971378 0.476766 -0.246924 -0.108121 0.36957 0.771242 1.42669 -0.523427 0.302333 -0.497943 0.313964 0.0392127 -0.10523 -0.474084 0.484259 -1.0073 -0.136272 -0.747269 0.0321948 -0.375794 0.427114 -0.0255492 -0.727836 -0.433111 0.68582 1.33793 0.120498 0.690125 -0.886173 -0.660833 -0.670327 -0.365443 -0.433876 0.830921 0.0945859 0.361824 0.65164 -0.180051 0.463151 0.223112 
0.584751 0.22 -0.101127 -0.560007 0.179605 0.648304 0.314363 -0.178514 -0.992512 -0.634536 1.10309 0.314922 0.89359 0.927873 0.847861 -0.410414 -0.21785 -0.544815 -0.773071 -0.684825 -0.396501 0.0117924 0.568976 0.0329859 -0.223385 -0.426241 1.40438 -0.631762 -0.131516 -0.392824 -0.853939 0.913359 -0.488149 -0.667321 0.962553 0.340541 -0.203126 0.194989 -0.0567726 -0.530506 -0.713264 0.221778 -0.422115 -0.361734 0.191168 0.173736 -0.214388 -0.443185 0.51538 -0.747192 0.017838 0.206867 -0.404058 0.156754 0.13363 0.409771 -0.155208 -0.0291232 -0.718838 -0.264947 0.694572 0.376206 -1.07955 -1.01556 -0.640894 -0.714978 0.167227 0.360622 1.36381 -0.43682 0.124885 0.583489 -0.0084959 0.691103 0.878592 -0.745004 0.160331 -0.352284 -0.625386 -0.692996 -0.493857 -0.137857 -0.586662 0.114918 0.452823 -0.1623 -0.822729 -0.357245 -0.561113 0.246762 0.99698 -0.0981894 1.61863 0.73211 1.29289 0.288168 
-0.182463 0.858127 -0.787717 0.211342 0.487528 -0.504847 -0.0477975 0.378475 0.191933 -0.71862 0.498237 -0.092571 0.146545 0.0800925 -0.326867 0.645563 -0.243398 -0.313626 0.754072 -0.445179 -0.427337 -0.198063 -0.232987 -0.268705 -0.0828379 -0.539157 0.50642 -0.527655 0.14293 1.294 1.2878 0.751174 0.834468 -1.11931 0.597286 0.296116 0.014352 -0.636418 -0.59853 -0.0950239 0.430826 -0.0575106 1.0615 -0.147209 0.0610259 -0.0388692 -0.444807 -0.952284 -0.00668506 -0.0527587 -0.981414 -0.442026 0.552816 -0.0823314 -0.168613 0.793775 -0.390523 0.000682065 0.113578 0.227178 -0.438287 0.297578 -0.0371292 0.140339 0.414288 0.54896 0.265432 -0.474916 0.157838 0.651935 0.406122 0.0949653 -1.62164 -0.464739 -0.31628 -1.28809 -0.88669 -0.657778 0.422744 -0.30716 -0.178865 0.153904 -0.0372102 -0.23299 -0.574684 0.0870105 0.500189 0.35691 0.765112 -0.655926 0.416741 0.872402 -0.273774 0.524526 0.764536 -0.291279 
0.520512 -0.327592 0.17663 1.14513 -0.404509 -0.0102355 -0.14929 0.343286 0.578012 0.224603 0.102505 -0.482632 0.598118 0.451942 0.315775 0.127511 0.209229 0.142711 1.23974 -0.603794 1.06379 -0.838172 -0.0401462 0.255726 -1.04738 0.319161 0.663303 -0.0753171 0.278723 1.10291 0.0059023 0.0673246 -0.191309 0.0335144 -0.471623 -0.0442057 -0.736618 -0.152928 0.146711 -0.321321 0.281024 0.0527722 -0.705424 0.692061 0.133666 0.0619839 0.14265 -0.873013 -0.197224 0.564506 -0.532513 0.436452 0.56091 -1.19936 0.130591 -0.006086 0.223436 -0.297433 -0.866262 0.467782 0.145849 -0.476981 0.115917 -0.96224 -0.165929 -0.552641 -0.046738 0.477094 0.24741 0.00996743 0.731086 -1.10487 -0.786754 -0.498592 -0.416318 -0.0886046 0.791542 0.0117647 -0.136191 -0.191204 -0.563789 -0.00812861 0.255595 0.192848 0.580777 1.23651 -0.804066 -0.297071 -0.830421 -0.200662 0.0988392 -0.284118 -0.194559 0.530897 -0.0721422 -0.136049 
0.500429 0.266321 -0.373304 0.117794 0.231323 0.017991 0.926684 -0.59295 0.34893 0.107495 -1.05044 -0.0226181 0.00775972 -0.663734 -0.124143 -0.604703 -0.0389521 -0.633766 1.75319 -1.0037 -0.506718 0.238496 -0.50503 0.0961185 0.799701 -0.0780582 0.0688478 0.817355 -0.0583078 -0.727703 -0.55591 0.346714 -0.324904 0.256711 -0.178191 -0.367894 0.148087 -0.283551 -0.8342 -0.17329 -0.0479152 -0.307484 -0.21082 -1.36208 0.353986 -0.550455 -0.291329 1.46174 -0.259652 -0.826302 -0.439879 -0.852805 -0.141724 1.18653 0.262559 0.282277 0.32306 0.831887 0.501493 1.11331 0.500067 -0.163579 0.0364041 -0.677055 -0.0632152 0.875517 -0.664461 -0.347793 0.0284778 -0.761802 0.342201 -0.588561 0.476455 0.0254332 0.0716849 0.961464 -0.776749 0.499795 -0.812957 0.107716 -0.742892 0.243653 0.264641 -0.331662 -0.437764 0.295201 -0.560264 -1.13432 -0.471733 0.427188 -0.161638 -0.147563 0.686688 -0.472155 0.900959 -0.314586 
-0.773769 -0.121036 0.791362 0.230585 0.0714489 -0.74909 0.48095 0.145718 -0.0470032 -0.0563012 0.163291 0.21782 -0.541003 -0.543756 -0.203338 -0.563846 0.399961 -0.179252 0.304585 -1.05893 -0.135433 0.720366 -1.00526 -0.867234 0.0227404 0.75782 -0.110497 -0.900678 -0.11553 0.596528 0.158479 0.105485 0.749431 0.354439 1.05934 -0.75455 -0.0281288 -0.646018 0.360261 -0.147362 0.0992969 0.0934862 0.561174 0.164788 0.186506 0.195413 -0.485912 0.204959 -1.0545 0.274444 0.816467 0.283586 0.0630903 0.564829 -0.0163409 -0.273282 0.519606 0.994298 -0.348913 -0.588744 0.345005 -0.32073 -0.0188349 -0.0191782 0.872086 -0.350857 -0.0296923 -0.462618 -0.373159 -0.133768 0.173093 -1.15659 -0.249803 -0.487864 0.73025 0.484433 -0.225091 0.0137539 0.222375 -0.3045 -0.176764 0.396538 -0.115977 0.335293 -0.29127 -0.108162 -0.904417 0.281518 -0.897544 -0.519866 -0.123421 -0.167067 -0.81973 -0.49616 0.569175 0.28418 
1.32396 0.0116182 1.35718 -0.325974 -0.909254 -1.24582 -0.517309 -0.0514733 -1.02322 0.21518 -0.859361 0.0656926 0.678367 0.67248 0.0939825 0.0639588 -0.936308 -0.625303 1.05069 0.29668 0.21434 0.368303 0.322828 1.09482 -0.0259694 -1.03373 -0.670605 0.853402 -0.78369 0.482878 0.363573 -0.223894 0.386047 0.0439572 -0.470974 0.727928 0.360952 0.631608 -1.41994 -0.374549 0.574072 -0.663221 -0.550205 -0.830095 -0.263549 0.474254 -0.246492 0.013094 -0.514754 0.803276 0.503154 -0.763208 -1.11487 0.0687888 1.34453 0.411791 -0.353895 0.628722 0.452402 -0.152037 -0.276841 -0.178674 -0.664232 0.719493 0.523319 -0.361228 0.0664451 -0.156655 0.654163 0.00427611 -1.14414 -1.29511 1.09369 -0.0577681 1.4274 1.32443 -0.2696 0.54156 0.697327 -0.274855 -0.284987 -0.735887 -0.320037 0.821406 0.395244 -0.581759 -0.913094 0.316013 0.557462 -1.37142 -0.369759 0.588847 -0.256543 -0.164225 -1.6098 0.568813 
0.159664 0.616776 -0.201178 -0.0296002 -0.432218 0.667869 -0.0963254 0.618619 -0.27696 0.517568 1.24636 0.366747 -0.307681 -0.176175 0.495106 -0.166785 0.349502 -0.576657 0.433851 -0.464382 -0.455643 0.543815 0.978125 0.377821 -0.907487 -0.685752 0.26241 -0.123263 1.00692 -0.638097 -0.238011 -0.524688 0.276883 -0.604717 -1.15596 -0.560141 -0.578061 -0.107629 -0.545779 -0.136443 -0.769972 -0.445674 -0.31494 -0.0624394 -0.217987 1.05667 -0.469677 0.264043 1.0716 0.826121 0.865163 0.872791 -0.0883847 0.705681 0.323888 -0.201474 -0.266333 0.63395 0.446892 0.464567 0.609859 -0.393688 -0.853371 -0.340687 0.464469 0.484819 0.670541 -0.154294 0.385538 1.19119 0.260373 0.455102 0.638756 0.807434 -0.824762 0.609592 0.579764 0.801961 -0.131623 1.06297 -0.339788 -0.761118 -1.1 -0.0149979 -0.126298 0.140685 -0.052379 -0.208976 0.517946 0.502483 0.0384038 -0.222146 -0.551995 0.520611 0.990033 -0.404497 
-1.41221 -0.45939 -0.667242 0.525128 0.275552 -0.398183 0.697626 -0.108667 0.0197887 0.302969 -0.575937 -0.464051 -1.20947 -0.500453 0.308684 -0.62038 -0.536787 0.0931938 0.867921 -0.795659 -0.617861 1.1649 -0.718882 -0.265554 0.118701 1.07531 -0.125711 -0.0230839 -0.045276 0.324888 -0.125335 -0.796657 0.0966612 0.8916 0.471413 0.516203 -0.608955 -0.0464606 0.0373503 -0.553585 -0.0364382 -0.519514 -0.257279 -0.0110119 0.0428924 0.363065 0.440728 0.12537 0.959166 -0.231782 0.819016 0.573749 -0.238525 0.929433 -0.55071 0.416099 0.209989 -0.298629 -0.132041 -0.0580301 0.0795005 -1.25716 -0.0637024 -0.467907 -0.602868 0.0478376 1.17081 0.429208 0.65931 0.54272 -0.357244 -0.383715 -0.853475 0.977889 0.284725 0.157153 0.000243496 0.310952 1.51716 0.0452484 0.660942 0.42601 -0.231717 -0.39035 -0.465941 -0.676836 -0.766916 0.529186 -0.369536 0.224262 -0.445093 0.217146 1.03248 -0.270326 -0.436754 -0.435829 
0.158511 0.143094 0.114538 0.752384 0.396155 -0.767299 -0.19437 0.298464 0.0959233 0.739004 0.065988 -1.03171 -0.778184 -0.430521 -0.823492 0.231166 -0.293133 0.188273 0.192352 -0.476109 -0.262742 0.667381 0.225892 0.75628 -0.695368 -0.418494 -0.945065 0.318614 -0.542536 0.0090755 0.0467815 -0.655515 -0.463025 -0.689435 0.337501 -0.272707 0.84301 -0.19282 0.604028 -0.494373 -0.265654 -0.318714 0.696902 0.61867 -1.07957 0.987749 0.508498 -0.278568 -0.994092 -0.429292 -0.150411 0.817227 -1.33598 0.266871 0.519505 -0.194091 0.040451 -0.124767 0.325323 1.20559 0.554746 0.736205 0.755179 -0.154438 -0.284828 -0.246095 0.169565 0.711923 1.35017 0.0490476 -0.0508203 -0.740655 -0.685429 -0.999775 -0.152338 0.184914 -0.785541 0.294455 0.545854 -0.49605 -1.03538 0.0588849 0.0924982 -0.716633 -1.25417 0.779761 0.214017 -1.10334 -0.231879 -0.113272 0.348962 0.525728 -0.386647 -0.354068 0.506856 0.0872045 
0.325559 0.302778 -0.0751477 0.706329 0.730762 0.190848 -0.641226 -0.363578 0.959663 0.419592 -0.122625 -1.33281 -0.293526 0.652914 -0.360712 -0.0622011 -0.961878 0.11943 -1.03931 -0.838968 0.386695 -0.828056 -0.416138 0.900307 -0.473856 -0.324903 0.188175 -0.0819819 -0.895549 -0.802113 -0.527271 -0.406851 0.528677 0.21141 0.571167 1.29989 0.507304 0.560025 0.33809 0.601991 0.335999 -0.802658 -0.115957 -0.175274 -0.151512 0.109767 0.545002 -0.202447 -0.510062 0.736438 -0.324863 -0.262567 0.188493 0.561016 0.647053 0.562498 0.137559 -0.674012 -0.0537937 -0.449108 0.21907 -0.459206 0.183567 1.37337 0.884009 -0.172272 0.494557 0.544095 -0.203189 -0.974803 0.170756 0.556544 0.394047 0.330909 0.137785 0.285634 -0.398503 0.366397 0.677716 -0.41977 0.295727 -0.553255 0.771885 -0.177207 -0.536767 1.10957 0.189543 0.614785 -0.511055 1.33714 0.105432 -0.387961 -1.46823 0.187301 -0.390141 -0.0550591 
-0.747843 -0.0705008 0.669044 0.870708 -0.0195875 0.874877 -0.312333 0.342834 0.591853 0.77079 -1.10054 -0.230459 0.661092 0.428055 -0.451226 0.440297 -0.0459766 -0.118678 -0.360975 0.201983 -0.62166 -0.378891 -0.392062 -0.147669 -0.111532 0.959327 -0.048738 -0.0327244 0.970263 0.678558 0.152452 -0.315993 0.503254 0.386704 -0.316774 0.835788 0.527012 -0.863062 0.110571 0.112481 -0.741327 -0.231709 0.0698795 -0.38676 0.0271645 -0.186363 -0.241764 -1.20997 0.397175 -0.31899 -0.730837 0.0814514 0.379132 0.6777 0.450404 -1.03014 1.08691 -0.0782767 -0.26103 -0.132088 0.316175 0.0894236 -1.05386 0.122628 -0.529533 -0.636742 -0.370607 0.185806 0.813704 -0.871571 0.513626 0.583366 -0.593031 0.157615 -0.178883 -0.33498 -0.189808 -0.497998 0.0859058 1.80059 -0.783229 0.186056 -0.578932 -0.241371 0.0903893 -0.331939 1.103 0.315357 -0.903013 0.387497 0.489804 0.523618 -0.684914 -0.138479 -0.504029 -0.517236 
-0.305731 0.0961697 -0.63278 -0.754173 0.127415 -0.505315 0.0135854 0.0613467 -0.401008 -0.546484 -0.720701 0.550138 0.307618 -0.565616 -1.0598 0.444263 -0.36073 1.29783 -0.201074 0.155114 -0.263387 1.13879 0.476616 0.457073 -0.598786 -0.190781 0.992084 -0.41984 -0.4894 -0.599858 -0.744802 0.417169 0.195807 0.189605 0.564429 -0.817558 -0.133923 0.0905539 0.334547 0.0974245 -0.258443 0.28133 -0.517067 0.889921 0.46497 -0.339764 0.282565 -0.879914 0.605858 -0.422778 0.107682 -0.190165 -0.302346 -0.846338 -0.284074 -0.0764548 -0.701071 -0.275536 0.259861 -0.656695 -0.05011 0.164396 0.794245 0.733821 0.34024 0.696225 -0.413591 0.424827 -0.675044 0.0918307 0.428692 -0.178212 0.392309 -0.125085 -0.895365 -0.148878 0.108106 -0.894629 -1.07869 -0.508082 0.652093 -0.836316 -0.261939 1.30546 0.456266 0.388578 0.721939 -0.318183 -0.545697 -0.421227 -0.0285231 -0.301266 0.823924 0.845883 0.159517 -0.447477 
0.112365 0.0823698 -0.124922 0.326349 -0.600866 -0.129749 0.359109 -0.590188 -0.606392 -0.484894 -0.647829 0.215061 0.542263 0.328263 0.303384 0.395245 -1.23505 -0.737983 0.207966 0.545404 -0.157003 0.748001 0.217324 -0.163317 -0.217845 0.543275 -0.13509 -0.251547 0.703398 0.0443078 -0.626642 0.931692 0.320649 0.393791 -0.0162988 -0.190114 0.508381 -0.196356 0.0360497 -0.820179 0.0478552 -0.446663 -0.274655 -1.04231 0.599914 -0.354221 0.126522 1.49691 0.0313606 -0.45221 0.703529 0.0892539 0.595845 -0.692193 0.43317 -0.651939 -0.217429 -0.614923 -0.553446 -0.770367 0.0423585 0.813263 0.38452 -0.871853 0.147951 -0.473186 -1.14121 -0.842201 -1.12382 -0.536716 1.17151 0.706089 -0.150821 -0.675415 -0.448458 -0.328711 0.293123 -1.05266 -0.0806588 -0.00727719 0.502589 0.0462479 -0.775384 0.17529 0.620242 -0.0140812 -0.152403 0.307897 -0.687346 0.402071 0.491509 -0.346171 0.891016 -0.149202 -0.0510731 -0.129885 
0.118414 1.00583 0.114603 -0.288321 -0.15327 0.20081 -0.637307 0.56051 0.00254119 0.507511 0.513021 -0.100605 0.958408 -0.642859 0.0886328 -0.0467382 -0.157676 -0.0856902 0.653136 -1.52784 -0.0657019 -0.530582 0.714626 0.436865 0.621979 0.254423 0.441501 -0.556693 -1.00468 -0.789063 1.04863 0.126122 0.809746 -0.313089 0.715243 0.596054 -0.908375 0.525828 -0.181058 -1.16656 0.138247 -0.400347 -0.56123 -0.170462 -0.259612 -0.477586 0.661606 -0.298394 1.26613 0.645913 0.773142 -0.156933 0.0353342 -1.20759 0.0903711 0.262743 0.097743 0.321375 0.107046 -0.105345 -0.770074 0.818195 -0.400013 0.375063 -0.494413 -0.234611 0.775576 -0.229521 1.26405 0.7916 0.123142 0.815323 0.469195 -0.411568 0.520472 0.138364 -0.315541 -0.617697 -0.0276696 0.190134 0.283834 -0.105683 -0.0638641 -1.05555 0.864716 0.783588 -0.665788 0.0215042 -0.455925 -0.0160721 -0.889295 -0.0113259 -0.386585 0.412637 -0.624967 -1.34876 
0.254562 -0.203218 0.714114 -0.394565 0.381848 -0.808073 0.120361 -0.740496 -0.288748 0.44526 -0.0687758 -0.205912 0.416574 -0.338593 0.604038 0.0227152 -0.167199 0.0434625 -0.0917658 0.166217 -0.237267 0.453851 -0.0242604 -0.210257 0.449019 -1.49804 -0.154971 0.590735 -0.569636 -0.901225 -0.0758954 0.379293 -0.0797488 0.358657 0.286212 -0.0043733 0.139975 0.357063 -0.750184 -0.372474 -0.212402 0.460466 -0.808888 0.251518 -0.478589 0.127464 -0.431958 0.308413 -0.58689 -0.0919293 0.734633 0.854858 -0.39842 -0.319817 0.78748 -1.05307 0.621515 0.565602 -0.193551 0.220167 0.29951 0.953027 0.698797 -0.537109 0.837848 -0.960944 0.368128 0.423411 0.281674 -0.415006 -0.0535293 -0.673836 -0.0837142 0.976712 0.77884 -0.564503 -0.355821 0.187555 0.790236 -0.104083 -1.49447 0.122385 0.258588 0.849484 -0.207436 0.450746 -0.618155 0.446483 -0.471563 0.39164 1.14456 -0.388112 -0.594179 -0.381765 -0.160487 -0.0951684 
-0.123903 0.439298 -0.896683 0.185538 -0.334192 -0.0378707 0.350339 0.468241 0.603656 0.057911 0.444505 -0.710708 -0.0658967 -0.106304 -1.08813 0.584353 0.799302 1.43314 0.647391 -0.574058 0.423719 0.158387 0.4726 0.695052 0.341384 -0.419082 -0.0369131 0.367715 0.375625 -0.882575 -0.561337 0.53799 -0.142443 -0.363477 0.134938 -0.377989 -1.07316 0.713207 -0.147219 -0.230317 -0.589472 0.0765673 -0.187258 -0.198153 -0.00285832 0.539293 -1.3362 0.821364 0.0560065 0.557121 -0.981888 -0.713722 -0.556481 1.00353 -0.103252 0.586992 -0.639827 -0.110804 -0.28501 -0.524424 -0.835621 -0.742901 -0.659746 -0.50015 0.638472 0.503822 -0.46221 0.22027 0.355885 -0.358414 -1.56542 -0.00330593 -0.390113 1.07171 -0.422912 -0.743285 0.289881 -0.884694 0.325384 0.370641 0.529505 0.572818 -0.177753 -0.437163 -0.120315 -0.189645 0.423526 0.316814 -0.714345 -0.868977 -0.560321 -1.00333 0.13092 -0.246293 -0.281183 1.15385 
0.380359 -0.134603 -0.859964 -0.2269 -0.529694 -0.0504163 -0.412746 0.469172 0.668519 -0.0970321 0.370092 -0.825777 -0.197947 -0.56746 0.0256801 -0.577912 -0.454508 1.11618 -0.658044 0.554288 -1.20308 0.364769 0.293898 0.815915 0.725655 0.276912 0.067931 -0.476123 1.03697 0.469994 0.331132 0.81534 0.486913 -0.696458 0.316406 -0.613826 -0.0429354 0.399301 0.477664 -0.31916 0.102351 -0.99128 0.168018 0.269322 -0.56381 -1.4236 0.393591 0.38214 -0.0984947 0.922947 -0.154328 1.10336 -0.932076 -0.638343 -0.672206 0.138794 0.574483 -1.22178 -0.0996507 -0.0659124 -0.315622 0.350669 -0.727871 -0.570335 -0.643423 -0.513475 0.0394089 0.321614 -0.806831 0.243994 -0.374105 0.336985 0.272409 -0.222795 -0.551567 0.860098 -0.133108 -0.292402 0.228867 0.0794203 0.250715 -0.550695 -0.219577 0.0484894 0.0773285 -0.148801 0.456146 0.539716 0.85337 0.417647 0.576295 -0.353438 0.0600992 0.202605 0.757865 -0.759478 
-0.101975 -0.411166 -0.755632 -0.1267 -0.407161 0.0266902 0.282654 0.346147 0.639843 0.244523 0.411689 0.216654 0.228183 -0.0596421 0.103935 -0.66239 0.160242 0.131763 -0.975311 0.196174 0.0214091 0.405347 0.100054 0.565593 0.893414 0.431309 0.92677 0.201669 -0.485784 0.372762 0.683073 0.189326 -0.0126214 -0.0162276 0.561882 -0.665748 -0.00622906 0.295793 -0.248459 -0.202094 0.835053 -0.225655 0.283321 0.517415 -0.298015 -0.111642 0.286732 0.294692 0.057622 0.182717 0.420246 0.491133 0.166806 -0.0154519 -1.00669 -0.815761 -0.00349909 0.10057 -0.361293 0.451559 -0.439262 -0.111883 0.0609685 -0.706045 -0.761133 -0.894533 -0.481946 -0.0497163 -0.614666 0.280337 -0.00906642 -0.0265873 0.59348 0.0966063 0.154679 0.169116 -1.07975 -0.038717 -0.0608484 -0.119107 -0.0941428 -0.398265 0.410702 0.66558 -0.575301 1.58486 -0.228752 0.376755 0.323927 -0.363622 -0.179039 0.78212 0.837861 0.166326 -1.42801 0.783142 
0.700077 0.0591998 1.02223 0.302736 -0.504949 1.03883 -0.0872265 0.0225011 -0.646332 -0.184154 -0.256818 0.367117 -0.189944 -0.22934 -0.0083362 -0.330054 0.563076 0.629733 0.0950386 1.35161 -0.318751 -0.20549 0.329799 0.650205 0.623416 0.0311545 -0.208997 0.327469 -0.22097 0.330404 -0.234267 -0.266355 -0.478302 -0.276794 0.404586 0.392443 0.923395 -0.12272 0.301496 0.117012 0.773543 -0.273655 0.750185 0.640385 -0.590434 0.0899128 -0.212818 -0.892395 -0.903366 1.06789 -0.588403 0.737059 0.481807 0.278344 -0.0645962 0.633726 -0.303565 0.700017 0.154313 0.371421 0.161819 0.132884 -0.17322 -1.15618 -0.139414 0.00751282 0.939603 0.0592887 0.123749 -0.506206 0.120307 0.141915 -0.218221 1.19633 -0.2287 -0.694037 0.334608 -0.135716 -1.13108 -0.482103 -0.096964 0.0583407 0.255291 0.0859515 -1.29619 -0.132801 0.287313 -0.762113 -0.306033 -0.921877 -0.413173 -0.171259 -0.28574 0.168204 0.633957 0.114624 
0.0616867 -0.998288 -0.428879 -0.317695 -0.342807 0.411398 0.604738 -0.627859 -0.558874 -0.16107 0.0630598 -0.108832 0.898208 0.339591 -0.0211098 0.116796 1.45295 0.383762 0.35142 0.286196 0.738277 -0.75387 -0.797146 0.586809 0.984337 0.0654424 -0.708392 -0.249236 -0.310609 -0.377445 0.159557 0.281016 -0.393392 0.172938 0.440102 0.750792 -0.277966 0.155423 0.0735209 -0.462115 -0.052568 -0.922093 -1.14902 -1.11366 -0.423368 0.0644866 -0.215723 0.0970196 0.866238 0.152151 -0.0202921 -0.193817 0.5832 0.00875275 0.0839896 -0.417553 0.528872 0.341468 1.09431 -0.221077 -0.365023 0.0650751 -0.221433 0.183034 -0.0689179 1.08077 -0.396847 -0.284044 -0.029513 -0.711804 0.705084 0.0831393 -0.714232 -0.540833 0.587251 -0.507927 0.858585 0.00423892 -0.114588 0.632606 0.0445736 0.121117 -0.247833 -0.223055 0.625018 -0.412329 0.100244 -0.730188 -0.871514 -0.172792 -0.606484 -0.441181 -0.491045 0.32477 -0.229003 0.0521382 
-0.217019 -0.108936 0.515231 0.139994 0.0862414 -0.97925 0.588813 0.94112 0.286042 -0.167655 0.25457 1.41033 -0.816234 -0.392914 -0.0194651 -0.70381 -0.16791 0.204962 -0.607236 -1.31847 0.118808 -0.462445 0.148155 0.149477 0.428816 -0.372881 -0.568506 -0.424414 -1.52799 -0.383119 -0.0653174 -0.610911 -0.279134 -0.291484 0.702692 -0.930241 -0.92512 0.67252 -0.374467 -0.415684 -0.0476517 -0.400803 0.109476 0.533922 0.572618 0.643668 -1.33861 0.111035 0.0713951 -0.627496 -0.22711 -0.129601 0.947772 -0.406062 0.106286 0.712431 -0.101555 0.288086 0.540994 0.765864 -0.147782 -0.356183 0.0427362 -0.644548 0.385318 0.245397 -0.714831 -0.0778825 -1.79781 -0.763952 -0.790614 -0.0799745 0.0958263 -0.271683 -1.01353 -0.0320115 0.593081 0.683204 -0.187782 0.266268 -0.279258 0.961757 -0.355907 -0.587089 -0.42503 0.0703874 0.196141 -1.15749 0.277958 0.179092 0.832675 0.37482 0.835569 -0.814909 -0.00524142 -0.302737 
0.563744 -0.39222 0.289526 -0.383668 0.0256762 -0.962378 -1.05388 0.371119 -0.017003 0.942318 -0.935061 0.147722 0.436244 0.594412 0.0014617 -0.520115 -0.08635 -0.116554 -0.742984 -1.11411 -0.124623 0.255977 -0.297324 0.736199 0.514138 0.809546 -0.297028 -0.388146 -0.57256 0.75251 0.283018 0.339938 -1.33456 -0.775727 -0.527427 0.00422832 0.18615 -0.281843 0.548354 0.104167 0.105573 1.21673 -0.680255 -1.5923 -0.465104 -1.50843 0.577097 0.325853 -0.329682 -0.176808 0.727771 0.0271151 0.673034 -0.228872 -0.0951606 1.28458 -0.865776 0.317313 -0.564824 -0.774347 -0.438117 -0.66742 0.342308 1.34032 -0.0246907 -0.509018 0.708962 0.401424 0.321299 -0.213984 0.979489 0.186668 -0.275089 0.859507 0.323025 -0.189576 -0.216872 0.173521 0.36852 0.505773 0.193902 -0.23918 -0.720371 -0.0592449 -0.220842 0.305669 -1.36077 -0.34726 -0.448944 0.258683 0.265543 0.641748 -0.55298 0.234456 0.723415 -0.627376 
-0.132951 -0.111858 -0.501392 0.763499 -0.934652 0.0891876 0.234997 0.0559035 -0.732964 0.47369 0.102269 0.0357486 0.981482 -1.12821 -0.348514 -0.160248 -0.580703 0.0695739 -1.10374 0.351473 0.502491 -0.971147 0.14162 0.0271685 0.629438 -0.595721 0.4437 0.316923 -0.982698 -0.867593 0.321023 -0.70503 0.193989 -0.058074 0.688543 0.418589 -0.266298 0.736921 -0.533944 0.772205 -0.0836803 0.0821988 0.0304937 -0.602398 -0.910464 0.205741 0.108763 0.112686 -0.047619 0.112826 -0.134933 -0.0106446 -0.0702195 0.135317 0.11735 0.288795 -1.01353 -0.0339629 0.348239 -0.0622491 -0.480489 0.388704 -0.836341 0.00513033 0.225757 -0.317492 -0.0184581 -0.45073 0.0581307 -0.479698 0.0160327 -0.93672 -0.771723 -0.249002 -0.174004 0.676396 1.15633 -0.425241 0.530619 -0.215389 -1.58272 0.022336 -0.525423 -0.131675 -0.25526 -0.035931 -0.470597 -0.359007 0.237992 0.954582 0.335118 0.803362 1.02219 -0.323934 0.608465 -0.639315 
0.597364 0.353869 0.887531 -0.192521 -0.142316 0.0769391 0.349087 0.770627 -0.421772 -0.254472 -0.581955 0.829331 -0.611743 -0.710782 -0.381731 -0.0636211 0.459964 -0.0690262 1.09838 0.239239 0.33103 -0.598347 -1.30547 -0.329437 0.147667 0.00153154 0.631903 -0.203125 0.122005 0.39278 -0.49979 -0.643316 -0.157333 0.381124 -0.69647 -0.566307 0.247746 -0.138409 -0.331272 0.351876 -0.47387 0.697265 -0.094389 -0.473287 0.331188 -0.729269 -0.493482 0.584833 1.08484 0.745095 0.19253 1.21121 0.0416002 0.114578 0.120862 0.961137 0.0736555 0.935533 -0.600088 0.312292 0.595293 -0.100895 -0.64369 0.139198 0.408421 0.485161 -0.350695 -0.956239 0.355387 0.57611 -0.173657 0.0268011 -0.717118 0.773776 -0.621229 -0.51704 -0.198208 -0.430373 -0.312533 0.283914 -0.810351 0.466077 1.01946 -0.382268 -0.680011 -0.0133107 0.00304102 -0.388465 1.19437 0.741668 -0.342239 -0.659633 0.455064 -0.0138821 0.348646 1.259 
-0.00202342 -0.887547 0.118742 -0.254289 -0.628893 -0.15193 1.36966 -0.948074 0.36204 0.128746 -0.54402 -0.978942 0.635864 -0.0214375 0.228778 -0.30037 0.597265 -0.383004 0.0980033 -0.142122 -0.645633 1.09138 -0.129544 0.639206 0.214218 0.223277 -0.0405506 0.687139 -0.297478 1.3514 0.109406 0.612316 -0.364943 0.122057 0.258339 -0.300232 -0.462014 0.155499 0.513766 0.677271 0.0903048 0.788704 -0.25373 0.348102 -0.868244 -0.00744363 -0.264445 -0.461429 0.667439 0.216946 0.817704 -0.830445 -0.10446 0.0347094 -0.210671 0.2774 0.0145049 0.448911 0.0918335 -0.272696 -0.422309 -0.379065 0.558868 0.519944 -0.0334115 0.148958 0.0812159 0.671892 -0.395929 0.270978 0.493297 0.946305 -0.652358 -0.0908542 0.494415 -1.10679 -0.642943 0.054483 0.317017 0.0477601 0.470121 0.0543953 0.437827 0.320312 -0.329719 -1.10067 -0.320621 0.495394 0.767451 -0.533282 0.457772 -0.0627927 0.0371427 -0.0209227 0.309553 -0.615095 
0.303121 0.72148 0.0706071 0.141855 -0.00519336 0.201787 -0.19275 0.385277 -0.550718 -0.913098 0.475496 0.601176 -0.486315 0.941871 -0.363794 -0.198228 -0.0855952 -0.0565538 -0.0606137 0.135993 0.557161 -0.389892 -0.603373 0.995102 0.0908658 0.591907 -0.0705471 0.759555 -0.706943 0.341366 0.0210008 0.370878 0.0597629 0.0718527 -0.130191 -0.435629 -0.329629 0.433583 0.595666 0.498671 -0.0201384 0.0475179 0.967049 -0.383222 -0.0962411 0.66687 -0.545998 -0.732957 0.335959 -0.0669587 -0.283536 -0.136687 -0.274161 1.07499 -0.537922 0.625484 0.131021 -0.165046 0.517063 0.055561 -0.439081 -0.623798 0.0184208 0.231055 0.640045 1.03719 0.198883 0.127876 -0.192919 -0.901714 -0.236393 0.157801 0.00445482 0.619317 -0.213353 -1.38564 -0.117831 0.306656 -0.0430825 -0.721899 -1.63803 0.084695 0.204439 -1.0636 0.100882 -0.0620148 0.0788153 0.0114467 -0.375894 -0.0845758 -0.0748583 -0.217733 -0.264435 -0.0590203 -0.676255 -0.60574 
0.413474 0.981131 0.0762083 -0.0889479 0.180855 -0.360252 -0.16862 -0.56703 -0.450255 0.744619 0.676335 -0.709309 0.142115 0.837246 -0.601405 -0.173241 -0.533928 -0.63705 0.0829558 -0.450231 -0.528693 -0.875555 0.303624 -0.788209 -0.0202216 0.127511 0.232074 0.876284 0.498491 0.271353 0.465416 -0.755535 0.575603 0.351887 0.409884 0.363233 0.458957 -0.155052 0.575056 -0.595748 -0.937545 0.420904 0.384368 -0.0646347 0.528802 -0.312853 -0.760343 -0.0737713 0.421133 0.147829 0.344718 1.13982 -0.00266282 -0.855663 0.0325792 -0.629246 0.12763 -0.276206 0.265753 0.449339 -0.332457 0.185168 0.22165 -0.601344 0.113612 0.544641 -0.583612 0.0168649 0.126031 -0.339431 -0.120307 0.870357 -0.51095 0.166658 0.483785 0.0630564 0.0408137 0.451584 -0.25375 -0.351347 0.327028 -0.482144 -0.139388 0.0822241 0.336479 0.295091 -0.83929 0.367704 0.544809 -0.765991 -0.506911 -0.497344 -0.0830632 -0.3698 -0.0246211 1.45282 
-0.0475832 0.64995 -1.14469 0.470639 -0.476921 0.0920592 0.44485 -0.0965864 0.251407 0.0063003 -0.130999 0.211549 -0.123128 0.742027 0.532492 0.572233 -0.184767 5.83113e-05 0.178112 -0.437245 0.344956 -0.508559 0.608096 -0.407662 0.224468 -0.178823 -0.414608 1.35598 -0.696429 0.028725 0.853744 0.196619 0.0505684 -0.396539 -0.528792 -1.27728 -0.550111 -0.203775 -0.44735 1.13632 -0.351152 -0.876254 -0.392913 -0.343036 -0.2343 -0.223025 1.36134 -0.704759 -0.696485 0.494827 -0.492927 -0.203055 -0.326047 -0.430921 0.567953 -0.18385 0.445285 0.381063 -0.570074 0.384493 0.26893 -0.274964 -0.599632 -0.685941 0.685009 0.991825 -0.35971 0.478505 -0.00905911 -0.650974 -0.0529698 0.288819 0.233237 -0.648862 0.134417 -0.432589 0.541655 -0.613358 -0.0221055 0.143873 -0.915471 1.07913 -0.422877 -1.20881 1.16383 0.297712 0.395345 0.659203 -1.17356 -0.192601 0.176799 0.985919 -1.05355 0.456651 -0.320049 0.0713011 
-0.210341 -0.448058 -0.224543 -0.529995 -0.330987 0.386413 -0.104541 0.316616 0.209778 0.133789 1.23347 0.883369 -0.297646 0.0375884 -0.220238 0.553545 1.13867 -0.0414686 0.0701331 0.0184028 -0.339536 0.0593928 -0.453917 0.561659 0.0952646 -0.907059 -1.10446 -0.381096 0.979556 0.345468 -0.689632 0.865906 -0.256251 0.542966 0.409569 -0.236802 0.199036 0.209219 -0.279591 0.593443 0.143534 -0.464872 0.438368 0.185204 0.327754 -0.491266 1.08888 1.47279 -0.555029 0.145501 -0.679797 -0.648136 0.477004 0.0831261 -0.421697 0.705922 -1.02873 -0.995781 -0.11009 0.013271 0.708995 -0.194629 -0.237714 0.224394 0.814029 0.34132 0.344354 -0.253637 0.731916 -0.0743319 -0.418705 -0.274515 -0.212587 0.428769 0.692828 0.137074 -0.056876 -0.884721 -0.149335 -0.53654 0.464284 0.805345 0.139443 -0.442438 0.639934 -0.014365 -1.10408 -0.324416 -0.510828 0.166172 -0.43624 -0.145846 0.26686 -0.763105 -1.16221 -0.437869 
-0.572156 0.775453 0.455144 -0.15966 -1.03266 -0.400018 -0.200514 0.0739211 0.265202 -0.147687 0.0243108 0.764342 -0.701616 -0.746824 -0.689272 0.315825 1.11476 -0.0837337 -0.248772 0.0473284 -0.372442 -0.99227 -0.751416 0.339781 0.349041 0.497091 0.725607 -0.0707238 -0.901941 0.705201 0.60618 -0.168116 0.392535 -0.50522 0.249233 0.773486 -0.198737 -1.05976 0.264365 0.310112 0.562567 0.520928 0.0496603 0.031687 -0.084871 0.602552 -0.191712 0.563383 0.518931 -0.525853 -0.364639 -0.588543 0.465593 0.18051 1.46686 0.307997 -0.118596 -0.426266 0.188789 -0.789984 0.985523 0.0812001 0.681573 -0.428409 -0.201232 0.911905 0.0446193 -0.216051 0.702587 -0.172615 -0.216774 0.16065 0.0370168 -0.170888 -0.542608 0.0350392 1.21496 0.403825 0.671929 -0.878544 0.35128 -0.422982 -0.611736 0.0332797 -0.383667 -0.376937 -0.348024 -0.482586 0.0350004 0.471282 -0.559015 -0.0102416 0.445075 0.267115 0.18108 0.729628 
-0.42649 0.104487 -0.873913 -0.949369 0.598416 -0.383045 -0.521551 -0.848867 -0.172885 0.370539 0.140464 0.419098 0.55002 -0.309696 -1.12794 -0.256623 -0.788093 0.0203783 -0.320413 -0.0290038 -1.01192 0.71008 0.217875 0.172778 0.143359 0.278205 0.920497 1.04376 0.560629 -0.899187 0.14375 -0.399489 0.354156 -0.0777553 0.648949 -0.949873 0.951119 0.0194728 0.11507 0.131236 -0.478391 -0.153958 0.244463 0.684208 0.912849 -0.514324 0.0207976 -0.458996 -0.328822 -0.296863 0.295817 0.750124 -0.471582 0.520878 1.20652 0.188786 0.0861688 -0.259176 0.281667 -0.217516 0.608708 -0.562946 0.587369 0.0885834 -0.399296 -0.582827 0.68324 0.190185 0.666751 -0.214265 -0.147764 -0.494996 1.19682 0.345232 0.513381 -0.390371 0.226223 0.657188 0.434148 -0.334524 0.0311299 0.606156 -0.633848 0.40657 -0.38094 -0.131635 -0.4851 0.644506 -0.0309076 -0.408403 0.041686 0.154374 -1.073 -0.83658 0.36879 -0.015447 
0.535815 -0.782594 0.577071 -0.395401 0.149679 0.151481 -0.274633 -0.318068 -0.418924 -0.023608 -0.425531 0.175042 0.677991 0.157817 0.6291 0.493475 -0.494 0.0515369 0.194605 0.0407075 -0.114761 0.334895 -0.472885 0.301897 -0.321788 0.60167 -0.272818 0.861146 0.104182 0.215413 0.54039 0.783722 0.0144791 0.923286 -0.967053 -0.346591 0.418737 -0.171433 -0.050487 -0.392897 0.320148 0.798678 -0.148627 0.0647259 0.246024 -0.682779 0.0733574 0.614088 1.52147 -0.0599586 0.867042 0.0232128 0.728054 0.483112 0.0188065 0.893041 0.0272331 -0.225697 1.16743 0.378464 0.828411 1.02918 0.226116 1.37311 -0.712332 0.156787 -0.124438 -0.0766885 -0.400934 0.392793 0.257988 -0.612217 0.287932 -0.444899 1.77514 0.620681 1.25766 0.706938 -0.149235 -0.345439 -0.826709 0.10823 0.0419882 0.102766 -0.243433 0.39374 -0.0439373 0.291643 -0.557178 0.351571 -0.0734244 0.75777 -0.602241 0.49325 -0.734712 0.128094 
0.733395 -0.0730873 -0.626425 -0.156987 0.369085 -0.192424 0.280893 0.715212 -0.210192 -0.769829 -0.248826 0.904404 0.553777 -0.275174 0.496615 1.00667 -0.850194 0.488313 0.244613 0.0145124 -0.401464 -1.14592 -0.134558 0.1066 0.303201 0.701139 0.269767 -0.858865 1.05394 -1.26654 0.699205 -0.0186637 0.662734 -0.541895 -0.331524 -0.479003 -1.15549 -0.9431 -0.0804555 -0.216684 0.0958832 -0.707501 0.868605 0.269121 -0.0215094 -0.31756 0.384152 -0.322412 0.948032 -0.126063 -0.560238 0.143743 -0.135943 -0.0188368 0.759125 0.573422 -0.196218 -0.926758 0.640735 0.339341 0.259879 1.00879 -0.0905381 -0.366594 -0.44361 -0.506778 0.517181 0.92233 0.152357 -0.368316 -0.792504 0.473375 -0.0574755 0.916503 -0.582556 1.50366 -0.502623 0.135834 0.44354 0.189638 0.602433 -0.0792426 0.00342405 -1.17267 -0.0944906 0.078282 -0.221203 0.918471 0.369697 -0.242744 0.37893 -0.115811 -0.0890118 -0.0287612 -0.923147 -0.315614 
-0.942084 -0.044122 0.263742 -0.0359695 -1.05936 -0.159444 0.790754 -0.330143 0.514502 0.383709 0.428727 0.702123 -0.0823702 -1.07756 0.0907139 0.490608 0.168976 0.336674 -0.604809 -0.555392 0.253019 -0.0432376 0.087209 -0.176186 -0.238452 0.657693 -1.29916 0.14936 1.20143 0.042764 0.142456 0.369991 -0.40607 0.643185 -0.0593764 0.3901 -0.34149 -0.371925 -0.516218 0.195873 1.00198 0.0952683 -0.224203 0.80655 0.848521 -0.0271133 0.679067 -0.500015 0.508162 -0.17718 1.10025 -0.027498 1.35176 -0.920069 -1.19353 -0.299358 -0.272296 0.449819 1.06707 -0.91193 0.0883013 -1.45482 -0.693664 0.0917933 0.226709 0.260943 -0.124022 0.639565 0.372427 -0.595443 -0.584429 0.133411 -0.245377 0.630557 0.486876 1.11549 0.156066 -0.0979088 0.478603 0.195718 -0.477185 0.603219 -0.309061 1.01602 0.411575 0.866799 0.259315 -0.0494156 1.61967 -0.154653 0.405073 0.180588 -0.0513895 -0.870424 -0.0731869 -0.562504 
0.65474 -0.71474 0.831892 -0.985703 -0.337766 0.311386 0.169314 -0.727046 0.446754 -0.428008 0.95185 0.185403 0.203218 -0.331116 0.807154 0.128225 0.695205 -0.141086 -0.718696 -0.0877439 0.0727713 -0.384676 0.0421066 -0.281195 -0.828062 0.422985 -0.153055 0.243556 0.976906 0.147367 1.3182 0.251582 0.27184 0.381711 -1.15464 0.611351 -0.390816 -0.0238299 -1.02569 0.234938 -0.799111 0.190922 0.0773183 -0.800126 0.337148 0.106582 -0.570429 -0.605686 -0.337845 0.664391 0.0735878 0.581236 -0.0424868 -0.682187 -0.0361957 -0.467528 -0.0621432 -0.416325 -0.415162 -0.235451 -0.779191 -0.0603894 -0.0338387 0.521725 0.472923 0.0348448 0.151483 0.22258 -0.825927 -0.477851 -0.298047 0.61074 -1.18019 0.76321 -0.00867246 0.592806 -0.0165252 -0.196034 -1.01575 0.430384 -0.599562 -0.326441 0.745908 -0.342997 0.283926 -0.43872 -1.65863 0.26817 -0.153227 -0.724479 0.158721 -0.0683896 -0.848289 0.457608 -0.482972 -0.978627 
-0.397601 -0.537393 0.288843 -0.795479 0.327873 0.371138 0.515989 0.871808 -0.538564 0.641071 -0.217466 0.302872 -0.021709 0.847444 0.0923579 0.372967 -0.368342 1.18898 -0.260892 -0.374657 -0.0243579 -0.363008 -0.437645 0.309243 0.14297 -0.0074765 0.971821 0.519525 1.09493 0.270922 -0.887052 0.548584 0.0677201 0.0184771 -0.487398 -0.190487 -0.247417 -0.451879 -0.396594 -0.456947 -0.390748 1.00901 -1.44108 -0.469591 -0.00244447 0.227722 0.13169 0.0746923 -0.166804 0.784957 -1.10497 -0.600011 1.01467 1.10726 0.555725 0.127365 -0.467648 0.0154267 -0.2899 0.344054 0.583891 1.10479 0.318326 0.0802053 -0.19066 -0.261416 0.0988032 0.234263 -0.0370604 0.444616 -0.555044 0.935712 -0.560943 0.0599034 -1.42943 -1.35918 0.555216 0.588395 1.24401 -0.051068 0.516514 -0.817774 0.559591 0.960439 0.634579 0.0568755 -0.492107 -0.480168 0.308774 0.287226 -0.48074 -0.936073 -0.330875 -0.0111078 0.287162 0.0368447 
1.1694 0.361912 0.807395 0.408733 -0.484034 0.702645 0.397359 -0.20628 0.222826 -0.750687 -0.378948 0.227556 0.770013 -0.592096 0.429112 0.310488 0.239637 0.597775 0.321063 -0.461068 -0.425759 -0.673536 0.804049 0.00389348 0.272155 1.13658 0.662946 0.300978 -0.378337 1.5385 -0.319826 0.115632 -0.848431 -0.426913 0.0923833 0.605922 0.785852 0.061359 -0.656488 0.128517 0.294863 0.846599 -0.826002 1.13428 0.515978 -1.08107 1.03042 -0.0810445 -0.684637 -0.257038 0.243741 0.676096 -0.576614 0.548998 -0.22115 0.200054 0.357157 0.423306 -0.174747 0.338251 -0.570917 -0.480213 -0.193012 -0.326102 0.373471 -0.197942 -0.454912 -0.311506 -0.0768168 0.0870156 0.324145 -0.437247 0.012844 0.696369 1.01376 0.646945 0.219509 -0.212063 0.212557 -0.186974 -0.960062 0.648688 0.119337 0.335388 0.470783 0.46611 0.249836 0.187975 -0.151934 -0.22093 0.410909 -0.623972 -0.96543 -0.253116 1.0874 0.179411 
0.295646 -0.123635 0.703834 0.118417 0.288915 0.16621 0.146925 -0.83958 -0.856825 -0.179441 -0.13586 -0.110007 0.684216 0.012949 -1.4567 -0.961378 0.354582 0.153884 -0.17601 0.175731 -0.256445 -0.382618 0.206148 -0.701847 0.621331 -0.335868 0.622764 -0.545291 -1.61691 0.602721 -0.554757 0.507523 0.501757 -0.551212 -0.194263 -0.669678 -0.636872 -0.0857797 0.0436 0.213612 -0.145962 0.175598 -0.478807 -0.161144 0.639154 -0.36751 1.04307 -0.274813 0.172544 -0.115665 0.469945 -0.108945 -0.552635 -0.311737 0.716246 0.520347 1.14162 0.0725455 -0.15964 -0.157512 -1.10749 -0.384356 -0.551656 -0.797419 -0.594176 -0.00330196 0.489858 0.402623 0.27012 0.196671 1.54128 -1.44647 1.0318 0.29798 -0.225952 -0.365662 0.00959728 -0.347324 0.639057 -0.391864 -0.424184 -0.480518 -0.738624 -1.34151 -1.08579 -0.277933 0.624858 0.247003 -0.537126 0.376905 0.872999 0.206503 0.886198 -0.774102 -0.289221 -0.444261 
-0.305365 0.127301 -0.011908 -0.0236084 0.333163 -0.178646 1.34622 -0.816639 -0.444456 -0.41631 0.561569 0.597467 0.18015 -0.0905501 0.219824 -0.252945 0.965279 -0.612333 -0.451993 -0.286737 0.288012 -0.385776 -0.953254 0.206226 0.645064 0.407386 -0.874366 -0.527265 0.584987 -0.547814 1.38084 -0.443795 -0.470545 0.211151 0.077209 0.818644 0.609812 -0.642519 0.173835 1.16329 1.40175 -0.0696368 -0.611348 1.21141 0.488652 -1.25297 0.860366 -0.144483 -0.501981 -0.736735 0.294828 -0.132096 0.795728 0.109774 -0.19563 -0.15301 -0.172547 0.251407 0.690457 -0.529524 0.972148 -0.683737 -0.430001 -0.162781 0.0466686 -0.060997 0.4417 -0.154956 -0.563155 0.270862 1.20741 0.679909 -0.165087 0.775732 -0.161509 0.742627 0.84617 -0.161841 0.2678 0.710797 0.713035 -0.615805 -0.392782 -0.580021 0.596123 -0.51389 0.408591 -0.319671 0.456291 -0.198225 -0.946392 0.120286 -0.161608 -0.859335 0.0534818 -0.709522 
-1.66228 -0.244245 0.213485 -0.856506 0.0821619 -0.195439 0.385114 0.959953 -0.307342 -0.417392 0.318607 0.0456992 -1.14916 0.448967 -0.147603 1.23428 0.578764 0.374787 -0.920396 -0.338896 -0.0260526 -0.214258 -0.153319 -0.55225 -0.828866 0.24338 1.04004 0.406235 -0.0722855 -0.174692 0.0261065 -0.532553 -0.229018 -0.935256 -0.100443 0.388834 0.265104 -0.776781 0.466923 0.0934889 0.274067 -0.256974 0.27734 -0.0821063 -0.325004 -0.869585 0.943259 0.443918 -1.03717 -0.0714576 0.476355 1.03387 1.19238 0.610409 0.0432614 -0.467506 0.943955 0.549192 -0.14547 -0.0170337 0.120834 0.123326 0.6718 0.659536 0.542522 -0.647968 0.252854 0.471384 1.01846 -0.343764 0.286411 0.00144331 -0.946096 -0.183057 -0.196791 -0.687157 0.113739 -0.253468 0.392015 -0.586533 -0.906918 -0.185629 0.301587 0.915978 -0.590193 0.385389 -0.729965 0.0350374 -0.1891 -0.714382 0.623955 0.262593 0.12817 -0.0754843 0.789326 -0.604651 
1.18997 -0.580273 0.132765 0.248694 -0.145816 0.57046 -0.953761 -0.166443 -0.201423 -0.0860532 0.184434 -0.769454 -0.695282 -0.488767 0.0402629 -0.10666 -0.370604 1.03354 -0.0138763 -0.371045 0.522709 -0.0593688 0.142369 0.135613 0.06236 -0.0235048 1.65522 0.796572 -0.0559398 0.241009 -0.492673 0.965576 0.249844 -0.664442 -0.945597 -0.947911 -0.511608 0.0284454 -0.15513 0.745211 0.750426 -1.50797 0.86434 -0.0809182 -0.123047 -0.393982 -0.381668 -0.826637 -0.214075 0.516911 0.546939 -0.611287 0.0471387 0.0329353 -0.721186 -0.621632 -1.12425 -0.0925414 -0.312687 -0.45125 0.151559 -0.486505 -0.662485 0.992206 0.572309 -0.337149 -0.819661 0.873175 -0.353402 -0.127739 -0.623565 -0.768608 0.808294 -0.178173 -0.0136613 -0.400231 0.302802 0.0769288 -0.86801 -0.373052 -0.310073 0.487213 0.772613 1.15604 0.192043 0.0152534 -0.244409 -0.252208 -0.894272 -0.0971983 0.437028 -0.128617 0.328836 -0.456024 0.786138 -0.247883 
0.0519914 0.384594 0.896962 -0.967168 -0.263356 -0.839872 0.708849 -0.396065 -0.828891 0.233014 -0.16364 -0.0640364 0.227148 -0.794693 -0.547388 -0.157586 -0.257734 -0.716816 0.794154 0.125983 -0.164195 -0.847636 -1.11203 1.06378 0.404314 0.42955 -0.431531 -0.411035 -0.53276 0.243509 0.911216 -0.128393 -0.655603 0.614708 -0.986843 0.76757 -1.1598 -0.192055 -0.0322772 1.11543 -0.690772 0.17946 0.241958 -0.280937 -0.263951 0.155807 0.398155 -0.537715 0.733253 0.667039 0.287706 0.138741 0.532145 -0.481126 0.145546 -0.322509 0.125281 0.390787 -0.198608 0.473369 -0.120063 -0.45966 0.183077 -0.283445 0.469919 -0.178453 -1.7111 -1.00899 0.569891 -0.0171141 0.200281 -0.917507 -1.00908 0.394593 0.485194 -0.901484 -0.851148 -0.383683 0.259916 0.560001 -0.341702 -1.14516 -0.180897 -1.01267 0.287784 -0.5556 -0.0422293 -0.769302 0.366114 -0.629803 0.0127663 0.382576 -0.0473774 -0.0195035 -0.0505927 -0.599328 
0.550616 0.0407265 -0.77357 -0.122826 0.190935 0.225033 0.898107 -0.0456965 -0.849274 0.660257 0.244137 0.700087 0.65482 0.452126 0.351098 0.80093 -0.38124 0.293079 0.125331 -0.474792 0.241438 0.729416 0.467154 0.721521 0.515272 0.329269 0.179019 -0.79987 0.0794855 0.15212 -1.3418 -0.228605 0.386894 1.12808 -0.822112 0.0272375 0.028021 0.707318 0.698283 0.0268079 0.618792 0.805645 -0.0748125 0.839723 0.236946 0.300024 0.376214 0.941975 -0.0457534 0.921276 0.281232 -0.439863 -0.0466443 0.597717 0.386861 0.3865 0.372315 -0.780171 0.250228 0.843649 -1.12769 -0.688469 -0.0338801 -0.014324 -0.649975 -0.311109 0.392068 -0.776965 -0.99982 -0.255886 -0.650514 -0.331622 -0.727515 0.912139 0.0542123 -0.116482 -0.0774723 0.242574 -0.204368 0.371819 -0.247647 1.34155 -0.460517 -0.0231761 0.553126 0.403354 0.479093 -0.867852 0.0713709 0.0634693 0.21082 0.488191 -0.0461999 0.874158 -0.488947 0.084029 
0.0351948 -0.275139 0.773597 -0.241938 0.36423 -0.548253 0.349044 -0.6719 -0.801021 1.03744 0.53894 0.0118662 -1.26986 0.0295582 1.06563 -1.16809 -0.315837 -0.544559 -0.0571659 0.20104 0.44427 0.241197 0.807541 -0.269154 -0.15321 0.71751 -0.846124 -0.618686 -0.437154 0.144505 0.258502 -0.443927 -0.762793 -0.2107 0.297027 -0.571655 -0.645542 0.56523 -0.500286 -0.805006 -0.446131 -0.827354 0.486253 -0.41478 -0.302569 -0.846726 -0.831085 0.600211 0.0188074 0.284424 0.451853 -0.0592998 0.429042 -0.60481 0.807082 0.869822 -0.250642 1.06401 -0.0926566 -0.400663 -0.534068 -0.582174 0.00453957 0.125028 -0.763683 1.17111 -0.827931 -0.704639 -0.0507844 -0.548648 0.315297 -0.187334 -0.277413 0.86847 -0.040851 -0.925692 -0.856446 1.33462 -0.373893 0.543631 0.193697 -0.670993 -0.585089 -1.20356 -0.135437 -0.547802 -0.600337 0.471249 -0.260448 -0.0021559 0.158686 -1.1182 0.345843 0.953148 -0.802812 0.549026 
-0.126973 0.362638 -0.714767 -0.1298 0.140828 -0.405701 0.345746 1.37659 -1.6374 0.809085 -0.364051 -0.285839 0.29052 -0.312527 0.138366 -0.124282 0.852565 -0.501414 0.0807805 0.0945126 0.380787 -0.17102 0.160818 -1.29649 -0.204269 0.0601363 0.822025 0.258128 0.064836 0.0507913 0.0708548 -0.50985 -1.04493 0.252317 0.0347455 0.0801602 0.499788 0.144077 -0.358955 -1.73361 -1.07085 0.540503 -0.0917249 0.400373 0.12471 0.368192 -0.881723 -0.250019 -0.0593308 0.293105 -0.437501 -0.218989 0.411568 -0.674893 0.0893026 -0.104804 -0.00283605 -0.616609 0.290983 -0.127798 0.64184 -0.147855 0.284754 0.639214 -0.0749413 0.700238 -0.686132 -0.0977404 0.279818 -0.0509329 0.747425 0.163843 -0.378561 0.423703 0.448834 -0.29731 -0.660085 0.454976 -0.186681 0.139044 -0.275511 0.462359 0.346744 -0.502147 0.0112223 0.0205373 0.860787 -0.439148 -0.288801 0.263685 -0.64118 -0.154969 -1.04067 0.109533 0.839473 0.058851 
-1.04547 0.0870667 -0.557801 -0.427689 -0.158718 0.410759 0.000616532 -0.389274 -0.6673 -0.26555 -0.118709 0.511003 -0.590344 -0.258209 0.480668 0.0074024 -0.10997 -1.2124 -0.115224 0.239821 -0.753166 0.190211 0.652102 -0.591773 -0.874634 0.549426 -0.373181 0.121264 0.802587 -0.247493 0.0835873 0.00328641 1.00323 -1.06454 0.401951 0.363874 -0.405885 0.85121 1.06644 -0.521187 -0.0410546 -0.414689 -0.877639 0.340825 -0.246667 1.20167 1.2347 0.907629 0.53644 -1.30321 0.128252 -0.316794 -0.304266 0.452107 0.319984 -0.478047 -1.67551 -0.273024 -0.808008 0.211688 -0.250164 -1.18635 0.408743 0.19154 0.0347615 -0.0443358 0.221173 -0.0985481 -0.525699 -0.0119193 0.00211793 0.932793 0.884873 0.0792148 0.0119323 -0.0885853 0.216943 0.72844 0.518912 0.846657 0.328646 -0.325582 0.194987 0.0601224 -0.315321 0.136722 -0.698963 0.874155 0.534312 -0.586215 0.948167 0.0558976 -0.785706 -1.09813 0.446761 0.0988898 
0.0069026 1.10245 -0.27602 -0.490871 -0.750312 0.741946 -0.0605035 -0.983491 0.435573 -0.651174 0.284578 0.212081 -0.439713 0.814465 -0.114178 0.191075 -0.747257 0.523319 -0.581625 0.925097 1.00211 -0.0346817 -0.517368 0.00775366 -1.01161 0.440268 1.50865 -0.0884403 -0.714138 -0.0498915 -1.21757 -0.252875 -0.0283053 -0.359115 -0.630178 -0.465779 -0.854421 0.178809 -0.836448 -0.0824765 0.847277 0.267305 -0.188544 -0.841205 0.0179152 0.729179 0.603832 -0.863552 -0.78709 0.114486 -0.115421 -0.501186 -0.496931 -0.377475 -0.0498152 -0.244027 -0.0238689 -0.119754 -0.438658 0.460703 0.411447 1.02923 -0.232914 0.350991 -0.782664 0.268857 0.0529918 0.23928 0.0548935 0.621458 -0.349158 0.0819295 -0.736392 0.454042 -0.314028 1.50386 0.37657 0.645754 -1.28166 0.000878235 -1.04816 -0.991465 0.407952 0.806905 1.10701 1.02612 -0.552865 -0.824626 0.727292 0.502958 -0.266666 -0.101976 -0.0714275 -0.33877 1.46565 0.600992 
0.443736 0.587037 0.12775 0.27969 0.804122 1.16914 -0.0976392 0.58471 -0.243262 0.710192 -0.290348 -0.309693 -0.202228 0.665064 0.194242 0.42484 -0.0931517 0.563367 0.875643 -0.769529 0.388126 -0.136454 -0.266697 0.0176305 0.117014 1.15868 0.0762357 0.659979 -0.221776 0.0115325 0.132452 -0.365165 0.327119 -0.743216 -0.0688435 0.217782 0.477224 -0.742245 -0.609715 0.25251 -0.640263 0.156607 -0.407379 -0.186964 -1.72671 0.0721831 1.36622 0.198155 0.0259287 0.525818 0.46466 -0.043892 -0.52843 0.234099 -0.935013 0.554768 0.564538 -0.694604 0.958392 -0.542004 -0.866895 0.1782 0.0231913 1.16118 0.506749 -0.434576 -0.0632299 -0.12728 0.371906 0.970121 0.09751 -0.26511 -0.12617 0.371739 0.268503 0.231338 0.657294 0.643018 0.253925 0.0365551 -0.275377 -0.795269 0.41824 -0.112193 -0.370218 -0.55573 0.558381 -0.899368 0.488312 -1.18454 0.435242 0.123036 0.523289 -0.015149 0.9788 0.012285 
0.339378 -0.707535 0.679509 0.217019 0.8203 0.450082 -1.10448 -0.0588937 0.0232264 0.0141324 -0.416248 1.14662 0.121039 0.428047 0.523219 -0.163968 -0.0646595 0.697928 0.162017 0.662902 0.551381 0.418814 1.03313 -0.336071 -0.414581 0.0566707 0.881556 0.157987 0.203086 0.195632 -0.103713 -1.68405 0.905368 0.0349722 -0.777968 -0.510175 0.092064 -0.0845942 0.421756 0.192539 0.564224 -1.05594 0.863236 -0.588363 0.411013 0.860851 -0.969205 -0.82298 0.752604 0.435366 0.45185 -0.127764 0.426166 0.0735686 -0.144033 0.267798 -0.568717 0.561933 -1.1034 -0.648736 0.576197 0.247592 0.226057 0.136083 -0.1654 0.0567287 -0.0457537 -0.701132 0.0764099 -0.136435 0.118722 -0.143394 0.523145 0.330886 0.35001 -0.557467 0.0228454 -0.15596 0.151199 0.482965 0.990925 -0.106491 0.413182 0.194608 0.0952064 0.535813 -0.291871 -0.0862123 -0.0912905 1.0316 0.801328 0.282937 0.0250618 0.0390474 -0.235581 0.505508 
-0.304365 0.36547 -0.6289 0.56941 -0.528727 0.647828 0.543326 -0.19397 0.16303 0.22566 -0.418285 0.448591 -0.38692 -0.122384 -0.730774 -0.807138 1.1251 1.15914 -0.065799 0.0451316 -0.503278 -0.124792 0.416006 -0.115592 -0.460439 0.476856 -0.781252 -0.0173085 0.157189 -0.891241 0.652549 -0.426459 -0.203573 0.354601 -0.840396 -1.01655 1.19859 0.121262 -0.17217 -0.247273 -0.61442 0.0305857 -0.0658578 0.0428963 0.881763 -0.426183 -0.00274157 0.279546 0.671449 -0.321768 0.493912 0.728517 0.720302 -0.420015 -0.778102 0.00408613 0.39305 0.177512 0.0855436 -0.116355 0.63779 0.111879 -0.499657 -0.937158 -0.433197 0.490828 -0.188573 -0.18685 -0.19962 0.340333 -0.562919 -0.702263 -0.367536 -0.00813282 -0.115251 -0.738137 0.806603 0.153846 0.470782 -0.602364 0.243567 0.570133 -0.29955 0.504194 -0.132035 0.963129 -0.239131 -1.01638 0.0623531 0.914415 0.0242066 -0.0380559 0.400705 0.504656 -0.86309 -0.364524 
-0.535351 -0.62185 -0.0167374 -0.794702 0.146997 -0.194621 0.34116 0.321475 -0.485779 -1.78664 -0.508043 0.177678 0.0196034 0.25222 -0.351659 -0.168836 -0.0896494 -0.215254 0.670658 -0.704912 -0.26345 -0.0298532 -0.313816 0.106179 0.769951 -1.00049 -0.752468 0.159682 -0.472541 -0.0137178 0.603991 0.690987 -0.690497 -0.346937 0.331849 -0.579773 0.137123 -0.332265 0.571376 -0.0517856 1.28583 0.190752 0.411709 0.253352 0.338922 -0.178821 0.890116 -0.275912 -0.256164 0.310179 -0.691573 0.264672 -0.403414 0.200684 0.142425 0.487549 0.220056 -0.122564 -0.519171 0.928611 0.881441 -0.296066 -0.466027 0.0767729 -0.465319 0.38886 0.33051 -0.617766 0.557774 -0.478199 -0.454591 0.214114 0.689149 0.631098 -0.312644 -0.442597 0.219569 -0.781261 0.118355 0.331205 0.0132299 -0.754311 0.267023 -0.701754 -0.604598 -0.211279 -0.0746261 -1.11479 -0.605752 -0.0275511 0.353036 0.863993 0.0972842 0.564856 -0.532968 0.489455 
0.356736 -0.624103 -0.839997 1.15827 -0.269193 0.232725 -0.811279 0.108929 0.22622 0.378683 -1.16922 -0.280573 0.736632 -0.12086 0.345313 -0.30338 -0.337721 0.572505 -1.13746 -0.841741 -0.235384 0.243557 -0.11945 0.181359 0.764503 -0.0153466 -0.579247 -1.34884 0.348253 -0.4398 -0.0916519 -0.830546 0.323594 -0.67351 0.148339 0.294232 -0.545536 -1.04567 -0.271539 1.36536 0.177974 -1.14747 -0.359534 0.267933 1.06201 -0.0309311 -0.142306 -0.3684 1.10981 0.93145 0.682354 -0.980161 0.0744697 0.0626575 -0.303394 -0.31679 0.503327 -0.133482 -0.151222 0.74692 0.232512 -0.622011 0.581115 -0.188697 -0.458345 -0.265241 0.186647 -0.257289 -0.606101 -0.2092 -0.689889 -0.550561 -0.538729 1.81769 -0.837622 -1.27461 -0.128678 -0.0993953 -0.186813 0.596344 0.388046 0.447378 0.247351 0.70467 0.115939 0.00511531 -0.551599 0.233969 -1.20808 -0.766428 0.566203 -0.181326 -0.0897963 0.481244 0.357371 -0.470463 
0.0395503 -0.483998 0.770517 0.636137 0.0676745 -1.56596 0.398624 -1.06865 -0.556663 -0.355586 -0.492172 0.0332958 0.0426241 -0.584613 -0.286806 0.640287 -0.39413 0.41985 0.158636 0.762166 -0.970769 -0.184408 0.737225 -0.920569 -0.266477 -0.435671 -0.513931 -0.0999581 -0.620748 -0.22789 0.623342 -0.224689 -0.175487 0.203705 0.0588384 -0.166008 0.194851 0.0224022 -0.0806321 -0.455517 -0.480354 -0.769996 0.957014 -0.397099 1.04313 -0.561424 -0.364095 0.227248 0.0443678 -0.436101 -0.500662 -0.0188358 -0.377081 -0.646228 -0.620135 0.718421 0.238901 -0.144707 -0.739781 -0.0467754 1.05322 0.0887147 1.0311 -0.440535 0.644261 0.175001 0.00270837 -0.390628 -0.329099 0.113839 -0.590036 0.585722 0.539009 -0.791861 0.426742 -0.065404 -0.219012 0.0937173 1.67918 -0.355874 0.241529 -0.584669 0.28169 -0.794221 0.314799 -0.10702 -0.21013 0.924146 -0.269147 -0.167073 0.119255 -0.0881514 -0.68036 -0.00548139 -0.456477 -0.119666 
-0.657864 0.00949005 0.221508 -0.576628 -0.00288144 0.987349 -0.224766 -0.245838 1.49948 -0.275346 0.606636 0.333728 -0.112031 0.692997 0.370462 -0.704279 -0.103416 -0.403169 -0.919576 -0.610165 0.694643 -0.255926 -0.388432 0.339899 -0.0664965 -0.615872 0.450609 0.0254345 -0.614578 -0.879294 -0.449682 0.153382 -0.0996822 0.198317 0.363179 0.675899 -0.0522733 -1.04809 0.377605 -1.19078 -0.0405612 0.0316149 0.523979 -0.809048 -0.438116 -0.468684 -0.478734 0.193729 -0.111065 -0.810557 -0.632305 -0.383203 -0.735738 -1.26954 -0.67393 -0.0300754 0.253599 0.0998426 0.678376 0.122689 -0.312691 0.217046 0.507254 0.247923 -0.771404 0.0182317 0.0991338 0.0348854 -0.502189 0.0720826 -0.474507 -0.523353 -0.930872 -1.09103 -0.272783 0.34111 0.282322 -0.300255 -0.0911005 0.531371 -0.28671 -0.651644 -0.223134 -1.01355 1.6223 1.19288 0.359416 0.0965328 -0.0949552 -0.00496585 0.00459582 -0.0997512 0.223253 -0.607536 -1.05649 0.0905034 
0.464031 -0.575017 0.534344 -0.48454 0.625774 0.861392 -0.272679 0.00163941 1.06164 -0.147546 0.459703 -0.634212 0.530169 0.288384 0.136555 -0.111215 -0.0534025 -0.704872 0.190272 -0.034935 0.670148 -0.901183 0.80654 -0.0307892 -0.260285 -0.0179546 0.77035 1.15698 -0.0592943 0.105804 -0.21988 -0.78358 -0.128602 -0.595358 -0.0529291 -0.325568 0.171985 -0.767098 -1.57352 -0.271598 0.398503 -0.508729 0.530658 -0.67733 0.599438 -0.622524 -0.394752 -0.656642 -0.409144 -0.265684 0.507275 0.0917889 -0.574817 0.652966 -0.942586 -0.797043 -0.367436 0.881575 0.464204 0.074913 0.342725 -0.213198 0.178981 -0.949473 0.105735 0.0516893 -0.665762 -0.546925 0.0188834 1.22265 0.741562 0.607952 -0.686122 0.629022 -1.10714 0.381384 -0.413988 0.158562 0.634581 -0.625119 0.271606 0.651883 0.600885 -0.0923795 -0.221389 -0.141903 -0.192884 -0.581004 0.0227543 -0.0541157 0.474672 -0.5212 0.222846 1.51843 -1.07772 -0.324574 
-1.32971 0.593176 0.140897 0.0834913 -0.0030681 0.372738 -0.0165488 -0.278635 -0.930526 1.29832 -0.223378 -0.225971 0.351582 -0.268822 -0.54725 -0.665024 0.624388 -0.671782 0.916601 -0.29372 -1.16059 -1.28444 -0.878637 0.672688 0.128633 -0.644318 -0.449011 0.576358 -0.518802 0.45977 0.460024 0.0772782 0.90159 0.324753 -0.144361 -0.151974 -0.742699 -0.725678 -0.00605467 0.632728 -0.640229 0.0719563 0.234294 -0.478653 0.213901 -0.147068 0.527571 -0.803668 0.0246406 0.781135 -0.185691 -1.12454 -0.714273 -0.597446 0.501179 -0.0636566 -0.155229 0.986384 -0.798992 0.209551 -0.490111 -0.35695 0.874767 -0.69838 -1.14082 0.448758 -0.559475 -0.109386 0.223923 -0.232456 0.408135 0.234258 0.192764 0.433195 0.325111 0.0249583 0.319884 -0.0892876 -0.0947543 -0.550986 0.563097 0.764084 -1.07122 0.647398 -0.383865 -0.340918 -0.922496 0.129 0.259649 0.215103 0.722843 -0.828587 -0.765801 -0.927611 0.294811 -0.4892 
-0.700835 -0.548681 -0.187348 -0.589165 0.0932813 0.758188 0.546831 0.587082 -0.389624 -1.85394 -0.516514 -0.0336362 -0.0596665 1.1409 -0.457609 0.672617 -0.0436538 0.19374 0.415523 -1.02484 0.387234 -0.427478 1.38963 0.2812 -0.081946 -0.54794 0.343059 1.24372 0.13636 0.672518 -0.655926 0.225171 0.240822 0.100568 -0.619555 -0.589726 -0.837214 0.204337 0.157804 -0.943405 -0.180606 0.118977 0.126248 0.141114 -0.255352 -0.277116 0.797155 0.10518 -0.212803 -0.00460425 0.0933805 0.631857 -0.0410255 0.465874 0.506682 -0.189582 -0.173478 1.44932 0.0738423 0.154673 0.301464 -0.730394 0.052631 0.17912 0.879273 -0.235274 0.0631381 -1.13282 0.139578 -0.947641 1.06551 1.42519 -0.054703 0.618645 1.59324 0.581972 0.430532 -0.138247 -0.0402364 1.44906 -0.16097 -0.293386 0.0886878 -0.924191 0.132947 -0.587905 -0.359696 -0.483687 -0.153309 -0.513612 -0.117937 0.662835 -0.938929 0.219734 -0.85885 0.279469 
0.542448 -0.648659 -0.146409 -0.485085 0.304488 -0.118182 0.552272 -0.347819 0.935367 0.508302 0.0682966 -0.273662 1.06431 -0.0606815 -0.847092 -0.476561 -0.149851 0.74261 0.726951 -0.367321 0.0174071 -0.826668 0.000657371 -0.877109 -0.274709 0.96185 0.754211 -0.226712 -0.114957 0.370645 -0.262079 0.381256 -0.0220743 -0.614789 -0.811634 -0.371987 0.293631 -0.107157 0.489729 0.684464 -0.302551 -0.244026 0.494218 -0.886084 0.626276 -0.938384 0.325444 0.225221 -1.23807 0.500051 -1.58251 -0.664761 0.0465765 -0.318356 -0.726802 0.162591 -0.000356177 -0.207403 0.519615 -0.891719 0.94788 -0.279293 -0.383614 0.79069 -0.252128 0.617475 -0.913735 -0.190213 0.21454 -0.306245 1.21776 -0.431377 0.293671 1.06437 -0.984291 0.652452 0.231668 0.365826 -0.14658 -0.697174 0.243359 0.883634 -0.81518 -0.673538 0.568439 0.669902 0.00752958 0.134493 0.819445 0.376661 0.0901912 -0.0710613 -0.79117 0.070807 0.259102 0.886183 
-0.369127 -0.260937 -0.21461 -0.604978 -1.18183 0.51683 0.0819803 0.242037 -0.12169 0.237831 -0.179239 -0.440155 -0.435672 0.917948 0.483375 0.202727 0.214889 -0.539657 0.104965 -0.0704886 0.169878 -0.678736 -0.338195 0.473692 -0.512912 -0.677097 -0.666014 0.29949 -0.512142 0.575115 -0.426281 -0.80899 0.916559 0.0233152 -0.419065 -0.0494645 0.492685 -0.656916 -0.839896 0.306924 0.256684 -0.87705 0.853017 1.03089 0.882762 1.0647 -0.287558 0.0450915 0.285841 0.649186 -0.0614128 -0.591625 0.621868 -0.551964 0.25415 -0.203408 1.18168 -0.519444 -0.484056 -0.0907506 0.225813 -0.572845 0.230146 0.737555 0.452018 -0.0344778 0.28041 0.146193 -0.0477677 -0.258272 0.182365 0.871548 0.982445 -0.025019 -0.0245317 0.27303 0.0800142 -0.407652 -0.0753841 0.8263 -1.04725 0.682128 -0.141426 0.0764497 0.00579266 0.186927 0.882951 0.218884 -0.745392 0.129268 -0.290158 -0.0857205 -0.205441 0.232353 0.0874789 -0.795975 
-0.114223 0.395604 -0.479302 -0.154387 -0.601178 -0.548489 -0.206151 -0.532008 -1.28018 0.273343 -0.531212 -0.598129 -0.12451 -0.71863 -0.404521 0.936795 -0.119331 -0.261372 0.481245 0.337246 0.0604605 -0.484095 -0.415409 -0.889899 -0.196371 0.316072 -0.543479 0.102862 -0.338238 -0.855547 0.282897 -0.427571 0.17751 -0.525266 0.440611 -0.438558 0.189786 0.215634 -0.245153 0.122274 0.227788 0.735304 0.225417 0.199854 -0.580601 0.776781 -0.288409 -0.928973 -0.0353289 -0.182698 -0.139289 -0.102912 -0.207636 0.128822 0.149886 0.712074 -0.289311 -0.0406372 0.509755 -0.558958 -0.575264 -0.253402 -0.701095 0.744025 -0.118052 0.0914121 -0.452898 -0.55105 0.647848 0.965725 0.0624349 0.309649 -0.726632 -0.383125 -0.839249 0.404742 -0.212803 0.0266558 -0.435285 -0.340497 0.197614 -0.428709 -0.29929 0.376775 1.25684 0.217766 1.33383 0.231106 -0.70572 -0.171203 0.263621 0.858974 0.0423325 1.22881 0.12871 0.846644 
0.208997 -0.45159 0.290185 -0.262488 -0.0398832 -0.133484 1.21219 -0.335497 0.388827 0.201616 -0.837512 -0.290324 0.349765 -0.328607 -0.316235 0.165832 -0.303327 -0.848499 0.363218 -0.862746 0.320638 0.447389 0.36793 0.112417 -0.0433904 -0.177635 -0.632856 -0.729159 0.566722 -0.355141 0.435714 -0.507337 0.0762031 -0.489926 -0.457616 0.545596 0.0291299 -0.00259843 -0.167676 -0.0485663 -0.000317736 0.311104 0.800697 0.0075389 -0.136059 0.466628 -0.577191 -0.0816444 -0.803193 0.587305 -0.401236 0.350954 -0.0146515 -0.0842207 -0.791378 0.612225 -0.309238 -0.282292 0.4356 0.558255 -0.00743065 0.133204 -0.0136476 -0.210106 0.487306 -0.142815 0.375567 -0.639025 -0.0627127 0.661731 -1.33529 -0.140669 -0.741816 0.506484 0.492744 1.01533 0.608666 0.772027 0.450557 0.211645 -0.133826 -0.500046 0.113931 -0.931 -0.38617 -0.172778 -0.297705 0.589257 0.314437 0.135261 -0.510541 -0.405365 1.42193 0.71815 0.212651 0.723225 
-0.211788 -0.640964 -0.366395 1.01968 -0.895377 0.528017 -0.580129 0.0650698 0.805451 0.328221 0.1364 0.881103 -0.106643 0.755703 -0.0308054 -0.426199 1.09254 -0.160989 0.230782 -0.30176 0.432705 0.226154 -0.395722 0.12537 0.259922 -0.0555206 -0.151281 -0.253855 -0.0751768 -0.00277861 0.956484 0.109704 -0.383621 0.834463 0.838383 0.938216 0.568649 -0.135108 -0.514576 0.79354 -0.177054 -0.276456 -0.346644 -0.0301964 0.44248 -0.711272 -0.221442 -0.638003 0.263006 0.606525 0.0915579 -0.36686 -0.285367 0.771914 0.322694 0.00796972 -0.238817 -0.655944 0.522237 -0.0594147 -0.22311 0.00244233 -0.482775 -0.337121 0.151069 -1.09989 -0.105236 -0.346498 -0.115288 -0.191275 -0.439672 -1.54991 0.198665 0.352875 -0.325039 0.243467 0.708263 -0.715108 0.572736 0.744555 -0.764463 0.212621 -0.0181226 1.38933 0.000155658 0.740316 0.633175 0.316492 -0.0144949 -0.255794 -0.143417 -1.00212 -1.22762 0.493678 0.449358 -0.676979 
