0.492149 0.406067 -0.242695 -0.937014 0.431432 0.290604 -0.654442 1.02049 0.055633 -0.00320682 0.681794 0.91036 -0.362897 0.520456 0.353422 0.48698 0.265313 -0.103764 -0.983031 -1.22044 -0.450629 -0.205349 -0.330691 -0.165792 -0.878107 -0.753515 -0.554474 -0.266113 -0.732276 0.339885 0.161601 0.778837 -0.404669 0.740141 -0.353613 -0.271995 0.370103 -0.0407129 1.49557 0.382991 -0.0332033 0.179512 -0.422683 -0.127903 0.7851 -0.842975 -0.0634328 -0.73145 1.5837 -0.678544 -0.136963 0.446772 0.877091 -0.525686 0.0816552 0.285711 0.810629 0.448156 0.355293 -0.696321 -1.01682 -0.0613558 0.4988 -0.968543 0.598507 0.211997 -0.148092 -0.0593509 0.311413 -0.581947 -1.08469 -0.767729 -0.612061 0.478969 1.45297 -0.562575 0.545783 0.629697 0.70044 0.070148 0.598284 0.969383 0.531238 -0.570702 0.312512 0.129879 0.821144 0.267464 0.768756 0.232141 0.859957 0.539713 -0.991995 0.816925 -0.14493 0.250872 
0.436012 -1.40253 1.05481 0.298707 -0.0170133 0.151218 -0.291648 -0.0267647 1.24951 -0.104214 -0.706642 0.979627 0.248127 0.133824 -0.411739 -0.652928 0.0778004 0.322702 1.26496 0.805033 0.0181434 -0.222954 -0.644209 0.68428 -0.936047 -0.588905 0.283472 0.168208 -0.432647 -0.792797 -0.90263 -0.782443 0.37059 0.242984 0.0736213 -0.492272 -1.73413 -0.227403 0.599729 -0.289222 0.530847 -0.237974 -0.15124 -0.389157 -0.246171 -0.287811 0.401159 -0.263341 0.605869 0.453073 -0.139171 -0.26239 -0.198873 -0.769199 0.327612 0.525655 0.0829433 -0.422335 -0.258693 0.200661 -0.332768 -0.103182 0.583438 -0.832395 -0.590221 0.779133 -0.582154 0.201192 -0.125673 -0.838257 0.170332 0.0273923 0.653413 -0.84302 0.868079 -0.69039 0.129857 0.338269 -0.713255 0.390698 -0.646856 -0.51065 0.426651 0.451566 -0.0802642 0.484809 0.460074 0.39417 -0.664919 -0.17722 0.739129 1.16345 0.056592 -0.0810328 -0.605777 0.67538 
-0.11192 0.508341 0.0221506 1.07085 -0.59524 1.25308 -0.0739412 -0.767326 -0.873076 0.229822 -0.177977 -1.58601 -0.142375 0.930287 -0.0442064 0.529409 0.076538 0.658023 0.256684 -1.5922 0.878382 -0.0197528 -0.0082448 -0.223557 0.320481 1.0041 -0.429412 -1.19148 -0.589565 -1.39805 -0.290071 0.747047 -1.49276 -0.0774629 -1.17143 -0.0550622 0.550096 -0.168242 -0.269858 -0.400905 -0.161771 0.07884 -0.182272 -0.39509 0.615754 0.0872324 -0.873946 0.987826 0.60447 0.868957 -0.205937 -0.995129 -0.937147 -0.42706 0.173405 0.19472 -0.188712 -0.706625 -1.00186 -0.0581835 0.642237 -0.0355507 -0.29991 -0.777971 0.0185306 -0.464315 -0.166769 0.0712391 0.630479 0.501939 -0.571366 -0.731027 0.277229 0.504069 0.0934071 0.0239872 -0.590935 -0.368941 -0.0501802 0.0373538 1.41574 0.844079 -0.357002 -0.330078 0.156263 -0.489102 -0.112084 0.188454 0.625646 -0.0116059 0.954992 0.891083 -0.0509993 -0.0616646 -0.0500256 -0.986069 
0.233257 0.171165 0.406782 0.17167 0.322553 -1.22031 0.987946 -0.245994 -0.197252 0.476802 -0.150344 -0.947963 0.645584 -1.32372 -0.0904805 0.16186 0.649281 -0.181693 -0.00761891 0.0893958 1.06363 -0.206748 1.28174 -0.439393 0.379264 0.230105 0.270351 -0.35375 -0.62686 -1.10674 -1.08634 0.78082 -0.237571 -0.698106 1.62771 0.0100572 1.00008 0.950935 0.152734 0.187892 -0.159814 0.886463 -0.151308 -0.359925 -0.259557 0.108922 0.854447 0.828997 -1.50954 -0.0420866 -0.1186 -0.053568 0.0898193 1.18737 -0.727624 -1.10621 1.15699 -0.14586 -0.391014 -1.03925 -0.314043 1.08698 0.622621 0.932856 -1.09672 0.268232 1.17796 -0.229731 -0.248657 -0.628807 -0.783436 -0.442958 0.524985 1.18927 -0.423615 -0.865156 -0.798623 -0.789192 -0.313725 0.175275 0.125328 0.0400095 0.0757624 0.91837 -0.809099 0.104234 -1.27788 1.25278 -0.74602 -0.625792 -1.47874 1.39167 -0.970296 -0.286399 -1.58382 0.774046 
0.872195 1.00418 0.983938 -1.09427 0.357937 0.324344 0.678701 0.972235 -1.42096 0.764616 0.316414 0.492644 -0.656722 -0.746953 -1.12263 -0.156584 -0.120482 -0.211622 0.942502 0.939066 -0.0546991 0.927298 -0.446137 -0.365056 -0.0632137 0.54291 1.0448 0.960759 -0.389753 0.904292 -1.41263 -1.07411 -0.140566 0.218341 -0.096108 0.170196 0.481116 0.175691 -0.958778 0.053811 1.19383 -0.61999 0.67656 0.708227 -0.82722 0.213172 0.355353 0.194597 -1.15564 0.798301 -0.865594 0.41481 0.320168 -0.920072 0.151805 -0.725902 0.0784692 -0.156479 -0.128173 -0.217558 0.788522 0.624875 0.303145 0.656768 0.372206 0.449098 -0.853925 0.808485 0.1961 -0.170045 -0.2505 0.694639 0.0541804 -0.427974 0.615939 1.23926 0.380189 -0.573824 0.297979 0.311515 0.436085 -2.0854 0.0686479 0.0783893 -0.581273 -0.932168 0.167097 -0.902814 0.602503 0.795336 -0.175489 -0.20424 0.860178 1.07969 -0.643839 -0.588596 
0.177098 0.624547 -1.38818 0.157186 0.702623 0.0620087 1.00837 -0.38184 -0.88045 0.350271 0.119298 0.0245445 1.09163 0.608396 0.178592 -0.669067 -0.401375 -0.100571 -0.565796 0.28316 -0.272089 -0.412497 1.32862 0.432194 -0.670754 -0.398437 -0.155203 -0.153288 -1.09596 1.26555 -0.534036 -0.619375 0.0631301 1.16042 -1.57775 0.569008 -0.955825 0.395633 -0.21085 -0.356279 -0.258957 0.0376933 1.08926 0.0622134 -0.120988 0.257839 0.456898 0.623742 0.45749 -0.138246 1.81795 -0.146171 -0.0231344 -0.970951 -0.441072 0.264022 -0.612508 0.918322 0.451807 -0.541261 -0.477838 0.592435 0.441428 -0.748012 0.270242 -0.728876 -1.24093 -0.60948 0.245575 -0.219046 0.894788 -0.36386 1.15136 -0.176482 -0.036806 0.544931 0.720064 0.0939606 -0.775694 -0.456982 0.305868 0.661232 -0.53228 -0.302605 0.243034 0.229615 -1.87431 0.25448 -0.147642 -0.463978 0.471043 0.887032 0.718917 -0.991426 0.388868 -0.781972 
-0.631354 0.340158 1.19132 -0.404767 -0.0650261 -1.44309 -0.0571468 -0.961706 0.586182 0.828848 -0.417398 0.905993 -0.787903 0.540293 -0.134504 0.478168 0.966225 0.414267 0.49684 -0.317295 -0.229185 0.0438931 -0.505714 -0.260068 -0.500397 0.980496 -0.617498 -0.854321 -0.105065 0.733295 -0.913543 0.519772 0.673185 -0.830342 0.179076 0.772502 -0.604521 -0.730308 0.101018 -1.27466 -0.155535 -0.949304 -0.940745 0.0371711 0.284347 0.9939 1.28089 0.162855 -0.321605 -0.126024 0.642931 0.386347 -1.03804 -0.929108 -0.41956 -0.28124 1.09076 0.21249 -0.345705 -0.503677 -0.925081 -0.140402 0.854787 0.276164 -0.601722 0.232795 -0.0271892 -0.469247 0.149342 0.5909 -0.417303 -0.175161 -0.480438 0.185354 -0.789696 -0.318304 -0.423412 -1.13036 0.603459 0.184 -0.921713 -0.0466832 -0.677625 0.243256 -0.47566 -0.562325 0.260579 -0.437068 0.740887 -0.64309 -0.512512 -0.476028 -0.120702 0.0424196 0.0104608 -0.873246 
0.0349381 0.873752 -0.319039 -0.836387 -0.655623 -0.68632 0.0702172 -0.702874 -0.0865623 0.422925 -0.0269775 0.555497 -0.074722 -0.380031 -0.140857 0.140219 -0.804622 0.376702 -0.200595 -0.68642 -0.587369 -0.300998 0.500516 -0.29844 -0.420483 0.339075 0.505109 0.149356 -0.61678 0.640663 1.48847 -0.295984 0.161804 1.1492 0.0153882 -0.463103 -0.867131 0.75289 -0.759236 -1.4558 0.801842 0.406223 -0.0479264 -0.954631 -0.705901 0.102598 0.242178 -0.778592 0.443229 0.977697 0.234527 0.570318 -1.01787 0.900645 0.647318 0.663168 -0.31723 0.390686 0.90713 -0.488005 -0.129514 0.23004 0.157584 -0.997349 0.0398061 -0.853114 0.671853 -0.161169 0.323476 1.00732 -0.689391 -1.90766 -0.566157 0.283531 -0.476159 0.356373 -0.505682 -0.287724 0.933167 0.27326 0.144381 -0.0667846 0.375943 -0.798523 -0.908612 -0.0411771 -0.26131 -0.65875 0.820472 0.85398 0.89623 -1.07706 -0.413811 0.165209 0.671151 -1.11443 
-0.111455 -0.208048 -1.3041 0.66775 -0.745337 1.01291 -0.183382 0.114814 -0.611871 -0.59141 -0.0682627 1.26124 0.0326525 -0.00728268 0.859119 1.0593 0.170882 0.561149 -0.257287 0.676792 0.0707823 0.581724 2.10498 -0.334669 -0.0331744 -0.473742 1.06931 -0.543406 0.229647 -0.125312 -0.681981 0.494578 -0.350726 0.0761378 -0.375579 0.629973 0.527328 -0.421098 0.959128 0.208965 0.76917 -0.499577 -0.250662 0.618044 -0.463633 -0.56982 0.720512 -0.523952 -1.22113 -1.36406 -0.0363655 0.28835 -0.617488 0.389698 0.101563 0.475511 -0.358974 -0.712948 -0.535156 0.139622 0.309857 0.515389 0.0344952 1.65163 0.720252 -0.533204 -0.505138 -0.201809 0.113476 -0.238514 -0.120044 -0.473211 -0.870132 -0.175859 0.0890411 0.445104 0.434557 0.340172 0.533158 0.188366 -0.733967 -0.841811 0.596039 0.832291 -0.0895586 -1.15449 -0.393907 1.42461 1.51074 -0.357664 -1.6186 0.240703 -1.72643 -0.223564 -0.354328 -0.0251489 
-0.0157088 0.0488249 0.514654 -0.271346 0.100882 -1.19741 0.86627 -0.305063 0.647086 0.538613 0.251612 -0.269806 -0.702589 0.4915 -0.183435 -0.186669 0.308772 0.255667 -0.264179 1.01842 0.457641 0.469049 0.758221 -0.602427 -1.0666 0.241236 0.253407 -0.302146 -0.721219 0.0865753 0.233269 -0.0837102 1.07289 -0.388986 0.145189 -0.665942 0.588139 0.409936 -0.0824295 -0.21203 0.043231 -0.30612 0.655258 -0.0838073 -0.40292 0.478566 -0.726393 0.31086 -0.335838 0.447175 -0.669645 -0.411399 0.304155 -0.088762 0.145322 0.465082 -0.282273 0.869308 -0.330759 -0.647551 0.643006 -0.145788 -0.0237102 -0.987281 0.68609 -0.134459 0.181081 0.373496 0.00798218 -0.0340051 -0.540328 -0.686156 -0.0758175 0.0283087 0.656729 -0.713902 -0.820263 -0.182564 1.07824 0.0242215 -0.257733 0.286612 0.0768077 1.87549 0.0214033 -0.582559 -0.0243814 -0.109327 -0.473551 -0.33869 0.632427 -0.589507 -0.89373 0.547063 0.874821 -0.416648 
-1.35732 -0.881825 -0.211069 0.0250899 -0.180115 -0.41996 -0.784503 -0.176448 0.262148 0.39912 -0.909279 -0.0553295 -0.14361 0.138563 -0.458895 -0.53192 0.296999 0.552058 -1.16212 -0.424179 0.575601 -1.04541 0.866764 1.24279 0.840883 -0.772864 -1.37905 0.219258 0.00922239 0.275943 -0.402668 -0.935267 -1.39825 -0.48085 1.01667 0.337098 0.195649 0.35592 0.157183 -0.325571 -0.843963 0.320878 -0.0467577 -0.788312 0.471914 0.0961242 0.207451 -0.550196 0.128683 0.669848 -0.836333 -0.478786 0.256496 -0.351948 0.119176 2.0092 -0.00601774 0.49013 2.12264 1.02965 -0.134934 0.0564343 0.299949 0.390735 -1.03058 -0.102216 0.013229 -0.343644 -0.78779 1.57215 -0.418663 -0.228459 0.00700642 0.207513 -0.23841 -0.47676 -1.02596 -0.887694 0.695871 -0.06502 0.87832 0.0746468 0.590531 -0.45166 -0.0945632 0.07878 -0.0519854 -0.109435 -0.778723 -0.283689 -0.664815 0.547021 1.1307 -0.627653 -0.00201995 -0.500816 
0.461227 -0.146384 -0.525084 -0.704029 -0.448577 0.468385 -0.611091 0.328257 -0.142435 0.250713 -0.0684315 0.0741449 0.563663 0.998372 -0.152187 -0.2914 0.135346 0.259253 -0.312291 0.425414 -1.18154 0.297862 -0.763485 0.0407685 -0.646371 0.0366397 -0.636565 -1.98864 -0.224981 1.14452 -0.23333 -0.0653269 -0.410529 -0.100411 -1.17424 -0.462307 0.600082 0.53388 0.222476 0.225882 -0.500101 0.752973 -0.425624 -0.151046 -0.278165 -0.430808 -1.10589 0.868908 1.59841 0.695015 -0.369202 -0.134042 -0.0461048 0.0178541 -0.864644 -0.987404 -0.728747 -0.509865 -0.285469 0.782715 -0.421487 0.151529 -2.41359 0.204026 0.442868 0.603104 0.662909 0.193559 -0.434251 0.652553 -0.581652 -0.241075 0.933831 1.13947 0.408482 -0.735473 0.491951 0.157285 -0.0362483 -0.058054 -0.319365 -0.23749 -1.04344 -0.933608 -0.965281 -1.09629 -0.101958 0.0256935 0.34781 -0.564969 1.18288 -0.0658654 -0.825666 -0.287532 0.191984 0.871499 
1.86665 -1.11776 0.571643 0.364241 -0.97252 -0.88629 -0.495553 -0.0567363 0.280225 0.37942 -0.434737 0.938931 -1.31996 -0.600527 0.614235 0.344838 -0.174578 0.0621789 0.370902 0.959774 -0.228553 -1.278 1.40001 0.120792 0.614602 -0.239461 -0.405539 0.317242 0.888438 0.25988 -0.954899 -0.138475 -0.349905 -0.210123 0.474439 0.796933 -0.00966011 -0.222821 -0.207103 0.35669 0.996444 0.277659 -0.800418 -0.472256 0.706139 -0.00370994 -0.704269 -0.116775 -0.537651 -0.347189 -0.849825 0.391606 0.230506 -0.0599713 0.385374 -0.523411 -0.307502 0.122183 -1.69102 -1.16126 -0.688791 0.144505 -0.580172 0.492091 -0.647476 -0.94835 -1.41305 0.377051 1.98951 0.0170907 -0.667856 0.708294 1.06746 -0.450386 -0.260291 -0.510721 1.01646 -0.849746 -0.472406 -0.947446 -0.699958 -0.967675 0.808047 -0.741229 0.00365681 0.393487 0.152879 1.22425 -0.523815 0.339537 -0.962874 0.162617 0.30041 -0.236667 0.360098 -0.1337 
0.302389 -0.353761 -0.0936933 -0.375812 1.00057 -0.323866 0.325332 -0.329079 -1.10876 -0.00207088 -0.47763 -1.20923 0.655958 0.523121 -0.18564 -1.55616 0.999632 0.695113 0.745811 -1.51123 0.00825822 -1.75953 0.961455 1.35595 -0.224176 0.749955 1.06935 0.906675 0.222487 1.12459 -0.87347 0.253501 -0.102762 -0.0640738 -0.0128223 0.501771 -0.252163 -0.903607 -0.792733 0.157443 -1.15477 0.789358 -1.22975 0.00189448 -0.381254 -0.387448 0.283382 0.773943 -0.448827 -1.14816 0.571044 -0.45444 -0.447183 0.565829 -0.983463 0.400459 -0.489254 0.144613 0.522791 -0.156471 0.545473 -0.296315 -0.385562 0.00997806 0.973951 0.312807 0.452686 -0.205601 -1.48971 -1.05746 -0.149899 0.212547 -0.852817 0.00412904 0.203042 0.700562 0.545075 -0.970604 0.706446 0.982587 0.77442 1.1148 0.24557 -0.768233 -0.128592 -0.266254 0.506627 -0.0166818 0.238804 -0.406729 1.20568 -0.856387 0.411768 0.364551 -1.27719 0.524782 
-0.700422 0.297932 -0.213036 0.0413905 0.13636 -0.707048 -0.184541 -0.798521 -0.172519 -0.134401 -0.212327 -0.79461 0.909576 -0.493006 0.525368 0.444 -0.125748 0.253876 0.132469 -0.407282 -1.53237 0.761442 0.853745 -0.058644 -1.23834 0.212674 0.170208 -0.156203 0.153961 -0.634119 -1.18748 0.228253 1.21727 0.98339 0.629884 0.638439 -0.153152 0.202095 -0.747339 -0.998567 0.412707 -0.370924 -0.146518 0.0299333 0.138489 0.0522718 0.483162 0.550837 0.5064 -0.440712 -1.01851 0.50609 -1.70863 0.448043 0.0891967 0.94209 -0.393829 -0.0841098 -0.761392 -0.260282 -0.727665 -0.798745 -0.042003 -0.0141196 -0.729516 0.947114 0.694632 0.968846 0.425529 0.29146 0.157621 0.502374 -0.592669 0.576647 0.903736 0.488606 -0.706481 0.0154219 0.594284 -0.229179 1.44503 -0.33866 -0.213874 0.0533258 -0.944289 0.743364 -0.320683 -0.346659 0.294655 0.721972 0.278614 -0.602374 -0.493282 0.801852 1.04997 0.267183 
0.171414 -1.31074 -1.02947 -0.934798 -0.402297 0.0786584 -0.758024 0.495873 0.75241 0.192626 -0.163354 1.02235 -0.210454 -0.875501 -0.560298 0.54286 -0.14767 -0.879839 -0.295045 0.0563213 -0.2726 0.438105 -0.245986 0.047926 -0.445355 0.263419 0.37358 -0.570455 -0.664663 0.260899 0.569824 -0.850936 -0.118248 -0.152104 -0.308299 0.0361891 0.106496 0.0151924 0.666219 -0.737494 -1.02991 0.387245 -0.427631 0.698546 0.153945 -1.027 -0.422325 -0.0874891 0.187539 -0.215482 1.32671 -0.318451 0.56453 -0.70948 0.72229 0.122021 0.763228 0.413353 0.135507 0.209735 -0.157337 -0.89779 -0.0340287 0.0902184 -0.794734 0.220514 0.650031 -0.0460081 -0.810828 -0.910229 0.100398 -0.909387 1.02184 0.205332 0.375503 0.190055 -0.302476 -0.560879 -0.120791 0.0342005 0.343736 0.540533 0.000309036 -0.623177 -0.536876 0.0983684 -0.764974 -0.748154 -0.21463 0.460903 -0.287041 0.377581 0.93543 -0.736505 -0.345521 0.850748 
-1.34623 0.297342 -0.227938 1.08904 0.0384655 -0.200562 1.00076 0.225431 0.589534 -0.579832 1.42081 -0.217268 -0.244251 -0.260058 1.02087 -0.464585 0.82096 -0.0061505 -0.918856 0.379316 0.0369833 0.00559908 -0.92337 -0.33203 -0.0339848 0.0903804 -0.102059 -0.360824 0.22516 -0.490593 0.534657 0.68116 -0.347175 -0.734118 0.150635 1.02355 0.265446 1.04625 -0.0159006 0.0980764 0.377124 -0.799358 -1.04342 0.451443 -0.699822 0.214915 -0.488111 0.345999 -0.0302162 0.530369 0.924589 -1.41028 -0.480993 0.273308 0.274644 -0.48888 0.247008 -0.230586 -0.559164 0.0584544 0.817095 0.78894 -0.414141 0.548916 -0.553094 0.923953 0.762051 0.173046 -0.864256 0.407662 0.386281 0.599553 0.0791512 -1.47388 0.0491529 -0.233362 -0.202089 -0.559687 -0.415435 -0.202009 0.480631 -0.0882348 -0.0367891 0.0382928 -0.760287 0.430416 0.494405 -0.70814 -0.421183 -0.508975 0.562498 -0.345581 -0.747763 0.0376079 -0.0287151 -0.257974 
-0.92393 -0.879169 -0.560798 -0.950922 0.807591 0.111268 0.673114 -0.83707 0.00288157 0.432665 -0.601057 -0.805209 1.00051 -0.761213 0.035596 0.395072 -0.192075 0.284182 -0.328059 0.127133 -0.704266 0.826063 0.185117 0.411505 -0.151816 0.098321 -0.155603 0.616324 0.809262 -0.603646 -0.236396 -0.102283 0.222174 0.0143047 -0.820682 -0.520329 0.398655 -0.452662 0.0927086 -0.0462591 -0.0284354 0.218907 1.32419 1.00629 0.914958 0.810607 -0.464756 -0.794429 -0.258257 -0.226881 0.0179167 0.721943 -0.235239 0.0162504 0.269787 0.590105 0.109795 -0.426513 -0.932909 -0.31024 0.517063 -0.460406 0.161975 0.29083 0.204401 -0.588502 0.397542 1.09253 -0.360742 0.378416 0.261492 0.598573 -0.0211068 -0.274549 -0.400877 -0.626346 1.26633 0.316169 -0.755059 1.27975 -0.28176 -0.0454199 -0.43422 -0.267575 0.571185 0.229641 0.484271 -0.239421 0.582703 1.03737 -0.72658 0.627989 0.409875 -0.152198 -0.0375586 1.06894 
1.12592 -0.651298 0.396461 -0.357054 0.379249 0.190449 -0.394687 -0.834441 -0.104536 0.758877 0.570413 0.202405 0.140173 -1.32621 -0.566397 0.231912 -1.07478 0.348091 -0.210733 0.0180501 -0.312031 0.675209 -0.546331 0.985532 0.904287 0.825096 1.21406 -0.359204 -0.851863 0.640825 0.723854 0.222676 0.061637 0.83747 -0.57681 -0.393762 -0.47814 -1.13137 -0.747951 -1.51989 0.474164 -0.919576 -1.39535 -0.592533 -0.164958 -0.561837 0.204338 -0.531668 0.622028 1.0508 0.943827 -0.815567 -1.14383 -1.06703 -0.16986 0.205198 -0.381867 -0.741749 -0.80289 -0.0563547 -0.0784496 2.15186 0.339835 0.605777 0.303002 0.826053 0.795337 -0.255988 -0.398438 0.949205 0.0972394 0.440758 0.153516 -0.849724 0.206478 1.01875 -0.2368 0.629622 0.629775 -0.175482 -0.264631 -0.32124 0.0514196 1.21561 1.0609 -0.0855901 1.04153 -0.830437 -0.325546 -0.405033 -0.54065 0.388224 0.646333 -0.00807576 0.170621 0.585805 
-1.57981 1.58304 -0.207166 0.769757 0.126071 -0.120309 -1.75594 0.930204 -1.01523 -0.369362 0.613002 -0.259967 -0.407186 1.35306 -0.804115 0.337494 -1.29657 0.510523 0.824657 1.31355 0.738468 -0.279147 0.536501 1.0972 -0.659066 0.334388 -0.455927 0.667815 0.310348 -0.473959 1.13093 0.284461 0.169673 0.178044 0.208684 -0.429187 -0.461361 0.847019 0.182924 0.676447 1.10231 -0.555656 -0.324739 0.0867423 -0.319487 -0.423973 0.621933 0.146646 -0.105095 -0.152795 0.350894 0.725856 0.704515 0.689208 1.11519 -1.06416 -0.164056 0.0761872 0.716258 0.593123 1.93417 -0.0799024 -0.75019 0.484343 0.191924 -0.382027 -0.755815 0.661337 -0.0592662 -0.0471548 -0.361708 -0.179391 0.153134 1.6802 0.206897 0.174444 0.0625743 -0.206243 -0.890882 -1.27827 1.56894 0.937796 -0.191103 -0.638982 -0.946701 0.0491104 0.766397 -0.696027 -0.741196 0.118504 0.807468 0.132889 1.33118 -0.74451 -0.497022 -0.289047 
1.36635 0.136191 0.47832 0.0813801 0.194234 -0.0273104 -0.566907 0.552189 -0.168865 -1.2248 -0.48106 0.30765 0.265717 0.0731479 0.393534 0.455477 -0.528976 -0.378894 1.01362 0.206858 0.193483 -1.70137 -0.34922 0.22814 1.21253 -0.233799 -0.716469 -0.316853 0.165009 -0.287155 -0.345632 0.48194 -1.32158 0.741014 -1.18718 -0.279541 0.138541 -0.205786 0.121366 -0.304175 0.455959 1.08195 0.724913 -0.954667 -0.502985 1.27117 -0.489857 -0.332974 -0.218284 -0.0659531 0.167798 -0.878414 -0.307313 0.0430366 0.884222 1.11901 -0.23811 -0.717655 -0.81639 0.512729 -0.722852 -0.389159 0.1501 -1.18392 -1.05962 0.144033 0.310331 -0.842218 -1.53858 -0.136889 0.413923 -1.61402 -0.55758 -0.47421 -0.442762 0.294609 1.26381 -0.899851 0.942749 0.59005 0.315256 -0.503354 0.266338 0.649928 -1.0352 0.227572 0.641926 -0.98202 0.165635 -0.488591 0.166575 0.0764793 -0.774364 -0.382377 -0.16076 0.50089 
-0.889278 -1.73532 0.304062 0.19055 0.227811 0.402754 0.804118 0.839812 -0.672117 -0.467853 1.1261 -0.323044 1.01011 0.0248469 1.45664 -0.42966 -0.0940216 -0.622964 0.178604 0.188331 0.535221 0.29037 -0.589282 -0.245431 1.18882 -0.118236 -0.293236 0.152785 -0.982667 0.0191596 -0.702871 -0.00812983 -0.391697 0.00909588 0.112965 -0.157745 -4.89445e-05 0.345992 -0.701596 -0.417708 0.739674 -0.773514 -0.249033 -0.240835 -0.926663 -0.0119172 -1.08345 0.259139 -0.0508574 0.293196 -0.183118 -0.292296 -0.717408 -0.579157 -0.29919 -0.737503 0.200173 0.06083 -0.990665 0.305445 0.55871 0.102781 0.876653 0.516511 0.275025 -0.459007 0.109794 -0.436875 0.2164 1.05011 0.083811 0.559302 0.189105 -0.0691357 0.575776 0.311006 -0.0383737 -0.835309 0.576231 0.0123586 -0.470134 0.050671 -0.262664 -0.244521 -0.963914 1.36796 0.354349 0.122015 0.197851 0.726705 0.605951 0.347236 -0.596344 0.613572 0.819753 -0.874789 
-0.7242 -0.86357 -0.374379 -1.72783 0.325791 -0.021011 -0.342143 -1.10675 -1.41628 0.366113 -0.173972 -0.0600521 0.192405 1.03777 0.0645463 -0.420185 0.375908 -0.345925 -0.603637 -0.157183 -0.892317 -1.26061 0.489273 -0.702799 -1.10824 -0.0848697 -0.79814 -0.774556 -0.0932108 0.0284041 0.147931 -0.749547 -0.933097 0.762819 -0.475071 1.01926 1.44151 -0.0169852 0.921701 -0.692747 0.171456 -0.229493 -0.039798 -0.802966 1.15591 0.30327 1.01412 0.484224 -0.0118237 0.201655 -1.32086 -1.03109 -1.01047 0.953909 1.59116 -0.732962 0.0753506 0.355508 0.168415 -0.669164 -0.378712 0.060596 0.670313 0.0859111 1.16978 0.820846 -0.156708 1.03379 0.168976 -0.697763 -0.041051 0.688292 -0.104588 -0.534356 -0.146408 1.16727 0.641602 1.1628 -0.481218 0.613308 -0.361191 -0.726688 0.591411 -0.280567 0.794788 0.254722 0.00308961 0.839936 -0.433165 0.606264 -1.16755 -0.806856 -0.266054 -0.130551 -0.807343 -0.12503 
1.24535 0.591897 -0.420412 -0.231783 -0.830403 0.684961 0.560565 1.63566 -0.339335 -0.0468048 0.35909 -0.704086 -0.781528 0.145155 1.26035 -0.0575571 -0.265771 -0.592386 0.610747 0.30407 1.03509 -0.202584 -0.769702 1.06918 -0.123152 0.850319 0.345405 0.680055 0.197481 -0.901187 0.278254 -0.0143834 0.36009 -0.308313 -0.103661 -1.32471 -0.904165 -0.486115 -0.540986 -0.14591 -1.25929 0.149015 1.02128 0.987884 0.288822 -1.26942 -0.801214 -0.339329 0.194291 -0.00844817 -0.65865 0.63086 -0.378788 0.929886 -0.341576 -0.0595639 -0.732661 0.355524 0.047093 -1.2487 0.0765632 -0.242867 -0.231911 -0.0230652 -0.738467 -0.63052 0.121443 0.697926 -1.46018 0.109257 0.540674 0.902892 -0.434493 0.404784 -0.141665 0.75829 -0.143133 0.101566 -0.827385 -1.15674 -0.318599 0.130739 1.6485 0.226363 1.03791 -0.592269 0.569526 0.600486 -0.546912 1.2028 0.167386 -0.0361112 0.239571 0.572272 -0.161561 -0.180539 
1.3677 0.464423 1.32855 -0.463563 -0.065834 0.3649 -0.561489 0.155054 0.170459 -0.205846 -0.206452 -0.869443 0.48186 -0.347484 0.0961119 0.78774 -0.887898 0.258744 0.174827 -0.0565843 -0.723625 0.203185 0.583373 0.520655 -0.449229 -0.513579 -0.31997 0.205826 -1.1716 0.975147 0.210192 0.251924 0.971047 0.0943792 0.196207 -0.822378 0.0790573 -0.0122151 -0.659848 0.0458136 -0.0991343 0.864177 0.026841 -0.169241 -0.147724 -2.06518 0.339723 -0.351475 -0.429637 -0.448478 0.614397 -0.0680065 0.602525 -0.028931 -0.846209 -0.536568 -0.367115 -0.649296 0.406154 -2.04951 -0.981162 0.329455 0.298558 1.1037 -0.34877 0.268916 0.249294 -0.341855 -0.627075 -0.57055 0.0309285 -0.126135 0.340502 -0.0229778 0.552322 -0.48913 -0.188731 -0.254377 0.196454 1.79792 0.504031 -0.436782 -0.0171248 -0.527821 -0.623538 0.680968 0.804455 0.182073 -0.43997 1.38315 -0.0176766 -0.335871 1.1522 1.05659 -1.04518 -0.374109 
-0.991563 0.65434 -0.462197 -1.02502 -0.414069 -0.877051 0.157926 0.553443 -0.00494288 0.345022 1.60394 0.417112 -0.0232903 0.440714 -0.167666 0.00188957 1.15899 -0.0808369 -0.248835 1.60782 0.587546 -0.40084 -0.960069 -1.12603 -0.325436 -0.123746 0.073921 -0.301247 0.84014 0.568132 -0.445283 0.721329 0.018357 -0.858093 -0.0479828 0.00797001 -0.825414 -0.122135 -0.417778 0.490906 -1.29622 -0.584927 0.497024 -0.425929 -0.466062 0.095575 0.749769 -0.376774 -0.00499733 -0.0857883 -1.56626 0.224233 -0.546463 0.529291 0.0188524 -0.330541 -0.763633 -0.53309 0.368542 0.268362 0.706553 0.644237 0.0701755 0.467344 0.490508 0.212447 -0.205564 0.335298 -0.511582 0.0744266 -0.833895 -0.955431 -0.438075 -0.170971 -0.579337 -0.763599 -0.18869 -0.377755 -0.0215942 -0.431983 -0.299366 -0.34469 -0.153693 -0.791969 -0.467424 0.392989 0.775192 -0.190346 0.00466483 -0.685495 1.07605 0.384096 0.00690448 0.016626 0.195556 0.336577 
1.22367 0.673443 -0.532082 0.650687 -0.922017 -0.0357109 -0.782994 1.04603 0.0496917 0.599925 0.301861 0.530246 -0.907308 0.00495163 -0.082564 0.632854 0.0650934 1.24354 0.287096 -0.386195 -0.231873 0.29319 -0.501824 0.574837 1.12001 0.0749288 -0.740941 -0.585807 1.09808 -0.0875689 0.980764 0.792456 -1.24742 0.144703 -0.0557058 0.761715 -0.0400591 -0.959574 -0.318319 -0.0878055 -0.0482799 -0.474422 1.0458 -0.714485 -0.0859939 -0.108046 -0.225394 -0.547536 -0.219701 0.451749 0.116746 -0.231675 0.0547971 0.0293204 0.869803 0.368807 0.00117213 0.773084 0.365222 -0.0472276 0.230389 0.85086 0.303386 0.243091 1.35207 -0.192147 -0.63059 0.349778 0.982831 -0.298458 0.261537 -0.397325 1.39118 -0.351301 -0.0290197 -0.481692 -0.0837101 -0.929483 0.128941 -0.905343 0.614538 -0.0230137 -0.677209 -0.623956 -0.575533 0.313655 0.654542 -1.06141 -0.920808 -0.35664 -0.135125 -0.15301 -0.422941 0.395681 -0.7551 0.326997 
0.875046 -0.315735 -1.10375 0.102054 0.697693 -0.449031 0.112304 0.149526 0.0813405 -0.497918 -0.922652 0.582817 1.15243 0.723747 0.307228 -0.254615 0.230106 -0.597523 -1.45298 -0.651921 -0.633587 -0.031976 1.04524 0.490464 0.30916 0.0722582 0.0974113 -0.540571 0.144604 -0.18975 -0.436112 0.0859907 0.145324 -0.27682 -0.930204 -0.250316 -1.66715 0.741876 -0.298421 0.617423 -1.4822 0.393507 -0.0539021 1.00123 0.822452 -0.592175 -0.274344 -0.202781 -0.0184053 0.900247 0.896282 1.03205 -0.240695 0.282843 0.252537 0.377907 -0.585353 -0.170608 0.494667 0.0864465 -0.619083 -0.189129 -0.0576923 -0.651266 -0.0537307 -1.49858 0.294248 -0.855135 0.525192 -1.44324 -0.200966 0.715807 0.0560242 0.751622 -0.312448 -0.634048 0.0355784 0.850451 -0.30314 -0.339669 1.31168 0.181657 -0.105052 -1.16929 0.655106 -0.809975 1.03178 0.396413 -0.268605 0.622548 0.712521 -0.390735 0.408752 0.917177 -1.21659 0.190616 
-0.0807174 -0.239629 0.369146 1.09036 0.777717 1.6657 0.802061 0.50134 0.744276 -0.510392 0.644629 0.0772472 -1.03462 -1.01814 0.11626 -0.0868678 -0.619818 0.614644 0.693495 0.744853 0.199634 0.461202 -0.21892 0.403042 0.523211 0.383213 -0.232401 0.172679 0.908681 0.285047 -0.780056 0.0117858 -0.207988 0.554297 -0.18072 -1.24583 0.993504 -1.37475 0.29484 -1.21817 -1.19131 -1.24266 0.602549 -0.947716 -0.902158 -0.953991 -0.200205 -0.477022 -0.419458 -0.361086 0.116912 0.656778 -0.635571 -0.457981 0.88255 0.335308 -0.498018 0.91623 -0.555468 0.236042 0.358655 -0.578793 0.293823 0.629009 -0.668601 0.0107474 0.618723 0.347696 0.16527 -0.010113 0.513273 0.39817 -1.59044 -0.37316 -0.292996 -0.935649 -0.205076 0.0236721 0.721278 -0.280482 1.37784 -1.26882 0.132161 -0.470965 0.636638 0.80254 -0.175319 -0.649807 -0.44511 0.899728 0.191365 0.632295 -1.06939 0.778067 0.329304 -0.762105 
-0.408946 0.268729 -0.394092 1.06873 -0.168466 -0.704193 -0.842409 -0.108885 -0.83326 0.103752 -0.193811 0.0295119 0.266915 -0.584187 -0.245591 0.315184 -0.195957 0.503576 -0.932247 0.919646 -0.166263 1.29713 -0.39197 -0.0238419 0.470908 -0.55778 0.0294281 0.0969164 -0.214896 0.267756 -0.84513 0.656357 0.44766 -0.928888 -0.139344 1.16604 -0.423905 -1.03688 0.519136 0.0750104 -1.43291 0.941517 -0.018277 0.470089 -0.666004 0.332348 -0.238484 -0.538128 -0.760556 0.360877 0.699502 -0.067588 -1.10031 -0.270191 -1.16583 0.100478 -0.259179 -0.836609 0.653761 0.184487 1.03911 0.768819 0.053529 0.921716 -0.663514 -0.774843 0.871293 -0.201271 0.174886 -0.581503 -0.0843274 0.144274 0.939801 -1.06436 0.35099 -0.110187 1.00942 -0.461642 -0.0161464 0.009256 0.000100381 -0.171216 1.0494 1.06204 0.0596457 1.32714 0.00378758 0.991286 -0.372496 -0.61895 -0.446201 0.249531 0.1173 1.35394 0.333127 0.441854 
0.194527 0.348037 0.356884 0.702889 -0.127497 -0.504222 -0.247084 -0.278887 0.0554629 -0.0185479 0.250325 -0.581512 -0.649132 1.23018 -0.827509 -0.773405 -0.17542 0.186196 0.144551 -1.15745 -0.42512 0.28022 -0.933477 0.0691362 -0.244065 -0.395249 0.263925 -0.0537115 0.629789 -0.730476 0.11966 0.232822 0.00833193 0.601325 0.76889 1.73063 -0.297393 0.289043 -0.457324 0.062332 0.119117 0.522878 -0.849295 -0.443491 -1.23429 -0.616162 0.768135 -0.192153 -0.240068 -0.196933 -1.40707 0.453438 0.291247 -0.570635 -0.725162 -0.388877 0.0335876 -0.0297417 -0.424482 -0.281531 -0.509808 0.545673 0.466095 -0.220236 -0.712592 -0.32192 -0.214835 0.331193 -0.362824 0.0957599 -0.67583 -0.495615 -0.341957 0.149676 0.0291641 1.07086 -0.00149419 -0.224298 0.203835 -0.85475 0.0615829 0.903165 -0.305306 -0.153193 -0.324415 -0.304166 0.272066 1.23976 0.234764 -1.09986 -0.22904 0.910253 -0.222715 0.394528 0.186867 0.559332 
0.494432 -1.1511 -1.03687 -0.462632 -1.24331 0.603758 -0.018198 -0.310086 0.0846135 0.0862892 0.461958 -0.307786 0.572692 0.510238 0.429746 0.535629 0.261941 -0.0557901 0.377324 1.30922 0.533839 0.585404 -0.102778 -0.465074 -1.24337 0.0452205 1.06001 0.171257 -0.767782 0.411647 -0.17223 -0.492328 0.730355 -0.145114 -0.287179 0.0877762 -0.435281 -0.134552 -0.531307 -0.427668 0.595446 -1.40378 -0.637354 0.743971 -0.889626 -0.713601 -0.680043 0.126334 1.01313 -0.161942 0.513969 -0.243411 -0.208256 -0.612073 1.58505 -1.53454 -0.0925273 0.194311 -0.153238 -0.647313 -0.315162 -1.19236 -0.469908 0.391552 -0.452376 0.201843 0.0288162 -0.649646 -0.981457 -0.897225 -0.822212 -0.627251 0.159358 0.573979 -0.024154 -0.62952 -0.0682484 -0.0484955 0.114806 -0.0784549 -0.0369188 -0.483975 0.631996 0.333646 0.422996 -1.83999 0.658191 -0.270879 -0.00258338 1.04393 -0.0309605 -0.635026 -1.29659 0.34144 0.73401 -0.370842 
0.00725254 -0.150798 0.597041 -1.14393 0.519399 0.337067 -0.816663 0.880103 0.0294305 -0.560518 1.09876 0.393587 -0.675811 -0.0803292 0.95295 -1.5694 0.0970947 -0.370554 -0.539258 0.445692 -0.960561 0.1599 -0.0244459 -1.0463 -1.35541 -0.141644 0.388745 -0.960361 -0.460969 0.0728957 -0.731325 0.225707 0.027477 -0.207675 -0.432722 0.417734 0.130599 0.691537 -0.481747 -0.831761 -0.398716 -0.581759 0.0605324 -1.34247 -1.05986 -0.320959 0.237105 0.455743 0.439109 0.697179 0.458995 -0.292316 0.513415 0.776153 -0.555549 0.621849 0.670202 -0.420523 -0.289642 0.758375 -0.193496 0.649556 0.453709 -0.195417 0.0226569 -1.28697 0.836306 -0.270115 -0.233971 1.13081 0.0578928 -0.435304 0.404994 -0.470684 0.720423 0.688795 0.984051 0.133573 -0.147285 0.15218 -1.58103 -0.610507 0.647442 -0.615047 -0.259994 -0.609876 0.170659 1.24247 0.590394 -0.0797121 -0.172004 -0.315367 0.0501207 -0.00861164 -0.0647175 -0.804578 
-0.110606 0.0692095 -0.139718 0.243668 -0.352256 -0.789291 0.834057 0.762237 -0.184803 -0.0646976 0.237947 -0.858735 -0.298675 0.862054 0.691098 -0.178114 -0.165516 -0.91589 0.954059 -0.0115006 -0.207067 0.302582 1.04221 -0.525242 0.0883013 0.711455 -0.103562 -1.159 -0.263429 -0.559444 -0.8756 0.000624949 -0.432434 -1.38653 0.248097 0.0458471 -1.35667 -0.312391 1.06118 -0.829457 1.08279 0.076325 1.46412 0.10646 -0.286167 0.42431 -0.1517 -0.193648 -0.959299 -0.695212 0.341513 0.153158 0.25239 -0.725349 -0.111755 1.44675 -0.428448 0.24188 0.206647 -1.53561 0.58228 -1.7765 0.277984 0.25391 -0.167155 1.45403 -0.187955 1.01629 0.137751 -0.847982 1.08124 0.0304473 0.393778 -0.461152 -0.002119 0.0467337 0.448935 0.633957 1.08111 0.479829 -0.806656 0.813416 -0.525928 0.641939 -0.563657 -0.152387 -0.746203 0.279156 0.483387 1.27963 -0.917113 0.993707 -0.180678 0.145645 -0.422696 -0.13243 
0.029367 0.482261 0.373658 0.0860317 0.0661858 0.182503 -0.404171 0.504627 1.30238 -0.0197191 0.0756757 -0.00126284 0.646036 0.313457 -1.18508 -0.496887 -0.455089 -0.207672 -0.896324 0.271526 0.561926 -0.257424 0.529818 0.253159 -0.3291 0.968592 0.646122 0.992162 0.13881 -0.128208 -0.378945 0.345406 -0.46738 -0.406805 -0.597795 -0.476427 -0.112706 -0.0653902 -0.810807 1.53028 -0.606097 0.0577981 -1.03465 -0.107929 0.553983 -1.10914 -0.554741 0.961604 0.298406 0.0393785 -0.312914 1.2623 0.247003 0.471315 0.567999 0.0362288 -1.66941 0.474063 0.108832 0.527272 0.169732 0.993416 -0.761397 -0.103592 0.745824 0.326354 0.108023 -0.00575474 0.0447606 -0.401919 0.26793 -0.341659 -0.446241 0.256062 -0.152851 -1.01461 -0.191808 -0.923583 -0.358946 -0.338149 1.41741 -0.0772943 0.746537 -0.27336 0.100642 0.981181 0.366755 0.382436 0.647649 0.551553 -0.234429 0.090094 -0.619663 1.01061 -0.274244 0.556879 
0.142525 -0.575394 -0.556124 -0.375054 -0.546841 0.111066 -0.205953 0.531362 0.565294 -0.936922 -0.890717 0.190493 -0.466834 -0.747529 0.95194 0.201448 -0.992549 -0.459649 0.145512 -0.375949 -0.332895 0.24853 0.02374 -0.991108 0.105387 0.900174 1.32615 -0.433707 -0.113505 0.135375 0.16346 0.201731 0.00711446 -0.452482 1.73272 -0.965555 0.29511 0.842537 0.366616 -0.0816077 -0.266811 -0.111264 -0.6277 0.0264208 0.0657335 1.3071 -0.818361 -1.21347 0.672346 0.296116 0.640265 0.681692 -0.359527 -0.910369 -0.729414 -0.473722 -0.0252189 0.531632 1.96506 0.962872 0.915294 -0.154541 0.699793 -0.800601 0.324616 0.92988 -0.412371 -0.825656 -1.14794 0.408696 1.48455 0.45423 -0.572196 -0.118829 0.408729 0.0240241 -0.131498 0.236021 -0.278376 0.439623 -0.890048 -1.16735 0.405664 0.787368 0.128995 -0.225347 -0.105508 -0.0658701 -0.120668 0.139008 0.438843 1.21756 0.485275 -0.361044 0.735341 0.227107 
0.552863 -0.23122 -0.0358561 1.13952 -0.767778 0.486401 -0.374171 -0.962238 0.116472 -0.438777 1.0817 0.401064 -0.0380805 -1.04571 -0.878618 -0.839526 -0.206233 0.353017 0.117765 0.174549 0.214437 -0.0439114 -0.326601 -1.32472 -0.84185 -0.626398 1.59183 0.0618705 -0.460886 -0.554222 1.30425 -0.561959 0.481446 -0.652568 -0.182723 -0.386633 -1.69667 -0.0274823 0.367322 -0.422234 -0.790923 0.647244 0.560012 -0.208981 0.530838 0.117269 -0.0858637 -0.580904 -0.641442 0.34691 -0.474513 -0.461853 -0.440886 1.18165 -0.256273 -0.0375234 -1.09792 1.37747 -0.645188 -0.186068 -0.155254 -1.14773 -0.965224 1.76975 0.959374 -0.373839 -0.953033 0.441295 -0.192656 1.52241 0.353314 0.795091 -0.276339 -0.124752 0.0612526 0.786286 -0.139318 1.03864 0.85788 -0.484795 -1.05806 0.536315 -0.813266 -0.418718 -1.38762 0.411666 1.01089 1.08495 0.598832 -0.14807 1.28983 -0.388569 0.11162 0.3649 0.841224 -1.88621 
0.60784 0.427355 0.756372 -0.975249 -0.338239 0.424992 0.00530044 -1.10145 -0.832863 -0.259546 -1.0659 1.05452 0.781976 0.379899 1.51359 -0.177567 0.473061 0.46468 1.5852 0.258603 -0.713413 0.572876 0.282191 0.374963 -0.627347 -0.391372 1.54579 0.0197442 0.769774 -0.247138 -0.143105 0.289804 -0.195739 -0.338599 -0.037946 0.0260693 0.468039 0.390387 -0.37277 -0.216932 -0.72858 -0.658391 0.640935 0.209528 1.24569 -1.01633 -0.662071 -0.36625 0.524523 0.639799 0.125834 -0.0931052 -0.203658 0.225499 1.07139 0.620675 0.234316 -0.0650402 0.781057 1.19997 -0.146199 -0.794289 -0.432958 -0.0897534 0.296702 -0.514501 0.391088 -0.713304 -0.0366198 -0.320053 -0.524916 -0.792471 0.313243 -0.421047 -0.0605816 -0.118486 0.311775 0.670188 0.30629 -0.122576 -0.0519589 -0.147138 0.120011 1.09596 -0.768597 -0.816881 -0.518022 0.759077 0.226225 0.211419 -0.373325 -0.259203 -0.558322 -0.66887 1.61306 -0.439549 
-1.65729 0.721002 1.06066 0.204108 1.07604 0.847822 -0.442605 -0.257068 0.938103 0.943934 -0.786368 -0.386541 -0.587519 0.0468923 0.156152 0.69274 -0.715081 -0.844901 -0.333413 0.529394 -0.836246 -0.155798 0.261036 -0.714927 -1.10093 -0.00191621 0.415978 0.213908 0.713755 0.662102 0.513498 0.889096 -0.190586 0.20164 -0.208004 0.280499 -0.053246 -0.283766 0.453433 0.254372 0.195373 0.240353 -1.08041 -0.248808 -0.995234 -0.667213 0.541785 0.342147 -0.698428 -0.368097 0.450188 0.853318 0.119475 -0.121627 0.246409 0.548311 0.567555 -0.511244 -0.00883032 0.411476 -0.615142 0.524499 0.525615 -0.302652 0.602257 -0.879554 -0.792329 -1.08883 -1.13663 -0.0783878 -0.0931954 1.23627 -0.0148339 1.59813 0.764169 -0.298906 0.767002 -0.140318 0.185858 0.112131 0.121718 1.18836 0.0495384 -0.461146 -0.338503 0.169017 0.86047 -0.148352 0.0295247 -1.12979 0.107428 1.50694 -0.18156 0.868594 0.0732436 0.959162 
-0.799165 0.775357 -1.16073 0.123131 -0.210764 -0.569782 0.689315 1.31746 0.220574 1.06108 0.534433 -0.456727 0.257494 -0.781652 0.0622496 -0.457078 0.294597 -1.12109 -0.492243 0.549364 -0.353982 -0.699956 -1.86608 0.231058 -0.43932 2.22762 0.0215109 -0.336468 -1.34884 0.185533 -0.863897 -0.0347241 0.0892837 0.210273 -0.062433 -0.478624 -0.333831 -0.0142202 -0.8689 0.359452 0.00237364 0.558498 0.759635 0.483019 -0.849443 0.395979 0.160816 0.164272 -0.855638 -0.454666 0.389597 0.237744 -0.267864 -0.849045 0.911184 0.773251 -0.431794 0.840803 0.744291 0.535366 -0.781047 1.63061 0.229717 -0.305912 -0.956255 -0.19336 -0.0214545 0.148688 0.10882 0.952237 0.533329 0.113244 0.673417 -0.520047 -0.910424 0.169385 -0.174971 0.0840892 -0.197732 0.466361 -0.0735239 -0.758875 -0.252178 0.297843 -0.855838 0.275138 -0.230747 -1.72234 -0.597695 0.0928334 0.237578 0.423126 -0.716123 0.237697 -0.250264 -0.204517 
0.863412 0.403464 -0.988088 0.0582085 -0.0109248 -0.216034 0.826562 -0.700087 -0.238554 -1.20408 1.18037 0.292497 -1.05638 0.266663 -1.02117 -0.633415 -0.518232 -0.601798 -0.0185947 0.726713 0.50664 0.175398 0.351894 0.927448 -0.0937687 0.753516 0.186776 0.031864 0.907891 -0.155924 -0.822479 -0.199855 -0.809508 -0.988348 0.262309 -0.467013 -0.394681 -0.779502 -0.429872 0.0702785 0.0804052 -0.416708 0.668231 0.736614 -0.987458 -0.641353 0.0278688 0.488253 0.0183941 0.722844 0.0745719 -0.202005 -0.679896 1.02823 0.240868 0.857157 0.978218 0.047909 -0.361021 0.082413 0.512079 0.662373 -0.358594 0.501758 0.493547 -0.391005 -0.414331 1.14542 -0.433987 -0.693902 -1.86412 0.596883 -0.620909 0.654323 -0.165715 -1.30902 -0.017822 0.588933 -0.173774 0.156964 -1.71441 -0.310532 -0.935715 0.254286 -1.26968 0.143355 -0.716724 0.401433 -0.502629 -0.637844 0.495196 0.627761 -0.362531 0.493879 -1.04608 0.423404 
0.64634 -0.377068 0.413306 0.31554 -1.2376 -0.047009 -1.21119 -0.092451 -0.331879 0.202749 0.523096 0.787381 1.01999 -0.360705 0.284498 -0.55602 -0.138093 -0.757171 0.496415 -0.368039 -0.21333 -0.209106 -1.12762 0.467917 0.322949 0.7271 -0.201696 -0.285065 0.482101 1.21577 -0.607144 -0.23215 -0.736473 -0.51863 0.432735 -0.294742 0.240534 -0.473179 0.329504 -0.0117797 0.369683 -0.499487 0.39532 -1.71671 0.291027 0.690316 -0.484834 -0.664911 -0.695394 1.181 0.284286 0.385936 0.304899 -0.150844 -0.330459 0.29629 0.303508 0.363342 -0.400339 -0.461479 -0.823844 -0.650815 -0.737085 0.120703 -0.621585 0.305252 0.27472 -0.547719 -0.232735 -0.0490465 1.43433 -0.0181851 -0.026763 -1.16326 -0.946895 -0.115286 0.224775 0.51146 -0.768656 -1.43889 0.0174269 0.503261 0.870934 -0.0259207 0.507208 0.535951 0.726532 1.12172 -0.27178 -0.122087 0.0244825 0.964033 0.148128 -0.144097 0.0228764 0.759638 
-0.38793 0.133683 1.42157 -0.258956 0.409881 -0.355053 -1.14134 0.711564 -0.27113 -0.742904 0.216171 -0.981434 0.845167 0.341072 -0.114518 0.617317 -1.05352 -0.67965 -0.777355 -0.635451 0.152961 -0.277282 0.598772 -0.398743 -0.273984 -1.23113 0.442431 -0.0388884 0.71538 0.481561 1.20717 0.648514 1.52929 -0.961878 0.0366342 -0.0599107 -0.522187 -0.991133 -0.874223 -0.0817671 0.623765 0.328353 0.0804724 1.13524 0.783386 -0.275082 0.898603 -0.378429 0.256019 0.239559 -0.00494662 0.760597 -0.986311 0.232948 0.3712 0.193366 -0.848948 1.42322 -1.02238 0.301931 0.625572 -0.0629803 -0.461995 0.0656801 -0.901159 -0.174908 0.931585 -1.39794 -0.691043 0.157906 -0.0364295 -0.0678516 0.644466 1.64498 0.0799106 -0.0779874 -0.91138 1.19998 -0.274065 0.924209 0.389616 0.773471 0.457145 -0.542604 0.754926 -0.251987 -0.990072 0.501077 0.17741 -0.771547 -0.671522 0.109597 0.0345214 -0.0789118 -0.390488 -1.01656 
-0.169772 1.25597 -0.846563 0.924677 0.0999818 0.126685 0.541822 0.0678222 -0.223667 -0.240261 -0.503715 -0.596521 0.295135 -1.89028 0.365234 -0.34436 -0.0632898 0.658835 -0.771908 -0.441897 0.451927 0.269772 -0.32666 -0.128368 -0.591464 -0.694232 -0.483173 -0.33694 0.101241 0.263856 0.128555 -0.609007 -0.562287 -0.249699 0.105453 -0.420207 0.211269 0.237391 0.775939 -0.357649 0.305421 -0.375436 -0.648237 0.721499 -0.32733 0.00695158 -0.846516 -0.148987 -0.490557 -0.202434 -0.611016 -0.985153 0.376739 -1.05823 -0.868582 -0.43047 0.0384571 -0.37764 -0.263456 -0.392836 1.10939 -1.20174 0.302718 -0.195844 0.682818 0.403713 -0.353599 0.77702 0.370423 0.09594 -0.473346 -1.54617 -0.265795 -0.772313 1.24631 -0.443505 0.216443 0.352958 -1.11125 0.0355879 -0.430321 0.221847 -0.495468 -0.414573 0.861853 0.388197 0.57828 0.21902 -0.184505 -0.956334 0.281994 0.240588 -0.0220885 0.417351 0.0377261 -0.370227 
-1.06997 0.379719 -0.0363314 -0.0265546 0.431319 -0.399172 0.368084 -0.140335 -0.834931 0.390434 -0.00148534 -1.03591 0.108794 0.730406 -0.811616 -0.73021 -0.0439667 0.252166 0.283291 0.394311 0.423296 -0.951277 -0.0383059 1.07442 -0.825512 0.238373 0.219463 -0.239389 0.316161 -0.0560349 -0.170187 1.05134 -0.669203 -0.0912075 -1.10686 -0.91851 -1.01188 0.043618 -1.00936 -0.105532 0.257479 0.832833 -1.86145 -0.858311 0.208162 -0.0521765 0.353934 -1.23395 -0.824206 1.21336 0.322674 0.660195 -0.256916 -0.668661 -0.510943 -0.0424115 0.498939 0.121614 0.365628 0.967164 0.187625 0.774074 -1.01117 0.0200803 -0.197009 1.21509 -0.0497181 -0.274022 -0.206812 0.95532 0.193905 -0.0399759 -0.783427 0.102517 -0.919453 0.397851 -1.00509 0.758987 -0.264085 -0.924936 0.441759 0.367365 -0.673211 0.320109 0.473403 -0.420588 -0.992301 1.01015 0.955852 0.412319 0.0269694 1.40184 0.583812 0.645605 0.375645 -1.88098 
-0.94128 0.669978 1.12452 -0.14512 0.63305 -0.718419 -0.534167 -0.342147 0.0359062 0.45249 -1.17368 0.0232529 -0.108835 -0.437108 -0.137402 -0.0812479 -0.85923 -0.59646 1.00797 -0.142339 0.399304 -0.941469 -1.41119 -0.253127 1.16371 0.127486 0.418701 0.712874 -0.551061 0.21054 -0.885125 -0.00664041 0.554625 -0.26808 1.07789 0.288895 -1.83499 -0.543908 0.847764 0.238067 -0.13754 -1.56251 0.24295 -0.553123 -0.248761 0.453399 -0.384639 0.98336 0.0231861 -0.334314 0.200349 -0.343223 1.09287 -1.49052 -0.646705 -0.0378488 1.32862 0.281192 -0.437196 -0.0127876 -1.08385 1.0317 -0.440871 0.291321 1.17731 0.488903 -0.410032 0.46384 -0.51811 0.061095 -0.0586943 -0.681563 0.556552 -0.496959 -0.0651444 0.938133 -1.18074 0.563305 -0.176713 -0.645079 0.153282 -0.574807 0.443413 0.332607 1.51317 -0.365172 -0.150284 -0.0981398 0.0890976 1.04072 -0.0422638 0.678433 0.0827741 -1.42696 0.0387314 0.68965 
0.587796 -0.467743 1.04893 0.295766 0.886187 0.534783 0.292314 -0.639463 -0.73234 0.514808 1.15342 1.18284 0.548217 0.457384 0.0476148 -0.260059 0.0103808 0.845954 0.344948 -0.642995 -0.680133 0.654521 -1.2307 0.706185 0.0734562 0.342901 -0.425196 0.0540159 -1.21163 -0.335243 -0.255959 0.209108 0.771608 0.103833 0.0368376 0.217054 0.178558 -1.01315 1.23561 -0.440593 -0.201342 0.0605093 0.370057 0.409444 0.402333 -0.760219 1.09674 0.823576 -0.237352 0.226599 -0.302189 -1.37974 0.196391 0.694329 -0.235823 -0.46701 -0.452845 0.80899 0.256513 -0.230632 0.550325 0.683097 1.26629 -0.401798 0.463925 -0.548726 -0.254663 0.567536 -0.129228 0.0699663 0.289949 -0.795445 -0.97811 -1.35982 0.0121125 -0.519124 0.653292 0.0357335 -0.849828 -0.975646 0.983252 1.25467 0.335757 0.898562 -0.773955 -0.415755 -1.03788 -0.342938 -0.997643 0.947708 -0.105905 0.509823 0.744745 0.379603 0.176119 0.446892 
0.362661 0.527645 0.0798428 -0.454308 0.115341 0.304197 -0.106682 -0.364754 -1.38513 -1.17108 0.933991 0.717968 1.24048 0.849154 0.853386 -0.160409 -0.411679 -0.256054 -0.711385 -0.324295 -0.457657 0.825692 0.878478 0.449025 0.104516 -0.392647 1.71671 -0.407698 -0.0717638 0.102625 -0.541514 0.711141 -0.212199 -0.182977 0.527562 0.169243 -0.344079 0.261232 0.361202 -0.852932 -0.718798 0.109252 -0.32206 -0.475311 -0.15408 0.513287 -0.282302 -0.635472 0.829064 -0.800528 0.104309 0.299484 -0.510017 0.355695 0.331976 0.210452 -0.413476 0.265463 -0.250671 -0.391599 1.32761 0.547241 -1.35686 -1.25019 -0.556172 -0.659367 0.675588 -0.285197 1.09873 -1.26535 0.699997 0.385527 0.137483 0.935337 0.983974 -0.791553 -0.0817366 -0.463612 -0.870491 -1.29159 -0.291297 0.119415 -0.310443 0.585462 0.63564 -0.210202 -0.767899 -0.434311 -0.849896 -0.0416412 0.574705 -0.256374 1.47154 0.568912 1.70395 -0.0629859 
-0.435594 1.3837 -0.716605 0.334419 0.452151 -0.976357 -0.130831 0.68722 0.466578 -0.954603 0.65521 -0.488227 -0.0931768 -0.335933 -0.665225 0.39134 -0.666735 -0.52258 0.709671 -0.719566 -0.470494 -0.258234 -0.195366 -0.34287 0.112606 -1.07382 0.522914 -0.544377 -0.252059 1.69705 1.54913 1.25962 0.88382 -1.06856 0.752197 0.169806 -0.417895 -0.376925 -0.299071 -0.635393 0.682513 0.297506 0.855275 -0.0949798 -0.00924712 -0.39636 -0.411298 -0.637292 -0.310393 -0.266275 -1.06295 -0.898136 0.395493 -0.602369 0.00508178 0.602893 -0.332076 -0.0635795 0.532198 -0.103308 -0.460103 0.318465 -0.370961 0.169461 0.261495 0.208771 0.376297 -0.0861509 0.480552 0.127502 -0.0704652 0.178811 -1.64422 -0.438382 -0.246052 -1.34573 -0.6636 -0.379383 -0.0452835 -0.994123 0.0476775 0.525361 -0.616299 -0.629459 0.0450592 -0.0442032 0.516992 0.122726 0.790898 -1.17649 0.0394033 0.983174 0.104674 -0.108084 0.508362 -0.372491 
0.666767 -0.32369 0.745032 0.44863 -0.593231 0.177015 -0.453574 -0.108082 0.921666 -0.288196 0.246147 -0.105731 0.588086 0.255348 -0.0862731 0.208617 0.283578 0.470042 1.01664 -0.615028 0.805909 -0.526984 -0.0501151 0.521719 -1.40778 0.655499 0.687539 0.0613414 -0.0587679 1.01333 -0.574107 -0.0505885 -0.0200462 0.0526507 -0.84091 -0.284566 -0.559699 -0.298701 0.427357 -0.115358 0.762246 -0.163901 -1.04104 0.549374 -0.0380093 0.369839 0.240955 -1.22525 -0.00179004 0.647743 -0.20461 0.507514 0.596223 -1.22993 0.337966 -0.156926 0.410941 -0.111471 -0.242767 0.515678 -0.00876893 0.0511317 0.285181 -1.00758 -0.355117 -0.911385 -0.406123 0.0969208 0.44082 0.48844 0.909925 -0.945863 -0.731409 -0.351562 -0.208799 -0.045821 1.47953 -0.388519 -0.529755 -0.00439778 -0.766812 -0.130542 0.405052 5.55685e-05 0.37097 0.745678 -1.05043 -0.257333 -0.883058 -0.630129 -0.11526 -0.361019 -0.451481 0.943911 0.0541523 0.185197 
0.984314 -0.0842741 -0.629234 0.747753 0.478726 0.0119514 0.98174 -0.595036 0.306182 0.241409 -1.10207 -0.418428 0.170946 -0.395847 0.187212 -0.599818 0.398455 -0.983322 1.75407 -0.909655 -0.526659 -0.121821 -0.59103 -0.0515156 0.188023 -0.452636 -0.133943 0.77866 -0.234742 -1.06739 -0.702941 -0.0895378 -0.133874 0.623083 -0.503802 -0.491601 -0.257848 -0.505497 -1.23239 -0.396219 0.209698 -0.920454 -0.00026011 -1.83865 0.292823 -0.576979 -0.790935 1.69176 0.082316 -0.739016 -0.422434 -1.15604 -0.597049 1.17696 0.3623 0.508346 0.668881 0.988825 0.976676 1.07126 0.794502 -0.0252244 0.279808 -0.57163 -0.235218 0.910316 -0.350939 -0.27205 -0.134351 -0.562924 0.375036 -0.500325 -0.148983 -0.0804697 0.602607 0.818996 -0.959051 0.703615 -0.334783 -0.0999807 -0.900565 0.472989 0.796074 0.43551 -0.782903 0.169544 -0.678008 -1.23705 -0.766887 0.777942 -0.000369398 0.00491365 1.26552 -0.741279 0.5677 0.112451 
-1.3327 0.186351 0.657465 0.668037 -0.0586241 -0.826108 0.811806 0.531329 -0.0530582 -0.138507 -0.110949 0.099625 -0.500659 -0.522341 -0.456493 -0.952167 0.480327 0.493059 -0.0504421 -1.17701 -0.182147 0.438093 -0.800213 -1.52636 0.383938 1.0494 -0.0663564 -0.66008 0.0835996 0.6766 -0.0220809 0.405094 0.800792 0.581537 0.631843 -1.20109 -0.036572 -1.00417 0.597648 -0.382671 0.376375 -0.0600167 1.08025 0.319748 -0.0262575 0.495123 -0.126465 -0.285314 -1.02396 0.19518 0.922146 0.343989 -0.156496 0.108669 0.45126 0.145598 0.503361 1.11214 -0.247109 -0.359909 0.704989 0.108852 -0.637149 -0.247186 0.797531 -0.185436 0.256617 -0.175743 -0.209526 -0.654241 0.231299 -1.42818 0.0530026 -0.698036 1.00786 0.543361 0.0142835 -0.100536 0.246392 -0.3709 -0.0644514 0.510315 0.260228 0.0992561 -0.549783 -0.0310101 -0.523233 0.376462 -1.4668 -0.252204 -0.12933 -0.392059 0.00923642 -0.425516 0.404712 -0.0466784 
1.0305 0.212265 1.56382 -0.439146 -0.767859 -1.39451 -0.929823 -0.688492 -0.676369 0.269993 -0.18423 -0.50833 1.11676 1.12136 -0.095857 -0.434025 -1.32911 -0.397564 1.01974 0.479353 0.292257 0.381253 1.09269 1.25027 0.0219184 -1.23001 -0.764573 0.919095 -1.1271 0.557045 -0.190384 -0.447839 0.13798 0.100298 -0.405862 0.99139 0.520914 0.461503 -1.39344 0.0672613 0.502539 -0.598575 -0.282386 -0.909417 0.0555094 -0.0244677 -0.0491164 -0.137752 -0.464999 0.824245 0.499316 -1.03613 -0.694652 -0.250467 1.54384 0.240251 -0.106431 0.778922 0.80119 0.192441 -0.0694788 0.0637688 -0.366102 0.681159 0.434013 -0.135685 0.0224124 0.190782 0.747764 0.37373 -1.42893 -1.05279 1.32694 0.24222 1.24167 1.04454 -0.411805 0.639943 0.641635 -0.341088 -0.306081 -1.03613 -0.109162 0.66839 0.552934 -0.654375 -0.678787 -0.208378 1.10393 -0.773212 0.197688 0.861624 -0.355216 -0.18651 -1.31491 0.705667 
-0.433975 0.277175 -0.000392126 0.202926 -0.347269 1.14584 0.157356 0.833478 -1.3264 0.447508 0.983395 0.421522 -0.723852 -0.427328 1.10294 -0.0779019 0.327362 -0.258175 0.447497 -0.938461 -0.623582 0.979387 0.577754 0.3091 -0.61212 -0.499525 0.668501 0.141493 0.641855 -0.777473 -0.449543 -0.934408 0.340598 -0.205702 -0.957028 -0.629373 -0.353075 0.252885 -0.788855 -0.0371839 -0.731324 -0.0827784 -0.431366 -0.518727 -0.0520442 1.30749 -0.587378 0.259231 1.66996 0.930045 0.602751 1.13875 -0.274515 0.615159 0.426886 -0.0674952 -0.51171 0.7654 0.478272 0.268091 0.656221 -0.862765 -0.609496 -0.341891 0.308956 0.485373 0.612569 -0.475939 0.441513 0.410812 -0.245461 0.401876 0.525872 0.850987 -0.602719 0.507271 0.597621 0.334114 -0.41793 1.68953 -0.131107 -0.973941 -0.737342 -0.101084 -0.280418 0.285418 -0.143175 -0.192916 0.887518 0.287523 0.098852 -0.696521 -0.268143 0.293614 0.7946 -0.152843 
-1.08858 -1.02012 -0.521184 0.985708 0.0541494 -0.205693 0.416956 0.179057 0.228504 0.602924 0.0582163 -0.466892 -0.941683 -0.909245 0.172123 -0.787121 -0.550194 0.287711 1.50592 -0.219578 -0.204787 1.31853 -0.441348 -0.0752465 -0.0244483 0.778908 -0.579687 -0.839906 -0.124346 0.131189 -0.601388 -0.439539 -0.656743 0.658387 0.264152 0.915445 -0.372341 0.261706 0.241018 -0.82731 -0.186628 -0.767252 -0.255386 0.0816327 0.125452 -0.183043 0.410825 -0.660893 0.656714 -0.671716 1.21056 1.01844 0.089612 1.22062 -0.353124 0.0103143 -0.117066 -0.151841 -0.100771 -0.141292 -0.177546 -0.552689 -0.187745 -0.502357 -0.23087 0.385359 1.1581 0.293162 0.610022 0.0332735 -0.461859 -1.17916 -0.890167 0.984018 0.00407937 -0.0171561 -0.145602 0.634514 1.09758 -0.0778567 0.596209 0.492926 -0.343175 -0.00774203 -0.290009 -0.468797 -0.325586 -0.124128 -0.32178 0.695654 -0.848443 0.522097 0.784031 -1.06631 -0.853471 0.238665 
0.532572 0.0767464 0.0513551 0.913248 -0.0169078 -0.556796 -0.0439369 0.738672 0.031482 0.170864 -0.0155232 -1.70763 -0.403676 -0.615305 -1.36883 0.571105 -0.198201 -0.122189 0.241034 -0.458878 0.241885 0.465238 0.610151 0.693591 -0.52067 -0.70524 -0.947394 0.186741 -1.00352 -0.172564 0.0449064 -0.374278 -0.57983 -0.753857 0.726964 0.0774618 0.436608 -0.0917399 0.688045 -0.163118 -0.0263262 -0.468251 0.998576 0.920082 -1.18491 0.995072 0.249456 -0.895097 -0.517391 -0.138048 -0.110286 0.489101 -1.61425 0.182197 1.05719 -0.282313 -0.0342753 -0.597016 0.226594 1.51581 0.114478 0.760952 0.279465 -0.349254 -0.287571 -0.292318 0.136672 0.451248 0.766839 -0.244726 -0.435399 -0.573008 -1.12974 -0.37304 -0.0810944 -0.0437857 -0.883955 0.688795 0.404582 -0.478719 -0.624098 0.20139 0.191379 -0.79707 -1.55634 1.02231 -0.306177 -0.863194 -0.450137 -0.0144139 0.280452 0.346142 -0.691046 -0.134171 0.404796 0.0163226 
0.398539 -0.37757 0.0358187 0.869684 0.896273 0.225698 -0.858359 -0.0740237 0.955982 -0.269598 -0.388396 -1.47788 0.13112 0.64701 -0.348775 -0.0356948 -1.03258 0.330487 -1.16947 -0.42775 0.551937 -1.4292 -0.0782345 0.732473 -0.375355 -0.669356 0.293473 -0.271625 -1.15318 -1.05458 -0.546552 -0.2501 0.935179 -0.387984 0.699398 1.21803 0.16212 -0.403565 -0.013533 0.343273 -0.181359 -0.194328 -0.194647 -0.240085 -0.0216024 0.048003 0.690026 -0.627558 -0.368389 0.150352 -0.619896 -0.297786 0.87596 0.504803 0.755232 0.582914 0.0255731 -0.84448 -0.259808 -0.933413 0.0198353 -0.28509 0.0443672 1.4037 0.807789 0.0174175 0.933301 1.06636 -0.363685 -1.25399 0.185943 0.688209 0.199242 0.639584 -0.346644 0.0994776 -0.529863 0.419227 1.08538 -0.821538 0.278902 -0.833186 1.19821 -0.11328 -0.419888 0.970318 0.53755 0.734976 -0.600122 1.15278 0.115413 -0.370605 -1.14078 0.355643 -0.836771 0.179755 
-0.734561 -0.423188 0.751443 0.393125 0.635096 0.64147 -0.0499047 1.01152 0.279838 1.03065 -0.869833 -0.268344 0.0899251 0.786033 -0.127945 0.152252 -0.444695 -0.111654 -0.217093 0.403747 -0.328835 -0.377197 -0.672003 0.19425 -0.0606453 0.659981 -0.311091 -0.374111 1.21042 0.43886 0.280564 -0.17439 0.349904 -0.162554 -0.0874014 1.25548 0.50961 -1.08757 -0.0174347 -0.119838 -0.873524 -0.0242657 0.127316 -0.606169 0.384461 -0.555712 -0.683781 -1.06547 0.298867 0.129525 -0.744571 -0.170151 0.660474 0.190711 0.371892 -1.18214 1.01893 -0.428457 -0.386639 0.210684 0.683419 0.28638 -1.30828 -0.107988 -0.90941 -1.04596 -0.662407 0.237772 0.137737 -1.06145 0.752701 1.14362 -0.390988 -0.583125 -0.0201137 -0.143277 0.129015 -0.549916 -0.129293 1.60327 -0.714782 0.212525 -0.385035 -0.818885 0.626008 -0.346224 0.96055 0.508701 -0.792793 0.149646 0.0675253 0.810391 -0.492026 -0.664749 -0.49396 -0.630659 
-0.39606 -0.088857 -0.431316 -1.21309 0.477363 -0.835634 -0.21994 -0.228279 -0.60084 -0.350086 -0.633698 0.68968 0.550039 -0.254076 -1.1342 0.419527 -0.627754 0.923262 0.161114 0.11409 -0.0361553 1.05658 0.0336936 0.614902 -0.521684 -0.398497 1.17268 -0.398617 -0.297231 -0.496289 -1.13889 0.766717 0.358293 0.792642 0.869787 -0.896034 0.0260857 0.19748 -0.0503903 0.0557937 0.181776 -0.127278 -0.901258 0.583485 0.718625 -0.0306216 0.806833 -1.15786 0.292166 -0.169367 0.284971 -0.173748 -0.285684 -1.16961 -0.620392 0.104513 -0.872973 -0.46858 0.409176 -1.13357 0.0757375 0.0555165 0.352761 1.37657 0.33177 0.677508 -0.668014 0.877109 -1.03119 -0.276147 0.603743 0.215513 0.679809 -0.416085 -1.40964 0.319278 -0.423169 -0.205293 -1.27736 -0.853567 0.894285 -1.44079 -0.277806 1.13819 1.14422 0.256815 0.786395 -0.744921 -0.817876 -0.757816 -0.515913 -0.247317 1.12539 0.479604 0.0380587 -0.924518 
0.165495 0.102024 -0.0190208 0.133757 -0.597942 0.493253 -0.147952 -0.425117 -1.32206 0.0953155 -0.541987 0.472064 0.791452 -0.0373297 -0.0735622 -0.162571 -1.26524 -0.614201 -0.218283 0.573017 0.305252 0.877254 0.344591 -0.45803 -0.278764 0.354801 0.180266 -0.638746 0.762975 0.384512 -0.412015 0.618531 -0.316347 0.959774 0.0150059 0.334046 0.454684 -0.212218 0.180852 -0.961128 0.564284 -0.26612 -0.332112 -1.15886 1.60755 -0.157898 0.242642 1.80656 0.541427 -0.276506 0.711755 0.441471 1.01537 -0.758749 0.728107 -1.10217 -0.385396 -0.966945 -0.238376 -1.1329 -0.293853 0.124389 -0.111812 -0.560704 0.236109 -0.575968 -0.993575 -1.16187 -0.587783 -0.259531 1.39062 0.965623 0.355374 -0.554482 -0.17539 -0.650115 0.35563 -0.903231 -0.41284 -0.00654819 0.478715 -0.266451 -0.861277 0.634654 0.54216 0.19098 0.317662 0.429043 -0.786774 0.283497 0.454418 -0.396903 1.03523 -0.228385 -0.236347 0.202565 
-0.130896 1.34543 0.253386 -0.717292 0.4999 0.739253 -0.827437 0.412185 -0.073367 0.180388 0.315905 0.0218566 0.876312 -0.602371 0.255482 -0.196016 0.170784 0.0243509 0.738947 -1.30586 0.238083 -0.280674 0.612577 0.380445 0.362885 0.70012 0.877477 -0.774168 -0.714349 -0.854782 1.27255 -0.28353 0.784441 -0.966264 0.780674 0.305352 -1.61216 0.36159 -0.0354955 -1.15424 0.517888 -0.208441 -1.28267 0.229686 -0.412733 -0.213596 1.08534 -0.809808 1.42391 0.707912 0.17222 0.200747 0.290081 -1.18007 0.245368 0.262526 -0.00747304 0.21068 0.174282 0.121219 -0.95636 0.818959 -0.219658 0.405441 -0.233994 -0.341458 0.972085 -0.201717 1.21073 0.359365 0.415508 0.793241 0.0487592 0.152577 0.188026 -0.161099 -0.578076 -0.241625 -0.247851 0.46644 0.363894 0.000236585 0.22496 -1.16889 0.597732 0.893901 -0.4953 -0.480446 -0.893758 0.160461 -1.02951 0.401833 -0.38074 0.17067 -0.391208 -1.25229 
0.573016 -0.356491 0.699023 -0.457232 0.818232 -0.95112 -0.175324 -0.662444 -0.477946 0.313261 -0.568318 -0.0812127 0.0893308 -0.0630716 0.769733 0.00202821 -0.110033 0.27485 -0.379839 -0.029082 -0.0522757 -0.0104439 -0.356103 -0.565926 0.303547 -2.06758 0.477972 0.358111 -0.514315 -1.15166 -0.249346 0.307264 -0.250713 0.474426 0.331523 -0.0968706 0.043855 0.15894 -0.434998 -0.486689 -0.0153167 0.424878 -0.898827 0.13443 -0.645259 0.326957 -0.21284 0.229527 -0.35409 0.104108 0.90186 0.701455 -0.929302 -0.246223 0.632229 -1.39701 1.11838 0.360098 -0.146621 0.0897322 0.344023 0.690894 0.4176 -0.877303 0.795862 -1.07008 0.774364 -0.388656 0.185534 -0.584821 -0.248999 0.011433 -0.858274 1.32228 1.12257 -0.409719 -0.0399369 -0.155644 0.923351 -0.00894292 -1.3665 -0.204101 0.255935 0.909319 -0.317401 0.405775 0.155462 -0.0334875 -0.440219 0.29452 0.807384 -0.456641 -0.339573 -0.508404 -0.408975 0.106968 
-0.362234 0.810255 -1.35879 0.0474295 -0.646511 -0.435019 0.0778271 0.674205 0.75729 0.11159 0.255916 -0.483507 -0.303925 0.136077 -0.561916 0.79376 0.948363 1.35362 1.43664 -0.739411 0.636428 0.512151 -0.110622 0.887399 0.364683 -0.592485 0.270636 0.355293 0.0031928 -0.627596 -0.385179 0.592366 0.0681779 -0.697171 0.125833 -0.512443 -1.41727 0.659251 -0.0031071 0.019498 -1.16552 0.130427 -0.550258 -0.305601 0.161717 1.05711 -2.04899 0.988577 -0.19517 0.355446 -1.32211 -0.540465 0.0049784 0.590619 -0.364029 0.38133 -0.667677 -0.0121042 -0.245034 -0.571234 -1.02825 -1.18787 -0.315057 -0.499314 0.642746 0.349678 -0.856573 0.0979402 0.553271 -0.188211 -1.24603 0.170409 -0.200285 0.537369 -0.405946 -1.52984 0.466345 -0.964634 0.136237 0.588147 0.509499 0.616431 -0.252505 -0.0555004 -0.161376 -0.00549258 1.10931 -0.00814465 -1.02217 -1.04772 -0.558926 -1.44887 0.202337 -0.648267 -0.182187 0.635492 
-0.0915232 0.00928007 -0.944237 0.242038 -0.0569559 0.378495 -0.645489 0.771479 0.872852 -0.683853 0.195939 -0.707472 -0.538473 -0.691375 -0.315618 -0.155453 -0.575756 1.41677 -0.62259 0.433401 -1.53363 0.561414 0.49855 0.432224 0.687688 0.356755 -0.685007 -0.188691 1.40335 0.214835 0.404327 1.32796 0.756626 -0.559339 0.449988 -0.994451 -0.414949 0.706335 -0.0201599 -0.0843147 -0.0337046 -0.940536 0.018179 0.349698 -0.0870541 -1.48818 0.816905 0.229672 0.133996 0.313145 0.154845 0.81503 -0.947738 -0.493569 -0.204054 0.137972 1.07279 -1.8109 -0.793733 0.353506 -0.671345 0.0952177 -0.434029 -0.401399 -0.276876 -0.235929 0.0782516 0.794359 -0.900228 0.424893 -0.741935 0.263276 0.129809 -0.223521 -0.493429 0.822274 -0.200403 -0.097073 0.30077 0.35567 0.332844 -0.87691 0.168706 -0.72362 0.390315 -0.306086 0.246031 0.719154 1.1205 0.821962 0.895577 -0.529151 -0.0520509 0.648492 0.838579 -0.883614 
-0.453441 -0.415398 -0.804771 -0.13805 -0.600812 -0.373898 0.462376 0.829444 0.51976 0.0815451 1.04375 0.303358 0.464239 -0.242408 -0.78395 -0.908336 0.154754 0.794563 -1.17852 -0.0944441 0.0792762 0.513188 0.0647461 0.682924 0.659281 0.234024 1.00195 0.393137 -0.375734 0.0236876 0.895971 0.141044 -0.159457 -0.175539 0.3995 -0.871923 0.0998005 -0.0797637 0.0209444 -0.370443 0.806474 0.0787888 0.314994 0.680064 -0.000408294 -0.119811 0.605239 -0.147828 0.321797 0.409277 0.773577 -0.107654 0.243026 -0.362198 -0.844159 -0.672352 0.131422 -0.00456739 -0.0294657 0.715399 -0.698844 -0.153124 0.269136 -0.992043 -0.494801 -1.06834 -0.964836 0.0351066 -0.867786 0.264645 0.585687 -0.299713 0.533356 -0.000606469 0.548443 0.0960848 -1.17474 0.662571 -0.127541 -0.18447 0.159456 -0.459335 0.854124 0.877502 -0.598321 1.61948 -0.289587 0.686515 -0.278586 0.204122 0.227533 0.463944 0.698671 0.0451225 -1.07299 1.2941 
0.205774 -0.0133746 0.992329 0.22228 -0.647994 0.210157 -0.209049 0.434163 -1.50631 -0.0930426 -0.232132 0.666102 -0.210491 -0.6488 -0.204659 0.0344169 0.776226 1.33043 -0.196836 1.17632 -0.187871 -0.331753 0.200138 0.997011 0.814784 0.617722 -0.462927 0.190643 -0.228549 0.298796 -0.302397 -0.283988 -0.391831 -0.5271 0.358307 0.398215 1.18366 -0.0132285 0.252823 0.316375 0.359009 -0.414872 0.742147 0.875961 -1.28369 0.613918 -0.345456 -1.15409 -0.697811 0.687733 -0.604918 0.790558 0.976825 0.376107 0.0276822 0.516557 0.0624949 0.689703 0.55744 -0.0660126 0.41056 0.108583 -0.262908 -1.39179 -0.679897 0.486408 1.07957 -0.197768 0.218654 -0.886917 0.144623 0.331489 -0.483359 1.59496 -0.319412 -0.724283 -0.163379 -0.0897019 -1.44126 0.423527 0.417686 -0.476923 -0.199309 0.162547 -1.14528 0.0902601 -0.102379 -0.987373 -0.601239 -1.05709 -0.243499 -0.587743 -0.456963 0.445865 -0.126418 0.746862 
0.206936 -0.819626 -0.458059 -0.192294 -0.561851 0.847331 0.949761 -0.521178 -0.760553 -0.578145 0.233952 -0.196571 0.573809 0.657033 -0.603352 -0.0449612 1.18091 0.673505 0.476433 0.303582 0.910352 -0.626232 -0.531039 0.812914 1.04313 -0.205077 -1.19403 -0.177493 -0.344237 -0.179831 0.177406 0.527177 -0.69464 0.544183 0.729076 0.525267 -0.311843 0.422401 0.264684 -0.7755 -0.307174 -1.05155 -0.594696 -1.12169 -0.307825 0.371086 -0.350615 -0.138385 0.482138 0.153867 0.0611692 -0.569982 0.0622065 -0.336218 0.246428 -0.173764 0.429082 0.537272 1.41985 0.22941 -0.299486 0.398566 0.0220273 0.535037 0.37368 1.16342 -0.365542 -0.680152 -0.109183 -1.23147 0.941362 0.335924 -1.3068 -0.244747 0.365033 -0.145312 0.773175 0.0304028 -0.131391 0.802019 -0.328083 0.263985 0.0998504 -0.187583 0.883751 -0.345865 -0.0179362 -0.737785 -0.750105 -0.256332 -0.998407 -0.370437 -0.59476 0.860081 0.252328 -0.0235029 
0.261951 -0.46172 0.491257 0.0127515 -0.440221 -1.31116 0.613397 0.00445538 0.414594 -0.209173 1.02159 1.8607 -0.589537 -0.976596 0.292971 -0.118515 -0.17496 0.170065 -0.477291 -1.13121 0.365855 -0.186096 -0.0981761 0.108621 0.469446 -0.532535 -0.144968 -0.242443 -1.86398 -0.481185 -0.317408 -0.421326 -0.193605 -0.617276 1.05672 -0.759196 -0.87088 0.168866 -0.534592 -0.870148 0.0909232 -0.305034 -0.062592 0.268691 0.0434241 0.0704644 -0.758544 0.518421 0.273061 -0.742207 -0.317814 -0.190734 1.13975 -0.796638 0.447115 0.703016 -0.420869 0.592157 -0.147831 0.899149 -0.378598 -0.455431 -0.117797 -0.711399 0.252644 1.01457 -0.667792 0.251754 -1.94449 -0.795069 -0.647085 0.384453 0.0296426 -0.207269 -0.848104 0.410741 -0.180858 0.416849 -0.29944 0.120047 -0.350333 1.05007 0.161373 -0.217103 -0.149798 0.125994 0.489049 -0.82172 0.316449 0.867041 0.95549 0.234115 0.833533 -1.10519 -0.179952 -0.364979 
0.513651 -0.822085 0.350772 -0.639422 0.0441546 -0.711732 -1.47589 0.266746 -0.496593 1.01994 -1.04353 -0.124836 0.163271 0.52076 -0.361415 -0.678618 -0.172602 0.390429 -1.20045 -1.03805 0.0384537 -0.124181 -0.0102166 0.844923 0.658717 0.385512 -0.217239 -0.171593 -0.746295 0.489982 0.532552 0.749712 -1.30215 -1.23318 -0.212425 -0.253098 0.115931 -0.452526 0.0466101 -0.0865261 -0.0729535 1.31099 -0.89989 -1.80521 -0.452816 -1.13547 0.703432 0.541523 -0.617418 -0.521763 0.835603 0.336142 0.410647 -0.161384 -0.0164045 1.62113 -1.13898 0.131528 -0.799205 -0.486296 0.000680957 -1.34076 -0.052321 1.30787 0.0373472 -0.879729 0.737939 0.85309 0.469293 -0.34957 0.521368 -0.00617792 -0.0235091 0.855374 0.297382 -0.414422 -0.220681 0.130518 0.229804 0.343976 0.698843 -0.351972 -0.858717 0.249797 0.00645194 0.00594208 -0.859191 -0.0399788 0.228905 0.127486 0.24582 0.835337 -0.61755 0.248755 0.498521 -0.44395 
-0.0320627 -0.206343 -1.08699 0.759496 -1.37612 0.427727 0.225555 0.465597 -0.763958 1.07777 0.400596 0.253827 0.51253 -1.41901 -0.319421 -0.555728 -0.418078 0.136904 -1.36614 0.425883 0.511471 -1.43675 0.576538 0.289302 1.10525 -0.314217 1.00234 0.960228 -1.14535 -1.35521 0.1745 -1.07769 -0.252267 0.00832969 0.693759 0.843531 -0.324012 0.766201 -0.876743 1.24248 0.142164 0.0291156 -0.301196 -0.598083 -0.847488 0.243688 0.21987 0.459109 -0.434793 -0.10213 -0.428184 -0.197802 -0.348105 0.4308 -0.0731798 0.100906 -1.23001 -0.500781 0.39195 -0.164231 -0.166231 0.222013 -0.774597 -0.443273 0.622548 -0.519395 0.586302 -0.565725 -0.291715 -0.62693 0.120836 -1.13985 -0.647558 -0.128558 -0.614229 0.564266 0.999051 -0.639735 0.655039 -0.451184 -1.35962 -0.415517 -0.407623 -0.182129 -0.854191 0.0354615 -0.16114 -0.254334 -0.256737 0.651684 0.279633 1.15514 1.47679 0.0132824 0.680273 -0.18153 
0.503017 0.451037 0.680018 -0.184614 -0.137762 -0.256021 0.737035 1.27073 -0.435408 -0.570944 -0.509766 0.570462 -0.829085 -0.354528 -0.334035 -0.00757865 0.247462 0.44421 1.16709 0.0661879 0.824886 -0.548703 -1.27376 -0.377484 0.438655 -0.127227 0.799138 -0.145033 0.192223 0.025519 -0.766476 -0.562261 0.313975 0.376514 -0.911139 -0.54679 0.524749 -0.946955 0.349794 0.612945 -0.369369 0.753537 -0.135023 -0.319656 0.862575 -0.580275 -0.860175 0.304223 1.42562 0.859884 0.104707 1.86948 0.175312 -0.576136 0.657192 1.0997 0.303284 0.805416 -0.531666 -0.0538452 0.379731 -0.142602 -0.777499 -0.221539 0.5554 0.497998 -0.0146673 -1.38082 0.203362 0.516893 -0.328358 0.099988 -0.434666 0.831474 -0.72705 -0.852292 -0.255243 -0.398365 -0.13128 0.30292 -0.659679 -0.148304 1.1738 -0.10775 -0.330526 -0.0225642 -0.00419486 -0.407565 1.03149 0.632758 -0.301514 -0.686528 0.284737 -0.32385 0.675548 1.9704 
0.508702 -0.831709 -0.189297 -0.445958 0.164595 -0.375497 1.56467 -0.589341 0.578855 0.283888 0.022937 -1.43657 0.880661 -0.602419 0.779979 -1.04709 0.720828 -0.296155 -0.186909 0.649713 -0.612276 1.00662 -0.212874 0.63799 -0.334415 0.189899 -0.480299 1.02336 -0.232637 0.619505 0.0657658 1.27763 -0.764313 -0.12696 0.418084 -0.489238 -0.431945 0.000179635 0.93065 0.885794 -0.334256 0.453327 -0.303832 0.522137 -0.752941 -0.338851 0.0377824 -0.0288894 0.856879 0.199307 0.245239 -0.545988 0.0455139 -0.110123 0.144104 -0.103064 -0.207749 0.555586 -0.28207 -0.610211 -0.500722 -0.113657 0.977595 0.433163 -0.0811 0.11271 0.36296 0.389005 -0.572462 -0.226839 0.138391 0.793174 -0.869543 0.106879 0.655533 -1.17853 -0.607846 -0.184762 0.218372 -0.599037 0.54944 -0.155513 0.507295 0.356401 -0.412734 -0.973658 -0.613283 0.610115 0.690301 -0.568758 0.0701196 -0.253526 0.0871534 -0.205912 0.287562 -0.571248 
0.729015 0.708008 0.18265 -0.0638629 -0.236148 0.426422 0.0186553 0.657964 -0.174797 -0.606282 0.732558 0.572046 -0.496862 1.41762 -0.397559 0.228847 -0.283936 0.231874 0.139272 -0.143567 0.236395 -0.40098 -0.437973 0.608656 0.753571 0.693521 0.762517 0.869357 -1.445 0.291023 0.15967 0.13244 0.161452 0.350869 -0.0191238 -0.627437 -0.442172 0.87372 0.390414 0.337639 -0.546316 -0.304865 0.909653 0.235443 0.320317 0.6178 -0.592916 -0.493554 0.226631 -0.607496 0.1317 -0.391258 -0.125156 0.737269 -0.201713 0.75319 0.391416 -0.436306 0.747503 0.125772 -0.0807807 -0.427025 0.215132 0.0330074 0.443769 0.879573 -0.236089 0.416761 -0.22252 -0.996065 -0.330361 0.564378 -0.32714 0.738958 -0.299627 -0.79345 -0.204613 0.395543 0.217617 -0.934476 -1.05444 0.328486 -0.103924 -0.551798 -0.494937 -0.259216 0.0836952 0.440127 -0.557429 -0.283148 -0.401834 -0.192824 -0.502749 0.590499 -0.790292 -0.864148 
0.663071 0.945721 -0.30513 0.138 -0.0697681 -0.145023 -0.732456 -0.952664 -0.498995 0.859588 0.882051 -0.593488 0.15346 0.709345 -1.06554 -0.183389 -0.785169 -0.40561 0.572642 -0.594067 -1.13138 -0.33989 0.348169 -0.213206 0.000348424 0.427884 0.0608655 0.919038 0.462664 0.365783 0.346533 -1.22017 0.0211339 0.107754 0.131404 -0.15445 0.933251 -0.49028 0.533329 -1.10883 -0.583576 0.0134349 -0.0422267 0.172696 0.899451 -0.12241 -0.535822 -0.195783 0.244288 0.32525 0.449826 1.13517 0.120878 -1.26787 0.115927 -0.757125 0.399435 -0.0533949 0.477675 0.546048 -0.505396 0.157897 -0.252275 -0.257851 -0.457358 -0.0587691 -0.239084 0.404373 0.278245 -0.258926 0.169178 0.599058 -0.500761 0.433265 0.273579 -0.307214 -0.137994 0.622435 -0.446171 -0.511917 0.603761 -0.259966 -0.537209 -0.291403 0.102544 0.249801 -0.702255 -0.0848414 0.162668 -0.516254 -1.08213 -0.409964 -0.0931814 -0.494659 -0.0443497 1.74107 
0.119532 0.0743302 -1.04404 0.120813 -0.18646 0.614417 0.393259 -0.682135 0.276046 0.236929 -0.354577 -0.205893 -0.286012 0.480376 0.365186 0.507944 -0.0318152 0.23015 0.194118 -0.210164 0.453056 -0.323864 0.555373 0.194799 0.404149 -0.31089 -0.323311 1.22491 -0.683316 0.0123736 0.617368 -0.24939 -0.409677 -0.369754 -0.62834 -0.797991 -0.9328 -0.316268 -0.264433 1.62396 -0.38104 -0.834522 -0.435643 -1.0022 -0.249316 -0.707134 1.24358 -0.932876 -0.772301 0.502521 -0.323559 -0.448286 -0.351456 -0.431009 1.03513 -0.159263 0.618971 0.294598 -0.468111 0.0206851 0.0802752 -0.248586 -0.621849 -0.667177 0.185502 0.801822 -0.456668 0.17767 -0.190255 -0.398453 -0.0826409 0.558659 0.352014 -0.69276 0.114239 -0.457832 0.496884 -1.49215 -0.180588 0.307436 -0.70095 0.637165 -0.208475 -1.11782 1.37763 0.195032 0.462883 0.445859 -1.54888 -0.243535 -0.546031 0.754771 -1.25033 0.631759 0.0564311 -0.499871 
0.0527902 -0.639504 -0.344749 -0.427249 0.0238971 0.353302 -0.081819 0.287074 0.415512 0.256896 1.56859 0.645875 -0.00114941 -0.397279 0.150069 0.868107 1.06472 -0.401939 0.000654659 0.418412 -0.352771 0.194393 -0.0192336 0.229102 0.338218 -0.60117 -0.902821 -0.475688 1.27339 0.112556 -0.834875 1.11117 0.187866 0.97645 0.288033 -0.143164 -0.359376 0.0642305 -0.150312 0.553905 0.251483 -0.215713 0.52385 -0.132324 0.592267 -0.484258 1.23023 1.77017 -0.259705 -0.341364 -1.17509 -0.74655 0.107388 0.510934 0.0619702 0.291155 -1.23914 -1.0469 0.360843 0.237974 0.921738 0.0956341 -0.46728 0.050957 0.866237 0.160313 0.427172 0.167027 0.522483 -0.0848919 0.193185 -0.112164 0.0692787 0.629883 0.80854 0.00770183 0.4616 -0.667042 -0.125657 -1.0041 0.512843 0.328717 0.837809 -0.380525 1.46636 -0.108998 -1.32586 -0.932916 -0.0996813 0.520878 -0.214493 0.331427 0.128988 -0.716621 -0.934539 -0.455449 
-0.40765 1.47163 0.731047 -0.23404 -1.35922 -0.550347 -0.0488639 0.197162 0.0905914 0.238285 -0.017101 -0.0221334 -1.0612 -0.948368 -0.104952 0.380123 0.865516 -0.053496 -0.340014 0.0200877 -0.126331 -0.737919 -1.18626 0.22491 0.399183 -0.169415 1.22149 -0.255517 -0.657857 0.444588 0.846589 -0.366255 0.204564 0.117372 0.579795 0.668416 0.462702 -1.04742 -0.094984 0.708382 0.0644187 0.717897 0.230226 0.117879 -0.202844 0.474916 -0.0500678 0.631813 0.702442 -0.107246 -0.324445 -0.764005 0.56022 -0.0127292 1.48074 0.28417 -0.596834 -0.795212 0.322152 -1.31832 1.00548 0.16545 0.564868 -0.164247 0.529062 1.19899 -0.30957 0.105143 0.293502 -0.256772 -0.528698 -0.365529 0.327585 0.0916847 -0.122167 -0.296016 1.1835 0.373068 0.372726 -0.927338 0.603486 0.116962 -0.70188 0.414411 -0.208457 -0.41924 -1.05514 -0.699534 -0.0274057 0.466163 -0.309728 -0.0515003 0.0100034 -0.0580833 0.383331 0.342174 
-0.203343 -0.307418 -0.724855 -0.815915 0.555866 -0.197521 -0.125369 -0.436269 -0.0379431 0.792018 -0.150533 0.809057 0.143897 -0.139008 -0.943826 -0.0314231 -0.875595 -0.0900003 -0.561102 0.00630899 -0.67288 1.04232 0.804412 0.240096 -0.116088 -0.151208 1.06562 1.13798 0.681812 -0.361356 0.348019 -0.217355 0.52188 -0.413473 0.823104 -1.1027 0.646634 0.141933 0.422636 -0.00392202 -0.678509 -0.165091 0.140433 0.811692 0.835781 -0.298981 0.55322 -0.929458 -0.760805 -0.154732 0.332048 0.757185 -0.726307 0.234878 1.57515 0.585875 -0.00122513 -0.343124 0.874769 -0.226563 0.688443 -0.716311 0.756352 -0.149612 -0.0260114 -0.571488 0.0487824 -0.28341 0.172536 -0.256554 -0.462096 -0.119916 0.727915 -0.116986 -0.0600889 -0.562012 -0.0924295 0.928677 0.33966 0.0299329 0.332114 0.323112 -1.08385 0.537874 -0.130365 0.0972859 -0.386668 0.783948 -0.372888 -0.678183 -0.583599 0.35719 -1.12481 -0.758953 0.556326 0.151905 
1.057 -1.12393 0.911867 -0.53939 0.370302 0.164302 -0.314063 -0.420749 -0.838774 -0.63635 -0.726762 0.318532 0.222083 -0.115005 0.108284 0.326674 -0.0692027 0.156848 0.524263 0.22361 -0.459947 0.0206223 0.0371708 -0.225118 -0.527726 0.927424 -0.00198281 0.892575 0.575939 0.505356 1.02343 0.913395 -0.383173 0.613328 -1.66616 0.11558 0.234143 -0.495154 -0.197919 0.28508 0.151583 0.670848 -0.628197 -0.0974717 0.474524 -0.803026 0.425569 0.549524 1.26662 0.284899 0.870389 0.249199 0.565098 0.378728 0.0106898 0.980468 0.0148734 -0.0500034 0.993058 0.659674 0.926897 0.577012 0.201626 1.435 -0.929314 0.0825819 -0.696943 0.503943 -0.149202 0.507702 0.60519 -0.403034 0.44522 -0.740511 1.43828 0.612334 1.83708 0.564239 -0.143027 -0.0439076 -1.01674 0.344365 -0.648069 0.00877497 -0.239191 0.435284 0.0905037 -0.479459 -0.373189 0.630557 0.161218 0.759361 -0.458534 0.691101 -0.221564 -0.0884945 
1.11385 0.283011 -0.303474 0.172677 0.68411 -0.260184 0.0436837 1.3235 0.180726 -0.783191 0.375656 0.576832 0.661593 -0.192427 0.304816 0.570767 -1.45788 0.666667 -0.157239 0.813716 -0.486618 -1.43083 0.385297 -0.392743 0.694639 0.679589 0.139845 -0.88012 1.2274 -1.05873 1.02591 -0.051833 0.151482 -0.692596 -0.536691 -0.563832 -1.81511 -0.727351 -0.286483 -0.586364 0.222688 -1.01424 1.11526 -0.320541 -0.158546 -0.0509919 0.440871 -0.488048 0.965088 -0.501298 -0.0282102 -0.169329 -0.329629 -0.0238611 0.949242 0.645781 -0.313884 -0.513605 0.747214 1.02021 0.0231955 1.37739 -0.0778405 0.244322 -0.559066 -0.527074 0.291524 0.960441 0.497954 -0.670053 -1.16638 0.207141 -0.196594 0.0304921 -0.0875875 1.05938 -0.566935 0.279088 0.146152 0.108837 0.800129 0.20901 0.201103 -1.21409 -0.139546 -0.0918403 -0.52733 1.16351 0.436159 0.101303 0.288541 -0.0202713 -0.616647 -0.442221 -0.971076 -0.359385 
-0.73739 -0.288375 0.825618 -0.328936 -1.2957 0.0926467 0.667904 0.0144506 0.243842 0.258696 0.798645 0.915769 0.0135643 -1.1477 -0.210612 0.425874 0.544148 0.0460592 -0.662709 -0.256259 0.131184 0.349718 0.107689 -0.550668 -0.370909 1.07417 -1.91384 0.553307 1.07629 -0.116877 0.207386 0.275204 -0.438564 0.775902 -0.0383671 0.676099 -0.532298 -0.636575 -0.271748 1.03656 1.46663 0.413906 -0.208891 0.974909 1.11543 0.115222 0.979285 -0.307846 0.516175 0.109296 0.738742 -0.0351667 1.46489 -1.0679 -1.43098 -0.0864185 0.127764 0.349373 1.21811 -0.641592 -0.437435 -1.42448 -0.560264 0.118157 0.613383 0.0326421 0.233828 0.726726 0.266663 -0.757463 -0.352911 0.117826 -0.294865 0.869322 0.012725 1.17999 0.0177841 -0.231679 0.126888 0.532084 -0.886786 1.11673 -0.407374 1.16046 0.805229 1.39207 0.0824915 -0.365128 1.50929 -0.548449 -0.117164 0.244755 -0.446406 -0.742617 0.0534125 -0.696765 
0.592844 -0.558251 0.657408 -0.748172 -0.448189 0.686352 -0.0425951 -0.0775401 0.153975 -0.319913 0.852486 -0.2201 0.407901 -0.216346 1.09863 0.0347034 0.414545 -0.531057 -0.984939 -0.725158 0.328966 0.151477 -0.0632131 -0.111916 -0.682652 0.203741 0.392005 0.196961 1.36138 -0.16017 0.850191 0.485564 0.438005 0.112851 -0.609831 0.727028 -0.142415 -0.014732 -0.747198 0.171153 -0.597968 0.0836526 0.0613518 -0.872851 0.334767 -0.372392 -0.0608907 -0.784654 0.0367413 0.823832 0.02652 0.790696 0.521765 -0.833361 0.16652 0.160019 0.102365 -0.217046 -0.291622 -0.17447 -0.28691 0.119586 -0.227796 0.978287 0.324782 0.296098 -0.773793 -0.171079 -1.06823 -0.0915123 -0.0634004 0.59088 -0.810896 0.76736 -0.000473244 0.919432 0.243811 -0.703439 -0.882386 -0.037977 -0.795232 -0.297589 0.19193 -0.574175 0.417031 -0.0257677 -1.18486 -0.022952 -0.0299315 -0.632001 0.462763 0.262292 -1.17428 0.564449 -0.00350379 -0.777492 
-0.343954 -0.651441 0.263995 -0.597031 0.00730643 0.69557 0.62395 0.693223 -1.09738 1.08388 -0.110862 0.288838 0.31505 1.12435 0.00797694 0.765211 -0.567205 1.07971 -0.297647 -0.677194 0.248764 0.164728 -0.0266331 0.426862 -0.200186 -0.0541985 1.38112 0.993976 0.793961 0.764289 -1.40623 0.422606 0.200851 -0.185066 -0.311262 -0.271036 -0.0448367 0.0750837 -0.0637563 -0.0944783 -0.71634 0.991813 -1.46295 -0.486387 -0.225239 0.126407 0.335308 -0.202648 -0.227493 1.2568 -1.45713 -0.290899 0.697472 1.30419 0.949035 -0.249526 -0.828478 -0.0870021 -0.704553 0.342026 0.443054 1.23998 0.914664 -0.207933 -0.24764 -0.518029 -0.146518 0.337631 -0.0607023 0.681288 -0.800984 0.830482 -0.430513 0.067714 -1.2671 -1.3356 0.462673 0.81416 0.883969 0.460889 0.451063 -0.494471 1.11592 0.932167 0.390497 0.853822 -0.763152 -0.508401 -0.171586 0.438298 -0.788725 -0.990025 -0.526577 -0.0297067 0.23235 0.226558 
1.24715 0.543739 1.0958 0.458151 -0.419893 0.565113 0.0218017 -0.122037 0.429771 -0.788334 -0.226947 0.793674 0.302344 -0.344127 0.279158 0.566155 -0.0494236 0.387696 -0.476057 -1.06396 -0.537186 -1.01289 1.12895 -0.131258 0.380098 0.892304 0.454421 0.218105 -0.894381 1.32313 -0.383938 0.218343 -0.985943 -0.680113 -0.264922 0.304586 0.170047 0.000791715 0.134068 0.426727 0.657739 0.804771 -0.444692 1.31744 0.21448 -1.09519 1.31969 -0.484006 -0.827439 0.144135 0.452306 0.855009 -0.58835 0.279851 -0.0757107 0.0322016 1.02774 0.791589 -0.128774 0.353752 -0.828376 -0.27507 -0.241871 -0.445223 0.395827 0.178955 -0.641234 -0.453809 -0.532492 0.0738485 0.0348465 -0.834808 0.0251298 1.20656 0.76233 0.331923 0.345738 -0.020055 0.278026 -0.171019 -0.89853 1.45872 0.0893995 0.196396 -0.0737699 0.472765 0.0549108 -0.0115491 -0.463294 -0.296535 0.842506 -0.874538 -1.11179 0.149143 1.09657 0.520043 
0.674792 -0.38676 0.607459 0.0115219 0.145086 0.207458 -0.149957 -0.650347 -0.841618 -0.182882 0.160405 -0.31153 1.00897 -0.31382 -1.51175 -0.871228 -0.123441 0.365261 -0.394135 0.498573 -0.102702 -0.138712 0.498107 -0.856369 0.0427633 -1.01337 0.628892 -0.852902 -1.93396 0.222215 -0.600201 -0.216345 0.853095 -0.268747 0.0162526 -0.378807 -0.142689 -0.0215506 0.331759 0.224186 -0.0289525 0.176721 -0.500541 -0.0780095 1.1281 -0.20496 0.757748 0.180573 0.485862 0.269992 -0.0490896 0.0681037 0.265735 -0.459574 0.701331 0.367624 1.02037 0.402396 -0.0394613 0.0470527 -1.34861 -0.402731 -0.522883 -1.01171 -0.34745 -0.323662 0.599299 0.369907 0.685787 0.25358 1.73365 -1.17796 1.21906 0.0945396 0.0606422 -0.688947 -0.0531526 -0.112605 0.659478 -0.30192 0.0240154 -0.33334 -0.527908 -1.32726 -1.05275 -0.486014 1.06695 1.17656 -0.917767 0.302053 0.284282 0.197031 1.13545 -0.510734 -0.180519 -0.134474 
-0.540092 0.355875 -0.21623 0.0529904 0.373294 -0.305288 1.54953 -1.04975 -0.704106 -0.371905 0.87047 0.349058 0.543235 -0.134876 0.539847 -0.380291 1.08257 -1.20562 -1.11491 -0.237951 0.361418 -0.263393 -0.673947 0.306502 0.470531 0.37135 -0.95711 -0.0836173 0.328649 -0.587989 1.78492 -0.427875 -0.342042 0.777441 0.325837 1.37815 0.309383 -0.796114 0.290151 1.02416 1.59197 0.181687 -0.869638 1.00791 0.353924 -1.18858 0.185406 -0.31419 -0.833184 -0.590702 0.315102 -0.36324 1.31376 0.299303 -0.359661 -0.859537 -0.219778 0.45666 0.589685 -0.360999 1.33824 -0.443985 -0.517475 -0.280376 0.149667 0.00542502 0.220668 -0.288601 -0.569887 0.569442 0.939572 0.781877 -0.12912 0.656232 -0.796013 0.885065 0.509206 -0.702083 0.17181 0.955639 0.827877 -0.57859 -0.776984 -0.597868 0.728631 -0.303312 -0.0190408 -0.290881 0.245623 -0.347697 -0.9242 0.0687702 -0.133181 -0.599756 0.193608 -0.517841 
-2.07752 -0.0258263 0.294225 -0.276809 -0.0906093 -0.531256 0.38349 1.12131 -0.266582 -0.729074 0.550933 -0.203415 -1.04516 0.593524 0.0623302 1.43242 -0.0156074 0.281706 -0.758369 0.0366534 -0.258771 -0.899406 -0.417091 -0.0241913 -0.901446 -0.110114 0.698798 1.05031 0.500535 0.0372427 -0.204707 -0.689866 -0.370867 -0.977807 0.484858 0.671539 0.186914 -0.64216 0.0991435 -0.247958 -0.0628111 -0.315335 0.169843 -0.23597 0.0392436 -0.732492 0.389269 0.480737 -1.04839 -0.0313603 0.308855 0.770811 1.02111 0.403463 0.125677 -0.320172 0.370183 0.509734 0.0181807 0.321437 0.7237 0.0283254 0.568969 0.319973 0.531574 -0.766682 0.317046 0.989261 0.95029 -0.180303 0.282013 0.122341 -1.10471 0.182354 -0.416358 -0.89788 0.681013 0.285292 0.290542 -0.889011 -0.988991 0.200227 0.522756 0.621067 -0.321729 0.40315 -1.12964 0.298593 -0.214016 -0.470089 0.329577 0.190355 -0.221858 0.528645 0.544272 -0.529934 
1.02129 -0.265124 0.196432 0.755104 0.450072 1.06115 -0.237925 0.179618 -0.698987 -0.333074 0.753584 0.255215 -0.438252 -0.251911 0.253921 0.117142 -0.339109 0.775959 0.045572 -0.509912 0.517884 0.133715 0.349676 0.112811 -0.561017 0.267492 1.2197 0.907771 -0.258059 0.438253 -0.158727 0.498911 -0.163811 -0.696896 -1.65345 -1.46541 -0.536259 0.217712 -0.263621 0.763689 0.385646 -1.6834 0.893856 -0.302048 -0.541685 -0.268845 -0.333473 -0.387879 0.343448 0.412943 0.534547 -0.431995 0.507976 0.2234 -0.705586 -0.676958 -1.5578 -0.162189 -0.593428 -0.14151 0.187191 -0.717151 -0.281346 0.745561 0.721202 -0.097655 -0.862858 1.16878 -0.312897 -0.352054 -0.784015 -0.582874 0.638246 0.0273645 -0.569154 -0.345241 0.117705 0.0647877 -0.656469 -0.192147 -0.163617 0.213053 0.556616 1.00967 -0.0010065 -0.104685 -0.278599 -0.850967 -1.0957 -0.120239 0.259678 0.0111115 0.484821 -0.306969 1.60449 -0.799119 
0.309698 0.632234 0.919553 -1.68136 -0.523646 -0.529864 1.0583 -0.618457 -1.08999 -0.184695 -0.402814 0.192946 0.336045 -0.549656 -0.0219711 -0.092195 0.323672 -0.792453 0.47339 0.146454 -0.0684091 -0.951864 -1.36557 0.865423 0.937557 0.0106916 -0.427239 -1.09293 -0.455918 0.355406 0.674031 -0.250553 -0.623357 0.900433 -1.18594 0.374414 -1.63456 -0.0135794 -0.148643 1.57791 -0.544867 0.939024 -0.37162 -0.448315 -0.655653 0.255923 0.488058 -0.224085 0.48084 0.7107 0.0302917 0.515359 0.22482 -0.31291 0.121471 -0.360821 0.0914604 0.34671 -0.0148333 0.109794 -0.544383 -0.469139 0.169684 0.344696 0.701931 0.0240292 -2.1808 -0.616244 0.064605 0.440849 0.00642898 -0.963523 -1.55565 0.167486 0.577156 -0.961224 -0.795885 -0.63872 -0.151022 0.226541 -0.186377 -0.530036 -0.343328 -1.50363 -0.0506057 -0.316176 -0.687215 -0.938975 0.0615863 -0.70119 -0.463389 0.457505 0.00572981 -0.545621 0.137678 -0.873758 
0.624355 0.191363 -0.368046 -0.285852 0.216486 -0.167063 0.523899 0.182523 -0.905698 -0.0159236 0.570598 1.21969 0.770158 0.141407 0.48442 0.418902 -0.752983 0.353162 0.107485 -0.588427 0.383136 0.72744 0.202328 0.385671 0.186465 0.395301 -0.0165894 -0.439327 0.165761 -0.292666 -1.57435 -0.233058 0.169492 0.72618 -0.692289 -0.331032 0.0401919 0.796484 1.17622 -0.0177903 0.444126 1.0504 -0.0841616 0.872908 0.571542 0.306441 0.0205777 0.994025 -0.219181 0.722215 0.537164 -0.731667 -0.245357 0.544271 0.441268 0.392196 0.537899 -0.820693 -0.164235 0.392694 -0.601145 -0.488774 -0.200098 0.222704 -0.756797 -0.141432 0.427471 -0.710859 -0.695947 -0.257154 -0.361558 -0.024597 -0.790597 0.847075 0.386896 0.121541 -0.205327 0.463204 -0.156189 0.524968 0.12246 1.17593 -0.517279 0.4217 0.54879 0.119402 0.438787 -0.922576 -0.244153 0.279808 0.169289 0.710352 -0.639673 0.113033 -0.158192 0.478019 
0.20721 -0.56672 0.258748 0.0770354 0.422668 -0.788333 0.954735 -0.558579 -1.22395 0.694415 0.394823 0.404519 -1.39176 -0.219764 0.721095 -1.18826 -0.080532 -0.467035 0.270782 0.123638 0.571687 0.392264 0.69891 -0.0486183 -0.48471 0.0163459 -0.630363 -0.443732 0.0965759 0.302124 0.560158 -0.307171 -0.750406 -0.253677 0.358091 -0.238854 -0.649362 0.0172096 0.0207534 -1.27795 -1.04262 -1.23914 0.201096 -0.661079 -0.293871 -0.988179 -1.01528 0.22339 -0.044379 0.290226 0.750472 -0.392314 0.39195 -0.39652 0.949943 0.783952 0.0918502 0.532133 -0.0429662 -0.686055 -0.967439 -0.638893 -0.0921655 0.155603 -1.13836 0.60644 -0.99994 -0.166889 0.314882 -0.412721 0.490353 -0.793679 0.29834 0.996278 0.0731274 -0.686227 -1.22038 1.26163 -0.528811 0.435176 0.144565 -0.533369 -0.51995 -1.11505 -0.408292 -0.616091 -0.451483 0.725568 -0.0193573 -0.257658 0.171257 -1.50282 0.214098 1.16724 -1.01973 0.389084 
0.00431073 0.469183 -0.737891 -0.130178 0.297105 0.0355607 0.54491 1.48604 -1.33951 0.79397 -0.0633863 -0.142501 0.648202 -0.169756 0.421632 -0.204626 1.2419 -0.671327 -0.00981887 0.0903617 0.327912 -0.222799 -0.0866782 -1.12061 0.51701 0.363094 1.17418 0.565835 0.334671 0.00230627 -0.534807 -0.555276 -0.596669 -0.00955928 0.244407 0.416985 0.426682 -0.0694451 -0.611798 -1.5853 -1.46289 0.848657 0.502267 0.0685018 -0.0688143 0.378625 -1.12405 -0.681966 -0.108357 0.618692 -0.457754 0.0533608 1.05261 -0.263507 0.312112 0.284434 -0.264209 -0.584609 0.146839 0.0410604 0.348838 -0.130026 0.395149 0.712333 -0.203296 0.204871 -0.474384 0.0445804 -0.018841 -0.0111791 1.17391 0.0932288 -0.671064 0.516221 0.0558193 -0.0220221 -1.22564 0.0370918 -0.586925 -0.0383255 -0.308041 0.493414 0.429015 -0.716466 -0.430684 -0.11153 0.202793 -0.813088 0.332689 0.575074 -0.919185 0.142013 -0.935394 0.478719 0.583258 0.414464 
-1.01997 0.202854 -0.565036 -0.0843069 -0.0249108 0.669872 -0.0759364 -0.43651 -0.912238 -1.08092 0.129335 0.626171 -0.561372 -0.216654 0.719891 -0.168886 -0.471466 -1.06133 -0.836539 0.319594 -0.797109 -0.00856333 0.233873 -0.458999 -0.619666 0.360229 0.0279023 0.178847 0.438992 -0.385584 0.853821 0.112627 1.31759 -0.838786 -0.0417379 -0.275866 -0.298052 1.24676 0.900091 -0.279961 -0.342134 -0.848137 -0.860782 0.43279 0.255945 0.976656 1.29182 0.769054 0.677288 -1.22242 0.0910611 0.242172 -0.564145 0.590368 0.268856 -0.583976 -1.51518 -0.22312 -0.487412 0.547805 -0.629928 -1.11873 0.526652 0.000767018 -0.0581755 0.0662173 0.208446 -0.521046 -0.820121 0.112511 0.000574633 0.836864 1.28308 0.515292 -0.0308073 -0.657018 0.137874 0.520175 1.11571 0.630316 0.768553 -0.243103 -0.181905 0.204492 -0.632369 -0.400626 -0.31004 1.14835 0.633987 -0.441163 0.687745 -0.138933 -0.998189 -0.474576 0.68742 0.0639942 
0.0494323 0.540814 -0.641509 -0.512123 -0.814409 1.04821 0.407197 -0.931361 0.634401 -0.931798 0.394261 0.446199 -0.163745 1.36468 0.149141 -0.0310217 -1.04352 0.983333 -0.728822 0.808433 1.26822 0.325572 -1.02964 0.0297541 -0.364913 0.68622 1.68665 -0.436557 -0.877781 0.453859 -1.26998 -0.0684287 -0.227249 -0.556594 -0.290743 -0.646199 -1.14831 0.330045 -0.623695 -0.0140526 0.421838 0.329076 -0.199913 -0.700536 -0.0715393 0.261294 0.289702 -1.23719 -0.980454 0.280953 0.188173 -0.289168 -0.0668564 -0.364352 0.182642 -0.394094 0.0243136 -0.727091 -0.736769 0.61688 0.322618 1.60845 -0.426155 0.606569 -0.700152 0.525308 -0.0107436 0.234859 0.275273 0.625976 -0.136612 0.0376613 -0.719487 0.93581 -0.300619 1.50462 0.228253 0.388936 -0.987651 -0.399051 -0.544501 -1.01521 0.155937 0.742722 1.6247 1.25861 -0.110642 -0.626139 0.35831 0.554686 0.303479 0.141298 -0.0811866 -0.145608 1.67791 1.18652 
0.305537 0.320763 -0.163617 0.539641 0.406559 1.41648 0.339729 0.383073 0.0121656 0.0042699 -0.81736 -0.378052 -0.0557628 0.712279 0.12651 0.152209 -0.677477 1.02683 0.977898 -0.804194 0.143722 -0.537218 -0.00273763 0.162337 0.0848873 0.70836 0.236513 0.477627 0.0865109 0.56476 -0.411614 0.549081 -0.0760696 -0.658123 -0.460753 0.267924 0.257317 -0.297086 -1.06091 -0.0681092 -0.758989 0.00421561 -0.354286 0.240105 -0.924234 0.107592 1.14666 -0.291246 -0.186541 0.816212 0.543375 -0.396149 -0.25562 -0.110133 -0.94307 0.416247 -0.116696 -0.699395 1.09166 -0.667925 -1.20625 -0.0188165 0.168015 1.30019 -0.0395962 -0.596959 0.215928 -0.63088 0.201631 0.714955 0.263162 -0.465186 -0.389783 -0.101647 0.262621 0.461208 0.260967 0.728013 0.633054 0.881075 0.0480927 -1.14137 -0.418555 -0.458254 -0.802582 -0.650475 0.805267 -0.504274 0.0578879 -0.947011 0.822842 -0.264557 0.634575 -0.00768312 1.24625 0.184958 
-0.43523 -0.756335 0.570317 -0.0163905 0.840692 0.29817 -0.751613 -0.55209 0.350198 0.259284 -0.892546 1.83556 0.50925 1.18482 0.356156 0.107706 -0.295131 1.02659 -0.0778197 0.418744 0.417536 0.143065 0.831446 -1.01605 -0.246642 -0.394017 1.10177 0.201082 -0.0534987 0.226707 0.193393 -1.83562 0.759038 0.180545 -0.953136 -0.529591 -0.502115 -0.494948 0.499832 0.166667 0.508606 -1.04077 0.892 -0.534652 0.755773 0.401596 -1.3462 -1.14529 0.761524 0.375228 0.818647 -0.345067 0.530947 -0.337586 -0.105152 0.697222 -0.752444 0.631577 -1.1797 -0.849774 0.829152 0.239623 0.24802 0.126129 0.167882 -0.154104 -0.550081 -0.558535 0.0455044 -0.254656 -0.530844 0.354085 0.916976 -0.25341 0.471767 0.0487155 -0.111884 -0.286424 0.0577938 0.486725 0.644449 -0.4662 -0.187483 0.553723 -0.265405 0.656789 -0.499113 -0.103699 -0.281288 1.45875 1.16621 0.175287 0.00594764 0.242619 0.173934 0.161506 
-0.225121 0.588387 -0.52038 0.553501 -0.864693 0.552754 0.476616 0.168853 0.392477 0.39355 -0.293413 0.563635 -0.138381 -0.345934 -1.41519 -0.779372 1.2087 1.14599 0.301639 -0.0480507 -0.648157 0.19729 0.750874 -0.207979 -0.863351 0.111394 -0.450893 -0.241486 -0.680013 -1.06172 1.01534 -0.413544 0.0378749 1.18693 -0.755875 -1.01707 0.900354 0.107507 0.102786 -0.549818 -0.447329 -0.175466 -0.504456 -0.0269808 0.963441 -0.575639 -0.151804 0.190505 0.777938 -0.00294149 0.32847 1.18112 0.559021 -0.383595 -0.822983 -0.265236 0.144628 -0.0616079 -0.18911 -0.34623 0.553168 0.0965121 -0.412799 -0.843744 0.132594 -0.0553614 0.184914 -0.064884 0.00167661 0.724053 -0.584724 -0.252458 -0.436691 -0.0405509 -0.32918 -0.383786 0.633043 0.0525339 0.341379 -0.392002 -0.176338 0.328736 -0.209479 0.248754 -0.147892 1.06357 -0.0176003 -0.944977 0.00478158 0.987205 -0.0539407 -0.000190101 0.86412 1.03576 -0.772865 -0.104338 
-0.627462 -0.470404 0.292996 -0.664342 -0.1635 -0.611655 0.116495 0.57776 -0.846859 -1.74308 -0.597332 -0.525437 0.101501 -0.269023 -0.163126 -0.232005 -0.00978682 -0.164746 0.502581 -0.316533 -0.169844 0.47631 -0.287327 0.19734 0.65842 -1.15999 -0.758732 0.0220537 -0.590259 -0.386405 0.638292 1.14294 -0.820911 -0.381686 0.507117 -0.119746 -0.174441 0.109112 0.548733 0.0751213 1.32162 0.617412 0.367645 0.655313 0.1386 -0.164956 0.845618 -0.438194 -0.303744 0.452742 -0.31728 0.0969896 -0.240557 -0.0469676 -0.453631 0.217576 0.229203 -0.479097 -0.615255 1.35816 0.627121 -0.0839 -0.0128277 0.0871471 -0.584054 0.533027 0.511896 -0.837747 -0.00393364 -0.2387 -0.358878 0.38978 0.83227 0.424192 -0.767621 -0.387917 0.443257 -0.744056 0.194082 0.302344 -0.260271 -0.988403 0.380727 -0.441587 -0.394189 -0.0787442 -0.0495406 -1.41083 -0.992622 -0.160222 0.217458 0.385917 0.0601788 0.158337 -0.706184 0.296725 
0.126537 -0.615751 -1.11838 1.43821 -0.442165 -0.238501 -0.198233 -0.1763 -0.14634 0.799802 -1.1757 0.0214554 0.817771 -0.421618 0.0932276 -0.130031 -0.0296086 0.1039 -1.42632 -1.09844 -0.099926 0.0141238 -0.181022 -0.0526997 0.750597 -0.308677 -1.34877 -1.3151 -0.10782 -0.489414 -0.251848 -0.566244 0.0304711 -1.0554 0.0458575 0.202351 -0.308145 -1.21878 -0.364055 1.48063 0.0457714 -1.67396 0.10277 -0.22111 0.911131 0.782934 0.182366 -0.711741 1.14319 1.00325 0.848355 -1.3566 -0.0531608 -0.299405 0.184079 -0.35209 0.3229 -0.0131092 0.251196 0.749614 0.0112332 -0.690544 0.567801 0.0627921 -0.486557 -0.606586 0.221066 -0.0807108 -0.820617 0.0478409 -0.208552 -0.697814 -0.410101 1.56054 -0.986828 -1.3093 0.266318 -0.184869 -0.626157 1.12869 1.24939 0.447618 -0.183075 0.505429 0.376122 -0.000300094 -0.538386 0.407881 -1.64583 -0.647719 0.580705 -0.570307 -0.00396048 0.565573 0.670339 -0.168541 
-0.180973 0.0494477 0.341126 0.597096 -0.440262 -1.5489 0.0740906 -1.62769 -0.870861 -0.315937 -0.57767 0.0951167 0.0625182 -0.755523 -0.395698 1.14266 0.275458 0.669828 -0.08936 0.908266 -1.14184 -0.454448 0.963291 -0.79778 0.34692 -0.287753 -0.421345 -0.35685 -0.587738 -0.00564783 0.789865 -0.68703 -0.196284 -0.0154845 -0.0342434 -0.410153 0.11062 -0.595949 0.367346 -1.29524 0.263777 -0.40338 0.961231 -0.356075 0.883966 -0.394129 -0.183279 0.281509 0.0657781 -0.287 -0.35257 -0.385813 -1.26281 -0.92058 -1.26005 1.13494 -0.00317254 -0.207109 -0.359473 0.173382 0.33187 0.0320323 1.22272 -0.19548 0.538308 0.692516 0.214054 -0.296666 -0.56537 -0.0520091 -0.940694 0.301218 0.846488 -1.19508 0.134868 0.425835 -0.331634 -0.0928261 1.38772 -0.400317 0.0405275 -0.56518 0.281324 -0.591587 0.642962 0.012567 -0.83096 0.490056 0.0541558 -0.302776 0.147711 -0.273481 -0.588233 -0.00402705 -0.0483153 -0.0786507 
-1.20127 0.336018 0.653006 -0.313389 -0.18346 0.625669 -0.12772 -0.418117 1.28787 -0.0973864 0.436959 0.681439 0.13099 0.733689 0.872916 -0.571404 -0.681148 -0.422953 -0.796254 -0.802145 0.400616 0.0447859 -0.284886 -0.123118 -0.217164 -0.589016 0.0754999 -0.0936842 -0.615749 -0.987573 -0.191158 -0.451757 0.0462907 0.0048137 0.669304 0.82942 -0.554125 -1.1133 0.65526 -1.32112 -0.36355 -0.506635 0.477513 -0.945818 -0.298362 -0.449346 -0.617442 0.10495 0.102272 -1.23934 -0.542502 -0.864939 -0.779872 -1.58838 -0.844286 -0.337402 0.605279 0.180882 1.03404 -0.126963 -0.265744 0.0141528 0.0896963 -0.0105057 -0.697903 0.0647388 0.094631 -0.109499 -0.559218 -0.0583073 -0.910902 -1.38506 -0.703204 -1.21661 -0.574816 0.173885 0.119023 -0.392924 -0.352662 0.558957 0.460059 -0.684031 -0.57352 -1.4104 1.43514 1.15372 0.143423 -0.212898 0.237523 0.416423 0.565671 -0.111299 0.076218 -0.690577 -1.06451 -0.249627 
0.834542 -0.806359 -0.207241 -0.899675 0.502665 0.410032 -0.192386 0.418338 1.43388 -0.249718 0.658484 -0.978881 0.163882 0.686171 0.570278 0.355258 0.491994 -0.215437 0.151133 -0.495296 0.648885 -1.104 0.75513 -0.104142 -0.0709229 0.127043 0.210942 1.1224 0.202215 -0.452634 -0.234478 -0.309514 -0.1254 -0.270563 -0.00726288 -0.465439 0.0693647 -1.00675 -1.0178 -0.121036 -0.111193 -0.437323 0.489408 -0.123981 0.669009 -0.603886 -0.524122 -0.4928 -0.401717 -0.249208 0.445301 0.434713 -0.7435 0.797822 -0.795726 -0.834876 -0.174827 0.275179 0.625759 0.405873 -0.0288263 -0.481853 0.0694816 -0.949267 0.122956 -0.225852 -0.533241 -0.641564 -0.0175079 1.97324 0.535714 0.685644 -0.757174 0.427994 -0.811277 0.468215 -0.930325 0.218504 0.785341 -1.5536 0.819148 1.30806 0.902625 -0.092494 -0.305598 -0.153114 -0.415826 -0.189331 0.169129 0.15854 0.152095 -0.824614 -0.0551439 1.49614 -1.02547 -0.519773 
-1.67878 0.353472 0.580873 0.314701 0.0468013 0.50629 -0.16612 0.0981778 -1.44525 1.00136 -0.108979 -0.550878 -0.389913 -0.486109 -0.621316 -0.586132 1.02618 -0.639404 1.15835 -0.245391 -0.863961 -1.01858 -0.810178 1.21352 0.203843 -1.1033 -0.110277 0.195428 0.113563 0.0863906 0.716324 0.0945687 1.20161 0.246405 0.224957 -0.384443 -0.475705 -0.477123 -0.534901 0.411813 -0.590758 -0.270165 -0.00111565 -0.684835 0.273976 0.149172 0.348248 -0.509738 -0.0732458 1.54991 -0.540128 -1.1867 -0.643054 -0.186891 0.343168 -0.155537 -0.445532 1.06217 -0.737786 0.362658 -0.4658 -0.300762 1.14988 -1.12684 -1.38356 0.246546 -0.770782 -0.361984 0.202821 -0.261038 0.460745 0.211792 0.371312 0.338916 -0.0557027 0.460636 0.18144 -0.279762 -0.199318 -0.148013 0.743824 1.05355 -1.06895 0.57492 -0.710382 -0.7294 -0.510688 0.865781 0.555136 0.35831 0.304079 -0.905368 -0.797384 -0.60775 0.189216 -0.737673 
-0.90428 -0.512805 -0.0428025 -0.629246 0.0917967 0.802092 0.427511 0.642414 -0.880666 -2.05639 -0.284677 0.561301 0.394125 0.922597 -0.583357 0.73089 -0.28202 -0.141335 0.602764 -0.852082 0.792272 -0.679123 0.660601 0.322424 -0.463408 -0.832459 0.522822 1.62564 0.123524 0.766802 -0.241253 0.410392 -0.114995 -0.103917 -0.81394 -1.2823 -0.932484 0.331912 -0.0682765 -1.08529 -0.0496309 0.0710038 -0.179263 0.415208 -0.318613 -0.580261 0.973955 -0.118502 -0.301254 0.390951 -0.594908 0.930469 -0.178282 -0.031377 0.72771 -0.0900403 -0.0832401 1.1807 0.412187 0.143896 -0.282055 -0.358153 -0.178128 -0.141767 0.609117 -0.0228596 0.252034 -1.25238 -0.186699 -0.731808 0.487715 1.5944 0.24002 0.818336 1.06875 0.925974 0.444768 -0.0802244 -0.175212 1.50223 -0.6656 0.272371 0.436454 -0.542537 0.336088 -0.766174 -0.579139 -0.914904 -0.0707026 0.190784 -0.19661 0.205257 -0.663169 -0.368105 -0.774363 0.175556 
0.677182 -0.775627 -0.391814 -0.331255 0.560337 -0.115555 0.211161 -0.392075 0.73157 1.20094 0.0576048 -0.280499 1.07298 0.0794793 -1.27626 -0.478896 0.000660581 0.552135 1.07291 0.194471 0.0270803 -1.3105 0.042871 -0.806136 -0.348846 0.237486 0.82337 -0.671102 -0.311929 0.0821798 -0.280774 0.551981 -0.216173 -0.670132 -0.636545 -0.933932 0.416942 -0.210527 0.553271 1.062 -0.092136 -0.996347 -0.0631899 -0.504044 0.637855 -0.806779 0.158199 -0.155196 -1.37806 -0.010086 -1.60044 -0.287359 0.151714 -0.115925 -1.00407 0.443026 0.129904 -0.330437 0.393893 -0.578324 0.789921 0.0745123 -0.436504 0.885854 -0.720495 0.835942 -1.01755 -0.100211 0.488628 0.537406 0.735758 0.0488241 -0.24707 1.23584 -0.704696 0.480872 0.0140231 0.254271 0.821011 -0.677448 0.291781 0.798707 -0.7174 -0.740208 1.13814 0.913754 -0.120218 -0.0281706 1.09638 -0.111584 0.604145 0.424323 -0.643251 0.140919 -0.231557 0.588523 
-0.857096 -0.288854 0.180771 0.0510279 -1.65613 0.91331 -0.193966 0.465532 0.0606355 0.334615 -0.125379 -0.555744 -0.245817 0.522488 0.0580667 0.27811 0.476808 -0.589375 -0.0762795 -0.633843 0.527141 -0.0308104 -0.0528089 0.39745 -0.744999 -0.539929 -0.332238 -0.259609 -0.608095 0.654857 -0.364748 -0.589066 0.575272 0.364305 0.0299773 0.270923 0.537069 -0.815224 -0.597931 0.555697 -0.0443164 -0.722592 1.26626 0.814677 0.80867 1.34832 -0.324868 -0.237928 0.282312 0.861887 -0.39871 -0.519558 0.668473 -0.707025 0.4792 0.189426 1.12439 -0.691431 -0.430109 0.0067042 0.325513 -0.351434 0.184667 1.22024 -0.0350329 -0.199979 0.30889 0.168813 0.34537 -0.286246 -0.040549 0.920766 1.1561 0.0546346 -0.141342 -0.443667 -0.374373 -0.109741 -0.262292 0.746819 -1.06241 0.515854 -0.847726 0.0169583 0.141749 0.26166 0.404748 -0.102559 -0.984682 -0.237905 -0.126106 -0.0116408 -0.494725 0.19954 -0.0964685 -0.297694 
-0.225906 0.343727 -0.669073 -0.0697162 -0.528409 -0.058571 -0.174386 -0.792618 -1.38087 0.388005 -0.110854 -0.601744 0.0414143 -0.872534 -0.363061 1.10073 -0.252246 -0.34586 0.21265 0.0931709 -0.350574 -0.676813 -0.318018 -1.21584 -0.145288 0.156533 -0.539129 -0.252644 -0.2068 -0.161492 0.392428 -0.23894 -0.0100226 -0.889639 0.977622 -0.394033 0.0919416 0.789014 -0.276928 0.0900818 0.218377 0.329134 0.238314 0.166258 0.0684336 0.843041 -0.303437 -0.53073 -0.0125667 0.230806 -0.523103 -0.27472 0.495876 0.399633 -0.0180833 0.645592 -0.335456 0.261557 0.223127 -0.762786 -0.554533 -0.483747 -0.850928 0.424471 -0.0356194 -0.445168 -0.340643 -0.569243 0.856654 0.379794 0.171133 0.584185 -0.614769 -0.345358 -0.82835 0.413937 -0.162254 0.306582 -0.634456 -0.289546 -0.26504 -0.514365 -0.371623 0.772509 1.26792 0.000207311 0.779246 0.135149 -0.702173 -0.340924 0.243041 1.26045 -0.222388 0.893232 -0.0226394 0.804734 
-0.0763892 -0.43482 0.115309 -0.459278 0.432739 -0.454128 1.5972 -0.349574 0.637201 0.273856 -1.21744 -0.181945 0.221024 -0.161845 -0.421629 -0.015679 -0.335989 -0.98676 0.646493 -0.574016 0.37338 0.658766 0.0978288 -0.147768 -0.143603 -0.285059 -0.719941 -0.399309 0.38777 -0.228441 0.239936 -0.328313 -0.0869613 -0.551837 0.106878 0.690995 0.332226 0.115459 -0.440347 -0.490176 -0.338567 0.43126 1.2519 0.594743 0.362742 0.495159 -0.39946 -0.124203 -0.653076 0.081389 -0.188233 0.552726 0.464195 0.0968064 -0.802148 0.225909 -0.670448 -0.105808 0.374031 0.312556 0.409317 0.0372883 -0.482795 -0.0421086 0.143833 0.0739697 -0.252522 -0.925006 -0.22816 0.685872 -1.41338 0.0757831 -0.846368 0.843494 0.352651 0.972062 0.261443 0.540833 0.499711 0.158148 -0.949901 -0.0752996 0.443726 -0.494447 -0.853386 -0.468377 -0.675005 0.252704 0.243447 0.254271 -0.66348 -0.751887 1.32592 0.799109 0.336878 0.294779 
-0.338627 -0.266295 -0.126971 0.56296 -1.01511 0.686143 -1.17877 0.343857 0.896969 0.167662 0.318402 0.601519 -0.00906987 0.927331 0.13962 -0.328624 1.32096 -0.235149 0.331858 -0.185938 0.0927713 0.775905 -0.432638 -0.124329 0.443236 0.0388884 0.164564 -0.43245 -0.226062 0.174398 0.605322 0.0617514 -0.237095 0.59806 1.10272 1.18364 0.479117 -0.477777 -0.484285 0.973588 -0.555509 -0.559034 -0.570477 0.0126491 0.30519 -0.453053 -0.384068 -0.979632 0.202367 0.194843 0.459031 0.175751 -0.269096 0.224164 -0.0152066 -0.27284 -0.56066 -0.838779 0.315128 -0.105606 -1.08769 0.166487 -0.0165138 -0.696258 0.0562365 -0.760343 -0.311243 0.107379 0.0057158 -0.408079 -0.650951 -1.53772 -0.0464358 0.571618 -0.459283 -0.238323 0.406519 -0.470848 0.508686 0.916304 -0.605776 -0.219004 -0.0246689 1.15372 0.66923 1.44413 0.336613 -0.213032 -0.0770626 0.251477 -0.157941 -1.42914 -1.23989 0.736092 0.774799 -0.92623 
0.411373 0.296001 -0.306754 -0.348438 0.592752 0.185812 -0.484524 0.830439 0.215095 -1.18095 0.647148 0.63023 0.429137 0.0467638 -0.42811 0.549421 0.326607 0.53391 0.246451 -1.94334 0.501814 1.26809 0.000884577 0.0550695 -0.331514 -1.60077 0.389576 -0.250863 0.133624 -0.330824 -1.66896 0.446516 -0.145139 1.12154 0.643695 0.640712 0.125935 -0.528083 0.0714362 0.206103 -0.0275907 -0.266038 0.351005 0.914458 0.193348 0.145177 -0.590684 0.256986 -0.348693 0.471976 0.128838 0.0338274 -0.168141 0.0234092 0.402727 0.134504 0.449489 0.9863 1.36176 0.0038549 0.304782 -0.961215 0.175256 -0.75459 0.00158264 -1.47913 -0.0714539 0.177311 0.170868 -0.0618217 -0.0532532 0.514314 0.610222 0.0736153 -0.206886 -1.1596 0.395563 -1.52891 2.11411 -0.731499 -0.0727797 -1.65891 1.2225 -0.140964 0.887271 -0.145348 0.577692 0.780057 -0.391682 0.161962 -0.705237 0.197538 0.092709 -0.250676 0.500179 0.451245 
