0.565666 0.374755 -0.316685 -0.956252 0.516486 0.233792 -0.419124 1.10717 0.11313 -0.132192 0.678197 0.941623 -0.238128 0.554001 0.334301 0.637123 0.197402 -0.0966836 -1.05082 -1.26272 -0.313654 -0.217495 -0.341544 -0.254192 -0.827482 -0.763359 -0.643166 -0.0867113 -0.737915 0.370016 0.172555 0.825549 -0.428087 0.745825 -0.499659 -0.228375 0.308499 -0.00297928 1.52109 0.373534 -0.114557 0.337401 -0.356493 -0.163487 0.826879 -0.871564 -0.0087063 -0.697505 1.54836 -0.817215 0.0464681 0.339354 0.945666 -0.340732 0.103169 0.255728 0.763692 0.576262 0.190071 -0.713772 -0.888601 0.0141572 0.461154 -1.00929 0.688333 0.11079 -0.248542 -0.221468 0.24747 -0.466488 -1.09011 -0.741048 -0.565373 0.414814 1.52558 -0.646126 0.570359 0.751246 0.663226 0.0125894 0.416204 1.06411 0.486039 -0.656664 0.352763 0.229434 0.90912 0.26736 0.844635 0.139904 0.823085 0.442682 -1.03634 0.943544 -0.165136 0.292759 
0.31127 -1.60072 1.13095 0.146979 -0.0646064 0.150605 -0.333243 -0.126239 1.12386 -0.0874797 -0.788566 1.06414 0.192513 0.153695 -0.412318 -0.515342 0.248403 0.259762 1.30912 0.764278 0.119613 -0.173507 -0.746009 0.817531 -0.945795 -0.549965 0.265283 0.22326 -0.314891 -0.756315 -1.01779 -0.866185 0.281318 0.335375 0.2007 -0.574388 -1.68517 -0.284432 0.554624 -0.240687 0.458567 -0.278982 -0.0224312 -0.302564 -0.243733 -0.203112 0.354202 -0.332341 0.725369 0.490702 -0.0490617 -0.214045 -0.194128 -0.809265 0.308176 0.353621 0.072982 -0.611072 -0.202904 0.279274 -0.348123 -0.0944749 0.475918 -0.937546 -0.638731 0.758981 -0.574432 0.152519 -0.142643 -0.899033 0.294881 0.130962 0.804725 -0.856693 0.970107 -0.658226 0.214692 0.341152 -0.58818 0.345151 -0.554404 -0.503664 0.431219 0.568766 -0.082964 0.618314 0.513052 0.355312 -0.682409 -0.148852 0.816752 1.10149 -0.0795377 -0.091408 -0.455168 0.645792 
-0.0861624 0.426741 0.187438 1.12081 -0.436697 1.1806 0.0606139 -0.676599 -0.842959 0.294302 -0.33677 -1.62953 -0.111133 0.974413 0.0603216 0.506316 0.00306619 0.448065 0.242537 -1.64475 0.950959 0.0339687 -0.155977 -0.244732 0.415755 1.0533 -0.354641 -1.29474 -0.467847 -1.29518 -0.231196 0.763628 -1.3778 0.0332054 -1.26748 -0.142667 0.485274 -0.273554 -0.169386 -0.436556 -0.113462 0.0936235 -0.209871 -0.326605 0.550838 0.227012 -1.02796 0.852975 0.672237 0.820317 -0.416918 -0.962533 -0.973024 -0.455205 0.185888 0.285211 -0.1288 -0.709373 -1.11039 -0.0187762 0.734123 -0.150857 -0.392834 -0.712061 0.0990146 -0.549001 -0.127751 0.0932593 0.593775 0.530523 -0.70492 -0.66127 0.197926 0.65012 0.28745 0.142659 -0.676976 -0.497473 -0.15708 0.0883792 1.29514 0.876325 -0.241884 -0.429 0.296063 -0.430802 0.0286614 0.254024 0.771995 -0.101535 1.13005 0.951994 -0.131711 -0.209214 -0.178096 -0.944741 
0.213509 0.206041 0.323805 0.114931 0.382525 -1.05391 1.09606 -0.0750249 -0.30153 0.545552 -0.245031 -0.983322 0.612027 -1.32032 -0.221486 0.111614 0.634904 -0.0272687 0.0477973 0.0930558 1.03122 -0.19694 1.36746 -0.454233 0.292606 0.21725 0.300708 -0.521863 -0.519104 -1.28 -1.34062 0.590611 -0.325796 -0.717107 1.71852 -0.137216 1.14377 0.987923 0.243847 0.0524622 -0.0400686 0.979405 -0.388026 -0.430154 -0.189006 0.115796 0.941544 0.911554 -1.63169 0.0560888 -0.0883336 0.100407 0.114514 1.10822 -0.635949 -1.08991 1.03254 -0.163943 -0.27682 -1.03067 -0.468815 1.00993 0.627932 0.867699 -1.03126 0.446149 1.1839 -0.0929774 -0.242758 -0.67803 -0.784109 -0.425565 0.558746 1.13148 -0.460419 -1.07077 -0.697062 -0.854521 -0.461569 0.022639 0.101788 0.228523 0.0356534 0.672592 -0.885175 0.0904771 -1.0745 1.29384 -0.796772 -0.682155 -1.60006 1.3724 -0.939294 -0.143585 -1.43064 0.747762 
0.806835 0.974553 0.884745 -1.01517 0.46383 0.316964 0.675623 1.00148 -1.34105 0.615186 0.190192 0.644831 -0.645185 -0.90628 -1.15074 -0.300792 -0.0533597 -0.227999 0.942674 0.768943 -0.125719 0.958268 -0.554285 -0.39296 -0.041115 0.586015 1.21894 0.994351 -0.509284 0.8437 -1.50069 -0.98394 -0.366778 0.34145 -0.248687 0.0198341 0.449132 0.250971 -0.958962 0.215126 1.15326 -0.612889 0.533919 0.722298 -0.96086 0.130794 0.17629 0.0809572 -1.16376 0.716439 -0.794608 0.501783 0.227224 -0.763595 0.0994444 -0.710645 0.0866693 -0.148426 -0.140287 -0.259127 0.831378 0.565683 0.210358 0.691193 0.405916 0.479212 -1.03732 0.746213 0.196354 -0.163193 -0.0550475 0.681709 -0.0561895 -0.303979 0.572734 1.10919 0.25064 -0.549863 0.328158 0.349439 0.310605 -2.08474 -0.105966 0.100343 -0.525744 -0.982768 0.19979 -0.912585 0.684263 0.932763 -0.238796 -0.37552 0.746321 1.1014 -0.562904 -0.620988 
0.238566 0.478285 -1.3227 0.237915 0.837944 0.0810587 1.05284 -0.518322 -0.862033 0.437266 0.057631 0.0577236 1.01042 0.608829 -0.0381028 -0.667877 -0.317036 -0.00182806 -0.634597 0.362624 -0.348384 -0.479064 1.47442 0.422225 -0.887228 -0.483745 -0.0605121 -0.104734 -1.04278 1.06427 -0.546957 -0.677505 -0.106484 1.20686 -1.55718 0.578151 -0.921427 0.422835 -0.264491 -0.415317 -0.164695 -0.164112 0.870833 0.034708 -0.160337 0.249113 0.510806 0.785795 0.506802 0.0339034 1.71557 -0.0669291 -0.00106302 -0.973762 -0.449787 0.121752 -0.635794 0.943631 0.550941 -0.571982 -0.652346 0.658655 0.500567 -0.740738 0.382262 -0.718352 -1.14851 -0.485613 0.345742 -0.0708796 0.710692 -0.448776 1.24843 -0.379322 -0.0814848 0.51243 0.707625 0.232331 -0.796212 -0.463386 0.392648 0.662471 -0.490903 -0.269895 0.235091 0.0296934 -1.7678 0.248543 -0.403791 -0.463673 0.387872 1.01475 0.484327 -1.03237 0.156716 -0.678698 
-0.593767 0.146406 1.1998 -0.547307 -0.134637 -1.43833 -0.120279 -0.865283 0.449822 0.889822 -0.411055 0.735493 -0.848974 0.582295 -0.104055 0.438517 0.844154 0.596013 0.411389 -0.23549 -0.320994 -0.162574 -0.51931 -0.172385 -0.468372 0.867193 -0.617607 -0.818176 -0.243405 0.792943 -1.00448 0.57748 0.60172 -0.86474 0.155909 0.730488 -0.684602 -0.941184 0.157572 -1.43971 -0.0734942 -0.950405 -1.08873 0.107708 0.0937346 0.914879 1.18754 0.119853 -0.213872 -0.000500257 0.691893 0.499355 -1.04834 -0.983322 -0.496716 -0.276748 1.15385 0.126135 -0.391403 -0.530043 -1.0331 -0.11486 0.798052 0.26318 -0.588951 0.246612 -0.0897582 -0.463867 0.164383 0.742944 -0.477911 -0.189543 -0.517942 0.223351 -0.734043 -0.161541 -0.285062 -1.08945 0.720559 0.213283 -1.02226 -0.0819971 -0.722135 0.240688 -0.451268 -0.546608 0.250817 -0.627919 0.772416 -0.461362 -0.46864 -0.245293 -0.107471 -0.00602062 0.208465 -0.930727 
-0.058734 0.830641 -0.387274 -0.745018 -0.789273 -0.616127 0.0982875 -0.722033 -0.199476 0.386965 -0.151723 0.681061 -0.0648905 -0.284282 -0.0748088 0.254983 -0.843413 0.186203 -0.313598 -0.725239 -0.586435 -0.213363 0.279987 -0.293293 -0.45026 0.28262 0.644849 0.216313 -0.737428 0.608896 1.57468 -0.334375 0.170856 1.09911 -0.011092 -0.500569 -0.891438 0.979535 -0.83411 -1.37979 0.745508 0.474074 -0.106172 -1.01198 -0.657115 0.072054 0.281596 -0.591962 0.505503 0.948916 0.298991 0.422225 -1.06032 0.939158 0.658779 0.727295 -0.361718 0.412412 0.906936 -0.455061 -0.169788 0.157467 0.233302 -1.07152 0.157305 -0.814932 0.573777 -0.174241 0.363182 0.930283 -0.863309 -2.00399 -0.775135 0.225477 -0.504397 0.406116 -0.802548 -0.244019 0.722268 0.402119 0.153201 -0.181549 0.403377 -0.919648 -0.971607 0.0969597 -0.27716 -0.705155 0.821038 0.740421 0.716478 -1.09792 -0.288133 0.0234797 0.655616 -1.1099 
-0.216629 -0.174553 -1.24881 0.680563 -0.711938 0.936012 -0.0110682 -0.0154553 -0.642603 -0.558298 -0.0141635 1.21608 -0.138722 -0.0446457 1.01643 1.06008 0.152431 0.510949 -0.163002 0.765789 -0.103992 0.660104 1.9797 -0.380208 0.084419 -0.300679 1.10345 -0.679562 0.192059 -0.191773 -0.586567 0.56997 -0.354695 0.0875663 -0.356831 0.54952 0.426502 -0.575615 1.03171 0.20233 0.732821 -0.304162 -0.161876 0.615615 -0.473511 -0.618995 0.5833 -0.494359 -1.05657 -1.369 -0.0741585 0.162477 -0.753245 0.301606 0.0529685 0.379147 -0.243763 -0.679885 -0.52411 0.127521 0.398081 0.441697 0.113995 1.65965 0.826914 -0.650094 -0.490656 -0.145515 0.0442044 -0.357717 -0.0546361 -0.586415 -1.0193 -0.195013 -0.00489225 0.416505 0.553656 0.322591 0.50271 0.359729 -0.707542 -0.970483 0.615237 0.953236 -0.123183 -1.33843 -0.163112 1.36273 1.53368 -0.392703 -1.69297 0.106405 -1.70098 -0.138745 -0.394332 -0.227041 
0.0795719 0.0686239 0.568372 -0.258739 0.178519 -1.27933 0.874997 -0.204551 0.823643 0.536022 0.320864 -0.321774 -0.778547 0.558351 -0.249947 -0.219833 0.278055 0.399455 -0.156173 1.1214 0.530696 0.378683 0.752388 -0.576956 -0.850184 0.1939 0.36217 -0.385328 -0.832545 0.0384737 0.344764 0.0998391 1.22328 -0.308134 -0.000203511 -0.600734 0.558376 0.427733 -0.0763729 -0.310059 0.0338195 -0.426838 0.807599 -0.0999568 -0.475101 0.673225 -0.695909 0.267568 -0.286096 0.335396 -0.81539 -0.202389 0.296036 -0.0651363 0.0253259 0.640157 -0.248597 0.862653 -0.283586 -0.721855 0.73442 -0.24266 0.0713372 -0.809014 0.731747 -0.179196 0.144751 0.316929 0.118173 -0.0514263 -0.637432 -0.591717 -0.202511 0.0765967 0.601767 -0.733744 -0.818254 -0.229587 1.09877 -0.12314 -0.258092 0.428887 0.122735 1.94587 -0.0815675 -0.708221 0.0119863 -0.0875386 -0.368674 -0.285768 0.646471 -0.6205 -0.978718 0.66641 0.965669 -0.534102 
-1.21914 -0.758088 -0.349571 -0.218221 -0.204185 -0.452492 -0.867827 -0.365203 0.339759 0.393041 -0.89596 -0.197118 -0.223525 0.191238 -0.383007 -0.420598 0.106967 0.629116 -1.05163 -0.584396 0.70028 -1.15299 0.804767 1.34878 0.83224 -0.73818 -1.22225 0.349867 0.0975155 0.301814 -0.360506 -0.877174 -1.45281 -0.382224 1.21232 0.32726 0.132256 0.213794 0.142304 -0.215041 -0.806421 0.298384 0.00164774 -0.643699 0.443111 -0.0862152 0.314508 -0.712824 0.212902 0.540143 -0.913709 -0.600871 0.11614 -0.294235 0.179955 1.82393 0.0302153 0.498309 2.14165 1.01893 -0.184504 -0.0385173 0.257044 0.424511 -0.935676 -0.230666 -0.0128081 -0.273281 -0.882863 1.66594 -0.239204 -0.265017 -0.0115443 0.319959 -0.103722 -0.382352 -0.8147 -0.682064 0.758605 0.02729 1.13959 0.200291 0.706491 -0.443264 -0.16865 0.146156 -0.0426671 -0.332887 -0.830214 -0.299635 -0.628073 0.558673 1.08464 -0.696282 -0.166363 -0.507322 
0.540691 -0.29146 -0.448384 -0.830275 -0.16947 0.450882 -0.598306 0.358424 -0.334437 0.343752 -0.0496416 0.11359 0.58512 1.04171 -0.1337 -0.437071 0.112157 0.164534 -0.328844 0.410485 -1.01019 0.279521 -0.757744 0.0444688 -0.578551 -0.0212024 -0.86899 -2.03456 -0.256751 1.10927 -0.117666 -0.205573 -0.244185 0.0145402 -1.14163 -0.477818 0.605184 0.365526 0.30122 0.301628 -0.389034 0.631581 -0.295268 -0.185951 -0.357979 -0.336098 -1.38252 0.790043 1.74148 0.699668 -0.479332 -0.164327 -0.165059 -0.00716816 -0.897809 -1.1013 -0.781626 -0.411388 -0.276648 0.790578 -0.334269 0.134522 -2.37817 0.168052 0.534837 0.643893 0.644958 0.231291 -0.296362 0.761035 -0.640095 -0.308537 0.947261 1.26662 0.513313 -0.690805 0.366313 0.144744 0.0179289 -0.276764 -0.204256 -0.27726 -1.04432 -1.05906 -0.850302 -0.972712 -0.179509 -0.00621922 0.195952 -0.554651 1.39331 -0.0844284 -0.744781 -0.24403 0.207239 0.829791 
1.79694 -1.21967 0.662814 0.413663 -0.905631 -0.820503 -0.328364 -0.0126534 0.407359 0.31325 -0.354642 1.03384 -1.31493 -0.764706 0.60382 0.393379 -0.348218 0.205048 0.476463 1.06061 -0.143138 -1.41236 1.43477 -0.0201943 0.555534 -0.276794 -0.318433 0.153389 0.955808 0.276626 -1.09674 -0.167906 -0.245303 -0.120215 0.497625 1.02125 -0.106716 -0.136813 0.0311923 0.37297 0.982419 0.365551 -0.719559 -0.485865 0.714018 -0.0407395 -0.767836 -0.108587 -0.397141 -0.470654 -0.780245 0.251467 0.295727 -0.014367 0.277674 -0.632308 -0.388686 0.20801 -1.50993 -1.21624 -0.745558 0.281038 -0.693146 0.551426 -0.543621 -0.895709 -1.26434 0.293232 1.99938 -0.00691218 -0.736822 0.777321 1.24001 -0.417216 -0.217626 -0.613928 1.18108 -0.743945 -0.684558 -1.06109 -0.675247 -0.822841 0.928199 -0.737061 0.0234073 0.506189 -0.0302557 1.38016 -0.394701 0.241527 -1.17695 0.148156 0.348961 -0.199555 0.387116 0.0492882 
0.468802 -0.425016 -0.0475305 -0.232871 0.942298 -0.494325 0.338848 -0.440003 -1.23547 -0.0818316 -0.536524 -1.28454 0.625846 0.449699 -0.276016 -1.55408 0.893908 0.721085 0.679547 -1.49578 -0.00922397 -1.61225 0.914851 1.4685 -0.31609 0.69805 1.11764 0.70593 0.150547 1.18075 -0.891084 0.335134 -0.23207 -0.0308745 -0.17988 0.525715 -0.33112 -0.904003 -0.657985 0.152668 -1.32886 0.7585 -1.07814 -0.0512598 -0.517381 -0.403952 0.395138 0.893639 -0.41412 -1.24153 0.566854 -0.470508 -0.392083 0.65999 -0.842673 0.308378 -0.444826 0.288515 0.410047 -0.100036 0.587531 -0.397964 -0.210969 0.063186 0.884995 0.409262 0.383987 -0.17847 -1.58468 -0.983933 -0.0262608 0.188804 -0.790795 -0.0905152 0.0525648 0.840531 0.517868 -1.09982 0.81256 0.905648 0.723875 1.10905 0.26169 -0.633595 -0.278314 -0.347891 0.415672 0.0313355 0.274081 -0.458401 1.32778 -0.865625 0.377993 0.386844 -1.20718 0.533422 
-0.611387 0.294686 -0.142448 -0.125372 -0.0872209 -0.742887 -0.0405723 -0.762598 -0.131063 -0.337635 -0.133431 -0.755672 0.899425 -0.641116 0.397008 0.399837 -0.241969 0.149594 0.021398 -0.316786 -1.58182 0.66815 0.762233 0.0268942 -1.16129 0.182298 0.108968 -0.313051 0.12893 -0.520587 -1.21479 0.168538 1.0621 0.953022 0.72356 0.691518 -0.220666 0.204229 -0.82874 -1.03682 0.21175 -0.38427 -0.0109034 -0.0258731 0.132669 0.0845231 0.465766 0.588746 0.527605 -0.533072 -0.920526 0.429225 -1.70459 0.472557 -0.0315389 0.766816 -0.440313 -0.204728 -0.846236 -0.295702 -0.645048 -0.916695 0.110585 0.0125339 -0.718758 0.982028 0.625641 0.85933 0.565908 0.365629 0.00999262 0.669529 -0.447801 0.648688 0.91215 0.613146 -0.667965 0.0502812 0.6947 -0.171557 1.45559 -0.256664 -0.0713419 -0.0314545 -0.972867 0.857136 -0.43728 -0.270195 0.360068 0.760969 0.217453 -0.611072 -0.445702 0.785445 0.936627 0.326526 
0.0551175 -1.47743 -1.03194 -0.825263 -0.381747 0.0528146 -0.688005 0.469086 0.551559 0.223001 -0.282644 0.935294 -0.381038 -1.11641 -0.472715 0.565392 -0.122667 -1.00429 -0.310601 -0.00247782 -0.451511 0.415003 -0.236034 0.0970388 -0.419721 0.341708 0.467413 -0.514215 -0.705525 0.321007 0.629236 -0.875371 -0.178381 0.0187613 -0.146754 0.0769469 0.178239 0.018964 0.576494 -0.640684 -1.04491 0.323539 -0.378267 0.562328 0.0341691 -1.03807 -0.387859 -0.0699155 0.0296081 -0.108049 1.3694 -0.208416 0.476113 -0.594702 0.779064 0.106567 0.781057 0.551687 0.219411 0.121138 -0.176583 -0.868877 -0.0470473 0.119242 -0.823839 0.262002 0.801252 -0.0136094 -0.886016 -0.848798 0.110358 -0.904303 0.955905 0.1935 0.357367 0.133321 -0.336475 -0.608989 -0.28805 -0.0717998 0.400608 0.489444 0.143069 -0.642232 -0.618792 0.0930702 -0.664857 -0.847184 -0.254406 0.511736 -0.298302 0.413887 0.808576 -0.689471 -0.399264 0.800945 
-1.34493 0.153017 -0.146958 1.0011 -0.0872483 -0.120102 0.850672 0.381452 0.658454 -0.609518 1.48908 -0.136928 -0.176766 -0.226452 1.08837 -0.29912 0.686579 0.0442033 -0.975841 0.38204 0.266206 0.0976621 -0.840647 -0.115984 -0.124197 0.237099 -0.194792 -0.415704 0.139761 -0.430251 0.734093 0.837451 -0.325591 -0.849127 0.109606 1.04371 0.401156 1.08677 0.107469 0.16878 0.217172 -0.754186 -1.1261 0.419159 -0.643604 0.347557 -0.428045 0.406468 -0.060734 0.577692 1.11815 -1.21121 -0.47604 0.314276 0.267583 -0.591072 0.196583 -0.406159 -0.438558 -0.0361703 0.8368 0.934017 -0.366482 0.356117 -0.638312 0.970704 0.887479 0.0133113 -0.825328 0.475002 0.444649 0.642704 -0.0677276 -1.39994 -0.149511 -0.354128 -0.00986076 -0.541714 -0.466611 0.0224701 0.726061 -0.0987521 0.0171591 0.0531061 -0.815201 0.361823 0.406776 -0.889597 -0.442634 -0.553095 0.593506 -0.170733 -0.736936 0.129489 -0.179226 -0.268253 
-0.87472 -0.905371 -0.510368 -0.816053 0.745609 0.169039 0.649733 -0.946094 -0.221122 0.342111 -0.651828 -0.70842 0.936066 -0.896412 0.0109076 0.427768 -0.0312444 0.182061 -0.338688 -0.000275175 -0.792455 0.691157 0.286579 0.391587 -0.197017 -0.0275409 -0.130832 0.54208 0.933218 -0.649632 -0.304432 -0.238151 0.121834 0.108339 -0.959735 -0.583765 0.449481 -0.313429 0.160163 0.0404359 -0.147568 0.178579 1.25936 1.01514 0.881279 0.972195 -0.394265 -0.667909 -0.175306 -0.241642 -0.0478759 0.585209 -0.150452 0.0326232 0.250384 0.76859 -0.0416712 -0.502039 -0.981964 -0.293575 0.463033 -0.584179 0.104538 0.363272 0.13232 -0.447508 0.445317 1.04497 -0.475757 0.32796 0.0984154 0.491703 0.0805916 -0.1807 -0.354625 -0.713122 1.26739 0.405764 -0.836177 1.21227 -0.329215 0.0523373 -0.508297 -0.325026 0.622922 0.23882 0.39686 -0.123133 0.702133 1.03844 -0.748438 0.617381 0.368105 -0.163695 0.102548 1.18165 
1.0348 -0.764966 0.413138 -0.441342 0.246613 0.175074 -0.451169 -0.953731 -0.134802 0.762907 0.651168 0.121342 0.102386 -1.19969 -0.705188 0.249464 -1.14362 0.249475 -0.0575304 -0.0466845 -0.2137 0.65302 -0.322368 1.12384 0.930552 0.75041 1.21516 -0.436105 -0.978734 0.658638 0.889475 0.140708 0.193209 0.906558 -0.583349 -0.429482 -0.604882 -1.0042 -0.70797 -1.32217 0.540748 -0.817647 -1.29517 -0.671881 -0.294203 -0.594266 0.25346 -0.671844 0.661166 0.941594 0.991924 -0.78717 -1.23402 -0.940198 -0.146189 0.0297582 -0.44158 -0.698927 -0.690017 -0.12854 -0.146159 2.13577 0.299331 0.692254 0.40982 1.02591 0.607097 -0.189827 -0.373831 0.92274 0.117893 0.36402 -0.0042551 -0.725013 0.294485 1.00231 -0.165039 0.624378 0.771935 -0.124169 -0.270779 -0.187473 -0.0269503 1.19844 1.10495 0.0493952 0.971526 -0.946241 -0.211014 -0.629072 -0.534648 0.290145 0.623965 0.122806 0.200308 0.590293 
-1.5421 1.4709 -0.238696 0.675477 0.0385213 -0.068886 -1.5742 0.980945 -0.919878 -0.395236 0.672746 -0.331302 -0.319437 1.4347 -0.871288 0.3967 -1.33806 0.544403 0.780789 1.26744 0.560655 -0.28199 0.680571 1.16604 -0.687907 0.518905 -0.61595 0.622263 0.337888 -0.57821 1.138 0.265289 0.326961 0.362082 0.228441 -0.381583 -0.449107 0.734168 0.185397 0.594274 1.12078 -0.543847 -0.376425 0.17924 -0.294982 -0.381916 0.78745 0.21441 -0.0763433 -0.289465 0.321044 0.732663 0.844177 0.636135 1.00976 -1.11463 -0.157719 0.0675029 0.636303 0.619234 1.78508 -0.0136604 -0.565523 0.456333 0.0607669 -0.437236 -0.820436 0.502593 -0.0377456 0.011562 -0.249159 -0.0659246 0.289717 1.7182 0.0711814 0.341297 0.116371 -0.123043 -0.868459 -1.30677 1.60557 0.99453 -0.219363 -0.682467 -0.950881 0.0686393 0.707681 -0.743698 -0.634721 -0.0848189 0.703423 0.0503313 1.24539 -0.682812 -0.578163 -0.20408 
1.3049 0.278929 0.486463 0.254098 0.159102 -0.0243179 -0.627116 0.562669 -0.232883 -1.27352 -0.546199 0.444788 0.275809 0.239441 0.475236 0.422541 -0.438671 -0.338231 0.94447 0.149342 0.0334716 -1.58717 -0.48983 0.203839 1.26019 -0.320092 -0.774887 -0.167459 0.165517 -0.277513 -0.520558 0.442713 -1.4192 0.75379 -1.22886 -0.17692 -0.0100947 -0.236526 0.153535 -0.31696 0.240478 0.938076 0.691585 -0.991639 -0.470002 1.26175 -0.434614 -0.424241 -0.162816 -0.0672452 0.00991159 -0.845212 -0.282285 0.152402 0.731832 1.26741 -0.190302 -0.894224 -0.885686 0.435702 -0.882165 -0.311402 0.234618 -1.10721 -1.06017 0.22547 0.266932 -0.859604 -1.50041 -0.0437204 0.480468 -1.58361 -0.569307 -0.363599 -0.340789 0.256069 1.20569 -0.819618 0.842963 0.626226 0.248712 -0.494095 0.114491 0.704538 -1.03995 0.23635 0.538213 -0.969759 0.357083 -0.555788 0.122312 0.112746 -0.819061 -0.319857 -0.101172 0.393889 
-0.802894 -1.93989 0.0981229 0.201772 0.335997 0.386748 0.672143 0.832251 -0.799241 -0.515474 1.16008 -0.252589 0.996761 0.0699283 1.47469 -0.31455 0.00222589 -0.523946 0.153523 0.414001 0.637494 0.310441 -0.537496 -0.0566681 1.17498 -0.00137801 -0.330557 0.182446 -0.826132 -0.142624 -0.763045 -0.106908 -0.338347 0.134229 0.155131 -0.114636 -0.194944 0.373403 -0.749398 -0.359241 0.797397 -0.711103 -0.367164 -0.195443 -0.995021 -0.027655 -1.01854 0.255288 -0.126395 0.29052 -0.32864 -0.251132 -0.617654 -0.495295 -0.322399 -0.87024 0.207915 0.128756 -0.976279 0.315172 0.509511 0.0539377 0.945642 0.471622 0.170379 -0.482322 0.221802 -0.439172 0.148828 1.17967 0.14741 0.443931 0.274931 0.00597566 0.689498 0.34244 -0.15237 -0.912586 0.744634 0.0345822 -0.478575 0.0629402 -0.174573 -0.0507858 -0.900089 1.38999 0.424289 0.260901 0.175582 0.832417 0.795571 0.257229 -0.475852 0.554216 0.751069 -0.894714 
-0.780975 -0.864804 -0.410076 -1.76624 0.446326 -0.14064 -0.387956 -1.11919 -1.50924 0.397126 -0.127051 0.0111887 0.240365 1.04129 0.0914249 -0.266769 0.410144 -0.322514 -0.622675 -0.164634 -0.838213 -1.18568 0.398971 -0.794383 -1.02497 -0.216672 -0.779296 -0.875895 0.0878302 0.115536 0.121436 -0.84191 -0.839179 0.894881 -0.439662 1.00294 1.4579 -0.079281 1.0316 -0.631259 0.147889 -0.317753 -0.159928 -0.909382 1.2565 0.27462 0.867304 0.407518 -0.0348009 0.298208 -1.28159 -0.928952 -1.12683 0.899415 1.58793 -0.732542 0.0863136 0.293509 0.130622 -0.81472 -0.365843 0.115649 0.611012 0.100174 1.08125 0.685847 -0.102188 1.00963 0.255736 -0.619763 -0.0901414 0.772764 -0.161558 -0.454261 -0.100659 1.18459 0.680132 0.972715 -0.545567 0.71286 -0.316536 -0.669341 0.664618 -0.0897846 0.75574 0.215124 -0.0968932 0.791291 -0.451538 0.561942 -1.12357 -0.774768 -0.175486 0.00109519 -0.849793 -0.0702037 
1.26461 0.741966 -0.320392 -0.262528 -0.65661 0.664746 0.636422 1.5582 -0.406432 0.242047 0.223847 -0.810772 -0.83879 0.12634 1.24928 -0.0119099 -0.406123 -0.450471 0.591989 0.396878 0.774977 -0.145144 -0.896313 0.927643 -0.158763 0.944517 0.475951 0.740493 0.18166 -0.933335 0.311647 0.0205554 0.221643 -0.133374 -0.33065 -1.37085 -0.94831 -0.502417 -0.626209 -0.123569 -1.45127 0.31559 1.16377 1.10648 0.174736 -1.30524 -0.843809 -0.433721 0.259458 -0.0707303 -0.577909 0.636963 -0.251225 0.776433 -0.259452 -0.0265706 -0.752112 0.250828 0.0365098 -1.26282 0.044404 -0.377281 -0.168283 -0.0548145 -0.905963 -0.700336 0.1091 0.648113 -1.37015 0.0680287 0.606564 0.985955 -0.461872 0.38406 -0.209053 0.965096 0.0541234 0.12508 -0.935857 -1.12924 -0.362515 0.00847183 1.58787 0.274914 1.06139 -0.51894 0.799788 0.580629 -0.617897 1.05157 0.0804118 -0.00112438 0.0904441 0.4855 -0.0800465 -0.197077 
1.23413 0.517907 1.43818 -0.458513 -0.0291741 0.395253 -0.422931 0.187462 0.187355 -0.211275 -0.136616 -0.891055 0.508308 -0.235202 0.115128 0.819193 -1.02648 0.367831 0.0681991 -0.0936243 -0.630329 0.294341 0.542482 0.68822 -0.265027 -0.6426 -0.444454 0.249178 -1.16376 0.955251 0.180206 0.236988 0.931076 0.122799 0.356254 -0.79223 0.10657 0.0179276 -0.67171 0.0838363 -0.233167 0.843788 0.0472702 -0.228498 -0.254801 -1.93574 0.319452 -0.402516 -0.46071 -0.233636 0.735685 -0.132176 0.626625 -0.16578 -0.988066 -0.72523 -0.387946 -0.588107 0.470733 -1.92229 -0.79885 0.264455 0.429736 1.0803 -0.387425 0.279112 -0.0244477 -0.396578 -0.723608 -0.481993 -2.47835e-05 -0.0682138 0.427885 -0.0243585 0.529721 -0.597432 -0.20525 -0.344961 0.0690723 1.83183 0.603391 -0.383178 -0.0602414 -0.466639 -0.61152 0.749604 0.743806 0.174882 -0.381776 1.50742 0.008832 -0.264296 1.11369 1.11957 -1.17056 -0.27665 
-0.927265 0.570871 -0.422227 -1.18156 -0.30201 -0.857344 0.198832 0.73398 0.117685 0.483755 1.54745 0.653461 -0.119795 0.399574 -0.113893 -0.164175 1.15813 -0.0778545 -0.212955 1.60985 0.791851 -0.306981 -0.857163 -1.35467 -0.395201 -0.154861 -0.0770219 -0.454702 0.794566 0.745261 -0.619551 0.671957 0.0178667 -0.76619 0.0151143 0.0513465 -0.823207 -0.0696054 -0.45539 0.404646 -1.43119 -0.509031 0.43301 -0.353373 -0.600207 0.063158 0.605608 -0.250066 0.0414251 -0.155644 -1.60485 0.259122 -0.431511 0.530025 -0.172023 -0.385964 -0.612753 -0.569156 0.235226 0.0759243 0.706724 0.762732 0.0953791 0.397605 0.621067 0.279909 -0.243236 0.285064 -0.535935 0.223083 -0.705789 -0.950061 -0.475341 -0.122212 -0.668312 -0.707764 -0.331499 -0.283686 0.00395167 -0.499948 -0.374508 -0.38507 -0.078465 -0.831901 -0.470031 0.371926 0.843139 -0.205645 -0.0753795 -0.756291 0.993193 0.400835 -0.0600086 0.0976509 0.0914977 0.376849 
1.19925 0.657366 -0.32443 0.611356 -1.07206 -0.16693 -0.922219 1.2242 -0.0408425 0.766133 0.282373 0.678141 -0.892248 -0.117963 -0.0701598 0.512767 0.165552 1.10924 0.202492 -0.33022 -0.116759 0.232488 -0.454602 0.633848 1.30148 0.121839 -0.585325 -0.549027 1.12925 0.104662 0.855446 0.821737 -1.26525 0.209686 0.0527691 0.873355 0.145801 -0.795296 -0.199324 -0.0546021 -0.085388 -0.476918 0.995768 -0.771002 -0.0620672 0.0456198 -0.17931 -0.6533 -0.349405 0.410468 0.172229 -0.277189 0.0915617 0.11393 1.04699 0.123087 -0.0451496 0.693383 0.381223 -0.144315 0.146791 0.724779 0.240234 0.203458 1.32404 -0.180445 -0.702296 0.509968 0.815204 -0.439655 0.331753 -0.524242 1.32267 -0.280369 0.00375746 -0.481776 0.0528785 -0.817946 0.235476 -0.872721 0.547593 -0.0335788 -0.789738 -0.687897 -0.481934 0.149021 0.604003 -0.977885 -0.954625 -0.304238 0.0272632 -0.0820025 -0.454807 0.330696 -0.790403 0.238522 
0.83111 -0.340422 -1.12684 0.168079 0.546048 -0.483482 0.208407 -0.00281382 0.214552 -0.372014 -1.02378 0.518995 1.07904 0.576913 0.269611 -0.367461 0.107457 -0.76166 -1.50758 -0.725259 -0.591899 0.132719 0.907136 0.48267 0.269971 0.0838131 0.0888416 -0.696477 0.0643048 -0.15377 -0.459995 0.134987 -0.0099784 -0.381797 -0.820623 -0.236194 -1.67117 0.882882 -0.261036 0.734102 -1.57413 0.308704 -0.176272 0.777286 0.650707 -0.482612 -0.408152 -0.157654 0.116501 0.776157 0.832391 1.08422 -0.167873 0.255851 0.293798 0.366843 -0.644709 -0.254136 0.504665 -0.010342 -0.532736 -0.249453 -0.0114819 -0.482952 -0.0986357 -1.69322 0.283874 -0.954939 0.556417 -1.48035 -0.32993 0.612441 -0.00709564 0.888021 -0.369506 -0.569236 0.10109 0.808381 -0.180456 -0.427718 1.49679 0.114159 -0.187302 -1.24824 0.577878 -0.939728 1.08791 0.415851 -0.290291 0.762453 0.784074 -0.548878 0.307843 0.919052 -1.15181 0.327452 
0.0429253 -0.292725 0.212412 1.09089 0.729904 1.62113 0.940525 0.643128 0.617363 -0.52469 0.571033 0.0467607 -1.1314 -1.13194 -0.0383537 -0.0228875 -0.643877 0.504776 0.729852 0.85004 0.244503 0.358005 -0.27922 0.206195 0.434903 0.571458 -0.295939 0.151731 0.819413 0.262566 -0.782479 0.0975143 -0.252103 0.594045 -0.159722 -1.35554 1.07286 -1.31121 0.347929 -1.28647 -1.02631 -1.28342 0.5187 -0.910154 -0.903565 -1.04745 -0.141104 -0.36314 -0.529426 -0.372339 0.00455498 0.661143 -0.503195 -0.49055 0.925056 0.26768 -0.557881 0.857189 -0.629423 0.363807 0.399929 -0.741364 0.268055 0.559364 -0.711001 -0.00467502 0.730028 0.503571 0.0350063 -0.188905 0.247183 0.521304 -1.66805 -0.386781 -0.11363 -0.974971 -0.207151 -0.0813714 0.70809 -0.409589 1.43868 -1.34067 0.193644 -0.624256 0.599577 0.858706 -0.232797 -0.473481 -0.470633 1.09697 0.099618 0.463962 -1.0551 0.835457 0.310493 -0.708671 
-0.467418 0.21238 -0.391131 1.05861 -0.171627 -0.652109 -0.855429 -0.140799 -0.861201 0.0912888 -0.229303 0.0622339 0.134918 -0.702666 -0.345788 0.464359 -0.18833 0.608141 -1.051 0.917374 -0.289162 1.17715 -0.312011 -0.0457961 0.428752 -0.486939 0.104096 0.219555 -0.172927 0.276732 -0.8401 0.663511 0.355238 -1.0165 -0.177586 1.17791 -0.413074 -0.917129 0.649165 0.0212571 -1.55717 0.907469 0.00809657 0.442643 -0.762202 0.328412 -0.238234 -0.660388 -0.660068 0.396374 0.510046 0.0303918 -1.00704 -0.0541236 -1.11407 0.0273299 -0.0937087 -0.855509 0.71927 0.244903 1.17252 0.834813 0.0470205 0.814659 -0.499144 -0.846011 0.736608 -0.0979045 0.126113 -0.661002 -0.149762 0.0999842 0.742882 -0.981666 0.240547 -0.11945 1.11618 -0.415944 0.0548089 0.00513759 0.128472 -0.273848 1.1069 1.03387 0.0983646 1.51119 0.0201693 0.957854 -0.335367 -0.505678 -0.2804 0.304276 0.307962 1.35688 0.491462 0.513662 
0.162529 0.354427 0.406741 0.864408 -0.0873428 -0.515582 -0.250747 -0.282376 0.210919 0.184551 0.26581 -0.671073 -0.674581 1.41977 -0.669917 -0.837064 -0.228694 0.101198 0.19108 -0.985026 -0.408284 0.254215 -0.797922 0.0867217 -0.22541 -0.445769 0.164175 0.0825778 0.595542 -0.774931 0.331188 0.24769 0.0669883 0.595759 0.834754 1.66214 -0.260254 0.304233 -0.389084 -0.140192 0.210714 0.471928 -0.783059 -0.457969 -1.37384 -0.775762 0.682334 -0.160084 -0.288929 -0.101133 -1.35446 0.600403 0.157211 -0.675712 -0.694559 -0.507657 0.0248864 -0.0367847 -0.569526 -0.151888 -0.439744 0.626995 0.542283 -0.0655714 -0.638345 -0.279497 -0.406246 0.426204 -0.376787 0.0482342 -0.710536 -0.249053 -0.272733 0.138627 -0.122148 1.18669 0.154914 -0.18194 0.183684 -0.90908 0.177572 0.807911 -0.408901 -0.126278 -0.341687 -0.255246 0.235247 1.19152 0.263613 -1.24427 -0.0766447 0.931542 -0.237932 0.482448 0.174378 0.368365 
0.494225 -1.28287 -0.89339 -0.547327 -1.34125 0.630997 -0.006118 -0.418217 0.0406927 0.0807219 0.502944 -0.362088 0.53943 0.595011 0.296092 0.629052 0.355368 -0.0381978 0.252983 1.26912 0.661824 0.780393 -0.0211517 -0.421241 -1.21058 0.0193317 0.916875 0.16383 -0.792348 0.394723 0.0288218 -0.663902 0.839676 -0.186324 -0.337846 0.0913947 -0.294903 -0.0743291 -0.385544 -0.370052 0.409592 -1.49747 -0.513311 0.606667 -1.14006 -0.785859 -0.820143 0.151525 0.986199 -0.162008 0.709083 -0.0746192 -0.381465 -0.656183 1.57137 -1.55462 -0.121613 0.308074 -0.241208 -0.653281 -0.175164 -1.21523 -0.41318 0.311827 -0.683741 0.296427 0.130729 -0.67119 -1.04822 -0.910703 -0.892865 -0.71093 -0.0178181 0.648465 -0.267993 -0.69595 -0.0183243 0.146515 0.0200806 -0.0792908 0.192557 -0.523322 0.773318 0.219218 0.350228 -1.89474 0.674984 -0.275492 0.002361 0.814104 -0.0309912 -0.637001 -1.19954 0.319967 0.73832 -0.338528 
-0.0402622 -0.262774 0.671365 -1.02947 0.459058 0.491827 -0.766915 0.741791 -0.123089 -0.543772 0.964974 0.258803 -0.547148 0.0215519 0.859661 -1.79083 0.00663099 -0.498818 -0.549716 0.451142 -0.984297 0.0983002 0.0644862 -1.12905 -1.2885 -0.255286 0.303239 -0.926543 -0.466457 0.176419 -0.659904 0.327286 -0.0407606 -0.415695 -0.231795 0.457466 0.122475 0.747004 -0.401835 -0.902784 -0.267622 -0.621268 0.153988 -1.37663 -0.881202 -0.405611 0.19036 0.511665 0.433323 0.851883 0.3709 -0.320279 0.5399 0.824065 -0.550022 0.520265 0.530797 -0.276666 -0.286503 0.659637 -0.177537 0.755704 0.523058 -0.149658 -0.0724789 -1.34775 0.89742 -0.203072 -0.236006 0.975433 0.121355 -0.448796 0.382978 -0.366928 0.727015 0.917735 0.834099 0.237079 -0.0798771 0.0345966 -1.49275 -0.551793 0.655923 -0.714217 -0.334525 -0.54776 0.118183 1.33174 0.530204 0.118484 -0.301184 -0.319432 0.0382982 0.00498924 -0.0548672 -0.659966 
-0.0454688 0.0429006 -0.0893236 0.39356 -0.288634 -0.959469 0.928199 0.823906 -0.182526 -0.198049 0.180683 -0.785353 -0.309894 1.00557 0.82044 -0.151635 -0.107908 -0.906769 1.01418 0.121001 -0.240803 0.397127 0.851728 -0.483454 0.117906 0.793424 0.00358708 -1.04288 -0.345977 -0.529731 -0.892938 0.0477339 -0.453452 -1.59844 0.425237 0.015637 -1.40281 -0.294132 1.0214 -0.67003 1.05069 0.0330138 1.45652 0.14832 -0.378363 0.305092 -0.113107 -0.129814 -1.07654 -0.744751 0.426217 -0.0148352 0.260053 -0.785966 -0.0360233 1.46883 -0.480674 0.30883 0.197177 -1.46898 0.711096 -1.67006 0.217787 0.427493 -0.232949 1.34505 -0.154468 1.23598 0.25139 -0.997011 1.02392 -0.108219 0.498012 -0.428189 0.0115406 0.0728462 0.531677 0.736625 1.06779 0.697804 -0.824977 0.715637 -0.585422 0.578088 -0.818753 -0.207592 -0.638724 0.0874721 0.555544 1.47154 -0.982787 0.811985 -0.123259 0.00877297 -0.530695 -0.151543 
0.110025 0.465069 0.383319 0.133627 -0.0105933 0.28866 -0.475786 0.432839 1.35515 0.0148629 0.180052 -0.12531 0.754702 0.183962 -1.19557 -0.484673 -0.556443 -0.11328 -0.861909 0.246023 0.581542 -0.0800808 0.558847 0.295741 -0.460422 0.805187 0.692618 0.888867 0.196535 -0.236882 -0.376517 0.362861 -0.278262 -0.580786 -0.638309 -0.567921 -0.181253 -0.0503292 -0.908104 1.62939 -0.690188 0.235733 -0.891034 -0.199251 0.562947 -1.22413 -0.546545 1.12425 0.366736 0.124437 -0.160136 1.39536 0.254029 0.526826 0.457858 0.173365 -1.6762 0.485611 -0.0220846 0.483639 -0.0148935 0.82128 -0.784316 -0.210231 0.667692 0.300567 0.246674 -0.0441951 0.0224281 -0.293381 0.312417 -0.491005 -0.486557 0.313628 -0.14918 -1.12193 -0.250739 -0.872015 -0.440362 -0.346449 1.34838 -0.109967 0.595627 -0.307462 0.0547642 1.05669 0.318539 0.355561 0.555071 0.493007 -0.103736 0.254508 -0.658585 1.08945 -0.207369 0.609865 
0.195985 -0.578256 -0.696449 -0.44779 -0.497596 0.103287 -0.289527 0.410339 0.475357 -0.888524 -0.917317 0.233132 -0.559088 -0.788935 1.07183 0.170121 -0.866385 -0.582335 0.15739 -0.582698 -0.265375 0.189048 0.136622 -0.832807 0.0649435 1.01519 1.29988 -0.523975 -0.317919 0.263286 0.0594574 0.0323714 0.000864678 -0.345518 1.61252 -0.950673 0.204876 0.85174 0.380562 0.076624 -0.0934267 -0.0929941 -0.52731 -0.0596961 -0.0152166 1.48065 -0.927193 -1.2459 0.719597 0.331092 0.75224 0.522423 -0.318439 -0.925039 -0.777029 -0.413867 0.210652 0.623005 1.92361 0.882474 0.866594 -0.117462 0.636239 -1.01637 0.417854 0.8091 -0.397868 -0.757674 -1.19486 0.560641 1.4422 0.541441 -0.468855 -0.211069 0.326141 -0.107929 -0.181397 0.320791 -0.40552 0.360299 -0.685288 -1.16719 0.593841 0.677021 -0.0246542 -0.135357 -0.134105 -0.00681795 -0.19825 0.0168853 0.468489 1.35848 0.54363 -0.273365 0.738107 0.175611 
0.532705 -0.195751 -0.0837937 1.31535 -0.792744 0.405 -0.341118 -0.755656 0.0656896 -0.318099 1.25524 0.314674 0.0114233 -1.07679 -0.987849 -0.823462 -0.0949932 0.305809 0.00466768 0.0357087 0.162788 0.0373802 -0.248727 -1.315 -0.772555 -0.612544 1.70059 0.0496179 -0.525663 -0.654031 1.33563 -0.720215 0.448967 -0.731852 -0.178648 -0.266376 -1.5255 -0.0991544 0.394996 -0.391559 -0.845254 0.592301 0.59432 -0.274588 0.397249 0.10778 -0.301378 -0.651581 -0.638639 0.376148 -0.559924 -0.623517 -0.477979 1.12568 -0.31607 -0.174596 -1.22878 1.44345 -0.725096 -0.196408 -0.217771 -1.20097 -1.03209 1.7573 0.833675 -0.423741 -0.92735 0.568377 -0.0702815 1.54562 0.171553 0.692596 -0.427278 -0.262692 0.138988 0.831816 -0.0885524 1.1895 0.918695 -0.282792 -1.07233 0.559429 -0.926761 -0.396591 -1.39098 0.406486 1.03988 1.06492 0.580625 -0.219131 1.41394 -0.398299 0.0645429 0.332327 0.740991 -1.85917 
0.579398 0.401204 0.857832 -1.08041 -0.46348 0.452749 0.165532 -1.20758 -0.934944 -0.0570714 -1.1891 1.09651 0.79813 0.439673 1.64356 -0.195192 0.553976 0.378549 1.67436 0.261012 -0.563697 0.586112 0.433326 0.537123 -0.566025 -0.545438 1.53649 -0.0394073 0.638744 -0.156328 -0.0103099 0.0845804 -0.306719 -0.460038 0.0475039 0.0626808 0.45649 0.465362 -0.389221 -0.195473 -0.582595 -0.77558 0.656637 0.0823222 1.35514 -0.938621 -0.753045 -0.347556 0.468377 0.634282 0.211825 -0.0413773 -0.201864 0.344398 0.992827 0.60032 0.165847 -0.113072 0.86972 1.034 -0.244856 -0.988431 -0.539607 -0.129348 0.138751 -0.404302 0.291049 -0.768188 -0.0161258 -0.443612 -0.333637 -0.920421 0.363514 -0.296774 -0.124622 0.0485886 0.227782 0.708562 0.386638 -0.142624 -0.0626309 -0.237559 0.0671806 1.02727 -0.743848 -0.877383 -0.393787 0.742088 0.190732 0.317724 -0.257076 -0.0972794 -0.596898 -0.682467 1.83487 -0.457274 
-1.62149 0.865307 1.16053 0.178552 1.24425 0.714474 -0.549351 -0.498154 0.929073 0.860219 -0.924108 -0.375213 -0.380929 0.0797112 0.14717 0.834775 -0.754937 -1.05127 -0.343468 0.485249 -0.912713 -0.19328 0.330204 -0.74867 -1.14198 0.164902 0.55626 0.277038 0.730847 0.591457 0.491462 0.918365 -0.324988 0.0690696 -0.0211186 0.171726 0.0440008 -0.173052 0.514784 0.258975 0.165701 0.0876358 -1.24327 -0.344262 -0.967752 -0.755535 0.482473 0.189692 -0.624121 -0.256936 0.348993 0.855628 0.294453 -0.0917132 0.193455 0.566851 0.669271 -0.544348 0.0538209 0.439502 -0.577064 0.71759 0.593618 -0.246668 0.622536 -0.970851 -0.658199 -1.05614 -1.23124 -0.092692 -0.222344 1.27761 -0.152661 1.65803 0.604148 -0.366346 0.764462 0.0251369 0.256593 0.0655639 -0.00456762 1.20007 0.0454277 -0.478872 -0.265378 0.131004 0.75134 -0.014846 -0.156873 -1.14274 -0.113874 1.41674 -0.106225 0.715197 -0.0147385 0.898876 
-0.685614 0.737155 -1.0933 -0.0666894 -0.305675 -0.495983 0.766939 1.1883 0.178935 1.09874 0.440653 -0.421251 0.129676 -0.888414 0.0994122 -0.485516 0.304481 -1.08271 -0.544375 0.45767 -0.343597 -0.631548 -1.80441 0.32167 -0.42575 2.2752 0.00416548 -0.206987 -1.25879 0.284367 -0.789723 -0.0352861 0.0903878 0.0884106 -0.285544 -0.463289 -0.308099 -0.104974 -0.872555 0.38966 0.139586 0.65073 0.73113 0.347424 -0.883067 0.307305 -0.0161277 0.295052 -0.876807 -0.45627 0.358319 0.119967 -0.257612 -0.976005 0.873659 0.78131 -0.601203 0.855011 0.656783 0.372734 -0.831804 1.796 0.274032 -0.145341 -1.03157 -0.233292 0.0847293 0.323812 0.290742 0.881147 0.541273 0.00452754 0.696418 -0.729164 -0.925862 0.235171 -0.310777 0.227089 -0.203693 0.546598 0.0477551 -0.772548 -0.322672 0.402661 -0.706991 0.426831 -0.19112 -1.63923 -0.479897 0.129459 0.259298 0.302131 -0.7714 0.192607 -0.14003 -0.136471 
0.797016 0.474639 -0.921429 0.0673869 -0.110167 -0.139884 0.631766 -0.712452 -0.328255 -1.0299 1.21962 0.392899 -1.19213 0.304885 -0.824493 -0.497299 -0.412313 -0.454071 0.00328765 0.741631 0.46693 0.245142 0.511205 0.81067 -0.109825 0.726347 0.258299 -0.0679358 0.954182 -0.243539 -0.844336 -0.3373 -0.763948 -1.15344 0.222324 -0.494577 -0.494662 -0.91514 -0.340828 0.0244659 0.116935 -0.385837 0.482818 0.72255 -0.93859 -0.695029 0.0772265 0.335637 -0.149281 0.759529 0.0858886 -0.204546 -0.672301 1.06937 0.190232 0.762357 1.1497 0.155828 -0.205572 -0.0572053 0.359084 0.708982 -0.321563 0.57083 0.521908 -0.127319 -0.293687 1.24512 -0.486697 -0.739181 -1.80983 0.485523 -0.619042 0.672022 -0.178126 -1.32282 -0.0461129 0.528466 -0.275942 0.0580314 -1.55565 -0.20462 -1.02345 0.400894 -1.12724 0.259745 -0.834019 0.384474 -0.409897 -0.636083 0.542309 0.507746 -0.190205 0.536632 -1.14265 0.340353 
0.606756 -0.357363 0.449632 0.422954 -1.32247 0.0692202 -1.27859 0.030496 -0.169816 0.103775 0.539836 0.753717 1.1507 -0.293023 0.404675 -0.374758 -0.149098 -0.759577 0.480682 -0.336632 -0.335621 -0.277005 -1.07078 0.469525 0.386705 0.76353 -0.325392 -0.287349 0.530245 1.09939 -0.450611 -0.207026 -0.764696 -0.411912 0.506403 -0.183499 0.268336 -0.37548 0.273856 0.0347772 0.559617 -0.36325 0.477352 -1.75336 0.194971 0.767694 -0.576837 -0.784357 -0.650879 1.16619 0.264158 0.29161 0.335304 -0.221259 -0.192737 0.320745 0.307298 0.303755 -0.562763 -0.328736 -0.6947 -0.749223 -0.805529 0.262644 -0.465884 0.353375 0.229607 -0.371381 -0.23095 0.075125 1.36393 0.0731578 -0.0329252 -1.18052 -0.885127 -0.232406 0.169855 0.669884 -0.618772 -1.4072 -0.24599 0.596398 0.876082 -0.130544 0.53781 0.442157 0.637626 1.08227 -0.282985 0.0772115 0.078693 1.09021 0.0138967 -0.193218 0.0445231 0.811676 
-0.341553 0.0344347 1.2733 -0.159968 0.475498 -0.257664 -1.137 0.517857 -0.352396 -0.692068 0.0447858 -0.897559 0.80399 0.286352 -0.108085 0.686187 -0.908903 -0.643486 -0.860164 -0.784096 0.201624 -0.119738 0.541054 -0.242066 -0.260974 -1.04033 0.463125 -0.0205046 0.713745 0.398732 1.15927 0.73375 1.64094 -0.887577 0.17469 -0.0481175 -0.370117 -0.895616 -0.860298 -0.0340986 0.680446 0.393295 0.217379 1.0763 0.889936 -0.265603 1.02547 -0.413025 0.302692 0.235937 0.0782672 0.922358 -1.14964 0.237205 0.308498 0.325631 -0.863326 1.3566 -0.901983 0.133923 0.446167 -0.0233173 -0.72557 0.011763 -0.938187 -0.369188 0.904077 -1.51092 -0.937922 0.063527 -0.0955917 0.0396904 0.766012 1.5845 0.160561 -0.0492662 -0.915796 1.18923 -0.41044 0.989032 0.383898 0.713385 0.373291 -0.528892 0.88702 -0.33633 -1.10288 0.684882 0.381371 -0.810403 -0.574516 0.0603634 0.0134926 -0.100639 -0.2556 -0.952283 
-0.392331 1.22182 -0.907813 0.939238 0.132442 0.195997 0.609191 0.19718 -0.201682 -0.157698 -0.517432 -0.515518 0.278136 -1.97287 0.424441 -0.263737 -0.296453 0.706702 -0.752663 -0.619642 0.470821 0.257143 -0.32991 -0.0193528 -0.458458 -0.720457 -0.411335 -0.347488 0.128472 0.461362 0.196365 -0.594011 -0.513781 -0.306907 0.229205 -0.516168 0.145449 0.402585 0.769271 -0.447042 0.335791 -0.268128 -0.787938 0.663823 -0.480223 0.0165915 -1.03313 -0.32925 -0.664317 -0.181103 -0.728731 -1.08599 0.414128 -1.056 -0.703784 -0.412841 0.019741 -0.296962 -0.335445 -0.540826 0.929419 -1.2415 0.403206 -0.281756 0.827867 0.380507 -0.307102 0.632763 0.324112 0.140008 -0.285562 -1.59512 -0.32941 -0.874837 1.42052 -0.203344 0.231407 0.470328 -1.17791 -0.111007 -0.430018 0.25658 -0.40806 -0.276791 1.01714 0.534784 0.454411 0.067969 -0.282387 -0.863488 0.209012 0.206052 -0.0523748 0.349913 -0.0192629 -0.234129 
-1.00935 0.566384 0.0874472 -0.0832509 0.542507 -0.396997 0.260383 -0.0504724 -0.70486 0.534271 -0.0414206 -0.960661 0.285513 0.877341 -0.695829 -0.868206 -0.107517 0.199443 0.311041 0.490978 0.412749 -0.950252 -0.0410552 1.11495 -0.878001 0.220355 0.357991 -0.300452 0.451631 -0.128855 -0.258142 1.16551 -0.587805 -0.0774165 -1.26346 -0.928222 -0.895634 0.13688 -0.963863 -0.173955 0.430545 0.753312 -1.80335 -0.652291 0.243855 0.0671952 0.124987 -1.09955 -1.01044 1.17416 0.28342 0.666074 -0.257531 -0.468049 -0.701545 0.0438703 0.345109 0.00423896 0.207567 0.935481 0.203119 0.802511 -0.945509 0.00816695 -0.138278 1.04143 0.106492 -0.153496 -0.0507774 0.96954 0.0708965 -0.0599685 -0.862379 -0.0170919 -1.02043 0.357815 -0.934992 0.753441 -0.254352 -1.04102 0.462525 0.292373 -0.619365 0.324392 0.342421 -0.345189 -1.06912 1.03767 0.787493 0.304702 -0.0650004 1.33902 0.69306 0.710831 0.280673 -1.77308 
-1.05857 0.690895 1.07989 -0.150388 0.705398 -0.660167 -0.426438 -0.39971 0.0257525 0.329396 -1.04988 0.1028 -0.168672 -0.573499 -0.175414 0.0496305 -0.952451 -0.6281 0.9933 -0.329629 0.16853 -0.790881 -1.31902 -0.128318 1.16929 0.0428265 0.39455 0.656005 -0.520844 0.0560451 -0.936405 0.0700058 0.579336 -0.232016 1.07366 0.15318 -1.87858 -0.544938 0.866628 0.281292 -0.228941 -1.73172 0.151662 -0.556755 -0.251809 0.384622 -0.376336 0.878996 -0.0391252 -0.36912 0.0416219 -0.270837 1.12974 -1.61607 -0.800558 0.0611239 1.12344 0.279008 -0.459736 -0.00998311 -1.00083 1.0286 -0.407266 0.303148 1.17779 0.436791 -0.374059 0.40088 -0.449168 0.0220697 -0.105597 -0.699659 0.629812 -0.554514 0.0315068 1.15683 -1.35812 0.594162 -0.286315 -0.584913 0.236908 -0.654439 0.601314 0.357942 1.40235 -0.371019 -0.00887543 -0.0374976 0.128451 1.1179 0.0413766 0.676188 0.0494627 -1.37891 -0.0966117 0.785875 
0.440771 -0.506272 1.07576 0.466139 0.998892 0.529338 0.351289 -0.737759 -0.823485 0.707346 1.05556 1.04319 0.542691 0.5267 0.114755 -0.379072 0.0300126 0.808937 0.186401 -0.58066 -0.641858 0.657483 -1.31745 0.5889 0.144683 0.387657 -0.360033 0.280076 -1.30233 -0.423954 -0.351141 0.192172 0.782909 -0.0109166 -0.0213757 0.128135 0.235901 -0.966248 1.29569 -0.364676 -0.377513 0.108637 0.394699 0.387799 0.314391 -0.831233 1.28301 0.664278 -0.0883463 0.114396 -0.101516 -1.32473 0.268725 0.867866 -0.218987 -0.53304 -0.431195 0.936858 0.271054 -0.346618 0.661285 0.663693 1.32431 -0.430514 0.262711 -0.635755 -0.304523 0.55107 -0.122558 0.151172 0.143967 -0.809673 -1.02368 -1.44346 0.0942075 -0.441409 0.763328 0.0252402 -0.961593 -1.03541 1.05501 1.18354 0.300655 0.904765 -0.768874 -0.426428 -1.22826 -0.161055 -1.00954 0.9114 -0.00858467 0.571228 0.823863 0.410552 0.407725 0.476778 
0.43224 0.463982 -0.171805 -0.396604 0.0168283 0.251964 -0.174455 -0.537053 -1.31483 -1.05396 0.785263 0.749701 1.33052 0.895812 0.819864 -0.0722777 -0.514587 -0.384673 -0.762983 -0.374828 -0.521068 0.660618 0.736289 0.472802 0.271657 -0.511667 1.71329 -0.400125 0.0360492 0.146813 -0.632961 0.833598 -0.239453 -0.413947 0.263815 0.249943 -0.349892 0.288477 0.372966 -0.707985 -0.590534 0.146921 -0.378757 -0.519551 -0.130313 0.351865 -0.25341 -0.697801 0.85522 -0.866395 0.0562215 0.174465 -0.453053 0.298205 0.177569 0.270293 -0.375012 0.179193 -0.202498 -0.45569 1.362 0.476822 -1.40535 -1.35723 -0.669646 -0.608126 0.77593 -0.136127 0.953985 -1.24469 0.84579 0.494558 0.062011 1.12822 1.09505 -0.768298 0.0224678 -0.438976 -1.00183 -1.24472 -0.318217 0.141911 -0.295035 0.592591 0.679167 -0.198377 -0.588808 -0.578247 -0.744966 -0.0515054 0.530823 -0.322206 1.40356 0.652875 1.73341 0.0437021 
-0.37117 1.43645 -0.91057 0.322637 0.399388 -1.08051 0.101623 0.883718 0.471841 -0.883674 0.536361 -0.492782 0.0718595 -0.441798 -0.433355 0.197057 -0.797311 -0.511925 0.790451 -0.608505 -0.275724 -0.171462 -0.0932248 -0.301193 0.216887 -1.11723 0.596381 -0.51887 -0.274266 1.85534 1.63007 1.17103 0.768325 -1.107 0.772529 0.228484 -0.515251 -0.441339 -0.232709 -0.570012 0.694325 0.156155 0.885008 -0.13153 0.0107087 -0.413089 -0.399593 -0.48071 -0.428242 -0.252455 -1.04244 -0.895212 0.522903 -0.650443 0.086041 0.443689 -0.343603 0.0307 0.575412 0.00136394 -0.389436 0.255865 -0.423543 0.131381 0.0195304 0.178957 0.228958 -0.0672103 0.479151 0.153051 0.0255899 0.125968 -1.63714 -0.473525 -0.210133 -1.21465 -0.768303 -0.535196 -0.121644 -0.910816 0.183066 0.460864 -0.591629 -0.552189 0.170033 -0.126119 0.593305 0.274557 0.849114 -1.20559 0.0802571 0.771074 0.085839 -0.109164 0.576527 -0.394292 
0.59594 -0.234384 0.85146 0.494415 -0.676554 0.437004 -0.538143 -0.069746 0.752923 -0.26939 0.153599 0.0504128 0.559675 0.125809 -0.127362 0.34692 0.331109 0.390003 0.876111 -0.626631 0.743195 -0.596681 0.021345 0.457532 -1.41602 0.617655 0.518905 -0.0234446 0.0701453 0.905853 -0.600407 0.0799004 0.0646635 0.0337092 -0.901348 -0.248424 -0.624158 -0.225345 0.435148 -0.024733 0.869219 -0.181318 -1.0619 0.641836 -0.260429 0.407203 0.296916 -1.192 -0.113545 0.635893 -0.178781 0.533696 0.620756 -1.24927 0.571049 -0.157009 0.429447 -0.0216002 -0.317582 0.454204 0.0437397 0.0596871 0.386568 -0.998816 -0.376852 -0.976195 -0.624466 0.147252 0.347882 0.332664 0.888651 -0.959399 -0.938435 -0.336276 -0.205434 -0.00898142 1.50494 -0.390498 -0.649575 0.0263061 -0.853546 -0.11166 0.364214 0.0804052 0.539226 0.658838 -1.08475 -0.359903 -0.886928 -0.616774 -0.195559 -0.538424 -0.440208 0.913633 0.156859 0.27954 
0.846067 -0.158903 -0.570682 0.767262 0.387228 0.167483 1.11775 -0.692017 0.415286 0.327864 -1.18914 -0.407986 0.0937181 -0.608798 -0.0104242 -0.526523 0.427459 -0.843685 1.82006 -1.04065 -0.447704 -0.122704 -0.644288 -0.126445 0.114223 -0.429149 -0.180956 0.695774 -0.170428 -1.11598 -0.586476 -0.151478 -0.0947914 0.828063 -0.53701 -0.46259 -0.31705 -0.299275 -1.38401 -0.378416 0.273365 -1.01632 -0.107848 -1.75408 0.166161 -0.579391 -0.890391 1.90795 -0.107289 -0.8814 -0.53314 -1.33244 -0.803594 1.15941 0.419138 0.315704 0.541933 0.938534 0.955102 1.07235 0.788296 -0.0266776 0.389528 -0.403295 -0.302987 0.806033 -0.298648 -0.186 -0.0846723 -0.555243 0.523194 -0.59726 -0.18605 -0.199645 0.677384 0.765989 -1.02288 0.626569 -0.224695 -0.0475642 -0.897634 0.313488 0.599454 0.512911 -0.717055 0.112689 -0.809497 -1.14932 -0.719354 0.68284 -0.238015 0.00980189 1.20667 -0.654631 0.570389 0.152433 
-1.15351 0.130573 0.647229 0.813863 -0.0928188 -0.869148 0.884957 0.52934 -0.00672678 -0.0853202 -0.157355 -0.00353732 -0.610407 -0.422943 -0.498747 -1.04579 0.503449 0.339559 0.0045991 -1.2915 -0.230231 0.4382 -0.897304 -1.64645 0.427215 0.990359 0.0170175 -0.730546 0.0022489 0.733236 -0.133148 0.29386 0.776721 0.576454 0.638611 -1.24044 0.0212214 -1.02465 0.657576 -0.42657 0.324069 -0.0804141 1.0882 0.257868 -0.043568 0.559498 -0.186611 -0.416666 -0.940725 0.176606 1.15683 0.306648 -0.228262 -0.0809335 0.440554 0.0138205 0.434198 1.14381 -0.232922 -0.360262 0.577563 0.132221 -0.652168 -0.330827 0.835886 -0.186564 0.495034 -0.159506 -0.243593 -0.676076 0.225365 -1.54917 0.094147 -0.79414 0.890952 0.568334 0.0477014 -0.109506 0.159656 -0.509847 -0.0554194 0.560387 0.308092 0.140013 -0.463896 0.0748418 -0.452989 0.499482 -1.56375 -0.379275 -0.327664 -0.507246 0.177053 -0.292916 0.52133 -0.035713 
0.97284 0.11986 1.51368 -0.423257 -0.784953 -1.31566 -0.957713 -0.810356 -0.833729 0.501297 -0.144889 -0.455507 0.951809 1.13085 -0.0159616 -0.409026 -1.38499 -0.378718 0.856675 0.579957 0.32508 0.475207 1.13089 1.1416 0.0885477 -1.38482 -0.801523 0.906979 -1.04203 0.559966 -0.226837 -0.607256 0.01735 0.134759 -0.300324 0.962727 0.611894 0.428562 -1.50765 -0.0999336 0.673817 -0.568196 -0.309755 -0.825587 -0.0747333 0.00788581 -0.0878781 -0.176286 -0.623088 0.745394 0.368324 -0.86473 -0.728802 -0.301389 1.46895 0.178137 -0.0325053 0.92852 0.851129 0.0616599 -0.168224 0.00111341 -0.434535 0.576226 0.613149 -0.0638682 -0.0857596 0.0916267 0.638985 0.358519 -1.47355 -1.11616 1.44958 0.0293919 1.43368 1.02908 -0.43742 0.547278 0.679436 -0.146453 -0.385842 -1.10313 -0.130173 0.721895 0.660595 -0.578241 -0.537203 -0.355271 1.0714 -0.725236 0.235383 0.819477 -0.427662 -0.197743 -1.28246 0.692983 
-0.310161 0.158221 0.105518 0.233063 -0.270964 1.2352 0.290643 0.954469 -1.33704 0.31006 1.07783 0.440451 -0.72658 -0.358073 1.06896 -0.226284 0.310703 -0.344175 0.385385 -0.892614 -0.657419 1.06446 0.582622 0.249133 -0.661961 -0.465118 0.669084 0.0718601 0.525949 -0.917475 -0.411709 -0.950449 0.508248 -0.355933 -0.990881 -0.671973 -0.402935 0.323543 -0.664512 -0.00149377 -0.808415 -0.127672 -0.307692 -0.442729 -0.167581 1.43068 -0.813201 0.186383 1.66886 0.873972 0.579865 1.20074 -0.29549 0.501246 0.460275 -0.143205 -0.739398 0.602306 0.478663 0.343546 0.73715 -0.817089 -0.514296 -0.302063 0.457613 0.436118 0.653526 -0.392329 0.613954 0.312794 -0.39417 0.380887 0.725963 0.777762 -0.490251 0.671744 0.82622 0.201449 -0.434961 1.8044 -0.226354 -0.959218 -0.65358 -0.0849562 -0.249434 0.264686 -0.0408753 -0.219978 1.08059 0.167281 0.190724 -0.729043 -0.229228 0.246264 0.888648 -0.130149 
-1.11338 -0.795355 -0.573231 0.841847 0.147885 -0.187129 0.477077 0.373604 0.185677 0.601698 0.220103 -0.346718 -0.731654 -0.956231 0.248047 -0.747513 -0.612889 0.320057 1.40973 -0.195545 -0.128301 1.32667 -0.516021 -0.141197 0.0423064 0.726116 -0.588082 -0.890851 -0.136748 0.188866 -0.6847 -0.34548 -0.808198 0.666023 0.18836 0.889948 -0.415113 0.0419971 0.228673 -0.777035 -0.274655 -0.745887 -0.26706 0.19631 0.101782 -0.212362 0.46136 -0.714648 0.73701 -0.5418 1.31916 1.00571 0.09919 1.31484 -0.155525 -0.185277 -0.221682 -0.277902 -0.00773819 -0.153452 -0.26095 -0.611294 -0.232763 -0.601066 -0.184596 0.423542 1.07093 0.473317 0.652311 0.142556 -0.498514 -1.2879 -1.11454 1.00828 0.0689283 0.0785835 -0.142071 0.60391 1.17047 -0.072766 0.575837 0.671694 -0.177744 0.154882 -0.399623 -0.330654 -0.313308 -0.103929 -0.34164 0.711304 -0.87062 0.583944 1.00899 -1.01399 -0.821958 0.398778 
0.405129 -0.0138205 -0.006257 0.830747 -0.0185565 -0.502538 -0.0720609 0.87838 0.147495 0.224142 0.0976354 -1.66534 -0.567121 -0.641357 -1.54984 0.691714 -0.319277 -0.0351461 0.385232 -0.447705 0.309962 0.471419 0.503444 0.648453 -0.462535 -0.695522 -1.06933 0.181228 -1.03706 -0.252609 0.215791 -0.250015 -0.455073 -0.80518 0.811844 0.0113013 0.49239 -0.00264723 0.786077 -0.225359 0.0370457 -0.620709 1.14377 0.878393 -1.00992 1.02978 0.174619 -0.771554 -0.480014 0.0341816 -0.119864 0.400565 -1.66815 0.195667 1.08437 -0.204304 0.136325 -0.625143 0.296573 1.50727 0.195367 0.657733 0.239373 -0.242728 -0.487849 -0.257997 0.226542 0.339363 0.790205 -0.0187223 -0.50167 -0.620133 -1.24868 -0.278424 -0.0435527 0.0534371 -0.832653 0.657481 0.505751 -0.662992 -0.515522 0.31411 0.210903 -0.938549 -1.59081 1.08542 -0.280689 -0.937376 -0.563332 -0.0450231 0.205326 0.433311 -0.599786 -0.0841054 0.349961 0.00686231 
0.491862 -0.34193 0.0733246 0.809699 0.913576 0.294662 -0.84243 0.0860916 0.973522 -0.185049 -0.37894 -1.38765 -0.0310257 0.689001 -0.377244 0.000510109 -1.10297 0.322762 -1.20844 -0.456849 0.336778 -1.3834 -0.0223449 0.81609 -0.463709 -0.713622 0.346608 -0.216089 -1.01569 -1.08997 -0.476681 -0.29683 0.833228 -0.526977 0.686516 1.28958 0.367298 -0.552101 0.0962625 0.503359 -0.066309 -0.326598 -0.401751 -0.348964 -0.0166801 0.116378 0.853998 -0.753257 -0.276005 0.148548 -0.587136 -0.191951 0.829904 0.432152 0.622995 0.535685 0.209123 -0.915809 -0.339419 -0.782702 0.152369 -0.180065 0.0372054 1.45585 0.767951 -0.00922009 1.03266 1.11888 -0.349875 -1.29558 0.250398 0.682506 0.320748 0.651635 -0.439292 0.183896 -0.425481 0.521507 1.08806 -0.893408 0.379838 -0.753005 1.06616 -0.0939504 -0.43456 0.8734 0.429739 0.741181 -0.59905 1.02729 0.384226 -0.469515 -1.10135 0.379769 -0.880616 0.223726 
-0.724686 -0.370757 0.78241 0.203074 0.554627 0.792035 -0.136745 1.08173 0.20908 0.845151 -0.885876 -0.221334 -0.0280687 0.741097 -0.201835 0.0424071 -0.528364 -0.043545 -0.251926 0.464683 -0.421274 -0.401175 -0.629626 0.165653 0.06605 0.553353 -0.322884 -0.465926 1.13726 0.485384 0.371941 -0.325386 0.27047 -0.293607 -0.292706 1.16122 0.527385 -1.15366 0.0856683 -0.142163 -0.876514 0.0455779 0.0878019 -0.499017 0.391864 -0.654531 -0.538669 -0.997917 0.269353 0.0800632 -0.620406 -0.213881 0.630295 0.203923 0.263825 -1.22714 0.96441 -0.50865 -0.344532 0.227418 0.672978 0.252945 -1.50172 -0.129488 -0.87984 -1.01942 -0.752809 0.42224 0.176966 -1.08362 0.758473 1.23011 -0.254344 -0.689466 -0.0788648 -0.364731 -0.0612847 -0.570629 -0.0981134 1.53633 -0.717009 0.231043 -0.357959 -0.733247 0.636987 -0.325454 0.985763 0.486949 -0.781867 0.298989 -0.0112441 0.899564 -0.440184 -0.767559 -0.338046 -0.50402 
-0.353487 -0.140714 -0.416998 -1.31775 0.471787 -0.907694 -0.270575 -0.191867 -0.741147 -0.366542 -0.619754 0.639461 0.599323 -0.382606 -1.02752 0.397304 -0.66574 0.971219 0.22968 0.153284 -0.0227996 0.931378 0.0765893 0.757001 -0.578292 -0.432718 1.13244 -0.511612 -0.304749 -0.441615 -1.01879 0.931899 0.540355 0.918142 1.04635 -0.909773 0.153115 0.182597 0.210297 0.105278 0.221661 0.0199181 -0.797855 0.479657 0.725145 0.0140711 0.821199 -1.00328 0.301101 -0.218443 0.232837 -0.000998582 -0.375911 -1.07005 -0.498381 0.0369294 -0.906968 -0.376198 0.487769 -1.08605 -0.0020258 -0.0883795 0.372289 1.34094 0.330691 0.780145 -0.638529 0.719882 -0.991932 -0.277391 0.77147 0.357139 0.671195 -0.290889 -1.4117 0.38946 -0.257683 -0.105806 -1.45288 -0.696784 0.927415 -1.45382 -0.216543 1.12537 1.31448 0.261749 1.01532 -0.806987 -0.771113 -0.883394 -0.548123 -0.189775 1.15255 0.395222 0.103959 -0.929911 
0.134704 -0.00356641 -0.125982 0.0408126 -0.588175 0.407379 -0.0712438 -0.3893 -1.27814 -0.0393174 -0.704058 0.575533 0.886393 -0.0765121 -0.195672 -0.157394 -1.32908 -0.510122 -0.31362 0.472225 0.287402 0.873569 0.391292 -0.510825 -0.393239 0.301659 0.0259612 -0.587097 0.772724 0.592134 -0.454264 0.625184 -0.29073 0.944843 0.0218846 0.271331 0.3968 -0.340162 0.0800643 -0.990116 0.451721 -0.333385 -0.179175 -1.23644 1.52598 -0.151103 0.244067 1.91248 0.584288 -0.23773 0.664174 0.398473 1.01178 -0.584357 0.633144 -1.00236 -0.407047 -0.96776 -0.294498 -1.08828 -0.482736 0.0877406 -0.147811 -0.376866 0.303863 -0.522571 -1.0845 -1.28645 -0.701118 -0.222229 1.44754 0.969848 0.335828 -0.587371 -0.262797 -0.684771 0.234264 -0.815908 -0.573175 0.0811426 0.517606 -0.319344 -0.7146 0.685162 0.448296 0.185926 0.157642 0.306567 -0.929156 0.370413 0.551628 -0.50319 1.18158 -0.26654 -0.150662 0.228549 
0.0307312 1.43567 0.295503 -0.739097 0.477336 0.593245 -0.976992 0.511723 -0.177727 0.252523 0.189758 -0.069659 0.98188 -0.547744 0.268405 -0.353638 0.245501 0.117515 0.723622 -1.214 0.230864 -0.366842 0.561109 0.439452 0.269473 0.699927 0.87596 -0.904831 -0.61203 -0.888454 1.09364 -0.431881 0.838688 -0.999957 0.732512 0.32549 -1.83434 0.476027 0.0760015 -1.30447 0.493969 -0.207255 -1.19751 0.322878 -0.426563 -0.334778 1.24423 -0.766944 1.45214 0.491583 -0.0477623 0.0971223 0.167367 -1.09567 0.071512 0.288212 -0.0841148 0.243737 0.205018 0.0561231 -0.949306 0.849876 -0.229152 0.485836 -0.362265 -0.374159 1.08675 -0.150907 1.23663 0.253198 0.393718 0.805217 0.0115316 0.282571 0.290146 -0.0378927 -0.504714 -0.264296 -0.287111 0.630882 0.351853 -0.0729613 0.232741 -1.168 0.734963 0.861581 -0.4961 -0.529492 -1.01197 0.111247 -1.05332 0.416475 -0.323793 -0.0156319 -0.365882 -1.23971 
0.471446 -0.50029 0.814232 -0.303993 0.826025 -0.928684 -0.138678 -0.705424 -0.529391 0.272354 -0.613272 -0.157083 0.146875 -0.193306 0.894096 -0.000460704 -0.0347328 0.260374 -0.417193 0.119838 -0.00512999 0.101392 -0.492774 -0.637626 0.228018 -2.05558 0.394864 0.279211 -0.426359 -1.18463 -0.29727 0.422738 -0.170525 0.459517 0.257703 -0.240977 0.16971 0.238754 -0.466947 -0.388525 0.105251 0.484011 -0.87575 0.211298 -0.559417 0.48618 -0.264306 0.130662 -0.327366 0.078172 1.08415 0.745335 -0.927038 -0.196795 0.68472 -1.3848 1.10511 0.341693 -0.403805 0.066526 0.358468 0.71477 0.374322 -0.988946 0.786551 -1.2562 0.843375 -0.392173 0.112111 -0.579002 -0.0960894 0.0955349 -0.686114 1.44615 0.981692 -0.541805 -0.121526 -0.202816 0.827321 -0.0417181 -1.21895 -0.262081 0.325914 0.955592 -0.225551 0.406539 0.107536 -0.0177882 -0.558205 0.492545 0.819351 -0.445006 -0.384675 -0.463498 -0.31701 -0.00335207 
-0.260725 0.75527 -1.42377 0.107216 -0.518515 -0.329186 -0.0473589 0.673 0.85667 0.0693571 0.233721 -0.464079 -0.308891 0.179409 -0.735469 0.700757 0.916948 1.42778 1.67769 -0.86258 0.816555 0.363003 -0.034375 0.98683 0.532705 -0.485187 0.037182 0.249828 0.0751068 -0.456066 -0.307751 0.527105 0.158115 -0.808421 0.202779 -0.337501 -1.38687 0.83388 -0.0344867 -0.0697064 -1.19482 0.00716244 -0.619773 -0.155481 0.209855 1.20602 -2.22208 1.15167 -0.138295 0.299416 -1.38083 -0.578895 0.0751068 0.792501 -0.459214 0.41661 -0.728928 0.00334214 -0.194195 -0.662727 -1.03057 -1.34343 -0.266189 -0.504428 0.655322 0.361877 -0.89926 0.0912387 0.646274 -0.231673 -1.15335 0.165222 -0.101789 0.540912 -0.249857 -1.48186 0.309374 -0.885733 0.0897898 0.526089 0.627822 0.593682 -0.228157 -0.0570163 -0.288969 0.0643791 0.928852 0.106501 -1.04587 -0.981598 -0.631234 -1.34108 0.281556 -0.66663 -0.0989083 0.677445 
-0.201406 -0.0238613 -1.00952 0.260689 0.0553816 0.495455 -0.544041 0.792581 1.05194 -0.53271 0.0708425 -0.608355 -0.313169 -0.671105 -0.287091 -0.0973634 -0.660881 1.28752 -0.560527 0.374002 -1.67505 0.518489 0.651824 0.330297 0.645714 0.315217 -0.694143 -0.244487 1.53835 0.0632888 0.358451 1.39059 0.769961 -0.454006 0.657635 -0.997297 -0.485513 0.732294 0.139113 -0.183415 -0.0163225 -1.01141 0.291224 0.191532 -0.0959941 -1.53833 0.71566 0.324984 0.186705 0.371658 0.105473 0.843769 -0.81348 -0.4982 -0.158932 0.272692 0.903864 -1.74874 -0.958306 0.440987 -0.515016 0.275255 -0.458773 -0.362227 -0.164092 -0.183081 -0.0337615 0.888243 -0.949281 0.50374 -0.807839 0.247617 0.0726113 -0.298249 -0.53502 0.666837 -0.23072 0.112895 0.283053 0.399036 0.183826 -0.917907 0.17913 -0.738059 0.321406 -0.499044 0.392845 0.696921 1.19709 0.825253 0.814356 -0.586653 0.115902 0.681418 1.01263 -1.01331 
-0.409813 -0.323079 -0.921017 -0.174477 -0.530529 -0.515232 0.569377 0.996275 0.392619 -0.0367396 0.990091 0.289729 0.359297 -0.407037 -0.813983 -0.83648 0.19738 0.852244 -1.18107 0.06776 0.0929401 0.59146 0.150511 0.754382 0.626825 0.195712 1.0489 0.317409 -0.336696 0.00703291 0.831877 0.130661 -0.29222 -0.0471458 0.384843 -0.989664 0.0646157 -0.0876244 -0.0509943 -0.370611 0.797377 0.300783 0.125176 0.820163 0.000954069 -0.189591 0.734969 -0.15718 0.455822 0.305151 0.804852 -0.0117101 0.355965 -0.174549 -0.638514 -0.675807 0.0369298 0.114088 0.0833303 0.58562 -0.764307 0.0314272 0.463386 -0.894744 -0.421865 -1.10798 -0.856973 0.045659 -0.867114 0.114887 0.478194 -0.347185 0.606589 0.0948066 0.442959 0.219187 -1.1827 0.658411 -0.0851128 -0.19846 0.0498907 -0.50498 0.770582 0.896175 -0.533263 1.60935 -0.166739 0.613092 -0.173737 0.00240687 0.260746 0.443354 0.850669 -0.167602 -1.00613 1.16833 
0.101785 -0.176443 1.0581 0.163464 -0.606989 0.178954 -0.248203 0.173939 -1.61839 -0.229273 -0.368933 0.749495 -0.246628 -0.538749 -0.41208 -0.0542986 0.763808 1.22897 -0.19325 1.02282 -0.0342684 -0.233764 0.200744 0.885045 0.956859 0.582383 -0.349312 0.348293 -0.341332 0.143842 -0.474553 -0.101703 -0.422867 -0.504133 0.394048 0.528633 1.19742 -0.0196949 0.339142 0.467722 0.186494 -0.546294 0.555685 0.807856 -1.28652 0.595526 -0.278213 -1.07842 -0.871532 0.647233 -0.469919 0.688512 1.02909 0.230998 0.0648533 0.300294 0.156427 0.65028 0.335791 -0.217415 0.656949 0.276961 -0.265993 -1.23629 -0.722746 0.617688 1.01203 -0.182496 0.0809012 -0.889346 0.0432794 0.328993 -0.475554 1.56549 -0.306816 -0.660684 -0.193802 -0.207206 -1.30765 0.466121 0.559481 -0.374794 -0.1517 -0.0149819 -1.21534 0.00581368 -0.183923 -0.959485 -0.545792 -1.12543 -0.131787 -0.641059 -0.414969 0.394371 -0.275359 0.755851 
-0.00519123 -0.71754 -0.445875 -0.158007 -0.571735 0.815364 0.799938 -0.496385 -0.793809 -0.582317 0.200144 -0.207855 0.549755 0.76884 -0.367469 -0.0990649 1.02097 0.735265 0.63852 0.509007 0.949371 -0.554543 -0.60449 0.827771 0.989038 -0.230206 -1.33163 -0.224732 -0.43129 -0.291834 0.203293 0.492114 -0.744345 0.534338 0.890137 0.589302 -0.284426 0.548974 0.295801 -0.781273 -0.276507 -0.923972 -0.524918 -1.0436 -0.3949 0.326394 -0.4117 -0.0885876 0.412497 0.0580824 0.00632541 -0.675953 0.107872 -0.361526 0.367049 -0.20281 0.51905 0.43035 1.60703 0.350361 -0.470678 0.544419 0.14885 0.330684 0.345288 1.30578 -0.416618 -0.655291 0.0332792 -1.35514 0.971045 0.147642 -1.27655 -0.413395 0.383972 -0.169395 0.689793 0.0804131 -0.0315743 0.834097 -0.416735 0.295186 0.167459 -0.216289 1.0031 -0.570386 -0.138046 -0.610654 -0.746872 -0.278612 -0.943737 -0.239957 -0.544437 0.779871 0.238199 -0.0128385 
0.322403 -0.376486 0.419452 0.0860354 -0.360392 -1.37138 0.603263 -0.00878697 0.545181 -0.0345953 0.844843 2.02377 -0.591662 -1.03576 0.312953 -0.0742126 -0.224237 0.175078 -0.541752 -1.14782 0.379524 -0.207086 0.0499847 0.257463 0.419989 -0.478183 1.2578e-05 -0.156355 -1.70724 -0.329237 -0.363374 -0.343792 -0.227508 -0.586285 1.10099 -0.734175 -0.859518 0.228702 -0.44277 -0.740713 0.0409598 -0.33484 -0.190617 0.358359 -0.0301435 -0.0858665 -0.843459 0.49006 0.415465 -0.61237 -0.149701 -0.246108 1.21763 -0.754765 0.592674 0.650636 -0.351248 0.545883 -0.239887 0.787151 -0.439607 -0.433778 -0.0678252 -0.818532 0.230913 1.01753 -0.749066 0.276927 -1.97979 -0.853153 -0.587423 0.609538 0.0165311 -0.087196 -0.909963 0.350696 -0.156872 0.373318 -0.282458 0.111907 -0.240989 0.83652 0.149639 -0.137149 -0.265551 0.210536 0.439202 -0.878617 0.341355 0.831179 0.758752 0.12339 0.638042 -1.13067 -0.125671 -0.243896 
0.323543 -0.794943 0.478369 -0.495143 -0.115316 -0.828674 -1.35937 0.207322 -0.501707 1.12434 -1.05085 -0.259889 0.0870941 0.521469 -0.369135 -0.73404 -0.240909 0.183526 -1.02653 -1.03169 0.137183 -0.0628669 0.195985 0.893985 0.707976 0.430957 -0.200531 -0.144782 -0.910324 0.403871 0.488184 0.923983 -1.24616 -1.22901 -0.296998 -0.393028 0.296594 -0.459772 0.0838611 -0.264342 -0.0798538 1.36806 -1.04118 -1.74062 -0.305361 -1.08051 0.621319 0.662527 -0.584881 -0.426641 0.885509 0.253599 0.534881 0.00349488 -0.0832888 1.74014 -1.29091 0.215155 -0.823667 -0.671494 0.0386526 -1.40165 0.0305628 1.36148 -0.115675 -0.982833 0.597619 0.750875 0.415398 -0.302918 0.543329 0.0851366 -0.0868397 0.836084 0.352348 -0.43645 -0.0863399 0.155381 0.306785 0.424522 0.643097 -0.27772 -0.70235 0.249838 -0.00925019 -0.030591 -0.974324 -0.213114 0.303972 0.18898 0.20587 0.892475 -0.724529 0.113048 0.250988 -0.303672 
-0.0565866 -0.259814 -0.993513 0.756149 -1.17594 0.32387 0.396909 0.304334 -0.864363 1.07136 0.416396 0.200637 0.486077 -1.22123 -0.342278 -0.418387 -0.469789 -0.0244895 -1.38484 0.385832 0.699819 -1.18822 0.604943 0.441165 1.03733 -0.153302 1.10198 1.06966 -1.01098 -1.35163 0.176135 -1.22539 -0.238879 0.00314795 0.888143 0.800473 -0.461612 0.726237 -0.880217 1.32411 0.0182701 0.0282478 -0.370758 -0.60176 -0.903692 0.265121 0.165179 0.453093 -0.412924 -0.312431 -0.315165 -0.297049 -0.515227 0.583112 -0.236285 0.234944 -1.25908 -0.501764 0.293868 -0.295674 -0.0802581 0.182496 -0.570432 -0.427668 0.60908 -0.655883 0.770007 -0.515662 -0.291188 -0.503277 0.149174 -1.15159 -0.732795 -0.181103 -0.449537 0.729518 0.906788 -0.720063 0.701392 -0.581328 -1.40119 -0.395952 -0.507976 -0.231885 -0.915767 0.127531 -0.178249 -0.0965504 -0.36473 0.733475 0.28572 1.2698 1.4051 -0.0292983 0.689017 -0.123206 
0.565979 0.326092 0.73952 -0.165306 0.0428675 -0.127933 0.739284 1.31993 -0.392826 -0.608322 -0.617581 0.580237 -0.750437 -0.391728 -0.343004 0.0113549 0.273513 0.477514 1.24788 0.175594 0.826617 -0.5936 -1.17321 -0.377722 0.465174 -0.172063 0.830649 -0.0223267 0.241834 -0.0809444 -0.683239 -0.465606 0.13735 0.374089 -0.805769 -0.552293 0.464667 -0.670216 0.395451 0.681348 -0.362635 0.664789 0.0331635 -0.211579 0.827297 -0.737727 -0.816381 0.438447 1.46492 0.868006 -0.0772264 1.79458 0.281797 -0.694103 0.689435 1.04233 0.257847 0.619112 -0.436973 -0.121646 0.247131 -0.164165 -0.755405 -0.317695 0.615916 0.536882 0.11139 -1.47132 0.362002 0.36857 -0.483472 -0.0836624 -0.343204 0.750244 -0.72292 -0.709343 -0.263067 -0.508542 -0.27697 0.480413 -0.85271 -0.120243 1.15722 -0.0305515 -0.447849 0.148578 0.0367015 -0.372343 1.12067 0.71183 -0.436481 -0.528995 0.172334 -0.307394 0.743325 1.85985 
0.572371 -0.901593 -0.180899 -0.329227 0.146426 -0.380768 1.4553 -0.522394 0.614644 0.296337 -0.00285895 -1.48066 0.902097 -0.522989 0.746966 -1.13276 0.729761 -0.364919 -0.288564 0.687946 -0.589488 0.984409 -0.162948 0.639052 -0.125713 0.243862 -0.563946 0.910836 -0.180949 0.631939 0.199845 1.32352 -0.692564 -0.0600024 0.511964 -0.409459 -0.369239 0.0213163 0.963485 0.867953 -0.312137 0.445376 -0.409578 0.434319 -0.73751 -0.462 0.133082 -0.192349 0.966574 0.292639 0.197807 -0.602034 -0.0678282 -0.145088 0.0865858 -0.171874 -0.353412 0.698046 -0.255969 -0.566184 -0.375061 -0.137503 0.918244 0.574903 -0.287614 0.188025 0.308294 0.410763 -0.75229 -0.34576 0.281796 0.695657 -0.974219 0.248666 0.633584 -1.33415 -0.602587 -0.328589 0.308613 -0.615162 0.497094 -0.126739 0.518392 0.319034 -0.380671 -0.891125 -0.641331 0.630228 0.608983 -0.579157 -0.0137562 -0.295834 0.157019 -0.343296 0.343666 -0.426813 
0.656022 0.591872 0.146866 -0.211148 -0.226889 0.458538 0.0934101 0.668586 -0.28887 -0.612733 0.873455 0.46447 -0.365432 1.67296 -0.44841 0.141317 -0.480214 0.0499136 0.0725075 -0.217251 0.268898 -0.403985 -0.43298 0.768047 0.629194 0.563853 0.717379 0.871485 -1.62625 0.428015 0.00623882 0.208531 0.202432 0.231224 0.053729 -0.658446 -0.448968 1.0622 0.319585 0.267421 -0.658232 -0.210925 0.859589 0.385159 0.225778 0.531886 -0.378655 -0.458916 0.316251 -0.646665 0.206235 -0.372372 -0.206857 0.578938 -0.271193 0.735611 0.589552 -0.681651 0.609232 -0.0117516 -0.12188 -0.469603 0.2981 0.053217 0.520296 0.884586 -0.230825 0.569267 -0.131424 -0.965536 -0.335031 0.542448 -0.332148 0.778255 -0.153985 -0.73393 -0.28759 0.263431 0.262079 -0.81519 -0.957949 0.249434 -0.015297 -0.674134 -0.437969 -0.151105 0.225617 0.381229 -0.841396 -0.385292 -0.348365 -0.254569 -0.475232 0.560479 -0.80122 -0.934118 
0.734053 0.958422 -0.355277 0.264391 0.0105541 -0.151032 -0.617462 -1.08245 -0.714853 0.934578 0.940513 -0.553955 0.163103 0.682667 -1.06252 -0.243491 -0.686266 -0.623771 0.541511 -0.62269 -1.25202 -0.406059 0.208924 -0.133016 0.138238 0.699317 -0.0634625 0.968927 0.43769 0.541644 0.252592 -1.28728 -0.0344262 0.157948 0.155838 -0.126069 0.876445 -0.402256 0.544908 -1.11143 -0.567285 -0.115094 0.0199539 0.103438 0.850677 -0.114308 -0.577644 -0.194064 0.196232 0.458159 0.619406 1.20523 0.063222 -1.08694 0.241533 -0.851969 0.31212 -0.144836 0.469639 0.614524 -0.349589 0.19688 -0.0860246 -0.211654 -0.469497 -0.0212541 -0.323874 0.500988 0.244132 -0.482522 0.203409 0.546564 -0.622127 0.59255 0.301513 -0.309084 -0.0966789 0.784846 -0.391348 -0.491799 0.728968 -0.366699 -0.379633 -0.312655 0.0763386 0.251138 -0.664108 -0.166933 0.100683 -0.601514 -1.04973 -0.526365 -0.252428 -0.473558 -0.0327611 1.96722 
0.0257193 -0.0828834 -1.02584 -0.0354032 -0.115883 0.679546 0.336998 -0.660403 0.270215 0.329856 -0.329872 -0.288618 -0.186288 0.402328 0.418152 0.438322 0.00460219 0.270357 0.261717 -0.136888 0.36322 -0.328722 0.64231 0.18072 0.232303 -0.243909 -0.160787 1.29559 -0.672666 -0.0731817 0.457344 -0.258754 -0.568271 -0.368767 -0.595067 -0.731269 -0.943732 -0.19102 -0.120981 1.75126 -0.512559 -0.691753 -0.42743 -0.9961 -0.340537 -0.750998 1.26859 -1.00844 -0.96794 0.624253 -0.276835 -0.490653 -0.317506 -0.473201 0.928662 -0.171195 0.566863 0.329395 -0.414838 0.0269816 -0.00871626 -0.165055 -0.67707 -0.589272 0.302671 0.871007 -0.455848 0.204843 -0.219265 -0.331371 -0.162387 0.615078 0.291839 -0.843066 0.124898 -0.549989 0.640821 -1.39246 -0.159823 0.3057 -0.851246 0.707783 -0.282988 -0.969347 1.24181 0.244007 0.458776 0.323382 -1.47759 -0.353998 -0.433174 0.901118 -1.14482 0.81406 -0.0028406 -0.568221 
0.0979197 -0.600128 -0.255203 -0.414492 -0.112234 0.433115 0.0608736 0.192775 0.374375 0.267636 1.46318 0.648933 0.0321311 -0.484299 0.17483 0.781317 1.09246 -0.454202 0.0577821 0.561165 -0.118068 0.192634 -0.0639344 0.347768 0.33948 -0.624518 -0.870279 -0.600197 1.39262 0.0795039 -0.823587 1.0766 0.0494893 1.09442 0.259314 -0.310743 -0.461606 0.192007 -0.176086 0.606743 0.244313 -0.38559 0.551709 0.0485182 0.488741 -0.577705 1.26408 1.8763 -0.179351 -0.345308 -1.08502 -0.772168 0.0517205 0.38156 0.0871907 0.197785 -1.30839 -1.06962 0.225374 0.189491 0.776473 -0.068527 -0.515423 0.136678 0.787865 0.205605 0.329523 0.241431 0.507754 0.0155978 0.140525 -0.0624408 0.113541 0.475259 0.766368 0.0492942 0.494419 -0.770559 -0.115826 -1.02312 0.37547 0.442114 0.749638 -0.340969 1.53252 -0.194928 -1.47936 -0.841542 -0.183952 0.494094 -0.38755 0.388412 -0.0220214 -0.738282 -0.804648 -0.330222 
-0.243406 1.56818 0.70308 -0.198811 -1.31562 -0.380228 -0.0526096 -0.00679155 0.310686 0.258857 0.0291178 -0.0142238 -1.15077 -0.946338 0.100199 0.539211 0.994651 -0.108636 -0.21003 0.0791012 -0.25206 -0.783112 -1.09292 0.171047 0.42763 -0.191299 1.3606 -0.225856 -0.639701 0.348201 0.9045 -0.499535 0.287113 0.348693 0.604491 0.641096 0.393976 -0.997003 -0.072486 0.679389 -0.0152168 0.749644 0.10924 0.163007 -0.227049 0.4923 -0.087592 0.508908 0.851878 -0.0847025 -0.533426 -0.816063 0.472823 0.0981168 1.35041 0.403373 -0.552869 -0.826482 0.459052 -1.38387 0.96773 0.251967 0.649763 -0.109656 0.393929 1.17355 -0.389272 0.110172 0.440639 -0.0990631 -0.48242 -0.554644 0.338303 0.168837 -0.217831 -0.159386 1.25249 0.510663 0.37679 -0.928114 0.614264 0.0974244 -0.724483 0.436935 -0.208386 -0.415927 -1.19877 -0.761086 0.0143411 0.327878 -0.293683 0.0198531 -0.152163 -0.196383 0.393323 0.327301 
-0.215976 -0.236597 -0.661822 -0.727073 0.439865 -0.225225 -0.130508 -0.452629 0.0479471 0.77255 -0.117761 0.831533 0.174759 -0.129945 -1.02337 0.184165 -0.849442 -0.128729 -0.377891 -0.00561611 -0.658547 1.07333 0.691245 0.294817 0.0180186 -0.100121 1.13519 1.29646 0.645605 -0.453213 0.3475 -0.279063 0.662532 -0.498059 0.795579 -1.21646 0.687496 0.251821 0.544388 -0.151333 -0.582011 -0.153693 0.196649 0.915122 0.764156 -0.364827 0.649375 -1.14043 -0.751537 -0.00803609 0.431801 0.840299 -0.655889 0.21013 1.52992 0.609213 -0.132303 -0.336023 0.968595 -0.195034 0.598363 -0.546395 0.759079 -0.126303 0.0164784 -0.618854 0.241008 -0.311434 0.0356359 -0.326736 -0.49726 -0.0231383 0.740808 -0.150554 -0.0670054 -0.60285 -0.174199 0.81556 0.5249 0.047435 0.269589 0.422195 -0.93069 0.357193 -0.284157 0.0279797 -0.288433 0.757358 -0.249348 -0.573009 -0.632246 0.446176 -1.12187 -0.82533 0.62037 0.285078 
1.28535 -1.16121 0.851296 -0.63042 0.361784 0.203656 -0.24837 -0.58034 -0.816254 -0.701071 -0.706103 0.463777 0.335378 -0.244942 0.0549056 0.380194 -0.0268288 0.15108 0.747912 0.210745 -0.459577 -0.012952 0.038469 -0.12958 -0.488869 1.10745 -0.0568931 0.68865 0.601355 0.549113 1.10811 0.817767 -0.428895 0.606366 -1.72826 0.184214 0.317603 -0.464717 -0.0277542 0.28889 0.211649 0.666443 -0.568903 -0.0724274 0.371208 -0.86816 0.230396 0.638786 1.31235 0.278987 0.831041 0.233762 0.566328 0.255841 -0.0560985 1.0697 -0.190561 -0.0973896 1.10964 0.582496 1.05351 0.440317 0.167998 1.35323 -1.08294 -0.0194164 -0.557053 0.470656 -0.283945 0.552283 0.743826 -0.421537 0.399447 -0.693448 1.54684 0.589762 1.85927 0.583918 0.0170974 -0.034867 -0.831879 0.518486 -0.57222 -0.115571 -0.315906 0.404094 0.21392 -0.482298 -0.385762 0.590195 0.233596 0.617656 -0.446997 0.836575 -0.230238 -0.315438 
1.00299 0.226221 -0.269669 0.28567 0.704959 -0.396762 0.0847839 1.3719 0.19221 -0.84873 0.161739 0.657853 0.542898 -0.0157162 0.349065 0.704473 -1.42606 0.704738 -0.245984 0.854049 -0.402756 -1.44986 0.200891 -0.286055 0.649209 0.630526 0.191856 -0.793106 1.34236 -1.0395 1.00282 0.0571629 -0.00512244 -0.632933 -0.470244 -0.499994 -1.8068 -0.862528 -0.141307 -0.522584 0.10386 -1.07175 1.01146 -0.250232 -0.00743204 0.0201374 0.515577 -0.469628 1.07169 -0.52653 0.000941699 -0.214852 -0.143918 -0.166829 0.891375 0.68199 -0.263668 -0.55328 0.754869 1.10555 -0.171586 1.47952 0.0330525 0.392529 -0.457789 -0.654585 0.433669 0.849011 0.610502 -0.592674 -1.11059 0.201221 -0.0590021 0.102556 -0.0552495 1.0664 -0.384946 0.206499 0.0830921 0.0731131 0.675633 0.0872222 0.0544273 -1.26442 -0.0679079 -0.3226 -0.626289 1.24728 0.483808 0.23479 0.169697 0.00659994 -0.422123 -0.414996 -0.779561 -0.493536 
-0.624736 -0.388323 0.750861 -0.411287 -1.26139 0.253203 0.486838 0.11096 0.279898 0.285998 0.772454 1.05179 0.054346 -1.20617 -0.129443 0.542211 0.44489 0.093164 -0.806364 -0.254942 0.0922295 0.526193 -0.00604671 -0.671392 -0.271385 0.964317 -1.98908 0.434768 1.01382 -0.100942 0.271798 0.255919 -0.373157 0.776007 -0.00245741 0.824767 -0.491324 -0.700157 -0.35081 0.930692 1.38595 0.510617 -0.109554 0.928598 1.11378 0.166571 1.14394 -0.364553 0.613414 -0.105225 0.833409 -0.0455436 1.64481 -1.08197 -1.44688 -0.0991204 0.122083 0.516252 1.20208 -0.715003 -0.436449 -1.59545 -0.585752 0.213434 0.585493 0.0896916 0.207801 0.670229 0.219665 -0.792932 -0.0891999 0.172697 -0.462714 1.02434 0.0274882 1.20923 -0.0701251 -0.290923 0.183726 0.550778 -1.04783 1.11751 -0.362893 1.11535 0.957132 1.51505 0.140272 -0.286664 1.56457 -0.484144 -0.0543845 0.311112 -0.39338 -0.668084 0.197205 -0.736943 
0.390438 -0.682174 0.715048 -0.64939 -0.449264 0.661387 -0.00910384 0.0598309 -0.00406013 -0.324341 0.824614 -0.306035 0.199987 -0.109342 1.06803 -0.141536 0.4761 -0.381913 -0.991219 -0.878849 0.403148 0.284919 0.00979053 -0.0671441 -0.826603 0.274769 0.438711 0.214748 1.38943 -0.0334709 0.816741 0.532899 0.542442 0.13794 -0.670198 0.602396 -0.10983 -0.207689 -0.682576 0.167272 -0.67828 0.148403 0.295849 -0.936289 0.260299 -0.224372 -0.071858 -0.711889 0.147119 0.900874 -0.0423558 0.962032 0.57109 -0.857991 0.144277 0.264704 0.17082 -0.206288 -0.130539 -0.328848 -0.273 0.0267814 -0.160882 1.01037 0.351686 0.463503 -0.84736 -0.181399 -1.0837 -0.178462 -0.0916454 0.505348 -0.885418 0.989975 0.0173132 0.991713 0.305536 -0.584909 -0.887229 0.107155 -1.00271 -0.249734 0.240983 -0.451692 0.435514 -0.0567836 -1.34698 0.0507066 -0.032852 -0.65807 0.400628 0.232145 -1.1654 0.753382 0.138363 -0.88452 
-0.276159 -0.708654 0.129314 -0.690657 -0.196994 0.81908 0.623083 0.910855 -1.01919 1.08638 -0.223218 0.245417 0.353911 1.12829 -0.0170585 0.797748 -0.619211 1.02124 -0.506775 -0.717961 0.458583 0.125538 0.166555 0.455823 -0.305123 -0.0414242 1.2606 1.03422 0.822188 0.744843 -1.51929 0.509357 0.00323114 -0.213887 -0.30798 -0.38058 -0.149468 0.0135484 -0.0731899 -0.0525467 -0.651954 1.00437 -1.46275 -0.560392 -0.0562358 0.0617107 0.346277 -0.305677 -0.212631 1.2122 -1.36015 -0.390649 0.635732 1.3355 1.01777 -0.25222 -0.841098 -0.223239 -0.500633 0.45702 0.376931 1.30429 0.9836 -0.0354955 -0.21036 -0.504405 -0.270765 0.310209 0.0124788 0.655022 -0.816872 0.887098 -0.394314 0.214816 -1.49238 -1.36078 0.655965 0.809139 0.78675 0.427772 0.546572 -0.634321 1.15008 0.896274 0.28636 0.822737 -0.628625 -0.491596 -0.174228 0.508747 -0.763529 -1.01275 -0.531738 0.0688073 0.381321 0.386304 
1.2243 0.492221 1.03646 0.38038 -0.60134 0.452634 0.0400191 -0.0620564 0.313124 -0.731455 -0.206681 1.08164 0.171036 -0.239735 0.195948 0.474868 -0.191654 0.484791 -0.449377 -1.27165 -0.553553 -0.974573 1.15619 -0.115106 0.45552 0.750265 0.484555 0.185205 -0.841952 1.46396 -0.402922 0.189234 -0.905292 -0.685047 -0.302419 0.208633 0.132347 -0.0812375 0.0889793 0.453791 0.644004 0.866308 -0.710683 1.31262 0.424288 -0.941607 1.29047 -0.581525 -0.748903 0.051691 0.431765 0.635146 -0.765729 0.194478 -0.0566648 0.165348 1.09299 0.765539 -0.149572 0.408477 -0.892245 -0.139306 -0.350492 -0.206568 0.448028 0.0484315 -0.740373 -0.309846 -0.668143 0.0756478 -0.0487884 -0.789446 -0.0663408 1.37426 0.72903 0.390932 0.289146 0.0791211 0.212352 -0.223221 -0.924263 1.39092 0.0493435 0.284604 -0.0852006 0.492082 0.162109 0.0284595 -0.451855 -0.327191 0.727528 -0.993722 -1.19637 0.180441 1.1165 0.465528 
0.533676 -0.328616 0.734711 -0.0702997 0.229224 0.183184 -0.0930955 -0.752076 -0.928859 -0.145717 0.239194 -0.264345 1.03259 -0.268741 -1.60125 -0.776076 0.0359422 0.441165 -0.39807 0.617828 -0.184536 -0.0446844 0.646688 -0.852235 0.0611372 -0.902987 0.672722 -0.788619 -1.83612 0.237965 -0.771476 -0.292179 0.954783 -0.218662 -0.0909259 -0.458584 -0.197738 -0.0610565 0.229518 0.320163 0.005224 0.0350276 -0.568127 0.105472 1.04173 -0.271757 0.751853 0.144486 0.58163 0.165909 -0.0681299 -0.0476266 0.130958 -0.382545 0.73038 0.430435 1.07113 0.388998 0.00026787 0.151765 -1.20029 -0.406927 -0.541638 -1.09321 -0.281778 -0.256473 0.518507 0.321177 0.780384 0.119629 1.7697 -1.09267 1.3234 0.137518 0.0741192 -0.796105 0.026803 -0.224184 0.676387 -0.174222 -0.0550127 -0.340544 -0.550443 -1.41731 -1.12397 -0.327935 1.01575 1.33282 -0.93467 0.241997 0.282476 0.0933583 1.03547 -0.471114 -0.143065 -0.0260751 
-0.648726 0.460641 -0.240953 0.0385989 0.223707 -0.168241 1.49665 -1.02835 -0.806113 -0.455566 0.698105 0.369087 0.517874 -0.259104 0.686607 -0.38065 1.13758 -1.09451 -1.11488 -0.132731 0.413 -0.395128 -0.58923 0.453836 0.376838 0.237709 -0.842248 -0.0267613 0.267449 -0.653242 1.79484 -0.476166 -0.194766 0.546306 0.409889 1.29937 0.218833 -0.795377 0.183383 1.09472 1.61619 0.161539 -1.05768 1.06638 0.557566 -1.2366 0.239459 -0.215847 -0.953157 -0.606799 0.471542 -0.46562 1.42133 0.109474 -0.321206 -0.660718 -0.395984 0.623255 0.531617 -0.39102 1.12181 -0.454766 -0.246875 -0.22256 0.200234 -0.13457 0.202861 -0.352909 -0.440852 0.471997 0.972971 0.646107 -0.0298352 0.705487 -0.7336 0.928147 0.366533 -0.80596 0.0117977 0.957125 0.754515 -0.700955 -0.893419 -0.671075 0.786914 -0.380813 -0.0146919 -0.327673 0.27335 -0.219443 -0.980939 0.178747 -0.289114 -0.54993 0.260002 -0.505863 
-2.02618 0.0704392 0.324453 -0.39181 -0.239564 -0.67604 0.499672 1.03762 -0.257401 -0.676243 0.450134 -0.200575 -0.836765 0.574764 0.0860772 1.34724 -0.0484777 0.207844 -0.713331 0.175152 -0.260004 -1.0572 -0.360365 -0.150507 -0.891586 -0.232344 0.748618 1.13798 0.48741 0.00975974 -0.170494 -0.832875 -0.170304 -1.01911 0.453682 0.691782 0.145992 -0.671524 0.176668 -0.346842 -0.120142 -0.171204 0.0683832 0.00529639 0.0943508 -0.562785 0.497785 0.482714 -0.920805 0.106734 0.309602 0.736328 0.972769 0.445032 0.175347 -0.0523676 0.433511 0.61489 0.00448786 0.126379 0.691378 0.0616143 0.551233 0.243963 0.316034 -0.832732 0.305897 1.02058 1.05505 -0.224154 0.138429 0.254873 -1.03627 0.182252 -0.39669 -0.826967 0.577403 0.271081 0.444359 -1.06289 -1.07838 0.268388 0.563091 0.585283 -0.41348 0.406591 -1.11968 0.274579 -0.210988 -0.50392 0.333291 0.143594 -0.255645 0.563456 0.516233 -0.544255 
0.974809 -0.06564 0.213646 0.807892 0.508155 1.05139 -0.267839 0.315527 -0.671636 -0.35444 0.774449 0.409326 -0.328284 -0.170217 0.275271 0.029953 -0.168501 0.776738 0.0684742 -0.404319 0.53939 0.33291 0.322307 0.114059 -0.516758 0.358733 1.32081 0.849659 -0.339894 0.540426 -0.0554545 0.518776 -0.0504306 -0.777683 -1.54995 -1.35751 -0.423892 0.142537 -0.315159 0.799316 0.432306 -1.73523 0.93631 -0.33635 -0.603281 -0.158681 -0.485441 -0.368287 0.529076 0.337761 0.604356 -0.524246 0.599467 0.192184 -0.849568 -0.622477 -1.65121 -0.038659 -0.614506 -0.16246 0.0568197 -0.71938 -0.232017 0.708618 0.662649 -0.071555 -0.835054 1.30742 -0.375112 -0.411464 -0.761681 -0.450004 0.616398 -0.0486052 -0.471965 -0.495596 0.269102 0.0640881 -0.657515 -0.155284 -0.276329 0.177147 0.369353 1.06574 0.241445 0.0503995 -0.306567 -0.979616 -0.92765 -0.0842267 0.243541 0.113774 0.345715 -0.348647 1.60152 -0.925649 
0.260088 0.472677 0.836207 -1.85703 -0.519955 -0.389179 1.20508 -0.708885 -1.01356 -0.0373368 -0.357846 0.283988 0.282735 -0.525165 -0.0215756 -0.19878 0.54185 -0.721665 0.384457 0.174961 -0.158806 -0.924178 -1.37984 0.790094 1.01392 0.0329013 -0.607275 -1.11104 -0.406572 0.466416 0.488708 -0.192496 -0.792918 0.80078 -1.22773 0.448918 -1.65424 -0.109864 -0.12522 1.55634 -0.507779 0.902633 -0.385731 -0.401177 -0.680662 0.118551 0.487239 -0.320519 0.491344 0.830977 -0.0315686 0.464531 0.236022 -0.176714 0.178054 -0.409612 0.142009 0.30637 -0.135292 0.13724 -0.472617 -0.40327 0.102501 0.349411 0.711034 -0.0854847 -2.22902 -0.706823 -0.0775144 0.361843 -0.0489305 -1.00271 -1.67924 0.0867956 0.745385 -0.895779 -0.761495 -0.554412 -0.191627 0.291808 -0.186481 -0.457474 -0.265955 -1.5973 -0.0223576 -0.426679 -0.737066 -0.871367 0.176239 -0.512963 -0.378552 0.523515 -0.119068 -0.520887 -0.0212877 -0.895809 
0.61297 0.255225 -0.426707 -0.321625 0.0506589 -0.386464 0.427254 0.20813 -0.776198 -0.0484919 0.611111 1.08342 0.662206 0.234097 0.429784 0.299364 -0.85631 0.301257 -0.0334937 -0.437566 0.451616 0.651227 0.165441 0.409779 0.0471109 0.396972 -0.0982009 -0.444012 0.139307 -0.334243 -1.60911 -0.258349 0.186547 0.886896 -0.693417 -0.436361 -0.052034 0.940733 1.21545 0.0244079 0.438712 0.920525 -0.126543 0.958829 0.448636 0.25912 0.127107 1.12596 -0.207996 0.709675 0.56778 -0.694703 -0.294645 0.53264 0.256709 0.485164 0.55617 -0.950641 -0.10511 0.460109 -0.432182 -0.539807 -0.0666636 0.35806 -0.922639 -0.127463 0.290517 -0.809906 -0.887439 -0.124375 -0.19517 0.0056409 -0.741373 0.886921 0.35185 0.138398 -0.211661 0.487387 -0.105215 0.412958 -0.0516129 1.13216 -0.523981 0.451808 0.655612 0.0977807 0.379946 -0.795806 -0.21434 0.171124 0.108049 0.836182 -0.596428 0.117655 -0.132638 0.419393 
0.274611 -0.414358 0.0927854 -0.0528288 0.440415 -0.871577 0.821092 -0.612645 -1.20013 0.614413 0.408445 0.260774 -1.47206 -0.234455 0.740752 -1.08083 -0.0590836 -0.424498 0.294478 0.0188737 0.600155 0.364341 0.75668 -0.0858492 -0.518975 0.000744264 -0.677358 -0.46527 0.286735 0.311895 0.547392 -0.321434 -0.80519 -0.339118 0.385767 -0.0715146 -0.80246 0.198064 -0.0141311 -1.34333 -1.04243 -1.22305 0.22933 -0.828502 -0.175553 -0.882087 -1.23081 0.134705 -0.158463 0.36545 0.637052 -0.249348 0.406691 -0.439041 1.09382 0.848594 0.0429813 0.417511 -0.0877019 -0.734713 -1.00632 -0.568307 -0.0774634 0.200708 -0.971876 0.639753 -1.00305 -0.262581 0.118182 -0.49745 0.494211 -0.618009 0.368265 0.819548 -0.124247 -0.858737 -1.09749 1.27369 -0.538304 0.459566 0.237591 -0.382359 -0.584452 -1.14582 -0.312679 -0.610675 -0.37015 0.75481 -0.0695131 -0.444688 0.113841 -1.55966 0.165103 1.06479 -0.925189 0.302766 
-0.0368048 0.505599 -0.787621 -0.123423 0.431245 -0.0969075 0.700955 1.53859 -1.42294 0.882979 -0.185871 -0.265025 0.75122 -0.0721747 0.323219 -0.109286 1.15097 -0.774843 -0.0261015 0.145668 0.275817 -0.0658748 0.0687939 -1.16323 0.748868 0.447561 1.16565 0.574473 0.160196 -0.063331 -0.544379 -0.441688 -0.568413 -0.210838 0.328366 0.382299 0.439978 0.00264788 -0.748656 -1.57468 -1.52784 0.816398 0.465706 -0.0767479 -0.0953383 0.275922 -1.09912 -0.591953 -0.049466 0.831242 -0.53264 0.14879 1.08457 -0.0634397 0.224754 0.0769472 -0.294131 -0.553628 0.261309 -0.118027 0.157997 0.0138099 0.235963 0.788916 -0.0895832 0.11019 -0.56319 -0.0230064 0.0559828 0.192997 1.35619 0.155019 -0.599373 0.543465 0.186834 0.0466895 -1.14605 0.144892 -0.683783 -0.185479 -0.334208 0.508193 0.530156 -0.885922 -0.574755 -0.0394298 0.288134 -0.892971 0.25716 0.723743 -0.910466 0.0954149 -0.912978 0.500531 0.676812 0.307617 
-1.06296 0.15039 -0.361808 -0.0289413 -0.058674 0.682001 0.0876923 -0.50296 -0.857749 -1.20546 0.227135 0.701752 -0.666553 -0.135742 0.802035 -0.299429 -0.449649 -1.15582 -0.901761 0.299595 -0.893637 0.0561447 0.108746 -0.36005 -0.480994 0.406681 0.102694 0.284004 0.503888 -0.470753 0.758648 0.151181 1.19874 -0.860479 -0.0550874 -0.283209 -0.188592 1.24362 0.858298 -0.143105 -0.355192 -0.808108 -0.820933 0.520614 0.204025 0.873019 1.23909 0.853778 0.728516 -0.960306 -0.0535278 0.427409 -0.58368 0.70041 0.255839 -0.426694 -1.68648 -0.212475 -0.632711 0.308321 -0.844351 -1.02197 0.480638 -0.105784 -0.261143 0.152358 0.333157 -0.508026 -0.965352 -0.0382352 0.111514 0.821094 1.35742 0.653108 -0.212004 -0.622014 0.171092 0.604239 1.04313 0.690306 0.670486 -0.212466 -0.101145 0.0999249 -0.485528 -0.45567 -0.261324 1.29193 0.582614 -0.401516 0.594153 -0.154845 -1.02881 -0.597445 0.524513 0.157325 
-0.0709705 0.544696 -0.50892 -0.44146 -0.671397 1.24358 0.424046 -0.833605 0.772314 -0.766363 0.461555 0.324061 -0.312985 1.25324 0.316481 -0.0102646 -1.1094 1.17218 -0.803895 0.679672 1.21385 0.459146 -1.07488 -0.0542208 -0.480079 0.853687 1.65298 -0.471762 -0.914943 0.443286 -1.31751 -0.231043 -0.102201 -0.453683 -0.242895 -0.519477 -1.19356 0.515261 -0.527414 -0.0748578 0.358967 0.264484 -0.316087 -0.689624 -0.181643 0.211748 0.351125 -1.31557 -0.856333 0.317159 0.260078 -0.352728 0.0228584 -0.276963 0.334739 -0.247907 -0.0146371 -0.603138 -0.746559 0.585711 0.290148 1.62581 -0.376144 0.742868 -0.535087 0.603163 -0.144719 0.360311 0.265063 0.616211 -0.221943 0.0491268 -0.632427 0.951088 -0.212781 1.59532 0.176829 0.438712 -0.881158 -0.376076 -0.430761 -1.03242 0.0203549 0.792454 1.44821 1.13252 -0.0598213 -0.715805 0.260031 0.752659 0.289821 -0.0215355 -0.0370113 0.0531768 1.74603 1.17422 
0.33423 0.473263 -0.367942 0.329566 0.509412 1.48553 0.5333 0.403855 0.0468269 -0.0554635 -0.715566 -0.576064 -0.211771 0.669598 0.141779 0.0340495 -0.540215 0.961056 0.95821 -0.765066 0.171536 -0.51162 0.00775786 0.133141 -0.0831421 0.685027 0.0825284 0.420823 0.180233 0.383308 -0.377858 0.798625 -0.0811534 -0.62084 -0.412891 0.370159 0.418637 -0.354362 -1.14152 -0.0409116 -0.757271 0.0915083 -0.251656 0.442185 -0.789005 0.13594 1.14006 -0.102101 -0.0536322 0.848358 0.49762 -0.364916 -0.105084 -0.00958778 -0.746495 0.290328 -0.107103 -0.662784 1.23129 -0.685077 -1.20952 0.0407832 0.304362 1.26766 -0.0998561 -0.632048 0.372324 -0.450913 0.16569 0.784524 0.222476 -0.593336 -0.484554 -0.0218792 0.230086 0.492774 0.28316 0.591762 0.507473 1.00086 -0.108133 -1.20616 -0.493785 -0.607308 -0.65343 -0.646989 0.71861 -0.54425 -0.0111015 -0.85266 0.673302 -0.414315 0.575646 0.0377311 1.17613 0.219376 
-0.43189 -0.750465 0.59669 -0.0235212 0.977225 0.111483 -0.635016 -0.45026 0.220196 0.0931553 -0.930716 1.78438 0.76207 1.36483 0.250031 0.114484 -0.323054 1.17504 0.031007 0.379968 0.273006 0.198534 0.778059 -1.15363 -0.191041 -0.490898 1.17645 0.282396 -0.0579537 0.179014 0.341279 -1.82219 0.689756 0.171826 -0.995378 -0.432497 -0.658687 -0.454719 0.605364 0.203385 0.795841 -0.913517 0.885685 -0.491657 0.810878 0.207633 -1.35767 -1.03477 0.818025 0.3319 0.672106 -0.289728 0.538463 -0.195701 -0.0419998 0.629493 -0.713507 0.705214 -1.24745 -0.746865 0.954354 0.11589 0.194861 0.204743 0.225907 -0.341208 -0.646958 -0.62978 0.0462555 -0.108295 -0.599894 0.258442 0.918685 -0.207174 0.528698 0.128154 -0.252125 -0.388981 -0.101016 0.424883 0.612371 -0.431515 -0.372307 0.570219 -0.273313 0.427366 -0.483612 -0.0660586 -0.329883 1.37377 1.09822 0.111039 0.0488746 0.341364 0.356106 0.105208 
-0.0205983 0.508808 -0.530136 0.445962 -0.798944 0.628919 0.509294 0.0935896 0.427622 0.392501 -0.406452 0.647403 -0.096406 -0.386693 -1.47549 -0.738202 1.31318 1.06815 0.261172 -0.0478265 -0.915468 0.198877 0.732178 -0.160684 -1.03835 0.0493192 -0.599638 -0.21523 -0.803898 -1.07723 1.03838 -0.407063 -0.020114 1.23208 -0.611905 -1.03033 0.98201 0.150318 0.0146084 -0.449457 -0.296161 -0.234772 -0.342438 0.0813641 0.876519 -0.43755 -0.265896 0.167817 0.819256 -0.0227344 0.369961 1.14308 0.713432 -0.461559 -0.960763 -0.311703 0.152201 0.0565082 -0.2026 -0.399977 0.477911 0.0719328 -0.246224 -0.757735 -0.00465301 0.00316978 0.207832 -0.227944 0.062001 0.670849 -0.52922 -0.267232 -0.630176 0.0578725 -0.368509 -0.548885 0.704874 0.130446 0.554887 -0.34155 -0.160281 0.257332 -0.313642 0.397107 -0.0157716 0.866273 -0.104389 -0.973597 0.102963 0.936442 0.0789133 0.0134155 0.926579 1.2069 -0.701213 -0.261509 
-0.536375 -0.698754 0.37621 -0.650043 -0.171889 -0.753612 0.0527939 0.628783 -0.801859 -1.59611 -0.400166 -0.312049 -0.109241 -0.13535 -0.262692 -0.176079 -0.156071 -0.0858102 0.631463 -0.28366 -0.160357 0.342858 -0.411358 0.266684 0.640859 -1.09555 -0.697778 -0.0339494 -0.551617 -0.471548 0.556416 1.27136 -0.739357 -0.386153 0.409071 -0.164925 0.0717998 0.19176 0.625047 -0.0701817 1.33752 0.564538 0.553692 0.796909 0.0164524 -0.253108 0.927484 -0.587516 -0.352262 0.595266 -0.218308 0.163503 -0.110413 0.0647176 -0.369233 0.202001 0.320284 -0.419486 -0.563507 1.39188 0.532492 0.0136211 -0.101552 0.0400232 -0.611366 0.518456 0.339794 -0.821069 -0.103964 -0.125235 -0.326267 0.53739 0.866427 0.396502 -0.590169 -0.31042 0.390081 -0.758089 0.189047 0.231485 -0.186844 -1.15439 0.440478 -0.52535 -0.352384 -0.216794 -0.133666 -1.27922 -1.01421 0.00984092 0.209556 0.3518 0.175076 0.241945 -0.79844 0.323298 
0.161942 -0.569198 -1.11378 1.43942 -0.379768 -0.113479 -0.127806 -0.122285 -0.0921486 0.651916 -1.25499 0.0684013 0.687423 -0.44794 0.0724475 -0.0457671 -0.15689 0.0591197 -1.42437 -1.18974 -0.0293908 -0.034202 -0.0778721 -0.104439 0.577184 -0.424972 -1.55154 -1.40946 -0.136784 -0.481878 -0.371491 -0.690789 0.0443049 -1.0111 -0.0534308 0.0909131 -0.268735 -1.19732 -0.390148 1.38067 0.159762 -1.78774 0.0280024 -0.223131 0.890224 0.826212 0.186814 -0.522303 1.04317 1.12963 0.813618 -1.22502 0.135396 -0.338206 0.321835 -0.377033 0.283686 -0.191141 0.261308 0.669127 -0.112932 -0.82217 0.492249 0.190323 -0.593452 -0.572401 0.262585 -0.103204 -0.745173 -0.0788591 -0.240002 -0.696037 -0.535895 1.69096 -0.996003 -1.26431 0.338139 -0.073229 -0.578042 1.09107 1.49477 0.504694 -0.194197 0.591583 0.490982 -0.00712565 -0.310745 0.359989 -1.64536 -0.607501 0.644625 -0.479775 -0.0454521 0.393557 0.819402 -0.25372 
-0.146056 -0.0450012 0.478306 0.520571 -0.434545 -1.38755 0.264623 -1.48785 -0.773844 -0.218931 -0.430146 0.0961883 0.213995 -0.785294 -0.302347 1.17462 0.132541 0.784555 0.148833 1.09214 -1.21098 -0.468978 0.838784 -0.836174 0.262676 -0.416047 -0.389399 -0.550167 -0.676956 -0.106732 0.832872 -0.728207 -0.10427 -0.0327676 -0.0367318 -0.350411 -0.0260488 -0.578415 0.345452 -1.40226 0.255853 -0.588307 0.890178 -0.304005 1.02691 -0.409826 -0.110494 0.224046 0.166798 -0.112849 -0.155674 -0.442157 -1.28327 -0.959653 -1.34817 1.18977 0.115547 -0.228682 -0.19099 0.225838 0.485698 -0.0333594 1.43306 -0.234031 0.374459 0.579579 0.14972 -0.35857 -0.587947 0.0680833 -0.903206 0.311211 0.885788 -1.24548 0.0525258 0.54445 -0.222515 0.003667 1.40111 -0.317087 0.044485 -0.56606 0.149347 -0.731923 0.751183 -0.0800807 -0.746564 0.590264 0.132133 -0.309782 0.046999 -0.316422 -0.413644 0.0672421 -0.037025 -0.222472 
-1.19577 0.0856547 0.778511 -0.28182 -0.257905 0.728845 -0.0885947 -0.357887 1.13867 -0.195733 0.563953 0.674785 0.0532561 0.847905 0.726148 -0.554732 -0.581386 -0.503336 -0.768449 -0.897491 0.382461 -0.0985042 -0.182845 -0.0587748 -0.208677 -0.625527 0.186693 -0.0126504 -0.646723 -0.889848 -0.134786 -0.515104 0.129841 -0.0370193 0.635482 0.729028 -0.64217 -1.25878 0.661262 -1.22563 -0.38531 -0.532559 0.352321 -0.993295 -0.298051 -0.487809 -0.59683 -0.0132419 0.136521 -1.19445 -0.536643 -1.04784 -0.848515 -1.47222 -0.771391 -0.22205 0.55848 0.052548 1.03676 -0.0626168 -0.313102 0.0849812 0.206805 -0.116125 -0.635932 -0.0324032 0.0939552 0.038618 -0.439581 -0.230786 -0.88157 -1.29433 -0.62296 -1.1856 -0.786001 0.103794 0.0985313 -0.32827 -0.178863 0.628429 0.24041 -0.588151 -0.589122 -1.19798 1.41775 1.25115 0.18862 -0.374748 0.105007 0.366194 0.46992 -0.22289 0.218338 -0.918176 -1.15992 -0.439103 
0.806405 -0.828257 -0.0146148 -0.896833 0.532452 0.472268 -0.167558 0.388258 1.48986 -0.176312 0.625609 -0.927481 0.187127 0.662222 0.432742 0.299583 0.486232 -0.309246 0.173833 -0.415174 0.596091 -1.04423 0.885015 -0.0348619 -0.228037 0.266654 0.215725 0.926313 0.265902 -0.337567 -0.10908 -0.311242 -0.16574 -0.190478 -0.154759 -0.345033 0.014566 -0.91623 -0.938114 -0.137716 -0.134806 -0.505476 0.404415 -0.123015 0.603703 -0.45849 -0.411203 -0.541249 -0.367275 -0.403434 0.40276 0.530089 -0.806804 0.864888 -0.683206 -0.768826 -0.300828 0.20184 0.730111 0.532982 0.0410845 -0.401948 -0.0873185 -1.0235 0.0173347 -0.152935 -0.679966 -0.560903 -0.141764 2.04899 0.585927 0.749632 -0.671539 0.607714 -0.828323 0.443485 -1.14201 0.352896 0.811148 -1.6746 0.968498 1.3684 0.958177 -0.224794 -0.226704 -0.0566959 -0.356323 -0.335928 0.233355 0.136149 0.0908951 -0.702542 -0.223789 1.45266 -0.895789 -0.39725 
-1.67618 0.405799 0.365296 0.303874 0.00212933 0.418286 -0.137102 0.064052 -1.59933 1.16755 -0.210746 -0.71835 -0.408665 -0.487393 -0.485953 -0.508183 1.0728 -0.573971 1.23588 -0.262201 -0.801038 -0.901856 -0.90965 1.12188 0.234132 -1.00788 -0.137281 0.254599 0.167816 -0.101075 0.703984 0.145922 1.24762 0.142676 0.28249 -0.389285 -0.683745 -0.517137 -0.589315 0.450982 -0.524175 -0.409502 0.00599004 -0.698447 0.368184 0.117874 0.393433 -0.577118 0.0439434 1.48746 -0.466672 -1.07922 -0.777538 -0.334347 0.273871 -0.332183 -0.496707 1.06982 -0.620833 0.494842 -0.426053 -0.173764 1.33669 -1.18537 -1.32108 0.293462 -0.879906 -0.316931 0.320512 -0.35511 0.559228 0.345482 0.244667 0.142015 -0.210162 0.619274 0.259922 -0.39508 -0.188088 -0.0205469 0.766285 1.08648 -1.05401 0.478485 -0.567012 -0.845308 -0.444223 0.821615 0.360832 0.395099 0.230344 -0.949881 -0.857622 -0.662865 0.236745 -0.692033 
-0.923093 -0.379636 -0.0584124 -0.574882 -0.160349 0.823058 0.572124 0.783411 -1.04871 -2.01916 -0.442951 0.500159 0.408709 0.921882 -0.531562 0.704804 -0.224338 -0.047464 0.471144 -0.651639 0.672772 -0.641659 0.734094 0.199257 -0.418224 -0.707385 0.579017 1.63286 0.175715 0.64352 -0.202249 0.41091 -0.201314 -0.0837316 -0.793704 -1.42318 -0.83634 0.316029 0.0121405 -1.07371 0.032364 0.23693 -0.278651 0.277332 -0.357116 -0.635934 0.909522 -0.0964167 -0.414922 0.408026 -0.739695 1.04959 -0.0860034 -0.0908374 0.648083 -0.156712 0.0653402 1.09442 0.512518 0.150888 -0.258891 -0.255726 -0.158239 -0.25441 0.543565 0.0511052 0.284789 -1.33437 -0.166047 -0.743586 0.704858 1.58108 0.277113 0.804482 1.20022 0.728857 0.605709 0.0467653 -0.260023 1.59663 -0.660124 0.399972 0.31347 -0.530531 0.452037 -0.890116 -0.528814 -1.00445 -0.0729572 0.11974 -0.278554 0.0944153 -0.523954 -0.571478 -0.580798 0.202831 
0.608721 -0.966058 -0.350356 -0.390105 0.636525 -0.0406506 0.318041 -0.279216 0.58587 1.01449 -0.0430414 -0.325793 1.02471 0.0725373 -1.29212 -0.385694 0.0883254 0.451381 1.04551 0.0637015 0.0766188 -1.48181 0.245077 -0.70684 -0.117848 0.225428 0.747304 -0.695143 -0.43783 0.0649781 -0.198165 0.774012 -0.342282 -0.69523 -0.707801 -1.04017 0.475381 -0.0655395 0.601391 1.15766 -0.0322935 -0.880599 0.0582469 -0.562767 0.527653 -0.804997 0.0808509 0.0205052 -1.37562 0.0456555 -1.62198 -0.165492 0.0140899 0.0199833 -0.875285 0.436408 -0.0158763 -0.297334 0.466712 -0.610143 0.803532 0.0153292 -0.615431 0.843081 -0.7193 0.899967 -1.0499 -0.221936 0.460094 0.379913 0.652774 0.058161 -0.160059 1.32973 -0.7683 0.424467 -0.0593034 0.294769 0.766948 -0.549738 0.370827 0.827534 -0.835586 -0.624364 1.16555 1.14073 0.0352681 -0.138563 1.04446 -0.08613 0.579929 0.320685 -0.779812 0.129523 -0.221287 0.522751 
-1.06645 -0.172199 0.162579 -0.0608584 -1.64313 0.968207 -0.0891441 0.446818 -0.0779349 0.315001 -0.132809 -0.730993 -0.410936 0.327089 0.141101 0.177422 0.461849 -0.615323 -0.0645525 -0.737363 0.513961 0.00484366 -0.060646 0.41951 -0.874467 -0.445926 -0.375729 -0.287936 -0.582303 0.695648 -0.480585 -0.796095 0.456165 0.392092 0.0995223 0.317912 0.487096 -0.780525 -0.701726 0.713328 -0.253169 -0.669652 1.35597 0.836398 0.756239 1.40981 -0.236294 -0.109063 0.184568 1.07009 -0.395815 -0.419079 0.677196 -0.8368 0.589204 0.209519 1.02032 -0.813222 -0.444468 0.0703395 0.261952 -0.517062 0.193396 1.13442 -0.11998 -0.321192 0.405444 0.269207 0.332858 -0.427188 -0.00736492 0.927785 1.21566 -0.00133047 -0.204485 -0.256698 -0.383621 -0.24361 -0.331328 0.784076 -0.895387 0.352864 -0.734062 0.110804 0.0818473 0.342995 0.479573 -0.11504 -0.993708 -0.190097 0.141881 0.154731 -0.358173 0.406774 -0.17766 -0.538418 
-0.262675 0.317578 -0.698807 -0.0405498 -0.507342 -0.141927 -0.269016 -0.795473 -1.47501 0.409676 -0.260726 -0.586874 0.0384193 -0.865965 -0.460528 0.974105 -0.203397 -0.204674 0.256813 0.204407 -0.138352 -0.877035 -0.310888 -1.40784 -0.105527 0.302201 -0.598541 -0.440096 -0.255579 -0.237894 0.333415 -0.254417 0.0547491 -0.693637 1.11659 -0.283702 0.129652 0.817723 -0.249367 0.0937835 0.114744 0.150151 0.161998 0.0767347 0.0742683 0.822448 -0.268171 -0.405945 0.0171403 0.0249383 -0.402351 -0.308868 0.522079 0.438562 0.120066 0.790695 -0.272329 0.137636 0.211938 -0.790288 -0.705062 -0.376933 -0.693552 0.633506 -0.103632 -0.535003 -0.318512 -0.380758 0.831444 0.498169 0.0211756 0.629806 -0.42762 -0.302673 -0.995925 0.341365 -0.19061 0.336049 -0.568002 -0.220161 -0.0658435 -0.385549 -0.393899 0.859875 1.25812 0.0408522 0.832433 -0.0558904 -0.647022 -0.26699 0.264841 1.09021 -0.0178335 0.935746 -0.0648232 0.669702 
0.0376499 -0.545287 0.215882 -0.459533 0.267555 -0.589834 1.69426 -0.439566 0.625928 0.138103 -1.25966 -0.273228 0.0993862 -0.075353 -0.381058 0.090683 -0.278772 -0.991592 0.753888 -0.464758 0.396953 0.545398 0.0200168 -0.0114832 -0.160153 -0.375308 -0.676436 -0.475703 0.33101 -0.273447 0.114145 -0.315893 -0.218167 -0.433384 0.0671652 0.549498 0.301342 0.138932 -0.549114 -0.614739 -0.478169 0.45901 1.25491 0.583139 0.256112 0.614759 -0.214222 0.130856 -0.559979 0.23229 -0.3081 0.548411 0.577892 0.124339 -0.694666 0.179313 -0.662153 -0.109963 0.462893 0.320113 0.474018 -0.00183176 -0.659343 -0.115598 0.147527 0.071722 -0.339235 -0.943374 -0.179041 0.788807 -1.54104 0.125339 -0.782582 1.0081 0.289042 0.967069 0.0913747 0.421889 0.464081 0.348917 -0.998815 -0.0877932 0.484369 -0.461641 -0.957495 -0.508554 -0.681862 0.189968 0.34993 0.107639 -0.616308 -0.7932 1.47553 0.905146 0.29804 0.293388 
-0.329956 -0.199401 -0.0711523 0.508227 -1.16368 0.622838 -1.00154 0.452136 0.844397 0.286838 0.381461 0.625163 0.109095 0.928732 0.119997 -0.390035 1.24001 -0.363779 0.244263 -0.17137 -0.0420608 0.880182 -0.433028 -0.18804 0.524374 0.0208607 0.370842 -0.390221 -0.130699 0.0874566 0.789223 -0.0592463 -0.154252 0.561716 1.16382 1.06507 0.396221 -0.396544 -0.537001 1.03457 -0.633338 -0.575995 -0.374292 -0.103248 0.349672 -0.425106 -0.396452 -1.02044 0.360184 0.101271 0.368878 0.0166627 -0.13469 0.14696 -0.00274576 -0.252117 -0.58748 -0.912186 0.290597 -0.17906 -1.17501 0.341799 -0.0369441 -0.586236 0.19397 -0.83609 -0.103493 0.131 0.140529 -0.373136 -0.698954 -1.57837 -0.158886 0.513781 -0.377643 -0.0876719 0.400441 -0.633198 0.371152 0.896617 -0.612806 -0.262588 -0.0766232 1.28056 0.566645 1.54402 0.366462 -0.0752217 -0.00903681 0.36825 -0.0703576 -1.38319 -1.34999 0.664878 0.940545 -0.953316 
0.310941 0.278398 -0.441636 -0.329048 0.619457 0.158194 -0.471764 0.9701 0.242857 -1.17337 0.48174 0.69169 0.526562 -0.0255001 -0.279646 0.634521 0.456427 0.608161 0.301615 -1.98379 0.593583 1.40008 0.07455 0.0423573 -0.322672 -1.66239 0.384256 -0.239931 0.140417 -0.290214 -1.73226 0.604505 -0.185668 1.20455 0.495562 0.707823 0.0799983 -0.556338 0.110932 0.260429 0.0214338 -0.213088 0.128215 0.956784 0.261591 0.14583 -0.555548 0.313375 -0.235636 0.267782 0.139832 0.14952 -0.257905 0.158986 0.333609 0.0662477 0.566733 0.984269 1.42379 0.0356756 0.328255 -0.963686 0.260665 -0.579637 0.104277 -1.473 -0.0420085 0.0234369 0.123783 -0.129635 -0.279473 0.470145 0.761298 0.0557378 -0.148924 -1.14416 0.263005 -1.61678 1.99636 -0.776873 -0.102669 -1.76065 1.39275 -0.103761 0.963662 -0.213322 0.588653 0.805121 -0.299245 0.203012 -0.729999 0.313923 -0.107844 -0.200906 0.449958 0.338009 
