0.431477 -0.038415 -0.151434 -0.977949 0.0888464 0.446739 -0.428107 0.880722 -0.289222 0.31109 0.956514 0.800223 0.180111 0.688099 0.736157 0.12191 -0.199266 0.22992 -0.756698 -1.20451 -0.457501 -0.407469 -1.07592 0.179499 -0.524285 -0.511688 -0.309135 -0.0284275 -0.407242 0.418051 -0.0834385 0.953564 0.0979727 0.610114 -0.605418 -0.459347 0.416328 -0.137156 1.47113 0.403447 -0.107373 0.310387 -0.329181 -0.0978757 0.678638 -0.255418 -0.126443 -0.538781 1.1746 -0.771222 -0.0131042 0.972957 0.75831 -0.336166 -0.173749 0.308465 0.804027 0.125226 -0.146157 -1.02636 -0.433651 -0.0972997 0.285121 -0.623462 0.304964 0.0657241 -0.34897 -0.130535 0.426813 -0.453263 -0.0852028 -0.682049 -0.784195 0.505946 1.2291 -0.559661 0.462863 0.23084 0.622703 0.0799511 0.245365 1.3387 0.718887 -0.424959 0.28482 0.518967 1.26138 0.456111 1.09244 -0.052485 0.410573 0.07638 -1.0132 0.56118 -0.171666 0.444033 
0.469596 -1.56677 0.786605 0.108045 -0.0296328 0.256421 -0.153858 0.365004 1.27286 -0.184016 -0.513087 0.97182 0.644254 0.349687 -0.255276 -0.763364 -0.0865661 -0.06225 0.907723 0.490331 0.151382 -0.059511 -0.640282 0.575753 -0.509653 -0.0978397 0.79222 0.137836 -0.534203 -0.424111 -0.652484 -1.19456 0.281131 0.376923 0.00897634 -1.22049 -1.61871 -0.309466 1.02022 0.0846754 0.172941 -0.164375 -0.105329 -0.647652 -0.195429 0.417776 0.290918 -0.262638 0.493328 0.684653 -0.225756 -0.517396 -0.144877 -0.451644 0.287536 0.596939 -0.483018 -0.356666 -0.334648 0.368321 -0.121634 0.215002 0.753783 -0.587456 -0.996764 0.602586 -0.445161 0.24323 -0.553257 -0.960319 0.0680308 -0.00992714 0.712121 -0.635675 0.676421 -0.680544 0.225419 0.206535 -0.734315 0.221127 -0.844879 -0.069767 1.05295 0.464524 -0.320696 0.049487 -0.138328 0.444759 -0.35625 0.165728 0.769292 0.740202 0.220117 -0.286302 -0.661808 0.509116 
0.0663043 0.05296 -0.451161 1.25271 -0.499519 1.47768 -0.0734818 -0.197657 -0.528842 0.0377511 -0.0226757 -0.927034 0.391455 1.25182 0.184904 0.115393 -0.16101 0.0559916 0.146392 -0.857521 0.575075 0.313108 -0.0747778 -0.0183224 0.257903 0.671763 0.0181719 -0.876808 0.0149377 -1.11483 0.0602675 0.474154 -1.29532 0.285702 -0.969066 -0.255928 0.0770134 0.0165845 0.00901976 -0.43085 -0.200902 -0.0429507 -0.192995 -0.406859 0.278773 -0.134224 -0.922176 0.611922 0.374684 0.638008 0.348045 -1.17305 -0.955563 -0.572309 0.366952 0.36858 -0.0645921 -0.594353 -1.00556 -0.648118 0.612287 0.249743 -0.375022 -0.199687 0.599357 -0.448632 -0.220443 0.106941 0.502958 0.812359 -0.70836 -0.627878 0.145187 0.532853 -0.443825 0.318155 -0.144221 -0.173648 -0.109032 -0.110018 0.718252 0.709586 -0.317636 0.143639 -0.335099 -0.447307 0.0729007 0.43462 0.479465 0.167174 1.07973 0.726624 -0.0815313 0.630675 0.0774007 -0.763187 
0.680054 0.11705 0.80457 0.112658 0.351294 -0.515894 0.780933 -0.0291868 -0.563898 0.605881 0.084057 -0.763753 0.210389 -1.21788 -0.0141638 0.535452 0.308182 0.0924169 0.404857 -0.154568 0.424903 -0.682889 1.14123 -0.368437 0.358549 -0.0502935 0.602865 -0.668406 0.131411 -0.770122 -1.34299 0.813843 -0.231145 -0.322933 1.11054 -0.112771 0.826606 0.626973 -0.329891 0.3657 -0.382093 0.877182 -0.0111494 -0.447683 -0.619868 0.12646 0.514834 0.85532 -0.8204 0.124487 0.429255 0.127369 -0.503118 0.370866 -0.628395 -0.768163 0.809573 -0.440743 -0.509781 -0.933495 -0.236082 1.23689 0.146696 0.917314 -0.742044 0.670787 0.659053 -0.215021 0.0466908 -0.684722 -0.391241 -0.741837 -0.0703101 1.04391 0.130927 -0.502229 -1.06458 -0.909064 -0.0509993 0.106697 -0.364808 -0.211928 0.208509 0.990417 -0.485037 -0.283087 -1.10923 1.10727 -0.480221 -1.07738 -1.39924 1.06698 -0.847405 0.103195 -0.993623 0.529948 
0.927031 0.862997 0.810802 -0.930174 0.338969 0.395269 0.900206 1.08753 -0.594473 0.244435 0.213398 0.350802 -0.433853 -0.699134 -0.581952 -0.294563 0.110101 -0.241324 0.592761 0.801469 0.28561 0.504232 -0.273376 -0.372804 -0.146589 0.193273 1.0463 1.22837 -0.265131 0.643135 -1.07905 -0.459405 -0.0483734 0.00940934 0.199898 0.225204 0.37154 -0.433883 -0.398405 0.170236 0.688024 -0.287523 0.186757 0.54118 -0.431345 0.21638 0.478358 -0.1231 -1.0119 0.541514 -0.33775 0.255577 -0.0171681 -0.930433 0.158633 -0.864434 0.642249 -0.357881 0.119381 -0.203009 0.738553 0.704172 0.348742 0.273885 0.541943 0.760407 -0.31852 0.288889 -0.323634 -0.848855 -0.305717 0.448738 0.153353 -0.614917 0.136929 1.26258 0.402883 -0.264474 0.487844 0.37037 0.230391 -1.72306 0.0258549 0.219519 -0.446893 -0.816538 0.275946 -0.580672 0.860939 -0.0522957 -0.618112 -0.324958 0.533054 0.924412 -0.341498 0.134653 
-0.141393 0.536551 -1.10377 0.00948998 0.997604 -0.403451 0.464983 -0.445269 -0.276898 0.951231 0.324886 0.649189 1.13361 0.620411 0.385808 -0.0593024 0.282169 -0.487194 -0.770668 0.303965 -0.697161 -0.0159104 1.02049 -0.463587 -0.26265 -0.739577 -0.175014 -0.53572 -1.05055 0.950592 -0.359867 -0.499625 0.292654 1.42376 -1.34387 0.444143 -0.540686 0.507028 -0.225741 -0.763603 -0.101251 0.258692 0.448248 -0.0825773 -0.0275327 0.465047 0.84981 0.712754 0.517819 0.121913 1.37203 -0.0412465 -0.470585 -1.04401 -0.450957 0.561221 -0.385364 0.422735 0.229149 -0.285428 -0.665431 0.255393 0.288847 -0.39603 0.184999 -0.47179 -0.697127 -0.184019 0.206797 0.154353 0.781968 -0.600035 1.10052 -0.0679814 -0.440669 0.352758 0.500712 -0.358547 -0.773333 -0.484668 0.557597 0.727095 -0.324613 -0.130096 0.300812 0.602605 -1.87833 0.505241 0.0170605 -0.612488 -0.239849 0.504215 0.677296 -1.20119 0.50318 -0.276947 
-0.110673 0.273435 0.399143 -0.319016 0.000289367 -1.43417 0.162055 -0.287933 0.315766 0.647146 -0.572157 0.354173 -0.0101842 0.447439 -0.54447 0.220091 0.455532 0.575289 0.626438 -0.475811 -0.335806 -0.281795 -0.0709309 -0.561317 -0.595743 0.640845 0.0175729 -0.733327 0.0395909 0.592051 -0.0669584 -0.00812905 0.888289 -0.807649 0.164414 0.573567 -0.498811 -0.584771 -0.00786219 -0.832078 0.11738 -0.805626 -0.61437 -0.117946 1.07351 1.1118 1.46467 -0.0706785 -0.183263 -0.11826 0.180729 0.241682 -0.850508 -0.580088 -0.271583 0.278555 0.983722 0.260822 -0.431373 -0.668351 -0.54854 0.00882018 0.966911 0.403922 0.122829 0.3768 0.154737 -0.306179 0.17653 -0.0205142 -0.303574 -0.134349 0.112048 -0.13605 -0.558599 -0.127043 -0.233919 -1.03663 0.266338 0.492279 -1.00909 0.00906838 0.0268027 -0.271633 -0.344731 -0.228612 0.294693 -0.226507 0.401623 -0.322207 -0.389157 -0.542859 0.411763 0.286448 0.0342522 -0.135658 
-0.0569781 0.410296 -0.187314 -0.413148 -0.389154 -0.395242 -0.324281 -0.614958 -0.211021 0.54611 -0.239536 0.119502 -0.0865825 -0.0554222 -0.542173 0.25926 -1.25088 0.0236775 -0.268802 -0.175821 -0.167761 0.109832 0.614666 -0.131557 -0.772737 0.353643 0.321193 0.00757355 -0.196627 0.477859 0.81169 -0.362966 -0.296036 0.916043 -0.355478 -0.807037 -0.542524 0.918191 -0.678783 -1.36452 0.686064 0.104782 0.123925 -0.64803 -0.586827 0.193666 0.261926 -0.758359 0.610031 1.0765 0.349953 0.295816 -1.0361 0.936696 0.610007 0.663098 -0.426794 0.569577 1.05056 -0.426846 -0.244335 0.658143 -0.00345859 -1.01993 -0.0541796 -1.16907 0.30095 -0.0410391 0.202305 0.547321 -0.874635 -1.27003 -0.353221 -0.260764 -0.618013 0.165166 -0.860103 -0.284376 0.756366 -0.161953 0.0325595 -0.242352 -0.0342062 -0.164038 -0.621004 -0.0292174 -0.0811297 -0.781604 0.570913 0.484174 0.479915 -1.26081 -0.213083 0.089482 0.525965 -0.459563 
-0.411279 -0.329287 -0.832941 0.145857 -0.18346 0.962183 -0.153343 0.233111 -0.412218 -0.0782458 -0.173843 0.724496 0.263184 -0.553633 0.657424 0.78234 -0.127011 0.411024 -0.53615 0.187307 0.0494214 0.833997 1.74365 -0.191065 -0.184185 -0.764861 0.846533 -0.666646 -0.125901 -0.370834 -0.324431 0.445223 -0.382958 -0.368461 -0.337509 0.472326 0.889646 0.369245 0.0312351 -0.415392 0.904235 -0.936688 -0.444507 0.373422 -0.267254 -0.265291 0.868255 -0.304915 -0.687815 -1.14055 -0.349357 0.346374 -0.748029 -0.252658 0.148946 0.605114 -0.576938 -0.476043 0.0496804 0.0377637 0.885208 1.02609 -0.528637 1.17844 0.58136 -0.257818 -0.795714 -0.0859923 -0.286295 -0.225188 0.209671 -0.87244 -0.508033 -0.4211 -0.111762 0.149709 0.297881 -0.00543037 0.368775 0.0568955 -0.803713 -0.482803 0.78932 0.575087 0.283463 -1.05991 -0.39482 0.511882 0.998223 -0.541897 -1.24743 0.0805179 -1.39963 0.341117 -0.615617 0.061754 
-0.0435331 0.305231 0.539251 0.22906 0.00230157 -0.77815 0.663241 -0.235497 0.512536 0.468983 -0.142052 0.117256 -0.360063 0.516087 -0.572757 -0.112612 -0.024047 0.183296 -0.311369 0.840051 0.509333 0.188552 0.339993 -0.0967447 -0.748601 0.283756 -0.323788 -0.444492 -0.127433 0.185385 0.0766725 -0.00810838 0.666615 -0.314789 0.176823 0.164169 0.792924 0.0262405 -0.071286 0.29073 -0.0453696 -0.1201 0.542435 -0.409436 -0.670541 1.217 -0.323864 0.53615 -0.634231 0.379311 -0.966163 0.0960416 0.784347 0.0392724 -0.458334 0.138044 -0.404114 0.693561 -0.331222 -0.590272 0.599328 -0.190212 0.00157175 -1.05676 0.905881 -0.602826 0.536225 0.327607 0.0202134 0.144152 -0.150312 -0.438648 -0.604111 0.151579 0.524287 -0.442089 -0.784294 0.164214 0.969825 -0.421707 -0.0151451 0.244436 -0.0916663 1.23443 -0.113938 -0.134234 0.0672316 -0.154775 -0.439578 0.272115 0.679111 -0.693086 -1.15426 0.104812 0.893029 -0.156925 
-0.654854 -0.868795 -0.170334 0.0352936 -0.203399 -0.514197 -0.158779 0.0550729 0.0292509 0.0788404 -0.713905 -0.28375 -0.725687 0.281685 -0.251452 -0.236136 0.195203 0.31409 -0.859753 0.0715272 0.449826 -0.412293 0.347337 1.20357 1.15604 -0.647335 -1.38256 0.668456 0.0477363 0.227867 -0.36271 -0.754556 -1.02689 -0.131798 1.00082 -0.154432 -0.433522 -0.0810393 0.224258 -0.169438 -0.73872 0.193691 0.201893 -0.631435 0.595142 -0.0876984 0.305592 -0.263907 0.400861 0.712156 -0.668544 -0.462119 0.53894 -0.479442 -0.0947145 1.54256 -0.00357392 0.621275 1.63532 0.857762 0.0200853 0.247537 0.249124 -0.26857 -1.29568 -0.132026 0.116601 -0.0823767 -0.224331 1.16043 -0.458065 -0.568137 -0.368026 -0.175112 0.0222742 -0.0446188 -0.281286 -0.589703 0.249762 0.100378 0.694298 0.295855 0.107298 -0.0367977 0.249941 0.509281 -0.284468 0.172651 -0.664273 0.321022 -0.682077 0.366009 1.12837 -0.447209 -0.234711 -0.0111354 
0.611083 -0.0532777 -0.546892 -0.780738 -0.133473 0.622049 -0.538566 0.161986 -0.21055 0.529864 0.209458 0.663133 0.789937 1.1486 -0.259971 -0.602355 0.329888 0.302137 -0.236176 0.436657 -0.855376 0.15579 -0.322264 -0.329377 -0.630855 0.233458 -0.384022 -1.15777 -0.526014 0.871401 0.083966 -0.43605 -0.555812 -0.131839 -0.882007 -0.470434 0.561226 0.164048 0.319713 0.0053373 -0.684613 0.26623 -0.582341 -0.332297 -0.556301 -0.4337 -1.3435 0.916752 1.19445 0.409127 -0.420542 -0.108217 -0.279709 -0.0617748 -0.775443 -0.596351 -0.705345 -0.492631 -0.259454 0.41503 -0.682612 0.212108 -1.69027 0.643996 0.419393 0.367863 0.734074 0.00726063 -0.642885 0.52928 -0.431523 -0.12157 0.811921 0.970251 0.259692 -0.764292 0.746269 0.375351 -0.235085 0.179304 0.148934 0.257221 -0.672141 -0.257877 -0.579645 -0.97335 -0.360447 -0.0150616 0.0485705 -0.979675 0.921466 -0.468589 -0.696981 -0.367267 0.0343976 0.347404 
1.47532 -0.846057 0.528128 0.757091 -0.719052 -1.03413 -0.716202 -0.0628655 0.222373 0.0491488 -0.477724 1.50884 -0.46433 -0.388032 0.508212 0.23884 -0.599874 0.0965869 0.582517 0.995767 0.433484 -0.887485 2.02443 -0.346139 0.708677 0.524963 0.0970361 0.101219 0.9499 0.164589 -0.824896 -0.276451 -0.37548 0.0454452 0.850945 1.10058 -0.166485 0.0586217 -0.262888 0.47809 1.1771 0.354627 -0.846154 -0.592971 0.256027 -0.253949 0.0198782 -0.284838 -0.293237 -0.227045 -0.794857 0.935308 -0.126768 0.142361 0.678272 -0.72551 -0.77146 -0.146606 -0.873846 -0.72349 -0.739786 -0.19096 -0.254916 0.551661 -0.46819 -0.938455 -0.995167 0.162566 1.37251 0.296103 -0.525492 0.661109 1.11093 -0.439334 -0.33855 -0.260869 1.11094 -0.916408 -0.833416 -0.818753 -0.332372 -0.99005 0.887029 -0.613599 -0.325177 0.889841 -0.131119 0.903446 -0.82418 -0.0944142 -0.719595 -0.19318 -0.100786 -0.436982 0.559203 -0.00282716 
0.0408118 -0.553124 0.0549638 -0.120886 0.509378 -0.465729 0.128095 -0.547918 -1.44336 -0.359087 -0.302074 -0.452206 0.891202 0.120439 -0.137895 -0.840446 0.691365 0.591477 0.214003 -0.626987 -0.184853 -1.11618 0.347093 0.539595 -0.318896 0.541055 0.764287 0.398831 0.614283 0.68699 -0.731921 -0.0160064 -0.0665266 -0.157132 0.00693951 0.460764 -0.282447 -1.02657 -1.09923 -0.0666067 -0.81669 0.560996 -1.29069 -0.587548 -0.786468 0.02525 0.450193 0.353712 -0.246929 -0.916169 0.681435 -0.0225047 0.155995 0.295016 -0.990882 -0.144234 0.00482345 0.0327939 -0.0205834 -0.443923 0.690028 -0.518232 -0.0913953 -0.175254 0.844145 0.138024 -0.108156 0.571745 -0.682753 -1.11134 -0.2887 0.101662 -0.636447 0.499453 -0.182599 0.58365 0.27302 -0.886316 0.345035 0.761731 0.239194 1.04979 0.361131 -0.444848 -0.314548 -0.236835 0.528492 -0.138096 0.48545 0.342989 1.0421 -0.505957 0.216698 0.339125 -1.39999 0.342573 
-0.99231 -0.191859 0.224308 -0.434536 0.193628 -0.797529 0.0576926 -0.388108 0.113424 0.216302 0.102622 -0.872358 0.863808 0.0411734 0.97166 0.144817 0.120798 -0.111148 0.173939 -0.83148 -0.990547 0.785777 1.17684 0.204566 -0.370154 0.180006 0.280838 -0.202079 0.179073 -0.336536 -1.00889 0.315508 1.20685 0.768294 0.75681 0.384625 0.216773 0.107799 -0.674064 -0.868961 0.276203 -0.562818 0.426117 0.00356364 0.0102556 0.236951 0.660793 0.0768275 0.224992 -0.195122 -0.710052 0.476347 -1.08036 0.445433 -0.0841175 0.28234 -0.210064 -0.206711 -0.117364 -0.344411 -0.266781 -1.00356 -0.252943 0.312461 -0.655165 0.522056 0.238198 0.843053 0.0507287 0.456069 0.00255776 0.454974 -0.799978 0.600428 0.827404 0.244264 -0.627527 -0.0939368 0.745699 -0.161651 1.21601 -0.862188 -0.3615 0.434925 -0.806301 0.949615 -0.364896 -0.58933 0.197375 0.501155 0.857354 -0.29595 -0.276224 -0.0708087 1.0157 -0.0101089 
0.385973 -1.04704 -1.0169 -0.636535 -0.518457 0.224584 -0.504271 0.613047 0.724788 0.174245 -0.064774 0.818704 0.0583801 -0.962482 -0.435542 0.328697 0.0312853 -0.196022 0.204758 0.166698 -0.247083 0.575062 0.0529841 -0.261396 -0.184666 0.00499711 0.0504974 -1.12977 -0.336967 0.30899 0.111244 -0.565214 0.164506 -0.256774 0.0878214 0.29008 0.288255 0.143746 0.353105 -0.518747 -0.948422 0.00909484 0.185781 0.472611 0.267227 -0.531776 0.217585 -0.514749 0.663983 -0.375233 1.54964 -0.155842 0.482514 -0.533079 0.239037 -0.260382 0.554023 0.411241 0.313216 0.332741 -0.12703 -0.695898 -0.30342 0.489822 -0.38707 0.0848083 0.823158 -0.0199852 -0.350146 -0.793115 -0.0568228 -0.775856 0.386353 -0.150699 0.0448618 0.0616448 -0.211771 -0.657949 0.0779308 -0.127927 0.0998909 0.312491 -0.334829 -0.38706 -1.09228 0.216332 -0.392757 -1.04286 0.182459 0.397154 -0.332562 0.644409 0.849031 -0.70128 -0.257126 0.243146 
-0.915867 0.0295442 -0.535191 0.765264 -0.00502435 -0.749878 0.81735 0.161128 0.746432 -0.985806 0.928731 0.210702 -0.233429 -0.461946 1.03504 -0.0796683 0.992353 0.231806 -0.540069 0.199603 0.126673 0.175244 -0.491271 -0.202785 -0.248621 0.257156 0.265419 -0.714597 0.297134 -0.293156 0.771439 0.538033 -0.720408 -0.455005 -0.220691 0.771373 0.191581 0.855414 -0.0618018 0.255858 0.0560855 -1.2543 -0.929112 0.176931 -0.216103 -0.179312 -0.548339 0.309935 -0.783023 0.363777 0.592975 -0.89816 -0.122262 -0.253742 0.170258 -0.485858 0.0945151 0.0598785 -0.9544 -0.110834 0.656612 0.429559 -0.476081 0.310167 -1.18434 0.52411 0.493095 -0.0655459 -0.876563 0.428593 0.235081 0.560128 0.696553 -0.972535 0.277864 -0.256248 0.258199 -0.549743 -0.211552 0.169563 0.647103 0.00194733 -0.30122 -0.638861 -0.582444 0.373082 0.634214 -0.967828 -0.528187 0.241091 0.625006 0.319235 -0.260563 0.472539 -0.0477619 -0.471427 
-1.27726 -0.653548 -0.348717 -0.222761 0.56161 0.399451 1.24949 -0.646921 0.36582 0.6757 -0.320821 -0.801305 1.13537 -0.383079 -0.0807725 0.772995 -0.573429 0.397925 -0.710043 0.116954 -0.111147 0.243218 0.17222 0.0917341 -0.0572815 0.239089 0.0126274 0.564802 0.321013 -0.629564 -0.443026 -0.0546834 0.649569 -0.0183216 -0.734534 -0.171305 0.107831 -0.609019 0.362155 -0.182281 0.0676294 0.050354 0.717449 0.783789 1.32248 0.628047 -0.830606 -0.283291 0.292742 -0.3782 -0.139405 0.77381 -0.409452 -0.431091 0.108124 0.419537 -0.338727 -0.434305 -0.755811 -0.264063 0.161237 -0.529528 -0.00381622 0.627157 0.117267 -0.549092 0.702593 1.27934 0.102049 0.3097 0.583169 0.213814 -0.286941 0.0893647 -0.509195 -0.778549 0.46461 -0.0778782 -1.24211 0.732069 -0.276894 -0.734049 0.201197 -0.63089 0.416573 0.621826 0.568655 0.0330197 0.707217 0.495657 -0.414263 0.699745 0.119084 -0.154797 -0.142759 0.946653 
0.626985 -0.533588 0.586172 -0.252443 0.544851 0.0962317 -0.29997 -0.333009 -0.0145458 0.461722 0.677248 0.428646 0.848112 -0.995614 -0.0815912 0.210588 -1.03156 0.149297 -0.336297 0.113559 0.0748051 0.84628 -0.660166 0.739564 1.10983 0.94323 0.87272 -0.208918 -0.709161 0.996922 0.537497 0.512617 -0.163044 0.333964 -0.261877 -0.256463 -0.420234 -0.801103 -0.905221 -1.29223 -0.235207 -1.03439 -0.948899 -0.279197 -0.22007 -0.651597 0.124119 -0.690713 0.61764 0.86154 0.831555 -0.566226 -0.871919 -0.655978 -0.154577 -0.104802 -0.548816 -0.625411 -0.55373 0.105034 -0.230706 1.25868 0.15025 0.81504 -0.112605 0.789208 0.0870384 -0.303574 0.207173 1.13946 -0.273859 0.13512 0.0814291 -0.386132 0.34302 0.657507 0.146203 0.586472 0.813828 0.174467 0.0869828 -0.696182 0.300408 0.745098 1.15681 0.114891 1.07306 -0.687625 -0.712602 0.280745 0.0882062 1.00571 0.66895 0.141936 0.317582 0.33044 
-0.877137 0.866711 -0.261762 1.14451 0.488447 0.296838 -1.40275 1.01452 -0.754011 -0.543643 0.358879 -0.176192 -0.615775 1.43728 -0.391318 0.243652 -0.625776 1.01651 0.675093 0.906525 0.459114 0.41626 0.0196451 1.44192 -0.853969 -0.0480633 -0.392268 0.111899 0.494672 -0.272024 0.929671 0.508924 -0.117796 0.162733 -0.00596206 -0.849982 -0.198073 0.746472 0.545885 0.491224 1.13156 -0.0607125 0.194582 0.402949 -0.241193 -0.306522 0.794956 -0.225447 0.155121 -0.148379 0.24314 -0.101035 0.550744 0.678367 0.648301 -0.716474 -0.460519 -0.165715 0.217282 0.38842 1.17647 -0.395877 -0.575362 0.127167 0.0124186 -0.035158 0.194693 0.691314 0.0339964 -0.53235 -0.0450887 -0.105543 0.157052 1.44207 0.0514955 0.464997 0.0229882 -0.334546 -0.509578 -1.23723 1.35608 0.717808 0.00391983 -0.491554 -0.36334 0.41167 0.0468622 -0.897315 -0.52713 0.1042 0.347674 0.0571272 0.988086 -0.20158 -0.750643 -0.487588 
1.02277 -0.414239 0.362042 -0.115625 0.00191489 -0.142961 -0.634711 0.54619 -0.269967 -1.11005 -0.0885917 0.38241 0.0714282 0.398929 0.557873 0.409818 -0.953814 -0.519485 0.666665 -0.0538727 0.000882976 -1.43445 -0.671962 0.238124 1.4864 -0.526887 -0.574991 -0.383549 0.214371 -0.44942 -0.694852 -0.282441 -1.06799 0.432788 -1.10971 -0.297446 -0.203655 -0.565243 0.217955 -0.400485 0.641232 0.74752 0.377842 -1.04987 -0.667043 1.30677 -0.22384 -0.805913 -0.00336058 0.13992 0.142351 -0.561806 -0.430134 0.040138 0.67295 0.768343 -0.00948628 -0.647069 -0.820156 -0.287444 -0.697492 -0.460865 0.456612 -0.856166 -0.644487 0.162841 0.290958 -0.994812 -1.81294 -0.173367 0.906005 -1.03846 0.0742096 -0.0454765 -0.109656 -0.00243283 0.859027 -0.550295 1.05141 0.593386 0.252894 -0.41178 0.571805 0.408707 -0.864035 -0.0515321 0.164432 -0.429202 -0.0321834 -0.39967 -0.0116006 -0.1017 -0.525973 -0.409467 0.343419 0.239036 
-1.24469 -0.768335 -0.119893 -0.264852 -0.463928 0.704395 0.403254 0.728651 -0.919763 -0.169634 0.601877 -0.203114 1.05719 -0.188262 1.32955 0.316565 -0.162095 0.0612093 0.327316 0.216412 0.255353 0.671498 -0.42825 -0.478619 0.848471 0.0533899 -0.46834 0.428141 -0.564706 0.0763651 -0.368345 -0.0236658 -0.559115 -0.164252 0.108896 0.185782 0.60868 0.600748 -0.452653 -0.488619 1.55564 -0.763339 0.172732 -0.802844 -1.11162 -0.00986643 -1.3927 0.445368 -0.0424619 0.290492 -0.629449 0.0843184 -0.879394 -0.770661 -0.302969 -0.415888 -0.113148 0.450826 -0.786025 -0.277549 1.02549 -0.0918645 0.599333 0.383022 0.383085 0.0707158 0.0431574 -0.818178 -0.221572 0.842053 -0.176815 0.0493244 -0.099879 -0.464312 0.399621 0.546338 -0.0636301 -0.96901 0.305591 0.201267 -0.268481 0.0858999 -0.226062 -0.8719 -0.567002 1.6549 0.53029 0.286841 -0.0460858 0.530515 0.668295 0.358439 -0.547153 0.20809 1.27706 -0.593226 
-0.444545 -0.45567 0.354144 -1.19802 0.565988 -0.45261 -0.458784 -0.892366 -1.63681 0.512548 0.115135 0.0154866 0.315143 0.854745 0.381332 -0.472969 0.509987 -0.475225 -0.522347 0.577061 -0.549845 -0.623113 0.273631 -0.552635 -0.850204 -0.190083 -0.554142 -0.752435 0.24679 -0.502147 0.261246 -0.670297 -0.787067 0.748078 -0.439914 0.790917 1.03354 0.141154 0.840248 -0.827766 -0.00739029 -0.57133 -0.315859 -0.688132 1.07977 0.160689 0.965439 0.31906 -0.0152829 0.457256 -1.41758 -0.668647 -0.81495 0.937835 1.25354 -0.186578 -0.167219 0.400245 -0.233616 -0.18496 -0.44296 0.256113 0.776676 -0.364725 1.41099 0.368496 0.131588 0.774509 0.504372 -0.581028 0.266415 0.596353 -0.272111 -0.131066 -0.0917696 1.27325 0.684163 1.26049 -0.621604 0.872273 -0.388327 -0.648252 0.859866 0.0553556 0.258061 0.00457685 -0.356644 0.458858 -0.195691 0.369815 -1.02778 -0.140472 0.059448 -0.48399 -0.299115 -0.150641 
1.07826 0.391776 -0.461345 0.494169 -0.800099 0.779917 0.667126 1.57486 -0.0545268 -0.161229 0.215744 -0.934048 -0.873819 0.393391 0.619446 0.0910894 -0.40346 -0.754937 0.235118 0.488683 1.02711 -0.575005 -1.09842 1.29256 0.232304 0.252067 0.697271 0.592646 0.0830786 -0.509213 0.619159 0.0180309 0.325019 -0.610067 0.136522 -0.800685 -1.12316 -0.202427 -0.436501 0.323854 -0.776374 -0.501273 0.670427 0.892521 -0.0569926 -1.21395 -0.472854 -0.198368 0.621605 0.0823131 -0.349026 0.227112 -0.278971 0.665832 0.0514972 0.410647 -0.458535 0.190762 -0.0761825 -0.336087 0.0483896 -0.688595 -0.511563 0.242969 -0.863859 -0.643084 -0.437154 0.497219 -1.15226 -0.290951 0.751516 0.714303 -0.113087 -0.256856 -0.222891 0.921158 -0.248383 0.362531 -0.790881 -1.30009 -0.748876 -0.160493 1.17704 0.714986 0.954729 -0.976595 0.624119 0.610168 -0.158044 1.66482 -0.0456993 -0.195638 0.159587 0.6923 -0.0473715 -0.323093 
0.876245 -0.117556 1.00946 -0.178375 0.26982 0.744148 -0.498285 0.355574 -0.0371264 -0.025467 -0.654023 -0.854863 0.568691 0.31836 0.333231 0.551785 -0.755507 0.267496 0.0465842 -0.22144 -0.262802 -0.327253 0.536853 0.390517 -0.0883431 -0.776006 -0.215043 0.123687 -0.878873 1.03244 -0.199664 0.632989 0.950378 0.246911 0.245328 -0.553517 -0.13365 0.16986 -0.504515 0.0641879 -0.154264 0.790863 -0.34432 -0.494616 -0.355216 -1.53657 0.321809 -0.906056 -0.206896 -0.730655 0.818215 -0.2745 0.490415 -0.161295 -0.76744 -0.838444 -0.277021 0.158321 -0.0996589 -1.25773 -0.919741 0.35953 -0.0765714 1.10194 -0.118714 0.0543056 0.805558 0.0915923 -0.778755 -0.372621 0.115502 0.562535 1.10759 -0.421419 0.78009 -0.441795 0.26994 0.0538398 -0.26026 1.35308 0.227794 -0.984425 0.0238131 -0.437024 -0.741641 0.976356 0.450533 -0.22946 -0.404442 1.58175 0.454323 -0.204323 0.447391 0.776471 -0.496979 0.015483 
-0.36653 0.480919 -0.210907 -0.964349 -0.320893 -0.553824 -0.125637 0.921287 -0.294614 0.170387 0.906276 0.357122 0.252095 0.149264 -0.554746 0.371836 0.346731 0.169981 -1.10455 1.22147 0.48319 -0.361415 -1.15273 -1.04322 -0.524332 -0.449766 0.270021 -0.244904 0.482722 0.778471 -0.209812 0.774254 -0.198929 -0.440579 -0.174742 -0.0975026 -0.375031 0.329019 -0.55826 0.12164 -0.623135 -0.448471 -0.155017 -0.18445 -0.167386 -0.0775809 0.312577 -0.353964 -0.355805 -0.145329 -1.2893 0.320463 -0.774799 0.611918 -0.0284228 -0.559736 -0.149163 0.125186 0.0417757 0.0998547 0.304487 0.33576 0.0672112 0.0996578 0.568675 -0.125735 -0.0962526 0.590587 -0.185654 0.235008 -0.668409 -0.958631 -0.0369866 -0.65896 0.0726138 -0.600765 -0.244777 0.258432 0.15187 -0.211589 -0.326693 -0.189113 0.152441 -0.30688 -0.277025 0.75827 0.484238 -0.0317806 -0.3067 -0.300275 1.00347 0.19503 -0.181169 0.0110923 0.577334 0.770836 
1.14592 0.847608 -0.422132 1.205 -1.30209 -0.217076 -0.584255 1.28649 0.291928 0.860521 -0.021832 0.590865 -0.932256 0.22125 -0.327168 0.987842 0.090496 1.02273 0.348546 -0.299551 -0.385296 0.349582 -0.441253 0.57538 1.26169 0.585011 -1.01669 -0.357436 0.730654 0.51313 0.93796 0.0218422 -0.912019 0.174404 0.19853 0.22715 -0.704698 -0.458945 -0.167627 0.159801 -0.186828 -0.0829717 0.837242 -0.729551 0.167914 -0.499837 -0.125352 -0.504921 -0.493064 0.505265 0.425848 -0.148016 -0.0812365 -0.0134454 0.309741 0.318154 0.186245 0.745409 0.02275 -0.136716 -0.207473 1.04462 0.0677573 -0.0455728 1.20473 -0.119043 -0.351348 -0.0057489 0.935631 -0.468661 0.777728 -0.0799842 0.912617 -0.619036 0.316024 -0.414951 0.201307 -0.928734 -0.150878 -0.739087 0.518979 -0.323547 -0.668295 -0.395154 -0.673509 0.466826 0.503182 -0.812332 -0.907113 -0.469017 -0.0665475 0.312489 -0.311367 0.124062 -0.0625765 0.369632 
0.476001 0.131814 -0.418191 -0.284031 0.0207759 -0.201293 0.223088 0.694955 -0.387243 0.253732 -0.261377 0.423905 0.992069 -0.0582599 0.861829 0.0390173 -0.299758 -0.583086 -1.25825 -0.377758 -0.710293 0.111776 0.668595 0.81922 -0.116594 -0.17373 -0.27717 -0.150384 0.0336555 -0.0387137 -0.682456 0.436167 0.338358 0.346121 -1.3215 0.0429821 -1.91539 0.642036 -0.281399 0.888444 -0.841259 0.601404 0.00279845 0.381895 0.407763 -0.4803 0.18238 0.157365 -0.487217 0.148225 0.573591 1.10451 -0.329298 -0.013017 -0.0249431 0.0858227 -0.530799 -0.0571978 0.432027 0.0312225 0.537598 -0.221574 -0.418101 -0.304745 -0.13681 -0.967101 -0.0344796 -0.372842 0.163365 -1.0912 -0.160041 0.657991 0.215807 0.504613 -0.445768 -0.0786847 0.0680781 0.649732 0.152758 -0.0393976 1.28573 -0.306781 -0.0449532 -0.551586 0.363953 -1.34132 0.591165 0.2398 0.0745822 0.391191 0.504652 -0.323811 0.107243 0.461738 -0.99673 -0.248359 
-0.367814 -0.0394711 0.0560563 0.495527 0.819705 1.71294 0.5459 0.248062 0.295729 -0.106918 0.401471 -0.214493 -0.736562 -0.930258 0.0849813 -0.0827925 -0.353147 0.112433 0.775911 0.888058 0.387122 -0.503288 -0.116178 0.549902 0.237638 0.378732 0.0493704 0.252956 0.538925 0.533289 -0.227708 0.175667 -0.234129 0.600542 -0.410282 -1.03305 0.492817 -1.2716 0.205639 -1.02534 -0.557 -1.14485 0.646848 -0.854314 -1.03937 -1.28242 -0.135579 -0.359527 -0.674959 -0.101655 0.0836175 0.541298 -0.518848 0.0282288 0.770211 0.441324 -0.400028 0.598798 -0.999257 0.426238 0.531733 -0.643068 -0.0895786 0.888237 -0.309408 -0.157744 0.373373 -0.323518 -0.150895 0.0405078 0.531986 -0.149845 -1.46724 -0.97939 -0.418929 -0.240512 0.0570732 0.140975 1.07179 -0.247082 0.533104 -0.715801 -0.240606 -0.193605 0.457232 0.555831 -0.154281 -1.00945 -0.693491 1.18666 -0.232195 0.663907 -0.711102 0.940745 0.486059 -0.314651 
-0.00590694 0.383432 -0.164286 0.281031 -0.0464087 -0.723474 -1.05636 -0.338485 -0.83925 0.102579 0.418167 -0.103557 0.483269 -0.0583633 -0.528025 -0.474068 -0.0660406 0.669527 -0.553784 0.76171 -0.334494 0.762441 0.446616 -0.560191 0.359486 -0.184587 -0.249202 0.121562 -0.297157 -0.0530456 -0.705563 0.0807677 0.654709 -0.633387 -0.256404 1.2288 -0.0281041 -0.854779 0.461392 -0.341302 -1.10083 0.492589 0.27212 0.466737 -0.732763 -0.0199202 -0.538343 -1.0659 -0.822265 0.599621 0.617592 -0.162828 -0.961843 -0.149428 -0.32943 0.381165 -0.0262884 -0.885 0.735274 -0.308938 0.637829 0.660233 0.119622 0.595733 -0.62386 -0.669902 0.232529 -0.601522 -0.046677 -0.457446 -0.440273 -0.143768 0.80666 -0.31064 -0.0152914 -0.170519 1.27378 -0.568446 0.312176 0.350779 0.441481 -0.24103 1.34705 0.63366 -0.227139 1.26052 0.0534321 0.532605 -0.197012 -0.0291954 -0.49245 0.678087 0.179411 0.922824 0.534758 0.417555 
0.591609 0.511548 -0.0709435 0.459833 -0.055766 -0.0924109 -0.084518 -0.0753475 0.350034 -0.273256 0.0864417 0.187251 -0.339933 0.799202 -0.495555 -0.488472 0.267148 0.250516 0.218963 -1.02516 0.0893903 -0.188786 -0.640281 0.251897 -0.327524 0.0154144 0.0929438 0.297677 -0.0229973 -0.75823 0.297849 -0.175831 0.235593 0.236041 0.0703375 1.44123 -0.435234 0.00185471 -0.182819 -0.318027 0.311672 0.469089 -0.893635 -0.26182 -1.34553 -0.300552 0.770193 -0.0874552 -0.603993 -0.576675 -1.2932 0.347664 -0.0963621 -0.325601 -0.332495 -0.146592 0.159494 -0.212522 -0.116873 -0.324498 -0.191129 0.433872 0.207994 -0.420118 -0.583038 0.0395242 0.0774339 -0.412523 -0.349745 0.44215 -0.199915 -0.701216 -0.112596 0.383936 -0.143933 1.01891 0.17049 0.272287 0.293619 -0.908878 -0.262723 0.729103 -0.132974 -0.457527 -0.249077 -0.127703 -0.10035 1.13371 -0.155334 -1.03369 -0.734634 0.583132 0.0787911 0.489547 0.444577 0.772529 
0.561978 -1.053 -0.53419 -0.289676 -1.13538 0.589085 -0.0721385 -0.221794 0.175878 -0.26582 0.467982 -0.62784 0.627747 0.577753 0.503683 0.493694 0.414267 -0.207141 0.512159 1.15726 0.635164 -0.0169998 0.144749 -0.37834 -0.92057 -0.0319218 0.997258 0.258517 -0.770176 0.418941 0.174902 -0.299385 0.498464 -0.433064 -0.159032 -0.0451079 -0.591308 0.00203658 -0.59288 0.165446 -0.0248248 -1.12128 -0.162141 0.552725 -0.999872 -0.427591 -0.434404 0.0855837 0.162099 0.17716 0.189415 -0.483738 -0.383327 -1.10734 1.54922 -1.00319 0.151824 0.0155719 0.0629334 -0.48582 -0.233302 -1.19444 0.281965 0.362568 -0.554083 0.191862 0.0620451 -1.0242 -0.566695 -0.658121 -0.488007 -0.391131 -0.0110071 0.524145 0.170402 -0.16532 -0.191678 -0.263326 0.0330812 0.218301 0.392316 -0.19412 0.363205 0.35119 0.496454 -1.60924 0.624788 -0.152054 -0.167047 0.482886 0.276047 -0.586959 -1.5141 0.206338 0.212662 -0.35743 
0.178121 -0.264228 0.39166 -0.509384 0.660177 0.159547 -0.654586 0.701804 -0.143389 -0.192129 0.558636 0.283725 -0.554828 -0.199808 0.579767 -1.30767 0.472428 -0.380614 -0.683806 0.218546 -1.27667 0.283184 0.204883 -0.556625 -1.0778 -0.262496 0.231319 -0.554628 -0.410115 0.118936 -0.721634 0.140563 -0.267943 -0.273354 -0.22788 0.414537 -0.23489 0.848215 -0.474835 -0.7382 -0.647102 -0.976727 -0.180646 -0.730568 -0.598633 -0.0206596 0.119729 0.255108 0.668946 0.522587 0.553395 -0.510385 0.39088 1.01002 -0.296382 0.109259 0.630439 -0.426302 -0.537919 0.571388 -0.0666604 0.437716 0.539325 -0.0887099 0.0826329 -0.949167 0.665823 -0.178075 0.151201 1.23544 0.231389 0.211356 -0.146011 -0.204811 0.391299 0.356752 1.36527 0.111236 0.420051 0.352168 -0.844082 -0.240686 0.565839 -0.427019 -0.71342 -0.716077 0.0288109 1.41303 0.183941 0.570318 -0.122771 -0.657451 0.0298769 0.212274 -0.781164 -0.569656 
0.0913104 0.0513793 -0.186146 -0.223239 -0.872982 -0.203305 0.711279 0.455064 -0.0624013 -0.884448 -0.16613 -0.791301 0.144301 0.569221 1.06842 0.0283174 -0.298893 -0.69649 0.95021 0.088302 0.0616889 0.370458 0.477178 -0.312349 0.0960567 0.662131 -0.375734 -0.808361 -0.180523 -0.701624 -1.02376 0.149478 -0.166763 -0.846287 0.572741 -0.208353 -1.02371 0.0103585 1.16418 -0.784809 0.843568 0.106108 0.553483 0.326156 -0.0868739 0.122746 -0.171436 -0.138532 -0.782787 -0.490628 0.356332 -0.217288 -0.0508046 -0.749971 0.200521 1.48532 -0.384668 0.148506 0.224831 -1.23159 0.133696 -1.56654 -0.00808824 0.257475 0.11739 0.614899 -0.0939335 0.770721 0.0574395 -0.598025 0.552324 0.149537 0.503467 -0.417664 0.1809 0.23881 0.56139 0.877823 0.820877 0.295303 -0.699578 0.821848 0.018212 0.811284 -0.352746 -0.210695 -0.398555 0.542081 0.533236 0.917182 -1.29471 0.736282 -0.252688 -0.247589 -0.321738 0.0242013 
-0.318936 0.343139 0.159036 -0.0193423 -0.135103 0.322664 -0.475109 0.205561 1.32088 -0.109409 -0.258607 0.0939909 0.318176 0.222928 -0.472115 -0.339814 -1.08374 -0.216482 -1.06441 0.37331 0.506579 0.325961 0.636009 0.618875 0.02815 1.17937 0.387795 0.620452 0.438412 -0.0243837 -0.609825 0.235301 -0.334472 -0.458153 -0.0875056 -0.146593 0.141033 -0.229639 -0.660064 1.42834 -0.993333 0.146535 -1.03222 0.159089 0.354469 -0.480827 -0.170962 0.506222 0.584718 -0.222188 -0.0130401 0.787671 0.358635 -0.00753063 0.452105 -0.278849 -1.18184 0.00805134 0.190054 0.775237 -0.0146479 0.185401 -1.08855 0.428069 0.772779 0.0428664 -0.21321 -0.461249 -0.0048271 -0.0948542 0.225545 -0.00563251 -0.166801 0.240212 -0.0310603 -0.907812 -0.00792302 -0.540081 -0.158452 -0.366326 1.22856 -0.290116 0.609936 -0.453132 -0.122241 0.812578 0.0846203 0.122591 0.315435 0.185652 -0.107245 0.210871 -0.930481 0.996534 -0.52793 -0.0117144 
0.072845 -0.453981 -0.438179 -0.493725 -0.385097 -0.114452 -0.653963 0.443936 0.663943 -1.28058 -1.02275 0.283483 -0.845327 -0.385378 0.289834 0.114164 -0.983781 -0.858567 -0.102923 -0.293395 -0.81755 -0.113366 -0.275544 -0.265161 0.340542 0.731333 1.17749 -0.253511 0.250471 0.366869 0.245817 0.469122 0.108227 -0.449181 1.54679 -0.774197 0.205657 0.944057 0.480562 -0.157947 -0.0520603 0.0677128 -0.546497 -0.0184929 0.353954 0.883299 -0.436635 -0.440327 0.474948 0.010888 0.377257 0.479189 -0.587626 -0.843822 -0.412986 -0.534693 0.403881 0.560222 1.67053 0.454448 0.716983 -0.0396848 0.930961 -0.885284 0.180296 0.862861 -0.223894 -0.519541 -0.524129 0.305154 1.03509 0.985855 -0.541145 -0.0731958 0.475442 0.00579178 -0.293903 0.103691 0.219805 0.145869 -0.812699 -0.566198 0.0532078 0.208807 0.357138 0.553483 -0.14648 -0.0823458 -0.149526 -0.390119 0.667915 0.878971 0.0927504 0.098225 1.04623 -0.21611 
-0.22837 0.326168 -0.447788 1.33988 -0.943346 0.475752 -0.370831 -0.874723 -0.0859597 -1.06807 0.311649 0.433175 -0.010104 -0.603497 -0.647707 -0.366242 -0.772178 -0.0649884 0.0122235 0.213073 0.616133 0.0955458 0.450338 -0.745669 -0.597047 0.054182 0.987422 0.691825 -0.032628 -0.670791 1.09564 -0.719688 0.167517 -0.806553 -0.115806 -0.649584 -1.69303 0.169787 0.688323 -0.382802 -0.95765 0.7058 0.358025 -0.376711 0.892455 0.0716119 -0.203087 -0.560914 -0.429967 0.397392 -0.536005 -0.27343 -0.133831 0.98379 -0.420374 -0.0633093 -0.48288 0.911166 -0.535469 -0.282811 -0.132696 -0.339122 -0.484229 1.44783 0.804429 -0.2531 -1.12454 -0.00834673 -0.263781 1.52203 0.726234 0.614471 -0.638941 -0.0345447 0.534016 0.720038 -0.81697 0.979646 0.678492 -0.0386694 -1.16307 0.0526502 -1.10573 -0.23612 -1.57366 0.537506 0.608804 1.39168 0.59576 -0.32868 0.849805 -0.358811 0.423971 0.612892 0.523267 -1.3018 
0.540795 0.315953 0.548972 -0.722049 -0.461397 0.143997 0.120255 -0.992661 -0.430994 0.100671 -0.765493 1.08662 0.849991 0.162186 1.66819 -0.543946 0.116212 0.08934 0.942924 -0.013141 -0.320418 0.226042 -0.0640123 0.474289 -0.938763 -0.338183 1.47895 -0.259621 0.861643 0.0692147 -0.0190281 0.259638 0.265428 -0.129005 0.0190678 0.0368455 0.030275 0.564017 0.169359 -0.337209 -0.113269 -0.289029 0.409297 0.172577 0.74421 -0.107961 -0.506549 -0.218471 0.257186 0.88521 0.342686 0.101053 -0.0130376 0.216072 0.718086 0.404575 0.204831 -0.229801 0.473555 0.857578 -0.181929 -0.664553 -0.23034 -0.0223377 0.706103 -0.441455 0.535498 -0.8036 0.144845 -0.605201 -0.558409 -0.490038 0.475693 -0.178902 0.570885 -0.0757475 0.418969 1.15264 0.672512 0.215055 -0.0484122 -0.0549067 0.139582 0.85672 -0.783984 -0.662717 -0.517867 0.663912 -0.241804 -0.129532 -0.134539 -0.465063 -0.403086 -0.684087 1.45008 -0.420905 
-1.12322 0.392025 1.08014 0.108525 0.970289 0.916882 -0.058269 0.277773 0.826464 0.816475 -0.37746 -0.636351 -0.524337 0.101647 0.22085 0.597347 0.0706242 -0.444753 -0.29916 0.575695 -0.682076 0.367434 0.166892 -0.675716 -0.734673 0.227667 0.540122 0.203484 0.389469 0.181102 0.725579 1.00263 0.0270596 -0.487026 0.0546076 0.0542572 0.120424 -0.417258 0.466237 0.0901981 0.12011 0.273679 -1.1525 -0.317959 -0.501863 -0.236647 0.607982 0.265485 -0.742391 -0.42969 0.103731 0.352327 0.198422 0.0990038 -0.0297616 0.323137 0.488502 -0.0868284 -0.172713 0.83603 -0.620966 0.188541 0.348722 -0.191612 0.624116 -0.852703 -0.656501 -0.667476 -0.614095 0.282933 -0.260685 0.830476 -0.305838 1.41882 0.687968 -0.185034 0.828883 -0.381343 -0.0532551 0.433918 0.663649 0.770506 0.258262 -0.471777 -0.133764 0.209914 1.08854 -0.172903 0.374554 -1.70387 0.176566 1.38514 0.0354951 0.990179 0.236741 0.808137 
-1.07488 0.759123 -1.05379 -0.0599269 0.17091 -0.516219 0.450085 1.22481 0.814826 0.654879 0.413198 -0.794967 0.577203 -0.712755 -0.0141238 -0.224134 0.287953 -0.85001 -0.248123 0.870426 -0.622533 -0.534753 -1.50309 0.458953 -0.130086 1.26101 -0.408584 -0.614314 -1.0297 -0.0594847 -0.340919 0.00739841 0.116533 0.228839 -0.00575734 -0.289663 -0.230241 -0.613106 -0.464665 0.710342 0.110212 0.351228 0.52266 0.517401 -0.625641 0.792714 0.232497 -0.152479 -0.430925 -0.458174 0.614871 0.153558 -0.429788 -0.221578 -0.304163 0.836798 -0.651166 0.705201 0.453093 0.605541 -0.894536 1.29234 0.702844 -0.651908 -0.614619 -0.494771 -0.396889 0.0563315 0.459587 0.766949 0.312881 0.181505 0.250538 -0.501715 -0.462765 0.089854 -0.454824 0.518889 -0.155085 0.607072 0.647236 -0.403499 0.0233003 0.196347 -0.662668 0.210909 -0.229148 -1.39708 -0.604274 0.179218 -0.0719341 0.665205 -0.403677 0.196202 -0.446862 -0.346684 
0.996432 0.296232 -0.523968 0.086161 -0.332452 0.112155 0.467366 -0.253224 -0.015876 -0.733992 1.17068 0.220996 -1.20014 0.398599 -0.758178 -0.3388 -0.429571 -0.0140448 0.361755 0.523684 0.203787 0.0762395 0.120778 0.608973 0.00153209 0.899484 0.594094 0.305125 0.460781 0.0445325 -0.593982 -0.352709 -0.673928 -0.902358 0.0249997 -0.377633 -0.724232 -0.511932 -0.984349 0.192566 0.541484 -0.152857 0.465917 0.82444 -0.429665 -0.465349 -0.266875 0.503914 -0.259853 0.375712 -0.136124 -0.483769 -0.261585 0.877011 -0.20806 1.09621 0.676506 0.579162 -0.626399 0.161037 0.527664 0.670786 -0.212221 0.0930475 0.413304 -0.212121 0.0934324 1.04058 -0.48595 -0.251068 -1.29922 -0.0290146 -0.484748 0.456403 0.0169256 -1.00138 -0.389907 0.900424 -0.0761363 0.11229 -1.25501 -0.125582 -0.694581 0.315153 -1.38882 0.138572 -0.653492 0.36066 -0.120746 -0.866746 0.396928 0.501205 -0.356264 0.350356 -0.748527 0.499501 
0.477587 0.159845 0.534168 0.130132 -0.429636 0.512385 -1.08684 -0.132683 -0.133023 0.338738 0.435153 0.393134 0.841902 -0.50897 -0.155101 -0.142677 0.0424667 -0.372269 0.448765 -0.31412 -0.280718 -0.00849873 -1.25395 0.337068 0.075645 0.316112 -0.402044 0.0976147 0.190439 0.947837 -1.00188 0.219702 -0.451724 -0.0708497 -0.161974 -0.297687 0.0722261 -0.636775 0.819421 -0.378131 0.809198 -0.148813 1.17706 -1.26128 0.406317 0.867497 -0.599238 -0.403708 -0.422947 1.03255 -0.176687 0.646729 0.620889 -0.0666811 -0.427182 -0.143945 0.281274 0.284963 -0.344001 0.1047 -0.349614 -1.04445 -0.785817 0.0851945 -0.662816 -0.269928 -0.281019 -1.03858 -0.0767031 -0.508886 1.10945 -0.00935402 -0.493307 -1.01001 -0.711953 0.0643522 0.247753 0.62053 -0.935862 -1.21294 0.0343199 0.250481 0.18591 0.11457 0.189397 0.738189 0.281258 0.84925 0.000343298 0.113208 -0.316221 1.29702 -0.530432 -0.125398 0.129705 0.543473 
0.193266 0.502415 1.35092 0.0890371 0.508752 0.16382 -0.657464 0.461971 0.238607 -0.449051 0.369698 -1.19352 0.527742 0.17212 0.555773 0.739538 -0.609654 -0.3507 -0.504634 -0.75701 -0.371164 -0.364878 0.738844 -0.339354 -0.211436 -0.487155 0.134979 0.156673 0.855385 0.609201 1.18641 0.657548 0.820162 -1.14375 0.405833 -0.242591 -0.778144 -0.847775 -0.797908 -0.3133 0.422451 0.510094 0.259703 0.665893 0.337696 -0.0386882 0.619764 -0.305568 -0.318253 -0.0473823 0.0841799 0.481929 -1.0497 0.396673 0.322263 0.211132 -0.592861 0.958948 -0.980441 0.383924 0.518929 0.222308 -0.195839 0.0237984 -0.717006 -0.450241 0.535232 -0.779362 -0.845466 0.022265 0.00208057 -0.386443 0.337392 0.817955 0.547758 -0.102927 -0.624453 1.00082 -0.470861 0.919969 0.488994 0.406793 0.424394 -0.111986 0.176526 -0.0662601 -0.762405 0.587919 0.35321 -0.733502 -0.844082 0.175335 -0.178205 0.293637 -0.28305 -0.451404 
-0.251984 1.00907 -1.20332 0.793333 -0.269579 0.457613 0.395776 0.316024 -0.520458 -0.132026 0.0254588 -0.861797 0.78567 -1.29598 0.440219 -0.122042 0.00971589 0.18267 -0.424877 -0.618569 0.191308 0.38702 -0.431815 -0.692594 -0.507922 -0.422723 -0.210447 -0.0556377 0.392096 0.334723 0.150802 -0.459434 -0.846099 0.29173 0.238498 -0.530562 0.446349 0.173692 0.575826 -0.575731 -0.150189 -0.315642 -0.806828 0.266471 -0.631309 0.25043 -0.207696 -0.429381 -0.118085 -0.416627 -0.0606668 -0.952017 0.379047 -0.293753 -0.657328 -0.676738 0.0565862 -0.515763 -0.309035 -0.24109 0.401722 -1.13995 -0.139308 0.173257 0.0838317 0.111131 -0.21898 0.830134 0.0399194 -0.0752918 -0.195817 -0.993323 0.0831321 -0.598226 1.14595 -0.348342 0.200809 0.0280167 -0.793716 -0.0160657 -0.740699 -0.119016 -0.181863 -0.732382 0.699922 0.747336 0.913842 0.569645 -0.286426 -0.482579 0.214885 0.464055 0.0735556 0.429286 -0.121645 -0.0771215 
-0.849592 0.369005 -0.0845989 -0.286296 0.325477 -0.591355 0.327319 -0.543981 -0.45374 0.00722526 -0.342394 -0.81006 0.0865446 0.392093 -0.199002 -0.303023 -0.181424 0.0152188 0.55529 -0.00509709 0.449381 -1.02879 0.0922132 0.842145 -0.84037 0.16977 0.455231 -0.802469 0.194927 -0.147047 0.0416762 0.882553 -0.763427 0.0775805 -0.640179 -1.10609 -0.883631 0.350533 -0.873844 0.0599593 -0.0977296 0.34066 -0.897283 -0.289566 -0.0773684 0.228825 0.247004 -1.02005 -0.908283 1.22425 1.07133 0.0726243 0.0387773 -0.407353 -0.871045 -0.15104 0.813109 0.267212 1.02977 0.334706 0.30538 0.657136 -0.895252 0.191558 -1.09006 1.1387 -0.0452511 -0.310121 -0.326071 0.628785 0.500189 -0.150384 -0.448212 0.576863 -0.520883 -0.158631 -0.567582 0.698472 -0.222493 -0.891652 0.454478 0.185889 -0.290073 0.357389 0.644409 -0.323735 -0.69194 -0.00486464 0.9719 0.382139 -0.147545 1.10015 0.341649 0.439826 0.527077 -1.5426 
-0.182802 0.526479 0.854806 -0.201181 0.669908 -0.0449945 0.0468826 -0.325861 -0.314548 0.440651 -1.16448 -0.297384 -0.344757 -0.409373 0.0944991 -0.0821193 -0.324441 -0.0447163 1.1426 -0.0224588 0.130664 -0.53998 -1.3306 0.00132621 1.13187 -0.136107 0.182978 0.762695 -0.25577 0.495019 -0.331177 0.373822 0.278764 0.216654 0.391315 -0.0851169 -1.43628 -0.197746 0.601721 0.0620188 -0.38944 -0.711917 0.324431 -0.472265 0.199079 0.526205 -0.256375 1.10338 0.608323 -0.727578 0.278823 -0.224998 0.895721 -1.386 -0.670612 0.0348396 1.0751 -0.461558 -0.922541 -0.295876 -1.06175 0.538941 0.08044 0.295747 0.916697 0.347668 -0.342525 0.463513 -0.405067 -0.211957 -0.0701162 -0.138907 0.80227 -0.885163 0.28693 1.11187 -0.914503 0.474186 0.063922 -0.184613 0.51322 -0.495155 0.180336 0.787846 1.49513 0.230087 0.0247429 -0.606915 0.526866 1.2081 0.244727 0.713257 -0.0293154 -0.990043 0.0226309 0.659601 
0.401785 -0.423806 0.885483 0.0668878 0.630541 0.0618353 0.502306 0.00325971 -0.634496 -0.0168906 1.1388 0.723499 0.513812 0.0861305 0.141163 -0.247818 -0.131318 0.657487 0.421473 0.16997 -0.737334 0.671209 -0.670277 0.368489 0.215949 0.693235 -0.667604 -0.139756 -1.00524 -0.361643 0.425353 0.55409 0.348007 -0.54485 0.595225 0.583297 0.319241 -1.03115 0.971021 0.456906 -0.533715 -0.374087 0.225107 0.28979 0.484789 -0.454956 0.553696 0.494318 -0.357768 -0.262722 -0.32648 -1.27439 -0.20166 0.99963 -0.292336 0.0992831 0.0163006 0.616185 -0.113897 -0.099707 0.416161 0.641677 1.34956 -0.625919 0.0403813 -0.528138 0.280365 0.342065 0.0690106 -0.665858 0.576719 -0.932759 -0.193984 -0.689829 -0.0459309 -0.495279 0.482418 -0.0424589 -0.585455 -0.606022 0.690944 1.39961 0.210323 0.978671 -0.940616 -0.520673 -0.65049 -0.585351 -0.43136 0.939825 0.2291 0.35321 0.634864 0.0174235 0.415855 0.390735 
0.595093 0.293931 -0.202456 -0.554803 0.336174 0.705553 0.488469 -0.25301 -1.06277 -0.651864 1.07426 0.306974 0.99413 1.15651 0.898861 -0.347155 -0.2806 -0.459427 -0.752383 -0.595167 -0.396966 0.0314847 0.684271 0.0369574 -0.356194 -0.571712 1.52265 -0.68297 -0.0332764 -0.247747 -0.692294 1.02954 -0.504561 -0.444556 0.969541 0.336001 -0.0677148 0.292325 0.0179741 -0.605733 -0.781323 0.304177 -0.472743 -0.399326 0.191326 0.426827 -0.0122704 -0.267229 0.510319 -0.839734 0.12821 0.00939565 -0.452252 0.141329 0.353286 0.432462 -0.12864 0.112496 -0.826149 -0.091012 0.508415 0.289753 -0.982591 -1.183 -0.641868 -0.558993 0.200022 0.391597 1.35342 -0.549697 0.00378305 0.686718 -0.0254078 0.531527 0.856624 -0.757126 0.385138 -0.225865 -0.544655 -0.677924 -0.54244 0.0489267 -0.409799 0.260981 0.314744 -0.214567 -0.860975 -0.376513 -0.452439 0.358242 0.919321 -0.0487903 1.50127 0.744038 1.33655 0.484206 
-0.195693 0.912192 -0.664401 0.228501 0.621335 -0.37296 -0.296201 0.238121 0.13665 -0.769298 0.512149 -0.0707634 0.332629 -0.0451239 -0.365878 0.665789 -0.110281 -0.203975 0.759121 -0.405279 -0.424242 -0.113121 -0.226716 -0.23142 -0.151105 -0.595919 0.474009 -0.590029 0.0537702 1.34545 1.37483 0.639232 0.704333 -1.13684 0.88434 0.337958 -0.128661 -0.563736 -0.433005 -0.240393 0.394417 -0.152898 1.16192 -0.182938 0.210747 0.213304 -0.474624 -0.999309 -0.150489 -0.0223237 -1.03562 -0.364253 0.442207 -0.247298 0.0677392 0.905658 -0.484837 -0.0416112 0.170084 0.0334797 -0.531104 0.332472 -0.239807 -0.201291 0.313064 0.531019 0.38589 -0.44542 0.168186 0.597006 0.307467 0.235381 -1.65822 -0.362503 -0.353631 -1.32319 -0.910846 -0.735895 0.279909 -0.370666 -0.168512 0.175822 -0.131712 -0.297765 -0.456743 0.131062 0.445515 0.40093 0.872821 -0.746746 0.326468 1.10785 -0.490035 0.280263 0.708971 -0.362633 
0.37749 -0.581208 0.19618 1.1358 -0.330064 0.132339 -0.124626 0.0835353 0.689614 0.167116 0.0852115 -0.36446 0.336237 0.397917 0.268441 0.198306 0.325549 0.0351179 1.04105 -0.621419 1.30688 -0.738673 0.0656314 0.00904782 -0.907581 0.126652 0.580262 0.0586024 0.30877 1.13283 -0.119018 0.193391 -0.536559 -0.106514 -0.396717 0.013228 -0.698676 -0.240335 0.163181 -0.315491 0.399408 -0.00729829 -0.870291 0.703548 0.137995 0.14285 -0.0617536 -1.01058 -0.088687 0.547655 -0.462131 0.524397 0.419391 -1.08562 0.278893 0.134885 0.0973826 -0.188056 -0.876783 0.612688 -0.0198586 -0.722861 0.225835 -0.914186 -0.239175 -0.703678 -0.155449 0.575475 0.158187 0.169882 0.696691 -1.18827 -0.743891 -0.493671 -0.617005 -0.00810961 0.810812 -0.00260268 0.119761 -0.0920357 -0.554911 0.0382572 0.318945 0.352537 0.615135 1.1113 -0.918798 -0.40348 -0.785818 0.0113515 0.230509 -0.112426 -0.244509 0.495181 -0.0411944 0.0225322 
0.411774 0.144138 -0.416023 0.209046 0.436299 -0.16358 1.01341 -0.803282 0.168569 0.159003 -1.14932 -0.0456176 0.025908 -0.499404 -0.210136 -0.441771 0.250491 -0.854158 1.8256 -1.08427 -0.523993 0.290589 -0.424571 0.113708 0.536829 -0.00554358 0.139067 0.929683 0.120927 -0.818499 -0.552001 0.285583 -0.364052 0.136638 -0.227835 -0.277538 0.102513 -0.498612 -0.616385 -0.222818 -0.0737773 -0.290727 -0.239775 -1.452 0.262045 -0.607431 -0.308313 1.67103 -0.355999 -0.930369 -0.465374 -0.683003 -0.161787 1.06985 0.296122 0.27557 0.260745 0.898908 0.542045 1.26051 0.464725 -0.0949387 0.21565 -0.532488 -0.272691 1.05527 -0.606128 -0.396403 -0.162454 -0.801516 0.261043 -0.585996 0.65935 0.133958 0.101911 0.871485 -0.784512 0.546273 -0.922052 0.193971 -0.696308 0.288949 0.303307 -0.133959 -0.489666 0.154523 -0.622931 -1.16761 -0.304455 0.335429 -0.295731 0.126503 0.594105 -0.671803 0.847296 -0.26679 
-0.587441 -0.169282 0.934321 0.227475 -0.094323 -0.824795 0.425195 0.066532 0.1045 0.202963 0.0585023 0.361468 -0.484431 -0.469042 -0.4654 -0.608994 0.341793 -0.325396 0.392489 -1.05695 -0.127181 0.559925 -0.938509 -1.04984 0.0604669 0.627674 -0.0348537 -1.04179 -0.113989 0.707356 0.0661633 0.384416 0.838878 0.382805 1.15499 -0.694429 0.0899605 -0.65991 0.425016 -0.0478306 0.177626 0.174246 0.491483 0.0843815 0.186416 0.152553 -0.527972 0.0160755 -0.844451 0.314982 0.756967 0.223959 0.00710961 0.636378 -0.20814 -0.258469 0.491356 0.842929 -0.255611 -0.415634 0.37102 -0.372098 0.0603444 -0.127323 1.0132 -0.342096 -0.163584 -0.504584 -0.402224 -0.130486 0.386932 -1.17261 -0.345906 -0.54608 0.91953 0.646001 -0.0259636 0.128849 0.186206 -0.31404 -0.14321 0.307565 -0.325686 0.218938 -0.243715 -0.297253 -0.721589 0.185823 -0.830858 -0.657892 -0.099545 -0.136372 -0.827349 -0.610929 0.551359 0.0727249 
1.12676 -0.120744 1.51179 -0.445077 -0.946349 -1.41006 -0.502392 -0.0766905 -0.819367 0.155236 -0.861833 -0.0870192 0.628524 0.554076 0.335494 0.0591606 -0.951358 -0.62075 0.986043 0.252676 0.0250642 0.382 0.255822 1.18018 -0.16743 -1.04636 -0.608701 1.03253 -0.638966 0.494429 0.286337 -0.392825 0.335224 0.0371016 -0.436535 0.823809 0.329589 0.532195 -1.22731 -0.0727162 0.589272 -0.714467 -0.620202 -0.669108 -0.237139 0.277225 -0.165914 0.0235049 -0.483641 0.681164 0.602086 -0.995718 -1.11557 0.0777074 1.08797 0.463407 -0.287616 0.409211 0.422318 -0.109241 -0.313896 -0.290257 -0.795899 0.870322 0.440945 -0.472308 0.171312 -0.229982 0.704856 0.0179299 -1.25114 -1.45539 1.01512 -0.0457206 1.49222 1.4329 -0.0225276 0.455634 0.734371 -0.125313 -0.149396 -0.877479 -0.435151 0.864118 0.60043 -0.596574 -0.97526 0.491665 0.579233 -1.44977 -0.0519546 0.699392 -0.469822 -0.0853008 -1.62419 0.418561 
0.0961286 0.498907 -0.150127 0.0861382 -0.596904 0.672676 -0.170402 0.728513 -0.358767 0.568418 1.04821 0.445647 -0.277322 -0.0765144 0.468985 -0.00686317 0.321164 -0.589627 0.547643 -0.487004 -0.490203 0.566643 0.958474 0.28616 -0.820135 -0.678324 0.35527 0.0248984 0.970444 -0.52464 -0.192526 -0.70468 0.309471 -0.819033 -1.05174 -0.740468 -0.398931 0.117964 -0.558752 -0.26705 -0.634182 -0.263092 -0.342893 -0.297072 -0.20364 0.924677 -0.49182 0.178923 1.14727 0.901172 0.909672 0.946713 0.0751048 0.675435 0.26716 -0.128559 -0.131089 0.438875 0.51983 0.381414 0.745288 -0.602911 -0.930185 -0.435712 0.425006 0.535319 0.735065 -0.248895 0.351495 1.24983 0.119004 0.327538 0.539585 0.831465 -0.741038 0.566641 0.695945 0.896007 0.00861223 1.06625 -0.330853 -0.814204 -1.39632 0.0615041 -0.128808 -0.0203682 -0.0589657 -0.159732 0.557109 0.576271 -0.039731 -0.426207 -0.580536 0.383899 0.972311 -0.262036 
-1.19738 -0.641294 -0.402965 0.596075 0.209742 -0.246909 0.4335 -0.227332 0.00189409 0.0244838 -0.77407 -0.249399 -1.1362 -0.606033 0.292656 -0.518922 -0.423318 0.114912 1.00924 -0.786492 -0.687114 1.03592 -0.692421 -0.0980226 0.124302 1.04733 -0.0869818 0.00377546 -0.00137239 0.441933 -0.107235 -0.677941 -0.174608 0.574718 0.386924 0.556762 -0.686944 -0.071652 0.230433 -0.738111 0.204719 -0.508363 -0.267164 -0.0848641 0.0616237 0.273433 0.648951 0.0756916 0.785467 -0.561476 0.610374 0.760669 -0.200022 0.944131 -0.311552 0.402269 0.238183 -0.228437 -0.13815 -0.0230385 0.179604 -1.14024 -0.140456 -0.372909 -0.65674 -0.0868949 0.957419 0.303285 0.626179 0.300323 -0.268427 -0.550552 -0.673956 1.0572 0.334392 0.403414 -0.00549679 0.238753 1.71229 -0.0389589 0.652073 0.572147 -0.396158 -0.277693 -0.301696 -0.753804 -0.682534 0.257954 -0.406982 0.260134 -0.505992 0.249843 0.900334 -0.377326 -0.325636 -0.307415 
0.126428 0.174889 -0.0663746 0.675187 0.340883 -0.647027 -0.246932 0.205542 0.354246 0.874777 0.0824907 -1.26763 -0.589999 -0.322031 -0.817689 0.260942 -0.356721 0.363584 0.0751236 -0.379779 -0.00501656 0.481534 0.175239 0.598407 -0.765025 -0.415423 -0.994189 0.36714 -0.808312 -0.120183 -0.0277098 -0.728169 -0.639794 -0.852895 0.310218 -0.0524212 0.908544 -0.179672 0.572805 -0.679793 -0.265788 -0.144779 0.694773 0.432247 -0.901642 0.808276 0.270358 -0.350894 -0.957635 -0.421665 -0.0760439 0.719012 -1.39559 0.162747 0.536292 -0.253906 -0.18913 -0.0861168 0.228177 1.22588 0.788378 0.762539 0.748772 -0.0792094 -0.308152 -0.175424 0.157513 0.586168 1.13244 -0.224931 -0.240507 -0.694931 -0.648223 -0.932346 -0.245869 0.286947 -0.638089 0.263902 0.515312 -0.672874 -0.962518 0.123695 0.0948999 -0.906258 -1.19504 0.741543 0.300926 -0.992189 -0.0971963 -0.144178 0.138082 0.494588 -0.513466 -0.177135 0.284295 0.234911 
0.232033 0.423451 -0.184424 0.779336 0.725493 0.32529 -0.631995 -0.54132 0.864808 0.212874 -0.328021 -1.29371 -0.167603 0.723584 -0.436102 0.0172518 -1.09998 0.0251671 -0.954296 -0.904856 0.515865 -0.800594 -0.298398 0.882646 -0.242757 -0.112146 0.185805 -0.124798 -0.916655 -0.726164 -0.728348 -0.358341 0.715655 0.109025 0.459325 1.31862 0.343131 0.441832 0.20811 0.540449 0.179756 -0.838606 -0.177206 -0.148849 -0.362773 0.191993 0.368968 -0.150263 -0.397461 0.460429 -0.283812 -0.232854 0.162408 0.41655 0.527464 0.491711 0.20051 -0.873179 -0.0538215 -0.423326 0.16511 -0.449951 0.0907722 1.53937 0.927644 0.0776203 0.408234 0.393314 -0.117268 -1.13181 0.200568 0.58783 0.344776 0.23635 0.129605 0.217607 -0.401982 0.381288 0.53136 -0.595446 0.48767 -0.590961 0.721498 -0.0556319 -0.62872 1.24072 0.192203 0.517784 -0.534896 1.36014 -0.0195031 -0.190264 -1.41608 0.0806845 -0.579091 0.0736529 
-0.55981 -0.225986 0.471399 0.700691 0.0526246 0.603638 -0.143702 0.325576 0.402671 0.834087 -0.921266 -0.257514 0.802513 0.34496 -0.171366 0.348486 0.286275 -0.129012 -0.353842 0.11603 -0.62433 -0.535091 -0.369852 -0.171486 -0.203182 0.734771 -0.192559 -0.137635 1.0031 0.568389 -0.0626699 -0.204555 0.380716 0.220161 -0.361474 0.716558 0.357797 -0.847074 0.102756 0.341916 -0.767483 -0.0511787 0.0410004 -0.438786 0.148645 -0.139509 -0.0112694 -1.09017 0.403752 -0.460944 -0.672199 0.0682184 0.470537 0.547046 0.478426 -1.10828 1.38873 -0.00131753 -0.324203 -0.295682 0.490124 0.132796 -1.0031 -0.142984 -0.774183 -0.589726 -0.369883 0.0789316 0.870764 -0.766729 0.631967 0.704547 -0.511214 0.00901431 -0.228779 -0.541814 -0.0483209 -0.263831 0.126038 1.95581 -0.698272 0.292658 -0.603205 -0.532892 0.255867 -0.172128 1.02363 0.217612 -0.734859 0.37127 0.551735 0.600813 -0.624449 -0.0511052 -0.389817 -0.399406 
-0.474614 -0.0748206 -0.665948 -0.954743 0.349832 -0.58812 -0.0407364 0.269097 -0.451919 -0.529318 -0.766828 0.825718 0.579775 -0.65968 -1.01399 0.605716 -0.4454 1.3381 -0.105256 0.23299 -0.380411 1.16021 0.524803 0.375803 -0.788367 -0.212425 0.842078 -0.536382 -0.619179 -0.544203 -0.778743 0.523078 0.444966 0.100303 0.647895 -0.916116 -0.32429 -0.0713443 0.4053 0.322493 -0.313175 0.239621 -0.557801 0.729585 0.317462 -0.416852 0.438844 -0.969073 0.604984 -0.186368 0.0484156 -0.240684 -0.219391 -0.826177 -0.290606 -0.0296407 -0.652139 -0.267298 0.272008 -0.587724 -0.0848784 0.202737 0.7963 0.892828 0.201708 0.515821 -0.387906 0.07047 -0.550513 0.244354 0.362829 -0.176344 0.382957 -0.424436 -1.01158 0.0264064 0.0625937 -0.843762 -1.0375 -0.382724 0.621067 -0.94998 -0.240147 1.25571 0.400125 0.408843 0.84973 -0.472049 -0.718465 -0.587416 -0.113944 -0.458685 0.755364 0.830149 0.202245 -0.536568 
0.105553 0.189584 0.0249103 0.354322 -0.567386 -0.18884 0.438667 -0.691536 -0.587396 -0.3593 -0.376069 0.217986 0.601558 0.331337 0.39676 0.42498 -1.38476 -0.673967 -0.0399359 0.588908 -0.146623 0.817867 0.21095 -0.155068 -0.249173 0.502894 0.0871884 -0.487851 0.74151 -0.101846 -0.687806 0.988808 0.341848 0.493199 -0.00882212 -0.220556 0.548378 -0.337885 -0.020049 -0.766389 0.133705 -0.494644 -0.124509 -1.23871 0.59016 -0.47129 0.0188061 1.35522 0.264959 -0.360562 0.746818 0.0354868 0.643146 -0.610687 0.381721 -0.6716 -0.184228 -0.599715 -0.456536 -0.883573 -0.127227 0.635626 0.286583 -0.53443 0.0947402 -0.271256 -1.16802 -0.874708 -1.1008 -0.415162 1.11771 0.793336 0.037217 -0.516103 -0.344256 -0.419975 0.217238 -0.923922 -0.121843 -0.16283 0.659026 -0.00722915 -0.933821 0.254729 0.686473 0.123679 -0.296544 0.239012 -0.824437 0.509693 0.501035 -0.453924 1.05126 -0.0687777 -0.228265 -0.127738 
0.153261 1.11279 0.173169 -0.306016 -0.0781258 0.252397 -0.645812 0.628485 -0.106146 0.689404 0.403585 -0.260879 0.797218 -0.473552 -0.0763563 -0.049508 -0.183082 -0.212191 0.607472 -1.3009 -0.206195 -0.335317 0.722712 0.260692 0.669491 0.260462 0.658086 -0.424924 -1.14776 -0.643832 0.891399 0.0190163 0.827708 -0.325284 0.583355 0.630427 -0.82448 0.562502 -0.12375 -0.927317 0.228654 -0.286693 -0.492477 -0.0461752 -0.349898 -0.351936 0.657945 -0.322487 1.37329 0.48424 0.790198 -0.129452 0.0505367 -1.11098 0.181402 0.388645 0.157602 0.36475 0.185043 -0.110729 -0.554233 0.698223 -0.361814 0.227706 -0.55216 -0.251343 0.676374 -0.0208014 1.29014 0.68576 0.0868523 0.918376 0.514269 -0.243252 0.326421 0.127772 -0.0492879 -0.521579 -0.124566 0.2742 0.176579 0.080706 0.0771458 -1.04976 0.797318 0.597208 -0.556975 -0.0145334 -0.452273 -0.0426382 -1.02135 -0.0557192 -0.327801 0.495608 -0.650605 -1.08988 
0.144823 -0.154458 0.525354 -0.477672 0.293496 -0.77876 0.219466 -0.808739 -0.338567 0.392171 -0.080625 -0.284211 0.288943 -0.4514 0.581135 0.0535386 0.0135983 -0.13275 -0.0974908 0.415123 -0.367197 0.28073 -0.0787796 -0.306887 0.334812 -1.37385 0.0109787 0.69705 -0.443388 -0.8304 -0.160628 0.189909 -0.0766352 0.509267 0.319014 0.0988757 0.0154607 0.164076 -0.74059 -0.332524 -0.0564714 0.510486 -0.908262 0.136615 -0.384212 0.347656 -0.493022 0.12027 -0.775088 -0.178332 0.804322 0.910133 -0.558396 -0.220601 0.82581 -0.944668 0.732527 0.555577 -0.470867 0.088877 0.306172 0.735769 0.586868 -0.406651 0.697468 -0.919457 0.301471 0.370217 0.256693 -0.45167 -0.22498 -0.533456 -0.172785 0.817949 0.812287 -0.448788 -0.384854 0.269847 0.726919 0.0868441 -1.4675 -0.119211 0.0266038 0.834409 -0.0803094 0.538607 -0.726268 0.591764 -0.449287 0.368369 0.938707 -0.372558 -0.460088 -0.229433 -0.130156 -0.214828 
0.0970749 0.304101 -0.695761 -0.0205327 -0.198584 -0.128033 0.382164 0.479126 0.617586 0.213964 0.544541 -0.552352 0.0893244 0.0327831 -1.04339 0.48037 0.731807 1.39687 0.626431 -0.493168 0.345332 0.144131 0.327427 0.669962 0.585336 -0.559896 -0.149158 0.437759 0.272837 -0.972087 -0.39617 0.5498 -0.199459 -0.234479 0.378628 -0.520215 -1.05899 0.701306 -0.162047 -0.443072 -0.37061 0.195384 -0.25751 -0.250681 -0.141745 0.609041 -1.47451 0.820363 -0.184002 0.628281 -0.96624 -0.491421 -0.238574 0.953528 -0.031053 0.443376 -0.514876 -0.151893 -0.198459 -0.393137 -0.965904 -0.9391 -0.559125 -0.602344 0.62687 0.470632 -0.472601 0.299963 0.260468 -0.320175 -1.5364 0.102683 -0.571523 1.12359 -0.342653 -0.7917 0.218872 -0.889016 0.222913 0.425321 0.399838 0.490129 -0.108959 -0.286587 0.0299368 -0.259302 0.543834 0.499926 -0.77419 -0.817805 -0.697443 -0.786841 0.0670256 -0.380602 -0.295933 0.995411 
0.358526 -0.0400743 -0.849086 -0.0666808 -0.680389 0.0630326 -0.473639 0.487277 0.638806 -0.230687 0.396617 -1.18495 -0.33326 -0.462061 0.216783 -0.663833 -0.343562 0.941978 -0.802125 0.689236 -1.31213 0.38539 0.124303 0.898215 0.694833 0.305531 -0.0406068 -0.438597 1.01981 0.395908 0.33612 0.733137 0.716294 -0.746711 0.468528 -0.641304 -0.158128 0.601898 0.448527 -0.0509695 0.284879 -0.838795 0.0626333 0.25 -0.632189 -1.57038 0.51254 0.419985 -0.0645805 0.788252 -0.368521 1.05544 -0.920442 -0.44073 -0.551783 0.120642 0.52017 -1.1703 -0.160851 -0.155192 -0.165394 0.645842 -0.743676 -0.54766 -0.329844 -0.431877 0.147372 0.392293 -0.638847 0.136981 -0.397444 0.308549 0.353728 -0.426274 -0.627028 0.57463 -0.202942 -0.165547 0.299912 -0.0368574 0.0694794 -0.415756 -0.137438 -0.246358 0.285409 -0.225265 0.403502 0.630577 0.628207 0.531758 0.381452 -0.361191 -0.128716 0.332245 0.811406 -0.905288 
-0.151489 -0.427833 -0.591044 -0.0707828 -0.307857 -0.136333 0.155058 0.378325 0.750744 0.354313 0.401271 0.343602 0.278784 -0.286801 -0.0906685 -0.497956 0.258954 0.16412 -1.06938 0.0617311 0.0486494 0.688418 -0.140564 0.445406 0.777508 0.520457 0.849143 0.368432 -0.479814 0.357723 0.518406 0.166194 -0.143262 -0.0605742 0.460029 -0.787581 -0.0532623 0.202999 -0.215102 -0.18982 0.802326 -0.178083 0.126936 0.587872 -0.45627 0.0151049 0.412858 0.258993 0.150279 0.396107 0.457667 0.4577 0.0768681 -0.222269 -0.732305 -0.890108 -0.0768004 0.0262294 -0.448777 0.479138 -0.478912 -0.0508588 0.048937 -0.783962 -0.803119 -0.720487 -0.671202 -0.130411 -0.619731 0.229365 0.213422 -0.143685 0.708826 0.0960164 0.128634 0.195303 -0.975395 0.137191 0.0128324 -0.141006 -0.304458 -0.305113 0.493246 0.675419 -0.683661 1.47797 -0.291744 0.233291 0.487258 -0.387365 -0.151854 0.598452 1.03428 0.258398 -1.25549 0.84672 
0.581624 -0.10516 0.912786 0.424115 -0.582302 0.954842 -0.0590087 0.0741613 -0.543881 -0.112965 0.0403926 0.479403 -0.0927261 -0.224604 -0.0694984 -0.228106 0.472621 0.463278 -0.0449199 1.22678 -0.376308 -0.108593 0.298951 0.744089 0.808026 0.0409851 -0.424833 0.362937 -0.356006 0.401053 -0.262315 -0.0782751 -0.362709 -0.173423 0.354529 0.393421 0.952676 -0.182597 0.45447 0.0729156 0.681163 -0.272728 0.527125 0.746157 -0.608457 0.14684 -0.217345 -0.995532 -0.779933 1.15168 -0.625729 0.717113 0.527553 0.185279 -0.00415227 0.630745 -0.237643 0.777645 0.304663 0.436105 0.346272 0.0881339 -0.271636 -1.10052 -0.278544 0.163621 0.974946 0.277695 -0.0143144 -0.316388 0.186892 0.0868786 -0.127633 1.04156 -0.176669 -0.738769 0.246336 -0.285714 -1.04111 -0.205613 0.00477513 -0.0307402 0.376676 0.118125 -1.40926 -0.226506 0.424358 -0.745186 -0.261328 -0.808585 -0.311367 -0.151674 -0.187613 0.21556 0.528339 0.00469973 
0.143263 -0.793175 -0.357135 -0.199677 -0.462863 0.435992 0.394755 -0.55589 -0.545418 -0.098975 -0.054325 -0.0725316 0.841026 0.644117 0.135895 0.240437 1.5203 0.358427 0.311109 0.387632 0.504078 -0.726973 -0.665779 0.67958 0.917719 0.0308484 -0.546969 -0.0400174 -0.443749 -0.295203 0.321074 0.292678 -0.248927 0.302752 0.587169 0.675041 -0.513713 0.276374 0.0753778 -0.78518 -0.181414 -1.18842 -1.12391 -1.20197 -0.457009 0.103239 -0.167684 -0.0275402 0.818836 0.270631 0.234424 -0.278456 0.654305 -0.174489 0.0782749 -0.274789 0.613217 0.495499 1.02105 -0.130459 -0.334548 0.198799 -0.0684197 0.0716876 -0.306905 1.18204 -0.331656 -0.510711 0.0614482 -0.646134 0.791906 0.00214123 -0.775035 -0.610529 0.647949 -0.497355 0.72494 0.0544612 0.0115395 0.612608 -0.0623086 0.0754668 -0.0587574 -0.0411746 0.594805 -0.475563 0.0420485 -0.923926 -0.987954 -0.139053 -0.663282 -0.38902 -0.322709 -0.0141915 -0.134436 0.139871 
-0.0249832 -0.117038 0.497081 0.160438 -0.082433 -1.14658 0.566449 0.797249 0.130125 -0.357923 0.0133334 1.3532 -0.793774 -0.410429 0.0769228 -0.505069 -0.00505511 0.190137 -0.709053 -1.51704 0.145739 -0.24102 0.148531 -0.0525984 0.212109 -0.236551 -0.613004 -0.396273 -1.42908 -0.415779 -0.0434928 -0.655602 -0.280575 -0.27865 0.616994 -0.903283 -0.964438 0.696543 -0.256806 -0.583646 -0.00247464 -0.498111 0.142876 0.581017 0.582463 0.524531 -1.14945 -0.131366 0.31111 -0.703366 -0.263642 0.0552384 0.731718 -0.601393 -0.0117476 0.667299 -0.200601 0.30683 0.479873 0.796112 0.0292023 -0.28929 0.115131 -0.766524 0.431658 0.310885 -0.78681 -0.0880646 -1.79254 -0.62966 -0.604674 -0.0899871 0.0391073 -0.200229 -0.933462 0.167813 0.608226 0.415839 -0.0588307 0.498863 -0.430623 1.16003 -0.38433 -0.607655 -0.559599 0.239599 0.425074 -0.916381 0.317107 0.327427 0.751002 0.608384 0.901599 -0.866833 0.084179 -0.334894 
0.326739 -0.4327 0.462354 -0.698074 -0.0176139 -0.802979 -0.941145 0.257519 0.0931112 1.03225 -0.960305 0.355734 0.536874 0.685975 -0.137597 -0.595657 0.0175032 -0.224251 -0.704519 -0.957272 -0.0103039 0.0977513 -0.403795 0.796049 0.487837 0.816255 -0.239135 -0.341841 -0.633007 0.71325 0.196784 0.249868 -1.31418 -0.581828 -0.495961 -0.0291983 0.121418 -0.382899 0.55263 0.0915547 0.316242 1.10455 -0.573859 -1.46824 -0.385558 -1.35637 0.657717 0.476325 -0.197505 -0.25474 0.65588 0.101676 0.575786 -0.146139 -0.167557 1.40118 -0.979993 0.144459 -0.473782 -0.88117 -0.385674 -0.820277 0.45012 1.3922 -0.0963365 -0.499519 0.603765 0.555034 0.250617 -0.152487 1.19307 0.17911 -0.264581 0.825352 0.154301 -0.23074 -0.405059 0.0292547 0.312134 0.452005 0.420075 -0.259383 -0.908775 -0.0284645 -0.011773 0.382297 -1.27988 -0.425267 -0.401949 0.158901 0.238897 0.597443 -0.570481 0.159163 0.803671 -0.511048 
-0.22517 -0.15856 -0.581211 0.622626 -0.948674 0.195718 0.132154 0.15828 -0.779056 0.515257 0.0332802 -0.0202726 0.802514 -1.22951 -0.293619 -0.0845245 -0.459356 0.136239 -1.15144 0.289632 0.710835 -0.880537 0.22977 0.189139 0.605322 -0.578891 0.286568 0.364757 -1.01168 -0.861831 0.337933 -0.776375 0.0974145 0.0743329 0.452329 0.337855 -0.0963298 0.852073 -0.51209 0.863266 -0.110018 0.134523 -0.079951 -0.55942 -0.813153 0.0271613 0.135565 0.111924 -0.0667454 0.0307634 -0.0870966 -0.146062 0.112902 0.20051 -0.0202402 0.389325 -1.09064 -0.0325136 0.59003 0.0170612 -0.48003 0.349733 -0.827163 -0.0768546 0.192627 -0.416345 0.220878 -0.713389 0.0293135 -0.398306 0.101925 -1.01325 -0.67705 -0.269633 -0.109175 0.590337 1.08266 -0.516673 0.664488 -0.450537 -1.53752 -0.0323366 -0.401506 -0.0589162 -0.341975 0.082094 -0.439183 -0.225561 0.247766 0.957073 0.423578 0.991435 1.09484 -0.298732 0.567461 -0.786136 
0.45184 0.278473 0.961034 -0.196053 -0.189822 0.184018 0.369197 0.961054 -0.483335 -0.0906146 -0.46086 0.700371 -0.471366 -0.523905 -0.443885 -0.0788018 0.289601 0.0210706 1.05434 0.166536 0.296026 -0.42306 -1.19017 -0.241447 0.147757 0.0483268 0.812078 -0.0785547 0.182992 0.304832 -0.541263 -0.656519 -0.176065 0.372786 -0.732228 -0.453956 0.279 -0.161461 -0.34283 0.133051 -0.340076 0.500214 -0.180666 -0.534987 0.422179 -0.673887 -0.552998 0.509552 1.19646 0.683842 0.187671 1.12882 0.200103 0.076403 -0.18694 0.957787 0.0130534 0.920784 -0.588194 0.149206 0.464161 -0.0529923 -0.908083 -0.175205 0.264936 0.54744 -0.215098 -0.836237 0.447202 0.493655 -0.0947985 0.0772943 -0.916699 0.625684 -0.617967 -0.705024 -0.165412 -0.420171 -0.3781 0.223495 -0.916199 0.346544 1.02339 -0.344676 -0.556837 0.0312396 0.180965 -0.392564 1.23335 0.845419 -0.234477 -0.756038 0.49038 0.0785776 0.39034 1.2461 
0.162405 -1.06009 0.0561593 -0.338543 -0.792802 -0.124575 1.37966 -0.919805 0.496747 0.0473361 -0.583544 -1.00824 0.648856 -0.0318686 0.212651 -0.21599 0.609612 -0.255742 0.0789205 -0.181029 -0.628577 1.22355 -0.147458 0.78433 0.281404 0.0727865 0.0467043 0.713171 -0.427063 1.31949 0.155343 0.690691 -0.419495 0.119736 0.326129 -0.418562 -0.615305 -0.0849881 0.502172 0.603194 0.126755 1.02871 -0.101691 0.497013 -1.05745 0.0156804 -0.433299 -0.327875 0.633458 0.107058 0.794217 -0.865937 -0.263836 -0.221407 -0.281735 0.276149 0.0879698 0.228844 0.0758447 -0.444437 -0.252067 -0.344768 0.644245 0.404607 -0.0298763 0.0973015 0.191978 0.805391 -0.477002 0.297801 0.43539 0.765238 -0.766846 -0.114554 0.470956 -1.23748 -0.577025 0.105735 0.206915 0.0729591 0.320387 0.0248623 0.513209 0.347265 -0.456297 -1.09158 -0.192771 0.326138 0.598559 -0.621914 0.457674 -0.0343444 0.0758506 -0.228653 0.273618 -0.678178 
0.317469 0.670621 0.0754938 0.103608 0.0207185 0.129232 -0.0985445 0.480024 -0.522206 -0.910403 0.706739 0.569948 -0.503496 0.992489 -0.506712 -0.198352 -0.148626 0.0456933 -0.247694 0.0463484 0.342019 -0.141377 -0.381003 0.938 0.106692 0.620731 -0.0955527 0.702622 -0.863179 0.432492 0.0449051 0.226782 0.196591 0.188456 -0.0565041 -0.394021 -0.440966 0.405278 0.529349 0.502808 -0.0144591 0.0723597 0.892145 -0.184378 -0.030601 0.726789 -0.61652 -0.559304 0.418894 -0.0694757 -0.0941768 -0.117073 -0.182961 1.24281 -0.608185 0.633769 0.285373 -0.129812 0.459359 0.139495 -0.631849 -0.831026 0.00311549 0.401532 0.607498 0.878861 0.117001 0.231226 -0.226344 -0.790567 -0.0999285 0.0446812 -0.0962321 0.66922 -0.294218 -1.26722 -0.116423 0.079218 -0.0354012 -0.8951 -1.69485 0.137704 0.237747 -0.821725 0.284515 -0.129432 -0.0232228 -0.0703226 -0.467456 0.00801891 -0.272131 -0.162417 -0.301568 -0.018818 -0.926285 -0.82971 
0.398661 0.913013 0.174832 -0.0565858 0.367644 -0.238562 -0.000669774 -0.599173 -0.407304 0.735995 0.795218 -0.790507 0.123932 0.783153 -0.719898 -0.210736 -0.520435 -0.735155 0.165047 -0.416282 -0.589815 -0.708652 0.714053 -0.631157 -0.135066 0.319451 0.114253 0.762249 0.408331 0.491423 0.404715 -0.879551 0.459549 0.307298 0.193831 0.233798 0.330353 -0.339183 0.496661 -0.481622 -0.961664 0.238777 0.320363 -0.298545 0.585477 -0.247815 -0.853388 0.131815 0.332717 0.318595 0.343674 1.07116 -0.0792905 -0.850345 0.0206331 -0.751964 0.147744 -0.114406 0.342449 0.386311 -0.476311 0.261 0.319161 -0.547136 0.113968 0.51471 -0.671967 -0.110937 0.266693 -0.217743 -0.219709 0.990719 -0.619619 0.0973955 0.620175 0.098238 0.112636 0.54262 -0.270438 -0.152295 0.397781 -0.325261 -0.118714 -0.0583384 0.380243 0.372018 -0.704657 0.407507 0.587818 -0.845001 -0.439414 -0.488436 0.0311217 -0.197329 -0.0918007 1.51855 
-0.00718129 0.619176 -1.24178 0.263253 -0.475145 0.125766 0.473444 -0.365418 0.239434 0.0196682 -0.167249 0.108169 0.0497753 0.601207 0.349484 0.608677 -0.0876998 0.220219 0.193017 -0.336642 0.275113 -0.454476 0.554392 -0.304331 0.246004 -0.0419813 -0.261712 1.2952 -0.751893 0.0515301 0.571638 0.0397306 0.311617 -0.552793 -0.477012 -1.1049 -0.437088 -0.371816 -0.369416 1.1551 -0.369499 -0.767202 -0.549978 -0.266411 -0.507757 -0.339301 1.44143 -0.748576 -0.626287 0.636838 -0.362922 -0.111086 -0.261641 -0.607344 0.781233 -0.0770747 0.58593 0.0835908 -0.742029 0.221739 0.396853 -0.256842 -0.674505 -0.880004 0.603266 1.09234 -0.544264 0.505368 0.00590733 -0.673089 0.0840302 0.134636 0.275785 -0.656023 0.0936959 -0.35203 0.507864 -0.980051 -0.116348 0.101641 -0.691486 0.976783 -0.198053 -1.09418 1.1711 0.36323 0.355977 0.537122 -0.928135 -0.0370205 0.25504 0.789293 -1.15784 0.535421 -0.404687 0.0870492 
-0.256573 -0.543497 -0.207979 -0.392643 -0.430125 0.449288 -0.0116332 0.367989 0.265677 0.186392 1.30679 0.72908 -0.326219 0.157844 -0.176735 0.457813 1.02372 -0.063782 -0.0661832 0.0251973 -0.17791 0.200964 -0.358245 0.598165 0.118981 -0.926861 -1.17038 -0.402615 0.98545 0.437463 -0.654431 0.831252 -0.195083 0.48824 0.41053 -0.454978 0.220323 0.227313 -0.139967 0.481179 0.108572 -0.631883 0.261399 0.354045 0.285098 -0.50427 0.90383 1.47569 -0.637338 0.138194 -0.715242 -0.884997 0.400925 0.031231 -0.437419 0.610351 -1.15943 -0.789131 0.0632935 -0.0933586 0.58122 -0.228494 -0.267917 0.274793 0.931029 0.400345 0.529519 -0.0113793 0.813476 -0.242295 -0.314211 -0.361729 -0.255988 0.38285 0.644156 -0.0238278 -0.0323276 -0.646555 -0.222285 -0.620646 0.48395 0.850856 0.179671 -0.577243 0.762237 0.0291926 -1.12453 -0.262375 -0.251034 0.162875 -0.598978 -0.132906 0.153429 -0.821265 -0.987124 -0.46644 
-0.603655 0.932253 0.706093 -0.174947 -0.961993 -0.573995 -0.130124 0.0358383 0.0813867 -0.0648007 0.0261089 0.926211 -0.741062 -0.784346 -0.767379 0.565213 1.01326 -0.0677213 -0.14328 0.16612 -0.30546 -0.948513 -0.703973 0.165056 0.218724 0.401628 0.616801 -0.357929 -0.964818 0.542468 0.437352 -0.337992 0.321463 -0.291284 0.418538 0.823454 -0.20411 -0.908198 0.165312 0.405233 0.688563 0.756916 -0.169179 0.0959344 -0.109745 0.587063 0.0790436 0.533074 0.451437 -0.431383 -0.201633 -0.772539 0.395543 0.0874542 1.31172 0.207844 -0.21594 -0.449825 0.223722 -0.942175 0.963436 0.0576479 0.833853 -0.31067 -0.167412 0.844858 0.072083 -0.184874 0.63861 -0.0129906 -0.303129 0.194965 -0.033955 -0.11153 -0.70292 0.0453228 1.18112 0.488588 0.665831 -0.837349 0.438578 -0.420892 -0.548946 0.273034 -0.330999 -0.428988 -0.369696 -0.381612 -0.11215 0.284675 -0.584479 0.0425272 0.645037 0.188082 -0.0855452 0.711885 
-0.350766 0.19234 -0.935641 -0.91402 0.571657 -0.310803 -0.240906 -0.700432 -0.269609 0.349675 -0.0115455 0.42567 0.545736 -0.340928 -1.16141 -0.133076 -0.717907 -0.0104004 -0.279253 -0.174853 -1.07799 0.748671 0.269057 0.184481 -0.00868633 0.191163 1.13184 1.08609 0.58242 -1.03101 0.147916 -0.264526 0.516548 -0.297272 0.719374 -0.929897 0.995727 -0.0114743 0.306689 -0.00944659 -0.383893 -0.330263 0.243445 0.622599 0.797842 -0.412578 0.218801 -0.408464 -0.185796 -0.28777 0.42454 0.660766 -0.452052 0.640614 1.30262 0.389426 0.323581 -0.183429 0.367227 -0.176035 0.560149 -0.574484 0.691004 -0.180316 -0.373221 -0.418581 0.68893 0.0190886 0.464416 -0.0888375 -0.170888 -0.339754 1.11673 0.393585 0.528984 -0.278586 0.0495319 0.478231 0.554961 -0.384027 -0.102768 0.768375 -0.411669 0.538302 -0.23364 -0.0886719 -0.579354 0.687437 0.107505 -0.702767 -0.0463031 0.00726036 -1.09347 -0.721863 0.421097 -0.207943 
0.492193 -0.86325 0.580111 -0.4673 0.307581 0.435369 -0.281118 -0.222714 -0.473908 -0.0490524 -0.593418 0.101928 0.56541 0.184973 0.519471 0.409874 -0.536776 0.0219432 0.13865 0.0927142 0.0815912 0.181222 -0.365589 0.125151 -0.155643 0.824421 -0.273875 0.721569 0.150841 0.386044 0.661655 0.964523 0.0345976 0.622578 -1.0849 -0.344572 0.554036 -0.0512054 -0.153007 -0.277518 0.441847 0.663833 -0.318871 0.0280206 0.151234 -0.725531 -0.19047 0.494627 1.55558 -0.0240981 0.922041 -0.11942 0.874823 0.485311 0.0654589 1.06561 -0.127531 -0.149422 1.22131 0.361244 0.743509 1.00147 0.44804 1.41531 -0.71949 0.192964 -0.0313657 -0.0848786 -0.238038 0.459286 0.566876 -0.774895 0.349338 -0.540685 1.61029 0.510018 1.30491 0.620456 -0.150365 -0.117103 -0.897442 0.26291 0.0679737 0.179789 -0.445509 0.242027 -0.3532 0.232621 -0.518576 0.438313 -0.0434661 0.888873 -0.451664 0.398497 -0.782694 0.0554303 
0.697341 -0.036461 -0.664946 -0.0714592 0.491022 -0.327133 0.240994 0.71093 0.0889642 -0.724809 -0.290821 1.17503 0.59046 -0.171627 0.378741 0.925234 -0.973977 0.256666 0.283709 0.112925 -0.480571 -0.970935 -0.0410904 -0.0478528 0.545839 0.629188 0.124868 -1.0127 1.23865 -1.36298 0.869132 0.0470575 0.695602 -0.539015 -0.437093 -0.348753 -1.27805 -0.879647 0.0401391 -0.351397 0.0861936 -0.588306 0.958423 0.111364 0.0840914 -0.271176 0.450974 -0.406814 0.831801 -0.18072 -0.642975 0.1359 -0.165539 0.0306218 0.811227 0.476224 -0.081445 -0.930266 0.405671 0.421379 0.239913 0.988578 -0.156293 -0.124719 -0.356029 -0.489384 0.650591 0.905886 0.0149707 -0.10468 -0.784921 0.42515 -0.200878 0.860047 -0.587517 1.30873 -0.535715 0.0445436 0.469973 0.21411 0.703123 0.109584 0.00928869 -1.19239 -0.225263 -0.0118683 -0.412807 0.688112 0.278114 -0.22023 0.400957 -0.0722647 -0.139085 0.159127 -0.807754 -0.475351 
-1.10138 0.00123986 0.21459 0.0199619 -0.926285 -0.276552 0.624969 -0.222045 0.49041 0.140191 0.432233 0.613826 -0.144637 -0.814581 0.0333037 0.400023 0.117433 0.145084 -0.715989 -0.597958 0.195536 0.142635 0.185289 -0.279971 -0.344505 0.613245 -1.24526 0.179431 1.43748 0.0516943 -0.0490328 0.302973 -0.410075 0.439935 -0.0996695 0.166779 -0.0900775 -0.150772 -0.412881 0.389155 1.00531 0.0818666 -0.436629 0.730053 0.863666 -0.0538089 0.728218 -0.301293 0.620587 -0.177229 1.10445 -0.216362 1.20769 -1.04724 -1.24741 -0.2827 -0.259388 0.656686 0.827211 -0.649401 0.156927 -1.22467 -0.65792 0.17753 0.223018 0.511594 -0.275806 0.486625 0.354227 -0.449111 -0.732644 0.148623 -0.300717 0.732682 0.447741 1.0982 0.270715 -0.0756267 0.613174 0.0463219 -0.583858 0.563201 -0.35056 1.07326 0.597572 0.803226 0.190796 -0.0453669 1.39944 -0.0132769 0.555356 0.206235 -0.234362 -0.741058 -0.0168434 -0.44288 
0.673921 -0.745924 0.919243 -0.987208 -0.199896 0.328507 0.252147 -0.835925 0.352285 -0.290363 0.785313 0.0149256 0.0741518 -0.280565 0.956836 -0.0509376 0.607895 -0.27262 -0.820203 -0.0768849 0.0149895 -0.22945 0.200024 -0.25245 -0.858802 0.288524 -0.317281 0.180104 0.981016 0.242298 1.28403 0.416417 0.235238 0.333838 -1.12297 0.763893 -0.445628 0.133706 -0.997581 0.238333 -0.633417 0.0729463 0.324523 -0.944975 0.38915 0.180617 -0.504995 -0.447573 -0.472005 0.497317 0.145633 0.642265 -0.200546 -0.611516 -0.129338 -0.318234 0.0718505 -0.350319 -0.40503 -0.344476 -0.637145 0.136385 -0.0231946 0.710194 0.387551 0.113525 -0.0235063 0.228887 -0.820461 -0.337143 -0.341085 0.828701 -1.30217 0.685789 0.0193282 0.737677 -0.211774 -0.0839298 -0.80748 0.396937 -0.709608 -0.370247 0.890949 -0.545664 0.350449 -0.346964 -1.50257 0.209458 -0.295455 -0.76874 0.10194 0.114455 -0.735529 0.621231 -0.242029 -1.00885 
-0.424165 -0.854902 0.462547 -0.749781 0.248492 0.642891 0.546563 0.743274 -0.487183 0.762699 -0.141651 0.345876 0.0500861 0.7915 -0.238175 0.388354 -0.254453 1.16907 -0.429379 -0.310038 0.0636431 -0.32028 -0.438147 0.512386 0.208548 -0.032853 0.988914 0.63871 1.11138 0.243351 -0.928515 0.563388 0.251637 -0.00724015 -0.467575 -0.299307 -0.194574 -0.462941 -0.348392 -0.509864 -0.22612 0.92269 -1.3045 -0.618019 -0.175182 0.146107 -0.0376164 -0.0456366 -0.105679 0.904346 -1.11414 -0.35783 1.16805 1.00128 0.419047 0.389518 -0.460585 -0.109345 -0.194669 0.289289 0.526614 0.898567 0.131854 0.0908372 -0.137598 -0.116814 0.0126274 0.419138 -0.0666951 0.430067 -0.415856 1.07568 -0.508242 0.00843298 -1.30791 -1.39524 0.333963 0.564988 1.31577 0.0136596 0.513356 -0.890602 0.636103 1.09352 0.440649 0.146268 -0.456274 -0.715941 0.165036 0.26852 -0.498433 -0.862275 -0.332539 0.0672834 0.346443 -0.0166635 
1.16044 0.0681629 0.759452 0.520865 -0.37804 0.617109 0.366129 -0.16741 0.138506 -0.719859 -0.565867 0.3155 0.907746 -0.358955 0.617718 0.290817 0.205878 0.563086 0.393387 -0.359657 -0.324614 -0.623052 0.565639 -0.0110143 0.388217 0.792049 0.713278 0.441601 -0.161984 1.31724 -0.388111 0.33424 -0.703589 -0.427279 0.175147 0.621319 0.694153 0.103061 -0.490193 0.346303 0.261493 1.01101 -0.782645 1.29613 0.453121 -0.858885 1.07888 0.0500512 -0.736843 -0.133847 0.336911 0.755811 -0.430902 0.63718 -0.301179 0.165083 0.438195 0.459352 -0.191105 0.291794 -0.639479 -0.422389 -0.34055 -0.321721 0.296392 -0.0512982 -0.392777 -0.332057 0.016059 -0.0296627 0.0697132 -0.508642 0.00805332 0.585613 0.827618 0.612236 0.0187162 -0.242256 0.183629 -0.276354 -1.17869 0.821152 0.0417526 0.391111 0.6064 0.676706 0.284539 0.145132 0.041143 -0.484003 0.411038 -0.54474 -1.0984 -0.138862 1.13129 0.225678 
0.237202 0.0119242 0.802361 0.0601055 0.301111 0.101924 0.0760422 -0.904929 -0.812039 -0.0033763 -0.0547898 -0.123634 0.794587 -0.145055 -1.36924 -0.947266 0.427982 0.168876 -0.280179 0.272919 -0.313128 -0.346994 0.284463 -0.512111 0.588009 -0.400368 0.753256 -0.610509 -1.88483 0.543705 -0.539081 0.202523 0.38201 -0.474543 -0.242318 -0.435548 -0.776984 -0.0844403 -0.100576 0.0712023 -0.507008 0.115479 -0.554187 -0.244838 0.726258 -0.415516 1.02777 -0.0936015 0.129748 -0.127865 0.467119 -0.182733 -0.624353 -0.206877 0.684275 0.51611 1.15932 0.0173032 -0.0516603 -0.135047 -1.21017 -0.515435 -0.384272 -0.639797 -0.485897 -0.113445 0.463003 0.34041 0.21374 0.142666 1.60182 -1.43368 0.946826 0.451202 -0.118334 -0.533224 0.190584 -0.405378 0.470751 -0.419395 -0.386026 -0.254909 -0.728269 -1.39445 -1.20952 -0.395829 0.757438 0.0301045 -0.55993 0.289397 0.828968 -0.00207676 0.744265 -0.740185 -0.325567 -0.381464 
-0.193986 0.129871 -0.160975 0.0111079 0.413668 -0.385941 1.31192 -0.605294 -0.570807 -0.420229 0.514265 0.545258 -0.112382 0.0479195 0.166707 -0.203822 0.787902 -0.639251 -0.29293 -0.143468 0.255203 -0.295759 -1.10694 0.208659 0.699668 0.158428 -0.823499 -0.518421 0.641096 -0.407845 1.43375 -0.63149 -0.531896 0.286521 0.146289 0.855238 0.723223 -0.484518 0.203305 1.08247 1.35656 -0.00684346 -0.592232 1.24083 0.342665 -1.13343 0.707756 -0.0634469 -0.60778 -0.581145 0.0231841 -0.0495509 0.783329 0.0311546 -0.154268 -0.302963 -0.130497 0.218638 0.591904 -0.390536 1.05397 -0.562517 -0.403019 -0.0826917 0.192979 -0.0326083 0.41815 -0.0990985 -0.411662 0.517931 1.13956 0.548291 0.00357397 0.810967 -0.0856734 0.698122 0.797442 0.0336632 0.226148 0.621156 0.587577 -0.57269 -0.385597 -0.775077 0.789522 -0.366514 0.489677 -0.386709 0.310688 -0.221091 -1.05893 0.292307 -0.100346 -0.718304 -0.0399981 -0.583346 
-1.69926 -0.239587 0.332033 -0.870351 -0.0769882 -0.15004 0.389728 1.09193 -0.284611 -0.174883 0.0649065 0.0516709 -1.05967 0.408976 0.174318 1.14185 0.530306 0.372349 -0.81694 -0.467563 -0.333008 -0.104571 -0.183744 -0.623931 -0.823838 0.28854 1.00226 0.516377 0.0630231 -0.0569879 -0.142606 -0.550122 -0.419834 -0.784175 0.072062 0.189298 0.313998 -0.529915 0.444838 0.120676 0.370131 -0.180967 0.421057 0.0451377 -0.274154 -0.724218 1.00184 0.621271 -0.893881 -0.0357465 0.416229 1.09729 0.911614 0.520643 0.0397461 -0.622452 0.831911 0.674345 -0.23985 -0.102361 0.160667 0.164444 0.770339 0.548893 0.570465 -0.644089 0.168515 0.365711 1.00013 -0.496477 0.323207 0.0224185 -0.995783 -0.0533581 -0.197861 -0.573973 0.126487 -0.188784 0.366873 -0.488775 -0.847491 -0.254275 0.570292 0.935157 -0.514798 0.482515 -0.723285 0.0406653 -0.0169594 -0.798525 0.631707 0.203308 0.215056 -0.064111 0.69543 -0.540505 
1.18696 -0.672207 0.0711006 0.208497 -0.00236521 0.325836 -0.767336 -0.216577 -0.225276 -0.0770054 0.0535708 -0.664901 -0.631504 -0.450825 0.218173 -0.0824947 -0.41854 1.06914 -0.125224 -0.232558 0.590172 -0.163927 0.423067 0.183026 -0.0391875 0.0379463 1.75328 0.908345 -0.102366 0.141081 -0.474035 0.714218 0.161518 -0.641811 -0.856056 -1.0805 -0.548468 0.0309244 -0.0769968 0.727536 0.756241 -1.51253 0.815077 -0.0675982 -0.100942 -0.537374 -0.336469 -0.729004 -0.120705 0.505244 0.708323 -0.511625 0.0180433 0.0240355 -0.553871 -0.527368 -1.26652 -0.000114167 -0.136396 -0.442534 0.244256 -0.558507 -0.599853 0.964647 0.387278 -0.336917 -0.758316 0.673542 -0.266304 -0.0499542 -0.55257 -0.74452 0.868067 -0.223645 0.0313159 -0.391985 0.329182 0.0282999 -0.794891 -0.442071 -0.202062 0.590229 0.865011 1.14036 0.0909577 -0.159457 -0.169351 -0.170153 -1.03641 -0.140528 0.353571 -0.374993 0.423546 -0.464531 0.875041 -0.283437 
0.150222 0.492958 0.950493 -1.13439 -0.436912 -0.71432 0.715039 -0.571015 -0.958631 0.374833 -0.175326 -0.0850501 0.226353 -0.830524 -0.507763 0.123258 -0.309335 -0.539938 0.758763 0.167661 -0.100239 -0.905453 -1.0769 0.897645 0.474348 0.383156 -0.416735 -0.41693 -0.454586 0.383244 0.858012 -0.167621 -0.589944 0.574383 -1.10705 0.730053 -1.08408 -0.114538 -0.00165056 1.24376 -0.556516 0.155136 0.169057 -0.562793 -0.261455 0.226713 0.317935 -0.423846 0.754246 0.493766 0.428848 0.203209 0.66751 -0.523678 0.153583 -0.495953 -0.0117967 0.338864 -0.279126 0.582315 -0.201797 -0.414217 0.044506 -0.497932 0.419067 -0.0880605 -1.69859 -0.887479 0.544041 0.0658398 0.24015 -0.942614 -0.951232 0.379816 0.264261 -0.708531 -0.843485 -0.265776 0.204354 0.57085 -0.183236 -1.2374 -0.255404 -1.25706 0.168373 -0.402711 -0.230646 -0.847688 0.174488 -0.625257 -0.190035 0.316224 -0.0770836 0.18249 -0.137853 -0.625137 
0.45418 0.0672895 -0.590313 -0.214499 0.451769 0.38927 0.750506 -0.0821792 -0.752751 0.732394 0.338017 0.732338 0.509196 0.548386 0.218051 0.658049 -0.412404 0.364978 -0.0585564 -0.693248 0.411296 0.825918 0.444103 0.688674 0.619785 0.292059 0.154204 -0.98671 -0.111756 0.127655 -1.58377 -0.209636 0.277343 1.0659 -0.622784 0.12973 -0.0304504 0.661474 0.844353 -0.0855576 0.697399 0.563552 -0.017137 0.92722 0.0424251 0.168494 0.509153 0.84639 -0.00106326 0.940208 0.194562 -0.438187 0.0274939 0.419913 0.271919 0.416889 0.223639 -0.828873 0.255356 0.607999 -1.10705 -0.572656 0.145173 0.066735 -0.749624 -0.267083 0.383263 -0.527125 -0.839071 -0.200529 -0.662499 -0.361826 -0.626967 0.941954 -0.0863583 -0.139601 -0.146162 0.420145 -0.0828359 0.453293 -0.276332 1.30118 -0.519995 -0.0252887 0.733219 0.505345 0.395189 -0.764446 0.0574837 0.00107033 0.140842 0.601669 0.0650324 0.913568 -0.633403 0.0798913 
0.096636 -0.295991 0.762491 -0.243751 0.511675 -0.69971 0.283389 -0.742586 -0.9533 1.16041 0.702165 -0.174827 -1.26364 0.0676888 1.11519 -1.08041 -0.137886 -0.331232 -0.0935624 0.262268 0.478171 0.217411 0.735179 -0.217286 -0.0809825 0.850818 -0.708567 -0.757282 -0.34466 0.269293 0.356659 -0.595876 -0.708302 -0.278865 0.493397 -0.733205 -0.47714 0.585041 -0.700915 -0.861403 -0.464635 -0.654004 0.468182 -0.475768 -0.224562 -0.84068 -1.05277 0.387564 -0.0626183 0.384736 0.490956 -0.119024 0.568022 -0.795663 0.968803 1.04693 0.026226 0.897964 -0.312709 -0.397574 -0.551492 -0.674231 -0.019671 0.149684 -0.627895 1.19947 -0.700244 -0.747553 0.0960231 -0.582828 0.371811 -0.261584 -0.143703 0.937071 -0.00414874 -0.832318 -0.913641 1.33579 -0.327119 0.579382 0.0958183 -0.46987 -0.664074 -1.07801 -0.210273 -0.639522 -0.51 0.322014 -0.192391 -0.0957671 0.140754 -1.10506 0.211118 1.07986 -0.661763 0.50606 
0.00213457 0.510738 -0.804653 -0.0722001 0.282984 -0.31567 0.293639 1.54622 -1.60819 0.835108 -0.36356 -0.341305 0.495885 -0.255549 0.102001 -0.273381 0.692323 -0.5119 -0.0117587 0.0551517 0.171842 -0.122499 0.0421717 -1.29961 0.0331596 0.0435552 0.780946 0.248175 -0.056999 -0.0243024 -0.0552344 -0.606913 -1.00256 0.150738 0.120016 0.177745 0.517773 0.0336275 -0.504359 -1.68356 -1.14164 0.432454 -0.108688 0.291255 0.101606 0.378171 -0.704913 -0.0981635 -0.14623 0.381033 -0.119111 -0.0239637 0.297251 -0.626842 -0.00553611 -0.188507 -0.00388466 -0.510603 0.536333 -0.141245 0.5745 -0.338577 0.436576 0.692488 0.0053693 0.673402 -0.73145 -0.175426 0.334922 -0.0974749 0.93142 0.286881 -0.472966 0.510302 0.64071 -0.220284 -0.665675 0.395715 -0.219789 0.206351 -0.241169 0.557989 0.352765 -0.495975 0.197108 0.0564231 0.627701 -0.402939 -0.302893 0.190935 -0.784662 -0.250427 -1.14664 -0.0219935 0.757958 0.075225 
-1.21397 -0.117643 -0.552707 -0.490034 0.0299058 0.521261 0.12504 -0.454421 -0.70717 -0.29787 -0.0430767 0.46301 -0.594034 -0.174698 0.386042 0.188644 -0.150724 -1.40416 -0.19489 0.313282 -0.747264 0.0954928 0.726237 -0.605085 -0.640678 0.596102 -0.564316 0.0927905 0.925741 -0.272722 0.294604 -0.00808926 0.840871 -1.05536 0.233734 0.3271 -0.434924 0.71239 1.07786 -0.615927 0.148625 -0.561807 -1.04459 0.309936 -0.362234 1.1164 1.08545 0.895942 0.487253 -1.24327 0.0899578 -0.296323 -0.244012 0.421724 0.272093 -0.484891 -1.87698 -0.138486 -0.78185 0.176077 -0.234418 -1.45739 0.242694 0.372009 -0.0362541 0.0653426 0.173607 -0.203016 -0.525485 -0.222702 -0.0839508 1.20641 0.777969 0.135727 -0.125131 -0.196226 0.4593 0.550351 0.805015 0.668188 0.45073 -0.0786428 0.0813499 -0.0719225 -0.503447 -0.0372093 -0.667243 1.02711 0.625375 -0.538215 1.00041 0.0249277 -0.905833 -0.956683 0.331118 0.105664 
-0.10271 1.05107 -0.506486 -0.669947 -0.679186 0.560798 0.0116728 -0.945822 0.338973 -0.544905 0.17171 0.00455053 -0.179159 1.05999 -0.127981 0.240148 -0.837463 0.222354 -0.577012 0.909721 0.947291 -0.0388397 -0.325225 -0.0779456 -0.792104 0.518875 1.54141 -0.0787937 -0.61798 0.0191607 -1.3391 -0.420164 -0.176994 -0.271785 -0.462052 -0.468849 -0.803503 0.193439 -0.711591 -0.173594 0.738575 0.0630948 -0.0367023 -0.759871 0.0281633 0.632914 0.701658 -0.837101 -0.681932 0.0435857 -0.117223 -0.682506 -0.501605 -0.166277 -0.0182693 -0.355571 0.213497 0.0543015 -0.262988 0.432449 0.597872 1.04945 -0.451684 0.178712 -0.606737 0.251611 -0.00129393 0.251738 0.0973564 0.670002 -0.415277 0.0146247 -0.682908 0.337438 -0.414503 1.58567 0.54395 0.508746 -1.05171 0.0265307 -0.916556 -1.0244 0.388216 0.644528 1.29594 1.08277 -0.285341 -0.84794 0.92369 0.396018 -0.23597 0.00440777 -0.0248855 -0.352855 1.3321 0.569883 
0.53862 0.66254 0.047842 0.302137 0.621996 1.25397 -0.103281 0.486582 -0.125038 0.757601 -0.354943 -0.477691 -0.422816 0.667309 0.113686 0.326168 -0.0645964 0.541357 0.821429 -0.815871 0.408323 0.0564303 0.00686939 0.0689967 -0.0168172 1.04529 0.102766 0.59965 -0.462113 -0.011277 -0.0117456 -0.380118 0.187635 -0.703769 0.0367531 0.269752 0.678929 -0.771124 -0.602175 0.000941713 -0.704172 0.262776 -0.177881 -0.271879 -1.64185 0.195206 1.43441 0.0233814 -0.235131 0.643574 0.25714 -0.134947 -0.498263 0.0986864 -0.920515 0.375217 0.508931 -0.637664 0.994868 -0.484497 -0.990433 0.178977 -0.0635937 1.26373 0.474912 -0.584175 0.0227946 -0.292041 0.296089 0.922631 0.0485616 -0.372557 -0.257032 0.0987131 0.312367 0.296644 0.516609 0.663149 0.280678 -0.11049 -0.249152 -0.815864 0.338905 -0.159053 -0.371477 -0.554526 0.547468 -0.790755 0.679417 -0.95734 0.300355 0.197755 0.400402 0.0850966 0.960545 0.171086 
0.384177 -0.685649 0.401191 0.13247 0.660524 0.601112 -0.962294 -0.112896 0.174452 -0.238922 -0.388892 0.934891 0.251221 0.510974 0.292795 -0.0590035 -0.0625782 0.875746 0.14592 0.665734 0.444554 0.481711 1.11746 -0.439121 -0.437707 -0.288353 1.08268 0.0661722 0.148137 0.170883 0.0351004 -1.5637 0.879133 0.142157 -0.770876 -0.392197 0.00391674 -0.0244581 0.415894 0.0896152 0.491242 -0.828 0.960611 -0.434446 0.667725 0.741322 -0.788656 -0.748812 0.732644 0.493048 0.468131 -0.246878 0.376945 -0.146692 -0.145353 0.389543 -0.605486 0.670411 -1.08767 -0.819554 0.650348 0.217665 0.428352 0.136309 -0.0774437 0.137121 -0.274483 -0.804139 -0.122973 0.0146798 0.184302 -0.106823 0.57686 0.341978 0.539795 -0.573435 -0.116045 -0.0948358 0.0864063 0.412439 0.910491 -0.102187 0.342768 0.394437 -0.0920927 0.455114 -0.331155 -0.0719723 0.208597 1.20253 0.574122 0.111873 -0.16962 -0.0417225 -0.134022 0.349999 
-0.388534 0.388414 -0.567849 0.334776 -0.678665 0.876197 0.660811 -0.242732 0.130681 0.231872 -0.394638 0.348786 -0.38711 -0.141767 -0.795362 -0.72397 1.04997 1.3095 -0.104488 -0.200254 -0.649946 0.0471885 0.461779 -0.0923318 -0.470628 0.473967 -0.691461 0.0247971 0.087716 -0.734505 0.752955 -0.283098 -0.174873 0.571167 -0.582693 -0.932767 1.08161 0.255612 -0.260765 -0.478066 -0.824143 -0.0174551 -0.0706922 0.0500651 0.762783 -0.500314 0.188772 0.267102 0.871281 -0.090147 0.465651 0.804955 0.870011 -0.337708 -0.795325 0.106214 0.436943 -0.040207 -0.0850746 -0.119554 0.592569 -0.0184464 -0.658344 -0.870095 -0.238498 0.566385 -0.286428 -0.190487 -0.19022 0.270387 -0.696889 -0.552797 -0.539268 -0.181542 -0.271002 -0.599539 0.67885 0.0257524 0.438233 -0.733203 0.10914 0.631832 -0.0321633 0.376335 -0.0487266 0.956222 -0.415033 -0.806439 0.129713 0.972222 0.0151668 0.0953441 0.491943 0.383806 -0.901781 -0.254858 
-0.518068 -0.719037 0.00146572 -0.663899 0.292549 -0.171541 0.514411 0.322154 -0.411504 -1.6669 -0.329113 0.263467 0.0122918 0.158502 -0.132078 -0.212981 0.111424 -0.148858 0.851687 -0.701394 -0.12909 0.04497 -0.142862 0.253251 0.769998 -0.790026 -0.785805 0.343576 -0.477251 -0.0995869 0.346741 0.440801 -0.756307 -0.446806 0.503697 -0.875932 0.281426 -0.335737 0.70492 0.112857 1.27366 0.174132 0.33702 0.402959 0.17553 -0.362586 0.905021 -0.266806 -0.343078 0.416424 -0.473433 0.235947 -0.374609 0.351418 0.0808828 0.347889 0.0783132 -0.216444 -0.436182 1.02012 0.963369 -0.17834 -0.268216 -0.00921708 -0.665359 0.357255 0.473322 -0.733747 0.450381 -0.478156 -0.326718 0.0998069 0.615708 0.607554 -0.401373 -0.384858 0.199245 -0.914069 0.152933 0.304205 -0.00406827 -0.614072 0.34657 -0.615068 -0.571246 -0.253433 -0.161539 -1.05182 -0.52299 -0.0158821 0.422087 0.621083 0.158212 0.459952 -0.645987 0.778209 
0.294231 -0.599058 -0.957352 1.1223 -0.277229 0.373148 -0.848036 -0.0583252 0.374593 0.494885 -1.09232 -0.26254 0.746112 -0.266999 0.215751 -0.429823 -0.259962 0.4934 -1.14269 -0.889861 -0.0870878 0.345556 -0.0477929 0.068268 0.860595 -0.079578 -0.611489 -1.17887 0.145039 -0.304713 -0.132353 -0.759609 0.232503 -0.584477 0.0819312 0.300228 -0.424501 -0.978007 -0.280875 1.13035 0.306528 -1.1571 -0.304883 0.183644 1.21549 0.216734 -0.155926 -0.196242 0.985323 0.915483 0.684017 -0.865007 0.081598 -0.0357819 -0.370643 -0.317958 0.468797 -0.213704 -0.109162 0.653403 0.146682 -0.59798 0.59843 -0.0681178 -0.603677 -0.262452 0.22967 -0.111064 -0.600187 -0.384505 -0.572458 -0.511206 -0.343371 1.94051 -1.0139 -1.22077 0.153764 -0.100568 -0.109858 0.495374 0.432733 0.305207 -0.0284114 0.700682 0.073942 -0.0658444 -0.378509 0.24328 -1.2183 -0.638175 0.349456 -0.303561 -0.0549499 0.47422 0.478178 -0.609909 
0.101257 -0.486819 0.714198 0.481248 0.241862 -1.46337 0.0941031 -0.856766 -0.402193 -0.471403 -0.545069 0.012575 0.0143045 -0.637979 -0.367596 0.709969 -0.387748 0.317582 0.237457 0.548651 -1.18946 -0.212705 0.732456 -1.03909 -0.243514 -0.419712 -0.696127 -0.0092732 -0.682322 -0.207714 0.662169 -0.450514 -0.21637 0.415728 -0.115083 -0.363423 0.18007 -0.0306201 -0.00642575 -0.702805 -0.317577 -0.782674 0.945138 -0.354023 0.939239 -0.800846 -0.23806 0.285226 0.245141 -0.357245 -0.391764 -0.307442 -0.430799 -0.636117 -0.628426 0.779857 0.144113 -0.112638 -0.786826 -0.244817 1.13324 0.0490789 1.05959 -0.415699 0.555414 0.0439524 -0.167457 -0.377612 -0.276759 0.051213 -0.613805 0.575115 0.312316 -0.761593 0.373343 -0.0891155 -0.177094 -0.061633 1.63077 -0.409541 0.149664 -0.696931 0.237548 -0.706404 0.620445 0.00258958 -0.412706 1.09803 -0.200935 0.042359 -0.0376995 0.0134263 -0.403818 -0.00235385 -0.444886 -0.11317 
-0.779804 0.0396119 0.34413 -0.570469 0.00366037 0.986823 -0.461085 -0.234423 1.50786 -0.0860329 0.474977 0.716591 -0.144258 0.459306 0.541306 -0.464914 -0.165264 -0.29887 -0.832286 -0.522978 0.84225 -0.22026 -0.355205 0.370761 -0.147158 -0.651377 0.387109 0.0211437 -0.747849 -0.919802 -0.336729 0.131626 -0.0598379 0.00271416 0.366791 0.547752 -0.181411 -1.04751 0.237019 -1.2852 -0.135545 0.0622432 0.80754 -0.888418 -0.291083 -0.532315 -0.526117 -0.00921754 -0.148175 -0.709148 -0.763013 -0.379264 -0.747013 -1.24202 -0.715232 0.100505 0.170931 -0.156709 0.777419 0.264418 -0.294344 0.234741 0.50384 0.20257 -0.713707 -0.0254915 0.0121709 0.120593 -0.464299 0.227301 -0.405892 -0.418525 -0.825194 -1.02169 -0.24329 0.16993 0.367273 -0.322538 0.00951642 0.415016 -0.0599953 -0.545001 -0.163756 -1.08699 1.50498 1.2992 0.379524 0.0651053 -0.185553 0.0855108 0.0718401 0.136355 0.26731 -0.681938 -1.19785 -0.0453265 
0.254625 -0.353311 0.453108 -0.544404 0.653159 0.885203 -0.333095 -0.115361 1.03532 -0.0857223 0.61114 -0.432643 0.509715 0.207575 0.0534968 -0.0272507 -0.0353852 -0.486827 0.218349 0.0343933 0.662256 -0.999142 0.76408 -0.0162736 -0.368397 0.00111892 0.984782 1.13317 -0.0350466 -0.0276668 -0.492462 -0.626686 -0.153384 -0.550584 -0.180656 -0.201542 -0.0929338 -0.652895 -1.4931 -0.355896 0.320697 -0.519147 0.563373 -0.478359 0.428235 -0.398904 -0.364901 -0.652819 -0.550147 -0.306495 0.583419 0.242533 -0.709506 0.507265 -0.941412 -0.584878 -0.337118 1.02309 0.652332 0.242054 0.265757 -0.117762 0.346381 -0.841562 0.157047 -0.160675 -0.557806 -0.618859 -0.0568358 1.19456 0.688517 0.735222 -0.476916 0.531537 -1.17468 0.176234 -0.48223 0.197755 0.706396 -0.549188 0.425507 0.603783 0.392522 0.0586475 -0.273922 -0.178077 -0.122126 -0.450936 0.04904 -0.189624 0.551455 -0.556086 0.0231727 1.54926 -1.0796 -0.323051 
-1.33087 0.739506 0.0672098 0.0488691 -0.206874 0.338961 -0.217844 -0.446301 -1.18595 1.05152 -0.313965 -0.241887 0.346495 -0.10019 -0.468939 -0.586728 0.595749 -0.470911 1.00274 -0.433619 -0.905151 -1.16265 -0.995905 0.552836 0.0851045 -0.747739 -0.565267 0.510836 -0.49393 0.504449 0.568819 0.19639 1.03932 0.489271 -0.0421724 -0.166762 -0.51062 -0.73902 0.038474 0.537847 -0.418888 0.181353 0.271823 -0.396134 0.203184 0.0183133 0.653977 -0.62465 0.0276308 0.896572 -0.361434 -1.20909 -0.629695 -0.521146 0.435703 -0.0429583 -0.0790055 1.06705 -0.67787 0.152884 -0.494717 -0.380638 0.952989 -0.891908 -1.3051 0.433986 -0.596641 -0.289823 0.206136 -0.0469059 0.519752 0.396027 0.0637485 0.322245 0.288974 0.245281 0.188407 0.0697386 -0.147802 -0.656362 0.498461 0.719096 -1.12595 0.584244 -0.410552 -0.490588 -0.842968 0.0656827 0.416784 0.359568 0.650977 -0.733088 -0.839881 -1.04154 0.44333 -0.400521 
-0.800229 -0.61715 -0.0296713 -0.682758 -0.0234611 0.736208 0.382018 0.554178 -0.234065 -1.91764 -0.486381 -0.144328 -0.0348501 1.25221 -0.461705 0.754821 -0.10214 0.0534259 0.374297 -0.947608 0.506477 -0.432113 1.26909 0.323368 -0.035334 -0.592913 0.458816 1.08925 0.156782 0.740011 -0.623732 0.129011 0.0664447 0.211739 -0.484372 -0.572241 -0.783647 0.0851868 0.37443 -0.966219 -0.0158092 0.132298 -0.00385381 0.0939652 -0.349849 -0.429481 0.71154 -0.0298554 -0.186796 0.302685 0.0421123 0.541794 -0.195578 0.386605 0.582754 0.0839481 -0.217544 1.35906 0.00938313 0.176715 0.260193 -0.702165 0.161073 0.0388036 0.663053 -0.231414 0.127489 -1.05778 0.137945 -0.817649 1.02692 1.30227 0.224471 0.524823 1.82654 0.506798 0.393459 -0.0759465 0.0129774 1.4775 -0.0711615 -0.102744 0.165326 -0.834584 4.88948e-05 -0.60538 -0.350216 -0.435534 -0.201027 -0.481242 -0.0731585 0.587111 -0.755535 0.301537 -0.936501 0.415656 
0.739292 -0.694289 -0.115961 -0.600768 0.273202 -0.406737 0.434431 -0.147284 0.868657 0.645267 0.175078 -0.195706 1.19723 -0.0692654 -0.929904 -0.541981 0.0905304 0.71002 0.693079 -0.490464 -0.0827995 -0.749984 0.0238054 -1.04996 -0.152001 0.829618 0.673685 -0.237044 0.0891286 0.357034 -0.448569 0.48307 -0.0829866 -0.567146 -0.879623 -0.429812 0.522822 0.0604833 0.586278 0.62254 -0.0720108 -0.249494 0.50742 -0.872495 0.749058 -0.924992 0.17967 0.130704 -1.11191 0.543316 -1.63417 -0.725108 -0.0695407 -0.275088 -0.560952 0.203484 -0.204729 -0.274872 0.4199 -0.957986 0.960231 -0.213022 -0.343693 1.06516 -0.214265 0.450634 -1.0621 -0.315538 0.00997396 -0.352807 1.09017 -0.350331 0.361053 1.10938 -0.920396 0.650928 0.0965532 0.403433 -0.238331 -0.882361 0.30711 0.847429 -0.753242 -0.761004 0.533266 0.652178 -0.0330333 0.272728 1.06089 0.238524 -0.053781 0.00478679 -0.769239 0.147189 0.39578 0.809047 
-0.592726 -0.333295 0.0349588 -0.424964 -1.07426 0.518257 -0.0154568 0.191741 0.0289852 0.112511 -0.22468 -0.56285 -0.346382 0.932527 0.420687 0.279846 0.193759 -0.438222 0.013752 0.145772 0.293098 -0.489584 -0.545688 0.603643 -0.59724 -0.607918 -0.538815 0.354572 -0.672131 0.501706 -0.433581 -0.632375 0.822253 0.032127 -0.575413 -0.0337881 0.491724 -0.587894 -0.780542 0.393261 0.285893 -0.978122 0.887223 1.00243 0.838429 1.16335 -0.266388 0.118106 0.315736 0.610041 -0.0910982 -0.608421 0.597001 -0.371765 0.312745 -0.000916035 1.04174 -0.390117 -0.597134 -0.0350617 0.0861876 -0.370945 0.028452 0.693944 0.330968 0.0778945 0.203768 0.114347 0.0240131 -0.203365 0.154004 0.798022 0.826771 -0.121885 0.0058212 0.153587 -0.105158 -0.301634 -0.189881 0.767444 -1.08819 0.667489 -0.21063 0.141441 0.0330598 0.0731375 0.942218 0.362614 -0.787971 0.0760407 -0.240782 -0.0160511 -0.24149 0.151833 0.0672442 -0.832712 
0.145662 0.443235 -0.425987 -0.03658 -0.664029 -0.385498 -0.28853 -0.618921 -1.25988 0.271897 -0.558923 -0.691546 -0.0663575 -0.566854 -0.303277 0.900299 -0.261747 -0.223376 0.500177 0.419896 0.26693 -0.284739 -0.433966 -1.00906 -0.292015 0.0907397 -0.447799 0.23227 -0.438756 -0.776272 0.240046 -0.398789 0.103773 -0.679839 0.483455 -0.158981 0.432614 0.180785 -0.176339 0.209007 0.265613 0.729618 0.181346 0.304857 -0.565258 0.722494 -0.275929 -1.02344 0.0749996 -0.202709 -0.066561 -0.115558 0.022431 0.103588 0.0712467 0.80907 -0.346221 0.07884 0.512312 -0.687241 -0.460458 -0.283302 -0.751171 0.522142 -0.111317 -0.00197654 -0.260699 -0.687161 0.640036 0.853518 -0.153595 0.29855 -0.866836 -0.241848 -0.820124 0.492614 -0.410926 -0.00518323 -0.314528 -0.460072 -0.0165921 -0.34683 -0.19936 0.570201 1.245 0.316034 1.35904 0.175734 -0.765066 -0.362841 0.354791 1.0092 0.116364 1.04136 0.306142 0.742085 
0.107765 -0.383628 0.234188 -0.121677 -0.0461176 -0.222585 1.05365 -0.182803 0.421796 0.135809 -0.774816 -0.260546 0.350317 -0.291218 -0.17213 0.271381 -0.390177 -1.16452 0.288784 -0.858137 0.164058 0.356888 0.399413 0.123471 0.0213735 -0.0979262 -0.622061 -0.631476 0.410141 -0.261348 0.441982 -0.566611 0.00334716 -0.389452 -0.511457 0.469502 -0.0657174 -0.0389885 -0.0345556 -0.107538 -0.0210911 0.0518286 0.900539 -0.0504373 -0.111464 0.493245 -0.687818 -0.230572 -0.7017 0.599728 -0.57126 0.195683 -0.156594 0.0163559 -0.753267 0.609638 -0.565382 -0.307967 0.666551 0.393022 0.0599679 0.15868 -0.192278 -0.099465 0.562835 0.0486684 0.462126 -0.484062 0.0784544 0.542638 -1.50837 -0.130047 -0.601235 0.454392 0.75525 0.935694 0.556362 0.558215 0.596677 0.0536356 -0.274331 -0.578498 0.195229 -1.03876 -0.595171 -0.259986 -0.281845 0.304936 0.375242 0.186991 -0.532896 -0.478166 1.48995 0.477529 0.361961 0.831632 
-0.0241712 -0.43805 -0.378646 1.11919 -1.00694 0.565367 -0.484207 0.104909 0.873582 0.257942 0.12605 0.698319 -0.113089 0.861653 0.120153 -0.530145 1.16944 -0.196084 0.536158 -0.425268 0.421854 0.213701 -0.407353 0.00862494 0.123297 -0.0392709 -0.219396 -0.241094 -0.171353 0.0525187 0.776272 -0.0207262 -0.276471 0.78737 0.835753 1.11322 0.622035 -0.180116 -0.492922 0.858282 -0.184706 -0.211708 -0.221769 -0.00991452 0.429803 -0.760468 -0.360689 -0.772366 0.348787 0.377881 0.134829 -0.323726 -0.483718 0.70158 0.399421 -0.0764472 -0.251884 -0.774226 0.470995 -0.12316 -0.187203 -0.114205 -0.262511 -0.438843 -0.00872831 -1.13592 -0.299172 -0.602684 -0.169115 -0.164116 -0.546553 -1.2752 0.00534397 0.226581 -0.375525 0.271023 0.598805 -0.728729 0.68235 0.909176 -0.847971 0.0857833 -0.176804 1.45157 0.0851677 0.550421 0.623175 0.468059 -0.129599 -0.215155 -0.167783 -1.11429 -1.01284 0.473233 0.43157 -0.690779 
