0.405048 -0.114785 -0.220036 -1.26456 0.79783 -0.108659 -0.395611 -0.585742 1.0923 -0.197893 1.1471 -0.920335 0.20691 -0.0198777 -0.174874 0.292053 -0.414015 1.00927 1.02496 0.815782 0.00928051 0.370883 -0.468326 -0.791604 -0.0381745 0.717534 -0.112136 0.196239 -1.14036 0.367568 -0.00487621 -0.940525 
0.21864 0.336397 1.64139 0.178656 -0.73017 -0.893554 -0.548945 0.969783 -0.988805 0.235603 -0.177109 0.124637 1.10858 0.136263 -0.215888 0.874111 -0.82361 -0.645419 -0.282639 -0.387323 0.102892 -1.18246 -0.83926 -0.337352 1.364 -0.0239417 0.456634 -1.07123 1.15657 -0.202539 -0.381419 -0.0953491 
0.155935 0.0915083 -0.198409 -0.0220433 0.484926 0.380952 0.118333 0.429018 -0.71942 -0.183552 0.926032 -0.87974 0.773298 0.873195 -0.0274631 -0.469431 -0.36408 -0.0371364 0.602682 0.754922 0.872216 0.0947927 1.3068 -1.4062 0.345 -1.02029 0.433243 -0.504655 0.719194 1.03427 0.80246 1.58254 
0.0352459 -0.369225 -0.00369732 -0.0352388 -0.328462 0.725497 -1.25996 -0.186242 -0.155653 0.270407 -1.97209 -0.19591 0.793372 -0.657531 -0.859075 -0.213895 0.18006 0.739144 -0.883432 0.197214 0.42081 0.518084 -0.462113 0.272637 0.460277 0.0903924 0.750721 -0.0600655 -2.24246 -0.0494888 0.183958 1.11074 
0.292868 0.381491 0.596916 -0.289951 -1.46882 0.183017 0.576863 -0.486798 -0.201816 -0.415343 -0.175982 -1.04928 0.363262 0.521624 1.22517 0.287883 0.48051 -0.297772 -0.106557 1.12856 0.108518 0.135316 -0.49697 1.64041 -0.272365 -0.41318 0.786098 0.0574155 0.952199 1.09036 -0.254364 0.316371 
-0.539962 0.52002 -0.309839 0.0136752 -1.03324 -0.563259 0.260542 -0.881741 -0.547834 0.172824 0.596722 -0.877551 -0.740628 0.0662618 -1.11573 -0.486118 -0.279872 -0.314961 -0.0588988 0.826592 -1.44756 -0.396979 -0.31536 0.230489 -0.965873 0.362711 0.296914 0.661882 -0.3775 1.27802 1.13447 0.287516 
1.2557 0.188807 1.18389 -0.135237 -0.677879 0.469277 0.071431 0.0425634 0.394795 -0.639757 0.409834 -0.26708 -0.506779 -0.499787 0.0977515 0.171031 -0.368257 0.287296 0.875313 0.166902 0.680496 -0.361698 -0.169222 -0.981184 -1.09484 -0.00338316 0.630971 0.365579 -0.112868 0.236302 0.8933 0.149169 
-0.188914 0.489845 -0.999975 0.561519 -0.863821 0.0642789 0.0189324 -0.00836811 0.619251 0.240658 0.43019 -0.608482 0.680279 -1.42616 0.243826 0.132552 0.224456 0.0868787 0.285063 1.02723 -0.959412 1.00385 -0.240753 -0.0654649 -0.619586 -0.498469 -0.211335 -1.26696 0.499729 0.310886 -1.10373 -0.992618 
-0.261898 0.0654648 0.0929921 0.71909 0.640873 0.0212158 0.580896 -0.739958 0.690818 -1.04941 0.147121 -0.492244 -0.0521413 -0.945684 -0.55837 0.0362811 0.390291 0.60558 1.25695 0.0498108 0.816938 0.717238 -1.1083 1.04915 0.451619 0.622984 -0.420439 0.578894 0.210117 0.716171 0.461436 -0.0632797 
-0.0584426 -0.123763 0.652128 0.749769 -1.76799 0.655862 -0.728891 0.575697 -0.8689 0.448423 0.395592 -1.25683 0.00276565 0.500123 -1.40081 -0.121252 0.762685 0.0226012 0.783331 -0.728916 0.510297 -0.497125 -0.174361 -0.753729 0.716027 0.904721 -0.855185 -0.21983 -0.625544 -1.23615 0.546342 0.18327 
-1.27354 0.450721 0.0387117 -0.275344 -0.157164 -0.633269 -0.655284 0.0107035 0.307513 -0.0838885 0.417213 -0.156505 0.125104 1.60167 -0.601188 -0.24924 0.377332 -0.920039 0.0797501 0.141734 0.330336 -0.143505 -0.204864 -0.665059 -0.281642 0.0826578 0.785314 -0.0647098 -1.19954 -0.0229376 -0.284397 0.000523302 
0.0737263 0.887466 0.252189 0.174713 -1.84639 0.487074 0.311825 -0.216544 -0.82345 1.50959 0.484905 -1.06578 -0.305424 0.372521 -0.0390833 -0.243482 -0.311419 -0.555894 0.776227 0.455025 -0.829797 -0.761252 -0.206418 0.087057 0.472354 0.565411 0.167286 0.251481 -0.157881 -0.620869 -0.303819 0.484023 
0.457342 -1.04208 0.493033 -0.468348 -0.237806 0.880376 1.9302 0.548044 -1.35843 -0.0872399 -0.588905 0.228834 0.767009 -0.737658 -0.396116 0.475215 -0.161699 0.60012 0.122291 0.614606 -1.00645 -0.264546 -1.15119 1.04463 -0.229277 -0.30206 0.146145 0.3215 0.121666 0.639444 -0.626512 -0.910449 
0.223586 -0.0348258 0.379019 0.482528 0.0790959 0.566612 -1.0316 0.512156 0.233334 -1.05659 -1.78465 0.75644 -0.17015 -0.0196326 -0.0567721 1.04288 -0.204185 -0.220285 0.749885 0.794763 0.256375 0.813895 0.294809 0.138079 0.806932 0.308679 -0.620197 0.846642 1.13489 0.0618068 -0.107768 0.401937 
-1.03373 0.668637 -0.419195 0.0599312 0.54708 -0.703261 -1.12482 0.786926 0.303773 0.272514 0.814144 -0.321598 0.277836 0.246072 0.575619 -0.687028 -0.203187 -1.7446 0.631728 -1.18542 -0.74583 -1.15548 -0.087516 -0.323105 -0.0676195 -0.27588 1.22852 0.325588 -0.950157 0.400724 -0.557446 0.497937 
-0.150109 -0.371585 -0.13111 0.446855 1.27019 0.359031 -0.985661 -0.873606 -0.434231 0.534377 0.21332 0.311416 0.352573 -0.798061 -0.136948 0.24808 -0.704102 -1.16453 0.650378 0.0744901 0.282624 1.00861 0.133803 -0.597898 -0.961076 -0.590215 0.75758 -1.56999 -0.107331 0.852294 0.475378 -0.297476 
1.38606 0.383405 -0.326118 -0.38252 -0.332819 -0.742949 -0.240391 0.0903919 0.510599 -0.0534032 0.158938 0.165721 -0.367782 0.141097 -0.282745 -0.00627076 0.302261 0.25989 0.675462 0.836652 0.652387 0.0608729 0.559869 0.291186 -0.372725 -0.431004 0.450695 -0.32554 -1.17765 0.767699 0.20156 0.294861 
0.340144 -0.498289 0.676529 -0.390798 -0.0730039 -0.071262 0.443447 0.699624 -0.586273 -0.130367 1.18756 0.255266 0.408451 0.214532 -0.620551 0.422945 0.748596 -0.531817 0.844145 0.312931 -0.613255 -0.418387 -0.970463 -0.139433 0.618903 -0.245935 0.903837 -0.322572 0.26059 -0.395202 -0.416391 0.490476 
0.747624 0.0651868 1.25043 -0.162643 0.526253 -0.294135 -0.658345 0.672723 0.747503 1.49241 0.0528717 0.33732 -0.20821 -0.0838946 0.716774 0.141252 -0.209272 -1.30735 -0.753002 0.0962963 -1.16408 -1.44015 1.43764 -0.0333464 -0.60968 0.404612 -0.75799 -0.388681 0.494407 0.660496 0.642026 0.53281 
0.800028 -0.717028 -1.11503 1.2492 0.536129 1.09528 -0.334822 -0.790447 -0.0483061 0.026188 -1.23544 -0.322947 0.536054 0.558058 0.162044 0.174456 0.231161 0.557357 0.36639 0.231736 0.0436856 -0.833587 0.00716212 0.163831 0.606712 0.516972 -0.43187 -0.152086 0.358663 -0.0654381 0.765325 -0.113659 
0.274791 1.04425 -0.722087 -0.279756 -0.649243 -0.409158 0.0866022 -0.916049 -1.4775 0.385762 0.280713 0.391084 -1.50587 -0.473494 0.966837 -0.181051 -1.29676 -0.177221 -0.271273 0.0980393 -0.0129522 -1.67828 0.0282595 -0.72035 0.128041 0.39508 0.273921 -0.577756 -0.119383 0.563354 0.152382 -0.0517059 
-0.768293 -0.476759 -0.647177 0.356765 -1.49379 -0.477989 -0.246054 0.544434 0.116927 0.763527 -0.356815 -0.700556 0.587269 0.501839 -0.916824 -0.111284 0.849933 0.546334 0.425461 -0.0136418 0.0618407 -0.0436279 -0.215784 -0.472185 1.10078 0.497631 1.01326 -0.229467 1.66128 -0.207863 -0.144999 0.139328 
-0.192266 -0.407784 0.0189885 -0.5598 0.0277161 0.927474 -0.0763574 0.0740253 0.579282 -1.51656 0.00527116 -0.097144 -1.77268 -0.085667 0.507399 -0.136899 -0.446536 0.381723 -0.00533603 -0.19505 0.855689 0.427608 1.44128 0.0212874 -0.454962 -0.970509 0.883081 0.522536 -0.317771 0.504748 -0.487699 -0.0150139 
0.816005 0.665263 0.561364 -0.132401 -0.682225 0.398926 -0.469415 -0.634372 0.521019 0.737113 -0.122493 -1.11129 -0.243132 0.955354 -0.189069 0.306899 -0.0578506 0.524435 -0.0313228 0.57598 -0.887149 -0.0996163 0.801319 -0.00237869 0.468749 0.802696 -0.195254 -1.41689 -0.250715 -0.782882 0.45591 -0.12506 
-0.532951 -0.226477 -0.457005 0.40007 0.018059 0.654077 -1.91019 -0.405696 -0.809675 0.0606614 0.498866 0.860629 -0.670853 0.429991 0.864532 0.577133 0.143076 0.240826 -0.0929904 -0.0264683 -0.793483 0.544997 0.252675 -0.418524 0.339915 0.741961 -0.951023 -0.0484701 -0.238431 0.364237 -0.260176 0.0245722 
0.845514 0.110683 -0.591047 -0.504864 0.142408 0.244648 0.636323 0.276593 1.71647 0.566851 -0.765673 0.207977 0.18873 0.515522 -0.383626 -0.147055 -1.07356 0.0137811 0.0568558 -0.5864 -0.392403 -0.156732 -0.695956 0.0978783 0.198845 0.892761 0.143184 1.13421 0.598154 0.47346 -0.410333 0.595659 
0.137246 -0.0609942 -0.360774 0.802857 0.759363 0.506652 0.916604 -0.595899 -0.566175 0.839997 -0.815405 -0.29786 -0.320297 0.289347 -0.276783 0.866186 -1.16954 0.525664 -0.451637 0.781728 0.220934 -0.343868 0.674926 0.937718 1.41881 -0.0323582 0.533052 -0.874823 -1.27488 0.725748 -0.597142 -1.23887 
-0.392127 0.266028 -0.636197 -0.348314 -0.673927 -0.204923 0.621359 -0.0402378 0.759602 -0.0959786 -0.226897 0.540008 -0.0423881 -0.364707 -0.12228 0.528692 0.136531 0.543678 0.308084 0.291262 -0.477295 1.00173 0.503372 -0.392334 -0.950685 0.378037 -0.501743 -0.7608 -0.816309 -0.133095 -0.303442 -0.273668 
-0.0379161 -0.513909 0.519801 -0.210643 0.657995 0.269474 0.380885 0.705671 -0.0500224 0.365749 -0.179364 0.46673 -0.22324 0.667932 1.59355 0.501442 -0.917254 0.650316 -1.04784 -0.168594 0.980599 0.859875 -0.695956 0.441592 0.358056 0.617072 -0.0944528 0.6326 0.338837 0.923264 -0.288052 -0.866516 
0.0529476 -1.61795 -0.388117 0.933724 -0.719762 -0.52506 0.105087 -1.56252 1.04902 -1.24951 -0.886623 -0.671513 -0.455677 -0.777182 1.0652 -0.457258 0.167373 0.495477 -0.299268 -0.339659 0.511411 0.390068 -1.27795 -0.0999593 -0.737193 0.304475 -0.588457 -0.428944 0.0771233 -0.181894 -0.216509 -0.135641 
-0.723962 1.0143 -0.115569 0.0784456 -0.706858 -0.769747 -0.531111 0.132873 -0.397408 -0.866832 -0.977324 -0.692133 -0.0862921 -0.427856 -0.340461 0.994677 -0.242586 0.568276 -0.212592 -0.735997 0.201292 -0.272796 0.164316 -0.499225 1.63917 -0.229469 -1.1031 0.730146 -0.456226 -0.291293 -0.472939 -0.482259 
-0.401093 -0.597955 -0.0672862 -0.131831 -0.746106 0.556211 0.363368 -0.534818 0.422581 0.625201 -0.497681 0.110663 0.0283776 0.503527 -0.646172 -0.0351426 -0.193 -0.143479 -0.862419 1.01813 -0.0145508 -0.0212454 -0.0421597 0.0110134 0.0160838 -0.474323 0.47681 0.567543 -0.0844014 0.848669 -0.34404 0.772768 
0.443822 -0.00793389 -0.824997 0.0794921 -0.451708 -0.403551 0.825366 0.278793 0.88334 -0.817638 0.956166 0.0941816 -0.304875 -0.606056 0.294358 0.284184 0.462143 0.610671 -0.763276 -0.00775976 -0.846898 0.000435684 0.941089 0.545121 -0.103902 1.16817 -0.858475 -0.206736 -0.281643 -0.445848 0.642055 -1.0305 
-0.458398 0.206995 -0.948226 -0.400712 -0.291794 0.438191 -1.34836 -0.197177 0.33424 -0.595303 -1.03846 0.70947 0.586043 -0.678231 0.189812 0.182726 -1.13096 0.174525 -0.898878 0.30663 0.142858 -0.96271 -0.995463 0.622498 0.509431 1.43368 1.36138 0.0015774 -0.660403 0.288125 0.698574 0.0695842 
0.482403 0.553479 -0.676163 0.898715 -0.0130068 0.43599 0.6219 -0.94621 0.0533669 0.242323 0.320303 -1.46013 -1.96435 0.26369 -0.293025 0.247697 0.158507 0.131449 -0.266526 0.441267 -0.500585 0.223217 0.128559 0.137545 -0.440303 -0.111288 0.343105 0.195189 0.503821 -0.768636 -0.394632 -0.167374 
-0.846403 1.2653 -0.300533 -0.688501 0.374562 0.271782 -0.277544 0.280533 -0.11437 1.08848 -0.781342 0.141234 0.692314 -1.88587 -1.10538 -0.368107 -0.16176 -1.00334 -0.232044 -0.706926 -0.155828 -2.11344 -0.257625 0.133177 0.354909 -0.252056 1.05466 -1.06434 -1.70814 0.750506 -0.143243 -0.340306 
0.31493 -0.63767 0.746251 -0.681002 -0.393831 -0.0499893 -0.576668 -0.705837 -1.53898 -0.426432 0.366579 1.09171 0.0476641 -0.405217 -0.470565 -0.111833 -0.541336 0.333036 -0.59433 1.55028 0.50266 1.00799 0.405735 -0.690069 -0.217745 -0.195223 -0.523728 -0.0603368 1.4828 -0.398019 -1.1384 0.133198 
0.467509 0.994859 0.190856 1.60329 0.272643 -0.548161 -0.720424 -0.422165 0.289423 0.970726 0.104649 0.532311 0.649179 -0.0122069 0.786246 -0.0450959 0.234828 -0.140199 -1.08866 1.40348 0.0782533 0.492421 0.0953544 -0.687865 -0.238787 0.392739 -0.820438 -0.0953746 -0.19844 -0.346872 0.766914 0.0965078 
0.180673 0.313778 0.0576013 -0.901038 -0.00488178 0.262985 0.362686 0.605578 0.0696417 -0.744133 0.416494 0.0818369 0.457146 -0.333098 -1.14529 -0.675398 -0.534677 -0.0637853 1.0602 -1.24986 -0.117783 0.482383 0.820518 0.597806 0.795304 -0.587328 0.0333315 0.305051 -0.421354 -0.114663 -0.709171 -0.963629 
0.219752 -0.195089 -0.432044 -0.426962 0.00221116 -0.427184 -0.942157 -0.361194 -0.6765 -0.269725 -0.320334 0.240685 0.318241 0.905474 0.430303 -0.409133 0.524057 0.225283 -0.21001 0.273418 0.820871 0.0143175 0.990906 0.292632 0.476919 1.2561 0.0250773 1.0118 1.6238 1.09486 -1.39434 1.01084 
0.0253581 0.952361 -0.0328736 1.12002 0.246999 0.34137 -0.402163 -0.28077 -0.305797 -0.334569 -0.310214 0.476208 0.745772 -0.57245 -0.53638 0.586758 -0.179956 0.217511 1.14872 0.553763 -1.11169 0.0789269 -0.0333354 0.0260595 0.336752 0.405621 -0.227383 1.16113 0.268537 0.111681 -0.163172 -0.616129 
0.477012 0.855113 0.373112 -0.0443019 -0.620136 -0.329347 -0.696872 0.148763 0.186208 -0.134013 0.269398 0.0684469 0.239973 -1.07115 0.942423 0.49773 0.36923 0.0595582 -0.483332 0.655593 0.496124 0.497369 0.477823 0.139014 0.658974 0.334023 0.989605 0.110142 -0.209098 0.481514 -0.220265 -0.156312 
0.263401 0.166312 -0.247643 0.0713331 0.340319 -0.204657 0.88494 -0.431827 -0.848975 -0.769534 -0.00223148 -0.117172 1.20394 -0.321841 1.14614 0.286321 -0.597857 -1.16244 -0.104559 0.77196 -0.466309 0.738789 1.21401 0.256239 0.0165706 -0.872375 -1.19176 0.241732 -0.00685006 0.157533 -0.289344 -0.625828 
0.735318 -0.445482 0.0846119 -1.31961 0.492797 -1.24279 -0.307169 -0.235541 -0.196203 -0.226347 0.157216 0.538348 -0.311582 0.61273 0.0555591 0.635325 0.107844 0.504802 -0.656495 -0.217004 0.575953 -0.553498 0.158598 0.312564 0.532867 0.683815 0.444345 -0.423908 -0.749984 -0.807354 -0.836125 -0.241041 
-0.395637 0.309292 0.278441 -0.360472 -0.688962 -0.276436 -1.00018 0.694959 -0.293364 0.885384 0.824018 0.152235 -0.011467 -0.709382 0.911639 0.460366 0.0738822 0.231227 -0.501905 0.039972 -0.2637 1.20421 -0.560862 -1.05183 -0.130811 0.110144 -0.827195 -0.221657 -0.548422 -0.778707 -0.0725521 0.396367 
0.396144 0.569776 0.0888603 0.153036 -0.141469 0.525676 -0.372321 0.266697 -1.06263 -0.112801 -0.47443 -0.213745 0.493637 0.271509 0.591379 -0.364397 -0.57157 0.0103761 -0.492332 0.820706 -0.369026 0.0167502 1.39777 0.837723 0.128582 0.0770087 0.544032 -1.09177 0.370437 -1.16277 -0.588065 -0.020825 
0.836455 0.0250488 0.304063 0.108818 1.10302 0.265059 0.777456 -0.460603 -0.42127 0.467874 0.463613 0.804912 -0.118772 -0.996987 0.456075 -0.0675628 0.473779 -0.76951 0.1188 0.496946 0.286734 0.810782 0.760858 -0.374522 -0.54087 0.165812 -1.92088 -0.331482 1.60837 -0.235208 0.367271 -0.422512 
0.261972 -0.0653689 0.503018 -0.50594 0.387412 0.944342 0.394844 0.1872 0.0886319 0.296046 -0.0224034 0.121479 0.480334 0.996178 -0.263496 0.713997 0.0264137 0.765306 -0.292957 -0.426734 -0.361879 -0.861064 0.980898 0.657074 0.0467459 0.957994 0.782098 1.63505 1.03845 0.143931 0.818808 -0.0555412 
-1.20446 -0.308168 -0.638369 0.517781 0.143622 -0.224907 0.427274 -0.773829 -0.971195 -0.209202 0.322758 -0.981275 -0.439891 -0.573316 0.0663829 -0.528288 -0.681144 0.112452 0.526105 0.180941 -0.377379 -1.25437 0.301495 -0.6882 -0.0153666 0.669384 0.139814 -0.78171 -0.895776 -1.38896 -0.109542 -0.19381 
-0.315001 -0.225704 0.371765 -0.610131 0.600269 -0.986313 0.493651 -0.722117 -0.00780171 -0.484426 0.290498 -0.0305197 0.308421 -0.676864 -0.0904417 -1.52684 -1.31444 0.219449 0.513412 0.00552868 0.0900408 0.0923267 -0.264709 -0.269621 -0.517874 0.225099 0.592134 0.250182 0.343086 -0.99083 -1.56988 -0.174793 
0.223327 0.986634 0.471528 -0.372849 -1.69587 0.14251 0.283829 0.149336 1.66267 -0.797305 -0.0312441 0.319022 0.566756 -0.0171776 0.893001 0.0924015 0.393991 1.12912 -0.185971 0.0785437 -0.564714 0.58687 -0.476608 -0.761679 0.0109666 0.255174 -0.064222 0.859075 -0.658454 0.190275 -0.298806 -0.591238 
-0.157818 0.0447099 -0.435888 0.635678 0.755119 -0.350227 1.06949 -1.04623 0.141616 -0.756827 -0.65949 0.869672 0.442942 -0.648464 0.296126 0.795707 -1.83968 0.15529 -0.803451 0.764341 0.264319 -0.0124412 0.848039 -0.551934 0.137108 -0.359804 -0.0310962 0.593792 0.314394 -0.865693 -0.337464 0.313523 
0.540085 -0.590037 -0.338439 -0.00549132 0.0798095 -0.851025 0.845088 -0.4115 -1.25838 0.366045 -0.908296 0.249775 -0.84319 -0.549611 -0.21803 -0.255228 1.37214 -0.82724 0.0976544 0.296784 0.16034 0.335729 0.0566739 -0.178664 -1.53598 -0.0212751 0.120579 -0.872567 -0.720485 0.166853 0.100229 -0.188424 
0.783869 -1.73886 0.931873 -0.12853 -0.870833 -0.629605 0.0381511 1.09149 -0.0668943 0.304774 -1.10521 -1.25434 0.37374 0.0749907 -1.55697 0.00513425 -0.198735 -0.269333 -0.0165251 -0.358954 -0.264452 -1.50444 -0.305645 -1.1325 -0.608312 1.45791 -1.4467 0.241523 0.105814 -0.471635 -0.141789 0.248855 
0.695982 0.402121 1.48622 0.286903 -0.0995502 -0.734178 -0.595548 -0.0640978 -0.316431 0.127831 -0.226579 0.820577 0.686374 -1.21609 -0.106682 -0.618378 0.45235 0.417699 0.444461 -0.591057 -1.54672 0.826363 -1.63581 -1.07144 0.947225 -0.356574 0.41676 -0.308999 0.170411 0.645099 -0.117319 0.58723 
-0.366735 0.336377 0.111761 -0.563909 0.758543 0.160742 -1.4756 -0.362436 -0.967212 -0.0294912 -0.30785 -0.619864 0.304549 -1.20355 0.815572 -0.37945 0.207735 1.09348 0.667038 -0.506222 -0.898576 1.27902 -0.341746 -0.078195 -0.328749 0.316313 -0.53448 0.417061 -0.756896 0.619899 -0.397904 -0.0922635 
0.352707 0.578413 0.286337 1.33797 -1.05 -0.00750024 -2.03451 0.440071 -1.38298 0.434943 -0.201012 0.68088 -0.27917 0.826685 1.07437 0.400265 0.884031 -0.677541 -0.346631 1.07984 0.110693 -0.242619 0.224491 -1.05076 -1.20804 0.137274 0.159194 0.16919 0.552735 0.0288418 -0.073358 -0.34399 
-0.0182803 -0.174307 -0.816464 -0.971673 0.645315 -0.473226 -1.30595 -0.000476063 0.571649 -0.647594 0.0540116 -0.298079 0.491719 0.0255345 0.421846 0.469944 -1.01226 0.817461 0.426878 0.160454 0.130585 0.109627 0.446893 0.790063 1.31035 0.641099 -0.439737 0.711248 -0.818716 0.0466778 -0.32151 1.19421 
-0.264966 -0.106416 0.0102051 -0.68406 0.299342 -0.636105 1.28694 0.984178 1.00853 0.0349165 -0.263958 -0.00810681 -0.266953 0.35511 0.390516 0.220327 1.04855 0.252629 0.320266 -0.189483 -0.484247 0.620867 -0.389927 -0.970163 -1.15531 0.711382 0.20328 -0.369144 0.830083 -0.495037 -0.151787 0.950143 
0.665448 -0.987538 0.48896 0.299906 -1.0168 0.874123 1.42291 0.357114 0.728553 1.44643 -1.13803 0.523593 0.61924 -0.471201 -0.183542 1.30646 0.415146 1.19933 0.374443 -0.433833 0.11031 0.601981 0.248515 -1.22196 0.365193 -0.215433 1.13373 0.0933323 -0.186731 -0.352299 -0.0970783 0.389419 
0.0552776 0.152609 0.636366 0.558646 0.759679 0.14265 0.40187 -0.859349 0.847982 -1.19354 0.773508 0.745754 0.151328 -0.619508 0.388122 1.47377 0.196144 -0.889699 -0.906142 -0.353423 0.7778 -0.81782 -0.15696 0.217514 -0.953861 -0.349824 1.08788 0.0366135 0.670912 -0.216213 -0.979362 0.506165 
-0.867119 -0.478327 -0.0399996 -0.223641 -0.959947 -0.585941 -0.157251 1.09143 -0.618305 0.130272 1.02478 -1.07267 -0.555309 -0.41591 0.263516 0.299363 0.174808 0.90628 0.0246514 -1.0078 -0.0576377 -0.127232 -0.162739 1.31192 1.1885 -0.874888 0.698342 -1.03735 -0.23785 0.347207 1.00242 -0.762652 
0.169673 0.838459 -0.439482 0.112978 -1.19672 0.417633 -0.705004 -0.613298 -0.20868 0.109157 -0.312145 -0.0828312 -0.219707 -0.567205 0.154683 0.366527 0.68556 -0.0996615 0.469961 0.111889 -0.0511286 0.676097 -1.58941 -1.17964 -0.0446445 -0.928246 0.922594 -0.833554 0.58042 -0.283445 0.478908 -0.50082 
-0.567328 -0.571084 -0.755797 0.277357 -0.350831 0.293351 0.25875 0.210932 -0.241193 -0.151648 0.208085 0.0675157 0.0657428 0.0620606 0.748921 0.523369 0.513971 0.532728 0.017684 1.18215 0.0566611 -0.622846 -0.322572 -1.38809 -0.540007 -0.067273 -0.569321 0.0998259 -0.491585 0.741669 0.36048 -0.0712361 
#
0.445255 
0.295196 
0.405304 
-0.553502 
-0.376119 
-0.574719 
-0.164926 
-0.5708 
1.18219 
-0.639322 
-0.407992 
-0.508042 
0.364381 
0.129217 
0.156345 
-0.149584 
0.288035 
-0.0209364 
0.243683 
0.95504 
-0.777708 
-0.746625 
-0.0092419 
-1.2829 
0.985509 
0.411599 
0.202491 
0.0629591 
0.0421102 
0.200776 
1.19763 
-0.775881 
#
