0.411638 -0.11729 -0.21363 -1.26543 0.79703 -0.114504 -0.397246 -0.580458 1.09007 -0.200993 1.14384 -0.923655 0.204857 -0.0115264 -0.169412 0.291202 -0.411089 1.00521 1.0302 0.80839 0.0152273 0.376179 -0.469163 -0.791659 -0.039264 0.725215 -0.111177 0.193022 -1.13769 0.365639 -0.00657908 -0.942283 
0.215411 0.331748 1.64061 0.172064 -0.725585 -0.893667 -0.545372 0.966211 -0.987914 0.234845 -0.176209 0.126936 1.11089 0.141544 -0.207491 0.880448 -0.818462 -0.649583 -0.278224 -0.394015 0.103583 -1.18755 -0.838651 -0.345151 1.36438 -0.0152735 0.457128 -1.06466 1.15382 -0.203444 -0.381538 -0.0954795 
0.151645 0.0947911 -0.198094 -0.0214546 0.479379 0.377047 0.113646 0.426226 -0.715104 -0.181051 0.926881 -0.877139 0.772731 0.878368 -0.02124 -0.470879 -0.364535 -0.0358471 0.611015 0.763242 0.865399 0.0864325 1.30795 -1.4094 0.346892 -1.01894 0.433198 -0.498083 0.723575 1.03449 0.798165 1.57861 
0.0274562 -0.373143 -0.00273244 -0.031365 -0.329594 0.722149 -1.25801 -0.190458 -0.155923 0.269841 -1.97359 -0.188858 0.79661 -0.650052 -0.858194 -0.214431 0.179143 0.741431 -0.878232 0.200306 0.425145 0.508822 -0.468781 0.272715 0.460322 0.0903476 0.749632 -0.060687 -2.24484 -0.0468842 0.183795 1.10716 
0.294532 0.374425 0.600881 -0.283156 -1.46684 0.181114 0.580357 -0.482986 -0.209921 -0.415643 -0.177211 -1.04027 0.355588 0.517178 1.2238 0.287272 0.484265 -0.300525 -0.109278 1.12766 0.109287 0.130757 -0.495439 1.63442 -0.27959 -0.408423 0.792945 0.0635728 0.950641 1.08861 -0.251822 0.322165 
-0.535808 0.52125 -0.314014 0.0197479 -1.02781 -0.565439 0.260102 -0.880252 -0.546346 0.169265 0.593448 -0.880458 -0.735871 0.0666308 -1.11665 -0.486445 -0.283612 -0.32146 -0.0554381 0.821832 -1.4406 -0.399066 -0.314763 0.224751 -0.960047 0.365295 0.300574 0.658353 -0.37965 1.27703 1.1321 0.28985 
1.25519 0.198021 1.18323 -0.133969 -0.670824 0.46674 0.0714791 0.0367639 0.395697 -0.638984 0.412319 -0.263062 -0.506491 -0.50146 0.0995526 0.172156 -0.373564 0.284015 0.874255 0.167968 0.687286 -0.361501 -0.168349 -0.983505 -1.09868 -0.00772761 0.631039 0.364041 -0.108506 0.228782 0.889474 0.150923 
-0.182041 0.490784 -0.999697 0.55603 -0.862961 0.0577079 0.0128128 -0.00975973 0.615328 0.240955 0.431574 -0.612793 0.682074 -1.43423 0.24339 0.126246 0.227673 0.0871898 0.285723 1.02126 -0.958104 1.00215 -0.243353 -0.0637488 -0.614179 -0.49714 -0.212518 -1.26532 0.508789 0.316641 -1.09607 -0.991031 
-0.261532 0.0699716 0.0897206 0.718646 0.637908 0.0222103 0.580153 -0.739633 0.696856 -1.05396 0.146155 -0.496077 -0.0525079 -0.951311 -0.554545 0.0353302 0.389771 0.599728 1.25322 0.0496848 0.816337 0.7249 -1.11154 1.05552 0.444381 0.618854 -0.424868 0.580233 0.209826 0.711893 0.462397 -0.0668293 
-0.0628747 -0.116653 0.653409 0.757187 -1.77005 0.66203 -0.720993 0.574984 -0.862018 0.440422 0.394932 -1.24949 0.00517984 0.503009 -1.39676 -0.116323 0.761471 0.020161 0.791554 -0.729666 0.510466 -0.497745 -0.176087 -0.749738 0.719067 0.897971 -0.846824 -0.219302 -0.620988 -1.23679 0.54767 0.178437 
-1.27724 0.454769 0.031763 -0.27648 -0.164669 -0.631687 -0.655636 0.011804 0.310048 -0.0836756 0.418396 -0.148712 0.125251 1.60513 -0.595109 -0.251269 0.374746 -0.920224 0.084478 0.145484 0.33277 -0.146614 -0.201763 -0.664403 -0.2838 0.0825122 0.786544 -0.0694979 -1.19582 -0.0290522 -0.279091 0.00493489 
0.0695624 0.888985 0.250642 0.17406 -1.84781 0.48271 0.310976 -0.215958 -0.829436 1.51086 0.484451 -1.06365 -0.304974 0.374156 -0.0397452 -0.239186 -0.31118 -0.555392 0.77456 0.453256 -0.833291 -0.753477 -0.207187 0.0863137 0.4793 0.56903 0.168296 0.245114 -0.161021 -0.618126 -0.305746 0.488658 
0.454877 -1.03332 0.491685 -0.465187 -0.232564 0.880499 1.93102 0.546923 -1.35287 -0.0878768 -0.59055 0.232329 0.765909 -0.739897 -0.393727 0.480022 -0.155536 0.602753 0.122523 0.610454 -1.00443 -0.263093 -1.15215 1.04087 -0.225271 -0.294083 0.143407 0.327358 0.123571 0.642089 -0.632757 -0.906463 
0.230699 -0.0367841 0.380713 0.485863 0.0802073 0.566769 -1.03269 0.512989 0.230601 -1.05771 -1.78225 0.753217 -0.168629 -0.0176237 -0.048722 1.04439 -0.203965 -0.219639 0.75038 0.793956 0.254434 0.816742 0.296482 0.135004 0.810968 0.30624 -0.619036 0.841013 1.13193 0.0653811 -0.105931 0.406356 
-1.03076 0.670969 -0.422025 0.0580284 0.548821 -0.710731 -1.12171 0.783288 0.301324 0.27062 0.805258 -0.329755 0.282123 0.244237 0.577281 -0.679819 -0.206811 -1.73587 0.630461 -1.18674 -0.748797 -1.15316 -0.0837803 -0.32919 -0.0673377 -0.281752 1.23439 0.327226 -0.949704 0.407172 -0.565372 0.506385 
-0.149692 -0.376209 -0.130309 0.452048 1.26445 0.358965 -0.992697 -0.868838 -0.434114 0.526513 0.213399 0.309683 0.357716 -0.796401 -0.133091 0.248005 -0.706201 -1.16926 0.64999 0.0810307 0.280138 1.00852 0.134399 -0.602122 -0.965213 -0.586486 0.763041 -1.57392 -0.112021 0.858768 0.474425 -0.298834 
1.39396 0.389226 -0.328004 -0.382503 -0.33128 -0.739523 -0.239396 0.0888155 0.501535 -0.0564851 0.161116 0.169033 -0.368175 0.135753 -0.28349 -0.00396704 0.301774 0.26595 0.674053 0.839186 0.645606 0.0516222 0.560396 0.291414 -0.371455 -0.430286 0.452757 -0.318794 -1.18142 0.77155 0.198712 0.297188 
0.334615 -0.497601 0.669016 -0.390457 -0.0709921 -0.0704235 0.443061 0.704079 -0.589622 -0.129411 1.18924 0.261574 0.408562 0.215883 -0.614784 0.426021 0.746191 -0.537924 0.845044 0.312881 -0.613977 -0.42448 -0.974125 -0.137552 0.616554 -0.253101 0.909043 -0.325619 0.258126 -0.395497 -0.416618 0.484694 
0.747707 0.0674509 1.25506 -0.159009 0.526319 -0.296623 -0.651556 0.674762 0.744145 1.49057 0.0519561 0.341505 -0.206445 -0.083199 0.71328 0.143708 -0.209853 -1.31356 -0.748305 0.099432 -1.16472 -1.43963 1.44212 -0.0357733 -0.6107 0.4052 -0.752914 -0.383453 0.497091 0.661484 0.648111 0.529459 
0.797 -0.716737 -1.11599 1.2498 0.532563 1.10256 -0.337518 -0.787492 -0.0474776 0.0244974 -1.24223 -0.325889 0.535325 0.555325 0.16316 0.169908 0.235572 0.5508 0.373138 0.236397 0.045923 -0.82758 0.00790851 0.171422 0.607183 0.522083 -0.437373 -0.150757 0.364009 -0.0683547 0.770145 -0.117783 
0.268419 1.04499 -0.714378 -0.274039 -0.652285 -0.405749 0.0884076 -0.911582 -1.47191 0.384692 0.278081 0.395303 -1.50928 -0.479638 0.960701 -0.172969 -1.29382 -0.175625 -0.269021 0.098833 -0.0124598 -1.68243 0.0324131 -0.719031 0.122034 0.397762 0.273909 -0.579309 -0.113674 0.568141 0.147107 -0.0508695 
-0.768702 -0.475482 -0.643829 0.357718 -1.49765 -0.478331 -0.249193 0.538797 0.115198 0.766487 -0.360809 -0.700011 0.583449 0.501989 -0.911529 -0.111933 0.852668 0.549985 0.431984 -0.0102456 0.0572876 -0.042464 -0.215841 -0.472181 1.10565 0.500867 1.00927 -0.227034 1.66348 -0.211006 -0.143501 0.130523 
-0.194229 -0.400336 0.0247832 -0.562779 0.0228793 0.934087 -0.0736676 0.0816641 0.580752 -1.5182 0.00195153 -0.0944654 -1.76668 -0.0897346 0.508376 -0.139016 -0.443969 0.378277 -0.00171239 -0.194361 0.854226 0.422454 1.43949 0.0159069 -0.451711 -0.973509 0.879208 0.524188 -0.322882 0.50664 -0.492659 -0.012605 
0.817738 0.66492 0.557463 -0.137966 -0.678301 0.396711 -0.468421 -0.630312 0.518594 0.733153 -0.127579 -1.11049 -0.2431 0.94787 -0.184607 0.306069 -0.0609846 0.524745 -0.0317795 0.571554 -0.883877 -0.0962208 0.799196 -0.00197586 0.463366 0.802402 -0.191926 -1.41608 -0.250046 -0.787324 0.456976 -0.128568 
-0.530813 -0.226675 -0.452119 0.398984 0.0222736 0.656113 -1.91469 -0.410664 -0.812026 0.0578825 0.498106 0.859039 -0.668417 0.432933 0.868291 0.5787 0.142881 0.235075 -0.0991427 -0.0206608 -0.79116 0.54426 0.246426 -0.416171 0.339959 0.735994 -0.950639 -0.0444677 -0.234048 0.36505 -0.254293 0.0326587 
0.848996 0.112599 -0.588693 -0.509701 0.138644 0.238661 0.641375 0.273217 1.71761 0.560853 -0.768032 0.209788 0.193751 0.513758 -0.379968 -0.143134 -1.0777 0.0146942 0.0575077 -0.589924 -0.385254 -0.156189 -0.687899 0.102482 0.19816 0.891775 0.146035 1.13211 0.59505 0.473292 -0.40935 0.599145 
0.136007 -0.0581272 -0.357722 0.796821 0.756235 0.507309 0.917379 -0.595259 -0.559555 0.839722 -0.814442 -0.296369 -0.317458 0.291236 -0.274955 0.872334 -1.16703 0.528546 -0.452616 0.780257 0.217288 -0.350275 0.673089 0.94426 1.41962 -0.0313267 0.534082 -0.874483 -1.27301 0.718168 -0.59492 -1.23416 
-0.389816 0.266584 -0.637504 -0.353653 -0.675025 -0.20978 0.623999 -0.0436539 0.753311 -0.0950316 -0.225381 0.538474 -0.0367087 -0.362572 -0.121951 0.527765 0.132659 0.541417 0.311672 0.288586 -0.475536 1.00315 0.496562 -0.389164 -0.95062 0.382329 -0.506514 -0.760355 -0.819081 -0.133133 -0.300212 -0.278737 
-0.0389655 -0.513599 0.514396 -0.209184 0.657695 0.267509 0.376239 0.711942 -0.0469486 0.35801 -0.179723 0.46165 -0.227842 0.669315 1.59401 0.499178 -0.922431 0.648271 -1.04997 -0.170719 0.983626 0.860822 -0.692473 0.441407 0.361758 0.622347 -0.09406 0.637009 0.341088 0.926355 -0.290948 -0.864541 
0.0543245 -1.61087 -0.388229 0.933074 -0.725055 -0.521024 0.105404 -1.56593 1.0529 -1.24308 -0.886927 -0.677389 -0.454939 -0.776682 1.06809 -0.46013 0.171999 0.500806 -0.308501 -0.334934 0.515869 0.387814 -1.28058 -0.103211 -0.735241 0.310334 -0.583895 -0.43103 0.0836348 -0.176738 -0.222248 -0.139697 
-0.729901 1.01075 -0.116615 0.0775094 -0.710789 -0.767187 -0.53264 0.129081 -0.395923 -0.864648 -0.977232 -0.693801 -0.0828174 -0.425143 -0.340969 0.996019 -0.236905 0.570763 -0.212967 -0.735253 0.201313 -0.281686 0.157858 -0.504417 1.63889 -0.230398 -1.1027 0.728075 -0.462538 -0.290431 -0.474227 -0.473214 
-0.399037 -0.59915 -0.0606316 -0.139011 -0.746844 0.550928 0.359722 -0.53817 0.420491 0.623769 -0.499038 0.102067 0.0290439 0.498406 -0.644925 -0.0373524 -0.194955 -0.134853 -0.861666 1.0182 -0.0099858 -0.0217269 -0.0506874 0.0136525 0.0169644 -0.471657 0.475246 0.567579 -0.083001 0.848414 -0.349062 0.771902 
0.444539 -0.00742359 -0.823515 0.0820395 -0.448328 -0.406058 0.818283 0.282028 0.882161 -0.814453 0.948027 0.100755 -0.307096 -0.604949 0.298552 0.28874 0.467725 0.612577 -0.762657 -0.0100812 -0.845161 0.00671143 0.945559 0.553198 -0.104976 1.17057 -0.858165 -0.207338 -0.286588 -0.437828 0.642059 -1.02797 
-0.460895 0.205803 -0.946862 -0.393006 -0.293979 0.440727 -1.34762 -0.200006 0.330107 -0.590898 -1.03688 0.703565 0.585703 -0.677715 0.190071 0.178814 -1.12791 0.170954 -0.903914 0.31376 0.147464 -0.966441 -0.990996 0.620423 0.507818 1.43735 1.35539 0.00176094 -0.662414 0.289775 0.697283 0.0699307 
0.47833 0.556579 -0.673323 0.898666 -0.0158981 0.430596 0.626074 -0.945476 0.0551832 0.233641 0.322504 -1.46605 -1.96945 0.262162 -0.289723 0.242756 0.158636 0.128067 -0.265155 0.438018 -0.499551 0.217794 0.123443 0.13146 -0.439549 -0.110859 0.341689 0.194334 0.506107 -0.766478 -0.402382 -0.164231 
-0.847463 1.27021 -0.305756 -0.693561 0.371976 0.268148 -0.277528 0.273598 -0.115036 1.09362 -0.786184 0.13519 0.693463 -1.8867 -1.11143 -0.361929 -0.1674 -1.00771 -0.234062 -0.705765 -0.154827 -2.10497 -0.264293 0.136957 0.364019 -0.248408 1.06072 -1.06811 -1.7101 0.751043 -0.145127 -0.333248 
0.311718 -0.637167 0.747439 -0.678205 -0.39688 -0.0470582 -0.576322 -0.700751 -1.54114 -0.422082 0.369396 1.09075 0.0493652 -0.408114 -0.466953 -0.105336 -0.542927 0.333421 -0.599536 1.54665 0.506233 1.00638 0.403629 -0.698365 -0.219656 -0.193534 -0.529402 -0.0605524 1.48828 -0.401389 -1.13586 0.132102 
0.473278 0.998435 0.188378 1.60099 0.2774 -0.553105 -0.720698 -0.42407 0.283137 0.967042 0.106721 0.531602 0.651262 -0.00958702 0.790537 -0.0443785 0.233119 -0.141809 -1.09139 1.40499 0.0836517 0.498519 0.0994909 -0.680143 -0.236063 0.391467 -0.812647 -0.0996596 -0.196659 -0.351127 0.764697 0.100244 
0.186809 0.314333 0.0590561 -0.903097 -0.00942162 0.263322 0.369267 0.613985 0.0646545 -0.746301 0.422419 0.0813334 0.456633 -0.33407 -1.14835 -0.673328 -0.525808 -0.0626195 1.06321 -1.25099 -0.114797 0.488076 0.814881 0.596703 0.799058 -0.590628 0.028868 0.303181 -0.424461 -0.108544 -0.708583 -0.961064 
0.221869 -0.194836 -0.430692 -0.431776 -0.00178375 -0.425966 -0.94366 -0.358495 -0.673893 -0.263302 -0.318893 0.239782 0.324539 0.902217 0.424265 -0.402235 0.529017 0.228631 -0.203992 0.271313 0.817104 0.0122687 0.993231 0.290385 0.474048 1.25548 0.0253274 1.01075 1.62041 1.10305 -1.39808 1.00986 
0.0310643 0.952145 -0.0305985 1.12391 0.243247 0.344731 -0.408699 -0.278363 -0.304391 -0.333879 -0.307133 0.483056 0.744759 -0.572257 -0.540131 0.587877 -0.182033 0.21953 1.15051 0.556352 -1.11462 0.0798153 -0.0351159 0.0175686 0.338609 0.40074 -0.23235 1.16547 0.270561 0.113228 -0.160918 -0.620351 
0.483839 0.853519 0.370555 -0.0437061 -0.614582 -0.323989 -0.694168 0.15451 0.191127 -0.132088 0.269072 0.0642229 0.243962 -1.07113 0.944789 0.500438 0.368074 0.0567556 -0.480209 0.650701 0.498184 0.4942 0.476886 0.134317 0.658603 0.339001 0.988774 0.109881 -0.20722 0.478703 -0.220036 -0.157367 
0.261849 0.167706 -0.246815 0.0697513 0.342493 -0.19834 0.885313 -0.431716 -0.844711 -0.769949 -0.0087986 -0.124463 1.20993 -0.322499 1.15382 0.290902 -0.58997 -1.15968 -0.0980902 0.77202 -0.464441 0.735551 1.22137 0.24956 0.0190409 -0.87822 -1.19744 0.240396 -0.00911228 0.165485 -0.288687 -0.623414 
0.733835 -0.44423 0.0819243 -1.31578 0.490512 -1.24461 -0.305591 -0.238239 -0.199993 -0.223363 0.160929 0.53903 -0.31195 0.610196 0.0581418 0.630631 0.102167 0.508473 -0.6623 -0.213499 0.576725 -0.553815 0.164165 0.317282 0.525019 0.683987 0.444422 -0.422546 -0.746884 -0.804548 -0.841897 -0.247835 
-0.400438 0.308204 0.279823 -0.362685 -0.68822 -0.280428 -1.00267 0.689106 -0.292042 0.885798 0.823173 0.154057 -0.00776896 -0.708886 0.907082 0.462885 0.0708009 0.23579 -0.500211 0.0405276 -0.262 1.20127 -0.556042 -1.05204 -0.136336 0.106592 -0.834244 -0.222652 -0.553317 -0.774174 -0.0701414 0.399624 
0.397415 0.57193 0.0937926 0.151059 -0.138419 0.526766 -0.376045 0.265257 -1.06617 -0.109025 -0.482255 -0.21397 0.489546 0.275439 0.593108 -0.36563 -0.572615 0.0124777 -0.493927 0.827165 -0.376155 0.0182748 1.40331 0.832931 0.127994 0.0728519 0.537845 -1.08752 0.364312 -1.15979 -0.589062 -0.0173687 
0.840156 0.0282957 0.305493 0.115109 1.1024 0.268547 0.776125 -0.468303 -0.424378 0.462709 0.456938 0.804388 -0.124153 -0.995683 0.446976 -0.065976 0.474328 -0.777752 0.122211 0.502081 0.294322 0.803327 0.766636 -0.374244 -0.54969 0.167758 -1.92135 -0.329637 1.60036 -0.231548 0.360802 -0.422431 
0.26308 -0.0711293 0.506547 -0.507525 0.39026 0.943025 0.401754 0.18204 0.0857059 0.294221 -0.0272988 0.119356 0.479555 0.993683 -0.263654 0.712662 0.0177613 0.770345 -0.296227 -0.432094 -0.361424 -0.854123 0.978037 0.66018 0.0426333 0.964053 0.789435 1.62822 1.03129 0.144994 0.818403 -0.0574812 
-1.20256 -0.305262 -0.632509 0.515692 0.14575 -0.219358 0.429419 -0.779279 -0.971453 -0.204714 0.319224 -0.983316 -0.438213 -0.57275 0.0644964 -0.527775 -0.682895 0.114672 0.534567 0.174337 -0.37911 -1.251 0.29539 -0.693797 -0.0168515 0.666733 0.137781 -0.78248 -0.897904 -1.38409 -0.109009 -0.192552 
-0.316178 -0.233615 0.365755 -0.60796 0.601695 -0.983396 0.493063 -0.722374 -0.00433232 -0.485718 0.289559 -0.0297969 0.309835 -0.673793 -0.0843703 -1.52521 -1.31342 0.223504 0.512811 0.000576603 0.0894112 0.0920544 -0.26724 -0.274145 -0.520252 0.226154 0.585168 0.257115 0.340744 -0.996632 -1.56422 -0.182536 
0.218481 0.978747 0.472004 -0.380505 -1.68942 0.142268 0.279377 0.152296 1.65605 -0.804298 -0.0286692 0.321057 0.574294 -0.00877774 0.897956 0.0872141 0.389361 1.13148 -0.184897 0.0765666 -0.560531 0.583161 -0.47732 -0.765048 0.0122729 0.248751 -0.0651912 0.863373 -0.664605 0.193962 -0.303543 -0.592825 
-0.166518 0.0449679 -0.439844 0.635723 0.760522 -0.351954 1.06928 -1.047 0.133557 -0.758398 -0.659298 0.874161 0.435697 -0.650994 0.291908 0.794428 -1.84237 0.153581 -0.804139 0.766049 0.261461 -0.0170232 0.854596 -0.551664 0.134893 -0.356467 -0.0290568 0.593715 0.308767 -0.864868 -0.336194 0.30855 
0.532793 -0.587671 -0.344282 -0.00297756 0.073962 -0.854657 0.850843 -0.417331 -1.25974 0.366714 -0.912732 0.240753 -0.840662 -0.55105 -0.224312 -0.251619 1.37539 -0.821836 0.0943868 0.288609 0.154942 0.327511 0.0607843 -0.175327 -1.53805 -0.016475 0.122692 -0.871052 -0.723457 0.17204 0.100628 -0.189956 
0.783965 -1.73821 0.930015 -0.126764 -0.871361 -0.627852 0.0392214 1.09355 -0.0691894 0.302769 -1.10285 -1.25126 0.37147 0.070496 -1.55801 0.0110327 -0.200935 -0.26796 -0.0125106 -0.362631 -0.268691 -1.5053 -0.30233 -1.1356 -0.609166 1.46122 -1.4494 0.237691 0.105652 -0.472513 -0.137762 0.244184 
0.691077 0.401098 1.48426 0.291093 -0.0970839 -0.733689 -0.597814 -0.0649653 -0.324464 0.125836 -0.224831 0.823388 0.682204 -1.22032 -0.108544 -0.61797 0.451503 0.41899 0.442686 -0.589407 -1.54803 0.826885 -1.63284 -1.07335 0.948113 -0.358175 0.413512 -0.308064 0.173368 0.64462 -0.116229 0.592698 
-0.366778 0.331581 0.110527 -0.566656 0.751302 0.159231 -1.47892 -0.359219 -0.973707 -0.0292594 -0.309486 -0.628154 0.305785 -1.20561 0.809433 -0.380791 0.208446 1.09614 0.661627 -0.507572 -0.902217 1.27726 -0.339775 -0.0788254 -0.332898 0.31306 -0.534761 0.414317 -0.763371 0.621506 -0.394756 -0.0916968 
0.34937 0.572099 0.292543 1.34654 -1.0544 -0.00607905 -2.03834 0.443408 -1.38444 0.430407 -0.194668 0.677837 -0.274149 0.821508 1.07365 0.403706 0.881553 -0.680104 -0.350459 1.07472 0.114817 -0.23759 0.220519 -1.04904 -1.20688 0.134043 0.162574 0.173511 0.545991 0.025686 -0.06668 -0.335312 
-0.0120722 -0.177311 -0.809101 -0.967701 0.641368 -0.474638 -1.31222 -0.00125409 0.574036 -0.64759 0.0580309 -0.296066 0.490902 0.0208822 0.427621 0.476549 -1.01106 0.820454 0.425392 0.160562 0.127315 0.100858 0.450287 0.79837 1.30994 0.645775 -0.445564 0.708083 -0.823924 0.0492522 -0.320809 1.20016 
-0.263738 -0.106069 0.0150901 -0.681778 0.299131 -0.632176 1.2876 0.981034 1.01478 0.0345925 -0.258396 -0.0104456 -0.267619 0.355314 0.392978 0.227374 1.05342 0.249125 0.319708 -0.188299 -0.480069 0.623594 -0.393837 -0.97359 -1.15646 0.706688 0.206105 -0.371354 0.829561 -0.493446 -0.150687 0.957679 
0.666837 -0.991173 0.488784 0.303541 -1.02242 0.875729 1.42365 0.364325 0.721734 1.44897 -1.13253 0.519266 0.617189 -0.475706 -0.189172 1.30881 0.412138 1.19432 0.374584 -0.428049 0.101554 0.599275 0.24021 -1.22311 0.370835 -0.214721 1.13525 0.0942132 -0.191534 -0.347601 -0.103226 0.39054 
0.0501301 0.150609 0.639498 0.561796 0.761982 0.139078 0.398936 -0.852377 0.849818 -1.18681 0.773106 0.741138 0.14782 -0.620543 0.391236 1.47933 0.19615 -0.886738 -0.905933 -0.35546 0.770749 -0.820438 -0.155337 0.22004 -0.949348 -0.35516 1.0872 0.0349224 0.67121 -0.216182 -0.982329 0.505249 
-0.871321 -0.473814 -0.0443812 -0.217673 -0.964284 -0.588108 -0.156455 1.0895 -0.62291 0.125588 1.02545 -1.07226 -0.555195 -0.42088 0.267477 0.296443 0.181033 0.903166 0.017194 -1.01267 -0.0485793 -0.132836 -0.167542 1.31324 1.18709 -0.876441 0.696586 -1.03858 -0.237554 0.354524 1.00014 -0.763443 
0.170593 0.838753 -0.439865 0.113276 -1.19764 0.419649 -0.704131 -0.607516 -0.215482 0.0999414 -0.317979 -0.0789837 -0.217832 -0.570612 0.154738 0.360359 0.68738 -0.0945573 0.46624 0.116418 -0.0525951 0.678311 -1.59734 -1.18288 -0.040148 -0.92644 0.926068 -0.835942 0.576239 -0.281315 0.477162 -0.496945 
-0.561084 -0.573815 -0.75202 0.280033 -0.35334 0.291503 0.260899 0.210031 -0.241858 -0.151396 0.209942 0.0647179 0.0649369 0.0624598 0.745878 0.522562 0.515062 0.525667 0.0157521 1.18016 0.0544453 -0.621651 -0.323654 -1.38631 -0.546834 -0.0730926 -0.569503 0.0961628 -0.486881 0.738744 0.354236 -0.0773493 
#
0.448013 
0.291432 
0.402435 
-0.549715 
-0.375985 
-0.569198 
-0.16922 
-0.569848 
1.18093 
-0.643494 
-0.401112 
-0.507156 
0.36536 
0.127711 
0.150381 
-0.151131 
0.287816 
-0.0257467 
0.245178 
0.954772 
-0.777809 
-0.749849 
-0.0134874 
-1.27795 
0.983522 
0.416048 
0.207421 
0.0630241 
0.0408613 
0.203584 
1.19941 
-0.779457 
#
