0.442776 -0.222786 -0.329472 -1.13933 0.930934 -0.000770645 -0.507037 -0.600188 1.18394 -0.282999 1.08204 -0.914462 0.267902 -0.0246025 -0.268781 0.294372 -0.438011 0.996778 1.04526 0.820119 -0.0177925 0.330925 -0.506168 -0.721736 -0.0296497 0.637744 0.00176714 0.109438 -1.15617 0.332197 0.054548 -0.863161 
0.180107 0.371287 1.63709 0.156728 -0.835149 -0.875401 -0.549805 1.03923 -1.01213 0.105186 -0.160112 0.0563218 1.07285 0.178752 -0.303978 0.931772 -0.768455 -0.70784 -0.241983 -0.461426 0.0125061 -1.11527 -0.948523 -0.377714 1.34466 0.0298271 0.402204 -1.00881 1.17867 -0.191751 -0.374157 -0.107235 
0.228413 0.224337 -0.156549 0.0752084 0.480821 0.422903 0.0688174 0.508996 -0.781301 -0.20453 0.852265 -0.937346 0.772192 0.8756 0.00301152 -0.439402 -0.298501 0.068273 0.726365 0.72743 0.805935 0.0462219 1.35773 -1.41414 0.418306 -1.04578 0.465427 -0.564014 0.836152 0.962367 0.845428 1.54568 
0.0669553 -0.367911 0.0437694 -0.0371408 -0.313587 0.6207 -1.26581 -0.0621593 -0.143862 0.284651 -2.04231 -0.19003 0.755658 -0.68101 -0.941625 -0.135452 0.137927 0.728265 -0.902368 0.289074 0.537605 0.523753 -0.466345 0.237304 0.577208 0.086348 0.768671 0.0426083 -2.18162 -0.0158252 0.10915 1.10838 
0.281463 0.486203 0.543158 -0.286294 -1.47285 0.229771 0.586238 -0.487507 -0.208626 -0.418316 -0.194238 -0.972995 0.401294 0.482577 1.13719 0.307275 0.544483 -0.276204 -0.0481692 1.25087 0.0998267 0.234393 -0.519622 1.6919 -0.27349 -0.371396 0.79362 0.0764745 0.960241 1.13272 -0.202831 0.255547 
-0.460562 0.460493 -0.277465 -0.0156676 -1.06724 -0.530263 0.204893 -0.9173 -0.542788 0.110697 0.450854 -0.924035 -0.761781 0.0553552 -1.12738 -0.540238 -0.24301 -0.351006 -0.0420974 0.850833 -1.41774 -0.439807 -0.368649 0.159551 -0.984651 0.405413 0.359124 0.606008 -0.385516 1.15112 1.1201 0.192019 
1.26603 0.328219 1.28052 -0.100689 -0.702715 0.421941 0.101235 -0.0647664 0.425972 -0.668757 0.452511 -0.280117 -0.417554 -0.507445 0.0719978 0.191969 -0.355421 0.336753 0.836405 0.174843 0.645276 -0.32844 -0.172624 -1.1138 -1.19887 -0.0674622 0.599255 0.42715 -0.073623 0.161009 0.921007 0.11005 
-0.184009 0.513231 -1.07512 0.595969 -0.819673 0.0989763 -0.0289605 0.0307787 0.65622 0.287506 0.406416 -0.696906 0.582416 -1.40893 0.123925 0.22488 0.19413 0.0893276 0.213994 1.0093 -0.885008 0.912786 -0.22299 -0.0220111 -0.552008 -0.391861 -0.165332 -1.31789 0.403083 0.332831 -1.06451 -0.988603 
-0.287935 -0.0572653 0.128899 0.674747 0.671647 -0.0341217 0.501277 -0.764846 0.700924 -0.957381 0.250362 -0.500901 -0.0909043 -0.89065 -0.640414 0.0777716 0.422748 0.587554 1.25381 0.0959738 0.882592 0.705512 -1.09279 1.03927 0.405421 0.563454 -0.41659 0.659275 0.137564 0.718158 0.444032 0.0225402 
-0.118441 -0.0117252 0.602081 0.903886 -1.69856 0.664747 -0.712893 0.588448 -0.784613 0.47762 0.409282 -1.17116 -0.0730795 0.427782 -1.33568 -0.0761465 0.766895 0.0775357 0.776176 -0.788176 0.447473 -0.431319 -0.046372 -0.773768 0.603388 0.969574 -0.80129 -0.281667 -0.632816 -1.21062 0.531021 0.193506 
-1.30907 0.379991 0.0184177 -0.344778 -0.102971 -0.670349 -0.598447 0.0806561 0.309355 -0.00439807 0.422595 -0.16414 0.177194 1.58699 -0.645104 -0.15257 0.414062 -0.905163 -0.0024144 0.2562 0.267761 -0.124806 -0.224243 -0.576525 -0.16311 0.0679214 0.754017 -0.127591 -1.25005 -0.0599585 -0.300406 -0.0455037 
-0.0151469 0.962744 0.200529 0.21788 -1.85927 0.597118 0.261841 -0.0963569 -0.86799 1.51932 0.578054 -0.974751 -0.328377 0.393223 -0.159148 -0.238519 -0.443497 -0.46103 0.767125 0.450746 -0.85987 -0.791768 -0.1656 0.0427122 0.455234 0.564688 0.194685 0.251108 -0.0849556 -0.51545 -0.311097 0.454763 
0.433683 -0.998139 0.597452 -0.460573 -0.219435 0.890526 2.01153 0.610785 -1.36307 -0.157778 -0.508371 0.221692 0.829312 -0.609169 -0.355288 0.412556 -0.178471 0.566189 0.073664 0.549219 -1.00554 -0.217072 -1.21156 1.02787 -0.269564 -0.281862 0.184048 0.233253 0.100833 0.68908 -0.633081 -0.899077 
0.175988 -0.0200465 0.45167 0.482959 0.168119 0.485728 -0.984209 0.460245 0.217784 -1.11986 -1.73439 0.699295 -0.22277 -0.0289212 -0.0119127 1.05639 -0.175486 -0.220781 0.692372 0.876031 0.260612 0.821906 0.366955 0.0570611 0.759898 0.290739 -0.675031 0.84452 1.17643 0.0743717 -0.0624151 0.38011 
-1.06723 0.612579 -0.538602 0.0333596 0.605747 -0.681578 -1.08574 0.769418 0.290754 0.243956 0.74796 -0.262311 0.399074 0.128496 0.622593 -0.708059 -0.125749 -1.67222 0.601905 -1.11026 -0.831699 -1.17055 -0.0433872 -0.362283 -0.0356998 -0.213174 1.15797 0.351993 -0.899564 0.422516 -0.524429 0.590857 
-0.131486 -0.345225 -0.143548 0.405812 1.19397 0.407008 -0.902126 -0.91002 -0.5005 0.594283 0.12045 0.279945 0.424023 -0.78347 -0.274257 0.314017 -0.747665 -1.20322 0.681498 0.0744218 0.171321 0.965908 0.178976 -0.529595 -0.993391 -0.517426 0.711421 -1.50433 -0.191269 0.87276 0.497555 -0.344742 
1.30196 0.407174 -0.344837 -0.370679 -0.270512 -0.723769 -0.189552 0.0247993 0.54596 0.0122106 0.110914 0.143252 -0.33288 0.155899 -0.211985 0.0294957 0.370898 0.228642 0.638453 0.751768 0.642872 -0.0580591 0.524339 0.260959 -0.284018 -0.401032 0.499843 -0.341915 -1.25715 0.791809 0.286363 0.248741 
0.282901 -0.52307 0.634991 -0.47379 -0.0909599 -0.125625 0.413246 0.72309 -0.572675 -0.179071 1.08438 0.227648 0.42553 0.256839 -0.54031 0.395928 0.762112 -0.483071 0.836223 0.215269 -0.699358 -0.464742 -0.917107 -0.194699 0.622366 -0.259586 0.9364 -0.299505 0.198292 -0.294524 -0.366513 0.534723 
0.766419 0.113839 1.3296 -0.251057 0.542654 -0.339602 -0.621999 0.724515 0.656698 1.56819 0.0443804 0.338805 -0.23152 -0.115357 0.700422 0.164776 -0.193342 -1.27998 -0.797756 0.102084 -1.12532 -1.40731 1.41483 -0.0588175 -0.658256 0.457648 -0.722494 -0.319883 0.490579 0.610029 0.65227 0.427663 
0.842255 -0.651328 -1.0689 1.23143 0.558508 1.02071 -0.24612 -0.862813 0.00121573 -0.11493 -1.17709 -0.394426 0.547054 0.517716 0.164181 0.101142 0.207019 0.477048 0.381653 0.207593 0.108777 -0.878051 0.114947 0.202818 0.534636 0.457071 -0.420258 -0.0651555 0.229978 -0.0192269 0.739751 -0.161386 
0.205949 1.1095 -0.707948 -0.251849 -0.6654 -0.32372 0.112653 -0.951945 -1.53772 0.457597 0.2922 0.301572 -1.44056 -0.443781 0.933993 -0.220589 -1.35555 -0.154411 -0.341242 0.0275965 0.0885501 -1.6836 0.126552 -0.695638 0.229608 0.423601 0.195917 -0.571263 -0.18822 0.623635 0.176479 -0.0666576 
-0.897914 -0.520992 -0.69653 0.362779 -1.40464 -0.472301 -0.311589 0.530957 0.0504941 0.787682 -0.369045 -0.680594 0.517521 0.488981 -0.886231 -0.0280921 0.865818 0.548878 0.404725 -0.0517587 0.0663612 -0.0828177 -0.225165 -0.542917 1.10641 0.458727 0.950894 -0.0944122 1.62617 -0.240746 -0.136975 0.135668 
-0.211738 -0.417987 0.0223544 -0.715004 0.135444 0.951474 -0.134701 0.176648 0.502795 -1.56259 -0.0356168 -0.126187 -1.64827 -0.124499 0.53891 -0.200879 -0.495139 0.37018 0.0331319 -0.0982743 0.772732 0.38643 1.32458 0.0856241 -0.571086 -1.0209 0.893842 0.494963 -0.38798 0.492372 -0.420414 -0.11709 
0.77333 0.742325 0.552957 -0.0941104 -0.624805 0.358869 -0.546797 -0.519013 0.493988 0.759648 -0.0403276 -0.99299 -0.134572 0.957106 -0.161132 0.356593 -0.0588117 0.523739 -0.0386846 0.551937 -0.92091 -0.106288 0.837608 0.087893 0.57993 0.824586 -0.14283 -1.41128 -0.207486 -0.812965 0.553516 -0.197148 
-0.522677 -0.296428 -0.420243 0.411241 0.0924687 0.674809 -1.8692 -0.429026 -0.804374 -0.0465654 0.486993 0.798225 -0.586171 0.346572 0.910144 0.6498 0.277015 0.226115 -0.0944712 -0.0233476 -0.770826 0.526309 0.301823 -0.332967 0.360632 0.749251 -0.840528 0.055214 -0.249071 0.407717 -0.314933 0.0236078 
0.757696 0.206469 -0.543422 -0.463332 0.0937057 0.262705 0.632165 0.350517 1.79999 0.557984 -0.682507 0.206083 0.320672 0.562854 -0.334636 -0.196975 -0.957273 0.0973967 0.00958831 -0.552458 -0.440678 -0.197739 -0.794561 0.12052 0.156245 0.884779 0.132327 1.18184 0.566155 0.42371 -0.390962 0.625159 
0.0534228 -0.0953944 -0.354306 0.809958 0.75919 0.532348 0.978179 -0.562574 -0.48938 0.902681 -0.882266 -0.225019 -0.348184 0.292766 -0.359266 0.894889 -1.01174 0.574104 -0.53416 0.783884 0.254938 -0.396391 0.603908 1.02539 1.49359 -0.0180205 0.482027 -0.847997 -1.37142 0.731742 -0.706888 -1.29784 
-0.413666 0.285782 -0.619206 -0.365651 -0.606584 -0.193094 0.559307 0.0625196 0.739265 -0.146679 -0.225238 0.5348 0.0413861 -0.25904 -0.174488 0.482518 0.103162 0.429905 0.238414 0.318906 -0.408503 0.91556 0.59716 -0.394297 -1.09059 0.365434 -0.555139 -0.718436 -0.875103 -0.0277537 -0.312624 -0.245023 
-0.00478319 -0.423143 0.508494 -0.271598 0.641912 0.350192 0.332742 0.747987 -0.0455803 0.368417 -0.275885 0.431894 -0.16172 0.761861 1.54101 0.543472 -0.863635 0.540973 -0.93872 -0.130646 0.944453 0.794096 -0.802031 0.372829 0.288008 0.600581 -0.145657 0.600487 0.261689 0.851508 -0.398742 -0.91017 
0.0917713 -1.60034 -0.454599 0.926792 -0.640968 -0.429008 0.12406 -1.46674 1.11061 -1.20908 -0.936561 -0.698803 -0.385491 -0.742153 1.02008 -0.473335 0.163868 0.481279 -0.305628 -0.227219 0.547269 0.372513 -1.27242 -0.12766 -0.699796 0.389717 -0.575813 -0.441464 0.188264 -0.220123 -0.289311 -0.176897 
-0.749321 0.966574 -0.0674724 0.0591247 -0.626009 -0.726646 -0.420104 0.243645 -0.330847 -0.855617 -0.992822 -0.673055 -0.0785475 -0.287171 -0.435925 0.998563 -0.345416 0.587515 -0.194963 -0.70613 0.144161 -0.284704 0.261193 -0.475121 1.70235 -0.26476 -1.07568 0.694099 -0.431593 -0.283096 -0.503461 -0.414268 
-0.375546 -0.678014 -0.0879591 -0.0593603 -0.728764 0.587946 0.32145 -0.472512 0.451324 0.619367 -0.527458 0.107426 0.125972 0.433951 -0.540893 -0.0280151 -0.183094 -0.0939621 -0.741649 1.0183 -0.0295441 0.045123 -0.0800267 0.137366 0.0873198 -0.518515 0.396179 0.54671 -0.0836301 0.762749 -0.293276 0.737353 
0.453419 -0.0178996 -0.772329 0.00381938 -0.407467 -0.383202 0.935708 0.28118 0.882939 -0.827506 0.935331 0.147767 -0.314485 -0.548655 0.428335 0.282958 0.540442 0.612785 -0.820821 -0.0165892 -0.785686 0.0148804 0.839758 0.571854 -0.156497 1.28385 -0.898526 -0.305918 -0.316336 -0.427251 0.523411 -1.02013 
-0.526803 0.184331 -0.974613 -0.32358 -0.245521 0.422019 -1.39829 -0.144248 0.297323 -0.603673 -0.89974 0.686281 0.687085 -0.609613 0.233293 0.126972 -1.05647 0.0972304 -0.79718 0.288418 0.148775 -0.929516 -0.901727 0.666556 0.53881 1.32503 1.35794 -0.014584 -0.751132 0.243061 0.681935 0.158101 
0.40653 0.659322 -0.745893 0.871911 -0.0968049 0.521626 0.662872 -0.891443 0.0981338 0.24196 0.200561 -1.51883 -2.03576 0.199691 -0.404765 0.262223 0.25215 -0.00518939 -0.2757 0.477039 -0.398079 0.277444 0.0689928 0.24077 -0.472858 -0.0345753 0.422077 0.188374 0.50828 -0.755235 -0.489304 -0.177768 
-0.826294 1.2777 -0.298849 -0.701901 0.384413 0.347049 -0.277984 0.333302 -0.139803 1.02189 -0.844409 0.0645237 0.682072 -1.84899 -1.07487 -0.423822 -0.191634 -1.08342 -0.192414 -0.661846 -0.0797283 -2.12657 -0.172221 0.189331 0.49799 -0.301437 1.19759 -1.1159 -1.7363 0.807624 -0.111264 -0.283613 
0.278647 -0.719131 0.825157 -0.6663 -0.36914 -0.091153 -0.494121 -0.600729 -1.54747 -0.480857 0.341165 1.18923 -0.00201308 -0.501206 -0.485799 -0.101119 -0.499186 0.412755 -0.558472 1.4885 0.574343 1.10748 0.447997 -0.79798 -0.264825 -0.09806 -0.468072 -0.187581 1.53599 -0.429804 -1.12505 0.196201 
0.471517 0.897164 0.135201 1.5413 0.348503 -0.602824 -0.740854 -0.403889 0.239247 0.907814 0.128827 0.595296 0.671082 0.0580618 0.77874 0.00171147 0.262284 -0.174802 -1.17726 1.39298 0.0267071 0.520323 0.158101 -0.663548 -0.185662 0.415248 -0.730279 -0.0497756 -0.301698 -0.39423 0.678044 0.092135 
0.197844 0.21173 0.0835623 -0.88473 0.0582888 0.192859 0.384899 0.665617 0.0208157 -0.644943 0.454688 0.183394 0.442166 -0.326663 -1.14385 -0.75865 -0.564246 -0.0787252 1.02494 -1.18126 -0.179535 0.502609 0.834678 0.576576 0.751351 -0.562456 0.0697713 0.312876 -0.412991 -0.0967209 -0.778426 -0.936914 
0.244992 -0.147344 -0.457556 -0.442191 -0.0261957 -0.516291 -0.859408 -0.422662 -0.716414 -0.197038 -0.352003 0.35226 0.314915 0.881636 0.333228 -0.382849 0.506632 0.284049 -0.238119 0.225868 0.757486 -0.0110573 0.911481 0.230871 0.37532 1.2592 0.0688676 1.11854 1.62373 1.16315 -1.47742 1.02757 
0.038376 0.835297 -0.093472 1.11633 0.261749 0.361761 -0.444766 -0.182108 -0.342262 -0.357418 -0.279375 0.461492 0.673749 -0.551139 -0.524 0.661991 -0.141415 0.179542 1.14054 0.648124 -1.12732 0.0940291 -0.0281038 0.109416 0.299511 0.499529 -0.170956 1.20731 0.245753 0.13399 -0.255343 -0.696622 
0.5677 0.740536 0.246714 -0.133726 -0.531546 -0.335036 -0.786809 0.0311351 0.216665 -0.0675578 0.254019 0.0520509 0.310655 -0.997968 0.905633 0.456709 0.309154 0.038991 -0.548434 0.63804 0.506111 0.426243 0.409981 0.168254 0.559924 0.349931 0.985743 0.0917434 -0.189844 0.395079 -0.312774 -0.191589 
0.173752 0.268419 -0.296083 0.0454611 0.363862 -0.134697 0.827616 -0.43106 -0.817985 -0.749965 -0.089429 -0.0543863 1.23896 -0.307536 1.20464 0.235587 -0.54318 -1.12756 -0.110471 0.718617 -0.531039 0.769673 1.23626 0.316514 0.0787403 -0.802278 -1.15091 0.17031 -0.061784 0.227584 -0.289174 -0.735746 
0.727883 -0.460764 0.158322 -1.36329 0.536387 -1.26296 -0.336054 -0.211006 -0.126132 -0.185247 0.199598 0.617437 -0.272408 0.552295 0.01946 0.616422 0.153053 0.553971 -0.717263 -0.279416 0.551288 -0.649149 0.0780892 0.220041 0.527713 0.765296 0.366609 -0.462747 -0.756052 -0.765325 -0.815106 -0.18555 
-0.373322 0.228409 0.161653 -0.33438 -0.84368 -0.21572 -0.864051 0.742255 -0.206847 0.779176 0.831785 0.0895938 -0.0194507 -0.707811 0.799489 0.451469 0.117542 0.15228 -0.462974 0.0274332 -0.207084 1.22339 -0.655666 -1.01489 -0.232715 0.0397695 -0.876012 -0.282648 -0.531173 -0.798483 -0.0187 0.32779 
0.326832 0.422066 0.076517 0.136857 -0.186957 0.499462 -0.261406 0.336324 -0.99881 -0.0962769 -0.474317 -0.210508 0.521096 0.275632 0.66258 -0.361198 -0.615249 -0.00966753 -0.470417 0.854788 -0.431821 0.0533042 1.36593 0.953159 0.180525 0.129345 0.423442 -1.12449 0.254362 -1.16359 -0.579022 -0.016226 
0.801577 -0.0555157 0.295016 0.0832211 1.21587 0.282227 0.744833 -0.480018 -0.498862 0.403042 0.459417 0.893253 -0.122156 -0.965771 0.455371 -0.141705 0.471348 -0.780998 0.16512 0.580346 0.238999 0.717246 0.687972 -0.351933 -0.48367 0.203204 -1.86384 -0.260413 1.57048 -0.128442 0.350556 -0.494579 
0.272843 -0.11057 0.444644 -0.511548 0.391009 1.09604 0.462791 0.12059 0.0393499 0.304259 -0.0817517 0.0430866 0.498569 0.953171 -0.290642 0.817056 0.0292582 0.818911 -0.267984 -0.364266 -0.230736 -0.790317 0.961749 0.581851 -0.0374298 0.892929 0.817417 1.60697 0.98652 0.0853806 0.833838 -0.0517291 
-1.1885 -0.198266 -0.531011 0.43559 0.143462 -0.123881 0.416906 -0.786857 -1.00988 -0.162048 0.35275 -0.971033 -0.442084 -0.574386 0.0152878 -0.649514 -0.751846 0.192294 0.60011 0.165474 -0.423704 -1.26092 0.366766 -0.717475 -0.0378541 0.605728 0.12707 -0.837921 -0.934049 -1.39836 -0.0428642 -0.347624 
-0.418515 -0.163483 0.416605 -0.595805 0.66722 -0.939816 0.602001 -0.820798 -0.00150874 -0.488905 0.312683 0.0359214 0.302085 -0.700599 -0.062754 -1.56219 -1.34859 0.196872 0.554688 -0.0206283 -0.00990939 0.157195 -0.212256 -0.232264 -0.511376 0.119855 0.634607 0.140781 0.33481 -0.912133 -1.52028 -0.10655 
0.256103 0.916687 0.551034 -0.344713 -1.6286 0.043834 0.211263 0.202661 1.74287 -0.80726 0.0258897 0.273999 0.557326 0.0509036 0.897233 0.119095 0.396676 1.18214 -0.283698 0.117412 -0.532102 0.604337 -0.540843 -0.681617 0.0446541 0.307911 -0.0646617 0.8533 -0.592399 0.227636 -0.387599 -0.692553 
-0.0617252 -0.0172895 -0.496295 0.757677 0.771353 -0.312664 1.15589 -1.01395 0.0420678 -0.62626 -0.746125 0.886446 0.468296 -0.570961 0.304569 0.738406 -1.7866 0.139539 -0.830854 0.792564 0.21326 0.0214126 0.860144 -0.471933 0.174013 -0.326585 -0.0294051 0.610585 0.210714 -0.902753 -0.368698 0.328001 
0.6026 -0.636657 -0.421955 -0.0378348 0.0187028 -0.773467 0.8364 -0.386885 -1.3897 0.486342 -0.896147 0.300639 -0.863716 -0.518511 -0.245623 -0.236463 1.40756 -0.894393 0.0474175 0.294799 0.21017 0.342622 0.125054 -0.219238 -1.4751 -0.0467979 0.0667473 -0.807641 -0.819809 0.0993639 0.0193986 -0.193077 
0.740498 -1.77858 0.859593 -0.143725 -0.839918 -0.572908 0.110418 1.04116 -0.00825198 0.198435 -1.04324 -1.25958 0.352056 0.105728 -1.61912 -0.0617334 -0.110768 -0.326421 0.0935608 -0.398823 -0.242077 -1.46721 -0.270563 -1.15576 -0.701889 1.41061 -1.44526 0.256466 0.0845124 -0.532808 -0.107075 0.125463 
0.754033 0.453213 1.40165 0.260473 -0.123708 -0.681178 -0.593515 0.00480658 -0.237363 0.0782222 -0.181648 0.832928 0.608398 -1.25708 -0.161245 -0.509464 0.631399 0.466813 0.506631 -0.644172 -1.47071 0.762618 -1.64509 -0.97543 0.956933 -0.383367 0.465141 -0.37253 0.180864 0.566393 -0.0605802 0.511822 
-0.505434 0.350429 0.0875302 -0.598756 0.845717 0.10667 -1.44121 -0.326872 -0.898624 -0.0295434 -0.353665 -0.686853 0.255024 -1.28142 0.864864 -0.371179 0.166421 1.11869 0.710418 -0.560789 -0.847958 1.25328 -0.412925 -0.0553958 -0.359175 0.253167 -0.586999 0.397491 -0.84986 0.610954 -0.435473 -0.114021 
0.326656 0.543896 0.285346 1.35302 -1.07254 0.0179163 -1.93682 0.420237 -1.44763 0.445711 -0.111203 0.69771 -0.195639 0.934205 1.14367 0.474201 0.865943 -0.692699 -0.345146 1.09376 0.0582258 -0.160926 0.219943 -0.925221 -1.27575 0.1777 0.0895703 0.197745 0.5778 -0.0445795 -0.0527759 -0.420738 
-0.0598756 -0.0462044 -0.895377 -0.97766 0.62892 -0.369376 -1.25407 0.00466206 0.516819 -0.577557 0.108097 -0.221606 0.423523 0.0134855 0.47961 0.466225 -1.11597 0.807873 0.410157 0.242136 0.0770931 0.010508 0.419918 0.856188 1.17 0.628845 -0.445228 0.691938 -0.885256 0.116012 -0.318184 1.25469 
-0.279861 -0.144453 0.0241863 -0.67131 0.261491 -0.550552 1.30692 0.991066 1.04242 0.0216016 -0.199246 -0.102104 -0.322364 0.290187 0.468411 0.172435 0.983444 0.223135 0.210109 -0.26151 -0.577475 0.710704 -0.372843 -0.971348 -1.15328 0.794582 0.246285 -0.339896 0.726204 -0.542657 -0.23068 0.920669 
0.640289 -1.08519 0.514381 0.29217 -1.00166 0.937537 1.4845 0.405283 0.796942 1.43199 -1.12491 0.438932 0.592507 -0.534817 -0.208442 1.34794 0.391549 1.28298 0.357886 -0.452466 0.189537 0.498287 0.27764 -1.26876 0.31973 -0.164229 1.14223 0.0592219 -0.211055 -0.345632 -0.10553 0.315732 
0.0861294 0.0933082 0.638994 0.550673 0.782314 0.0652678 0.401433 -0.894121 0.973441 -1.16066 0.805703 0.804073 0.0856379 -0.570374 0.448371 1.51911 0.148379 -0.883745 -0.912815 -0.245668 0.805271 -0.725231 -0.19452 0.187069 -0.913618 -0.3175 1.13355 0.0748898 0.680602 -0.212059 -0.94419 0.585745 
-0.84261 -0.497496 -0.0709104 -0.131345 -0.921683 -0.562826 -0.200924 1.12507 -0.602936 0.183797 0.914822 -0.989439 -0.576662 -0.474558 0.1763 0.34133 0.133189 0.839638 0.0242127 -0.981977 -0.130872 -0.143037 -0.0969488 1.33332 1.18636 -0.81008 0.634614 -1.09823 -0.308681 0.343866 0.955487 -0.710462 
0.257046 0.941292 -0.492717 0.02928 -1.16539 0.374106 -0.726039 -0.611106 -0.311543 0.0753812 -0.26083 -0.0533738 -0.330814 -0.629536 0.183617 0.302236 0.777509 0.0496764 0.433514 0.0646793 -0.0132841 0.766867 -1.60561 -1.16322 -0.087824 -0.938666 1.01512 -0.780622 0.547772 -0.206646 0.557259 -0.403965 
-0.50611 -0.530792 -0.737638 0.310352 -0.408407 0.257751 0.281652 0.241943 -0.337507 -0.213338 0.302794 0.11308 0.0271193 0.109038 0.675864 0.540422 0.521192 0.48615 0.0744376 1.16716 0.119529 -0.623476 -0.272218 -1.3599 -0.590475 -0.131282 -0.649607 0.0217345 -0.420247 0.599047 0.310281 -0.0695548 
#
0.527609 
0.26959 
0.440891 
-0.504847 
-0.428376 
-0.525784 
-0.100878 
-0.507928 
1.16399 
-0.61339 
-0.472638 
-0.509048 
0.415319 
0.13407 
0.139884 
-0.141127 
0.19894 
0.0411497 
0.280515 
0.871672 
-0.77087 
-0.784958 
0.051808 
-1.33281 
0.969757 
0.522124 
0.235591 
0.123419 
0.0375332 
0.167463 
1.23338 
-0.731895 
#
