0.396571 -0.157483 -0.217836 -1.259 0.839841 -0.0850724 -0.415267 -0.608486 1.08784 -0.219795 1.17091 -0.940431 0.227096 -0.0196292 -0.164414 0.302391 -0.412696 1.01777 0.988928 0.816283 -0.00157442 0.39785 -0.486768 -0.772795 -0.0214855 0.704766 -0.0934015 0.153882 -1.12181 0.382941 -0.00841175 -0.958414 
0.219059 0.329349 1.65749 0.163165 -0.728991 -0.856355 -0.540587 0.975195 -0.955611 0.210647 -0.199347 0.161625 1.10168 0.170492 -0.202806 0.89827 -0.810045 -0.650451 -0.270601 -0.412025 0.0722654 -1.16077 -0.838775 -0.369649 1.35277 0.0113111 0.427401 -1.07862 1.17655 -0.19575 -0.36635 -0.0733803 
0.142895 0.128354 -0.213305 -0.0260439 0.45721 0.375687 0.151061 0.467213 -0.75026 -0.19294 0.881271 -0.890486 0.796385 0.858941 -0.0245978 -0.455916 -0.370928 0.0139296 0.604029 0.758346 0.822643 0.113632 1.26742 -1.40408 0.322309 -1.01828 0.440343 -0.491494 0.757537 1.0292 0.829225 1.6199 
0.0705806 -0.389929 -0.0202501 -0.00758534 -0.310847 0.702927 -1.29646 -0.155704 -0.173824 0.252901 -2.00998 -0.173989 0.81664 -0.643303 -0.880736 -0.214163 0.198834 0.738436 -0.889786 0.188236 0.454285 0.498675 -0.474666 0.254634 0.486839 0.0831297 0.787905 -0.047289 -2.2264 -0.0565397 0.219476 1.10323 
0.290734 0.364042 0.626272 -0.287333 -1.49217 0.211137 0.596583 -0.4708 -0.207941 -0.409634 -0.165626 -1.04752 0.366441 0.497962 1.21904 0.260825 0.5095 -0.259895 -0.0703712 1.15279 0.0585265 0.142878 -0.492147 1.6437 -0.30528 -0.387134 0.783854 0.0696406 0.940264 1.09731 -0.220002 0.289471 
-0.487943 0.486565 -0.26771 0.036687 -1.03753 -0.545915 0.270133 -0.880091 -0.51577 0.154639 0.567261 -0.887132 -0.782487 0.0477389 -1.12568 -0.476751 -0.265963 -0.305686 -0.103821 0.823211 -1.43545 -0.367574 -0.331311 0.205272 -0.975026 0.347468 0.342165 0.622929 -0.396926 1.25511 1.12065 0.300935 
1.26761 0.219897 1.17562 -0.140524 -0.696827 0.466242 0.0556439 0.000487623 0.391001 -0.619885 0.407284 -0.2886 -0.492781 -0.473457 0.0916857 0.166329 -0.377116 0.303894 0.86975 0.171382 0.707856 -0.370872 -0.195071 -0.987465 -1.11682 -0.0151678 0.625795 0.394021 -0.14369 0.225177 0.880861 0.150598 
-0.17941 0.461659 -1.02099 0.535902 -0.830562 0.070262 0.0176313 -0.00733524 0.614875 0.213967 0.460437 -0.652254 0.712497 -1.43148 0.231234 0.129315 0.20271 0.0806188 0.280839 1.0167 -0.953196 0.985885 -0.246686 -0.0787792 -0.594349 -0.479666 -0.216411 -1.31037 0.476228 0.348136 -1.10078 -0.994166 
-0.264154 0.0406568 0.0970624 0.705743 0.607275 0.0470623 0.578148 -0.73514 0.68853 -1.06439 0.164915 -0.497523 -0.0866654 -0.940296 -0.573988 0.0647717 0.397466 0.571647 1.25749 0.0694212 0.855998 0.731071 -1.07185 1.04411 0.429967 0.608263 -0.462764 0.597497 0.177098 0.712045 0.446579 -0.0411433 
-0.0462042 -0.11129 0.621047 0.781613 -1.74912 0.689266 -0.745908 0.605803 -0.846476 0.443413 0.374111 -1.19805 -0.00338754 0.457169 -1.39238 -0.130306 0.725755 0.0410916 0.792131 -0.705251 0.527118 -0.487893 -0.157761 -0.770808 0.702607 0.900683 -0.824177 -0.230863 -0.612774 -1.21241 0.538487 0.185729 
-1.26305 0.45655 0.0141572 -0.261848 -0.169569 -0.60754 -0.657882 0.0034498 0.310609 -0.0684829 0.416399 -0.166719 0.137904 1.58688 -0.568544 -0.228893 0.426112 -0.929735 0.0955595 0.181647 0.305832 -0.136471 -0.231708 -0.631141 -0.2595 0.0644967 0.819341 -0.108538 -1.18804 -0.0493681 -0.283408 -0.0357113 
0.0663272 0.861743 0.284648 0.219627 -1.85383 0.483587 0.309487 -0.197588 -0.81433 1.47049 0.501993 -1.05712 -0.287523 0.368614 -0.0655544 -0.239376 -0.348944 -0.533295 0.745974 0.472238 -0.808772 -0.752904 -0.19822 0.0994412 0.479781 0.547881 0.171766 0.287462 -0.139033 -0.590652 -0.317069 0.464675 
0.448853 -1.07395 0.550449 -0.472114 -0.219995 0.857513 1.93892 0.554414 -1.39752 -0.121523 -0.603277 0.247606 0.771774 -0.709231 -0.376171 0.444361 -0.142759 0.621826 0.0840946 0.5942 -1.02787 -0.278742 -1.16487 1.0825 -0.222694 -0.271888 0.174502 0.320776 0.131469 0.637672 -0.6497 -0.94234 
0.198901 -0.0301721 0.367411 0.481833 0.0488494 0.560875 -1.06591 0.544148 0.212181 -1.03071 -1.80353 0.709202 -0.207237 0.0118812 -0.0665603 1.02658 -0.159186 -0.201549 0.716726 0.811757 0.245319 0.82792 0.310921 0.123914 0.820509 0.322808 -0.648518 0.840557 1.10004 0.0439681 -0.101782 0.43207 
-1.06379 0.655908 -0.462167 0.105858 0.570102 -0.729343 -1.151 0.796758 0.264025 0.285003 0.793586 -0.313796 0.308793 0.228408 0.558895 -0.644708 -0.229426 -1.73087 0.64347 -1.2222 -0.751254 -1.14099 -0.1176 -0.35415 -0.0427505 -0.224841 1.20813 0.324645 -0.92493 0.417747 -0.55405 0.526338 
-0.178218 -0.364709 -0.131833 0.427969 1.25398 0.349043 -0.99161 -0.88215 -0.458537 0.533057 0.200274 0.279483 0.373104 -0.810503 -0.169963 0.234781 -0.734935 -1.19712 0.627551 0.0884001 0.276512 1.02096 0.0996153 -0.584323 -0.990841 -0.571215 0.77074 -1.57928 -0.142799 0.851272 0.474549 -0.32192 
1.37877 0.369507 -0.332371 -0.353192 -0.307758 -0.774707 -0.220733 0.0857391 0.541348 -0.0818455 0.164219 0.144856 -0.402589 0.15046 -0.256777 0.0287185 0.300232 0.254425 0.694987 0.832738 0.659084 0.0364329 0.581076 0.276966 -0.357152 -0.414223 0.501022 -0.346411 -1.18178 0.812526 0.210919 0.298508 
0.311427 -0.540629 0.679465 -0.42484 -0.0458792 -0.0936505 0.457766 0.674837 -0.571626 -0.119942 1.16744 0.262917 0.418363 0.226425 -0.610198 0.418649 0.726056 -0.517492 0.811144 0.32048 -0.587037 -0.470619 -0.961057 -0.123033 0.593854 -0.253839 0.881429 -0.352481 0.265046 -0.395335 -0.380916 0.493661 
0.770571 0.0843786 1.22767 -0.168643 0.55652 -0.267607 -0.647665 0.677771 0.710018 1.51548 0.0272867 0.342453 -0.185674 -0.117069 0.692249 0.11108 -0.182479 -1.32876 -0.756471 0.0788736 -1.18224 -1.4753 1.43016 -0.0352793 -0.651541 0.380773 -0.74205 -0.378221 0.487739 0.662005 0.604359 0.516942 
0.823165 -0.703698 -1.0913 1.25892 0.571695 1.10274 -0.338592 -0.7988 -0.0431195 -0.0206203 -1.23655 -0.350862 0.54812 0.573783 0.181987 0.205886 0.214171 0.545735 0.370578 0.282964 0.0201479 -0.829738 0.0467538 0.168764 0.57554 0.489661 -0.43604 -0.156069 0.347178 -0.0933337 0.783531 -0.151156 
0.26945 1.04878 -0.741887 -0.251086 -0.669679 -0.388811 0.0688946 -0.93588 -1.49187 0.423971 0.255124 0.382341 -1.51324 -0.454792 0.987226 -0.167196 -1.31181 -0.176459 -0.252582 0.0865721 0.0108443 -1.70184 0.0501183 -0.708455 0.140514 0.41589 0.279611 -0.588183 -0.113604 0.540968 0.129707 -0.0541882 
-0.79086 -0.520492 -0.625787 0.373239 -1.47153 -0.508459 -0.268034 0.533114 0.114896 0.803806 -0.379716 -0.703931 0.593802 0.47764 -0.951814 -0.0921619 0.849539 0.57998 0.418708 -0.0255881 0.0568155 -0.0745072 -0.195526 -0.511077 1.07359 0.507114 1.00839 -0.190875 1.6564 -0.187018 -0.159083 0.129077 
-0.189526 -0.423119 0.0379541 -0.596425 0.0244586 0.902066 -0.10209 0.111858 0.585139 -1.53148 0.028896 -0.0839032 -1.73656 -0.108642 0.498365 -0.161438 -0.426468 0.339685 0.00871892 -0.161279 0.854876 0.394658 1.41917 0.020993 -0.473978 -0.970913 0.910781 0.501774 -0.328372 0.499622 -0.483029 -0.0134192 
0.809122 0.685991 0.527556 -0.12814 -0.67274 0.37037 -0.474436 -0.605061 0.556011 0.69324 -0.111871 -1.08299 -0.202328 0.919394 -0.240538 0.315361 -0.0281088 0.564404 -0.039244 0.583559 -0.861497 -0.121931 0.817384 -0.00411306 0.472719 0.797012 -0.181965 -1.40147 -0.282571 -0.822073 0.467324 -0.158404 
-0.531005 -0.247137 -0.40264 0.380393 0.0142555 0.649574 -1.90144 -0.409137 -0.766905 0.0323022 0.491958 0.829125 -0.704347 0.433829 0.894109 0.56948 0.166726 0.259527 -0.115075 -0.00724877 -0.776045 0.554381 0.265238 -0.420674 0.297732 0.715862 -0.93878 -0.0528823 -0.257384 0.390703 -0.262516 0.0309172 
0.811814 0.105426 -0.599714 -0.503718 0.15429 0.215242 0.641378 0.268986 1.70622 0.532519 -0.774639 0.215631 0.223696 0.505472 -0.369921 -0.191195 -1.04785 0.0297189 0.053779 -0.587363 -0.363538 -0.140467 -0.717273 0.0951093 0.162291 0.894768 0.174236 1.16598 0.588913 0.512278 -0.410111 0.565009 
0.125941 -0.0560595 -0.328995 0.81041 0.75063 0.48285 0.957488 -0.586589 -0.558804 0.802513 -0.812823 -0.270124 -0.274647 0.307816 -0.27177 0.854443 -1.11529 0.518854 -0.459385 0.791967 0.225036 -0.350313 0.673181 0.959022 1.43653 -0.0275604 0.485125 -0.861694 -1.29979 0.727281 -0.630971 -1.28816 
-0.367734 0.248495 -0.621126 -0.370478 -0.698522 -0.236183 0.591672 -0.0151652 0.72409 -0.0976244 -0.222328 0.501867 -0.0702359 -0.3356 -0.116477 0.53712 0.12851 0.513221 0.309287 0.301551 -0.486313 0.970758 0.50253 -0.401031 -0.962565 0.373394 -0.525649 -0.732705 -0.842204 -0.141513 -0.302482 -0.302629 
-0.066019 -0.483519 0.522687 -0.209619 0.707392 0.28068 0.384307 0.697086 -0.0467095 0.340537 -0.190579 0.439163 -0.238263 0.659777 1.60565 0.497568 -0.896348 0.626811 -1.02056 -0.188567 0.997575 0.90744 -0.700492 0.427997 0.39611 0.587824 -0.114438 0.601381 0.31958 0.916831 -0.279978 -0.842676 
0.0778543 -1.62904 -0.397515 0.922182 -0.703104 -0.548181 0.084487 -1.53727 1.06127 -1.25859 -0.885537 -0.640872 -0.449452 -0.790328 1.06332 -0.496696 0.165115 0.505819 -0.316128 -0.299094 0.53356 0.413793 -1.27191 -0.0563772 -0.715756 0.324848 -0.55692 -0.408451 0.0810893 -0.203766 -0.204507 -0.1579 
-0.735159 1.02323 -0.112928 0.104364 -0.698552 -0.742752 -0.520057 0.160563 -0.393299 -0.856931 -0.989528 -0.699501 -0.10165 -0.377588 -0.359917 0.989659 -0.283634 0.594917 -0.237632 -0.724068 0.177772 -0.283928 0.16581 -0.508861 1.63072 -0.230007 -1.04998 0.686514 -0.451219 -0.247287 -0.501413 -0.471709 
-0.397775 -0.642022 -0.0558145 -0.131075 -0.707835 0.556435 0.343272 -0.522481 0.414452 0.625679 -0.479266 0.126168 0.021012 0.456385 -0.609408 -0.0579248 -0.233677 -0.15925 -0.865623 0.992464 0.00317799 -0.00215748 -0.0328394 0.0346963 0.00869474 -0.5003 0.463211 0.524839 -0.0809338 0.838549 -0.315297 0.743048 
0.495161 -0.0243111 -0.843181 0.0608279 -0.441425 -0.37095 0.812434 0.277972 0.847442 -0.847927 0.957171 0.101763 -0.304624 -0.59989 0.307845 0.307598 0.475174 0.643148 -0.746919 -0.00225471 -0.857942 -0.0186997 0.917279 0.575467 -0.139393 1.20542 -0.840508 -0.198648 -0.262857 -0.4448 0.636828 -1.04234 
-0.466831 0.226634 -0.959379 -0.382272 -0.29569 0.423142 -1.3413 -0.188885 0.340581 -0.570598 -1.01931 0.681589 0.591301 -0.690649 0.169256 0.183387 -1.11914 0.20142 -0.885622 0.303078 0.139365 -0.992838 -0.958154 0.647644 0.526152 1.42692 1.4005 -0.0105188 -0.662544 0.301498 0.699308 0.0850388 
0.474914 0.587488 -0.685815 0.92095 -0.00464965 0.407672 0.634768 -0.94034 0.056643 0.233703 0.272012 -1.45706 -1.98371 0.246202 -0.297514 0.212477 0.185409 0.0863997 -0.248715 0.422657 -0.472363 0.240438 0.103127 0.148912 -0.418809 -0.0770762 0.357631 0.199917 0.46677 -0.750358 -0.416048 -0.209821 
-0.890098 1.26904 -0.27497 -0.689045 0.379943 0.267995 -0.302454 0.276644 -0.126446 1.07076 -0.784641 0.110572 0.688208 -1.93186 -1.11642 -0.327782 -0.188897 -0.99909 -0.242158 -0.72885 -0.174411 -2.0929 -0.253437 0.125038 0.409305 -0.249462 1.08333 -1.06214 -1.70108 0.798844 -0.149775 -0.356418 
0.286407 -0.648858 0.784753 -0.65642 -0.372849 -0.0782829 -0.54407 -0.675366 -1.54342 -0.419688 0.353913 1.09204 0.0630426 -0.41539 -0.427679 -0.08692 -0.549787 0.342557 -0.592863 1.54321 0.498024 1.0151 0.411991 -0.69055 -0.238317 -0.191026 -0.500336 -0.0976203 1.50985 -0.427092 -1.1291 0.150646 
0.505218 0.978113 0.182099 1.5589 0.320665 -0.546267 -0.755353 -0.434268 0.274204 0.924498 0.0847408 0.518475 0.646794 0.00403601 0.770543 -0.0801947 0.236338 -0.146497 -1.06099 1.41535 0.0647373 0.515084 0.084417 -0.651284 -0.245326 0.381528 -0.812175 -0.121232 -0.206781 -0.359422 0.75968 0.0970617 
0.179453 0.311987 0.0782735 -0.925933 -0.0261764 0.261138 0.344939 0.57558 0.0325131 -0.703247 0.382731 0.0925181 0.447929 -0.347061 -1.14076 -0.695633 -0.524745 -0.0700486 1.06006 -1.24535 -0.117623 0.459901 0.8048 0.588847 0.821054 -0.583774 0.0270305 0.323238 -0.43841 -0.112143 -0.722172 -0.942611 
0.224651 -0.196855 -0.457791 -0.44209 -0.0386955 -0.4179 -0.929739 -0.339586 -0.695072 -0.240465 -0.307772 0.270923 0.332858 0.927427 0.387754 -0.404652 0.513566 0.228679 -0.18657 0.287426 0.811026 -0.00979408 0.947199 0.295289 0.49592 1.26366 0.0085805 1.0482 1.59325 1.11346 -1.42526 1.02857 
0.0455387 0.917988 -0.0318621 1.11723 0.256191 0.326811 -0.376631 -0.26086 -0.298865 -0.314528 -0.309998 0.4877 0.711739 -0.578487 -0.559778 0.579221 -0.145205 0.220553 1.17035 0.558459 -1.14121 0.101076 -0.0260433 0.0155591 0.344401 0.421562 -0.228704 1.14348 0.236288 0.0856182 -0.180172 -0.606146 
0.526069 0.853837 0.355456 -0.052123 -0.586198 -0.362051 -0.685824 0.133099 0.210657 -0.118036 0.217467 0.0738167 0.238759 -1.06547 0.945461 0.482631 0.366294 0.06226 -0.482362 0.659022 0.503039 0.450256 0.487273 0.0975809 0.646549 0.328002 0.971108 0.105545 -0.231053 0.476043 -0.203914 -0.122581 
0.261842 0.217627 -0.26704 0.0466571 0.305852 -0.190761 0.87409 -0.443792 -0.833679 -0.801167 -0.00905144 -0.0699568 1.183 -0.33459 1.15777 0.298035 -0.558753 -1.18794 -0.12638 0.768797 -0.455865 0.767116 1.22709 0.21973 0.0241532 -0.854744 -1.18116 0.234066 -0.00978181 0.129483 -0.257206 -0.631411 
0.766128 -0.424824 0.0861143 -1.34732 0.497403 -1.20131 -0.264336 -0.223043 -0.192434 -0.226637 0.166774 0.531774 -0.318111 0.644855 0.0566804 0.618501 0.112414 0.524447 -0.636542 -0.198093 0.557338 -0.573231 0.181455 0.299088 0.506289 0.672205 0.422769 -0.419826 -0.718603 -0.821332 -0.831421 -0.22717 
-0.38856 0.310471 0.252779 -0.345108 -0.722449 -0.308538 -0.983806 0.712088 -0.277225 0.866137 0.853326 0.152217 -0.0422328 -0.719324 0.85758 0.46058 0.0626814 0.228951 -0.510492 0.0550648 -0.246219 1.23138 -0.579714 -1.05884 -0.173288 0.116848 -0.872918 -0.246547 -0.52471 -0.770086 -0.113658 0.407131 
0.373328 0.549384 0.0643403 0.135514 -0.136842 0.493765 -0.353754 0.2939 -1.0781 -0.0673964 -0.520803 -0.202194 0.49432 0.279341 0.623037 -0.357132 -0.581769 0.0292927 -0.474417 0.860221 -0.374748 0.0101701 1.40511 0.829337 0.132716 0.0688441 0.526917 -1.08198 0.341776 -1.12933 -0.564067 -0.0262154 
0.826254 0.00651396 0.317917 0.0994191 1.12339 0.286888 0.799499 -0.487602 -0.458778 0.471443 0.488218 0.839152 -0.10079 -0.986802 0.473868 -0.0693543 0.482587 -0.776522 0.116243 0.47962 0.288692 0.807936 0.780662 -0.384659 -0.573793 0.188906 -1.9268 -0.343498 1.64028 -0.244286 0.3769 -0.429713 
0.240071 -0.052827 0.502398 -0.534685 0.381923 0.991581 0.375065 0.208918 0.0850674 0.327646 -0.0470204 0.127005 0.480988 0.97688 -0.226514 0.723254 -0.0153392 0.776076 -0.304744 -0.422798 -0.356126 -0.856462 0.97589 0.646077 0.0752381 0.942597 0.80214 1.60738 1.04595 0.124798 0.827979 -0.0639925 
-1.18964 -0.287118 -0.604536 0.516709 0.119876 -0.172673 0.460669 -0.789699 -0.982914 -0.191535 0.299692 -0.9694 -0.436869 -0.605011 0.0679079 -0.565223 -0.645364 0.145244 0.54771 0.191781 -0.37373 -1.25364 0.276745 -0.712813 -0.0163583 0.661702 0.115598 -0.796388 -0.889086 -1.38121 -0.104525 -0.247044 
-0.3334 -0.211294 0.335509 -0.608933 0.593511 -0.965621 0.520548 -0.74846 -0.011588 -0.50257 0.261072 -0.0221002 0.284119 -0.678379 -0.0628006 -1.55568 -1.31912 0.221639 0.52593 0.0268329 0.0735017 0.0969624 -0.227559 -0.272155 -0.508965 0.205311 0.604381 0.255833 0.319531 -0.993667 -1.54609 -0.12756 
0.211092 0.969077 0.48522 -0.349458 -1.67807 0.112064 0.279479 0.175416 1.64317 -0.815328 -0.0426882 0.319237 0.572009 0.0126003 0.910227 0.0870006 0.411255 1.16957 -0.181348 0.0742162 -0.539986 0.552186 -0.506442 -0.763224 0.00945129 0.25739 -0.054434 0.859535 -0.669469 0.221043 -0.327843 -0.573474 
-0.139013 0.0310777 -0.456022 0.618061 0.774539 -0.369641 1.12426 -1.035 0.105857 -0.718623 -0.666714 0.829044 0.403265 -0.670782 0.285735 0.800133 -1.83861 0.143879 -0.844812 0.790556 0.212381 -0.0389196 0.826012 -0.569784 0.152502 -0.38238 -0.010464 0.573298 0.299435 -0.89226 -0.341592 0.302733 
0.555132 -0.582919 -0.327773 -0.027048 0.0570554 -0.878662 0.84665 -0.405847 -1.27088 0.41172 -0.907354 0.243034 -0.806813 -0.555825 -0.214139 -0.246445 1.39289 -0.856187 0.0882239 0.300109 0.116477 0.328361 0.0614292 -0.154273 -1.51432 0.00799476 0.0966453 -0.850878 -0.741285 0.157264 0.0754665 -0.2001 
0.789623 -1.73642 0.909069 -0.161237 -0.890714 -0.649317 0.034156 1.1107 -0.0583824 0.272346 -1.11728 -1.26563 0.417845 0.107437 -1.5051 -0.000157509 -0.212933 -0.271371 0.00679271 -0.347974 -0.269963 -1.48403 -0.324803 -1.10264 -0.61023 1.47983 -1.46761 0.197942 0.134652 -0.451479 -0.166933 0.214823 
0.690582 0.418327 1.45395 0.294974 -0.082526 -0.725266 -0.595765 -0.0397791 -0.314455 0.133239 -0.222634 0.783056 0.656153 -1.19827 -0.112728 -0.590973 0.504956 0.412588 0.450022 -0.569763 -1.55399 0.847025 -1.63277 -1.0518 0.925914 -0.387889 0.4068 -0.325832 0.131022 0.641271 -0.105947 0.569465 
-0.38948 0.334403 0.106886 -0.576542 0.774669 0.153954 -1.44631 -0.363405 -0.95048 -0.0430164 -0.311587 -0.641092 0.298742 -1.21211 0.777972 -0.394956 0.223535 1.09971 0.657434 -0.528467 -0.935172 1.28889 -0.349586 -0.0700357 -0.32134 0.326886 -0.578643 0.400431 -0.771272 0.581966 -0.405998 -0.0838081 
0.341876 0.540714 0.287033 1.35991 -1.08957 0.0130476 -2.05944 0.438755 -1.38711 0.45228 -0.169744 0.691011 -0.281531 0.84551 1.08376 0.44464 0.872373 -0.720194 -0.351866 1.07236 0.0909275 -0.214448 0.174851 -1.01368 -1.25156 0.119434 0.143589 0.21614 0.501788 -0.00148507 -0.0540547 -0.332784 
0.0280174 -0.160733 -0.795897 -0.983109 0.631387 -0.423395 -1.32427 -0.0157844 0.603153 -0.628495 0.0667982 -0.296341 0.461584 -0.00972757 0.458385 0.464829 -1.0097 0.801485 0.435322 0.161583 0.143824 0.0708574 0.435109 0.789895 1.27073 0.605566 -0.442915 0.685705 -0.88168 0.0601398 -0.340189 1.20742 
-0.293719 -0.130906 0.0397482 -0.693522 0.300358 -0.61703 1.30821 0.968906 1.01102 0.0568068 -0.247682 -0.016357 -0.27387 0.367966 0.380741 0.230487 1.03188 0.226082 0.301589 -0.221923 -0.486424 0.634371 -0.374019 -0.977933 -1.13185 0.734861 0.187101 -0.374054 0.805299 -0.453031 -0.16785 0.965742 
0.670066 -0.968058 0.50016 0.271011 -1.04387 0.868807 1.4177 0.32256 0.752857 1.43635 -1.12573 0.523203 0.627423 -0.466517 -0.178136 1.31325 0.449471 1.21387 0.376243 -0.451134 0.0863124 0.556715 0.210633 -1.2135 0.373788 -0.201168 1.12744 0.107954 -0.213095 -0.38596 -0.140739 0.400635 
0.0416147 0.155469 0.640427 0.577278 0.768156 0.126888 0.379731 -0.878698 0.900017 -1.20033 0.802068 0.756192 0.128974 -0.617192 0.396253 1.45892 0.172693 -0.904479 -0.899983 -0.330914 0.797273 -0.774582 -0.145609 0.22538 -0.967292 -0.37191 1.09058 0.0131821 0.674846 -0.226185 -0.984227 0.493842 
-0.890561 -0.495327 -0.0481673 -0.194634 -0.936733 -0.597942 -0.149633 1.10562 -0.649876 0.13194 0.975123 -1.03732 -0.547639 -0.425426 0.236604 0.283525 0.147819 0.939479 0.0158377 -1.01698 -0.0573054 -0.138568 -0.164505 1.32858 1.15015 -0.900219 0.677945 -1.03996 -0.235866 0.328761 1.00527 -0.767009 
0.200457 0.850358 -0.44739 0.109196 -1.18511 0.397927 -0.706956 -0.635414 -0.225234 0.0930872 -0.303494 -0.0905586 -0.219005 -0.59831 0.13002 0.350842 0.73608 -0.0673333 0.467448 0.117148 -0.0623607 0.710688 -1.60769 -1.16626 -0.0470723 -0.908228 0.924541 -0.81809 0.616355 -0.253499 0.478562 -0.477542 
-0.526418 -0.559812 -0.773005 0.31774 -0.358923 0.311316 0.257806 0.243404 -0.230451 -0.148197 0.19267 0.0855894 0.0809103 0.0664539 0.747927 0.571233 0.564944 0.503579 0.00796111 1.15841 0.081285 -0.648716 -0.321811 -1.41106 -0.51602 -0.0653613 -0.586938 0.0646342 -0.483594 0.682242 0.330188 -0.0677459 
#
0.474241 
0.260313 
0.447674 
-0.535245 
-0.3504 
-0.580397 
-0.124823 
-0.599059 
1.21098 
-0.621315 
-0.431312 
-0.537373 
0.355431 
0.140323 
0.182242 
-0.186857 
0.315437 
-0.027546 
0.252064 
0.928275 
-0.787841 
-0.765704 
0.00453618 
-1.2557 
0.955344 
0.438703 
0.168086 
0.0532493 
0.0267113 
0.222809 
1.22202 
-0.757617 
#
