0.396409 -0.157565 -0.217245 -1.26027 0.839408 -0.0848173 -0.415991 -0.607398 1.08676 -0.21905 1.17037 -0.942049 0.227583 -0.0205856 -0.16543 0.302831 -0.411896 1.01921 0.990154 0.815791 -0.000691573 0.398607 -0.487821 -0.773854 -0.0205031 0.703246 -0.0917819 0.154112 -1.12037 0.382655 -0.00932216 -0.95821 
0.219879 0.329159 1.65865 0.1631 -0.728966 -0.857416 -0.539402 0.97573 -0.956353 0.209431 -0.19943 0.162628 1.10312 0.17104 -0.20324 0.897816 -0.809931 -0.648998 -0.270674 -0.412972 0.0728952 -1.15996 -0.837431 -0.370914 1.35343 0.0104833 0.427267 -1.0781 1.176 -0.197061 -0.365878 -0.0731535 
0.143105 0.129871 -0.212575 -0.0246257 0.456694 0.374629 0.151882 0.468594 -0.750539 -0.192713 0.879954 -0.891449 0.796925 0.860152 -0.0235126 -0.455129 -0.369428 0.0135044 0.602367 0.758947 0.822635 0.114991 1.26617 -1.40528 0.321819 -1.01677 0.439336 -0.492647 0.757735 1.02951 0.827605 1.61909 
0.0695996 -0.390609 -0.0196834 -0.00723832 -0.310802 0.70341 -1.29527 -0.157204 -0.174978 0.253992 -2.00866 -0.174066 0.817806 -0.642645 -0.880284 -0.213128 0.197966 0.739994 -0.89099 0.189619 0.452922 0.497829 -0.473376 0.255496 0.485911 0.0824154 0.786249 -0.0487029 -2.22553 -0.0553019 0.220005 1.10365 
0.289288 0.36566 0.627918 -0.287141 -1.49254 0.211794 0.597523 -0.470187 -0.207426 -0.408066 -0.165364 -1.04709 0.364759 0.497435 1.21811 0.262154 0.508421 -0.258222 -0.0686865 1.15258 0.0583833 0.142377 -0.493451 1.64351 -0.303857 -0.387786 0.782408 0.0692996 0.940541 1.0985 -0.219734 0.288801 
-0.488678 0.487613 -0.267688 0.0375657 -1.03676 -0.547121 0.270295 -0.878705 -0.515998 0.154455 0.56614 -0.885998 -0.783317 0.0488614 -1.12407 -0.476675 -0.266367 -0.305192 -0.104023 0.823011 -1.43554 -0.366947 -0.331256 0.203788 -0.975596 0.348019 0.34334 0.621849 -0.396418 1.2548 1.11963 0.299281 
1.26636 0.219374 1.17512 -0.140188 -0.696844 0.466101 0.0541865 -0.000153746 0.390188 -0.619853 0.40749 -0.286956 -0.491832 -0.471846 0.0923006 0.167898 -0.377277 0.303591 0.869971 0.171004 0.709251 -0.369876 -0.19444 -0.986812 -1.11574 -0.0152253 0.626821 0.392337 -0.142473 0.225184 0.882117 0.15005 
-0.180562 0.46076 -1.0201 0.537335 -0.829831 0.0718622 0.0191752 -0.00606135 0.613796 0.214481 0.460433 -0.65066 0.712502 -1.43243 0.23072 0.129003 0.201707 0.0808991 0.282045 1.01687 -0.952366 0.985819 -0.245188 -0.079835 -0.594139 -0.478613 -0.217441 -1.30924 0.475098 0.346594 -1.10188 -0.994985 
-0.264245 0.0411639 0.0984937 0.706544 0.608649 0.0471229 0.577651 -0.734557 0.689298 -1.06365 0.166427 -0.495851 -0.0879999 -0.941703 -0.575456 0.0641126 0.396607 0.570043 1.25621 0.0680961 0.85758 0.729631 -1.07228 1.04537 0.428734 0.608854 -0.462575 0.595851 0.176803 0.713699 0.447049 -0.0413622 
-0.0461173 -0.111827 0.621466 0.781203 -1.74826 0.690421 -0.744528 0.605784 -0.845963 0.44488 0.372433 -1.19731 -0.00343567 0.456131 -1.39372 -0.130758 0.726221 0.0411497 0.793785 -0.70356 0.526988 -0.488685 -0.157864 -0.770839 0.701629 0.900265 -0.823914 -0.229569 -0.611092 -1.21117 0.537757 0.187201 
-1.26136 0.45489 0.0144031 -0.261665 -0.169793 -0.608397 -0.656821 0.00334026 0.310695 -0.0682127 0.417754 -0.167334 0.138844 1.58781 -0.567064 -0.230035 0.426664 -0.930019 0.0963775 0.181214 0.305542 -0.137919 -0.232619 -0.630617 -0.261013 0.065445 0.820913 -0.107833 -1.18779 -0.0480826 -0.282916 -0.0357134 
0.0670543 0.862214 0.284768 0.220771 -1.85346 0.485137 0.308264 -0.196995 -0.815458 1.46949 0.501941 -1.05549 -0.288432 0.367059 -0.0647449 -0.240881 -0.349709 -0.53467 0.747452 0.47302 -0.8091 -0.754471 -0.199666 0.10055 0.479533 0.549112 0.17043 0.286972 -0.139316 -0.590488 -0.317376 0.464808 
0.448054 -1.07512 0.55054 -0.47368 -0.219437 0.856812 1.93837 0.553763 -1.39921 -0.119981 -0.604947 0.247477 0.771836 -0.710504 -0.376349 0.445498 -0.143832 0.621251 0.0830276 0.59541 -1.0286 -0.279816 -1.16579 1.08082 -0.224274 -0.272261 0.173923 0.320242 0.130841 0.636374 -0.648504 -0.941413 
0.199172 -0.0299582 0.368428 0.481471 0.0503481 0.561614 -1.06493 0.542517 0.211878 -1.02931 -1.80434 0.710036 -0.205562 0.0126671 -0.0662053 1.02737 -0.15799 -0.201805 0.716914 0.813053 0.244858 0.827827 0.310184 0.122604 0.81976 0.32146 -0.649674 0.839013 1.10018 0.0454346 -0.103086 0.432596 
-1.06344 0.655914 -0.463763 0.106978 0.569337 -0.728744 -1.15032 0.795183 0.26266 0.283518 0.791934 -0.313264 0.310202 0.229037 0.560409 -0.644728 -0.230529 -1.72943 0.641973 -1.22071 -0.752688 -1.14218 -0.118806 -0.354934 -0.043407 -0.225489 1.20873 0.324512 -0.925067 0.416901 -0.55378 0.526362 
-0.177022 -0.363489 -0.130629 0.428807 1.25431 0.349791 -0.991343 -0.883061 -0.458033 0.533917 0.200369 0.278354 0.371852 -0.811692 -0.168944 0.236196 -0.735713 -1.19861 0.626477 0.089678 0.275605 1.02111 0.1012 -0.583193 -0.992532 -0.571026 0.771981 -1.57812 -0.141983 0.851036 0.474938 -0.321261 
1.37953 0.367981 -0.333909 -0.352746 -0.308652 -0.774638 -0.222141 0.085288 0.542836 -0.0831524 0.162786 0.144099 -0.404229 0.148891 -0.256192 0.0296348 0.301002 0.254162 0.694096 0.832071 0.658017 0.034744 0.579726 0.278146 -0.357868 -0.413507 0.499921 -0.347223 -1.18152 0.813757 0.212317 0.298379 
0.311893 -0.541552 0.677762 -0.426009 -0.0445225 -0.0933856 0.457806 0.673896 -0.571405 -0.119831 1.16836 0.262218 0.418792 0.226827 -0.611514 0.419477 0.724502 -0.516873 0.81241 0.319444 -0.586713 -0.470295 -0.959544 -0.123052 0.595501 -0.252311 0.881807 -0.351183 0.265599 -0.396405 -0.379413 0.493831 
0.769863 0.0845457 1.22759 -0.167151 0.556628 -0.268914 -0.64668 0.678843 0.709597 1.51504 0.0281478 0.344064 -0.187372 -0.117916 0.693274 0.110399 -0.182751 -1.32982 -0.758173 0.0795958 -1.18185 -1.47592 1.43078 -0.0340543 -0.65043 0.380462 -0.741824 -0.377547 0.488245 0.663087 0.605021 0.517092 
0.823855 -0.702399 -1.09018 1.25954 0.571577 1.10274 -0.340194 -0.800172 -0.0423489 -0.019885 -1.23489 -0.352342 0.547522 0.57436 0.180624 0.205154 0.215594 0.544424 0.369228 0.282542 0.0189758 -0.830261 0.0465556 0.170115 0.576877 0.491196 -0.435114 -0.156407 0.34841 -0.0937225 0.781853 -0.150399 
0.269599 1.04964 -0.740879 -0.251121 -0.668455 -0.38711 0.0680712 -0.93612 -1.4931 0.424703 0.254741 0.381598 -1.51331 -0.453104 0.988376 -0.166115 -1.31342 -0.176351 -0.253123 0.0849893 0.00979904 -1.70256 0.0495735 -0.706776 0.139393 0.417316 0.280315 -0.587751 -0.113256 0.542279 0.128683 -0.0538951 
-0.790278 -0.520348 -0.625393 0.372591 -1.47077 -0.508292 -0.268702 0.532933 0.115195 0.804334 -0.379839 -0.70272 0.593157 0.47769 -0.95134 -0.0932645 0.849035 0.581003 0.419171 -0.0257376 0.0584848 -0.0728618 -0.194057 -0.510467 1.07526 0.508205 1.00788 -0.190605 1.65534 -0.188638 -0.159843 0.12853 
-0.190019 -0.423462 0.0386866 -0.594742 0.023442 0.903605 -0.102715 0.113355 0.586172 -1.5304 0.0288837 -0.0832062 -1.73692 -0.110312 0.499083 -0.161845 -0.426937 0.339476 0.0104258 -0.159864 0.853389 0.395093 1.41942 0.0192915 -0.473792 -0.970871 0.909293 0.501265 -0.328565 0.500331 -0.483553 -0.0121706 
0.809639 0.68601 0.527388 -0.12775 -0.673119 0.369999 -0.474453 -0.605777 0.555757 0.693841 -0.112388 -1.0815 -0.203011 0.919356 -0.240003 0.316912 -0.026618 0.563433 -0.0384443 0.582014 -0.86252 -0.120375 0.815968 -0.00573358 0.473454 0.798692 -0.181709 -1.4021 -0.281974 -0.822854 0.466763 -0.157859 
-0.531627 -0.24554 -0.404176 0.379381 0.0145719 0.649199 -1.90264 -0.410327 -0.768079 0.0330857 0.490902 0.830319 -0.705502 0.435121 0.893954 0.568409 0.16654 0.258523 -0.115096 -0.00667981 -0.777101 0.553733 0.26606 -0.419133 0.297807 0.714886 -0.938567 -0.0533674 -0.25629 0.391354 -0.264214 0.03077 
0.812755 0.10566 -0.599127 -0.502937 0.155034 0.216237 0.641495 0.267682 1.70615 0.532765 -0.775362 0.21645 0.224442 0.504122 -0.370507 -0.192078 -1.04929 0.0303363 0.0551868 -0.5866 -0.362588 -0.141248 -0.718047 0.0947565 0.162537 0.894005 0.175055 1.16463 0.588533 0.510775 -0.411291 0.565712 
0.125891 -0.0549002 -0.329216 0.810986 0.749453 0.483125 0.955823 -0.586728 -0.560129 0.801565 -0.813425 -0.27149 -0.27378 0.308489 -0.272365 0.856008 -1.11378 0.517154 -0.460027 0.792618 0.22359 -0.34895 0.673328 0.960423 1.43503 -0.0267968 0.485651 -0.861874 -1.30046 0.726829 -0.629818 -1.28668 
-0.368313 0.249724 -0.622014 -0.372012 -0.699666 -0.235782 0.591265 -0.0166871 0.725578 -0.0984583 -0.221896 0.501476 -0.0711283 -0.334772 -0.115584 0.53765 0.129461 0.513498 0.308053 0.299971 -0.485788 0.969425 0.503948 -0.402517 -0.963751 0.374082 -0.52459 -0.734342 -0.842575 -0.141309 -0.30147 -0.303355 
-0.0646541 -0.482198 0.523927 -0.210194 0.706862 0.281542 0.382634 0.696694 -0.045809 0.340915 -0.19036 0.440034 -0.237315 0.658613 1.60704 0.497105 -0.897518 0.628151 -1.02169 -0.189893 0.997479 0.90779 -0.701533 0.428616 0.396011 0.589212 -0.115718 0.601171 0.319389 0.916291 -0.279249 -0.842214 
0.077186 -1.63035 -0.397525 0.921624 -0.701578 -0.54817 0.0839158 -1.53638 1.06018 -1.25763 -0.886697 -0.640783 -0.450504 -0.790476 1.06208 -0.496712 0.166248 0.505729 -0.315228 -0.299686 0.534432 0.412172 -1.27096 -0.0558834 -0.71693 0.323603 -0.557407 -0.409757 0.0824327 -0.205125 -0.206008 -0.159203 
-0.733618 1.02196 -0.111248 0.1043 -0.699135 -0.744441 -0.519092 0.161416 -0.39295 -0.855497 -0.989458 -0.698084 -0.101006 -0.376009 -0.359928 0.989512 -0.284356 0.593468 -0.238977 -0.723579 0.177843 -0.284679 0.164798 -0.508138 1.63067 -0.2295 -1.04869 0.687451 -0.450379 -0.248015 -0.502476 -0.472843 
-0.397674 -0.640815 -0.0542978 -0.131931 -0.706692 0.556654 0.342737 -0.522547 0.415584 0.623986 -0.479161 0.125009 0.0209653 0.456507 -0.609691 -0.057548 -0.235026 -0.160016 -0.865028 0.991851 0.00210588 -0.00265477 -0.0328285 0.0344475 0.00701934 -0.498679 0.464877 0.525288 -0.0802957 0.840134 -0.313943 0.742749 
0.495491 -0.0236029 -0.841969 0.0617599 -0.442055 -0.369334 0.811259 0.279152 0.84802 -0.847447 0.956891 0.101714 -0.304103 -0.599992 0.30659 0.308071 0.474573 0.643274 -0.747936 -0.0010923 -0.857943 -0.0170504 0.91608 0.575495 -0.139654 1.20419 -0.83954 -0.198336 -0.262387 -0.44439 0.636893 -1.04338 
-0.466881 0.2255 -0.958209 -0.381026 -0.295142 0.423822 -1.3425 -0.188861 0.33969 -0.572009 -1.01979 0.682682 0.590503 -0.690945 0.16786 0.184553 -1.11838 0.202644 -0.886503 0.302816 0.138047 -0.993569 -0.959651 0.646739 0.527446 1.42791 1.39911 -0.0110715 -0.66262 0.300905 0.699762 0.0845704 
0.474035 0.587188 -0.685594 0.919411 -0.00487494 0.406441 0.635658 -0.939881 0.0551771 0.235292 0.270503 -1.45751 -1.98475 0.247653 -0.298827 0.212147 0.186587 0.086338 -0.247527 0.4233 -0.471749 0.241053 0.102877 0.147243 -0.417418 -0.0762843 0.356153 0.199097 0.467417 -0.75011 -0.417739 -0.210941 
-0.889195 1.26929 -0.276399 -0.689847 0.379309 0.266729 -0.30287 0.275908 -0.128045 1.07125 -0.784225 0.109779 0.689541 -1.93096 -1.11566 -0.328419 -0.187557 -1.00013 -0.243503 -0.728706 -0.175746 -2.09386 -0.254908 0.12471 0.409157 -0.248209 1.08213 -1.06326 -1.70267 0.799641 -0.148661 -0.357858 
0.287336 -0.649299 0.785048 -0.657405 -0.374136 -0.079503 -0.545591 -0.676638 -1.54387 -0.420142 0.352848 1.09148 0.0640631 -0.415928 -0.42891 -0.0864472 -0.551023 0.343572 -0.592882 1.54458 0.498376 1.01672 0.411031 -0.690161 -0.237018 -0.192219 -0.498759 -0.0991436 1.50842 -0.428551 -1.13052 0.151772 
0.50504 0.979385 0.181741 1.55786 0.320473 -0.546667 -0.756705 -0.432721 0.272607 0.924444 0.0860804 0.519868 0.648119 0.00574268 0.769764 -0.0805709 0.235715 -0.146789 -1.05981 1.41512 0.0641734 0.516197 0.0834132 -0.649875 -0.244432 0.382184 -0.811615 -0.119548 -0.207666 -0.359056 0.761175 0.0970466 
0.179491 0.312601 0.0790023 -0.925961 -0.0262255 0.262466 0.344124 0.57456 0.0310318 -0.703035 0.381636 0.0912881 0.447681 -0.347634 -1.14223 -0.69409 -0.523381 -0.0685621 1.0585 -1.24554 -0.118164 0.458776 0.80319 0.587735 0.822635 -0.584523 0.0277422 0.324808 -0.43708 -0.112659 -0.720822 -0.941361 
0.225079 -0.195308 -0.457499 -0.442463 -0.0377307 -0.41694 -0.928957 -0.338895 -0.694362 -0.241775 -0.307959 0.270556 0.333321 0.926118 0.388422 -0.403569 0.513206 0.227058 -0.187879 0.288013 0.812011 -0.00988958 0.947738 0.294998 0.496173 1.26409 0.00826145 1.04695 1.59346 1.1134 -1.42522 1.02695 
0.0455244 0.917997 -0.0307665 1.11645 0.254763 0.325683 -0.376245 -0.260766 -0.298148 -0.315364 -0.308853 0.486863 0.71153 -0.578074 -0.558339 0.578907 -0.143771 0.222118 1.16929 0.557521 -1.1408 0.100213 -0.025575 0.0145 0.344594 0.420585 -0.228535 1.14253 0.236466 0.0856408 -0.181477 -0.606384 
0.526998 0.852851 0.35613 -0.0537215 -0.586501 -0.360924 -0.68571 0.132294 0.209776 -0.117741 0.217817 0.0743443 0.238252 -1.06687 0.944459 0.48221 0.366067 0.0614599 -0.483911 0.657836 0.502899 0.451689 0.488043 0.0980734 0.647955 0.32801 0.970529 0.106136 -0.230984 0.476489 -0.202528 -0.124029 
0.261984 0.216863 -0.268261 0.0466357 0.305589 -0.189124 0.874177 -0.445172 -0.83234 -0.800776 -0.00903514 -0.0699643 1.18164 -0.333296 1.15786 0.299441 -0.558968 -1.18799 -0.127488 0.767738 -0.455051 0.765668 1.22669 0.220344 0.0244616 -0.853548 -1.18164 0.235688 -0.0103553 0.131007 -0.256913 -0.632471 
0.764979 -0.423693 0.0868705 -1.34576 0.497621 -1.20079 -0.264568 -0.223869 -0.193061 -0.226627 0.168011 0.530084 -0.319696 0.643915 0.055971 0.617837 0.112326 0.524217 -0.636489 -0.197142 0.559004 -0.573297 0.181945 0.299055 0.504683 0.6739 0.421469 -0.418168 -0.718798 -0.82185 -0.830275 -0.228554 
-0.3899 0.309018 0.25237 -0.34561 -0.722913 -0.307922 -0.985302 0.712818 -0.27871 0.86665 0.852718 0.153731 -0.0407632 -0.717633 0.858773 0.460666 0.0619627 0.228587 -0.511523 0.0564619 -0.246502 1.2306 -0.57818 -1.0585 -0.174436 0.115938 -0.87229 -0.24487 -0.52338 -0.771174 -0.113694 0.40714 
0.373211 0.550209 0.0653058 0.136356 -0.136537 0.492776 -0.354159 0.294167 -1.07792 -0.0660323 -0.522416 -0.202171 0.493577 0.278609 0.62269 -0.357759 -0.580725 0.0286103 -0.475917 0.85876 -0.373805 0.0111638 1.40596 0.828752 0.133312 0.0687444 0.527278 -1.08091 0.341943 -1.13067 -0.564602 -0.0269462 
0.827297 0.00604682 0.319168 0.0982762 1.12267 0.287016 0.799985 -0.487986 -0.458683 0.472991 0.489681 0.840109 -0.0996325 -0.987629 0.474146 -0.0703612 0.482527 -0.776291 0.117657 0.47849 0.289218 0.806844 0.779289 -0.385327 -0.574176 0.190172 -1.92608 -0.344113 1.64161 -0.243886 0.376125 -0.429003 
0.238442 -0.0532007 0.502258 -0.534382 0.381805 0.990598 0.374533 0.210016 0.083989 0.326309 -0.0467075 0.128283 0.480922 0.975494 -0.227428 0.722621 -0.016919 0.777303 -0.303208 -0.422907 -0.356652 -0.857336 0.977217 0.646334 0.0738065 0.943548 0.803803 1.60628 1.04577 0.123799 0.827324 -0.0648862 
-1.18819 -0.286818 -0.604585 0.51705 0.121051 -0.17263 0.45947 -0.788619 -0.981211 -0.190744 0.300832 -0.968877 -0.438203 -0.60333 0.0680405 -0.564313 -0.646728 0.146355 0.5478 0.192342 -0.374222 -1.25364 0.277127 -0.712143 -0.0162209 0.661608 0.114535 -0.794728 -0.88779 -1.38287 -0.105849 -0.246693 
-0.331873 -0.211969 0.335011 -0.609196 0.592733 -0.965499 0.521985 -0.746862 -0.0118748 -0.501559 0.260599 -0.0233776 0.284345 -0.679556 -0.0635575 -1.55549 -1.31968 0.219961 0.527586 0.0267855 0.0741573 0.0975649 -0.228824 -0.272057 -0.509359 0.203899 0.605671 0.256295 0.32008 -0.994749 -1.54564 -0.127281 
0.209545 0.970167 0.484231 -0.349523 -1.67973 0.11253 0.27932 0.176296 1.64193 -0.814063 -0.0416089 0.319205 0.573503 0.0115692 0.909575 0.0879391 0.410784 1.17011 -0.180061 0.0731974 -0.540078 0.552616 -0.506477 -0.764655 0.00781354 0.257034 -0.0534904 0.861239 -0.668141 0.219815 -0.327505 -0.574864 
-0.139077 0.031245 -0.456867 0.61798 0.77301 -0.368212 1.12484 -1.03481 0.105678 -0.717806 -0.666363 0.830256 0.402617 -0.672335 0.286641 0.800179 -1.83741 0.144515 -0.843962 0.790313 0.21316 -0.0378694 0.82724 -0.568934 0.152058 -0.381503 -0.0117273 0.574402 0.300042 -0.893756 -0.342323 0.303464 
0.554783 -0.582797 -0.327385 -0.028345 0.0559451 -0.87746 0.847772 -0.406937 -1.26984 0.412816 -0.90658 0.241898 -0.807013 -0.554608 -0.214181 -0.246575 1.39267 -0.857464 0.0870157 0.299242 0.116543 0.327396 0.0614334 -0.155414 -1.51567 0.00730689 0.095215 -0.852084 -0.741506 0.156684 0.0760384 -0.201786 
0.78954 -1.73533 0.910092 -0.161651 -0.889469 -0.648974 0.0351165 1.11029 -0.0598873 0.271064 -1.11617 -1.26691 0.416516 0.108009 -1.50679 -0.00164423 -0.212586 -0.272563 0.00696543 -0.346489 -0.26901 -1.48384 -0.324085 -1.10382 -0.610532 1.4794 -1.46887 0.199625 0.135586 -0.449866 -0.165886 0.215996 
0.691501 0.417797 1.45239 0.295525 -0.0836187 -0.726209 -0.596059 -0.0403356 -0.31338 0.131676 -0.221856 0.783244 0.657388 -1.19959 -0.112411 -0.592335 0.504964 0.412012 0.448907 -0.570112 -1.55534 0.84802 -1.63151 -1.0504 0.925665 -0.387049 0.407704 -0.32589 0.13129 0.640594 -0.106794 0.56905 
-0.389879 0.334317 0.107035 -0.576137 0.773027 0.154249 -1.44777 -0.363604 -0.950797 -0.0419912 -0.313011 -0.639507 0.297841 -1.21149 0.776773 -0.395929 0.222003 1.09993 0.657699 -0.527514 -0.936594 1.28752 -0.349022 -0.071371 -0.322632 0.325623 -0.577367 0.399032 -0.770633 0.580763 -0.404605 -0.084319 
0.340344 0.539045 0.286686 1.3603 -1.09085 0.011557 -2.06112 0.438414 -1.3876 0.452476 -0.168483 0.691026 -0.279956 0.844199 1.08263 0.446137 0.873751 -0.719732 -0.353472 1.07279 0.0922674 -0.214159 0.174505 -1.01427 -1.25025 0.117736 0.145011 0.216373 0.500496 -6.4382e-05 -0.0547788 -0.334097 
0.0294283 -0.161601 -0.79632 -0.982947 0.630273 -0.421756 -1.32394 -0.0156313 0.603005 -0.627314 0.0662619 -0.295699 0.462421 -0.00936564 0.459034 0.463883 -1.00825 0.802686 0.433716 0.161982 0.143211 0.0705985 0.436246 0.789675 1.27053 0.606348 -0.442477 0.686314 -0.883289 0.0585045 -0.339581 1.2068 
-0.295051 -0.130346 0.0408728 -0.694718 0.298691 -0.616525 1.30853 0.967752 1.0107 0.0579643 -0.248504 -0.0158167 -0.272229 0.36906 0.380568 0.228922 1.0305 0.227567 0.300947 -0.220842 -0.487186 0.633843 -0.375431 -0.976702 -1.13071 0.736027 0.188366 -0.373613 0.806801 -0.452336 -0.166233 0.964115 
0.66836 -0.967237 0.498993 0.270122 -1.04311 0.869198 1.41673 0.323182 0.752114 1.43736 -1.12562 0.523631 0.626847 -0.466966 -0.176597 1.31379 0.448514 1.21462 0.375957 -0.449987 0.0877096 0.558194 0.209351 -1.21395 0.372404 -0.201578 1.12879 0.106293 -0.2131 -0.385049 -0.139346 0.398932 
0.0428366 0.154716 0.639739 0.57784 0.769212 0.127954 0.37939 -0.879082 0.900143 -1.1989 0.802759 0.757016 0.127324 -0.61786 0.39788 1.45994 0.173915 -0.90559 -0.901123 -0.330217 0.798971 -0.775424 -0.146888 0.226987 -0.965714 -0.371435 1.09067 0.0118576 0.674053 -0.226321 -0.983219 0.494538 
-0.890027 -0.494008 -0.0465004 -0.194846 -0.938178 -0.597267 -0.151021 1.10519 -0.650134 0.133121 0.97503 -1.03829 -0.546626 -0.424088 0.238081 0.282725 0.148662 0.939689 0.0161141 -1.01571 -0.0584727 -0.138397 -0.165363 1.32906 1.15121 -0.900584 0.676893 -1.0389 -0.23452 0.328963 1.00509 -0.765493 
0.199257 0.849527 -0.447128 0.110084 -1.1844 0.396614 -0.706959 -0.633776 -0.224902 0.0927818 -0.304631 -0.0908949 -0.218482 -0.598642 0.129728 0.352018 0.736774 -0.0675175 0.466421 0.115763 -0.0619408 0.71167 -1.60741 -1.16752 -0.0481304 -0.909821 0.925885 -0.81849 0.616648 -0.25254 0.478744 -0.476646 
-0.527283 -0.559726 -0.772798 0.318605 -0.358396 0.312961 0.256144 0.244001 -0.232134 -0.148797 0.191132 0.0859596 0.0824305 0.0670012 0.748222 0.572125 0.564224 0.504362 0.00665006 1.15729 0.0820463 -0.64922 -0.322876 -1.41081 -0.517281 -0.065448 -0.587027 0.0662019 -0.483567 0.68105 0.330185 -0.06831 
#
0.47507 
0.259454 
0.44741 
-0.53516 
-0.34936 
-0.5807 
-0.123489 
-0.599867 
1.21033 
-0.622498 
-0.432042 
-0.53614 
0.357079 
0.140184 
0.183829 
-0.186499 
0.31549 
-0.0291217 
0.253479 
0.92853 
-0.787144 
-0.764109 
0.00428586 
-1.25519 
0.953757 
0.439033 
0.166765 
0.0533176 
0.025719 
0.222955 
1.22066 
-0.758698 
#
