0.39861 -0.15737 -0.219752 -1.25908 0.841515 -0.0828154 -0.415683 -0.608278 1.08904 -0.221271 1.16782 -0.943998 0.224668 -0.0191544 -0.167458 0.303507 -0.409914 1.01715 0.99249 0.81537 0.00202922 0.396167 -0.489968 -0.772911 -0.0228601 0.705107 -0.089461 0.156292 -1.12123 0.383291 -0.00850013 -0.957364 
0.220218 0.330559 1.65762 0.163203 -0.72738 -0.858193 -0.538806 0.97303 -0.955964 0.210308 -0.198528 0.160234 1.10596 0.171574 -0.20615 0.898828 -0.811383 -0.648654 -0.267953 -0.412834 0.0735511 -1.16207 -0.836853 -0.370969 1.35198 0.0110715 0.429395 -1.07541 1.17728 -0.199043 -0.368687 -0.0733904 
0.141929 0.132785 -0.212886 -0.0236687 0.453847 0.377586 0.149088 0.466179 -0.751184 -0.190775 0.882228 -0.890985 0.796493 0.85777 -0.021229 -0.456314 -0.366639 0.0140603 0.603403 0.759626 0.823213 0.11721 1.26825 -1.4049 0.322524 -1.01501 0.436757 -0.490481 0.755644 1.02725 0.829914 1.6196 
0.0721256 -0.393549 -0.0182745 -0.00944113 -0.313739 0.70509 -1.29704 -0.158121 -0.176507 0.251291 -2.00795 -0.172262 0.820617 -0.640113 -0.878536 -0.211187 0.198728 0.741688 -0.893593 0.191605 0.451302 0.496165 -0.472601 0.255861 0.486719 0.0800853 0.786144 -0.0480191 -2.22616 -0.0581962 0.218868 1.1009 
0.288701 0.364444 0.628616 -0.286024 -1.48967 0.211026 0.596922 -0.468814 -0.206982 -0.407558 -0.165184 -1.04634 0.367134 0.497574 1.21866 0.261919 0.510027 -0.260154 -0.0707419 1.15457 0.0560096 0.141992 -0.493139 1.64531 -0.30188 -0.386416 0.785161 0.0688013 0.941439 1.09801 -0.221245 0.286265 
-0.487941 0.486586 -0.266717 0.038228 -1.03721 -0.547503 0.273243 -0.878939 -0.518232 0.155063 0.565576 -0.888183 -0.784709 0.0509802 -1.12295 -0.478727 -0.267454 -0.303769 -0.103451 0.824161 -1.43263 -0.369873 -0.33352 0.205197 -0.973158 0.350571 0.341634 0.620986 -0.398876 1.25262 1.12026 0.30166 
1.26851 0.221698 1.17633 -0.137644 -0.697161 0.467775 0.0550248 0.00235606 0.390886 -0.617507 0.405996 -0.285307 -0.494194 -0.469287 0.0899803 0.167805 -0.378193 0.303149 0.872006 0.170422 0.707255 -0.368369 -0.192436 -0.989192 -1.11648 -0.01295 0.627012 0.390337 -0.141267 0.222838 0.881781 0.149833 
-0.178264 0.45782 -1.02191 0.536633 -0.828458 0.0722827 0.0165497 -0.00623229 0.616029 0.214237 0.463289 -0.65168 0.712189 -1.43267 0.232408 0.129234 0.199055 0.0786214 0.280117 1.01904 -0.951749 0.984119 -0.242565 -0.078219 -0.594819 -0.47668 -0.219213 -1.30714 0.476662 0.344167 -1.10267 -0.997028 
-0.264716 0.0436797 0.0964224 0.707022 0.609708 0.0478325 0.577008 -0.734282 0.688823 -1.06169 0.166061 -0.496185 -0.087847 -0.943766 -0.575786 0.0650922 0.396883 0.570487 1.25353 0.065681 0.855598 0.727924 -1.07123 1.0469 0.428762 0.61093 -0.465343 0.594605 0.178435 0.7118 0.448819 -0.0408071 
-0.0442369 -0.109216 0.622154 0.781713 -1.75076 0.690128 -0.743009 0.607479 -0.845984 0.445628 0.374255 -1.19907 -0.00398888 0.457182 -1.3942 -0.131369 0.728892 0.0382549 0.792939 -0.701854 0.526758 -0.487005 -0.158027 -0.769249 0.700357 0.898487 -0.823865 -0.230507 -0.611236 -1.21067 0.535926 0.188818 
-1.26131 0.452395 0.0165363 -0.261344 -0.172078 -0.610137 -0.656491 0.000877176 0.312959 -0.0681456 0.416338 -0.170257 0.138498 1.58617 -0.564311 -0.229989 0.428238 -0.930302 0.0977013 0.181339 0.306043 -0.13511 -0.230353 -0.631819 -0.260278 0.0682276 0.818413 -0.104978 -1.18574 -0.04969 -0.285847 -0.0371138 
0.0641874 0.862281 0.284851 0.221196 -1.85165 0.483333 0.307553 -0.196477 -0.815375 1.47212 0.503616 -1.05642 -0.288937 0.367336 -0.0638615 -0.240631 -0.347636 -0.533132 0.745984 0.472266 -0.810118 -0.751811 -0.198223 0.10214 0.482482 0.551714 0.170278 0.286341 -0.137992 -0.589243 -0.31964 0.466579 
0.445197 -1.07436 0.547844 -0.472862 -0.217767 0.856612 1.93753 0.553665 -1.40073 -0.121282 -0.607332 0.246655 0.771292 -0.707723 -0.375695 0.445036 -0.142809 0.620435 0.0833431 0.593954 -1.03101 -0.280349 -1.16833 1.08125 -0.224894 -0.269973 0.175014 0.319723 0.128624 0.638528 -0.650333 -0.943983 
0.201939 -0.0297981 0.367317 0.4813 0.0525352 0.564413 -1.06519 0.54369 0.211432 -1.02947 -1.8037 0.711691 -0.207301 0.0109403 -0.0680666 1.02791 -0.158452 -0.204497 0.716086 0.815354 0.246814 0.827771 0.307967 0.121806 0.818979 0.319792 -0.651033 0.838909 1.09956 0.0483741 -0.103889 0.430438 
-1.06277 0.656267 -0.463604 0.108153 0.5685 -0.730789 -1.1499 0.793726 0.261267 0.284552 0.794021 -0.315964 0.310594 0.231695 0.559373 -0.643276 -0.230181 -1.72741 0.641141 -1.22296 -0.754457 -1.14046 -0.117252 -0.355591 -0.0421388 -0.226025 1.20716 0.32371 -0.927423 0.414853 -0.556067 0.525713 
-0.174485 -0.363925 -0.131348 0.431586 1.2524 0.348899 -0.990393 -0.880106 -0.455205 0.535629 0.201811 0.278013 0.37477 -0.809128 -0.170264 0.233939 -0.734282 -1.20024 0.625479 0.0885266 0.278291 1.023 0.103027 -0.583845 -0.992538 -0.56845 0.770498 -1.58017 -0.139165 0.850479 0.476025 -0.321565 
1.37881 0.369787 -0.333754 -0.354553 -0.305743 -0.773108 -0.224379 0.0838139 0.542238 -0.0836402 0.1637 0.145442 -0.407147 0.149667 -0.25367 0.0284249 0.303372 0.256213 0.695867 0.831431 0.659473 0.0324152 0.577072 0.278372 -0.359185 -0.415014 0.498501 -0.347441 -1.18143 0.813364 0.209608 0.2964 
0.309157 -0.539688 0.679175 -0.426202 -0.0466032 -0.0925538 0.460597 0.672912 -0.57151 -0.117303 1.17131 0.261616 0.421262 0.227609 -0.610191 0.420506 0.72716 -0.51907 0.810926 0.321901 -0.588431 -0.472377 -0.958799 -0.124533 0.594854 -0.25275 0.883512 -0.350767 0.268238 -0.394949 -0.381674 0.495548 
0.770104 0.0864088 1.22962 -0.16943 0.554687 -0.269552 -0.644368 0.678582 0.706665 1.51422 0.0269777 0.341784 -0.186082 -0.118122 0.694583 0.11113 -0.185451 -1.3326 -0.75955 0.0791668 -1.18094 -1.47339 1.43076 -0.0314812 -0.648761 0.378813 -0.742088 -0.378295 0.489157 0.663192 0.606155 0.516004 
0.825736 -0.700943 -1.09237 1.25682 0.573241 1.09999 -0.341943 -0.799016 -0.0417318 -0.0214844 -1.23646 -0.351282 0.545625 0.577135 0.182582 0.203559 0.217494 0.547196 0.370337 0.284881 0.0187372 -0.827672 0.0462223 0.171775 0.574164 0.493834 -0.432778 -0.156526 0.349119 -0.0960533 0.780192 -0.147784 
0.2693 1.04889 -0.740411 -0.254067 -0.669289 -0.389689 0.0656773 -0.938305 -1.49532 0.427082 0.256035 0.381373 -1.5128 -0.454194 0.985735 -0.163367 -1.31527 -0.177916 -0.255159 0.0848477 0.0126193 -1.70407 0.0518542 -0.704715 0.140038 0.419165 0.279293 -0.585824 -0.113068 0.543247 0.13147 -0.0524232 
-0.787874 -0.521052 -0.627295 0.373205 -1.4714 -0.506812 -0.267288 0.53154 0.115137 0.801708 -0.378903 -0.705547 0.594973 0.476409 -0.948579 -0.0924285 0.851042 0.58038 0.418009 -0.0248186 0.0604471 -0.0705634 -0.194154 -0.510861 1.07767 0.51077 1.01033 -0.189698 1.65728 -0.188457 -0.158517 0.125741 
-0.190445 -0.423437 0.0387138 -0.59578 0.0223895 0.903334 -0.10296 0.11418 0.584718 -1.52867 0.0310515 -0.082788 -1.73656 -0.108268 0.501394 -0.161259 -0.427532 0.339628 0.0100223 -0.158521 0.855866 0.39506 1.41834 0.0196651 -0.472775 -0.97159 0.911065 0.503757 -0.329772 0.501835 -0.482234 -0.0122901 
0.807753 0.683889 0.526196 -0.130507 -0.675957 0.370781 -0.472859 -0.606565 0.558366 0.691537 -0.113561 -1.08186 -0.20304 0.916854 -0.240848 0.318757 -0.0277138 0.561575 -0.0396716 0.583111 -0.862188 -0.119094 0.813982 -0.00833306 0.472854 0.799726 -0.182629 -1.40337 -0.282752 -0.824255 0.465118 -0.157824 
-0.532817 -0.246234 -0.406019 0.381817 0.012383 0.648183 -1.90521 -0.41242 -0.769905 0.0359692 0.492217 0.829158 -0.703616 0.437286 0.891715 0.571175 0.164759 0.259644 -0.116875 -0.00706271 -0.777502 0.555486 0.268085 -0.421377 0.296328 0.714304 -0.939863 -0.0537078 -0.256187 0.389992 -0.262566 0.0281923 
0.814734 0.106934 -0.601848 -0.502762 0.157964 0.217949 0.6416 0.265126 1.70908 0.534441 -0.773393 0.218466 0.222956 0.501464 -0.368891 -0.193562 -1.04963 0.0277413 0.053766 -0.587671 -0.362139 -0.141456 -0.718598 0.0930204 0.161735 0.894415 0.173624 1.16205 0.58935 0.513553 -0.41239 0.564697 
0.127785 -0.0522339 -0.330199 0.809417 0.747328 0.484175 0.955181 -0.586783 -0.561207 0.804171 -0.815805 -0.272717 -0.273173 0.307917 -0.270613 0.853171 -1.11498 0.519578 -0.457462 0.795324 0.221655 -0.350129 0.672615 0.96104 1.43548 -0.0254393 0.487255 -0.859919 -1.30052 0.728836 -0.627752 -1.28755 
-0.366077 0.251434 -0.620087 -0.369358 -0.701186 -0.236698 0.588789 -0.0137921 0.725978 -0.10051 -0.223381 0.500954 -0.0686595 -0.336289 -0.115755 0.539727 0.13214 0.511101 0.310188 0.299577 -0.487213 0.969951 0.50177 -0.401427 -0.964288 0.371339 -0.52189 -0.736252 -0.842111 -0.143058 -0.301501 -0.303823 
-0.0640732 -0.482386 0.526471 -0.210724 0.705944 0.282368 0.382003 0.695914 -0.0451531 0.341993 -0.187958 0.440266 -0.23669 0.661177 1.60861 0.499375 -0.899196 0.630235 -1.02287 -0.191919 0.996506 0.909566 -0.700615 0.429506 0.396046 0.586856 -0.117346 0.599927 0.317733 0.914947 -0.279051 -0.840023 
0.0747918 -1.62931 -0.395597 0.92379 -0.698878 -0.548146 0.0841113 -1.53478 1.05984 -1.25728 -0.88816 -0.641524 -0.451635 -0.787803 1.06073 -0.495799 0.165999 0.506696 -0.317796 -0.298058 0.532785 0.411885 -1.26964 -0.0553604 -0.716547 0.323554 -0.556864 -0.407612 0.0822612 -0.208092 -0.205138 -0.160985 
-0.731441 1.02194 -0.108928 0.104187 -0.701066 -0.743601 -0.519504 0.160496 -0.392901 -0.855393 -0.991722 -0.697408 -0.0991975 -0.378449 -0.357772 0.988236 -0.2825 0.594722 -0.23821 -0.722419 0.177658 -0.283016 0.16667 -0.508285 1.62889 -0.23103 -1.05136 0.686185 -0.451772 -0.246859 -0.500501 -0.471827 
-0.397306 -0.638266 -0.0528609 -0.134123 -0.708897 0.558292 0.341387 -0.519645 0.417802 0.625296 -0.480185 0.12621 0.022582 0.456161 -0.60791 -0.0546354 -0.233999 -0.160306 -0.864884 0.990615 0.000487908 -0.00217465 -0.0331208 0.0358795 0.0044952 -0.495843 0.46377 0.525655 -0.0781699 0.837375 -0.31645 0.74329 
0.496543 -0.0233683 -0.83909 0.0630669 -0.442369 -0.370081 0.811088 0.277339 0.848637 -0.848462 0.959492 0.103484 -0.305343 -0.597192 0.3058 0.307933 0.47616 0.645117 -0.750759 0.0018135 -0.859913 -0.0154128 0.914982 0.576891 -0.139492 1.20475 -0.839656 -0.198362 -0.260907 -0.444661 0.636931 -1.04409 
-0.468918 0.22829 -0.958973 -0.380345 -0.297987 0.421848 -1.34378 -0.188346 0.340161 -0.573973 -1.02047 0.68014 0.590184 -0.69118 0.165947 0.183234 -1.11813 0.204274 -0.888903 0.303499 0.135085 -0.990985 -0.962189 0.646233 0.52478 1.42755 1.39814 -0.0138882 -0.662953 0.298663 0.699041 0.0836203 
0.473258 0.589435 -0.688177 0.918587 -0.0020628 0.409004 0.63458 -0.93825 0.0578825 0.232793 0.269555 -1.45538 -1.98435 0.246707 -0.29852 0.212501 0.185896 0.0847789 -0.249208 0.422935 -0.46906 0.240216 0.100133 0.147362 -0.415434 -0.0763142 0.353636 0.200644 0.465674 -0.749485 -0.416998 -0.211868 
-0.887437 1.26679 -0.273989 -0.687713 0.381313 0.268202 -0.302392 0.277222 -0.126494 1.07224 -0.784305 0.110007 0.686696 -1.92928 -1.11775 -0.328155 -0.184793 -0.997852 -0.244626 -0.726108 -0.176691 -2.09499 -0.255476 0.122017 0.409452 -0.249607 1.08122 -1.06165 -1.70148 0.799278 -0.151349 -0.355914 
0.289801 -0.647663 0.782771 -0.658975 -0.373808 -0.0768604 -0.546694 -0.674103 -1.54213 -0.418664 0.352674 1.09237 0.0662564 -0.416673 -0.430089 -0.0855325 -0.549237 0.344272 -0.591552 1.54168 0.499944 1.01957 0.40948 -0.691776 -0.23949 -0.19289 -0.501713 -0.0995712 1.51121 -0.425882 -1.1314 0.152731 
0.504175 0.979673 0.182 1.55856 0.318164 -0.548357 -0.75448 -0.432617 0.273388 0.92212 0.0841113 0.518547 0.64559 0.00550662 0.772493 -0.0835387 0.233186 -0.146727 -1.06026 1.41693 0.0634643 0.518175 0.085818 -0.652685 -0.245977 0.382455 -0.809231 -0.121988 -0.205523 -0.357416 0.763579 0.0953804 
0.178989 0.312973 0.0816899 -0.926898 -0.0271505 0.263762 0.344749 0.574877 0.0331674 -0.700569 0.381259 0.0890083 0.44689 -0.348019 -1.1395 -0.695354 -0.52204 -0.0694606 1.05577 -1.24836 -0.115495 0.456656 0.804188 0.588411 0.821442 -0.58639 0.0258968 0.322362 -0.436702 -0.115196 -0.719629 -0.940723 
0.225291 -0.193867 -0.458663 -0.444656 -0.0366439 -0.418045 -0.929025 -0.341762 -0.695263 -0.241585 -0.309881 0.268535 0.332569 0.928268 0.385614 -0.403811 0.512338 0.227993 -0.188095 0.287765 0.811935 -0.0116924 0.946543 0.294988 0.4966 1.26216 0.00681903 1.0491 1.59633 1.11581 -1.42481 1.02849 
0.0445951 0.919424 -0.0331371 1.11725 0.252019 0.328367 -0.374832 -0.259105 -0.296322 -0.31767 -0.309149 0.485891 0.71244 -0.576695 -0.555454 0.580565 -0.14128 0.222398 1.16674 0.555234 -1.13906 0.0984931 -0.0228524 0.0159287 0.345251 0.423542 -0.230802 1.14377 0.237213 0.086206 -0.179742 -0.604609 
0.527314 0.852674 0.356843 -0.0532486 -0.587166 -0.363068 -0.686715 0.131019 0.211771 -0.116888 0.216775 0.0725354 0.237253 -1.06892 0.946162 0.481832 0.368357 0.0638288 -0.485992 0.656473 0.500809 0.449951 0.490852 0.0978509 0.645779 0.326813 0.971389 0.107984 -0.23258 0.475698 -0.204347 -0.123924 
0.260362 0.218441 -0.267506 0.0488989 0.306226 -0.189476 0.876777 -0.44371 -0.831425 -0.799913 -0.00655981 -0.0702542 1.18071 -0.331615 1.15817 0.300049 -0.560881 -1.18637 -0.1251 0.767851 -0.456013 0.764213 1.2275 0.217794 0.0266241 -0.856492 -1.17954 0.237869 -0.0123392 0.132329 -0.254629 -0.630096 
0.764325 -0.422472 0.0874813 -1.34673 0.496329 -1.20228 -0.26455 -0.225998 -0.191688 -0.227284 0.165201 0.529322 -0.321777 0.643733 0.0561441 0.6149 0.114008 0.52388 -0.633964 -0.199177 0.56078 -0.572116 0.17904 0.301936 0.506017 0.672284 0.420949 -0.416311 -0.717406 -0.819447 -0.828121 -0.229048 
-0.390122 0.307801 0.255163 -0.345381 -0.721383 -0.306705 -0.985571 0.71059 -0.277569 0.867957 0.850922 0.156329 -0.0389603 -0.718954 0.857205 0.458895 0.0619049 0.226986 -0.50972 0.0549353 -0.246918 1.23313 -0.576009 -1.05573 -0.172318 0.116147 -0.872247 -0.243488 -0.524149 -0.769328 -0.110881 0.409296 
0.374103 0.547836 0.0628605 0.139078 -0.134008 0.492851 -0.355171 0.292481 -1.07791 -0.0648528 -0.520089 -0.203228 0.491367 0.279514 0.620148 -0.3561 -0.581186 0.0267082 -0.475225 0.858332 -0.37485 0.0102185 1.40382 0.827628 0.132534 0.0662053 0.52911 -1.08202 0.340768 -1.13307 -0.562587 -0.0290221 
0.824811 0.00716923 0.321895 0.101214 1.12361 0.288016 0.799631 -0.489486 -0.459706 0.47205 0.489199 0.842784 -0.0983979 -0.986999 0.47124 -0.0728471 0.480324 -0.775609 0.115323 0.477493 0.291482 0.808186 0.780193 -0.382553 -0.573305 0.188347 -1.92507 -0.346922 1.63867 -0.246762 0.373605 -0.426068 
0.235581 -0.0555986 0.505157 -0.536253 0.379316 0.991475 0.374167 0.212885 0.0838916 0.327327 -0.0454949 0.127441 0.47886 0.9782 -0.230382 0.721268 -0.019849 0.779316 -0.30277 -0.423053 -0.35502 -0.857872 0.978694 0.647881 0.0760717 0.943151 0.805782 1.60559 1.04672 0.12307 0.826787 -0.0631657 
-1.18972 -0.284857 -0.605625 0.515206 0.118143 -0.175559 0.461114 -0.789291 -0.982226 -0.191739 0.298787 -0.968851 -0.435974 -0.600758 0.0658409 -0.565416 -0.647085 0.148874 0.547632 0.191198 -0.376225 -1.25383 0.274178 -0.710684 -0.0145429 0.660521 0.116999 -0.795562 -0.889003 -1.38397 -0.106874 -0.244105 
-0.334309 -0.209052 0.333799 -0.607622 0.593069 -0.964893 0.524945 -0.749361 -0.0109598 -0.504377 0.260124 -0.0251368 0.286968 -0.681281 -0.0632185 -1.55582 -1.32163 0.217402 0.52924 0.0284512 0.0737158 0.0960555 -0.228252 -0.272469 -0.506621 0.204538 0.602866 0.255139 0.321189 -0.992612 -1.54758 -0.128827 
0.209349 0.968564 0.486741 -0.350776 -1.67858 0.115257 0.278447 0.174947 1.64376 -0.811465 -0.0413575 0.317245 0.575597 0.0087315 0.908189 0.0903882 0.408516 1.16804 -0.182873 0.0761087 -0.539683 0.555003 -0.507648 -0.766491 0.00799433 0.257271 -0.0528724 0.858522 -0.670002 0.218788 -0.327235 -0.576129 
-0.139864 0.0285618 -0.45891 0.617703 0.775633 -0.36812 1.12523 -1.03449 0.103668 -0.715001 -0.664347 0.832676 0.404674 -0.674111 0.28929 0.798771 -1.83717 0.142467 -0.844079 0.790933 0.213608 -0.0404862 0.824533 -0.567718 0.150419 -0.381841 -0.0117588 0.576033 0.297489 -0.894993 -0.339898 0.305646 
0.553285 -0.583753 -0.324598 -0.0289403 0.0535131 -0.87592 0.850092 -0.404036 -1.27221 0.410062 -0.909433 0.244596 -0.804619 -0.552894 -0.213069 -0.248171 1.39135 -0.858087 0.0882137 0.301267 0.116523 0.328403 0.0634394 -0.155827 -1.51522 0.00778821 0.0977267 -0.854519 -0.738903 0.155976 0.0732194 -0.204357 
0.790471 -1.73517 0.911489 -0.159679 -0.889749 -0.649859 0.033891 1.11313 -0.0578115 0.273141 -1.11563 -1.26954 0.418533 0.110526 -1.50604 0.000491305 -0.213853 -0.26982 0.00912601 -0.345798 -0.271529 -1.48582 -0.324344 -1.10259 -0.61082 1.47885 -1.46834 0.200405 0.134257 -0.449346 -0.167812 0.213494 
0.693774 0.418797 1.45304 0.296902 -0.0847613 -0.725606 -0.597059 -0.0406005 -0.311261 0.130093 -0.221855 0.783456 0.655658 -1.20248 -0.112998 -0.592512 0.505939 0.412488 0.446573 -0.572726 -1.55622 0.850423 -1.63408 -1.05021 0.923727 -0.385982 0.409804 -0.324916 0.131771 0.639427 -0.108383 0.566841 
-0.387863 0.332417 0.106764 -0.576575 0.772772 0.151715 -1.44777 -0.365956 -0.951713 -0.0443711 -0.313597 -0.63716 0.300655 -1.21424 0.774627 -0.397488 0.221913 1.09838 0.657856 -0.525777 -0.936459 1.28698 -0.349116 -0.069372 -0.324811 0.327426 -0.57654 0.400475 -0.769773 0.58217 -0.402408 -0.0820839 
0.337467 0.536467 0.28959 1.36001 -1.08918 0.011557 -2.05906 0.436547 -1.38949 0.451102 -0.168955 0.692149 -0.277299 0.841445 1.0832 0.445346 0.87648 -0.720454 -0.354953 1.07026 0.094202 -0.214999 0.175456 -1.01647 -1.25123 0.115922 0.143847 0.215048 0.502971 -0.00178142 -0.0544198 -0.336398 
0.0265886 -0.161185 -0.796984 -0.983024 0.628047 -0.424128 -1.32483 -0.0175204 0.603017 -0.629173 0.0678125 -0.297377 0.460487 -0.00731153 0.45794 0.465793 -1.00716 0.805546 0.43182 0.163448 0.144422 0.0716251 0.438948 0.787875 1.27265 0.608588 -0.43961 0.685768 -0.881004 0.0573125 -0.339009 1.20442 
-0.294662 -0.129161 0.0405361 -0.694125 0.299989 -0.616852 1.30748 0.97019 1.01183 0.0551762 -0.250833 -0.0167996 -0.273501 0.367097 0.383463 0.226261 1.03207 0.225505 0.302141 -0.21897 -0.485858 0.634003 -0.373608 -0.97597 -1.13006 0.733244 0.191002 -0.376007 0.809049 -0.45398 -0.163501 0.964799 
0.669109 -0.965637 0.498373 0.270292 -1.04561 0.870469 1.41544 0.321298 0.750679 1.43696 -1.12379 0.523346 0.624245 -0.46854 -0.178034 1.31491 0.451118 1.21272 0.378185 -0.45041 0.0879549 0.559564 0.209816 -1.2127 0.372919 -0.201377 1.12783 0.108084 -0.210783 -0.386403 -0.137986 0.39977 
0.0435954 0.153397 0.641679 0.576115 0.768136 0.126164 0.37892 -0.879837 0.897484 -1.19809 0.800323 0.756247 0.128839 -0.61723 0.395656 1.45789 0.172143 -0.904738 -0.899035 -0.331656 0.799767 -0.778281 -0.149504 0.229738 -0.963717 -0.372183 1.09062 0.0147198 0.671997 -0.225186 -0.982954 0.492077 
-0.888507 -0.493088 -0.0474796 -0.193828 -0.939889 -0.597267 -0.15075 1.10356 -0.651853 0.13206 0.976769 -1.03921 -0.54409 -0.426823 0.238257 0.282615 0.151213 0.936988 0.0182706 -1.01376 -0.057437 -0.139501 -0.165426 1.32984 1.14902 -0.89915 0.677305 -1.03624 -0.234202 0.330261 1.00344 -0.768234 
0.20024 0.852193 -0.446505 0.108567 -1.18668 0.398577 -0.707923 -0.633931 -0.224102 0.0948219 -0.303359 -0.0899828 -0.217716 -0.596541 0.128879 0.351121 0.734334 -0.0672495 0.464492 0.117541 -0.0590113 0.709168 -1.60565 -1.16695 -0.0452764 -0.907316 0.92384 -0.818347 0.618795 -0.252689 0.476364 -0.477005 
-0.526243 -0.558242 -0.775502 0.317458 -0.356687 0.311541 0.257378 0.241997 -0.234335 -0.149449 0.193113 0.0849405 0.0817991 0.0690734 0.750786 0.570221 0.564175 0.501401 0.00448376 1.15624 0.082846 -0.648711 -0.321912 -1.41235 -0.518748 -0.0661217 -0.584431 0.0675115 -0.484979 0.678986 0.331193 -0.0696477 
#
0.47596 
0.258468 
0.445032 
-0.536274 
-0.349574 
-0.579618 
-0.125338 
-0.597331 
1.20834 
-0.625014 
-0.429489 
-0.53711 
0.355705 
0.138683 
0.181608 
-0.189061 
0.317954 
-0.0290167 
0.255626 
0.930168 
-0.785593 
-0.761395 
0.00332695 
-1.25686 
0.952985 
0.440202 
0.164878 
0.0525868 
0.0248769 
0.223306 
1.21925 
-0.756236 
#
