0.410682 -0.142408 -0.234495 -1.26077 0.819024 -0.105111 -0.393029 -0.608878 1.09443 -0.213033 1.15076 -0.94691 0.213763 -0.00856274 -0.186618 0.290197 -0.416412 1.00344 1.011 0.829008 0.0174746 0.38809 -0.476602 -0.793968 -0.0227552 0.725224 -0.104458 0.177429 -1.13566 0.391277 0.00403921 -0.941895 
0.214277 0.33298 1.65898 0.180176 -0.733496 -0.878572 -0.534529 0.975803 -0.966789 0.207212 -0.180716 0.137219 1.08599 0.149065 -0.206019 0.897218 -0.803748 -0.634979 -0.256958 -0.39035 0.091994 -1.16184 -0.836888 -0.351348 1.37403 -0.00397176 0.427797 -1.05732 1.15544 -0.203688 -0.379139 -0.0781155 
0.151597 0.118008 -0.211866 -0.0306755 0.469743 0.368776 0.134512 0.451013 -0.72677 -0.203561 0.907439 -0.909084 0.774196 0.874602 -0.0182053 -0.47166 -0.374748 -0.00849177 0.60956 0.780342 0.84798 0.093175 1.28432 -1.38541 0.339754 -1.02244 0.414929 -0.50433 0.738138 1.03492 0.80923 1.61343 
0.0510999 -0.374142 -0.0011192 -0.0248566 -0.334311 0.729439 -1.28608 -0.177992 -0.152518 0.243187 -1.99113 -0.192125 0.823756 -0.663753 -0.868988 -0.193718 0.175447 0.75677 -0.881047 0.180947 0.432012 0.519005 -0.459569 0.258265 0.48149 0.0669961 0.765633 -0.0563025 -2.24965 -0.0473422 0.203234 1.10674 
0.299702 0.389388 0.609855 -0.303886 -1.47059 0.193624 0.577053 -0.493466 -0.201591 -0.419326 -0.180953 -1.03988 0.357702 0.517855 1.22789 0.273385 0.506469 -0.28069 -0.0937239 1.14935 0.0811123 0.140153 -0.491371 1.62402 -0.291849 -0.396053 0.763441 0.0613733 0.948835 1.08177 -0.233976 0.309111 
-0.509215 0.501778 -0.28471 0.0247331 -1.03492 -0.539872 0.251567 -0.88197 -0.517135 0.176438 0.566399 -0.874097 -0.763686 0.0404736 -1.13532 -0.491841 -0.26728 -0.325315 -0.0899127 0.812963 -1.45471 -0.365001 -0.331015 0.210706 -0.971752 0.365316 0.31616 0.64005 -0.401639 1.25964 1.14485 0.301798 
1.26714 0.215293 1.19895 -0.126382 -0.683958 0.449545 0.0538485 0.0191976 0.399266 -0.640976 0.40381 -0.268731 -0.494861 -0.482247 0.0973173 0.17476 -0.385933 0.281421 0.885463 0.170058 0.682227 -0.377514 -0.185362 -0.9818 -1.13514 -0.0100127 0.641974 0.378391 -0.130816 0.240009 0.866441 0.143223 
-0.187273 0.479351 -1.01867 0.557323 -0.849037 0.0495433 0.00673507 -0.0153671 0.607755 0.230184 0.448635 -0.630433 0.694203 -1.42325 0.239719 0.125326 0.224403 0.0989009 0.301448 1.02597 -0.934987 0.999291 -0.230312 -0.0762841 -0.612045 -0.492501 -0.235032 -1.29188 0.496858 0.324193 -1.07847 -1.0054 
-0.244944 0.064178 0.102574 0.709547 0.626736 0.0472646 0.596402 -0.74357 0.682343 -1.07465 0.154038 -0.506228 -0.0788951 -0.947036 -0.554896 0.0486747 0.384458 0.593827 1.26992 0.0654419 0.832953 0.738545 -1.08531 1.05032 0.438962 0.625913 -0.451502 0.586704 0.178957 0.705288 0.469455 -0.0639445 
-0.0368213 -0.131844 0.622412 0.767502 -1.76681 0.689422 -0.733512 0.58586 -0.856126 0.428538 0.393539 -1.22205 0.0132851 0.473186 -1.39801 -0.115138 0.747076 0.0135979 0.797683 -0.727095 0.512302 -0.49616 -0.17258 -0.751983 0.72526 0.900278 -0.819733 -0.231127 -0.611012 -1.23142 0.552829 0.179507 
-1.27527 0.451522 0.0257005 -0.277476 -0.181926 -0.632694 -0.666541 -0.0121162 0.334757 -0.0623062 0.432044 -0.155185 0.148385 1.58904 -0.567803 -0.22364 0.407989 -0.927885 0.082645 0.162728 0.319395 -0.138567 -0.208449 -0.657254 -0.285311 0.0839573 0.819386 -0.100367 -1.20592 -0.0247543 -0.29489 -0.0193262 
0.0562369 0.853902 0.270429 0.20622 -1.83708 0.5054 0.31724 -0.219895 -0.826774 1.48602 0.494343 -1.06311 -0.305374 0.370067 -0.065782 -0.23381 -0.337121 -0.557453 0.753131 0.471821 -0.824323 -0.754802 -0.196465 0.102808 0.498714 0.567499 0.168613 0.264637 -0.130863 -0.596306 -0.323745 0.481436 
0.450478 -1.05542 0.527586 -0.488458 -0.219904 0.876344 1.92741 0.543445 -1.37832 -0.096003 -0.621874 0.238955 0.756898 -0.719967 -0.399137 0.455297 -0.14205 0.597246 0.101711 0.615847 -1.02632 -0.264668 -1.15742 1.06699 -0.234588 -0.271848 0.17432 0.338753 0.107696 0.650478 -0.650304 -0.924612 
0.197458 -0.0162497 0.37776 0.485354 0.0700267 0.560374 -1.04416 0.528468 0.22815 -1.05207 -1.78577 0.73002 -0.183703 0.0011843 -0.063689 1.03185 -0.179213 -0.214906 0.732625 0.808706 0.251149 0.830087 0.29596 0.132463 0.805308 0.323885 -0.631546 0.850935 1.12238 0.0685371 -0.0963005 0.417817 
-1.05398 0.678737 -0.44521 0.0854876 0.569624 -0.724499 -1.1295 0.783145 0.280139 0.304496 0.786486 -0.311283 0.299943 0.23211 0.551577 -0.647665 -0.218107 -1.70912 0.653801 -1.20219 -0.750025 -1.16357 -0.105648 -0.340661 -0.0575345 -0.24838 1.22065 0.335948 -0.937598 0.401807 -0.559912 0.506101 
-0.168867 -0.364501 -0.127548 0.448505 1.25226 0.359543 -0.990109 -0.871909 -0.44833 0.527686 0.191105 0.284929 0.393116 -0.806287 -0.158089 0.25839 -0.715132 -1.19264 0.633316 0.0847599 0.300134 1.01948 0.117052 -0.592614 -0.987907 -0.583457 0.767571 -1.56807 -0.151898 0.857448 0.48183 -0.31137 
1.39028 0.366284 -0.31226 -0.354758 -0.310562 -0.750865 -0.219376 0.103199 0.526515 -0.0677758 0.15984 0.146806 -0.402907 0.124584 -0.257876 0.0311291 0.283142 0.245271 0.681703 0.844521 0.669835 0.0352874 0.559848 0.28439 -0.363047 -0.438509 0.478078 -0.32551 -1.17581 0.789007 0.185428 0.315251 
0.315052 -0.51812 0.665456 -0.405504 -0.0492404 -0.0695877 0.440377 0.693 -0.591803 -0.105667 1.16867 0.249413 0.420544 0.223068 -0.615341 0.418496 0.744337 -0.541812 0.823244 0.326535 -0.612164 -0.449654 -0.975185 -0.13445 0.598343 -0.264065 0.89948 -0.331536 0.243235 -0.374246 -0.390789 0.50157 
0.760366 0.0668655 1.24459 -0.169722 0.540169 -0.290949 -0.644712 0.66834 0.730942 1.49169 0.0237331 0.337269 -0.21142 -0.104102 0.70143 0.122327 -0.177765 -1.31069 -0.75153 0.0893653 -1.17287 -1.46093 1.43224 -0.0381478 -0.627884 0.392365 -0.748633 -0.389049 0.507744 0.657596 0.618803 0.533302 
0.825962 -0.678858 -1.10944 1.26329 0.547922 1.11384 -0.317128 -0.794637 -0.0513567 0.00168608 -1.25534 -0.343673 0.550978 0.562015 0.176724 0.194199 0.226238 0.546965 0.351413 0.263936 0.0356369 -0.809555 0.0315801 0.160001 0.583122 0.500423 -0.446842 -0.174791 0.359776 -0.0772928 0.771808 -0.142944 
0.267788 1.0463 -0.73761 -0.279336 -0.660055 -0.398363 0.0902249 -0.935988 -1.47311 0.403754 0.281107 0.394454 -1.48886 -0.474105 0.962191 -0.166445 -1.29524 -0.179556 -0.25191 0.103887 0.0228999 -1.69594 0.038956 -0.723961 0.130572 0.400687 0.277711 -0.564435 -0.12474 0.548794 0.143289 -0.0734886 
-0.773664 -0.502318 -0.624848 0.366895 -1.4901 -0.514167 -0.270471 0.552017 0.118744 0.783097 -0.362085 -0.699923 0.57138 0.497506 -0.927896 -0.0898203 0.835855 0.558705 0.416336 -0.0136027 0.0530009 -0.0467018 -0.201047 -0.495046 1.09724 0.498003 1.01057 -0.210694 1.65373 -0.200455 -0.14598 0.126703 
-0.207915 -0.408047 0.0480712 -0.570593 0.0167249 0.918941 -0.0944977 0.0960075 0.573447 -1.51699 0.0138395 -0.0988343 -1.74601 -0.0952123 0.497055 -0.142753 -0.447936 0.342265 -0.00666371 -0.177074 0.844543 0.410584 1.43845 0.0160563 -0.453133 -0.968635 0.885802 0.527027 -0.328787 0.49066 -0.487292 -0.021883 
0.818903 0.663393 0.545776 -0.113605 -0.685773 0.385255 -0.483942 -0.625066 0.546416 0.716975 -0.136056 -1.09591 -0.220899 0.930627 -0.216552 0.316526 -0.0305675 0.553241 -0.0294549 0.570373 -0.860139 -0.101265 0.807583 0.00608809 0.461493 0.802198 -0.20498 -1.39962 -0.270824 -0.818425 0.4722 -0.149677 
-0.543373 -0.223356 -0.428423 0.375164 -0.000185811 0.66305 -1.9265 -0.405828 -0.774917 0.0365919 0.497614 0.829809 -0.678821 0.429838 0.888314 0.580246 0.163104 0.249618 -0.1067 -0.0187651 -0.766112 0.539425 0.271371 -0.43345 0.31048 0.735447 -0.946897 -0.0375163 -0.250572 0.366155 -0.247147 0.0377365 
0.840203 0.108321 -0.588218 -0.527059 0.167843 0.242556 0.638811 0.26346 1.7125 0.547288 -0.757917 0.223989 0.224426 0.514174 -0.353228 -0.168109 -1.06132 0.016569 0.0610936 -0.588584 -0.364297 -0.160928 -0.715041 0.111809 0.171896 0.880398 0.154794 1.15037 0.597754 0.494167 -0.423188 0.582377 
0.136508 -0.0676118 -0.341403 0.789979 0.742417 0.488706 0.930314 -0.587367 -0.575438 0.811151 -0.823087 -0.289846 -0.288587 0.298001 -0.250631 0.873403 -1.13857 0.512567 -0.463456 0.805708 0.207999 -0.366293 0.675504 0.940891 1.44664 -0.0386005 0.505859 -0.878797 -1.28007 0.705051 -0.604718 -1.26593 
-0.38966 0.23711 -0.64467 -0.375775 -0.694152 -0.222308 0.607343 -0.0290286 0.734024 -0.111509 -0.225806 0.514925 -0.0591951 -0.350178 -0.124344 0.533891 0.111426 0.535741 0.325641 0.287045 -0.471934 0.976665 0.485452 -0.405656 -0.97362 0.389871 -0.507617 -0.748142 -0.836619 -0.165366 -0.297317 -0.289504 
-0.0670624 -0.491376 0.513344 -0.226305 0.684681 0.283336 0.363906 0.704643 -0.0664532 0.341821 -0.173908 0.453061 -0.225387 0.681943 1.60878 0.488395 -0.900831 0.638924 -1.04824 -0.192839 0.980912 0.88862 -0.715552 0.447597 0.378741 0.600111 -0.126588 0.623788 0.329077 0.916024 -0.286307 -0.864454 
0.0677755 -1.61472 -0.399861 0.93792 -0.699638 -0.526453 0.077675 -1.55868 1.07738 -1.24211 -0.870063 -0.655785 -0.460908 -0.780859 1.06199 -0.480411 0.172086 0.513431 -0.323134 -0.310597 0.522028 0.390814 -1.28685 -0.0696875 -0.730181 0.333505 -0.554346 -0.41531 0.0694327 -0.205963 -0.201235 -0.16584 
-0.721344 0.997648 -0.116074 0.0798965 -0.715404 -0.769123 -0.530267 0.144491 -0.403839 -0.838013 -0.992901 -0.710321 -0.0865333 -0.402962 -0.346116 0.984411 -0.260547 0.602007 -0.234695 -0.715984 0.185917 -0.294941 0.169025 -0.50303 1.63223 -0.223165 -1.07348 0.706229 -0.465912 -0.254704 -0.485847 -0.450381 
-0.3882 -0.625788 -0.0728831 -0.146562 -0.728961 0.56296 0.343644 -0.529454 0.418902 0.629506 -0.477107 0.110543 0.0146514 0.474757 -0.624585 -0.0335373 -0.222444 -0.155408 -0.859459 1.0107 -0.022629 -0.00319391 -0.0314035 0.0437127 0.0136323 -0.475537 0.483638 0.549479 -0.0800301 0.834061 -0.329533 0.751073 
0.472913 -0.020325 -0.830766 0.0771726 -0.43667 -0.383931 0.829899 0.279861 0.86214 -0.828887 0.937224 0.115033 -0.314334 -0.593285 0.301731 0.298114 0.4983 0.620952 -0.744634 -0.00627589 -0.840965 -0.011851 0.937049 0.577454 -0.122276 1.18874 -0.861027 -0.183149 -0.26632 -0.457898 0.620818 -1.04106 
-0.477463 0.210159 -0.951319 -0.385687 -0.317203 0.438876 -1.35372 -0.198582 0.337843 -0.567364 -1.01951 0.703212 0.594283 -0.716546 0.18628 0.180282 -1.12917 0.186458 -0.879325 0.324106 0.146364 -0.9668 -0.983043 0.648301 0.521797 1.44714 1.37376 -0.00321894 -0.651489 0.279594 0.715311 0.0869399 
0.473969 0.575568 -0.671511 0.893379 -0.022713 0.433808 0.624941 -0.949072 0.0733348 0.221914 0.29357 -1.45423 -1.9817 0.261445 -0.320166 0.220423 0.167875 0.104091 -0.260548 0.44727 -0.467789 0.227651 0.0963378 0.144013 -0.428616 -0.100536 0.355072 0.187057 0.476856 -0.768848 -0.414982 -0.200415 
-0.872063 1.2866 -0.276299 -0.695126 0.3682 0.275165 -0.286441 0.264578 -0.116581 1.08511 -0.767012 0.112241 0.69023 -1.90413 -1.12983 -0.346507 -0.182668 -1.00589 -0.255031 -0.718397 -0.17448 -2.11046 -0.244359 0.0996828 0.389434 -0.249192 1.08306 -1.05513 -1.71665 0.775178 -0.146084 -0.358624 
0.311321 -0.629271 0.757979 -0.677089 -0.392319 -0.0542883 -0.558329 -0.686042 -1.51998 -0.418804 0.347633 1.07397 0.0646536 -0.436113 -0.453113 -0.109256 -0.557819 0.367432 -0.614954 1.53141 0.492531 0.99718 0.434316 -0.695295 -0.235202 -0.174182 -0.520203 -0.0814126 1.49862 -0.418673 -1.13496 0.133328 
0.488247 0.974511 0.177724 1.57376 0.3004 -0.564165 -0.750856 -0.412652 0.298416 0.942514 0.0924324 0.495727 0.661069 0.0202949 0.783435 -0.0639102 0.244618 -0.157162 -1.07325 1.41163 0.073208 0.497948 0.0997481 -0.662297 -0.223585 0.40001 -0.815996 -0.111355 -0.214925 -0.355712 0.75719 0.114024 
0.179052 0.318502 0.0823259 -0.918797 -0.00851434 0.24048 0.354542 0.599363 0.0463707 -0.722309 0.40672 0.0855008 0.425077 -0.327758 -1.14682 -0.692702 -0.516614 -0.077671 1.05244 -1.23372 -0.102503 0.463035 0.824091 0.572675 0.801686 -0.568864 0.0269447 0.307474 -0.460453 -0.119265 -0.716467 -0.954844 
0.200108 -0.182672 -0.442367 -0.419734 -0.0120727 -0.426585 -0.936211 -0.347739 -0.703054 -0.263926 -0.322858 0.267968 0.331682 0.912543 0.402996 -0.402046 0.510493 0.230322 -0.184747 0.275018 0.832014 -0.00532143 0.969073 0.285839 0.49821 1.2536 -0.00207269 1.0379 1.6133 1.115 -1.40215 1.02832 
0.0216336 0.931643 -0.0268978 1.10358 0.253922 0.31023 -0.396383 -0.284623 -0.298132 -0.322631 -0.332447 0.485546 0.734159 -0.563695 -0.563903 0.586883 -0.165208 0.204326 1.16863 0.558598 -1.13003 0.0904465 -0.0190715 0.0110001 0.361519 0.407176 -0.23401 1.16365 0.257475 0.107253 -0.156594 -0.59659 
0.510764 0.876631 0.348098 -0.0392103 -0.596863 -0.339458 -0.688577 0.151689 0.202735 -0.133997 0.233615 0.082962 0.230151 -1.07976 0.937791 0.470476 0.351052 0.0843861 -0.48708 0.647707 0.490332 0.460953 0.495793 0.122798 0.635313 0.308095 0.996485 0.11693 -0.209724 0.476511 -0.194056 -0.130797 
0.271543 0.201655 -0.252793 0.0699708 0.327829 -0.204653 0.879689 -0.440675 -0.834344 -0.795179 -0.0109655 -0.0945287 1.20191 -0.332801 1.15208 0.300009 -0.559319 -1.16549 -0.103001 0.764127 -0.471783 0.745431 1.20534 0.229188 0.0404521 -0.87224 -1.20506 0.232171 -0.000402047 0.141011 -0.25873 -0.613362 
0.74758 -0.433717 0.0987272 -1.32863 0.481609 -1.21828 -0.284691 -0.230698 -0.216749 -0.219918 0.175738 0.518851 -0.319563 0.623977 0.0416796 0.631256 0.128777 0.513532 -0.641198 -0.214003 0.547169 -0.567673 0.159154 0.325206 0.528278 0.691297 0.437591 -0.40552 -0.731026 -0.807886 -0.842708 -0.20855 
-0.396256 0.301152 0.250577 -0.357915 -0.701819 -0.287532 -0.992263 0.693644 -0.28444 0.880449 0.8495 0.175398 -0.0391572 -0.705721 0.881252 0.445822 0.0518235 0.238491 -0.51001 0.0407456 -0.270549 1.21993 -0.581959 -1.07123 -0.163134 0.120113 -0.858576 -0.231391 -0.536986 -0.763707 -0.090848 0.418138 
0.374513 0.571299 0.0858531 0.155751 -0.137149 0.514628 -0.368237 0.282964 -1.08333 -0.0887886 -0.513736 -0.226133 0.496939 0.276501 0.598263 -0.37176 -0.586306 0.0277254 -0.478917 0.833407 -0.389425 0.00115669 1.4139 0.827939 0.112063 0.072439 0.514878 -1.08384 0.362064 -1.14832 -0.554718 -0.0129847 
0.814197 0.0248633 0.323222 0.113838 1.10056 0.294807 0.782458 -0.490591 -0.447169 0.466189 0.473955 0.817929 -0.113213 -1.00641 0.449598 -0.0881456 0.463192 -0.774914 0.131156 0.494308 0.288815 0.812999 0.766938 -0.375169 -0.564893 0.168034 -1.91533 -0.333826 1.62464 -0.240825 0.370778 -0.442077 
0.249572 -0.0707493 0.509606 -0.518367 0.398702 0.975228 0.374017 0.187589 0.0682831 0.303529 -0.0259338 0.107086 0.481246 0.999635 -0.244525 0.697262 -0.0102273 0.790828 -0.284246 -0.443914 -0.359082 -0.875451 0.960765 0.643608 0.0534095 0.952879 0.788105 1.60698 1.03525 0.140357 0.825712 -0.0724698 
-1.19877 -0.297564 -0.619544 0.52052 0.135891 -0.190187 0.440904 -0.7662 -0.965809 -0.196559 0.285323 -0.969822 -0.43778 -0.587418 0.0703687 -0.550866 -0.667651 0.125142 0.542043 0.194278 -0.378302 -1.25857 0.291667 -0.716853 -0.0233217 0.645564 0.137616 -0.791692 -0.897426 -1.3725 -0.111086 -0.220491 
-0.334921 -0.231295 0.332701 -0.58846 0.584044 -0.983422 0.503926 -0.729313 -0.0116665 -0.516978 0.273104 -0.0392094 0.302835 -0.693491 -0.073325 -1.54886 -1.32696 0.208231 0.513511 0.0205249 0.0876133 0.0729786 -0.240435 -0.256049 -0.520507 0.218303 0.589836 0.258266 0.335782 -1.00566 -1.54364 -0.152773 
0.220187 0.976496 0.462623 -0.350503 -1.70405 0.134606 0.277978 0.181382 1.64752 -0.804655 -0.04571 0.320419 0.571722 -0.011946 0.885704 0.065896 0.41579 1.14309 -0.175452 0.0860367 -0.543336 0.578772 -0.499061 -0.754851 0.0251381 0.278557 -0.049279 0.883874 -0.646405 0.207139 -0.312869 -0.592813 
-0.162539 0.038759 -0.449034 0.620192 0.757261 -0.342993 1.10361 -1.03229 0.115725 -0.737003 -0.660468 0.855432 0.424163 -0.669595 0.282653 0.816442 -1.82277 0.151629 -0.818652 0.773988 0.237045 -0.0236728 0.834043 -0.548853 0.162903 -0.371156 -0.0162759 0.600933 0.312574 -0.874921 -0.341733 0.312174 
0.550554 -0.580687 -0.336744 -0.0275222 0.052843 -0.854565 0.84318 -0.393838 -1.27029 0.392052 -0.917304 0.22644 -0.827244 -0.527969 -0.209853 -0.263312 1.40105 -0.852236 0.101444 0.300493 0.119966 0.319226 0.0553815 -0.162492 -1.52112 -0.00236973 0.0968718 -0.878066 -0.71814 0.160839 0.0838516 -0.197093 
0.791007 -1.75694 0.929949 -0.152985 -0.875026 -0.644263 0.023368 1.10252 -0.041706 0.274879 -1.09352 -1.24684 0.396177 0.0907107 -1.52512 -0.0148871 -0.210192 -0.277108 0.00393723 -0.334478 -0.269937 -1.50853 -0.30193 -1.1207 -0.603734 1.46718 -1.45667 0.217992 0.12116 -0.469862 -0.152516 0.238683 
0.711037 0.40659 1.46771 0.290936 -0.0929223 -0.721164 -0.618458 -0.0453879 -0.335 0.150706 -0.232026 0.796236 0.677511 -1.20248 -0.109981 -0.58581 0.486879 0.402947 0.444581 -0.564493 -1.54954 0.825447 -1.64072 -1.06907 0.922776 -0.37807 0.424341 -0.332561 0.154562 0.639506 -0.122996 0.584756 
-0.378889 0.35695 0.113417 -0.569517 0.774687 0.164633 -1.4628 -0.364843 -0.956884 -0.041961 -0.327115 -0.635565 0.279578 -1.20731 0.792558 -0.389746 0.214535 1.08401 0.653639 -0.504648 -0.918411 1.27552 -0.360056 -0.0477785 -0.304159 0.320176 -0.568616 0.403004 -0.786488 0.599111 -0.404488 -0.0691963 
0.339037 0.551468 0.286887 1.35876 -1.06469 0.0101985 -2.04116 0.445145 -1.41401 0.42681 -0.185598 0.669615 -0.281928 0.824104 1.07592 0.424063 0.880695 -0.707486 -0.335604 1.0679 0.0823715 -0.231599 0.197175 -1.03505 -1.24255 0.140451 0.167132 0.203348 0.528111 0.0186226 -0.0757364 -0.322798 
0.0155988 -0.167215 -0.809419 -0.961228 0.628918 -0.446484 -1.31344 -0.0027661 0.586392 -0.644874 0.0444923 -0.317673 0.471816 0.00474171 0.448942 0.489148 -1.02421 0.80411 0.430686 0.152994 0.13099 0.0862154 0.448531 0.790088 1.28061 0.622953 -0.458956 0.68715 -0.857316 0.0597679 -0.31897 1.19097 
-0.291022 -0.130195 0.0288908 -0.675739 0.305357 -0.629081 1.30333 0.964361 1.01986 0.0469935 -0.233277 -0.0140017 -0.270282 0.370619 0.408942 0.223998 1.04566 0.24443 0.311205 -0.197883 -0.463353 0.629934 -0.37163 -0.981161 -1.15168 0.723028 0.211276 -0.35237 0.820599 -0.460901 -0.179671 0.97544 
0.660305 -0.98236 0.489481 0.274741 -1.05602 0.856736 1.43608 0.33036 0.737075 1.44254 -1.12523 0.522078 0.630723 -0.467007 -0.194954 1.30107 0.430471 1.18885 0.364461 -0.431077 0.0730815 0.581341 0.23043 -1.23501 0.365997 -0.222729 1.13339 0.0952916 -0.18815 -0.363276 -0.120484 0.382395 
0.0425298 0.142972 0.643652 0.568426 0.74655 0.127757 0.376476 -0.856659 0.874259 -1.19311 0.776791 0.736128 0.138793 -0.622489 0.403121 1.48273 0.191802 -0.889002 -0.897919 -0.353438 0.790138 -0.794652 -0.171775 0.22838 -0.975554 -0.376814 1.08797 0.0346819 0.671564 -0.207657 -0.983053 0.502921 
-0.886435 -0.476857 -0.0364036 -0.209107 -0.950321 -0.585773 -0.155408 1.08519 -0.639351 0.133553 0.996354 -1.04446 -0.568638 -0.440293 0.245839 0.261835 0.163917 0.931118 0.00255445 -1.01296 -0.0366589 -0.124541 -0.164097 1.32579 1.15733 -0.882905 0.701433 -1.01087 -0.243168 0.347579 0.999556 -0.759024 
0.180667 0.874749 -0.427863 0.0949072 -1.19506 0.420878 -0.712539 -0.630048 -0.209322 0.0847378 -0.327816 -0.0758985 -0.210728 -0.578176 0.144027 0.357077 0.712054 -0.0781565 0.44877 0.13948 -0.0763142 0.706744 -1.62248 -1.19169 -0.0376906 -0.901602 0.923754 -0.840092 0.596563 -0.275218 0.461891 -0.463093 
-0.539708 -0.556864 -0.751494 0.30865 -0.365191 0.317013 0.274306 0.236913 -0.239452 -0.154253 0.197829 0.0734087 0.0748453 0.076651 0.733234 0.551915 0.539931 0.501886 0.018038 1.17745 0.0695545 -0.629419 -0.332188 -1.39373 -0.523867 -0.0416844 -0.601842 0.0778472 -0.496576 0.703614 0.342861 -0.0788912 
#
0.454937 
0.267996 
0.427155 
-0.542501 
-0.375048 
-0.565067 
-0.141857 
-0.576111 
1.20567 
-0.627983 
-0.40733 
-0.529025 
0.362825 
0.142655 
0.164507 
-0.169216 
0.303556 
-0.0247422 
0.238723 
0.942717 
-0.776859 
-0.754185 
-0.0101492 
-1.25742 
0.953739 
0.42642 
0.186152 
0.0677531 
0.0164474 
0.212241 
1.20099 
-0.774526 
#
