0.409918 -0.140281 -0.236488 -1.26302 0.81796 -0.104023 -0.393801 -0.607448 1.09377 -0.213433 1.15273 -0.94588 0.215776 -0.00852541 -0.187873 0.292196 -0.41575 1.00423 1.01312 0.828083 0.0153235 0.385951 -0.476164 -0.794631 -0.0233238 0.726084 -0.105986 0.175242 -1.1359 0.389751 0.00526953 -0.939684 
0.216002 0.334227 1.65804 0.17943 -0.734403 -0.880816 -0.535033 0.976542 -0.967464 0.208271 -0.180791 0.135316 1.08721 0.151216 -0.207204 0.898425 -0.804037 -0.632856 -0.257743 -0.390354 0.0934116 -1.1604 -0.837823 -0.349739 1.37441 -0.00469465 0.429797 -1.05559 1.15608 -0.205199 -0.381488 -0.0781683 
0.152516 0.116075 -0.210396 -0.0283331 0.468712 0.366899 0.13467 0.452946 -0.728418 -0.204082 0.907257 -0.908135 0.772769 0.874684 -0.018364 -0.472387 -0.376286 -0.0106757 0.609065 0.780773 0.849569 0.09196 1.28567 -1.38675 0.337987 -1.02377 0.413549 -0.50624 0.739729 1.03506 0.807344 1.61153 
0.0508426 -0.375863 -0.00192605 -0.0249718 -0.333368 0.728573 -1.28767 -0.179811 -0.150766 0.244227 -1.99217 -0.193397 0.82494 -0.661405 -0.868455 -0.192597 0.175755 0.755244 -0.882217 0.178829 0.433774 0.518513 -0.461667 0.258697 0.479545 0.0669725 0.763462 -0.0540594 -2.24831 -0.0456996 0.203247 1.10582 
0.300067 0.390847 0.611742 -0.302962 -1.46954 0.192347 0.576233 -0.493152 -0.200018 -0.420509 -0.180317 -1.03984 0.359561 0.517111 1.22892 0.273144 0.505634 -0.280526 -0.0916966 1.14906 0.0788975 0.141446 -0.490482 1.62318 -0.290469 -0.396208 0.76154 0.0624982 0.947249 1.08112 -0.233975 0.309501 
-0.509406 0.502733 -0.286227 0.0230182 -1.03302 -0.539428 0.253793 -0.880928 -0.514794 0.177133 0.566453 -0.871981 -0.764716 0.039757 -1.13667 -0.49278 -0.267352 -0.326319 -0.0886491 0.811217 -1.45245 -0.365438 -0.332631 0.210421 -0.974053 0.365346 0.313948 0.638851 -0.400769 1.26113 1.14304 0.30318 
1.26901 0.21438 1.20007 -0.124658 -0.682016 0.449504 0.0559161 0.0193073 0.397238 -0.642226 0.404352 -0.266529 -0.497008 -0.481198 0.0988904 0.17444 -0.383712 0.279936 0.886185 0.16799 0.682075 -0.377727 -0.185691 -0.982053 -1.13405 -0.0087122 0.64173 0.377431 -0.12979 0.238028 0.866983 0.143375 
-0.188751 0.477246 -1.01661 0.558743 -0.849147 0.0518768 0.00501025 -0.0171901 0.60577 0.230983 0.446931 -0.631011 0.692779 -1.42383 0.237941 0.124172 0.224869 0.0978609 0.301191 1.02602 -0.936228 1.0004 -0.231537 -0.0759262 -0.612586 -0.490411 -0.232936 -1.29048 0.497855 0.322553 -1.07965 -1.00501 
-0.244814 0.0626708 0.100663 0.710548 0.626989 0.0477198 0.597476 -0.744805 0.683205 -1.0765 0.152984 -0.5045 -0.078994 -0.946979 -0.55305 0.0467195 0.383898 0.591827 1.27047 0.067233 0.831675 0.7376 -1.0842 1.05254 0.436652 0.62538 -0.452158 0.585514 0.180022 0.706257 0.470825 -0.0636017 
-0.0361444 -0.130665 0.620245 0.765709 -1.7652 0.688517 -0.734571 0.585167 -0.854805 0.430786 0.392458 -1.22062 0.0156431 0.47116 -1.39958 -0.113079 0.74823 0.0138712 0.795455 -0.728285 0.51101 -0.49486 -0.170838 -0.750751 0.726759 0.899036 -0.820868 -0.231522 -0.612978 -1.23002 0.552186 0.179455 
-1.27404 0.451961 0.0248936 -0.277771 -0.181744 -0.630754 -0.665546 -0.010487 0.335859 -0.0617294 0.430105 -0.155932 0.146901 1.59127 -0.568331 -0.224879 0.407854 -0.925798 0.084867 0.164619 0.31978 -0.136714 -0.210234 -0.655258 -0.285006 0.0840937 0.820216 -0.0999622 -1.20556 -0.0262162 -0.293184 -0.0181802 
0.0574143 0.854533 0.272739 0.207631 -1.83884 0.506426 0.319099 -0.220259 -0.828716 1.48445 0.496137 -1.06292 -0.304537 0.369852 -0.0648377 -0.233425 -0.33737 -0.555853 0.751516 0.469751 -0.82427 -0.756253 -0.198049 0.100597 0.496516 0.569573 0.169903 0.262331 -0.132767 -0.597964 -0.324637 0.483288 
0.452693 -1.05569 0.526727 -0.487456 -0.22049 0.875837 1.92809 0.543969 -1.37775 -0.0969355 -0.620256 0.240445 0.758063 -0.719516 -0.401211 0.457105 -0.142683 0.598073 0.103564 0.617696 -1.02616 -0.263383 -1.15604 1.0677 -0.23344 -0.272785 0.173712 0.337841 0.105852 0.648781 -0.650347 -0.925801 
0.195509 -0.0155748 0.378652 0.484379 0.0697684 0.560772 -1.04222 0.528613 0.228382 -1.0516 -1.78392 0.731792 -0.184305 0.000438419 -0.0627968 1.03242 -0.180285 -0.214712 0.732308 0.808254 0.250786 0.827975 0.295442 0.133013 0.804973 0.322089 -0.633504 0.853239 1.12384 0.0687023 -0.0982906 0.416758 
-1.05619 0.681022 -0.445021 0.0865264 0.570235 -0.726454 -1.12813 0.78095 0.281886 0.30271 0.786012 -0.31265 0.298102 0.231739 0.553199 -0.648532 -0.216263 -1.70801 0.653056 -1.2014 -0.74799 -1.16286 -0.1043 -0.340364 -0.0596659 -0.247316 1.22143 0.335072 -0.938721 0.402916 -0.5599 0.508318 
-0.168889 -0.364825 -0.125433 0.447079 1.25382 0.358398 -0.988304 -0.872913 -0.446922 0.525377 0.192236 0.286887 0.39081 -0.80779 -0.157741 0.259104 -0.7147 -1.19473 0.634529 0.0860914 0.300408 1.01878 0.115062 -0.594141 -0.986149 -0.582442 0.766901 -1.57002 -0.149715 0.859516 0.481003 -0.310679 
1.39249 0.366981 -0.311828 -0.355573 -0.310447 -0.752108 -0.218732 0.100928 0.524555 -0.0664879 0.158854 0.149092 -0.402734 0.124388 -0.259532 0.0301363 0.282318 0.245268 0.681263 0.843458 0.669787 0.0358357 0.558756 0.2849 -0.363669 -0.437916 0.476214 -0.325928 -1.17369 0.790436 0.187203 0.315306 
0.31501 -0.518183 0.667567 -0.405467 -0.0495101 -0.0672435 0.440317 0.69251 -0.592877 -0.104303 1.16673 0.247823 0.422854 0.221196 -0.615059 0.418772 0.745954 -0.54255 0.824545 0.327808 -0.612048 -0.45051 -0.976246 -0.135888 0.599878 -0.262833 0.899426 -0.333616 0.242596 -0.375134 -0.390771 0.499439 
0.761171 0.0658249 1.24549 -0.169636 0.541051 -0.29062 -0.644743 0.669392 0.72951 1.49085 0.0215921 0.337092 -0.211599 -0.104041 0.703029 0.124679 -0.176047 -1.30939 -0.752862 0.0888254 -1.17334 -1.45956 1.43231 -0.0372109 -0.626985 0.390272 -0.74772 -0.388261 0.508004 0.656503 0.619594 0.532243 
0.826002 -0.680806 -1.11157 1.26278 0.546448 1.11192 -0.314949 -0.792833 -0.0514612 0.00187552 -1.25707 -0.344818 0.552514 0.560441 0.175574 0.194442 0.224682 0.547767 0.351702 0.262926 0.0335758 -0.810561 0.0330586 0.159015 0.5848 0.50191 -0.44459 -0.176865 0.359612 -0.0773467 0.772662 -0.141232 
0.26631 1.04495 -0.736853 -0.277275 -0.659912 -0.397724 0.0885555 -0.935015 -1.47321 0.403012 0.283408 0.394747 -1.48901 -0.475779 0.960138 -0.168764 -1.29363 -0.178042 -0.251673 0.104021 0.020547 -1.69461 0.0379514 -0.724103 0.128346 0.39841 0.279395 -0.563468 -0.12312 0.548918 0.143889 -0.0722965 
-0.77384 -0.502858 -0.623554 0.368344 -1.49162 -0.512594 -0.269153 0.551811 0.117314 0.78329 -0.363635 -0.6985 0.57259 0.499809 -0.926228 -0.0907455 0.8363 0.557058 0.415719 -0.0152211 0.0530636 -0.0447258 -0.203267 -0.493776 1.09642 0.498098 1.0101 -0.212259 1.65197 -0.201038 -0.148194 0.128565 
-0.20876 -0.407367 0.0475432 -0.570233 0.0161397 0.920442 -0.0932026 0.0952977 0.57466 -1.51474 0.015574 -0.100768 -1.74423 -0.0941709 0.498204 -0.14353 -0.445591 0.344023 -0.00513933 -0.176741 0.845404 0.409763 1.44066 0.0137196 -0.455458 -0.970861 0.885468 0.529021 -0.330859 0.488673 -0.486294 -0.0214586 
0.817615 0.661263 0.545817 -0.115504 -0.685308 0.38628 -0.485975 -0.625382 0.546036 0.718134 -0.135404 -1.09711 -0.219297 0.932587 -0.214651 0.317897 -0.0303514 0.552488 -0.0294522 0.570337 -0.861576 -0.10277 0.806771 0.00456958 0.461298 0.803299 -0.205972 -1.39859 -0.269643 -0.819321 0.472438 -0.151185 
-0.541885 -0.223562 -0.428171 0.373131 0.00125256 0.662805 -1.92852 -0.407884 -0.773731 0.0383018 0.496978 0.830849 -0.679822 0.428058 0.889179 0.579112 0.162796 0.248048 -0.10608 -0.0170612 -0.765484 0.538053 0.27235 -0.43504 0.311209 0.734757 -0.945149 -0.0358786 -0.252429 0.367842 -0.245606 0.0392534 
0.840728 0.109525 -0.585982 -0.525621 0.16922 0.242884 0.640428 0.262857 1.71329 0.546274 -0.759567 0.224354 0.223762 0.513774 -0.353779 -0.170282 -1.05974 0.0174839 0.0624221 -0.589067 -0.364565 -0.15861 -0.714928 0.113648 0.173503 0.878693 0.156002 1.15074 0.59711 0.492783 -0.420939 0.584668 
0.136554 -0.0683528 -0.339436 0.788194 0.743323 0.490346 0.929261 -0.58807 -0.57628 0.809685 -0.820998 -0.288119 -0.288391 0.297717 -0.252906 0.873383 -1.14062 0.511206 -0.463529 0.806286 0.205691 -0.366189 0.676718 0.93936 1.44826 -0.0393095 0.507167 -0.878761 -1.27859 0.704067 -0.605079 -1.26566 
-0.391782 0.236957 -0.643071 -0.377955 -0.694315 -0.220278 0.606247 -0.0281941 0.735823 -0.109275 -0.225541 0.513047 -0.0576653 -0.348392 -0.124896 0.53349 0.113222 0.535472 0.324119 0.289256 -0.470404 0.975383 0.486287 -0.407717 -0.975946 0.387577 -0.506562 -0.750383 -0.836935 -0.164611 -0.295084 -0.288646 
-0.0650816 -0.491156 0.51246 -0.22752 0.683653 0.284111 0.36178 0.705883 -0.0667424 0.340975 -0.173582 0.451433 -0.226311 0.680723 1.60965 0.488418 -0.900309 0.639446 -1.05046 -0.194099 0.97981 0.888675 -0.716989 0.445963 0.380428 0.599125 -0.125733 0.625477 0.328214 0.914984 -0.28637 -0.863057 
0.0663318 -1.61444 -0.398844 0.936021 -0.701324 -0.524824 0.0791448 -1.55788 1.07653 -1.24358 -0.871037 -0.655983 -0.462938 -0.779847 1.06374 -0.480436 0.173873 0.512529 -0.32505 -0.309621 0.523046 0.390402 -1.28568 -0.0705243 -0.728484 0.335738 -0.555023 -0.413868 0.067971 -0.20386 -0.202515 -0.167999 
-0.72337 0.995552 -0.117347 0.0811084 -0.715732 -0.767095 -0.531433 0.14505 -0.401641 -0.839961 -0.992691 -0.709486 -0.0872714 -0.404047 -0.345218 0.983116 -0.26203 0.601409 -0.235543 -0.714872 0.186683 -0.292985 0.169871 -0.505355 1.63169 -0.224368 -1.07288 0.705688 -0.464634 -0.255599 -0.486432 -0.450484 
-0.389667 -0.624065 -0.071642 -0.145218 -0.728913 0.563325 0.342417 -0.529433 0.417696 0.631145 -0.475724 0.108743 0.0159513 0.476693 -0.622705 -0.0312117 -0.221815 -0.156117 -0.857237 1.00835 -0.0239948 -0.00396429 -0.0291777 0.0451707 0.0137518 -0.473559 0.48435 0.551366 -0.0813599 0.835251 -0.327592 0.750285 
0.473026 -0.020959 -0.832718 0.0770794 -0.436321 -0.384917 0.830995 0.281345 0.862663 -0.830312 0.936319 0.113031 -0.312141 -0.591783 0.299748 0.299173 0.498358 0.618843 -0.743568 -0.00479644 -0.840296 -0.0114705 0.934853 0.575688 -0.121071 1.18864 -0.861719 -0.184395 -0.26606 -0.459273 0.622513 -1.0404 
-0.475846 0.208098 -0.953055 -0.386771 -0.317869 0.43906 -1.35539 -0.197223 0.335519 -0.569667 -1.02022 0.703251 0.593842 -0.715114 0.186934 0.180965 -1.12867 0.187787 -0.880359 0.322988 0.148484 -0.967394 -0.983023 0.646839 0.519822 1.4478 1.37438 -0.0046147 -0.653426 0.279543 0.714164 0.0889824 
0.473211 0.576926 -0.673833 0.891843 -0.0231532 0.432047 0.623592 -0.947257 0.0754351 0.221861 0.293853 -1.45653 -1.98127 0.262402 -0.321051 0.222463 0.16611 0.104986 -0.260868 0.445791 -0.46636 0.226543 0.0985924 0.145676 -0.428549 -0.099848 0.352731 0.188536 0.478436 -0.767262 -0.415687 -0.202269 
-0.870949 1.28773 -0.275409 -0.693398 0.369531 0.276279 -0.288053 0.263927 -0.117157 1.08358 -0.766492 0.110343 0.691153 -1.90631 -1.13175 -0.345888 -0.182955 -1.00638 -0.25563 -0.717564 -0.172945 -2.10866 -0.242801 0.101745 0.388043 -0.25005 1.08147 -1.05374 -1.71676 0.775231 -0.146058 -0.358844 
0.309174 -0.6298 0.759451 -0.67942 -0.391059 -0.0564793 -0.558234 -0.684926 -1.52189 -0.417424 0.34644 1.07594 0.0623679 -0.435978 -0.453159 -0.110255 -0.556997 0.367557 -0.613494 1.53337 0.491832 0.99813 0.434385 -0.694189 -0.234508 -0.173557 -0.520408 -0.0793561 1.49826 -0.417393 -1.13541 0.134319 
0.489566 0.973243 0.179748 1.57333 0.299851 -0.562147 -0.748536 -0.412326 0.299438 0.944656 0.090914 0.496095 0.662025 0.0218185 0.785576 -0.0643934 0.242546 -0.157546 -1.07179 1.41058 0.0737078 0.499824 0.0991588 -0.661024 -0.224457 0.401881 -0.815518 -0.109261 -0.216962 -0.354273 0.758892 0.115286 
0.181372 0.317898 0.0815489 -0.919623 -0.00701567 0.238985 0.356692 0.599126 0.0460172 -0.723931 0.405228 0.0832557 0.42727 -0.326685 -1.14463 -0.693482 -0.516462 -0.0791836 1.05268 -1.23291 -0.102745 0.462489 0.823497 0.572863 0.799669 -0.567895 0.0268387 0.309113 -0.45984 -0.119484 -0.717309 -0.956438 
0.200367 -0.185017 -0.440657 -0.420482 -0.0112627 -0.42552 -0.936592 -0.347252 -0.702962 -0.266057 -0.324296 0.267509 0.330312 0.910984 0.405093 -0.401778 0.511427 0.229044 -0.183874 0.275623 0.831592 -0.00403428 0.96905 0.287882 0.49871 1.25495 0.000175274 1.03778 1.61165 1.11538 -1.40374 1.02756 
0.0200187 0.933999 -0.0260775 1.10263 0.254712 0.311243 -0.396378 -0.285272 -0.299454 -0.32272 -0.332564 0.484884 0.735144 -0.562022 -0.564036 0.585424 -0.165175 0.204843 1.16979 0.55876 -1.12911 0.0889478 -0.0193919 0.00970154 0.361783 0.406265 -0.232689 1.16582 0.255896 0.108193 -0.15555 -0.598661 
0.512775 0.875343 0.346362 -0.0386233 -0.595876 -0.339048 -0.690867 0.150495 0.202227 -0.133251 0.235633 0.0833793 0.229144 -1.08088 0.938585 0.471663 0.351764 0.0820919 -0.487712 0.647483 0.492342 0.462861 0.495141 0.123234 0.635876 0.309206 0.994149 0.117395 -0.20942 0.477509 -0.195582 -0.132907 
0.269992 0.200285 -0.254858 0.0707593 0.326164 -0.203864 0.879125 -0.441485 -0.836469 -0.79593 -0.00916869 -0.0962803 1.20064 -0.333811 1.15266 0.30182 -0.561368 -1.16675 -0.102252 0.762871 -0.473683 0.743194 1.20458 0.227553 0.0397943 -0.87029 -1.20377 0.231815 0.0019126 0.14004 -0.258871 -0.612113 
0.749409 -0.432688 0.0982766 -1.32842 0.483047 -1.21877 -0.282463 -0.23007 -0.215319 -0.222278 0.174296 0.518122 -0.318726 0.622925 0.041229 0.631027 0.128158 0.513943 -0.641506 -0.213025 0.54615 -0.567659 0.160378 0.326349 0.528499 0.692742 0.437447 -0.406213 -0.730148 -0.80941 -0.841784 -0.210686 
-0.398068 0.299634 0.252354 -0.356698 -0.701859 -0.287296 -0.992272 0.693772 -0.284334 0.881327 0.851199 0.177281 -0.0377185 -0.707098 0.882533 0.447919 0.0500193 0.236687 -0.509225 0.0401809 -0.272231 1.21885 -0.57979 -1.07098 -0.163571 0.121657 -0.858494 -0.232649 -0.537848 -0.763634 -0.09006 0.420155 
0.374929 0.573198 0.0859214 0.156342 -0.138571 0.514865 -0.367782 0.281459 -1.08486 -0.0899355 -0.513973 -0.227937 0.497722 0.278291 0.599668 -0.37146 -0.587761 0.0267547 -0.476906 0.831794 -0.388259 0.00194982 1.4159 0.830032 0.110696 0.0740568 0.514822 -1.08567 0.362288 -1.14754 -0.553991 -0.0130563 
0.812407 0.0253744 0.32424 0.112626 1.09924 0.292873 0.781265 -0.490085 -0.449198 0.468546 0.475829 0.819628 -0.112725 -1.00869 0.447503 -0.0882017 0.460941 -0.777271 0.133141 0.493233 0.289334 0.815034 0.767112 -0.376739 -0.566764 0.170033 -1.91726 -0.33297 1.62638 -0.23979 0.369629 -0.443027 
0.251107 -0.0714448 0.508132 -0.517988 0.397303 0.973793 0.375154 0.186418 0.0700955 0.303856 -0.0237279 0.10821 0.48054 0.998001 -0.244309 0.697694 -0.0103173 0.78976 -0.285047 -0.442729 -0.358786 -0.875001 0.961023 0.643439 0.0540536 0.951993 0.788295 1.60577 1.03366 0.14196 0.826189 -0.0702163 
-1.19956 -0.295658 -0.621205 0.521965 0.1344 -0.192172 0.438686 -0.764366 -0.966887 -0.197174 0.285744 -0.970262 -0.43748 -0.589221 0.068876 -0.55189 -0.668789 0.127277 0.542244 0.192273 -0.380127 -1.25916 0.292355 -0.717913 -0.0224478 0.646383 0.137728 -0.790447 -0.895864 -1.37335 -0.111521 -0.219113 
-0.333265 -0.2325 0.333736 -0.589373 0.583423 -0.982045 0.501816 -0.729865 -0.0111103 -0.515132 0.272785 -0.036978 0.305015 -0.691936 -0.0718146 -1.5499 -1.32871 0.209173 0.514514 0.0226149 0.0867502 0.072676 -0.239997 -0.25718 -0.519316 0.220111 0.589631 0.257968 0.337958 -1.00532 -1.54404 -0.153978 
0.221988 0.976893 0.464354 -0.351155 -1.70458 0.132684 0.280119 0.182123 1.6472 -0.803021 -0.0442435 0.322332 0.571759 -0.0125528 0.885261 0.0648941 0.416817 1.14098 -0.174744 0.0839156 -0.543348 0.579876 -0.501106 -0.754363 0.0247786 0.277242 -0.0506963 0.882788 -0.646851 0.205394 -0.314922 -0.594745 
-0.160451 0.0387128 -0.447682 0.620282 0.755252 -0.344271 1.10133 -1.03448 0.114877 -0.736625 -0.662041 0.856408 0.423795 -0.667695 0.283364 0.817536 -1.82432 0.150896 -0.816601 0.773345 0.238316 -0.0225929 0.835115 -0.548821 0.161405 -0.371976 -0.017207 0.60197 0.312725 -0.873433 -0.341258 0.312282 
0.552405 -0.581107 -0.338263 -0.0268131 0.0519216 -0.853009 0.844743 -0.392593 -1.26998 0.39423 -0.916341 0.226006 -0.82942 -0.529476 -0.209343 -0.263222 1.39947 -0.853088 0.102219 0.302078 0.119012 0.321284 0.0542649 -0.16071 -1.52337 -0.00222036 0.0958904 -0.879144 -0.720425 0.158567 0.0852939 -0.194904 
0.793033 -1.75498 0.928553 -0.152416 -0.877143 -0.645442 0.0230149 1.10404 -0.0434052 0.276411 -1.09526 -1.24566 0.396168 0.0924237 -1.5255 -0.0135275 -0.210062 -0.276024 0.00507418 -0.335081 -0.272284 -1.50752 -0.302188 -1.12197 -0.604404 1.46587 -1.45822 0.220342 0.122913 -0.471519 -0.150937 0.237407 
0.708875 0.408771 1.46637 0.289225 -0.0932089 -0.721013 -0.617318 -0.0439888 -0.334316 0.14853 -0.231048 0.79421 0.679165 -1.20101 -0.108746 -0.586157 0.489226 0.403821 0.445247 -0.566553 -1.54951 0.827731 -1.64187 -1.0698 0.924285 -0.377014 0.425606 -0.33289 0.155639 0.641738 -0.122989 0.585353 
-0.380233 0.354993 0.112142 -0.568254 0.772661 0.163397 -1.46409 -0.362881 -0.958345 -0.0405664 -0.325997 -0.637653 0.277408 -1.20734 0.790746 -0.389823 0.214971 1.08611 0.65494 -0.506829 -0.91968 1.27446 -0.359118 -0.0482002 -0.304807 0.321907 -0.56753 0.402972 -0.784513 0.59796 -0.404945 -0.0689341 
0.337628 0.549928 0.288374 1.35974 -1.06631 0.00806495 -2.04028 0.445476 -1.41287 0.428043 -0.184684 0.668855 -0.281093 0.822832 1.0749 0.425865 0.878969 -0.705767 -0.334079 1.06643 0.0813708 -0.233781 0.198696 -1.03345 -1.24258 0.139291 0.168909 0.201726 0.52911 0.0173647 -0.0749631 -0.322398 
0.0146194 -0.165489 -0.810975 -0.962763 0.62726 -0.447625 -1.31198 -0.00314516 0.588541 -0.647113 0.0451428 -0.319417 0.473504 0.00604798 0.44989 0.490051 -1.02283 0.804197 0.432852 0.153527 0.132024 0.0845104 0.447398 0.789935 1.28242 0.622761 -0.457131 0.687406 -0.856585 0.0615231 -0.319302 1.18984 
-0.292161 -0.127996 0.0268879 -0.677988 0.306211 -0.631143 1.30348 0.965536 1.02148 0.0472237 -0.232533 -0.0121348 -0.270751 0.370856 0.407341 0.22269 1.04511 0.246587 0.31317 -0.199807 -0.463049 0.631599 -0.373778 -0.979218 -1.15385 0.721608 0.211578 -0.353366 0.820845 -0.459026 -0.177447 0.977473 
0.66066 -0.983856 0.49164 0.272582 -1.05437 0.854378 1.43526 0.33099 0.734727 1.44355 -1.12748 0.522376 0.63214 -0.467902 -0.19677 1.29993 0.43148 1.19119 0.362329 -0.428894 0.0711214 0.580137 0.232594 -1.23295 0.363952 -0.221549 1.13163 0.0943806 -0.18791 -0.3616 -0.118535 0.383079 
0.0429602 0.141172 0.643288 0.570678 0.747109 0.127965 0.376471 -0.85835 0.875625 -1.19204 0.775981 0.737101 0.140462 -0.624354 0.401152 1.48431 0.192612 -0.886678 -0.896438 -0.354515 0.787984 -0.79348 -0.173466 0.227436 -0.977457 -0.376548 1.08814 0.0359562 0.672582 -0.205963 -0.982494 0.503139 
-0.886109 -0.476918 -0.0345347 -0.207447 -0.952493 -0.588013 -0.155307 1.08467 -0.641181 0.134408 0.998429 -1.04581 -0.567086 -0.439117 0.243577 0.262825 0.165153 0.929974 0.000448514 -1.01265 -0.0343935 -0.124225 -0.162389 1.32354 1.1574 -0.883331 0.699906 -1.0123 -0.245367 0.34786 1.0017 -0.761061 
0.179401 0.872434 -0.43022 0.0962137 -1.19375 0.421968 -0.712449 -0.631614 -0.210099 0.0859397 -0.328035 -0.0758023 -0.20992 -0.579188 0.14169 0.357921 0.712463 -0.080035 0.450002 0.137698 -0.0777485 0.704575 -1.62249 -1.19267 -0.0394529 -0.901632 0.924093 -0.839405 0.595951 -0.274388 0.461474 -0.464558 
-0.538199 -0.554605 -0.749273 0.307573 -0.365978 0.318591 0.274052 0.23489 -0.238 -0.156304 0.199742 0.0741457 0.0738538 0.0765391 0.731451 0.552567 0.541734 0.4997 0.0171938 1.17901 0.0700644 -0.628654 -0.331534 -1.39547 -0.525895 -0.0434299 -0.59974 0.077957 -0.497809 0.702251 0.341022 -0.0780065 
#
0.456088 
0.266794 
0.428195 
-0.541818 
-0.372775 
-0.563641 
-0.143728 
-0.575251 
1.20594 
-0.629449 
-0.409399 
-0.527028 
0.364999 
0.144463 
0.16327 
-0.170151 
0.302869 
-0.0250311 
0.240582 
0.942716 
-0.779193 
-0.755239 
-0.0102563 
-1.25564 
0.95294 
0.425744 
0.188019 
0.0682005 
0.0166493 
0.21119 
1.19967 
-0.776328 
#
