0.409452 -0.140715 -0.235059 -1.26253 0.820343 -0.10399 -0.39386 -0.605164 1.09262 -0.212277 1.15239 -0.947181 0.216979 -0.0101186 -0.185752 0.289697 -0.414333 1.00464 1.01119 0.829459 0.0160657 0.387459 -0.476702 -0.794421 -0.0248662 0.723699 -0.104282 0.174144 -1.13514 0.39115 0.00358789 -0.938441 
0.21531 0.335876 1.6573 0.180886 -0.736997 -0.880261 -0.536789 0.974046 -0.969039 0.210856 -0.178757 0.134534 1.08682 0.150086 -0.206607 0.900835 -0.804105 -0.635311 -0.258162 -0.389838 0.0925385 -1.16088 -0.838792 -0.347204 1.37188 -0.00615713 0.430992 -1.05318 1.15746 -0.20343 -0.380164 -0.080378 
0.151305 0.115837 -0.209557 -0.0276299 0.466064 0.368402 0.135434 0.450348 -0.726461 -0.205103 0.909728 -0.907711 0.774794 0.875397 -0.0192122 -0.469779 -0.377952 -0.0110955 0.611586 0.782995 0.851409 0.0904227 1.28737 -1.38941 0.340099 -1.02131 0.414913 -0.508032 0.740039 1.03547 0.808486 1.61302 
0.0499899 -0.376383 -0.000801461 -0.0247816 -0.333213 0.730868 -1.28597 -0.179768 -0.151253 0.243059 -1.99383 -0.192669 0.823911 -0.659655 -0.866543 -0.190033 0.174238 0.755909 -0.882454 0.176987 0.436173 0.518062 -0.463759 0.259027 0.479767 0.0677877 0.762454 -0.0522518 -2.248 -0.0448136 0.201792 1.10682 
0.298941 0.389586 0.611555 -0.30161 -1.47098 0.190439 0.576478 -0.492339 -0.200458 -0.42029 -0.178057 -1.04137 0.357084 0.519231 1.22667 0.272765 0.504233 -0.282648 -0.0929506 1.15055 0.0803018 0.14202 -0.490048 1.62351 -0.29225 -0.397833 0.763186 0.0638667 0.945985 1.08163 -0.234296 0.308122 
-0.506801 0.505299 -0.283628 0.0208795 -1.032 -0.541233 0.256097 -0.879062 -0.515549 0.17743 0.568378 -0.869658 -0.763354 0.0408287 -1.13772 -0.494751 -0.26773 -0.326374 -0.0868935 0.811179 -1.45378 -0.366962 -0.333697 0.209176 -0.971573 0.367211 0.315776 0.63671 -0.399776 1.26036 1.14248 0.304986 
1.26784 0.213263 1.20155 -0.123922 -0.67987 0.451474 0.0547875 0.0192366 0.3957 -0.642095 0.406448 -0.26499 -0.496619 -0.483668 0.096287 0.176128 -0.384596 0.280468 0.888256 0.167708 0.681037 -0.378735 -0.187313 -0.984195 -1.13253 -0.00978415 0.642446 0.377424 -0.130566 0.237795 0.866347 0.143598 
-0.189216 0.478297 -1.01448 0.558933 -0.847483 0.051639 0.00654695 -0.0164002 0.607858 0.233399 0.448503 -0.631947 0.693186 -1.42549 0.238477 0.12376 0.225523 0.0960192 0.300438 1.02353 -0.935198 1.00212 -0.233732 -0.0743009 -0.612111 -0.492815 -0.230486 -1.28997 0.495535 0.322862 -1.07937 -1.00241 
-0.243186 0.0635113 0.102553 0.70824 0.625689 0.0484223 0.597501 -0.74373 0.682512 -1.07671 0.154854 -0.506394 -0.0772979 -0.949031 -0.550783 0.0441521 0.386461 0.593916 1.2707 0.0680457 0.831806 0.735073 -1.0838 1.05249 0.437935 0.62331 -0.452281 0.584743 0.182057 0.708916 0.46944 -0.0630864 
-0.0367044 -0.130746 0.621297 0.764223 -1.76612 0.69067 -0.734158 0.583563 -0.854915 0.431942 0.391688 -1.2205 0.0131577 0.472366 -1.39738 -0.111511 0.747851 0.011533 0.793347 -0.730686 0.510495 -0.492364 -0.169322 -0.750638 0.728489 0.900608 -0.819843 -0.234008 -0.612859 -1.2282 0.553986 0.177357 
-1.27543 0.452088 0.0267444 -0.278336 -0.180558 -0.630268 -0.66607 -0.00818275 0.334126 -0.0633179 0.430717 -0.156692 0.145439 1.59312 -0.567666 -0.226141 0.406522 -0.925736 0.0859165 0.164262 0.318035 -0.136368 -0.208304 -0.657894 -0.283851 0.0833932 0.818384 -0.0978303 -1.20758 -0.0259142 -0.292647 -0.0199912 
0.0568456 0.854546 0.271824 0.209607 -1.83872 0.507956 0.321566 -0.218965 -0.831055 1.48447 0.495945 -1.06177 -0.301869 0.367536 -0.0662874 -0.233301 -0.33992 -0.554111 0.750723 0.468781 -0.823136 -0.753976 -0.196406 0.0987279 0.497357 0.570528 0.170386 0.262413 -0.134793 -0.5993 -0.325213 0.485781 
0.45353 -1.05642 0.527327 -0.488353 -0.218683 0.873201 1.92849 0.541973 -1.37561 -0.0960765 -0.622712 0.241542 0.760079 -0.71759 -0.403516 0.454993 -0.145085 0.598411 0.103117 0.619256 -1.02725 -0.26334 -1.1576 1.06817 -0.233076 -0.274092 0.171072 0.33845 0.108407 0.647172 -0.649689 -0.9238 
0.197508 -0.0139514 0.38053 0.486119 0.0693693 0.560318 -1.04322 0.529975 0.230415 -1.05028 -1.7823 0.733002 -0.184114 0.00226898 -0.0606473 1.0304 -0.178066 -0.215744 0.733476 0.810564 0.248241 0.827571 0.296704 0.130692 0.805525 0.321119 -0.635158 0.852468 1.12438 0.0685934 -0.0961556 0.4166 
-1.05447 0.683261 -0.446664 0.0840155 0.571601 -0.723912 -1.12634 0.781515 0.282145 0.302996 0.787759 -0.314971 0.297834 0.233654 0.551733 -0.6508 -0.2157 -1.70697 0.655156 -1.19987 -0.748715 -1.16311 -0.102059 -0.339668 -0.0598421 -0.249694 1.22376 0.332437 -0.937932 0.402485 -0.558097 0.510096 
-0.170256 -0.362634 -0.1254 0.447458 1.25537 0.360129 -0.989794 -0.875556 -0.448501 0.526298 0.191303 0.285675 0.389463 -0.805244 -0.157928 0.257176 -0.712547 -1.19572 0.632458 0.0879205 0.298346 1.01837 0.116865 -0.592893 -0.986191 -0.584911 0.765358 -1.57056 -0.148545 0.862028 0.479743 -0.311651 
1.39184 0.369578 -0.311685 -0.354937 -0.308769 -0.749502 -0.217875 0.100375 0.524641 -0.0672727 0.159364 0.148922 -0.40294 0.122803 -0.26101 0.0275198 0.282947 0.245293 0.683924 0.845813 0.67046 0.0358478 0.560813 0.285804 -0.365057 -0.437706 0.478371 -0.324874 -1.17121 0.790583 0.18985 0.315274 
0.316891 -0.520686 0.669437 -0.403599 -0.0480754 -0.0650762 0.437751 0.693135 -0.594489 -0.10367 1.16896 0.248833 0.421145 0.219054 -0.6161 0.418991 0.745548 -0.542829 0.82528 0.325296 -0.610846 -0.45194 -0.977729 -0.135365 0.597777 -0.264263 0.899402 -0.331723 0.239989 -0.373681 -0.389643 0.500403 
0.763465 0.0656909 1.24725 -0.168267 0.54361 -0.292969 -0.645374 0.668144 0.727875 1.48886 0.0227488 0.337212 -0.213621 -0.103023 0.702115 0.127145 -0.178501 -1.3073 -0.750566 0.0894875 -1.1737 -1.45893 1.43248 -0.0384289 -0.628961 0.391762 -0.748771 -0.387303 0.507284 0.656891 0.619158 0.530501 
0.828225 -0.683068 -1.11251 1.26062 0.545488 1.11146 -0.316392 -0.791536 -0.0528387 0.00264758 -1.25564 -0.346875 0.549935 0.560143 0.174659 0.194821 0.224046 0.549688 0.35069 0.264916 0.0336402 -0.808923 0.0320974 0.158925 0.583412 0.503135 -0.444793 -0.175886 0.361702 -0.0765632 0.772578 -0.139975 
0.266664 1.04413 -0.735531 -0.27909 -0.657437 -0.395179 0.0860673 -0.932558 -1.4721 0.404077 0.282872 0.395276 -1.48875 -0.474115 0.961097 -0.168942 -1.29384 -0.175836 -0.253597 0.105265 0.0186041 -1.6936 0.0375737 -0.724448 0.125692 0.398061 0.279464 -0.561099 -0.12184 0.54795 0.143007 -0.0728221 
-0.772701 -0.502459 -0.622749 0.366958 -1.49396 -0.510625 -0.267272 0.554152 0.116023 0.785491 -0.365384 -0.699744 0.57248 0.500331 -0.925457 -0.088429 0.835653 0.557777 0.418387 -0.016597 0.0523183 -0.0435425 -0.204231 -0.492508 1.09413 0.498433 1.01229 -0.212753 1.65342 -0.203536 -0.149438 0.128471 
-0.207724 -0.407656 0.0492467 -0.571193 0.0160592 0.920419 -0.0909276 0.095622 0.575233 -1.51488 0.0158172 -0.0987531 -1.74446 -0.0931937 0.500446 -0.143219 -0.442994 0.346233 -0.00733612 -0.175402 0.846648 0.410704 1.43945 0.0150871 -0.454884 -0.972786 0.883601 0.527008 -0.330454 0.490028 -0.486907 -0.0238046 
0.81765 0.66331 0.547898 -0.11766 -0.686973 0.386917 -0.483966 -0.625479 0.547748 0.715864 -0.137074 -1.09885 -0.220916 0.933965 -0.216251 0.319789 -0.0327381 0.550601 -0.0304364 0.571758 -0.862009 -0.102286 0.80793 0.00338308 0.460483 0.804403 -0.208154 -1.4011 -0.269559 -0.819396 0.470829 -0.152259 
-0.540112 -0.226014 -0.427436 0.372267 0.00321654 0.660814 -1.92758 -0.408448 -0.776307 0.0379405 0.497595 0.83218 -0.677583 0.430726 0.890715 0.580678 0.161768 0.248017 -0.108254 -0.0183065 -0.767712 0.540297 0.272915 -0.432958 0.313261 0.735451 -0.944319 -0.0368818 -0.252317 0.369675 -0.247206 0.0415489 
0.839643 0.107283 -0.58611 -0.524356 0.167645 0.244822 0.642548 0.265291 1.71282 0.547857 -0.760067 0.22313 0.221417 0.514191 -0.354072 -0.168381 -1.05976 0.01986 0.0616504 -0.591175 -0.362429 -0.161156 -0.712383 0.112143 0.172095 0.879593 0.154809 1.15254 0.595488 0.492611 -0.420493 0.587166 
0.135389 -0.0685544 -0.33797 0.786276 0.744612 0.491309 0.928054 -0.589206 -0.576901 0.810224 -0.823006 -0.28998 -0.290168 0.29533 -0.254462 0.873731 -1.13843 0.511004 -0.461563 0.804182 0.208228 -0.363943 0.679353 0.937723 1.44731 -0.0390545 0.507154 -0.881269 -1.28014 0.704808 -0.605235 -1.26427 
-0.391996 0.235005 -0.642005 -0.375986 -0.696795 -0.22138 0.603839 -0.0301905 0.73782 -0.111408 -0.227793 0.512304 -0.056334 -0.350101 -0.125065 0.531866 0.112752 0.537015 0.323345 0.290946 -0.469032 0.976559 0.483783 -0.407953 -0.976733 0.388904 -0.508285 -0.751001 -0.835031 -0.164767 -0.295069 -0.290311 
-0.0676038 -0.490411 0.514681 -0.227146 0.682699 0.283 0.362219 0.708155 -0.0683226 0.341857 -0.17372 0.453857 -0.227099 0.68067 1.61146 0.48966 -0.90084 0.641046 -1.04783 -0.196075 0.979064 0.887093 -0.715214 0.444022 0.378469 0.598919 -0.127669 0.6268 0.326423 0.916763 -0.288652 -0.863679 
0.0671914 -1.61689 -0.397223 0.934325 -0.703564 -0.524455 0.0791314 -1.55743 1.07753 -1.24554 -0.870791 -0.656586 -0.461546 -0.777473 1.06625 -0.478768 0.172136 0.514835 -0.323925 -0.307063 0.524484 0.392973 -1.28739 -0.070333 -0.730515 0.334627 -0.553874 -0.414067 0.0683075 -0.203739 -0.203685 -0.165944 
-0.722349 0.993963 -0.115312 0.0785873 -0.715689 -0.766807 -0.533589 0.144465 -0.400257 -0.841969 -0.991498 -0.709645 -0.089383 -0.401964 -0.345954 0.984162 -0.260371 0.599354 -0.236604 -0.712883 0.186493 -0.292601 0.16739 -0.502904 1.63179 -0.223948 -1.07397 0.706126 -0.463608 -0.25381 -0.485303 -0.448745 
-0.392125 -0.62669 -0.0714863 -0.145572 -0.730513 0.565595 0.341308 -0.529313 0.417749 0.629245 -0.476545 0.108891 0.0177932 0.475932 -0.623454 -0.0285448 -0.221389 -0.154622 -0.859889 1.01056 -0.0258825 -0.00599739 -0.0293364 0.0428105 0.0153865 -0.47408 0.485954 0.553254 -0.07894 0.837401 -0.325547 0.749703 
0.472087 -0.0182966 -0.831186 0.0748432 -0.434204 -0.385206 0.829449 0.280522 0.860998 -0.831922 0.93482 0.115333 -0.310498 -0.591853 0.299186 0.299056 0.499641 0.620491 -0.744067 -0.00633392 -0.841097 -0.0112364 0.936148 0.578107 -0.119382 1.18619 -0.86254 -0.18563 -0.264665 -0.459349 0.622178 -1.03964 
-0.473462 0.207127 -0.951464 -0.386928 -0.316932 0.437542 -1.35735 -0.196384 0.335272 -0.569693 -1.02027 0.705335 0.594212 -0.712639 0.185902 0.178825 -1.12664 0.189505 -0.882591 0.325478 0.148064 -0.965289 -0.985225 0.645941 0.521929 1.44808 1.37207 -0.00487277 -0.652295 0.277336 0.71631 0.0914238 
0.475827 0.577646 -0.671498 0.889465 -0.020642 0.434551 0.624076 -0.947143 0.0740335 0.22207 0.292893 -1.45812 -1.98219 0.262985 -0.321072 0.22049 0.165059 0.106036 -0.2634 0.446485 -0.463935 0.225577 0.0972049 0.14722 -0.427966 -0.101464 0.353145 0.188665 0.479371 -0.766309 -0.41363 -0.201433 
-0.870666 1.28705 -0.274453 -0.694237 0.369435 0.273967 -0.289592 0.263791 -0.115005 1.08332 -0.765086 0.11298 0.692488 -1.90757 -1.13164 -0.347172 -0.180917 -1.00869 -0.25609 -0.716705 -0.173658 -2.10998 -0.24397 0.103595 0.389233 -0.250525 1.0815 -1.05327 -1.71798 0.777773 -0.143796 -0.35829 
0.309039 -0.628408 0.758525 -0.679418 -0.391212 -0.0552403 -0.55908 -0.686258 -1.52411 -0.416968 0.348023 1.07442 0.0647211 -0.434443 -0.451971 -0.111053 -0.554831 0.365251 -0.615446 1.53169 0.48919 1.00021 0.432821 -0.695671 -0.232289 -0.173225 -0.51919 -0.0778027 1.50033 -0.41566 -1.1373 0.135487 
0.487442 0.970725 0.180384 1.57075 0.297646 -0.563184 -0.746811 -0.410251 0.297735 0.946081 0.0909605 0.496047 0.659729 0.0223688 0.786774 -0.0647227 0.24359 -0.15815 -1.07166 1.4122 0.0724601 0.498068 0.101267 -0.661151 -0.226846 0.399267 -0.816747 -0.109832 -0.217725 -0.354389 0.75952 0.117523 
0.182353 0.317601 0.0797018 -0.919874 -0.00825702 0.239402 0.354579 0.597588 0.0445956 -0.721565 0.403149 0.0835383 0.427897 -0.32751 -1.14668 -0.69553 -0.516195 -0.0779669 1.05051 -1.23125 -0.102108 0.461602 0.822388 0.574289 0.797659 -0.569543 0.0275366 0.310709 -0.460337 -0.118891 -0.719125 -0.957112 
0.200349 -0.185084 -0.440721 -0.420205 -0.0113015 -0.424384 -0.938702 -0.347725 -0.700381 -0.263614 -0.322676 0.267517 0.328188 0.91159 0.404427 -0.401211 0.513514 0.230978 -0.18491 0.277203 0.830049 -0.00172977 0.969006 0.29045 0.496524 1.25472 -0.000912536 1.03782 1.61234 1.11611 -1.40353 1.02877 
0.0185522 0.936053 -0.0269953 1.10052 0.254956 0.313181 -0.398494 -0.287869 -0.297308 -0.323337 -0.330686 0.485518 0.734059 -0.560092 -0.564209 0.583387 -0.167169 0.206275 1.16716 0.557734 -1.12823 0.0900111 -0.019159 0.0073849 0.363096 0.40432 -0.231409 1.16472 0.254822 0.109027 -0.154467 -0.596801 
0.511339 0.875432 0.347854 -0.0390319 -0.598276 -0.337198 -0.692405 0.151755 0.199865 -0.135804 0.237054 0.084737 0.226956 -1.07944 0.936802 0.473454 0.350133 0.0826485 -0.489744 0.646377 0.491667 0.461874 0.495593 0.12577 0.633306 0.311794 0.992586 0.114959 -0.211922 0.474945 -0.197888 -0.133435 
0.271029 0.200123 -0.256135 0.0705151 0.323641 -0.203408 0.879485 -0.443414 -0.838162 -0.798428 -0.00912427 -0.0954705 1.20188 -0.332072 1.15305 0.301203 -0.560767 -1.16695 -0.100897 0.760756 -0.474337 0.741851 1.20372 0.229992 0.0423866 -0.868723 -1.20454 0.230788 -0.000142086 0.138595 -0.260429 -0.612079 
0.75038 -0.433775 0.0983196 -1.32583 0.483695 -1.21789 -0.28419 -0.230203 -0.21456 -0.224796 0.176529 0.519211 -0.31984 0.624833 0.0405172 0.632945 0.129967 0.513182 -0.643291 -0.211082 0.547498 -0.565596 0.161151 0.328539 0.526835 0.692987 0.439581 -0.408035 -0.73264 -0.810587 -0.842874 -0.211445 
-0.399344 0.300879 0.25084 -0.358177 -0.701651 -0.289333 -0.993463 0.693807 -0.285221 0.88335 0.851086 0.177876 -0.036485 -0.709625 0.883107 0.448039 0.0523341 0.236563 -0.507523 0.0407454 -0.273523 1.21984 -0.581244 -1.07104 -0.164831 0.124175 -0.85656 -0.23369 -0.535253 -0.761112 -0.0874812 0.421783 
0.377347 0.575705 0.088267 0.155619 -0.138255 0.514044 -0.365599 0.281947 -1.08516 -0.0917014 -0.513641 -0.227239 0.50037 0.276804 0.597393 -0.372136 -0.585655 0.0274408 -0.476596 0.832116 -0.389892 0.00331213 1.41816 0.829426 0.111975 0.0745546 0.512165 -1.08643 0.363014 -1.14937 -0.55514 -0.0147083 
0.814826 0.0265252 0.323105 0.113056 1.09936 0.294968 0.78296 -0.490583 -0.451524 0.466531 0.474835 0.818157 -0.111148 -1.0087 0.449066 -0.0886877 0.460238 -0.779389 0.131679 0.495497 0.289784 0.816887 0.769581 -0.375666 -0.567235 0.170705 -1.91809 -0.331973 1.62582 -0.242143 0.368173 -0.442996 
0.253748 -0.0734777 0.509759 -0.519587 0.39599 0.973364 0.37716 0.184209 0.0679983 0.305874 -0.021486 0.108772 0.480312 1.00065 -0.244773 0.695419 -0.00989176 0.789365 -0.285907 -0.441641 -0.35953 -0.876469 0.963294 0.645981 0.0559265 0.950634 0.788698 1.60787 1.03224 0.142865 0.826523 -0.0717236 
-1.20197 -0.293907 -0.618698 0.52279 0.131915 -0.191782 0.439382 -0.762922 -0.967691 -0.197992 0.287546 -0.970168 -0.435746 -0.588751 0.0698679 -0.554262 -0.667223 0.127449 0.541426 0.194359 -0.378587 -1.25803 0.294278 -0.715651 -0.0245884 0.648384 0.137183 -0.790326 -0.897069 -1.37303 -0.111969 -0.218162 
-0.332881 -0.233915 0.334523 -0.591373 0.583229 -0.979774 0.501435 -0.730153 -0.0112627 -0.516221 0.274854 -0.0385441 0.304381 -0.689374 -0.0709215 -1.55082 -1.32744 0.209331 0.511906 0.0240867 0.0872393 0.0713883 -0.241626 -0.255128 -0.519922 0.221625 0.589765 0.256523 0.339098 -1.00385 -1.54559 -0.15551 
0.224389 0.97901 0.464399 -0.348817 -1.70268 0.134838 0.281736 0.180842 1.64875 -0.802103 -0.0432552 0.322759 0.574269 -0.0114488 0.885065 0.0660799 0.416331 1.14332 -0.173871 0.0813549 -0.542499 0.578675 -0.498867 -0.756139 0.0225356 0.275018 -0.0499345 0.885398 -0.645693 0.204663 -0.312607 -0.59618 
-0.158978 0.0407445 -0.446955 0.620449 0.753073 -0.344539 1.1016 -1.03384 0.116825 -0.738662 -0.662381 0.855002 0.421162 -0.668863 0.284145 0.818253 -1.82571 0.148893 -0.814873 0.771566 0.238604 -0.0201774 0.834549 -0.547944 0.162854 -0.369798 -0.0147454 0.603447 0.312631 -0.872079 -0.342965 0.311872 
0.552233 -0.580148 -0.338181 -0.0285325 0.0535922 -0.851929 0.844455 -0.394425 -1.26923 0.395528 -0.917617 0.226794 -0.829436 -0.531486 -0.207638 -0.263525 1.39863 -0.853669 0.103809 0.303031 0.121231 0.323526 0.0517284 -0.159139 -1.52141 -0.00127339 0.0978755 -0.87693 -0.722603 0.160977 0.084134 -0.19527 
0.792763 -1.75753 0.926295 -0.151943 -0.875503 -0.645625 0.0227317 1.10634 -0.044232 0.274765 -1.09729 -1.24373 0.395242 0.0904406 -1.52488 -0.014862 -0.20935 -0.277396 0.00750935 -0.333485 -0.272011 -1.50681 -0.299857 -1.1215 -0.601987 1.46692 -1.4594 0.221948 0.122116 -0.471696 -0.1517 0.239502 
0.710744 0.410467 1.46755 0.290142 -0.0912345 -0.72243 -0.61625 -0.0413902 -0.334382 0.146323 -0.229334 0.792411 0.677667 -1.19965 -0.108193 -0.585312 0.486887 0.403767 0.447283 -0.564267 -1.54796 0.828883 -1.64196 -1.07165 0.922744 -0.379193 0.427191 -0.331348 0.153165 0.640557 -0.121022 0.58285 
-0.380266 0.352602 0.112512 -0.568366 0.77225 0.164025 -1.46156 -0.362255 -0.959754 -0.0416248 -0.324672 -0.636648 0.276601 -1.20578 0.790521 -0.387793 0.213342 1.08669 0.657155 -0.506219 -0.919674 1.27609 -0.358175 -0.0472239 -0.303081 0.323702 -0.569421 0.404596 -0.784099 0.598189 -0.40413 -0.0671243 
0.337592 0.547446 0.290246 1.35843 -1.06522 0.00836036 -2.04011 0.444203 -1.41265 0.428107 -0.187347 0.671012 -0.281574 0.821172 1.07303 0.424301 0.876699 -0.7052 -0.331572 1.06475 0.0793971 -0.23242 0.197729 -1.0311 -1.24117 0.141118 0.167594 0.199872 0.527326 0.0158212 -0.0766117 -0.324825 
0.0165031 -0.1672 -0.812817 -0.961555 0.628816 -0.449743 -1.31384 -0.00323134 0.586791 -0.646969 0.0474874 -0.320346 0.472836 0.00661918 0.448003 0.49171 -1.02357 0.804128 0.435323 0.152351 0.129518 0.0859937 0.448741 0.789798 1.28043 0.622111 -0.457017 0.687668 -0.854805 0.0628866 -0.32043 1.18918 
-0.292902 -0.128727 0.0244163 -0.679065 0.30862 -0.632996 1.30393 0.96718 1.02068 0.0468574 -0.23424 -0.00947986 -0.271832 0.368879 0.409928 0.223677 1.04582 0.244191 0.311504 -0.202229 -0.463945 0.634003 -0.374954 -0.979544 -1.1537 0.724209 0.213402 -0.353976 0.822036 -0.460853 -0.176906 0.974916 
0.661837 -0.984133 0.489816 0.274202 -1.05202 0.855947 1.43686 0.331219 0.736608 1.44253 -1.12889 0.523945 0.632657 -0.470146 -0.196356 1.30218 0.433347 1.18888 0.361781 -0.428982 0.0700307 0.580004 0.230841 -1.23141 0.363697 -0.223421 1.12914 0.0933554 -0.190237 -0.364002 -0.117037 0.381168 
0.0410364 0.14189 0.64363 0.572605 0.744589 0.127232 0.375489 -0.858149 0.874667 -1.19306 0.776547 0.737689 0.140435 -0.623026 0.402228 1.48429 0.193818 -0.887824 -0.893971 -0.356968 0.789328 -0.795678 -0.175107 0.229117 -0.975346 -0.374662 1.08783 0.0384897 0.671489 -0.205527 -0.982974 0.501737 
-0.88783 -0.478908 -0.0342419 -0.204808 -0.95047 -0.58938 -0.153328 1.08426 -0.638557 0.136012 1.001 -1.04579 -0.567452 -0.437246 0.240994 0.261476 0.163945 0.930507 -0.000667885 -1.01206 -0.034626 -0.12509 -0.163116 1.32573 1.16004 -0.881994 0.701105 -1.01189 -0.246107 0.346707 1.00227 -0.762774 
0.179508 0.870042 -0.428716 0.0968392 -1.19481 0.421509 -0.714317 -0.630909 -0.212532 0.0880437 -0.326638 -0.0775478 -0.211568 -0.576688 0.141247 0.358344 0.710745 -0.0778187 0.447464 0.138287 -0.0800141 0.704757 -1.62369 -1.19004 -0.0377259 -0.903712 0.923518 -0.83898 0.594846 -0.275938 0.461205 -0.467033 
-0.54064 -0.553562 -0.748401 0.30527 -0.366327 0.320113 0.273542 0.236912 -0.240047 -0.156799 0.200542 0.071536 0.0755076 0.0783916 0.733744 0.550167 0.539259 0.501738 0.0163643 1.1796 0.0675608 -0.626677 -0.331863 -1.39667 -0.524271 -0.0460002 -0.599858 0.0773322 -0.499604 0.702308 0.343407 -0.0766627 
#
0.45659 
0.266664 
0.429925 
-0.542621 
-0.373678 
-0.564155 
-0.143711 
-0.574249 
1.20514 
-0.629552 
-0.411521 
-0.527387 
0.363336 
0.144079 
0.161669 
-0.168534 
0.301934 
-0.0263916 
0.239897 
0.940762 
-0.777834 
-0.753805 
-0.0108927 
-1.2551 
0.954719 
0.425548 
0.185713 
0.0680715 
0.0144528 
0.213833 
1.20178 
-0.778716 
#
