-0.345133 -0.227366 0.566859 -0.436904 0.198105 0.322453 -0.29546 -0.303788 0.205365 0.00840006 0.546362 0.104031 0.346977 0.446825 0.221896 0.315026 -0.386896 0.453563 -0.364851 -0.516056 -0.287576 -0.0917563 -0.430853 -0.125513 -0.632565 -0.0113167 -0.0774358 -0.280722 -0.15758 0.304886 -0.107395 -0.405602 0.361837 0.274057 -0.186667 0.149815 0.317912 0.15731 -0.035561 0.362301 -0.259226 -0.305233 -0.425853 -0.0685716 0.428883 0.180983 -0.011786 0.105403 -0.0449654 -0.33234 -0.26736 0.217447 0.370894 -0.425561 -0.243773 0.75968 0.126086 -0.116426 0.578465 -0.839782 
0.278421 -0.000254935 0.226717 -0.528236 0.256836 0.231395 -0.300362 0.241331 0.222837 -0.135633 0.205353 -0.299463 -0.143973 -0.373029 0.547121 0.0713926 0.129677 0.0758618 0.223996 0.1843 0.128118 0.48788 0.218646 0.422349 0.12359 -0.0564441 0.099423 -0.729382 0.0521165 -0.0351957 0.486726 0.338287 -0.344613 0.287289 0.459798 -0.204311 0.0543562 -0.687725 0.482738 -0.00308622 -0.116671 -0.433721 0.0310116 0.659822 0.278209 0.198237 -0.146605 0.203566 0.476194 0.0527003 -0.577038 -0.182146 -0.473552 0.129192 -0.0909061 0.347955 -0.461307 -0.068273 -0.0665868 -0.096695 
0.399632 0.0653713 0.329215 0.22385 -0.574911 0.146911 0.235267 -0.192607 0.451778 0.245511 -0.242498 0.0976796 -0.427776 0.318695 0.683471 0.292706 -0.651182 -0.459315 -0.606646 -0.359677 -0.133976 -0.126372 0.524421 0.327739 0.742279 -0.187288 -0.337391 0.00941887 -0.0217147 -0.692435 -0.155096 -0.0119799 0.459392 -0.0316593 0.20372 0.267919 0.161831 0.269216 0.0547778 -0.0971673 -0.415455 0.238972 0.772393 0.473016 0.107224 -0.450647 -0.00881951 -0.302277 -0.0174569 -0.486014 0.971439 -0.798444 -0.0615097 -0.090383 -0.374916 0.211779 -0.230611 -0.206039 0.154525 0.422135 
-0.0630342 -0.247559 -0.528701 0.125292 -0.240553 -0.299853 -0.0712359 0.342325 0.787578 -0.0323587 0.159204 -0.24227 -0.178827 -0.379994 0.424413 0.104789 -0.416072 0.379111 0.115045 0.311672 -0.150302 -0.10055 0.390071 -0.352264 -0.310879 -0.153993 -0.414954 -0.335604 0.20742 0.177087 -0.380247 0.130863 -0.14719 0.0399603 -0.193521 -0.04118 -0.291228 0.196495 -0.154684 -0.342639 0.57995 -0.445814 0.205277 0.312335 -0.0778589 0.268783 -0.5698 -0.0264271 -0.583073 -0.266155 -0.105741 -0.520955 0.0605249 0.546504 -0.0398968 -0.543842 -0.279468 0.106372 -0.362522 0.293828 
0.5686 0.0962134 0.18796 -0.437586 -0.361992 -0.305871 -0.127225 -0.295281 -0.549777 -0.511487 -0.068221 -0.563207 0.0118976 -0.209475 0.0681115 -0.813 0.276053 0.374424 0.168105 0.0706819 0.0151851 0.279231 -0.185783 -0.231668 0.101974 0.167846 0.05497 -0.591553 -0.231912 -0.131285 -0.213668 -0.318045 0.0806792 -0.00563287 -0.30962 0.184775 0.000117113 0.425137 -0.537901 -0.0500532 -0.0435564 0.857086 0.393884 0.30451 0.173092 0.549265 -0.0338356 -0.929864 0.337342 -0.210696 0.705045 0.286334 0.186238 0.365598 0.113173 0.68885 -0.769425 0.236916 -0.14443 -0.399294 
0.250834 -0.521619 -0.0917961 0.116459 0.0337417 0.367305 0.0668025 -0.059176 0.357299 -0.330719 0.498501 0.0244233 0.6307 0.211408 0.0413691 -0.391891 -0.334608 -1.04419 -0.458156 0.21804 -0.592996 0.164511 0.20596 0.183832 0.00893791 0.299471 0.0756497 0.321364 -0.179244 -0.222162 0.347392 0.0642395 0.0197476 0.216031 -0.231128 0.314851 0.34507 -0.379951 -0.124655 0.149196 -0.468988 0.295588 -0.0547624 -0.929192 0.0596842 -0.461548 0.0823859 -0.499833 -0.295504 0.719913 -0.0301882 0.498136 -0.104 0.356527 0.543634 -0.136909 -0.13926 0.38426 -0.176659 -0.193118 
-0.196002 0.112581 0.408657 -0.0823383 -0.78878 0.122011 0.162505 0.477966 -0.629911 -0.302817 0.41039 0.197814 -0.139534 -0.337375 -0.399026 0.240455 -0.210996 -0.153889 -0.541838 0.285416 -0.244593 -0.385986 -0.353981 0.76922 0.285798 -0.163926 0.164195 -0.124991 0.382882 0.0829373 0.445873 0.487078 -0.58578 0.0732634 -0.425471 -0.113919 -0.0402935 -0.891764 -0.387811 0.262686 0.277468 -0.46148 0.407017 0.385852 -0.294282 0.720253 -0.172326 -0.0218989 -0.0714552 -0.294348 0.241628 0.186174 0.0630822 0.571178 -0.44909 0.150495 -0.454852 -0.150586 0.292704 -0.101307 
0.125969 -0.118312 0.309331 0.253959 0.181405 -0.475675 -0.258125 0.219567 -0.396301 0.516566 0.483864 0.122141 -0.0553609 -0.593451 0.52327 0.501639 -0.0780777 -0.0682724 0.178908 -0.109875 0.0538502 -0.199993 -0.156555 0.347869 -0.107061 0.306417 -0.0521497 0.800242 -0.142822 0.014869 -0.291595 0.205818 0.123997 0.0741474 -0.196812 0.0954955 0.206739 -0.336196 -0.440465 0.744809 0.0693895 -0.196448 0.317211 -0.218576 0.40724 -0.523824 0.203793 0.306185 -0.795387 -0.475304 0.312344 0.0602441 0.169318 0.320378 -0.36545 -0.24281 -0.0823197 0.295107 0.330069 -0.276567 
-0.15492 -0.260102 -0.402542 -0.222479 0.206384 -0.380681 -0.273622 -0.483508 0.0506845 0.381279 0.0782674 0.337005 0.34548 0.353256 -0.11476 0.11741 0.161914 -0.207725 -0.286453 0.190682 0.373399 -0.0798559 0.418691 -0.158928 -0.645496 -0.161536 0.386072 -0.984954 -0.240734 0.550091 -0.324889 -0.86173 0.276312 0.431893 -0.775021 0.0899825 -0.0370035 -0.425008 -0.340464 -0.0374927 -0.259225 0.312713 0.888148 0.0979278 -0.365384 -0.117176 0.700145 0.233918 -0.0819758 0.215573 0.197309 -0.343013 0.137319 -0.774648 0.462001 0.314111 0.195922 -0.0558292 0.0908489 -0.304113 
-0.487592 0.501645 0.0316999 -0.177902 -0.0128653 -0.335645 -0.0306396 -0.18254 0.0370593 -0.097788 0.470056 0.0538667 -0.136184 0.18605 -0.363668 0.141528 -0.0649657 0.0164729 -0.489246 -0.159481 -0.144531 0.559813 -0.293434 0.0530048 0.259857 -0.22095 -0.636871 0.315351 -0.0817946 -0.281788 0.367753 -0.183758 0.00458193 -0.357266 -0.0279609 0.572231 0.174071 -0.157326 0.412701 0.0389307 -0.176823 -0.339029 -0.365488 0.148079 0.0616099 0.254707 -0.267684 -0.0508225 -0.237923 0.224885 -0.133211 0.324991 -0.147019 -0.393313 -0.427834 -0.319524 -0.313974 -0.278441 0.484117 -0.540678 
-0.438669 -0.0579656 -0.121426 -0.237862 0.453152 0.152792 0.51951 0.207139 0.402403 -0.134355 0.424563 0.36502 -0.0364122 0.294226 0.0545607 -0.324682 -0.0576513 -0.137414 -0.32407 -0.251397 0.248312 0.103546 0.0142338 -0.179228 -0.171972 -0.0923076 0.335005 0.331494 -0.0752029 -0.43693 -0.084459 0.165936 -0.0177469 -0.0299346 -0.22954 -0.470752 -0.156717 -0.45722 0.287058 0.437124 0.27489 0.103856 -0.0865303 0.390501 0.491903 0.0754558 -0.183998 -0.607329 -0.0946296 -0.185816 0.418162 0.803358 -0.473522 -0.575479 0.626744 0.321678 -0.359533 -0.0301108 -0.064219 -0.053974 
0.229491 -0.452034 0.128677 -0.396624 -0.482193 0.412005 0.33736 0.161717 -0.228422 0.281037 -0.313221 -0.0362936 -0.116384 0.0136537 0.109458 -0.44745 -0.191404 -0.182919 -0.241018 0.257894 0.277638 0.995401 -0.285224 -0.0833632 0.107031 0.258677 0.579839 0.0473146 -0.287355 0.511782 -0.124081 -0.0646873 -0.0840171 -0.173265 0.103375 -0.04163 -0.0822532 -0.291092 0.415489 0.23408 0.243425 0.153478 0.337363 0.00212027 -0.152058 0.456921 0.0119464 -0.552688 -0.00498238 0.328903 -0.650689 -0.139561 0.601011 -0.0610418 0.68011 0.275289 -0.332159 0.272448 0.0770316 -0.312626 
0.0549707 0.565359 0.0503717 0.104672 -0.299869 0.64203 0.396724 -0.337612 0.455496 -0.0827428 0.675918 -0.191395 -0.323155 0.0737367 0.312749 -0.443831 0.428017 0.0212968 0.44753 0.127873 -0.17357 0.87362 -0.458347 -0.362156 -0.0802026 -0.0310546 -0.0542646 0.230511 0.252903 0.609318 -0.0487082 -0.302449 -0.483092 0.29749 0.0898684 0.183329 -0.334573 -0.117187 0.0210848 -0.511989 -0.00172655 -0.184164 -0.114231 -0.297503 0.0880732 0.268952 0.409968 0.0193072 -0.450103 0.0119269 -0.436427 -0.111214 -0.0270889 0.194265 -1.06528 -0.281858 -0.142492 0.297977 0.147998 0.310701 
-0.089073 -0.547238 -0.158291 0.185941 0.363857 0.0652939 -0.865064 -0.271742 -0.0318104 -0.350606 0.621169 0.0711576 0.128969 -0.423625 -0.0183052 -0.27638 -0.227497 -0.188984 -0.364753 -0.0173407 0.417295 0.481538 -0.402584 -0.0885598 0.909276 0.318944 0.115727 0.597462 1.28519 -0.40967 -0.151076 0.461125 -0.396826 -0.0726904 0.417978 -0.173602 -0.516239 0.106236 -0.442024 -0.140748 -0.421099 0.142638 -0.173223 -0.275969 0.620316 0.159375 0.664786 0.208792 0.0265619 0.478156 -0.280652 -0.109697 0.163117 -0.58602 -0.322303 0.168053 0.123732 -0.278109 0.0604657 -0.395264 
0.622226 -0.0822578 0.160532 0.0559001 -0.254651 0.208594 0.0928793 -0.121956 -0.519954 -0.0155115 0.0909346 0.463619 0.0529036 -0.299869 0.200753 -0.136766 0.334438 -0.237134 -0.0121172 0.0954727 -0.534877 0.420155 0.0297213 -0.154793 -0.160185 0.148564 -0.0411527 -0.347669 -0.433721 0.00878355 0.195905 0.00496655 0.212736 0.331366 -0.21758 -0.29093 -0.171333 -0.183174 0.0417031 -0.179127 0.106657 -0.278962 -0.356975 -0.0354797 0.127418 0.274172 0.187521 -0.237146 -0.690051 0.14581 -0.166454 -0.153319 -0.0837953 0.225955 -0.156327 0.220783 -0.0322874 -0.191658 -0.0120941 -0.381897 
0.535757 0.138546 -0.469041 -0.170953 0.216839 0.566865 0.2385 -0.0341443 0.195646 0.604532 0.27649 0.17357 -0.378758 0.0341111 -0.0175627 -0.220307 0.99877 0.233816 -0.24448 0.0880562 -0.0815498 -0.0633139 0.0428063 -0.0638687 0.265204 0.450124 -0.410487 -0.0234883 0.061043 -0.224907 -0.56951 0.650976 -0.16183 0.0482959 -0.160507 -0.452193 -0.0560019 -0.806825 -0.210924 -0.21029 0.0307561 -0.210016 -0.0934906 -0.388482 0.185875 0.51989 -0.112993 0.445649 -0.444076 0.425327 -0.0254287 -0.154729 -0.171973 0.223138 -0.26447 -0.170389 -0.471475 0.274933 0.0196594 0.493788 
-0.215562 -0.129628 -0.280823 -0.139613 -0.253442 0.0185337 -0.147009 0.33182 0.414583 -0.40094 -0.226296 -0.139136 -0.438674 -0.246554 -0.134277 0.27533 0.0780365 0.402987 -0.141515 -0.228201 0.577683 -0.38946 0.164655 -0.00988667 0.356185 -0.081294 -0.0517384 0.802054 -0.491879 0.245657 -0.0177272 -0.465087 -0.317259 -0.0344304 0.00113548 0.352714 0.083881 0.0527286 -0.165579 -0.393354 -0.601281 -0.00331883 -0.297393 0.241989 -0.374325 0.205316 -0.43266 -0.203577 -0.226842 0.00529093 -0.776794 0.674456 0.0573502 0.00163892 -0.766749 0.421728 0.36836 -0.454195 0.239118 0.466663 
-0.538269 0.307662 -0.0996948 0.0824001 -0.0899314 -0.189047 0.301214 0.058735 -0.375648 -0.0251394 0.538671 0.400783 0.0809642 0.184681 -0.0788401 0.150952 -0.297523 -0.0735352 -0.0800233 0.454366 0.302441 0.444129 -0.784658 0.0526524 -0.144628 0.310958 -0.306184 -0.189151 0.0149052 0.564044 -0.392447 -0.142115 -0.213077 -0.0108531 -0.217879 -0.0674555 0.31361 -0.195556 -0.200957 0.243345 -0.260949 0.453171 -0.488066 -0.04463 0.316787 0.154001 -0.276101 0.3239 0.245129 0.222692 0.183611 -0.392567 -0.203654 0.388351 -0.56614 0.216182 -0.527531 0.260663 -0.364396 0.0272622 
0.20888 0.556729 0.466056 -0.00771723 -0.462752 0.196968 0.304339 -0.34303 -0.238277 -0.246417 -0.68345 0.387347 -0.467097 -0.547439 0.114306 -0.352219 -0.953008 -0.295564 0.388735 -0.611631 -0.124009 -0.0470507 -0.553205 0.279742 0.532281 -0.27242 -0.424479 -0.471608 -0.140422 -0.35267 0.0274619 -0.19156 -0.16605 0.343791 -0.157193 -0.0688883 -0.325539 -0.17215 -0.661246 0.136779 0.0695178 0.0197956 -0.167327 -0.0626719 0.0952957 0.359223 0.0480362 0.041376 0.365622 0.277408 0.0794156 0.204108 -0.0754252 -0.751338 -0.543529 0.547593 -0.440311 -0.4398 -0.159219 0.240295 
-0.336397 -0.796454 0.262579 0.256397 0.604691 -0.429321 0.596554 -0.35335 -0.579076 0.206624 -0.00644184 0.263044 0.638768 -0.672772 0.0681258 0.108754 -0.0732164 -0.305446 -0.140558 0.665096 -0.243861 0.243179 -0.117718 0.519603 0.111803 -0.16974 0.251273 0.343574 -0.336714 -0.323989 -0.207837 1.01394 0.0138638 0.241323 0.87357 -0.495463 -0.245474 -0.0370966 -0.18142 0.544269 0.540688 -0.427908 -0.651221 -0.175522 -0.597905 0.744765 0.26661 0.616053 0.361101 -0.317024 -0.725071 0.147606 0.0660476 0.333629 -0.214288 0.203678 0.002467 0.11526 -0.241203 0.109231 
-0.11474 -0.725914 -0.166349 0.38646 0.0866216 0.295381 0.525491 -0.361961 -0.523234 0.304145 -0.831572 -0.117113 -0.320293 0.439029 0.357615 0.221137 0.302466 -0.386439 0.078184 0.534459 0.377862 -0.190766 -0.225522 0.611847 0.54532 0.0322401 0.420233 0.122573 0.102909 0.276157 0.00111612 -0.929697 0.158363 0.0631364 0.25028 -0.0995159 -0.0438202 0.371307 -0.116431 0.526208 -0.141098 -0.438123 -0.237084 -0.221462 0.175796 -0.501823 -0.340678 -0.314559 0.494036 -0.454751 0.120518 0.0631089 -0.0353367 -0.238767 -0.169418 -0.0841521 -0.304574 0.36002 -0.0749255 0.0293501 
-0.143885 0.413002 -0.0395583 0.0905825 0.586456 0.186772 -0.0389945 -0.457035 -0.368137 -0.377234 0.746198 0.0766129 0.134823 0.227772 0.267491 -0.0889614 0.898423 0.308358 -0.472507 0.337173 -0.308706 0.444563 -0.270057 0.574926 0.131726 -0.223022 0.025247 -0.105467 -0.216744 -0.256724 -0.706185 -0.246235 0.1037 -0.386153 -0.381992 0.322589 -0.224575 0.011527 1.06323 -0.46662 -0.144682 -0.196101 -0.338732 0.275653 0.204798 -0.439016 0.179217 0.197107 -0.0590193 0.0249855 -0.453742 -0.235262 0.180978 -0.172577 0.0630976 0.0275826 -0.134346 -0.42191 -0.127491 -0.395338 
-0.0385553 0.354326 -0.178988 -0.0625725 0.0679065 -0.682845 0.263478 -0.0242632 0.164398 0.532193 0.241693 0.126947 -0.11131 -0.318036 0.173702 -0.0518714 0.166428 0.146663 0.463037 0.0662919 0.192253 0.555213 0.0160202 0.158676 -0.125314 0.270227 -0.221403 -0.532966 0.119588 -0.14777 -0.00719497 -0.10452 -0.351699 0.0454563 0.360277 0.06117 0.0699584 0.245802 0.266899 -0.0384303 0.698656 0.175796 0.01903 -0.218088 -0.473879 0.453606 0.865118 0.191441 0.0928397 0.326906 0.312329 -0.0383471 -0.137404 -0.376963 -0.223991 -0.0335031 0.375693 -0.231682 -0.409552 -0.31634 
0.0769827 -0.0712769 -0.325764 -0.243601 0.0233917 -1.11853 0.187409 -0.450576 -0.767217 0.0525924 0.135478 -0.534061 0.388545 -0.334824 -0.287094 0.0828734 0.128425 0.0512123 0.441087 -0.222371 0.208496 0.628952 0.356071 -0.452817 -0.678666 -0.90301 -0.624465 -0.347621 0.351428 -0.293162 -0.0190437 0.455299 0.0597662 0.0266076 -0.454125 -0.0970385 0.0160383 0.400269 0.366186 0.0395661 -0.0883335 0.0309598 0.788945 0.370275 1.18637 -0.269355 -0.351334 0.611988 -0.712237 0.570784 -0.0966611 -0.106213 0.100698 0.510962 0.0754186 0.0545177 -0.0103735 0.37826 0.187929 0.138231 
0.0691796 -0.369747 -0.223099 -0.109778 -0.293745 0.0130753 -0.290549 -0.0683606 0.392512 0.178262 -0.219483 0.0815493 -0.131694 -0.287692 -0.127278 -0.335064 0.20212 -0.376316 0.139759 0.22522 -0.410655 0.290367 0.225472 -0.181334 -0.378553 0.353976 0.033323 -0.149678 -0.00177855 -0.0775758 0.427766 0.0919125 0.591086 0.0452837 0.848102 -0.120039 0.242741 -0.324087 0.109666 0.0155881 -0.0712763 0.420649 -0.0654409 0.321472 0.270839 -0.264346 0.735699 -0.345047 0.162735 -0.383376 0.439635 0.52644 -0.038865 -0.460531 0.103802 -0.154343 -0.289814 0.248205 -0.69467 -0.16333 
0.225787 -0.544442 0.213784 0.381102 0.304874 -0.252082 0.141204 -0.247344 -0.0250282 0.471802 0.597276 -0.48785 0.313349 -0.252349 0.105571 -0.695305 0.143816 -0.0200957 0.206693 -0.110426 0.0389773 0.0379404 -0.271928 -0.266425 0.130223 -0.0453857 0.280089 -0.0760644 0.360019 0.47113 0.405239 0.359897 0.671468 -0.259282 0.135168 0.13508 -0.38499 -0.254391 -0.433208 -0.129964 0.503124 -0.0725707 -0.146133 0.706565 0.29891 -0.27767 0.22324 -0.610847 -0.362833 0.19322 0.431603 0.151668 -0.204449 0.114275 0.0587438 0.0621742 -0.529153 -0.553862 0.164714 0.236311 
-0.0838858 0.142382 0.166252 0.263064 -0.326862 -0.0173433 0.289695 0.182323 -0.728542 0.0557267 0.485102 -0.247911 0.149565 -0.0446736 0.162461 -0.183777 -0.217104 -0.307551 0.0434214 0.344393 0.112544 -0.28557 -0.269309 -0.0937186 -0.666559 0.183621 -0.0332407 -0.210159 -0.453639 -0.460887 -0.565873 -0.393632 -0.0954857 -0.0626314 -0.329602 0.194934 0.309293 0.155616 -0.214055 -0.421199 -0.528066 -0.488053 -0.402463 -0.443402 -0.286815 -0.066966 0.175178 0.189065 0.166946 -0.146017 -0.529658 0.25914 0.414221 -0.339611 0.3501 -0.0197598 0.0110512 0.405578 0.0253524 -0.26953 
-0.111187 -0.00585488 0.252859 -0.250681 -0.515509 0.3905 -0.282118 0.245725 -0.0668461 0.273233 0.0690259 -0.0236019 0.0301994 0.34734 0.316571 -0.039767 -0.227965 -0.250307 0.604335 -0.649746 -0.791339 0.246886 -0.588269 -0.175859 0.332658 -0.210293 0.0306599 0.487757 -0.431744 0.719457 0.178345 0.385023 -0.0333037 0.0870575 0.19075 -0.435203 -0.497957 0.251861 0.258671 0.805601 0.119659 -0.307539 -0.587241 -0.0524461 0.925199 -0.238736 -0.335785 0.0598507 0.681178 -0.140113 -0.110482 0.14571 -0.370491 -0.1085 -0.163873 0.573183 0.466468 -0.114224 0.202126 0.112439 
0.141289 -0.546492 0.0152959 -0.161339 -0.28563 0.261535 0.286144 -0.0133306 -0.477286 -0.185339 -0.214245 -1.01464 -0.0169674 0.00952472 0.159317 0.0767484 -0.346462 -0.673162 0.151484 -0.121013 0.10417 -0.0132128 -0.203906 -0.04926 -0.899632 0.171578 -0.160967 -0.332262 0.135005 0.343758 -0.166507 0.114401 0.671189 -0.152805 0.201159 0.198552 0.0678345 -0.0134682 0.19137 0.409398 -0.0241479 0.714548 -0.559647 0.0916961 -0.0344454 0.0226307 0.335268 0.338444 0.538777 -0.375611 -0.496143 -0.016662 -0.0767993 -0.309183 -0.212064 0.198628 -0.266798 -0.136321 -0.107521 0.128643 
0.251467 -1.02853 -0.514898 0.421555 -0.442512 -0.281087 -0.0935858 0.131741 0.25315 0.744743 -0.201726 0.593079 0.776446 0.286285 0.655883 0.146338 -0.299141 0.649942 0.258069 -0.399987 0.283323 -0.241757 0.0487156 -0.06385 -0.132708 0.0332637 -0.40014 -0.586763 -0.222966 -0.423932 3.8537e-05 0.167133 0.258781 -0.619584 -0.0689256 -0.409689 0.0240707 0.254535 0.374033 -0.398664 -0.659715 -0.323612 -0.427971 -0.350817 -0.169721 -0.219032 0.219814 -0.118494 0.152622 0.486983 -0.0606867 0.190423 -0.41233 0.35713 0.198827 0.0324793 0.202484 0.295217 -0.202204 0.0684966 
-0.483914 0.280246 -0.224135 -0.0138004 -0.259198 0.11478 0.380147 -0.295258 0.580148 -0.649569 0.0638921 0.171729 0.247377 0.291744 -0.102241 -0.425821 -0.127645 0.2238 -0.147413 0.319693 0.257318 -0.146655 -0.127267 -0.172518 -0.221979 0.374325 -0.177356 0.275367 0.430925 -0.0772632 -0.195951 0.00941951 0.420815 0.327692 0.106471 -0.112733 0.150294 -0.217586 0.0919016 -0.023671 -0.213437 0.425632 0.307231 0.416073 -0.155401 0.307745 -0.185639 0.180795 -0.0687066 -0.223133 -0.0353187 0.0163076 -0.41352 -0.275053 0.483651 0.826769 -0.221895 0.316469 0.668038 0.216032 
0.174842 0.0493339 -0.162253 0.466614 0.17462 0.079348 -0.0110526 0.553737 0.150387 -0.0463055 0.234677 0.250971 0.614534 -0.0849708 0.524858 0.145158 -0.203295 0.135102 0.00740287 -0.449888 -0.281592 -0.203463 0.381933 0.0324257 0.602144 -0.164473 -0.592844 0.294651 0.524504 -0.361531 0.755007 0.398753 -0.146957 -0.539633 0.114233 0.00683302 0.299066 0.540225 -0.263493 0.610347 0.348943 0.03335 -0.506275 0.265969 0.223802 0.343968 0.0605069 -0.274606 -0.564839 0.323833 0.327839 -0.312543 0.321677 -0.283665 0.358318 0.26471 0.446931 -0.15503 -0.0228456 -0.280272 
0.0607873 -0.165133 -0.746769 0.617069 -0.305498 -0.0204242 -0.018367 0.0445667 -0.0269973 -0.512279 0.10479 -0.116602 0.0876929 -0.495702 0.511321 0.29687 -0.549828 -0.370987 0.0325726 -0.140601 -0.0552035 -0.377805 -0.272973 -0.277268 0.164358 -0.371922 0.362093 0.513809 0.16426 0.100217 -0.753509 -0.218444 -0.425594 0.127963 0.174334 0.198534 0.362757 -0.347164 -0.175802 0.0341437 0.23858 0.00869673 0.0869413 -0.397352 -0.222487 0.694572 -0.0652943 -0.0861026 0.0382354 0.940009 0.464406 -0.0284735 0.511999 0.349192 0.230774 0.495851 -0.320614 -0.714195 -0.367389 -0.455025 
-0.14098 0.217133 -0.194313 0.64804 -0.202165 0.179623 0.457139 -0.168734 -0.610268 -0.337567 -0.0429456 -1.16579 0.0553395 0.141141 -0.401348 0.0468517 0.420673 0.242744 -0.290489 0.399425 -0.0294142 -0.0531388 0.546766 -0.0104131 -0.0864761 0.177117 0.324098 -0.648943 0.115021 -0.0158425 -0.414541 -0.0931441 0.00797211 -0.0706914 0.153243 -0.00126322 -0.400163 -0.106138 0.564197 -0.165536 -0.012943 0.157052 0.18799 -0.147223 -0.577659 0.327048 0.0118803 0.119468 -0.310386 0.660945 -0.0183221 0.491294 -0.0585046 -0.227632 0.107686 0.120209 -0.0766203 0.172397 0.169188 -0.754262 
0.106477 0.1323 -0.204581 -0.21183 -0.107916 0.178052 -0.0277552 0.361456 0.0149649 0.152371 0.0261867 -0.308834 0.260215 0.173037 -0.453167 -0.250252 0.202157 -0.0678998 0.0132462 -0.392998 -0.128591 -0.252433 -0.06354 0.0374382 0.285405 0.0522991 0.201534 0.258727 0.0468044 0.0250474 -0.151389 -0.143066 0.267898 -0.146593 -0.0408434 0.178542 0.119317 0.115537 -0.0172721 0.311641 -0.167608 0.0207436 0.0351496 -0.0763664 0.0446375 0.330201 -0.275464 0.361668 0.107623 -0.271852 -0.0523353 0.399291 -0.133341 0.202885 -0.25201 0.447009 0.0808046 0.00531419 -0.367655 -0.291717 
0.312633 -0.0820235 0.205734 0.295759 0.289819 -0.358909 0.1333 0.115921 0.0075011 0.0478949 0.395086 -0.795422 0.111785 0.425871 0.224623 -0.1426 0.202761 -0.630973 -0.0877889 -0.0542841 -0.562117 -0.459982 -0.27591 -0.0599068 0.109265 -0.153793 0.624198 -0.424094 0.123022 -0.378987 -0.531769 0.319782 0.368558 -0.497935 -0.36768 -0.408472 0.364166 -0.210125 -0.0148871 -0.187245 0.282711 -0.0424946 0.430025 -0.621866 -0.418454 0.379466 0.328436 0.389944 0.680668 -0.0342446 -0.193235 0.35794 -0.0332352 -0.467795 -0.149744 0.153533 -0.401131 -0.0362532 0.0777904 0.152197 
0.0779247 0.135985 -1.2311 -0.482569 -0.0122811 -0.0242116 0.0779065 0.105402 -0.196599 0.262175 -1.00228 -0.243373 0.132793 -0.0607707 -0.448754 -0.406806 0.583245 -0.0168701 -0.577206 0.261338 0.0336494 -0.0251182 -0.0659563 0.191234 0.0960832 0.322144 0.0579723 0.139873 0.469432 0.498819 -0.298866 0.148353 0.305392 0.0623339 -0.0969448 0.332604 -0.0630319 0.0649502 0.323568 0.453493 -0.489528 0.23338 -0.952615 -0.0690509 -0.31461 -0.285991 0.359827 0.189635 0.303707 0.039917 -0.280808 -0.125432 -0.473739 0.323056 0.519765 0.851176 -0.71164 -0.143403 0.00048158 0.0555958 
0.116288 0.424944 0.359554 0.157377 0.00701203 -0.201105 -0.254347 -0.160311 0.151304 -0.142007 -0.508631 0.469462 0.245771 -0.0262754 0.160929 0.973497 -0.0500871 -0.161666 0.305294 0.30274 0.179656 0.101259 0.0367211 -0.39082 -0.112013 0.607234 0.158649 0.209914 -0.352145 0.04256 0.15376 0.382096 0.14526 -0.0713378 0.0949776 0.617639 0.447085 -0.150199 0.259698 -0.152036 0.0153665 0.271195 -0.202871 -0.112879 -0.474334 -0.120971 0.00504038 -0.800148 -0.339016 -0.428932 0.00145889 0.0388419 -0.102687 -0.38126 0.209009 0.274726 -0.834661 0.249888 0.523759 0.455957 
0.0410221 0.0882304 -0.698906 -0.221495 -0.438297 0.490814 -0.0431137 -0.446444 -0.321237 -0.532945 0.497115 0.458701 -0.219417 -0.445292 -0.333741 0.367962 0.0699912 1.15088 -0.0628971 -0.024801 0.408095 0.147146 -0.149149 -0.31688 0.28899 -0.418254 0.488848 -0.209203 0.263081 -0.00669974 -0.316728 0.386222 -0.348165 0.0169123 -0.399828 -0.20765 0.0212566 0.0251287 -0.12965 -0.136981 -0.575772 -0.347412 -0.118659 -0.300827 -0.652004 -0.0155264 -0.226722 -0.039653 -0.32103 -0.871284 -0.10948 -0.0637053 -0.147969 0.573211 0.172322 0.222736 0.214755 -0.031333 0.738826 -0.800188 
-0.616512 0.27692 -0.249528 0.601198 -0.435716 0.350894 -0.0429037 -0.617355 -0.674941 -0.378488 0.282191 -0.19606 0.290381 -0.103358 -0.148373 -0.354283 0.106129 -0.0594617 -0.503045 0.182459 0.258324 -0.445074 -0.275819 -0.832918 -0.452481 -0.0972128 -0.484678 0.486747 -0.167121 -0.0445037 0.375079 0.0786433 -0.445236 -0.130725 -0.00531144 0.320239 0.415439 -0.27382 0.0197767 0.225488 -0.020249 0.156396 -0.00143731 0.720796 0.289429 -0.256504 -0.239368 0.227475 -0.251219 0.423729 0.486462 -0.214142 -0.389995 0.569073 0.34813 0.253439 0.911669 0.118611 0.229695 -0.25529 
0.113913 -0.270729 0.170985 -0.484167 0.106502 -0.169963 -0.163388 0.475789 0.252491 0.463838 0.319096 0.151919 -0.0559063 -0.113345 0.407845 0.258742 -0.499394 0.0613636 -0.21429 -0.131984 0.621633 0.151678 -0.184491 -0.127828 -0.22664 0.00566803 0.347249 -0.69318 0.376615 -0.338157 0.164268 0.105844 -0.404212 -0.279496 -0.382508 -0.00284544 0.364855 0.12011 -0.311521 0.196556 -0.029302 0.133177 -0.421685 -0.0706205 0.0931516 0.218131 0.208189 -0.333668 0.69291 -0.082888 -0.4643 0.144145 0.616877 -0.199695 0.149752 0.16074 -0.392784 0.282713 -0.42679 0.199224 
0.268124 0.16357 -0.104854 0.104154 0.654439 -0.0190807 -0.0262489 0.46381 -0.503881 -0.255367 -0.516736 -0.680677 -0.0146536 -0.48552 0.237946 -0.363635 0.296859 -0.509934 0.00162793 0.449458 -0.457754 0.263911 0.14105 -0.487336 -0.40543 0.218416 0.401079 -0.208072 -0.234132 0.450387 0.00391008 0.281324 -0.310951 0.192586 -0.0476046 0.330795 0.189943 0.0448434 -0.294102 0.532288 -0.743999 -0.376077 -0.351332 0.251465 0.131571 -0.112973 -0.316309 0.420261 -0.0164885 0.237315 -0.0821489 0.568937 0.356717 0.420352 -0.106678 0.0116912 -0.1145 0.172519 -0.130569 0.307991 
0.401797 -0.0735567 -0.475921 -0.0178657 0.575225 0.158988 -0.0822569 -0.510971 0.271786 -0.248861 -0.195143 -0.278786 0.0346151 0.0010969 -0.125737 0.494673 -0.0823503 -0.50245 -0.269204 -0.00288468 0.444138 -0.380017 -0.0266585 -0.274037 0.23914 1.09791 0.266459 0.465782 0.159356 0.326801 0.406646 0.755524 -0.141126 -0.455915 0.206495 0.505643 -0.474845 0.0580126 -0.140747 0.350949 0.410954 -0.128512 -0.0914579 -0.0924999 0.259977 -0.248482 0.242479 0.235034 0.259355 0.0536167 -0.114618 -0.165585 0.37999 -0.697355 0.139955 0.353318 0.31089 0.513043 -0.631855 -0.170222 
0.345279 0.0928298 0.200688 -0.0454672 -0.0210986 0.21586 -0.120329 0.892451 -0.608491 0.210678 0.279029 -0.381898 0.239402 -0.0849032 -0.0126152 -0.0553321 0.107469 0.274517 -0.168631 0.708843 -0.10143 -0.519999 0.491073 -0.15474 0.371486 -0.00573076 0.156365 0.166315 -0.297345 -0.744057 0.105623 -0.425166 -1.25027 0.218248 0.0440751 0.103626 0.102104 -0.0283792 -0.208163 0.12867 -0.0383552 0.089105 -0.563155 -0.0972632 0.21422 0.24333 -0.447236 0.00598106 -0.291608 -0.300004 -0.0750186 0.0691331 -0.0644054 0.369067 0.0873326 0.525108 0.156553 -0.113749 -0.662642 -0.0144042 
-0.371901 0.292766 0.100454 0.6561 -0.26219 0.114684 0.0696618 0.541165 0.443821 0.0513522 -0.564133 0.217188 -0.281719 -0.873184 -0.133326 0.264919 0.0587425 -0.562219 0.308889 0.0788243 0.0414839 -0.799044 -0.397971 0.219246 -0.496805 0.150297 -0.0698571 0.0597922 0.312054 -0.0647552 -0.0879357 0.0195651 0.0279423 -0.117502 -0.462395 -0.128583 0.0400587 -0.203516 -0.0586434 0.242146 0.281488 -0.265052 0.103331 -0.408371 -0.507907 0.205927 -0.505325 -0.0412757 0.100412 -0.223339 -0.106551 0.0780738 0.264981 0.36082 -0.266472 0.292021 -0.0966537 0.358039 -0.197195 -0.109926 
-0.359695 -0.980168 -0.514424 -0.31318 -0.0215962 0.17759 0.384596 0.500351 -0.0238672 0.0549918 -0.117638 0.113628 -0.374033 -0.00154971 -0.119059 0.0862939 0.132167 -0.756029 -0.33618 -0.182436 -0.161599 -0.0330335 -0.133644 0.0589524 -0.0914271 -0.195446 0.588718 -0.333346 0.16046 0.280675 0.198653 0.0249092 -0.257782 -0.774015 -0.174602 -0.282361 -0.359328 -0.136513 0.350009 0.38611 -0.440848 -0.291504 0.281932 -0.064624 -0.134708 0.101845 -0.557458 -0.00553485 0.213335 -0.0367656 0.0991798 0.534407 -0.110992 -0.432795 0.0601519 0.100246 -0.100902 -0.408212 -0.0152607 -0.416111 
-0.0899352 0.358572 0.138565 -0.262367 0.337173 -0.14826 0.656423 0.699979 0.325991 -0.0327417 0.213011 -0.00912897 0.637697 -0.29562 0.0455003 -0.387415 -0.26008 -0.0297046 -0.0810258 -0.335936 -0.00683095 0.616621 -0.022371 -0.0495039 -0.595281 0.359106 0.0622541 0.480027 -0.429523 -0.359081 0.0438123 -0.390748 0.127798 0.387129 -0.139768 0.202488 -0.240179 -0.0741955 -0.178721 -0.46091 0.141182 0.375806 -0.0443555 -0.183268 -0.285389 -0.0431968 -0.0692511 -0.085394 0.331313 -0.839332 0.577612 -0.062634 -0.528531 -0.175198 0.184849 -0.0208154 -0.0767695 -0.219075 0.0131761 -0.0500115 
-0.303099 -0.246082 0.307487 0.040206 -0.539472 0.0743862 -0.190528 0.140709 -0.313003 0.365729 0.00575649 -0.441345 -0.411751 -0.0544354 0.368738 0.297536 -0.144014 0.243287 -0.873955 -0.28844 0.064622 -0.652672 -0.292356 0.0859608 0.809357 0.52236 0.503324 0.234185 -0.0853486 -0.600206 -0.00619567 0.268115 0.00850003 0.153388 -0.374955 0.0392741 0.379539 -0.512454 0.413053 0.0187606 0.607071 -0.507532 0.239185 0.264295 0.241492 -0.071027 -0.0882508 -0.323713 -0.101761 0.00309447 0.0362828 -0.0126849 0.215478 -0.250003 -0.722888 0.404366 -0.0508893 0.681708 -0.396006 0.0309845 
-0.128495 0.332064 0.119705 0.159206 -0.32265 0.433698 0.0581213 -0.0217366 0.639741 0.0542105 -0.154068 -0.00371625 0.272404 0.3594 -0.339262 -0.00744195 0.333761 0.0676641 0.308566 -0.0590828 -0.284099 0.294576 -0.641279 0.0294664 0.38961 -0.432931 -0.0846853 -0.0202059 0.402474 -0.0847579 0.30976 -0.500624 0.162123 -0.169405 0.298727 0.301675 0.0138579 0.180517 -0.140817 0.118721 -0.165633 -0.25369 -0.0903927 0.271529 -0.35822 -0.402033 0.669539 -0.195173 -0.0229388 0.0305552 -0.206155 0.298979 -0.0632345 -0.138928 0.0344507 0.0625515 0.365788 0.437174 0.189931 0.33827 
0.167769 0.229064 -0.162038 -0.269905 -0.270331 0.088194 -0.143123 -0.148604 -0.452522 0.628305 -0.10075 0.290172 -0.0473336 -0.089312 -0.203916 0.291636 -0.17257 0.239333 -0.265853 -0.0157768 -0.0735166 0.39244 -0.359925 -0.205932 -0.214896 0.0812572 -0.552779 0.295498 -0.636484 -0.731912 -0.25511 -0.0762731 0.538727 0.631599 0.268676 0.321067 -0.224179 -0.120321 -0.0243434 -0.17621 -0.430279 0.703301 0.292397 0.0126039 0.395283 0.356212 0.397721 -0.0847932 -0.140696 0.0716178 -0.257164 0.0718509 0.638569 -0.538936 0.0338425 0.0992707 0.104444 0.398081 0.375121 0.00651056 
-0.0561237 0.316002 0.203477 0.189848 0.224772 0.529207 -0.668728 -0.0434636 0.295001 0.167906 -0.0635279 0.24552 -0.265162 0.169118 0.139189 0.249213 -0.0572024 0.0764548 0.388041 -0.146449 -0.846377 0.105011 -0.20841 -0.0702652 0.0528932 0.410091 0.0280532 -0.104849 0.65545 -0.79384 -0.0896908 -0.548232 -0.228262 0.341394 -0.193293 -0.55995 0.155901 -0.260947 -0.0521517 -0.000147226 0.0591385 -0.140036 0.155572 -0.364279 0.322909 0.0916111 0.245227 0.480293 0.0118038 0.0355971 0.435597 -0.327898 -0.406373 -0.0805643 0.101294 -0.088646 0.368123 -0.169105 0.650629 -0.297391 
0.748982 -0.41159 0.276821 -0.152834 0.108059 -0.313987 -0.396067 0.0996881 -0.644103 0.421676 -0.106546 -0.0612467 -0.17894 -0.112323 -0.2383 -0.0272603 -0.160067 0.311834 -0.116921 0.707814 -0.0573857 0.412819 0.0786764 0.0323008 -0.47491 -0.36017 0.207574 -0.797997 0.317481 0.342509 0.162769 0.500854 -0.441575 -0.197421 0.110083 -0.674723 -1.04537 0.311795 -0.300086 0.00272464 -0.534811 0.105496 -0.031528 -0.32158 0.156444 -0.187987 0.0817977 -0.510655 0.0318653 0.988684 0.372731 -0.189692 0.382269 0.313241 -0.160128 0.118546 -0.153169 0.132247 -0.0314354 0.0687006 
-0.346651 0.318698 0.135146 -0.387664 -0.793695 0.491914 -0.318783 -0.00185496 0.0813338 -0.134806 0.0337552 0.00673114 0.559365 -0.0964572 0.377479 -0.183566 0.0165669 -0.218093 0.510286 -0.237548 -0.117857 0.358333 -0.43747 0.0580595 -0.0507407 0.268076 0.326782 0.956528 0.32322 0.346608 0.184325 0.170487 -0.519238 0.047517 0.441403 -0.153475 -0.15437 -0.357875 0.569207 0.43836 0.300145 -0.146279 -0.0280769 -0.143572 -0.0222386 -0.0209299 -0.481619 0.21718 0.328357 0.674652 -0.138353 -0.381156 -0.766212 -0.685795 0.860167 0.174085 0.183217 0.158662 0.266936 -0.0746719 
-0.027015 0.319318 0.433959 0.16868 0.255884 -0.0982931 -0.149558 -0.148393 -0.103464 -0.509334 -0.0194923 -0.0908076 -0.0392767 -0.767979 0.112575 0.0449287 -0.159657 -0.103269 -0.242248 0.752888 0.158332 -0.156999 0.266023 -1.00009 -0.40521 -0.468824 -0.153861 0.150513 0.112893 -0.312268 0.0938827 -0.178668 0.0511362 -0.596875 -0.375419 0.198696 0.266488 0.000210874 -0.541356 -0.732722 -0.028382 -0.461298 -0.259291 0.704155 0.324619 0.335133 0.00203358 0.1621 0.0940672 -0.677427 -0.27723 -0.579503 -0.409845 0.553569 -0.638946 0.319587 -0.0332502 -0.353694 0.265687 0.686896 
0.419766 -0.130996 0.794149 0.28752 0.402905 0.30559 0.499422 0.132808 -0.236128 0.619929 -0.187843 0.0159991 -0.148622 -0.321111 0.16281 -0.666098 0.381225 0.155046 -0.306166 0.256608 0.01547 -0.184156 -0.743398 -0.0472631 -0.465399 0.00614114 -0.261925 -0.232253 -0.391173 0.194155 -0.529603 -0.160884 -0.232455 -0.169187 -0.191101 0.353036 0.792907 0.234026 -0.561624 0.0227005 -0.930226 -0.111147 0.185553 -0.21574 -0.254106 -0.263863 0.833192 0.132431 0.0379366 0.173411 -0.331342 0.177982 -0.113021 -0.322832 -0.587139 -0.302273 -0.485514 0.01942 -0.337309 -0.244405 
-0.0770996 -0.472235 -0.442935 -0.0024139 -0.283361 -0.00930914 -0.530871 0.17554 0.507376 -0.13467 -0.269485 0.159678 0.162096 -0.3974 -0.1939 -0.659193 0.423502 0.183452 0.131727 -0.186508 -0.604481 -0.0892167 -0.227538 0.490122 -0.0732977 -0.194838 -0.755882 0.419052 -0.00990132 -0.418536 -0.355026 0.13494 0.164667 -0.350053 0.518438 0.32044 0.094302 0.383736 -0.24163 0.266631 -0.276589 -0.143241 -0.0467551 0.0937263 0.428568 -0.161069 0.300917 -0.145132 0.196856 -0.152274 -0.0520123 -0.0613776 -0.473062 -0.118844 -0.54724 0.747614 0.347681 0.246882 -0.250913 -0.299424 
0.0900526 0.0336661 -0.066054 0.169873 0.154486 -0.176159 0.0157274 0.410879 0.417462 -0.2665 -0.427014 -0.296408 -0.438847 -0.409706 0.451852 0.352293 -0.693955 0.385414 0.16013 -0.307409 0.411208 -0.0418189 0.302923 -0.138756 0.198876 0.254799 0.32406 0.545939 0.010063 -0.291646 0.330005 -0.0228997 0.00766669 -0.238147 0.335601 -0.0603279 0.190719 0.296882 0.0787215 -0.0182841 -0.183754 -0.167511 0.325518 0.570404 0.144902 0.465784 -0.235909 -0.0663778 0.428936 -0.0402907 0.0895328 0.157952 0.0680845 -0.587214 -0.305462 -0.388855 -0.0137683 0.116528 0.684708 -0.297217 
0.251955 -0.100524 -0.0411951 -0.140317 -0.00812935 0.455674 0.317444 -0.379128 -0.169183 -0.150409 0.662275 -0.0169104 -0.0658783 0.211325 0.954092 0.353582 0.046627 -0.0529421 -0.0578894 0.221523 -0.119266 -0.0811694 0.396593 0.0814843 -0.158815 0.239954 0.609329 -0.0372248 0.0250711 0.414887 0.36981 0.195166 -0.00559124 -0.209421 0.181944 0.013222 0.274386 0.520331 0.0329155 0.54371 -0.150578 0.369981 0.0838419 -0.538855 -0.225146 -0.173359 0.120934 -0.0563949 0.623992 0.501079 0.0151279 0.0680175 -0.164495 0.182862 0.129198 0.136704 0.326399 0.301369 0.0562842 -0.21674 
0.0200944 -0.117515 -0.219691 -0.216229 -0.0896521 -0.153512 0.623827 -0.378762 0.187458 -0.245735 -0.00276197 -0.145656 -0.207567 -0.0152124 -0.200837 -0.373678 -1.21131 0.0930334 0.289957 -0.347105 0.580409 0.364511 0.745871 -0.166539 -0.305941 0.00864817 0.151187 -0.000396783 -0.0253227 0.441028 0.132047 0.00543977 0.345666 0.219229 -0.396637 0.215212 0.160131 -0.436015 0.12585 -0.436789 -0.0626165 0.80268 -0.884157 -0.607913 0.294349 0.0996185 -0.112575 -0.100131 -0.336652 0.255418 -0.479354 0.0944156 -0.16162 0.0915864 0.398799 0.10526 -0.466294 0.41578 -0.628828 0.00728546 
-0.234592 -0.0858814 0.148912 0.333528 0.459369 0.164987 0.190855 -0.199495 0.0643288 0.164989 0.0897469 0.200514 0.207921 -0.0185557 -0.247898 0.094555 -0.241525 0.569241 -0.270604 0.0425995 -0.344952 0.34963 0.0795253 0.77332 0.556081 -0.25581 0.515157 -0.196984 0.576379 0.336618 0.53354 0.55 0.377751 0.117851 0.00053883 0.293513 -0.281556 -0.455467 0.0916423 0.500554 0.525163 0.0833996 -0.210298 -0.131019 -0.0997861 0.384953 0.140354 0.367963 0.0761628 0.0483302 0.0443577 0.0249493 0.306737 0.259588 -0.0387126 0.173179 0.528554 0.305859 0.0158319 0.142981 
-0.244262 0.348074 -0.00583951 -0.334346 -0.21547 0.420924 0.131569 -0.285464 0.0772203 -0.111706 -0.517125 0.678074 0.0240802 0.106091 -0.326394 -0.353723 0.328878 -0.12362 -0.268903 -0.0044977 -0.289373 -0.636578 -0.224132 -0.435369 -0.0707074 0.0513742 0.409994 -0.264846 0.206566 0.0487083 0.194071 -0.459555 0.284051 -0.132129 0.611495 -0.354198 -0.238115 -0.202409 -0.339479 0.344985 -0.138594 0.393108 0.509361 -0.819106 0.255053 0.30829 0.821507 -0.339023 -0.730665 0.330605 0.0981394 0.020168 0.0363956 0.795733 -0.143994 0.175379 0.553422 0.41588 -0.355435 -0.180636 
-0.160293 -0.0225425 0.0793639 0.504732 0.0710383 -0.281961 0.258072 0.199498 -0.103045 0.836879 -0.397457 -0.0485528 -0.193098 0.261698 0.701867 -0.768473 0.0237147 -0.136145 -0.297737 0.811597 -0.935728 0.377482 0.241546 0.297718 0.18268 -0.102178 0.550567 0.0773136 0.233181 -0.222742 -0.0570787 -0.1196 -0.49776 -0.333214 -0.0435523 0.0824678 -0.464049 0.356976 -0.374007 -0.797207 0.324958 -0.0864867 -0.200814 0.774559 0.414523 -0.0649974 0.240128 0.108064 -0.391168 0.353599 0.130685 -0.390798 0.111395 -0.694118 -0.156394 -0.0535069 -0.66139 -0.233757 0.326778 0.0185652 
-0.380951 0.750597 0.528561 -0.246107 0.758665 0.0578647 0.174371 -0.106295 -0.0525262 -0.093146 -0.229201 0.0590312 0.0230233 -0.206681 0.744394 0.620694 0.481495 -0.39475 -0.491309 0.390997 -0.427125 0.263376 -0.0650551 -0.0939607 -0.554352 0.442143 -0.779184 0.0857059 0.195261 -0.33326 0.0711024 0.798781 -0.256969 0.616537 -0.102937 -0.538247 -0.0695254 -0.668635 0.57342 0.0152468 0.078872 -0.566312 0.186745 -0.299946 -0.541534 -0.280412 -0.955424 -0.0694511 -0.117235 -0.0429433 0.475317 -0.356843 0.247173 -0.522655 -0.0916151 -0.162114 -0.0191268 0.116449 -0.733505 -0.233836 
-0.344205 0.072429 -0.346417 0.299533 0.192693 -0.0339922 0.499595 -0.0207554 -0.187091 0.459679 0.242979 -0.0878928 -0.376102 -0.0472437 0.200315 0.313395 -0.249943 0.213389 0.307265 0.04307 0.118007 -0.155302 0.110532 0.24146 -0.598273 0.0740261 -0.206941 0.0633435 -0.328024 -0.475621 -0.0500859 -0.294509 0.161649 0.207379 -0.021792 0.121563 0.627927 -0.149688 -0.0924416 0.379815 -0.427361 0.249342 0.135123 -0.0159968 0.486769 -0.346243 0.0817938 0.41742 0.162891 0.13333 -0.390466 -0.350315 -0.0791498 -0.102441 -0.378566 0.64473 -0.0945596 0.210197 -0.507022 -0.257485 
-0.096444 -0.401702 -0.355658 0.0616149 0.112731 -0.0745944 -0.410909 0.511293 0.267312 -0.254816 0.65042 0.279697 -0.695755 0.0125604 -0.659161 -0.210976 0.197739 -0.111361 -0.366467 0.475454 -0.301935 -0.179006 -0.0964391 -0.279003 0.218257 -0.156868 -0.227673 0.574001 0.217426 0.0502001 -0.415853 0.0417259 0.0264615 0.0932931 -0.576878 -0.166658 -0.402513 -0.186679 -0.735193 -0.243217 0.421798 -0.302148 0.00795873 0.696239 -0.52847 -0.194881 0.0978285 -0.0336669 0.207204 0.282266 0.0591475 -0.23238 0.20723 0.365124 0.115212 0.524756 0.012119 -0.256685 -0.237359 -0.375509 
-0.0901218 0.0703094 -0.118241 -0.0284491 0.657667 -0.219124 -0.211373 -0.0566814 0.13728 -0.625137 -0.260574 0.292555 -0.351701 -0.12725 0.177134 -0.188619 -0.0263448 0.124042 0.0404117 -0.170836 -0.412152 0.0755319 -0.113868 -0.50007 -0.278986 -0.137267 0.141287 -0.00539289 -0.00775954 -0.451006 -0.365831 0.069764 -0.185603 0.130067 -0.584357 -0.181231 0.152979 0.676769 0.499026 -0.0366844 0.764232 0.213149 0.147344 0.345617 -0.343248 0.239935 -0.0768026 0.549568 0.23639 -0.126478 0.177119 -0.169304 -0.321302 -0.336725 -0.343347 -0.0847846 0.205964 -0.334523 -0.0540493 0.261392 
-0.305193 -0.0540471 0.620157 -0.450902 -0.532126 0.407342 -0.604827 -0.0654597 -0.298955 -0.334943 0.0626306 0.111174 0.0891132 -0.508789 0.396407 0.332446 -0.227572 -0.102202 0.802815 -0.601572 0.36447 0.50774 0.167339 0.0665873 0.105356 0.324414 0.0126204 -0.0876971 0.0983559 -0.2479 -0.257797 -0.42102 0.360445 -0.0878542 0.313886 -0.153495 -0.00774919 -0.850947 0.0928801 0.139598 -0.137091 0.137589 -0.391853 -0.792655 0.131855 -0.260602 1.14463 -0.0116602 0.0552671 -0.532587 -0.104756 0.0902988 -0.436935 -0.173421 -0.557745 -0.969687 -0.704278 0.166103 -0.158276 0.475617 
0.16487 0.645949 0.188872 -0.112034 0.117759 -0.154288 0.140352 0.0686008 -0.47659 0.173678 0.0254495 -0.0059247 0.0676558 0.244398 0.492014 -0.20681 0.0133429 -0.0746565 -0.360845 -0.123688 0.122314 -0.46014 0.222931 -0.511561 0.0682665 -0.155269 0.431329 0.340256 0.401708 0.113332 -0.629824 -0.181284 0.261004 0.264251 0.586889 0.337162 -0.0677024 -0.66737 0.409398 -0.151931 -0.10728 0.47056 0.469548 0.384534 0.0840261 -0.440972 0.378765 -0.545757 -0.240812 -0.115971 0.216897 -0.298232 0.574358 0.341143 -0.0991342 0.487017 -0.344425 -0.136637 -0.0272459 -0.523166 
0.587769 0.38104 -0.16962 -0.241505 -0.0747522 -0.419035 0.145209 -0.111355 0.0438903 0.363938 -0.169891 -0.0111727 0.00746547 -0.0343998 -0.100097 0.234773 0.124673 -0.160141 0.0646494 -0.202572 -0.0810955 0.0592828 -0.0254949 -0.176306 -0.25909 0.11372 -0.141706 0.130397 -0.0681523 0.33532 -0.583706 -0.098358 -0.722495 0.162693 0.489542 0.0761235 -0.191238 -0.266057 0.11339 0.34474 0.217238 -0.368197 -0.560534 0.292179 0.0821854 0.0110993 0.330485 -0.320172 -0.128947 0.107251 -0.42517 0.570307 -0.276323 0.203565 0.343775 -0.211555 0.0264412 0.50819 0.193832 0.641166 
0.0478337 0.0424372 0.0422855 -0.112934 0.378287 0.106225 -0.227688 -0.640901 0.367782 -0.0271163 -0.501919 0.222811 -0.246068 0.137162 0.387554 -0.263544 0.745151 0.588031 0.167151 0.187461 -0.104535 -0.246104 -0.514258 0.471603 -0.0242766 0.18675 -0.154954 0.0435062 -0.0865764 -0.161591 -0.58411 -0.0816746 -0.549463 0.452697 0.152255 -0.494373 0.0281153 0.365663 0.839781 -0.209166 0.0449846 -0.182355 0.164081 -0.41857 0.159936 0.138073 -0.0742676 -0.175998 -0.423065 -0.213484 -0.0640656 -0.35969 -0.448786 -0.124659 -0.155473 -0.0778886 -0.142659 -0.152577 0.0795827 -0.756361 
0.0411799 -0.339204 0.438804 -0.144445 -0.00903303 0.0774324 -0.310356 0.0493556 -0.885151 0.0876288 0.0894496 -0.0394804 0.55207 0.115877 0.0983696 -0.426396 -0.139724 -0.278329 -0.53409 0.0737165 0.0229304 -0.136597 -0.0176977 -0.877089 0.62182 -0.0755811 -0.456945 0.315511 0.901863 0.0602044 0.0428586 -0.32257 -0.184394 0.378271 0.148974 -0.375954 0.157563 -0.290021 -0.132397 0.275532 0.0746045 0.0844221 0.196167 0.174246 0.187297 -0.75549 0.123869 0.00265327 0.375494 0.570525 0.128307 -0.64765 -0.291312 0.431981 0.0738418 -0.101825 -0.599409 -0.105453 -0.508962 -0.439683 
-0.592468 0.221996 -0.0732278 -0.0632248 -0.382578 -0.397841 0.000231951 0.235862 0.501864 0.522473 -0.0984884 -0.179859 0.0277586 0.462018 0.0616364 -0.14999 0.143545 -0.16468 -0.137268 -0.0626068 0.544964 0.328465 -0.233758 0.0923483 0.138821 -0.00249818 -0.370003 0.314828 -0.549404 0.497809 -0.0592893 -0.1501 0.281352 0.30452 -0.196353 -0.357987 -0.213967 0.142783 -0.423595 -0.231408 -0.418266 0.438614 -0.36564 -0.556179 0.245525 0.048057 -0.818627 -0.147532 -0.21688 -0.265515 -0.246252 0.475881 0.906816 -0.0572375 0.44488 0.492883 0.0872527 0.0879075 -0.286769 -0.712528 
-0.536023 -0.0202218 0.304036 -0.197933 0.694676 -0.0137042 0.457759 -0.257282 -0.189822 0.271183 -0.33822 -0.347785 -0.197212 0.197379 -0.134093 -0.265419 -0.0351661 -0.368367 0.245051 -0.337092 0.0174329 0.0804627 -0.473926 -0.244483 0.0796905 -0.54269 -0.131294 -0.0888609 0.211229 -0.214981 -0.413342 0.0872719 -0.0650301 -0.0723914 -0.251682 -0.347337 -0.266316 -0.342655 -0.260652 0.0823365 0.220264 -0.594704 0.120456 0.06607 -0.410321 0.454878 0.331763 0.201781 -0.0957806 -0.42304 0.0217155 -0.0205511 0.785787 -0.710222 -0.34975 0.418612 -0.115589 0.0311055 -0.124941 0.126617 
0.396291 0.0659108 0.0390792 0.506339 0.215355 0.441874 -0.0161301 -0.289564 -0.557555 -0.0244515 -0.207864 -0.393207 0.11723 -0.271641 0.24186 0.0584566 -0.462017 -0.0816703 -0.456118 -0.0408825 0.154923 -0.204289 0.160318 -0.332924 0.391552 0.578232 -0.00583252 -0.035448 0.0680247 0.132045 0.508744 0.38164 -0.188075 0.158856 -0.154355 0.100961 -0.218374 0.0319252 0.689105 -0.0948268 0.382689 -0.130837 0.427516 0.0625626 -0.0440317 -0.155676 0.375865 0.329989 0.821854 -0.0035924 0.364385 -0.27398 0.333386 -0.165183 0.377445 -0.465703 -1.06998 0.231985 -0.508192 0.346254 
0.102595 0.643877 0.0994411 -0.627855 -1.08161 -0.168659 -0.242247 0.265306 -0.674345 -0.0507135 -0.776258 0.115088 -0.532693 -0.374243 -0.388731 0.18709 0.342838 -0.301251 0.0783986 -0.0349394 0.504362 0.330456 0.0954067 0.511063 0.669357 0.28088 0.524905 -0.310529 -0.174191 0.355793 -0.844321 -0.439459 0.425044 0.000666596 -0.179114 0.387661 0.406447 -0.530416 1.21593 -0.212177 0.445035 0.130084 0.00512297 0.0768608 0.0787114 -0.369403 -0.223026 -0.444371 0.058527 -0.0761034 -0.225852 -0.436559 0.0256988 -0.483405 -0.171553 0.168072 0.254331 0.0776769 0.313906 0.26908 
-0.338385 -0.373132 0.38462 -0.847491 -0.723098 0.133088 -0.147623 0.39111 0.228282 0.586306 -0.136247 0.0390357 0.0967931 0.473332 0.132895 -0.251584 0.0741246 0.325343 0.0103669 -0.27675 -0.535258 0.517281 0.0492892 -0.160118 0.453747 0.247687 -0.34804 -0.42272 0.0756921 0.157915 -0.463407 0.251413 0.454919 0.688028 0.324403 -0.208 -0.228114 0.266883 0.741281 -0.411764 -0.391481 -0.223567 -0.103516 0.278956 -0.284964 0.351048 0.334553 -0.123134 0.428218 -0.358505 0.243271 -0.0124961 -0.497339 -0.270256 -0.388804 0.199292 0.481752 0.311512 -0.209557 0.212979 
0.780901 0.125754 0.129083 0.106967 -0.0235839 -0.0296862 0.243745 -0.361957 0.0726239 -0.135714 0.208406 0.00586217 0.247792 -0.200992 0.0322927 -0.414963 -0.101054 0.207179 -0.115135 -0.463767 0.546294 -0.324226 -0.298538 -0.0174224 0.503567 -0.0882503 0.0046095 -0.256206 0.0452332 0.279892 -0.357268 -0.273141 0.183274 -0.517512 -0.232679 0.0339347 0.457085 0.0590611 -0.187789 0.202811 -0.0121877 -0.229822 0.0342799 0.170945 0.341185 -0.0797715 0.388425 0.478292 -0.229258 0.769648 -0.293443 0.164012 -0.172733 0.171643 0.517319 0.182978 0.203886 -0.121374 0.592123 0.194532 
0.480066 -0.321227 -0.000564395 0.256873 -0.0734818 0.0873097 0.135831 -0.250703 -0.574438 0.0244604 -0.0926853 0.310988 -0.0650935 -0.631478 0.158356 -0.27506 0.429423 0.616961 0.163193 -0.690758 0.0822295 -0.411267 0.409676 0.228366 0.00431623 -0.0476099 0.786131 -0.195365 0.206888 -0.332742 -0.21967 0.272652 0.059813 -0.120059 -0.318995 -0.451365 -0.0738007 -0.0925415 -0.642483 0.279662 0.710293 0.256578 0.217787 -0.303484 -0.414799 -0.499847 0.122625 -0.218951 -0.0334074 0.0544474 -0.173905 0.0869186 -0.269791 -0.362341 -0.0817532 -0.515764 -0.293725 -0.0738526 0.119362 0.265314 
-0.572342 -0.531116 -0.0975169 -0.0427085 -0.830232 0.0613983 0.126627 0.177806 -0.461422 0.204869 -0.356612 -0.176443 -0.00455559 -0.0580341 0.180541 0.222815 -0.360171 -0.74556 -0.489422 0.31752 -0.254422 0.548102 0.667624 -0.518495 -0.13132 0.48661 0.00365422 0.0509156 -0.362648 -0.33316 -0.192126 0.104977 0.237096 0.493528 0.193047 -0.0674611 0.0796694 0.448524 0.126957 -0.231005 0.18015 0.550098 0.581383 -0.707973 0.806301 -0.611834 0.20953 -0.430727 -0.376523 0.247544 -0.13105 -0.358238 -0.168256 0.0378629 -0.0888131 0.412404 -0.185511 -0.178232 0.22582 -0.118263 
0.03027 0.384054 0.0647489 -0.17827 -0.0726054 -0.179939 -0.161086 -0.485722 0.0124137 -0.445665 -0.310064 -0.263958 0.106769 0.46128 -0.168284 0.272619 0.71002 -0.19289 0.234766 -0.43023 -0.0892739 -0.0709806 -0.110271 0.475819 0.150837 -0.118114 0.129767 -0.0821779 -0.607001 -0.13303 0.0350108 -0.305846 -0.382128 -0.500619 0.481794 -0.371871 -0.341213 0.273137 0.303209 -0.0697289 -0.288296 0.180964 0.00702388 -0.207011 -0.925505 -0.252781 0.237977 -0.211647 0.41104 -0.0425072 -0.596424 0.117503 -0.219416 -0.139386 0.202414 0.0403688 0.14061 -0.337668 -0.348093 -0.0699869 
0.132771 -0.223731 0.220055 0.284336 -0.323868 -0.0206513 0.00221995 -0.492265 0.0654867 0.189735 -0.130165 -0.663866 0.10746 -0.171051 -0.449541 0.0871947 0.0661579 -0.729049 0.519772 -0.0808577 -0.336477 0.603861 -0.422873 -0.372216 1.00193 0.515449 0.216301 0.317396 0.368186 -0.0103113 0.0581769 0.460221 0.453377 -0.0877095 -0.458078 -0.460548 0.238215 -0.242298 -0.0545913 -0.183794 0.292405 0.159551 -0.136186 -0.352977 -0.0111257 -0.331967 -0.381249 0.261101 0.238521 0.570249 0.38315 -0.525991 -1.22397 0.60273 0.120549 0.00971745 0.438022 -0.0228171 0.715419 0.399239 
0.238993 -0.309275 -0.0120088 0.131011 0.264187 0.452345 -0.391155 -0.503709 -0.39843 -0.196786 0.528927 0.039799 0.428472 0.474131 -0.00495003 -0.171123 0.723968 0.210969 -0.229147 0.00337542 -0.457097 0.279471 0.368131 0.278466 -0.312427 0.0521035 -0.563635 -0.33743 -0.0425172 0.0362855 -0.677487 -0.0422277 0.187384 -0.11855 -0.143582 0.175502 0.028639 0.0826808 0.452508 0.315677 0.475453 -0.416192 0.373433 0.417532 0.0747544 -0.352471 -0.253476 -0.091461 0.0367531 0.256633 -0.197208 0.0961666 0.0706253 0.0633196 -0.121396 0.279858 -0.25626 0.642782 -0.652909 -0.0673371 
0.115388 -0.161037 0.172885 -0.320425 0.15195 0.127125 -0.0936314 -0.411334 0.102363 0.42072 0.770116 0.26546 -0.168548 -0.0932687 -0.312533 -0.0762515 -0.00297797 -0.830053 -0.203799 -0.149959 0.0899514 0.106653 -0.219531 0.627116 -0.196105 -0.132382 -0.142463 0.242573 -0.415537 -0.158277 0.0146408 0.425323 0.065157 0.786406 -0.563964 -0.384001 -0.0300568 -0.248437 0.607146 -0.269356 0.252534 -0.06085 -0.41501 0.0579023 0.280294 -0.0585561 0.539036 -0.322707 -0.315476 0.014562 0.170037 -0.120195 0.17718 -0.176003 -0.0492148 0.327043 -0.480073 0.394956 -0.621878 -0.290017 
-0.155048 0.280847 -0.115694 -0.0472592 -0.280454 0.157853 -0.117251 0.285481 0.036909 -0.465754 0.374136 0.222813 0.447623 -0.429504 0.285327 0.451201 -0.197476 -0.403116 0.00218283 -0.540551 0.488752 -0.085446 -1.00029 0.322918 0.434185 -0.315304 -0.372504 0.350493 -0.603234 0.213063 0.328882 0.207797 -0.0955691 0.227185 -0.2586 0.29886 0.0896933 -0.257364 0.246177 0.493075 -0.155899 -0.0385504 0.31982 -0.0854891 -0.106427 -0.26094 0.0632092 0.418211 0.0366521 0.178906 -0.601599 -0.395733 0.922268 0.764131 -0.340997 -0.198099 -0.190048 0.0673052 -0.361599 -0.228062 
0.0139096 -0.0503073 0.492271 -0.420673 -0.383467 0.656289 0.781253 -0.108095 -0.320404 -0.130135 0.478461 -0.367336 -0.0991788 0.0184201 0.126299 0.305423 -0.0517311 -0.536138 0.0716198 0.0510398 0.511405 0.292699 -0.263107 -1.34064 0.50064 -0.227459 0.453829 0.228231 -0.32501 0.171624 0.633299 0.0421836 0.109302 0.546951 0.100124 0.745102 0.117432 -0.153935 -0.397617 0.071006 -0.130484 -0.483143 0.302214 0.276453 0.0296138 -0.178865 -0.182232 -0.504568 -0.405136 0.97154 -0.34698 0.0565469 0.154083 0.591578 -0.255804 0.507225 0.0884097 0.131416 -0.118926 0.174597 
-0.271723 -0.29036 0.687727 0.332537 0.00299106 -0.161989 0.0287757 0.329786 0.0918397 0.30934 0.0358195 0.0725285 -0.673179 -0.234842 0.551428 -0.183221 -0.224975 0.0990458 -0.440994 -0.432959 0.218584 0.284981 -0.341168 0.499571 -0.182154 0.259944 0.034339 0.189647 -0.190837 -0.103597 0.27438 -0.550826 -0.145134 0.527118 -0.185537 -0.0713874 -0.208838 -0.147634 0.172 0.090321 -0.00409326 0.294878 0.184326 0.230632 0.06906 0.278682 0.0376987 -0.0244739 -0.000467126 -0.332874 -0.374602 -0.658712 0.0416422 0.444511 -0.118607 -0.307435 0.219989 0.320827 0.0272896 -0.377304 
0.452176 0.218012 -0.324699 -0.00480353 0.633848 -0.0828754 -0.267109 0.369297 -0.408612 -0.505629 0.0297462 -0.261792 -0.400091 0.0039151 -0.202508 -0.228725 0.224996 0.118106 -0.327038 -0.0703674 -0.0939754 0.318491 0.156728 0.373726 -0.23077 -0.0716514 -0.343856 0.10958 0.240349 -0.290749 -0.40915 -0.197916 0.045035 -0.154831 -0.738144 0.210701 -0.925576 -0.549166 -0.362554 -0.564076 -0.429424 0.579876 -0.104708 0.147634 -0.426653 0.335859 -0.290156 -0.169821 0.0382058 0.0165851 0.240191 0.0231004 0.26746 0.124522 -0.109746 0.0114559 -0.640029 0.528077 0.677497 0.252301 
-0.120994 -0.500866 0.00703908 0.101508 -0.0553344 0.068154 -0.533138 0.366965 0.389572 0.437933 -0.319055 0.560636 0.0433456 0.197047 0.209006 0.185959 -0.180547 0.523207 -0.159633 0.290274 0.559813 -0.298077 -0.180776 0.139046 -0.113185 -0.502822 0.036179 -0.173991 -0.327716 0.335489 0.163248 0.134391 0.0233078 0.263307 0.0424845 0.209088 -0.735984 0.416253 0.10852 0.230332 -0.443764 -0.406417 0.0873852 -0.0727158 0.628753 0.214472 0.406308 -0.135379 -0.117163 -0.438621 -0.269074 -0.107012 -0.31803 0.183847 -0.455861 0.414528 0.212942 0.0583936 -0.0464128 -0.0991262 
-0.432634 -0.0464291 0.226964 0.475059 0.0558194 -0.296818 -0.0252265 -0.223441 0.236978 0.0901359 -0.272827 -1.00419 0.0038271 0.0847337 0.609908 0.115222 -0.239813 -0.0485189 -0.174346 0.0790972 -0.158387 0.328713 0.0255708 0.421661 -0.380579 0.0617757 -0.387605 -0.327654 0.0494369 0.206887 0.0326798 -0.407796 0.548644 -0.642122 -0.15569 0.0388479 0.750019 -0.680446 -0.0507043 -0.428513 -0.646704 -0.973404 -0.0350535 0.0869751 -0.0771211 -0.0231949 0.590908 -0.425025 -0.156462 -0.162807 0.283914 0.0551448 -0.51765 0.325538 -0.392679 0.0380331 0.467734 -0.106377 -0.0514024 0.521718 
-0.222443 -0.298143 0.327459 -0.79702 0.396045 0.230657 0.272251 0.0272117 0.717247 0.146957 -0.200482 -0.136873 -0.778975 0.194651 -0.225416 -0.354492 -0.48287 -0.00787827 0.646301 -0.0273365 0.343994 0.372659 -0.0634583 -0.41055 0.0568409 -0.144091 0.237942 0.111495 -0.0949937 0.27758 -0.532602 -0.239258 -0.201581 -0.520596 0.464762 -0.00189154 0.0510121 0.341027 0.222847 0.264927 -0.397068 -0.119514 -0.063568 -0.214023 0.462127 -0.0877361 -0.153944 -0.587015 -0.0142195 -0.109746 -0.145409 -0.205734 -0.721029 -0.000253351 -0.13983 -0.669564 -0.0772621 -0.0384507 0.179774 0.254023 
0.117995 -0.346124 -0.496714 0.540874 -0.275951 -0.49601 -0.289067 0.0240867 0.534125 0.243754 0.483119 0.829453 0.623149 0.497031 0.0736136 0.177173 -0.714277 -0.427325 0.221349 0.181283 -0.135293 -0.26136 -0.2513 0.239669 0.0381109 0.501026 -0.087414 -0.41413 0.102307 -0.0745298 0.662313 -0.589492 0.0636422 -0.152898 0.282458 -0.00356961 0.231823 -0.191558 -0.234209 0.422684 0.506488 -0.102096 -0.421459 -0.777168 -0.204098 -0.58046 0.0871955 0.378012 -0.203426 0.0906434 -0.439931 0.0531686 0.0169417 0.798518 0.125176 -0.237581 0.612432 -0.00138105 -0.364634 0.0944552 
-0.507817 0.468068 0.0789773 0.308409 0.288953 -0.289395 -0.246295 0.213507 -0.351697 -0.226881 0.168674 0.198244 -0.161137 0.51093 0.133676 0.263652 -0.105674 -0.0936362 -0.0207192 0.136266 0.238401 0.144201 -0.27801 0.290748 0.294543 0.0675328 0.0237642 -0.407191 0.13037 -0.354794 -0.542093 0.176273 0.340723 -0.678978 0.188281 -0.0307364 -0.54422 -0.127567 -0.405811 -0.113846 0.423984 0.923438 0.0420387 -0.244747 0.11386 -0.197163 -0.198132 0.420744 -0.451029 -0.183412 0.146109 0.301553 0.276949 0.0252893 0.318021 -0.0493496 -0.254385 -0.0868832 0.493037 -0.458008 
0.0861055 0.338743 -0.220752 -0.529582 0.41556 0.00851698 0.158652 -0.47578 -0.118914 0.178643 -0.304407 -0.537062 0.190183 0.0986668 -0.564338 -0.0256705 0.0169023 0.0199675 -0.0543895 -0.275437 0.37496 -0.60408 0.311495 0.364798 -0.247198 -0.123608 -0.0866173 0.440034 -0.757544 0.184212 -0.0399568 0.772177 -0.31291 0.305779 -0.560846 -0.139731 0.392219 -0.143454 0.154658 0.205937 -0.0295236 0.360452 -0.77977 0.413452 -0.427532 -0.0782868 -0.376787 -0.248308 0.918177 -0.402268 0.202542 -0.083722 0.0220925 0.264415 0.0603259 -0.00616404 -0.206229 -0.0784954 -0.148767 0.156366 
0.28926 -0.353534 -0.27076 0.455355 -0.042752 0.392766 0.154889 0.255727 0.275656 0.247238 0.063677 0.0172578 -0.27592 0.105172 0.2842 0.397466 -0.223269 -0.415973 -0.148807 0.544133 -0.432272 -0.179538 -0.4752 0.231667 -0.177304 0.0259763 -0.496277 -0.49174 -0.243622 0.275895 -0.644309 0.317014 0.0220522 -0.137339 0.212737 -0.590389 0.2432 -0.522716 -0.0214822 0.138826 0.0592612 0.0629666 -0.197238 -0.201879 -0.0241654 0.797618 -0.167951 -0.0216179 0.137982 0.205735 0.575737 0.075659 0.710622 0.419926 -0.246889 -0.425406 -0.119667 -0.0740714 -0.13697 0.0918132 
-0.523723 -0.01096 -0.45917 -0.0387756 -0.498109 -0.106114 -0.808423 -0.068999 0.294379 -0.643593 0.131055 0.190068 -0.122897 0.244925 0.327739 -0.0528984 -0.102234 -0.597775 -0.0268347 -0.512154 0.308205 0.250962 0.638197 0.172138 0.365495 0.208963 -0.0150642 -0.220624 0.250387 -0.179805 0.297714 0.276239 -0.213522 -0.324658 0.169034 -0.268014 0.374001 0.417521 0.196015 -0.203231 -0.431894 0.153655 -0.0840953 -0.0373127 0.123556 0.778562 0.957084 -0.415084 0.0720981 0.49586 0.238011 -0.0567279 -0.117768 -0.366896 -0.266464 0.25535 -0.108431 -0.0321986 -0.0821675 -0.0188601 
0.322432 -0.285568 -0.119218 0.0548075 0.000155668 0.0181392 0.287438 -0.482334 0.508355 -0.231968 -0.209475 0.313993 0.193323 0.00061793 0.125018 -0.0215914 0.471114 -0.724223 0.416176 -0.895257 0.577219 0.362098 -0.069026 0.0471805 -0.00728469 0.131688 0.244777 -0.0828661 -0.161329 -0.0563157 -0.532706 -0.355452 -0.226179 -0.302196 0.235129 0.36422 0.139246 0.222527 -0.144854 0.152811 -0.121662 -0.45432 -0.00191169 -0.317406 -0.000361529 -0.231636 -0.463817 0.037607 -0.551126 -0.324541 0.00376906 0.733956 -0.0822653 0.412719 -0.00627869 0.604232 -0.181789 0.301467 0.126695 0.383976 
0.444082 0.68326 -0.128597 -0.0344876 -0.257142 -0.207825 -0.0702087 0.406752 0.344414 -0.150606 0.117999 -0.379454 -0.0804908 0.145657 -0.415893 -0.00439771 0.180688 0.0937754 -0.292074 -0.555978 -0.00149385 0.174346 0.281146 0.687891 0.374177 -0.239981 0.404866 -0.229475 -0.427771 -0.235844 0.23818 0.0972951 -0.404912 0.0739106 0.54446 -0.126743 -0.16844 -0.0361737 -0.617199 0.265928 0.487224 0.0754058 -0.412351 -0.486851 0.0266013 -0.21473 0.698705 0.000484837 -0.000588039 0.353102 -0.0206352 0.101634 -0.0106152 -0.816459 -0.129976 0.278004 0.165103 0.259563 -0.0503676 0.130161 
0.0777619 -0.0327043 -0.2571 0.666102 -0.267801 -0.538003 0.303659 0.273476 0.617005 -0.00615861 -0.26441 0.42778 0.0186908 -0.137368 -0.321986 0.396103 -0.169993 0.309963 0.0538107 0.0678524 -0.0263372 -0.465163 -0.0817829 -0.166596 0.259907 -0.0313488 -0.197924 0.100489 -0.479183 -0.284994 -0.598035 0.342772 0.755043 0.467952 -0.611523 -0.674739 0.384723 0.0344152 0.0461174 -0.331311 0.588088 -0.363814 -0.162914 -0.295058 -0.259745 -0.0993977 -0.709764 0.043163 -0.240771 -0.214321 0.464897 -0.305449 0.281675 0.0261721 -0.372354 0.095521 -0.662025 0.149039 -0.257512 -0.421676 
0.132665 -0.224328 -0.0244219 -0.0694306 0.231446 0.43151 -0.683081 -0.142875 -0.319632 0.813077 -0.199983 -0.261181 -0.0426247 0.181812 -0.182192 -0.302544 -0.107511 0.235464 -0.284716 0.0019995 -0.429634 0.653124 -0.522203 -0.145239 -0.163353 -0.465685 0.457632 0.7989 -0.0903367 -0.0028585 0.518715 -0.483188 -0.0579851 0.409283 -0.0389135 0.305085 0.304642 0.0982114 0.752762 -0.501754 0.563625 -0.501391 -0.288634 0.371231 0.050809 -0.201622 0.869275 -0.858046 -0.322414 0.0191982 0.253865 -0.314911 -0.267563 0.0970789 0.576329 -0.506617 -0.468535 -0.189862 -0.412578 0.184721 
0.0597909 -0.174489 0.199339 0.298882 -0.0210203 0.242324 0.371089 -0.152482 -0.588509 0.609956 -0.311201 -0.474203 -0.0354921 -0.453647 -0.0582068 0.229552 0.281093 -0.292964 0.546065 0.298875 0.327133 0.289304 0.29521 -0.301635 0.244442 -0.398617 -0.140079 0.53821 -0.147974 0.430578 -0.226941 0.0587051 -0.054169 -0.357935 0.689051 -0.377142 0.0724764 -0.160527 -0.114551 -0.433399 -0.243049 -0.524844 -0.538536 0.108286 -0.00269948 -0.346146 0.242065 -0.0780871 -0.208779 0.334877 -0.352247 -0.000825508 -0.226305 0.20475 0.364395 0.154398 0.439963 -0.0136001 -0.72186 0.314633 
-0.12115 -0.0609729 -0.638636 -0.457451 -0.23633 0.0195669 0.140526 0.540336 -0.10169 -0.526804 0.184221 -0.232291 -0.105532 -0.747685 -0.386703 -0.150441 0.353825 -0.277868 0.518077 0.483495 0.305541 0.213062 -0.122435 -0.0723547 -0.0902421 -0.10812 -0.183648 -0.807432 0.384366 -0.204134 -0.225222 0.00748584 0.389823 0.0293796 0.736289 -0.365981 -0.069482 0.320798 0.252476 0.445283 0.128252 -0.297909 0.118565 0.330583 0.154775 -0.265582 0.0644391 0.000560643 0.353872 -0.356245 -0.335067 -0.447013 -0.287813 -0.262208 0.0494929 0.186526 0.540379 0.057453 0.288691 -0.28898 
-0.429954 -0.432566 0.357499 -0.23945 -0.201126 0.55737 -0.197018 0.141339 -0.422307 0.311383 0.184845 0.331484 0.157382 0.0600967 -0.512555 0.208321 0.591621 0.0457766 0.345227 0.468239 -0.200343 -0.537736 -0.0841064 -0.0896112 0.472148 0.113295 -0.305855 -0.478833 0.00767036 -0.35263 -0.407866 0.0275376 0.291011 -0.44302 0.198994 0.0817972 0.0577631 -0.68398 -0.314105 0.261664 -0.174074 -0.841368 -0.351414 -0.220585 0.0215971 -0.212347 -0.648969 0.120951 -0.278939 0.0791646 -0.0665024 -0.594644 -0.132222 -0.00959552 0.0567949 -0.15636 -0.141293 -0.296384 0.201837 0.0952717 
0.513426 0.0890232 0.0467334 0.266938 -0.472992 -0.363059 0.543582 -0.0418205 -0.0742365 0.113615 -0.230463 -0.197506 0.387252 -0.0734331 0.252267 -0.0585224 -0.130419 0.269031 -0.0599725 0.23977 -0.0967926 0.41077 0.0295325 -0.432429 -0.150455 0.23336 0.60195 0.0197731 0.235659 -0.518554 0.0436153 -0.0486107 0.520082 0.0138219 0.59231 0.303091 0.42213 0.486836 -0.0400739 -0.32095 -0.0172659 -0.0220872 -0.10185 -0.593682 -0.086478 -0.303064 0.188015 0.318749 -0.110835 0.752079 0.157678 0.392447 0.419431 -0.232942 0.0816779 0.346478 0.172734 0.0142862 0.0804777 -1.038 
-0.830183 -0.0966871 0.455454 -0.177476 0.268381 -0.599077 -0.000354261 0.0790324 -0.346564 -0.246295 -0.246468 -0.11898 -0.224247 0.427481 0.850036 -0.156993 -0.11349 -0.629224 -0.535778 -0.460395 0.213074 -0.147836 0.439384 -0.136081 -0.516672 0.262 0.418162 -0.12543 -0.204283 -0.47622 0.0411448 0.0201796 -0.682995 0.369444 0.453632 0.0791025 -0.436237 -0.315615 0.302803 -0.195197 -0.539644 0.097217 -0.0280965 0.0329135 -0.308975 0.000793235 0.223253 -0.0185948 -0.212575 0.566616 0.371996 0.0840692 0.325165 -0.374987 0.0643543 0.0894138 0.131983 -0.0411151 -0.327369 -0.345523 
0.00830304 -0.385672 1.11781 -0.2807 -0.593523 -0.162881 -0.433194 -0.392862 -0.687999 0.546815 0.283849 0.132197 0.336565 -0.0979606 0.0695118 -0.399703 0.31848 0.16566 0.234183 0.256626 -0.279196 0.302421 -0.629653 -0.479998 0.207254 0.589164 -0.287897 0.224833 -0.402576 -0.180513 -0.167256 -0.622054 -0.105061 -0.331532 -0.154136 0.198412 0.0858612 0.0226945 0.0479786 0.33054 0.144703 -0.433655 -0.122199 -0.0135392 -0.157142 -0.215384 -0.650179 -0.882019 0.418944 0.211675 -0.0258275 -0.173821 -0.360208 0.132324 0.544041 -0.0570346 -0.643798 0.127238 -0.353019 -0.334132 
-0.00617702 -0.737542 -0.165027 -0.831472 0.0415453 0.112612 0.39449 -0.261486 -0.0700335 -0.425397 0.0305656 0.142927 0.0325878 0.530185 -0.210837 -0.231767 -0.0853972 -0.206168 -0.432651 0.437631 0.26151 0.258293 -0.18002 0.141759 0.0308995 -0.483883 -0.380055 -0.326763 0.241903 -0.259476 -0.106705 -0.499568 -0.349322 0.642128 0.187259 -0.124906 -0.421206 -0.290954 -0.140204 0.242995 -0.150893 -0.147678 0.604926 0.0749349 -0.355232 -0.188388 -0.469797 -0.161493 0.618893 -0.33703 0.0970314 -0.0120676 0.428221 0.411911 0.574411 0.522388 -0.00587557 -0.211217 -0.703887 0.403784 
0.0370519 -0.151355 -0.466175 0.155111 -0.371229 0.0956946 -0.000267665 0.459188 0.123461 0.500419 0.35331 0.253875 0.547775 -0.0813098 -0.143297 0.322921 -0.257369 -0.233091 -0.877915 -0.239083 0.0367458 -0.233407 -0.670173 -0.397903 0.406718 -0.776135 -0.0475128 0.327217 -0.0516478 0.12007 -0.370526 -0.208305 0.151342 0.0710921 0.698313 0.0742245 -0.0550167 -0.488767 -0.221975 0.0956057 -0.171209 0.36154 0.101966 -0.385604 -0.164808 0.319305 0.378116 0.195625 -0.424136 -0.0200893 0.197497 -0.243142 -0.799715 -0.106263 0.0393681 0.143972 -0.409437 0.0562921 -0.00207075 -0.262189 
-0.168018 0.136206 -0.0340811 0.218127 0.236861 -0.172995 -0.120262 0.0282663 0.0117618 0.412023 -0.0313272 -0.703946 0.299998 0.106263 0.312695 0.212397 -0.150426 -0.316431 0.108701 -0.0703246 0.0402798 -0.0640706 -0.111655 0.576867 -0.271746 0.269657 0.29341 -0.187128 0.097293 -0.411247 -0.512512 -0.740594 0.533153 -0.280837 0.398521 -0.15454 -0.27283 0.132023 0.534354 -0.5646 -0.311092 0.264505 0.0877261 -0.0672728 -0.257744 -0.000379322 -0.0956087 -0.364796 -0.0297953 0.524911 -0.207892 0.00387939 0.00746538 -0.486263 0.139444 0.300451 -0.25582 -0.162295 -0.797207 -0.302845 
-0.386284 0.319209 -0.150237 0.137693 0.12675 0.238253 -0.301873 0.0481522 -0.444667 0.460063 -0.0841591 0.027257 -0.138134 -0.280307 -0.290486 -0.500672 0.390605 -0.0245241 -0.370913 -0.148732 -0.91753 -0.00214862 -0.173229 -0.119447 -0.0931883 -0.0768708 -0.0558504 -0.432571 0.27109 0.83678 -0.586585 0.0655555 -0.51164 0.333908 -0.205714 0.183958 -0.0102171 -0.130329 0.0477279 -0.367495 0.427554 -0.0513223 0.37852 0.555916 -0.273534 -0.239923 0.298833 -0.822803 0.0261186 -0.433283 -0.338284 -0.601715 -0.453308 -0.366485 -0.0103262 -0.256732 -0.0908945 -0.136004 -0.689757 0.432372 
-0.371633 0.0810684 0.787533 -0.448598 0.110852 -0.131066 0.313804 -0.664752 -0.422341 0.126894 -0.260823 0.205641 0.257586 0.163278 -0.17708 0.119497 -0.660187 0.322806 -0.241003 0.00971918 -0.436966 -0.598934 -0.254686 0.222823 0.464594 -0.017672 0.392959 0.0956683 -0.0723997 0.810433 -0.0495514 0.0152995 -0.162595 -0.988587 0.449066 0.328245 -0.0257674 0.0992544 0.0968581 -0.10366 0.0333636 0.426269 0.0747171 0.527723 -0.445992 -0.450567 -0.3275 -0.171779 -0.061369 -1.11057 -0.0165934 0.583337 0.0186012 -0.130586 0.176837 0.230167 0.163063 -0.0154475 0.228709 0.274947 
0.33433 0.472427 0.0329524 0.0609316 -0.274461 0.534919 -0.0959013 0.602129 -0.194204 0.0452544 -0.0722617 0.104894 -0.317534 0.798219 -0.180315 -0.308344 -0.160653 -0.192256 0.120648 -0.524852 -0.099057 0.264628 0.0229363 0.362788 -0.163502 -0.629099 -0.233607 0.508134 -0.613454 0.241982 0.290966 0.298786 -1.00949 0.0974853 0.419681 0.0752937 0.340972 -0.846436 0.139676 -0.414407 -0.635359 0.692471 -0.803142 0.0849164 0.224244 -0.0912235 0.395383 -0.189567 0.215525 0.435401 -0.026925 -0.080816 0.143006 -0.0549743 0.285071 0.381404 0.212148 0.192518 0.445659 0.271413 
-0.395739 0.42008 -0.423092 0.201761 0.06144 0.19955 -0.133779 0.00976404 -0.57454 -0.363866 -0.0977513 -0.466977 0.253153 -0.457698 0.163868 -0.0552512 0.0199262 -0.072681 0.321138 -0.622981 -0.287326 -0.38472 -0.190166 0.237744 -0.132165 -0.25139 -0.248103 -0.00366964 0.147876 -0.62605 -0.205618 -0.12137 0.30695 -0.0378118 -0.0622259 -0.0978242 -0.301195 -0.223781 -0.214047 -0.00867777 -0.10876 0.142018 0.307691 -0.615899 -0.739182 0.144278 -0.048137 0.255133 0.332811 -0.217371 -0.306131 -0.405166 0.276283 0.535789 -0.233915 -0.0662007 0.234971 -0.678914 0.27054 -0.307462 
-0.0269425 -0.00718089 0.361785 -0.357386 -0.175722 0.0848582 -0.228897 0.386341 0.445359 -0.14729 -0.3659 0.116848 0.0615918 -0.300709 0.189825 0.155098 -0.317137 -0.419723 0.509132 -0.299728 0.056745 0.0702011 0.268239 -0.376437 0.466378 -0.330289 -0.151222 0.0184025 -0.10964 0.0336125 -0.109087 0.286124 -0.34849 0.55296 -0.582583 -0.160102 -0.0428449 0.144233 -0.337545 -0.249587 0.0461953 0.0741219 -0.143183 -0.279104 -0.294259 -0.764406 -0.440082 0.139215 0.0421887 0.221904 0.509702 0.338884 -0.380187 0.262217 0.543853 0.164838 0.261323 0.479455 -0.224513 -0.206884 
0.0925817 0.420979 -0.196003 -0.61129 0.0744856 -0.280629 -0.0412899 -0.07473 -0.00359367 0.311467 -0.42556 0.221087 -0.186286 0.532082 -0.336454 -0.554609 0.0476143 -0.236249 0.0694941 -0.262811 -0.0542018 0.304902 0.439166 -0.587251 0.0705152 0.00567018 0.710372 -0.459551 -0.0857983 0.0880679 -0.0623748 -0.0667082 0.435783 0.139784 0.0163315 0.0383665 -0.2122 -0.707627 -0.0775831 0.0392905 0.113393 -0.918903 0.85054 -0.562428 -0.327487 0.0796259 0.0126898 -0.196834 0.407711 -0.466978 -0.305616 -0.302678 0.266546 0.154711 0.190977 -0.147604 -0.734607 0.643832 0.511579 0.527594 
0.00486454 0.638707 -0.296906 -0.082953 -0.114561 0.624461 -0.18379 0.365884 0.712905 0.540733 0.696434 0.046562 -0.18879 -0.157759 -0.0376482 0.20882 -0.261737 0.40671 0.377996 0.201023 -0.233178 -0.0882981 -0.379455 -0.298718 0.61332 0.304641 0.250372 -0.964299 -0.16974 -0.369997 -0.449915 0.234847 0.198635 -0.296993 0.502901 -0.522345 -0.131032 -0.227517 0.459113 0.260525 0.385985 -0.657466 -0.666311 0.444589 -0.0623047 0.0882344 -0.363381 0.275917 -0.313644 0.0864498 0.20574 -0.576736 -0.065978 -0.244296 -0.170736 -0.391003 0.728145 -0.3058 -0.477317 0.26372 
0.162732 -0.210581 -0.13707 -0.0279761 -0.347951 -0.0899789 -0.085853 0.0514179 0.632445 0.0758456 0.150505 -0.218248 -0.237993 0.556185 0.215298 0.0866221 0.136295 0.32649 -0.163108 0.163555 -0.109075 -0.123625 -0.0466957 0.0270167 0.102673 0.0262699 0.065291 0.142054 -0.186921 -0.184551 -0.0443429 0.05116 -0.060724 -0.394306 -0.0745101 0.495064 0.0918379 -0.257089 0.24418 -0.610404 -0.189256 -0.12252 0.822908 -0.0175954 0.157012 -0.167452 -0.238486 0.417838 -0.319532 -0.289126 -0.233502 -0.158455 0.0660653 0.137702 0.0311714 -0.297841 -0.126962 0.521838 -0.595547 -0.698859 
0.331406 -0.891968 0.178628 -0.156982 0.342366 -0.117216 0.373521 0.815657 0.0060811 -0.431519 0.491257 -0.00453134 -0.500675 0.20658 -0.0269279 0.715375 -0.079695 0.722496 -0.170864 0.0115724 0.0704723 0.0840488 -0.101969 -0.0921451 -0.439244 0.914808 -0.0672118 -0.271458 -0.354456 -0.386066 -0.163065 -0.536857 -0.42903 0.101289 -0.17837 -0.0997067 -0.35207 0.694526 0.00545332 0.290098 0.426141 -0.375675 -0.275911 -0.00379237 -0.216143 0.0882878 -0.389494 -0.131025 0.485373 0.791195 0.288193 0.138037 0.110255 -0.310773 0.387744 0.152839 -0.412579 -0.462919 -0.301773 0.277609 
0.316327 0.243413 0.294693 -0.0206152 -0.384095 -0.260958 -0.375901 -0.235336 -0.800172 -0.349749 0.045723 -0.36833 0.121138 0.19809 0.0369705 0.103904 0.192111 0.0554689 0.728725 -0.441694 0.0700179 0.0295522 0.334808 0.460043 0.839886 -0.373092 -0.0135806 0.0740623 0.0698516 -0.386651 0.161233 -0.15892 0.805883 -0.121731 -0.258579 -0.438867 0.306245 -0.223075 0.4028 -0.00499873 -0.324869 -0.108096 0.191746 -0.262079 0.372928 -0.542063 -0.0267957 0.0475796 -0.605007 -0.327331 -0.0689269 -0.222586 0.223834 -0.165543 -0.401134 -0.629649 0.0686587 -0.319084 -0.192076 0.58531 
0.0296235 0.255059 -0.0491302 -0.284952 0.234562 0.322693 -0.204306 0.14255 0.379068 -0.287846 0.153103 -0.0881745 0.293471 0.140882 -0.387456 0.954904 0.159599 -0.367983 -0.454801 -0.279226 -0.122369 -0.048247 0.557017 1.08386 -0.215789 0.580926 -0.225622 -0.132266 -0.65253 -0.082152 0.267996 0.0730553 -0.136003 0.211539 0.192843 0.00199437 0.625774 0.121366 -0.536367 0.134437 -0.326637 -0.181612 0.209254 -0.110611 0.206396 -0.505842 -0.0704974 -0.655341 -0.27862 -0.104629 0.119117 0.527815 -0.114344 0.232942 0.561161 0.0873634 -0.501236 0.18937 -0.765002 -0.618935 
-0.210003 0.11493 0.655198 0.347759 0.122308 0.191149 -0.278623 -0.0803563 0.521 -0.489401 0.265903 0.0236615 -0.241752 0.209271 -0.48573 -0.0197828 -0.34594 -0.166191 0.232416 -0.533106 0.290052 -0.150713 -0.456309 0.0738101 0.129922 0.217953 -0.480344 0.216441 0.434809 0.457757 -0.0364766 -0.0474052 -0.22674 -0.675824 0.175874 -0.197366 0.219581 -0.259392 -0.0608799 0.310139 -0.0798733 -0.0331652 0.0401161 -0.403853 -0.360109 1.34171 -0.373263 -0.542579 0.782524 0.657191 0.279437 0.00570601 0.297022 0.185964 0.13662 0.550793 -0.252383 -0.417918 -0.0844667 0.649336 
-0.353841 -0.0266698 -0.208545 0.359852 0.16293 -0.258148 -0.147249 0.20098 -0.0165045 -0.109533 0.0866668 0.795139 -0.000910525 -0.525348 0.347839 -0.277209 0.484629 -0.571505 0.442366 -0.0453345 -0.0949775 0.0237044 0.32006 0.0373772 -0.0738966 -0.179919 -0.346419 -0.338823 -0.244071 0.12989 0.181108 0.346044 -0.04836 -0.271834 0.0337213 -0.421496 -0.452846 -0.575438 0.0953672 -0.0540242 -0.378668 -0.260281 0.186451 0.490256 0.79113 -0.0777553 0.33195 0.579935 -0.0323784 0.04911 0.512393 -0.418565 -0.0383531 -0.281266 -0.0658514 0.572618 -0.0775799 -0.221097 0.203292 -0.193154 
-0.419607 -0.24713 0.0205732 0.356875 0.715764 0.374883 0.0944373 -0.374952 -0.0318899 -0.407749 -0.282489 0.132433 -0.0046117 0.879982 0.605341 0.0269738 -0.327038 -0.606825 0.14901 -0.0168907 -0.245374 0.396378 0.345477 0.109561 0.428728 0.494422 -0.117951 -0.0394051 -0.306738 -0.210892 0.214491 0.178659 -0.338048 0.0788823 -0.841712 0.00050504 -0.507904 0.150705 0.715453 0.109299 0.32876 0.0167974 -0.865564 0.0572203 0.100871 -0.0476224 -0.0663321 0.107062 0.690239 -0.408337 -0.0943682 -0.13954 0.348885 0.514758 0.247692 0.404603 -0.0103832 -0.852742 0.0711374 0.235207 
0.0913017 0.0579199 0.0177773 -0.0589522 0.141529 0.435959 -0.343435 0.392292 0.372172 -0.0276478 0.384518 0.385032 -0.358935 -0.776489 0.288944 -0.0401122 0.164092 -0.180515 -0.131628 0.231544 -0.578837 0.415147 -0.0275834 -0.140982 0.582451 -0.124675 -0.151676 0.358078 -0.0132293 0.21396 0.312103 -0.143171 0.0031013 -0.258396 -0.0387082 -0.127772 -0.0238443 -0.0784264 -0.0636058 -0.247148 -0.167364 0.23577 -0.0210104 0.249944 0.516651 -0.0631948 -0.156246 -0.268005 0.014075 0.590829 -0.371218 -0.254144 0.158743 0.36306 0.0021913 -0.964651 0.235719 -0.161317 -0.330599 0.514493 
-0.405599 -0.511586 0.118823 -0.115254 -0.709455 -0.120536 -0.345796 -0.292241 -0.165916 0.138608 -0.0256312 0.208765 0.393994 0.212414 -0.339606 0.0868913 -0.602121 -0.114475 -0.00151007 -0.104951 -0.538573 0.836732 -0.0773196 0.407592 -0.22451 -0.0657091 -0.0317391 0.345934 -0.317858 0.283429 -0.120503 0.433974 -0.560522 0.50927 0.200524 0.0663827 -0.0530293 0.0858885 0.596308 0.275087 0.217549 0.0676053 -0.232331 -0.346427 0.409065 0.432607 0.254328 -0.334906 0.468426 0.0211806 -0.616063 -0.407435 -0.370258 -0.409455 -0.0723361 0.526735 0.381453 -0.144975 -0.248896 0.302192 
-0.440388 -0.091894 -0.33016 0.376842 0.108088 0.407687 0.315943 -0.192962 0.221322 -0.177464 0.056283 -0.0814141 0.473207 0.19168 0.375023 0.370353 -0.107304 0.865707 -0.104256 -0.17003 0.312413 -0.419109 0.584017 0.112585 0.347061 0.0935327 0.351291 -0.178729 0.198238 0.537095 0.493652 -0.254242 0.250918 0.468194 0.063484 0.20337 0.00839436 -0.105914 -0.121693 0.349885 -0.210496 -0.216244 -0.00473392 -0.043547 -0.63892 -0.220911 -0.115283 0.542014 0.216228 0.121145 0.329814 -0.381646 -0.0622969 0.0552921 -0.823668 0.546588 -0.423543 -0.28352 -0.270697 0.441449 
0.349457 -0.317993 -0.137354 0.0367505 -0.172255 0.336363 0.0228525 -0.51893 0.306663 0.555821 0.051175 0.410733 0.212709 -0.157302 -0.774555 -0.259695 0.197018 0.81586 0.339186 0.64305 -0.661044 0.713908 -0.241989 -0.301254 0.251105 0.180879 0.528247 -0.326149 -0.0520184 -0.139445 -0.401015 0.767537 0.271421 0.0984236 -0.072112 -0.2252 0.653162 -0.212849 0.558062 0.261847 0.0378161 0.160362 -0.741264 0.122559 0.367845 -0.167118 -0.526345 -0.541156 -0.0326215 0.563536 -0.186658 0.718957 -0.150207 0.339438 -0.157726 0.0995966 -0.496535 0.402877 -0.143498 -0.400252 
0.529673 -0.028257 0.733403 -0.172446 0.412703 0.0124175 0.0168388 0.0319709 -0.275762 0.0827267 0.150981 -0.231322 -0.449653 0.204639 -0.48343 0.277999 -0.73214 0.611732 0.0294596 0.228266 0.129053 -0.0325232 -0.298796 0.168116 0.0782478 0.404625 -0.115808 0.240124 0.0623938 -0.0491204 0.106059 0.241197 -0.25048 -0.884304 -0.780915 0.701295 0.483556 0.521652 0.186271 0.227735 -0.0259516 0.326146 0.131545 0.241253 -0.0317836 -0.0354341 -0.485788 -0.0236198 -0.230103 0.226244 -0.116258 -0.468997 0.221913 -0.232202 -0.0799747 0.0326494 0.0192211 0.17767 -0.235079 -0.238775 
-0.559003 -0.484724 -0.0768884 0.295702 0.0717684 0.0929324 0.422673 0.165839 0.0356806 -0.167007 0.428078 -0.40068 0.249403 -0.293852 -0.161186 0.171974 0.169831 0.0957994 0.155428 -0.118274 -0.307854 -0.398192 0.000529216 0.113801 -0.0566638 -0.00361393 -0.343624 -0.331678 -0.21421 0.131397 -0.0391952 0.529034 -0.232462 0.420706 0.0968773 -0.321686 -0.497914 0.641737 -0.16693 0.428449 -0.0595051 0.380135 0.00561836 0.404391 -0.0612578 -0.388951 0.122668 0.454609 0.131845 -0.187252 -0.135645 0.204125 0.0872556 0.198433 -0.111213 0.116979 -0.188278 0.325324 -0.325645 -0.180076 
-0.477046 -0.296615 0.807601 0.243575 -0.173665 -0.390821 0.463407 0.190666 0.382668 0.215073 0.271789 0.123548 -0.759709 -0.0712306 0.262147 0.250298 0.742568 -0.0608511 -0.15602 -0.0116209 0.762362 0.477435 0.05771 -0.120246 -0.73942 0.187316 -1.00738 -0.295179 0.645139 -0.109797 -0.0418692 0.039215 -0.237415 0.151569 0.225405 0.0248366 0.551394 -0.394467 0.55907 0.0274241 0.0111499 -0.06296 0.0580372 0.366269 -0.0420019 -0.140864 0.705363 -0.0807227 -0.180679 -0.0658756 0.00108525 -0.134792 0.437659 -0.124565 -0.464351 0.215691 0.0650334 0.480891 0.0520039 -0.272402 
-0.316141 -0.0298575 -0.358412 -0.529377 0.447826 0.213582 -0.171214 0.0812201 -0.0446668 -0.511713 0.0231505 -0.57018 -0.219467 0.509629 0.286393 0.421437 0.0881064 0.446573 0.26272 -0.23527 -0.233012 -0.0157145 -0.246833 0.513687 0.319941 -0.302438 -0.480261 -0.247913 0.716568 -0.0155028 0.10894 0.0271657 -0.254988 0.0500533 -0.133957 -0.37885 0.116761 -0.629546 0.451044 -0.397753 -0.060177 0.0915021 -0.333747 0.0428632 -0.148196 0.428087 0.0223587 0.0944893 -0.72164 0.0784058 0.117524 0.18076 0.216999 0.349088 -0.669781 0.0460544 0.462711 -0.576201 -0.489518 0.0266033 
-0.151533 -0.0562065 -0.103986 0.12902 0.366591 0.339358 0.731569 -0.343198 0.0244374 0.144115 0.0797874 0.227746 0.408306 -0.344891 0.123921 -0.0713728 0.178344 -0.0534227 -0.140596 -0.307524 -0.357474 0.102226 0.632354 -0.261317 -0.226429 0.121713 0.0402104 -0.228898 0.429594 0.0831875 0.22196 -0.145755 0.0925407 -0.521806 -0.25408 -0.468449 -0.358777 -0.244985 0.308332 -0.142443 0.551037 0.476995 -0.127416 0.0986625 0.250827 -0.0745966 -0.124687 0.247875 0.135903 0.56258 0.327498 -0.0393867 -0.502135 -0.424744 -0.445022 0.13523 -0.0668987 0.351831 0.424148 -0.272325 
-0.197395 0.236508 -0.616807 0.239842 0.245033 -0.160664 -0.394842 -0.0802714 -0.768888 -0.595449 -0.280871 0.0416702 -0.0160878 0.213348 0.101043 -0.209338 -0.259687 -0.0563238 -0.762517 0.480682 -0.230801 0.0383352 -0.694593 0.106405 0.23537 0.239936 -0.0976356 0.045723 -0.153599 1.07511 -0.268258 0.0524231 0.320077 -0.618555 0.0875228 -0.0184715 -0.104237 0.0777129 0.326633 0.136963 0.000523463 -0.126788 -0.285753 0.492534 0.272937 -0.0706697 -0.411741 0.218569 -0.0920452 -0.179947 -0.325512 -0.201657 -0.462715 0.0172578 -0.239566 0.037168 0.564272 -0.0930392 0.176131 -0.205623 
-0.43342 0.502704 -0.428927 -0.235656 0.208835 0.631665 -0.127162 0.16692 -0.0498929 -0.23142 0.0369496 0.653279 0.110608 0.288943 0.265239 -0.393262 -0.00369843 -0.484326 0.115466 0.413441 0.189689 -0.0168801 0.300815 0.0602212 -0.553893 -0.0053999 -0.493362 0.00405802 0.223475 0.227742 0.189551 -0.0553125 0.353557 -0.0422788 0.555085 -0.129524 0.00721283 0.13452 -0.295314 -0.0168188 0.177012 -0.0116039 -0.078581 0.162101 -0.850484 0.257566 0.0144836 0.215824 0.297302 0.231794 0.821834 -0.0135665 -0.0924759 0.752904 0.541797 0.0427527 -0.0950639 -0.0558331 0.00899484 0.0957907 
0.660143 0.188536 -0.0970172 -0.193229 0.185168 -0.37921 0.315699 -0.571143 -0.413965 -0.0650576 0.121205 0.0438435 0.12636 0.418975 0.209227 -0.23018 -0.0309233 0.651865 0.445435 -0.0171384 -0.759649 -0.286725 -0.184714 0.527382 0.335656 0.573767 0.0393816 0.0685043 0.486369 -0.254342 -0.612762 0.262213 0.341645 -0.390642 -0.256082 0.320756 -0.376389 -0.190046 0.177688 0.340096 -0.112727 0.173206 -0.163444 0.281749 0.111437 -0.0274162 -0.118052 0.277223 0.0988725 -0.698095 -0.0204119 -0.0696058 -0.427924 -0.20064 0.658813 -0.368943 -0.00911943 0.139736 0.309499 0.455892 
-0.0436276 0.19236 0.818772 0.409297 -0.464256 -0.140578 0.0580686 0.241298 -0.111137 0.790872 0.172282 0.215767 -0.348975 -0.162012 0.397815 -0.0181816 -0.0159602 -0.0494523 -0.0905484 0.679247 -0.179293 -0.431183 0.463282 -0.04843 0.588934 0.27371 0.0917676 0.0244575 0.0820107 0.0633395 -0.510169 -0.957669 0.0632586 -0.357587 -0.0338637 -0.451473 0.128746 -0.2738 -0.617043 -0.243577 0.107251 0.128876 0.0902849 -0.076392 -0.777822 0.163994 0.476663 -0.327735 -0.0233488 -0.201271 0.372667 -0.491475 -0.816125 0.16712 0.115574 0.283358 0.582247 -0.563733 0.137778 -0.0294234 
0.0738785 0.51479 0.0251829 -0.478941 -0.142784 -0.00744894 -0.284068 -0.328019 0.269646 0.0352339 0.609194 0.183289 -0.340261 0.120595 -0.102132 -0.631149 -0.276199 0.0659274 0.286579 0.0579798 -0.0191762 -0.00569373 -0.284393 -0.0839934 -0.582572 -0.0437204 0.243351 -0.460608 0.10131 -0.0983237 -0.220936 -0.271427 0.387127 0.439453 0.897826 -0.600024 0.350925 -0.118142 0.739456 0.114371 0.231052 -0.00527787 -0.229716 -0.21865 -0.107225 0.0744393 -0.147971 -0.55157 -0.361231 0.49391 0.129139 0.0531228 -0.391807 0.275401 0.534136 -0.13684 0.0955227 -0.702626 -0.0961735 -0.662438 
0.034667 -0.115475 0.540425 0.0380477 -0.24966 -0.372415 0.54481 0.0102056 -0.693716 -0.761234 -0.517244 0.375247 -0.0217136 -0.325919 -0.130316 0.277867 0.719943 -0.0992813 0.0211129 -0.427514 -0.438657 -0.688708 0.217307 0.0954091 0.549987 -0.313583 -0.0216861 -0.451866 -0.0975411 -0.123851 -0.0267368 -0.309929 -0.133167 -0.688523 0.310608 0.214776 0.117419 0.262783 -0.309614 0.190455 0.0933959 -0.0992345 0.137938 0.177289 -0.184231 -0.266441 0.531103 0.0538193 -0.0631764 -0.152323 -0.0728105 -0.0954738 0.505176 -0.145763 -0.222343 0.0146182 0.0467238 0.424174 -0.0756106 0.11272 
0.192311 -0.533552 0.31489 0.255417 0.116123 -0.279945 0.108883 -0.289697 -0.520705 0.0332657 0.0437298 0.559941 0.346232 0.466013 -0.156389 -0.026879 0.324982 -0.568542 0.513732 0.527803 0.114164 -0.130334 0.297563 -0.315388 0.079572 -0.169963 0.257904 0.0717843 -0.0629664 0.309959 -0.111461 0.335389 0.22411 0.0520527 0.217699 0.115381 -0.361058 -0.307758 0.0707873 -0.118264 -0.051577 -0.00815455 0.144344 -0.0727911 0.0901842 -0.537084 -0.0106404 -0.268562 -0.160882 -0.187795 0.0560853 -0.0296142 -0.0270096 0.460496 -0.40411 0.195197 0.00982459 -0.1306 0.322282 0.234273 
-0.44239 -0.479246 0.111477 0.372772 0.117532 0.364192 -0.202871 0.416041 0.713527 0.0546105 0.25127 0.144907 0.0899378 -0.269439 0.36147 -0.202613 -0.143366 -0.618169 0.588665 -0.0959778 0.109757 -0.42706 0.144035 0.0775671 -0.269267 -0.181389 -0.0807178 0.336154 0.48388 -0.24294 0.122969 0.0534642 0.0359949 0.517381 -0.210722 0.458112 -0.0173453 -0.063702 0.319835 0.301069 0.107695 -0.0621446 0.701251 0.258265 0.41273 0.293006 0.27149 0.199897 -0.136286 -0.150517 -0.116143 -0.322883 -0.105655 0.182306 0.463402 0.448754 -0.132272 -0.183213 0.290574 -0.287169 
-0.32392 0.263681 -0.442459 0.265592 -0.00603624 -0.116104 0.0502801 0.61128 0.109424 0.29148 0.219889 -0.0130367 -0.064394 -0.307656 -0.0989775 0.160494 0.42258 0.0740252 -0.719022 -0.16074 -0.646831 0.0222634 -0.261784 0.190678 -0.482352 -0.331375 0.341462 -0.280154 -0.452009 0.51286 -0.0856401 0.645451 -0.0983468 0.141629 -0.457775 -0.0611873 0.587593 -0.215854 0.0327597 -0.141492 -0.420527 0.207154 0.220218 0.356159 -0.359703 0.103742 0.359417 -0.486434 -0.253675 0.264591 0.20193 0.165258 0.0376315 0.130176 0.351631 0.229761 -0.0497099 0.502152 -0.510733 0.0534098 
-0.361179 0.37031 -0.352997 0.332993 -0.0354987 -0.41068 0.0436787 -0.00850899 -0.410267 -0.519872 0.102142 -0.802364 0.0707753 -0.351752 -0.175019 0.748386 -0.240046 -0.129089 0.0912778 -0.0324976 0.34066 0.60064 -0.294082 0.0030293 0.713764 0.231861 -0.314754 -0.517488 -0.225362 -0.104901 -0.341031 -0.307124 -0.93232 -0.222776 -0.0324933 0.0866898 -0.0322685 -0.183106 -0.494944 0.117438 0.408925 0.119706 0.210542 -0.217698 -0.331222 0.230587 0.105333 0.272503 -0.106167 0.093389 -0.00136104 -0.474926 0.454534 -0.085021 0.216885 -0.637809 -0.36369 -0.350508 -0.115499 0.250736 
0.0572599 -0.121573 -0.474203 0.137109 -0.389179 -0.580663 0.000354683 0.42026 -0.429674 -0.495262 0.244317 0.157864 0.767234 0.166354 -0.4877 0.388802 -0.605764 0.239318 0.174154 0.677688 0.340042 0.423171 -0.541979 0.659109 -0.0561021 -0.127716 -0.312753 0.689405 -0.116473 0.135414 0.261835 0.111138 0.220228 0.491016 0.482248 0.379747 0.370773 0.483776 -0.39688 0.165779 -0.703626 -0.371421 0.245282 -0.144538 0.08352 -0.00770114 -0.299437 -0.000843183 0.452349 0.0163789 0.406626 -0.0669052 0.0757951 0.472754 -0.43938 -0.236028 -0.00711307 -0.52795 -0.00698559 0.011531 
0.164026 -0.230433 0.330885 -0.264619 -0.0385645 0.141858 0.244247 -0.189096 -0.206435 -0.378913 -0.101441 -0.593005 -0.364781 -0.394925 0.115745 -0.332989 0.34069 -0.348691 0.296197 -0.473588 0.332145 0.0276485 0.484766 0.131435 0.477429 0.517759 -0.440896 -0.336129 -0.0653505 0.376164 0.0140696 -0.265479 -0.103044 0.153958 0.511761 -0.00262957 0.164952 0.422762 -0.256391 -0.325929 -0.0748255 0.0140983 0.0180768 -0.426309 -0.37844 -0.125728 -0.00218215 0.239035 0.262992 0.326551 -0.475473 0.304342 0.296007 0.354622 -0.528603 0.22173 -0.563788 0.417649 -0.234724 -0.17589 
0.181324 0.265274 0.0224071 -0.263589 -0.00481365 -0.0134835 0.126906 -0.0924829 0.0812768 -0.100811 0.445492 0.295315 0.4998 0.119746 -0.123246 -0.23349 -0.659642 0.262839 -0.359852 0.0671931 -0.434958 -0.321439 -0.0299902 0.392053 -0.184653 -0.475488 -0.202819 0.147381 0.140934 0.148559 -0.270191 -0.429406 -0.530922 -0.77198 0.0309506 -0.285052 0.173002 0.373905 0.648349 -0.0599613 -0.225708 -0.19385 -0.0858783 0.0719108 -0.0898456 0.496945 -0.289902 -0.345095 0.491479 0.3067 0.463207 0.0610829 -0.0320264 0.23962 0.190894 0.140495 0.567056 0.119665 -0.399241 -0.38475 
#
-0.137159 -0.126892 0.0586694 0.335016 0.334662 0.145344 -0.154751 -0.0040717 -0.729983 0.544206 -0.0464038 0.211388 -0.231432 0.101343 0.103892 -0.0585925 -0.19746 0.227334 -0.578966 -0.155212 
0.337532 -0.238088 0.363051 0.0525451 -0.0436366 -0.445678 -0.37656 -0.155982 -0.0515902 -0.174201 0.172198 0.0476352 -0.120766 0.287499 -0.105813 0.0634667 -0.585888 0.277275 -0.477874 -0.374338 
-0.278367 0.018575 0.14646 0.218525 -0.620173 -0.461344 -0.259655 -0.300949 -0.367529 0.290998 -0.208061 -0.413373 0.414973 -0.0317413 0.107737 0.0681773 -0.0202313 0.532097 0.00634688 -0.0452802 
-0.826315 0.225724 -0.197723 -0.0220131 -0.413424 0.814395 -0.459345 0.0139754 0.0802696 -0.303472 -0.0476068 -0.422636 0.35821 -0.0624268 -1.04161 -0.599467 -0.652306 0.367923 -0.559944 -0.0419809 
0.125009 0.0944767 -0.212598 -0.442436 0.0715776 -0.162913 -0.16888 -0.169438 0.128419 0.16228 0.0747139 -0.16863 -0.0817063 0.696063 -0.567079 -0.00731812 0.397246 0.069533 0.160764 -0.339016 
0.147394 -0.767148 0.336372 0.39187 -0.486393 0.199971 -0.0645219 -0.122202 0.150911 0.2079 0.166003 -0.0240582 -0.741459 -0.358339 0.0132817 -0.143993 0.22637 -0.078345 0.636929 -0.308675 
-0.0870216 -0.177254 0.132547 0.147273 -0.395682 -0.456695 -0.203956 -0.178747 -0.861941 0.0980929 0.135235 0.165899 -0.347684 0.326205 -0.532014 -0.226676 -0.566137 0.118822 0.0344088 -0.133985 
0.317782 0.122649 -0.546392 0.664114 -0.269365 0.355812 -0.374952 0.189818 0.112175 -0.517157 0.171011 -0.157337 0.0293635 -0.175546 0.302864 -0.246185 -0.0261464 -0.291238 0.0664581 -0.195154 
-0.329804 0.170535 0.123289 0.0862535 -0.353726 -0.579538 -0.189092 -0.176753 0.259651 -0.0749522 0.474924 -0.242672 -0.277079 0.120638 -0.025907 0.022493 -0.10472 -0.108001 -0.0971803 -0.378993 
0.156831 -0.38227 0.335352 -0.130286 -0.183668 0.0681304 -0.888071 0.179652 -0.421252 -0.256259 -0.0269527 0.00911892 -0.612331 -0.0654366 -0.134625 -0.279467 0.622037 0.163076 -0.140939 0.0904031 
-0.0586187 0.0414822 0.31863 0.0118609 0.338036 -0.0107501 0.2747 -0.894689 -0.0890471 -0.0119432 0.254404 -0.434901 -0.172955 -0.0194731 0.450131 -0.262353 -0.50229 0.434326 -0.247936 0.335452 
-0.0718631 -0.0169687 -0.207077 -0.319609 0.122524 0.0680083 0.0570618 0.0856403 -0.212123 0.0591171 0.386283 0.396488 -0.190799 0.143075 -0.562278 0.142722 -0.421525 0.623303 0.121649 0.58593 
0.0529362 -0.217438 -0.146515 -0.185659 0.0240119 0.317835 -0.292119 -0.34334 -0.670703 0.0503365 -0.493113 0.150093 0.288396 -0.448047 0.353241 -0.146772 -0.214737 0.429679 0.130712 -0.145173 
-0.485359 0.192243 0.0388615 -0.126818 0.169298 -0.00295671 0.283643 0.119162 -0.223723 0.106216 0.204524 0.320735 0.260525 -0.0284275 0.0942073 -0.0936902 -0.316623 -0.358068 -0.234256 0.21844 
-0.433384 -0.13129 0.609886 -0.285082 -0.201835 -0.338464 0.154989 -0.316028 0.158915 -0.0371483 -0.245695 -0.0570902 0.0997484 0.404083 0.218537 -0.220328 0.41652 -0.0851635 0.0167339 0.467768 
0.447798 0.221625 -0.117677 0.631941 0.182171 0.461808 0.0838594 -0.167508 -0.043743 0.326969 -0.388948 -0.293734 -0.419362 -0.143193 0.463201 0.0610548 0.0190524 0.048573 -0.580039 -0.174041 
0.166838 0.23173 -0.257212 -0.208789 -0.172312 -0.46524 -0.246201 0.0982063 0.238436 -0.00125481 -0.0440235 -0.252143 0.473706 0.191927 0.871658 0.303015 -0.601074 0.358912 -0.564191 0.0177934 
-0.248183 -0.000898532 0.325466 0.0192621 0.184984 0.0858399 -0.223805 0.26699 0.609054 0.179245 -0.139061 0.130185 0.0372454 0.442476 -0.355476 0.0661052 -0.287164 -0.0410958 -0.14698 -0.108374 
-0.0183764 0.272225 0.0354157 0.0915035 -0.018512 -0.337272 -0.0558501 -0.343247 -0.660024 -0.775729 -0.0981341 0.409111 -0.0796467 0.0766148 0.0436249 -0.167554 0.148007 -0.187185 -0.21629 -0.455051 
0.164356 -0.0657514 0.214447 0.101755 0.0335631 0.461586 -0.00939189 0.607167 -0.0412556 0.251506 -0.260005 0.126662 0.189097 -0.468887 0.480128 0.120444 0.174604 0.270261 -0.673577 0.440167 
0.0829009 0.25457 0.409841 -0.57624 -0.0790762 0.288863 -0.410674 -0.0652322 0.0209345 0.49165 -0.139613 0.431345 0.609617 -0.370854 0.016792 -0.367761 -0.196851 -0.203079 -0.385755 0.469419 
0.0534625 -0.196711 -0.134037 -0.184632 -0.0918155 0.552291 0.0657047 0.439988 -0.0568251 -0.104463 0.312006 -0.213745 -0.18239 0.17023 -0.270031 -0.0115138 0.121699 -0.733382 -0.00169849 -0.151535 
0.07623 -0.0545346 0.244891 -0.04998 -0.540838 0.443218 0.133209 -0.136147 -0.614752 -0.105119 -0.0963957 -0.0568968 -0.225916 0.12606 0.0622887 -0.211911 -0.451204 0.501094 0.639966 0.567963 
0.466846 0.470952 -0.134005 -0.272234 0.0658044 0.147768 -0.10672 -0.22815 0.0607733 -0.189857 0.662206 -0.218364 -0.0207695 -0.609767 -0.34418 -0.0545913 0.396925 -0.5358 0.122361 0.177351 
0.642799 -0.152188 -0.171213 -0.0552038 -0.378915 0.386773 -0.27849 -0.0865556 0.0880249 -0.248019 0.139285 0.118311 0.264382 -0.0847418 0.60862 0.0836211 -0.308399 0.170934 0.170919 -0.249183 
0.240674 0.519217 -0.0931983 -0.24847 -0.375117 0.373603 0.578535 -0.268268 -0.343765 -0.230986 -0.195789 -0.483782 0.824702 0.1798 -0.183266 0.0991551 0.205251 -0.285795 0.140839 0.618534 
0.195704 -0.512073 0.146644 -0.400875 -0.206076 0.0870222 -0.197063 -0.543057 0.174747 0.168063 0.00103929 0.275568 0.0633213 -0.441029 0.190156 0.0485086 -0.0872142 0.25279 -0.233048 0.0225018 
-0.259262 0.374837 -0.198441 -0.783412 -0.185573 -0.176657 0.0359804 -0.17752 -0.10691 -0.365233 -0.0346353 0.265319 0.111161 -0.0118832 0.0582835 -0.0776732 -0.0105741 0.238525 -0.23453 0.709233 
0.312175 -0.0517931 0.27576 0.0313718 0.406358 -0.0429682 -0.645479 0.319699 -0.368978 -0.168696 0.255472 0.532686 -0.379879 -0.295903 0.0940026 0.722863 -0.714859 0.28875 -0.681527 0.101281 
-0.367096 0.24813 0.235419 -0.511467 -0.341274 0.0533365 -0.121717 -0.20279 0.260607 -0.343057 0.231529 -0.00970127 0.530309 0.404229 -0.406733 -0.249633 0.158989 0.583191 -0.208497 0.0713114 
-0.364556 -0.0121533 -0.304374 0.944931 0.401819 -0.134959 0.706798 -0.0226176 0.395168 0.306592 0.252119 -0.175544 -0.044441 -0.0144226 -0.33634 -0.151772 -0.533246 -0.123302 0.280898 0.512148 
-0.170581 -0.0551966 -0.143287 0.437402 0.176194 -0.150276 0.385804 -0.112547 0.47033 -0.0685101 -0.176862 0.381703 0.054382 -0.150734 0.67979 0.130685 0.369566 -0.0267906 -0.438945 -0.243005 
-0.295513 0.0706344 -0.0405602 0.523765 -0.204932 0.399877 -0.2939 -0.4364 0.137877 -0.12155 0.064193 -0.232915 -0.211744 0.23692 0.125147 0.49298 0.197679 0.368379 0.0187667 0.462148 
-0.284164 0.120652 0.17359 -0.304021 -0.136971 0.243733 0.572614 -0.320791 0.460676 0.701102 -0.572865 -0.524387 -0.00989379 -0.265379 0.182968 0.119727 -0.0818335 0.398162 -0.668768 -0.239867 
-0.199511 -0.548045 0.248393 -0.125536 -0.0326146 0.32394 0.270178 0.101479 -0.0557874 -0.0822598 0.338447 0.149317 -0.655816 -0.642416 0.116217 0.147298 -0.150581 -0.113521 -0.439777 0.294386 
0.156324 0.018937 0.183354 0.464988 0.0842936 0.270148 0.166998 -0.168013 0.400735 -0.283099 -0.234511 -0.459471 -0.0760191 0.0928505 -0.205133 0.0947717 -0.281038 0.210336 -0.376017 -0.855291 
0.324499 0.339063 -0.809201 0.0365234 -0.43693 0.407493 -0.00291818 0.514285 0.0977538 0.00657498 -0.826083 0.314871 0.0577913 0.128627 0.172993 0.129064 -0.461254 0.764028 -0.15549 -0.749388 
0.430923 -0.170325 -0.343982 -0.371577 0.37852 0.639732 -0.0510428 -0.757511 -0.332654 -0.300479 -0.485569 -0.181013 -0.245153 -0.441317 -0.147747 -0.0706199 -0.272429 0.553646 -0.3513 -0.629136 
-0.0658923 -0.103525 -0.261446 0.155453 -0.0578771 -0.0496727 -0.263486 0.613944 -0.508516 -0.172497 1.19728e-05 0.3438 -0.564526 0.0152986 0.356653 -0.0858119 0.130371 -0.0501525 0.0417754 -0.0982253 
0.398268 0.155727 0.352211 0.29067 -0.247804 -0.153394 -0.599327 -0.436204 -0.321767 0.211564 0.224981 -0.292932 -0.197641 0.216357 -0.319911 -0.824294 0.0851037 -0.0611815 0.113919 -0.131011 
-0.132257 -0.275482 -0.263007 0.0548711 -0.241327 -0.538134 -0.00431043 0.249616 0.0746871 -0.658655 -0.218821 0.27895 0.261553 0.00105205 -0.0682561 0.369537 -0.0612186 0.403176 -0.220098 -0.278158 
0.379625 -0.27904 0.118404 0.262304 0.156293 -0.80489 -0.37813 0.432611 -0.343766 0.180231 0.0818472 -0.969896 -0.29071 -0.608599 -0.201867 0.296437 -0.202439 -0.323024 -0.354271 -0.562995 
-0.13864 0.667925 0.0628534 -0.423281 0.070142 -0.0762243 -0.129041 0.16476 -0.128102 0.677022 -0.207475 0.521072 0.446383 0.195794 -0.403091 0.286132 -0.621289 -0.0726932 -0.209395 -0.531332 
0.152316 -0.446157 0.166038 0.0263423 0.381279 -0.142708 0.67186 -0.178181 0.069507 -0.446534 0.884818 -0.341807 -0.322331 0.251361 0.245743 -0.104347 0.0390859 0.00267007 -0.160587 0.625 
0.429168 -0.275929 0.234504 0.681728 -0.294559 0.021512 0.2032 -0.00518018 -0.117432 -0.0668093 -0.523872 0.05717 -0.0222194 -0.133931 0.155943 -0.252528 -0.418122 -0.175316 -0.152181 0.414093 
-0.00624051 -0.382924 0.135865 -0.208031 -0.281088 -0.474049 0.20595 0.678463 0.8335 -0.35057 -0.0390463 0.607579 -0.146708 0.292904 -0.320217 0.204847 -0.521376 0.0219508 0.0565513 -0.0733308 
-0.151567 -0.149207 -0.693193 -0.433115 0.208932 -0.136747 0.35381 -0.470994 0.00250329 0.220719 0.435612 -0.320139 0.0348563 0.388405 -0.466782 0.184401 0.186582 0.0664234 -0.444397 0.234541 
-0.403517 -0.470004 0.780974 0.283956 -0.136303 0.407813 -0.205233 0.223211 0.147465 -0.394979 -0.152284 0.0763292 0.0320945 -0.10078 0.120723 0.107028 0.216169 0.120394 -0.273152 -0.289676 
-0.271693 -0.133188 -0.0121935 0.396834 -0.0353949 -0.0280608 -0.259175 -0.189347 0.735792 -0.665381 -0.309815 0.390626 -0.545987 0.334355 0.0686681 0.5333 -0.126813 0.189738 -0.577126 -0.146895 
0.103749 -0.0163995 -0.115536 -0.050275 0.448306 -0.279443 -0.289147 -0.0507729 -0.181586 0.182981 -0.0375868 -0.0146447 0.248393 0.1166 -0.396046 -0.0692861 0.00824198 -0.148051 -0.216633 -0.231835 
-0.139767 0.148528 0.203029 -0.163202 -0.0265675 -0.0183499 -0.107816 -0.474158 -0.420447 0.0839789 -0.314595 0.62113 -0.299079 0.803323 -0.367885 -0.319116 -0.123396 0.297371 0.510151 0.185095 
-0.792549 0.0745721 0.280504 -0.0769012 -0.11759 -0.243837 -0.0661785 -0.0672215 -0.195222 0.101427 -0.510276 -0.0821449 -0.312355 0.0870127 -0.0163596 0.532746 -0.168234 0.261854 -0.109877 0.129025 
-0.153384 -0.376446 -0.10817 -0.661771 0.670061 0.0664697 0.234394 -0.290415 0.0973305 0.403172 -0.000475134 -0.293946 -0.20354 -0.279058 0.302653 -0.0502873 -0.0958492 0.197522 -0.311138 0.211813 
0.256797 -0.356014 0.395964 0.469436 0.584422 0.210544 0.234148 0.335905 0.0992228 -0.129561 0.669273 -0.268954 0.342286 -0.274996 -0.115776 0.0772596 0.118434 -0.457439 0.369667 0.210157 
-0.455437 0.411115 0.31897 0.157098 0.230613 0.542772 -0.0552666 0.494842 -0.351819 -0.169043 -1.21461 0.0149218 0.398698 -0.400085 -0.00334366 -0.0185667 0.00257202 -0.136735 0.656349 0.0671143 
-0.15021 -0.450139 -0.114451 -0.397894 -0.405108 -0.136845 0.0838525 -0.0183917 0.0291358 0.154917 -0.462428 -0.311928 0.239711 0.694626 -0.0893923 -0.0770215 0.285038 0.551518 -0.0296515 -0.175718 
-0.526222 -0.057256 -0.0108291 -0.0137088 0.449694 0.766649 -0.174598 -0.165723 0.437078 0.51078 -0.743651 0.168683 -0.0395076 0.372595 -0.057748 0.0159235 0.302245 -0.288563 0.515383 -0.0595985 
0.106751 -0.169007 0.0129239 -0.117688 0.0534877 0.448449 -0.00269767 -0.512396 0.107658 0.207779 -0.196338 0.23934 -0.339046 0.0514115 0.147162 -0.0349416 0.117074 -0.578417 -0.47347 0.0584669 
0.120226 0.0362661 0.562756 -0.476998 -0.021256 0.043791 -0.2741 -0.612874 -0.0507292 -0.258135 0.514416 -0.0297566 -0.170909 -0.0695054 -0.304318 0.444996 -0.232014 -0.51745 -0.126423 0.135212 
0.286631 -0.354647 0.31442 -0.448917 0.483984 -0.0456996 0.311221 -0.0587495 -0.485218 -0.09473 -0.325292 0.276999 -0.23059 -0.154629 0.113928 0.0786764 0.0187294 0.353102 -0.101877 -0.142754 
#
0.0780486 
-0.0186863 
-0.609903 
-0.27675 
-0.105022 
0.143623 
-0.763109 
-0.227907 
-0.147941 
-0.318407 
-0.257064 
-0.166926 
0.340774 
-0.0565402 
0.574099 
0.020148 
-0.363678 
0.0987676 
0.166323 
-0.450526 
#
