-0.401903 -0.0219354 0.540652 -0.458407 0.0824091 0.177471 -0.279653 -0.292817 0.232789 0.0649542 0.472894 0.126151 0.493119 0.410001 0.110576 0.373432 -0.408484 0.425595 -0.367296 -0.517503 -0.333771 -0.146037 -0.42711 -0.262201 -0.726951 -0.0866738 0.0168107 -0.25315 -0.202232 0.32491 -0.222667 -0.446626 0.495995 0.356833 -0.134706 0.216945 0.278744 0.115143 0.0270894 0.420021 -0.129221 -0.31134 -0.45277 -0.226207 0.521538 0.176083 -0.159684 0.236066 -0.0967614 -0.376751 -0.148651 0.313233 0.343365 -0.414565 -0.264574 0.794668 -0.00831241 -0.0755416 0.507551 -0.724317 
0.256085 0.0462799 0.360834 -0.687074 0.272118 0.401523 -0.215255 0.231427 0.239231 -0.0437916 0.178753 -0.407261 -0.017501 -0.303891 0.453855 0.136613 0.104586 0.00307649 0.290008 0.173938 0.0622188 0.556425 0.154396 0.412294 0.333431 -0.00071141 -0.0452078 -0.722171 0.206941 -0.054472 0.569776 0.354539 -0.435321 0.265652 0.450324 -0.222648 -0.0107093 -0.719927 0.384035 0.0854751 -0.288073 -0.333267 0.0233884 0.639075 0.0435701 0.25901 -0.128068 0.268415 0.465118 0.112176 -0.600635 -0.25938 -0.498893 0.134128 -0.199415 0.321795 -0.451787 -0.0833039 -0.0971398 -0.0905032 
0.342952 0.0549999 0.327698 0.137774 -0.470464 0.199427 0.314819 -0.184804 0.470665 0.28625 -0.232909 -0.0465711 -0.466299 0.387111 0.650866 0.0852994 -0.53164 -0.220863 -0.592535 -0.435598 -0.139135 -0.0386153 0.349215 0.298095 0.710687 -0.22575 -0.407923 0.100638 0.033723 -0.625548 -0.0915241 0.0507325 0.618911 -0.0852798 0.362719 0.421269 0.238202 0.378094 0.159359 -0.0644185 -0.29366 0.25386 0.716667 0.517036 0.226755 -0.338463 -0.0201583 -0.416319 0.00857336 -0.489427 1.0237 -0.802567 -0.0927954 -0.145936 -0.374971 0.169519 -0.356685 -0.314808 0.206932 0.366795 
-0.108798 -0.267805 -0.679542 0.173604 -0.356341 -0.365183 -0.0752465 0.434217 0.689865 0.110471 0.157769 -0.228012 -0.210095 -0.43557 0.512641 0.124891 -0.397557 0.456082 0.0977736 0.356352 -0.144722 -0.11566 0.325304 -0.459318 -0.362252 -0.0475935 -0.303082 -0.438423 0.243559 0.156777 -0.547414 -0.0792634 -0.057861 0.139057 -0.147348 -0.00921249 -0.141718 0.171046 -0.109693 -0.302918 0.713395 -0.532352 0.264032 0.25196 -0.0779087 0.357393 -0.617638 0.0726578 -0.711093 -0.305202 -0.105167 -0.622359 0.211691 0.518003 -0.00514504 -0.553658 -0.186061 0.282542 -0.368592 0.221343 
0.642005 0.100655 0.261193 -0.386524 -0.239898 -0.323743 -0.12251 -0.383717 -0.535466 -0.481859 -0.0679111 -0.65697 -0.0750357 -0.201582 0.072037 -0.780174 0.373029 0.436046 0.168654 0.253167 0.152728 0.165949 -0.0573879 -0.155018 0.0530016 0.21025 -0.00177167 -0.606686 -0.30402 -0.0817772 -0.22175 -0.378766 0.0079723 0.102388 -0.277216 0.158382 -0.0353445 0.317295 -0.520228 -0.0480127 -0.0358447 0.825841 0.402803 0.213425 0.129182 0.6683 0.0250262 -0.908376 0.446149 -0.320032 0.694188 0.244208 0.169819 0.290641 0.0327635 0.610923 -0.642438 0.297563 -0.142358 -0.402021 
0.286279 -0.562554 -0.134328 0.195425 -0.0139904 0.347844 0.240945 -0.0937982 0.349534 -0.207747 0.48576 0.0109115 0.534992 0.186383 0.0833549 -0.270577 -0.295985 -1.08122 -0.35679 0.17058 -0.471303 0.152852 0.0961184 0.0201197 -0.129341 0.389134 0.0683303 0.33762 -0.0946907 -0.336211 0.387725 0.0120743 -0.0180566 0.10898 -0.115737 0.379475 0.493321 -0.440312 -0.0692401 0.0924024 -0.492466 0.306777 -0.0648307 -1.11211 0.123118 -0.498641 0.180489 -0.463992 -0.229703 0.67445 -0.0413407 0.63481 -0.157988 0.378001 0.543649 -0.273233 -0.0258148 0.268555 -0.215508 -0.148646 
-0.273141 0.135123 0.558522 -0.0318183 -0.838545 0.079585 0.0623149 0.588021 -0.683208 -0.282906 0.308222 0.0955598 -0.269069 -0.489274 -0.361563 0.300719 -0.249197 -0.251573 -0.541273 0.400262 -0.216749 -0.320418 -0.286886 0.767713 0.305793 -0.199476 0.130181 -0.0343322 0.405673 0.132049 0.571907 0.33512 -0.617785 0.228994 -0.418759 -0.28632 -0.0331054 -0.878296 -0.315333 0.213487 0.215626 -0.54498 0.30929 0.408303 -0.271649 0.621243 -0.10385 0.13061 -0.233809 -0.34238 0.235455 0.142733 0.078755 0.616203 -0.44083 0.248855 -0.60851 -0.205966 0.248495 -0.116026 
0.0994034 -0.157795 0.265067 0.264232 0.268805 -0.451443 -0.151197 0.235027 -0.357586 0.460649 0.487708 0.210595 -0.11228 -0.515048 0.477441 0.48169 -0.0893376 -0.132964 0.0680857 -0.0746266 0.0883398 -0.22104 -0.123636 0.371025 -0.18311 0.258552 -0.080697 0.761651 -0.169466 0.0227569 -0.325867 0.24344 0.175016 0.0526426 -0.0892665 0.142969 0.271643 -0.310902 -0.326046 0.748219 0.0707933 -0.212427 0.303157 -0.295364 0.321871 -0.44753 0.303843 0.240889 -0.723646 -0.491803 0.311723 0.0174157 0.0973472 0.146248 -0.356171 -0.345749 -0.128529 0.221995 0.290922 -0.393037 
-0.13306 -0.309451 -0.337777 -0.349353 0.18404 -0.479317 -0.316157 -0.373725 0.110914 0.413621 0.0843318 0.415169 0.276296 0.461242 -0.0757926 0.16273 0.345037 -0.18725 -0.358785 0.244967 0.348343 -0.145191 0.402883 -0.186997 -0.516378 -0.148377 0.38486 -1.02945 -0.320111 0.510457 -0.376355 -0.923065 0.157156 0.475387 -0.944862 0.111088 -0.036018 -0.444283 -0.166423 -0.139781 -0.350382 0.22039 0.917371 0.0748493 -0.289199 -0.0292008 0.642567 0.265064 -0.0275146 0.155297 0.231862 -0.327118 -0.024167 -0.680378 0.396253 0.306952 0.146775 -0.141704 0.175347 -0.297806 
-0.365092 0.376439 -0.0515125 -0.219065 -0.0540721 -0.281347 0.019783 -0.201914 0.105513 -0.125235 0.640015 0.00111585 -0.103989 0.222056 -0.435137 0.155524 -0.145891 -0.104224 -0.446923 -0.226305 0.0298518 0.497868 -0.303336 0.0897231 0.193185 -0.213917 -0.645775 0.306005 0.00567302 -0.398144 0.291973 -0.267525 0.14796 -0.375199 -0.191908 0.591181 0.13488 -0.328651 0.383468 0.14917 -0.160638 -0.439269 -0.409121 0.154068 0.110197 0.339145 -0.333586 -0.0382006 -0.185258 0.199251 -0.114845 0.295913 -0.316363 -0.461877 -0.552843 -0.268358 -0.328007 -0.26283 0.436437 -0.602954 
-0.363964 0.0492775 -0.167357 -0.267892 0.369265 0.13738 0.573878 0.122139 0.37925 0.0568791 0.278444 0.373072 0.0393262 0.258504 -0.0367494 -0.278434 -0.0689422 -0.124573 -0.336789 -0.184554 0.323218 -0.00872552 -0.0670263 -0.174346 -0.132725 -0.0673019 0.258603 0.263907 -0.170335 -0.404607 -0.0624927 0.168034 -0.108121 -0.0405287 -0.158486 -0.453201 -0.0603598 -0.332309 0.175607 0.515741 0.28659 0.199753 -0.118054 0.42778 0.416952 0.0601478 -0.129605 -0.500422 -0.0517392 -0.272958 0.382065 0.713917 -0.287035 -0.526086 0.654417 0.392522 -0.37552 -0.0155881 -0.0434651 0.0693183 
0.383283 -0.457309 0.0584104 -0.276721 -0.449187 0.377454 0.389125 0.220714 -0.200215 0.18281 -0.569009 0.0109069 -0.167991 0.0896871 0.0865592 -0.572285 -0.0962444 -0.0811915 -0.347475 0.206537 0.241075 0.951944 -0.21947 -0.248728 0.0462622 0.255439 0.696584 0.0300218 -0.301948 0.507009 -0.0763112 -0.0532908 -0.0135422 -0.235011 0.0870291 -0.027288 -0.0197371 -0.327055 0.397075 0.237599 0.245353 0.223312 0.358512 -0.125106 -0.186769 0.397319 -0.0449674 -0.424815 -0.0716386 0.317285 -0.739291 -0.0494894 0.480336 -0.0463192 0.670426 0.270851 -0.336311 0.196253 -0.0735964 -0.400376 
0.182663 0.62186 0.044791 0.00389656 -0.341283 0.578649 0.333048 -0.229699 0.454051 -0.108339 0.716549 -0.221942 -0.353252 0.069514 0.290047 -0.588177 0.414054 0.138508 0.415095 0.0433157 -0.13497 0.803252 -0.672206 -0.485394 -0.12038 -0.104742 -0.133409 0.254184 0.215849 0.703004 0.021257 -0.364694 -0.386084 0.222277 0.100474 0.183555 -0.230573 0.00559382 0.100851 -0.512311 -0.0667535 -0.375017 -0.119686 -0.390427 0.133305 0.510118 0.441187 -0.0790009 -0.431589 0.0357246 -0.481547 -0.0817267 -0.0153222 0.125763 -0.974808 -0.249736 -0.0135753 0.333291 0.206402 0.404307 
-0.118439 -0.349076 -0.264177 0.114849 0.359602 0.0722037 -0.82658 -0.170031 0.0616178 -0.321595 0.552774 -0.0647555 0.174067 -0.511865 -0.0855667 -0.354309 -0.252261 -0.173557 -0.324935 -0.0701692 0.269846 0.465778 -0.408987 -0.110013 0.829799 0.410578 0.0316918 0.665858 1.22584 -0.360019 -0.120173 0.511231 -0.321083 -0.233272 0.373842 -0.239254 -0.494582 0.0838499 -0.373588 -0.119138 -0.441106 0.140798 -0.112348 -0.14761 0.517644 0.28001 0.530538 0.181999 0.0856781 0.533708 -0.341785 -0.107428 0.177754 -0.564375 -0.352765 0.15542 0.0850954 -0.337163 0.0401263 -0.475327 
0.599334 -0.101473 0.169333 0.0127637 -0.446666 0.21042 0.0902988 -0.181638 -0.471701 -0.0023427 0.0390827 0.509206 0.131464 -0.371515 0.124416 -0.196385 0.489522 -0.284715 0.0662044 0.0299792 -0.57694 0.52436 -0.108813 -0.153007 -0.133578 0.296886 -0.0324295 -0.326558 -0.47961 -0.0121171 0.163784 0.165088 0.325208 0.389068 -0.243713 -0.433924 -0.226994 -0.242892 0.143551 -0.174731 0.0577916 -0.347931 -0.326659 -0.129923 0.144222 0.199879 0.064448 -0.235368 -0.632743 0.170621 -0.311651 -0.189427 0.0350227 0.365232 -0.0981055 0.0919864 -0.00527058 -0.218671 -0.00515975 -0.418258 
0.595002 0.180475 -0.50206 -0.245277 0.336508 0.539059 0.214776 0.0383252 0.257694 0.548729 0.259881 0.290518 -0.35162 -0.0195778 -0.0705187 -0.299089 0.89628 0.238323 -0.306462 0.105208 0.0200539 -0.0159626 0.0631116 -0.159659 0.138771 0.411358 -0.479543 -0.00226895 0.206675 -0.168359 -0.358321 0.571337 -0.268554 0.00750339 -0.249582 -0.560763 -0.0398719 -0.670926 -0.254629 -0.0556365 0.00307705 -0.227726 -0.0261834 -0.366401 0.23311 0.446374 -0.0276437 0.543352 -0.380005 0.357752 -0.147758 -0.188088 -0.272686 0.384626 -0.252456 -0.0627089 -0.338611 0.379816 0.108248 0.596176 
-0.168034 -0.171933 -0.344543 -0.120234 -0.265276 -0.119311 -0.156329 0.243607 0.390204 -0.372364 -0.253797 -0.233284 -0.365404 -0.235458 0.00409837 0.156168 0.155723 0.454839 -0.0543023 -0.361433 0.562593 -0.336154 0.202264 0.134118 0.442234 -0.00647796 -0.15501 0.843307 -0.442477 0.232171 -0.0263647 -0.402112 -0.122872 1.93214e-05 0.18105 0.401356 0.118075 0.0250576 -0.210387 -0.427174 -0.593543 0.0424651 -0.153394 0.274645 -0.42871 0.244333 -0.436606 -0.230012 -0.270028 -0.000312236 -0.868025 0.610371 0.0020333 -0.0331474 -0.775105 0.360822 0.42609 -0.503141 0.331445 0.471286 
-0.590491 0.335281 -0.145587 0.0417841 -0.0346631 -0.159101 0.426581 0.0994405 -0.132436 0.0230737 0.569743 0.274186 0.164411 0.201866 -0.102017 0.152751 -0.26027 -0.0766931 -0.238668 0.444077 0.345847 0.476409 -0.81992 0.0860533 -0.15649 0.335112 -0.223102 -0.0670949 -0.0124937 0.538559 -0.448065 -0.12632 -0.122929 -0.0100899 -0.225056 0.0256283 0.271776 -0.198404 -0.0490231 0.296491 -0.246072 0.393258 -0.578986 -0.0433498 0.458271 0.318261 -0.389722 0.377904 0.157136 0.204828 0.199193 -0.574369 -0.229958 0.271688 -0.618988 0.153804 -0.451608 0.192604 -0.265176 0.225077 
0.154915 0.515052 0.371888 -0.146994 -0.40112 0.155282 0.447813 -0.515836 -0.220807 -0.36394 -0.757279 0.304212 -0.442907 -0.590966 -0.00272617 -0.378462 -0.886991 -0.289841 0.328769 -0.664494 -0.00155908 -0.00285061 -0.729158 0.37472 0.584348 -0.213036 -0.434719 -0.501802 -0.135774 -0.360627 -0.031106 -0.267777 -0.154089 0.513882 -0.199039 -0.0925285 -0.226239 -0.188393 -0.628214 0.0803523 -0.0301777 0.0536743 -0.311406 -0.073701 0.0425157 0.316714 0.0961224 0.132806 0.286215 0.228596 0.139799 0.199018 0.0419066 -0.851217 -0.569781 0.524237 -0.40397 -0.427779 -0.18987 0.292466 
-0.264979 -0.709633 0.303394 0.351931 0.684528 -0.522647 0.677645 -0.240566 -0.700582 0.104603 -0.0143352 0.388414 0.684286 -0.572486 0.00152803 0.205999 -0.0999619 -0.279536 -0.109304 0.775641 -0.294853 0.24061 -0.20118 0.52343 0.120476 -0.142628 0.247548 0.40016 -0.26166 -0.353446 -0.074116 1.07483 -0.198097 0.316643 0.863606 -0.440096 -0.149297 0.0791696 -0.165221 0.412668 0.616616 -0.311129 -0.75723 -0.0823407 -0.548303 0.851751 0.352394 0.572955 0.398955 -0.453825 -0.651236 0.115059 -0.000927489 0.324915 -0.193936 0.283834 -0.0928692 0.135548 -0.320737 0.182407 
-0.202494 -0.712072 -0.223199 0.318436 0.237958 0.259907 0.443103 -0.330396 -0.644839 0.27676 -0.81838 -0.163896 -0.321717 0.411723 0.370617 0.131002 0.341031 -0.441285 0.0744113 0.589262 0.296776 -0.24171 -0.195525 0.564277 0.56372 0.120564 0.304437 0.0241976 0.170496 0.186709 -0.00563331 -0.865533 0.0822034 -0.0353 0.400756 -0.0956983 0.0215821 0.306061 0.0244249 0.486424 -0.200217 -0.306212 -0.276891 -0.269142 0.24275 -0.605535 -0.318333 -0.352487 0.552496 -0.425178 0.120796 -0.0772747 -0.118118 -0.290259 -0.131108 -0.0522079 -0.392785 0.406535 -0.044003 -0.0488243 
-0.0793099 0.317565 -0.10632 0.234955 0.645075 0.0641421 -0.0846168 -0.344234 -0.262305 -0.530293 0.768795 0.0913416 0.218692 0.215073 0.377337 -0.102321 0.832844 0.288435 -0.491409 0.360329 -0.254331 0.537107 -0.156203 0.675303 0.087067 -0.25631 0.0627607 -0.0606916 0.0309401 -0.155217 -0.679616 -0.0793665 0.145965 -0.387702 -0.33018 0.356189 -0.269513 -0.0393266 0.887006 -0.427946 0.0107426 -0.161858 -0.256637 0.368156 0.119001 -0.535071 0.235314 0.205647 -0.0758511 -0.120011 -0.411372 -0.274138 0.0766073 -0.16139 0.0869738 0.104703 -0.192687 -0.406473 -0.151806 -0.386517 
-0.10201 0.572023 -0.183668 -0.176937 0.0214775 -0.712453 0.228147 -0.0857943 0.149275 0.576604 0.147475 0.169918 -0.293354 -0.282497 0.205088 -0.137187 0.221671 0.130005 0.446114 -0.0505872 0.252847 0.525104 0.105087 0.233378 -0.108816 0.203756 -0.119913 -0.412793 0.11847 -0.0922363 0.0810442 -0.237219 -0.381505 0.00699122 0.345671 0.00480131 0.0463168 0.327962 0.177786 -0.0612725 0.809464 0.299625 -0.00763547 -0.0301629 -0.431622 0.414157 0.923525 0.180289 -0.0852065 0.319094 0.173825 0.00463228 -0.0753514 -0.362646 -0.191139 0.0626556 0.381354 -0.190764 -0.380551 -0.304536 
-0.0104635 -0.00919083 -0.230243 -0.185092 0.0529611 -1.12635 0.122099 -0.285395 -0.792142 0.122293 0.0988089 -0.54106 0.39517 -0.45475 -0.362985 0.0865675 0.176967 0.307254 0.399273 -0.185766 0.0516062 0.639361 0.315719 -0.531911 -0.581881 -1.00826 -0.542049 -0.370644 0.458144 -0.0608497 -0.0737034 0.432621 0.132802 0.0995351 -0.453363 -0.100811 0.0470099 0.441533 0.491632 0.103578 -0.181571 0.0778007 0.770652 0.523469 1.23236 -0.155153 -0.506378 0.684829 -0.766571 0.507827 -0.229418 0.0191233 0.0667139 0.514426 0.0734234 0.1205 -0.0488693 0.188026 0.189311 0.171379 
0.174695 -0.519584 -0.0729184 -0.224162 -0.274219 0.132113 -0.247367 -0.0850355 0.438265 0.0536498 -0.308612 0.139051 -0.195041 -0.367142 -0.179397 -0.41264 0.00911339 -0.248591 0.210966 0.271883 -0.431408 0.379076 0.291345 -0.177333 -0.249873 0.315179 0.116534 -0.0632517 -0.0489219 0.0419507 0.36248 0.0938564 0.612671 0.0449126 0.873416 -0.116821 0.289756 -0.341508 0.0133013 -0.0814804 0.0293644 0.378629 -0.111405 0.234555 0.403959 -0.386169 0.688914 -0.282665 0.158992 -0.393254 0.437103 0.579317 0.056738 -0.526748 0.164858 -0.16954 -0.281324 0.372691 -0.613275 -0.0776574 
0.0775839 -0.595993 0.389227 0.367406 0.259293 -0.322802 0.0791405 -0.276214 0.0604614 0.528232 0.564232 -0.481937 0.297508 -0.226364 -0.00910689 -0.645354 0.104435 -0.0363742 0.230769 -0.091035 0.0342725 0.139105 -0.217301 -0.199189 0.183939 -0.0973683 0.321538 -0.083502 0.394095 0.558262 0.239285 0.341049 0.782565 -0.353162 -0.00346252 0.0864727 -0.275295 -0.23885 -0.327901 -0.163153 0.407692 -0.211481 -0.31581 0.719132 0.259382 -0.234818 0.186766 -0.759933 -0.336452 0.164731 0.399888 0.216385 -0.19039 0.0368327 0.11266 0.0341824 -0.530511 -0.543706 0.241647 0.390389 
0.076353 0.166251 0.200851 0.140465 -0.20331 -0.00381961 0.13763 0.0967542 -0.711381 0.0183242 0.413443 -0.277506 0.294876 0.041233 0.289065 -0.21471 -0.240928 -0.269422 0.0251674 0.379395 0.125459 -0.159091 -0.187675 -0.18184 -0.667242 0.19766 -0.102343 -0.134845 -0.345529 -0.484574 -0.657951 -0.440381 -0.163295 -0.0781732 -0.459647 0.129488 0.260407 0.241769 -0.142307 -0.414059 -0.630566 -0.679793 -0.457759 -0.391258 -0.177996 -0.0578012 0.186457 0.291327 0.174904 -0.104806 -0.394307 0.352744 0.459644 -0.355516 0.321547 -0.0587668 -0.139743 0.266967 0.0540696 -0.126783 
-0.292703 0.0198114 0.278272 -0.203631 -0.313575 0.463412 -0.30944 0.207444 -0.0699037 0.290356 0.101695 0.0705657 -0.0368506 0.365702 0.316815 -0.0408815 -0.204862 -0.303267 0.643399 -0.782658 -0.796693 0.181608 -0.426947 -0.318386 0.353373 -0.257202 0.0359484 0.50551 -0.563989 0.690399 0.0640182 0.286655 -0.0999154 0.186837 0.216641 -0.520201 -0.486776 0.221846 0.336026 0.639725 0.202646 -0.282078 -0.666088 -0.144066 0.881551 -0.355589 -0.213561 -0.0193209 0.646474 -0.251266 -0.109815 0.00454326 -0.442473 -0.145059 0.0555827 0.562878 0.268196 -0.0989026 0.177184 0.0911811 
0.186857 -0.460735 0.0261459 -0.0939903 -0.241853 0.21277 0.279708 0.0515645 -0.508069 -0.187049 -0.382162 -0.969478 -0.0676188 0.059996 0.0500372 0.167041 -0.249905 -0.650061 0.134052 -0.167392 0.109697 -0.00697542 -0.257791 0.0520372 -0.870167 0.0915262 -0.278127 -0.241081 -0.00315489 0.352547 -0.0972207 0.158169 0.636409 -0.186549 0.172501 0.120083 0.0909832 -0.0399637 0.252727 0.35964 -0.0132415 0.754544 -0.636387 0.0912745 -0.0106338 0.189805 0.386911 0.261408 0.486855 -0.519597 -0.580261 -0.0317348 -0.212531 -0.346851 -0.224775 0.140017 -0.420425 -0.16186 0.024613 0.131998 
0.255057 -0.966118 -0.541192 0.35641 -0.496457 -0.343839 -0.152328 0.119034 0.151476 0.706835 -0.179542 0.58641 0.822821 0.321621 0.695335 0.157045 -0.241879 0.65163 0.153462 -0.364982 0.275465 -0.211239 0.0896527 -0.0979481 -0.228176 0.0761463 -0.390065 -0.553266 -0.213446 -0.428858 -0.118794 0.244246 0.171868 -0.696309 0.0669195 -0.570842 0.0862459 0.278947 0.397234 -0.470874 -0.600455 -0.254044 -0.49829 -0.365565 -0.134154 -0.00765134 0.243771 -0.0482043 0.255129 0.398617 -0.0821725 0.241764 -0.416642 0.345588 0.187481 0.00697737 0.170174 0.187468 -0.359819 0.157641 
-0.533569 0.228296 -0.131221 0.0507856 -0.365017 0.114832 0.377306 -0.178945 0.393439 -0.717691 0.160082 0.0730527 0.376294 0.321818 -0.217514 -0.380928 0.020561 0.352092 -0.0598194 0.277793 0.300589 -0.185665 -0.223618 -0.0497344 -0.0597271 0.323328 -0.25757 0.141508 0.437643 -0.243226 -0.050618 0.173012 0.371295 0.352469 0.250111 -0.0908802 0.181842 -0.138523 -0.0128345 -0.0266469 -0.224241 0.441241 0.32044 0.383704 -0.293789 0.316568 -0.185426 0.284713 -0.0453492 -0.196463 -0.126597 0.0199243 -0.437512 -0.433004 0.555351 0.673821 -0.239047 0.383586 0.549486 0.184984 
0.00705477 0.0860712 -0.0984568 0.462452 0.118558 0.0664827 0.00627658 0.634168 0.18529 -7.24796e-05 0.173895 0.23478 0.737755 -0.0756833 0.453974 0.0778136 -0.223362 0.0433883 -0.0327223 -0.391017 -0.220523 -0.241676 0.327742 0.0967325 0.653592 -0.128258 -0.531759 0.0895604 0.587895 -0.31227 0.664483 0.345684 -0.0383622 -0.57835 0.111761 0.0387977 0.23938 0.514485 -0.130457 0.556042 0.456064 -0.00652397 -0.500941 0.314544 0.282158 0.373757 0.152092 -0.22151 -0.519608 0.362618 0.317331 -0.39028 0.202681 -0.260405 0.360981 0.232833 0.543897 -0.062422 -0.232005 -0.321632 
-0.03699 -0.188041 -0.905126 0.640615 -0.261288 0.15122 -0.0330574 0.0580087 0.0113711 -0.420533 0.0998262 -0.0440723 0.0866237 -0.466008 0.505183 0.323319 -0.523988 -0.257705 0.0129335 -0.135359 -0.0804207 -0.260706 -0.275106 -0.491524 0.243478 -0.361374 0.320849 0.580963 0.220994 0.182119 -0.704344 -0.14743 -0.41716 0.162879 0.297165 0.178457 0.335056 -0.347019 -0.168111 0.0990046 0.209088 -0.198168 0.191361 -0.466364 -0.303285 0.714929 0.00824877 -0.188534 -0.0369223 0.987187 0.456371 -0.0894964 0.54123 0.349025 0.313395 0.422201 -0.457704 -0.766723 -0.566113 -0.348538 
-0.165136 0.263507 -0.0602614 0.725358 -0.194131 0.0714546 0.408456 -0.127129 -0.620279 -0.274264 0.0615694 -1.14949 0.0777076 0.204527 -0.542227 -0.0328501 0.316203 0.254677 -0.108191 0.280882 -0.0506308 -0.256616 0.392647 -0.0831874 -0.0634691 0.0285744 0.372726 -0.677676 0.207659 0.0337133 -0.39711 -0.0687747 0.00138954 -0.0010525 0.186539 -0.0528279 -0.431364 0.0118685 0.600555 -0.237519 -0.0650735 0.22154 0.147499 -0.131269 -0.56959 0.354774 -0.0408915 0.14575 -0.210181 0.864825 -0.0626838 0.502869 0.036425 -0.0564071 0.0967973 0.204272 -0.0677743 0.33581 0.214255 -0.783498 
0.226556 0.128945 -0.288462 -0.139925 0.0426413 0.211815 -0.0958548 0.310619 -0.0109223 0.233723 0.0957593 -0.372369 0.308036 0.262466 -0.442189 -0.257526 0.101393 -0.0552542 0.0690606 -0.434598 -0.148506 -0.294601 -0.192827 0.00397545 0.344988 -0.119946 0.0475229 0.268398 0.100355 -0.0277047 -0.243281 -0.304747 0.329426 -0.0683405 -0.14318 0.228611 0.135724 0.0672549 -0.0914039 0.274143 -0.152634 0.126147 0.00107115 0.0138217 0.000727585 0.178948 -0.29867 0.437436 0.0364765 -0.31485 -0.12842 0.361987 -0.193128 0.20468 -0.302328 0.401212 -0.0160601 -0.0588311 -0.419596 -0.248595 
0.30466 -0.00354457 0.14249 0.283267 0.346691 -0.447869 0.0522362 0.288388 0.14422 0.0147588 0.524514 -0.935226 0.121689 0.464867 0.214592 -0.172979 0.135404 -0.707263 -0.1223 0.067703 -0.608338 -0.376199 -0.26911 0.00515546 0.119472 -0.2333 0.489256 -0.314898 0.124456 -0.417338 -0.571376 0.352051 0.297457 -0.389337 -0.398817 -0.44762 0.422025 -0.271781 -0.0390148 -0.266961 0.381674 0.00420757 0.508446 -0.632655 -0.28234 0.375803 0.42844 0.35698 0.685632 0.0677751 -0.256613 0.360197 0.0507872 -0.498407 -0.0300597 0.0462176 -0.426943 -0.0324848 0.0612816 0.0745131 
0.12978 0.057456 -1.2383 -0.489422 -0.00576387 0.0257825 0.102612 0.197856 -0.30029 0.422423 -0.974676 -0.155634 0.185415 -0.14242 -0.357689 -0.524137 0.579902 0.0320999 -0.592895 0.206939 -0.0887216 0.0700004 -0.209367 0.288957 0.157262 0.449362 0.0398392 0.0867306 0.485766 0.426024 -0.407066 0.142063 0.347917 0.117642 -0.0928688 0.449254 0.115014 -0.0778035 0.311483 0.305124 -0.540546 0.461073 -0.934909 0.215638 -0.424621 -0.293197 0.253709 0.162166 0.435207 -0.0633697 -0.323477 -0.188825 -0.399776 0.311778 0.464217 0.783463 -0.748484 -0.0585747 0.147698 0.0156281 
0.140043 0.49998 0.239865 0.233761 0.0772802 -0.216796 -0.321 -0.232366 0.153331 -0.0377146 -0.533612 0.485537 0.449501 0.146459 0.192667 0.940203 -0.0624219 -0.162234 0.320382 0.273235 0.247831 0.101722 0.152724 -0.479272 -0.095331 0.517774 0.342576 0.406684 -0.322251 0.176818 0.154065 0.406125 0.20554 -0.185912 0.125693 0.66988 0.420606 -0.149163 0.225832 -0.198917 0.0638753 0.24821 -0.222901 -0.088295 -0.57461 -0.139949 0.052234 -0.716962 -0.3368 -0.263112 -0.221615 0.0765362 -0.00342741 -0.295037 0.192059 0.211241 -0.823521 0.132522 0.606182 0.575416 
-0.046601 0.0499445 -0.664274 -0.174812 -0.533835 0.626268 -0.101217 -0.380849 -0.227109 -0.607534 0.556263 0.383564 -0.142101 -0.404674 -0.255821 0.239779 -0.00181273 1.20013 -0.0314607 0.147911 0.348574 -0.0502262 -0.288946 -0.181119 0.186668 -0.46589 0.596239 -0.126232 0.177565 -0.134914 -0.223248 0.529783 -0.403965 0.0127623 -0.404665 -0.304264 -0.0689706 -0.10772 -0.0659274 -0.0502228 -0.504348 -0.356906 -0.109588 -0.263266 -0.625213 -0.111477 -0.185073 0.0154985 -0.425292 -0.723948 -0.0789587 -0.0808503 -0.162234 0.498817 0.193045 0.167727 0.111086 -0.0758005 0.599028 -0.814399 
-0.471269 0.257524 -0.265575 0.601139 -0.42348 0.381403 -0.0535663 -0.795162 -0.723659 -0.447177 0.294124 -0.178984 0.223142 -0.0640564 -0.257893 -0.284654 0.0986188 -0.0139664 -0.41749 0.0726597 0.0938617 -0.449932 -0.159801 -0.90645 -0.419223 -0.059185 -0.503329 0.657517 -0.215346 -0.0587152 0.455818 0.0529264 -0.371302 -0.0900666 0.0129454 0.263332 0.358311 -0.325164 0.0926125 0.25947 -0.0914469 0.103987 -0.0873582 0.809219 0.321509 -0.161426 -0.278212 0.18726 -0.199831 0.438358 0.428279 -0.215133 -0.45869 0.495807 0.38631 0.273739 0.92331 0.161265 0.20852 -0.125719 
0.178837 -0.218852 0.23049 -0.419655 0.0648163 -0.242525 -0.185552 0.452869 0.426212 0.469836 0.420333 0.158542 -0.168066 -0.130413 0.3464 0.123358 -0.705703 0.0185944 -0.220326 -0.14164 0.62609 0.299868 -0.185332 -0.164831 -0.360984 0.196467 0.354264 -0.616296 0.380002 -0.398502 0.233899 0.123929 -0.34396 -0.351726 -0.432391 0.0729551 0.336305 0.236608 -0.276627 0.173541 -0.053122 0.186486 -0.374029 -0.106899 0.155632 0.250782 0.166917 -0.401312 0.630142 -0.0186572 -0.5267 0.16781 0.598197 -0.0307966 0.181751 0.201691 -0.282604 0.372309 -0.56184 0.233102 
0.250218 0.192794 0.00456633 0.0249698 0.668837 0.0517867 0.026511 0.523944 -0.483047 -0.321127 -0.584362 -0.67259 -0.00659758 -0.541895 0.152483 -0.345155 0.267813 -0.521593 0.0370323 0.401385 -0.56353 0.307547 -0.00125844 -0.373151 -0.533783 0.24509 0.412226 -0.238139 -0.28796 0.516509 -0.020945 0.315405 -0.331136 0.179065 -0.0975296 0.476589 0.162512 -0.0203362 -0.475229 0.624186 -0.827224 -0.411697 -0.368473 0.34879 0.16613 -0.212335 -0.398947 0.414313 0.0082677 0.170416 -0.100819 0.621015 0.303208 0.55268 -0.161033 0.114716 -0.0398359 0.131277 -0.234243 0.222157 
0.477609 -0.143935 -0.346526 -0.0301133 0.635015 0.194985 0.0292718 -0.525995 0.333732 -0.21547 -0.191151 -0.363689 -0.149881 0.0504937 -0.206569 0.529935 -0.107617 -0.546866 -0.220043 0.034321 0.273727 -0.43908 0.0237163 -0.189469 0.0298111 1.04592 0.0871435 0.493286 0.301287 0.339144 0.467055 0.675934 -0.0982549 -0.520121 0.159023 0.636827 -0.380731 0.10093 -0.140694 0.308671 0.357107 -0.0518405 -0.177447 -0.0143594 0.386775 -0.31449 0.187801 0.1934 0.210602 -0.0142175 -0.209906 -0.118863 0.359263 -0.697511 0.235583 0.360281 0.305552 0.662327 -0.689995 -0.138569 
0.301541 0.112678 0.0462722 -0.0840677 0.0808661 0.14976 -0.110282 0.962169 -0.585102 0.155731 0.267796 -0.345844 0.317794 -0.17689 -0.129509 0.0336266 0.0857174 0.253743 -0.0698149 0.733126 -0.0875945 -0.539743 0.339087 -0.0865931 0.294584 -0.114353 0.251017 0.15147 -0.31082 -0.781816 0.265391 -0.382322 -1.27812 0.282186 -0.00643799 0.0290171 0.185517 0.0590536 -0.205356 0.147674 -0.00937497 -0.0105627 -0.69492 -0.0430638 0.150825 0.365733 -0.377463 0.0952678 -0.398272 -0.224109 -0.12708 0.0290416 -0.166763 0.565859 0.0386639 0.44919 -0.0624978 -0.2413 -0.733322 0.0388904 
-0.327163 0.468043 0.0948349 0.695092 -0.232744 0.198035 -0.0287568 0.530261 0.400207 -0.0486401 -0.634529 0.272279 -0.347313 -0.811855 -0.158552 0.240555 0.0765893 -0.426496 0.339963 0.0924972 0.0730226 -0.830773 -0.284683 0.189197 -0.442838 0.0204411 -0.146734 -0.0250898 0.343246 -0.041682 -0.130034 0.0793374 0.108788 0.0141674 -0.308376 -0.264153 0.149027 -0.294316 -0.12002 0.137204 0.319717 -0.0525471 -0.00760348 -0.355257 -0.441854 0.181426 -0.678856 -0.268113 0.108309 -0.264471 -0.166286 0.125222 0.325988 0.296261 -0.301052 0.336021 0.0205776 0.356446 -0.205958 -0.0753498 
-0.479826 -1.07323 -0.525375 -0.372893 -0.0943369 0.175247 0.273093 0.58688 0.111822 0.00284892 -0.0860654 0.14625 -0.279461 0.080286 -0.179817 0.160205 0.0356244 -0.810926 -0.353778 -0.202611 -0.206122 -0.117857 -0.174139 0.0317419 -0.0484058 -0.124586 0.582127 -0.464253 0.00676346 0.279165 0.19277 0.00687527 -0.270123 -0.740083 -0.15201 -0.232796 -0.22011 -0.0800143 0.271989 0.213323 -0.337277 -0.403869 0.261599 -0.141121 -0.239272 0.064693 -0.579094 0.0454735 0.153241 -0.113474 0.0367294 0.454783 -0.358481 -0.361396 0.12115 0.0504432 -0.0811339 -0.510354 0.102555 -0.383458 
-0.0994495 0.401137 0.0904976 -0.253881 0.321862 -0.0942065 0.650363 0.633703 0.485661 -0.0308652 0.14911 -0.160074 0.678076 -0.25582 0.14178 -0.339675 -0.326078 0.0508257 -0.012648 -0.354853 -0.0970743 0.653233 0.0795157 -0.132689 -0.731687 0.329174 0.0677477 0.387394 -0.62763 -0.280945 -0.0251543 -0.508114 0.165112 0.22139 -0.126774 0.163077 -0.332485 0.00980783 -0.0446266 -0.434474 0.196138 0.33343 0.0611568 -0.22094 -0.264884 -0.0416209 -0.00171423 -0.12475 0.366949 -0.837499 0.585535 -0.0056478 -0.50336 -0.185858 0.295721 0.0626082 -0.0729725 -0.123005 -0.12119 -0.0757828 
-0.37324 -0.250314 0.271658 0.0382628 -0.591591 0.0422461 -0.137246 0.162071 -0.323817 0.310587 -0.0161941 -0.38292 -0.350557 -0.122808 0.536563 0.196205 -0.304248 0.152314 -0.936976 -0.305769 0.00699694 -0.731815 -0.201032 -0.00915738 0.884369 0.50443 0.374552 0.283053 -0.141079 -0.534014 0.00266007 0.314761 -0.00047034 0.131979 -0.25505 0.0863026 0.480572 -0.468179 0.212235 0.172952 0.615957 -0.50707 0.28697 0.20964 0.248445 -0.157433 -0.0757482 -0.281464 -0.255495 0.016304 0.1918 -0.0973666 0.226085 -0.300974 -0.765441 0.448629 0.0113031 0.661728 -0.31329 0.127478 
-0.198962 0.317048 0.172963 0.0022501 -0.225003 0.418468 0.144378 0.190959 0.578876 -0.0380283 -0.206416 0.0970229 0.287391 0.40422 -0.388696 -0.13441 0.412116 0.0733035 0.215915 -0.0524323 -0.279782 0.498707 -0.61348 -0.03819 0.291904 -0.416249 -0.0908805 -0.0521979 0.422728 -0.0440418 0.341185 -0.467652 0.209649 -0.208623 0.377111 0.428228 -0.0256224 0.181445 -0.254676 0.196597 -0.236252 -0.328691 0.0368469 0.245426 -0.345982 -0.481066 0.50709 -0.226126 0.00569204 0.0791595 -0.257935 0.201088 -0.0630079 -0.119057 -0.0019616 -0.00755016 0.50386 0.385723 0.117709 0.375925 
0.0874081 0.176809 -0.232623 -0.189465 -0.386354 0.207721 -0.273481 -0.222143 -0.466367 0.568843 -0.221114 0.192023 0.0825197 -0.138412 -0.0713695 0.178803 -0.23978 0.284977 -0.397288 0.000322928 -0.040604 0.442911 -0.360045 -0.150879 -0.225419 0.0510696 -0.584584 0.354997 -0.711637 -0.693497 -0.275437 -0.238883 0.4436 0.648987 0.267864 0.325323 -0.140594 -0.0144025 -0.0428346 -0.0529073 -0.4597 0.715735 0.414673 -0.0633431 0.52857 0.334054 0.217515 -0.0686127 -0.00132703 0.0819332 -0.208176 0.00022567 0.674894 -0.499106 0.0948567 0.110424 0.061187 0.4197 0.3867 0.0310096 
-0.0324387 0.391348 0.223656 0.272256 0.132637 0.500413 -0.653701 -0.0155338 0.346929 0.305564 -0.169837 0.0742255 -0.391745 0.133114 0.0933675 0.322253 -0.00892463 -0.080225 0.356013 -0.133069 -0.823746 0.146125 -0.191792 -0.000826821 0.00435224 0.3522 0.280391 -0.203041 0.688689 -0.684847 -0.0400625 -0.546819 -0.18712 0.288533 -0.285757 -0.725379 0.104507 -0.268523 -0.144683 -0.00559606 0.0125946 -0.148132 0.103896 -0.378305 0.305191 0.143202 0.251761 0.487417 0.106581 0.171115 0.484616 -0.328184 -0.338078 0.159014 0.155743 -0.1483 0.292506 -0.0998785 0.644346 -0.23704 
0.767313 -0.32417 0.43242 -0.148498 0.168057 -0.406909 -0.419188 0.00245916 -0.671125 0.326866 -0.193529 -0.00319418 -0.0686363 -0.0800941 -0.275051 -0.114955 -0.298966 0.291012 -0.188572 0.787852 -0.068179 0.464517 -0.00486983 0.114 -0.539083 -0.469674 0.0934149 -0.835805 0.236502 0.310089 0.111781 0.402808 -0.453914 -0.0932932 0.0254448 -0.635889 -1.01056 0.30731 -0.222647 0.114793 -0.593415 0.21027 0.0525089 -0.334325 0.103863 -0.143949 0.105187 -0.569357 -0.0180061 1.0148 0.326923 -0.148601 0.270082 0.285626 -0.230358 0.0777351 -0.258155 0.202581 -0.0741652 -0.0969889 
-0.360639 0.252481 0.229944 -0.366178 -0.757062 0.396961 -0.398541 0.0278024 0.111421 -0.23967 0.039172 0.0792352 0.563241 -0.137308 0.319844 -0.210863 0.0895978 -0.197874 0.481939 -0.223889 -0.0209302 0.335314 -0.484736 0.101329 -0.0474831 0.221617 0.47447 1.02006 0.387882 0.310487 0.242221 0.00124003 -0.403718 0.0439349 0.461427 -0.0480365 -0.180838 -0.35831 0.658779 0.493471 0.304182 -0.158627 -0.0732947 -0.151578 0.0354522 -0.0571531 -0.577456 0.197898 0.194056 0.764922 -0.0866804 -0.414165 -0.70776 -0.792185 0.891204 0.193874 0.100493 0.18397 0.17561 -0.119602 
-0.0691457 0.150932 0.501534 0.076472 0.167719 -0.197846 -0.201205 -0.0691252 -0.157897 -0.523768 -0.124227 -0.151661 0.12772 -0.646878 0.0976012 -0.000162936 -0.194738 -0.0214986 -0.226454 0.752363 0.208478 -0.181576 0.361479 -1.00243 -0.429599 -0.438234 -0.257201 0.218771 0.106392 -0.356123 0.169257 -0.0861092 0.0864387 -0.673457 -0.345772 0.144599 0.318706 0.0381682 -0.559476 -0.754809 -0.0568954 -0.540833 -0.446536 0.653938 0.273612 0.359379 0.0923228 0.184735 0.166296 -0.82919 -0.196241 -0.71972 -0.521423 0.477587 -0.551981 0.28546 -0.0340174 -0.291111 0.364833 0.59246 
0.387798 -0.172258 0.875265 0.418963 0.490439 0.349903 0.371701 0.00268915 -0.433203 0.580389 -0.228688 -0.0866253 -0.214093 -0.214442 0.302536 -0.714526 0.435787 0.2363 -0.305418 0.383522 0.0574631 -0.207245 -0.670736 -0.0473763 -0.585536 -0.0536874 -0.240895 -0.167015 -0.435132 0.23403 -0.416827 -0.113614 -0.245557 -0.133159 -0.0843116 0.358818 0.754392 0.20119 -0.513068 -0.0309055 -1.01396 -0.150389 0.216901 -0.315153 -0.344991 -0.211942 0.919524 0.100625 0.0319054 0.162207 -0.283008 0.142591 -0.138415 -0.282222 -0.7569 -0.211293 -0.504323 0.0392439 -0.129706 -0.329938 
-0.112916 -0.398216 -0.44107 -0.0322324 -0.305118 -0.201949 -0.518062 0.384894 0.545077 -0.154755 -0.337085 0.187267 0.159619 -0.452612 -0.192 -0.584205 0.392872 0.271839 0.142819 -0.215767 -0.611433 -0.141044 -0.183159 0.519621 0.020165 -0.165954 -0.823171 0.399905 -0.00329016 -0.325285 -0.43738 0.215946 0.0405997 -0.493449 0.429334 0.177951 0.24217 0.281097 -0.118162 0.142933 -0.164239 -0.034196 -0.0943865 -0.0138693 0.427205 -0.17849 0.353052 -0.244602 0.108071 -0.247118 -0.0997303 -0.0148466 -0.50102 -0.151564 -0.5939 0.779187 0.451917 0.327449 -0.198411 -0.306503 
0.108099 0.014147 0.113375 0.177889 0.237737 -0.246963 -0.0160602 0.212961 0.33467 -0.263443 -0.484759 -0.193001 -0.537412 -0.354033 0.50559 0.258029 -0.601227 0.426871 0.272825 -0.240364 0.416051 0.0756181 0.355101 -0.128978 0.256529 0.200242 0.364096 0.447962 0.0633321 -0.340503 0.358256 -0.11931 -0.0344421 -0.311822 0.292765 -0.0945273 0.313373 0.373782 0.10813 0.0226874 -0.185012 -0.0893169 0.281149 0.491755 0.0683896 0.453484 -0.0470936 -0.0362151 0.334888 -0.0581664 0.0149105 0.0721288 0.0188618 -0.510952 -0.349623 -0.390128 -0.0304752 0.249579 0.583929 -0.381087 
0.295363 -0.137366 -0.109324 -0.297975 -0.0676099 0.45649 0.396262 -0.274372 -0.11776 -0.121342 0.592522 -0.0363555 0.00944445 0.240084 0.792346 0.338073 0.130007 -0.160514 -0.0544631 0.310028 -0.0604538 -0.0353441 0.383001 0.038828 -0.0658246 0.298625 0.572211 -0.0361589 -0.0998925 0.548702 0.337497 0.268234 -0.0632741 -0.268902 0.249984 0.0544715 0.185753 0.60306 -0.0264386 0.610926 -0.129623 0.498408 -0.100371 -0.675336 -0.306286 -0.179607 0.186226 -0.0962557 0.59923 0.491414 0.10825 -0.0436426 -0.160377 0.239552 0.0785843 0.127393 0.352049 0.255788 -0.00519897 -0.0646048 
-0.111128 -0.0833515 -0.090926 -0.164572 -0.161292 -0.166723 0.622522 -0.400207 0.189748 -0.213235 -0.020875 -0.104199 -0.152495 -0.1687 -0.23224 -0.454422 -1.15416 0.090835 0.290453 -0.376208 0.571689 0.449878 0.753333 -0.129901 -0.291016 -0.0430388 0.182394 0.0967996 0.122275 0.406214 0.0952171 -0.0147881 0.352714 0.235207 -0.423071 0.224338 0.166372 -0.480937 0.052614 -0.408048 0.0560449 0.828206 -0.970035 -0.560896 0.255166 0.0111903 -0.0306244 -0.0259977 -0.288142 0.193685 -0.484695 -0.0422368 -0.00700021 0.0185183 0.242174 0.214415 -0.471155 0.327467 -0.589609 -0.0630612 
-0.387891 -0.0543917 0.133955 0.252667 0.519955 0.174963 0.0974375 -0.265243 0.194303 0.241283 0.118415 0.245721 0.36666 0.0475052 -0.192547 0.027059 -0.172107 0.582241 -0.216544 -0.00458776 -0.426484 0.46164 -0.0262134 0.849041 0.508106 -0.256084 0.416715 -0.1153 0.61843 0.412232 0.648673 0.528721 0.496161 -0.0371991 0.0325612 0.457914 -0.222289 -0.292114 0.0848636 0.405843 0.653004 0.0357299 -0.174561 -0.0535283 -0.0303082 0.461512 0.107838 0.30331 0.0588931 -0.0153339 -0.0405573 -0.0141059 0.315989 0.169403 -0.141648 0.225866 0.606087 0.155943 -0.148365 0.218431 
-0.303731 0.390492 0.0046643 -0.38156 -0.229581 0.384249 0.115211 -0.286192 0.171498 -0.10961 -0.608956 0.637871 -0.0583176 0.10305 -0.224124 -0.314915 0.406209 -0.254784 -0.361018 0.0948653 -0.273876 -0.626241 -0.18491 -0.532979 -0.174071 0.0313732 0.515898 -0.280762 0.257609 -0.0262453 0.270896 -0.530286 0.328798 -0.28657 0.609656 -0.35759 -0.13648 -0.15391 -0.355413 0.359603 -0.197374 0.327705 0.600097 -0.83041 0.139955 0.290386 0.853812 -0.399051 -0.72017 0.386116 0.086274 -0.0335571 0.0452071 0.721391 -0.0942392 0.0669022 0.647331 0.420857 -0.206527 -0.249697 
-0.229761 0.043967 0.173934 0.585261 0.0534735 -0.24716 0.0904619 0.178745 -0.199199 0.834774 -0.400989 0.142132 -0.0279423 0.317297 0.684784 -0.885559 0.0186807 -0.25256 -0.304641 0.891698 -0.982917 0.479046 0.174252 0.153769 0.205712 -0.200481 0.549938 0.00224694 0.309281 -0.355813 -0.101915 -0.139834 -0.457957 -0.214133 0.130286 0.0723101 -0.537231 0.496406 -0.463552 -0.727097 0.281472 -0.0656091 -0.162372 0.897709 0.545628 -0.0821837 0.302447 0.102328 -0.408593 0.46928 0.1365 -0.30916 0.205625 -0.713619 -0.157287 -0.0717769 -0.610684 -0.175534 0.339996 -0.138219 
-0.394054 0.893231 0.544112 -0.338243 0.727223 -0.0684773 0.296439 -0.0988774 -0.0235259 -0.115145 -0.414306 -0.0628653 -0.0908025 -0.210969 0.632464 0.605101 0.534125 -0.316538 -0.347381 0.307457 -0.522936 0.270049 -0.144337 -0.128932 -0.461077 0.350738 -0.876423 0.101604 0.164831 -0.21001 0.092319 0.821147 -0.256506 0.590378 -0.0386939 -0.567558 -0.0993971 -0.754997 0.719294 -0.0844006 0.113285 -0.626255 0.163291 -0.156462 -0.536155 -0.0649748 -1.08847 -0.172249 -0.059677 -0.0158208 0.373045 -0.378938 0.237188 -0.496794 0.0223206 -0.29205 -0.0160472 0.0917666 -0.875755 -0.0567086 
-0.402281 -0.0697057 -0.431252 0.27972 0.0770386 -0.148616 0.575819 -0.050262 -0.127337 0.486513 0.292823 -0.0918994 -0.287542 -0.0102025 -0.00342494 0.0403305 -0.398014 0.206407 0.35062 -0.0053828 0.0263206 -0.0988719 0.126457 0.250451 -0.620256 0.0663115 -0.233998 0.0375739 -0.429519 -0.513898 -0.0590585 -0.236167 0.170844 0.243223 -0.0360037 0.0925183 0.680715 -0.264102 -0.0938499 0.332278 -0.408069 0.222449 0.347111 0.0218239 0.553169 -0.335447 0.169133 0.421129 0.155894 0.111223 -0.344757 -0.336529 -0.105419 -0.132828 -0.296723 0.690251 -0.200235 0.120494 -0.619716 -0.31123 
-0.063863 -0.402265 -0.220303 0.278394 0.127772 -0.19149 -0.487492 0.516501 0.288413 -0.273519 0.618189 0.132573 -0.765471 -0.0196246 -0.648127 -0.217223 0.138318 -0.149408 -0.341843 0.391229 -0.262403 -0.318743 -0.0463112 -0.265608 0.133934 -0.231283 -0.214752 0.585792 0.18606 0.201977 -0.373411 0.0238382 -0.107311 0.240156 -0.536227 -0.3193 -0.357116 -0.198866 -0.702289 -0.308756 0.50581 -0.321097 0.0436229 0.740937 -0.550031 -0.0996832 0.0810204 -0.0579134 0.20709 0.147391 0.0504288 -0.225622 0.322056 0.343991 0.0771613 0.497598 0.0741066 -0.23775 -0.221255 -0.534085 
-0.129898 -0.0173613 0.015902 0.106944 0.719141 -0.272744 -0.321581 -0.0389495 0.19063 -0.538144 -0.410348 0.365473 -0.345582 -0.191096 0.217231 -0.205216 -0.117509 -0.00764386 0.1069 -0.151384 -0.426626 0.118327 -0.137236 -0.577415 -0.210327 -0.143748 0.130836 0.0764235 -0.158397 -0.372933 -0.421545 0.000280448 -0.195572 0.209583 -0.658708 -0.159073 0.0676487 0.586002 0.355033 0.0479515 0.842786 0.215367 0.229414 0.408827 -0.351904 0.297765 -0.041753 0.587261 0.23445 -0.212511 0.308347 -0.189137 -0.254626 -0.219243 -0.326765 -0.0714636 0.185699 -0.379837 -0.169619 0.316299 
-0.363448 -0.0886839 0.682669 -0.583765 -0.538524 0.447489 -0.682395 -0.0622203 -0.271444 -0.241341 0.158215 0.0261815 0.084709 -0.494301 0.465747 0.429045 -0.0835997 -0.16687 0.715187 -0.677361 0.482274 0.525289 0.0126389 0.128505 0.106823 0.331636 0.00544012 -0.0521256 0.163897 -0.238652 -0.326442 -0.392197 0.316475 -0.0437091 0.2775 -0.156428 0.14514 -0.867589 0.168602 0.305563 -0.128835 0.0597268 -0.599791 -0.801282 0.271447 -0.0931685 1.13236 -0.110377 0.162403 -0.403979 -0.0343852 0.155848 -0.372663 -0.134308 -0.574932 -0.953955 -0.582791 0.125523 -0.154854 0.44056 
0.150087 0.538247 0.18638 -0.113 0.256283 -0.168157 0.166764 0.0118141 -0.499806 0.224761 -0.0367177 0.0224861 0.106974 0.185956 0.434846 -0.164094 0.190724 -0.0391655 -0.378319 -0.14558 0.157925 -0.542018 0.0741745 -0.461258 0.147546 -0.171317 0.49499 0.227486 0.366684 0.0306722 -0.635363 -0.0449739 0.207676 0.210007 0.398602 0.467109 -0.0644458 -0.636411 0.253781 -0.0946975 -0.16969 0.477511 0.461279 0.322303 0.0329826 -0.441525 0.220261 -0.528922 -0.124689 -0.19316 0.0884507 -0.27863 0.515198 0.28057 -0.129207 0.445035 -0.300942 -0.122965 -0.0519704 -0.48659 
0.666896 0.416448 -0.251894 -0.276762 -0.100715 -0.356459 0.115975 -0.0716217 0.109939 0.350167 -0.134594 -0.0963851 0.103187 -0.101221 -0.15634 0.283954 0.0312419 -0.0902276 0.00179647 -0.177377 -0.101617 0.0608535 0.0312119 -0.294449 -0.235773 0.231065 -0.0770981 0.0652743 -0.0850681 0.268666 -0.581339 -0.150238 -0.835692 0.192948 0.514371 0.0733193 -0.325591 -0.292609 0.112446 0.373943 0.0732952 -0.328129 -0.599967 0.378586 0.135602 0.0319319 0.455908 -0.243989 0.0021269 0.127296 -0.415138 0.42492 -0.344883 0.367985 0.461139 -0.280731 0.0569577 0.573999 0.240655 0.697467 
-0.0148083 -0.0988731 0.133081 -0.0498488 0.272123 0.139335 -0.245311 -0.633617 0.330887 -0.0180052 -0.540636 0.259282 -0.328764 0.0183221 0.368053 -0.366104 0.681966 0.459184 0.212719 0.211184 -0.129588 -0.307681 -0.475378 0.529186 0.0123855 0.208337 -0.0827259 -0.0311083 -0.0766836 -0.157347 -0.612366 -0.115705 -0.571006 0.40963 0.204938 -0.453913 0.0478648 0.580699 0.86104 -0.189391 0.0119807 -0.122189 0.294868 -0.325682 0.228653 0.0794821 -0.137873 -0.370721 -0.427551 -0.168786 -0.14662 -0.298708 -0.476868 -0.429257 -0.117042 -0.0130126 -0.202359 -0.132161 -0.104959 -0.72195 
0.0586745 -0.328864 0.435943 -0.0458406 -0.0121104 0.0422605 -0.369192 0.233604 -0.808306 0.0725355 -0.011829 -0.0162598 0.454908 0.157646 0.037663 -0.385621 -0.16626 -0.230918 -0.720119 0.00241391 -0.00859714 -0.186424 0.0673072 -0.945677 0.606842 0.0961218 -0.504755 0.287952 0.922356 0.0813461 -0.0437665 -0.222078 -0.242077 0.393293 0.188507 -0.396908 0.244802 -0.39984 -0.0826497 0.292793 0.116668 0.120011 0.229971 0.368962 0.156376 -0.745571 0.229406 -0.188644 0.306552 0.749442 0.22071 -0.68225 -0.263843 0.527791 0.105346 -0.182219 -0.639614 -0.105696 -0.580841 -0.335206 
-0.615069 0.200235 -0.0963118 -0.0948137 -0.461443 -0.445245 0.00926824 0.312495 0.58205 0.482514 0.010962 -0.156474 0.0574715 0.443445 -0.000758102 -0.216535 -0.0271268 -0.216676 -0.0449442 -0.0465917 0.467363 0.374544 -0.233317 0.218537 -0.0112076 -0.099486 -0.179587 0.223233 -0.42312 0.468786 -0.149747 -0.0792199 0.313709 0.414424 -0.193415 -0.326625 -0.126098 0.0717349 -0.360977 -0.202408 -0.518331 0.38744 -0.299663 -0.463083 0.209436 0.152957 -0.679391 -0.177485 -0.365898 -0.270864 -0.306794 0.414958 0.887622 0.00360046 0.369615 0.642472 0.144859 0.13793 -0.320531 -0.765488 
-0.614834 -0.0980683 0.287135 -0.157973 0.636237 0.0837586 0.367115 -0.258919 -0.0886327 0.190086 -0.231794 -0.32449 -0.303519 0.307137 -0.123442 -0.125019 -0.143518 -0.379362 0.338523 -0.38227 -0.0252636 0.043791 -0.402898 -0.0659673 0.00333371 -0.52946 -0.296377 -0.0383253 0.1028 -0.293766 -0.366183 0.140446 -0.0359168 -0.0344426 -0.193619 -0.394048 -0.166875 -0.328808 -0.26563 -0.0355753 0.160035 -0.569009 0.260048 0.00685662 -0.484214 0.366764 0.233538 0.277341 -0.072274 -0.373223 0.0125147 0.0742166 0.775312 -0.799103 -0.189423 0.43668 -0.301118 -0.0711489 -0.204221 0.233317 
0.444706 0.0419265 0.0801687 0.548291 0.258571 0.507317 -0.103217 -0.371208 -0.478459 -0.0299021 -0.188086 -0.397593 0.197492 -0.193107 0.264252 0.0337275 -0.587621 -0.11862 -0.460819 -0.152674 0.177993 -0.329318 0.145711 -0.25676 0.451571 0.443182 0.0362222 -0.223723 0.0803069 0.103359 0.662217 0.340384 -0.350112 0.256233 -0.130097 0.227973 -0.13656 -0.126912 0.708368 -0.0545812 0.299779 -0.150305 0.341768 0.126235 -0.024702 -0.230076 0.525467 0.344905 0.908631 -0.0108105 0.283507 -0.108444 0.31358 -0.142619 0.366243 -0.431491 -1.10345 0.247232 -0.523005 0.501605 
0.106386 0.620485 -0.00596118 -0.578008 -0.962427 -0.166652 -0.0758499 0.242043 -0.771488 -0.14786 -0.888167 0.132335 -0.464353 -0.486981 -0.388842 0.189339 0.306325 -0.389148 0.0582273 -0.069552 0.591642 0.202138 0.139472 0.50319 0.64401 0.147882 0.38009 -0.261036 -0.0297289 0.310468 -0.759214 -0.364897 0.49259 0.0030885 -0.0687398 0.360484 0.433474 -0.609101 1.2041 -0.189647 0.474712 0.118899 -0.0273144 0.0181109 0.0317003 -0.324487 -0.141407 -0.337847 -0.0126479 -0.0893942 -0.272801 -0.366194 0.0641121 -0.433947 -0.149123 0.184136 0.248929 0.0334733 0.399442 0.403532 
-0.232413 -0.28605 0.472385 -0.979867 -0.685491 0.220389 -0.171997 0.361775 0.324 0.623141 -0.0412334 -0.0254487 0.245146 0.459147 0.0688471 -0.456937 0.0804449 0.317395 0.0883497 -0.298482 -0.539242 0.460188 -0.0679619 -0.176017 0.488789 0.138071 -0.281098 -0.626808 0.112505 0.106534 -0.443022 0.258914 0.590186 0.632697 0.318235 -0.148999 -0.23995 0.245563 0.834057 -0.410349 -0.434773 -0.306103 -0.141562 0.219584 -0.301374 0.301371 0.336119 -0.203247 0.393501 -0.313655 0.27586 0.0265768 -0.290432 -0.269154 -0.393053 0.16483 0.522713 0.334724 -0.104714 0.20387 
0.679727 0.112321 0.167587 0.0530047 0.049761 -0.145943 0.330515 -0.117257 -0.0448438 -0.20562 0.220842 0.0190579 0.30222 -0.112636 0.0985338 -0.447674 -0.1216 0.336576 -0.0605246 -0.455057 0.5378 -0.32343 -0.158004 0.0792312 0.426746 -0.169738 -0.20339 -0.384197 0.065602 0.331005 -0.264638 -0.265068 -0.00299939 -0.444161 -0.208973 0.116371 0.424873 0.140075 -0.138857 0.196922 0.0257496 -0.345257 0.133208 0.114179 0.361139 -0.0304786 0.336849 0.473965 -0.144187 0.778161 -0.159358 0.172559 -0.186311 0.12679 0.526767 0.15355 0.21578 -0.0883551 0.655499 0.104553 
0.569419 -0.342257 -0.0682457 0.274864 -0.108433 0.13149 0.289028 -0.299888 -0.622906 0.121113 -0.279066 0.334129 -0.133775 -0.580844 0.220881 -0.187677 0.635454 0.724061 0.146063 -0.682609 0.206444 -0.378405 0.337733 0.350506 -0.0703478 -0.0612646 0.778558 -0.240491 0.19636 -0.365307 -0.390076 0.401208 0.0994335 -0.258308 -0.313229 -0.454126 -0.0359291 -0.04782 -0.600276 0.397737 0.693497 0.178102 0.182552 -0.288694 -0.211413 -0.426789 0.15097 -0.239904 0.112934 0.0839458 -0.216041 0.103655 -0.261597 -0.403953 -0.197616 -0.416276 -0.41334 -0.0865839 0.00843235 0.294531 
-0.546165 -0.576099 -0.05247 0.0356534 -0.717385 -0.0327101 0.20948 0.258723 -0.471417 0.29462 -0.380136 -0.186354 0.00305975 -0.0157657 0.179836 0.247014 -0.474266 -0.882416 -0.555585 0.246661 -0.213033 0.501624 0.630913 -0.619455 -0.139999 0.25547 0.0179441 0.0157424 -0.341195 -0.367885 -0.165187 -0.0560664 0.139524 0.485787 0.185803 -0.0474334 0.126246 0.496504 0.120177 -0.37052 0.215931 0.531252 0.522663 -0.749986 0.822184 -0.713711 0.386677 -0.388938 -0.520068 0.0779425 -0.133929 -0.334032 -0.134403 0.0470218 -0.0140679 0.511474 -0.233195 -0.200705 0.256057 -0.184261 
-0.0252951 0.307505 0.0189226 -0.167928 -0.085936 -0.18104 -0.151317 -0.29971 0.0719539 -0.300879 -0.33789 -0.178758 0.19872 0.608839 -0.238996 0.170187 0.832333 -0.0941217 0.259013 -0.43853 -0.0446381 -0.0147965 -0.358259 0.64368 0.173391 -0.0530759 0.146038 0.00820448 -0.658854 -0.153017 0.0741429 -0.290926 -0.273665 -0.599439 0.483998 -0.204191 -0.355977 0.235457 0.0340991 -0.0630863 -0.295306 0.287543 0.0180482 -0.187833 -0.848798 -0.110278 0.195166 -0.214629 0.46972 -0.16123 -0.586945 0.0292123 -0.139614 -0.0369343 0.28952 0.0163132 0.0607957 -0.43487 -0.43729 0.00200065 
0.0936331 -0.205118 0.255724 0.199366 -0.485341 0.0473803 -0.107536 -0.455796 -0.0475681 0.135114 -0.209625 -0.678399 0.27594 -0.065083 -0.46771 0.0427002 0.0136807 -0.787751 0.434213 -0.115267 -0.318012 0.783158 -0.38932 -0.242428 1.10156 0.701748 0.139033 0.435248 0.278762 -0.107662 -0.00120183 0.449857 0.528761 -0.144591 -0.476489 -0.337675 0.199705 -0.37047 -0.0666325 -0.172588 0.269339 0.0657953 -0.0531675 -0.274324 -0.0985865 -0.460557 -0.459535 0.371382 0.215166 0.493901 0.480285 -0.572847 -1.14037 0.806934 0.0931764 0.0468357 0.500917 -0.0553153 0.600332 0.545749 
0.155277 -0.283018 0.0281763 0.113727 0.337957 0.467747 -0.432662 -0.418144 -0.352291 -0.187963 0.469936 -0.155531 0.327964 0.431404 0.00350859 -0.0411579 0.843751 0.28895 -0.312785 -0.0421064 -0.503221 0.318217 0.392767 0.178407 -0.352155 0.140271 -0.592444 -0.274165 -0.0675526 -0.0221325 -0.747682 -0.0204365 0.283157 -0.165262 -0.098356 0.224999 0.0108777 0.0613527 0.338488 0.258079 0.476175 -0.530793 0.414102 0.466193 0.0906487 -0.383367 -0.272728 -0.0956463 0.223822 0.0739991 -0.167488 0.0626222 0.0553138 0.065073 -0.0898539 0.29969 -0.321276 0.591002 -0.737903 -0.0484349 
0.111934 -0.155401 0.315742 -0.252834 0.12704 0.178011 -0.173247 -0.439106 0.0500606 0.274673 0.838434 0.254828 -0.139054 -0.0205441 -0.394867 -0.0267318 0.0320412 -0.957551 -0.157312 -0.128184 0.13349 0.117909 -0.212572 0.664754 -0.153029 -0.0799148 -0.185743 0.273038 -0.39523 -0.102612 0.0763655 0.506829 0.0756431 0.738524 -0.412105 -0.356451 -0.0775883 -0.401965 0.525011 -0.371124 0.187425 -0.0660781 -0.548686 0.00507262 0.275405 0.0166283 0.574582 -0.319007 -0.432883 0.00575115 0.221208 -0.129645 0.202943 -0.208497 -0.076649 0.365378 -0.488107 0.36087 -0.645284 -0.241095 
-0.138577 0.296615 -0.0937155 -0.0271376 -0.368354 0.233101 -0.122037 0.26581 0.0428416 -0.440574 0.432313 0.180312 0.310152 -0.406117 0.362418 0.532613 -0.232444 -0.329908 0.110476 -0.546776 0.425305 -0.156396 -1.11721 0.408112 0.385073 -0.227569 -0.272309 0.347425 -0.480817 0.0386978 0.319024 0.361876 -0.0639209 0.415143 -0.26382 0.120898 0.172744 -0.195349 0.1934 0.617206 -0.108064 0.0491315 0.32086 -0.190815 -0.0886015 -0.313829 0.197419 0.288557 0.0106782 0.129436 -0.693352 -0.440314 0.962355 0.819648 -0.40317 -0.2497 -0.13608 -0.0298881 -0.302518 -0.339425 
-0.17688 -0.131448 0.410416 -0.37389 -0.39616 0.572602 0.700394 0.0223602 -0.211489 0.0029205 0.415849 -0.23196 -0.0356796 0.0200671 0.195031 0.287774 -0.0566862 -0.536234 -0.158911 0.00446499 0.493923 0.294941 -0.198206 -1.21967 0.378497 -0.257064 0.431261 0.151606 -0.2969 0.28913 0.710282 0.0319094 0.04181 0.644607 -0.0401055 0.727665 0.102975 -0.257673 -0.422848 0.0199936 0.0783861 -0.668012 0.27651 0.336108 0.107315 -0.222081 -0.198757 -0.588461 -0.310501 0.983579 -0.272105 0.224404 0.151853 0.493908 -0.353125 0.513081 0.0250276 0.251718 -0.0902578 0.0601138 
-0.235109 -0.270728 0.757489 0.42086 -0.0980878 -0.219894 0.0992456 0.429196 0.207608 0.180984 0.014421 0.182663 -0.782093 -0.19171 0.716854 -0.235704 -0.232815 0.151543 -0.457389 -0.297969 0.279616 0.214864 -0.303211 0.652343 -0.157794 0.280095 0.0458834 0.277709 -0.0187529 -0.18157 0.302703 -0.406565 -0.36665 0.493379 -0.0886226 0.0122781 -0.318419 -0.140105 0.325243 0.232956 0.132495 0.252539 0.209791 0.288812 0.183989 0.282783 -0.0164058 0.0663434 -0.130624 -0.320896 -0.454762 -0.554694 0.108097 0.417417 -0.0931922 -0.149377 0.314588 0.346943 -0.0188834 -0.338182 
0.362887 0.137284 -0.418851 0.0887384 0.535251 -0.0217838 -0.311135 0.352203 -0.403544 -0.518131 -0.00922478 -0.20718 -0.499958 -0.0506846 -0.243814 -0.188841 0.205513 -0.0074167 -0.363996 -0.048182 -0.15316 0.267357 0.120817 0.370702 -0.248893 -0.103744 -0.235272 0.158378 0.153762 -0.273299 -0.491658 -0.457144 0.0725214 -0.146814 -0.551285 0.188232 -0.759164 -0.525505 -0.374181 -0.545221 -0.402678 0.680483 -0.153107 0.174002 -0.338841 0.274668 -0.315709 -0.199142 0.06338 0.0669424 0.322659 0.0645358 0.282422 0.18216 -0.113054 -0.120448 -0.672074 0.597107 0.691817 0.288542 
0.00552419 -0.537826 -0.0887385 0.0394113 -0.0934058 0.0721511 -0.563838 0.260137 0.444754 0.459153 -0.259128 0.496119 0.10763 0.0946009 0.262907 0.131427 -0.226567 0.48207 -0.198087 0.297449 0.726939 -0.313187 -0.210315 0.0635083 -0.137596 -0.457005 -0.0539324 -0.19653 -0.466262 0.310919 0.138949 0.0420221 0.059898 0.391463 -0.0448397 0.195316 -0.687244 0.28711 0.0400035 0.412516 -0.486206 -0.342535 -0.023118 -0.0431504 0.74008 0.143742 0.29763 -0.180241 -0.309962 -0.507906 -0.231833 -0.142726 -0.277599 0.190425 -0.440858 0.43788 0.204798 0.0963501 0.100169 -0.0196782 
-0.289954 -0.187895 0.184917 0.287481 -0.0428231 -0.335964 0.0170899 -0.355851 0.296251 0.10276 -0.179356 -1.05823 0.0501623 0.135927 0.603846 0.182765 -0.34603 -0.0159466 -0.241257 0.0402974 -0.249855 0.220638 -0.105653 0.527376 -0.449776 -0.0993433 -0.378457 -0.268522 0.0551465 0.164311 0.0171814 -0.335267 0.583482 -0.670682 -0.0931727 0.145036 0.673422 -0.706722 -0.00406304 -0.475838 -0.752383 -1.01612 0.0147613 0.0362511 -0.145225 -0.116931 0.603084 -0.359101 -0.211022 -0.183517 0.244144 0.0810068 -0.433571 0.329679 -0.237907 0.0398404 0.486821 -0.238772 -0.0730417 0.524925 
-0.28439 -0.284661 0.404966 -0.824279 0.472535 0.150807 0.372746 -0.0789371 0.790345 -0.0599945 -0.253533 -0.124884 -0.856444 0.226295 -0.2263 -0.288394 -0.533907 -0.0181962 0.539965 -0.0093041 0.454025 0.287165 0.0409862 -0.394143 -0.0618853 -0.224945 0.247197 0.169007 -0.139936 0.21562 -0.60811 -0.214035 -0.294346 -0.570457 0.434676 0.0466828 0.0228327 0.386641 0.32254 0.311644 -0.396623 -0.140134 -0.115257 -0.219433 0.420677 -0.220337 -0.17095 -0.596175 -0.0831976 -0.127537 -0.15543 -0.197142 -0.899 -0.0175524 -0.152621 -0.701565 -0.0828175 0.0988937 0.110735 0.3469 
0.0704831 -0.407064 -0.381167 0.660046 -0.256063 -0.573531 -0.164691 0.053758 0.492426 0.365551 0.485581 0.852501 0.678324 0.423372 0.0244838 0.128832 -0.637649 -0.384711 0.274453 0.223852 -0.137532 -0.165601 -0.285883 0.183972 0.128629 0.346155 -0.184489 -0.385882 0.256653 -0.231931 0.679808 -0.583791 0.273524 -0.100229 0.227671 0.030959 0.339941 -0.208828 -0.173442 0.33809 0.493116 0.0144729 -0.61783 -0.881809 -0.156533 -0.562259 0.207658 0.320906 -0.2331 0.149733 -0.332662 0.0543503 -0.0476755 0.923527 0.0439755 -0.295194 0.688809 -0.0169252 -0.385957 0.130728 
-0.480313 0.535852 0.206786 0.322486 0.174731 -0.228372 -0.125192 0.172428 -0.480723 -0.319055 0.216269 0.0925081 -0.169854 0.53392 0.277289 0.176009 -0.215878 -0.138637 -0.0214429 0.12042 0.129968 0.284668 -0.172215 0.300399 0.30797 0.195994 0.050526 -0.474994 0.0179825 -0.455399 -0.498476 0.236429 0.314204 -0.734259 0.110506 -0.0222616 -0.447465 -0.108388 -0.414986 -0.146404 0.497352 0.918455 0.186693 -0.255927 0.296035 -0.160472 -0.153738 0.542299 -0.217118 -0.192306 0.166985 0.154635 0.357679 -0.0182211 0.324541 0.0240997 -0.310736 -0.0332173 0.483878 -0.436392 
0.145025 0.383748 -0.256117 -0.695658 0.612883 -0.0997605 0.0626308 -0.527868 -0.104211 0.268789 -0.378641 -0.564242 0.215456 0.199238 -0.5634 0.00406873 -0.0540659 0.129657 0.0177958 -0.202671 0.423795 -0.574339 0.319185 0.310038 -0.284965 -0.24662 -0.0364004 0.420421 -0.62172 0.0847854 -0.0142722 0.735721 -0.351651 0.269497 -0.59847 -0.160006 0.341653 -0.252499 0.034921 0.323671 -0.158178 0.439098 -0.650103 0.356995 -0.506637 -0.0770784 -0.374602 -0.116131 0.937246 -0.350314 0.260706 -0.129753 -0.0297635 0.31313 0.137104 -0.00150848 -0.28816 -0.101186 -0.108639 0.217873 
0.325443 -0.308469 -0.34899 0.390314 0.0878952 0.580584 0.148739 0.277772 0.186908 0.233656 0.0466218 0.0456769 -0.321209 0.217285 0.266479 0.385731 -0.258553 -0.514197 0.00311035 0.60408 -0.429861 -0.227369 -0.485342 0.267271 -0.275178 -0.0269484 -0.545164 -0.422238 -0.330724 0.196133 -0.579054 0.291708 0.0995511 -0.0699812 0.152545 -0.625483 0.196285 -0.635755 -0.095527 0.122037 0.169879 0.173899 -0.140221 -0.0124534 0.0149869 0.750163 -0.131362 -0.08092 0.00640548 0.0921606 0.598605 0.0455479 0.712206 0.508567 -0.352991 -0.353738 -0.089659 -0.004003 -0.264992 0.205656 
-0.544986 -0.0203548 -0.575682 0.0601843 -0.352293 -0.206128 -0.82284 -0.168837 0.258362 -0.79314 0.132686 0.264348 -0.112335 0.323078 0.26657 -0.180088 -0.288206 -0.610853 0.01134 -0.532774 0.29079 0.189813 0.607942 0.119346 0.23327 0.225152 -0.136284 -0.0926431 0.145913 -0.160758 0.275632 0.312856 -0.381001 -0.503019 0.113768 -0.255282 0.354709 0.352551 0.113134 -0.15352 -0.483255 0.316768 -0.152464 -0.122524 0.221978 0.887946 1.00269 -0.312126 0.00522505 0.457783 0.130626 -0.111594 -0.145135 -0.398319 -0.330326 0.413826 -0.0799937 -0.0873876 -0.111105 -0.183685 
0.456543 -0.252059 -0.191584 0.138205 -0.0543546 -0.0743461 0.253177 -0.533114 0.349254 -0.272112 -0.241677 0.265667 0.221093 -0.0262584 0.0600074 -0.0494855 0.50576 -0.891265 0.322886 -1.07608 0.556866 0.278847 0.0176709 0.0453829 0.0427634 0.0799423 0.248228 -0.155326 -0.244236 -0.103909 -0.550158 -0.357012 -0.362663 -0.198655 0.1224 0.318491 0.118722 0.0713871 -0.101463 0.229721 -0.162142 -0.562438 0.094379 -0.217888 -0.0101238 -0.416392 -0.534638 0.208012 -0.630673 -0.366815 0.011136 0.793225 -0.127792 0.416176 -0.0559678 0.773133 -0.186346 0.262838 0.000674229 0.431008 
0.374473 0.706598 -0.214001 0.0161867 -0.24174 -0.272451 0.0317371 0.437422 0.377148 -0.155345 0.104896 -0.27092 0.030964 0.131174 -0.494036 0.0542289 0.0598304 0.055266 -0.172207 -0.550259 -0.108326 0.266541 0.189013 0.659596 0.473216 -0.135579 0.438963 -0.298614 -0.406698 -0.292382 0.272388 0.232274 -0.453704 0.122922 0.51139 -0.154312 -0.201338 -0.0677322 -0.596489 0.258339 0.547237 -0.145388 -0.371984 -0.547518 0.0722765 -0.091605 0.698227 0.12823 -0.061838 0.567562 -0.0725545 -0.0982168 0.0398096 -0.86637 -0.149452 0.183659 0.135245 0.3431 0.0197832 0.0798042 
0.186546 0.137538 -0.198452 0.482288 -0.148884 -0.57351 0.377713 0.303583 0.609046 0.166726 -0.199471 0.612755 0.00682163 -0.139472 -0.181494 0.475978 -0.148247 0.169243 0.126997 0.0446337 -0.0397204 -0.485276 0.0386137 -0.0664782 0.412757 0.11992 -0.142703 0.0782682 -0.556643 -0.332519 -0.696222 0.190613 0.799781 0.330081 -0.50692 -0.622544 0.410868 -0.003619 -0.0346178 -0.292558 0.365414 -0.441257 -0.22918 -0.295694 -0.313674 -0.0190136 -0.642019 -0.0590191 -0.224751 -0.217437 0.417993 -0.140108 0.299903 -0.0525546 -0.32413 0.024668 -0.573187 0.0311323 -0.263356 -0.42523 
0.214337 -0.196148 0.00638484 -0.0514852 0.21548 0.430599 -0.759945 -0.148083 -0.251416 0.95006 -0.377083 -0.133878 0.0858525 0.137863 -0.32689 -0.212678 0.0217592 0.183519 -0.184701 0.0678852 -0.427833 0.638895 -0.52465 -0.21031 -0.125931 -0.422824 0.483773 0.829597 -0.140097 0.0389499 0.663622 -0.582362 -0.140639 0.404133 -0.0441516 0.224592 0.306522 0.142583 0.840164 -0.281352 0.567393 -0.396294 -0.286767 0.299008 0.0264073 -0.140959 0.903109 -0.766613 -0.16225 -0.0150018 0.209769 -0.269706 -0.350245 -0.0551643 0.689023 -0.48127 -0.356233 -0.103047 -0.604995 0.136783 
0.0449038 -0.0337751 0.10858 0.297601 -0.0255685 0.350771 0.445074 -0.152888 -0.621707 0.542886 -0.305512 -0.470411 -0.0245944 -0.463671 -0.107107 0.275941 0.367046 -0.348985 0.515503 0.116119 0.279149 0.219808 0.272734 -0.425756 0.204999 -0.370005 -0.0904544 0.572284 -0.112206 0.466866 -0.280982 0.0738754 0.00269793 -0.478429 0.771698 -0.47129 0.0249114 -0.206251 -0.0916776 -0.534459 -0.303814 -0.40204 -0.547526 0.136681 -0.0820218 -0.321964 0.257002 -0.115257 -0.3118 0.451757 -0.273201 -0.052615 -0.358012 0.175137 0.159423 0.173656 0.385912 0.098487 -0.736765 0.413032 
-0.145378 -0.113206 -0.682298 -0.440529 -0.0579667 -0.0251103 0.107313 0.528771 -0.00276991 -0.589284 0.237225 -0.358172 -0.12852 -0.806809 -0.455123 -0.156757 0.350548 -0.425841 0.470455 0.330188 0.28596 0.336083 -0.107588 0.066739 -0.135848 -0.108528 -0.0524302 -0.622393 0.272936 -0.170066 -0.234539 -0.0522063 0.409894 0.0933058 0.752129 -0.478515 0.127419 0.336571 0.257892 0.428731 0.173091 -0.287102 0.0909601 0.382948 0.253136 -0.398355 -0.0494294 0.0235179 0.449711 -0.328968 -0.291004 -0.551957 -0.450312 -0.269467 -0.0578291 0.133169 0.607049 0.077455 0.399521 -0.250034 
-0.413376 -0.44346 0.251187 -0.207236 -0.293059 0.669288 -0.15786 0.0924442 -0.375893 0.255139 0.249264 0.319417 0.218895 0.0495983 -0.604066 0.223661 0.597244 0.115862 0.409269 0.546945 -0.138511 -0.617782 -0.0623627 -0.151865 0.459281 -0.024742 -0.284673 -0.300366 -0.0483264 -0.436641 -0.583107 -0.0934272 0.218528 -0.327716 0.243083 0.0141073 -0.0733527 -0.59359 -0.146296 0.303574 -0.099297 -0.889056 -0.297976 -0.26317 0.010554 -0.170818 -0.539734 0.0210132 -0.369396 0.0764675 -0.104998 -0.624616 -0.117778 0.0724923 0.187102 -0.103169 -0.134926 -0.156437 0.0803167 0.0463474 
0.42302 0.144802 -0.0987951 0.281734 -0.549118 -0.462511 0.577403 -0.104277 0.0697607 0.0646159 -0.135768 -0.230136 0.545806 -0.135269 0.191516 -0.122894 -0.0434438 0.164168 -0.0569877 0.10984 2.92213e-05 0.49915 -0.0206878 -0.373085 -0.0634525 0.240923 0.558004 -0.060433 0.275019 -0.515001 0.0855623 -0.0659806 0.533166 0.105787 0.580776 0.218081 0.495784 0.628565 -0.0281038 -0.345396 -0.0155269 -0.0109935 -0.0911012 -0.443166 -0.268038 -0.338125 0.0699187 0.439211 -0.0516238 0.788778 0.210168 0.468661 0.442548 -0.136825 0.118481 0.424064 0.0825634 0.0902786 0.0362224 -1.08556 
-0.845952 -0.00891444 0.501723 -0.183082 0.181246 -0.5688 0.0328473 0.0927501 -0.433127 -0.21172 -0.269535 -0.134309 -0.304073 0.381169 0.847404 -0.0931198 -0.127115 -0.688411 -0.551514 -0.583026 0.0842084 -0.0964723 0.420606 -0.0535279 -0.56983 0.359628 0.497479 -0.122103 -0.288068 -0.455822 -0.0513642 0.0396631 -0.610583 0.457996 0.53546 0.18013 -0.450413 -0.250082 0.368247 -0.204222 -0.606212 0.0706407 -0.110691 0.0279334 -0.166229 0.158964 0.189057 -0.094744 -0.251601 0.506861 0.353957 -0.00659487 0.273743 -0.426387 -0.0786528 0.0709178 0.144889 -0.0645227 -0.251211 -0.31072 
0.0370887 -0.331437 0.959093 -0.479528 -0.521341 0.0022422 -0.496273 -0.372319 -0.730052 0.478042 0.245693 0.120842 0.375167 -0.0153551 0.052604 -0.429901 0.477918 0.227292 0.216295 0.265688 -0.279847 0.169124 -0.79641 -0.462043 0.23865 0.530174 -0.220531 0.222672 -0.419559 -0.148977 -0.158864 -0.588585 -0.105277 -0.328365 -0.183351 0.323101 0.0771419 0.0462037 0.0628557 0.282894 0.164291 -0.471425 -0.0866609 -0.147453 -0.0026295 -0.267057 -0.694038 -0.868339 0.613831 0.331898 0.0212965 -0.248954 -0.458924 0.31827 0.485889 -0.0154745 -0.581614 0.140248 -0.465747 -0.322988 
0.0623256 -0.778152 -0.120923 -0.933306 0.120556 0.130817 0.425455 -0.273478 -0.0647605 -0.425215 0.0614438 0.0905903 0.117805 0.326491 -0.189382 -0.326743 -0.183864 -0.17834 -0.407075 0.361395 0.359657 0.26161 -0.218744 0.177321 -0.0334114 -0.563497 -0.24011 -0.170287 0.115921 -0.34821 -0.14304 -0.339797 -0.399792 0.588829 0.238382 -0.180657 -0.371725 -0.257219 -0.169044 0.30132 -0.0437507 -0.170349 0.442302 0.0513545 -0.320556 -0.372595 -0.520739 -0.349609 0.671606 -0.324757 0.112552 -0.0131628 0.448329 0.291843 0.524499 0.522947 0.00993359 -0.160868 -0.670643 0.311517 
0.155303 -0.0807128 -0.450186 0.193545 -0.391426 0.1527 -0.0225987 0.467978 0.178678 0.469339 0.385999 0.29002 0.576703 -0.207736 -0.165659 0.453209 -0.264213 -0.362681 -0.873601 -0.377188 0.0115182 -0.364723 -0.750831 -0.443932 0.365413 -0.702628 -0.0594312 0.357554 -0.125861 0.127908 -0.48387 -0.235878 0.107997 -0.0249386 0.763583 0.00342821 -0.133553 -0.516714 -0.183954 -0.0293726 -0.194772 0.232501 0.122807 -0.449097 -0.286852 0.323372 0.552317 0.104637 -0.296684 0.0436157 0.247826 -0.196054 -0.755172 -0.167662 -0.102845 0.14974 -0.346931 0.13245 -0.0532689 -0.328365 
-0.199371 0.188977 -0.051989 0.361967 0.224058 -0.19953 -0.0432925 0.100255 0.0824834 0.518467 -0.0903291 -0.72962 0.295914 0.33003 0.239502 0.239785 0.016594 -0.237659 0.142783 -0.0519184 -0.0375839 0.000894862 -0.219322 0.597054 -0.148521 0.193346 0.201492 -0.267562 0.12075 -0.384084 -0.519451 -0.61623 0.517459 -0.248033 0.479057 -0.0721782 -0.313776 0.158878 0.425252 -0.638905 -0.404542 0.339354 0.129813 0.00281609 -0.142893 -0.064678 -0.121075 -0.413966 0.0281062 0.493378 -0.233725 -0.0609107 0.0587792 -0.533782 0.0992979 0.304038 -0.339471 -0.139408 -0.76429 -0.332961 
-0.389501 0.39305 -0.255291 0.0369854 0.0887721 0.247192 -0.341977 -0.0106503 -0.259351 0.436937 -0.158408 0.148592 -0.241062 -0.396142 -0.174676 -0.470354 0.48223 -0.118778 -0.339957 -0.145458 -0.886034 -0.0322444 -0.168456 -0.126315 -0.200588 -0.00991844 -0.120576 -0.533842 0.181441 0.88848 -0.619158 0.00814753 -0.537513 0.355341 -0.0304228 0.310397 -0.126892 -0.145986 0.0916001 -0.448501 0.442947 -0.088751 0.508782 0.508621 -0.173889 -0.230011 0.269129 -0.833971 -0.0678532 -0.403923 -0.184223 -0.633101 -0.497936 -0.182175 -0.139659 -0.244626 -0.17212 -0.0795734 -0.77392 0.541337 
-0.429887 0.0929813 0.734086 -0.531334 0.107865 -0.307059 0.285905 -0.63013 -0.409488 0.162061 -0.213984 0.280507 0.338284 0.177241 -0.135705 0.225516 -0.602172 0.318637 -0.23742 -0.143068 -0.523941 -0.620404 -0.216795 0.264548 0.457334 -0.0143298 0.487165 0.160974 -0.0589568 0.833487 -0.0726881 0.115141 0.00943966 -0.990404 0.473627 0.259618 -0.0346432 0.0995632 0.130808 -0.0068592 -0.0463449 0.423896 0.0932338 0.428204 -0.447508 -0.4077 -0.405109 -0.200425 -0.0307073 -1.14497 0.161989 0.490277 0.0244843 -0.174423 0.248953 0.337074 0.0548386 -0.0597284 0.340906 0.184114 
0.177651 0.467267 0.130552 -0.0144941 -0.237331 0.49092 -0.0170158 0.506797 -0.0911994 0.0481697 -0.154734 0.074915 -0.27195 0.917818 -0.105088 -0.251861 -0.103543 -0.20106 0.156025 -0.554209 -0.0617727 0.236183 -0.0916301 0.480749 -0.143586 -0.645812 -0.162736 0.471235 -0.542032 0.290883 0.190574 0.310373 -1.02757 0.0703815 0.188536 0.042975 0.253558 -0.801 0.10506 -0.285807 -0.669179 0.528452 -0.883947 0.113054 0.202612 -0.0508289 0.393775 -0.276225 0.130958 0.44561 0.0795926 -0.129407 0.0530281 -0.0247833 0.217277 0.482809 0.331052 0.0697488 0.420953 0.340943 
-0.416013 0.421267 -0.510564 0.156725 0.117891 0.124153 -0.089746 0.0536296 -0.605077 -0.277917 -0.0884974 -0.422964 0.274238 -0.329234 0.237777 -0.122061 0.0222843 -0.100557 0.313911 -0.533382 -0.320245 -0.431682 -0.266093 0.364425 -0.0639195 -0.133187 -0.134209 -0.103559 0.212915 -0.58079 -0.220326 -0.0184489 0.248506 -0.0160781 -0.105457 0.0278289 -0.0843998 -0.280488 -0.0830912 -0.0833292 -0.118359 0.227783 0.314644 -0.537412 -0.659159 0.148788 -0.116792 0.30669 0.499426 -0.200498 -0.39808 -0.363357 0.301735 0.579828 -0.28509 -0.137238 0.134922 -0.732667 0.249253 -0.324464 
0.0418627 -0.0201197 0.451462 -0.424047 -0.138118 0.136754 -0.208077 0.398457 0.313378 -0.275879 -0.273083 0.140627 0.0472646 -0.233532 0.127968 0.115849 -0.372092 -0.466436 0.436953 -0.0944361 0.0589406 -0.0105866 0.434744 -0.362139 0.426946 -0.456481 -0.125565 -0.0260694 -0.10931 -0.0364031 -0.106485 0.17548 -0.312658 0.61001 -0.588931 -0.200372 -0.0955455 0.249959 -0.285333 -0.272536 0.136957 0.0425916 -0.224072 -0.414168 -0.298022 -0.846467 -0.426288 0.210342 -0.0741748 0.239931 0.36262 0.38397 -0.440903 0.127907 0.495654 0.168458 0.454084 0.430905 -0.273066 -0.217297 
0.0950967 0.37305 -0.0860967 -0.532569 -0.0307732 -0.244921 0.0777208 0.0309746 -0.0669043 0.260446 -0.448209 0.271296 -0.291659 0.493471 -0.430882 -0.447624 0.133579 -0.157362 0.138272 -0.266117 -0.0878901 0.396021 0.528483 -0.512312 0.158367 -0.048999 0.630972 -0.460882 -0.0366523 0.321138 -0.0743362 -0.0342886 0.282156 0.0411659 0.127105 0.138817 -0.278067 -0.774875 -0.128666 0.00760819 0.169808 -0.868014 0.845462 -0.559403 -0.363567 0.0209679 0.028119 -0.20248 0.485324 -0.540045 -0.294255 -0.356632 0.351462 0.155493 0.312005 -0.129985 -0.763589 0.637314 0.42058 0.493292 
-0.127704 0.48733 -0.283671 -0.103364 -0.189788 0.463061 -0.280936 0.328357 0.691293 0.537025 0.594812 0.0587212 -0.197537 -0.142372 0.0983996 0.244891 -0.337469 0.435908 0.4214 0.261178 -0.281547 -0.0442613 -0.280783 -0.312393 0.645636 0.274288 0.337504 -0.897874 -0.145913 -0.244618 -0.530703 0.340251 0.130132 -0.426649 0.533728 -0.590585 -0.0438484 -0.169537 0.277717 0.384697 0.301932 -0.739414 -0.575052 0.420703 0.0571887 0.0509841 -0.374932 0.306621 -0.211584 0.151933 0.366642 -0.715055 -0.0826201 -0.401067 -0.0338841 -0.267811 0.828313 -0.332722 -0.41087 0.257196 
0.108167 -0.312975 -0.186893 -0.0918595 -0.313493 -0.216551 -0.134682 0.086259 0.62431 0.189724 0.136025 -0.16101 -0.190711 0.530205 0.23906 0.00554917 0.097778 0.307445 -0.250911 0.2114 -0.0334648 -0.0996504 -0.146377 -0.0132785 0.0174894 0.031842 0.109239 0.307135 -0.409068 -0.204667 0.0328465 0.07931 0.0221981 -0.485438 -0.0517785 0.66809 0.113231 -0.301802 0.188448 -0.65992 -0.121385 -0.0833765 0.906715 -0.0539527 0.264921 -0.176081 -0.241126 0.500062 -0.226067 -0.381729 -0.141867 -0.22332 -0.0533059 0.247351 -0.136249 -0.343736 -0.0614101 0.553893 -0.580164 -0.647269 
0.413678 -0.764014 0.183989 -0.159692 0.262158 -0.0708206 0.359881 0.783992 -0.00922683 -0.478254 0.441437 0.130123 -0.427682 0.183038 0.0513544 0.674857 -0.158246 0.729863 -0.204992 0.00558911 0.0810731 0.11458 -0.000403982 -0.0551342 -0.41392 0.887651 -0.0434299 -0.35467 -0.308854 -0.395648 -0.229677 -0.570871 -0.447123 -0.032494 -0.118593 -0.141979 -0.472901 0.711893 0.148013 0.187472 0.473246 -0.34321 -0.120976 0.0391525 -0.24906 0.142767 -0.310063 -0.1049 0.623276 0.766979 0.305352 -0.0396092 0.215072 -0.232231 0.388623 0.0284047 -0.607142 -0.469482 -0.326558 0.334694 
0.433471 0.384152 0.345522 -0.00347305 -0.335557 -0.201688 -0.21302 -0.166893 -0.754145 -0.34262 0.0380845 -0.476301 0.126443 0.204745 0.15377 0.122275 0.365376 0.0591292 0.746025 -0.559498 0.0699259 0.0454289 0.337429 0.688906 0.752159 -0.284988 -0.0926251 0.0928706 -0.0127499 -0.473904 0.229591 -0.255091 0.95065 -0.128901 -0.264147 -0.552529 0.366517 -0.180748 0.249785 0.0949753 -0.22593 -0.0932954 0.274718 -0.286661 0.402547 -0.513826 0.0478942 0.0518833 -0.461212 -0.478603 -0.0569976 -0.315153 0.185476 -0.173444 -0.420886 -0.666887 0.0524593 -0.370799 -0.124531 0.626935 
0.0609921 0.348033 -0.134981 -0.363647 0.238689 0.282136 -0.117797 0.263649 0.522425 -0.259079 0.0482568 -0.0188087 0.368999 0.295449 -0.383091 0.880338 0.162028 -0.354865 -0.569668 -0.257156 -0.0543781 -0.0556817 0.449715 1.07297 -0.196554 0.533183 -0.284035 -0.0957938 -0.693343 0.0332096 0.193148 0.0216919 -0.161932 0.278846 0.0437407 0.0583259 0.639117 0.199276 -0.412131 0.20947 -0.232879 -0.137722 0.140438 -0.17045 0.210961 -0.58473 -0.0622022 -0.606027 -0.307328 -0.0232903 0.201045 0.459213 -0.157753 0.256459 0.408827 0.0359402 -0.459282 0.30276 -0.724604 -0.65257 
-0.110795 0.112655 0.675076 0.424085 0.13281 0.0839103 -0.221394 -0.136015 0.541253 -0.529881 0.104128 -0.0154064 -0.268091 0.331945 -0.506464 -0.0618024 -0.309838 -0.116515 0.181216 -0.562252 0.0979879 -0.278731 -0.378134 0.0374957 0.227877 0.300286 -0.531371 0.258632 0.414313 0.454576 -0.118515 0.119461 -0.258103 -0.605586 0.234196 -0.0977033 0.21664 -0.137805 -0.222431 0.140617 -0.071953 -0.0954023 -0.13733 -0.474742 -0.284446 1.49878 -0.47256 -0.64755 0.863468 0.632292 0.318575 0.0106337 0.403692 0.0363115 0.226874 0.35586 -0.176109 -0.557888 -0.00570449 0.525229 
-0.388099 0.00809054 -0.275435 0.463834 0.0677163 -0.281086 -0.198641 0.211216 -0.0142415 -0.136756 0.0373563 0.670995 0.0321123 -0.307481 0.421768 -0.160869 0.565693 -0.655228 0.452841 -0.0554119 -0.00991199 0.0844168 0.328645 -0.0517832 -0.0558449 -0.26406 -0.486828 -0.355084 -0.252297 0.135753 0.212907 0.381884 -0.0789559 -0.242331 0.136602 -0.340876 -0.509722 -0.470782 -0.0382893 0.000619814 -0.538428 -0.294113 0.0171651 0.441159 0.796954 -0.160571 0.239288 0.552222 0.0230716 0.0502241 0.483401 -0.494112 -0.0116113 -0.284327 -0.112969 0.589158 -0.173721 -0.27324 0.168476 -0.24912 
-0.448051 -0.246294 0.0108753 0.352843 0.764752 0.375082 0.143452 -0.367958 -0.212732 -0.355869 -0.363746 0.0733627 0.0315937 0.773526 0.662333 -0.0458369 -0.43441 -0.546692 0.114174 -0.0101171 -0.0657815 0.446025 0.295676 -0.0387506 0.600179 0.344633 -0.15491 -0.177541 -0.286725 -0.120515 0.274808 0.18422 -0.465916 0.105717 -0.779707 -0.0860415 -0.415222 0.103794 0.612468 0.142526 0.310907 -0.0794931 -0.867489 0.0296883 0.132377 -0.144067 0.074062 0.0327167 0.639514 -0.321112 -0.0637412 -0.14179 0.461751 0.590164 0.243732 0.336795 0.0919167 -0.745545 0.0522414 0.229135 
-0.0164023 0.0895712 0.100179 0.0775068 0.139463 0.400866 -0.240247 0.439989 0.432792 -0.0573947 0.408263 0.275437 -0.367995 -0.800477 0.401158 -0.0342822 0.215471 -0.144936 -0.187543 0.21816 -0.555187 0.322706 -0.0254066 -0.173525 0.505944 -0.130695 -0.115228 0.306013 0.0428085 0.237387 0.356025 -0.0277059 -0.0177186 -0.220398 -0.030915 -0.0525954 -0.0185916 -0.126471 -0.00387248 -0.183684 -0.0848937 0.157173 -0.0604782 0.217573 0.514828 -0.0692182 -0.170457 -0.32409 0.16632 0.53972 -0.321818 -0.229077 0.153258 0.310336 -0.149958 -0.96353 0.262563 -0.166043 -0.29495 0.440437 
-0.506633 -0.450363 0.280524 -0.169886 -0.775246 -0.177495 -0.380488 -0.168549 -0.195564 0.0494459 0.017213 0.225521 0.314165 0.122973 -0.351609 -0.0345428 -0.543178 -0.318587 -0.0762117 -0.104262 -0.66609 0.796397 0.0867232 0.336613 -0.0494924 -0.0768683 0.00240188 0.280815 -0.355605 0.207736 0.00944765 0.428265 -0.491932 0.400656 0.136116 0.0228631 -0.151856 0.0466688 0.528044 0.462054 0.196019 0.0825725 -0.300407 -0.417905 0.471336 0.447946 0.201933 -0.304632 0.50015 0.0867103 -0.659985 -0.591798 -0.375382 -0.209175 -0.057555 0.418276 0.239806 -0.129183 -0.267804 0.261314 
-0.371154 -0.05762 -0.293281 0.344511 0.147922 0.468286 0.168986 -0.213834 0.188986 -0.318996 0.132704 -0.13627 0.340456 0.275551 0.412121 0.336118 -0.134749 0.890399 -0.0746125 -0.137282 0.34612 -0.487329 0.578648 0.0622959 0.334464 0.146821 0.352397 -0.179135 0.234487 0.345232 0.569906 -0.187114 0.307649 0.472269 -0.0283361 0.146868 0.162324 -0.153632 -0.120415 0.329124 -0.368624 -0.305838 -0.0961902 -0.0148538 -0.77024 -0.252258 -0.120732 0.522072 0.283345 0.101376 0.144905 -0.339161 -0.0290572 0.0396215 -0.728807 0.638161 -0.27883 -0.401876 -0.264308 0.358766 
0.332477 -0.431082 -0.100975 0.127491 -0.208965 0.382604 0.0443542 -0.48222 0.349458 0.429026 0.216096 0.299124 0.18115 -0.094189 -0.827002 -0.23307 0.315163 0.774343 0.268835 0.656605 -0.659911 0.64648 -0.21222 -0.250717 0.311584 0.135405 0.499049 -0.376508 -0.105315 0.0131029 -0.61993 0.648434 0.295788 0.00147153 0.0272661 -0.333108 0.535825 -0.284817 0.564891 0.292931 -0.0754143 0.105374 -0.619824 0.151469 0.366405 -0.0833833 -0.580018 -0.54613 -0.201357 0.625338 -0.25602 0.737845 -0.0578913 0.256206 -0.170778 0.171277 -0.33638 0.311311 -0.152541 -0.360672 
0.575553 -0.127049 0.70501 -0.162028 0.464137 0.179821 0.140326 -0.152103 -0.333816 0.102228 0.142343 -0.273394 -0.467294 0.198639 -0.372112 0.323987 -0.689575 0.483016 0.125921 0.302825 0.0490874 -0.0674051 -0.391899 0.184436 0.0880351 0.388043 -0.164696 0.27175 0.0717946 -0.0463738 0.144859 0.246512 -0.152682 -0.79933 -0.727911 0.574988 0.379686 0.450772 0.235118 0.15561 0.0638867 0.306644 0.280551 0.292308 0.0263872 -0.0673903 -0.570695 0.027336 -0.236636 0.267749 -0.0646475 -0.41162 0.121554 -0.27315 -0.151157 0.07856 0.0917494 0.209591 -0.0944238 -0.186906 
-0.521448 -0.645781 -0.0859931 0.387334 0.0675945 0.0182713 0.441698 0.0465569 -0.00761273 -0.192667 0.378375 -0.52056 0.211283 -0.234423 -0.178721 0.208662 0.102977 0.155919 0.186759 0.142039 -0.354325 -0.37414 -0.159096 0.15997 -0.160799 -0.0509332 -0.343349 -0.340959 -0.2731 0.0845585 -0.160573 0.615768 -0.0922099 0.514351 0.0930345 -0.355881 -0.611376 0.647299 -0.115623 0.527816 0.140222 0.323431 -0.191456 0.323557 0.0689333 -0.347421 0.104456 0.475294 0.214521 -0.245792 -0.119352 0.0941032 0.0815111 0.135051 -0.0267431 0.190235 -0.26615 0.359625 -0.308352 -0.19147 
-0.484248 -0.257265 0.885047 0.31217 -0.22671 -0.352483 0.46342 0.259288 0.33468 0.232656 0.31493 0.144983 -0.860544 -0.118882 0.376502 0.122855 0.673603 -0.0446401 -0.197453 -0.132092 0.745479 0.468265 0.0313539 -0.199449 -0.747597 0.0686969 -0.984417 -0.37283 0.737066 -0.224002 0.0739861 -0.0364566 -0.187761 0.237325 0.220552 -0.0107179 0.55729 -0.403675 0.616174 -0.0108144 0.0372949 -0.0945764 0.030283 0.345332 -0.0848136 -0.156507 0.707962 -0.100718 -0.11485 -0.0357247 0.0901072 0.0263073 0.37261 -0.214155 -0.46909 0.121889 0.0275594 0.355197 0.112835 -0.30303 
-0.455679 0.0271377 -0.31097 -0.548048 0.527784 0.192809 -0.109855 -0.00567243 -0.108405 -0.54322 0.0443675 -0.56822 -0.270573 0.608835 0.359428 0.45518 0.131449 0.425058 0.290289 -0.21452 -0.18952 -0.0412945 -0.255622 0.502881 0.114012 -0.236563 -0.472332 -0.227919 0.801869 0.0215432 0.0749512 -0.0173472 -0.184594 0.0930589 -0.11223 -0.317628 0.0859295 -0.583702 0.424462 -0.382595 -0.120222 0.10314 -0.23659 0.149738 -0.0872538 0.420675 -0.0199462 0.19727 -0.771799 0.17822 0.109292 0.0752537 0.377035 0.357104 -0.797358 0.0338149 0.51285 -0.595814 -0.555927 -0.0110202 
-0.00188912 -0.059822 0.142661 0.110169 0.446699 0.258099 0.804281 -0.360648 0.00917208 0.175409 -0.0183797 0.191485 0.311747 -0.397573 0.164318 0.017901 0.296723 0.0700846 -0.149026 -0.339748 -0.473718 0.0206928 0.476798 -0.275024 -0.231607 0.0312055 0.0513847 -0.291228 0.526052 0.0725269 0.330729 -0.163581 0.133495 -0.506979 -0.214274 -0.619137 -0.265882 -0.219493 0.311686 -0.0472278 0.414902 0.326862 -0.296857 0.156863 0.219242 -0.187075 -0.233067 0.296854 0.178321 0.552749 0.338489 0.140948 -0.347487 -0.46938 -0.334799 0.169684 -0.183091 0.27557 0.590287 -0.357421 
-0.0957399 0.29297 -0.58367 0.197889 0.39785 -0.170408 -0.337971 -0.123773 -0.683426 -0.593331 -0.239513 0.000891741 -0.0333733 0.31349 0.121381 -0.26705 -0.234716 -0.177017 -0.752448 0.599178 -0.282561 0.0274114 -0.767315 0.0923558 0.119821 0.19891 0.0121233 0.00219957 -0.0738948 1.11087 -0.235354 0.0532902 0.302498 -0.600677 0.109976 -0.0327581 -0.11632 -0.100966 0.41528 0.209118 -0.109738 -0.141632 -0.38493 0.500733 0.2146 -0.0808941 -0.304575 0.231572 -0.0684317 -0.225006 -0.371841 -0.22385 -0.45159 0.0314399 -0.281268 0.081813 0.530978 -0.152479 0.238235 -0.206715 
-0.304451 0.494572 -0.423301 -0.218041 0.36097 0.647909 -0.169503 0.191007 -0.0866512 -0.242562 -0.0791943 0.686755 -0.006597 0.227353 0.253135 -0.445153 -0.0488636 -0.357167 0.174156 0.381844 0.26577 -0.0715819 0.293654 0.184645 -0.725409 0.00221057 -0.49566 0.126663 0.203612 0.254737 0.205804 -0.0599349 0.451785 -0.0101634 0.541378 -0.107957 -0.010645 0.0895249 -0.36317 0.145056 0.238209 0.090864 -0.0921789 0.0995778 -0.805715 0.392262 -0.021328 0.276066 0.336177 0.253216 0.635619 -0.104253 -0.0641101 0.639761 0.625417 0.0941631 0.0393652 -0.0450606 -0.0241596 0.125875 
0.661904 0.0852809 -0.162046 -0.226158 0.255455 -0.453581 0.397637 -0.520677 -0.389154 -0.00934573 0.0418087 0.0854187 0.251036 0.317808 0.217478 -0.136278 -0.173076 0.600838 0.30561 -0.0426314 -0.741312 -0.271014 -0.260477 0.56341 0.319385 0.517414 0.0994995 -0.074377 0.563524 -0.319454 -0.504731 0.194267 0.385293 -0.359183 -0.0845091 0.437594 -0.536305 -0.296334 0.211335 0.359358 -0.120015 0.140062 -0.222308 0.270417 0.0296331 -0.110717 -0.18398 0.294461 -0.0732894 -0.610018 0.157875 0.0280804 -0.230125 -0.284964 0.777179 -0.345146 0.0743536 0.235767 0.288956 0.399052 
-0.0980491 0.0911992 0.831342 0.438151 -0.399516 -0.309423 0.0540584 0.0918498 -0.159853 0.795224 0.13081 0.233623 -0.394283 -0.172059 0.399174 0.0490027 0.0801684 -0.0823718 -0.107996 0.686377 -0.155643 -0.536686 0.487618 -0.121699 0.564091 0.109786 0.163058 0.16187 -0.152315 0.0807716 -0.521427 -1.01635 -0.0752378 -0.429933 -0.0913317 -0.558699 0.11331 -0.200284 -0.600305 -0.257718 0.0147646 0.147662 0.0786247 -0.144298 -0.758234 0.185295 0.441522 -0.295126 0.00451321 -0.117275 0.449417 -0.463861 -0.67302 0.287028 0.16382 0.371332 0.694056 -0.515688 0.23727 0.0270441 
0.0963687 0.42721 -0.0599505 -0.505946 -0.0686947 0.132306 -0.248207 -0.319992 0.463907 -0.027763 0.671407 0.0200476 -0.390968 0.161758 -0.0596219 -0.565874 -0.219063 0.213056 0.50413 0.0421717 -0.00071978 -0.123823 -0.360945 -0.138975 -0.605765 -0.125084 0.2205 -0.432946 0.12814 -0.216385 -0.241166 -0.339078 0.431572 0.5697 0.939764 -0.544709 0.326364 -0.055079 0.673393 0.0857934 0.223676 0.0146501 -0.174686 -0.165309 -0.0636603 0.173077 -0.124903 -0.464868 -0.34376 0.399626 0.134413 0.107748 -0.310055 0.350716 0.539287 -0.230682 0.196839 -0.64728 -0.104762 -0.662398 
0.0765009 0.0248169 0.382282 0.009788 -0.226383 -0.53457 0.625572 0.0163381 -0.67268 -0.656546 -0.534713 0.248261 -0.0268787 -0.370365 -0.0930963 0.266867 0.769308 -0.254143 -0.0617107 -0.419918 -0.323389 -0.568355 0.200279 0.0547666 0.652545 -0.486285 0.00197731 -0.388501 -0.164936 -0.0541689 -0.0608255 -0.282379 -0.0601122 -0.726339 0.346836 0.257842 0.0457491 0.166534 -0.323123 0.152196 0.195466 -0.152882 0.122494 0.188016 -0.136251 -0.361924 0.748781 -0.0729056 0.0167597 -0.192379 -0.151919 -0.196632 0.532258 -0.0660272 -0.231891 0.122274 -0.0486121 0.390663 -0.0706249 0.165752 
0.15108 -0.549768 0.268529 0.255805 0.0307396 -0.294359 0.101108 -0.414039 -0.57794 0.165433 -0.135486 0.516555 0.317049 0.439716 -0.231192 0.0385341 0.547899 -0.586581 0.513821 0.441117 0.181178 -0.147821 0.28475 -0.237978 0.0722955 -0.215183 0.17162 -0.0919316 -0.0871089 0.425711 -0.235171 0.2874 0.072607 0.0540763 0.178282 0.128823 -0.348314 -0.393223 0.0577679 -0.133486 -0.0552367 -0.0479002 0.149677 -0.206548 0.0729627 -0.34244 0.0490214 -0.300885 -0.0148937 -0.198556 -0.038684 -0.0482693 -0.0717042 0.497875 -0.391984 0.146388 -0.0267153 -0.208401 0.200964 0.220538 
-0.62994 -0.525991 0.175527 0.439119 0.0879127 0.431509 -0.173371 0.375403 0.690288 -0.0194405 0.282406 0.0988233 0.0920687 -0.185111 0.455066 -0.245655 -0.158547 -0.572966 0.657198 -0.163105 0.0558211 -0.507761 0.0833237 0.144963 -0.265692 -0.210063 -0.105788 0.331363 0.403169 -0.153538 0.10171 0.0701889 -0.122262 0.49859 -0.158612 0.540425 -0.0244015 -0.137183 0.389776 0.3237 0.00369608 0.0171517 0.602701 0.335935 0.359281 0.195242 0.287364 0.0353276 -0.155233 -0.0332489 -0.211131 -0.347427 -0.129807 0.180141 0.563631 0.450095 -0.0688589 -0.13861 0.389794 -0.314779 
-0.390283 0.358912 -0.646592 0.354018 0.00175536 -0.125551 0.0507892 0.714761 0.247398 0.266986 0.248529 -0.0698984 -0.151878 -0.387605 -0.0448068 0.0563251 0.401833 0.0279751 -0.654453 -0.00820432 -0.580103 0.0430129 -0.34833 0.111311 -0.564262 -0.306253 0.242921 -0.108524 -0.547546 0.424472 -0.0850763 0.695286 -0.142679 0.074 -0.563136 -0.156376 0.579285 -0.315855 0.158939 -0.111274 -0.313069 0.149382 0.227599 0.334959 -0.348443 0.164111 0.291536 -0.466848 -0.285002 0.356206 0.125924 0.215752 0.0865592 0.221326 0.352928 0.233922 0.0852239 0.48131 -0.421891 0.0862984 
-0.411123 0.390997 -0.383929 0.13271 -0.235188 -0.45837 0.0843052 0.0196217 -0.480579 -0.49271 0.168159 -0.995239 0.110653 -0.347133 -0.200404 0.797638 -0.102657 -0.144749 -0.0410036 0.0718723 0.254331 0.515884 -0.410947 0.00499313 0.721727 0.357892 -0.187582 -0.524886 -0.221054 -0.154238 -0.165617 -0.306888 -0.816265 -0.15912 -0.0762469 0.108475 -0.0240092 -0.299254 -0.479848 0.144407 0.413641 0.196735 0.203961 -0.208744 -0.16563 0.281083 0.202283 0.211306 -0.0202877 0.228987 -0.0829422 -0.42734 0.554534 -0.10381 0.135783 -0.694554 -0.381621 -0.201333 -0.0673537 0.280346 
0.095591 -0.0735753 -0.502291 0.139505 -0.219862 -0.595632 0.0536249 0.491 -0.379274 -0.584203 0.163096 0.107995 0.789694 0.193634 -0.546161 0.385504 -0.71964 0.175913 -0.0553848 0.752926 0.339751 0.334989 -0.562437 0.659854 -0.031856 -0.130338 -0.348999 0.495916 -0.218465 0.0893148 0.348399 0.0888816 0.305863 0.468573 0.538974 0.27425 0.300396 0.410248 -0.338224 0.113466 -0.714573 -0.492312 0.20617 -0.0172042 0.00614734 -0.0484768 -0.357636 -0.0640511 0.372464 -0.0162201 0.335353 -0.0661921 0.0114134 0.321553 -0.485587 -0.175825 0.0818804 -0.389528 -0.0144843 0.0590682 
0.134042 -0.243119 0.33969 -0.244889 -0.0502215 0.204931 0.269818 -0.160625 -0.158361 -0.420548 -0.112499 -0.588813 -0.368894 -0.376655 0.190705 -0.361188 0.318413 -0.38905 0.294626 -0.378278 0.251812 0.0892056 0.321343 0.0627684 0.637417 0.586516 -0.497684 -0.478354 -0.0399691 0.380022 -0.0495393 -0.275896 -0.181961 0.238281 0.466392 -0.0423187 0.219329 0.501987 -0.22156 -0.447238 -0.0965958 0.0414202 0.0121105 -0.545028 -0.426107 -0.13889 -0.0159173 0.352517 0.249498 0.209117 -0.445394 0.305062 0.285076 0.396702 -0.58605 0.152556 -0.524858 0.394573 -0.264987 -0.166812 
0.283145 0.181585 0.0486404 -0.276386 0.0506786 -0.0156257 0.124575 -0.192312 -0.0444016 -0.0416134 0.502752 0.240456 0.482771 0.117995 -0.105034 -0.0957026 -0.710558 0.307172 -0.303809 -0.043469 -0.416303 -0.312059 -0.131306 0.418027 -0.163936 -0.41548 -0.197368 0.394849 0.138808 0.269728 -0.366754 -0.393167 -0.476779 -0.736505 -0.0277531 -0.257491 0.165539 0.291768 0.694344 -0.12631 -0.217054 -0.0694425 -0.0449651 0.165306 0.010901 0.468935 -0.148882 -0.417797 0.396806 0.409798 0.447804 -0.0395066 -0.0125821 0.081153 0.288993 0.180844 0.485386 0.248521 -0.402718 -0.394844 
#
-0.155808 -0.0885688 0.0780525 0.446261 0.299773 0.154425 -0.0900284 0.0145488 -0.566624 0.520256 -0.0404885 0.261311 -0.285827 0.111107 0.137849 -0.0732768 -0.285195 0.288314 -0.510041 -0.178688 
0.386387 -0.139844 0.358038 0.00850944 -0.0782822 -0.577563 -0.376824 -0.155427 0.0900024 -0.268348 0.102112 0.175331 -0.0319612 0.253556 -0.0401339 0.139955 -0.739133 0.246 -0.366213 -0.483966 
-0.39467 0.0950723 0.0254239 0.168226 -0.583026 -0.583803 -0.20059 -0.306034 -0.315333 0.451694 -0.134944 -0.375584 0.375663 0.123086 0.182461 0.0364559 0.0673917 0.56604 0.147456 -0.253997 
-0.782768 0.193328 -0.275854 0.0452676 -0.476044 0.821608 -0.520221 -0.0912747 0.00286325 -0.269955 0.0577044 -0.510379 0.390947 -0.197771 -1.07701 -0.620867 -0.716573 0.276608 -0.560325 -0.0973171 
0.081984 0.141867 -0.351076 -0.433241 0.189735 -0.240839 -0.152751 -0.13086 0.0431534 0.214447 0.0367165 -0.237943 -0.012889 0.623437 -0.480428 -0.127987 0.446627 0.227758 0.293592 -0.407285 
0.040926 -0.94189 0.394479 0.333599 -0.47359 0.0654254 -0.0936573 -0.15092 0.203239 0.157703 0.101721 -0.0387095 -0.638583 -0.40093 -0.0706485 -0.251056 0.240696 0.0170836 0.67152 -0.372901 
-0.033792 -0.244558 0.0744166 0.0850377 -0.388557 -0.578491 -0.229758 -0.258532 -0.910989 0.0992458 0.145661 0.102003 -0.300683 0.366599 -0.468653 -0.193517 -0.500029 0.232306 -0.0371354 -0.100933 
0.317013 0.115356 -0.563507 0.701578 -0.2432 0.26842 -0.345293 0.282715 0.174629 -0.413574 0.277723 -0.281584 -0.0875571 -0.200831 0.315649 -0.158638 0.0617091 -0.288216 0.2094 -0.113764 
-0.24108 0.262716 0.203287 0.202777 -0.339294 -0.568814 -0.389339 -0.187623 0.287572 -0.136022 0.386731 -0.150319 -0.209165 0.151046 -0.0659441 0.0903595 -0.141881 -0.176221 -0.0832291 -0.299449 
0.217231 -0.365707 0.185322 -0.234432 -0.179196 -0.0427226 -0.834256 0.0912178 -0.426319 -0.209309 -0.044089 -0.0439971 -0.657361 -0.125714 -0.164822 -0.208815 0.63028 0.0482755 -0.122819 0.0410789 
-0.0749504 -0.0445411 0.392864 0.073867 0.292939 0.102102 0.339943 -0.902121 0.0557852 0.0639594 0.357367 -0.352155 -0.146811 -0.0724061 0.579666 -0.277207 -0.429117 0.548548 -0.265828 0.414782 
-0.0368864 -0.0642164 -0.177448 -0.324207 0.0398353 0.0717597 0.0618581 -0.0484024 -0.17821 0.105522 0.38635 0.489835 -0.100122 0.0873774 -0.660616 0.0608051 -0.281088 0.602231 0.0899501 0.691127 
-0.0158615 -0.280456 -0.149331 -0.188974 0.150964 0.263566 -0.39878 -0.360163 -0.673169 0.105185 -0.537797 0.0603544 0.228318 -0.367236 0.396299 -0.202689 -0.112769 0.377557 0.0281157 -0.17145 
-0.455068 0.117404 0.0467879 -0.17917 0.285164 0.0477273 0.308441 0.18132 -0.273906 0.0968028 0.420844 0.20205 0.177899 -0.0249657 0.123206 -0.231848 -0.333876 -0.25092 -0.210683 0.194591 
-0.282532 -0.158615 0.670576 -0.302697 -0.243725 -0.311272 0.128193 -0.304686 0.0882306 0.092153 -0.244565 -0.0535407 0.0551574 0.340368 0.19837 -0.119768 0.397413 -0.0496739 -0.0251555 0.471979 
0.446092 0.155554 -0.219731 0.617132 0.154204 0.442826 0.0702897 -0.165051 -0.131326 0.395522 -0.452449 -0.411014 -0.315683 -0.0985059 0.449185 0.108394 0.123937 0.19062 -0.550984 -0.164738 
0.0422294 0.238483 -0.273801 -0.0801623 -0.16599 -0.473777 -0.283328 -0.0526648 0.208306 0.090678 -0.0409249 -0.334461 0.508086 0.271429 0.97294 0.396274 -0.6099 0.395314 -0.566081 -0.020747 
-0.299668 0.0373783 0.384348 -0.0591899 0.147194 0.13777 -0.20942 0.276131 0.560459 0.173468 -0.136597 0.166137 -0.0790894 0.471477 -0.292906 -0.0129611 -0.432393 0.0208655 -0.172147 -0.0445444 
0.0432796 0.39891 0.0518166 0.174664 -0.133396 -0.30447 0.0598533 -0.316842 -0.611017 -0.739121 -0.154009 0.465203 0.0753189 0.108939 -0.0261651 -0.165988 0.184883 -0.234348 -0.37904 -0.497273 
0.151954 -0.10178 0.118457 0.155623 -0.0828792 0.419279 0.03228 0.585107 0.045861 0.232074 -0.374094 0.117957 0.0465942 -0.527205 0.465052 0.0309358 0.0890441 0.206295 -0.642082 0.421728 
0.0711416 0.130878 0.487675 -0.414167 -0.100069 0.285889 -0.322358 -0.0167379 -0.0370285 0.394137 -0.0950414 0.363773 0.643977 -0.495318 0.0778843 -0.330345 -0.235374 -0.0354049 -0.309434 0.596367 
0.0914744 -0.284344 -0.0479083 -0.183061 0.0754897 0.530793 0.0287635 0.514711 0.0866987 -0.0850527 0.289939 -0.270466 -0.256312 0.168224 -0.371264 -0.00401573 0.235359 -0.726443 0.0537832 -0.269863 
0.0758058 -0.0990138 0.223159 -0.0963882 -0.656977 0.554304 0.0714542 -0.125271 -0.551614 -0.0641581 -0.101282 -0.221875 -0.296096 0.0147731 0.0755008 -0.281121 -0.350674 0.464404 0.647492 0.611306 
0.464199 0.536879 -0.12491 -0.356389 -0.0809639 0.0744796 -0.209423 -0.182499 0.0116494 -0.0944131 0.773623 -0.204005 0.0650085 -0.390917 -0.366239 -0.0501596 0.430346 -0.450501 0.111755 -0.000729869 
0.64921 -0.152851 -0.124938 -0.00817545 -0.478048 0.321232 -0.285603 -0.0199222 0.15255 -0.262437 0.0940937 0.138491 0.360019 -0.127594 0.628207 0.240204 -0.222247 0.194073 0.0750035 -0.426378 
0.0916284 0.478722 -0.083295 -0.301322 -0.181238 0.286992 0.633755 -0.20647 -0.464675 -0.312561 -0.141007 -0.351632 0.786935 0.203623 -0.197099 0.131305 0.178186 -0.303141 0.034155 0.713642 
0.205309 -0.532044 -0.0171582 -0.457915 -0.234152 -0.042452 -0.276936 -0.62108 0.234772 0.156415 0.0484124 0.158053 -0.0523867 -0.441938 0.228817 0.146119 -0.143541 0.405181 -0.322882 0.189565 
-0.236047 0.331184 -0.270708 -0.762046 -0.133575 -0.195197 0.0350197 -0.381247 -0.0178435 -0.29201 -0.0135522 0.151849 0.148118 -0.0142807 0.0917142 -0.0988193 0.0209189 0.26474 -0.38025 0.720268 
0.386398 0.0226065 0.227089 -0.0521517 0.550676 -0.144042 -0.658981 0.480167 -0.485032 -0.14439 0.210375 0.56566 -0.393172 -0.259796 0.178858 0.816711 -0.725381 0.252573 -0.713245 0.18686 
-0.378457 0.254257 0.14359 -0.511356 -0.389599 0.197448 -0.148542 -0.257608 0.226446 -0.349134 0.312338 0.0285646 0.498154 0.400348 -0.388121 -0.177968 0.302081 0.494424 -0.276905 0.0943762 
-0.257668 -0.137113 -0.323387 0.95175 0.371059 -0.324317 0.652873 -0.111855 0.347883 0.218182 0.308887 -0.178028 -0.0219785 -0.0597026 -0.39581 -0.0954365 -0.506239 -0.072851 0.315325 0.618867 
-0.152587 -0.0282747 -0.192428 0.483581 0.0018449 -0.123041 0.224899 -0.18593 0.41954 0.0188705 -0.127651 0.217502 0.0077379 -0.104269 0.824405 0.134808 0.511629 0.0258853 -0.461152 -0.127991 
-0.348234 -0.0618109 -0.0167953 0.535755 -0.235953 0.36529 -0.283301 -0.545254 0.04913 -0.296744 0.129611 -0.259321 -0.103188 0.309608 0.204782 0.324421 0.228807 0.358675 -0.0893813 0.58003 
-0.255921 0.0360633 0.202756 -0.388248 -0.232765 0.139595 0.547495 -0.343333 0.485314 0.877966 -0.665111 -0.424133 -0.0431483 -0.297238 0.200818 0.199577 -0.114136 0.411188 -0.671546 -0.290393 
-0.422482 -0.444883 0.242255 -0.163627 0.112382 0.178187 0.260842 0.149862 -0.0771741 0.0535282 0.431128 0.185572 -0.615695 -0.54887 0.0853307 0.0849706 -0.0280201 -0.165821 -0.427426 0.34214 
0.16509 -0.019351 0.332118 0.597334 0.10487 0.196016 0.271334 -0.180161 0.361835 -0.364131 -0.173549 -0.527786 -0.0166795 0.118821 -0.257096 0.0821784 -0.300077 0.162077 -0.43676 -0.869282 
0.276122 0.479206 -0.803312 -0.143574 -0.50141 0.531665 -0.180122 0.524328 0.0742768 -0.057585 -0.882093 0.276742 0.0569421 0.130407 0.173111 0.107696 -0.481318 0.717298 -0.220945 -0.641876 
0.275315 -0.0897147 -0.372623 -0.346754 0.4552 0.665135 -0.0278721 -0.820425 -0.270808 -0.356475 -0.399113 -0.110849 -0.211344 -0.291843 -0.287192 -0.204538 -0.226211 0.50131 -0.33634 -0.606268 
-0.110306 -0.18262 -0.209786 0.0856181 -0.168367 -0.144994 -0.289823 0.725683 -0.582677 -0.205258 -0.060749 0.469559 -0.521579 0.023349 0.359546 -0.129508 0.131749 -0.0308126 -0.00493685 -0.163608 
0.34326 0.147848 0.267847 0.350836 -0.407362 -0.0798307 -0.700202 -0.330372 -0.318632 0.218798 0.246415 -0.32793 -0.181215 0.127725 -0.515156 -0.880497 0.17316 -0.131663 0.00441405 -0.13024 
-0.0725415 -0.221395 -0.374097 0.111646 -0.371005 -0.519441 0.148232 0.344036 0.00371115 -0.653439 -0.210232 0.312344 0.316031 0.0441025 -0.103343 0.407007 0.0523616 0.313009 -0.206541 -0.232099 
0.355676 -0.327037 0.222424 0.33913 0.14975 -0.790132 -0.422311 0.501746 -0.424674 0.268154 0.0757701 -0.890498 -0.393712 -0.595952 -0.176021 0.307232 -0.335088 -0.238759 -0.232058 -0.641663 
-0.178842 0.676468 0.0415768 -0.465708 -0.0276097 0.0374467 -0.12026 0.110151 -0.0329266 0.736804 -0.136429 0.621485 0.554279 0.187363 -0.293313 0.252937 -0.700877 0.121349 -0.261685 -0.502327 
0.0323298 -0.416751 0.244048 -0.0253818 0.438084 -0.134797 0.676257 -0.240976 -0.00126607 -0.413551 1.01317 -0.3163 -0.382942 0.3073 0.231746 -0.248609 0.193195 -0.0531974 -0.234947 0.849891 
0.493582 -0.235477 0.199061 0.788286 -0.222152 0.0397582 0.172542 -0.0659872 -0.262312 -0.0659207 -0.624511 0.205223 0.147447 -0.1748 0.158055 -0.380755 -0.380014 -0.048384 -0.128136 0.387366 
0.0401262 -0.525076 0.123701 -0.25497 -0.393127 -0.507874 0.313901 0.754618 0.873022 -0.345112 0.0431769 0.610517 -0.180418 0.272604 -0.479078 0.220234 -0.383172 0.0367028 0.113398 -0.130849 
-0.197208 -0.10558 -0.727232 -0.413649 0.103931 -0.12136 0.417887 -0.455377 -0.0293238 0.257208 0.390775 -0.273303 0.0483261 0.498121 -0.494501 0.281771 0.191564 -0.00165814 -0.584924 0.191706 
-0.391527 -0.264513 0.866995 0.265194 -0.0500831 0.417281 -0.160957 0.219642 0.095221 -0.272255 -0.21536 0.0270888 0.0517462 -0.120777 0.146973 -0.0412563 0.277959 0.172993 -0.248232 -0.23445 
-0.384881 -0.189037 0.0145168 0.421615 -0.139786 0.108016 -0.340048 -0.324974 0.631765 -0.626781 -0.228676 0.284096 -0.701575 0.404295 0.146537 0.57169 -0.208257 0.116201 -0.668878 -0.257388 
0.0114634 -0.0619083 -0.0855848 -0.0372968 0.518933 -0.263652 -0.156379 -0.00547191 -0.179833 0.0551667 0.0440785 -0.042024 0.299618 0.165867 -0.385808 -0.0161063 0.063929 -0.131105 -0.331521 -0.256881 
-0.059346 0.250147 0.33829 -0.174561 -0.132968 -0.0175242 -0.115033 -0.509408 -0.35529 0.17482 -0.413236 0.79272 -0.188118 0.70239 -0.338593 -0.361019 -0.196029 0.38616 0.622652 0.199204 
-0.673378 -0.0582343 0.311873 0.0529734 -0.0407761 -0.385771 -0.0309107 0.0526163 -0.142672 0.0528221 -0.523576 -0.0263948 -0.359537 -0.0132977 0.0746455 0.656295 -0.219818 0.192296 -0.274359 0.177035 
-0.0820065 -0.299248 -0.285559 -0.532611 0.652421 0.155302 0.313967 -0.198412 0.149306 0.43413 -0.071602 -0.394668 -0.129801 -0.292258 0.291788 -0.0831166 0.0478761 0.23294 -0.319781 0.35964 
0.389174 -0.347078 0.455817 0.446372 0.605794 0.185991 0.27504 0.345588 0.14353 -0.11732 0.663651 -0.228809 0.347152 -0.231612 -0.124718 0.155747 0.0996382 -0.52031 0.44557 0.322631 
-0.326455 0.399959 0.110139 0.0489472 0.400971 0.450789 -0.0719348 0.526247 -0.460459 -0.244035 -1.25113 -0.012411 0.507853 -0.442245 -0.104057 0.00168099 0.024954 -0.214612 0.539818 -0.0327904 
-0.17339 -0.432809 -0.0986878 -0.367034 -0.322821 -0.212232 -0.00670148 0.110873 0.088506 -0.000238871 -0.446576 -0.481301 0.142882 0.568716 -0.0720545 -0.13008 0.329859 0.599479 0.0355612 -0.126674 
-0.59343 -0.00604234 -0.00419688 -0.00897115 0.412532 0.783096 -0.224988 -0.179969 0.377929 0.532328 -0.665051 0.297747 -0.0614531 0.503329 -0.180932 0.0881639 0.351127 -0.303162 0.474797 -0.0373776 
0.108205 -0.116148 0.0304675 -0.120074 0.111897 0.472952 0.029954 -0.477015 -0.108483 0.102656 -0.111937 0.320509 -0.30838 0.159253 0.0569724 -0.0536765 0.0499791 -0.522692 -0.372898 -0.0101444 
0.020904 -0.0960223 0.556994 -0.554645 0.0231431 0.0439746 -0.234718 -0.584971 0.0188888 -0.515728 0.63702 -0.0365498 -0.147191 -0.0592515 -0.300599 0.33895 -0.287298 -0.529213 -0.0947931 0.110228 
0.303802 -0.264997 0.217368 -0.426137 0.502003 -0.13561 0.477081 -0.135452 -0.444773 -0.15442 -0.281232 0.426954 -0.313709 -0.265197 0.0868889 -0.0708837 0.0384675 0.32392 -0.10292 -0.0821636 
#
0.115398 
0.0354622 
-0.620517 
-0.147967 
-0.120937 
0.235387 
-0.732148 
-0.166513 
-0.0781067 
-0.368394 
-0.162573 
-0.132393 
0.364949 
-0.0382298 
0.546938 
0.132297 
-0.284189 
-0.000933191 
0.0103952 
-0.367063 
#
