-0.444197 -0.120412 0.578036 -0.42178 0.121144 0.189409 -0.324887 -0.265376 0.242724 0.016729 0.459168 0.123663 0.414895 0.365779 0.195838 0.319039 -0.380561 0.415943 -0.306949 -0.519438 -0.304359 -0.142343 -0.355237 -0.268222 -0.701677 -0.0549637 0.0259491 -0.2154 -0.173069 0.295145 -0.167798 -0.430696 0.403903 0.342266 -0.132057 0.184649 0.348548 0.183111 0.031622 0.387055 -0.133484 -0.333918 -0.447721 -0.186911 0.509244 0.148291 -0.118523 0.202296 -0.118891 -0.401915 -0.16421 0.244761 0.406618 -0.462806 -0.320352 0.800107 0.0669701 -0.112381 0.504474 -0.751702 
0.271774 0.0774498 0.333362 -0.656673 0.278147 0.362139 -0.26269 0.326103 0.199019 -0.0701749 0.225174 -0.357609 -0.117044 -0.358455 0.486354 0.107963 0.117097 -0.0469893 0.2859 0.14127 0.0733162 0.500152 0.118612 0.352597 0.309049 0.0234668 -0.0323263 -0.747201 0.166917 -0.0327605 0.526897 0.341931 -0.403579 0.231006 0.444491 -0.248924 0.0194812 -0.75739 0.405114 0.104082 -0.230348 -0.39585 0.0603994 0.648323 0.133878 0.208027 -0.202171 0.181359 0.508876 0.140115 -0.505529 -0.308422 -0.469484 0.16393 -0.189266 0.344512 -0.423562 -0.11689 -0.102816 -0.00723115 
0.378031 0.0110821 0.34656 0.156531 -0.513027 0.169665 0.367395 -0.152261 0.447591 0.220032 -0.271918 0.0130446 -0.425804 0.308315 0.688344 0.135951 -0.586281 -0.297036 -0.602019 -0.410886 -0.122679 -0.080724 0.325099 0.308439 0.678133 -0.195941 -0.356406 0.0705157 -0.0431977 -0.692194 -0.101908 -0.00804372 0.657433 -0.0993515 0.27774 0.369854 0.238995 0.36722 0.126438 -0.0652747 -0.296624 0.291128 0.727823 0.536495 0.205885 -0.329268 -0.0236147 -0.504261 -0.0390484 -0.447056 1.04409 -0.841738 -0.0724635 -0.142823 -0.432026 0.165047 -0.300757 -0.272353 0.162752 0.378684 
-0.10701 -0.27453 -0.69752 0.121051 -0.361461 -0.31479 -0.101917 0.404615 0.728231 0.00880929 0.181636 -0.223275 -0.175063 -0.428027 0.496831 0.0515652 -0.475987 0.415285 0.0897208 0.354121 -0.126555 -0.0489269 0.343526 -0.435287 -0.414335 -0.0980494 -0.333968 -0.438595 0.245576 0.181351 -0.489717 -0.038112 -0.0929633 0.143323 -0.112348 0.0793576 -0.198599 0.210074 -0.126357 -0.33542 0.653482 -0.513459 0.206144 0.327714 -0.109635 0.313616 -0.599751 -0.00266533 -0.615505 -0.276283 -0.111198 -0.664398 0.190048 0.538167 -0.0123558 -0.550314 -0.185796 0.252064 -0.363167 0.168299 
0.598764 0.00171211 0.215683 -0.452441 -0.322361 -0.311514 -0.102889 -0.442853 -0.47665 -0.476614 -0.0525084 -0.651118 -0.0259185 -0.271441 0.131915 -0.810198 0.343717 0.319193 0.110081 0.201435 0.144091 0.218145 -0.11737 -0.209115 0.0802496 0.138802 0.0903195 -0.63378 -0.250242 -0.0504269 -0.174493 -0.324999 -0.0314666 0.117169 -0.329896 0.171559 0.00756975 0.3456 -0.501364 -0.0631256 0.031161 0.82718 0.34608 0.221458 0.1472 0.690503 0.00528673 -0.925473 0.397489 -0.259985 0.695857 0.260697 0.204036 0.343275 0.0713719 0.61852 -0.637457 0.247752 -0.0650179 -0.410452 
0.266293 -0.541383 -0.0963304 0.16404 0.0290079 0.38517 0.138214 -0.0374711 0.342333 -0.262469 0.434479 0.0372838 0.531067 0.130626 0.0888567 -0.286972 -0.32856 -1.08738 -0.409376 0.182737 -0.470402 0.142836 0.0787113 0.0339926 -0.0698372 0.370663 0.0577903 0.347339 -0.170985 -0.280556 0.341669 -0.00250824 -0.0437429 0.138491 -0.200793 0.379769 0.43855 -0.419296 -0.0801036 0.0960978 -0.490925 0.324317 -0.0269312 -1.02286 0.165836 -0.503218 0.153638 -0.375139 -0.25875 0.72149 0.0136583 0.615004 -0.0561037 0.356696 0.538957 -0.182152 -0.0671135 0.204221 -0.213214 -0.154734 
-0.248784 0.0921483 0.485851 -0.0710153 -0.831796 0.0818712 0.0441709 0.578382 -0.603686 -0.277982 0.335416 0.0445991 -0.285411 -0.423448 -0.407087 0.259924 -0.270084 -0.217396 -0.515161 0.397446 -0.219415 -0.344375 -0.277751 0.77832 0.26905 -0.288734 0.0956086 0.00952167 0.422534 0.0719817 0.454662 0.36159 -0.674231 0.212081 -0.484912 -0.218638 -0.0244242 -0.850209 -0.349924 0.149352 0.244784 -0.542594 0.311464 0.488006 -0.272477 0.692182 -0.108493 0.0927575 -0.173162 -0.31857 0.246833 0.148147 0.0440234 0.601322 -0.425833 0.198915 -0.587056 -0.155701 0.316956 -0.115958 
0.117939 -0.17365 0.253155 0.248453 0.23697 -0.501375 -0.163264 0.21143 -0.351735 0.448686 0.395639 0.153205 -0.0627349 -0.537219 0.414905 0.43312 -0.0945696 -0.112367 0.11302 -0.0309951 0.139069 -0.205524 -0.0963745 0.39254 -0.138057 0.250532 -0.102062 0.72245 -0.177424 0.0461232 -0.331865 0.312987 0.163207 0.0690131 -0.152429 0.173597 0.246217 -0.333703 -0.396975 0.74975 0.0676359 -0.240085 0.324758 -0.280525 0.310522 -0.513901 0.32319 0.26783 -0.714259 -0.485132 0.324509 -0.0389317 0.174434 0.233966 -0.388227 -0.382431 -0.115091 0.213218 0.288559 -0.371202 
-0.190254 -0.33638 -0.370322 -0.353034 0.216648 -0.442286 -0.284235 -0.43533 0.0707136 0.432297 0.0907288 0.413442 0.248336 0.420795 -0.0598598 0.0915473 0.282667 -0.22829 -0.387087 0.170106 0.412049 -0.136919 0.459611 -0.202894 -0.597362 -0.144748 0.388147 -0.9549 -0.336898 0.492941 -0.362927 -0.928376 0.259749 0.449941 -0.892317 0.129077 -0.0236329 -0.398777 -0.24137 -0.0917211 -0.403515 0.249367 0.925564 0.0314164 -0.289932 -0.060444 0.597626 0.280949 -0.0833446 0.145247 0.259529 -0.349471 0.0329529 -0.677443 0.383115 0.315151 0.147465 -0.176456 0.212634 -0.296291 
-0.332992 0.429291 -0.055559 -0.231387 -0.0446535 -0.289982 0.00314263 -0.150889 0.0278162 -0.0765201 0.596623 0.0350813 -0.0898228 0.206641 -0.409153 0.226127 -0.119934 -0.0782097 -0.475803 -0.259659 -0.0282907 0.494339 -0.325393 0.102114 0.221167 -0.192586 -0.566352 0.309689 0.0148725 -0.365776 0.350604 -0.232614 0.0681448 -0.370512 -0.119072 0.609866 0.135349 -0.296627 0.348985 0.141101 -0.109852 -0.460697 -0.416057 0.156084 0.110403 0.362018 -0.335002 0.00836078 -0.184999 0.235562 -0.135288 0.2604 -0.302575 -0.437075 -0.485141 -0.251099 -0.333147 -0.24299 0.538417 -0.549067 
-0.383677 0.0460266 -0.164724 -0.238353 0.450104 0.124735 0.560265 0.122958 0.36138 0.0393058 0.353398 0.389664 0.0396872 0.227511 -0.00458104 -0.387009 -0.0355224 -0.0172027 -0.364351 -0.233655 0.28071 -0.00337804 -0.0562741 -0.21659 -0.102279 -0.0652676 0.289062 0.301086 -0.121821 -0.438826 -0.0497686 0.217929 -0.0322383 -0.0260644 -0.162214 -0.390836 -0.0822734 -0.429529 0.239582 0.452064 0.27397 0.20893 -0.119871 0.436362 0.49026 0.026718 -0.148866 -0.534092 -0.0822226 -0.26038 0.419621 0.688676 -0.300832 -0.537665 0.581413 0.363547 -0.311316 0.0589941 -0.0492125 0.0763911 
0.368014 -0.449198 0.0547206 -0.295832 -0.462628 0.301847 0.363906 0.207993 -0.18239 0.185393 -0.514217 -0.0280511 -0.166783 0.0676071 0.0865371 -0.545113 -0.180237 -0.162899 -0.294457 0.205742 0.236327 0.949679 -0.267143 -0.241908 0.042308 0.24161 0.627001 0.0345803 -0.273906 0.477894 -0.0771832 0.000461053 -0.0737715 -0.206764 0.0755629 -0.0788372 -0.0184965 -0.319228 0.443606 0.257183 0.186759 0.234126 0.338244 -0.0613875 -0.175595 0.451889 -0.0566179 -0.421309 -0.0537953 0.336229 -0.708103 -0.0655828 0.511285 -0.0156402 0.658302 0.257162 -0.330804 0.230885 0.0220748 -0.387188 
0.0983197 0.608926 0.0482524 -0.00852237 -0.335614 0.595948 0.358039 -0.251652 0.407546 -0.123424 0.764006 -0.230819 -0.348654 0.106643 0.279314 -0.584721 0.403259 0.0620994 0.414375 0.0288609 -0.146561 0.888664 -0.583209 -0.445479 -0.153531 -0.0828217 -0.08203 0.277465 0.20949 0.691956 0.0420239 -0.354427 -0.415396 0.263772 0.0868163 0.202429 -0.249267 -0.0558156 0.0853146 -0.499855 -0.0159527 -0.316031 -0.120038 -0.339892 0.0988098 0.42152 0.488885 0.0032687 -0.4781 -0.00222752 -0.427897 -0.160113 -0.0103408 0.144642 -0.925734 -0.2051 -0.0447181 0.323478 0.194953 0.373629 
-0.129325 -0.375015 -0.262072 0.165366 0.371069 0.136194 -0.856819 -0.214755 0.0214144 -0.383964 0.544255 -0.0204314 0.20462 -0.48407 -0.0265607 -0.314118 -0.254014 -0.146734 -0.41086 -0.0326894 0.304841 0.444119 -0.382878 -0.147604 0.88074 0.40983 0.0599203 0.596743 1.25277 -0.386506 -0.127144 0.449503 -0.381374 -0.265453 0.432211 -0.26923 -0.45659 0.0723085 -0.335349 -0.183943 -0.445963 0.154029 -0.110005 -0.120818 0.561565 0.213747 0.56787 0.184891 0.0848639 0.557449 -0.297852 -0.157208 0.175776 -0.586471 -0.378877 0.140305 0.121597 -0.347822 0.0365487 -0.485696 
0.610193 -0.14655 0.161918 0.0164929 -0.389104 0.190525 0.136341 -0.135046 -0.547735 0.026832 0.0876117 0.484515 0.0765975 -0.350052 0.15478 -0.199027 0.426631 -0.237512 0.0339751 0.0711851 -0.591514 0.503676 -0.0454638 -0.13083 -0.1519 0.252236 -0.0473655 -0.331991 -0.469904 -0.00744795 0.129393 0.116301 0.340189 0.378239 -0.275474 -0.36729 -0.167162 -0.241418 0.0567332 -0.157276 0.086304 -0.305886 -0.320529 -0.104615 0.116383 0.270846 0.180423 -0.246502 -0.715801 0.185273 -0.262979 -0.158762 -0.0550111 0.259338 -0.120628 0.201468 -0.0571456 -0.193626 -0.00664607 -0.446224 
0.515663 0.12687 -0.459394 -0.271476 0.334398 0.581385 0.227805 0.0601867 0.271755 0.626997 0.265538 0.288036 -0.337985 0.00608932 -0.0901766 -0.288083 0.851803 0.263933 -0.381926 0.0547401 0.0210817 -0.0437417 0.152707 -0.127936 0.182787 0.474752 -0.50396 -0.0751083 0.18348 -0.20139 -0.362154 0.616955 -0.164967 0.00327222 -0.247317 -0.482524 -0.0480509 -0.647893 -0.236346 -0.0911081 -0.00303673 -0.242753 -0.0742465 -0.34303 0.196318 0.456277 -0.049194 0.446889 -0.380684 0.349321 -0.0559625 -0.171632 -0.268172 0.351342 -0.280929 -0.096162 -0.325201 0.337879 0.0568657 0.525253 
-0.119223 -0.131982 -0.279008 -0.16097 -0.283066 -0.0310259 -0.128249 0.234056 0.386246 -0.42512 -0.289966 -0.255261 -0.421827 -0.212121 -0.0588434 0.183589 0.146168 0.473411 0.010802 -0.313576 0.621717 -0.349519 0.222422 0.042559 0.447104 -0.0478957 -0.102576 0.757595 -0.407094 0.242005 0.0281363 -0.368494 -0.159298 -0.00251858 0.11905 0.369802 0.096438 0.0323271 -0.229599 -0.395008 -0.592932 0.082627 -0.23412 0.258704 -0.425658 0.26206 -0.372773 -0.23531 -0.264672 -0.0209383 -0.897278 0.669169 0.0440911 -0.0183238 -0.816293 0.363533 0.352393 -0.502223 0.354264 0.457964 
-0.539499 0.406552 -0.0649073 0.0660493 -0.0821941 -0.161606 0.401865 0.0795239 -0.210951 0.00328516 0.575045 0.325391 0.14042 0.285434 -0.134701 0.0908329 -0.297935 -0.0686246 -0.210642 0.436551 0.369979 0.529201 -0.847547 0.086091 -0.136845 0.361995 -0.226715 -0.105047 0.0179561 0.559546 -0.446788 -0.162617 -0.0831105 -0.0628675 -0.239697 0.0662635 0.265774 -0.265211 -0.0622038 0.282857 -0.234468 0.394469 -0.565481 -0.0789296 0.378348 0.258416 -0.291795 0.336939 0.196914 0.139817 0.170223 -0.526633 -0.273949 0.305812 -0.572186 0.179782 -0.468778 0.266323 -0.350305 0.168067 
0.130617 0.517662 0.304726 -0.115887 -0.363147 0.168764 0.402053 -0.411778 -0.23037 -0.370277 -0.774971 0.36433 -0.392917 -0.596495 0.0551504 -0.375062 -0.929966 -0.16857 0.405528 -0.678505 -0.0388936 -0.031626 -0.672475 0.371309 0.603484 -0.165146 -0.441979 -0.516394 -0.150606 -0.39258 0.00266892 -0.229931 -0.193094 0.470361 -0.115649 -0.0796923 -0.228439 -0.171864 -0.67024 0.121097 0.00669022 0.0822811 -0.313412 -0.035601 0.0661726 0.311997 0.0708808 0.106964 0.352013 0.227881 0.130038 0.178915 -0.0102688 -0.861763 -0.530202 0.478979 -0.399747 -0.414409 -0.161846 0.223882 
-0.21629 -0.672446 0.270049 0.37732 0.663006 -0.467273 0.590071 -0.281493 -0.696336 0.14578 0.0350067 0.392292 0.700801 -0.557311 0.000622276 0.195904 -0.106092 -0.303309 -0.143559 0.733389 -0.29378 0.223519 -0.184975 0.471351 0.0815008 -0.179048 0.240651 0.359644 -0.231719 -0.407042 -0.139621 1.05871 -0.126942 0.213813 0.881611 -0.435205 -0.199674 0.0229682 -0.193842 0.458276 0.564862 -0.326742 -0.735935 -0.144053 -0.578394 0.788887 0.313664 0.574039 0.379098 -0.395428 -0.655559 0.149305 0.0644604 0.313254 -0.265657 0.253354 -0.0784012 0.138438 -0.254428 0.143285 
-0.23088 -0.748507 -0.217743 0.297288 0.181328 0.249244 0.461658 -0.325637 -0.623865 0.311026 -0.800836 -0.160391 -0.277516 0.469199 0.405191 0.14108 0.357084 -0.41847 0.0391851 0.543581 0.371108 -0.185242 -0.183154 0.601553 0.574886 0.0759554 0.317296 0.0704262 0.137491 0.185285 -0.0491808 -0.816484 0.157156 -0.0298535 0.34507 -0.119385 0.0173573 0.360869 0.0357042 0.47603 -0.1193 -0.354547 -0.279231 -0.24155 0.253605 -0.588834 -0.32572 -0.378923 0.563305 -0.459168 0.107995 0.000549583 -0.0621718 -0.291624 -0.107095 -0.110545 -0.325171 0.372102 -0.0636037 0.00859595 
-0.0827941 0.326631 -0.0833824 0.157438 0.647254 0.109848 -0.0550156 -0.365823 -0.333407 -0.466911 0.743294 0.059726 0.172964 0.240243 0.333493 -0.0777946 0.863832 0.259532 -0.489271 0.390312 -0.323321 0.507964 -0.18108 0.71848 0.0169476 -0.191473 0.0579987 -0.0749446 -0.01208 -0.209523 -0.633135 -0.116465 0.178462 -0.353146 -0.331722 0.382886 -0.251016 -0.0289183 0.976011 -0.425542 -0.114314 -0.0957079 -0.232536 0.368183 0.150466 -0.544016 0.19556 0.192217 -0.0517441 -0.0769429 -0.441344 -0.203168 0.0980212 -0.183997 0.0810442 0.0292977 -0.171795 -0.426484 -0.205614 -0.344985 
-0.102347 0.569906 -0.203661 -0.195133 0.0365956 -0.71692 0.182307 -0.09711 0.0893155 0.594705 0.169814 0.132165 -0.266546 -0.299783 0.216379 -0.180007 0.187816 0.152653 0.413994 -0.00285745 0.276991 0.582935 0.0789274 0.249288 -0.0789608 0.170731 -0.161633 -0.423431 0.162083 -0.0879419 0.0138504 -0.193537 -0.427719 -0.0350212 0.299815 -0.0267096 0.0547401 0.25513 0.253436 -0.0105089 0.803766 0.229436 0.0230835 -0.102951 -0.496649 0.354716 0.937807 0.19251 -0.000182477 0.326837 0.210624 -0.01455 -0.0640464 -0.375981 -0.185864 -0.0110892 0.362472 -0.236281 -0.41281 -0.323339 
0.0237774 -0.0467224 -0.280607 -0.231137 0.0598141 -1.1032 0.133378 -0.324457 -0.786695 0.0798183 0.11991 -0.530385 0.425239 -0.408968 -0.403109 0.106389 0.214497 0.203668 0.350195 -0.178707 0.0897701 0.568362 0.264397 -0.463796 -0.59923 -1.01975 -0.6093 -0.34873 0.416263 -0.125623 -0.06792 0.462441 0.139343 0.066122 -0.467902 -0.120321 0.0456051 0.507137 0.501803 0.0761866 -0.172749 0.0436015 0.768223 0.461327 1.29562 -0.154654 -0.440018 0.688458 -0.776692 0.592118 -0.147386 -0.00254636 -0.0179404 0.47083 0.0458233 0.07511 -0.0765471 0.239598 0.2017 0.133454 
0.124249 -0.557716 -0.0932075 -0.196805 -0.292342 0.0375143 -0.234212 -0.10047 0.398916 0.0456076 -0.262216 0.14749 -0.217071 -0.361497 -0.146174 -0.365048 0.0253173 -0.287694 0.21609 0.233054 -0.441752 0.303471 0.23565 -0.154627 -0.274197 0.305626 0.104649 -0.0635369 -0.0426944 0.00777311 0.381507 0.102215 0.665335 0.0787734 0.908913 -0.0566635 0.261057 -0.321968 0.0368356 -0.0827571 -0.0270649 0.327971 -0.172311 0.334683 0.475904 -0.325809 0.722615 -0.37909 0.227871 -0.378765 0.423267 0.590853 0.0617803 -0.526956 0.0697288 -0.19592 -0.331711 0.288908 -0.61098 -0.121725 
0.121795 -0.534436 0.298856 0.349117 0.317938 -0.290425 0.0910568 -0.232078 0.0355398 0.580696 0.538173 -0.508028 0.265899 -0.220445 0.0243735 -0.674153 0.120918 -0.0726177 0.251321 -0.0495032 0.0795283 0.0954547 -0.244799 -0.193617 0.208037 -0.0766698 0.311905 -0.0863242 0.369004 0.492632 0.283882 0.278538 0.776121 -0.337134 0.0845746 0.0988226 -0.296792 -0.162996 -0.386407 -0.175162 0.409901 -0.159663 -0.276543 0.664912 0.237873 -0.247092 0.225443 -0.700082 -0.411911 0.204825 0.452827 0.196079 -0.185796 0.0367 0.101217 0.00676384 -0.49196 -0.602968 0.247087 0.289535 
0.0832928 0.10275 0.203975 0.141002 -0.253547 -0.0297337 0.161291 0.135035 -0.728498 0.0540057 0.400637 -0.270839 0.227052 0.0178469 0.270914 -0.200417 -0.130786 -0.289141 0.0539392 0.324224 0.137809 -0.192195 -0.209702 -0.20015 -0.665114 0.171989 -0.0992098 -0.157086 -0.346219 -0.480065 -0.608811 -0.475073 -0.134121 -0.0674217 -0.434412 0.160363 0.221336 0.254239 -0.137381 -0.414415 -0.648257 -0.632173 -0.440951 -0.425019 -0.143777 -0.00424413 0.215498 0.202794 0.153958 -0.134983 -0.438441 0.333398 0.434526 -0.360945 0.364211 -0.0607574 -0.0503427 0.303702 0.0163659 -0.124208 
-0.223299 0.0581573 0.321248 -0.175102 -0.350262 0.404792 -0.291622 0.178742 -0.109097 0.262464 0.103985 0.0279305 -0.0552884 0.372205 0.35393 -0.0377395 -0.148558 -0.241367 0.606424 -0.753413 -0.747589 0.177507 -0.506516 -0.341977 0.401408 -0.321358 0.00640764 0.50562 -0.546453 0.731733 0.0212698 0.303509 -0.0628109 0.127834 0.221255 -0.517083 -0.531893 0.288187 0.337628 0.671459 0.161186 -0.251103 -0.606423 -0.12421 0.866164 -0.329755 -0.186967 -0.0281828 0.666638 -0.229439 -0.0559158 0.0558272 -0.425148 -0.1128 0.0727714 0.559263 0.330647 -0.101666 0.196305 0.129521 
0.171331 -0.46708 0.0304586 -0.151801 -0.214562 0.235904 0.281617 0.0326489 -0.466759 -0.187342 -0.349579 -0.978674 -0.0761803 0.0273254 0.0421609 0.185693 -0.262688 -0.539789 0.129199 -0.17469 0.12548 -0.0291439 -0.22966 0.0233199 -0.90062 0.12353 -0.181486 -0.23723 0.0554239 0.294893 -0.124186 0.104982 0.606591 -0.182073 0.159379 0.158772 0.0839363 -0.0196924 0.220626 0.445279 0.00745916 0.706115 -0.599862 0.056427 -0.036918 0.166161 0.38066 0.313641 0.517908 -0.455968 -0.600863 -0.0513449 -0.116979 -0.307443 -0.208748 0.18881 -0.344894 -0.152815 -0.00365463 0.0912212 
0.287617 -1.05424 -0.517206 0.381822 -0.506338 -0.334419 -0.15857 0.132472 0.19512 0.71815 -0.226488 0.604609 0.760789 0.393376 0.719939 0.155544 -0.230038 0.637317 0.189554 -0.422262 0.241867 -0.230949 0.0691407 -0.0963518 -0.21565 0.0932297 -0.333169 -0.496881 -0.256164 -0.445353 -0.0710856 0.196467 0.210408 -0.737838 0.0881395 -0.534567 0.0471931 0.236489 0.332579 -0.408006 -0.655209 -0.226379 -0.457987 -0.331854 -0.167289 -0.0367924 0.271368 -0.0230721 0.229451 0.397601 -0.121696 0.200661 -0.430787 0.359241 0.18582 0.024133 0.195562 0.235183 -0.284563 0.167545 
-0.485086 0.239548 -0.141936 0.0708537 -0.298045 0.0881333 0.315928 -0.233329 0.375817 -0.715845 0.160111 0.0977725 0.330356 0.247718 -0.148573 -0.448464 -0.0170887 0.280299 -0.123342 0.314299 0.373775 -0.163265 -0.188216 -0.0515831 -0.123057 0.3229 -0.21943 0.212878 0.448041 -0.201753 -0.107922 0.147717 0.363559 0.36766 0.204942 -0.0963591 0.213596 -0.195805 -0.0273673 -0.0092839 -0.214813 0.461031 0.334852 0.432799 -0.246708 0.287613 -0.16168 0.252418 -0.0410837 -0.161994 -0.135013 -0.0274099 -0.444993 -0.373314 0.495212 0.745438 -0.195457 0.397286 0.612101 0.194262 
0.0860628 0.10522 -0.144352 0.410586 0.169348 0.0586891 0.0132265 0.632072 0.267988 -0.00529621 0.191102 0.168416 0.687223 -0.0371439 0.448758 0.0840566 -0.172587 0.119119 0.00489366 -0.351667 -0.224877 -0.25585 0.38785 0.0133562 0.546126 -0.152884 -0.535042 0.131305 0.556296 -0.31237 0.674238 0.318456 -0.103664 -0.592357 0.10229 0.0367326 0.198435 0.606596 -0.115629 0.51119 0.430976 0.00609587 -0.394787 0.323619 0.267782 0.34232 0.173483 -0.200775 -0.525458 0.33672 0.252817 -0.356986 0.236598 -0.316787 0.372099 0.250661 0.4832 -0.0949649 -0.16036 -0.30064 
-0.0193749 -0.14607 -0.939619 0.576672 -0.339071 0.0773825 -0.0177823 0.0391846 0.00374571 -0.411449 0.10024 -0.102743 0.0801288 -0.478362 0.557441 0.338447 -0.593141 -0.295061 0.068087 -0.136825 -0.0688697 -0.363811 -0.316199 -0.405421 0.21986 -0.369085 0.360568 0.541449 0.210415 0.128882 -0.753008 -0.219279 -0.445659 0.0901782 0.305548 0.19227 0.400532 -0.365397 -0.176063 0.0751873 0.249905 -0.136112 0.103501 -0.399748 -0.247571 0.636606 0.0194016 -0.142955 -0.0361696 0.972655 0.468172 -0.109481 0.545382 0.323058 0.280696 0.41903 -0.423015 -0.763099 -0.494469 -0.377802 
-0.116492 0.227664 -0.116797 0.749727 -0.222161 0.106492 0.438628 -0.168974 -0.626206 -0.272511 -0.00687716 -1.15944 0.0786368 0.153826 -0.466806 -0.0329411 0.33109 0.315915 -0.185604 0.301346 -0.111888 -0.20622 0.427041 0.0169609 -0.0110729 0.0782591 0.363949 -0.656738 0.129313 0.00939526 -0.456594 -0.0404426 -0.0139154 -0.0468041 0.129911 -0.0290855 -0.313371 -0.0225652 0.618664 -0.176554 -0.0553173 0.228353 0.210937 -0.11076 -0.611086 0.383483 -0.0195592 0.17066 -0.247462 0.841503 -0.0630381 0.447471 -0.0496235 -0.167735 0.0988011 0.127641 0.00356341 0.310506 0.205399 -0.799297 
0.173675 0.178436 -0.210032 -0.140562 0.0287815 0.210798 -0.0431853 0.335303 -0.0141858 0.19038 0.0708044 -0.359661 0.315218 0.187867 -0.496886 -0.258994 0.129837 -0.0491279 0.00530133 -0.424013 -0.170837 -0.309338 -0.134508 0.02741 0.394034 -0.142515 0.0744919 0.310444 0.107423 -0.0698366 -0.20972 -0.272314 0.332172 -0.0823429 -0.100119 0.198049 0.113963 0.067183 -0.0411144 0.228393 -0.179498 0.0798126 -0.0254248 -0.0447455 -0.0551522 0.271439 -0.320173 0.425836 0.0831763 -0.315935 -0.116555 0.392897 -0.138209 0.259284 -0.365499 0.427053 0.0031253 -0.00682248 -0.40594 -0.242128 
0.278137 -0.00587926 0.15321 0.263031 0.289497 -0.386713 0.0109589 0.323422 0.155169 0.0381962 0.50799 -0.916059 0.0996038 0.445113 0.218448 -0.231943 0.149481 -0.645472 -0.131541 0.0518563 -0.590193 -0.430092 -0.29745 -0.0201633 0.139763 -0.277858 0.549783 -0.335637 0.0888486 -0.369136 -0.611264 0.381304 0.346837 -0.40544 -0.422281 -0.395392 0.372351 -0.253305 -0.00684361 -0.2446 0.310618 -0.0169096 0.498671 -0.600858 -0.308578 0.381404 0.425062 0.366962 0.675319 0.0919509 -0.257251 0.305373 0.058094 -0.50882 -0.0657427 0.0965881 -0.442507 -0.0689116 0.0903182 0.156658 
0.0732884 0.110886 -1.28255 -0.489787 -0.0408175 -0.00857326 0.103644 0.0915888 -0.326294 0.449743 -0.964127 -0.208498 0.203272 -0.104585 -0.406732 -0.541104 0.611077 -0.00214767 -0.584572 0.159732 -0.0767338 0.0915333 -0.176354 0.258589 0.107067 0.455264 0.0277888 0.097324 0.518392 0.464411 -0.36301 0.124194 0.449134 0.0614356 -0.0607301 0.410531 0.0479519 -0.0168757 0.256428 0.401487 -0.492672 0.406195 -0.948461 0.156678 -0.396652 -0.28644 0.309617 0.131409 0.408308 0.0315729 -0.320203 -0.167858 -0.354192 0.29011 0.457214 0.802012 -0.667029 -0.155718 0.0926831 0.0649035 
0.17211 0.505928 0.299525 0.206926 0.0571205 -0.2178 -0.240392 -0.207748 0.0906758 -0.0999925 -0.577642 0.561063 0.413402 0.0915896 0.243684 0.949058 -0.0694213 -0.158247 0.348148 0.299144 0.278056 0.0763146 0.146233 -0.455348 -0.158997 0.512475 0.234508 0.341669 -0.355379 0.113022 0.213816 0.459554 0.17144 -0.150251 0.0671763 0.605255 0.412442 -0.174794 0.279357 -0.162249 0.00194797 0.254728 -0.2631 -0.149831 -0.563914 -0.138695 -0.0246987 -0.753979 -0.311422 -0.306546 -0.190638 0.0698838 -0.032278 -0.228145 0.189298 0.286541 -0.811939 0.196158 0.595326 0.544356 
-0.0289731 0.0745115 -0.644931 -0.196636 -0.47698 0.537028 -0.0780901 -0.39222 -0.274059 -0.606314 0.550789 0.414248 -0.180626 -0.453588 -0.296056 0.314681 0.0352578 1.19898 -0.0733383 0.0924171 0.397647 -0.00757828 -0.251113 -0.217456 0.201677 -0.443243 0.609597 -0.133098 0.210172 -0.0952722 -0.268282 0.545729 -0.460174 -0.0148445 -0.444324 -0.344786 -0.0231054 -0.0913723 -0.0863682 -0.0272315 -0.528838 -0.350799 -0.16285 -0.33189 -0.665954 -0.0691001 -0.216119 0.0160515 -0.407732 -0.784693 -0.0730189 -0.151432 -0.114352 0.485949 0.14018 0.170354 0.118066 -0.0444251 0.667939 -0.81181 
-0.518619 0.273833 -0.286119 0.534264 -0.410953 0.413177 -0.063859 -0.781119 -0.712698 -0.445612 0.244376 -0.185204 0.220053 -0.132249 -0.202756 -0.276562 0.152472 0.00902827 -0.503512 0.0860201 0.20232 -0.474333 -0.211447 -0.864703 -0.451846 -0.0767451 -0.475407 0.580749 -0.201816 -0.0642009 0.451267 0.0202015 -0.388691 -0.0814728 0.0175643 0.329097 0.402778 -0.275372 0.125395 0.180384 -0.0490846 0.0909425 -0.0933517 0.759 0.302454 -0.210347 -0.188275 0.198377 -0.19533 0.388453 0.460201 -0.25347 -0.38616 0.540011 0.409233 0.298363 0.950048 0.147168 0.269291 -0.207023 
0.147037 -0.244981 0.208877 -0.488614 0.0432691 -0.140603 -0.14948 0.493471 0.377661 0.499105 0.372865 0.146283 -0.106897 -0.225943 0.354728 0.186131 -0.638777 0.0629608 -0.188222 -0.127433 0.590842 0.229108 -0.171975 -0.200198 -0.307496 0.194824 0.410946 -0.660573 0.32544 -0.350346 0.218279 0.158896 -0.387232 -0.392324 -0.416055 0.0292065 0.386728 0.308376 -0.272425 0.163002 -0.0703119 0.191623 -0.357784 -0.172524 0.223544 0.284265 0.208219 -0.374336 0.610702 -0.0356319 -0.545684 0.161531 0.624206 -0.118253 0.150046 0.152064 -0.253408 0.338768 -0.555579 0.271207 
0.263287 0.192097 0.0190214 0.0425395 0.616397 0.0539441 0.0147929 0.480635 -0.500815 -0.304827 -0.591542 -0.644295 -0.0656567 -0.546829 0.153579 -0.290308 0.27568 -0.492474 0.0584303 0.443879 -0.575443 0.218842 0.00817509 -0.41016 -0.416346 0.211662 0.426389 -0.206888 -0.260119 0.575137 0.0179142 0.330733 -0.331584 0.181606 -0.054957 0.458485 0.0910676 0.0375539 -0.409102 0.642364 -0.787663 -0.458063 -0.388692 0.330066 0.191408 -0.192132 -0.402993 0.32584 -0.0393593 0.136869 -0.12182 0.570049 0.350628 0.526369 -0.163518 0.0291911 -0.0937402 0.169489 -0.229421 0.230807 
0.39307 -0.0892371 -0.429389 -0.0328554 0.572121 0.188798 -0.0281862 -0.522548 0.36914 -0.178013 -0.148282 -0.349703 -0.139297 0.00974808 -0.169519 0.494888 -0.0577689 -0.497166 -0.154211 -0.0166122 0.344025 -0.464582 -0.0429247 -0.217418 0.0739109 1.04432 0.0946272 0.520663 0.267067 0.273558 0.500611 0.751078 -0.129197 -0.552732 0.153031 0.558661 -0.393108 0.147782 -0.105729 0.370703 0.382516 -0.0702733 -0.137811 -0.044852 0.340465 -0.311547 0.187842 0.170635 0.186153 0.0368574 -0.204957 -0.167702 0.323699 -0.695374 0.219266 0.380131 0.263977 0.629063 -0.69931 -0.167183 
0.301447 0.106772 0.140744 -0.0335556 0.00210731 0.236891 -0.0755129 0.906428 -0.570842 0.197288 0.312843 -0.300255 0.334579 -0.144543 -0.100975 0.00257051 0.0280403 0.229198 -0.0481946 0.72902 -0.09738 -0.541152 0.38927 -0.0980848 0.299047 -0.109716 0.191171 0.163619 -0.30944 -0.78108 0.245531 -0.355114 -1.26371 0.249585 0.049502 0.0166789 0.235645 0.0153258 -0.210556 0.0859698 -0.0278534 0.00781364 -0.643694 -0.0908895 0.21277 0.298825 -0.350713 0.0537855 -0.317456 -0.281055 -0.106901 0.0283301 -0.141869 0.552674 0.0865671 0.48521 -0.027766 -0.231721 -0.757747 0.00080155 
-0.247653 0.441457 0.118249 0.684902 -0.23054 0.149381 0.0596002 0.515877 0.455667 -0.0409378 -0.665215 0.27542 -0.315188 -0.826094 -0.183598 0.259488 0.0575872 -0.456214 0.316783 0.0932413 0.0721066 -0.858305 -0.289802 0.193856 -0.481942 -0.0206921 -0.127442 0.0656576 0.297372 -0.0115653 -0.118986 0.119874 0.0391564 -0.0762884 -0.364961 -0.214839 0.158442 -0.32241 -0.075124 0.138369 0.340405 -0.159626 0.0457767 -0.379783 -0.410884 0.190576 -0.643459 -0.249063 0.0508163 -0.246242 -0.203765 0.135787 0.314849 0.366202 -0.310564 0.315671 -0.0419631 0.337228 -0.240079 -0.0990464 
-0.435064 -1.1053 -0.529447 -0.365167 -0.0489786 0.212369 0.312558 0.519946 0.0645251 0.0329846 -0.165373 0.126067 -0.284292 0.00729496 -0.184132 0.155977 0.0841856 -0.800076 -0.357969 -0.229302 -0.199397 -0.0969008 -0.176031 0.119227 -0.100761 -0.116627 0.583345 -0.459436 0.0660418 0.344061 0.159833 0.00543409 -0.327254 -0.76455 -0.215167 -0.235531 -0.29677 -0.0259828 0.274479 0.259092 -0.318499 -0.342599 0.323373 -0.117483 -0.229171 0.0754746 -0.548293 -0.00035156 0.1398 -0.073024 0.0213309 0.529946 -0.283594 -0.419823 0.0397634 0.0858514 -0.0802734 -0.489319 0.0602814 -0.345686 
-0.143226 0.371786 0.0663108 -0.195158 0.334502 -0.049099 0.629751 0.683334 0.418941 -0.0231219 0.198197 -0.121688 0.688623 -0.264407 0.0947722 -0.402693 -0.358888 0.0774808 -0.0482749 -0.340772 -0.0610813 0.631866 0.00842611 -0.114338 -0.720521 0.40261 0.0430098 0.419049 -0.571556 -0.280711 -0.00454889 -0.52729 0.200961 0.281551 -0.174071 0.189191 -0.332373 -0.04106 -0.0511401 -0.442445 0.192582 0.331729 0.0186422 -0.250226 -0.226424 -0.000346785 -0.0902213 -0.120273 0.320231 -0.830248 0.565388 0.0127743 -0.563794 -0.228043 0.259445 -0.0170085 -0.0428246 -0.138431 -0.0252213 -0.0738006 
-0.368971 -0.297885 0.246893 0.0188288 -0.608273 0.0731827 -0.159554 0.13445 -0.306553 0.301358 0.0193209 -0.441949 -0.345369 -0.18468 0.523405 0.236665 -0.251669 0.247215 -0.937532 -0.311509 0.00104648 -0.714577 -0.213474 -0.031154 0.905675 0.523673 0.443338 0.26222 -0.189383 -0.607518 -0.0156673 0.373573 -0.046514 0.13166 -0.293778 0.0178113 0.423023 -0.494085 0.256662 0.0461554 0.528782 -0.497087 0.247701 0.222795 0.195552 -0.16509 -0.148218 -0.308778 -0.2138 -0.00677118 0.135243 -0.0575638 0.212674 -0.242416 -0.801989 0.403543 -0.0136422 0.738877 -0.337505 0.0236856 
-0.178277 0.272851 0.132639 0.0601752 -0.240062 0.38199 0.0814977 0.150801 0.569528 -0.0235523 -0.210767 0.0500258 0.338393 0.468173 -0.394547 -0.113973 0.371796 0.135867 0.32074 -0.0858076 -0.306786 0.410009 -0.648109 -0.0028015 0.312861 -0.436104 -0.0775105 -0.0582279 0.359791 -0.0520059 0.313583 -0.447853 0.185986 -0.269887 0.377031 0.357247 0.0115193 0.153502 -0.216154 0.154001 -0.208569 -0.225844 0.0243195 0.324611 -0.360351 -0.451134 0.586409 -0.1255 -0.0159937 0.0548401 -0.248927 0.179163 0.0092187 -0.0752368 0.0429259 -0.0333414 0.41029 0.36792 0.235535 0.364815 
0.090899 0.172167 -0.152554 -0.246737 -0.342622 0.213566 -0.154501 -0.195347 -0.456265 0.56774 -0.168132 0.211284 0.0504191 -0.127725 -0.209801 0.179071 -0.188272 0.288015 -0.389647 0.00331509 -0.0116208 0.440622 -0.336019 -0.172078 -0.254886 0.0715424 -0.571928 0.318013 -0.740526 -0.708732 -0.270561 -0.202941 0.480744 0.626332 0.231177 0.279082 -0.186712 -0.0582876 -0.0258301 -0.0839603 -0.413562 0.736854 0.400145 -0.0777697 0.524199 0.393403 0.293856 -0.068317 -0.000407964 0.0411248 -0.181209 -0.0122389 0.675796 -0.510507 0.0790289 0.152888 0.0160329 0.430939 0.373588 0.00697404 
-0.0489582 0.382219 0.167665 0.320456 0.16901 0.529105 -0.653707 -0.0156351 0.318322 0.189551 -0.101312 0.134933 -0.373206 0.239912 0.086048 0.342437 -0.0565563 -0.00115422 0.366582 -0.0783415 -0.86611 0.0810886 -0.204152 -0.0298429 0.000737826 0.372604 0.269202 -0.101226 0.683022 -0.674361 -0.0958071 -0.593258 -0.209986 0.245921 -0.262081 -0.628645 0.140476 -0.282398 -0.111091 -0.0610325 -0.0117814 -0.162857 0.143931 -0.376465 0.340861 0.082708 0.300135 0.50327 0.014903 0.155743 0.395375 -0.331162 -0.347962 0.07033 0.146244 -0.102342 0.289242 -0.0796073 0.670757 -0.222164 
0.798009 -0.313556 0.387955 -0.169287 0.18158 -0.384185 -0.399731 0.00679872 -0.653617 0.391825 -0.147655 0.0130566 -0.0805613 -0.0210942 -0.279983 -0.0441642 -0.215728 0.254373 -0.106702 0.801671 -0.0191154 0.451684 0.0199496 0.096169 -0.491924 -0.46952 0.100576 -0.856012 0.230837 0.313006 0.0846848 0.448194 -0.487964 -0.141428 0.037211 -0.561765 -0.993301 0.283095 -0.254184 0.0960318 -0.591241 0.2054 0.0095677 -0.357987 0.0990406 -0.118152 0.0994297 -0.559883 0.0314526 1.01127 0.362374 -0.183063 0.317024 0.313457 -0.207594 0.08631 -0.247361 0.239789 -0.0781231 -0.0654539 
-0.27052 0.300155 0.2187 -0.342833 -0.722214 0.389996 -0.396687 -0.0267353 0.180899 -0.310723 0.0941287 0.0523635 0.583182 -0.134958 0.329323 -0.18313 0.0259085 -0.189896 0.457331 -0.220829 -0.0689437 0.397592 -0.488115 0.0909755 -0.0797692 0.243058 0.443662 1.02714 0.344291 0.322333 0.347303 0.0607453 -0.438619 0.0417148 0.526276 0.000725963 -0.174407 -0.366347 0.64445 0.441375 0.291858 -0.167263 -0.0857646 -0.119959 -0.0406077 -0.115415 -0.524211 0.230092 0.21432 0.746258 -0.0899867 -0.374581 -0.731113 -0.780712 0.903363 0.184866 0.14437 0.177385 0.18078 -0.152088 
-0.0426197 0.193568 0.527798 0.0559371 0.202047 -0.18302 -0.22984 -0.0890044 -0.12921 -0.530328 -0.0632008 -0.147848 0.077973 -0.647628 0.10823 0.0832632 -0.243908 -0.0515397 -0.206753 0.692555 0.216047 -0.191908 0.353683 -1.03111 -0.483667 -0.454976 -0.254093 0.182668 0.116529 -0.356924 0.114337 -0.131141 0.0375601 -0.691169 -0.385505 0.127814 0.348498 -0.0107738 -0.539597 -0.657207 -0.059711 -0.510274 -0.3766 0.689089 0.274676 0.317938 0.0835768 0.146983 0.168642 -0.770121 -0.222129 -0.746789 -0.540519 0.465255 -0.577931 0.331473 -0.0954139 -0.287078 0.314862 0.611901 
0.378747 -0.142988 0.870832 0.347098 0.436244 0.406654 0.434073 0.0595214 -0.381113 0.59436 -0.230728 -0.124794 -0.198722 -0.305293 0.254297 -0.661431 0.448981 0.221663 -0.274722 0.361432 0.0282391 -0.171147 -0.716195 0.00871795 -0.475902 -0.00737795 -0.247941 -0.19952 -0.478781 0.217853 -0.453828 -0.149591 -0.225684 -0.144739 -0.103197 0.3711 0.776659 0.188962 -0.526691 -0.00780727 -1.0382 -0.1569 0.259201 -0.25057 -0.25959 -0.211845 0.889766 0.089851 0.0341809 0.205424 -0.249328 0.0767539 -0.111858 -0.309205 -0.701382 -0.23299 -0.521704 -0.00520843 -0.171313 -0.318502 
-0.148704 -0.416947 -0.445053 -0.058414 -0.325926 -0.210505 -0.575195 0.328141 0.520522 -0.163403 -0.354576 0.188051 0.212118 -0.407613 -0.227265 -0.633411 0.391868 0.186196 0.11477 -0.18094 -0.680501 -0.134561 -0.243638 0.539153 -0.0668728 -0.201798 -0.840244 0.454329 0.0490127 -0.356173 -0.401317 0.189258 0.0250684 -0.491189 0.505409 0.237149 0.158489 0.286669 -0.106511 0.196356 -0.199425 -0.0705751 -0.0461019 0.00714548 0.411557 -0.187346 0.361083 -0.16933 0.164986 -0.182698 -0.0886214 -0.00755434 -0.426323 -0.176044 -0.602804 0.80189 0.419176 0.285309 -0.176217 -0.339017 
0.0877024 0.0295064 0.106774 0.209839 0.182468 -0.162721 0.0541382 0.297651 0.361413 -0.25245 -0.479707 -0.205433 -0.484056 -0.328602 0.418567 0.250413 -0.604459 0.416691 0.246845 -0.283979 0.465114 0.0248655 0.334336 -0.191849 0.22885 0.257875 0.330883 0.479478 0.0283667 -0.31916 0.318676 -0.0968766 -0.0262926 -0.301492 0.280807 -0.101468 0.335073 0.344058 0.0601904 0.00712689 -0.205076 -0.0985385 0.323286 0.479001 0.104114 0.395584 -0.115113 -0.0409779 0.426333 -0.0733814 0.0475811 0.154383 0.0419318 -0.557267 -0.293174 -0.404891 -0.00467976 0.215247 0.566734 -0.349038 
0.28941 -0.182305 -0.101583 -0.325 0.0163284 0.491365 0.29066 -0.29802 -0.0628923 -0.115881 0.614639 -0.0287851 -0.05333 0.268075 0.822012 0.289941 0.166495 -0.151251 -0.058305 0.300144 0.0100064 -0.0727962 0.331196 0.0622873 -0.129964 0.225095 0.583169 -0.0360952 -0.0453348 0.500178 0.311407 0.267303 -0.069831 -0.186278 0.163888 0.0156441 0.223094 0.551969 0.00850316 0.546485 -0.116974 0.485187 -0.0944736 -0.662491 -0.308633 -0.171725 0.196441 -0.0969613 0.646843 0.487634 0.0597863 -0.0631688 -0.166289 0.238452 0.0566364 0.115649 0.295019 0.262322 0.0667121 -0.175008 
-0.0651256 -0.117116 -0.146331 -0.240193 -0.157665 -0.0865069 0.718091 -0.341728 0.220954 -0.225411 -0.0298271 -0.13539 -0.162191 -0.114208 -0.264634 -0.461754 -1.13566 0.0838592 0.320507 -0.344155 0.603035 0.424079 0.778144 -0.145121 -0.25881 -0.0597449 0.203135 0.0787557 0.10543 0.379928 0.0467751 -0.0273561 0.299614 0.262168 -0.384618 0.207527 0.193008 -0.460843 0.122796 -0.424827 0.0430243 0.861669 -0.947709 -0.604656 0.312544 0.0660371 -0.0748548 -0.115467 -0.256043 0.256685 -0.530485 0.00368988 -0.0369185 0.0556278 0.308589 0.152937 -0.448854 0.350168 -0.661692 -0.0844303 
-0.346808 -0.085682 0.133557 0.299347 0.481682 0.115505 0.164152 -0.251633 0.115421 0.218768 0.123543 0.232213 0.333631 0.00530347 -0.227506 0.084539 -0.178211 0.613813 -0.265385 0.00130365 -0.517232 0.433055 -0.0524142 0.762042 0.505526 -0.135946 0.427499 -0.159225 0.587477 0.373343 0.691538 0.537115 0.465669 0.0661534 -0.0446427 0.377991 -0.243681 -0.344805 0.0934292 0.383622 0.656342 0.0523043 -0.204348 -0.10106 -0.099979 0.461252 0.0432081 0.27786 0.0890617 0.058818 -0.00922807 0.0320072 0.289078 0.170536 -0.150121 0.236846 0.602696 0.154838 -0.121103 0.273647 
-0.350937 0.365043 0.00336503 -0.363045 -0.289496 0.44371 0.111944 -0.234307 0.129921 -0.0625789 -0.600213 0.57148 -0.105707 0.166812 -0.225455 -0.303658 0.345572 -0.189966 -0.367176 0.14691 -0.29804 -0.613338 -0.213765 -0.501126 -0.0880716 0.019886 0.524952 -0.31676 0.269515 0.0565126 0.172848 -0.475866 0.319973 -0.251419 0.670659 -0.327436 -0.203269 -0.163777 -0.329025 0.349269 -0.195394 0.365878 0.611583 -0.865826 0.158148 0.319124 0.826445 -0.332655 -0.651038 0.309938 0.100572 -0.0349501 0.0677056 0.714443 -0.0406188 0.165622 0.613972 0.434902 -0.262988 -0.302518 
-0.170076 -0.0254592 0.183507 0.565612 0.0502907 -0.278142 0.167483 0.199411 -0.134162 0.904746 -0.438425 0.164152 -0.0643719 0.25722 0.695292 -0.856193 0.0127913 -0.222273 -0.282618 0.887048 -0.981979 0.516875 0.136524 0.227567 0.251091 -0.224342 0.58748 0.0923334 0.272204 -0.317758 -0.130666 -0.162433 -0.441258 -0.302319 0.0260562 0.107615 -0.556408 0.529441 -0.403614 -0.849075 0.292656 -0.116132 -0.145152 0.835773 0.46948 -0.0983098 0.327371 0.11863 -0.402603 0.427042 0.210921 -0.27942 0.143869 -0.726305 -0.158717 -0.0789174 -0.593948 -0.25433 0.348344 -0.14249 
-0.471267 0.881425 0.53524 -0.268546 0.658652 -0.0333508 0.286888 -0.091903 0.00837669 -0.160254 -0.351577 -0.0557144 -0.0827821 -0.232358 0.686948 0.627404 0.586451 -0.331954 -0.418327 0.309316 -0.428033 0.300976 -0.15286 -0.114411 -0.516393 0.369249 -0.838267 0.0789072 0.150904 -0.221498 0.0861305 0.713701 -0.208964 0.539846 -0.0466968 -0.556937 -0.0716744 -0.745836 0.678448 -0.0881935 0.152476 -0.64731 0.137788 -0.106578 -0.569821 -0.089831 -1.0956 -0.140274 -0.145712 -0.0587041 0.367277 -0.389171 0.277436 -0.502576 -0.0521262 -0.287222 -0.00252372 0.0899551 -0.844161 -0.160068 
-0.419416 0.00636071 -0.446103 0.23223 0.104888 -0.0909517 0.579615 -0.00364847 -0.105829 0.462323 0.328923 -0.104952 -0.328719 0.0482146 0.0771138 0.113769 -0.347807 0.19497 0.318211 -0.0041199 0.0300674 -0.045104 0.17016 0.25157 -0.641508 0.0152084 -0.249829 0.00516463 -0.478244 -0.483709 -0.0487438 -0.247792 0.200596 0.237302 -0.0466521 0.120817 0.676183 -0.220052 -0.040827 0.316796 -0.382357 0.245549 0.233921 -0.00371083 0.551525 -0.366629 0.0928608 0.344756 0.171918 0.112959 -0.409792 -0.319857 -0.0650102 -0.116065 -0.332608 0.627674 -0.108458 0.180769 -0.560685 -0.283274 
-0.0872348 -0.423092 -0.226003 0.223042 0.115838 -0.170303 -0.450115 0.519837 0.29819 -0.290046 0.60845 0.201012 -0.725172 -0.0513519 -0.69735 -0.271942 0.113893 -0.16658 -0.311955 0.385594 -0.208354 -0.220557 -0.109156 -0.239437 0.134573 -0.17694 -0.276945 0.600536 0.156563 0.203122 -0.454522 0.0711866 -0.0317413 0.207164 -0.595213 -0.334698 -0.323834 -0.187665 -0.798127 -0.271566 0.483745 -0.302227 0.0400407 0.73024 -0.567523 -0.0794197 0.0431895 -0.0556713 0.184595 0.196812 0.0566306 -0.140728 0.332222 0.376701 0.0928553 0.507207 0.0623937 -0.278812 -0.235349 -0.506766 
-0.166264 -0.0139624 -0.0303269 0.0583672 0.707251 -0.229714 -0.297343 -0.00887671 0.204211 -0.503087 -0.339711 0.302368 -0.346611 -0.157792 0.152849 -0.215732 -0.129552 0.00777566 0.0944725 -0.186138 -0.391667 0.0876003 -0.0719696 -0.581889 -0.289896 -0.103589 0.105291 0.0153162 -0.0661026 -0.369287 -0.450958 0.00937338 -0.195549 0.144932 -0.573764 -0.232503 0.0858062 0.586301 0.427887 0.0296185 0.90598 0.224495 0.206271 0.345891 -0.375555 0.236775 -0.0738907 0.602665 0.281244 -0.250675 0.291643 -0.158725 -0.238385 -0.179662 -0.252971 -0.0678176 0.173577 -0.334148 -0.0915966 0.279327 
-0.383851 -0.0684599 0.645635 -0.533197 -0.463718 0.418902 -0.6637 -0.0809592 -0.310126 -0.277633 0.171587 0.135819 0.0406671 -0.443436 0.513313 0.362539 -0.0884139 -0.157959 0.76915 -0.604655 0.464788 0.5233 0.0574124 0.166372 0.0525865 0.324882 0.030023 -0.0722192 0.17111 -0.252117 -0.359449 -0.411654 0.289524 -0.059776 0.262197 -0.0910181 0.0659546 -0.884449 0.202716 0.301518 -0.142901 0.0851585 -0.555202 -0.829835 0.194771 -0.136953 1.09996 -0.0750415 0.115291 -0.390407 -0.0130074 0.14167 -0.355525 -0.145728 -0.555789 -0.972439 -0.602577 0.136144 -0.10477 0.438162 
0.16061 0.539775 0.159506 -0.0320104 0.187641 -0.161407 0.137814 -0.0222298 -0.462387 0.195223 -0.0802885 0.0612511 0.144717 0.205127 0.419868 -0.190367 0.141344 -0.0603018 -0.310033 -0.155054 0.114394 -0.492204 0.141054 -0.44543 0.167259 -0.150524 0.471822 0.247661 0.367436 -0.0088976 -0.631351 -0.0201266 0.224276 0.197272 0.382114 0.406282 -0.148174 -0.678152 0.261708 -0.121982 -0.229406 0.472524 0.43315 0.291015 0.028204 -0.479109 0.280654 -0.584814 -0.0738059 -0.137604 0.129037 -0.228894 0.569775 0.239632 -0.154248 0.476323 -0.250853 -0.0985135 -0.083492 -0.528286 
0.625181 0.428511 -0.234702 -0.233639 -0.0715962 -0.370471 0.105122 -0.121149 0.101414 0.340833 -0.153629 -0.0811802 0.109874 -0.0556559 -0.104604 0.272065 0.0856475 -0.0637267 0.0381755 -0.140338 -0.102271 0.0379599 0.0469091 -0.348947 -0.283915 0.225723 -0.103023 0.0743645 -0.102943 0.291538 -0.668297 -0.0950961 -0.777904 0.252127 0.47831 0.0880791 -0.253986 -0.232103 0.0948349 0.343464 0.0779559 -0.378291 -0.615902 0.390028 0.143421 -0.0129178 0.437341 -0.252201 -0.0556548 0.201442 -0.468168 0.445823 -0.321855 0.341212 0.371969 -0.17343 0.0308528 0.576457 0.225207 0.731612 
0.0667106 -0.0369162 0.137884 -0.0310501 0.274225 0.132349 -0.282041 -0.618749 0.393778 0.00898492 -0.601157 0.24142 -0.314044 0.0670528 0.368835 -0.410473 0.688782 0.484398 0.184326 0.196439 -0.168752 -0.258661 -0.488921 0.489222 0.0219074 0.123957 -0.111077 0.0451563 -0.08306 -0.122116 -0.593664 -0.102191 -0.535975 0.444493 0.146159 -0.528887 -0.0168901 0.570312 0.823071 -0.231589 -0.0171122 -0.137756 0.302211 -0.374772 0.188256 0.118289 -0.0714465 -0.326659 -0.405338 -0.208059 -0.094483 -0.347848 -0.521685 -0.349293 -0.0993406 -0.0396535 -0.199811 -0.165771 -0.0764306 -0.684602 
0.0795924 -0.284701 0.491535 -0.0961505 0.00737072 0.0692619 -0.33159 0.126158 -0.839464 0.118701 0.0204888 0.0158035 0.480687 0.246527 0.0531882 -0.389042 -0.14155 -0.226515 -0.673771 0.050562 0.0968995 -0.111632 0.0726683 -0.942425 0.554635 0.0385519 -0.47842 0.316771 0.897257 0.103081 -0.0617472 -0.263522 -0.24997 0.347742 0.186434 -0.371327 0.174339 -0.423449 -0.101611 0.300601 0.150617 0.0787587 0.235569 0.353697 0.139253 -0.73226 0.180238 -0.156408 0.289072 0.671949 0.170128 -0.655683 -0.226259 0.50941 0.098836 -0.202691 -0.585171 -0.0772831 -0.590669 -0.334327 
-0.655566 0.158964 -0.0747083 -0.134539 -0.404335 -0.49168 0.0204499 0.31714 0.525296 0.55862 0.0154871 -0.113629 0.033033 0.454448 0.0360833 -0.247613 0.0416773 -0.174086 -0.0407426 -0.0650245 0.510162 0.335087 -0.193032 0.177531 0.0446263 -0.0736696 -0.299664 0.271536 -0.481685 0.426511 -0.0402628 -0.104799 0.336272 0.342979 -0.157919 -0.329917 -0.142553 0.0418631 -0.41207 -0.252688 -0.449075 0.395379 -0.354918 -0.486659 0.259016 0.12452 -0.723485 -0.158621 -0.321681 -0.316093 -0.275787 0.449614 0.885607 0.0178394 0.34466 0.636921 0.108025 0.0661461 -0.310042 -0.773422 
-0.610816 -0.0468833 0.32367 -0.0915938 0.659876 0.0468714 0.415805 -0.319237 -0.100681 0.180857 -0.286313 -0.370332 -0.335955 0.302403 -0.139908 -0.126401 -0.100175 -0.397091 0.271718 -0.398383 0.0259358 0.0267111 -0.405438 -0.136346 0.0171052 -0.480204 -0.309038 -0.0109403 0.171015 -0.221451 -0.44029 0.0804275 -0.0111972 -0.111832 -0.123978 -0.372134 -0.229239 -0.431975 -0.272652 0.000358813 0.157231 -0.614438 0.18913 0.0638347 -0.45922 0.425277 0.302075 0.216078 -0.104374 -0.400745 0.0233918 0.068588 0.722937 -0.806778 -0.245044 0.391999 -0.251847 -0.0243166 -0.136797 0.257411 
0.420741 0.00831113 0.0848191 0.490528 0.211579 0.44008 -0.0121314 -0.35332 -0.525509 -0.0496452 -0.212354 -0.433663 0.212497 -0.207607 0.295715 0.0905224 -0.579569 -0.135014 -0.450024 -0.128583 0.239266 -0.300759 0.221454 -0.291091 0.46574 0.442716 0.132163 -0.229942 0.0525592 0.140068 0.622509 0.369449 -0.323375 0.184457 -0.20649 0.161596 -0.130732 -0.0909652 0.721806 -0.0451279 0.303691 -0.100927 0.391866 0.0851462 -0.00189756 -0.196755 0.527414 0.385259 0.880771 0.0115916 0.303906 -0.205138 0.282587 -0.230728 0.338819 -0.427751 -1.08784 0.211717 -0.568252 0.46599 
0.10836 0.664298 0.0391927 -0.639787 -0.98435 -0.150661 -0.177211 0.21425 -0.775221 -0.16372 -0.888685 0.194236 -0.508332 -0.437841 -0.396664 0.196408 0.275916 -0.356083 0.0702113 -0.0171993 0.640071 0.254927 0.134183 0.501965 0.599757 0.173913 0.399621 -0.250407 -0.0630523 0.365612 -0.823019 -0.463978 0.465701 0.0092531 -0.128124 0.362532 0.349094 -0.610041 1.19552 -0.266139 0.511429 0.127019 -0.0170074 0.098352 0.0549049 -0.308591 -0.187724 -0.366867 -0.0169613 -0.109916 -0.25388 -0.32313 0.0494971 -0.509864 -0.223763 0.189392 0.200824 0.0337698 0.385824 0.312074 
-0.256502 -0.278333 0.390584 -0.948455 -0.723925 0.234802 -0.143709 0.437235 0.265153 0.58346 -0.030869 0.0411174 0.258603 0.447877 0.103331 -0.450712 0.0445033 0.3361 0.0381918 -0.282422 -0.508327 0.461857 -0.0153096 -0.11719 0.461735 0.190952 -0.252459 -0.59396 0.100174 0.108311 -0.41995 0.299507 0.571301 0.61202 0.33116 -0.160173 -0.215334 0.289426 0.833774 -0.415475 -0.44915 -0.259448 -0.183412 0.267646 -0.277334 0.278368 0.290409 -0.202837 0.361983 -0.318367 0.261418 0.0547273 -0.370924 -0.297037 -0.405774 0.0950153 0.561563 0.265877 -0.146067 0.264278 
0.685572 0.0818591 0.17544 0.0333321 0.064305 -0.0970119 0.30747 -0.174882 -0.0354431 -0.123829 0.228175 0.0220852 0.253662 -0.141955 0.0772211 -0.441241 -0.0820247 0.223829 -0.123495 -0.455828 0.555376 -0.299406 -0.190166 0.00708762 0.45436 -0.146813 -0.186101 -0.329622 0.0879885 0.313529 -0.328883 -0.275835 0.0328806 -0.377895 -0.226149 0.118966 0.46675 0.116477 -0.12002 0.168432 -0.00472662 -0.325857 0.0912232 0.095414 0.407802 -0.0817844 0.342336 0.500631 -0.223586 0.754717 -0.163337 0.13751 -0.145366 0.0975735 0.530401 0.165518 0.234029 -0.100886 0.644082 0.175081 
0.533111 -0.294661 -0.11087 0.242273 -0.0862159 0.102644 0.233753 -0.264268 -0.631462 0.0292578 -0.249052 0.317263 -0.125277 -0.589034 0.223323 -0.209458 0.58251 0.760838 0.200561 -0.726154 0.178976 -0.312623 0.408855 0.318348 -0.0426223 -0.125354 0.697542 -0.238443 0.16955 -0.376956 -0.32326 0.339569 0.0713456 -0.259778 -0.306472 -0.466938 -0.0609756 -0.0570229 -0.585283 0.408625 0.673314 0.136822 0.169074 -0.280324 -0.268649 -0.408742 0.0842288 -0.25024 0.0333391 0.103677 -0.19319 0.088952 -0.239887 -0.363462 -0.134197 -0.437436 -0.443682 -0.068812 0.094116 0.300414 
-0.485952 -0.578578 -0.0696837 -0.026219 -0.638059 -0.0528938 0.227623 0.230462 -0.41236 0.284948 -0.357485 -0.193049 0.0197283 0.0237855 0.146391 0.28507 -0.411831 -0.870754 -0.565948 0.288788 -0.231164 0.505949 0.612721 -0.632911 -0.144162 0.342008 0.029926 0.0193153 -0.387429 -0.409048 -0.151551 0.00277724 0.209433 0.483824 0.193454 -0.135229 0.090434 0.502823 0.12085 -0.284783 0.212972 0.559679 0.497096 -0.761442 0.776245 -0.663219 0.296382 -0.40513 -0.503057 0.0744889 -0.154861 -0.372049 -0.113009 0.0372611 -0.0457889 0.538676 -0.174251 -0.214317 0.300017 -0.187294 
0.00532524 0.324345 0.0192567 -0.181824 -0.0905325 -0.219113 -0.199021 -0.334828 0.0597007 -0.338456 -0.25326 -0.224933 0.195111 0.580474 -0.189493 0.23912 0.796985 -0.190832 0.287029 -0.428125 -0.0556989 -0.0820254 -0.298988 0.612604 0.154242 -0.057424 0.144594 0.0158795 -0.709632 -0.177692 0.0907614 -0.242091 -0.281255 -0.515606 0.478959 -0.265467 -0.307152 0.257589 0.0800131 -0.0933833 -0.369045 0.21184 -0.0905885 -0.177022 -0.830177 -0.126399 0.143801 -0.234296 0.48464 -0.143113 -0.570186 0.0318779 -0.176627 -0.0173743 0.229674 0.0107481 0.129914 -0.36141 -0.343346 -0.0212277 
0.0860132 -0.149565 0.190019 0.177152 -0.452801 0.00214614 -0.134498 -0.462004 -0.0463577 0.127589 -0.210392 -0.758553 0.188359 -0.121207 -0.464007 0.112929 -0.00241929 -0.718743 0.429618 -0.0519771 -0.338474 0.727878 -0.361098 -0.241367 1.04293 0.673261 0.182157 0.386563 0.313408 -0.0784682 -0.0270088 0.500837 0.447712 -0.139335 -0.491579 -0.404606 0.205836 -0.3165 -0.045313 -0.114021 0.292786 0.0390306 -0.057958 -0.2759 -0.0552245 -0.400632 -0.42696 0.341318 0.190857 0.593411 0.413817 -0.553846 -1.16579 0.753594 0.148001 -0.013191 0.480628 -0.0670786 0.595364 0.517145 
0.125513 -0.32736 -0.018893 0.090024 0.344214 0.374768 -0.490316 -0.45183 -0.297658 -0.154728 0.495505 -0.118657 0.32953 0.498661 0.0171206 -0.0542354 0.785886 0.250628 -0.267906 -0.0270899 -0.484519 0.315597 0.332688 0.218253 -0.344172 0.20736 -0.59111 -0.310631 -0.0986942 -0.0390753 -0.742781 -0.0686517 0.284466 -0.212536 -0.0758759 0.176533 0.025099 0.0450097 0.363678 0.235573 0.405795 -0.48709 0.346373 0.404292 0.100798 -0.368624 -0.240409 -0.111587 0.136558 0.125879 -0.17505 0.0617588 0.0574633 0.0439673 -0.0482828 0.27843 -0.274966 0.575622 -0.682528 -0.0303034 
0.159713 -0.164549 0.263449 -0.273894 0.105169 0.199091 -0.200052 -0.455608 0.136146 0.310411 0.822077 0.259269 -0.197787 -0.0419119 -0.333851 -0.0450695 0.0164253 -0.873667 -0.218247 -0.179439 0.0846455 0.0557631 -0.181517 0.623815 -0.216388 -0.126977 -0.169409 0.222606 -0.389794 -0.161391 0.00399126 0.44386 0.0520356 0.70639 -0.506955 -0.32096 -0.0681248 -0.360897 0.552561 -0.301068 0.164356 -0.0286759 -0.53322 0.0794462 0.30137 -0.00864298 0.549834 -0.393669 -0.384475 -0.0480431 0.189291 -0.115532 0.21938 -0.235183 -0.0217141 0.365727 -0.500732 0.378301 -0.563111 -0.196947 
-0.150792 0.327185 -0.0831197 -0.0473057 -0.396395 0.233894 -0.106384 0.319521 0.0337277 -0.44798 0.397965 0.214872 0.323314 -0.407365 0.396468 0.535547 -0.272016 -0.305086 0.0876998 -0.492703 0.430991 -0.155964 -1.13546 0.406643 0.400124 -0.223484 -0.300223 0.36193 -0.541687 0.0508677 0.337074 0.263656 -0.077456 0.338995 -0.240275 0.183402 0.0859837 -0.241175 0.223934 0.617677 -0.170428 -0.0385445 0.346126 -0.169802 -0.136368 -0.281341 0.224356 0.267722 0.0376265 0.181653 -0.661267 -0.423755 0.962471 0.815289 -0.399999 -0.268394 -0.212983 -0.0188741 -0.379957 -0.324124 
-0.074917 -0.105939 0.459418 -0.3769 -0.413677 0.603389 0.68722 0.0623213 -0.217343 -0.137884 0.422876 -0.31864 -0.0375105 0.0484058 0.135893 0.236357 -0.0705773 -0.570245 -0.0844251 -0.0571015 0.533536 0.351301 -0.258224 -1.25776 0.334464 -0.241428 0.400201 0.184148 -0.311928 0.307465 0.728333 0.00352603 0.0512024 0.605394 -0.00226569 0.815923 0.0994171 -0.230956 -0.445644 0.0614128 0.00844103 -0.606601 0.287865 0.287627 0.10396 -0.213887 -0.239654 -0.543386 -0.358642 0.976902 -0.349478 0.167224 0.136721 0.525933 -0.326109 0.526782 0.102165 0.191101 -0.0583401 0.100069 
-0.288586 -0.28704 0.760234 0.397263 -0.0435181 -0.193074 0.114795 0.402019 0.219149 0.228359 0.0553943 0.103114 -0.745767 -0.222253 0.63718 -0.167254 -0.259785 0.152234 -0.416283 -0.36031 0.299751 0.207919 -0.283337 0.578099 -0.201764 0.25637 0.0664863 0.238199 -0.0674818 -0.217693 0.361795 -0.425269 -0.314096 0.412448 -0.147083 -0.0639636 -0.304713 -0.181796 0.290238 0.205558 0.096177 0.306923 0.180099 0.243963 0.116418 0.287548 -0.0174414 0.037243 -0.147002 -0.357098 -0.49887 -0.589752 0.100521 0.466447 -0.0708816 -0.202748 0.288504 0.337292 -0.0113443 -0.313773 
0.381754 0.136515 -0.387629 0.0861555 0.605775 -0.0588572 -0.282067 0.333359 -0.360594 -0.521432 0.0447984 -0.247617 -0.490395 -0.0628575 -0.275352 -0.230729 0.184868 0.0451917 -0.325634 -0.0332748 -0.175886 0.205355 0.135122 0.344605 -0.277303 -0.0623945 -0.287223 0.200969 0.18467 -0.309664 -0.489834 -0.425515 0.105503 -0.214149 -0.626714 0.227566 -0.806498 -0.53732 -0.362196 -0.475769 -0.404088 0.611664 -0.170422 0.145604 -0.321022 0.265704 -0.277404 -0.247251 0.0715568 0.0370698 0.287812 0.0838904 0.245798 0.161015 -0.11995 -0.0673517 -0.657432 0.497652 0.665315 0.321397 
-0.0206102 -0.595856 0.00543572 0.0895204 -0.0760685 0.0536917 -0.572286 0.264708 0.421182 0.45443 -0.292129 0.511295 0.0719519 0.105591 0.21142 0.197296 -0.256972 0.454313 -0.160016 0.35265 0.716645 -0.266997 -0.145553 0.130252 -0.191256 -0.45358 -0.0170006 -0.207649 -0.446068 0.286421 0.208587 0.0672849 0.0485826 0.266075 -0.0200539 0.229607 -0.72332 0.343533 0.0766268 0.353916 -0.446956 -0.315198 -0.073199 -0.0257304 0.747215 0.0954272 0.274167 -0.154158 -0.215914 -0.507749 -0.133255 -0.205064 -0.320375 0.203671 -0.420502 0.447158 0.24243 0.0865166 0.0242249 0.00650757 
-0.370442 -0.155338 0.246196 0.357284 -0.0429371 -0.339114 -0.0408998 -0.36665 0.340892 0.163001 -0.225659 -1.06153 0.0567172 0.154089 0.541569 0.223528 -0.310144 0.035392 -0.214933 0.0520455 -0.220106 0.267958 -0.0114898 0.522356 -0.431788 -0.0755769 -0.426873 -0.303822 0.00360223 0.222004 0.00859177 -0.373111 0.50988 -0.708637 -0.0833751 0.105223 0.653377 -0.674542 -0.0155074 -0.424662 -0.800259 -0.98319 0.0542003 0.00780457 -0.0710461 -0.117433 0.612778 -0.451259 -0.230939 -0.12685 0.213077 0.129104 -0.389585 0.27569 -0.343821 0.00241145 0.47038 -0.23591 -0.0772124 0.504284 
-0.259572 -0.227687 0.426831 -0.759264 0.475781 0.15982 0.424258 -0.0303166 0.680186 -0.0214583 -0.32696 -0.116623 -0.829581 0.235023 -0.208858 -0.30442 -0.499219 -0.0396349 0.556244 -0.0036583 0.421961 0.337237 0.00963935 -0.461055 -0.0142528 -0.122102 0.220013 0.143229 -0.0940841 0.196318 -0.61746 -0.265655 -0.241048 -0.597173 0.44 0.0696942 0.0605209 0.396729 0.337316 0.278847 -0.473638 -0.224755 -0.10585 -0.233312 0.402027 -0.181167 -0.166032 -0.645192 -0.0613688 -0.127917 -0.152089 -0.182459 -0.846801 -0.0117028 -0.120224 -0.718916 -0.118836 0.0370576 0.0694013 0.341926 
0.120981 -0.41471 -0.380334 0.655319 -0.269444 -0.504818 -0.133349 0.0778981 0.536868 0.356966 0.501322 0.879125 0.638765 0.43185 0.100543 0.184032 -0.589172 -0.390477 0.252034 0.217663 -0.163713 -0.277345 -0.278815 0.210692 0.0808806 0.37731 -0.175957 -0.382634 0.250279 -0.202211 0.66419 -0.641282 0.229431 -0.168669 0.271504 0.016677 0.376457 -0.252881 -0.189785 0.333419 0.48875 -0.0134736 -0.584329 -0.797957 -0.179918 -0.554986 0.122308 0.291384 -0.177042 0.165216 -0.32967 0.0682173 0.00364882 0.852701 0.0200749 -0.259753 0.634326 0.000918495 -0.397059 0.083195 
-0.462047 0.51415 0.18533 0.303501 0.180549 -0.230721 -0.0880302 0.197806 -0.424394 -0.295295 0.177812 0.174676 -0.176176 0.529558 0.28686 0.162267 -0.204074 -0.0901237 0.0114147 0.125991 0.154172 0.186372 -0.201202 0.277612 0.320417 0.188139 0.0747899 -0.468393 0.0686497 -0.444057 -0.528137 0.255336 0.362336 -0.677176 0.167383 -0.0197924 -0.454776 -0.100723 -0.370469 -0.131946 0.491775 0.89254 0.180266 -0.266742 0.266918 -0.172642 -0.16179 0.518401 -0.327032 -0.184463 0.200769 0.159978 0.347529 -0.0276979 0.309333 0.077615 -0.327891 -0.0313821 0.521149 -0.4829 
0.119552 0.419572 -0.253553 -0.634363 0.593491 -0.0402492 0.0536344 -0.535482 -0.111048 0.268642 -0.374627 -0.513814 0.183343 0.157184 -0.598154 -0.0187061 0.00225514 0.0737217 0.0300693 -0.255882 0.463805 -0.641971 0.313178 0.335734 -0.266554 -0.179248 -0.0494346 0.506032 -0.652742 0.10137 -0.0185198 0.805771 -0.273483 0.300058 -0.631718 -0.184064 0.333068 -0.313653 0.0595106 0.281402 -0.139497 0.443034 -0.654242 0.326875 -0.49454 -0.11169 -0.310549 -0.0943902 0.892322 -0.328513 0.221127 -0.109838 0.0192764 0.29026 0.0481379 -0.0247909 -0.251324 -0.166027 -0.150998 0.199217 
0.331939 -0.35121 -0.271922 0.390522 0.0396308 0.592772 0.111285 0.281375 0.191352 0.214187 0.109684 0.00324447 -0.347142 0.203198 0.245706 0.427825 -0.294364 -0.496954 -0.0308457 0.582341 -0.432425 -0.214711 -0.505621 0.264883 -0.312857 -0.0040657 -0.5477 -0.478819 -0.348099 0.235757 -0.553424 0.250922 0.115377 -0.0879855 0.147238 -0.591874 0.185902 -0.655274 -0.0587392 0.115792 0.104865 0.147966 -0.215037 -0.0795671 -0.00393769 0.762345 -0.112571 -0.0956084 0.00799981 0.0882698 0.5857 0.0191885 0.750921 0.531207 -0.337011 -0.440039 -0.119214 -0.0100145 -0.205918 0.207344 
-0.604877 -0.035858 -0.567699 0.0081281 -0.408158 -0.216841 -0.804823 -0.0885034 0.224691 -0.744067 0.128696 0.208011 -0.0817518 0.241552 0.31983 -0.122512 -0.288305 -0.654309 -0.00341965 -0.567342 0.305629 0.267223 0.654859 0.19297 0.242362 0.206084 -0.0977807 -0.116086 0.160135 -0.19557 0.303217 0.33223 -0.383975 -0.427655 0.199485 -0.3014 0.400518 0.324523 0.11485 -0.198921 -0.458299 0.190424 -0.0530431 -0.125395 0.237258 0.800005 0.938224 -0.350791 -0.0565467 0.488727 0.150607 -0.120467 -0.161231 -0.389566 -0.262725 0.323423 -0.0756843 -0.0777078 -0.0782977 -0.177603 
0.417074 -0.201669 -0.199466 0.177085 -0.0496654 -0.0461999 0.197054 -0.520594 0.392933 -0.262517 -0.279112 0.356477 0.155747 -0.0457877 0.0887559 -0.0456223 0.474442 -0.792596 0.324355 -1.00439 0.586678 0.264327 0.0326486 0.0742057 0.0142415 0.0367351 0.20325 -0.127834 -0.339637 -0.100382 -0.529273 -0.383364 -0.323671 -0.219424 0.124674 0.331709 0.0875241 0.163525 -0.0953223 0.25231 -0.140814 -0.532454 0.119227 -0.194271 0.0529419 -0.389905 -0.523422 0.163373 -0.560628 -0.287947 -0.0190856 0.756728 -0.145513 0.412351 -0.0324828 0.686095 -0.118628 0.197819 -0.00273406 0.410925 
0.402791 0.673182 -0.159477 0.027458 -0.218483 -0.24008 0.0207926 0.491159 0.386975 -0.131334 0.0290868 -0.322915 -0.00381795 0.165279 -0.484554 0.0819896 0.128223 0.0912945 -0.131374 -0.529889 -0.0841247 0.23157 0.167693 0.683384 0.431246 -0.146891 0.434125 -0.291646 -0.418973 -0.319407 0.326356 0.17972 -0.456579 0.0705475 0.544389 -0.0857584 -0.130898 -0.0202001 -0.592612 0.223304 0.51851 -0.0925048 -0.298769 -0.513973 0.108002 -0.0781279 0.706118 0.0461011 -0.0661934 0.554126 -0.0110038 -0.0854644 -0.0146169 -0.801101 -0.100853 0.225382 0.164049 0.330295 -0.0407482 0.142092 
0.116488 0.0950027 -0.280139 0.505126 -0.169332 -0.561291 0.288943 0.333161 0.540138 0.133454 -0.220231 0.51535 -0.00392362 -0.0723257 -0.183232 0.411436 -0.145987 0.179925 0.0682802 0.0375732 0.0130484 -0.474634 0.0279053 -0.106856 0.339712 0.140948 -0.186544 0.0518694 -0.486273 -0.350235 -0.674495 0.277413 0.819872 0.368241 -0.543441 -0.665026 0.430909 -0.0236787 -0.0741297 -0.330593 0.445903 -0.464598 -0.271994 -0.366433 -0.207395 -0.0113507 -0.682771 -0.0394113 -0.220833 -0.217697 0.447929 -0.204413 0.336798 -0.00972376 -0.33314 0.0379377 -0.573482 0.0823018 -0.301456 -0.433467 
0.182064 -0.256198 0.0127207 -0.075835 0.172774 0.386077 -0.680768 -0.176913 -0.311863 0.948364 -0.351378 -0.14831 0.111788 0.0753555 -0.299899 -0.261824 0.00567118 0.216633 -0.206401 0.0187083 -0.359815 0.582062 -0.594224 -0.171226 -0.124617 -0.440883 0.487046 0.853032 -0.135051 0.0154746 0.663143 -0.57207 -0.129231 0.414052 -0.0475874 0.296209 0.230955 0.086653 0.822598 -0.414519 0.520872 -0.377692 -0.29975 0.309733 -0.0157905 -0.157253 0.844958 -0.834015 -0.234742 -0.0776657 0.264436 -0.242191 -0.400299 -0.0683969 0.663899 -0.469107 -0.354819 -0.16693 -0.56809 0.174889 
0.0451312 -0.0887263 0.158781 0.268275 -0.0493656 0.355541 0.463472 -0.145625 -0.666167 0.571308 -0.286464 -0.500484 -0.0510488 -0.458793 -0.121816 0.254305 0.288418 -0.347072 0.532819 0.196145 0.312663 0.300546 0.229183 -0.409053 0.251858 -0.426512 -0.0360817 0.536394 -0.136667 0.491536 -0.254606 0.129649 -0.00776738 -0.423758 0.813554 -0.426905 0.0554131 -0.156125 -0.0851252 -0.51231 -0.371588 -0.45907 -0.582184 0.13877 -0.104587 -0.295347 0.276698 -0.153841 -0.324374 0.452806 -0.283662 0.0207032 -0.32315 0.227703 0.202006 0.17318 0.377331 0.145839 -0.709248 0.359201 
-0.162533 -0.17112 -0.719631 -0.413479 -0.111694 -0.000572875 0.122673 0.558915 -0.0342815 -0.546426 0.220736 -0.286846 -0.160631 -0.78367 -0.475997 -0.145927 0.363461 -0.405453 0.472192 0.370695 0.282349 0.303038 -0.056933 0.035736 -0.122153 -0.129689 -0.11924 -0.673186 0.356139 -0.171711 -0.189644 -0.0426623 0.424742 0.0586179 0.737891 -0.403725 0.0672498 0.340824 0.216916 0.333977 0.150077 -0.310369 0.0863761 0.344296 0.214705 -0.331636 -0.0419992 0.0223299 0.484548 -0.389928 -0.28443 -0.495354 -0.377853 -0.247017 -0.0734559 0.109448 0.569791 0.106877 0.301688 -0.302142 
-0.350805 -0.428389 0.279356 -0.215635 -0.257811 0.588453 -0.1866 0.113239 -0.3607 0.265818 0.1676 0.357492 0.140354 0.0998014 -0.610333 0.175851 0.547946 0.0795687 0.425256 0.498733 -0.127484 -0.605028 -0.10016 -0.0988051 0.410063 -0.0072598 -0.333211 -0.335211 -0.0664108 -0.396509 -0.478825 -0.0838857 0.23865 -0.325363 0.174582 0.0404146 -0.0310843 -0.64654 -0.233115 0.285749 -0.153394 -0.884462 -0.331685 -0.282155 0.0389326 -0.164268 -0.561416 0.0117932 -0.367251 0.109142 -0.102832 -0.638509 -0.106581 0.0275024 0.131465 -0.113606 -0.0949554 -0.138468 0.109927 -0.0142378 
0.417208 0.150651 -0.0474246 0.22524 -0.546709 -0.433346 0.558232 -0.103739 0.0701248 0.0884925 -0.154163 -0.210815 0.506128 -0.149207 0.266611 -0.173817 -0.068184 0.169549 -0.0160414 0.0646836 -0.0377174 0.422688 -0.0445706 -0.403373 -0.0246059 0.190537 0.610191 -0.0172246 0.273726 -0.522295 0.114777 -0.000349462 0.590675 0.0360397 0.613696 0.270366 0.530883 0.5831 0.0856619 -0.362842 -0.027441 0.0203347 -0.127915 -0.561841 -0.216126 -0.264923 0.118745 0.384317 -0.0776676 0.711011 0.200301 0.460103 0.402897 -0.205885 0.123152 0.430531 0.122312 0.11116 -0.026079 -1.10716 
-0.875313 -0.0176336 0.510259 -0.257634 0.222073 -0.576742 0.00950389 0.0843233 -0.410974 -0.223563 -0.240768 -0.0660787 -0.25465 0.395016 0.889263 -0.157789 -0.0935139 -0.717847 -0.552935 -0.55087 0.180303 -0.105252 0.463251 -0.111564 -0.557107 0.385016 0.557736 -0.216533 -0.254457 -0.488145 0.00419688 0.0669845 -0.62437 0.474857 0.543176 0.135332 -0.446264 -0.248729 0.348341 -0.257858 -0.535817 0.000417588 -0.0968314 0.0673368 -0.210512 0.0686538 0.213094 -0.0876024 -0.225949 0.53377 0.409801 0.0136242 0.27636 -0.395535 -0.0102582 0.0107754 0.20833 -0.105773 -0.338409 -0.291343 
0.0336254 -0.304879 1.07581 -0.384976 -0.51353 -0.0761689 -0.514926 -0.328257 -0.688229 0.567476 0.336244 0.147419 0.40058 -0.0332663 -0.0116978 -0.460857 0.426606 0.287684 0.239893 0.230027 -0.276121 0.204683 -0.769291 -0.487559 0.270726 0.578643 -0.242605 0.208815 -0.418895 -0.202426 -0.233378 -0.608587 -0.167221 -0.273701 -0.163703 0.305237 0.103858 0.0571574 0.0539369 0.230558 0.16092 -0.459422 -0.0970551 -0.0964856 -0.0525707 -0.175684 -0.631833 -0.815791 0.518763 0.350149 0.0386985 -0.168154 -0.37146 0.281931 0.48867 -0.0122828 -0.587717 0.18972 -0.406426 -0.315623 
0.0105343 -0.738273 -0.168054 -0.874502 0.148059 0.17293 0.374211 -0.259481 -0.167403 -0.495432 0.0255861 0.0951013 0.0809694 0.381935 -0.161245 -0.237391 -0.150418 -0.148565 -0.381542 0.374007 0.34885 0.299938 -0.27581 0.200314 -0.044647 -0.514777 -0.274541 -0.230252 0.133199 -0.301574 -0.0568487 -0.357726 -0.405108 0.609628 0.245407 -0.147711 -0.388834 -0.280795 -0.22266 0.301738 -0.104823 -0.157928 0.474832 0.0826937 -0.260815 -0.327293 -0.467512 -0.282041 0.604126 -0.305129 0.153187 -0.0464932 0.500316 0.364138 0.480282 0.52115 0.0237031 -0.150402 -0.631095 0.343028 
0.11628 -0.0864927 -0.482489 0.160915 -0.367475 0.135567 -0.00827404 0.45934 0.176705 0.478103 0.387824 0.337447 0.56004 -0.171544 -0.161465 0.400192 -0.259162 -0.348947 -0.873541 -0.330567 0.0290716 -0.3291 -0.735718 -0.460678 0.352922 -0.703111 -0.0390757 0.425805 -0.0874534 0.072215 -0.462011 -0.247114 0.111175 0.0287505 0.815025 -0.000900843 -0.106468 -0.571771 -0.137444 0.031314 -0.185804 0.245609 0.0318742 -0.437667 -0.218305 0.291625 0.485695 0.127688 -0.357534 0.0719505 0.233666 -0.217408 -0.788263 -0.123471 -0.106979 0.126801 -0.413792 0.0541786 -0.0862036 -0.355243 
-0.143101 0.226935 -0.0331337 0.363552 0.178087 -0.183289 -0.0303167 0.0448573 0.111639 0.560388 -0.0610016 -0.772761 0.267375 0.246077 0.32213 0.222272 0.0374031 -0.288239 0.183111 -0.0562887 0.0598779 -0.0856918 -0.166582 0.570844 -0.171678 0.18307 0.236845 -0.211639 0.158293 -0.321076 -0.553767 -0.649623 0.483107 -0.257102 0.430679 -0.105819 -0.32569 0.163611 0.436772 -0.621368 -0.36937 0.344726 0.0629273 -0.0390966 -0.118491 -0.0830455 -0.158427 -0.349363 0.0150391 0.556416 -0.254831 -0.0258872 0.0551092 -0.517452 0.0768749 0.305276 -0.279499 -0.15128 -0.77186 -0.295985 
-0.332751 0.411627 -0.259261 0.0860446 0.128158 0.252184 -0.360275 -0.00720992 -0.300041 0.437555 -0.174063 0.13809 -0.175657 -0.371169 -0.214528 -0.436805 0.489085 -0.10463 -0.376662 -0.126385 -0.909586 0.0529919 -0.163005 -0.198595 -0.193996 -0.0668149 -0.113331 -0.483886 0.16694 0.907865 -0.665678 -0.0110727 -0.496878 0.422088 -0.12649 0.282852 -0.107031 -0.0759216 0.0306566 -0.470681 0.458978 -0.10184 0.504895 0.537695 -0.194108 -0.306777 0.25892 -0.866906 -0.0664785 -0.415304 -0.236808 -0.612887 -0.485335 -0.19748 -0.107313 -0.236463 -0.122581 -0.173328 -0.797864 0.517752 
-0.42861 0.0529799 0.756348 -0.524749 0.0399938 -0.223832 0.30894 -0.62753 -0.422613 0.196606 -0.283009 0.271032 0.261003 0.164968 -0.123298 0.231576 -0.608418 0.254641 -0.261135 -0.0447987 -0.475091 -0.617439 -0.155776 0.272076 0.447696 -0.00650936 0.459145 0.152731 -0.0175659 0.861631 -0.0534622 0.0579552 -0.000782838 -0.992969 0.428801 0.304102 -0.0450237 0.0728411 0.146059 -0.0660186 -0.0953336 0.423406 0.120575 0.409061 -0.501338 -0.398657 -0.364932 -0.128844 -0.0915069 -1.096 0.105918 0.571465 0.0078187 -0.145625 0.226552 0.32883 0.127026 -0.079136 0.291776 0.189468 
0.215363 0.43818 0.00439948 -0.024807 -0.147719 0.485989 -0.0372656 0.512161 -0.0839912 0.0593476 -0.151098 0.0721632 -0.329163 0.909046 -0.0694407 -0.236603 -0.0826789 -0.149063 0.146901 -0.556001 -0.129573 0.313016 -0.0148973 0.511823 -0.103868 -0.692073 -0.137967 0.443274 -0.566868 0.30082 0.181443 0.261805 -1.00058 0.0387553 0.270402 -0.0401897 0.27709 -0.821724 0.134793 -0.311235 -0.685253 0.568358 -0.834996 0.0689578 0.222493 -0.0833709 0.429568 -0.258282 0.138197 0.419757 0.00661599 -0.096855 0.130423 0.0228072 0.277173 0.525898 0.301157 0.0981301 0.450972 0.35493 
-0.448004 0.364371 -0.408772 0.220548 0.0495501 0.163403 -0.0719273 0.0839015 -0.558806 -0.345184 -0.0974885 -0.503143 0.238878 -0.262893 0.277802 -0.11506 0.0323533 -0.0607594 0.303184 -0.5353 -0.287839 -0.450948 -0.209744 0.387518 -0.14452 -0.177132 -0.179727 -0.0347762 0.16007 -0.616893 -0.18594 -0.0801299 0.263456 -0.0403425 -0.0025947 -0.0682538 -0.103696 -0.279102 -0.116301 -0.0412737 -0.0820224 0.214433 0.30244 -0.589757 -0.620263 0.227765 -0.131929 0.285866 0.427647 -0.229348 -0.373191 -0.402747 0.325631 0.565249 -0.266068 -0.0844292 0.201465 -0.638938 0.239945 -0.264269 
0.0132887 0.00225839 0.429015 -0.379406 -0.210303 0.062843 -0.201314 0.369057 0.383653 -0.197538 -0.210082 0.159664 0.0673538 -0.21794 0.088466 0.209675 -0.42183 -0.525548 0.464682 -0.138884 0.0661901 0.0117339 0.396668 -0.336559 0.415115 -0.392633 -0.0756378 -0.0297236 -0.104203 -0.00586569 -0.145308 0.214055 -0.315514 0.578244 -0.600383 -0.154948 -0.0869629 0.242389 -0.32272 -0.233932 0.114937 0.0823122 -0.251028 -0.386905 -0.284222 -0.744008 -0.431795 0.187769 -0.0635725 0.212731 0.379963 0.33098 -0.391666 0.146752 0.592903 0.2291 0.351067 0.413884 -0.264017 -0.178646 
0.146863 0.388934 -0.15498 -0.582253 0.0741214 -0.26868 0.00235626 -0.0349551 -0.00710379 0.22708 -0.414848 0.324456 -0.242716 0.509581 -0.431088 -0.522705 0.12791 -0.182952 0.132116 -0.308825 -0.0155393 0.383431 0.440107 -0.575019 0.163796 0.0244537 0.657299 -0.49728 -0.0479212 0.233633 -0.162173 -0.0208714 0.321311 0.0842002 0.0808516 0.1089 -0.289841 -0.784033 -0.0798613 0.0141003 0.192851 -0.881338 0.846529 -0.63715 -0.319293 0.0109937 0.0155403 -0.24768 0.476011 -0.549171 -0.334918 -0.358562 0.397149 0.129121 0.261864 -0.0768343 -0.744763 0.57599 0.367516 0.489819 
-0.115193 0.54684 -0.325839 -0.0418355 -0.233135 0.523334 -0.200437 0.326117 0.705184 0.509232 0.718381 0.0487066 -0.2408 -0.162447 0.0713514 0.250733 -0.336921 0.414685 0.431826 0.188028 -0.29062 -0.0251831 -0.281139 -0.333126 0.657921 0.332157 0.309331 -0.885191 -0.132563 -0.304325 -0.52475 0.26831 0.1459 -0.391572 0.587708 -0.543433 -0.0254708 -0.201767 0.332843 0.367076 0.324571 -0.785641 -0.621076 0.461754 -0.00285489 0.15242 -0.376632 0.317551 -0.237489 0.169572 0.388181 -0.664594 -0.0376205 -0.358883 -0.122098 -0.288122 0.829506 -0.224865 -0.454915 0.286883 
0.128081 -0.285767 -0.162451 -0.0807536 -0.260828 -0.22084 -0.151179 0.056973 0.560857 0.14278 0.0967664 -0.231575 -0.191662 0.472748 0.239781 -0.0246348 0.0837787 0.354057 -0.168195 0.257362 -0.0640417 -0.117363 -0.119002 -0.0298612 0.0281148 0.0359105 0.0599531 0.241702 -0.315539 -0.241564 0.0103308 0.0722487 0.0201648 -0.475286 -0.0816643 0.655835 0.122481 -0.319675 0.263158 -0.674609 -0.119624 -0.057908 0.915525 -0.0564202 0.258888 -0.18232 -0.264881 0.522558 -0.237718 -0.328207 -0.160036 -0.227907 -0.0353465 0.19106 -0.106519 -0.326116 -0.0843334 0.550739 -0.566199 -0.703122 
0.462372 -0.811322 0.196501 -0.189288 0.255308 -0.0809068 0.365546 0.759357 -0.102283 -0.455119 0.376904 0.10261 -0.450158 0.16562 0.00301462 0.727361 -0.110435 0.801895 -0.163883 -0.0228157 0.0571322 0.143504 -0.0183257 -0.0784947 -0.430293 0.871456 -0.0340452 -0.287481 -0.308118 -0.382941 -0.165612 -0.536081 -0.51425 0.0346169 -0.0662829 -0.102023 -0.351342 0.769012 0.0693537 0.236203 0.481554 -0.344434 -0.172573 -0.0193262 -0.244658 0.12438 -0.338026 -0.120184 0.603334 0.738602 0.282799 0.0264667 0.247968 -0.273964 0.383621 0.0687372 -0.587354 -0.463091 -0.28056 0.323494 
0.394588 0.36862 0.324291 -0.00871307 -0.364719 -0.221678 -0.173113 -0.131277 -0.763746 -0.306306 0.0115232 -0.461618 0.0883979 0.20887 0.0860062 0.0828302 0.309162 0.0503762 0.728218 -0.527516 0.0245464 -0.0702406 0.333573 0.65344 0.708306 -0.293783 -0.0456669 0.126128 0.0188122 -0.522683 0.21997 -0.287547 0.928847 -0.135772 -0.291888 -0.531577 0.398825 -0.183285 0.356057 0.0388402 -0.234273 -0.0819275 0.2767 -0.250833 0.403764 -0.531525 0.0123925 0.0402557 -0.515918 -0.451002 -0.104087 -0.262984 0.194814 -0.159605 -0.430577 -0.616561 0.0734731 -0.257428 -0.122701 0.705387 
0.104715 0.291197 -0.140893 -0.32416 0.212797 0.305237 -0.161006 0.232854 0.440058 -0.284309 0.147508 -0.0135333 0.30655 0.262314 -0.40687 0.90493 0.124278 -0.423026 -0.549839 -0.228116 -0.0452923 -0.084566 0.485369 1.08448 -0.245646 0.575152 -0.332357 -0.106572 -0.667522 0.0424265 0.189378 0.00992768 -0.134881 0.30699 0.0792561 0.0405845 0.614999 0.199458 -0.46319 0.234434 -0.214123 -0.106578 0.146597 -0.209293 0.243792 -0.570252 -0.0980712 -0.661862 -0.246791 -0.142029 0.209806 0.510069 -0.0817598 0.317346 0.48397 -0.0417702 -0.37907 0.257507 -0.787702 -0.566268 
-0.148769 0.107567 0.664147 0.433581 0.135289 0.156618 -0.221323 -0.130915 0.542281 -0.542765 0.0886175 -0.0170174 -0.279046 0.276 -0.491376 -0.034399 -0.366899 -0.140543 0.260963 -0.574643 0.156291 -0.197919 -0.478449 0.120134 0.1944 0.325194 -0.533453 0.232165 0.410279 0.395401 0.000894223 0.037762 -0.327442 -0.66438 0.22695 -0.141265 0.278315 -0.157982 -0.164731 0.204959 -0.077129 -0.0338516 -0.0909719 -0.431341 -0.308092 1.42679 -0.477598 -0.547134 0.853309 0.631941 0.337378 0.0308938 0.364958 0.0360901 0.136501 0.432279 -0.183958 -0.513397 -0.0624644 0.570994 
-0.372238 -0.041498 -0.22382 0.437072 0.0615264 -0.275094 -0.134442 0.268836 -0.0532709 -0.113727 0.108873 0.706969 -0.023377 -0.372481 0.428649 -0.226741 0.558346 -0.708301 0.429089 -0.0381015 -0.0139981 0.0953007 0.237882 0.00620194 0.0334271 -0.232703 -0.458267 -0.313438 -0.23933 0.168546 0.197459 0.370067 -0.06969 -0.215837 0.115915 -0.357686 -0.469102 -0.499282 0.0208607 -0.0213918 -0.443883 -0.368017 0.0377698 0.403953 0.764052 -0.124241 0.257156 0.552243 0.0349606 0.0246602 0.530815 -0.412794 -0.00481948 -0.276161 -0.155152 0.638308 -0.202543 -0.19623 0.125136 -0.292041 
-0.38744 -0.259785 0.0398187 0.332567 0.778687 0.390797 0.0720529 -0.362288 -0.125569 -0.42014 -0.282223 0.0988528 0.0539363 0.835152 0.55027 -0.0483197 -0.37926 -0.603637 0.163566 -0.000567859 -0.125501 0.469063 0.319106 -0.025494 0.560094 0.366239 -0.227018 -0.140217 -0.317238 -0.152409 0.226917 0.182364 -0.42531 0.107647 -0.812099 -0.054328 -0.407985 0.129232 0.638503 0.0871127 0.387554 -0.00935583 -0.885172 0.0950815 0.122167 -0.13396 -0.00386457 0.0283588 0.672111 -0.411125 -0.0548604 -0.143831 0.412111 0.587525 0.289521 0.413115 0.0498218 -0.826287 0.0170192 0.252147 
0.0704193 0.0826033 0.132539 0.0242399 0.161711 0.375663 -0.290308 0.413021 0.382511 -0.0830149 0.400318 0.31812 -0.274592 -0.822603 0.365721 -0.0565565 0.302021 -0.20331 -0.202096 0.211848 -0.55168 0.408229 -0.00529436 -0.193075 0.604434 -0.0787343 -0.11729 0.275358 0.0107375 0.235344 0.364528 -0.0790846 -0.0439722 -0.257672 0.00703211 -0.031063 -0.042077 -0.104255 0.0266627 -0.228515 -0.129479 0.171662 -0.0169208 0.204948 0.538167 -0.0879181 -0.218243 -0.251503 0.049331 0.5168 -0.338348 -0.245149 0.150977 0.336227 -0.117363 -0.915572 0.304441 -0.130612 -0.316185 0.481153 
-0.422354 -0.446656 0.20147 -0.166479 -0.682336 -0.197549 -0.376805 -0.175611 -0.236913 0.0503504 0.0430087 0.218097 0.285985 0.0831732 -0.309539 0.03702 -0.542975 -0.242447 -0.131238 -0.0850049 -0.598414 0.789877 -0.00125771 0.330126 -0.131289 -0.103511 -0.0616742 0.365484 -0.326754 0.248624 -0.0175479 0.392746 -0.515284 0.375521 0.21387 -0.0365392 -0.0592044 0.0540982 0.526504 0.445011 0.215179 0.0376425 -0.352533 -0.425434 0.505702 0.403349 0.247394 -0.314479 0.533929 0.111072 -0.603269 -0.547081 -0.328607 -0.235719 -0.115105 0.475584 0.275507 -0.125793 -0.248607 0.310951 
-0.398143 -0.0547489 -0.262456 0.351628 0.132396 0.446539 0.165133 -0.243563 0.205953 -0.303522 0.0953801 -0.118213 0.393142 0.30361 0.422478 0.32556 -0.125144 0.939591 -0.094779 -0.203923 0.370177 -0.474232 0.578961 0.067757 0.344265 0.0954862 0.406483 -0.191322 0.290711 0.346491 0.558507 -0.196298 0.310626 0.499885 -0.0484747 0.167095 0.0994688 -0.137333 -0.0791774 0.273543 -0.359949 -0.327078 -0.0445807 0.0585719 -0.687236 -0.223811 -0.124973 0.436957 0.266837 0.190674 0.204948 -0.399742 -0.0206821 0.0597288 -0.712003 0.55685 -0.314573 -0.383207 -0.247359 0.403371 
0.355891 -0.34258 -0.111131 0.163512 -0.158192 0.388106 0.0465742 -0.489278 0.436804 0.423915 0.167845 0.354085 0.162227 -0.151918 -0.864394 -0.287059 0.339959 0.772738 0.314237 0.63333 -0.669652 0.652482 -0.225398 -0.285208 0.337941 0.0968132 0.520444 -0.393892 -0.108017 -0.0397045 -0.525374 0.633877 0.326677 0.0549229 -0.0677838 -0.312168 0.642523 -0.347318 0.581091 0.306349 -0.0600615 0.0907252 -0.696691 0.139046 0.439186 -0.129098 -0.528164 -0.560931 -0.174362 0.657079 -0.234657 0.691496 -0.108855 0.269039 -0.1697 0.184263 -0.356584 0.338815 -0.140806 -0.424177 
0.564516 -0.102604 0.796666 -0.0888149 0.41527 0.129382 0.0821206 -0.162683 -0.27606 0.093002 0.198586 -0.263204 -0.553354 0.185181 -0.390111 0.373708 -0.733559 0.557488 0.0737531 0.23825 0.0700936 -0.0808268 -0.32 0.176492 0.0654504 0.375126 -0.12985 0.240661 0.0568612 -0.0871967 0.0887195 0.230341 -0.133943 -0.804201 -0.742307 0.607956 0.372822 0.40221 0.207292 0.247435 0.0591652 0.26712 0.191216 0.358649 -0.0323766 -0.041272 -0.545219 0.0218497 -0.25531 0.309486 -0.089773 -0.376543 0.152233 -0.299228 -0.110729 0.0573128 0.103906 0.188296 -0.114596 -0.16474 
-0.54298 -0.543226 -0.0521377 0.364564 0.0471968 0.0892935 0.366272 0.0809773 -0.0218075 -0.225465 0.397401 -0.515565 0.208711 -0.176076 -0.1802 0.187944 0.0938708 0.11416 0.0828819 0.097789 -0.39582 -0.356954 -0.0884607 0.168409 -0.107906 -0.0708347 -0.325963 -0.308823 -0.261258 0.106047 -0.106465 0.581655 -0.08117 0.476915 0.155309 -0.327106 -0.54823 0.623553 -0.145213 0.490831 0.0509948 0.295923 -0.130648 0.301255 0.0452087 -0.287288 0.111592 0.408628 0.157927 -0.258913 -0.124495 0.166358 0.111448 0.181103 -0.0436123 0.178597 -0.25213 0.385084 -0.299424 -0.232379 
-0.509771 -0.241668 0.863445 0.322205 -0.227578 -0.414198 0.498212 0.221581 0.45743 0.21215 0.310805 0.179091 -0.84146 -0.0657952 0.333012 0.197107 0.683472 -0.0879073 -0.127528 -0.0511903 0.722226 0.540704 0.0412136 -0.200506 -0.779474 0.0606591 -0.943345 -0.359641 0.666985 -0.208101 0.0661874 -0.0208627 -0.216076 0.170197 0.232062 -0.0183186 0.54297 -0.408381 0.609634 -0.016559 0.0376448 -0.0666542 0.122182 0.360608 -0.0318492 -0.139066 0.728627 -0.0631532 -0.124772 -0.0624081 0.0507553 -0.0173263 0.351842 -0.186107 -0.464924 0.130548 0.101498 0.381523 0.0735353 -0.262472 
-0.505998 0.0236402 -0.320141 -0.569969 0.544569 0.150645 -0.0967919 0.0754233 -0.111406 -0.50492 0.0118893 -0.574427 -0.264664 0.568168 0.324421 0.517142 0.0678912 0.361031 0.330948 -0.173509 -0.169252 -0.0692318 -0.243665 0.489666 0.166126 -0.30211 -0.462997 -0.166188 0.770036 0.0347271 0.137832 0.00139152 -0.189158 0.0638021 -0.0991492 -0.294366 0.09252 -0.633795 0.390721 -0.4011 -0.119876 0.0797382 -0.23213 0.108661 -0.0894956 0.424734 0.00801228 0.195921 -0.767001 0.139728 0.0953631 0.12602 0.304476 0.362237 -0.763872 -0.0147742 0.507171 -0.612095 -0.445259 0.0385988 
-0.0532374 -0.0365592 0.104195 0.115339 0.474613 0.174657 0.792922 -0.429571 0.0378364 0.0751913 0.0380801 0.205137 0.319346 -0.441441 0.135788 -0.0294799 0.219758 0.0197906 -0.118089 -0.399766 -0.439572 0.088032 0.560719 -0.322601 -0.2202 0.0696327 0.0232092 -0.337447 0.446936 0.109729 0.27107 -0.140727 0.182519 -0.574157 -0.165675 -0.653799 -0.325848 -0.246115 0.339571 -0.0985549 0.508102 0.374605 -0.270069 0.172357 0.230332 -0.136551 -0.205408 0.326357 0.141614 0.559948 0.336197 0.0904734 -0.345185 -0.462541 -0.378998 0.119391 -0.157991 0.269905 0.626787 -0.28802 
-0.0952611 0.286438 -0.637984 0.218821 0.379679 -0.187117 -0.33715 -0.132498 -0.721019 -0.645865 -0.179138 0.00710655 -0.0525265 0.342688 0.11427 -0.229607 -0.209303 -0.154509 -0.782348 0.536104 -0.226677 0.0806798 -0.755277 0.0911614 0.196295 0.250183 -0.0327975 0.0509816 -0.0282219 1.14632 -0.178969 0.0446411 0.320893 -0.668488 0.13264 0.00180435 -0.173719 -0.0836434 0.384358 0.197711 -0.103128 -0.109743 -0.415177 0.534324 0.298066 -0.0306943 -0.309878 0.230341 -0.0934366 -0.218665 -0.358334 -0.199101 -0.386678 0.0296288 -0.297482 -0.0252988 0.488641 -0.0846307 0.208527 -0.2217 
-0.38387 0.528888 -0.441166 -0.271617 0.310503 0.621346 -0.162406 0.18653 -0.0337525 -0.13836 -0.050909 0.69035 -0.0166547 0.285733 0.229691 -0.367684 -0.00993649 -0.324948 0.114319 0.411632 0.280845 -0.0659227 0.287492 0.191582 -0.701608 0.0387204 -0.434707 0.0224036 0.158756 0.26617 0.15523 -0.0976302 0.452079 0.0150588 0.524494 -0.108541 0.0322904 0.1039 -0.328501 0.0806673 0.180888 0.0865159 -0.0707541 0.161879 -0.859384 0.350049 -0.0903902 0.220173 0.323276 0.262893 0.681404 -0.117883 0.003987 0.657763 0.632304 0.0808582 0.0383542 -0.0629421 -0.0678832 0.0659518 
0.697336 0.0896738 -0.110016 -0.178246 0.244955 -0.461355 0.380522 -0.58046 -0.437895 -0.0521173 0.00373613 0.0728531 0.248308 0.381706 0.215691 -0.139743 -0.0846178 0.598562 0.311099 -0.0519432 -0.708436 -0.298693 -0.254254 0.550313 0.330824 0.553341 0.130302 0.00784148 0.50847 -0.335145 -0.502362 0.188027 0.325487 -0.398035 -0.160336 0.361071 -0.441804 -0.293523 0.189106 0.3589 -0.186311 0.145018 -0.220674 0.299799 0.0668069 -0.103641 -0.125604 0.251421 0.0189457 -0.626946 0.0737302 0.0167974 -0.294193 -0.307776 0.750171 -0.390789 0.0336955 0.115729 0.309235 0.393437 
-0.0304138 0.145646 0.789202 0.467351 -0.396012 -0.249534 0.0359731 0.117252 -0.149409 0.811753 0.171058 0.153664 -0.425987 -0.184193 0.391233 -0.0101225 0.0521887 -0.057309 -0.178777 0.705894 -0.16649 -0.487986 0.450326 -0.090104 0.60408 0.140779 0.162664 0.0927285 -0.049016 0.0568861 -0.541392 -0.981027 -0.0620734 -0.392157 -0.0555653 -0.51163 0.0682345 -0.249033 -0.673256 -0.261965 -0.0112843 0.130817 0.0241828 -0.064419 -0.77963 0.210976 0.455922 -0.299874 0.0389455 -0.126689 0.454319 -0.533718 -0.665883 0.210181 0.167091 0.334877 0.740903 -0.560181 0.202962 0.0232084 
0.0870939 0.423311 0.0185699 -0.49667 -0.152826 0.133593 -0.243284 -0.278228 0.414187 0.00777935 0.717179 0.0484398 -0.402227 0.115665 -0.128459 -0.644703 -0.255399 0.162226 0.455757 0.0485437 -0.00634191 -0.0776623 -0.371322 -0.0684823 -0.647416 -0.102367 0.287001 -0.477621 0.117925 -0.214844 -0.239717 -0.296871 0.389626 0.569971 0.889728 -0.583762 0.387408 -0.101517 0.702321 0.020957 0.216587 -0.00810199 -0.212824 -0.131602 -0.104412 0.165002 -0.119702 -0.4703 -0.33692 0.462211 0.150187 0.0977559 -0.315666 0.291025 0.46833 -0.207587 0.172288 -0.684595 -0.123107 -0.640646 
0.0413051 0.00365237 0.431678 0.000705981 -0.204698 -0.508189 0.657813 -0.0168322 -0.657078 -0.698491 -0.494331 0.370028 0.0248233 -0.295446 -0.135399 0.273887 0.803947 -0.309611 -0.0118984 -0.423646 -0.343218 -0.554711 0.224428 0.0904704 0.629803 -0.451363 0.0138397 -0.454294 -0.139169 -0.115786 0.00481266 -0.313882 -0.0583758 -0.753154 0.369381 0.208634 0.130444 0.217283 -0.310684 0.11367 0.172811 -0.143865 0.110976 0.177712 -0.114453 -0.287813 0.696528 -0.0592837 0.0416496 -0.155874 -0.159726 -0.175129 0.533006 -0.118712 -0.300031 0.0716959 -0.0243192 0.401119 -0.111702 0.221398 
0.147037 -0.54127 0.259976 0.291976 0.0534002 -0.273172 0.158266 -0.381458 -0.573877 0.131381 -0.111071 0.547725 0.374131 0.493396 -0.213257 0.0152646 0.482971 -0.570711 0.444354 0.452302 0.182324 -0.208907 0.256624 -0.22548 0.0997637 -0.181567 0.214444 -0.0163153 -0.0607539 0.420139 -0.181427 0.285524 0.113522 0.0289652 0.240321 0.135861 -0.339025 -0.374653 0.0641884 -0.174594 -0.0176481 -0.0169713 0.125234 -0.144609 0.0705022 -0.420726 -0.0381334 -0.23167 -0.0777886 -0.165996 -0.0622172 -0.0186981 -0.131731 0.479948 -0.411396 0.0555544 -0.0510479 -0.200518 0.247838 0.272454 
-0.605896 -0.466755 0.0867461 0.471856 0.124685 0.401131 -0.207301 0.400725 0.697603 -0.0473888 0.22543 0.130457 0.109644 -0.172519 0.428755 -0.282718 -0.218543 -0.58769 0.687614 -0.137421 0.0471072 -0.437965 0.0275413 0.116941 -0.25635 -0.20162 -0.0964082 0.31883 0.430078 -0.246542 0.0739585 0.0973603 -0.0427616 0.449317 -0.202845 0.518899 0.0555872 -0.12321 0.329507 0.38749 0.0315347 -0.0267989 0.666501 0.251667 0.373383 0.244879 0.299187 0.034323 -0.172853 -0.0599077 -0.175994 -0.36839 -0.0884139 0.190015 0.519967 0.471803 -0.0743875 -0.160536 0.376816 -0.279645 
-0.356017 0.278423 -0.623091 0.281466 0.0284557 -0.147894 0.00304656 0.631747 0.221897 0.285821 0.268356 -0.0744651 -0.119295 -0.416396 -0.0692334 0.0840467 0.397515 0.0503868 -0.605184 -0.068346 -0.62378 0.0753276 -0.338324 0.203431 -0.533164 -0.347852 0.267013 -0.184397 -0.494755 0.453188 -0.137068 0.695046 -0.0548812 0.0602659 -0.515256 -0.116856 0.589472 -0.259834 0.105728 -0.202826 -0.31076 0.154124 0.205702 0.341781 -0.387004 0.137594 0.273698 -0.48775 -0.263858 0.278356 0.110707 0.172966 0.089826 0.157127 0.380015 0.186345 0.0940729 0.502008 -0.436266 0.041834 
-0.350025 0.380222 -0.379959 0.189678 -0.0978807 -0.453955 0.0332898 -0.0219839 -0.453188 -0.480994 0.178093 -0.914349 0.124002 -0.33729 -0.145674 0.721377 -0.140278 -0.18959 -0.0569035 0.0437077 0.198385 0.49037 -0.358382 -0.0391051 0.713478 0.283047 -0.255164 -0.544414 -0.234512 -0.126521 -0.21252 -0.328594 -0.866674 -0.135246 -0.0965922 0.160259 0.0371133 -0.225349 -0.430359 0.158412 0.36916 0.15827 0.182934 -0.203811 -0.205987 0.295512 0.135366 0.168117 -0.0348919 0.166322 -0.0107464 -0.396815 0.481232 -0.152294 0.151709 -0.642949 -0.370298 -0.259844 -0.109897 0.30983 
0.0593514 -0.106042 -0.487737 0.155488 -0.168584 -0.555198 0.0290692 0.505347 -0.378772 -0.600325 0.234824 0.14933 0.812973 0.236778 -0.59656 0.357886 -0.694515 0.151955 -0.0186887 0.755371 0.384927 0.419015 -0.567128 0.658859 -0.116207 -0.110059 -0.304723 0.566777 -0.146404 0.10967 0.327296 0.144624 0.313666 0.463921 0.500612 0.251609 0.294772 0.457446 -0.325747 0.150417 -0.643903 -0.462791 0.201901 -0.0868177 0.0553347 -0.00344224 -0.325699 -0.0191997 0.43725 -0.0538545 0.284415 -0.085808 0.013198 0.376989 -0.475996 -0.213655 0.0105853 -0.435928 -0.0158285 0.0449886 
0.155966 -0.249231 0.34344 -0.266652 -0.0140942 0.228013 0.293063 -0.121696 -0.208661 -0.336277 -0.0842759 -0.577223 -0.370844 -0.335359 0.161509 -0.399492 0.327749 -0.323121 0.313383 -0.460575 0.262871 0.0565597 0.341573 0.0722245 0.595887 0.576556 -0.487093 -0.378173 -0.0155235 0.397186 -0.0758251 -0.305611 -0.188136 0.221182 0.438552 -0.0316242 0.234681 0.519621 -0.257494 -0.470548 -0.124739 0.00293428 0.0658387 -0.469071 -0.399656 -0.131438 -0.0580531 0.324223 0.34905 0.18467 -0.486198 0.320301 0.273984 0.323973 -0.521033 0.117981 -0.526725 0.402334 -0.311625 -0.244545 
0.202863 0.242705 0.0217832 -0.319533 -0.00389189 -0.0394341 0.0927825 -0.138067 0.0257687 -0.099367 0.510565 0.245613 0.470188 0.120705 -0.130108 -0.158074 -0.724424 0.283316 -0.340423 -0.0043361 -0.396863 -0.280743 -0.0918375 0.361984 -0.129258 -0.449698 -0.17009 0.336093 0.0942404 0.234416 -0.37975 -0.389467 -0.42414 -0.706412 0.00568065 -0.31363 0.194002 0.271593 0.646209 -0.131335 -0.172272 -0.124691 0.0051116 0.106793 0.0242413 0.451075 -0.158277 -0.393001 0.430687 0.396743 0.512403 -0.035773 -0.000384121 0.151859 0.247916 0.183794 0.469511 0.26271 -0.399059 -0.433103 
#
-0.179662 -0.0804047 0.0553092 0.453592 0.342334 0.132949 -0.0755579 -0.00720793 -0.593904 0.567311 -0.0455597 0.165188 -0.317044 0.1257 0.105102 -0.0772654 -0.290675 0.268605 -0.532976 -0.156506 
0.317204 -0.169022 0.406117 0.0384214 -0.109386 -0.541628 -0.396875 -0.186705 0.0493802 -0.217628 0.163576 0.133093 -0.0820666 0.242842 -0.150932 0.0683854 -0.686377 0.293509 -0.43343 -0.500789 
-0.369279 0.104013 0.0928649 0.15768 -0.588576 -0.522528 -0.188771 -0.196867 -0.344567 0.36293 -0.125698 -0.418491 0.372833 0.0292402 0.0701345 0.0844648 0.00583665 0.589201 0.0461154 -0.18318 
-0.775403 0.15807 -0.238501 -0.0390738 -0.452611 0.812336 -0.49383 -0.0626455 -0.0195993 -0.247287 -0.0290177 -0.528337 0.298576 -0.183542 -1.02869 -0.63188 -0.708229 0.33931 -0.623377 -0.12853 
0.0829693 0.159797 -0.274372 -0.489507 0.139998 -0.240707 -0.157014 -0.124131 0.0569347 0.20128 0.0513228 -0.257699 -0.0871518 0.653628 -0.467451 -0.113373 0.370287 0.223934 0.241266 -0.454964 
-0.0104658 -0.914486 0.320145 0.375331 -0.493123 0.129002 -0.051105 -0.155765 0.150244 0.15988 0.120087 0.0175424 -0.661473 -0.445237 -0.013488 -0.194718 0.244221 0.0509999 0.655313 -0.398023 
-0.0511925 -0.239245 0.0323158 0.105427 -0.327621 -0.566079 -0.240242 -0.222332 -0.95579 0.125844 0.0829507 0.0850772 -0.306381 0.417101 -0.497667 -0.197078 -0.512849 0.138844 -0.0227943 -0.127344 
0.324489 0.122315 -0.560056 0.715368 -0.246798 0.32743 -0.34974 0.245325 0.164493 -0.448513 0.295981 -0.290657 -0.108931 -0.261263 0.34352 -0.192744 0.0929563 -0.298443 0.162812 -0.0175053 
-0.293231 0.246971 0.231951 0.206453 -0.319333 -0.577913 -0.292528 -0.156036 0.277888 -0.175074 0.403067 -0.131755 -0.299621 0.207681 -0.0474187 0.0742911 -0.16579 -0.131402 -0.131351 -0.377813 
0.23161 -0.377203 0.236511 -0.157342 -0.223255 0.0345484 -0.863623 0.113406 -0.388161 -0.17388 -0.0439307 0.00551413 -0.703313 -0.16905 -0.167713 -0.255062 0.579688 0.04771 -0.127551 0.018108 
-0.14754 0.0305616 0.433657 0.0360081 0.330163 0.0929161 0.309716 -0.897861 0.0112223 0.0756198 0.342704 -0.390318 -0.117789 -0.0741357 0.523348 -0.247972 -0.437729 0.49605 -0.259122 0.401611 
-0.0350883 -0.0893189 -0.235448 -0.31601 0.0929323 0.0635348 0.0671725 0.0200529 -0.185005 0.10208 0.422835 0.44847 -0.114208 0.109636 -0.609327 0.118354 -0.363592 0.628988 0.106038 0.619664 
-0.0603753 -0.25819 -0.194498 -0.181781 0.166789 0.219686 -0.318154 -0.315588 -0.684278 0.085384 -0.495153 0.0968345 0.165996 -0.417388 0.3659 -0.177431 -0.151339 0.382497 0.00390514 -0.119822 
-0.502402 0.184524 0.0352045 -0.200606 0.246279 0.036206 0.290278 0.125365 -0.209022 0.127576 0.362963 0.237587 0.178556 0.0349735 0.0611238 -0.155107 -0.300424 -0.28479 -0.220702 0.164469 
-0.272041 -0.137208 0.721725 -0.279045 -0.309525 -0.338337 0.126552 -0.296023 0.110187 -0.00848855 -0.251686 0.0113458 0.0170796 0.365579 0.219275 -0.127005 0.406934 -0.0524985 -0.042971 0.504303 
0.421978 0.245033 -0.205449 0.632894 0.194019 0.467922 0.0427835 -0.161193 -0.0849671 0.341788 -0.471532 -0.421499 -0.345916 -0.150403 0.498204 0.0610256 0.0592862 0.193228 -0.537099 -0.208884 
0.0591204 0.205061 -0.250431 -0.112267 -0.215718 -0.431202 -0.23828 -0.0346715 0.257597 0.0404722 -0.0486933 -0.339968 0.490723 0.241575 0.977709 0.3563 -0.643209 0.332824 -0.556192 -0.0455278 
-0.280852 0.0483468 0.389691 -0.0371013 0.158183 0.148857 -0.232049 0.284503 0.53661 0.124197 -0.148977 0.175349 -0.0922367 0.443661 -0.360959 0.0391196 -0.390718 -0.0135515 -0.102073 -0.101595 
0.104891 0.302327 0.0647888 0.155536 -0.123171 -0.303409 0.00723047 -0.399916 -0.609639 -0.801988 -0.113471 0.404748 0.0705794 0.0997571 -0.0634705 -0.111134 0.222451 -0.197365 -0.3539 -0.440059 
0.113216 -0.0245875 0.138546 0.191245 -0.0352077 0.458862 0.0460738 0.578858 -0.0343626 0.267838 -0.331947 0.164399 0.115147 -0.467949 0.46072 0.0236421 0.0744445 0.23336 -0.594521 0.451219 
0.0476952 0.204614 0.43444 -0.468667 -0.174171 0.242736 -0.384529 -0.0428257 0.00413711 0.360749 -0.108378 0.426187 0.588831 -0.429176 0.0378109 -0.311513 -0.276086 -0.0171583 -0.320015 0.549153 
0.0595958 -0.264429 -0.0599677 -0.150962 0.072835 0.539217 0.00384233 0.481375 0.0725522 -0.0537947 0.295264 -0.298134 -0.210276 0.1877 -0.342609 0.0210228 0.19324 -0.776022 0.0242931 -0.251821 
0.0987214 -0.101261 0.173143 -0.0755281 -0.646916 0.499757 0.112878 -0.147021 -0.559146 -0.0189998 -0.031368 -0.227604 -0.329585 0.0534123 0.0746254 -0.173555 -0.34294 0.507606 0.628163 0.640819 
0.5148 0.495044 -0.190468 -0.369022 -0.0349934 0.106566 -0.14334 -0.122462 0.0340894 -0.0611565 0.738404 -0.297394 0.0200321 -0.466844 -0.265033 -0.0399404 0.446106 -0.539132 0.167795 0.0575635 
0.614192 -0.148468 -0.0863633 -0.0533389 -0.440711 0.329184 -0.328922 -0.0776137 0.100369 -0.255784 0.1936 0.155782 0.34657 -0.0926232 0.604729 0.101742 -0.230483 0.183521 0.135777 -0.438475 
0.131577 0.49471 -0.0978053 -0.276401 -0.26324 0.312668 0.597829 -0.209409 -0.50939 -0.310013 -0.174392 -0.369611 0.796051 0.158406 -0.180946 0.0913599 0.220302 -0.283853 0.0601974 0.638748 
0.190394 -0.559649 -0.00290939 -0.441591 -0.196006 -0.0531075 -0.261945 -0.567061 0.287969 0.165627 0.0313302 0.199432 -0.0675566 -0.374649 0.233941 0.134678 -0.0879868 0.366207 -0.262894 0.163074 
-0.239592 0.38558 -0.219126 -0.724585 -0.217365 -0.213741 0.0223078 -0.300792 0.0253567 -0.290004 -0.0180835 0.190079 0.0620205 -0.00477514 0.0582422 -0.0897627 0.0295257 0.282313 -0.33525 0.755817 
0.393465 0.0229381 0.216697 0.00237508 0.523985 -0.103405 -0.694623 0.410782 -0.443312 -0.173983 0.235238 0.571739 -0.349267 -0.245138 0.169816 0.792118 -0.68652 0.210417 -0.754395 0.135823 
-0.383348 0.161475 0.173165 -0.533747 -0.364323 0.140136 -0.113146 -0.26325 0.265964 -0.387622 0.309151 0.0727964 0.523715 0.354535 -0.349934 -0.18012 0.198801 0.480397 -0.229727 0.14698 
-0.288247 -0.127458 -0.336772 0.930814 0.41098 -0.300517 0.745114 -0.0598067 0.315029 0.206638 0.311951 -0.230236 -0.0874098 -0.0428017 -0.401307 -0.0963908 -0.50124 -0.0470364 0.287597 0.629938 
-0.144525 -0.00341685 -0.162877 0.444691 0.0226082 -0.121598 0.314999 -0.18718 0.411518 -0.0157557 -0.158592 0.257181 0.0744533 -0.069481 0.840292 0.173151 0.512804 -0.0157382 -0.476928 -0.130274 
-0.29282 0.031519 -0.0241023 0.464124 -0.235231 0.445328 -0.288136 -0.491092 0.0785976 -0.243049 0.097283 -0.217799 -0.183817 0.312387 0.140119 0.336319 0.196529 0.361036 -0.08125 0.579814 
-0.271629 0.035047 0.20633 -0.355204 -0.249594 0.133244 0.573819 -0.34178 0.473511 0.841414 -0.648943 -0.44323 0.0178952 -0.212718 0.222267 0.196799 -0.10864 0.40312 -0.667907 -0.232741 
-0.380494 -0.437637 0.264988 -0.173294 0.108112 0.259618 0.258761 0.146276 -0.0354864 0.0232875 0.39018 0.127085 -0.651869 -0.597908 0.122667 0.185566 -0.0103421 -0.168681 -0.410826 0.333351 
0.185197 -0.0374246 0.305887 0.560312 0.075293 0.214905 0.286359 -0.102955 0.323611 -0.387402 -0.243986 -0.502676 -0.0377613 0.157347 -0.159885 0.137899 -0.257349 0.181217 -0.421519 -0.795178 
0.305081 0.412938 -0.769941 -0.102799 -0.489673 0.552503 -0.198373 0.504238 0.135918 -0.0836819 -0.803378 0.277459 0.129168 0.126614 0.180355 0.169351 -0.543305 0.800305 -0.209535 -0.689695 
0.335151 -0.186909 -0.35788 -0.370303 0.465327 0.647118 -0.0617629 -0.807234 -0.27505 -0.278368 -0.403977 -0.108257 -0.264456 -0.315483 -0.233968 -0.211773 -0.234721 0.438296 -0.302709 -0.687634 
-0.102941 -0.209392 -0.197684 0.128945 -0.20278 -0.153521 -0.289894 0.699416 -0.522367 -0.148878 -0.0429229 0.42213 -0.533943 0.04699 0.34373 -0.107268 0.132542 -0.0437713 -0.00186632 -0.0945906 
0.283274 0.149666 0.265154 0.270749 -0.386779 -0.116165 -0.715415 -0.35772 -0.375559 0.327635 0.241896 -0.306823 -0.180704 0.204748 -0.510859 -0.846585 0.122165 -0.118322 0.0712642 -0.145046 
-0.106699 -0.23761 -0.340505 0.0767022 -0.330679 -0.468481 0.0921153 0.263696 -0.0116372 -0.589641 -0.199164 0.303225 0.399043 0.0540891 -0.0540651 0.36838 0.0503227 0.319262 -0.23258 -0.253124 
0.313608 -0.332858 0.166989 0.307453 0.212512 -0.771955 -0.488092 0.550831 -0.350878 0.267601 0.150597 -0.925947 -0.418468 -0.593724 -0.174616 0.274324 -0.292184 -0.294662 -0.312814 -0.631066 
-0.19621 0.610371 0.0418241 -0.484242 0.0115144 -0.0027963 -0.166133 0.111467 -0.0593624 0.709332 -0.176691 0.53934 0.534801 0.176848 -0.376134 0.263807 -0.64434 0.0752116 -0.256328 -0.496591 
0.0617698 -0.352052 0.176369 0.0346204 0.437688 -0.148648 0.644505 -0.279862 0.0096161 -0.439 0.966372 -0.330386 -0.341952 0.301225 0.283921 -0.19615 0.2122 -0.00376909 -0.228198 0.766556 
0.540102 -0.313732 0.258717 0.72675 -0.175206 0.0263222 0.152105 -0.0280054 -0.254729 -0.0917691 -0.619151 0.205078 0.0992144 -0.219468 0.094579 -0.342248 -0.361975 -0.129978 -0.125755 0.36355 
0.0451132 -0.484573 0.102033 -0.256766 -0.382428 -0.516455 0.276627 0.75433 0.854811 -0.305031 0.0271343 0.639761 -0.242542 0.227887 -0.456145 0.168542 -0.438511 0.0570442 0.0910605 -0.0603786 
-0.214174 -0.11084 -0.694425 -0.393314 0.189428 -0.114602 0.386272 -0.433705 -0.026175 0.224553 0.380103 -0.303509 -0.0015098 0.459795 -0.485829 0.185665 0.224342 0.0180082 -0.48573 0.190366 
-0.394089 -0.314645 0.787031 0.311443 -0.0684424 0.426055 -0.153351 0.200789 0.0895845 -0.350975 -0.171333 -0.022299 0.00536275 -0.155417 0.161494 0.0408324 0.271461 0.102917 -0.245985 -0.266342 
-0.306669 -0.201206 -0.0444246 0.431835 -0.124407 0.0860713 -0.317374 -0.26976 0.657133 -0.603011 -0.208948 0.302839 -0.708127 0.383394 0.177012 0.657382 -0.183792 0.148708 -0.617926 -0.229717 
0.088653 -0.0586422 -0.0692805 -0.020845 0.454163 -0.294865 -0.217985 0.00582958 -0.174221 0.0316301 0.00763073 -0.0629822 0.332914 0.168318 -0.418901 -0.0713544 0.0316305 -0.123002 -0.330575 -0.248746 
-0.0889121 0.210826 0.301858 -0.169035 -0.143469 -0.0728642 -0.0428204 -0.47158 -0.449097 0.154419 -0.400455 0.708447 -0.256202 0.74494 -0.354066 -0.346206 -0.213355 0.332033 0.548014 0.207144 
-0.679891 -0.0499468 0.27215 0.0165445 -0.145546 -0.372627 -0.0365659 0.0452552 -0.197924 0.0543102 -0.536713 -0.10016 -0.3202 0.0393552 0.00330973 0.603862 -0.137345 0.178667 -0.22608 0.17695 
-0.133552 -0.342522 -0.28104 -0.559976 0.639336 0.167276 0.304882 -0.236748 0.137201 0.407428 -0.147441 -0.358281 -0.110742 -0.256393 0.303924 -0.0914311 -0.0265141 0.210594 -0.275022 0.372992 
0.304752 -0.41247 0.436221 0.473862 0.583589 0.237417 0.331763 0.343836 0.136326 -0.115889 0.650957 -0.21523 0.356682 -0.216212 -0.0994268 0.114171 0.0916541 -0.505845 0.463681 0.299484 
-0.323438 0.41263 0.140439 -0.00969854 0.324115 0.500309 -0.132078 0.511085 -0.438676 -0.286084 -1.2434 0.0748581 0.447757 -0.428142 -0.121306 0.0244672 0.068365 -0.186085 0.51961 -0.0210428 
-0.0950591 -0.399737 -0.0698489 -0.355001 -0.371708 -0.16276 -0.0363273 0.0331094 0.0301116 0.0484479 -0.463648 -0.482579 0.14381 0.647368 -0.0518256 -0.130419 0.311421 0.560249 0.0267115 -0.0899452 
-0.56548 0.00366401 0.00459427 0.0057537 0.375053 0.753912 -0.293829 -0.180024 0.368434 0.532154 -0.719514 0.247339 -0.0889352 0.475111 -0.153558 0.00746356 0.393895 -0.350672 0.425447 -0.0390061 
0.126305 -0.12005 0.0338707 -0.138648 0.100227 0.529898 0.0105008 -0.526812 -0.0763226 0.161377 -0.118089 0.316496 -0.279374 0.13745 0.0853644 -0.0206433 0.0931816 -0.517562 -0.380639 0.0152293 
0.0641923 -0.0482966 0.589116 -0.509191 0.032713 0.0270568 -0.194322 -0.554226 0.040982 -0.463901 0.602635 -0.0891084 -0.108024 -0.0232105 -0.332646 0.325343 -0.301898 -0.575171 -0.0999548 0.0904289 
0.282072 -0.31622 0.312267 -0.45854 0.509224 -0.131497 0.394348 -0.172802 -0.461143 -0.160883 -0.279611 0.369003 -0.286528 -0.230103 0.0446633 -0.0502014 0.0447556 0.354649 -0.0532192 -0.09701 
#
0.136204 
-0.0423319 
-0.625377 
-0.176904 
-0.166103 
0.225053 
-0.700404 
-0.164563 
-0.135987 
-0.399588 
-0.16759 
-0.147196 
0.414224 
0.0132486 
0.560106 
0.145911 
-0.292889 
0.0101914 
0.0419599 
-0.390533 
#
