-0.405893 -0.0435869 0.534612 -0.496609 0.140851 0.198587 -0.216569 -0.318511 0.190066 0.0738517 0.541128 0.159748 0.486928 0.424531 0.112239 0.360589 -0.456452 0.413023 -0.361174 -0.433817 -0.325299 -0.165725 -0.445735 -0.297995 -0.701708 -0.116428 0.0172339 -0.239259 -0.279638 0.305989 -0.221942 -0.408161 0.540297 0.335396 -0.0592351 0.299361 0.267128 0.1686 0.0134035 0.444305 -0.137104 -0.324714 -0.465002 -0.207047 0.550168 0.128752 -0.137945 0.196198 -0.0622388 -0.333832 -0.225582 0.2913 0.361974 -0.371177 -0.302649 0.744024 -0.0754788 -0.09968 0.579567 -0.693136 
0.247245 0.107321 0.356656 -0.703985 0.221469 0.395521 -0.211093 0.254144 0.260325 -0.0490009 0.196805 -0.408059 -0.0223715 -0.341314 0.444787 0.177407 0.116075 0.0506203 0.313466 0.221041 0.0278198 0.524652 0.126701 0.407046 0.379077 0.00962601 -0.0735798 -0.722463 0.170521 -0.100421 0.557356 0.425348 -0.493447 0.289199 0.411134 -0.251 -0.0537604 -0.686198 0.457206 0.0344342 -0.255236 -0.344548 0.0185343 0.617045 0.0800768 0.280853 -0.0820689 0.263569 0.441867 0.0966471 -0.628341 -0.272602 -0.55359 0.146871 -0.244546 0.308498 -0.468067 -0.0688088 -0.0376992 -0.096938 
0.307564 0.0968846 0.329315 0.114574 -0.478568 0.213005 0.316965 -0.233166 0.46639 0.292473 -0.272782 -0.00715923 -0.534727 0.42103 0.617109 0.0971493 -0.513791 -0.228897 -0.634783 -0.400883 -0.138006 -0.0883102 0.336774 0.284269 0.771445 -0.252928 -0.380781 0.093371 0.0506977 -0.60576 -0.106487 0.0130872 0.582054 -0.0615133 0.34777 0.373634 0.203189 0.421852 0.134634 -0.0595314 -0.331101 0.245661 0.734651 0.483539 0.165514 -0.366719 -0.0376803 -0.408678 0.0342945 -0.485292 1.02103 -0.82332 -0.0580634 -0.122116 -0.385015 0.151771 -0.333524 -0.321916 0.264521 0.364825 
-0.0957206 -0.314106 -0.674128 0.191958 -0.424571 -0.303045 -0.0673651 0.445053 0.678928 0.0712485 0.157518 -0.297536 -0.201267 -0.475735 0.536768 0.0664299 -0.375753 0.493632 0.0844471 0.297105 -0.156095 -0.120412 0.313879 -0.519522 -0.348179 -0.105175 -0.33882 -0.458305 0.263368 0.161061 -0.523893 -0.0576632 -0.0557325 0.119854 -0.175092 0.0197154 -0.136847 0.135167 -0.17276 -0.328684 0.689903 -0.468664 0.263633 0.276528 -0.113042 0.334624 -0.53449 0.127126 -0.669588 -0.327411 -0.133024 -0.662782 0.242989 0.557545 -0.0261859 -0.525991 -0.226656 0.328468 -0.455568 0.18943 
0.657868 0.135548 0.298183 -0.455399 -0.187002 -0.306644 -0.0897382 -0.326876 -0.555865 -0.490784 -0.04226 -0.660709 -0.011859 -0.203051 0.0582293 -0.747541 0.407109 0.443556 0.139291 0.268469 0.186481 0.112882 -0.0777305 -0.167156 0.0021957 0.25939 0.00728363 -0.55775 -0.249782 -0.0848584 -0.262532 -0.320976 -0.0387223 0.122824 -0.233802 0.100812 -0.0588401 0.315534 -0.501702 -0.0808888 -0.0294472 0.841867 0.409896 0.252528 0.153713 0.689368 0.0964896 -0.906934 0.462007 -0.346538 0.692218 0.230562 0.135919 0.299179 0.0789624 0.622582 -0.722712 0.31245 -0.190365 -0.395409 
0.275454 -0.502817 -0.172835 0.247287 -0.00638994 0.369498 0.269014 -0.111594 0.295949 -0.236759 0.483217 0.0183253 0.491361 0.192446 0.110808 -0.26964 -0.279026 -1.11684 -0.356283 0.159302 -0.457151 0.172404 0.124116 -0.0553839 -0.0688261 0.354463 0.0521508 0.316457 -0.114001 -0.303513 0.35309 0.00387863 -0.0155953 0.142352 -0.116167 0.362453 0.500393 -0.416874 -0.0589872 0.138711 -0.448123 0.36517 -0.0716097 -1.09896 0.145159 -0.497565 0.200198 -0.458358 -0.204947 0.689349 0.00133373 0.645118 -0.111689 0.398507 0.558328 -0.245037 0.0237071 0.221477 -0.202981 -0.146221 
-0.269144 0.151709 0.554505 -0.00157626 -0.833153 0.12007 0.0253585 0.612269 -0.701172 -0.237815 0.345448 0.14693 -0.311034 -0.499619 -0.351541 0.298941 -0.264337 -0.213017 -0.53934 0.330613 -0.198997 -0.314467 -0.267772 0.78013 0.327829 -0.186779 0.129672 -0.0141478 0.471058 0.140348 0.567881 0.317529 -0.651436 0.280735 -0.425883 -0.271464 -0.0609479 -0.857096 -0.341622 0.216146 0.253321 -0.524554 0.307421 0.390766 -0.282974 0.602369 -0.0838535 0.101955 -0.209459 -0.376001 0.280179 0.169971 0.0547188 0.601664 -0.362527 0.200789 -0.544998 -0.184776 0.221194 -0.125697 
0.125145 -0.118709 0.299449 0.357994 0.214517 -0.412271 -0.120739 0.205766 -0.361135 0.471758 0.489025 0.190762 -0.119312 -0.510969 0.463256 0.433307 -0.0893937 -0.134653 0.0150288 -0.0816085 0.0774558 -0.230157 -0.186848 0.354196 -0.140195 0.249699 -0.0439398 0.721424 -0.204196 0.0410415 -0.319369 0.235896 0.18987 0.0289437 -0.0738072 0.206946 0.25493 -0.263301 -0.273026 0.805524 0.12658 -0.211013 0.303728 -0.243264 0.312992 -0.466174 0.363364 0.271831 -0.749954 -0.516381 0.271235 0.0730013 0.0870393 0.159806 -0.312441 -0.381297 -0.138261 0.229172 0.296731 -0.382045 
-0.184966 -0.264692 -0.247032 -0.36373 0.216199 -0.45914 -0.341509 -0.353514 0.0899635 0.430156 0.0950433 0.397854 0.233608 0.421769 -0.0425524 0.177227 0.275981 -0.202212 -0.347596 0.217271 0.317539 -0.135199 0.478956 -0.224972 -0.474932 -0.155561 0.389576 -0.991936 -0.355121 0.508059 -0.340506 -0.966478 0.209898 0.466491 -0.955952 0.0787203 0.0216584 -0.482136 -0.177633 -0.189815 -0.317153 0.257103 0.943134 0.0466142 -0.265694 -0.069381 0.631583 0.248177 -0.11545 0.137717 0.254566 -0.329318 -0.105399 -0.688764 0.477383 0.339857 0.174462 -0.177648 0.162222 -0.27841 
-0.380646 0.417229 -0.0890558 -0.276693 -0.0635671 -0.293753 0.0425453 -0.201692 0.124093 -0.100926 0.688358 0.0516063 -0.102162 0.241174 -0.46764 0.212363 -0.118933 -0.0675693 -0.483299 -0.168157 0.0163812 0.516994 -0.24643 0.054598 0.238295 -0.216754 -0.613538 0.291405 0.0138455 -0.388276 0.261242 -0.329228 0.120104 -0.348796 -0.164691 0.566861 0.132829 -0.314203 0.408435 0.0939646 -0.132069 -0.491302 -0.452472 0.175176 0.067634 0.336003 -0.332304 -0.0728114 -0.155673 0.183072 -0.0886604 0.273153 -0.2907 -0.452174 -0.604953 -0.286867 -0.300448 -0.26689 0.412182 -0.554993 
-0.40329 0.0441631 -0.153824 -0.250607 0.396878 0.102449 0.585379 0.0997933 0.362729 0.023588 0.349656 0.41788 0.097008 0.258543 0.00442374 -0.343298 -0.131986 -0.145875 -0.318687 -0.181877 0.34878 -0.0269777 -0.0719837 -0.166862 -0.164212 -0.12588 0.175974 0.299962 -0.218812 -0.397551 -0.102415 0.191229 -0.12451 0.0241017 -0.1769 -0.539083 -0.0629225 -0.362072 0.175917 0.569615 0.270469 0.196502 -0.149477 0.45921 0.457321 0.0643847 -0.180219 -0.479139 -0.0268208 -0.272856 0.418828 0.676263 -0.279132 -0.53366 0.693644 0.452402 -0.31288 -0.0416629 -0.0261989 0.0353672 
0.330706 -0.45842 0.0257973 -0.297114 -0.455667 0.390693 0.432432 0.225622 -0.169388 0.212275 -0.574144 -0.0178488 -0.155071 0.073004 0.177534 -0.53294 -0.124869 0.00775781 -0.352071 0.180454 0.224699 1.00465 -0.208184 -0.215919 0.0953218 0.205844 0.703436 0.10289 -0.336201 0.478315 -0.0410679 -0.0710455 0.0552808 -0.230309 0.0856629 -0.0266105 -0.0272252 -0.358043 0.468124 0.237741 0.256118 0.180842 0.343404 -0.11329 -0.140035 0.450732 -0.0440887 -0.478867 -0.107858 0.322525 -0.74207 -0.0224212 0.515441 -0.0460105 0.70691 0.241976 -0.373741 0.190952 -0.0796096 -0.372686 
0.254587 0.595499 0.0347067 -0.0408314 -0.364656 0.555224 0.311368 -0.256588 0.503266 -0.07379 0.743291 -0.181869 -0.3598 0.0887787 0.303681 -0.617823 0.435459 0.174097 0.415217 0.0521555 -0.108124 0.804917 -0.65231 -0.49442 -0.119993 -0.0273685 -0.125005 0.306388 0.218692 0.753278 -0.0318496 -0.331522 -0.463792 0.225317 0.116197 0.186354 -0.247437 0.0322833 0.120468 -0.459421 -0.0460799 -0.378429 -0.0704788 -0.458784 0.1171 0.510277 0.421334 -0.0749942 -0.478894 0.0508431 -0.471086 -0.0929983 0.0177839 0.0970451 -0.974794 -0.268598 -0.0293941 0.360292 0.188582 0.439219 
-0.157735 -0.323221 -0.25638 0.189958 0.310844 0.0656239 -0.754032 -0.190108 0.0488325 -0.320542 0.525968 -0.063022 0.150005 -0.524974 -0.089896 -0.28276 -0.273309 -0.201176 -0.327597 -0.0305671 0.264917 0.473863 -0.435465 -0.10608 0.778168 0.397423 0.019227 0.661645 1.27506 -0.333785 -0.17863 0.483283 -0.322081 -0.197838 0.439357 -0.234564 -0.444476 0.060621 -0.327135 -0.104363 -0.411936 0.173382 -0.0599631 -0.197097 0.487934 0.283959 0.475431 0.243364 0.0780134 0.565012 -0.384861 -0.142201 0.137254 -0.584943 -0.376786 0.157682 0.0504271 -0.262783 0.070899 -0.409084 
0.656231 -0.10292 0.197173 0.092838 -0.370752 0.255262 0.0748824 -0.183357 -0.510665 -0.00925234 0.0259908 0.543074 0.13924 -0.367639 0.117469 -0.153526 0.528994 -0.264734 0.0476564 0.0741545 -0.590639 0.548633 -0.118494 -0.0904229 -0.148041 0.295248 -0.0564972 -0.306115 -0.459573 -0.0216541 0.199333 0.187463 0.333117 0.337809 -0.262731 -0.478713 -0.196096 -0.283012 0.175079 -0.227852 0.0897046 -0.332398 -0.36312 -0.0960719 0.10599 0.175363 0.0758382 -0.199043 -0.541095 0.175421 -0.303068 -0.15765 0.0258085 0.318319 -0.113451 0.114453 -0.0439907 -0.206361 0.0189028 -0.402564 
0.588976 0.205147 -0.482647 -0.275475 0.342611 0.521795 0.195634 0.0382909 0.248453 0.534431 0.243095 0.305146 -0.304564 0.049703 -0.0685663 -0.304341 0.900469 0.231609 -0.270397 0.13294 -0.0485462 0.00602156 0.0391993 -0.161376 0.159182 0.392562 -0.43782 -0.0119977 0.153024 -0.202228 -0.347955 0.549422 -0.246698 -0.0342086 -0.234022 -0.547753 -0.0410373 -0.617405 -0.230901 -0.0570033 0.0425134 -0.265739 -0.0201857 -0.282229 0.266089 0.397822 -0.0130235 0.525621 -0.369232 0.384563 -0.145609 -0.186804 -0.267646 0.369203 -0.258818 -0.0523694 -0.334705 0.397597 0.0845805 0.612936 
-0.202049 -0.125789 -0.371562 -0.100779 -0.245084 -0.107097 -0.206619 0.265521 0.350057 -0.274519 -0.281286 -0.211357 -0.360906 -0.256153 -0.0119565 0.140627 0.154483 0.482425 -0.0351008 -0.377736 0.541526 -0.271733 0.193967 0.0707507 0.415071 -0.0601027 -0.159231 0.853962 -0.504259 0.269765 -0.0144883 -0.459151 -0.0970449 0.0119508 0.173092 0.404353 0.179856 0.0398879 -0.168779 -0.358376 -0.563956 0.0403206 -0.0819615 0.273218 -0.332231 0.299208 -0.484493 -0.235338 -0.264204 -0.0330457 -0.806173 0.625833 0.0449607 -0.0219526 -0.754837 0.366251 0.431821 -0.527825 0.357026 0.470762 
-0.628433 0.236189 -0.1771 0.0722519 -0.0903642 -0.13524 0.443275 0.0510283 -0.197405 0.0040207 0.59108 0.275355 0.15255 0.167601 -0.0504561 0.144606 -0.273486 -0.0773526 -0.156591 0.385534 0.358628 0.484934 -0.826701 0.107782 -0.119978 0.347069 -0.201191 -0.0261131 -0.0467685 0.563111 -0.443838 -0.152975 -0.154777 -0.0305409 -0.185173 -0.00643642 0.303172 -0.18941 -0.0881666 0.268696 -0.197302 0.382286 -0.644059 -0.0452953 0.470154 0.345327 -0.4407 0.372594 0.206572 0.175923 0.267581 -0.548658 -0.236525 0.257551 -0.668677 0.195342 -0.444852 0.239253 -0.181613 0.213349 
0.198913 0.544881 0.345542 -0.170652 -0.436266 0.154997 0.47166 -0.499234 -0.277589 -0.395556 -0.753244 0.313896 -0.463378 -0.541353 -0.0240354 -0.386444 -0.872615 -0.268445 0.311192 -0.638616 -0.021232 0.0269243 -0.709784 0.427642 0.617726 -0.21297 -0.41357 -0.529882 -0.111652 -0.388323 0.00735178 -0.278986 -0.127474 0.532503 -0.222969 -0.0735975 -0.190892 -0.141417 -0.620046 0.0919069 -0.0611879 0.0200895 -0.319246 -0.0360816 0.0944896 0.276576 0.100923 0.154328 0.282923 0.22045 0.148636 0.231958 0.0919192 -0.884539 -0.538832 0.497326 -0.440729 -0.433981 -0.214003 0.28678 
-0.253479 -0.690802 0.30197 0.288454 0.73832 -0.488271 0.658579 -0.267921 -0.672281 0.136551 -0.0593598 0.351595 0.727726 -0.549709 -0.062828 0.13968 -0.133717 -0.219731 -0.0959863 0.764762 -0.360672 0.186651 -0.175659 0.53034 0.149697 -0.194345 0.296912 0.44384 -0.298458 -0.385685 -0.0851849 1.02467 -0.243788 0.34946 0.909052 -0.448193 -0.0988791 0.0526655 -0.145183 0.430828 0.620189 -0.241993 -0.79611 -0.0520127 -0.603799 0.933733 0.380125 0.574398 0.355283 -0.488143 -0.681317 0.129405 0.027447 0.304836 -0.246065 0.243299 -0.0746754 0.123919 -0.344158 0.176121 
-0.245374 -0.727127 -0.219765 0.310121 0.243608 0.264397 0.532427 -0.350006 -0.628123 0.262889 -0.844331 -0.204579 -0.321164 0.462917 0.419616 0.138426 0.310657 -0.462753 0.0574845 0.571792 0.343923 -0.180298 -0.208547 0.605055 0.612008 0.0600495 0.279437 0.03216 0.140256 0.199538 -0.0241478 -0.921789 0.0731049 -0.0805396 0.340815 -0.0859392 0.00987543 0.367615 0.0558016 0.519073 -0.205786 -0.280759 -0.291972 -0.256873 0.222477 -0.589194 -0.343276 -0.340399 0.572086 -0.406747 0.136728 -0.0361928 -0.10551 -0.285359 -0.164034 -0.0902639 -0.411455 0.394281 0.0202222 -0.071878 
-0.0747359 0.272955 -0.148586 0.154021 0.603428 0.0499871 -0.0706477 -0.339971 -0.294997 -0.519979 0.759685 0.0694561 0.168203 0.174433 0.430006 -0.0642743 0.793481 0.22125 -0.462088 0.352115 -0.280434 0.572678 -0.173126 0.74352 0.0899064 -0.220545 0.0382412 -0.0163157 0.0122539 -0.133565 -0.709864 -0.114871 0.189393 -0.402674 -0.328683 0.340222 -0.235907 -0.0501057 0.920677 -0.419485 -0.0101379 -0.153608 -0.189841 0.302576 0.0866216 -0.563099 0.222817 0.156105 -0.0798802 -0.0877879 -0.442306 -0.30082 0.101884 -0.113358 0.142184 0.113579 -0.178119 -0.432075 -0.162949 -0.399821 
-0.0678441 0.612927 -0.198165 -0.123503 -0.00053211 -0.706775 0.24494 -0.110417 0.152777 0.528256 0.139672 0.202164 -0.296565 -0.358549 0.222892 -0.16374 0.179199 0.134909 0.489678 -0.0602068 0.240761 0.518197 0.0851143 0.197692 -0.0281194 0.168955 -0.106115 -0.416208 0.179572 -0.110286 0.157653 -0.265737 -0.410755 0.00700139 0.331091 0.0496511 0.00758607 0.394235 0.133298 -0.0323011 0.803443 0.351509 -0.0363679 -0.060677 -0.482811 0.504352 0.915857 0.18832 -0.100161 0.285405 0.128209 0.0271345 -0.0801038 -0.321751 -0.158763 0.125988 0.422461 -0.226542 -0.378655 -0.284013 
0.0041704 -0.0254271 -0.250728 -0.201228 0.0262243 -1.11267 0.184684 -0.283808 -0.764747 0.199796 0.0524651 -0.520556 0.422341 -0.454794 -0.444303 0.139705 0.206792 0.2831 0.3736 -0.120386 0.0133519 0.6428 0.381668 -0.473676 -0.626473 -1.00979 -0.628093 -0.428272 0.480588 -0.101394 -0.0767259 0.45595 0.214662 0.121807 -0.460504 -0.155325 0.0890547 0.457565 0.477344 0.135008 -0.181037 0.140181 0.790969 0.469938 1.19601 -0.134542 -0.454633 0.690004 -0.749635 0.415542 -0.237278 0.0644711 0.0646045 0.520243 0.0673729 0.144491 0.0264524 0.185541 0.2057 0.177634 
0.124971 -0.505493 -0.0671846 -0.188604 -0.234539 0.152429 -0.266846 -0.133884 0.410812 0.0325015 -0.281216 0.0985847 -0.148155 -0.399327 -0.155769 -0.398983 0.0449342 -0.313452 0.23837 0.335386 -0.49098 0.364883 0.304368 -0.20029 -0.238173 0.346311 0.156428 -0.0345015 -0.00880963 -0.0193301 0.423526 0.0435199 0.615295 -0.00312621 0.928464 -0.171383 0.294036 -0.359483 -0.0451444 -0.126031 0.0864895 0.322664 -0.118346 0.220758 0.417797 -0.402921 0.686892 -0.290812 0.125422 -0.381373 0.452649 0.586549 0.0818298 -0.511186 0.120582 -0.229267 -0.26486 0.358016 -0.618403 -0.117128 
0.120524 -0.588388 0.391648 0.422122 0.241117 -0.325952 0.0716877 -0.287335 0.124393 0.478416 0.578936 -0.526446 0.31156 -0.246605 0.0588927 -0.63511 0.0773559 -0.0642891 0.297584 -0.0602389 0.0374791 0.0931902 -0.23062 -0.21223 0.122644 -0.0709579 0.361065 -0.130168 0.385896 0.538101 0.233091 0.403713 0.77435 -0.315821 -0.055052 0.100029 -0.264078 -0.304733 -0.336951 -0.230825 0.394478 -0.210756 -0.337737 0.688701 0.191536 -0.237163 0.201143 -0.8075 -0.297619 0.124616 0.413177 0.253443 -0.176638 0.0450261 0.0384446 0.0849841 -0.557847 -0.580766 0.251812 0.406431 
0.0651567 0.195123 0.185768 0.205383 -0.193525 0.0210281 0.195521 0.047921 -0.71086 0.014375 0.432124 -0.228173 0.295135 -0.0120103 0.270266 -0.161673 -0.226358 -0.286509 0.0374786 0.366427 0.143302 -0.124036 -0.216093 -0.135188 -0.63316 0.124837 -0.15459 -0.172286 -0.288413 -0.519519 -0.661371 -0.445201 -0.134087 -0.0279304 -0.455355 0.0499716 0.224215 0.311816 -0.158357 -0.434466 -0.622854 -0.634602 -0.468891 -0.406837 -0.197201 -0.0883549 0.163296 0.279117 0.185106 -0.0973475 -0.393575 0.36006 0.407826 -0.325508 0.380292 -0.0114137 -0.098846 0.239513 0.0186667 -0.167835 
-0.261572 0.0301816 0.292291 -0.229087 -0.271783 0.456001 -0.355405 0.191094 -0.0457456 0.25398 0.0578406 0.0856886 -0.0113225 0.312987 0.358044 -0.0787188 -0.244705 -0.293838 0.664355 -0.835197 -0.78715 0.119526 -0.413377 -0.30347 0.339681 -0.287142 0.0337669 0.485332 -0.588458 0.713009 0.00202843 0.278621 -0.0644366 0.143133 0.189624 -0.574191 -0.539043 0.277856 0.357093 0.670107 0.242678 -0.254764 -0.65192 -0.13667 0.841887 -0.366805 -0.207053 0.00254167 0.650025 -0.222367 -0.0935794 0.0189037 -0.424179 -0.141748 0.0881747 0.557282 0.347558 -0.0709695 0.129478 0.123932 
0.170498 -0.476892 -0.00632892 -0.049835 -0.316982 0.272095 0.285619 0.0697333 -0.525696 -0.123787 -0.391192 -0.955716 -0.0581666 -0.00684415 0.07258 0.189065 -0.238459 -0.628541 0.117984 -0.200372 0.145774 -0.0122152 -0.30767 0.0253645 -0.800034 0.0689044 -0.293394 -0.20997 0.0515374 0.363554 -0.115396 0.115161 0.645735 -0.209562 0.196431 0.101989 0.128442 -0.021612 0.265382 0.34724 0.013083 0.722354 -0.647578 0.137953 -0.0577112 0.116674 0.394741 0.25493 0.523802 -0.487105 -0.550216 -0.0502249 -0.161183 -0.271569 -0.191777 0.115091 -0.483342 -0.191374 0.00725223 0.133269 
0.268248 -0.946698 -0.541496 0.384477 -0.467341 -0.354091 -0.143114 0.128513 0.124515 0.747107 -0.184339 0.617345 0.837042 0.295904 0.657977 0.213082 -0.26654 0.678689 0.163465 -0.413982 0.272339 -0.195762 0.0517268 -0.0522008 -0.202531 0.0755447 -0.390026 -0.523879 -0.196048 -0.413753 -0.0739786 0.214387 0.194176 -0.725887 0.0700958 -0.522786 0.0790679 0.348122 0.368442 -0.516208 -0.590681 -0.251668 -0.478498 -0.379683 -0.0929423 -0.0420642 0.214924 -0.0423073 0.222387 0.439082 -0.122491 0.242691 -0.442878 0.38432 0.160931 0.0895946 0.121039 0.187716 -0.35399 0.129227 
-0.542318 0.284927 -0.093858 0.0486779 -0.32233 0.142543 0.385612 -0.153429 0.409561 -0.781778 0.188848 0.107573 0.344447 0.271447 -0.19344 -0.393551 -0.0110542 0.407271 -0.0758905 0.306027 0.274119 -0.140736 -0.254025 -0.0392299 -0.020341 0.368608 -0.287258 0.0953647 0.431752 -0.306133 -0.0336741 0.194855 0.386493 0.322263 0.223765 -0.0902954 0.153475 -0.10159 0.0084291 -0.02592 -0.287596 0.422866 0.276226 0.396902 -0.25854 0.369538 -0.237636 0.36171 -0.0411897 -0.173652 -0.165593 0.0315935 -0.440733 -0.397683 0.527568 0.68882 -0.205635 0.41285 0.59528 0.229936 
0.0128369 0.0952666 -0.111157 0.505657 0.0735683 0.113588 0.0193843 0.62562 0.123023 0.0230968 0.174677 0.243143 0.785967 -0.120139 0.454455 0.107332 -0.212914 -0.0127786 -0.0363428 -0.38887 -0.178481 -0.221367 0.310906 0.114667 0.656273 -0.115776 -0.542616 0.143895 0.5471 -0.29838 0.603217 0.311252 -0.0879861 -0.532068 0.126767 0.0984144 0.179851 0.526337 -0.133116 0.589127 0.451855 -0.0319526 -0.460653 0.310966 0.285039 0.407707 0.115667 -0.242359 -0.555126 0.367147 0.334433 -0.401982 0.190481 -0.287406 0.340749 0.255031 0.570925 -0.125786 -0.204384 -0.308496 
0.0230321 -0.178499 -0.950591 0.686815 -0.258085 0.172023 0.00722993 0.0164231 -0.0131547 -0.411389 0.134808 -0.0214966 0.0809614 -0.488352 0.462805 0.338564 -0.508275 -0.208964 -0.0186122 -0.104765 -0.128566 -0.202884 -0.202805 -0.452943 0.179942 -0.370059 0.320712 0.647758 0.210295 0.160597 -0.736889 -0.111464 -0.453337 0.178808 0.275514 0.193087 0.37586 -0.384868 -0.150761 0.044001 0.168378 -0.223527 0.120082 -0.502403 -0.280688 0.702473 -0.0392525 -0.177279 -0.134834 0.953064 0.436279 -0.127823 0.53783 0.359698 0.314534 0.389573 -0.463972 -0.701068 -0.564106 -0.350175 
-0.154597 0.239183 -0.0497594 0.76437 -0.137087 0.127235 0.371963 -0.0953949 -0.581251 -0.261998 0.0411322 -1.13029 0.119906 0.197535 -0.613191 -0.02257 0.344354 0.26914 -0.0447568 0.346206 -0.0398944 -0.22679 0.429855 -0.0156828 -0.0452713 0.0372791 0.346718 -0.637314 0.219248 0.0079523 -0.383036 -0.053296 0.0259301 0.0342957 0.262755 0.0296666 -0.388871 -0.0169975 0.576918 -0.186186 -0.0482018 0.230327 0.160438 -0.165954 -0.555629 0.349241 -0.0678123 0.195091 -0.253593 0.90805 -0.156877 0.547722 0.0327362 -0.134115 0.0718384 0.133864 -0.0647213 0.273688 0.176621 -0.80803 
0.224365 0.0556171 -0.26342 -0.117448 0.07366 0.239413 -0.0920534 0.223939 -0.0393443 0.214329 0.142187 -0.359217 0.347293 0.300056 -0.49583 -0.263102 0.0840821 -0.103584 0.0596242 -0.389119 -0.131583 -0.264142 -0.219212 -0.0221842 0.348618 -0.131779 0.0719516 0.279972 0.07731 -0.0271826 -0.290343 -0.279519 0.388659 -0.0791004 -0.0840126 0.202955 0.145186 0.0705373 -0.0976753 0.274901 -0.134028 0.0784425 -0.00890874 -0.0132753 -0.0232603 0.222715 -0.294839 0.477744 0.00596469 -0.347832 -0.155632 0.344913 -0.18292 0.235242 -0.334572 0.373379 -0.0262434 -0.102802 -0.464438 -0.211435 
0.348553 0.0669755 0.198272 0.243646 0.385178 -0.396916 0.0879285 0.250273 0.195633 -0.0324841 0.492028 -0.941622 0.156936 0.429128 0.216152 -0.206199 0.0856188 -0.755023 -0.0451326 0.0643614 -0.622446 -0.364346 -0.288328 -0.00751525 0.142707 -0.277659 0.502062 -0.35136 0.113086 -0.419301 -0.595485 0.378302 0.298984 -0.40911 -0.455205 -0.495559 0.416438 -0.308818 -0.0393699 -0.230264 0.370481 0.0203696 0.456591 -0.684097 -0.324052 0.298198 0.401271 0.308975 0.66909 0.0675954 -0.219917 0.382062 -0.0167614 -0.480354 -0.0531297 0.0930009 -0.431118 -0.013901 0.0104168 0.0615991 
0.14086 0.0229998 -1.20897 -0.462643 0.042408 0.0595636 0.0689204 0.175042 -0.268689 0.432324 -1.01315 -0.186923 0.189717 -0.0822174 -0.299536 -0.568161 0.545185 0.0173218 -0.60938 0.259804 -0.0668121 0.0205849 -0.197292 0.29678 0.195164 0.491084 0.0723889 0.0454033 0.52718 0.403525 -0.450303 0.135361 0.274962 0.140484 -0.127305 0.461966 0.158781 -0.0349182 0.298211 0.279483 -0.54118 0.483969 -0.910506 0.281216 -0.434271 -0.317336 0.215042 0.118133 0.44569 -0.0752719 -0.33558 -0.1791 -0.455439 0.335853 0.52502 0.741775 -0.825193 -0.0942928 0.186067 0.0663693 
0.0316554 0.49267 0.163427 0.202437 0.108195 -0.250253 -0.283824 -0.214154 0.191208 -0.0825741 -0.514216 0.546802 0.406621 0.14164 0.159628 0.927671 -0.0686634 -0.111415 0.337326 0.309076 0.250528 0.0224098 0.148761 -0.423297 -0.0993093 0.491002 0.272572 0.385171 -0.326865 0.159928 0.141428 0.449824 0.236605 -0.184669 0.174196 0.714064 0.43177 -0.128749 0.195963 -0.244233 0.0411257 0.236852 -0.241367 -0.139825 -0.605777 -0.112495 0.00548612 -0.656264 -0.332454 -0.234643 -0.232831 0.101742 0.0191044 -0.342988 0.18352 0.214401 -0.827514 0.0869817 0.598917 0.616486 
-0.0527962 0.071104 -0.615572 -0.215737 -0.565063 0.704414 -0.0677485 -0.363496 -0.210878 -0.573505 0.550384 0.362124 -0.175634 -0.39108 -0.272762 0.210623 -0.00350416 1.19899 -0.0940171 0.209844 0.390141 -0.0339284 -0.247729 -0.179113 0.120395 -0.478719 0.570985 -0.139438 0.132479 -0.170243 -0.180945 0.539838 -0.377615 0.0120595 -0.457704 -0.310717 -0.0495868 -0.0557356 -0.0525016 -0.0750662 -0.576715 -0.318423 -0.0710058 -0.268601 -0.640806 -0.13824 -0.274113 0.0333455 -0.384221 -0.692455 -0.0674049 -0.113358 -0.201761 0.476247 0.208944 0.246619 0.134794 -0.071145 0.639245 -0.818735 
-0.47016 0.270417 -0.237108 0.62182 -0.480281 0.420503 -0.0109897 -0.833192 -0.72998 -0.446671 0.313964 -0.130802 0.219376 -0.0418625 -0.248285 -0.371952 0.0725257 0.0366713 -0.468814 0.117483 0.0680167 -0.464609 -0.129044 -0.915682 -0.495418 -0.0728105 -0.45949 0.76285 -0.231466 -0.0866553 0.502442 0.0389526 -0.382938 -0.0971151 0.00184387 0.273883 0.311274 -0.374922 0.0759955 0.199575 -0.125275 0.128053 -0.0710614 0.809963 0.303489 -0.139473 -0.275539 0.146105 -0.252513 0.436131 0.432932 -0.222137 -0.426696 0.469347 0.339222 0.32392 0.965067 0.206549 0.20869 -0.0437924 
0.197371 -0.265459 0.176516 -0.451329 0.0609685 -0.292881 -0.195112 0.395224 0.427103 0.475997 0.357207 0.119616 -0.20605 -0.173699 0.305033 0.0956613 -0.649113 -0.0134229 -0.210373 -0.130277 0.608507 0.331174 -0.197639 -0.117276 -0.354769 0.261503 0.340148 -0.628615 0.370311 -0.373884 0.240196 0.0575596 -0.384731 -0.330709 -0.379859 0.0614613 0.37646 0.239889 -0.310782 0.151846 -0.0520059 0.182383 -0.376662 -0.0835702 0.142192 0.250436 0.171059 -0.468733 0.630247 0.0107351 -0.538188 0.110697 0.631198 -0.052794 0.193285 0.290118 -0.331034 0.340569 -0.551204 0.217787 
0.240592 0.174968 0.0407849 0.0818746 0.638769 -0.0276961 0.0187168 0.521254 -0.504579 -0.374345 -0.597544 -0.675602 0.0513597 -0.644261 0.110717 -0.32719 0.309695 -0.517185 0.044934 0.371679 -0.563938 0.314909 -0.0736253 -0.384193 -0.505599 0.24251 0.385347 -0.254006 -0.325418 0.565083 -0.0109774 0.310226 -0.36093 0.187748 -0.129985 0.478768 0.147391 -0.00747903 -0.452124 0.66409 -0.821949 -0.375679 -0.401292 0.365152 0.194885 -0.207029 -0.385254 0.508158 0.035961 0.117474 -0.081186 0.583927 0.334788 0.494268 -0.174113 0.0936178 -0.0249546 0.106895 -0.271261 0.180654 
0.525607 -0.189126 -0.328411 -0.0373876 0.670598 0.24177 0.0994318 -0.501913 0.355725 -0.209504 -0.215763 -0.377723 -0.125901 0.0572355 -0.258291 0.516238 -0.170118 -0.537009 -0.238224 0.00605276 0.271431 -0.392973 0.0239313 -0.262555 0.0855703 1.03206 0.0913373 0.449892 0.324788 0.34243 0.44479 0.689415 -0.111164 -0.540748 0.138895 0.65506 -0.464692 0.11191 -0.181015 0.265819 0.305992 -0.00820591 -0.140843 0.0220623 0.430153 -0.310529 0.151011 0.182597 0.226123 -0.00329745 -0.137445 -0.107997 0.412728 -0.616001 0.264205 0.357603 0.322337 0.649119 -0.697373 -0.176872 
0.288332 0.159357 0.024566 -0.0405134 0.0293158 0.211268 -0.133054 0.920238 -0.540953 0.082267 0.205299 -0.365528 0.34034 -0.204286 -0.167611 0.0109365 0.0997347 0.243188 -0.11204 0.725876 -0.0780066 -0.517193 0.401335 -0.0975766 0.234229 -0.0636537 0.328193 0.0965976 -0.334456 -0.756551 0.252332 -0.361192 -1.24153 0.274106 0.0178856 0.0751909 0.196248 0.0880251 -0.17045 0.160892 0.00117099 -0.00261844 -0.655433 -0.040828 0.190093 0.310116 -0.377065 0.0984536 -0.317611 -0.31108 -0.0806503 0.0657778 -0.0986586 0.628532 0.0234899 0.456877 -0.0329257 -0.237274 -0.781295 0.0804575 
-0.329904 0.489185 0.121552 0.67322 -0.20986 0.173924 0.0137785 0.466035 0.40531 -0.0512486 -0.623878 0.276775 -0.381546 -0.868122 -0.176078 0.15881 0.0724432 -0.398671 0.312632 0.0833177 0.0413838 -0.755341 -0.27895 0.142346 -0.476965 0.0335678 -0.164306 -0.0202604 0.35068 -0.0483751 -0.117437 0.0760315 0.164228 0.0177019 -0.377434 -0.266112 0.14701 -0.313162 -0.136027 0.146243 0.356137 -0.0452528 0.00365878 -0.424924 -0.428486 0.251219 -0.634867 -0.280808 0.140188 -0.300522 -0.139757 0.176268 0.272711 0.330273 -0.277548 0.323917 0.0267152 0.3175 -0.176242 -0.108993 
-0.502645 -1.03325 -0.533521 -0.322817 -0.0745909 0.143967 0.249558 0.588295 0.150942 -0.0112385 -0.0376711 0.179576 -0.294457 0.100735 -0.255014 0.185617 -0.0266594 -0.796026 -0.39446 -0.191234 -0.231304 -0.187813 -0.195398 -0.00470655 -0.104697 -0.146602 0.622789 -0.476189 -0.0312425 0.36753 0.230479 0.0564909 -0.312224 -0.723048 -0.1689 -0.232683 -0.185107 -0.0713251 0.245327 0.243726 -0.289986 -0.38748 0.234807 -0.107482 -0.267388 0.0489119 -0.556523 0.109133 0.173592 -0.132118 0.0729027 0.483149 -0.358458 -0.353731 0.108992 0.0845571 -0.154473 -0.472369 0.0971459 -0.369632 
-0.152123 0.405603 0.0744262 -0.196846 0.275266 -0.0946876 0.613615 0.655744 0.500478 0.0247325 0.0856705 -0.208976 0.656482 -0.281736 0.118571 -0.327331 -0.327827 0.0268419 -0.0113816 -0.336885 -0.122875 0.642159 0.108691 -0.170893 -0.729409 0.349869 0.104963 0.364667 -0.65602 -0.27182 0.013636 -0.534579 0.14845 0.180863 -0.0606577 0.121927 -0.36011 6.28574e-05 -0.0210085 -0.445743 0.188551 0.301184 0.102852 -0.26525 -0.29843 -0.0646638 0.018249 -0.158582 0.316192 -0.82593 0.558313 0.0311694 -0.501348 -0.205745 0.272947 0.0441101 -0.126579 -0.136864 -0.138873 -0.041816 
-0.346861 -0.244546 0.267891 0.0142849 -0.559427 -0.0222669 -0.159458 0.162548 -0.306191 0.326128 -0.0135849 -0.420632 -0.380819 -0.15926 0.5969 0.238645 -0.320205 0.187479 -0.947867 -0.308194 0.0481896 -0.784705 -0.180022 0.00455598 0.875772 0.499161 0.28129 0.209666 -0.162907 -0.510432 -0.00742128 0.324031 0.0107961 0.0917573 -0.238465 0.0995285 0.450925 -0.397683 0.184519 0.130846 0.637429 -0.471866 0.281963 0.194922 0.195337 -0.145737 -0.0912654 -0.266174 -0.279747 0.0986297 0.148271 -0.0622775 0.235544 -0.294155 -0.746357 0.558582 0.0405039 0.711197 -0.308856 0.0853571 
-0.155648 0.314308 0.125393 -0.0292201 -0.262421 0.406009 0.0775616 0.23795 0.586702 0.0333678 -0.243542 0.162894 0.216924 0.359156 -0.364543 -0.111897 0.408573 0.0539781 0.243404 -0.0184056 -0.228123 0.55529 -0.623474 -0.0131596 0.323553 -0.395994 -0.0975069 -0.0860311 0.476135 0.00237764 0.350668 -0.398202 0.259266 -0.19034 0.378087 0.439331 0.02189 0.23236 -0.239275 0.181502 -0.252626 -0.325016 -0.0201612 0.235419 -0.362437 -0.45175 0.471521 -0.226762 0.00843935 0.112657 -0.242141 0.203742 -0.0835333 -0.165999 -0.0252691 -0.00346088 0.478957 0.361366 0.152876 0.357656 
0.0758284 0.168891 -0.277843 -0.149565 -0.375537 0.225116 -0.330151 -0.195072 -0.398901 0.506689 -0.238241 0.255466 0.0247965 -0.0634624 -0.108482 0.197361 -0.234117 0.307975 -0.414618 -0.00890639 0.00473389 0.408607 -0.389745 -0.119507 -0.195 -0.032767 -0.553078 0.375682 -0.679223 -0.692891 -0.346119 -0.250793 0.46659 0.64102 0.268932 0.38898 -0.131589 -0.0341062 -0.0800257 -0.0163932 -0.442301 0.705182 0.469465 -0.0456179 0.527699 0.378217 0.246579 -0.043756 -0.0291434 0.121592 -0.199134 -0.00561894 0.60966 -0.549031 0.14797 0.163477 0.0332624 0.38022 0.369071 0.0263408 
0.0258999 0.417603 0.254685 0.218919 0.11845 0.522322 -0.656203 0.00537387 0.353779 0.341847 -0.159971 0.084236 -0.375217 0.145223 0.106124 0.294205 -0.0037984 -0.0314626 0.369389 -0.135699 -0.806152 0.152853 -0.189512 0.00943894 0.0093015 0.322597 0.282071 -0.177296 0.662191 -0.650675 -0.0268566 -0.601564 -0.255385 0.3428 -0.235268 -0.702049 0.0996134 -0.270208 -0.199842 -0.0228005 -0.0310694 -0.155663 0.137938 -0.440134 0.325111 0.100745 0.223422 0.463814 0.120991 0.18638 0.458068 -0.285279 -0.368562 0.200103 0.169099 -0.183366 0.254982 -0.0600501 0.699018 -0.298145 
0.737295 -0.318964 0.440962 -0.174809 0.117365 -0.364983 -0.444745 0.0160099 -0.64308 0.27201 -0.207079 0.0108984 -0.0833016 -0.0737717 -0.316984 -0.139425 -0.281649 0.332075 -0.17381 0.736631 -0.097204 0.456101 0.00781276 0.139368 -0.558307 -0.511382 0.146026 -0.832095 0.255948 0.344475 0.056552 0.400443 -0.423412 -0.12633 0.0748222 -0.687816 -0.988635 0.317009 -0.227017 0.0764078 -0.610823 0.169514 0.0874235 -0.413432 0.0997479 -0.123861 0.0958444 -0.530443 -0.0606859 1.02782 0.257335 -0.126605 0.290182 0.289795 -0.213947 0.0446733 -0.239836 0.176679 -0.0788186 -0.0971982 
-0.305834 0.301657 0.216034 -0.389641 -0.707208 0.322805 -0.448312 0.0721405 0.162089 -0.189932 0.0482841 0.0709115 0.547006 -0.179704 0.309214 -0.211564 0.0409525 -0.192632 0.490945 -0.203964 -0.00674297 0.396726 -0.500269 0.165382 -0.0330496 0.24656 0.500331 1.02406 0.430684 0.289931 0.209608 -0.0311128 -0.425683 0.0523673 0.473526 -0.12513 -0.152508 -0.308507 0.651191 0.472118 0.32524 -0.153562 -0.0541116 -0.13184 0.0373128 0.00584307 -0.559786 0.222028 0.156999 0.744138 -0.0528017 -0.381895 -0.681667 -0.860961 0.837136 0.249539 0.107748 0.159174 0.222936 -0.101613 
-0.0548992 0.174382 0.500539 0.0928181 0.12868 -0.174011 -0.228994 -0.0303177 -0.152826 -0.512722 -0.102893 -0.186932 0.0622885 -0.574325 0.0802568 0.00757513 -0.225718 -0.0489239 -0.204329 0.736995 0.225225 -0.241988 0.38393 -1.03303 -0.441171 -0.462087 -0.279776 0.18652 0.0953285 -0.368037 0.22188 -0.125345 0.128415 -0.652938 -0.316469 0.177275 0.324705 0.023583 -0.56191 -0.683651 0.0129534 -0.553787 -0.451007 0.647452 0.281429 0.363011 0.0620087 0.200346 0.160409 -0.829894 -0.151838 -0.663839 -0.525747 0.470571 -0.600163 0.256519 -0.124723 -0.369323 0.350399 0.654672 
0.339543 -0.178465 0.840409 0.440142 0.517462 0.335967 0.364569 0.0513262 -0.475655 0.62255 -0.214815 -0.0855359 -0.218908 -0.181668 0.240473 -0.673887 0.421797 0.178092 -0.329595 0.407993 0.07432 -0.248415 -0.708513 -0.1001 -0.625671 -0.00276162 -0.235826 -0.149426 -0.386342 0.276983 -0.436201 -0.13472 -0.267728 -0.176475 -0.0926695 0.310016 0.829271 0.248041 -0.472265 -0.0886012 -0.978278 -0.156624 0.271713 -0.368579 -0.337622 -0.235423 0.952807 0.0654327 0.058639 0.0980221 -0.284243 0.209991 -0.162912 -0.200201 -0.725332 -0.21404 -0.563202 -0.0290722 -0.099036 -0.402907 
-0.109618 -0.450042 -0.458566 -0.0200322 -0.322867 -0.159406 -0.540983 0.312643 0.607204 -0.123588 -0.33029 0.236392 0.191979 -0.356758 -0.182819 -0.595478 0.375089 0.272835 0.0956022 -0.233648 -0.564887 -0.222662 -0.155829 0.570173 0.0658033 -0.240924 -0.842021 0.361267 -0.0289435 -0.370286 -0.417127 0.188016 0.101605 -0.500879 0.455852 0.170878 0.225989 0.320618 -0.0998597 0.115959 -0.166618 -0.00960156 -0.144861 -0.0295737 0.470747 -0.191369 0.356538 -0.267611 0.104617 -0.169032 -0.0708928 -0.0305783 -0.499268 -0.0943366 -0.519384 0.746107 0.530944 0.303748 -0.139831 -0.274904 
0.0284874 0.0242513 0.116278 0.199525 0.193803 -0.252968 0.00723263 0.238401 0.2905 -0.259256 -0.502011 -0.217264 -0.519514 -0.366929 0.513432 0.258467 -0.692728 0.425636 0.21384 -0.280518 0.405333 -0.00366762 0.390598 -0.224546 0.20731 0.179758 0.338786 0.49737 0.0712047 -0.408331 0.407953 -0.0756785 -0.0190625 -0.32868 0.298495 -0.123051 0.335282 0.432722 0.0673489 0.0404132 -0.201229 -0.156163 0.254487 0.551238 0.107107 0.516346 -0.124668 0.0367482 0.363493 -0.115464 0.0253441 0.0893337 0.0629774 -0.507005 -0.284016 -0.393145 -0.0185473 0.246677 0.607776 -0.390874 
0.27697 -0.142764 -0.0936329 -0.277535 -0.0893246 0.445177 0.396003 -0.262265 -0.112776 -0.14959 0.621394 -0.0420559 -0.0282584 0.279293 0.810657 0.307276 0.132858 -0.176497 -0.0589328 0.221965 -0.0775368 -0.0871931 0.392574 0.00162089 -0.110558 0.348347 0.567012 -0.0321487 -0.066441 0.555622 0.346032 0.282184 -0.0629732 -0.293156 0.218667 0.0149453 0.204353 0.656856 -0.0449384 0.614227 -0.168167 0.548306 -0.109902 -0.682083 -0.272249 -0.190248 0.204017 -0.165734 0.562587 0.560378 0.0876085 -0.0690673 -0.12238 0.301392 0.0469881 0.107763 0.292636 0.19776 -0.0198169 -0.0723535 
-0.108824 -0.110795 -0.0792311 -0.1308 -0.207707 -0.1891 0.570345 -0.345508 0.163062 -0.263863 -0.0640088 -0.107336 -0.205011 -0.175852 -0.22566 -0.456956 -1.11581 0.079883 0.298825 -0.357062 0.58345 0.461657 0.72709 -0.0773622 -0.240966 -0.0166205 0.18409 0.141542 0.073814 0.354619 0.0455131 0.00860044 0.302469 0.262392 -0.446545 0.245583 0.151421 -0.494798 0.0392364 -0.356094 0.033092 0.753184 -0.956946 -0.596491 0.273666 0.0044079 -0.0931387 0.00471368 -0.272875 0.18769 -0.464778 -0.0715026 0.057594 -0.0140956 0.252033 0.158571 -0.50288 0.350228 -0.65742 -0.0484717 
-0.432325 -0.0256755 0.13075 0.338882 0.528392 0.205646 0.0939788 -0.28944 0.160795 0.212869 0.12663 0.23278 0.373513 0.0186911 -0.236658 0.0255381 -0.182102 0.560855 -0.21843 -0.0451033 -0.479129 0.473766 -0.0495722 0.851282 0.518155 -0.267306 0.470497 -0.0830805 0.605436 0.407157 0.700586 0.554114 0.478123 -0.0378597 0.0361575 0.443864 -0.171235 -0.352334 0.0786903 0.392843 0.6236 0.0438014 -0.244905 -0.0257446 -0.0400395 0.502399 0.126234 0.278482 0.0400158 0.0790849 0.0267505 -0.00933425 0.300538 0.137598 -0.170965 0.229574 0.560281 0.18193 -0.164707 0.259105 
-0.299371 0.342251 0.00489345 -0.373372 -0.253226 0.42189 0.107624 -0.330083 0.16993 -0.116929 -0.547456 0.657431 -0.0544316 0.0887297 -0.179638 -0.341175 0.406686 -0.276504 -0.386879 0.155052 -0.270791 -0.618047 -0.168425 -0.507693 -0.147155 0.0361062 0.534122 -0.241567 0.294039 -0.0511279 0.215066 -0.539836 0.324969 -0.268918 0.673612 -0.35491 -0.185698 -0.18784 -0.369471 0.380216 -0.293197 0.338172 0.582223 -0.907115 0.127009 0.258419 0.807081 -0.408455 -0.722415 0.407694 0.108641 -0.0429998 0.0731733 0.701217 -0.120947 0.0885852 0.612148 0.427393 -0.232798 -0.262926 
-0.209386 0.0123849 0.152207 0.559576 0.0575782 -0.259645 0.0891929 0.18063 -0.222322 0.908007 -0.346228 0.12608 -0.0396872 0.304461 0.675135 -0.871307 0.00904991 -0.25032 -0.353308 0.889634 -1.03236 0.501403 0.193112 0.182983 0.143263 -0.200939 0.591717 0.0179717 0.257602 -0.33549 -0.042606 -0.135535 -0.412103 -0.232887 0.15123 -0.00605606 -0.592462 0.415388 -0.514039 -0.702064 0.24067 -0.0730473 -0.174055 0.874314 0.515016 -0.0736679 0.274453 0.0785705 -0.406692 0.418283 0.175645 -0.341735 0.227391 -0.732704 -0.198259 -0.108765 -0.629505 -0.153968 0.328168 -0.142071 
-0.412445 0.928906 0.595439 -0.330506 0.756129 -0.107671 0.288549 -0.107317 0.0340612 -0.0581224 -0.376239 -0.0710259 -0.0919345 -0.190049 0.629956 0.587725 0.556155 -0.321179 -0.356684 0.266813 -0.532223 0.265093 -0.0731936 -0.12654 -0.419927 0.396148 -0.897012 0.109698 0.19584 -0.238518 0.139318 0.843804 -0.304709 0.623801 -0.045456 -0.490208 -0.100901 -0.739114 0.738975 -0.0265222 0.0840222 -0.591233 0.192483 -0.144715 -0.590161 -0.0761571 -1.07573 -0.193407 -0.0865772 0.00606598 0.372539 -0.409907 0.175542 -0.456591 0.0821026 -0.272327 0.0335421 0.0787114 -0.929019 -0.051151 
-0.467274 -0.100144 -0.468892 0.338546 0.0999694 -0.15241 0.555468 -0.0780773 -0.0620636 0.491796 0.27182 -0.108652 -0.331587 -0.0177584 -0.0217057 0.0727719 -0.466052 0.230616 0.405095 -0.0444942 0.0129608 -0.0802873 0.125767 0.234382 -0.576814 0.0922025 -0.252581 0.0342892 -0.38649 -0.486501 -0.131044 -0.20595 0.182447 0.276505 -0.0760741 0.0982569 0.617748 -0.255435 -0.100498 0.288921 -0.358205 0.224482 0.382413 0.0150811 0.594262 -0.366096 0.158397 0.457442 0.175374 0.117652 -0.365927 -0.305034 -0.0919382 -0.0998549 -0.297162 0.683264 -0.263065 0.118283 -0.620213 -0.273109 
-0.05656 -0.374666 -0.20738 0.278857 0.150928 -0.249909 -0.448478 0.514956 0.325825 -0.297064 0.670578 0.0849057 -0.741324 0.00214001 -0.681099 -0.182919 0.117426 -0.157031 -0.323951 0.403236 -0.291963 -0.342151 0.00952118 -0.275821 0.170195 -0.246667 -0.233764 0.580118 0.202431 0.181422 -0.370788 -0.0201722 -0.0763801 0.270519 -0.539593 -0.312798 -0.371502 -0.192023 -0.695802 -0.312657 0.538437 -0.293641 0.029397 0.75383 -0.508338 -0.129237 -0.00118066 -0.0779591 0.214636 0.167277 0.0937053 -0.179227 0.345221 0.332034 0.14947 0.533478 0.0524944 -0.313908 -0.22686 -0.55483 
-0.144126 -0.000721385 0.0319935 0.147554 0.720313 -0.240124 -0.300658 -0.0335695 0.221532 -0.534618 -0.413336 0.347335 -0.328836 -0.177573 0.223768 -0.25628 -0.11065 0.00481705 0.13568 -0.135665 -0.445264 0.121249 -0.138177 -0.588982 -0.210298 -0.136568 0.111128 0.078313 -0.23737 -0.391654 -0.414188 0.0128885 -0.18568 0.190638 -0.696876 -0.232837 0.0777423 0.522307 0.411479 0.00488043 0.890513 0.246625 0.16517 0.367246 -0.317235 0.311296 -0.0727719 0.555947 0.289651 -0.140765 0.278915 -0.183631 -0.293799 -0.284482 -0.380208 -0.00957706 0.187595 -0.400966 -0.112282 0.32912 
-0.343698 -0.100324 0.622278 -0.59146 -0.586992 0.402749 -0.683651 -0.0544488 -0.333898 -0.187102 0.212628 0.022578 0.0471086 -0.523291 0.48041 0.403827 -0.058137 -0.149695 0.733053 -0.640661 0.489616 0.525832 -0.0255489 0.143699 0.150341 0.383948 -0.0248616 -0.0641295 0.134462 -0.24167 -0.286718 -0.339736 0.243238 -0.102964 0.330618 -0.189613 0.106647 -0.897844 0.176526 0.328039 -0.110758 0.0243536 -0.580196 -0.803335 0.292594 -0.0748677 1.13366 -0.0976348 0.154361 -0.348881 0.0305611 0.120915 -0.353148 -0.16005 -0.592879 -0.932261 -0.577148 0.192402 -0.203326 0.441053 
0.183023 0.548094 0.183027 -0.157462 0.299419 -0.189977 0.177251 0.0422649 -0.510829 0.204857 0.0184469 0.0195298 0.0963855 0.183641 0.417156 -0.177157 0.174401 -0.0512442 -0.425584 -0.135246 0.12024 -0.527776 0.0724072 -0.462262 0.129336 -0.117837 0.51261 0.235517 0.393415 0.0339188 -0.621319 -0.0330715 0.188075 0.15324 0.383978 0.42949 -0.0910191 -0.610012 0.272258 -0.0771703 -0.211136 0.491592 0.42494 0.323556 0.0544397 -0.425707 0.299069 -0.501192 -0.111606 -0.181287 0.0736137 -0.24532 0.578156 0.278343 -0.133741 0.466973 -0.267004 -0.138366 -0.0485387 -0.532394 
0.682694 0.413357 -0.278087 -0.283854 -0.0442416 -0.359926 0.147476 -0.064913 0.0783687 0.369651 -0.154453 -0.159406 0.0794088 -0.0236609 -0.184453 0.327024 0.040918 -0.119109 0.00562919 -0.166178 -0.0736846 0.0376865 0.0321758 -0.297385 -0.205292 0.259564 -0.0483504 0.0336062 -0.109317 0.251673 -0.61173 -0.21305 -0.818492 0.241056 0.455233 0.0323664 -0.329021 -0.304884 0.114445 0.422363 0.0803125 -0.305425 -0.645179 0.372507 0.145495 0.0231977 0.491406 -0.231397 -0.0460373 0.0840317 -0.354414 0.441254 -0.350551 0.375159 0.469407 -0.264926 0.0488434 0.561736 0.269234 0.676395 
0.0331967 -0.0947516 0.137841 -0.0346799 0.251674 0.176773 -0.286379 -0.682996 0.334139 -0.041679 -0.511687 0.239582 -0.299689 0.0337068 0.32303 -0.366975 0.669204 0.449304 0.1666 0.203452 -0.0693641 -0.328774 -0.518464 0.521054 0.0534121 0.20862 -0.043986 -0.0717839 -0.0818703 -0.176031 -0.561496 -0.0593568 -0.571649 0.387069 0.155647 -0.414553 0.0114437 0.637305 0.849382 -0.191273 0.0597779 -0.0521346 0.318929 -0.345852 0.166036 0.077108 -0.176912 -0.321331 -0.441175 -0.148436 -0.171186 -0.310177 -0.44321 -0.378183 -0.164129 -0.0407482 -0.151002 -0.118779 -0.124489 -0.757819 
0.0787367 -0.323937 0.468567 -0.0668565 0.00646469 0.0345527 -0.405935 0.290075 -0.827734 0.0849967 0.00829407 0.0188544 0.497849 0.157086 0.0049036 -0.319574 -0.149439 -0.216727 -0.715364 -0.00694249 0.00393286 -0.179482 0.0346298 -1.02592 0.62634 0.0278512 -0.523079 0.291075 0.843077 0.0781999 -0.0383784 -0.217315 -0.272867 0.340024 0.130684 -0.414609 0.288738 -0.475084 -0.0723341 0.236757 0.148554 0.0862637 0.28092 0.369254 0.106595 -0.705504 0.218388 -0.250474 0.271915 0.715235 0.221868 -0.675546 -0.320844 0.582041 0.1562 -0.132145 -0.597676 -0.111321 -0.668863 -0.367562 
-0.607332 0.271577 -0.137875 -0.164515 -0.520625 -0.398794 -0.0370469 0.345315 0.541738 0.568214 0.0246673 -0.175215 0.0487046 0.417856 -0.0300792 -0.173523 0.0280398 -0.252695 -0.0314378 -0.0407206 0.476525 0.349157 -0.21605 0.266655 0.0518149 -0.0644773 -0.165504 0.215333 -0.421875 0.476227 -0.195395 -0.0876479 0.312109 0.438713 -0.100728 -0.332381 -0.195222 0.098311 -0.355455 -0.167271 -0.524889 0.385502 -0.303705 -0.442892 0.208366 0.193877 -0.682525 -0.205403 -0.380729 -0.266238 -0.280994 0.393714 0.891423 0.00609732 0.382414 0.635329 0.149553 0.122127 -0.340086 -0.714522 
-0.59461 -0.0368846 0.298918 -0.190113 0.65067 0.0510152 0.335369 -0.293377 -0.0521004 0.267719 -0.30521 -0.310597 -0.336739 0.274051 -0.103573 -0.0834601 -0.150262 -0.378577 0.307153 -0.344379 -0.0519222 -0.00682147 -0.418893 -0.0837622 -0.00749759 -0.504924 -0.271255 -0.0418469 0.155569 -0.314973 -0.349061 0.205434 0.0187406 -0.0110602 -0.214339 -0.388651 -0.148015 -0.316445 -0.29129 -0.0647221 0.0983095 -0.543985 0.278426 0.00631526 -0.412626 0.370843 0.255151 0.290214 -0.136301 -0.400791 -0.0517152 0.140876 0.825679 -0.768499 -0.208332 0.422202 -0.283456 -0.119451 -0.209933 0.234193 
0.434059 0.0943158 0.0663911 0.526283 0.319919 0.483538 -0.0855286 -0.38813 -0.494937 -0.00666948 -0.233443 -0.352429 0.196902 -0.192191 0.262942 0.0519665 -0.561488 -0.147754 -0.512699 -0.107285 0.215378 -0.286185 0.140771 -0.284764 0.410246 0.469937 0.094287 -0.172076 0.106412 0.186312 0.671872 0.357217 -0.338608 0.328455 -0.110337 0.278359 -0.18512 -0.215269 0.653192 -0.136186 0.28469 -0.17628 0.364547 0.11078 -0.0113404 -0.234773 0.47311 0.305 0.885015 0.0403402 0.238094 -0.116715 0.26192 -0.124957 0.339061 -0.431148 -1.10367 0.227182 -0.521401 0.565529 
0.0700228 0.662365 0.0280589 -0.565595 -0.943648 -0.146071 -0.0422328 0.213338 -0.784068 -0.11891 -0.86894 0.122808 -0.509208 -0.546126 -0.351679 0.216619 0.324054 -0.391441 0.0609238 -0.12544 0.62729 0.118895 0.141449 0.467226 0.584217 0.138308 0.385618 -0.306005 -0.0369992 0.252341 -0.797872 -0.339639 0.496991 -0.0195389 -0.0612567 0.323592 0.429924 -0.547681 1.19184 -0.206915 0.503521 0.143011 0.0179584 0.00923928 0.0310224 -0.323575 -0.131957 -0.292056 -0.0211762 -0.0943059 -0.281241 -0.411142 0.0739698 -0.405521 -0.192549 0.216394 0.218124 0.0718754 0.406973 0.42704 
-0.245139 -0.326808 0.424263 -0.96057 -0.689851 0.19615 -0.141273 0.347067 0.316205 0.595083 -0.0280433 -0.0608219 0.232726 0.420051 0.0199372 -0.417711 0.0815577 0.366364 0.0933591 -0.294104 -0.600326 0.431583 -0.0500253 -0.15868 0.507843 0.0809839 -0.304044 -0.562218 0.0800051 0.0265072 -0.466361 0.207491 0.627906 0.6033 0.332836 -0.166918 -0.215018 0.217451 0.792632 -0.401621 -0.471855 -0.300138 -0.148512 0.256485 -0.279706 0.25582 0.288092 -0.251762 0.469401 -0.232624 0.275252 0.00337855 -0.304459 -0.290117 -0.378125 0.118223 0.497551 0.33183 -0.0840691 0.190066 
0.667522 0.125955 0.158061 0.0325377 -0.0145519 -0.173071 0.307202 -0.167943 -0.0323168 -0.132047 0.233618 0.0125145 0.259531 -0.123745 0.0836061 -0.412289 -0.145096 0.314797 -0.0397419 -0.416732 0.46182 -0.311431 -0.179414 0.0571875 0.457221 -0.12196 -0.204379 -0.358865 0.0871253 0.31029 -0.205192 -0.294848 0.0108327 -0.406035 -0.211577 0.0570905 0.433965 0.103469 -0.157105 0.23452 0.0470625 -0.295463 0.0945945 0.0877943 0.387587 -0.0431367 0.310567 0.405429 -0.193029 0.714509 -0.17016 0.130892 -0.242798 0.113788 0.552551 0.163853 0.177191 -0.0770445 0.61788 0.0823181 
0.55075 -0.375466 -0.0935483 0.282501 -0.108131 0.155895 0.354243 -0.272991 -0.603351 0.0986949 -0.258847 0.35489 -0.138808 -0.543468 0.227372 -0.179965 0.633624 0.689894 0.187295 -0.649482 0.228922 -0.36376 0.362304 0.355108 -0.119657 -0.0436393 0.725435 -0.310756 0.208496 -0.309843 -0.382903 0.348451 0.138485 -0.274862 -0.354142 -0.449018 -0.0550123 -0.0695893 -0.605746 0.32159 0.7042 0.159531 0.162192 -0.314796 -0.186346 -0.41074 0.154843 -0.213591 0.118403 0.0949287 -0.222844 0.0961349 -0.288195 -0.428012 -0.157942 -0.423035 -0.425616 -0.0817596 -0.0027328 0.320297 
-0.581586 -0.588368 -0.0410678 -0.0324898 -0.671796 -0.0829002 0.268015 0.293451 -0.524011 0.238824 -0.352624 -0.209275 0.00363312 -0.0280024 0.180058 0.239176 -0.450816 -0.896466 -0.550702 0.204993 -0.127519 0.501671 0.620874 -0.662292 -0.101948 0.278935 -0.00535566 0.0327638 -0.320191 -0.331761 -0.201623 -0.00467732 0.0869292 0.474799 0.240595 -0.0399429 0.159729 0.456285 0.0905619 -0.320476 0.220843 0.507061 0.529928 -0.765522 0.816071 -0.671053 0.401561 -0.447438 -0.562112 0.117251 -0.133413 -0.31005 -0.189581 0.065473 -0.04303 0.546954 -0.275879 -0.149901 0.266938 -0.185626 
0.00568366 0.30146 0.0265384 -0.149362 -0.0842992 -0.221076 -0.128903 -0.307914 0.0563361 -0.318554 -0.294992 -0.124049 0.200312 0.570379 -0.255524 0.175276 0.830452 -0.0829308 0.182315 -0.417599 -0.0434567 0.0389966 -0.327848 0.708644 0.117846 -0.00831297 0.107816 -0.0443452 -0.638304 -0.210688 0.0432002 -0.294701 -0.302779 -0.624581 0.443929 -0.188155 -0.363381 0.232864 0.0679262 -0.0443315 -0.328123 0.26277 0.0156549 -0.177148 -0.790972 -0.06053 0.171902 -0.179278 0.51762 -0.173612 -0.535163 0.051453 -0.1174 -0.0423666 0.308203 0.0718777 0.106693 -0.414259 -0.440708 -0.0259582 
0.0852129 -0.222551 0.31421 0.234074 -0.448336 0.0766754 -0.10413 -0.453731 -0.0892476 0.0905748 -0.173323 -0.609922 0.251495 -0.0749481 -0.506118 0.0297588 -0.0521684 -0.838411 0.431238 -0.11582 -0.339863 0.762491 -0.381379 -0.199335 1.1795 0.736575 0.117593 0.458341 0.314876 -0.105318 0.0183921 0.498968 0.497822 -0.141236 -0.490306 -0.328606 0.155261 -0.350645 -0.116356 -0.174037 0.336141 0.0462686 -0.0548381 -0.231883 -0.0902028 -0.470773 -0.503894 0.353607 0.221534 0.443134 0.451758 -0.567924 -1.14998 0.84271 0.141067 0.0548431 0.471246 -0.055517 0.572748 0.569888 
0.195624 -0.251487 0.0677766 0.114872 0.346391 0.460417 -0.437389 -0.396103 -0.397198 -0.256561 0.471957 -0.133538 0.331238 0.403677 -0.0333734 -0.00870466 0.859214 0.30392 -0.289069 0.0157813 -0.465598 0.321705 0.374566 0.103885 -0.453056 0.178444 -0.659685 -0.222152 -0.0921261 -0.0851111 -0.747823 -0.0285581 0.289406 -0.177796 -0.131558 0.271384 0.0569553 0.0010589 0.362014 0.280118 0.450896 -0.502259 0.420702 0.477384 0.134808 -0.376445 -0.252839 -0.146095 0.208103 0.0789612 -0.177545 0.0561779 0.00605781 0.101342 -0.131385 0.284384 -0.309074 0.580343 -0.767937 -0.0257969 
0.113467 -0.181296 0.277584 -0.193902 0.146194 0.147368 -0.165006 -0.394378 0.0330807 0.300941 0.843864 0.244863 -0.122674 -0.0535341 -0.421653 -0.0244443 0.076693 -0.914477 -0.174295 -0.112063 0.105591 0.110452 -0.227933 0.627944 -0.157278 -0.0870799 -0.221739 0.270953 -0.392719 -0.118736 0.0858121 0.521372 0.103744 0.729158 -0.403017 -0.291577 -0.0890724 -0.461883 0.500865 -0.392532 0.169895 -0.00355196 -0.577545 -0.00507377 0.276646 0.0275582 0.514576 -0.38966 -0.51409 0.0235849 0.202303 -0.0849424 0.250394 -0.190069 -0.0718536 0.340846 -0.498315 0.296148 -0.617604 -0.266527 
-0.17952 0.320152 -0.0947074 -0.0659759 -0.364475 0.174578 -0.152522 0.286988 0.0293074 -0.481131 0.494815 0.164105 0.337818 -0.37254 0.370498 0.542972 -0.25822 -0.322276 0.0987781 -0.544277 0.427708 -0.167506 -1.09978 0.381119 0.389832 -0.197144 -0.329573 0.387507 -0.540266 0.0532166 0.237526 0.373811 -0.0584549 0.390107 -0.273374 0.166335 0.123963 -0.145301 0.217425 0.580608 -0.0842198 0.0853691 0.288037 -0.17883 -0.10419 -0.272379 0.227406 0.296025 -0.00832468 0.113747 -0.686465 -0.426008 0.941698 0.857494 -0.373835 -0.211169 -0.153282 -0.00839778 -0.309665 -0.357979 
-0.184612 -0.137976 0.43025 -0.372751 -0.423724 0.566661 0.687993 0.0928335 -0.191369 -0.0330469 0.374948 -0.266111 -0.0454114 0.00123345 0.158623 0.249499 -0.0923291 -0.526028 -0.197385 -0.0385022 0.438874 0.223382 -0.186963 -1.20028 0.38528 -0.238259 0.432231 0.19467 -0.384563 0.196613 0.695949 -0.0250573 0.0470368 0.662017 0.0309114 0.672366 0.0960154 -0.293475 -0.424681 0.00268696 0.0569659 -0.717455 0.253107 0.351542 0.116491 -0.26941 -0.227507 -0.575582 -0.296651 0.973899 -0.226485 0.171715 0.151617 0.546274 -0.337917 0.463638 -0.0146827 0.21517 -0.0296032 0.110287 
-0.253454 -0.27775 0.734695 0.442181 -0.0688385 -0.225756 0.118637 0.391728 0.264907 0.113247 0.0740617 0.229896 -0.740044 -0.190645 0.734084 -0.283579 -0.232945 0.147486 -0.428076 -0.308119 0.324971 0.246343 -0.308767 0.676074 -0.154394 0.224218 -0.0293216 0.25318 -0.0301011 -0.190455 0.263888 -0.444629 -0.392921 0.484565 -0.0374594 -0.0119079 -0.264008 -0.190653 0.377651 0.247691 0.134317 0.308069 0.194122 0.278221 0.226567 0.258768 -0.0326316 0.0101367 -0.129219 -0.289584 -0.456695 -0.578758 0.128412 0.402425 -0.0563749 -0.204881 0.306242 0.343657 -0.0669952 -0.299405 
0.316197 0.183266 -0.386183 0.10849 0.467241 -0.0286536 -0.302462 0.296342 -0.373296 -0.562386 -0.0647882 -0.23761 -0.483747 -0.0305627 -0.280564 -0.178491 0.178604 0.0084686 -0.397841 -0.0115483 -0.129027 0.331872 0.128582 0.412406 -0.250007 -0.152329 -0.282766 0.152927 0.223329 -0.321726 -0.491609 -0.496804 0.0913881 -0.154961 -0.593881 0.135815 -0.754473 -0.500093 -0.361683 -0.509053 -0.390674 0.724774 -0.131634 0.129362 -0.373235 0.32817 -0.386873 -0.156376 0.0584723 0.0216062 0.316813 0.0432511 0.328487 0.18831 -0.0835329 -0.131537 -0.617723 0.610634 0.755664 0.353426 
0.0896264 -0.521986 -0.148826 0.0332369 -0.0967525 0.0859667 -0.525219 0.304126 0.38809 0.490357 -0.28178 0.516358 0.0694334 0.109552 0.357188 0.196124 -0.224535 0.470422 -0.184573 0.216124 0.755044 -0.3177 -0.152008 0.0475686 -0.161241 -0.441785 -0.00643952 -0.190481 -0.538949 0.28125 0.154222 0.0129067 0.0766701 0.365873 -0.104191 0.148598 -0.689349 0.311578 -0.0274155 0.393767 -0.490268 -0.36725 0.0149204 -0.00156813 0.739597 0.0766035 0.30712 -0.0888543 -0.35358 -0.596269 -0.194048 -0.12836 -0.237272 0.203445 -0.477087 0.440145 0.248071 0.0993148 0.109233 -0.0317834 
-0.323914 -0.242919 0.151577 0.296033 -0.0209618 -0.29654 -0.025723 -0.419638 0.286263 0.122882 -0.160003 -1.09479 0.0890957 0.205251 0.57303 0.202765 -0.348679 -0.0868283 -0.286885 0.110352 -0.242485 0.248562 -0.128219 0.493019 -0.477746 -0.112343 -0.433246 -0.241779 0.026393 0.219832 0.00211276 -0.303432 0.533637 -0.684687 -0.0402432 0.18921 0.630415 -0.714111 -0.072388 -0.497859 -0.731186 -1.03662 0.0409629 -0.0256268 -0.192121 -0.103107 0.592383 -0.413797 -0.169057 -0.196951 0.293947 0.109898 -0.401028 0.249748 -0.242536 0.0293877 0.519986 -0.209281 -0.0791297 0.503495 
-0.280806 -0.196415 0.400663 -0.840054 0.445952 0.148613 0.368913 -0.101621 0.803011 -0.0429483 -0.283245 -0.155091 -0.859233 0.239937 -0.23771 -0.251276 -0.57569 -0.0523651 0.507486 -0.0461935 0.397066 0.324083 0.0442802 -0.39763 -0.0458361 -0.198251 0.25719 0.201223 -0.105823 0.159308 -0.604154 -0.205869 -0.331161 -0.598708 0.435952 0.0454838 0.0189969 0.394672 0.24388 0.352384 -0.438933 -0.112349 -0.160827 -0.158884 0.436235 -0.298178 -0.198604 -0.63258 -0.133478 -0.139225 -0.152096 -0.151136 -0.861543 -0.0323848 -0.140758 -0.653373 -0.0974306 0.197753 0.0431314 0.358046 
0.101311 -0.482887 -0.342389 0.693643 -0.269672 -0.574383 -0.120635 0.0568662 0.486648 0.355386 0.456318 0.861231 0.647447 0.397434 0.0635111 0.158075 -0.630602 -0.395545 0.192276 0.178168 -0.0694602 -0.155809 -0.327597 0.186692 0.13714 0.32562 -0.156786 -0.393445 0.270956 -0.249699 0.672705 -0.537815 0.282706 -0.151839 0.265491 0.0460185 0.329887 -0.232353 -0.206161 0.381334 0.513761 0.00913633 -0.696012 -0.82221 -0.137901 -0.531514 0.201065 0.281355 -0.177214 0.0843041 -0.344206 0.0521084 -0.0153001 0.953475 0.0617074 -0.26161 0.750586 -0.075133 -0.426037 0.113876 
-0.469912 0.504751 0.218412 0.279495 0.191597 -0.237133 -0.105187 0.21574 -0.468571 -0.343854 0.222306 0.149588 -0.158408 0.602098 0.338623 0.169667 -0.241126 -0.148122 -0.0504333 0.158602 0.217655 0.217994 -0.178999 0.336171 0.261166 0.171205 0.0998206 -0.47012 0.0576005 -0.486559 -0.539804 0.245798 0.328253 -0.683566 0.210772 0.00612494 -0.462736 -0.149977 -0.443972 -0.172875 0.477627 0.881376 0.119128 -0.257696 0.268721 -0.138707 -0.116036 0.525133 -0.205336 -0.197832 0.166331 0.186222 0.399418 0.0299817 0.276178 -0.00450129 -0.305459 -0.0322906 0.467483 -0.438747 
0.125926 0.358519 -0.247371 -0.704823 0.650792 -0.151755 0.0125417 -0.583487 -0.137461 0.286357 -0.412416 -0.584972 0.175554 0.219568 -0.518013 -0.0170331 0.00759073 0.120017 -0.00966183 -0.149619 0.400773 -0.572459 0.272907 0.331398 -0.272379 -0.236162 -0.100851 0.445828 -0.614329 0.124433 0.0180414 0.734722 -0.35047 0.25524 -0.607302 -0.176516 0.366249 -0.216884 0.040954 0.358346 -0.131746 0.465525 -0.665409 0.364036 -0.458269 -0.0671803 -0.404501 -0.197323 0.935632 -0.325919 0.235503 -0.07003 -0.0366175 0.228413 0.0983219 0.0630606 -0.28583 -0.152093 -0.145786 0.255948 
0.30436 -0.331799 -0.34957 0.425184 0.0244721 0.629086 0.180393 0.337447 0.196368 0.283755 0.0318304 0.046511 -0.337665 0.178717 0.281399 0.397041 -0.274664 -0.461541 0.00378785 0.640704 -0.477324 -0.229117 -0.519322 0.243829 -0.287029 0.0446341 -0.515551 -0.426595 -0.343039 0.225628 -0.573438 0.322685 0.108085 -0.0777083 0.184673 -0.679997 0.150675 -0.631011 -0.0787695 0.0649137 0.14794 0.21209 -0.153273 -0.0588892 0.0679511 0.758254 -0.0859101 -0.0891174 0.000792263 0.172141 0.629416 0.0207538 0.690673 0.500336 -0.368551 -0.327533 -0.104126 0.0250012 -0.25866 0.228325 
-0.583827 -0.0418089 -0.582871 -0.0161444 -0.359491 -0.181911 -0.80729 -0.1326 0.265209 -0.802959 0.120279 0.264978 -0.0937027 0.284723 0.299312 -0.187111 -0.33016 -0.606355 -0.047967 -0.490393 0.351659 0.154464 0.590658 0.100573 0.262046 0.235364 -0.145624 -0.0874791 0.137141 -0.210932 0.336269 0.30255 -0.402305 -0.474229 0.0398135 -0.296831 0.348364 0.324339 0.136095 -0.180718 -0.493308 0.307551 -0.124071 -0.171929 0.228493 0.889587 0.997879 -0.305728 0.0365865 0.486671 0.182241 -0.061201 -0.137018 -0.415004 -0.322124 0.472513 -0.136877 -0.104738 -0.101649 -0.185739 
0.482375 -0.213146 -0.186369 0.175971 -0.0824165 -0.0751487 0.273952 -0.514646 0.299369 -0.253132 -0.210569 0.247406 0.182463 -0.00610945 0.133483 -0.0840086 0.530391 -0.844698 0.332785 -1.1042 0.507741 0.247599 -0.031351 0.0572937 0.00522855 0.0999417 0.279336 -0.0771216 -0.283388 -0.116858 -0.564687 -0.38018 -0.385555 -0.209971 0.111401 0.316698 0.143741 0.064402 -0.118589 0.200059 -0.155091 -0.552385 0.0937655 -0.263176 0.0409506 -0.428342 -0.557946 0.224098 -0.644616 -0.388778 -0.023351 0.861455 -0.108895 0.401497 -0.0841606 0.751211 -0.162545 0.279027 -0.00980069 0.426579 
0.375876 0.700608 -0.224902 0.0339754 -0.239272 -0.266044 0.0467908 0.478194 0.360189 -0.176798 0.0765954 -0.29538 -0.00957441 0.1375 -0.517091 0.0256969 0.0922423 0.0227812 -0.189536 -0.561844 -0.0458032 0.267747 0.212639 0.65648 0.461202 -0.0795838 0.410373 -0.37268 -0.430305 -0.233023 0.278116 0.231268 -0.531742 0.130857 0.508406 -0.136673 -0.196901 -0.0934622 -0.558544 0.301596 0.608059 -0.097691 -0.356551 -0.612756 0.0668878 -0.118484 0.666538 0.105472 -0.0979496 0.535102 -0.0984898 -0.107527 0.0111945 -0.822207 -0.153878 0.142039 0.127642 0.40475 0.000940709 0.0139902 
0.219565 0.0836579 -0.235865 0.475834 -0.171585 -0.571912 0.360126 0.327963 0.524364 0.218348 -0.187624 0.602567 0.0243853 -0.147468 -0.203913 0.400981 -0.20137 0.171295 0.0784299 0.052617 -0.0236656 -0.471389 -0.029431 -0.0920146 0.414363 0.147328 -0.197597 0.0615174 -0.496291 -0.341239 -0.661856 0.234045 0.793596 0.305342 -0.527984 -0.575818 0.420273 -0.0188183 -0.00107651 -0.291375 0.427795 -0.39689 -0.223577 -0.334593 -0.307034 -0.0307022 -0.646439 -0.0615798 -0.167238 -0.261271 0.400654 -0.108443 0.263302 -0.0106718 -0.299714 -0.000727024 -0.547106 0.0671662 -0.256114 -0.408833 
0.203544 -0.155457 0.0274467 -0.0415085 0.200576 0.427091 -0.738698 -0.173525 -0.218695 0.933767 -0.37996 -0.13618 0.110337 0.154053 -0.311231 -0.168074 0.0819249 0.171849 -0.200322 0.0868168 -0.431022 0.671115 -0.550209 -0.182451 -0.109097 -0.444249 0.440695 0.843207 -0.154285 0.0986459 0.701055 -0.545633 -0.13874 0.403675 0.00134897 0.202031 0.249375 0.162301 0.872857 -0.332994 0.529935 -0.374033 -0.314616 0.356087 0.0126478 -0.0794232 0.908993 -0.755459 -0.216396 0.00947453 0.176319 -0.239947 -0.419209 0.0156807 0.654886 -0.489569 -0.32092 -0.0691423 -0.584468 0.1158 
0.0828347 -0.102808 0.0545611 0.290503 -0.00508915 0.389052 0.445953 -0.160744 -0.649026 0.56575 -0.307674 -0.5392 -0.00351589 -0.406928 -0.159284 0.285651 0.34874 -0.387284 0.510184 0.0622665 0.210852 0.223351 0.285464 -0.390161 0.24124 -0.392897 -0.0477141 0.632316 -0.139468 0.501156 -0.255538 0.0801504 -0.0706622 -0.454579 0.767906 -0.476361 0.0354731 -0.22331 -0.146671 -0.530324 -0.300355 -0.453079 -0.575011 0.208124 -0.12367 -0.369032 0.324732 -0.150452 -0.333935 0.391533 -0.264836 -0.081309 -0.365129 0.139963 0.174081 0.131697 0.418118 0.085085 -0.714048 0.465699 
-0.153345 -0.120672 -0.692617 -0.445011 -0.0761495 -0.0593841 0.0696971 0.523723 0.022269 -0.561152 0.212336 -0.294821 -0.0796552 -0.797918 -0.374482 -0.171865 0.371288 -0.391612 0.417706 0.405092 0.261717 0.379809 -0.152278 0.0567713 -0.156099 -0.127614 -0.0858175 -0.639292 0.279309 -0.202757 -0.282743 -0.018864 0.371211 0.0712614 0.800397 -0.476603 0.0905592 0.363132 0.229654 0.408534 0.148555 -0.251137 0.0921105 0.402462 0.236157 -0.431896 -0.0896375 -0.0131037 0.408532 -0.307033 -0.311109 -0.537661 -0.526457 -0.253295 -0.151768 0.143889 0.612994 0.0867283 0.344286 -0.277286 
-0.403817 -0.459139 0.238714 -0.202103 -0.312602 0.691566 -0.101242 0.0603382 -0.341397 0.178809 0.209634 0.287052 0.232849 -0.0124458 -0.620191 0.22198 0.60388 0.0968497 0.378388 0.564959 -0.0715965 -0.647149 -0.0770331 -0.122258 0.520639 0.0237114 -0.262323 -0.2999 0.00328398 -0.462624 -0.542486 -0.124101 0.217817 -0.298911 0.149683 0.0138139 -0.0913158 -0.625123 -0.170477 0.290486 -0.151328 -0.930088 -0.320166 -0.319588 -0.00662847 -0.1737 -0.564938 0.0285155 -0.418439 0.0726947 -0.0806369 -0.621371 -0.139007 0.0410323 0.18167 -0.0881058 -0.103901 -0.172932 0.0455502 0.0890401 
0.399966 0.149381 -0.0963041 0.306794 -0.578327 -0.467252 0.553053 -0.115833 0.0315494 0.106947 -0.0980637 -0.276587 0.545918 -0.138596 0.21243 -0.0826409 -0.0196195 0.148223 -0.0182045 0.124577 -0.0407265 0.520937 -0.043386 -0.308592 -0.0183211 0.177649 0.538248 -0.00799118 0.315007 -0.502891 0.087087 -0.0288089 0.590037 0.117074 0.599882 0.242871 0.49318 0.673745 0.00571146 -0.372258 -0.00211625 -0.0370556 -0.105612 -0.45065 -0.202697 -0.29931 0.0862982 0.42274 -0.0439463 0.859557 0.242249 0.467115 0.415292 -0.215916 0.20427 0.428396 0.0427145 0.101527 -0.0164149 -1.03485 
-0.7935 -0.029906 0.490264 -0.179397 0.239753 -0.519055 0.0402709 0.112199 -0.443616 -0.210668 -0.295061 -0.110796 -0.314241 0.324849 0.841177 -0.151459 -0.149954 -0.760697 -0.572643 -0.531065 0.0718776 -0.154763 0.425509 -0.0531457 -0.576414 0.348879 0.417909 -0.12283 -0.319348 -0.519426 -0.0397363 0.0538968 -0.613357 0.4341 0.56434 0.149428 -0.425513 -0.271615 0.357904 -0.180288 -0.568458 0.0800864 -0.0890914 -0.0336973 -0.124292 0.222883 0.225727 -0.134815 -0.30722 0.472968 0.375525 0.0144272 0.327453 -0.463724 -0.042593 0.117308 0.138214 -0.0883675 -0.29403 -0.27639 
0.0249901 -0.36898 0.943627 -0.493749 -0.534003 -0.0130775 -0.531064 -0.3932 -0.728135 0.448425 0.250135 0.153743 0.344672 -0.0373375 0.0182072 -0.382702 0.523703 0.220032 0.219792 0.281601 -0.21418 0.188719 -0.763383 -0.444389 0.247042 0.50043 -0.203877 0.275289 -0.464049 -0.161761 -0.154359 -0.565408 -0.135455 -0.356847 -0.15886 0.297994 0.110243 0.112522 0.0129309 0.312609 0.12899 -0.445272 -0.0904288 -0.132645 0.0415145 -0.230027 -0.698188 -0.839811 0.553271 0.327494 0.00445344 -0.22921 -0.417852 0.284454 0.457075 -0.082348 -0.567479 0.207218 -0.503969 -0.305932 
0.0236112 -0.802694 -0.0865709 -0.960715 0.124331 0.165456 0.361964 -0.264105 -0.0891356 -0.439435 0.0985349 0.066205 0.147353 0.340074 -0.22138 -0.34628 -0.158806 -0.174771 -0.485029 0.353971 0.40167 0.246393 -0.241101 0.212545 -0.0549419 -0.571978 -0.241882 -0.190358 0.110389 -0.354714 -0.144795 -0.326339 -0.452381 0.582453 0.176659 -0.193122 -0.347542 -0.303052 -0.164162 0.263529 0.00205136 -0.127021 0.411074 0.0820819 -0.359258 -0.340486 -0.549468 -0.350469 0.668712 -0.362178 0.0106506 0.0309297 0.444869 0.360602 0.505694 0.55536 -0.0594629 -0.0747469 -0.669394 0.297091 
0.134218 -0.0957252 -0.416329 0.169225 -0.41016 0.117224 -0.00716628 0.495906 0.226375 0.474506 0.422052 0.235613 0.629291 -0.153825 -0.186999 0.385311 -0.298652 -0.330262 -0.885077 -0.383819 -0.000902078 -0.353502 -0.738926 -0.402516 0.318584 -0.705529 -0.0595394 0.416736 -0.150673 0.0906583 -0.435868 -0.212545 0.116095 -0.039062 0.789221 0.0274706 -0.115783 -0.589054 -0.190737 0.00979568 -0.209424 0.276888 0.157525 -0.496539 -0.332887 0.335111 0.544036 0.117548 -0.242943 0.0177265 0.268933 -0.214521 -0.736569 -0.125543 -0.0293786 0.120658 -0.329625 0.177293 -0.049127 -0.3259 
-0.240926 0.190849 -0.0774779 0.355833 0.241019 -0.187641 -0.0381561 0.0676224 0.0730113 0.53847 -0.0397783 -0.721026 0.339692 0.366398 0.227265 0.225536 0.0318604 -0.212147 0.133903 -0.000696014 -0.0602867 -0.0375547 -0.249726 0.647008 -0.160223 0.157076 0.219374 -0.243856 0.135876 -0.376822 -0.540766 -0.60725 0.59943 -0.231234 0.505573 -0.106793 -0.258328 0.148375 0.419098 -0.614629 -0.379942 0.321604 0.14818 0.00150523 -0.0905943 -0.102564 -0.122947 -0.478761 0.0869111 0.511555 -0.268007 -0.105629 0.0123953 -0.56077 0.122086 0.325787 -0.321938 -0.117753 -0.729873 -0.363672 
-0.380928 0.394945 -0.271711 0.0513599 0.0958998 0.274092 -0.351209 -0.0123076 -0.268373 0.40606 -0.160501 0.109562 -0.313505 -0.430494 -0.192543 -0.436153 0.455158 -0.0807179 -0.317567 -0.18909 -0.874124 -0.0373682 -0.162835 -0.0876781 -0.250094 -0.00731815 -0.073884 -0.491758 0.156551 0.877224 -0.6531 -0.011524 -0.58483 0.347472 -0.0769283 0.275161 -0.121465 -0.143894 0.131466 -0.416078 0.38773 -0.084664 0.526973 0.550367 -0.197826 -0.236822 0.259895 -0.845798 -0.0855581 -0.403062 -0.143408 -0.591007 -0.528933 -0.180919 -0.200231 -0.200605 -0.184281 -0.0782943 -0.769213 0.542456 
-0.372421 0.104702 0.654969 -0.514045 0.133699 -0.325372 0.291212 -0.633322 -0.413967 0.19327 -0.237984 0.261082 0.354559 0.252541 -0.157049 0.176958 -0.582894 0.358846 -0.158266 -0.127451 -0.515149 -0.624344 -0.191027 0.212018 0.48432 0.0392845 0.467871 0.222056 -0.0890948 0.821082 -0.0828731 0.141591 0.00136314 -1.05459 0.465656 0.244276 -0.0594839 0.15493 0.100289 -0.0422623 -0.0612558 0.421476 0.0956462 0.461226 -0.413424 -0.409799 -0.350061 -0.149493 -0.0557813 -1.20923 0.146803 0.488653 -0.00188339 -0.186097 0.292781 0.274669 0.0541814 -0.0555964 0.283821 0.159601 
0.23744 0.511126 0.155633 0.00298992 -0.267562 0.51514 -0.0745285 0.538577 -0.119471 0.0194465 -0.204744 0.123884 -0.27893 0.93849 -0.122085 -0.254011 -0.111755 -0.166411 0.157684 -0.504951 -0.038424 0.306169 -0.041255 0.56034 -0.103544 -0.598254 -0.159202 0.440705 -0.53252 0.276564 0.166846 0.296045 -0.999581 0.0738224 0.1717 0.10915 0.325312 -0.821892 0.110797 -0.292927 -0.69184 0.54764 -0.905916 0.126908 0.250846 -0.0695723 0.384659 -0.286937 0.0873356 0.457749 0.0799479 -0.126066 0.0822901 -0.0689787 0.233911 0.530776 0.339192 0.0803814 0.402835 0.349202 
-0.404891 0.438303 -0.572352 0.118468 0.115444 0.155112 -0.098661 0.0239448 -0.675353 -0.277455 -0.121625 -0.372979 0.250601 -0.386151 0.231339 -0.131321 0.0960247 -0.0832685 0.348816 -0.539954 -0.325104 -0.457384 -0.293848 0.370267 -0.0285192 -0.0993023 -0.187987 -0.0900982 0.161922 -0.592322 -0.196091 -0.0251168 0.269066 -0.0378948 -0.130592 0.0364698 -0.0792803 -0.273211 -0.122707 -0.140778 -0.0852478 0.21355 0.312796 -0.492444 -0.709726 0.0975955 -0.107453 0.260219 0.522545 -0.189288 -0.373331 -0.404608 0.320753 0.569 -0.320937 -0.0704715 0.0978844 -0.723084 0.24011 -0.388483 
0.0186244 0.0261618 0.523197 -0.453713 -0.180279 0.129895 -0.236193 0.432818 0.301925 -0.227532 -0.252853 0.176617 0.0802363 -0.223434 0.0846429 0.0858537 -0.380555 -0.418606 0.46021 -0.127953 0.122245 0.0366007 0.447034 -0.412965 0.447627 -0.455933 -0.141098 -0.0104128 -0.108931 -0.0406891 -0.0899184 0.148892 -0.301389 0.560992 -0.59983 -0.13742 -0.108893 0.21955 -0.275805 -0.212696 0.167113 0.0263871 -0.204699 -0.428216 -0.254438 -0.915453 -0.424972 0.238648 -0.09434 0.283466 0.370858 0.381889 -0.439613 0.169701 0.461807 0.153195 0.421157 0.446589 -0.318929 -0.219196 
0.0845394 0.356648 -0.137258 -0.539844 -0.0560529 -0.242661 0.0607168 -0.00252361 -0.0420314 0.23126 -0.468601 0.261583 -0.319197 0.554463 -0.405379 -0.460859 0.167244 -0.19349 0.0898074 -0.316593 -0.0391923 0.438341 0.556447 -0.518835 0.140224 -0.0325236 0.633648 -0.48415 -0.0142868 0.264357 -0.0763698 -0.0482154 0.299758 0.0855391 0.131988 0.148413 -0.25454 -0.733862 -0.150243 0.00903744 0.206186 -0.858603 0.875033 -0.515437 -0.408997 0.0196851 -0.00508357 -0.199602 0.433321 -0.593229 -0.251792 -0.399848 0.339671 0.197697 0.31789 -0.105605 -0.81098 0.682073 0.444615 0.445736 
-0.122385 0.521879 -0.297102 -0.062741 -0.140407 0.456873 -0.242458 0.270666 0.71192 0.512022 0.619794 0.0465063 -0.200624 -0.161065 0.0554126 0.208495 -0.380013 0.431623 0.450148 0.267154 -0.237928 -0.0388269 -0.266184 -0.318083 0.675465 0.299224 0.301484 -0.861697 -0.204628 -0.28338 -0.509243 0.326653 0.149648 -0.436404 0.586724 -0.59526 -0.0495898 -0.189448 0.254932 0.404165 0.290131 -0.731951 -0.596975 0.376782 0.11603 0.0858255 -0.324607 0.333342 -0.23337 0.1606 0.378086 -0.749534 -0.0525968 -0.31984 0.0327371 -0.270231 0.824678 -0.335952 -0.352705 0.223476 
0.181129 -0.304115 -0.200677 -0.113791 -0.345011 -0.14695 -0.158079 0.140834 0.599393 0.169716 0.111339 -0.154049 -0.17099 0.52567 0.214086 -0.00261688 0.0835417 0.308763 -0.270571 0.210057 0.00255328 -0.0922432 -0.130753 -0.062122 -0.0478785 0.0579763 0.0512852 0.290587 -0.408341 -0.207079 0.0388365 0.0943887 0.0597903 -0.428285 -0.053717 0.64036 0.105082 -0.281478 0.185792 -0.701838 -0.165358 -0.0732619 0.895855 -0.0358673 0.277065 -0.211112 -0.22148 0.530431 -0.20232 -0.413783 -0.11863 -0.231346 -0.0526004 0.237254 -0.133389 -0.364741 -0.120085 0.564491 -0.593491 -0.647527 
0.446871 -0.772419 0.226173 -0.154594 0.258367 -0.0669723 0.344543 0.732841 0.0647314 -0.477758 0.470292 0.115035 -0.398533 0.187822 0.0511888 0.592482 -0.117057 0.770438 -0.170213 -0.000206106 0.116865 0.0716709 0.0162146 -0.0782806 -0.477962 0.919723 -0.0486464 -0.357546 -0.311065 -0.349261 -0.191391 -0.570561 -0.454233 -0.0254467 -0.207183 -0.127034 -0.479278 0.680165 0.17899 0.183502 0.395206 -0.420893 -0.146221 0.0341741 -0.199818 0.159038 -0.25253 -0.126032 0.677814 0.738016 0.318829 0.011142 0.199896 -0.237198 0.360456 0.0501232 -0.613495 -0.446333 -0.345818 0.363523 
0.439249 0.338998 0.348104 -0.0440677 -0.381404 -0.232983 -0.170073 -0.132386 -0.743359 -0.330735 0.0546956 -0.55996 0.148286 0.255471 0.107963 0.139167 0.379921 0.0571701 0.712965 -0.507227 0.0757622 0.0686434 0.329849 0.70711 0.720271 -0.317256 -0.0930913 0.0832532 0.0367693 -0.504399 0.26202 -0.297593 0.904446 -0.159804 -0.254244 -0.557168 0.436971 -0.159409 0.277031 0.0712749 -0.267184 -0.127198 0.250611 -0.269999 0.44035 -0.49992 0.098003 0.0792328 -0.420737 -0.529942 -0.0527935 -0.320885 0.208417 -0.22656 -0.447244 -0.642764 0.0154799 -0.350955 -0.167893 0.64001 
0.0487506 0.373689 -0.094164 -0.337719 0.166247 0.345543 -0.13536 0.244378 0.518038 -0.29335 0.0865271 -0.0319548 0.37313 0.368694 -0.38198 0.836698 0.154312 -0.413102 -0.585634 -0.302555 -0.0523171 -0.0568309 0.513016 1.05204 -0.146169 0.612613 -0.324791 -0.107842 -0.748984 0.0321981 0.182499 0.0788659 -0.0846576 0.311959 0.0213981 0.0679114 0.583566 0.217173 -0.371136 0.246259 -0.239275 -0.17084 0.146713 -0.181808 0.257258 -0.509587 -0.0695398 -0.579562 -0.366962 -0.0911681 0.145149 0.536789 -0.149924 0.244957 0.445384 0.0512211 -0.442324 0.308822 -0.710478 -0.65993 
-0.127025 0.178052 0.705484 0.483577 0.155106 0.0684863 -0.198284 -0.101522 0.508389 -0.43514 0.108978 -0.0450541 -0.273584 0.336067 -0.474813 -0.117668 -0.339842 -0.137355 0.14204 -0.575547 0.1011 -0.276815 -0.392752 -0.0253378 0.198701 0.295345 -0.531196 0.31505 0.41069 0.401913 -0.106463 0.0748007 -0.235263 -0.537654 0.267421 -0.120546 0.267986 -0.134643 -0.151396 0.143968 -0.150998 -0.0687757 -0.0952482 -0.468231 -0.280154 1.48935 -0.51659 -0.632267 0.886922 0.620744 0.316198 -0.0197682 0.390475 0.0250061 0.265353 0.390035 -0.158614 -0.557396 -0.054475 0.492748 
-0.38372 0.0416327 -0.306527 0.404549 0.0948221 -0.244331 -0.178326 0.233748 -0.0487203 -0.0900326 0.0685456 0.646423 0.0655702 -0.332523 0.419198 -0.166244 0.555721 -0.700002 0.473316 -0.069184 0.00806053 0.0616198 0.293234 -0.0201678 -0.0275226 -0.300041 -0.475222 -0.354812 -0.257221 0.118579 0.193553 0.323498 -0.0551166 -0.227067 0.134353 -0.361776 -0.51593 -0.497684 -0.0138577 0.022352 -0.55592 -0.304393 0.0044901 0.432176 0.742084 -0.141874 0.251286 0.565194 0.0688107 0.0429258 0.482752 -0.549852 -0.0215116 -0.267488 -0.0412562 0.63928 -0.219331 -0.296128 0.108454 -0.250928 
-0.398754 -0.247151 0.0894897 0.309804 0.809173 0.408594 0.1056 -0.416361 -0.215104 -0.348269 -0.380267 0.0990642 0.0415692 0.770074 0.625727 -0.0563579 -0.406304 -0.58446 0.113094 -0.0060687 -0.0659854 0.418455 0.318636 -0.061946 0.620743 0.309238 -0.186048 -0.115061 -0.259155 -0.132386 0.246573 0.223872 -0.451359 0.0606749 -0.773909 -0.120534 -0.416618 0.122644 0.600371 0.178805 0.306264 -0.0637324 -0.898896 0.0265694 0.126047 -0.179914 0.0611268 0.014237 0.574917 -0.284782 -0.0902687 -0.153423 0.417917 0.561038 0.246952 0.316282 0.104016 -0.731371 0.0850751 0.242618 
-0.0585551 0.0926388 0.166306 0.0342879 0.113488 0.360742 -0.316561 0.504954 0.409966 -0.0571011 0.441613 0.216671 -0.395576 -0.783172 0.452906 -0.0271591 0.204636 -0.172678 -0.203316 0.2236 -0.600611 0.316738 0.0551326 -0.167028 0.521512 -0.140449 -0.141256 0.302433 0.0827607 0.24841 0.430588 -0.0454538 0.0179158 -0.247901 -0.0423004 -0.0743181 -0.0549217 -0.183827 -0.0584585 -0.147032 -0.0753548 0.212932 -0.0715219 0.199014 0.525162 -0.0583643 -0.150271 -0.269727 0.151518 0.577984 -0.283675 -0.254907 0.12686 0.361985 -0.169751 -0.911024 0.289472 -0.179237 -0.323106 0.458924 
-0.51961 -0.446302 0.276256 -0.131599 -0.819447 -0.226585 -0.42018 -0.136057 -0.163252 0.0258339 0.039751 0.213802 0.268109 0.0828237 -0.307391 -0.0241283 -0.570778 -0.304849 -0.0692196 -0.118908 -0.696002 0.810711 0.100731 0.301654 -0.00548793 -0.124372 -0.0285638 0.26396 -0.327679 0.225471 0.011839 0.421256 -0.545984 0.418945 0.151076 0.00727417 -0.124779 0.03921 0.512448 0.405483 0.170147 0.0384814 -0.244396 -0.410454 0.487723 0.445353 0.244132 -0.261144 0.562646 0.108686 -0.707501 -0.544513 -0.400431 -0.234023 -0.093522 0.382275 0.245115 -0.149507 -0.220365 0.284835 
-0.354596 -0.0222443 -0.262985 0.374623 0.181765 0.511784 0.146227 -0.225527 0.184088 -0.327972 0.142689 -0.11106 0.293514 0.274797 0.398631 0.274906 -0.0810417 0.840946 -0.0596695 -0.204448 0.363703 -0.438568 0.567572 0.129166 0.344809 0.14585 0.32051 -0.162928 0.222304 0.394034 0.584137 -0.272005 0.304702 0.469522 -0.0318078 0.230907 0.194057 -0.190624 -0.102049 0.274108 -0.368364 -0.365249 -0.143763 -0.0002503 -0.806045 -0.230419 -0.130543 0.545285 0.272262 0.0821862 0.183852 -0.326227 -0.0125129 0.0203703 -0.65911 0.59761 -0.254876 -0.33549 -0.212377 0.37065 
0.409178 -0.362738 -0.0614826 0.129326 -0.250432 0.429004 0.000240476 -0.482016 0.316375 0.454581 0.149996 0.295985 0.140324 -0.0602411 -0.85752 -0.215834 0.320983 0.757297 0.247762 0.672335 -0.683933 0.699119 -0.195761 -0.189066 0.328564 0.111279 0.517563 -0.349608 -0.11453 0.0628252 -0.560166 0.643684 0.35245 -0.0475267 0.0629378 -0.284983 0.532818 -0.276524 0.597617 0.256287 -0.0807765 0.104306 -0.633243 0.207904 0.432006 -0.106221 -0.572242 -0.49482 -0.190685 0.59586 -0.306854 0.723962 -0.0966395 0.224714 -0.196007 0.153542 -0.287921 0.348735 -0.167561 -0.349786 
0.583356 -0.127746 0.683759 -0.222075 0.436385 0.172377 0.131944 -0.125841 -0.325552 0.106476 0.1083 -0.320757 -0.522254 0.218713 -0.34265 0.307105 -0.725199 0.453516 0.185954 0.356811 0.0150701 -0.0318686 -0.40267 0.184583 0.0746586 0.352657 -0.189543 0.287974 0.115915 -0.0162231 0.0822003 0.287104 -0.146514 -0.829573 -0.737479 0.58921 0.413677 0.430929 0.186061 0.0992351 0.060168 0.335212 0.325448 0.293352 0.0540976 -0.0504557 -0.547349 -0.0149426 -0.226339 0.28625 -0.0991891 -0.402354 0.0801455 -0.357785 -0.208151 0.0422305 0.0747808 0.195926 -0.16653 -0.126474 
-0.572883 -0.625543 -0.0752815 0.46505 0.0607888 0.0300744 0.422384 0.0505904 -0.0140737 -0.146552 0.353927 -0.504067 0.224204 -0.25996 -0.224058 0.214425 0.064624 0.188107 0.157884 0.119113 -0.363856 -0.427852 -0.11264 0.164413 -0.158412 -0.0802903 -0.338876 -0.378167 -0.24014 0.0687036 -0.214543 0.59752 -0.188585 0.531399 0.0421431 -0.335403 -0.633205 0.647364 -0.164552 0.502854 0.123353 0.336987 -0.184628 0.264391 0.0832646 -0.325323 0.113525 0.472616 0.216522 -0.208976 -0.157653 0.0913754 0.0928074 0.0686029 0.0220941 0.208575 -0.278911 0.457129 -0.292329 -0.195896 
-0.485995 -0.297093 0.845023 0.288261 -0.29956 -0.394425 0.43378 0.203833 0.400163 0.270561 0.30996 0.1315 -0.857377 -0.162389 0.391849 0.170025 0.668138 -0.0487611 -0.134483 -0.14191 0.694675 0.460432 0.0794722 -0.213771 -0.788646 0.0115989 -0.96147 -0.41729 0.735682 -0.254635 0.0357936 -0.0623672 -0.13836 0.24138 0.209218 -0.0436208 0.597235 -0.427303 0.63685 0.0112491 0.0699684 -0.0642902 0.028352 0.310273 -0.0816818 -0.106163 0.671036 -0.0541946 -0.143523 -0.0910948 0.160884 -0.0417795 0.263283 -0.24342 -0.509743 0.0764919 0.0924547 0.405536 0.118224 -0.257817 
-0.436291 -0.0131595 -0.354357 -0.530302 0.514885 0.259731 -0.139452 -0.0723239 -0.0682721 -0.534828 0.0936859 -0.56471 -0.237574 0.580631 0.347218 0.537368 0.141969 0.467463 0.269303 -0.239765 -0.103666 -0.0571621 -0.262603 0.44537 0.169471 -0.29254 -0.441065 -0.157861 0.832247 -0.014131 0.096283 0.0243723 -0.1858 0.094558 -0.133968 -0.322636 0.0592315 -0.56962 0.396573 -0.374634 -0.138741 0.105742 -0.284136 0.181728 -0.0530966 0.47303 0.0131524 0.154412 -0.756345 0.113586 0.112253 0.0211876 0.365324 0.352825 -0.804503 0.0154362 0.553717 -0.564495 -0.570689 -0.0133195 
-0.0176193 -0.0561043 0.198855 0.121301 0.443185 0.247484 0.785406 -0.392937 0.0208789 0.198668 0.0092219 0.149937 0.327067 -0.411549 0.151944 0.0202393 0.268594 0.0236227 -0.0987633 -0.321971 -0.492605 -0.014672 0.457122 -0.301302 -0.244705 -0.0178216 0.0193184 -0.221858 0.549129 0.0131649 0.353583 -0.172421 0.109217 -0.503831 -0.187358 -0.60546 -0.239717 -0.182966 0.342782 -0.0701077 0.40562 0.286835 -0.250121 0.0791716 0.222403 -0.214771 -0.201998 0.27714 0.202364 0.491727 0.31625 0.14713 -0.264572 -0.5383 -0.381362 0.20243 -0.220559 0.253647 0.653002 -0.356902 
-0.0819794 0.283243 -0.576017 0.183154 0.378117 -0.175232 -0.326437 -0.15364 -0.713504 -0.60302 -0.243818 0.0523659 -0.0569619 0.361154 0.0607717 -0.283944 -0.255938 -0.232736 -0.775582 0.61169 -0.269382 0.0186961 -0.814414 0.0581657 0.169847 0.190901 0.02588 -0.00871132 -0.0588117 1.12672 -0.201491 0.0293155 0.370711 -0.558886 0.0914879 -0.0843985 -0.0425501 -0.0944135 0.395096 0.234318 -0.0498817 -0.112696 -0.391488 0.502647 0.146797 -0.0380922 -0.304614 0.265506 -0.0256996 -0.240444 -0.395491 -0.266544 -0.507352 0.0124372 -0.337075 0.167409 0.532639 -0.181486 0.214023 -0.134158 
-0.261639 0.504432 -0.451747 -0.160516 0.333669 0.652635 -0.1815 0.140902 -0.0406999 -0.249752 -0.0805277 0.674301 -0.0633282 0.224112 0.229637 -0.484885 -0.0674696 -0.401475 0.139438 0.393473 0.252865 -0.072398 0.321583 0.173688 -0.746372 0.00123135 -0.506408 0.188628 0.192118 0.217698 0.203376 -0.0852889 0.446539 0.0426165 0.557146 -0.0999031 0.00588027 0.107747 -0.311272 0.146738 0.183939 0.100914 -0.121411 0.142102 -0.798604 0.410895 -0.0819684 0.196231 0.331405 0.210465 0.611443 -0.127392 -0.127382 0.682975 0.670816 0.0698589 0.0621331 -0.056239 -0.0908309 0.0937942 
0.595132 0.0719553 -0.213226 -0.20255 0.273687 -0.450361 0.337903 -0.503906 -0.377554 0.000819605 0.0699978 0.0984382 0.264214 0.344423 0.259079 -0.110998 -0.123204 0.629729 0.280999 -0.0737205 -0.732572 -0.313654 -0.24066 0.554632 0.348893 0.531262 0.108823 -0.0340217 0.592201 -0.322895 -0.461122 0.185153 0.39417 -0.323931 -0.133479 0.424934 -0.574329 -0.321478 0.309762 0.403335 -0.0554947 0.0997092 -0.221318 0.304525 -0.00144409 -0.107103 -0.207588 0.295972 -0.074083 -0.58629 0.159689 0.0808726 -0.235109 -0.24978 0.772748 -0.353098 0.160208 0.242297 0.288298 0.418029 
-0.115642 0.120899 0.784907 0.408533 -0.431586 -0.300101 0.103996 0.0939241 -0.22678 0.780564 0.0618828 0.236237 -0.378805 -0.16976 0.413486 0.0387908 0.129782 -0.0702114 -0.115986 0.618124 -0.166017 -0.552011 0.499486 -0.103442 0.602063 0.091679 0.161954 0.147112 -0.170512 0.116797 -0.560622 -0.958336 0.0128917 -0.433608 -0.122757 -0.593757 0.143797 -0.216805 -0.654737 -0.243945 0.0498075 0.182517 0.0246712 -0.1056 -0.78007 0.188856 0.46259 -0.332211 0.00198403 -0.199845 0.420461 -0.441089 -0.659645 0.300954 0.145444 0.319032 0.715139 -0.508438 0.25056 0.0659194 
0.0934267 0.406793 -0.0364795 -0.50637 -0.0938918 0.167464 -0.168448 -0.367216 0.466119 0.0204466 0.583116 0.00133896 -0.382708 0.209122 -0.0524114 -0.541515 -0.180717 0.284731 0.571891 0.0499783 -0.00595501 -0.0768331 -0.442127 -0.140217 -0.560312 -0.119809 0.261287 -0.432668 0.179504 -0.175579 -0.234109 -0.379204 0.425606 0.616833 0.93076 -0.5277 0.351959 -0.0911551 0.705447 0.101928 0.190954 0.0363765 -0.206279 -0.180396 -0.0473584 0.202022 -0.137006 -0.410807 -0.3333 0.453526 0.0771647 0.0786377 -0.280825 0.381218 0.514073 -0.274256 0.212449 -0.673977 -0.0800327 -0.65183 
0.0577639 -0.0188291 0.343474 -0.00596072 -0.219997 -0.563524 0.582549 0.0192272 -0.687826 -0.630513 -0.580851 0.269258 -0.0654758 -0.330049 -0.10441 0.206617 0.758091 -0.249749 -0.0349297 -0.434253 -0.328824 -0.599976 0.263414 0.0260869 0.7291 -0.480022 -0.0122726 -0.358762 -0.0696224 -0.0696302 -0.0890778 -0.272228 -0.101165 -0.690988 0.380033 0.240038 0.0775693 0.165072 -0.253883 0.134346 0.206096 -0.149963 0.134447 0.17933 -0.146088 -0.387664 0.818005 -0.0538122 0.0187035 -0.155677 -0.220906 -0.204063 0.527096 -0.103497 -0.197332 0.134171 -0.0177269 0.328414 -0.0502095 0.227733 
0.0905099 -0.559585 0.268756 0.254099 0.109241 -0.275965 0.0677337 -0.4203 -0.534198 0.121999 -0.118847 0.49692 0.308234 0.450784 -0.218122 0.0965017 0.521168 -0.595301 0.520442 0.431428 0.211556 -0.116793 0.28241 -0.221214 0.0987477 -0.241693 0.179719 -0.0604009 -0.0843088 0.451244 -0.261231 0.260507 0.0674362 0.0705717 0.165059 0.117725 -0.399395 -0.411557 0.074883 -0.13852 -0.0477859 -0.00422813 0.109297 -0.200287 -0.0012812 -0.369015 0.00927965 -0.289788 -0.026487 -0.178397 -0.0660436 -0.0274454 -0.0418168 0.517024 -0.464503 0.174637 -0.0503513 -0.208119 0.174896 0.230376 
-0.596101 -0.584135 0.12098 0.38763 0.0879799 0.421984 -0.168405 0.364267 0.645216 -0.0404023 0.310409 0.132413 0.0629799 -0.175715 0.449268 -0.263218 -0.169111 -0.560757 0.703359 -0.194726 0.00679074 -0.570849 0.162451 0.115983 -0.251653 -0.173399 -0.0302101 0.369578 0.377807 -0.127494 0.0542494 0.0771482 -0.180608 0.550083 -0.161974 0.50617 -0.0452374 -0.158041 0.420245 0.252207 0.0324217 0.0169183 0.562439 0.368087 0.416732 0.21171 0.290031 -0.0280564 -0.0899859 -0.0444685 -0.254605 -0.369113 -0.114432 0.164325 0.580459 0.509531 -0.0765282 -0.139875 0.421767 -0.304338 
-0.368205 0.316923 -0.567853 0.321176 -0.00889915 -0.137479 0.0415876 0.739597 0.21693 0.266821 0.197581 -0.127864 -0.186568 -0.391593 -0.0893833 0.0806421 0.374919 -0.001092 -0.626211 -0.0211024 -0.546334 0.0416236 -0.331036 0.126094 -0.577447 -0.292416 0.230669 -0.0872679 -0.562528 0.403884 -0.108707 0.702648 -0.187475 0.0460313 -0.566989 -0.131351 0.524892 -0.310902 0.187713 -0.133234 -0.290257 0.159005 0.206175 0.344664 -0.368052 0.152432 0.283625 -0.444199 -0.292015 0.347345 0.127827 0.121623 0.0626443 0.191404 0.312787 0.208079 0.100284 0.504418 -0.371148 0.0155313 
-0.342496 0.367452 -0.410096 0.114559 -0.149357 -0.444289 0.131809 -0.0255708 -0.500809 -0.519799 0.142142 -0.952258 0.12029 -0.401196 -0.200489 0.809334 -0.116511 -0.133794 -0.0386753 0.0837661 0.21708 0.544293 -0.388067 -3.38796e-05 0.710386 0.402688 -0.162487 -0.555291 -0.239663 -0.146563 -0.129751 -0.295227 -0.838384 -0.179944 -0.0677423 0.0867749 -0.0449998 -0.318554 -0.512816 0.11537 0.412241 0.173942 0.20971 -0.207898 -0.125352 0.248289 0.214744 0.192769 -0.00352156 0.181433 -0.083583 -0.443868 0.548379 -0.102868 0.0545996 -0.736671 -0.370908 -0.185862 -0.0231492 0.183594 
0.117297 -0.0803618 -0.529616 0.149041 -0.141578 -0.608509 0.00425621 0.451198 -0.281738 -0.555577 0.132014 0.158067 0.823055 0.215514 -0.542548 0.352453 -0.760814 0.192067 -0.0914734 0.732979 0.333709 0.377673 -0.545681 0.70536 -0.0426924 -0.132497 -0.328938 0.517925 -0.17355 0.104544 0.283521 0.0848988 0.284115 0.437367 0.552233 0.206927 0.341849 0.404451 -0.371734 0.113357 -0.677273 -0.524714 0.215475 0.0432442 -0.0571099 -0.00301062 -0.391536 -0.0970386 0.380134 -0.0217923 0.300976 -0.0409571 0.0197338 0.302358 -0.503398 -0.137992 0.131115 -0.433809 0.00168007 0.0410349 
0.180406 -0.25531 0.335998 -0.183489 -0.0622221 0.244663 0.293238 -0.173075 -0.170187 -0.395329 -0.120568 -0.621001 -0.402269 -0.428575 0.245749 -0.371812 0.305598 -0.373737 0.324025 -0.345657 0.229687 0.0961098 0.395177 0.0262847 0.65394 0.534226 -0.479451 -0.465523 -0.119665 0.390915 -0.0118368 -0.311591 -0.161869 0.212544 0.497581 -0.0634617 0.173985 0.457474 -0.265645 -0.467927 -0.109136 0.0432155 0.0410673 -0.512526 -0.396019 -0.152834 -0.0367873 0.349114 0.227162 0.264756 -0.467359 0.350704 0.246776 0.347773 -0.565755 0.222354 -0.484589 0.409943 -0.27696 -0.0953422 
0.23605 0.197562 0.0904905 -0.228416 0.0479578 0.0368782 0.136529 -0.195679 -0.0215813 -0.0303809 0.490981 0.255869 0.477906 0.149561 -0.144667 -0.0776601 -0.760236 0.303828 -0.336811 -0.023875 -0.392965 -0.264747 -0.0871157 0.423034 -0.229112 -0.396023 -0.130922 0.412866 0.115407 0.25231 -0.306907 -0.411987 -0.446358 -0.690124 -0.018937 -0.199598 0.185079 0.292416 0.657159 -0.134263 -0.145607 -0.0527882 0.0102358 0.115305 -0.0253706 0.464037 -0.142118 -0.395197 0.457963 0.394339 0.413066 -0.115007 -0.0325069 0.169207 0.346621 0.224382 0.501667 0.176866 -0.39491 -0.347526 
#
-0.144796 -0.135315 0.104863 0.425978 0.317661 0.0951489 -0.0591287 -0.0212582 -0.545983 0.498435 -0.0731324 0.281994 -0.271664 0.109114 0.148213 -0.103386 -0.230678 0.260472 -0.478139 -0.176769 
0.394868 -0.112324 0.393998 0.0276755 -0.0443916 -0.569532 -0.367399 -0.20535 0.0569534 -0.242914 0.0889923 0.170619 0.000422832 0.308732 -0.121263 0.178966 -0.757994 0.224035 -0.291489 -0.516618 
-0.401796 0.122719 0.00701483 0.191967 -0.617185 -0.573076 -0.216381 -0.36268 -0.241967 0.448616 -0.0941538 -0.350173 0.3944 0.107657 0.247342 -0.0158804 0.0821116 0.556365 0.174157 -0.229084 
-0.78811 0.2154 -0.274104 0.0498325 -0.465507 0.868182 -0.528651 -0.13508 -0.0562157 -0.254476 0.0695651 -0.581478 0.312628 -0.221562 -1.10354 -0.560789 -0.768884 0.290452 -0.588443 -0.0482456 
0.0360777 0.144857 -0.383797 -0.427274 0.201393 -0.23726 -0.149253 -0.158812 0.0460786 0.251296 0.00996823 -0.218231 0.00144863 0.64079 -0.522059 -0.154178 0.503447 0.216689 0.245759 -0.382985 
-0.00668409 -0.981515 0.429214 0.308748 -0.517309 0.0774862 -0.107839 -0.153666 0.235976 0.146522 0.112873 -0.108425 -0.603229 -0.40972 -0.0575565 -0.269297 0.282583 0.0529018 0.697725 -0.351153 
-0.0319367 -0.290793 0.0359514 0.121691 -0.345839 -0.53529 -0.291751 -0.211898 -0.8935 0.146763 0.135975 0.151491 -0.267218 0.386062 -0.431395 -0.165746 -0.560192 0.251721 -0.0522842 -0.108089 
0.313918 0.122758 -0.531164 0.721558 -0.248219 0.296301 -0.369841 0.284896 0.208642 -0.381611 0.257371 -0.328068 -0.113658 -0.177407 0.390215 -0.160346 0.0805099 -0.235366 0.253767 -0.112481 
-0.236113 0.275539 0.184312 0.220823 -0.327529 -0.533647 -0.391162 -0.117462 0.260188 -0.129873 0.373246 -0.1191 -0.193867 0.208265 -0.133297 0.147649 -0.130244 -0.137124 -0.0918621 -0.298321 
0.284692 -0.337379 0.192601 -0.236475 -0.22502 -0.0333761 -0.854393 0.0552207 -0.364035 -0.228319 -0.0195122 -0.0278852 -0.66705 -0.0870293 -0.158082 -0.156574 0.587958 0.0323388 -0.159365 0.0145821 
-0.0491684 0.00039577 0.370054 0.0512087 0.258403 0.109845 0.300545 -0.829065 0.0264806 0.114221 0.306061 -0.385256 -0.183072 -0.0347876 0.613303 -0.294927 -0.432455 0.529018 -0.269945 0.436356 
-0.0516037 -0.093163 -0.174023 -0.351016 0.0149192 0.0176113 0.00743901 -0.00553152 -0.14632 0.108076 0.348019 0.430746 -0.104849 0.0544645 -0.728172 0.0737244 -0.281515 0.621623 0.10663 0.688654 
-0.014974 -0.373791 -0.170406 -0.196522 0.207869 0.230402 -0.429099 -0.39883 -0.681 0.0887403 -0.510249 0.0963404 0.260256 -0.388724 0.389387 -0.145649 -0.0902459 0.385481 0.00575276 -0.129399 
-0.446163 0.170219 0.0152617 -0.149217 0.307065 0.098082 0.360065 0.149677 -0.231296 0.100726 0.434561 0.1918 0.227424 -0.021862 0.17857 -0.160985 -0.344094 -0.215685 -0.220452 0.210507 
-0.291487 -0.173267 0.603144 -0.225876 -0.240667 -0.335122 0.147069 -0.274695 0.0562925 0.112363 -0.2463 -0.0167187 -0.0340663 0.40915 0.189414 -0.0785448 0.356664 -0.0431208 -0.0485826 0.486957 
0.494161 0.14237 -0.19313 0.633299 0.162479 0.411818 0.0443809 -0.204167 -0.0797919 0.414802 -0.394091 -0.478553 -0.272696 -0.165205 0.453197 0.0961271 0.112362 0.164844 -0.546453 -0.0816393 
0.013286 0.237767 -0.241251 -0.112766 -0.140235 -0.514403 -0.266158 -0.0546446 0.23712 0.104887 -0.0877272 -0.292597 0.507312 0.268504 0.966756 0.3679 -0.622997 0.434156 -0.510833 -0.0335039 
-0.258782 0.0378527 0.395063 -0.0598175 0.133669 0.0720119 -0.224633 0.285253 0.57146 0.129616 -0.0878592 0.186245 -0.0988394 0.502106 -0.315673 -0.0758073 -0.407467 -0.0336147 -0.214652 -0.063448 
0.027937 0.408875 0.0474639 0.230047 -0.154906 -0.326814 0.0592134 -0.371108 -0.621234 -0.749154 -0.200801 0.46164 0.0583716 0.155189 0.00856366 -0.166661 0.123869 -0.272223 -0.402405 -0.534816 
0.152583 -0.110114 0.120941 0.101337 -0.0551851 0.400118 0.0603407 0.567597 0.0592841 0.18475 -0.403575 0.119182 0.0255916 -0.600792 0.434785 0.0580508 0.0970603 0.171271 -0.610905 0.458996 
0.0431838 0.163589 0.542603 -0.462176 -0.0853613 0.29343 -0.28831 0.0147365 -0.0360655 0.380986 -0.0637768 0.378551 0.616889 -0.456755 0.0450851 -0.30197 -0.225275 0.0229526 -0.329295 0.647564 
0.0891042 -0.338901 -0.033699 -0.213187 0.0413843 0.598956 0.0333133 0.46345 0.0825846 -0.117213 0.26772 -0.231352 -0.255456 0.146208 -0.351214 -0.00597611 0.23698 -0.823281 0.0167026 -0.248208 
0.0280912 -0.0369405 0.18749 -0.126387 -0.634276 0.576038 0.0417466 -0.141424 -0.543235 -0.00903237 -0.0585425 -0.276492 -0.365197 0.0670645 0.0744051 -0.226997 -0.352119 0.469386 0.630865 0.581244 
0.456716 0.534588 -0.0999321 -0.364528 -0.0828032 0.0307098 -0.209351 -0.180371 0.0665385 -0.138318 0.810858 -0.2223 0.10686 -0.426459 -0.358691 0.0314528 0.476572 -0.441946 0.046957 -0.0664353 
0.602852 -0.154526 -0.109627 0.0271884 -0.505658 0.241551 -0.28658 -0.0093821 0.193756 -0.283631 0.138971 0.139577 0.284922 -0.111829 0.638374 0.233549 -0.201725 0.244564 0.0728987 -0.416118 
0.118264 0.484529 -0.125241 -0.304067 -0.191138 0.260482 0.665806 -0.175152 -0.520365 -0.347679 -0.111102 -0.31027 0.7254 0.205432 -0.158547 0.14588 0.135177 -0.235154 0.0470335 0.708195 
0.21233 -0.544438 0.00237229 -0.443874 -0.185976 -0.0486138 -0.269284 -0.630581 0.215289 0.229102 0.0980523 0.113838 -0.0658229 -0.395643 0.300726 0.20779 -0.150727 0.429009 -0.366471 0.211442 
-0.235635 0.379004 -0.251784 -0.805714 -0.160694 -0.19584 0.0502573 -0.366701 -0.00696785 -0.297306 0.0266816 0.18008 0.102865 -0.00525564 0.130727 -0.133381 0.0590814 0.296031 -0.302913 0.728824 
0.398971 0.00262483 0.230989 -0.108031 0.489127 -0.148185 -0.648911 0.468171 -0.497813 -0.14728 0.189235 0.553757 -0.31835 -0.18164 0.180116 0.812389 -0.675743 0.300927 -0.717586 0.225629 
-0.404806 0.218999 0.128902 -0.472104 -0.368747 0.224421 -0.0680346 -0.279694 0.253469 -0.347349 0.324538 0.0528032 0.485655 0.441336 -0.450725 -0.154333 0.342323 0.512205 -0.311573 0.132291 
-0.230464 -0.140932 -0.307936 0.918322 0.398049 -0.308271 0.608028 -0.190205 0.397916 0.191594 0.328876 -0.155418 -0.0291599 -0.00969322 -0.432982 -0.0722509 -0.438858 -0.099119 0.335356 0.64711 
-0.195272 -0.0117685 -0.249675 0.507688 -0.0541196 -0.0898057 0.243864 -0.194216 0.453242 0.102779 -0.1885 0.198235 0.00783346 -0.0903732 0.814705 0.104867 0.461018 0.053508 -0.422278 -0.161055 
-0.347059 -0.0892518 -0.0470896 0.575942 -0.260284 0.375929 -0.304569 -0.570048 0.0616889 -0.276559 0.157076 -0.300655 -0.131618 0.351722 0.212094 0.305515 0.245218 0.430045 0.000378907 0.60653 
-0.24113 0.0727803 0.239139 -0.409839 -0.207195 0.18386 0.553336 -0.345845 0.526477 0.907697 -0.633113 -0.393194 0.00411091 -0.257324 0.250227 0.176764 -0.0607351 0.450238 -0.684702 -0.311893 
-0.430632 -0.451979 0.331605 -0.104332 0.0935225 0.152469 0.259579 0.204431 -0.0944794 0.03127 0.451516 0.167032 -0.581915 -0.519593 0.119885 0.145748 -0.0223414 -0.163783 -0.395473 0.373089 
0.169565 0.0256634 0.328603 0.615099 0.0821741 0.179904 0.284589 -0.139145 0.403742 -0.3464 -0.210084 -0.527147 0.015433 0.175775 -0.241094 0.0486159 -0.275652 0.169596 -0.444982 -0.821172 
0.289225 0.504743 -0.721301 -0.0877903 -0.47737 0.574902 -0.198711 0.545497 0.0729826 -0.0401039 -0.818803 0.19475 0.0635665 0.12318 0.210499 0.0704039 -0.392993 0.732391 -0.250801 -0.569556 
0.314401 -0.120686 -0.445547 -0.335743 0.442687 0.616532 -0.00153488 -0.879942 -0.273091 -0.371796 -0.446066 -0.0431873 -0.221564 -0.278797 -0.274282 -0.204572 -0.244957 0.538079 -0.368764 -0.579628 
-0.0826056 -0.216129 -0.213246 0.0953539 -0.232812 -0.17516 -0.228171 0.71652 -0.555076 -0.28482 -0.0434803 0.425168 -0.541852 0.0173706 0.341589 -0.145443 0.118942 -0.0451174 0.000332557 -0.0788973 
0.330503 0.202448 0.309273 0.29807 -0.372725 -0.0394873 -0.713733 -0.296788 -0.337754 0.221078 0.26631 -0.319071 -0.176326 0.101421 -0.558329 -0.953231 0.211775 -0.135082 -0.00696933 -0.143508 
-0.0811297 -0.170025 -0.376228 0.183757 -0.331925 -0.529871 0.108335 0.257597 0.0181961 -0.665039 -0.19126 0.305769 0.351345 0.0101753 -0.107981 0.366155 0.0470623 0.278527 -0.204724 -0.2312 
0.379179 -0.240276 0.194099 0.281556 0.184893 -0.841142 -0.432307 0.492528 -0.448737 0.289525 0.139929 -0.864862 -0.346415 -0.605145 -0.239706 0.242754 -0.336388 -0.197113 -0.219267 -0.62497 
-0.190609 0.718605 0.0377828 -0.485075 -0.0457593 -0.0103589 -0.102449 0.0946703 -0.0867726 0.768576 -0.172953 0.574425 0.570195 0.195362 -0.307886 0.241595 -0.701853 0.106074 -0.318696 -0.493994 
0.0252952 -0.377032 0.22984 0.00645623 0.392607 -0.118768 0.655985 -0.243848 0.0293571 -0.459745 1.00165 -0.291535 -0.409816 0.279071 0.21618 -0.266465 0.183825 -0.13199 -0.270712 0.824787 
0.42966 -0.273614 0.247808 0.835893 -0.171302 0.0568886 0.113703 -0.0608742 -0.264018 -0.0799243 -0.648472 0.234006 0.114567 -0.168777 0.17994 -0.36974 -0.370925 -0.0595662 -0.14143 0.360036 
0.0613219 -0.466154 0.173618 -0.264162 -0.365108 -0.553231 0.277366 0.694955 0.886761 -0.401659 0.0576162 0.561219 -0.115667 0.272 -0.479343 0.312773 -0.346339 0.0143478 0.152081 -0.162788 
-0.204926 -0.0893544 -0.741716 -0.410299 0.127581 -0.102369 0.424505 -0.490168 -0.0665468 0.281474 0.458724 -0.301094 -0.0061274 0.552338 -0.510598 0.249896 0.191716 0.0454275 -0.62542 0.146053 
-0.389648 -0.207385 0.815995 0.284016 -0.0541042 0.449709 -0.181082 0.216732 0.0976316 -0.264924 -0.189789 0.0658547 0.0156456 -0.122269 0.126883 -0.034529 0.280795 0.201106 -0.25464 -0.282022 
-0.425997 -0.207896 -0.0110155 0.425628 -0.171682 0.101567 -0.364353 -0.28402 0.666416 -0.626614 -0.24089 0.290053 -0.657444 0.366831 0.195868 0.584017 -0.186953 0.0614951 -0.638902 -0.204774 
0.0729418 -0.0954846 -0.0218217 -0.0452051 0.570656 -0.246928 -0.214292 -0.0207404 -0.132421 0.0615598 0.0320683 -0.0770183 0.324796 0.164107 -0.399392 0.0220624 0.0352771 -0.135668 -0.341209 -0.269315 
-0.0525044 0.262535 0.310731 -0.179105 -0.116476 -0.00992232 -0.105085 -0.528159 -0.343281 0.178448 -0.380493 0.820838 -0.246129 0.638482 -0.381629 -0.360795 -0.193453 0.396411 0.639788 0.191658 
-0.691912 -0.046321 0.263711 0.0416808 -0.0172881 -0.401416 -0.0867824 0.0626898 -0.0758321 0.0504025 -0.47803 -0.0175011 -0.359696 0.0043801 0.12435 0.64683 -0.234433 0.212535 -0.319174 0.206841 
-0.0970491 -0.2574 -0.281165 -0.494138 0.642771 0.142107 0.320952 -0.244059 0.0865976 0.422381 -0.000406662 -0.450944 -0.10342 -0.30209 0.2517 -0.049815 0.0382139 0.229447 -0.313122 0.373401 
0.369196 -0.310433 0.459125 0.485237 0.585501 0.155647 0.284015 0.345741 0.132438 -0.123094 0.659636 -0.306163 0.358849 -0.189125 -0.148373 0.12742 0.0404822 -0.591454 0.462279 0.299299 
-0.328134 0.351304 0.0994698 0.0832495 0.411927 0.432883 -0.0685999 0.539537 -0.459746 -0.233022 -1.27656 0.0473739 0.47577 -0.47205 -0.0515313 -0.0467173 -0.0299196 -0.186285 0.575096 -0.0384916 
-0.25677 -0.427149 -0.0961982 -0.362679 -0.3357 -0.230941 -0.00613311 0.136711 0.12861 0.0784378 -0.415253 -0.524856 0.181651 0.592684 -0.0842166 -0.0450019 0.269163 0.607414 0.0946234 -0.0957616 
-0.602036 -0.039137 0.0227275 0.0256675 0.376682 0.739372 -0.247038 -0.263024 0.355793 0.545833 -0.627329 0.246545 -0.0802632 0.465469 -0.157576 0.130889 0.358044 -0.336273 0.520853 -0.0521148 
0.130953 -0.162858 0.0318476 -0.0982409 0.149074 0.447577 -0.0186209 -0.483612 -0.123357 0.0631392 -0.0458051 0.278867 -0.320774 0.126923 0.0310991 -0.0840008 0.0203677 -0.580355 -0.401941 -0.00719661 
0.0358326 -0.0328531 0.559147 -0.582647 -0.00934964 0.0718357 -0.264591 -0.557126 -0.00221716 -0.496629 0.61096 -0.03802 -0.164491 -0.0244351 -0.32079 0.313974 -0.3115 -0.507551 -0.0299084 0.144101 
0.279187 -0.240936 0.213349 -0.423493 0.463285 -0.159167 0.475711 -0.141789 -0.42143 -0.180279 -0.254008 0.385909 -0.403425 -0.27031 0.0359539 -0.103311 0.000192268 0.30663 -0.0717503 -0.0825105 
#
0.12918 
0.00794551 
-0.614664 
-0.135356 
-0.202284 
0.23388 
-0.762008 
-0.152144 
-0.0473548 
-0.385122 
-0.139285 
-0.10425 
0.398504 
-0.0240649 
0.573633 
0.139457 
-0.324948 
-0.0051563 
0.0599579 
-0.355025 
#
