-0.284146 0.075617 0.287835 0.392063 -0.3153 -1.02522 -0.218921 -1.12484 -0.980782 -0.413142 0.0351353 -0.386601 0.56556 0.0198035 1.24481 0.322258 -0.260335 0.23384 1.00523 -1.46708 0.342615 0.250556 -1.04341 0.332213 0.258782 -0.116083 -0.353413 -0.957127 0.31605 0.0974676 -0.766495 0.0559488 1.06458 0.791704 -0.510537 0.318778 1.34049 0.742325 0.250115 0.26159 -0.840552 -0.498614 0.311507 0.938822 0.094321 0.733646 0.169175 0.746518 0.414456 0.0106142 -1.13149 0.600513 0.595687 -0.802896 -0.300517 0.558735 -0.145458 0.354062 1.01364 -0.622211 0.259864 -0.141033 0.403891 -1.02149 1.11702 0.0119558 -1.15437 0.561334 -0.0436526 -0.679552 -0.476947 0.230569 -0.300962 1.50611 0.0916531 0.331956 0.426511 -0.271135 0.275964 0.624557 -1.16588 0.569172 0.681053 0.183591 0.493911 0.920235 -0.875517 0.314248 -0.134943 -0.642306 0.423075 0.300282 -0.345886 -0.468157 0.413629 -0.609145 0.0713897 -0.812761 0.513369 -0.258511 -0.139268 -1.31438 -0.0280042 1.3963 0.552029 0.719609 -0.614081 0.359851 1.12969 0.174146 -0.740224 0.0321845 0.796751 -0.0733688 -0.943353 -0.228633 -0.793293 0.546944 0.0306953 -0.175571 1.07349 -0.630874 -0.0984559 -0.429066 -0.549159 0.442852 -1.07855 0.209304 0.595304 -0.332285 0.956415 -1.80755 -0.178517 -0.261907 0.805896 0.658722 -0.241075 -0.696938 -0.874941 0.354732 -1.25872 0.829247 1.2163 0.156948 1.0299 -0.405091 0.562573 0.00873348 -0.44592 -0.337923 0.731634 0.598272 0.623166 -0.321303 0.438066 0.19619 0.120104 0.520768 -0.559912 0.090475 -0.595672 -0.0627001 0.912292 0.776268 -0.210241 -1.5733 -0.386563 0.741431 0.0702197 0.564391 0.226794 -1.79792 0.117206 -0.6658 -1.14772 0.164556 0.826105 -0.787566 0.44653 -0.0705121 -0.115496 0.336373 0.240889 0.529949 -0.758312 -0.237713 -0.18491 -0.366257 0.51848 0.39577 0.851042 -0.976346 -0.374174 0.316763 0.443001 0.722781 1.10446 -0.25987 -0.77692 0.324966 -0.0833373 -0.0855152 0.407564 0.285981 -0.58877 -0.408784 0.449985 -0.115102 0.954574 0.469555 -0.231029 -0.00646272 -0.0412355 -0.224576 0.312476 -0.0900085 0.406049 0.246089 -0.690751 -1.1837 -0.091573 -0.842101 0.168122 0.114608 -0.795919 -0.19628 -0.609548 0.336993 -0.537333 -0.380018 -1.17616 -0.367189 -0.751045 0.530256 -0.640463 -1.00321 0.617888 -0.533615 -1.81721 -0.237374 0.163826 -0.389365 -0.113672 -0.738794 -1.61844 -0.0175619 0.194888 0.451904 -0.164025 -0.275024 -0.612166 -0.295896 -0.738897 0.659267 -0.338855 -0.788262 
0.578316 0.483864 -0.0567343 -0.445657 -0.352002 0.764545 0.462026 -0.0741081 0.111358 0.717605 -0.779691 -0.416626 0.0304011 0.121397 0.999405 0.611148 0.390624 0.341861 0.15903 0.404389 -0.127727 -0.237148 -1.61031 -0.0357181 0.0486116 1.33211 0.243272 0.261475 0.514238 0.891753 -0.209232 -1.11015 -1.06174 -0.254396 0.0964311 0.318107 -0.116241 0.963322 -0.135882 -0.18186 0.967737 -0.409662 -0.31218 -0.0290076 0.45782 -1.3541 -0.415363 0.320336 0.465888 -0.566904 -0.257073 -0.676613 0.730895 0.143014 0.617593 -0.998023 0.88 1.60025 0.0365455 -1.61309 -0.0496262 -0.658955 -0.489347 0.379583 -0.756844 0.0847031 0.326934 0.16689 0.443994 0.665563 -0.929986 -0.81202 -0.524445 0.336264 0.611452 -0.279015 -1.11395 -0.598094 -0.900619 0.261861 -0.56565 -1.62312 0.306443 -0.20261 0.217359 0.657349 0.128656 -1.2872 0.790354 -0.0851765 -0.500641 0.652434 -0.853016 0.160843 0.282552 0.283315 0.444042 0.00406494 -0.265044 0.111045 -0.905681 -0.957195 -0.780489 -0.410198 -0.356622 0.255617 0.484075 0.026699 -1.31068 -1.44115 -0.294919 0.614064 -0.837354 0.469494 0.512058 0.369807 -0.10095 -1.16394 -0.485922 -0.325445 0.657061 0.351434 -0.342273 1.86068 -0.526336 0.492557 0.418989 1.45657 -0.565442 -0.016504 -0.156349 -1.35251 0.688867 0.0539358 0.863008 1.50044 -0.0299648 -0.647533 -0.56478 0.261952 0.175096 0.425919 -1.04655 0.0644573 0.00551365 -0.203716 -0.061325 0.589342 -0.960068 0.547736 0.488766 -0.626131 -1.22593 0.0426314 -0.31263 0.336442 0.977033 1.38952 0.114685 -0.707899 -0.709808 -0.447383 -0.672713 0.948623 0.543884 -0.186585 0.628133 -1.01818 -0.951551 -0.160509 -0.170392 0.189844 -0.311458 0.718448 0.860905 -0.882703 -0.620912 -0.156195 0.160727 0.432441 -0.317433 -0.665219 0.424621 0.0252737 -0.379108 0.0154359 0.535818 -0.0988376 -0.451448 0.415492 -0.648688 0.467709 -0.35428 0.263325 0.130551 1.02362 0.694251 -0.0666868 -0.0770798 0.339467 0.344934 -1.25115 -0.483183 0.455765 0.610579 -0.362232 0.566326 -0.417254 0.317232 0.041074 0.564528 -0.339183 -0.299398 0.42993 -0.0624033 0.531273 0.39708 -0.126244 -0.310814 0.801414 -0.0549628 -0.298236 1.06833 0.0100305 0.214075 -0.58957 0.188923 0.457309 0.681176 -1.24022 -0.188354 -1.16018 -0.942556 0.0461437 -0.312168 -0.505351 1.59758 0.544175 0.986351 -0.926036 -0.715821 -0.489644 0.892887 0.194875 0.272563 -0.721732 0.67768 0.519469 -0.470368 -1.29359 1.63231 -0.496368 -1.00912 0.523221 -0.441959 -0.887254 
0.986026 0.624863 0.150603 -0.486433 0.0433474 0.344188 -0.926838 0.182093 -0.0663259 0.164048 0.535825 0.38513 -0.180429 -0.0709155 0.370345 0.749375 0.0525667 -0.812812 0.339229 -0.635368 0.900603 0.0887671 -0.193818 -0.801851 0.0591771 0.435707 1.14215 -0.685061 0.702885 -0.187571 0.660912 -1.06035 0.420946 0.0158339 0.273336 0.297068 -0.604321 0.296156 1.11181 -0.849351 0.622784 0.80256 -0.0211573 0.44136 -0.466212 0.0648215 -0.905425 0.302365 0.950452 0.794428 0.548358 -0.383192 0.184092 -0.0285979 -1.36439 -0.39019 0.241939 0.386807 -0.520108 0.33376 -0.37772 -0.232313 0.880317 -0.683969 0.662735 1.26233 0.297879 1.17097 0.150053 -0.0330116 0.833576 -0.144966 1.48861 0.133231 -0.110301 -0.219331 -1.65758 -0.361651 0.136553 0.747008 0.605557 0.012288 -0.448419 -0.750264 -0.840161 -0.513882 -0.121147 0.218183 -0.878045 0.799241 -0.719684 0.0704113 0.174469 0.957043 -0.430462 0.667348 1.48585 0.566931 -0.277278 0.286742 -0.452162 -0.304842 1.09165 0.291648 -0.0782501 0.782652 -0.0889418 -1.67817 -0.460661 0.359174 0.303155 -0.47848 0.0911519 -0.00828314 0.303478 0.929158 -0.0752301 -0.179399 -0.500864 0.253158 0.0385592 0.349863 0.839604 -0.384676 -0.558747 -1.41996 -0.0349567 -0.16864 0.191301 -0.540824 0.522229 0.446342 0.410794 0.567331 -0.976649 -0.274105 -0.112774 -0.434189 -0.106703 0.486437 -0.11336 -1.02179 -0.273724 -0.580565 -0.267928 -0.353319 1.20404 -0.752517 1.01394 0.264079 0.693201 -0.697183 -0.997085 0.326947 1.01238 0.614307 0.224271 0.854498 0.0513072 0.430892 0.414853 -0.0496163 0.1583 -0.439228 -0.480556 -0.596892 0.679605 0.294898 -1.06866 1.03456 -0.186565 -1.28248 -0.551677 1.41159 -0.365444 0.191525 -0.841908 -0.264241 0.369578 -0.102396 0.219321 -0.615371 -0.12844 -0.668 -0.617089 0.440247 0.536708 -1.24229 -1.10891 0.613418 0.00999314 0.707779 0.674795 1.14961 -1.25161 -0.923014 -0.871494 -0.605655 -0.1492 0.377229 0.584318 -0.469707 0.420685 0.316221 -1.00452 0.190377 -0.174738 -0.244487 0.101098 1.29525 -0.456656 0.248897 -0.464702 -0.0886289 0.258116 0.36823 0.128121 -0.633645 0.00351785 0.487443 -1.52203 -0.0751209 -0.641911 -0.491142 0.659609 -0.864777 0.490965 0.425264 -0.49333 0.428696 -0.344793 -0.577944 0.123174 -0.473093 -0.636937 -0.0884268 -1.24329 0.962956 -0.304129 0.363477 -0.595961 0.709286 -0.756579 -0.551734 -0.292986 -0.4537 0.538351 -0.755012 0.139804 0.369794 -0.311051 -0.649329 -0.156954 0.294885 0.111169 0.506852 
0.214191 0.182933 -0.0882813 0.342462 -1.07148 0.162981 -1.29244 0.37321 -0.454565 0.287847 -0.621274 -0.729444 -0.826822 -0.181161 0.435769 1.06082 -0.0888402 -1.04589 -1.55645 -0.326612 -0.872433 -0.462437 0.693904 0.138384 -0.148407 -0.147203 -0.514299 0.807266 -0.325058 -0.56191 -1.95705 0.835202 0.279188 -0.0379816 0.528761 -0.449415 1.30902 0.386583 -0.119289 0.226726 0.356035 0.133326 -0.14171 0.423798 -0.437916 0.0900499 0.341485 0.752856 -0.051861 0.53672 -0.410988 0.99653 -0.768916 0.973393 -0.577259 -0.515771 -0.142744 -0.244472 0.862842 -0.435181 1.05099 0.361124 -1.14666 -0.773272 0.0577973 0.0536842 -0.477587 0.10123 0.676515 0.480931 0.207318 -0.569711 0.442684 0.551774 -0.71695 0.444748 -0.108026 -1.16289 0.276708 -0.418896 -0.832848 0.0972727 1.11648 0.537869 0.530088 -0.775197 -0.203448 0.183604 0.670708 0.22401 -0.995168 -0.346038 -1.57879 -0.245851 0.454723 1.11159 0.042601 0.775137 0.0218477 -0.776453 0.205109 -1.0692 0.617509 0.495613 -0.611144 0.997554 0.435076 0.0678899 0.12268 -0.727519 -0.598182 0.27632 0.46395 -0.853901 -0.669706 0.86796 -1.34377 0.0311349 0.805915 -0.823676 -0.983569 0.134694 -1.85951 -0.374284 -0.171153 -0.219903 -1.09648 0.0244461 0.958121 0.954105 -0.996649 0.0997056 0.639684 0.789974 -0.589207 -0.0965472 0.412375 -0.383313 0.615599 -0.895183 0.351028 -0.651056 -0.0944809 -0.856732 -0.348431 0.359222 -0.14632 -0.981903 0.164938 -0.0773679 -0.679617 0.163836 -0.209386 0.605787 -0.964504 -0.113513 0.812008 -0.638105 -1.33573 0.00813384 0.0656585 -0.849717 -0.265512 1.05189 -1.2338 -0.585245 -0.594202 -0.778085 -0.094073 -0.92351 0.156471 0.550436 -0.193852 -0.318863 0.654678 -0.0493032 1.29909 0.0926845 1.31494 0.253332 -1.03817 0.0656597 0.515733 -0.476538 -0.366296 0.483358 0.781353 -0.0786496 -0.178295 0.27214 0.237367 0.14258 -0.517274 0.551534 -1.03415 -0.166066 0.315302 -0.403421 -0.512226 0.0335616 -0.253212 -1.29654 0.0313949 0.3506 -1.31573 0.152605 -0.791114 0.72744 0.0812226 0.906687 -0.00650055 -0.701017 0.295488 -0.291973 0.0959114 -0.76418 0.512696 -0.647432 -0.626257 1.48809 0.270285 0.534501 -0.773941 0.233882 -0.365467 -0.0820345 0.307603 -0.304195 -0.370199 -0.452673 0.791671 0.502035 -1.10663 -0.258551 -0.328207 -0.0756161 -0.156164 -0.280913 -1.18911 0.176653 0.431291 0.143938 -1.45679 0.208888 0.669284 -0.813369 -0.272177 1.4301 -0.549053 0.524842 0.229222 0.257136 0.0437457 0.46149 -0.550019 -0.60475 
0.312228 0.267341 0.712568 0.161162 0.497392 -0.294086 0.217599 -0.745667 -0.104743 0.19556 -0.535185 -0.661901 -0.474965 -0.00978057 -1.24309 1.39104 0.26294 -0.386296 0.0512986 -0.255323 -0.898858 0.373345 -0.714668 1.57012 0.61022 -0.849134 0.352071 -1.14151 0.473003 1.07106 -0.426326 -0.112579 0.883882 0.270492 -1.29202 -0.184711 -1.05374 -0.331378 -0.612809 0.202424 1.06859 1.69707 -0.363231 0.497752 1.20128 0.869249 -0.187745 -0.736115 -0.425029 1.09344 0.10436 0.145551 -0.635064 0.866114 0.494647 0.896463 1.10769 0.00850994 -0.564102 -0.105113 -0.370782 0.856393 1.09011 -0.485481 -0.92543 -0.893574 -0.598008 -0.335421 -0.865573 -0.397067 0.417282 1.03797 -0.339032 -0.125149 1.24777 -1.28948 -0.142905 0.643646 -1.20273 -0.260375 0.692782 1.16011 -0.798532 0.296251 0.114776 -0.340008 -0.38122 -0.320294 -0.297809 0.514976 1.4067 -0.306608 -0.4157 -0.310584 -1.01587 1.08411 0.178941 0.744791 0.225992 -0.154689 -0.436931 0.672502 0.864483 -0.0461123 -0.652603 0.444136 -0.442364 0.0955604 -0.0536693 -1.14138 -0.239452 0.307438 -0.877308 0.578387 -0.969612 0.160014 0.518914 -0.249744 0.82044 0.265953 0.305879 0.0481412 0.36094 -0.901277 -1.12561 -0.454444 0.388038 -0.201886 1.5801 -1.2371 -0.427564 -0.378973 -1.10115 -0.120119 0.570628 0.811075 -0.846591 -0.855425 0.314465 0.176272 0.253784 -1.24396 -0.0164241 -0.0638308 -0.985434 -0.357118 -0.839153 0.898903 -0.444637 0.440891 0.470234 -0.250869 -0.6456 -0.374029 -0.433267 0.203876 0.164495 -0.649842 0.361356 -0.102631 -0.180722 0.632461 -0.476494 0.898737 0.724384 -0.521551 -0.0851498 1.02906 -0.503901 1.24007 0.216688 0.331085 0.561293 0.534229 0.249292 -0.874271 -0.0269051 0.059559 -0.717344 1.32442 1.03571 0.111485 0.232899 -0.660879 0.17669 -0.0732199 0.0801837 -0.350561 0.82904 0.254032 0.633262 -0.0835721 0.314646 0.0534521 0.083464 0.019339 0.29563 -0.194492 0.107985 0.161312 1.04392 0.519906 0.397884 0.169921 1.08288 -0.466389 -0.563964 -0.0983442 -1.03285 -0.484211 0.670086 0.671211 0.102933 0.242434 0.402401 0.663714 0.23065 -0.901884 -0.232942 -0.356588 0.657686 0.206302 -0.308242 -0.637208 1.48779 1.02552 -0.108028 -0.0662455 -0.952291 -0.5538 -0.205705 -0.0907464 -0.266283 0.523261 -0.98547 -0.705443 -0.584227 -0.162432 -0.962265 -0.337581 -0.20377 -0.602136 0.138327 -0.926923 0.564899 -0.367904 1.05142 0.707034 0.342768 -0.414436 0.495868 -0.808511 0.866608 0.285377 0.236871 0.594257 
-0.149891 -0.881255 -0.160687 0.905496 1.19291 -0.843006 -0.420359 0.225454 0.00706438 -0.0368633 -1.1334 -0.0262699 0.227007 -0.0303193 -0.885368 0.596041 -1.05772 -0.115943 -0.185365 -0.159584 0.38848 -0.820862 -0.0829201 0.558295 0.455091 0.355672 -0.596823 -0.659204 -0.217657 0.129326 -0.64434 -0.651233 -0.223638 0.643627 -0.202793 -0.762725 -0.88133 -0.545317 0.567992 -0.255692 0.190478 0.82805 -0.367474 0.766085 -0.516026 -0.832679 -0.0301036 0.0436964 -0.926932 0.206711 0.186205 -0.424813 -0.470371 0.770591 1.55858 -0.626652 0.70391 -0.0694488 1.52405 -0.915668 0.247784 0.550226 -1.00594 0.385886 0.143753 0.329397 0.579341 -1.16725 -0.634871 -0.281697 0.126889 -0.258489 -0.407861 -0.0968055 -0.222147 0.378453 -0.506008 0.0362711 -0.832835 0.954218 0.967555 0.0176715 -0.337724 -0.655991 -0.078338 0.654137 0.305168 0.577725 0.672014 1.27556 0.100062 -0.0178511 0.155657 0.878962 -1.208 0.419889 0.899686 -0.780204 -0.730215 0.0199825 0.16036 -0.491591 -0.309349 0.582433 0.826936 -1.04723 -0.129402 -0.133596 -0.99926 1.10957 0.131494 -0.376121 -0.132481 0.0427056 -0.00911547 0.176836 0.0769556 -0.2554 1.3236 0.207917 -0.440873 0.844114 -0.0455501 -0.842872 0.362119 -0.740551 0.684862 -0.125343 -0.68494 0.498388 0.458906 0.536815 0.163307 0.821821 -0.162568 -0.296228 0.841439 0.605791 -0.461914 -1.53847 -0.143537 -0.269158 0.0634015 0.329283 1.51141 -0.603182 0.601825 1.43435 -0.271534 0.548009 0.27439 0.0592588 -0.0925185 -0.373289 -0.0326003 0.616895 -0.35543 -0.472079 -0.0787927 0.326852 -0.185778 1.54331 -0.600377 -0.400012 0.0108663 -0.225548 -0.459617 -0.876581 -0.595813 -0.0411047 -0.387995 -0.105499 0.494139 0.0859172 0.258129 -0.0728777 -0.637245 -0.0764859 -1.46628 -0.502874 0.106585 -0.0616142 0.93167 -0.197179 -1.76878 0.111209 -0.475303 0.781839 -0.868199 -0.757725 0.594678 -0.874839 0.975069 0.380693 0.250884 -0.396346 0.863778 -0.203872 1.74147 -0.330272 -0.29155 0.625451 -0.288929 -0.335064 -0.0517814 -1.08834 0.145487 -0.216331 0.21978 0.585986 0.148344 -0.7738 0.0639387 0.087578 -0.743919 0.917136 -0.803304 1.0487 -0.314713 0.620028 0.353071 -0.0360268 -0.960991 0.271997 0.78939 -0.247974 0.268966 -0.139246 -0.0952415 1.19703 1.2383 -0.368654 -0.161558 -0.304995 -0.135578 -0.250208 0.436877 0.0756855 0.520086 0.969975 -1.55479 0.910225 -0.719917 -0.677518 0.518201 0.750181 0.992346 0.726577 0.00773253 -0.483125 0.917733 -0.589248 1.51023 0.756129 0.110234 -0.279955 
-0.942581 -0.7083 -1.66039 -0.55556 0.768401 0.0336414 -0.691474 0.503504 -0.276662 -0.499131 -0.739268 0.0641439 -0.244376 0.11084 1.2401 0.0666828 -0.670293 1.18415 0.363739 0.91822 -0.369881 -1.11815 0.821564 -0.214007 -0.451045 -0.424254 0.151555 -1.81834 -0.346631 0.482859 0.34716 0.640707 -0.188771 0.416094 0.795377 -0.0273813 -1.64751 -0.239448 0.833347 -0.784027 0.300714 0.393609 -0.275346 0.666973 0.960652 1.12491 -0.430758 0.955459 -0.148705 0.774993 -1.0452 -0.118991 0.0619545 -0.284709 -0.301141 -0.221301 -0.332577 0.378785 -0.433654 0.200144 0.254261 0.226306 -1.31463 0.400891 0.38691 0.452965 -0.153279 -0.576831 0.732671 0.619313 1.04223 -0.437168 0.934386 -1.25506 -0.0737478 0.271941 0.327794 -0.292687 -0.0894359 0.53528 -0.41727 -0.705128 0.410328 0.133414 -0.654005 -0.289379 0.339616 -1.01817 -0.428659 1.17251 -1.1472 -0.14734 -0.0557574 0.434585 1.15324 -0.0947665 -0.0114858 0.398141 -0.660258 0.276995 -0.980646 -0.768805 0.642452 -0.165376 -1.0309 -0.0496849 0.166859 1.01106 1.59151 0.0426697 -0.173483 0.852836 -0.281752 0.942843 -0.0263517 0.313956 -0.649046 -0.261727 0.288009 -0.914553 0.79721 0.0701889 0.339955 0.160132 -0.0851516 -0.646918 -0.768046 -0.962542 1.06479 0.276258 -0.613878 -0.084547 1.40568 -0.69573 -1.38963 -0.684184 0.388335 -0.334722 -0.280555 0.902636 1.13032 0.86758 -0.583087 0.609523 -0.332179 0.123865 -0.97252 -0.705189 -0.321285 0.587077 -0.219428 0.21177 -1.46335 -1.17294 -1.70015 -1.35574 -0.659953 -0.457604 0.983566 0.0160092 -0.824501 0.490414 -0.334706 0.0877571 -0.0535313 -0.219071 -0.780012 0.230527 -0.960604 -0.195886 0.269235 -0.211178 -0.292578 0.450278 0.0112018 0.765307 0.14364 -0.416233 0.0602561 0.736603 -0.379091 0.91444 1.42024 0.57249 -0.814617 0.657001 0.405367 0.468122 0.179063 -1.11414 0.292348 1.12552 0.809321 -0.32345 -0.356763 -0.3755 0.17197 0.580337 -0.376498 -0.0765633 0.397214 -0.0721146 -0.299975 1.21744 1.30443 0.08817 -0.143251 1.27598 0.00673766 -0.321863 -0.648602 0.6842 -0.87305 1.73547 0.424791 -0.00398537 0.383017 0.876461 0.267417 -1.25511 -0.966508 -0.256041 -0.389776 -0.0105289 -0.654663 -0.11561 -0.0863298 1.25705 0.189524 -0.399432 -0.594609 -0.604036 -0.293541 -1.31924 0.0509918 0.553387 -0.00152122 -0.221753 -0.239453 0.623551 -0.162558 -0.746982 -0.508221 -0.310535 -1.09145 -0.440693 -0.312306 -0.085418 0.169803 0.104549 0.157157 0.942088 -0.233765 0.901662 -0.864843 -0.191252 
-0.675691 0.532293 -0.386466 -0.242986 0.23296 0.0462463 -0.288765 0.219776 -0.0386018 0.47901 0.0621437 1.40733 -0.587154 1.02699 1.286 0.602479 0.528861 -1.31223 -0.31013 -0.61332 0.606081 0.107059 -0.634346 0.568788 -0.818281 -0.850085 -0.216806 -0.857618 -0.671186 -0.554122 -0.192086 -0.522604 -0.0617298 -0.095138 -0.0881671 0.895582 0.907779 -0.00567297 0.0717882 -0.244507 0.721902 0.840967 -0.894917 -0.635272 0.763896 -0.274243 0.586313 0.515295 0.0908394 0.724711 -0.154339 1.07785 -0.696638 -0.148551 -0.311166 -0.70834 1.14585 -1.05041 -0.489112 -0.687109 -0.522466 -0.742941 0.387975 0.602975 0.659434 -0.188296 1.37398 0.195456 -0.887926 -0.469843 0.215462 -0.0714263 0.45681 -0.339253 0.354714 0.579425 -0.0043362 -0.908025 0.900044 -1.81694 -0.688883 -0.341663 0.465114 0.21586 0.01886 -0.209691 -0.253636 0.490716 0.435064 0.445708 0.776438 -0.601988 0.0756192 0.456522 -0.62666 -0.986665 0.893693 1.37314 -0.867777 0.506583 0.244084 -1.08274 -1.09384 -0.723512 -0.138869 1.24544 -0.217768 -0.15883 0.221831 -0.456995 -1.14446 -0.280375 0.524345 1.10297 1.50068 -0.625831 -0.152579 0.75984 0.785026 -0.00103701 -0.713159 -1.2138 -0.0582116 -0.361288 -0.523923 -0.387351 0.182691 -0.687859 0.467076 -0.41692 -0.0302049 0.411183 0.0667554 0.434458 -0.616369 0.414269 0.905711 0.20031 -1.88202 -0.218707 0.375259 -0.23563 0.199938 -0.117653 0.713777 -0.0763602 -0.120292 -0.303292 0.0102844 0.254483 -1.56061 0.106117 0.321592 -1.03601 -0.870636 0.71307 -0.550889 -0.301675 -0.842173 -0.64394 -0.477855 0.13843 -0.276488 1.10009 0.436286 -0.130839 0.243429 0.449156 -0.0166419 -0.356892 0.0298905 -0.365005 -0.308707 -0.00708978 0.0785539 0.209303 0.131146 0.308348 -0.092972 -0.13369 0.145085 0.522013 1.53069 0.424445 0.0630768 0.650636 -0.758354 -0.106098 -0.400279 0.987354 0.631415 0.804166 -0.256876 -0.496009 -0.0027604 -0.642832 0.326721 -0.85324 -0.327775 -1.41462 -0.649909 -1.00891 -0.472364 0.104725 -0.659516 0.418692 -0.928999 -0.291357 0.880663 -0.153451 0.0248862 0.0657219 -0.972771 1.06978 0.585956 -0.766872 -0.0883588 0.411542 -0.984252 0.0632859 -0.190213 0.471167 -0.417899 1.48939 0.0536528 0.29316 0.656111 0.475879 -0.934727 0.737039 0.653224 -0.614611 -0.805865 0.9185 0.478902 -0.168752 -1.1487 0.745763 -0.431607 0.239453 -0.0379431 -0.254527 0.675131 0.167482 -0.0358296 -0.342492 1.09837 -1.36301 0.141217 -0.275989 -0.15871 0.63287 0.343335 0.595194 -1.16932 0.547758 
0.248702 0.81121 -0.337218 0.676118 -0.420295 0.343002 0.455556 0.496646 0.0987839 -0.223273 -0.598844 -0.851712 -0.429865 -0.679104 0.407871 -1.17255 0.378877 -0.170376 -0.526205 -0.2192 -0.657164 -0.355577 0.321924 -1.27782 0.59392 -1.29882 -1.21024 -0.518057 0.229964 -0.431557 -1.03834 0.574075 -0.124626 0.681341 0.655908 0.195296 -0.888855 0.35885 -0.0650309 0.732724 -0.392671 -0.0162432 -0.362005 0.332112 0.334056 0.436847 -1.5611 0.336136 0.262837 1.07224 0.0355513 0.299616 0.240256 0.986045 -0.11708 0.190915 0.0791567 0.270562 -0.362693 0.0230022 0.483833 -0.128173 -0.0744276 -2.41791 0.861481 0.148239 0.0187093 -0.635125 0.581834 -0.333709 0.337013 -0.87904 -1.73011 -1.93131 0.150441 -0.743726 -0.0457776 -0.112317 0.211515 -0.997236 -0.791725 -0.174948 -1.61199 1.27101 0.373184 -0.263216 -0.560335 -0.334914 0.539004 -0.602648 -0.870324 -0.98369 -0.0136906 0.407648 1.24474 -0.235364 0.203239 -0.893898 0.621149 0.896559 0.60577 0.0191586 0.108175 -0.447045 0.515604 -0.655811 -0.243113 0.731032 0.227224 0.719338 1.53483 0.00144033 0.15513 0.203109 -0.22239 -0.31032 -0.163557 0.493726 -0.222274 -0.0683272 0.290829 0.649587 0.697006 0.000905389 0.910741 0.711165 -0.0328806 0.998555 0.28302 -0.155667 -0.805989 -0.515522 0.370199 0.274882 1.00442 1.02911 1.27316 -0.52148 -0.15446 -0.169324 -0.163778 0.655706 0.636629 -0.895317 0.0989943 0.494611 1.04127 0.038752 -0.622588 0.769307 0.229041 -0.742401 -0.664068 0.0138477 -0.953255 -0.0433911 0.128364 -0.347176 -1.07399 -0.973168 1.09412 0.304285 0.0439055 0.0741899 -0.338572 1.50623 0.625445 0.76924 -1.47891 -0.806336 -0.282253 0.336104 -0.0599218 1.02984 1.11836 1.19208 -0.348305 -0.173873 -0.763713 0.881668 -0.504785 -0.767653 -0.326994 -0.114265 -0.00728457 -0.714922 0.126144 0.447324 -1.08908 1.16133 -0.35255 0.521887 -0.346777 0.758117 -0.416751 -0.897556 0.0767753 1.04618 0.103841 0.582333 -1.76621 0.157103 -0.416315 0.489696 1.00211 -0.228104 -0.0615096 -0.265712 0.29034 -0.247958 -0.727223 -1.04259 -0.612398 -0.169915 0.0876956 0.025803 -0.377963 0.0605537 0.255008 -0.625533 -0.0245493 -0.423705 -0.30239 0.053902 -0.262372 -0.0615927 0.450828 0.20774 -0.285913 0.779858 0.443827 0.232783 -0.312694 -0.606146 -0.222573 -0.96124 -0.729566 -1.20905 0.332167 -1.11915 0.237711 -0.711686 0.799532 -0.61544 0.580346 -0.770651 0.219923 0.139258 -0.23468 -0.25076 -0.432862 0.275324 0.318587 0.207774 0.29928 -0.69706 
0.726046 -0.328345 -0.01862 -0.458638 -0.322085 -1.01274 -1.28814 0.631361 0.0066305 -0.0640441 -0.809078 -0.296256 0.373655 0.659136 -0.0376613 0.282182 -0.94942 -0.354906 -0.230832 -0.517648 -0.941408 -0.748916 -0.858712 -0.539894 0.31031 -1.39057 -0.238121 -0.779258 -0.809463 0.813252 -0.61269 -0.032722 0.760312 0.494269 1.35673 -0.908239 0.0429809 0.78425 0.286666 0.2391 -0.26104 0.178935 0.326266 -1.70049 -0.80486 -0.164802 -1.03914 0.504496 -0.0557422 -0.822587 -0.499676 -0.306277 1.05689 -0.568222 -0.777156 0.573827 1.28624 -0.0934253 0.89962 -1.59094 -0.138589 0.0412858 -0.49842 -0.107949 -0.0536366 0.569732 0.475261 0.0758754 0.017721 0.294021 0.574775 0.881859 0.580967 -0.258424 1.07924 -0.350173 -0.758111 -0.186322 -0.0701433 0.990795 1.13211 0.499275 0.265936 0.697748 -1.48576 1.06768 0.138971 0.444456 0.276608 0.0502037 -0.203715 1.088 -0.0467013 -0.930787 0.345683 -0.167971 0.777464 -0.980999 0.35272 -0.180388 -0.641901 -0.702151 0.115526 0.354212 0.0245043 0.717565 0.242719 0.0560395 0.401247 0.158641 0.68023 -0.0179891 -0.542816 -0.510138 -1.20298 -0.318536 0.340736 0.0941821 -0.0802245 -0.0912876 0.268361 0.500702 -0.237851 -0.833578 0.28213 -1.45052 -0.0466364 0.321108 -0.843983 0.365916 -0.904828 -0.597118 0.411957 0.553911 -0.742701 -0.178092 0.433351 0.284552 -0.834895 -0.418181 -0.662142 -0.371128 0.0931788 -0.404041 0.998405 0.466239 -0.0672209 -0.0944433 0.483274 1.10811 0.546359 -0.115963 -0.479316 -0.572026 -0.139026 -0.0842221 -0.50551 0.293993 -0.0660644 -0.215913 0.140337 -1.13064 0.621841 0.0682939 -0.178081 0.45508 -1.50751 -0.441966 0.0326797 -0.0883568 0.0263336 0.0331896 0.228252 -0.188458 0.490587 0.180566 -0.565448 0.691898 -0.619249 -0.845411 1.31 0.752578 0.185815 -0.224657 -1.09585 0.205981 0.0536527 -0.0168368 0.0633989 -0.52542 0.25114 0.632485 0.781504 0.863164 -0.259713 0.0325694 -0.30691 -0.3929 -0.959285 0.805646 -0.571726 0.131052 -0.218967 1.02452 -0.847204 0.314303 -0.302582 -0.342516 -0.197971 -1.52454 0.362657 0.169373 0.708501 0.515117 0.467385 -0.377535 1.80035 0.720684 0.148171 0.00467329 1.47961 0.465273 0.941844 0.0921025 0.333279 0.215622 0.201578 -0.489604 0.15816 -0.881418 0.204422 0.666568 -0.241634 0.143118 -0.625281 0.16004 1.28197 0.59125 -0.0270091 0.308955 0.626234 1.68935 -0.19536 -0.580585 -0.571139 -0.371 0.190787 1.07491 0.168048 -0.471361 -0.358282 1.21373 -0.72872 -0.0391499 -0.0555306 0.458671 
-0.530967 -0.828781 -0.580727 -0.47713 0.769957 -0.262986 0.590411 -0.0529899 0.612852 -0.818109 -0.22669 0.797623 0.641737 -0.310905 0.310646 -0.417483 0.871199 0.0796397 -0.833852 -0.219034 -0.122018 -1.05453 -0.401658 -0.707497 0.440281 0.273269 -1.39261 0.192064 -1.38616 1.18778 0.321967 -0.972899 -0.588346 -0.396676 0.471283 -0.311105 0.248038 -0.282502 -1.07055 0.179694 -0.292656 -0.554452 0.431314 -0.118442 -0.00988984 0.48753 -0.853997 -1.00216 -0.0530536 -0.925209 0.182148 -0.040818 -0.52654 0.118923 0.239393 -0.0759274 0.00854009 -0.107051 0.363408 0.53704 0.198666 0.506977 -0.260382 0.243527 0.573056 0.580817 0.0428731 0.0029111 -0.349025 0.287812 0.0971888 0.241608 -0.492376 0.56012 -0.144066 0.332157 0.914475 0.403433 0.236737 -0.0491412 -0.0834547 0.198769 0.406451 0.365383 0.471406 1.27867 0.365827 0.461662 0.338065 0.137926 -0.598024 -0.52908 -0.0248168 -1.55758 -0.491744 0.249833 -0.557939 -0.894269 0.289214 -0.472223 0.526895 -0.324478 -0.0999841 -0.430417 0.592433 0.135647 -0.527039 0.246116 -0.360059 0.417537 -0.0571365 0.0627304 -0.886104 0.326937 0.158226 0.624544 -0.22734 -0.0958555 -1.27708 0.249073 0.293013 -0.364434 -0.236508 -0.859355 -0.464482 -0.917598 0.042985 -0.82567 0.341986 0.134015 -0.0502767 1.15545 0.0995409 0.120185 -1.67588 -0.344228 -0.707358 0.625965 -0.296281 0.339667 -0.175079 -1.7047 -0.474887 0.657392 -0.120558 1.515 -0.0378755 -0.164364 -0.834121 -0.326668 -0.00937031 0.594599 0.867258 -0.239171 -0.0379874 -0.0815067 0.128366 -0.237627 -0.265273 0.26975 -0.275412 -0.30982 -0.27635 -0.380653 -0.489432 -0.793718 0.678316 -1.04617 -0.698777 -0.0575718 -0.6717 1.55205 -0.252094 -0.244577 -0.276506 -0.819492 -1.38054 0.675972 1.03233 -0.700716 -0.0473487 -1.39207 0.359267 0.469444 1.12397 -0.254719 0.0196311 0.73374 0.614479 -0.147881 -1.22118 1.44666 0.290468 -0.600161 1.14555 0.153775 0.665276 0.01229 -0.682546 -1.48088 -0.167163 1.22318 0.977475 -0.647706 -0.181969 0.691774 -0.000268983 -0.196349 0.47677 -0.0298913 1.15085 0.425693 0.0479049 -0.159744 0.290523 -0.3538 0.508823 -0.146995 -0.106959 0.26201 0.657299 0.42288 0.544843 -0.597396 -0.240855 0.57098 0.248876 1.51921 -0.502809 0.813403 0.234928 0.0390963 0.508042 -0.363665 0.0334242 0.328494 0.186271 -0.817712 -0.430224 0.735753 0.64311 0.185289 -0.480723 -0.36488 0.0673939 0.418859 0.487358 0.377091 0.67276 -0.238939 0.154665 -0.196367 -0.0653539 -0.818861 0.371262 0.21951 
0.432903 -0.4329 0.349748 0.534142 -0.500952 -1.11956 -0.00163406 0.0673261 -0.280755 -0.712845 -0.568781 -1.04113 -1.18387 -0.0923452 -0.277073 -0.386293 -0.649995 0.289021 0.524127 -1.60049 -0.653953 -0.23093 -1.38507 -0.0369014 -0.0673205 -0.396756 0.0156598 0.644859 0.161244 0.776063 0.626955 0.484802 0.197966 -0.56683 -0.1828 -0.0910335 0.256323 0.875141 -0.0100138 0.0174911 0.80591 0.253252 -0.337818 -0.0255068 0.353636 0.28876 0.796012 0.295797 -0.590995 0.0425238 -0.531016 -0.496015 -0.120602 -0.546715 -0.593157 -0.445932 -0.154271 0.0575776 0.329562 -0.0937931 0.221408 0.55231 -0.121977 0.599719 -1.38112 0.411417 0.17306 0.473866 -0.341259 0.646458 1.29046 -0.521036 -0.647535 -0.830418 0.255548 0.612955 0.297687 0.0213411 -0.760375 0.170134 0.153856 -0.810221 1.08801 0.0911802 0.191828 -0.0544125 -0.34057 -0.187749 -0.613312 0.12054 0.404937 -0.266416 -0.707137 -0.225754 -0.0390986 -0.370772 0.68198 -0.110541 -0.478042 0.163895 0.750933 -0.396404 0.242354 0.612677 0.513088 -0.184366 -0.446012 -0.141529 0.595893 -1.21935 1.00931 -0.142646 -1.12301 0.651485 0.437508 0.544722 -0.036224 -0.565663 -0.717466 -0.0876746 0.79054 1.32487 -0.581785 0.604121 0.165176 0.104769 0.0481722 -0.192868 -0.674865 0.317625 -0.440986 0.675302 0.11657 0.32227 -0.1259 -0.113514 0.0944655 -0.441891 -1.21408 -0.0097864 0.829567 -0.389091 -0.877356 0.339035 -0.660911 0.0701535 0.507136 -1.20603 -0.527147 0.674014 -0.946145 1.35099 0.148206 -1.19562 0.282333 -0.214929 0.123593 0.0320123 0.515718 -0.0333295 -0.323619 0.241716 0.202121 -0.596981 -0.595764 1.01324 -0.552969 -0.483444 0.729073 -0.0159501 0.879018 -0.387542 -0.284836 0.833327 -0.39039 -0.194145 0.687578 -1.01161 0.118946 0.191322 -0.248603 -0.300082 -0.440465 -0.93753 -0.94883 0.910713 0.483704 0.112566 0.894474 -0.470554 -0.295361 -0.163069 0.0261688 0.81429 1.19503 0.840284 0.356298 0.00270092 0.0143887 -0.0861041 -1.11205 -0.325169 -0.894637 0.0138923 -0.894191 0.751466 -0.444898 -0.53903 0.848543 0.0267335 -0.205184 0.609418 -0.514424 0.195515 -0.672898 -1.03558 0.494175 1.59438 0.737178 0.494567 -0.439287 0.41186 -0.313697 -0.120035 0.49582 0.325994 1.13344 0.213442 0.70017 -0.393459 0.918195 0.119643 -0.365092 -0.656701 -0.00421266 -0.202391 -0.181591 -1.10873 0.681986 -0.097995 0.750227 -0.0568567 0.134561 0.2918 -0.0671361 -1.44006 -0.607381 -1.15515 0.110473 0.28725 -0.940586 0.00152551 1.07784 0.440295 -0.221109 -1.58101 
0.28087 -0.574102 -0.19351 -0.356296 -0.477139 0.190717 -0.695959 0.494898 -0.331479 0.343008 -0.359113 0.67232 -0.365856 -0.203619 1.27975 -0.289583 -0.360754 0.584468 -0.279309 -0.118064 -0.624674 -0.368833 -1.15017 -1.12864 -0.629493 -0.359348 -0.0484222 -0.44416 -0.928339 -1.03711 -0.518229 -0.842066 0.177881 -0.65309 0.848225 -0.438268 0.247055 -0.118563 -0.0141992 1.6007 1.27247 0.720011 -0.409661 0.200655 -0.186855 0.473358 0.62891 0.232526 -0.545678 -0.232759 -1.18518 -1.21546 0.14772 0.818061 0.322777 0.635628 -0.132261 -0.630958 -0.541844 0.105432 0.713351 0.226662 0.115272 -0.872804 0.485762 0.235041 0.639786 -0.185028 0.125185 -0.44265 -0.0290678 -0.00455004 -0.618643 1.63263 0.384511 1.07296 0.281408 1.9167 0.297914 0.484675 1.01848 0.545097 -0.42099 0.84892 -1.17538 0.148947 0.29099 -0.429877 0.947037 0.243689 0.465551 -0.342842 -1.22637 0.448431 -0.171474 -0.0212656 -0.387785 0.52243 0.462558 0.144906 0.498039 -0.284991 1.08446 0.286891 -0.390731 0.328216 1.59998 -0.304008 -0.0653815 -0.0888057 0.835633 0.46816 0.615457 0.0447669 -0.219096 -0.325467 -0.111586 -1.53428 -0.0666822 0.0407639 -0.0128354 0.428228 -0.133175 0.971501 -0.532609 0.184532 -0.095711 1.24106 1.32571 0.13017 -0.400962 0.382775 -0.157291 0.223191 -0.213025 -0.323596 -0.690958 0.648678 0.420261 -0.489141 0.538055 -0.0374778 -0.706815 -0.36953 1.58352 -0.737689 -0.370217 -0.449713 0.0335461 -0.547277 -0.318831 0.0545363 0.284053 -0.0498204 1.04382 0.807875 -0.176769 -0.900467 -1.36976 -1.01761 -0.683499 0.747471 -0.372646 1.10801 0.0638538 0.123176 -0.469095 0.102077 -0.22103 0.0837645 -0.727584 -0.268107 -0.374384 0.734501 1.44764 1.16042 -0.265431 0.288856 -0.401201 -0.769812 0.675013 -0.335241 0.500052 -0.328452 -1.1151 0.209364 0.0545584 0.929839 0.00831921 -0.354822 -0.719263 0.409987 -0.871505 -0.384459 0.252034 0.299622 -0.664916 -0.765447 0.399706 0.058749 0.858643 -0.320626 -0.718806 0.956346 0.330243 0.725597 -0.392412 -0.782044 -0.76298 -0.546177 0.0855419 -0.171334 1.12778 -0.187995 -0.67213 -0.409077 1.25851 -0.0976796 0.619621 0.573477 -0.0990627 -0.363654 -0.488636 0.169354 0.962383 0.402606 -0.13657 -0.281578 1.10604 0.286366 -0.522305 -1.08658 0.588328 -0.0389021 -0.263814 0.343132 -0.0714707 -0.612255 -0.43488 0.331393 0.0621237 -1.13022 -0.233331 -0.994192 0.0302711 0.587984 0.0478686 0.574316 -0.980413 -0.162934 0.386488 0.130108 -0.25864 0.33415 -1.75982 -0.0548709 
-0.436548 -0.849858 0.121209 0.189615 0.0176554 -0.547537 0.886164 1.15955 -0.52865 0.345026 0.68076 0.230156 -0.826003 -0.178128 0.415491 0.0540778 0.984901 -0.0803281 0.264327 0.100121 0.36639 -0.815395 -1.53564 -0.393161 -0.0201545 0.836255 0.106396 0.26621 0.408961 -0.406235 -0.379592 -0.419317 0.311783 0.305939 -0.43303 -0.0936318 0.165908 1.37502 -0.648419 -0.955518 0.846311 0.0820035 -0.83237 -0.714379 -0.16564 -0.55675 -0.19655 0.0841825 -1.19268 0.725166 0.00169435 -0.866029 0.516553 -0.0542972 -0.212511 -0.50088 0.220767 0.368688 0.652322 0.580536 0.259631 -0.261407 1.07397 0.359854 0.0447112 0.159729 -0.501861 1.50098 0.300086 0.127318 -0.0900389 0.301487 -0.633228 0.100443 0.230548 -0.240161 0.257497 0.699969 -0.451178 -0.843062 0.233671 -0.879927 -0.815434 -0.293301 -0.0895168 -0.974105 -0.463572 0.757424 -0.393534 0.314281 -0.125215 -1.15068 -0.238313 -0.576519 -0.90412 -0.269389 1.35516 0.619983 -1.02836 -0.91636 0.0791201 0.401859 0.57677 -0.26277 0.193905 -0.182355 1.58589 0.527546 -0.34367 0.454752 0.0460015 -0.0459604 -0.848035 -0.491237 1.27962 -0.120729 0.058284 0.2542 -0.0257876 -0.67264 -1.02301 0.0414877 -0.760315 -0.0304085 -0.707069 -0.410013 -0.175072 -0.249537 -0.242683 1.12635 0.55113 0.226201 -0.257153 -0.11337 0.226685 -0.903256 0.497917 -0.336121 0.456123 0.936033 1.1127 0.298815 0.0693203 0.283519 -0.0913647 -0.0681486 -0.365124 0.356112 -0.296952 0.439958 1.36545 -0.743547 -0.0654057 -0.921974 -0.991383 -0.748559 0.0787203 0.0399479 1.03457 -0.447925 0.0045408 0.671196 -0.839497 0.591308 0.0272331 -0.694129 -1.06388 -0.691457 -0.970599 -0.0365328 0.856467 0.0237223 0.714267 0.412303 1.50822 0.291957 0.195385 0.48882 -0.227538 -0.572986 -0.0516948 0.559906 -0.177612 0.536468 0.516923 -0.028437 0.414339 0.547698 1.55438 -0.733047 0.355171 0.307074 -0.059166 0.991115 -1.81308 -0.226678 -0.113513 0.627689 -0.720511 -0.759536 -0.0583619 0.0680118 0.308567 0.293536 -0.620608 0.573946 0.596607 -0.150543 -1.31847 0.0949515 -1.62483 -0.176121 -0.119889 0.364765 1.1766 0.416671 -1.23286 -2.14736 0.928531 -0.819225 -0.231412 0.214198 1.1058 -0.0883181 -0.0290989 0.349529 -1.04828 -0.171005 -0.732093 -0.502227 -0.188928 -0.184028 0.378531 0.282841 -0.593176 1.06861 -0.310094 -0.208923 -0.00202706 0.36442 0.595845 0.136045 -0.0815217 0.776977 0.567868 -0.644073 1.00722 0.201114 -0.710211 0.16097 1.21796 0.609056 0.467761 -0.390693 0.617425 0.575195 
0.339173 0.432245 -0.341743 0.963798 -0.17194 -0.669794 -0.602748 -0.0779886 0.30526 0.10589 -0.584917 0.898397 -0.0797266 0.645765 0.345257 0.859345 -1.63303 1.31879 0.533472 -0.38548 -0.880805 0.740003 0.294222 0.884743 -0.309818 -1.17292 -1.11733 0.64683 -0.70052 -0.0584399 -0.840557 -0.669191 -0.810509 -0.241265 -0.339982 0.161843 -0.231141 -1.11367 0.0824954 0.316304 0.511188 -0.637583 0.385839 0.276154 0.272992 0.499506 0.509127 -0.870079 0.481053 1.36168 -0.135436 -1.20219 -0.343227 -0.571164 0.0222455 0.560744 -0.528297 0.147247 0.62592 -0.924486 0.673257 -0.106276 0.701805 0.450082 -0.549635 0.419706 0.074042 0.38406 -0.121331 0.109675 -0.671576 0.444347 0.374983 0.478401 -0.647603 0.916842 -0.331183 0.272717 -0.339617 0.355166 0.00285226 -0.881928 0.469673 0.0249677 1.18693 1.6248 -1.18172 0.340122 0.205078 1.04427 0.65249 -0.596773 1.40535 0.600159 0.0892378 2.05459 -1.07079 0.0505273 -1.14917 0.296724 0.961126 -0.451533 0.814961 0.834164 -0.377673 -0.429488 -0.558668 -0.577679 -0.621709 0.348065 -0.173502 -0.748658 0.371358 0.0163601 -0.319149 -0.804142 -0.634567 -0.565725 -0.280921 0.0420934 0.582414 0.37986 -1.53836 -0.326664 -0.480603 0.711403 -0.240218 -0.0456605 -0.530165 -1.20017 1.05358 -0.178708 -0.416886 -0.0948848 0.51289 0.255325 -1.14786 1.36624 0.62703 -0.0318681 0.974793 -0.0155183 0.313771 -0.219071 -0.17624 -0.969327 -0.643166 0.00759172 0.254124 -0.740085 1.08006 0.380952 -0.633556 -0.480089 -0.596743 0.573171 -0.0111394 0.224066 0.347069 0.211493 -0.523657 0.0872213 -1.60529 0.137222 -0.283978 0.500374 -0.469458 -0.370042 -0.275593 1.27017 0.0420546 -0.999175 -0.564995 -0.187427 0.327817 0.945721 -0.195267 -1.24692 -0.410447 -0.618843 -0.331684 -0.967111 -1.82069 -0.120885 0.51519 -0.267789 1.59186 -1.5561 -0.599716 -0.59379 -0.0387197 -0.384461 0.52713 -0.334957 -1.19592 -0.490759 -0.24184 -0.233308 -0.533671 0.878798 1.32464 0.25475 0.942265 -0.229192 -0.405214 0.959086 0.0433643 -0.180379 0.147917 -0.148633 -0.396273 0.468931 0.305239 -0.132204 -0.00389205 0.332821 -0.0734573 0.365377 -0.496621 0.0176403 -0.696091 -0.229121 0.687829 0.0286767 -1.59621 0.278486 -0.248223 0.649641 -0.16351 0.930721 -0.815444 0.428159 0.488493 -0.67649 -0.213913 0.371424 -0.384539 -0.659669 -0.0933686 -0.672703 0.210994 0.542095 -0.703047 1.21014 -0.743232 0.568981 -0.450962 -0.79603 0.25761 0.783369 -0.374571 1.50238 0.169214 0.158642 -0.312218 -0.0778677 
0.973395 -0.878647 0.0258612 -0.189645 0.180085 -0.906284 0.624805 0.489118 0.0318882 0.757242 0.57441 -0.0607892 -1.13008 0.18619 0.0594095 -0.452046 0.207394 -0.48703 -0.586689 1.07535 -0.128864 -0.628496 0.778446 -0.0394521 -0.0591922 0.112931 -0.533218 0.712773 0.605448 0.77574 0.0713435 1.16973 -0.234017 -0.0919947 -1.81502 0.412834 -1.32453 0.476123 -1.37475 -0.759848 0.0579151 -0.810985 0.991311 -0.465314 -0.297478 0.438895 -0.596089 -0.0544758 -0.721013 0.0176225 -0.267497 -0.204757 -0.418283 0.667991 0.340749 1.40665 0.316899 0.227214 -0.474044 0.190837 -0.45916 1.00612 -0.724647 0.829987 0.633455 -1.15566 -0.272641 0.10557 -0.223445 0.68304 -0.29396 1.27196 -0.599717 0.135354 0.0634342 -1.10994 0.689844 -0.0720279 0.428839 0.00187393 0.635187 0.535768 -0.676438 -0.502721 -0.798017 -0.441121 -0.173847 0.373927 -0.356946 0.412891 0.436643 -0.10302 0.599145 -0.822972 -0.74479 0.0444888 -0.771244 -0.388774 -0.622906 0.824466 0.159473 1.16258 -1.586 -0.149939 -1.14397 0.902579 -0.120697 1.59896 -0.968894 -0.225319 0.35548 0.120998 0.47056 -0.656565 -0.493978 -0.0126994 -0.484554 -0.0523255 1.98548 0.949987 -0.197049 0.206392 -1.22203 0.0603467 0.338293 0.544112 -0.827883 1.28649 -0.537894 -1.09984 1.07745 0.49014 -0.266379 -1.25221 -1.41272 -0.815419 0.432213 0.529534 1.38585 -1.96917 -0.528496 0.500767 -0.0986596 0.212472 0.330095 -0.589338 -0.0543176 0.113597 0.469941 0.0666257 -0.787588 -0.227042 0.337584 0.131083 0.192796 -0.149756 -0.213973 -1.19758 0.459727 -0.115505 -0.399766 -0.10597 0.439875 -0.613931 0.702189 0.265912 0.731321 0.104397 1.19508 -0.343656 0.521828 -0.336525 0.282148 -0.285163 -0.784692 -0.536063 0.139688 0.589688 0.472639 1.0718 -0.14521 0.599457 -0.0561721 -0.221924 -0.356981 -1.18101 0.150484 0.00660916 -0.747538 -1.38861 0.27611 -0.829934 -0.377678 1.09209 0.41389 -0.627272 -0.474753 0.542326 -0.595118 -0.336253 -0.484012 0.0763705 0.144347 -1.28405 -0.156869 -0.88169 1.07845 -0.22435 0.31438 -0.451851 -1.26427 1.16476 0.552121 0.178787 -0.366001 -0.0902585 -0.620208 -0.285645 -0.0355165 -0.970463 -0.397024 0.286138 0.706969 0.765379 0.0186349 -1.32951 0.794276 -0.145593 -0.465968 0.228041 0.955653 -0.402412 0.425481 0.0629678 -0.324154 1.21231 -0.227764 -0.884035 0.732831 -1.1248 -0.396949 0.108038 -0.481751 0.63545 -1.43995 -0.230786 -0.429951 -0.0117706 -0.546819 -0.0395897 0.0692993 -0.466731 0.201468 0.521638 -0.819425 -0.132984 
-0.482073 -0.259163 -0.554056 -0.449255 -0.782298 -0.258951 -0.404145 -0.349283 0.0864483 1.41702 -0.339063 1.11054 -0.390599 0.50097 -1.11533 0.612012 -0.221068 0.0851305 -0.56285 -0.515396 -1.03139 0.419916 0.749152 0.415399 -0.0936991 0.166633 0.0166632 -0.9242 0.415151 -0.291751 0.563351 -1.39075 -0.466497 -0.00752481 -0.476689 1.65788 -0.119911 0.383084 -0.18865 -1.02563 1.00512 0.34632 -0.745466 0.865393 0.0594793 -0.407153 -0.633791 -0.276754 0.117859 0.663372 -0.802225 -0.516055 0.383813 0.520417 -0.737622 -0.698192 0.155003 0.457929 0.485095 0.867748 1.77082 0.887479 0.217469 0.625868 -0.0800913 0.078889 -0.729859 0.79746 -0.462823 0.468249 -1.32548 0.631941 -0.0390961 0.742898 -0.399744 -0.770639 -2.32761 -0.510997 -0.00778209 0.240642 0.740268 0.144296 0.741707 -0.290627 0.772351 0.153562 -0.851559 -0.0681076 -0.75821 -1.00851 -0.151677 0.15065 0.737027 0.037827 -0.938823 -1.09024 -1.74849 0.121754 -0.0764908 -1.01623 -1.22462 -0.531901 -0.482178 -0.136988 -0.320354 0.32971 -0.414685 -0.59225 -0.521312 1.82272 -0.798824 -1.25479 -0.0814163 0.0370555 -0.0510187 -0.221165 1.22196 -1.34406 0.961445 -0.0803051 -0.903479 -0.135844 -0.760506 0.258539 0.0842723 -0.276194 -0.222447 -0.29863 0.348429 -0.380426 0.259422 0.0347021 1.06303 0.0909428 0.355898 -0.547291 -0.406095 -0.181092 0.210503 -0.174628 0.0196604 0.374065 -0.739015 -0.676398 -0.483134 0.293717 -0.544262 0.362029 0.276565 -1.49403 -0.668925 -0.486848 0.784007 0.383614 -0.263859 -0.761225 0.134577 -0.559802 0.421115 -0.396776 -0.219238 0.0816864 -1.32896 -0.914689 -1.41713 0.71753 0.411555 -0.0745645 -0.288872 -0.489619 0.122958 0.314855 0.346722 0.387883 -0.376701 -0.46545 -0.374341 -0.0163035 0.284883 -0.824181 1.26307 0.241729 -0.656062 -0.394112 0.500837 -0.42755 -0.353459 0.0702601 0.122482 -0.589719 -0.514549 0.287309 -1.40689 -0.342181 0.144926 0.938036 1.20791 0.604475 -0.0485171 0.155306 -0.744446 1.55208 -0.468791 0.000644149 0.565033 0.440399 0.284401 -1.18484 -0.499499 1.00894 -1.00337 0.149531 0.986203 0.292896 0.246647 0.321909 0.173077 0.38807 0.871807 0.585388 0.189546 0.0125616 -0.239453 -1.65204 -0.341113 -0.116625 -0.0692376 -0.222762 0.683317 0.477625 -0.0458323 0.124552 -0.463076 1.82697 -0.394067 -0.155314 -0.716809 1.20391 -0.101052 -0.215221 0.633904 -0.307736 0.29609 -0.427742 -0.228957 -0.15633 0.0360132 0.602687 -0.334132 0.325542 0.517537 0.00857361 -0.688919 -0.118876 0.506794 0.505135 
0.03033 -0.81758 -1.41771 -0.723124 -1.12895 -0.117376 -0.568557 -0.444465 0.12985 -1.05952 -0.499362 1.27106 -0.296334 -0.200911 -0.439433 0.484031 -0.584948 0.143136 0.209518 -0.48497 0.985334 -1.34108 -0.155681 0.307936 -1.09532 -0.521444 0.482698 -0.263802 0.441472 -0.342889 0.206481 -0.176821 -0.232419 0.0845502 0.865275 -0.0580007 -0.128619 -0.831576 -0.0183158 -0.106608 0.646815 0.277305 0.924369 -0.582227 -0.785565 -0.404337 0.409919 -0.777849 1.0873 0.532309 -0.416659 0.702352 0.710298 -0.0555272 1.34262 0.531056 -0.129228 -0.562484 1.26975 0.762281 0.452917 1.20769 0.0415413 -0.320804 -0.43712 0.320823 0.850174 -0.270524 1.09685 -0.152019 0.637174 0.832533 0.85382 -0.87184 1.3319 1.11606 1.07906 0.0638806 0.671359 -0.0912251 0.654247 0.479339 0.125695 -1.47638 -0.924341 0.54887 -0.599232 -0.00189036 -0.384013 -0.649617 -0.247339 0.132239 -1.29481 0.596676 0.0985431 0.897364 0.626449 -1.01864 -1.15098 0.223415 0.717963 0.126419 0.122594 -0.0341657 1.03316 -0.619386 -0.113284 -0.936046 0.245103 0.317756 0.606066 0.150774 0.793727 0.546195 0.613083 0.0743147 -0.324758 1.04194 -0.939903 0.131843 -0.352681 -0.547671 -1.01389 -0.726313 0.718374 -0.867017 1.26756 -0.440153 0.77965 0.172051 0.224979 -0.774715 -0.539548 -0.159761 0.349488 -0.308699 -0.44363 -0.717858 -0.395895 0.07365 0.261743 -0.287927 0.460381 0.893493 0.00118451 -0.205933 0.133318 0.214486 -0.570177 0.312295 -0.0899042 -0.281827 -0.385515 -0.976815 -0.546561 0.400925 0.144079 1.14418 -0.289488 -0.0597258 -0.218142 -0.117335 -1.33698 0.543795 -0.449938 -0.233251 0.735676 0.00859104 0.580453 0.203279 1.31698 0.00751446 0.0218106 0.682116 -0.354092 -0.128334 0.340224 0.204834 -0.226338 0.559131 -0.241061 1.54216 0.524369 -0.332824 -0.881655 1.08199 -0.0802782 -1.10044 0.619142 0.475592 0.229686 0.314759 0.172321 0.176197 0.485658 1.14373 0.262886 0.0390484 0.489597 -0.410934 -0.343884 0.741737 -0.158597 -0.094588 0.631721 0.269282 -0.356964 0.484428 0.15317 -0.139046 0.566596 0.592462 0.405898 -0.628862 0.94713 0.779698 0.753064 0.388608 0.395818 0.600765 0.638691 0.268627 0.142276 -1.00594 1.18212 -0.448101 -0.360504 -0.232239 0.59313 -0.166959 -0.121587 0.0531256 -0.00843942 -0.245759 -0.388392 0.252128 0.300322 0.75711 -0.730361 -0.784299 0.108619 -0.509659 -0.192336 1.12446 -0.859819 0.243627 -0.186815 1.12048 1.08952 -0.0716595 0.0767455 -0.326131 0.486707 -0.182272 0.201842 0.764433 
-0.94031 0.0875403 -1.63378 0.312225 0.392515 0.0197844 -0.750787 0.423488 0.21815 -0.280804 1.08259 0.423567 0.553738 -0.700008 0.0725311 0.900133 0.528567 1.10458 -0.225783 -0.159725 -1.14745 -0.165098 0.77694 -0.00557908 0.156813 -0.356682 -0.13391 0.121678 0.721848 0.178568 -0.856492 0.66998 0.619652 -0.594216 -0.12882 0.937434 1.10698 1.48897 0.976428 0.395881 1.01172 -0.164618 -0.185849 0.477389 -0.179119 0.184695 -0.643648 0.643726 -0.276517 -0.268513 0.429523 -0.75147 -0.628039 0.75562 1.31898 0.144087 -0.240628 0.267587 0.213382 -0.49553 0.831154 -1.48617 -0.448501 -0.501483 -0.674156 -1.46119 0.226886 0.587626 0.00571827 0.47043 0.166296 0.36414 -0.280231 -0.554112 -0.837281 -0.00174848 -0.565382 -0.625846 -0.183765 -1.0049 -0.297 0.0428727 0.259323 -0.699748 0.49079 -0.959869 -0.384115 0.200013 -0.244433 -1.03595 -0.542659 0.365134 -0.940595 0.661084 0.710623 -0.919982 0.952865 0.954236 0.0111797 1.13486 -0.107274 -0.758759 0.108695 0.000149232 -0.0153084 -0.0147635 -0.828701 -0.269933 1.17754 0.964137 0.358676 -0.267063 0.848128 1.03494 -0.156949 -0.409858 0.84421 -0.717885 0.346666 0.325329 0.301274 -0.723045 0.484594 -0.387602 -0.444917 0.0663702 -1.14059 -0.363548 -0.0840569 0.720009 0.927987 -1.51667 -0.458827 -0.0406452 0.228155 -0.425092 0.347208 -0.426686 0.0245855 0.246947 1.35669 0.388477 -0.700949 -0.75679 -0.393454 -0.348221 -1.30653 -0.489303 -0.275207 0.19057 0.135821 -0.00574312 0.845944 0.585444 -0.040788 0.540189 0.160763 -0.315459 -0.652332 -0.750143 -0.380193 -0.609311 0.110341 0.256045 0.0311085 0.302422 -0.372782 -0.429448 -0.261947 0.731249 0.0618425 -0.298338 -0.00684769 -0.543622 0.537537 -0.871993 1.02323 -0.0987746 0.404686 -0.339103 0.909909 0.487999 -0.719554 -0.328599 0.160863 -0.0479408 0.339627 0.0829663 -0.221406 -0.778076 1.13484 -1.41875 -0.934149 0.57423 -0.0589189 0.675565 0.291731 0.188215 -0.0910251 -1.06357 0.472044 0.788979 -0.747976 -0.0624686 -0.474079 -0.883459 -0.0636241 -0.79966 0.0418067 0.218339 0.833486 -0.0696726 0.152204 -1.25637 -0.382191 -0.00827145 0.920019 0.901743 0.670816 1.00124 -0.0199343 -0.388215 -0.350577 0.599923 1.10093 -0.0934034 -0.547086 0.622457 -0.0109496 -0.293013 -0.392509 -0.95973 1.30013 -0.161904 0.521958 0.0683858 -0.669349 -0.0823544 -0.684426 0.575864 0.218177 -0.0140194 -0.0840976 -0.373941 -1.28637 -0.103988 0.639131 -0.756209 -0.0425545 -0.213497 1.30237 0.510349 0.981315 -0.501554 -0.663615 -0.532802 
0.689301 0.273293 -1.53296 -0.664074 -1.09239 -0.31953 0.940688 -0.256338 -0.692838 0.111321 -0.200867 -0.439923 0.150339 -0.695304 0.839153 0.904296 0.306128 1.10884 0.855779 -0.216818 -0.508544 -0.325383 -1.12706 -1.16416 0.672821 0.159251 -0.245329 -0.194439 0.598297 -0.26572 -0.781056 -0.147689 0.975341 -0.416987 0.0201455 -0.208125 0.655108 0.34317 0.34468 0.562771 -1.25113 -0.405514 0.0179863 0.0635047 0.127088 0.618489 0.502391 -0.76804 0.128826 -0.0507106 -0.577331 0.680562 0.52013 0.108913 -0.207572 -0.0513339 0.159544 0.383997 1.35771 -0.691041 -0.0878396 -0.0377205 0.706236 0.844972 -0.407819 0.435709 1.32662 -0.356969 1.06018 0.664208 -0.733077 0.712821 0.391148 0.22782 -0.0404902 -0.741066 -0.142039 0.581045 -0.622732 0.289452 -1.02436 0.135472 -0.326108 -0.270278 -0.944084 -0.322043 0.610575 0.400479 1.41395 0.608609 -0.37018 0.171501 0.709951 0.367543 0.732185 -0.850662 0.527623 0.0653522 -0.665274 -0.257593 -0.079603 1.05103 0.917421 -0.0281359 -1.04837 0.351383 -0.359973 -0.836034 -1.02541 -0.0966936 0.519084 -0.054183 -0.209537 -0.289965 -0.564914 -0.99756 0.283913 0.249845 0.116881 -0.0213641 -0.506767 -0.202721 0.0917759 0.754143 1.56145 -0.246128 -0.500414 0.955644 -0.676389 -0.217652 1.57345 0.439189 0.107119 0.958418 -0.152195 -0.0964534 0.0626976 0.122981 -0.786627 -0.36177 1.24133 0.170195 -0.426487 -1.03868 -1.3334 0.147594 1.23175 -0.370592 -0.331886 -0.0368627 -0.0589182 0.5541 0.357902 0.429102 -0.313184 0.661171 0.235228 -1.06708 0.0299355 -0.141581 -1.51597 0.332271 0.230001 0.0832149 1.1306 -0.128609 -0.48675 -0.587918 1.44214 0.618585 -0.49708 -0.313005 -1.3448 -0.000865185 0.625079 0.591269 0.345208 0.0245355 0.912621 0.224082 -1.22479 0.536332 1.13439 -0.0374611 -0.292682 -0.232262 0.571484 0.368555 -0.338587 0.241147 -0.439784 0.849537 0.0371704 -0.277907 0.221566 0.395683 0.950885 -0.537851 0.206369 -1.02559 -0.079967 -0.315601 0.832058 0.810217 0.483295 -0.187196 0.657736 -0.145993 -0.025897 0.775961 1.47619 -0.644647 -0.238445 -0.0856886 -0.0561023 0.145448 -0.0480061 -0.714126 -0.0828839 -0.156451 0.410218 -0.468098 -1.36476 -0.255933 -0.686776 0.491409 -0.472952 0.164074 -0.0846659 1.73603 -0.107845 0.236479 -0.905835 -0.0466509 -0.091881 0.576354 -0.654197 -0.750924 -0.472783 -1.56142 0.231311 0.665727 0.218328 -0.655048 0.681937 0.218928 -0.323701 -0.012929 -0.31646 -0.345855 -0.000504879 0.37386 0.166286 0.177524 -0.268125 -0.190798 
-0.273636 -0.146684 -1.44142 -0.441489 -0.375342 0.732992 0.773492 -0.486087 -0.955436 -1.35476 -0.550552 -0.967782 0.0284134 0.123839 -0.755948 -0.436717 0.0910384 0.783432 -0.190566 -1.04974 0.0904684 0.405273 -0.51391 -0.297811 1.00357 0.319775 0.315848 0.219526 0.346369 -1.17616 -0.973379 -0.87744 -0.187736 0.272583 -0.212205 -0.0352686 -0.0156483 -0.474456 0.0998313 -0.55166 -0.0887312 0.292872 -0.318311 0.361467 1.25154 -0.166193 -1.43532 0.484105 0.368232 -0.0590805 -0.915751 -0.474452 -0.137761 -0.510298 -0.705884 -1.55426 0.742644 0.68792 -0.229207 0.533764 -0.276004 -0.376012 -0.750928 0.0367126 -0.821853 -0.782053 -0.694783 0.575425 0.600443 -0.276598 -0.69842 -0.687432 -0.521265 0.478765 -1.16201 0.68486 -0.403983 -0.124668 0.607093 -0.553147 -1.042 -0.38642 0.0757424 0.348037 0.0129591 1.23514 -0.201649 -0.70332 0.336528 0.703054 0.389627 -0.116558 0.477271 0.280281 -0.28767 0.496683 -0.142031 1.40657 0.180939 -0.987283 -0.351207 -0.0441236 0.568207 -0.330409 0.125432 0.802827 0.489679 -0.782871 0.32387 -0.00841341 -0.573515 0.547047 0.329615 0.474685 -0.743679 -0.687145 -0.811301 -0.328368 0.0278972 0.590595 0.570628 -0.869933 -0.55921 1.20366 0.0807117 0.0605796 0.772648 -0.568238 -0.13572 -0.673564 0.995601 0.364143 -0.0220425 -0.112612 -0.123322 0.856434 -0.283901 -0.398429 0.693458 1.01084 -0.986212 -1.29598 0.424805 1.35639 0.417757 0.599267 -0.70187 0.437813 -0.0538897 -0.0700113 -1.20397 0.848487 -0.510597 0.315446 -0.782551 -1.04787 -0.176589 -0.541592 1.0515 0.677864 0.368144 -1.30312 0.990082 0.458044 -0.0926101 -0.263411 -0.314256 -0.496478 0.0769721 0.364412 1.0904 0.00821742 -1.30425 -0.558754 -0.368337 0.426834 -1.0808 0.855834 0.201684 -0.579997 -0.532078 -0.318786 -0.214957 0.80072 0.8537 -0.183282 -0.790202 -0.273648 -0.550598 -0.0354217 -0.223584 -0.099897 1.02734 -0.495543 -0.877143 -0.274795 0.826559 0.201307 -0.226085 -0.629487 -0.936 -0.769232 -0.44202 0.5987 -1.16479 -0.41957 0.026798 0.148772 -0.661866 0.497905 0.557315 -0.666893 -0.0532348 -0.256885 0.245531 -0.699785 0.0964458 0.763352 -0.232375 0.626885 -0.144376 0.256248 0.183531 -0.0803104 -0.600331 0.900306 -0.066782 0.120239 0.394508 -0.0306749 -0.771584 -0.591337 0.0558544 0.0426712 0.573004 -0.121169 -0.556116 0.150811 0.317208 0.748784 0.33652 -0.483804 -0.163188 -0.161297 -0.254627 0.912939 0.773233 -0.745652 0.235409 1.27406 -0.209991 -0.0525939 -0.0398587 -0.0703851 0.350242 0.30545 
0.127047 -0.442539 0.294834 0.147407 -0.176151 -0.896856 0.0797814 -0.60688 1.29935 0.750814 0.0483931 -1.4178 -0.540217 0.27544 1.25366 -0.0779566 -0.438589 -1.21985 1.01635 0.138863 0.988442 -0.31428 0.518129 0.66021 -0.800278 -0.43617 -0.024315 1.46363 0.285123 0.0829395 -0.859176 0.556425 -0.945588 -0.133583 -0.329293 1.12058 0.861539 0.414895 0.387753 -0.514218 -0.718951 0.387461 -0.027137 -0.161819 -0.594113 -0.459895 -0.542794 1.05096 -1.39538 0.0350276 0.211898 0.189836 0.56506 -0.0150148 0.826742 0.354647 -0.497742 0.145467 0.894953 0.647978 0.546809 -0.793684 1.12884 0.214295 0.784266 -0.297512 -0.321307 -0.841569 -0.720157 -0.435761 -0.0576557 0.686242 -0.771502 -0.402692 -0.140665 -0.500347 -0.942181 0.694056 0.3841 -0.400045 -0.161891 0.553154 -0.968977 0.89281 -0.029143 1.23879 1.05443 -0.164012 1.30301 1.21822 -0.81438 0.0779642 0.286182 0.136038 -0.113051 0.283712 -0.673261 0.500892 -0.243546 0.936639 -0.67426 -0.359075 -0.733772 1.05001 -0.256482 0.240523 -1.01103 0.00597465 -1.15951 -0.302499 -0.0946312 0.228066 -0.464372 -0.816153 0.651647 -0.00872883 0.60694 -0.451491 -0.198458 0.509653 -1.00369 -0.516011 -1.01963 -0.294872 0.442736 1.48851 0.442565 -0.962921 0.126593 0.0232353 -0.124535 -0.0269037 0.377629 -0.148 0.776094 -0.071836 -0.337821 -0.495264 0.998317 -0.549867 -0.361187 0.351163 -0.10817 -0.500583 0.240826 0.755883 1.16372 0.199135 0.429216 0.421293 -0.289221 -0.522197 -0.354745 0.18373 -0.461939 0.495357 0.258298 -0.756494 -0.723743 0.142383 -0.13976 0.488119 0.321092 0.245629 1.21453 -0.802663 1.19917 -0.00752687 0.0028664 -0.0105097 -0.230701 0.20338 -0.456666 -0.544146 -0.0388461 0.951502 0.447248 1.15593 -0.780623 -0.299566 0.707985 -0.43078 1.58279 -0.579329 0.133511 0.378825 -0.110314 -0.274396 -0.676664 0.530177 0.247335 -0.942191 0.0536519 -0.399606 1.09618 -0.705214 -1.23568 0.533337 0.589974 0.689578 -1.3007 -0.31868 -0.374577 0.741649 0.661034 0.278189 -0.634751 -0.0450023 -0.216056 -0.133656 -0.0744418 0.400924 -0.701586 0.791398 -0.0239781 0.261413 -0.539113 0.341637 0.688184 0.892046 -0.0956862 -0.108966 -0.144661 0.322787 -0.0176027 -0.517246 -0.0718931 -0.425499 0.141673 -0.674616 -0.685705 -0.945786 -0.909427 0.16265 -0.663243 0.220038 0.16677 0.271723 0.486618 0.0103416 -0.756352 -0.140199 -0.703614 -0.0340458 0.663884 -0.199681 0.180623 0.306809 0.0439659 0.606213 -0.905412 0.62582 0.0445134 1.12214 -0.298096 0.68086 
0.117493 0.512271 0.41832 0.093407 0.882553 0.425607 0.631246 -0.638364 0.418562 0.524327 0.226506 0.38922 0.660279 0.320156 -0.331689 -0.415998 -0.559193 -1.41256 -0.405254 0.457431 1.04865 0.518628 0.731162 -0.511373 -0.724362 0.140447 -0.347736 -0.837978 -0.0128397 0.269925 0.541781 -1.00927 0.233008 0.548041 0.268521 0.100759 -1.10911 -1.00418 -0.668883 0.622923 -1.29451 -0.649144 0.240362 -0.459631 1.29848 0.863763 0.252921 -0.914457 -0.390699 -0.785234 0.0646532 -0.233343 0.939865 0.875867 0.844622 0.168524 0.376294 1.21453 -0.558381 -0.204674 0.825086 -0.0912277 -0.133609 0.133896 0.897497 1.00573 0.813599 -0.0692271 1.01967 -0.377041 0.465337 -0.557395 0.354741 0.314164 -0.00704583 -0.141539 0.541408 -0.392922 -0.00550544 1.21892 0.961284 0.661649 0.78644 0.590089 1.05031 -0.479055 -0.119778 0.0484149 0.137553 0.627978 0.0944828 0.90859 -0.569306 0.505966 -0.257297 -0.136315 0.355016 0.340271 -0.412709 -0.455727 -0.15991 -0.203092 -0.200846 0.297702 -0.367426 -0.917351 0.833721 -0.604051 0.0906689 -0.110082 -0.220644 -0.514974 0.567642 -1.6946 0.0393322 -0.289862 0.858921 -0.578113 0.145183 -0.451947 0.108569 0.213678 -0.00173335 0.013909 0.0938668 -0.652439 0.0067066 0.0869102 0.840084 0.303906 -0.00546951 -0.505787 1.1551 -0.550151 -0.452304 0.507181 0.0938307 0.971223 -0.204017 -0.749649 -0.207175 0.276224 0.709579 0.726648 0.271019 -0.225915 0.335032 0.180411 0.0264423 0.19545 -0.746102 1.82692 -0.405797 -0.0740085 -0.77675 0.390854 -0.0911918 1.01952 -0.124972 1.60139 -0.35887 0.282115 -0.00464218 -1.0264 0.25281 -0.228193 -0.545222 -0.719069 0.258004 0.844299 -0.428275 -0.550604 -1.06577 -0.238069 0.200627 -0.144992 0.100228 1.45778 0.0488123 -0.254786 -0.89503 -0.2106 0.132773 0.11218 0.158703 0.550863 -0.974954 0.914269 0.402104 0.318564 0.386005 1.08946 0.611361 0.6937 0.113941 0.318767 0.402523 0.388626 -0.864952 0.441177 0.581841 0.291273 -0.116474 1.93727 -0.065295 0.572965 -0.231071 -0.782692 0.24127 -0.537874 -0.0429428 0.0720087 0.00149155 0.79489 0.00248317 -0.177203 -1.08731 -0.262391 0.757101 1.5095 0.0758782 -0.28614 -0.484793 -0.437023 0.974822 0.862 -0.119995 0.012363 1.23963 -0.748448 0.216131 -0.621802 -1.53671 0.633337 -0.983555 0.265825 -0.244541 0.366131 1.11334 0.180577 -0.147909 0.166154 -0.20942 0.0542418 -1.11028 -1.39746 0.997143 0.618973 0.671468 -0.152433 0.441648 -0.159775 0.603074 0.496352 -1.36541 0.220454 
-0.436427 0.246353 0.0660747 -0.725735 -1.55561 0.705696 0.760596 0.0671316 -0.671649 0.420712 -0.929023 -0.566837 0.544274 0.798714 -0.280561 -0.202055 -0.825362 -0.220782 0.646766 0.578672 -1.00171 -0.434356 -0.554773 -1.00746 0.159384 -0.196213 -0.117065 0.624783 -0.174271 0.685897 1.68829 -1.53211 -0.154779 0.0418852 0.309544 0.736351 -0.463748 0.305138 1.0722 0.00752549 0.136822 -0.267884 0.318455 -0.455163 0.0920488 0.22908 1.40337 -1.48336 0.16226 0.323859 0.108579 0.284454 -0.851209 -0.0983637 0.655178 -0.223726 -0.293492 0.259685 0.688877 -0.652975 -0.977268 1.40728 0.122852 -0.66262 -0.73941 0.417278 0.543011 -0.414014 0.125278 0.166172 0.0138923 -0.697598 0.116607 -0.649653 0.242575 -1.94952 0.0981993 -0.0464851 0.114114 0.685621 -0.572035 0.456901 0.533265 0.104047 0.662698 -0.0747386 0.590055 -0.199386 0.88678 -0.191073 0.290042 0.266223 -0.187873 -0.353841 -1.0323 -0.325534 -0.143036 -0.681334 -0.710175 0.685376 -0.195033 1.12298 -0.256966 -0.00214783 -0.446898 0.65443 -0.387666 0.17455 0.389802 0.164623 -1.22111 0.496464 -1.09267 -0.459644 -0.87676 -0.536561 -0.728804 0.799769 0.85048 -1.01501 1.07637 -1.07211 0.608328 -0.24502 -0.26133 -0.907184 -0.338004 -1.10197 0.496773 0.0203645 0.223148 0.802468 -0.243717 0.213758 -0.663302 0.751415 0.745788 -0.588162 -0.26312 -1.01911 0.366873 -0.705078 0.156358 0.465556 0.386889 -0.373825 0.471427 -0.14869 -0.913424 0.688418 0.610855 1.01312 -0.239822 0.495881 0.550835 0.932018 0.944621 -0.131553 -0.0955511 -0.539586 -0.071669 -1.15309 -0.647067 -0.845809 -0.00826484 0.272392 -0.0666938 -0.171463 0.569427 0.275347 1.59399 0.450118 -0.783546 -0.00165444 0.892814 0.483282 -0.0331708 1.44911 -0.97253 1.03651 -2.06069 -1.06458 0.371375 0.624205 0.355028 -1.50818 -0.000860695 0.523798 1.35963 0.278111 0.988498 -0.00912335 -0.271073 0.545586 -1.32478 -0.323836 0.922184 0.0177918 0.244618 0.0836774 -0.273302 -0.904321 0.123534 0.466551 0.421396 -0.773128 -0.0593073 0.174317 -0.663429 -1.00256 -0.750811 0.436475 -0.451894 -0.676836 -0.678663 -0.206618 -0.150687 -0.200945 -0.860388 -0.0942387 -0.339373 -0.415164 -0.726202 -0.0377705 0.504722 -0.898809 -0.0206638 -0.574014 -0.197016 -0.304559 -0.354784 -0.319458 0.941255 0.0322782 -0.569467 -0.0949383 -0.837882 -0.304821 1.38626 -1.14152 0.156008 0.485294 0.543911 0.645812 0.66027 -0.358505 1.05297 0.199448 0.461669 0.248922 0.279748 -0.534195 -0.120229 0.247744 -0.725713 -1.19759 
-1.0494 0.673908 2.02027 0.171507 1.4779 0.0533292 0.115055 0.146369 0.20675 -0.0142163 0.988604 -0.845124 -0.562604 0.767095 0.441835 0.195483 0.483611 0.0365257 -0.192819 0.315866 -0.048991 0.74774 0.127904 1.15737 0.446254 -0.0847906 0.659522 -0.425575 0.606212 0.107153 -0.474944 -0.620557 -0.245036 0.808504 1.64911 -0.317937 -0.00505371 0.316412 -0.508825 0.871722 0.542426 -0.150231 0.0105958 -0.277667 0.00412696 -0.391832 0.128082 -0.481605 -0.959246 -0.4916 0.600437 -0.432598 0.232966 -0.228511 0.0518649 0.200812 -0.292506 -0.332758 -0.0198027 -0.196166 -0.888738 -0.732928 0.277894 0.0174871 0.114073 -0.327015 -0.530661 0.436524 -1.36947 1.05248 0.502156 0.32655 -0.315183 -0.608241 0.731191 0.753918 -1.01807 0.720403 -0.199794 -0.12373 -0.0672192 -0.127872 0.980778 -0.0253033 -1.6646 1.07797 0.698441 0.679389 0.442748 0.12556 -0.183767 0.722066 -0.780503 0.0145722 -0.918293 -0.763406 -0.663597 -0.501472 0.610003 -0.655574 -0.477823 -0.485025 -0.0178676 0.193983 -1.31171 1.16839 -0.112481 0.312158 -0.171294 -0.722945 -0.161394 0.00286655 0.919482 -0.435915 0.290803 -0.0822718 0.362893 0.26098 0.127859 -0.934856 0.448727 0.955152 -1.0333 0.0886983 0.0886668 0.339375 -0.90445 -0.705618 -0.139079 0.12469 -0.0443554 0.472866 -0.433842 -0.0031548 -1.0031 1.20373 0.517156 -1.34547 -0.471519 0.218306 0.605082 0.43023 -0.768341 -0.938449 0.398031 1.72199 0.246085 -0.462114 0.162181 0.530833 0.0316868 0.269306 -0.292714 -0.0174519 -0.759184 0.767368 0.337202 -1.10115 -0.80696 -0.23513 0.0205029 -0.34826 0.597837 0.360026 0.255425 -0.500587 0.278854 -0.768741 0.203726 1.09901 0.616483 -0.163878 0.700195 -0.516897 0.482644 0.70872 -0.113243 0.29238 0.707571 0.0318462 -0.749348 -0.571682 -0.0581947 0.0178689 0.542047 -1.00018 -1.23497 -0.259411 -0.603451 0.344059 0.00686042 -0.393633 -0.765367 -0.639834 -0.409076 0.547987 -0.464413 0.0601821 1.31641 -0.720591 -0.841529 -0.53025 0.951367 0.356604 0.100221 0.0505681 0.213007 0.655675 0.966759 0.522106 1.1343 -0.712212 -0.145544 -0.321671 0.53181 1.01514 -0.216476 -0.236849 -0.779973 -0.00793729 -0.501822 0.377734 0.327846 0.584826 -0.125469 1.2846 0.841417 -0.879911 -0.276513 0.169913 -0.303272 -0.707098 1.75295 -0.226103 0.0983333 -1.78992 -0.866239 -0.23251 0.443127 -0.393038 0.767713 -0.350085 0.528494 0.12775 -0.0903364 0.251634 -0.126622 -0.219984 1.51808 0.733471 1.38759 -0.822987 -0.360581 -1.64634 -0.162319 -0.550065 
-1.08334 0.113475 0.127649 0.0651772 -0.668344 0.188198 -0.235282 -0.277312 -0.435819 -0.967478 0.903993 0.106272 -0.934729 0.373771 -0.479124 -0.166656 -0.454025 -1.24073 0.549327 0.149043 0.62187 0.0850934 -0.127566 -0.623305 1.72561 -0.030229 -0.327632 0.543387 1.36695 0.355949 0.340398 -0.789282 0.844133 -0.534577 -0.371204 -0.940256 -0.186023 0.464959 -0.120468 -0.847988 0.893994 0.393335 -0.461839 1.04061 -1.09488 0.656093 1.04974 -0.721986 0.449078 -1.04987 -0.582741 -0.721674 0.749905 -0.533415 1.36624 0.35156 0.518677 0.238326 0.00134495 -1.04553 -0.104045 -0.342458 -0.0956802 -0.692467 -0.276121 -0.283569 0.506895 -0.96153 -0.159462 -0.247546 0.202 -0.24488 -0.173555 0.310045 1.08044 -0.15613 -0.261212 -1.49043 -0.855485 -0.178218 -0.317739 -0.735728 0.696048 0.641095 0.15147 -0.39621 0.569109 -0.593294 -0.863659 0.29339 1.12101 -0.378393 -0.406258 -0.0915838 -0.634321 -0.440642 -0.324572 0.360183 -0.165852 -0.873616 -1.10264 0.225642 -0.512452 -0.88805 -0.240416 -1.81989 1.03806 0.558619 1.21212 0.802773 -0.80007 0.774882 -0.925056 0.180967 -0.193282 -0.0338812 -0.364781 -0.803246 0.461679 -0.294004 0.125528 -0.0321013 -0.232606 1.26764 0.158008 -0.678219 0.276736 -1.32248 0.116306 -0.638487 -0.127451 0.176734 -0.289527 -0.651276 0.32298 -0.84285 0.138068 0.134258 0.0971704 -0.440366 -0.846062 0.40428 0.761512 0.271383 0.346735 -0.720262 -0.374255 0.434795 0.292626 -0.0712049 0.621871 0.921231 1.19058 -0.0420946 0.365001 0.0414407 -0.189305 -0.123026 -0.1817 -1.315 -0.414761 -1.53282 -0.634148 -0.37598 0.251024 -0.188258 0.422637 -0.520394 0.0556333 0.390148 -0.221809 0.293101 -0.0104374 -1.59384 -0.0252003 -0.376688 0.231769 0.883812 -1.00851 -0.149119 0.0807779 -0.36374 -1.00018 0.208089 0.356682 -1.20082 -0.382805 0.394742 -0.180303 -0.363027 -0.152623 0.679434 0.426708 0.849964 0.301934 0.164126 -0.164729 -0.0578721 0.539885 -0.00653988 0.131276 -0.372869 -0.192428 0.528747 -0.533979 -0.767816 2.23368 0.253895 1.45532 -0.801538 0.290602 -0.369672 0.0617582 0.491828 -0.434192 0.916445 0.398495 -0.342378 -1.09482 -1.25295 1.24154 0.430799 -0.0810285 0.499496 -1.14477 0.765827 -0.416885 0.623263 -0.672991 0.72039 1.03633 -0.61384 -0.499956 0.192523 0.728425 -0.541795 1.36502 -1.2555 0.539899 -0.0076374 -0.880875 0.984193 -0.785876 1.28091 -0.0496244 0.36877 0.337925 -1.41588 1.40627 0.695231 0.297181 0.225974 -0.39009 0.673866 -0.680347 -0.052103 
0.111581 0.318975 0.926699 0.43324 -0.738581 0.278367 -0.32887 -0.0262125 0.848864 0.512091 -0.0806288 -0.333921 -0.133551 -0.132249 0.76525 -1.1254 0.271413 0.191424 0.0132614 -0.722698 -0.346831 -0.250825 0.353557 0.647977 -0.0171178 -0.397826 -0.200342 0.63348 -0.614558 -1.14553 -1.51722 -0.745006 1.09063 0.838737 -0.1688 0.393982 -0.651855 -0.594568 -0.743528 0.735975 0.192494 -0.497725 -0.304704 -0.278517 0.342311 -0.0722564 0.352329 -0.6051 -0.776599 0.114608 0.217451 0.279934 -0.0596367 -0.311017 0.725299 0.0478139 0.27612 1.17651 -0.250111 1.18881 0.330137 -0.557761 0.197706 -1.02352 1.22269 0.73208 1.09436 -0.109048 -0.286535 -0.816357 0.0358785 0.922705 0.433056 -0.249405 -1.5706 0.847129 -0.218682 -0.72402 1.16907 0.0390318 0.127969 -0.559063 1.27329 -0.714749 -0.540838 0.144529 -0.102215 -0.287935 -0.344588 -0.401792 -0.815493 -0.553193 -0.0228961 -0.253381 -0.441957 -0.614601 -0.665855 -0.739868 -0.436801 0.738021 0.0693807 1.06706 -1.05515 1.06216 0.470187 -0.555449 -0.0147763 -0.745895 -0.157747 -0.239358 -0.942362 0.801996 0.283691 0.0693132 -0.409579 0.360665 -0.972396 0.460019 -0.629401 -0.0687388 -0.35643 0.754088 0.202594 -0.79789 0.792644 -0.601392 0.321822 -0.385511 -0.321989 -0.126105 -0.382528 -0.327981 -0.237602 -0.511584 -0.701569 0.0273084 -0.846246 0.722261 -0.0493526 -0.554361 1.27068 -0.752724 1.12141 0.0595873 0.662684 -0.394401 -0.237543 -0.104889 1.1473 0.235728 -0.596786 -1.18325 -0.282921 -0.376635 0.604849 0.148389 0.16744 -0.00551093 0.454417 0.0873509 0.233888 -0.953617 0.0256746 -1.22388 1.0717 -1.2194 0.354181 -0.273824 -1.0834 0.161541 -0.226848 -0.983828 0.399493 -0.217138 0.0703083 0.0708707 0.548839 -0.891461 0.174897 -0.195504 -0.848244 0.356028 0.297249 0.0308477 -0.0237421 0.516232 -0.253726 0.248558 -0.0875711 0.0468533 -0.685492 0.308388 0.703531 0.356403 0.774769 -1.01466 0.183889 0.523232 0.536612 -0.104419 0.430417 0.310956 -0.467946 0.469768 -0.761213 -0.00483148 0.838267 -0.109339 -0.377175 0.63734 0.52121 -0.878839 0.247433 0.225439 -0.503757 0.456996 -0.242513 -0.0577211 0.0531574 -0.484898 -0.221338 -1.04736 0.951 -0.449272 0.202723 0.0804488 -0.617886 0.076084 -0.622629 -0.400448 -0.645879 0.856971 0.233196 0.538594 1.02654 -1.30081 -0.284401 0.484142 -0.266223 0.602404 0.833511 -1.27653 0.28312 0.554424 0.0540393 0.0800715 -1.45113 -0.227768 -0.0291823 -0.193307 -0.00691017 -1.22031 0.545524 0.115713 0.404358 0.0460279 
-0.261133 -0.0393576 0.368464 0.341876 0.963902 0.556234 -0.0760058 1.33693 -1.17007 -0.410138 0.165604 0.567871 -0.174192 0.624144 0.122347 0.0985968 -1.18084 -0.753124 1.01085 -0.0201623 0.248082 0.0407108 0.311286 0.227592 0.521453 -0.0557109 1.65323 0.42258 -0.825081 -0.459518 0.738996 0.220537 0.254156 -0.199329 -0.606113 -0.397809 -0.713778 -0.680189 0.387434 -0.259327 -0.0913275 1.02726 0.036982 -0.157293 -0.486303 0.980585 0.162799 -0.819992 1.19858 -0.614178 0.613577 -0.930989 -0.330981 0.236457 0.202565 0.295469 -0.120289 -0.361713 1.31643 -0.0971349 -0.32063 0.454101 -0.47434 -0.319861 0.165755 0.236319 -0.257304 0.201814 -0.255396 0.00172303 -0.932342 -0.209085 -0.968121 0.263836 -0.359387 -0.123983 -0.125567 0.206638 -0.389397 -1.94348 0.0689331 -0.116445 -0.765159 0.554673 -0.608253 0.502235 0.870222 0.141156 0.369316 -0.788775 -0.0609163 0.139847 -0.53403 0.701329 -0.356741 0.2243 -0.0595372 1.00815 0.946419 -0.434211 -0.389539 -0.568424 0.0215916 0.148501 -0.179766 -0.39909 0.393997 -0.252843 0.132216 -0.368767 -0.418938 -1.13469 -0.574982 -0.635023 -1.67169 -0.66492 -0.124289 -0.356813 0.407394 0.506876 0.53184 -0.0604504 1.10204 0.450921 -0.158684 0.399586 0.190536 -1.40743 0.136388 -0.268177 1.32614 0.591071 0.363892 0.39514 0.570099 -0.00575276 0.872353 -0.187824 -0.234637 0.452992 1.68437 -0.0888832 -0.394465 -0.441552 0.191429 -0.0889215 0.80179 1.10154 -0.127424 -0.102187 -0.173613 0.581296 0.952939 -1.31408 0.221178 -0.957916 -1.42901 -0.310953 -0.037334 -0.848875 0.0567209 -0.805033 -1.43324 -0.741495 -0.185575 0.01616 -0.852731 0.274576 0.0915398 0.496319 -0.947677 0.0251471 0.275335 0.87233 -0.515635 0.356698 0.551449 -0.319651 0.539587 -0.349595 0.176621 0.910805 -0.848939 1.19651 0.612991 -0.433679 -0.2205 -0.425354 -0.147835 -0.0808777 0.112641 1.28953 -0.443576 1.03292 -0.672871 -0.495128 -0.0906074 -0.796724 0.231555 0.88396 -0.119982 -1.08465 0.0316005 0.379522 -0.0504696 -1.06814 -0.57694 0.188083 -0.699396 -0.97146 0.865428 0.411973 0.281176 1.33662 0.769454 -0.536792 -0.606019 -0.119573 0.531462 0.444449 -0.119779 -0.473326 0.0473953 0.154368 -1.48963 0.696493 -0.574588 -0.42354 0.317837 2.0632 0.729471 0.0974697 -0.0550607 0.870264 -1.48086 -0.558416 0.681076 -0.334713 1.23895 0.377459 0.257038 0.361659 -0.435892 0.405038 0.553457 -0.368348 0.851867 -1.33948 0.428406 -0.737569 -0.392928 -0.327644 -0.153101 0.0500919 0.0174239 0.367247 
-0.804615 0.101705 0.307176 0.288158 0.364181 -0.56653 0.208098 -0.0136504 0.364909 -0.903516 -0.408787 1.40682 0.248109 -0.452662 -0.0800966 -0.377614 -0.048293 0.552196 -0.131466 -1.12336 0.10199 0.911882 0.256656 0.592386 0.0870431 1.78459 -0.829222 -0.731655 -1.06192 0.0928904 0.0274629 0.848079 0.358289 -0.188364 1.07011 1.20199 0.21937 0.507437 -0.0990771 0.52317 0.254192 0.842043 0.590495 0.947582 0.106374 -0.037541 -0.138641 -0.335322 0.269829 -0.267429 -0.724657 0.0307831 -0.655863 -0.523492 0.5825 0.838791 0.506698 -0.249944 -0.364959 -1.02082 0.124193 0.389068 0.170468 0.593934 -0.186484 -0.843884 -0.117285 -0.294037 -0.337786 -0.605991 -0.411284 0.42159 -0.666589 0.0524077 -0.407397 1.12121 1.1198 0.366911 -1.00509 1.21779 0.34625 0.0774909 0.712774 -0.153539 -1.08113 -0.57085 0.417218 -0.7732 -0.0311258 0.296416 -0.138415 -0.633496 -0.741316 -1.25155 -0.211258 -0.781677 -0.299876 -0.104364 0.808529 -1.86068 -0.791818 -1.36888 -0.911962 0.216181 0.194147 0.698599 -0.0384743 0.755416 0.0317516 -0.393793 -0.271224 0.666617 -0.247441 -0.295357 0.769818 -0.0816909 1.42054 0.740428 0.26989 -0.432843 -0.604353 -0.374719 -0.131265 1.17601 -0.602841 0.0907933 -0.0372614 -0.603484 -0.973231 -0.223494 0.304654 -1.07967 0.500905 0.668461 -1.55689 0.355773 0.65919 0.195453 0.399641 1.48887 0.563203 1.04139 -0.332199 1.25997 0.622155 -0.30853 -0.110891 -0.0719367 -0.100118 -0.675176 -1.42798 0.53013 -0.231372 0.343768 -0.631665 0.841994 -0.555208 1.11233 -0.890575 -0.368306 0.756335 0.0493537 1.40869 0.763862 -0.533143 -0.567177 1.19554 0.292607 -0.631432 0.27818 0.196858 1.05053 -0.188222 0.542387 0.63309 -0.718511 0.482219 0.655705 -0.0361077 0.427116 -0.194615 -0.11279 0.0673426 -0.173658 -1.18544 -0.951402 0.284717 0.503139 0.681349 0.404745 1.05754 -0.764071 -0.433891 0.525052 0.0948975 0.0282668 -0.9107 -0.131533 -0.652951 -0.76721 -0.343527 1.1094 -0.390728 0.380465 0.526611 -0.322107 -0.0452783 -0.265821 0.257895 -0.0676177 -0.494642 -0.142069 -1.12694 -0.444749 -0.854341 0.781748 -1.05148 -0.880556 -0.669805 -0.357274 -0.92002 0.349841 1.15725 -0.137136 0.397547 0.97812 -0.23977 0.794249 0.0974694 -0.405096 0.598694 -0.546999 -0.402252 0.195498 0.189731 1.39146 -0.211624 0.821659 0.501706 -0.504459 -0.682885 -0.12404 -0.28125 -0.509124 0.0391748 0.61471 0.0856012 0.784659 -0.0477337 0.837294 0.366447 -0.220412 0.0225535 0.468633 0.152419 -0.468421 
0.317995 0.650242 -0.33157 -0.690262 1.38681 0.0069703 -0.78554 0.133673 -1.29003 0.247542 -0.337718 0.0533861 0.199306 -0.738541 0.0726026 0.253674 0.0548875 0.710323 0.565848 1.64289 -0.0376792 0.639044 -0.379018 0.165768 -1.13428 -0.00496346 0.834076 -0.0613046 0.574474 -0.0298673 -0.0283831 -0.283496 1.15317 0.465422 0.289102 0.237687 -0.268685 -0.187074 0.917903 0.362274 0.769912 0.401685 0.671638 0.513205 -0.0504257 -0.457552 0.806904 0.159341 0.3351 0.769114 -1.43617 -0.091099 0.200358 -0.511013 0.531185 0.234699 0.335451 -0.181449 0.145697 -1.05454 -1.23414 -0.0997609 0.131295 0.144066 0.36648 -0.0236181 -0.0182866 -0.264274 0.216212 -0.991139 -0.969942 0.913137 0.584261 -0.0899098 0.137858 -0.145616 0.366154 -0.741908 -0.406941 0.34499 -0.43456 0.356777 -0.804657 -0.682553 -0.518473 0.147684 -0.0541279 0.136851 -0.395006 -0.177631 -1.88808 0.326534 -0.00945694 0.807797 0.0794229 0.421181 0.160339 0.725979 -1.14288 -0.611761 0.780983 1.0627 0.810768 -0.348289 -0.192178 -0.238707 0.315499 0.705099 -0.99675 -0.567857 0.91123 0.124628 -0.471249 0.256953 0.300338 0.614261 0.968146 -0.289061 -0.728965 0.00465715 0.428851 -1.06731 -0.761517 -1.63498 -0.212055 -0.269362 0.0761917 0.205417 -0.784056 0.070386 -0.513589 -0.27983 -0.120403 0.0118129 0.667845 0.043833 0.605314 -0.0262031 -0.052326 1.03922 0.470888 0.581916 0.0550888 0.417948 -0.623608 1.99472 0.270908 0.330602 0.200752 0.496446 -0.78709 -0.22117 -1.56459 0.273358 -0.172251 0.405244 0.0512432 0.0396818 -0.357907 0.0420506 0.243667 -0.396246 -0.425096 0.439034 -0.0683269 0.430455 0.420536 0.420408 -0.309462 -0.30397 0.273753 0.604302 0.216206 0.0452552 0.420868 0.546096 -0.419878 -0.0167595 -0.350253 0.177225 0.532035 0.901349 -0.203701 0.177259 0.53096 0.124775 -0.448852 -0.17796 0.0205345 0.863946 -0.12657 -0.244225 -0.821508 -0.288289 -0.199461 0.000746839 -0.0871892 -0.125356 -0.606216 -0.61838 -0.534594 0.350109 0.74928 0.264311 1.85875 0.603141 0.284809 -0.0964977 -0.834981 0.186374 -0.156118 0.407627 0.205489 0.11357 -0.139928 -0.248545 0.757339 -0.161716 0.276916 0.523779 -1.2209 -1.13606 -0.520978 -0.461363 -0.919701 0.550907 0.853497 0.305997 -0.362317 0.127284 0.637537 -0.845988 0.375765 0.334454 -0.714172 -0.595264 0.170233 0.869187 -0.201266 -0.0646958 0.650513 -0.510024 0.924623 -1.09295 -0.496763 0.0337174 -1.03876 0.560374 0.0479897 1.01513 -1.13046 -0.517378 0.162801 0.687565 -0.370102 0.134263 
-0.0663732 -0.778429 0.83638 -0.64861 0.165811 -0.819953 -0.301819 0.860298 0.482088 -0.00616039 1.36166 -0.909651 0.275087 1.80937 0.115271 0.131289 1.00237 0.493732 0.345202 0.700491 -0.0646636 0.0346712 -0.706869 0.147896 -0.69389 0.201385 -0.923949 -0.437438 0.678376 0.988436 -0.892604 -0.0759891 0.318841 -0.00990814 -0.814444 -0.158884 0.23974 0.458437 0.301981 -0.648906 -0.405195 0.343205 0.565171 0.662477 0.0287242 -1.37866 -0.203983 1.19746 -0.961402 -0.816732 0.0592241 0.166029 -0.0817908 0.0251297 -0.233589 -0.0239274 0.27157 1.55419 -0.283877 -0.276542 0.57097 0.493513 -0.583615 0.0329886 -0.966558 0.00289267 -0.754312 -0.626072 0.723033 -0.51584 0.720763 -0.353153 0.0577744 0.274936 -0.466281 -0.0376874 -0.533171 1.11393 -0.142071 -0.544906 -0.790703 -0.542257 0.668755 0.629179 1.04094 0.381945 0.174955 -0.885077 0.521405 0.86436 0.890355 -0.261419 -0.834794 -0.354256 -0.470815 -0.310544 0.774262 0.0462197 -0.288186 0.443787 0.430388 0.464739 0.385049 -0.686589 0.557623 0.878186 -0.0743664 -0.45871 -1.02879 0.397226 -0.00968489 -0.50216 -0.731841 0.226357 -0.887712 0.881042 0.0409831 -0.670284 -1.0806 0.46529 -0.804906 0.675989 0.400192 -0.377756 0.722779 0.188796 0.429559 -0.0380535 0.0255509 0.220796 0.318543 0.256007 0.232227 -0.728786 0.830782 0.14915 0.0942112 0.139089 -1.17245 -1.12868 -0.757067 -0.188993 -0.143219 0.0446502 0.858735 0.776993 -0.282346 0.473981 -0.434682 -0.257063 0.231981 0.913788 -0.22945 -0.360285 0.264937 -0.869384 -1.14062 0.295789 0.499232 -1.08615 -1.65057 -0.659177 -1.35386 0.774251 0.0655662 0.359876 0.340709 0.730217 -0.525598 0.848588 0.703787 -0.0836357 -1.18757 0.210018 0.0221331 0.0534279 -1.00111 0.102417 0.542677 -0.147806 0.0325 0.902665 0.0379236 0.37507 1.32356 -0.560919 -0.0496383 -1.06538 -0.45868 1.06102 -0.366678 -1.55896 0.153785 0.207923 0.0144225 0.00239693 0.266116 -0.268331 -0.484319 -0.022133 -0.0899042 -0.170788 -1.4251 -0.350955 0.350233 0.309907 -0.913779 -0.521382 0.560352 -0.704518 -0.523717 0.0776888 1.29427 -0.91761 -0.415005 0.757599 -0.682485 0.771765 0.200555 -0.44967 0.456424 -0.229277 0.102618 -0.76402 0.165931 -0.16442 -0.387415 -1.09554 0.296026 0.293239 -1.26055 1.36873 -1.04847 0.0908457 0.50375 -0.371392 -1.18341 -0.923985 0.456707 -0.561089 -0.500146 1.14036 -0.693167 0.185885 -0.0936968 -0.0248989 -0.402779 0.370747 -0.697356 -0.378192 -0.023364 0.768286 -0.119265 0.521185 0.400337 -0.487205 
-0.238711 0.14848 0.753458 0.63984 0.205488 -0.73941 -0.720701 -0.440118 -1.11117 0.482387 -0.718531 0.140739 0.177404 0.749243 -0.0363939 0.216403 -0.580314 0.225172 0.354965 0.683025 -0.106641 0.353171 0.0668773 0.285372 0.986224 -0.440832 -0.0128698 0.117291 -1.1973 -0.303263 1.08577 0.262674 2.09514 -0.337596 1.31259 0.642904 -0.340133 0.347888 0.00875042 -1.21057 0.161777 0.30443 0.77951 -0.475065 0.577038 -0.186194 -1.43745 1.3851 1.3286 -0.0482252 -0.186255 -0.477987 -0.185929 -0.0763656 0.623312 0.177552 0.219189 1.10323 -0.123402 0.946395 0.894176 0.0721835 0.759693 0.0817731 -0.784928 0.387655 -0.236738 0.0284412 0.196331 0.236246 0.37041 0.813314 1.54955 0.377525 0.074491 -0.0286841 0.838216 -0.418225 0.402032 0.0889911 -0.200566 -0.583553 0.871529 -0.200821 0.246255 -0.624295 -0.439181 0.00485809 -0.0263322 0.799676 -0.342886 0.0269795 -0.965013 -0.683404 -1.15184 -0.820105 -0.717631 1.36338 0.7064 -0.352936 -0.023815 0.981552 1.07722 0.12468 -0.080388 -0.675785 0.760278 0.552819 -0.644828 0.595238 -0.0617565 -0.0750099 1.21228 1.1006 0.828583 -0.382779 -0.790755 -0.254513 0.845109 0.843753 0.869122 0.117079 0.807371 0.584653 -0.739254 -0.98695 1.42868 -0.0593497 -0.843028 -0.0283599 -0.157262 0.199202 0.0209441 -0.136363 -0.757674 -0.731794 0.104554 -0.68234 -0.354896 -0.435799 1.25483 -0.31423 -0.763056 -0.831294 0.696796 -0.058378 0.680363 0.260168 0.46674 -0.656146 1.46006 0.128117 1.14471 -0.314267 0.0648392 -0.686545 -0.850467 0.386976 0.671888 0.286001 -0.175137 -0.607641 -0.386158 0.672928 -0.95369 -0.403733 0.350326 -1.94855 -0.0271081 -0.395159 -0.684657 -0.339569 -0.622583 0.372261 -0.365867 -0.246285 -0.832285 -0.451525 0.165776 -0.350438 -0.797161 -0.276547 0.261224 -0.358592 0.476938 -0.0617015 -1.11741 0.155757 -1.00675 -0.19017 -0.189588 -0.646518 -0.954137 0.264183 0.0109523 -0.0957461 0.823853 0.677693 -0.370214 0.611396 0.557106 -0.403135 0.985869 -0.0333757 -0.351338 -0.285713 0.0660687 -0.533112 -0.236693 0.874279 0.567336 -1.43911 0.605406 -0.803606 0.468408 -0.535902 -0.399545 0.578834 0.0260236 1.10448 -0.145485 0.0836838 0.697226 -0.425314 0.0986116 0.226611 0.939815 0.850647 -0.618471 -0.0145761 0.639556 0.253555 -0.691701 -1.05108 -0.0990391 -0.335986 0.796402 0.26635 0.118242 0.127474 -0.242087 -0.030795 -0.0673193 -0.60115 -0.0753793 -0.840838 0.608997 -0.383634 0.911848 0.786294 -0.264171 -1.88156 0.490595 -0.0513544 0.763352 0.674807 
-0.501129 -0.287278 0.535614 0.819757 0.539042 0.969791 0.702301 -0.762687 0.0309416 -0.0729765 -0.522801 -0.0690437 0.0123705 0.220711 0.570381 -0.101903 0.781848 -0.0828812 -0.67514 -0.0210327 0.468122 0.308094 -0.874533 0.566797 0.371054 -0.222107 0.414546 -0.699207 -0.291735 0.210141 0.66693 -0.0512546 -0.102477 0.840383 0.13883 0.923964 -0.142128 -0.104501 0.269454 0.676981 0.0635769 0.0517443 -0.117703 0.620904 1.22618 -0.457026 -0.133681 0.202512 0.156051 -1.2224 1.01167 -0.624256 0.424785 -0.0840176 0.18405 0.0730951 0.382277 -1.20254 0.0907902 0.240516 0.726045 -1.1871 0.641544 0.363738 -1.03818 -0.277784 0.334129 -1.22954 -0.250848 0.0643787 0.42519 -0.260375 0.288597 -0.274531 -0.241684 0.107015 0.0568601 -0.0130251 -0.337952 0.44038 -0.72367 0.0753697 -1.28184 -1.10985 0.572396 1.19368 0.955216 -0.867944 -0.150741 1.01256 -1.25802 0.832452 -0.516705 0.410948 0.56901 0.543937 0.283384 0.00646875 -0.408734 0.226463 -0.305184 -0.343626 0.834885 -0.18274 0.0589598 -0.469662 0.89629 0.0259309 1.42012 0.375158 -0.308226 0.0389546 0.253917 -0.193198 -0.100614 -0.388711 0.726715 -1.22647 -1.03936 -1.06974 0.334234 1.19665 -0.276779 0.270492 -0.491421 0.662718 0.0383558 0.635362 0.416837 0.228374 0.680157 -0.228308 0.787208 0.507669 0.00545368 0.271537 -0.85106 -0.0637173 1.45698 -0.335246 0.743336 -0.431016 0.176188 -0.0328939 -0.384916 -0.581321 0.527961 -0.543544 0.195934 0.0118217 -0.288498 0.199953 -0.251202 0.537986 -0.507895 0.0954742 0.643648 0.595025 0.171773 1.30895 0.0436741 -0.350796 -0.161146 0.200765 0.0604313 -0.0787069 -0.765 -0.552917 -1.41371 -0.0491296 0.316809 0.244603 -0.494313 -0.0650088 0.327949 0.557491 -0.813384 -0.108668 -0.224523 0.179512 -0.592288 0.279938 0.630073 -0.536197 0.258825 0.225038 -0.350143 0.918954 -0.324629 -0.23468 0.459479 -0.530769 -1.28397 0.897589 -0.614491 -0.868977 -0.308403 -0.412053 -0.252258 -1.12666 0.494682 -0.223316 0.652535 0.0697601 -0.696347 1.83525 -1.14696 0.207312 -1.30374 0.433139 -0.170903 0.348811 0.248097 0.0776939 0.619807 -0.180731 -0.256246 -0.45952 0.725559 -2.17247 0.0461283 0.0542184 0.390207 1.58792 -0.438247 0.291617 0.497756 -0.545628 0.25955 0.785904 0.117151 0.45939 0.411145 -0.361538 -0.330749 -0.61383 0.527329 -0.0341534 0.454174 -0.558715 -0.698778 0.328348 -0.81259 -0.167298 -0.883011 -0.00794848 -0.333478 -0.353252 0.564693 -0.0741626 0.595863 -0.98311 -0.284119 -0.394049 0.0485659 -0.96424 
-1.03882 -0.520205 0.122923 1.02918 0.714545 -0.377537 -0.345455 0.500746 0.871722 -1.33357 -0.37654 -0.397921 -0.984055 -0.366481 1.45166 -0.295491 0.512882 0.103518 -0.345357 0.222434 0.0298641 -0.563166 0.00794942 -0.638056 0.234373 0.259242 -0.558572 0.489395 -0.745065 1.08654 0.102031 0.425508 -0.139437 0.371042 -0.0933561 0.350245 0.403087 -0.332466 -1.56796 -0.00503691 -0.593744 1.03331 0.19945 -0.128648 -0.104552 0.952744 0.283875 0.203685 0.61228 0.877992 0.347855 0.292395 -1.61674 -0.283403 -0.38267 0.330306 0.379044 -0.602149 -0.174996 -0.127513 -0.306445 -0.0486259 0.105536 0.928687 0.966973 0.696985 0.201374 -0.477437 0.700628 -0.53693 0.0559887 0.218275 -0.144076 -0.391939 1.17854 -0.18928 -0.646887 -0.740565 0.959435 0.0561408 0.0582334 0.0721 0.627435 -0.412134 -0.269676 -0.566721 -0.335522 -0.876424 0.518554 0.44454 1.00016 0.256511 1.06388 -0.786325 -0.221611 0.355085 -0.293857 0.0591057 0.0868597 0.342977 0.445515 -0.305914 -0.0180065 0.166305 0.179247 -0.500104 0.808565 0.210037 0.0566132 0.330634 -0.322426 -0.499503 0.641735 0.206449 -0.0552143 -0.206601 0.127499 0.169266 0.325778 -0.569649 0.428226 -0.590001 0.212693 0.87106 0.116774 -0.0371376 -0.0550555 -0.0185059 0.222045 -0.198032 -0.0578899 -0.148103 -0.196735 -0.190648 0.633311 -0.744116 0.509379 -0.806676 1.04694 0.0979921 1.07792 -0.563015 0.672853 -0.576242 0.695066 -0.0694565 1.11516 -0.420378 -0.604843 -0.27268 -0.381708 -0.353657 0.527568 0.255369 0.606945 0.216533 0.482659 -1.44608 0.0516661 0.433583 0.279517 1.13412 0.824613 0.106859 -0.889175 -0.552421 -0.804101 -0.417091 1.56996 0.239498 -0.111455 0.236955 -0.909517 0.276175 -0.038728 0.730207 -0.3839 0.660165 -0.365828 0.592891 -0.074687 0.145022 0.579047 -0.560612 -0.0152594 0.69191 0.296807 0.335914 0.771012 -1.0755 -0.450506 -0.354753 0.0776986 0.661804 -0.6852 0.409643 0.38434 0.306684 -0.14603 0.149401 0.062001 0.448181 -0.273982 -0.400695 -0.71748 -0.0176505 -0.0315741 -0.50511 -1.00212 1.496 0.0969854 0.458429 0.781943 -0.197875 -1.00868 -0.750374 0.656105 -0.629427 -0.0144861 -0.073409 1.02139 -0.256308 1.14592 -0.206401 -0.740877 -0.553584 0.299023 0.258374 0.289381 -0.372715 -0.253907 -0.697662 0.2249 -0.032073 -0.974756 -0.455131 -0.932985 -0.791513 -0.475319 0.401638 0.173416 0.551172 0.554724 0.704899 0.523285 0.403443 1.02912 -0.0569915 -0.0838864 -0.168024 -0.841298 -0.46172 -0.341936 0.307152 -0.862442 -0.239194 
0.50483 0.742952 -0.236771 0.203972 0.253498 0.140251 0.320667 0.332406 0.822671 -0.0896217 -0.127952 -0.391032 0.182278 1.04449 -0.491145 -0.027135 -0.330033 -1.54204 -0.795354 -0.696462 -1.7916 -0.381355 0.795841 -0.505495 -0.255745 -1.08852 0.722606 0.172952 0.262827 0.49497 0.711041 0.406424 0.39642 0.143698 -0.852334 -0.140487 0.0853541 -1.65114 0.0214632 0.298167 0.36984 0.85164 0.138821 0.117226 -0.110215 1.18772 0.264344 -0.445374 0.40004 -0.297228 1.02984 0.455988 -0.329717 -0.33916 -0.0662825 -0.92149 -1.86726 0.668064 0.0858866 0.404883 0.701835 -1.76413 0.414399 -0.043491 -0.587426 0.440486 0.108233 0.249901 -0.0680405 0.467218 -0.959263 -0.0347848 -0.425874 0.69174 -0.35343 -0.498294 0.213641 0.602981 -0.720677 -0.796975 -1.02086 -0.680309 -0.401304 0.0390596 -0.819462 -1.42199 0.279063 -0.361307 -0.622457 -0.287311 0.648773 -0.433423 1.13381 0.213024 0.251183 0.492265 -0.519941 0.682025 -0.135285 0.00240736 -0.733449 0.22344 -0.563553 -0.682601 0.270421 0.343341 0.773723 -0.73146 0.174943 0.17388 0.224279 -1.00225 -0.785722 -0.675482 -0.779977 0.305844 0.0899851 0.117063 0.414257 -1.05852 -0.467693 0.358816 -0.479966 -0.315754 -0.164779 -0.577157 -0.138471 -1.0641 -0.614047 0.240841 -0.81354 0.00682474 1.21891 0.650852 -0.886836 0.0881824 -0.655683 1.07632 0.305658 -0.368438 0.246243 0.27482 0.764438 0.0722838 0.863857 -0.860282 0.749336 -0.0741203 -0.486631 0.470051 -0.119683 -0.679927 -0.00788553 0.147769 -0.887339 -0.838753 0.0624293 0.00607759 0.830559 0.283811 0.187897 -0.356365 0.0415426 -0.0354167 -0.144887 0.297689 -0.284935 0.322857 -0.496542 -0.0953498 -0.10373 -0.176114 -0.612462 0.726787 -0.130244 -0.284484 -0.891615 -0.551076 -0.984853 -0.111565 0.366583 0.499511 -0.367752 0.651513 0.38666 -0.0114394 1.22581 -0.79757 -0.514881 1.14822 1.05732 0.336987 -0.350541 0.63196 0.0739414 -0.928262 0.132794 0.296834 -0.870357 0.582041 -0.179134 1.26134 0.899801 0.263038 0.141609 1.32527 0.304339 1.51836 2.2728 0.0884425 -0.191202 -0.113589 0.353873 -0.767938 0.364493 -0.072216 -0.200541 -0.0861022 0.0679709 -0.408824 0.478748 -0.154444 -0.396544 -0.489133 -0.723808 -0.148912 -0.0250797 0.738486 0.0712141 0.0832673 0.509609 -0.664552 -0.460265 -0.488296 0.950789 -0.443518 0.417266 1.26172 -0.55161 0.711823 -0.215967 0.898629 0.294518 0.682109 -0.0781848 0.551833 -1.5088 -0.213785 -0.0267513 -1.17755 0.567355 0.727809 -1.29574 -0.743978 0.287991 -0.600599 
-0.136511 -0.00086873 1.03621 -0.881947 -0.131286 -0.856072 -0.35424 -0.195818 -0.735194 0.743583 -0.385008 0.0653178 0.301221 0.107349 1.11834 -0.506066 -0.226598 -0.263748 0.0820585 -0.463887 0.184061 0.218745 -0.491521 -0.142671 -1.22577 -0.876258 -0.304363 1.01076 0.831713 0.381161 -0.111182 0.0640936 0.87724 0.66044 -1.02773 -0.389085 1.07117 -0.516723 -0.703011 -0.872161 1.37266 0.400379 -0.24486 0.0410951 -0.51468 0.478067 0.215306 -0.131072 -1.57144 0.0224286 -0.527849 -0.00165166 0.130157 0.169983 0.315593 0.09504 0.0662234 0.888568 -0.288164 1.12492 -0.188902 0.794951 0.551939 0.813653 1.3198 0.993184 0.0298214 1.66486 -0.329446 -0.371513 -0.133773 0.948307 -0.000380049 -0.253453 0.650071 0.348443 -0.7759 0.680361 -0.669506 -0.696351 0.0538227 -0.126682 0.862066 -0.488064 0.096783 -0.620932 -0.359115 0.536298 -1.28549 1.51675 -0.402695 0.767832 0.522778 -1.20511 0.105146 -0.000643459 -0.239545 1.51609 -1.4244 -0.152099 -0.270589 -0.590115 -0.0375241 -0.269115 0.909772 1.2753 -0.134935 -0.204561 0.430313 -0.939281 0.905883 -0.478191 -0.265939 1.03743 -0.419928 0.62198 1.17001 -0.780023 0.833024 -0.516009 -0.752066 0.131677 0.265426 0.564222 0.0289433 1.03621 1.21645 0.387147 -0.13814 -0.163995 0.034552 -0.227504 -0.0140222 0.194049 -0.29178 0.0326282 0.272957 0.655455 0.497526 0.0868671 0.346539 0.518971 -1.5395 0.578957 0.485141 0.210365 0.405738 1.022 0.691905 -0.684768 0.411725 1.01649 -0.533728 -1.36259 0.241757 0.484962 1.08499 -0.794515 0.680192 -0.0102392 0.296235 -0.303574 -0.470866 -0.621951 0.0536518 0.325494 0.268785 -0.0257983 0.161342 -1.31545 0.562134 -0.0808814 0.514456 0.730978 0.713861 -0.157021 -0.1182 -0.270085 1.10596 -0.596305 1.24279 -0.371733 0.241302 -0.630846 -0.545079 0.00380939 0.240371 -0.509002 -1.10453 0.258082 0.643757 -0.541222 0.952154 0.193521 0.0816941 -0.180847 0.483643 -0.29746 0.585711 1.06072 0.509544 0.109519 -0.470284 -0.28306 -0.191111 0.534445 0.0730737 -0.915284 0.424421 -0.422288 -0.086507 -0.246777 -0.787109 -1.17926 -0.030884 0.958643 0.0520301 0.773849 0.732492 0.045464 -0.745875 -0.0901111 0.0439426 -0.239504 -0.296341 0.255985 0.995155 0.00856145 -0.248218 -0.470083 0.46791 0.46486 0.550454 -0.280595 -0.229555 -0.560329 -0.280443 -0.227877 -0.682809 0.280091 -0.590563 -1.06417 -0.510651 0.384761 -0.493692 0.410631 -0.183275 0.880431 0.284871 0.325777 0.51573 0.476873 0.18623 -0.344228 0.110658 -0.223366 
-0.5438 0.820134 -1.49141 0.238022 0.254404 0.0119254 0.0425873 -0.480724 0.405344 -0.565167 -1.06023 0.895761 0.290602 0.0572114 0.200502 -1.26153 0.786123 -0.0962361 -0.221357 -0.751753 -0.135934 1.43278 -0.0217513 0.316133 -0.385225 -0.205686 -0.291104 0.427542 0.347313 0.43335 0.925987 0.792346 0.176634 -0.0691314 -0.345046 0.340782 0.00684907 0.251802 -0.790868 0.956241 -0.501376 0.477889 -0.398942 1.04721 -0.155547 -0.506784 -0.566721 0.0309647 -0.825198 0.37138 0.547614 0.795981 0.889237 0.253067 -0.337677 0.878791 1.3005 -0.281963 1.20083 0.620354 -0.457879 -0.0466114 -0.25101 1.07747 -0.543638 0.418811 0.0799095 0.625165 0.480575 -0.0597765 -0.856353 -0.776809 -0.42683 -1.13238 -0.360594 -1.17763 -0.41825 0.455049 -0.426318 0.815273 0.166002 0.460181 -0.00982022 1.21823 0.259933 0.12183 0.73075 -0.291834 -0.454266 0.345128 -0.736314 -1.03808 0.401062 0.518543 -0.7658 -0.131279 0.3572 -0.551337 0.108373 0.0917557 0.521442 -0.377146 -0.743026 0.4077 -1.07884 -0.221103 -0.707871 0.36032 -0.911143 -0.892053 0.477637 0.617649 0.6103 0.188297 -0.898401 0.296649 -0.512964 -1.13097 0.694784 0.667553 0.905471 0.3301 -0.364163 1.20653 0.628431 -1.52227 0.433562 0.558113 -0.241219 0.807766 0.052877 -0.0343054 0.306569 0.405421 -0.190499 -1.20527 0.529818 -0.425142 -0.0305644 0.718505 -0.65432 0.427317 -0.039353 0.772485 0.902735 0.0833988 -0.555951 -0.761068 -0.400628 1.00067 -0.0117418 1.33536 0.403988 0.416506 -0.496301 -0.304981 -0.633347 0.215014 1.24727 -0.390041 -0.187783 0.404389 0.411372 -1.52848 1.35779 -0.0584946 0.549343 -0.0734285 0.316348 0.109399 -0.916101 -1.02502 -0.56994 -1.29712 1.03795 1.04886 -0.377313 -0.571848 0.359759 0.699229 -0.118005 0.912661 -0.284706 -0.78824 -1.04606 -0.647437 -0.142807 -0.538936 0.35927 -0.27205 0.053123 0.0286141 0.204103 -0.115265 0.26799 0.188085 -0.394733 0.185699 -0.492326 -0.460033 -0.508795 0.13748 -0.365539 -0.338932 1.35707 -0.22979 0.52167 0.72883 -0.50093 0.655835 -0.00318369 0.255008 0.592783 -0.41358 -0.585354 -1.41611 0.141139 -0.17426 -0.769134 -1.09122 0.852752 0.636151 -0.254042 -0.92913 -1.08665 0.450961 0.914761 0.158125 0.52495 -1.47658 -0.600604 -0.103986 -0.171578 -0.544525 0.0757125 -0.388792 0.107536 0.123854 -0.821221 0.806988 -0.456352 0.246092 -0.0623194 -0.345727 0.994891 0.245493 0.204966 -0.144874 0.485834 -0.86881 -0.762028 0.523023 -0.150002 0.279014 -0.638926 -0.54144 
-0.362736 -0.800955 -0.123419 0.928325 0.180863 -0.0872784 -0.344572 -0.877638 0.226375 1.1109 -0.553063 -0.920146 -0.458886 0.419899 0.0193734 0.450454 0.279452 0.745773 0.0237268 -0.0348551 0.928614 -0.640311 -0.425881 0.348298 -0.063889 -0.647502 0.44363 0.825387 -0.168164 -0.747406 0.407715 0.00731746 0.219163 -0.0140211 -0.150099 -0.551416 0.0893301 -0.049051 0.432561 -0.440402 0.140605 -0.433154 0.302975 0.396476 0.101052 0.998248 -0.140841 0.535165 0.0624797 -0.769941 0.113207 0.862178 -0.51648 0.771271 0.169169 -0.0922368 0.35358 -0.177572 -0.111653 -1.14278 -0.751523 -0.549297 -0.678081 0.236779 0.720488 0.440961 0.960457 -0.455727 0.216872 -0.597481 0.249876 -1.18877 0.601021 -1.11034 0.385599 0.570495 1.04298 -0.485723 0.456203 0.131265 -0.99355 0.301755 0.173616 -0.633588 -1.48975 0.575714 -0.0711842 -0.370789 -0.315391 -0.636998 -0.424363 -0.493878 0.536935 -0.0803467 0.367945 -0.770976 0.182334 0.706976 0.185362 -0.3658 -0.825267 -0.36475 -0.387485 -0.529156 -0.970728 0.553201 -0.467293 0.668461 -0.453088 0.0306391 0.890177 -0.0253327 -0.609842 0.640291 -0.0123544 -0.552365 -0.0858222 -0.835908 -0.226346 -0.721806 -0.121088 0.162609 0.764371 0.505177 -0.41288 -0.515922 -0.355325 -0.261465 0.0831893 0.25706 -0.890291 -0.745388 0.623059 0.349584 -0.329682 0.255947 0.60778 0.0114501 0.359424 0.982617 -0.312999 0.707475 0.362308 1.28706 -0.31371 0.396833 -0.668967 -0.784737 0.223941 -0.170087 -0.766279 0.442246 -0.468791 -0.0367889 0.674579 0.640344 -0.299772 -0.781819 -0.412865 0.410305 0.470078 -0.196646 -0.57264 -0.300265 0.551656 -0.283547 -0.0260578 -0.119465 0.432745 0.948095 -0.1725 0.818526 0.282128 -0.273618 -0.104435 -0.392359 -0.728543 0.28143 -0.11705 1.58936 0.077827 0.0167466 0.387505 -1.52566 0.0886226 0.239935 0.771376 0.403451 -0.761942 -0.448748 0.234887 -0.803727 0.222197 0.0365941 -0.134044 -0.369044 0.343286 0.0205361 -0.502472 0.265012 0.0694458 -0.205004 -0.203551 0.133961 -0.457996 0.0348337 0.200261 -0.0409652 1.31932 -0.211152 0.144288 -0.70794 1.65035 1.31438 0.376973 0.42409 0.245469 -0.331617 0.399243 -0.145942 -0.0865739 0.26903 0.487573 0.156788 -0.741242 -0.126878 0.704756 -0.212946 -0.819204 -0.29379 0.224098 -0.536435 1.31859 0.780243 0.0106913 -0.254511 -0.924545 0.371812 0.979079 -0.149571 -0.843471 -0.511029 0.772207 -0.535767 0.485144 0.529555 -0.294486 0.0227726 0.267699 -0.357888 0.257466 -0.146603 -0.470042 0.249821 0.2441 -0.0875812 
-0.0562738 -0.157045 -0.540696 -0.390649 -0.125172 -0.416842 -0.260182 -1.23666 -0.304247 0.390541 0.180625 0.605431 -0.893722 -0.369745 0.374112 -0.927584 -0.474716 1.10108 -0.148589 0.521206 0.0654431 0.681171 -1.46739 0.421653 0.0215278 0.906342 -0.530854 -0.0184191 -0.114139 0.585229 -0.820715 -0.125092 -1.60908 -0.472559 -1.20524 -0.259476 1.13622 0.404607 -0.386469 -1.37739 0.527654 -1.35263 -1.01656 -0.310577 -0.521557 0.649666 -0.0922031 -0.747154 0.547651 0.137191 0.572374 -0.785802 -0.728574 0.311372 -0.108033 -0.0941289 0.167358 0.909025 -0.0045544 -0.0490365 0.0771254 0.458233 -0.354641 0.225386 -0.874215 0.458172 0.0156289 0.379782 0.575665 -0.623374 -0.0860851 -0.964435 1.07735 1.35954 0.664419 -0.558654 -0.699656 0.692544 0.428233 -0.801827 0.388761 -0.391793 0.0252857 -0.0518764 -0.569193 -0.23934 -0.0631838 0.510867 -0.211842 0.0404228 0.115167 0.453689 1.06925 -0.357075 0.74658 -0.170212 -0.452289 -0.14617 0.343997 -0.16377 0.181492 0.770229 0.0174145 0.00674366 0.747538 0.0624886 -0.538346 0.541767 -0.149716 0.515163 0.165792 -0.170676 -0.122752 -0.545912 -1.46916 -0.787395 -0.823162 0.538506 -0.89381 0.127534 -0.201388 0.638372 0.196423 -0.595043 -0.324753 -0.665599 0.999201 0.648918 -0.107881 0.11105 0.432492 0.085367 0.104629 -0.273456 0.0372634 -0.187155 0.250694 -0.252872 -0.539423 -0.380075 0.540784 0.55966 0.428768 0.186873 -0.295947 0.140403 -0.117915 -1.30981 0.437131 -0.281116 -0.121255 -0.118924 0.018432 0.658499 -0.265446 0.714665 -0.473587 0.745944 -0.253411 0.0805311 -0.345316 -0.188003 0.45586 -0.376909 -0.598225 0.469679 0.0256803 -0.0999717 0.103629 -0.867496 0.174792 -0.40656 -0.449159 -0.629318 0.282397 -0.572491 0.088839 0.00952172 0.559292 -0.986831 0.381387 -0.939559 0.277197 0.664087 -0.284304 -0.386616 -0.431182 0.205286 -0.307202 0.841355 0.0157862 -0.0187215 0.208546 0.769111 0.475871 -0.954364 -0.887556 -0.314051 0.257405 -0.875935 -0.164594 -0.365081 0.385188 0.12751 -0.0335279 -0.658835 -0.887763 0.278186 -0.700492 0.0898973 0.225968 0.33569 -0.605653 -0.244398 0.720765 0.317904 0.938171 0.344753 -0.255902 -0.400231 0.205899 -0.371212 0.0964753 -0.480816 1.26583 0.696418 0.593204 0.382289 -0.37431 0.0388636 0.385147 1.0707 -0.155482 0.195435 -0.101986 0.574496 0.103887 0.102289 -0.188214 1.32378 -0.540922 0.25629 -0.711595 0.538448 -0.207795 0.0545898 -0.196518 0.454125 -0.704278 -0.220004 -0.515854 -0.785552 -0.632671 -0.149741 1.13698 -0.243893 
-0.69152 -0.34963 0.161925 -0.151205 -0.383659 0.0162969 0.410428 0.160158 0.80959 0.954917 0.146465 -0.769377 0.637914 -0.461742 -1.06912 -0.601678 0.564842 0.573852 1.17626 -0.101566 -0.224677 0.496551 -0.704121 -0.158454 0.873399 0.427261 -0.634225 0.261893 1.57227 0.507501 -0.453686 -0.222933 -0.327281 0.325241 0.475476 -0.746007 -0.345644 -0.165709 -0.475762 0.466506 0.172063 -0.329561 -0.707937 -0.908289 -0.11624 -0.684518 0.0204337 0.474984 -0.808884 -0.197436 -0.0555346 0.403768 0.573772 0.54437 -0.313038 0.56645 -0.249568 -0.25415 0.289779 -0.230264 1.05524 -0.984344 -0.426293 0.450619 -0.0637104 -0.347494 -0.284882 0.225845 0.331771 -0.298416 0.0202379 -0.34522 0.112437 0.208842 -1.06327 -0.201232 -0.58773 0.368874 -0.092696 0.264306 0.201619 -0.557235 1.1795 0.747162 -0.782646 0.503486 -1.06896 0.166262 1.65958 -0.799666 0.994473 0.560827 -0.352274 -1.20403 0.42226 -0.0209243 0.267107 -0.0646072 0.432598 1.21404 -0.230034 0.644023 0.295565 0.148022 -1.162 0.402733 -0.213009 -0.456202 -0.211466 0.367041 -0.0128006 -0.446602 -0.24337 -0.509414 -0.50548 -1.24136 0.268974 -0.440242 -0.1362 -0.708603 -0.166284 -0.786075 0.542459 -0.276846 -0.282122 1.38358 1.33191 -0.770624 0.901221 0.693465 -0.828126 1.9441 1.03655 -0.814615 -1.09552 0.121039 0.526488 -0.511133 0.269909 -0.196734 0.214565 0.297703 1.05373 -0.400131 0.34143 0.765162 0.65499 0.0881504 -0.542105 0.500823 -0.388439 0.0349682 0.477707 0.519127 0.360337 0.238041 -0.342536 -0.720113 0.182364 -0.0910169 -0.797088 -0.162655 0.605474 0.985585 -0.257217 0.617528 0.668157 -0.0540252 0.221111 -0.132647 0.633751 -0.0942774 1.20295 0.70092 -0.121074 0.310928 -0.0478785 0.0648093 -0.538194 -0.1088 0.483655 0.82683 -0.74175 -0.157263 -0.824937 -0.344774 0.208563 -0.851582 0.746676 1.00935 -1.18751 0.185679 -0.874319 -0.90298 0.420777 -0.348583 0.555015 -0.955947 -0.282901 -0.659397 -0.217942 -0.0645236 -0.434026 0.0277794 -0.832246 0.459138 -0.115393 -0.461685 -0.234917 -0.721216 0.937057 0.688848 0.430397 0.709087 0.495722 0.550364 0.133074 0.239317 0.814888 -1.17427 0.865212 -0.46433 0.222484 0.0818389 0.985863 -0.360126 -0.435203 0.0659457 0.0540935 -0.314073 -0.531947 -0.849385 0.776891 -0.0890768 -0.0536811 0.161546 -0.506818 -0.692135 -0.529726 1.03694 0.0593611 0.314869 -0.474429 -0.567036 0.34186 0.618563 -0.555845 -0.338181 -0.217026 -0.739504 -0.300912 0.206101 -0.0201532 0.437792 -1.46304 -1.44854 
0.126715 -0.30446 -0.596163 1.04585 0.676832 1.37126 -0.901396 0.0614139 -0.68993 0.721537 0.25216 -0.810218 0.938829 -0.0790116 0.135467 -0.938409 -0.538299 -0.652133 -0.667186 -0.130439 0.116664 -1.11972 -0.951824 0.0114669 0.362006 1.21257 0.224194 -1.10771 -0.409073 0.203354 0.339064 0.0400354 0.225692 -0.0818643 0.181245 1.02779 -0.500996 -0.752149 0.408124 1.43521 1.26175 -0.211228 0.385664 0.0767197 -0.237687 0.652086 0.74295 0.080365 -0.122124 0.172801 0.880787 -0.7604 -0.169985 0.405045 -0.199192 -0.543708 0.027009 0.45127 -0.345329 -0.0792968 -0.450862 -1.1732 0.729278 -1.06929 -0.280631 1.65597 -1.67055 0.594632 0.219718 1.37746 0.798333 0.436904 0.346104 -0.960172 0.28567 0.712225 -1.07549 0.296942 1.07504 0.0697048 0.466726 -0.658684 -0.582262 1.29885 0.0991665 0.274467 -0.311313 -0.803467 0.77754 -0.363231 -0.337161 -0.250533 0.157985 -0.0468642 -0.609323 0.042107 -0.427566 -0.206617 -0.558899 -0.36968 0.230911 0.543078 0.030902 0.214251 0.407219 0.411712 0.100102 -0.886246 -0.3257 0.339629 0.294586 1.08769 0.233107 -0.442582 0.872265 0.0450061 0.079913 0.0661859 0.537536 0.221104 -0.0537998 -0.126249 -0.763976 -0.233744 -0.180915 -0.106952 -0.118367 -1.09346 -0.35516 -0.657304 0.370804 0.92073 -0.942644 -0.532006 0.0325153 -0.425646 0.506373 0.160072 -0.815666 -0.167405 -1.02707 0.167014 -0.41502 -0.402483 0.659013 0.761672 0.733143 -0.100178 -0.0229152 0.0704973 -0.256894 0.358841 0.694331 -0.899805 1.80086 -0.359947 -0.314583 -0.481244 -0.678732 0.0203351 0.295777 0.0276831 0.491445 0.6015 -0.54731 -0.187946 -1.28641 1.69719 -0.159228 -0.0404159 -1.45768 0.908187 -0.885454 -0.304227 -0.642185 -0.295805 0.330717 -0.470422 1.17015 0.221433 -0.0443845 1.07729 0.303255 -0.0433559 0.193223 0.908328 0.480626 0.915074 0.548898 0.159443 -0.664776 -0.38524 -0.611193 0.587669 0.642245 0.615067 -0.787919 0.556289 -1.1728 -0.337937 0.464373 0.498447 -0.22722 0.0190614 -0.553835 -0.208151 1.01886 0.312335 0.402987 0.656778 0.333998 -0.476369 0.112939 -0.48437 0.808174 -0.13995 -1.0105 0.619475 0.0291085 -0.0762931 -0.275743 0.800359 -0.503496 -0.138095 -0.276237 -0.304557 -1.15437 -0.333755 -1.08838 0.355716 -1.02419 0.720306 -0.508419 0.018192 0.951322 0.827038 -0.516343 -0.0729357 -1.19498 0.00298499 -1.00874 0.973863 -0.659 -0.106374 -0.725953 -0.669404 0.653382 0.480813 -0.270069 -1.4245 0.206696 0.432907 0.733853 0.522244 -0.143129 -0.205179 
