-0.213676 -0.514208 0.51183 0.314397 -0.946051 -0.0534903 -0.314992 -0.263866 0.166784 -0.0294757 0.301827 0.427478 0.31721 1.05372 0.407905 -0.0263985 -0.419768 1.2445 -0.669219 -0.301792 -0.594252 0.24282 -0.885473 0.460062 -1.02258 -0.569758 0.148905 -1.13824 0.3752 -0.299794 0.0337443 -0.52917 0.0295487 0.25076 0.124837 -0.304556 1.15129 -0.467649 -0.14816 1.2259 -0.315893 0.383449 -0.0833268 0.0538822 0.809099 0.0552408 -0.528904 0.862308 -0.111461 -0.47187 -0.0414112 0.0402465 0.280813 -0.831834 0.100444 0.589296 -0.581994 0.204581 0.660085 -0.757357 0.259296 0.453165 0.138936 -0.332245 0.144261 0.361633 -0.397671 -0.354727 0.415136 0.63884 0.0468134 -0.557424 0.282363 -0.0817348 -0.0526827 0.21094 -0.578613 0.304939 -0.464267 0.840424 0.298583 0.515958 0.0287268 0.274373 0.497969 -0.29966 -0.0964861 -0.538033 0.343766 0.440634 -0.488553 -0.0374456 0.858518 -0.264267 -0.22006 -0.105402 
0.808183 -0.817771 0.187618 -0.0355628 0.0052137 0.102254 -0.212699 0.911126 0.513978 0.658749 0.18506 -0.199433 -0.182853 -0.173592 -0.185437 -0.167571 0.211587 0.122005 -0.260187 0.368653 -0.317519 -0.274941 -0.301881 0.494977 0.442222 -0.515178 0.741225 0.762038 -0.349648 0.186645 0.187454 -0.517069 0.3936 -0.1028 -0.249541 0.224249 -0.628183 -0.634114 1.3756 0.893241 -0.447854 -0.336149 -0.58734 -0.549275 -0.845168 -0.0903207 0.865857 0.0983094 0.0332479 0.208746 -0.2132 0.15249 0.068972 -0.791125 -0.697449 0.645124 0.562044 0.407289 0.307153 -0.022052 0.151818 -0.699438 0.169716 -0.796947 -1.00718 0.210645 0.420296 -0.884073 0.687608 -0.549191 -0.156109 0.324962 -0.792449 0.381579 0.380022 -1.34467 -0.517975 -0.247339 -0.201983 -0.317266 -0.0656839 -0.277344 -0.154574 -0.327329 -0.31828 0.767928 -0.0540968 -0.853015 -0.724057 -0.857868 0.219543 -0.694154 0.963969 -0.797265 0.0498476 -0.301478 
-0.520346 -0.602518 0.446392 0.123786 -0.455973 1.26243 0.0830972 0.84255 -0.0376638 -0.577762 -0.565604 -0.365124 -0.326823 -0.100611 -0.900331 -0.281924 -0.254162 0.14187 -0.180523 -0.249764 0.392141 0.270421 -0.383017 -0.0845701 -0.522225 -0.377786 0.258372 0.941231 0.536997 -0.92103 0.330203 0.241755 -0.0361081 -0.479065 -0.219062 -1.16048 -0.183155 -0.238618 -0.329347 -0.314662 -0.496948 0.623551 -0.501646 -0.782535 -0.320392 1.16695 -0.640294 0.734308 0.44958 0.504257 0.0911999 -0.151646 -0.489519 -0.0310316 -0.716366 -0.337145 -0.58504 -0.807915 0.263885 -0.419926 0.0462774 -0.0961824 0.311073 -0.545085 0.114811 -0.0716771 -0.398014 0.450751 1.30909 1.19591 0.0265852 -0.468118 0.321715 0.472608 0.244219 -0.349471 0.207584 -0.492697 -0.241061 0.207464 -0.0556688 -0.00277127 -0.790207 0.15509 0.210133 -0.388182 -0.266387 -0.820745 0.825253 0.885823 0.786599 0.705844 0.389731 0.120493 0.295503 -1.35989 
0.529356 0.150679 -0.249118 0.604935 -0.037941 0.97698 0.288173 0.371898 -0.512384 -0.186072 0.581682 -1.24014 0.0846024 -0.529141 -0.181991 0.157316 0.281151 -0.286214 0.453722 -0.418449 -0.532854 0.627492 0.784329 -0.366371 0.547457 -0.737468 -0.509819 0.575983 -0.095835 0.148693 -0.496937 0.149694 -0.445641 0.317338 0.403326 -0.038091 0.282261 -0.434334 0.322158 0.00470412 0.752067 0.0217587 0.726819 -0.700197 -0.369894 0.111081 -0.259354 -0.204038 0.231858 -0.746998 -0.275978 0.23642 -0.352803 0.152773 0.0323879 -1.58954 -0.0993194 -0.907882 -0.0466754 -0.0604545 -0.627252 1.05655 0.621088 -0.0141268 0.813333 0.193736 0.473025 0.200432 0.489089 1.0603 -0.0891022 -0.489946 -0.570724 1.40852 0.65949 0.380585 0.065855 0.30933 0.000729373 0.55399 -1.02818 -0.365169 0.912267 0.0118991 -0.633759 -0.153333 0.508472 0.878156 -0.258718 0.201049 -0.159911 -0.0487416 -0.958586 -0.258316 -0.0393323 0.518631 
0.325693 0.345927 -0.208137 -0.67596 -0.290933 0.353723 0.280405 0.430394 -0.41913 -0.120763 -0.281726 0.23641 0.374135 0.44053 -0.206169 0.252733 -0.434531 -0.341041 1.08603 0.771182 -0.814921 0.953739 0.654043 0.859132 -0.822189 -0.118921 -0.385281 0.442625 0.298931 1.22047 -0.832671 -0.547467 -0.479138 -0.33492 0.0909811 -0.144913 -0.0337726 0.179828 0.276581 -0.00207939 0.0914028 -0.437516 -1.14374 0.00232666 -1.06094 0.0672566 0.860995 -0.075573 -0.0571908 -0.645602 0.211712 -0.00774648 0.039893 0.160507 1.02691 1.00607 0.955327 -1.62263 0.778147 0.166076 -0.0858006 -0.595995 0.106753 0.682696 -0.277727 -0.126966 -0.325936 -0.00284101 0.0284167 -0.0940498 0.302778 0.79928 0.617771 -0.470429 -0.869164 0.104394 0.338017 0.233897 -0.260296 0.222467 -0.174769 -0.444291 1.11786 -0.256407 -0.738801 -0.875993 0.0429993 0.423176 0.278039 0.0313688 -0.337221 -0.599807 0.742158 -0.224628 0.599614 0.341592 
-0.868708 0.272176 -0.291145 0.234195 -0.427088 -0.834422 -0.459899 -0.776004 0.316394 0.854521 -0.110944 0.109784 0.205334 0.149091 -0.263539 -0.742283 0.385865 -0.284346 -0.402393 -0.385339 -0.472682 0.119985 0.791792 0.0899359 -1.23614 -0.825561 -0.145585 -0.205112 0.168574 -0.441148 -0.790055 -0.486301 -0.907043 -0.236532 -0.251422 0.142326 -0.0774055 0.160122 -0.139888 -0.300295 -0.557431 0.100227 0.438371 0.953492 0.464816 0.40919 0.79337 0.318545 0.0473811 0.515654 0.398275 -0.982475 -0.0210904 -0.6017 0.525804 0.823049 0.160597 0.307294 0.0372034 -0.994609 0.508774 0.815578 0.5508 0.464513 0.529809 -0.424226 -0.720301 0.396162 0.190261 0.625513 0.625137 -0.179659 -0.373675 -0.0170225 0.931258 0.827725 -0.409738 0.703994 0.146676 0.762229 0.0451888 0.884224 -0.855941 0.329883 0.485918 0.479869 -1.07048 0.251141 0.41213 -0.427717 0.795511 -0.0240757 0.0999576 -0.915435 0.306819 1.19091 
0.299183 -0.344793 1.21226 0.908451 0.59103 -0.349416 -0.133266 -0.148595 0.0763927 0.291764 0.532116 0.117352 -0.60228 -0.670148 0.497098 0.504093 0.11381 0.0472836 -0.269892 0.188161 0.0121734 0.0541363 -0.532433 -1.08411 -1.18386 0.637699 -0.0953566 -0.068113 0.152101 0.677285 0.0649854 0.090537 0.32531 -0.474146 0.210163 0.365164 -1.13156 -0.359857 -0.0754434 -0.462286 -0.246032 0.0497453 -0.476235 -0.968682 0.966178 0.667832 -0.229217 -0.148914 -0.0253782 -0.224803 -0.223872 0.579654 -0.157862 0.0525124 -1.34685 0.755416 -0.916325 0.155921 -0.700065 -0.153584 -0.296191 -0.863948 0.424796 0.868526 0.366945 -0.615778 0.217761 -0.229679 0.865676 0.202461 -0.137989 0.32568 -0.434674 0.753548 -0.500604 0.201724 -0.249863 -0.0599352 0.794109 0.177684 -0.539539 -0.0145369 0.125403 -0.395497 -0.034681 -0.737151 -0.768763 -0.175449 0.0350628 0.381655 -0.0944253 0.205596 1.07429 -0.229064 -0.519473 -0.720957 
-1.33789 -0.421817 -0.560657 -0.333887 0.176944 -0.739885 -0.50273 -0.101851 0.595927 0.75392 -0.394379 -0.498411 -0.105878 -0.00908526 0.071592 -0.350197 -0.826222 -0.46587 0.296886 -0.314351 -0.350868 0.137402 0.601049 -0.341608 -0.339684 0.165848 0.214803 0.0599993 0.366313 0.84343 0.264628 0.123762 -0.716947 0.311694 -0.115418 -1.43083 -0.399195 0.216148 -0.570852 -0.197658 0.485488 -0.24541 0.826512 0.216077 -0.52621 0.32988 -0.0666391 -0.0947001 0.716384 0.670883 0.518046 -0.121939 0.172219 0.596517 0.922442 0.149821 1.03387 -0.604789 0.682971 -0.546961 0.320454 -0.352388 0.181237 -0.0193342 -0.701294 0.201626 -0.0937033 -0.0705936 -0.625161 0.644472 -0.637543 0.455562 -0.552032 -0.195882 1.01153 0.722447 -0.264659 -0.0418323 -0.317893 -0.140693 -0.385619 0.483562 -0.653385 0.337058 -0.477142 0.395699 0.270713 -0.233974 0.22778 -0.23848 -0.624322 0.143624 0.885143 0.0438046 0.382898 -0.0869259 
-0.656954 -0.0501445 -0.727569 1.27164 0.321543 0.563168 -0.853312 -0.39183 -0.471136 0.157078 0.640763 0.774741 0.625132 -0.600932 -0.786888 0.299006 0.77908 -0.417108 -0.885228 -0.777444 -0.242657 -0.433724 -0.0862701 -0.764628 -0.160469 0.242984 -0.692579 -0.439591 0.0482389 -0.116402 -0.740577 0.551301 1.19655 -0.152364 0.522391 -0.268944 0.549798 0.439875 0.426856 -0.238504 0.757127 -0.57405 0.0487354 0.848292 -0.893995 -0.49814 -0.0207784 -0.326321 0.160984 -0.493873 0.034599 0.146073 -0.0930522 0.475734 0.113581 -0.52653 0.113684 0.108892 0.685284 -0.186396 0.381605 0.00505287 -0.492868 -0.933219 0.326402 0.021953 -0.592288 0.131311 -0.585508 -0.388836 0.499181 0.243805 0.655886 0.443819 0.250156 0.768811 0.674194 0.400734 0.036781 -0.119209 0.414041 0.0446869 0.80473 -0.112435 -0.31375 -0.646685 0.367759 0.461201 0.254785 -0.0383013 0.278637 -1.26899 -0.210215 1.18973 0.06597 -0.697497 
0.284133 -0.426037 -0.35799 -0.991057 -1.23842 0.299767 1.16843 -1.01696 0.351368 0.256236 -0.109236 0.629336 -0.43132 0.161855 0.506626 0.362954 -0.057335 0.170818 -0.236509 -0.312823 -0.159003 0.0614539 0.525405 -0.662386 -0.772196 0.753821 0.0756743 0.733908 0.00496209 0.0889442 -0.201458 -0.0354881 -0.34153 -0.666274 0.326014 0.0959177 1.07477 -0.149478 1.10548 -0.199771 -0.202976 -0.534373 -0.0936277 -0.824167 0.301703 0.181984 0.329869 0.812476 0.0995332 0.421451 0.540598 -0.363893 0.297681 0.542907 -0.00178732 -0.634743 -0.226312 -0.344916 -0.189811 -0.792339 -0.00281894 -0.184962 1.24973 0.0157448 0.0458348 -1.33491 0.312945 -0.0398596 -0.483764 0.0266648 -0.31882 0.00340223 0.123324 -0.272098 0.683729 0.19721 0.742268 -0.358496 0.823031 0.538442 -0.182551 0.0107779 0.63909 0.409594 -2.04665 -0.438623 -0.776064 -1.01842 -0.15125 0.592218 -0.578866 -0.138604 -0.692798 -0.431285 -0.289 0.424151 
0.311939 0.0801484 -0.221851 0.117829 0.234671 -0.178585 -0.901969 -0.142726 1.08219 -0.923975 -0.247876 -0.3285 -0.720096 -0.396208 -0.423374 0.0489672 -0.427874 0.079825 -0.318557 -0.0877177 -0.0413468 0.0424664 0.7514 0.256866 0.536278 0.254621 0.26806 0.814073 0.0271565 -0.890774 0.0284479 0.0882764 -0.731158 0.850116 -0.100708 0.880816 0.536517 -0.374492 -0.015001 0.0680648 0.002373 -0.595208 0.351434 -0.0447075 -0.582551 -0.404513 -0.430495 -0.822244 -0.0866715 0.840984 -0.80087 -0.2155 0.897882 0.464407 -0.993492 0.671452 0.164004 -0.259097 -0.56566 -0.710543 -0.611337 0.73342 -0.0620739 -0.459686 0.0839375 0.684278 0.0803047 0.943776 -0.554039 -0.0549928 -0.257652 0.0662859 -0.359127 -0.37589 0.336601 -0.271251 -0.450056 -0.63571 -0.341062 0.662464 -0.202951 0.227682 0.113012 0.1179 -0.429852 0.887382 -0.376516 -1.14536 0.663299 -0.230804 -0.722611 -0.969318 0.318176 0.129644 -0.389703 -0.19297 
0.623688 -0.46254 0.126833 0.157545 -0.866341 0.576666 0.270011 -0.535233 0.702606 0.934214 -0.286905 -0.139376 0.0721878 0.441994 -0.0404653 -0.154633 0.49586 -0.42771 -1.70232 -0.200676 0.116043 -0.350964 0.0296692 0.353021 0.83259 1.16651 0.408163 0.0535752 -0.664567 0.105244 0.846701 -0.328021 -1.23332 0.347273 0.14955 0.913272 -0.781636 -0.603188 0.981886 -0.111684 -0.749426 -0.101621 0.237112 -1.08184 0.23036 0.591385 0.010207 0.23593 0.646069 0.216199 -0.519797 0.044116 -0.107783 0.416937 -0.111924 0.184049 -0.115944 -0.532123 0.298336 0.355217 -0.282964 0.126951 -0.31745 -0.520539 1.04865 -0.222748 0.109191 -0.813404 0.406521 0.31551 -0.731537 0.374668 -0.163879 0.499531 0.279766 -0.497208 0.24808 -0.325954 -0.536354 1.20392 -0.23742 -0.588566 -1.33976 -0.383288 -0.553705 -0.464241 1.28304 -0.418761 0.27761 -0.274365 0.884278 -1.06895 -0.252537 -0.10982 0.34333 0.332631 
1.05003 -0.341061 0.631304 -1.22094 -0.388626 -0.0618728 0.276647 0.477268 0.680744 1.00226 -0.424813 0.21585 -0.353816 -0.606331 0.566399 0.936855 -0.0920574 0.106896 0.125959 0.18256 0.097026 0.210347 1.15228 -0.171283 0.228929 -1.17846 0.816438 0.860519 0.384758 -0.278536 -0.419631 -0.0167331 -0.932222 -0.0973592 -0.389304 0.599023 0.464779 -0.348915 -0.101756 -0.798542 0.114356 0.71442 -0.434466 0.0654469 -0.33804 -0.0941471 -0.604268 0.363623 0.625488 -0.81146 -0.641818 0.343991 -0.318202 0.0864789 0.788962 0.0260771 -0.27356 0.467747 -0.227068 0.0316527 -0.0519988 -0.0960342 -0.198923 0.688393 -0.266291 -0.677706 0.525238 1.36607 0.382786 -0.229459 0.385274 -0.154404 0.506577 0.507817 0.631136 0.0535889 0.613845 0.525932 0.382626 -1.00598 0.439639 0.894826 0.492712 0.254524 -0.193113 0.827685 0.230037 0.129272 -0.26277 -0.634752 0.0361853 -0.11532 1.1432 -0.123102 0.38618 -0.696656 
0.504364 0.181854 -1.41081 -0.310571 0.460244 -0.945033 -0.632809 0.7992 -0.253297 -0.185853 -0.487528 -0.505575 -0.463219 -0.301609 0.619726 0.490136 0.451393 0.445984 0.197499 -0.87342 0.0308316 -0.155418 0.231264 -0.226838 -0.0505463 -0.228951 -0.488775 -0.376964 0.527958 0.0937607 -0.892543 -0.0362736 -0.363186 0.461883 -0.0686222 0.706762 -0.174664 -0.923834 0.273517 -0.211493 -1.05516 -0.0969612 -0.774024 0.182362 0.318983 -0.485339 -0.870832 0.20876 -0.604074 -0.311899 1.40769 -0.497291 0.525643 0.470172 -0.735533 0.951426 0.0267917 -0.153835 -0.072122 -0.0916118 0.792997 -0.727446 -0.960568 0.211699 0.142688 0.154908 0.815402 0.810437 -0.138444 -0.391239 0.0283275 -1.1426 -0.272483 -0.244712 -0.0576708 0.381731 1.14525 -0.59491 0.639337 -0.677834 0.680436 1.60605 -0.24526 0.976386 -0.398515 0.579132 0.596611 -0.463064 0.428943 0.569908 0.0417167 0.375969 0.75131 0.21173 -0.431017 0.85033 
-0.333816 -0.263181 -0.305466 -0.45118 0.137919 -0.490161 -0.0991294 0.247117 -1.04903 0.142776 0.252284 0.549825 -0.0153015 -0.206904 0.408603 -0.157227 0.479403 0.492524 -0.26739 -0.262673 -0.30742 0.143195 1.83881 -0.677628 -1.08356 0.172166 -0.477272 0.570562 -0.206585 0.0511555 -0.978256 -0.0930843 0.853414 -0.0203795 -0.914834 -0.0357555 -0.232818 -0.359387 0.206718 0.36089 0.0620761 -0.729389 0.0371725 0.400784 -0.183601 0.0395974 -0.011254 -0.246962 0.69661 -0.104739 0.0210592 0.33631 0.112189 1.3017 -0.0839596 0.255542 -0.12573 1.13526 0.574784 0.259462 0.184668 -0.922734 -0.512901 -0.551393 0.144796 -0.270312 -0.268292 0.256694 -0.0835534 0.439121 0.026136 0.124796 -0.0698082 0.54901 0.852363 0.0113474 0.0385252 -0.940242 0.241311 0.132508 0.679919 -0.597205 -0.075569 1.01143 -0.378512 0.178358 0.208113 -0.0196592 -0.165382 0.0760076 -0.0452476 0.0207342 0.427054 -0.646162 0.046055 -0.0966081 
-0.066747 -0.38855 -0.612979 -0.527405 -0.849357 -0.073506 -0.31489 0.208113 -0.60704 -0.473247 -0.436419 0.528908 -0.0596829 -0.07591 -0.195999 0.217331 -0.574157 -0.271021 0.212603 0.0650469 -0.103177 0.0800845 -0.120382 -0.470717 -0.487722 -0.603047 0.46201 0.014212 0.575393 -1.06869 0.833867 0.0611295 0.310643 0.273134 0.746195 -0.117839 0.489375 0.410965 -0.542176 -0.447533 0.299219 0.472774 -0.121914 -0.140408 -0.159725 0.264248 1.34549 -0.239634 0.0505227 -0.00894878 -0.0257725 0.73871 0.509167 -0.262171 0.621063 -0.0602621 -0.752332 -0.224886 -1.06471 -0.0501086 0.254396 -0.444818 0.205087 0.648076 0.941642 0.06908 -0.112844 0.640489 -0.0945421 0.66733 0.73128 -0.746757 0.418049 -0.169373 0.161045 0.387043 -0.572144 -0.132748 0.134414 -0.287775 -0.0924079 -0.116825 -1.40814 -0.400531 -0.709213 -0.194951 0.0205361 0.213543 -0.45566 -0.0537963 0.110724 0.424511 0.464043 -0.429463 -0.0638683 -0.111239 
-1.08944 -0.629756 -1.14338 -0.107861 -0.215556 -0.400928 0.322842 0.708327 0.457003 -0.043085 0.496361 -0.247851 -0.462816 0.169643 0.236634 0.139329 0.235137 -0.900749 -0.138405 -0.439472 0.361938 -0.692027 0.225394 0.0409584 -0.419706 -0.726997 0.599492 0.0981708 -1.04819 -0.663408 0.605408 0.349689 -0.448952 0.451702 0.395 0.101375 0.882339 -0.130737 0.934646 0.0206631 0.697123 -0.411656 1.15747 0.463885 -0.00543522 -0.438529 0.306031 -0.286599 -0.131565 0.753156 -0.0679794 -0.715436 -0.465782 -0.796097 -0.0524262 0.0109079 -0.900688 0.00604683 0.53055 -0.374715 -0.0937907 -0.0730551 -0.755151 -0.712763 -0.17694 0.478307 -0.0623842 -0.587877 -1.07598 0.578716 1.29824 0.623114 0.551732 -0.172257 -1.07547 0.234801 0.226744 0.290694 0.242847 -0.0990063 0.492125 0.345073 0.327862 -0.354635 0.339026 0.172047 0.658349 -0.710824 -0.256456 0.648379 -0.695692 0.314019 0.872181 0.376075 -0.171878 0.167367 
-0.784971 -0.0686617 0.146761 0.21848 -0.393254 0.602185 -0.178544 -0.718571 -0.735808 0.266036 -1.08121 -0.974053 -0.279139 -0.0359429 -0.305699 0.923555 -0.969573 -0.140211 -0.0588797 0.131514 -0.740989 0.562214 -0.123606 -1.37492 0.209482 0.690124 -0.070899 0.720572 0.0225973 0.461658 -0.661213 -1.03863 0.132211 -0.115921 -0.182721 -0.0619085 0.741964 0.0542037 0.311293 1.22164 -0.346929 -0.272886 0.492295 0.114363 -0.306946 -0.935549 -0.0959721 0.0310973 0.0110589 -0.524361 -0.755024 0.185259 -0.83569 -0.411224 0.0829923 0.11668 -0.80754 0.038202 0.151725 -0.642217 0.117186 0.512759 0.794527 0.475906 -1.18345 -0.491226 -0.515568 0.895515 -0.492318 -0.484035 0.323118 -0.601041 -0.537556 0.0760566 -0.299509 -0.824576 0.79591 -0.244052 -0.672998 0.860509 0.166787 -0.133959 -0.339284 -0.520188 1.00422 -0.486314 0.583136 0.0900353 0.362508 1.01525 -1.21712 -0.213178 -0.714394 -0.197687 0.433107 0.586334 
0.0460284 -0.137198 -0.068399 -0.802217 0.839898 -0.175231 0.472139 -0.41255 -0.992286 0.56779 0.055143 0.279931 1.68402 0.208875 -0.814731 0.454129 0.699451 -0.472393 -0.191958 -0.421809 0.590818 0.312152 0.246189 0.547955 1.81875 0.5989 -0.688504 0.929462 -1.50959 0.507917 0.471144 0.428608 0.343331 0.183185 0.0312032 0.434528 -0.803279 -0.408755 -0.340252 -1.15811 -0.600783 -0.520775 -0.186834 0.270735 -0.353845 -0.476198 -0.0335667 -0.250104 -0.12702 -0.236924 0.69253 0.413877 -1.1403 -0.990141 -0.56336 0.0150677 -0.153744 0.351957 0.330619 0.303268 1.05244 0.494043 -0.125249 -0.0732986 -1.09539 -0.0575716 -0.246725 0.190195 0.55035 -0.390014 -1.46271 0.771428 -0.101575 -0.400752 0.0307381 0.58495 0.194528 -0.188808 0.154838 -0.508937 -0.161659 -0.562408 0.150854 -0.333071 0.497576 -0.844025 1.0901 -1.11485 -0.770307 -0.250893 -1.11438 1.42134 0.303006 0.603856 0.638197 -0.907164 
0.444134 -0.0696865 -0.124735 0.38181 0.654848 -0.622464 -0.27811 0.952497 0.171903 1.00117 -0.0519104 0.161503 0.230697 0.023647 0.140667 -0.567248 0.222662 0.313971 0.393848 0.0891097 -0.300495 0.146499 0.640055 0.164726 0.602395 -0.10512 0.0662772 -0.209443 -0.313884 -0.0206104 1.20632 1.39993 -0.834085 0.499361 1.05478 1.02344 -0.153097 0.196055 -0.0955772 0.0482095 0.585682 0.250035 -0.430985 0.754408 -0.0439813 0.33104 -0.506482 -0.261715 0.146217 -0.0110796 0.800683 0.142111 -0.516493 0.619727 -0.10576 0.598793 -1.28214 -0.304327 0.564836 -0.18704 1.01595 0.246643 0.372217 -0.990181 0.365081 0.072803 0.603148 0.454463 -0.173896 0.327241 0.112603 0.142754 -0.511051 0.777037 -1.09791 0.305952 -0.205766 -1.42812 -0.526518 -0.183136 0.868755 -0.159855 0.129046 -0.639011 0.135376 0.561047 0.56586 -0.042819 0.236343 -0.659235 0.013565 -0.108066 0.479775 -0.176623 0.134768 -0.13753 
0.234444 -0.0710561 -0.0387479 0.611925 0.682712 0.218749 -0.168162 0.616245 0.202057 -0.938092 -0.692937 -0.581386 -0.1808 0.66974 -0.229566 0.353871 -0.342193 1.07211 0.520454 0.504069 -0.112567 0.112263 -0.715925 0.0102353 -0.311092 -1.15542 -0.162099 0.194122 0.620969 1.14635 -0.18933 0.00944314 -0.584976 -0.662931 -0.0653508 -0.671105 0.234396 -0.868448 -0.0041582 0.413387 1.13526 -0.204518 0.825952 -0.766828 -0.264506 0.559008 0.901437 -0.304575 0.60163 1.21968 0.488423 0.0918221 0.106513 0.574288 0.25305 0.660875 -0.0684116 -1.24702 -0.486399 0.290294 0.388343 0.500083 0.620769 0.296436 -0.887613 0.149337 0.211885 0.065943 0.131903 -0.171558 0.749339 -0.461871 -0.134071 -0.331504 -1.41093 -0.864988 -0.211499 -0.0361533 0.0510253 0.216885 -0.434902 -0.237929 1.16291 0.58968 -1.00535 0.662374 -0.576683 -0.574428 0.561341 -0.500224 0.0809037 -0.364334 0.257046 0.645482 0.774718 0.0593987 
-0.348811 0.509286 0.501673 0.520022 -0.000424533 0.102188 0.0105309 -0.417066 -0.835862 0.542745 0.212174 -0.00862214 -0.0611195 1.13137 0.461744 0.954139 -0.40895 -0.11033 -0.0415662 -0.371071 -0.295993 0.328673 0.0614156 -1.19618 0.25438 0.0922584 0.10826 -1.00519 -0.406421 -0.459666 -0.144321 -0.528125 -0.58834 0.436238 0.823261 0.0744905 0.987845 0.0600381 -0.259142 0.491575 0.135139 0.179616 0.454085 -0.394137 -0.0642017 -0.484877 -1.33668 0.394001 0.514454 0.817097 0.000817463 0.252902 0.323381 -0.344878 -0.425907 -0.469093 -0.198349 -0.596365 0.0255825 -0.338504 0.519933 0.945323 0.095468 0.15263 -0.192037 -0.818786 0.672393 -0.116212 -0.158076 1.1132 -0.546422 0.358438 0.340214 0.549814 0.575437 0.489908 0.622691 -0.286075 -0.0240599 -0.651711 0.073279 -1.18361 0.0613398 0.811497 0.658074 0.373176 0.515297 -0.145219 -0.443187 -0.24332 -0.32184 0.583114 0.551258 -0.0839811 -0.211545 -0.936042 
-0.0498256 0.594863 -0.0568958 -0.00365359 0.0550241 0.281027 0.0150754 -0.334807 -0.518082 -0.889229 -0.585335 0.658881 -0.02231 -0.24365 0.376436 -0.346093 -0.185139 -1.52095 -0.759883 1.38271 1.13472 -1.33377 -0.388153 -0.295515 1.33292 -0.094671 0.233134 -0.675706 -0.0527044 0.203671 1.24018 0.223349 1.00467 -0.614697 -0.142072 -0.043671 0.15197 -0.362387 -0.595693 0.0515273 0.781205 -0.895556 -0.00872779 -0.741089 -0.492814 -0.389453 -0.847306 0.337199 -0.0508829 0.514339 -1.62749 0.0534473 -0.0725459 0.44345 0.435734 0.364344 -0.297516 0.109153 -1.09882 -0.248763 -0.641337 0.315172 0.167011 0.155444 0.814533 -0.282581 -0.652618 0.0593185 -0.629856 -0.408145 -0.251722 0.458576 0.390829 0.589018 -0.0115119 0.547815 -0.563893 -0.0701568 -0.197156 -0.540087 -0.0591387 0.976719 0.198971 0.618443 0.196254 -0.103127 0.576159 1.25811 0.24308 0.509929 -1.04304 0.118457 -0.319717 -0.297205 -0.204115 -1.38033 
0.76252 -0.114182 0.105282 0.287294 -1.11071 -0.180902 -0.150099 0.911144 -0.499146 0.0333891 -0.889359 0.450401 -0.315472 -0.0311676 0.489809 0.377568 0.34926 0.30403 -0.336246 -0.230377 0.644214 -0.416513 -0.722779 0.0831516 0.241632 -0.698811 -0.107812 0.674021 -0.441729 0.331244 -0.589694 0.41826 0.20108 0.148635 -0.161957 -0.451592 -0.389251 1.37364 0.0473252 0.377095 -1.20292 0.431229 0.359591 -0.515662 0.329728 0.157257 0.214673 -0.379565 0.8463 -0.676014 -0.424424 0.382455 -0.11925 0.363005 -0.0976022 0.114819 -0.0314162 -0.412896 0.235818 -0.857604 -0.435493 -0.56622 -0.291867 -0.0791597 -0.559059 -0.796955 0.299582 0.61719 -0.200147 0.0065642 0.488492 0.220841 0.421375 0.556088 -1.19061 0.324256 -0.351457 0.341523 -0.451469 0.04597 -0.521195 -0.463604 -0.263332 0.0761328 -0.841662 -1.14117 -0.0582018 0.395472 0.577681 1.11226 -0.547647 0.171884 -0.212132 0.134264 -0.0263747 -0.542684 
0.246367 -0.654587 0.119938 0.336219 0.834414 0.012406 -0.327256 -0.351658 0.274478 0.935043 0.61446 -0.0528127 -0.0687568 -0.419397 -0.381738 0.171178 -0.745774 0.233595 -0.0660844 -0.390867 -0.355098 1.15075 -0.305642 -0.37265 -0.58792 -0.403762 0.0326071 0.97454 -0.609685 1.33422 -0.282197 -0.0742711 0.0847507 -0.0783862 0.901819 -1.0472 -0.714302 0.152173 0.284398 0.0320063 -1.08237 -0.264488 -0.0513908 -0.819136 -0.894248 -1.26363 0.528171 -0.641109 0.904199 0.140276 0.0279185 0.151919 0.0193787 0.361491 -0.0461355 -0.4514 0.129939 -0.291235 0.269347 -0.798962 0.296243 0.333274 -0.636356 -0.257569 -0.232363 -0.331312 -0.533882 0.257907 0.0421058 -0.41982 -0.595343 -0.298045 0.610734 0.330456 0.760741 0.690861 0.0488383 -0.340136 -0.417044 1.71173 0.070782 -0.572006 0.575165 -0.304709 -1.01973 0.889967 0.175699 0.47021 -0.905438 0.735768 0.153403 0.309345 1.07475 0.393703 0.226179 -0.0738164 
0.722793 -0.43147 0.581619 -0.716643 0.0832291 -0.66048 0.00980492 1.2714 -0.503446 0.431345 0.245945 -0.384854 0.338994 0.139053 0.443862 -0.0670103 -0.385715 -0.30744 -0.116336 0.631794 -0.145733 -0.125761 -0.433396 -0.529833 -0.432346 -0.682269 -0.141593 -0.947611 1.36065 -0.141454 0.350981 0.730196 -0.191754 0.0829948 -0.450589 -0.49869 0.861732 -0.384243 -0.842805 0.936529 1.10886 -0.126924 -0.132272 -0.308602 -0.194331 0.452506 -0.130367 -0.961436 1.31829 0.215093 -0.277626 -0.318817 -0.264377 -0.572932 -0.288752 -0.24447 0.0716441 0.216277 0.910248 0.156914 0.496881 0.736977 0.473008 0.533407 0.279515 0.0413639 -0.193006 0.752019 -0.943477 -0.0240015 -0.414087 -1.00068 0.479244 -0.00967014 0.109767 -0.228817 0.017078 0.259059 0.473932 0.953823 0.0450498 -0.576388 0.405265 -0.311177 -0.81101 -0.0830883 1.07052 0.254229 0.11144 0.862514 -0.232637 0.0194193 -0.356398 0.695477 0.528423 0.0446395 
-0.144604 0.403121 -0.220751 1.08009 -0.365481 -0.396586 -0.0403552 0.0194957 -0.559531 -0.924501 -0.152144 0.505713 -0.014859 0.143672 -0.54758 0.327171 -0.347779 0.196157 0.402684 -0.276987 0.00401155 0.0129172 -0.717743 0.341928 -0.312742 -0.0679047 -1.16217 0.598565 0.398022 0.518119 0.727888 -0.857407 0.584759 0.0724708 -0.553374 0.718435 0.0272955 0.840241 -0.396334 0.628185 -0.70215 -0.216074 -0.581721 -0.0105728 0.993038 -0.827127 -0.647068 -0.421156 -0.30415 0.370954 0.715057 0.615322 -0.327108 0.735638 0.352553 0.308986 0.427055 -0.428784 0.480594 0.308479 -1.06523 1.24607 -0.766499 -0.330842 0.490404 -0.216195 -0.6628 0.352187 0.85663 -0.594812 0.000964165 0.452771 0.0852861 -0.355636 0.172162 -0.585503 0.616801 0.0393854 -0.813719 0.631437 0.343621 0.590086 -1.31039 -0.522664 0.254269 0.0274864 0.977607 -0.330638 -1.11726 0.150542 -0.264294 0.160103 -0.897685 0.270594 -0.187411 0.381731 
-0.323338 -0.546501 -0.843183 -1.09456 -0.0120095 0.205295 -0.797684 0.55772 -0.294037 -0.952381 0.138417 -0.511079 0.114125 0.281605 -0.114002 0.0876894 -0.116161 0.209881 -0.0104856 -0.319159 -0.689899 -0.159535 0.0760431 0.256467 -0.189644 0.642019 0.420542 -0.272859 -0.0247927 0.0248424 -0.096804 -0.169296 0.969307 0.441479 -0.879344 -0.585258 -0.103692 0.205203 -0.764633 -0.191851 0.460906 1.31349 -0.312613 -0.191616 1.36428 -0.497479 -0.585064 -0.0575021 0.149402 -0.0664269 0.272869 0.488564 -0.399531 0.155641 0.23568 0.189713 0.628473 0.781717 -0.51099 0.638874 -0.62609 -0.292775 -0.982187 0.507565 -0.588669 -0.266248 -0.166206 -1.01698 -0.316873 -1.12213 -0.293259 0.476846 -1.23206 0.424287 0.150769 0.269304 -0.0988408 0.602585 -0.204252 -0.323949 -0.376405 0.38298 -0.133218 0.826413 -0.503965 -0.319704 -0.771217 0.567588 0.138431 -0.212203 0.194396 0.100787 -0.0713594 0.0503249 -0.401211 0.0261616 
-0.511171 -0.107141 0.339957 0.536779 -0.182766 0.75959 0.315689 0.194432 -0.522327 0.466968 -0.462717 0.415671 -0.345469 -1.01219 -0.758221 -0.161384 -1.08294 0.117706 -0.129219 0.433764 0.293225 -0.249566 0.32585 0.24624 -0.0921666 -0.0741859 0.239095 -0.49567 0.931824 0.0236992 -1.15431 0.066582 -0.630832 -0.342268 0.330074 0.698616 -0.216802 -0.33755 0.408553 -0.345488 0.273848 0.352483 -0.307854 0.266309 0.0541374 -0.541409 0.315962 -0.494689 -0.323129 -0.00207983 0.634741 -0.376663 -0.0383802 -0.511956 0.0277399 0.00999658 -0.952781 -0.701882 -0.240645 0.0361286 0.168579 -0.0646114 0.212323 0.410259 0.423737 0.201447 1.0636 0.948259 0.374022 0.226027 -0.0841215 -0.363757 -0.599724 0.0532344 0.646919 -0.106272 -0.320169 0.267784 1.17796 0.0304943 -0.701475 -0.087754 0.481004 -0.2779 -0.464889 -0.580097 -0.240204 -0.562401 -0.723831 0.0660395 0.539601 0.251791 0.968364 0.24813 -0.140982 0.386531 
-0.335276 0.487839 -0.333017 0.548713 -0.838184 -0.242519 -0.353175 0.0695326 -0.0426191 0.773162 -0.151961 -0.479202 -0.377256 -0.983612 0.240934 -0.0673252 0.739683 0.057 0.176124 0.676062 -0.525216 0.370249 -0.82691 -1.2225 0.0714634 -0.574206 -0.257464 -0.0121897 -0.780619 0.158867 0.0151083 0.583405 -0.0942752 -0.263921 0.900959 0.302616 -0.295991 -0.767493 -0.361965 0.0682692 -0.0937904 0.0294267 -0.689245 0.252074 -0.18106 -0.513266 -0.42249 -0.285164 0.452204 0.142683 0.0225795 0.425228 -0.51121 -0.337316 -0.517689 -0.934879 -0.581769 0.093162 -0.790137 -0.192523 0.54636 1.31408 1.24175 0.331623 0.26396 -1.56338 -0.114878 0.225863 -0.490581 0.900047 -0.780451 -0.437743 0.145648 -0.968688 0.558702 0.0438756 0.180201 -0.195784 0.266027 0.705136 0.766568 -0.712343 0.60225 -0.174291 -1.22481 -0.102506 0.228979 -0.387837 -0.245213 0.314216 0.202247 0.733884 0.30101 0.711799 -0.746822 0.117106 
-0.0565695 0.826518 1.02856 0.312016 0.0705113 0.128739 0.666536 -0.505031 -0.244638 0.207148 0.258987 -0.531872 0.210611 0.286262 -0.0160343 -0.24462 0.427112 0.207861 0.563658 0.230057 -0.382926 -0.286688 -0.0638454 0.117712 -0.112537 -0.980579 -0.367509 0.202042 0.590958 0.773814 0.00541946 0.196737 0.36903 -0.859265 0.444113 0.676066 0.30932 -0.310211 -0.427027 0.339107 -0.253316 -0.202678 -0.0763105 0.429591 -0.118781 -0.584117 0.824278 0.554497 -0.0530067 -0.451057 -0.614086 -0.0191923 -0.469005 0.0281015 0.835686 0.519638 0.187339 0.197274 0.0797936 0.814984 0.391854 0.238787 0.134441 0.14348 -0.598826 -0.503915 -0.943697 0.0107812 0.332102 0.590626 0.0909363 0.541447 -0.274038 0.440578 0.181685 0.192462 -0.223817 -0.382566 -0.476291 -0.0140249 -0.345855 0.0897171 -0.0747156 -0.797695 -0.152172 0.6187 -1.18225 0.381981 -1.0323 -0.427838 -0.0603646 0.00118533 0.346558 -0.479054 0.861671 0.0224336 
-1.47047 -0.807212 0.500381 -0.203348 0.251451 0.0855762 0.617991 0.698136 -0.43486 0.237198 0.482057 -0.237497 0.85763 1.32566 -0.417355 0.0756851 0.337056 -0.1502 0.284092 0.700118 0.330786 -0.325514 0.481103 0.654356 0.3365 0.369717 -0.242864 1.02782 -0.131771 0.373438 -0.76321 -0.90425 -0.922 -0.478256 0.454229 -0.26398 -0.699049 0.514004 -0.223712 0.579699 0.882787 0.302247 0.074392 -0.50897 -0.273384 0.172607 0.177367 -0.616235 -0.532977 0.630804 0.920176 -0.116619 -0.476774 -0.465566 -0.0873729 -0.297628 -0.107868 0.102644 -0.569476 -0.183844 0.494649 0.358385 0.0525823 0.364841 -0.455665 0.156273 -0.436659 -1.14812 0.310272 -0.25307 0.184801 -0.611141 -0.548173 1.20029 0.475604 0.87463 -0.322237 -0.265289 0.163342 0.00297129 0.346752 0.232383 1.4104 -0.580645 0.50655 -1.07841 0.424399 -0.29163 -0.541056 -0.739929 -0.274831 0.566292 -0.51278 0.584403 0.613113 -0.597378 
-0.889289 0.69779 -0.899721 -1.09539 -0.690733 -0.745116 -0.369468 1.09336 -0.213352 0.456152 -0.727875 -0.420011 -0.907392 -0.00742693 1.05216 -0.294605 0.429279 0.396485 -0.473451 0.0561975 -0.486164 0.161655 0.0461949 -0.203441 -1.18519 0.0587876 -1.54501 0.583345 -0.288878 0.616453 -0.504554 0.32361 0.114088 0.703986 0.302232 -0.549411 0.73315 1.17443 -0.902375 -0.0519253 0.978599 0.168385 -0.868932 -0.303494 -0.559359 -0.225674 0.451086 0.305566 -0.394986 -0.78142 1.21876 0.244754 -0.624705 0.500598 0.801041 0.00979435 0.0422958 -0.0520175 -0.277254 0.109862 0.442153 -0.124537 1.14286 -0.170606 0.502065 -0.306301 -0.976481 0.0472459 0.59511 0.255375 -1.01578 -0.482106 0.119226 0.387506 -0.113929 0.772348 0.0938097 0.840867 0.153454 0.1206 -0.494059 -0.414014 -0.0989435 -0.67194 -0.364414 0.689593 0.0467788 0.171841 -0.0511077 0.564201 0.377494 -0.118904 -0.362273 0.604664 -0.444389 -0.35723 
0.301082 1.06757 -0.319316 -0.253739 -0.191598 -0.233778 0.275567 0.0102984 -0.311977 -0.139725 0.421533 -0.119654 -0.961837 0.699451 0.594384 0.294288 -0.698231 -0.542231 -0.270233 0.177104 -0.218742 -1.03173 0.671367 -0.709279 -0.0908747 0.360183 0.241985 -0.053432 -0.0801799 0.2551 -0.273747 0.644724 0.960363 0.617908 -0.0561853 -1.63618 -0.227556 -1.0148 -0.159226 -0.0146663 0.845501 0.0301165 0.570041 -0.497228 -0.107372 -0.491526 -0.835489 -0.302563 -0.62082 0.596933 -0.652314 -0.958261 0.904324 -0.954336 -0.298856 0.545345 0.479041 0.104547 -0.347932 -0.234052 0.651351 -0.235369 -0.158142 -0.22861 0.360649 0.575214 0.0438284 0.0853694 -0.286917 -0.840463 0.130587 0.56123 -0.346365 0.457327 0.59044 0.0475538 -0.114648 -0.653262 0.820143 0.326275 -0.890646 1.27819 -0.724139 0.376617 -0.165149 -0.676128 0.997663 -1.14897 0.713937 0.452967 -0.205418 0.268488 0.0848711 0.425444 -0.0286663 0.883381 
0.162991 0.572969 0.139874 -0.212241 -0.696263 0.527971 0.256269 -0.120396 0.217893 0.0972102 0.214768 0.077805 -0.0212271 -0.153803 0.0610873 -0.250667 -1.07102 -0.888981 -0.290015 -0.878394 0.362371 -0.210378 0.637288 -0.709165 -0.531488 0.262263 -0.502719 -0.156968 -1.07426 -0.866318 -0.599743 -0.255209 -0.244991 0.662673 -0.518106 -0.821777 0.902844 -0.709472 0.229037 -0.0229773 -0.423818 0.14037 0.0166298 -0.64002 0.319599 -0.359877 -0.342576 0.210395 -0.388942 0.00605015 0.338536 -0.493847 0.186962 0.851351 0.0322011 0.291477 0.261868 -0.551794 0.0866155 0.49225 -0.0714757 -0.437516 -0.875339 1.01844 -0.192931 -0.432461 0.0339295 0.182208 0.0130168 0.00526523 0.512343 0.879043 -0.344538 0.587664 -0.0396106 0.298911 -0.151213 0.318663 -0.857267 0.312783 0.298248 0.311258 0.629453 -0.44362 -0.728783 0.166035 -0.340162 -0.0709 -0.097705 -0.740273 -0.661101 -0.197503 0.59123 -0.369108 -1.09008 -0.776214 
0.591898 0.432721 -0.633475 -0.235755 -0.167675 0.296794 -0.394199 0.370267 0.492962 -0.0620438 -0.616063 -0.0645992 -0.781347 -0.827596 -0.0884007 0.270568 -0.0930719 -0.0515359 -0.20545 -0.562477 0.589404 0.415754 0.0629251 -0.758851 0.258986 0.678395 0.0201409 0.287996 -0.560523 0.0581283 0.263451 0.185021 -0.105949 -0.883465 0.0494836 0.04024 -0.141403 0.136756 0.812869 0.170744 -0.593578 -0.646336 -0.639479 0.31635 -0.0721887 0.776325 -0.0215254 -0.225824 0.377068 0.0686143 0.904483 0.233013 0.372256 -1.1061 -0.725217 -1.01681 -0.594448 -0.628647 -0.242842 -0.514102 0.852553 -0.195609 0.682796 -0.587352 -0.0904346 1.56117 1.00848 -1.13919 -0.529474 0.0141985 0.543669 -0.509531 1.05411 0.852712 0.585401 0.750813 0.558872 -0.0457947 0.191008 0.229113 -0.376843 -0.261122 0.0348989 0.584321 -0.29822 0.261265 -0.356202 -0.194132 -0.208178 0.0888705 -0.00888577 -0.127696 -0.287219 -0.355171 0.465469 -0.714073 
0.36652 0.457476 -0.22997 -0.0755216 0.256434 -0.17799 0.263885 -1.18864 0.0335416 -0.160183 0.31467 -0.261358 0.348291 0.21796 -1.31116 0.012698 -0.933981 0.075953 -0.175802 0.486859 -0.0288448 0.133201 0.918175 0.0830138 0.14825 0.423907 -1.4622 -0.531118 -0.776471 -0.00378455 1.0467 -0.969399 0.620827 -0.0341754 -0.303844 -0.294591 -0.115414 0.0150797 -0.771236 -0.456542 -1.5471 -0.195291 1.38259 -0.187148 0.100942 -0.185617 0.426832 -0.656418 -0.166595 0.379058 0.189837 0.956667 -0.10014 -0.367336 0.244797 -0.00627723 0.593692 -0.399195 -1.10162 0.232538 0.876293 -0.564497 -0.0482506 0.0485452 -0.305611 0.237376 -0.86935 -0.509738 0.434852 -0.755785 0.0668528 0.287811 -0.922623 0.105547 -0.866099 0.291359 -0.785131 -0.70166 -0.0406007 -0.244796 -0.317101 1.28758 -0.769649 -0.547818 -0.597586 0.409803 0.648954 1.10733 0.584483 0.308649 0.906624 0.771694 -0.922801 0.436316 0.697678 0.293374 
-0.175927 0.118484 0.261336 -0.648699 -0.388806 0.219862 -0.372104 -0.312313 -0.868823 0.266039 -0.370591 0.747968 -0.184782 -0.291149 0.256954 0.793343 0.732984 0.704206 0.629484 0.888711 -0.985064 -0.452053 -0.676956 0.318866 -0.21625 -0.686884 0.407829 0.119738 0.797632 0.120394 -0.903181 0.135533 0.149989 0.411074 -0.00611037 -0.120108 -0.297423 0.517528 0.283895 0.0993762 0.508093 -0.615401 -0.244319 0.0566766 0.164706 -0.448483 -0.0958413 0.833054 -0.398241 1.3133 -0.217841 -0.282775 -0.151738 0.0985395 -0.334791 -0.18826 -0.0193769 -0.452228 -0.0293305 1.63418 -0.989861 0.346238 -0.621863 -0.32602 0.933601 -0.075114 -0.855397 0.604516 0.430739 -1.17542 0.592669 -0.482228 0.53508 0.645756 0.637102 -0.805635 -0.256925 0.400421 0.387755 -0.820445 0.403758 -0.244791 0.625007 -0.909608 0.144327 -0.824862 -0.0610189 -0.42258 0.121116 -0.238599 0.269788 -1.52775 0.530739 0.26857 -0.542963 -0.0241449 
-0.770345 -0.0126004 0.510005 0.0787978 0.221496 1.17059 -0.67764 0.0616401 0.666832 0.289034 -1.67828 0.448679 -0.644584 -0.662658 0.682468 0.342405 -0.0125836 0.100648 0.354308 -0.0456039 -0.240545 0.603223 0.280374 -0.132004 -0.963472 0.148854 1.14977 -0.718025 0.241715 -0.58187 -0.99908 1.32753 -0.737879 0.763333 -0.164543 0.757467 1.05317 0.21586 0.430437 0.268095 0.370939 -0.178385 -0.527215 0.0601822 -0.0571639 0.142812 0.0640416 0.679839 -0.256408 -0.10323 -0.200844 -0.829137 1.1067 0.191577 0.243196 0.563631 0.240327 0.341387 0.304355 -0.531661 0.159009 -0.157212 -0.368135 0.0990089 -0.316658 -0.271449 0.557782 -0.272009 0.0229048 -0.15892 0.18622 -0.104089 -0.183003 1.53082 0.313216 0.323864 0.27618 -0.828954 0.492094 0.238657 0.677203 -0.148042 -0.649999 -0.358104 0.548823 0.560245 0.759 0.242703 -0.289608 -1.20539 -0.448818 0.0553694 -0.792925 0.40327 0.691115 0.695104 
-0.478974 0.719997 -0.646137 -0.224338 0.0823424 -0.469489 -0.258014 0.925524 0.496651 0.633462 -0.40492 0.0785599 -0.592678 -0.630341 0.407488 0.740626 0.464707 -1.12899 0.390362 0.155025 -0.428221 -0.020853 -0.776658 -0.610437 0.460246 -0.250847 0.343385 -0.385721 -0.416275 0.104277 -0.287262 0.046926 0.0834742 0.460302 -1.65235 0.209171 0.492481 -0.684635 -0.523816 0.321471 -0.343899 0.221964 0.187327 -0.0564683 -0.0744137 -0.449716 0.342748 0.210193 0.427765 -0.341623 0.0504015 -0.123597 -0.551305 0.0164137 -0.217376 0.305311 0.255746 0.281268 0.766249 0.174971 -0.739027 0.895633 -0.403533 0.378612 0.993041 -0.356008 -0.128915 0.164648 0.365076 1.01921 -0.0884766 0.150832 0.267907 -0.389561 -1.10135 0.0371966 0.850687 -0.888407 -0.53919 0.121672 -0.156 -0.186669 -0.940263 0.511862 0.749587 0.334294 0.0218915 -0.474836 -0.907475 -0.207066 0.297112 0.913485 -0.249308 0.233823 -0.155415 -0.321647 
-0.431806 -0.140022 -0.471039 -0.398601 -1.30982 -0.70298 -0.707201 0.086967 -0.116799 -0.607508 0.421964 0.26714 -1.02891 -0.464797 -0.289067 -0.317162 -0.523205 1.06015 -0.651651 0.0113419 -0.242473 0.835702 -0.0643703 -0.345618 -0.457677 -0.862063 0.241723 0.310087 0.838826 0.239252 -0.08049 0.320794 0.644089 -0.211019 0.130335 -0.572839 -0.730671 0.0537962 -0.587465 0.21741 0.0645589 -0.381485 0.348464 0.295239 -0.558205 -0.620752 0.190679 -0.630322 0.101772 -0.0950991 -0.687621 -0.131201 -0.0729344 0.094077 -0.472801 -0.465307 -0.315323 0.55066 -0.507771 -0.241845 0.664861 0.170584 -0.0628335 0.457963 -0.407524 -0.576577 -0.115241 -0.906138 -0.914585 -0.509218 -0.5325 0.874195 -0.218728 -0.292793 0.563522 -0.960957 -0.345733 0.496634 -0.42999 0.200831 0.20425 0.616174 -0.55967 -0.685996 -0.357846 -0.891477 -0.115457 -0.200188 0.503463 -0.383697 -0.592919 0.240997 -0.695903 0.440325 -0.511254 -0.849352 
-0.0650145 0.751618 1.18274 0.0152592 1.46249 -0.576787 -0.558583 0.345484 -0.0909612 -0.0137108 -0.131262 0.069592 1.21433 -0.533002 0.326268 -0.43436 -0.243789 -0.0651594 -0.468887 0.264603 -0.0357149 -0.128906 -0.534142 -0.096581 -0.609961 0.710362 0.742081 -0.63769 -0.58685 0.216544 -0.0341646 -0.233257 0.246748 -0.745481 0.0908005 0.052099 -0.0201975 -0.126432 0.28072 0.301899 -0.367907 0.347625 0.225805 -1.25982 0.709596 0.699835 -0.684192 0.111195 0.365763 0.570725 -0.203377 -0.76305 0.571236 -1.21531 -0.83324 0.0676494 -0.145325 0.387753 0.578286 0.599275 0.173127 -0.881154 0.21855 -0.691867 -0.988107 0.0186154 -0.364706 -1.10182 0.25838 -0.212318 0.230592 0.591956 -0.446864 -0.0811412 0.00158949 1.09573 0.288284 0.302573 -0.66993 -0.75868 -0.298335 -0.249515 -0.300892 0.267437 0.15613 0.183309 0.556503 -0.222294 1.28463 -0.160848 0.131296 -0.240671 0.494687 0.407558 0.0744207 -0.115041 
0.513587 0.463786 1.00312 -0.236461 0.35851 -0.503937 0.336045 -0.510674 -0.00992443 -0.654823 0.735169 -0.488132 -0.455913 0.440919 0.657497 0.115777 -1.01128 1.08719 -0.207383 0.160072 0.320937 0.817258 0.913907 0.0935614 -0.546436 -0.27686 0.222859 -0.316981 0.27017 0.305195 0.0750171 -0.387608 -0.0130326 -0.214691 0.480475 -1.03058 -0.0577974 -0.107445 -0.32155 0.456961 0.1918 -0.107927 0.0454345 -0.150395 -0.193352 0.361023 0.0672425 -0.462346 0.493813 0.310276 -0.820695 0.612721 -0.344396 -0.296871 -0.130128 -0.399517 -0.381545 0.157568 -1.10393 -0.395579 -0.406878 -0.572283 -0.564978 -0.920613 -0.30957 0.0602208 -0.0128153 -0.549426 -0.506736 -0.322519 -0.345851 -0.646904 0.0114085 -0.433499 -0.0359714 -0.679777 -0.134915 1.00544 -0.936308 0.480086 0.480094 0.0630977 0.406753 -0.575884 -0.173947 -0.123831 -0.811845 0.66573 -0.337684 -0.830575 -0.410066 -0.361777 -0.162445 -0.112788 -0.00210873 0.238155 
-0.501015 -0.0148924 -0.548432 1.46239 -0.355252 0.769945 -0.289567 -0.0553244 0.186038 0.577305 0.471378 0.0780286 0.482574 0.595933 0.211252 0.300641 -0.228429 -0.021321 -0.362854 -0.847449 -0.217193 -0.635681 -0.143306 -0.195448 -0.935208 -0.117786 0.0596639 -0.57368 0.726366 1.25712 0.51414 -0.152197 0.428245 0.754353 -0.391363 0.623459 -0.540678 0.646541 -1.04636 0.571226 -0.272253 -1.06299 -0.498635 -0.367064 -0.00413702 0.283253 -0.522231 -0.461718 -0.706094 0.851557 1.71706 -0.360596 0.0646626 0.278254 -0.17965 0.255892 0.340778 0.545829 0.958367 0.704421 -0.270172 0.0438889 -0.163515 -0.343889 -0.382549 -0.602202 0.243464 -0.224633 1.03211 -0.310459 -0.129465 -1.20913 0.225151 -0.35631 0.603729 -0.456838 0.563088 0.312602 0.16828 0.690258 -0.695445 0.804268 -0.0522711 -0.460433 0.251265 -0.00255046 0.29444 -0.61533 -0.511702 0.750626 -0.928882 -0.374 0.380287 0.0407949 -0.452313 -1.22511 
0.109767 -0.352292 0.0473209 0.547394 0.206345 -0.549285 -0.0780866 0.462251 0.281311 -0.349103 -0.178892 -0.767368 0.40587 0.10896 0.641595 0.0309248 0.33337 0.00803899 0.51315 -0.727129 -0.511464 -0.989775 -0.323729 -0.687511 1.07884 -0.0161004 -0.222879 -0.979987 -0.707968 0.510398 0.166378 0.0529387 -0.359845 -0.413686 -0.678145 -0.580478 -0.32244 0.158502 0.524737 0.400095 -0.698152 -0.126155 0.356331 -0.436472 0.553375 0.614559 0.525062 -0.101176 0.0826836 1.14998 0.1795 -0.363574 -0.184818 0.249185 -0.81531 -1.44889 0.458199 0.680509 0.312821 1.50637 -0.020059 -0.615744 0.000207994 0.733587 0.448887 0.18379 0.182962 -0.270312 1.012 -0.486501 -0.732917 0.464747 -0.494439 -0.16585 -0.000635205 -0.805647 0.121858 0.41178 -0.889101 -0.372969 0.548146 -0.677407 -0.34026 -0.669301 -1.11672 -0.231651 0.278563 0.339759 0.760018 0.985766 -0.225495 0.487836 1.02291 -0.411707 0.338365 -0.371842 
-0.236594 -0.309661 0.0541281 -0.435679 0.385221 0.137427 0.691649 0.472119 0.622142 0.100016 0.912812 -0.134453 0.160742 0.490687 -0.397915 -0.442503 0.869573 -0.292974 0.3341 -0.849565 -0.0142308 -0.61022 -0.13846 0.0571529 0.741539 -1.16627 0.249051 -0.85166 -0.444377 -0.698777 -0.187139 0.524962 0.0283987 0.235263 -1.04999 -0.37743 0.215672 -0.211633 -0.137458 -0.0479503 0.133646 -0.241717 0.155709 0.439104 -0.67878 0.106878 0.216511 0.388369 -0.911585 -0.418349 -0.391694 0.124292 0.552004 -1.16804 -0.468571 0.415817 0.427351 0.655591 0.0588446 0.496137 0.321624 0.137788 0.745315 0.440762 0.448613 0.794604 0.754337 -0.257433 -0.992568 0.52546 -0.772659 -0.836129 -0.235138 -0.0855636 0.586764 0.445084 -0.48885 -0.338992 -0.902379 0.0841306 0.0147156 0.348166 -0.355991 0.335362 1.33372 0.320886 0.00278066 0.868511 0.399655 1.01071 0.675596 -0.0597961 0.740367 0.321663 -0.450255 0.254615 
-0.970026 -0.170254 0.369412 -0.316524 0.10481 -0.0387229 0.56729 0.291627 0.0281911 -0.034583 0.763787 0.144489 1.06263 0.0460866 -0.326721 -0.809041 -0.712994 -0.196116 -0.544993 -1.15549 -0.33209 -0.402723 -0.625767 0.383304 0.35339 0.0799594 0.680332 -1.69302 -1.07008 -0.349009 -0.111226 0.548754 0.0649861 -0.271912 -0.837002 -0.300295 -0.631999 -1.36668 -0.160711 -0.197432 -0.264009 -0.966639 0.4024 -0.418419 0.760885 0.290977 0.168403 -0.592726 -0.00953803 0.209085 0.398558 -0.269316 -0.777104 0.422289 -0.617653 0.358023 1.11866 0.327922 -0.0794772 -0.453432 -0.091708 -0.37692 1.43304 -0.527358 0.330442 -0.315351 0.980412 -0.35621 -0.243687 -0.427944 0.0554967 -0.767461 -0.229201 -0.594834 0.981805 -0.322201 0.357835 -0.634079 0.689721 -0.536802 0.937676 0.589661 -0.327941 0.250966 0.111684 -0.886165 0.151993 -0.00859656 -0.0772393 0.730238 0.249061 0.318728 0.453728 0.725226 -0.532911 -0.235232 
-0.363518 1.52519 -0.779896 -0.22016 0.0756956 1.10707 0.118064 -0.411181 -0.0524742 0.107617 -0.37787 -0.659734 1.11604 -0.224186 -0.789009 0.208774 0.535641 0.757012 -0.508164 0.99173 0.719617 1.11973 0.689623 -0.669566 -0.353895 -0.114371 0.0252743 -1.12808 -0.283667 -0.273223 0.555154 -0.357409 -0.668182 0.224351 0.722016 0.00782641 0.149316 0.250421 -0.12485 0.0400041 -0.568217 0.450698 -0.595939 0.244471 0.855913 1.21322 0.108143 -0.38665 0.784219 -0.0228757 -0.395622 0.525525 -0.0216003 0.212275 0.575816 -0.00789611 -0.124387 0.171673 -0.160248 0.587325 0.294473 0.186905 0.163599 0.387988 -0.209162 -0.0975446 -0.263029 -1.60775 0.616649 -0.086495 -0.995709 -0.125989 0.719002 -0.388429 -0.528354 -0.277672 -0.448569 -0.0328928 -0.101284 -0.184538 -0.227554 -0.281668 -0.358457 0.323145 -0.100408 0.0922464 0.0306552 0.803192 -0.0384482 0.296189 0.500436 0.176009 0.73024 0.966836 0.77587 0.811877 
-0.602265 0.891536 -0.389506 0.132077 -0.381971 -0.0966801 0.817313 1.06118 0.644469 -0.379768 -0.216326 1.08871 0.882108 -0.670716 -0.347309 0.381376 0.0705935 -0.514857 -0.919408 0.197136 -0.596209 0.480593 0.960175 0.43613 0.870815 -0.0294317 0.0712492 -0.186079 1.37139 0.298941 -0.0996292 -0.198354 -0.0562459 -1.27731 0.880605 1.21676 0.617114 -0.0616337 1.02762 -0.0776913 -0.335075 0.312171 0.0232934 0.846818 -0.213878 -0.0199198 0.484466 -0.0316775 -0.209686 -0.0202946 -0.00471616 -0.0432383 0.154941 0.722599 -0.500208 -0.204344 0.375741 -1.12105 -0.191787 -0.199261 -0.623407 -1.03345 -0.346027 -0.248808 0.447163 -0.16639 0.656796 -0.542454 0.287919 0.313304 -0.038159 0.15097 -0.526507 -1.2391 -0.54804 -0.149603 -1.18847 0.13492 0.00282345 -1.23263 -0.359442 0.323302 0.53764 0.054437 -0.100889 0.0252913 -0.142081 0.495139 -0.269499 -1.21739 -0.377372 1.16341 -0.913657 0.652322 0.099859 -0.0998639 
-0.254092 0.618765 -0.26211 0.900263 -0.730202 -0.185612 -0.659307 0.441905 0.953475 0.391131 0.236151 0.0247169 0.10729 0.354653 0.930623 0.375406 -0.418962 -0.212321 0.487167 -0.869665 1.49002 -0.90245 -0.708802 -0.51135 -0.128812 -0.412571 0.0766111 -0.0477544 0.0785228 -0.259572 -0.191421 -0.0687987 0.244252 0.632441 0.331611 0.228664 -0.673157 0.252437 1.09556 -0.807664 -1.03764 0.34389 0.340761 0.186315 -0.115958 0.86486 0.1424 -0.00741933 -0.260793 0.578636 0.303183 1.1341 0.295 -0.919629 -0.499973 -0.0169434 -0.291749 -0.168832 0.379135 0.638647 0.845157 -0.364803 0.61085 -0.304772 -0.631166 0.0968837 0.834974 -0.650066 -0.743662 -0.0460203 -0.188319 -0.787171 -0.227207 -0.417808 -0.443102 -0.18905 0.97428 -0.198953 0.259091 -0.112176 0.0644317 -0.165631 -0.407598 -0.106261 0.755131 0.131515 -0.173309 0.551253 -0.741911 -0.361828 0.427714 -0.40339 1.03592 -0.352955 -0.544715 -0.288306 
0.163563 -0.0766454 -0.27788 0.537135 0.244837 -0.213041 -0.0621273 -0.757508 -0.128162 0.33719 -0.388112 -0.543815 -0.246972 -0.330781 0.663549 -0.362276 -0.673176 -0.186662 0.51958 0.702187 -0.0699703 0.196847 0.353269 -1.00731 1.09499 -0.0593154 0.680671 -0.54267 0.279683 0.401521 -0.988191 0.00692932 0.492005 0.25374 -0.584703 -0.360012 0.0912823 -0.421694 -0.632644 0.350241 0.183674 0.48676 -0.773643 -0.375205 0.021124 0.171138 -0.177104 0.570724 0.258023 0.801023 0.113242 -0.855587 0.491165 0.0992167 0.228272 -0.393955 0.697505 -0.364739 1.13248 1.04919 -0.157737 -0.732346 -0.545274 -0.334584 -0.170734 -1.34302 -0.781213 -0.228216 -0.624208 -0.370236 0.453755 -0.267568 0.444329 -0.155133 0.334173 -0.609451 0.500628 0.132697 0.308887 0.510186 -0.0797651 0.731508 -0.533183 -0.265137 -0.0265747 -0.680072 -0.425349 -0.210362 1.05908 -0.903835 -0.819535 -0.669834 -0.171941 -1.18815 -0.680054 -0.119722 
0.277548 -0.514287 -0.144569 0.667163 0.970548 0.330279 0.537362 0.883 0.150978 0.0526126 -0.980689 -0.240024 0.474918 -0.730157 -0.0536868 -0.17389 0.528987 -0.172556 -0.71276 -0.414195 0.145062 0.209692 0.272394 0.193119 0.0260982 0.896975 -0.329154 -0.39874 0.79759 0.52676 0.413791 -1.06199 0.266436 0.8342 1.36096 -0.530924 -0.323171 -0.305333 -0.882746 0.0741504 0.0951708 0.197657 -0.422853 -0.0745312 0.249552 -0.183869 -0.217026 -0.0511894 -0.126982 -0.628099 -0.308261 -0.208091 -0.751615 -0.238672 0.134638 0.478266 0.952967 1.53865 0.391454 -0.81786 -0.356966 0.106108 1.23977 -0.995047 0.105701 0.027011 -0.506606 0.0934695 -0.496096 0.162775 0.194926 0.0325596 -0.569829 -0.0899645 0.155038 -1.03261 0.337437 -0.231458 0.0255828 -0.754434 0.0420437 0.430805 -0.849159 -0.469864 -0.219075 0.00472641 -0.400406 0.571928 -0.237794 0.157037 -0.153564 1.19742 0.376062 -1.29516 0.395662 0.0778846 
-0.0154725 -0.45571 0.64307 0.235155 0.0589752 -0.247526 0.549519 -1.10927 0.27622 0.49111 -0.684349 -0.00281143 -0.234332 -0.503457 -0.560528 -0.0240754 -0.843827 0.450036 -0.0705044 -0.357013 -0.301548 -0.524804 0.683931 0.0815324 -0.111613 -0.200008 0.0963589 0.136949 -0.21296 -0.33095 0.108631 0.0259394 -1.02552 0.331323 -0.014323 0.213314 0.91198 0.391021 -0.946321 -0.901394 -0.0723482 0.257047 -0.0593653 0.610992 -0.618384 -0.471633 0.375288 0.451443 0.0656637 0.234764 1.02067 -0.727683 -0.243672 0.30132 0.288219 -0.182121 -0.168553 -0.260048 0.659755 0.30019 -0.549172 -0.364976 0.100815 0.276431 0.545131 -0.0502393 -0.366235 0.0201896 0.365792 -0.430181 -0.157058 -0.778363 0.0499344 -0.227324 0.0787065 -0.106014 -1.13155 0.436826 0.480456 -0.113238 0.0609544 0.868096 0.0370027 0.965715 0.575066 0.322903 0.277795 -0.00411821 0.498045 -0.300305 -0.491881 1.1321 -0.298804 -0.186715 -0.780142 -0.678123 
-0.6553 1.34637 -0.607319 0.449473 -0.726809 0.784207 -0.0833105 0.499712 0.222867 0.0989677 -0.116706 0.0579278 -0.431005 0.0673358 1.42362 0.708159 -0.139884 -0.258425 -0.59908 1.21105 0.516485 -0.207686 0.42742 0.690628 -1.11365 -0.631317 -0.121351 0.331042 0.492853 0.0836701 0.192491 -0.757855 -0.622195 0.132445 -0.665656 -0.606202 0.746692 0.220249 0.68911 0.0159121 0.414597 0.216033 0.414477 -0.148636 -0.273115 0.456865 -0.235104 0.0587761 -0.17844 -0.0597535 0.861583 -0.170511 0.244695 -0.19585 0.303493 0.561323 -0.101943 0.315263 0.847093 -0.212262 0.100529 -0.390648 -0.353874 -0.924044 -0.495375 0.171669 0.526808 0.167324 0.179521 0.291241 -0.0027838 0.137443 1.00942 0.00251892 -0.729926 0.325236 -0.00902083 -0.0157227 -0.280995 -0.200931 0.75011 -1.16145 -0.572981 0.0797878 -0.246137 -0.601415 -0.285721 -0.409852 0.488923 -0.191173 -0.00575515 -0.343789 -0.483432 0.361166 -0.605579 -0.110198 
0.0991936 -0.275225 -0.332738 1.2359 0.323088 -0.302569 -0.699627 -0.387981 0.212684 0.644105 -1.11843 1.27262 -1.24098 -0.393873 -0.13172 -1.0056 -0.231002 0.669924 0.0801887 -0.0842009 -0.0885129 0.669851 0.148282 -0.823534 0.228736 -0.0143181 -0.157938 0.698321 -0.522455 0.342349 -0.729567 -0.56524 -0.323999 -0.0260443 0.183572 0.0906242 0.340731 0.462319 0.141148 -0.218721 0.268746 -0.386837 -0.726999 0.435047 -0.657252 -0.111626 0.568371 -0.0476806 0.696621 0.442951 -0.759228 0.677199 0.294195 0.137171 -0.390265 -0.343803 0.111638 -0.237502 0.227312 0.365585 -1.29599 0.0844049 -0.0380406 0.177419 0.0760056 0.539114 -0.0708786 0.550333 0.94957 0.57046 0.029339 -0.291275 -0.253182 0.805488 -0.217889 0.484706 0.281899 -0.25469 -0.139019 -0.147913 0.750739 0.002589 -0.383881 0.00607557 -0.0513704 -0.459189 -0.7278 1.02458 0.0905505 0.569852 -0.465779 0.157432 -0.00770727 0.15083 -0.418375 -0.755862 
-0.549121 0.283106 0.321785 1.07451 -0.610884 -0.472671 0.0270135 -0.247161 0.574651 -0.563978 -0.69597 -1.69697 0.0277952 0.167957 0.800593 -0.419624 -0.091027 0.490095 -0.953573 -0.621147 -0.0634234 0.505273 0.582126 0.469843 0.206327 0.0462783 -0.842543 -0.118006 -0.129145 0.480175 0.12301 -0.519097 -0.200235 0.260959 1.30867 0.622726 1.08992 -0.19471 -0.463087 0.163367 -1.18767 -0.563745 -0.98013 -0.494474 -0.262346 0.212767 0.873401 -0.408875 -0.497609 0.381848 -0.597107 -1.0332 -0.672598 0.526884 -0.248485 0.514557 0.324043 -0.401503 -0.644725 0.288996 0.1015 0.671585 0.761249 -0.776406 -0.162702 0.882621 -0.239523 0.474808 0.530289 -0.0432279 0.478697 0.116449 -0.246646 -0.592119 0.813457 0.522081 -0.73572 0.770291 0.69524 0.195745 -0.130525 -0.384659 -0.0248888 0.0314061 -0.474596 0.809528 -0.128402 0.221022 0.0189574 0.210885 -0.449506 0.261876 -0.400999 -0.483012 0.175099 -0.567807 
0.127303 -0.479164 0.219134 0.765526 0.0170275 -0.178518 0.353069 0.46728 0.663127 -0.460379 0.0840555 -0.575386 0.611882 -0.569129 -0.0634051 0.0133885 -0.827343 -0.149233 0.688835 -1.00282 -0.215274 0.263498 0.0696342 1.15579 -0.616591 -0.425452 -0.760904 -0.393726 -0.241667 -0.013864 0.161956 -0.945808 0.18824 0.354535 0.8967 0.876579 0.330326 -0.016283 0.895082 0.183687 -1.59103 -0.309126 1.0347 0.18949 0.333807 -0.00305189 0.509722 0.911069 -0.491072 0.843943 0.329691 -0.979668 0.751521 -0.196148 0.494304 0.278806 0.532742 -0.17251 0.984882 0.00573118 0.626464 -0.945796 -0.214492 -0.0415583 0.844135 -0.0169696 -0.265799 -0.285103 -0.393582 -0.512223 0.461414 -0.0004865 0.210147 0.120202 -0.0416774 0.470936 0.0131981 1.44003 0.153418 -0.460338 0.578041 -0.123169 -1.24286 -0.32921 -0.354773 0.799267 0.385025 -0.255828 0.71353 0.154048 -0.829053 -0.155102 -0.13363 -0.587281 -0.347208 -0.19457 
0.436388 0.706504 0.628412 0.469461 -1.12914 -0.251458 -0.746664 0.402562 1.03724 -0.106149 0.0549707 0.730662 -0.288069 0.0593526 -0.566611 0.393577 0.160636 -0.899377 -0.119379 0.651671 0.410807 -0.26555 0.0805976 -0.291469 -0.54506 -0.88997 -0.0590868 0.160121 1.26302 0.612364 -1.26284 -0.176612 0.0730621 0.165836 -0.0193756 1.40891 0.592688 0.152405 0.0977378 -0.344505 1.2551 -0.366387 -0.161727 -0.297619 -0.0570268 0.0417032 0.232859 -0.232354 -1.09423 0.406915 -1.0308 -0.480211 0.0320744 0.27647 0.412778 -0.653127 0.429405 -0.781133 -0.548828 0.03879 0.935612 0.354714 -0.480059 0.357004 0.0552161 0.141145 0.137137 -0.432986 0.138085 -0.277274 -0.371507 -0.776567 -0.108297 0.132455 0.257467 0.445418 -0.44389 0.851967 -0.235495 1.09986 0.610931 0.142987 -0.844808 -0.174247 -0.179543 0.0617182 0.992571 -0.531807 -0.124719 0.607604 -0.676299 0.25308 -0.170248 0.916653 -0.688043 -0.59478 
0.752614 -0.49802 0.195557 -0.812262 0.633266 0.40631 -0.271579 0.246612 0.179436 -0.53188 -0.498223 -0.0196689 0.200541 -0.361222 -0.403799 0.789252 0.713392 0.881587 1.41179 0.71856 0.768685 0.0660918 -0.527626 -0.0431171 -0.267615 0.104501 0.503508 0.350922 0.173602 0.0452682 -0.874469 0.129312 -0.00191635 -0.165274 -0.647147 0.536023 0.0528907 0.342652 -0.0851668 -0.897387 -0.14197 -0.0629185 -0.324507 -0.611671 -0.176561 0.144842 0.0291964 -0.28477 0.426124 -0.137742 -0.470434 0.308699 0.651555 0.449671 0.830639 0.258298 -0.993734 -0.408062 -0.21043 -0.0183753 0.103068 0.227558 0.740901 0.17422 0.373083 -0.546576 -0.549081 -0.780277 0.852922 -0.366493 -0.230088 0.283678 -0.815217 -0.879836 -0.918945 -0.435582 -0.403557 0.12457 -1.6493 -0.388428 0.69927 0.31999 0.687643 0.444382 0.479502 0.0732147 0.927185 -0.0317181 -0.0127161 -1.18903 -0.000792088 -0.344347 0.546414 0.446999 0.440015 0.0997331 
0.402377 -0.802836 0.417074 -0.39689 0.554741 -0.754491 -0.286062 -0.445642 -0.283838 -0.49781 0.274187 -0.330367 0.316485 0.0128185 0.152856 0.0730052 -0.525444 -0.593878 0.501907 0.92185 0.167446 0.629978 0.949418 0.39287 -0.15592 1.19694 -0.642508 -0.411865 -0.520915 -0.603877 -0.601581 0.863664 -0.182305 0.264561 0.557556 -0.148199 -0.474489 0.0210401 0.111144 0.139268 0.353379 -0.364434 -0.693119 -0.804737 0.235133 -0.495353 0.558644 0.378068 0.3494 0.289157 -0.373105 -0.228897 1.28004 -0.981585 0.615975 -0.530772 0.259952 0.0832083 -0.251212 -0.129595 0.0561882 0.754109 -0.0103643 -0.481376 0.954692 -0.293299 -0.267159 -0.868173 -0.440987 -1.23224 -0.176094 0.768801 -0.596214 -0.1717 -0.306706 -0.070089 0.0152658 0.0969053 0.206891 0.338369 -0.224945 -0.189606 -0.501613 0.520889 0.566382 -0.466433 1.22224 0.586571 -0.841538 0.150336 0.0331936 1.07628 0.822866 0.330305 0.193781 -0.233224 
0.215055 0.265309 -0.861254 -0.0378015 0.220177 -0.404854 -0.122924 -0.108215 1.03488 0.0375637 0.944382 -0.89389 -0.815078 0.399612 -0.27205 0.293464 0.393547 0.218135 0.512642 -0.252451 0.686273 0.230742 -0.116761 0.912882 0.289859 -0.0581398 0.0480085 0.311829 0.112221 -0.644811 0.296743 1.34365 -0.000133722 -0.371162 1.05267 -0.297054 0.289519 -0.641995 -0.513989 -0.173342 0.32014 -0.279215 -0.158895 0.143799 0.0582447 0.276277 1.32936 -0.196636 0.643744 0.544006 0.0759807 -0.0451356 0.320806 -0.160053 -0.464736 0.885696 -0.184284 0.528596 0.243277 0.215213 -0.371454 -0.572957 -0.0238614 0.809939 0.268283 -0.555153 -0.0696662 -0.392632 1.09951 0.49466 0.782207 0.501822 -0.0234089 -0.471512 -0.4014 -0.153383 0.203985 -0.287994 0.124302 -0.186313 0.721683 -0.343024 -0.307339 -0.834706 0.371784 0.506671 0.328527 0.449067 -0.903216 -0.562258 -0.702525 0.369276 1.43612 0.62 0.279212 -1.04116 
0.555644 -0.0246289 0.431208 0.29709 0.960045 -0.265555 -0.570356 -0.372742 -1.17623 0.420247 -0.879027 1.10981 0.311958 -1.08342 0.640419 0.0336449 -0.0499374 -0.051295 -0.680681 0.495266 -1.03418 0.228837 0.0879112 -1.04053 -0.298507 -0.214625 -0.518754 -0.966014 0.25248 0.624071 -1.84917 -0.562811 -1.14928 0.419733 -0.851593 -0.487602 0.372729 -0.450357 0.50306 0.0646267 -0.232821 0.722394 -0.887497 0.0856217 -0.219806 0.712309 -0.342069 -0.552045 0.0539169 -1.04373 1.37101 0.525937 -0.418409 -0.241431 0.117628 -0.934424 0.78314 0.872307 0.397152 -0.146665 0.817733 -0.443534 1.68396 -0.16698 0.166496 -0.740263 -0.578318 0.886244 1.27938 0.281441 0.554722 -0.828418 -0.0912396 -0.291551 0.231557 -0.499737 -0.43358 0.203818 0.147083 -0.544226 0.427267 0.109184 -0.984595 1.24775 0.294869 0.352106 0.158012 0.725589 0.280447 0.789993 0.486151 -1.30981 -0.495757 0.298357 -0.503111 -0.793334 
0.516416 -0.359721 0.314178 1.13752 0.500838 -0.0294981 -0.0995239 -0.298853 0.0870537 -0.754116 0.772871 -0.380034 0.610645 -0.233329 -0.349529 0.509929 -1.0403 0.686523 0.82267 0.489824 0.527871 0.667567 0.609119 0.535661 1.08584 -0.0464347 -0.647564 0.112858 0.155155 -1.16004 -0.84175 0.43729 0.39355 -0.546147 -0.311025 0.496726 -0.0302344 0.278332 -0.567098 -0.348578 0.0490819 0.126826 -0.187917 0.104122 0.568461 -0.146177 -1.91988 1.57395 -1.0185 0.107777 -0.857939 -0.423798 -0.0734721 0.141319 -0.17433 0.851434 0.135517 -0.149856 0.386892 0.333125 -0.589725 -1.32002 -0.246572 -0.0406725 0.643316 -0.373989 0.493038 -0.146036 0.0763971 0.394497 -0.36304 0.0831838 0.286653 -0.155601 0.223552 -0.525749 -0.500268 0.358525 0.0993152 -0.636587 1.06324 -1.08868 0.471648 0.14607 -0.0111207 -1.01434 0.997308 0.0258882 -0.828848 0.445543 0.796647 0.907892 -0.253106 -0.279198 0.242276 0.392838 
0.116174 -0.616642 0.429596 0.295175 -0.018007 -0.278885 -0.0348042 -3.53881e-05 0.582282 0.174226 0.244751 -0.0799429 -1.10394 -0.0348176 -0.649962 -0.596677 0.127732 0.25672 -0.390653 0.0531418 -1.47174 -1.24262 -0.0140474 0.739894 0.241233 0.708173 -0.0186354 -0.0298442 0.338529 -0.168651 0.889139 0.577822 0.357373 0.0562959 0.351642 -0.71631 -0.00775807 -0.183556 -0.694649 -1.38626 -0.0546578 -1.00547 -0.749293 0.260744 -0.0746951 0.0516552 1.15194 -0.00472081 -0.0570184 -0.0596712 -0.0871431 0.0636996 -1.08445 -0.0681181 0.499205 -0.803311 0.488243 -0.911906 -0.466592 -0.365357 0.0954744 -0.268213 -0.293845 0.0773954 0.0802817 -0.0849769 0.569451 -0.330928 -0.646877 -0.788311 -0.110331 -0.391572 0.943715 0.198246 -0.594978 -0.184769 -0.0183792 -1.16146 1.30353 -0.151014 0.226839 -0.217945 -0.214343 -0.970056 0.437653 -0.0920745 0.515778 -0.13397 -1.05922 -0.436167 -0.25429 -0.154351 0.709505 0.415348 0.639582 -0.740669 
-0.14266 0.172339 0.490179 -0.215905 0.535361 -0.52601 -0.526406 -0.195593 0.630387 -0.359024 -0.330996 0.778632 0.052984 0.682348 -0.113371 0.328134 -0.344984 -0.106111 -0.602567 0.0308614 0.687174 0.090146 0.249108 -0.29439 0.27611 0.333118 0.526239 0.285122 -0.361224 -0.349947 0.641617 0.610394 0.211237 -0.388829 -0.0642908 -0.900211 -0.654828 -0.812119 0.0701606 0.106852 -0.632102 -0.0265852 0.412519 -0.100129 0.212843 -0.485611 0.478222 0.114306 -0.250187 0.776359 0.851765 0.015683 -1.11767 -0.00905641 -0.287864 -0.380724 0.224057 -0.570686 0.84377 0.592958 -0.650072 0.0236368 0.29904 -0.0416392 -0.437562 -0.481276 -0.482925 0.246325 0.186108 1.54941 -0.160532 0.196964 -0.0393584 0.272184 0.285466 0.571239 -1.50949 -0.403592 -0.149447 0.0576299 -1.34299 -0.0640237 -0.490965 0.0699901 -0.919523 0.0125696 0.29447 0.215464 0.524808 -0.247761 -0.244652 0.758362 0.227337 0.189576 -0.48816 0.560389 
-0.36198 0.196613 0.432604 -0.469782 -0.847409 0.0711251 -0.0185996 -1.00348 -0.980318 0.212363 -0.483606 -0.0378756 0.702086 -0.0636884 -0.606956 -0.0644349 -0.717264 0.282815 0.269728 0.881842 -0.256111 0.318551 0.45336 -0.641322 -0.264322 -0.0819822 -0.270149 0.286194 -0.916669 -0.339051 -0.345337 -0.647347 0.156507 -0.0417454 0.360706 -0.144223 -0.187891 -0.50985 0.471398 0.150757 -0.90932 -0.414514 -0.738985 0.430072 -0.306305 0.669606 -1.52214 -0.407912 0.770225 0.0743769 0.242866 0.122805 -0.250597 0.229393 0.534186 -0.179954 -0.52266 0.204075 -0.505486 0.0871379 1.25587 -0.641608 0.513894 -0.837109 -0.066258 0.307606 1.05977 0.554346 0.426626 0.514851 1.09605 -0.151788 0.283138 0.451611 -0.861389 -0.560444 0.0740438 -0.472945 -0.516279 -0.263921 0.203613 0.516015 -0.0214742 1.23123 0.259553 -1.23315 -0.020238 -0.792014 1.1587 -0.251464 -0.28578 -1.43843 0.238944 0.510192 -0.0175712 -0.636388 
-0.646178 -0.277507 0.193754 0.0866014 0.550765 0.165788 1.26997 -0.658088 -0.733278 -1.51833 -0.13732 0.115095 0.374351 -1.25837 -0.750997 -0.259304 0.101009 -0.538939 1.02954 -0.0473161 0.963329 0.115331 -0.0617318 -0.0612814 -0.0255979 -0.391892 -0.413025 0.629001 -0.116365 -0.0015118 0.742832 1.2615 0.652105 1.03814 0.192857 0.574198 1.33733 -0.199332 0.304225 -0.336479 -0.388805 -0.000437898 -1.52757 -1.0052 0.0920746 -0.941325 0.505098 -0.199393 0.635476 -0.580709 0.844046 1.01169 -0.190847 -0.863575 0.0726425 -0.361509 0.0228871 0.696023 0.590168 0.811888 -0.280188 0.0180476 -0.20965 -0.549249 -0.398114 0.400477 0.122709 0.324647 -0.0361814 -0.444125 0.927847 -0.762871 -0.417621 0.45694 -0.180347 -1.34809 -1.12395 -1.13452 -0.52361 -0.0521781 -0.588283 0.0876088 -0.558071 -0.642839 0.115495 -0.421198 0.592461 0.411844 0.287699 -0.356297 -0.42402 0.352104 0.151196 0.0659323 -0.229542 -0.000449322 
1.09338 0.380699 0.0274091 0.0853279 0.631423 0.0531628 0.915576 0.220969 -0.169292 -0.532907 -0.535876 1.16385 -0.598813 -0.428324 0.158566 -0.492192 -0.1482 -0.401614 -0.764643 -0.32759 0.740755 -0.621308 0.254493 -0.518505 -0.464654 0.967573 0.958649 -1.23838 -0.196953 0.551066 -0.460912 -0.131225 0.166381 0.363428 0.92553 -0.794431 0.210927 0.0789598 -0.114952 -0.144393 -0.27999 -0.972286 0.485021 0.340585 0.121019 -0.52364 -0.295004 -0.534102 -0.197131 0.251075 -0.244429 -0.0529908 -0.192304 0.0280072 -0.532415 -0.657056 -0.943916 0.737942 -0.0487447 0.241004 -1.12957 0.698614 0.135462 -0.41547 -0.0218684 -0.214159 -0.14206 -0.542142 -0.705328 0.348535 0.840537 -0.970554 1.66957 0.499043 -0.146926 -0.453328 0.176412 0.514491 -0.477321 -0.153776 -0.134014 -0.0777665 0.686848 0.476524 0.344243 -0.316163 0.385973 0.57607 0.633403 -0.481875 0.575033 0.160469 0.287556 0.152391 -0.239595 -0.0346229 
0.282675 -0.740801 -0.805028 0.172089 -1.17213 0.613635 0.434044 0.371953 -0.303912 0.068032 0.187185 0.402304 0.092482 -0.688041 0.082264 0.129656 -0.514373 0.253608 0.325826 -0.974376 -0.468375 0.769562 0.479142 0.373756 0.2876 0.162109 -0.368978 0.0925115 0.208826 0.551556 0.333866 -1.06001 -0.528157 -0.355859 0.233217 0.374569 -0.339453 -0.387088 0.573488 0.263948 -0.474473 -0.066603 0.288684 -0.362338 -1.2219 -1.22049 -0.0446481 0.339536 0.0794613 0.260444 0.123462 -0.242551 -0.0312119 0.554387 0.291925 1.10346 -0.778607 0.0386784 -0.0943233 0.428065 -0.320731 -0.937614 0.0580458 -0.419141 0.485947 -1.00911 0.0364799 0.903656 0.390342 -0.187866 0.0538935 0.170927 0.910389 0.371442 -0.0201745 -0.147857 -0.955906 0.208639 0.249682 -0.305621 -0.289385 0.567196 -0.219242 0.688941 0.399522 0.601904 -0.024108 -0.644994 -0.595389 -0.739055 0.158562 -0.641631 0.103703 0.226906 0.0651221 0.48901 
-0.381962 -0.946307 -0.00806315 -0.21165 -0.308744 0.394543 0.428522 -0.292168 -0.90317 0.717927 -0.142232 0.574437 -0.15578 -1.16782 0.80559 -0.131703 -0.962187 0.0611358 -0.966752 -0.0695945 -0.854714 1.00056 0.194491 0.18357 0.83328 0.114398 0.293531 0.247915 -0.368136 0.0091396 -0.00822113 0.0304469 0.527254 0.51505 0.262979 -0.113175 -0.504745 0.292145 -0.114688 0.196064 0.308992 0.0361175 -0.616345 0.506527 -1.23326 0.533751 0.273417 0.203435 -0.0885226 -0.284003 -0.181697 -0.382952 -0.431084 0.222399 -0.252131 -0.541224 -0.291626 -0.568567 -0.14707 0.789077 -0.990997 0.428203 0.242411 0.315894 -0.553991 0.391577 -0.0820717 -0.770161 0.670557 -0.228021 -0.0673379 0.0221146 -0.376224 -0.405263 -0.495566 0.135778 -0.0316429 0.448039 1.19463 -0.529445 -0.571315 0.414888 -0.0759746 0.872605 0.454235 -0.47292 0.0757517 0.27987 -0.049086 0.73433 -0.0132643 -0.672196 -0.332001 0.274417 0.331344 0.0903894 
-0.137489 -0.852479 -0.0314037 -0.168663 0.541023 -0.875532 -0.770794 0.654461 0.178742 -0.79997 0.398086 0.531631 -0.359685 0.3349 0.118748 -0.242481 0.288415 -0.863309 -0.836619 -0.43045 0.13239 0.425603 -0.308948 -1.15767 0.322187 -0.366225 0.186545 -0.0210906 -0.938737 0.585595 0.288591 0.122633 -0.544684 0.936921 0.119161 -0.272965 0.0419214 -0.976327 -0.636307 -0.0606864 -0.286279 -0.471413 0.380897 0.157525 -0.508606 -1.11169 -0.985592 0.128234 0.422791 -0.0718299 -0.825264 0.645016 -0.722574 0.0597863 -0.38731 0.203068 0.470084 0.603083 -1.32805 0.137791 0.259981 0.587232 -0.220327 -0.649942 0.0490315 -0.618101 -0.639544 0.545583 -0.910129 -0.356494 0.0451428 -0.16556 0.103753 0.0296809 -0.824346 -0.68042 -0.0479477 0.173407 0.578059 -0.380204 0.238267 -0.159582 1.04251 -0.990972 0.0550051 0.273645 -0.192443 -0.570121 -0.410024 -0.169892 0.324636 0.190348 0.151931 -0.0937367 0.77034 -0.0515726 
-0.58862 -0.614851 -0.405293 -0.239905 -0.418522 -1.2536 1.41797 0.150406 0.0368682 -0.278113 -0.337748 -1.04034 -0.353264 -0.348192 -0.244522 0.136678 0.205168 0.211438 -0.485155 0.229991 -1.06474 -0.0208857 -0.153379 0.178995 -0.659217 0.794241 -0.129135 -0.473511 0.333692 0.642147 0.0471024 0.924607 0.620954 0.351415 0.248996 0.0377147 -0.522196 -0.0139094 -0.0480507 0.954603 -0.0737452 0.773175 0.3422 0.397132 0.751034 -0.170971 -0.22119 0.053474 0.0348867 -0.11337 0.181522 -0.730339 -0.546913 0.9156 0.346092 -0.925449 0.413173 -0.198812 0.0543215 -0.437823 -0.122035 -0.161363 0.648561 -0.174425 0.424511 -0.425825 -0.71244 0.505325 -0.430072 0.2274 -0.204246 1.10164 0.61334 -0.170773 -0.316994 -0.697691 -0.266035 0.178935 0.131099 -0.508817 -0.147756 0.442969 -0.411952 0.197707 0.0871267 0.534679 0.0336704 -0.0116913 0.638793 0.318734 -0.325256 0.315173 -0.16857 0.139525 0.212601 -0.465003 
-0.238144 0.635621 -0.496703 0.365179 0.367248 1.16674 -0.0109436 0.83294 0.0149046 -0.255274 0.716866 0.115515 0.840723 0.398416 0.480401 0.140334 -0.392072 0.189629 -0.196396 1.44847 0.746816 -0.0992966 -0.534788 0.158755 -0.416544 -0.648311 1.25837 -0.741257 -0.082606 0.206014 0.750707 -0.0393956 0.136827 -0.567176 -0.59305 0.435686 -0.55085 0.155862 -0.779316 -0.635401 1.15291 0.435554 -0.286581 -0.0295316 -0.310514 0.0901996 -0.918551 -0.502612 -0.126528 -0.455423 -0.420551 0.582352 0.186889 -0.13483 -0.17439 0.466926 0.274959 -0.36904 -0.503772 -0.082394 -0.82497 0.0639203 -0.183772 0.424827 -0.295104 1.25727 -0.442673 -0.114254 -0.541327 0.00462086 0.297571 0.32003 -0.979898 0.0922644 -0.353674 0.0413732 0.0859677 0.240102 -0.501266 -0.68853 -0.466603 -0.55357 -0.345007 -0.0802678 -0.408515 0.683891 0.545388 -0.261135 0.866658 -0.235209 0.228315 0.106532 -0.558964 1.10457 -0.296026 -0.667995 
0.510014 1.0717 0.0280647 -0.0389968 -0.0843991 -0.686584 0.274377 0.451661 -0.2287 -0.0600672 0.402617 -0.0508579 -0.105499 0.949157 0.55743 -0.392383 -0.629937 -0.260304 -0.0187314 -0.267036 -0.216076 -0.379429 1.17809 -0.154092 0.332556 0.409021 0.820292 -0.255914 0.1735 0.28323 1.39602 -0.444372 -0.381533 0.177096 0.175252 -0.318655 0.887405 0.206828 -0.23769 -0.00693501 0.837038 -0.293946 0.536437 -0.210388 0.755467 0.665139 -0.308296 -0.88442 -0.503881 -1.55943 -0.242178 -0.0896857 -0.309605 -0.220613 -0.0384267 0.384548 0.817093 -1.05823 -0.225436 0.427961 -0.611345 -0.791272 -0.274739 0.283375 0.54776 -1.05562 -0.428913 -0.978941 -0.208152 -0.0322777 -0.450934 0.586749 0.0820648 0.165875 0.158123 -0.00791796 0.0697637 -0.0487213 -0.136536 -0.389178 0.94977 0.245612 0.741687 0.406319 0.366274 0.494535 -0.304648 1.23941 -0.432241 -0.326009 -0.78244 -0.20963 0.327479 -0.346256 -0.446962 1.08048 
-0.601768 0.536956 -0.711296 -0.506105 0.165917 -0.738723 0.888545 0.446942 0.197776 0.660633 -0.10186 0.103412 -0.0389657 -0.414305 -0.401483 0.345174 -0.0889618 0.556363 0.0740758 -1.00237 0.25316 -0.903662 0.745634 -1.37992 0.390225 -0.738274 0.186858 1.09671 -0.543726 0.0917704 -0.0579633 0.437682 -0.270076 -0.355706 -0.518109 -0.0422474 0.333038 0.423415 0.493027 -0.0854408 -0.613679 0.648886 0.216663 0.297467 0.396999 -0.787081 -0.504177 0.209927 -0.640677 0.442121 0.0544922 -1.15004 -0.0335747 -0.769675 0.956473 0.308324 0.618917 0.600566 -0.932499 0.26063 0.319473 0.417661 -0.0747962 -0.0733137 0.854807 0.870178 0.373747 -0.540732 -0.230761 0.103814 -0.357424 -0.136611 0.164614 0.163137 0.0747987 0.855685 -0.0694114 0.740647 0.250029 -0.713443 -0.32525 1.26343 -0.649304 -0.428896 0.032929 0.727494 -0.458105 0.0506571 0.529301 0.344643 -0.346974 0.814145 0.252383 -0.103444 0.817149 -0.137941 
-0.996033 -0.18343 -0.394344 -0.246573 -0.00473426 0.215015 -0.631401 0.0927375 1.60814 -0.147624 -0.612384 -0.0127425 -0.0760962 -0.298037 -0.131321 -0.732652 0.858908 -0.642706 0.533987 -0.571394 -0.0783094 -0.0144037 -0.116558 0.241948 0.330345 -0.0554091 -1.33939 0.472059 -0.0834763 0.521864 -0.731733 1.30956 0.71226 0.659817 0.669415 -0.975844 -0.469195 -0.714429 0.587622 -0.152526 -0.613325 -1.54863 0.0120539 0.99171 0.74537 0.677135 0.850508 0.839354 0.976722 -0.24012 0.942169 -0.819409 0.0022425 -0.234992 0.000344038 -0.0612085 -1.09442 0.380897 0.357694 0.317062 -0.6213 -0.289776 -0.163835 -0.289621 0.642892 0.351719 0.398697 0.306367 -0.825124 -0.0244142 -0.597837 0.302662 -0.0616629 0.403371 0.707982 0.844131 -0.397532 -0.559326 0.349341 0.811792 0.378604 0.00601026 0.90454 0.141913 -0.0201242 1.73997 0.265643 -0.448659 -0.861925 -0.260696 0.00882284 0.920352 -0.738228 0.459458 -0.830225 0.0226838 
-0.587412 -0.0123452 1.20331 0.222448 -0.577012 0.285708 -0.834202 0.0849437 -0.804119 -0.647509 0.316231 -0.00278652 0.773865 -0.591346 0.0932925 -0.161975 0.926253 1.06171 -0.203258 0.0610485 -0.0321431 -1.57922 0.0986543 -1.07302 0.166808 -0.571977 -0.45245 0.870238 -0.904801 0.146044 0.191071 0.854745 -0.402832 0.343961 0.740648 -0.0227308 -0.69071 -0.426818 1.25321 -0.160799 -0.270634 0.243369 0.285701 -0.398235 -0.116164 0.713231 0.293555 1.06556 0.181242 -0.107925 -0.430515 0.464208 0.495619 0.39811 0.0980761 -0.0161822 0.409916 0.0888239 0.338435 -0.40925 0.330643 -0.233713 0.0970259 -0.66515 -0.00284819 -0.199544 -0.0110445 0.496902 -0.182123 -0.335568 -0.658737 -0.180512 -0.279587 0.472686 -0.703689 -0.266179 0.232453 0.218823 -0.0474609 -0.381197 -0.0284189 0.588065 -0.00761278 -0.510631 -0.163354 -0.0531233 0.500034 -0.532525 -0.179325 0.0632253 0.0927142 -1.04517 -0.403473 0.834976 0.428516 0.0587943 
0.0341164 0.241035 -0.519233 0.153441 -1.41734 -1.03089 -0.0281025 0.176378 -0.579153 0.267771 -0.924357 0.89678 0.386437 -0.506674 0.078851 0.0402518 0.0388169 0.816316 -0.522571 -0.437291 -1.35882 -0.323406 0.685191 -0.220671 0.0255774 -0.113084 1.37939 0.359502 0.171117 -0.139503 0.0918665 -0.446197 -0.227111 0.600259 -0.0574118 -0.878596 -0.505199 0.172422 -1.04963 -0.50748 -0.45807 -0.200703 -0.513483 0.486646 0.398893 -0.559031 -0.630377 0.443154 -0.384277 -0.180741 -0.0997555 0.843561 0.065667 0.549514 0.824703 -0.199094 -0.527166 -0.760585 -0.11643 0.158365 0.0355553 -0.0441689 0.495205 0.207765 -0.703643 0.505351 -0.408416 0.754228 -0.161499 0.187222 0.31965 -1.01286 -0.00144982 -0.112123 -0.290734 -0.635196 0.0100144 0.433655 0.794449 -0.235712 0.796348 0.646627 0.522798 -0.32922 -0.940583 -0.179427 -0.225407 -0.134806 0.293089 -0.170554 -0.34426 -0.81928 -0.477113 0.291856 -0.619025 0.260799 
0.558509 0.441544 0.106665 -0.55577 0.393426 -0.034847 -0.466492 0.586789 -1.02257 0.269686 -0.674561 0.338443 0.0597688 1.14426 0.148386 0.270586 -0.55409 0.864508 -0.135783 -0.104898 0.942772 1.41085 -0.0370761 0.853798 -0.838984 -0.821579 -1.0599 0.0912364 -0.388316 1.03625 0.609672 0.954634 -0.393621 0.992957 0.169005 0.0968777 -0.0211827 0.113926 0.606938 -0.349567 -0.850744 -0.230421 0.22054 1.20411 1.0164 0.818028 0.0918056 -1.35683 0.477379 0.543469 0.604001 -0.0785103 0.427135 0.059246 1.35768 -0.126901 0.432148 -0.550924 -0.208903 0.795516 0.229486 -0.100679 0.0880614 0.944838 0.217737 0.100524 -1.54825 -0.0709616 -0.701005 0.186328 -0.167184 -0.515032 0.527506 -0.49853 0.423884 -0.689104 0.534578 -0.520243 1.04049 0.24926 0.437456 -0.449826 -0.276075 0.424137 -0.573658 0.608544 -1.40464 -0.100174 -0.668662 -0.197034 -0.362808 -0.0898691 -0.175076 -0.617108 0.361695 0.157749 
0.60414 0.242878 -0.859738 0.0403409 0.62679 1.04167 -0.261793 0.882071 -0.104537 -0.127702 -0.345976 0.284024 -0.105976 0.427 0.86994 1.17972 0.398534 -1.65384 0.56976 0.399145 0.79449 0.00649958 -0.592256 0.232543 -0.762668 -0.0489276 0.218641 -0.135744 0.539512 -0.118402 0.0809483 0.111635 -0.51979 -0.29714 0.641916 -0.394564 -1.07524 -1.08134 -0.830888 0.380128 -0.745128 0.104112 0.780992 0.329988 -0.266488 0.455279 1.03605 -0.0332665 0.692568 -0.97274 0.0539524 -0.247724 0.172975 0.37823 -0.213775 0.290473 -0.412243 -0.747876 0.429607 -0.257422 -0.507545 -0.169547 0.0927977 -0.309775 -1.10056 -0.689998 -0.647877 0.411902 0.452391 -0.390668 0.125139 0.11075 -0.772182 0.577521 -0.403329 0.0972682 -0.485964 -0.0602333 0.194723 -0.378681 -0.475734 -0.0597268 0.353119 -0.487671 -0.00382359 -0.186677 -0.163329 -0.2785 -0.331141 0.308996 0.117398 0.0726371 -0.0287897 0.208874 -1.03354 -0.196384 
-0.680071 0.138734 0.682156 0.334226 -0.373917 -0.284278 0.266684 -0.383311 1.00209 -0.762081 0.259582 0.930009 0.361736 0.757235 0.123515 0.572123 0.663553 -0.394941 -0.676564 0.315829 0.548423 0.381487 0.232667 0.368205 -1.06066 -0.0381316 -0.347493 0.211453 0.927608 0.41848 -0.671439 0.560888 -0.183806 -0.119642 0.449117 -0.409839 -0.129725 -0.239616 0.117539 0.0744339 -0.741391 0.683437 1.00682 0.582304 0.124226 -0.736454 -0.18052 0.369031 0.583134 -0.267742 1.17041 -1.06799 0.16933 0.0296281 -1.35257 -0.165684 -0.13355 1.24476 0.920269 0.143966 0.17604 -0.480884 0.0879104 0.161567 1.00667 0.71491 -0.542519 0.507229 0.212896 -0.119747 -0.117944 -1.00601 -0.137735 -0.760858 0.220765 0.628111 0.40847 0.369968 -0.193898 -0.543459 1.1028 0.315983 -0.393445 0.969574 0.496648 -0.0762329 -0.620033 0.907837 0.440502 0.118412 -0.219484 -0.204191 -0.409953 0.16471 -0.300031 -0.413975 
-0.0441979 -0.92303 0.468353 -0.293202 -0.325205 0.733899 -0.451883 -0.496058 0.406233 0.0817233 0.494518 0.382722 -0.112939 0.520812 0.779758 0.672496 0.341597 0.427215 -1.10205 0.188454 0.227555 -0.0189425 -0.366726 0.112562 -0.0068304 0.945267 -0.312463 0.400661 0.549333 0.391663 0.820457 -0.0181205 0.478709 0.390473 0.296106 0.544758 1.51587 -0.361405 0.694206 -1.21461 0.0823332 0.283548 0.469105 -0.656262 -0.16148 -0.0202616 0.00229622 0.0499307 0.335619 0.0622602 0.198722 0.424761 0.290366 0.00885114 -0.252785 0.166386 -0.817463 -0.483706 -0.135608 -0.582979 -1.05725 -0.154409 -0.390626 -0.301629 0.153919 0.185103 -0.211786 0.460181 -0.0702166 -0.0998408 0.0449114 0.301419 -0.47098 0.537806 0.0969064 0.027617 -0.974215 -0.205241 -0.682155 0.502784 -0.526109 -0.378944 -0.348823 -0.127374 0.256234 0.153785 -0.3494 0.169462 0.227998 -0.00111346 -0.0256988 -0.244918 -1.21118 0.0826037 -0.1163 -0.463746 
0.414412 -0.0463029 0.522521 -0.141125 -0.368516 0.235072 -0.42575 0.213667 -0.644143 -0.66745 -0.0359771 0.341902 0.143549 0.19911 -0.382792 -0.134952 -0.510523 -0.0607444 -0.893582 -0.396711 0.19541 -0.762555 0.392008 -0.769563 -0.106507 0.0527313 -0.702682 0.349918 -0.292882 -0.0173679 -0.0364563 0.379668 0.248925 -0.27558 -0.722278 0.365142 0.309687 0.245039 -0.490398 0.645421 -0.31692 0.583446 -0.673627 0.0653438 1.10467 -0.919672 0.183018 -0.306492 -0.779889 1.28192 0.0152144 0.241087 0.778041 0.406491 -0.148631 -0.397687 0.251848 -0.228603 0.465659 0.376025 -0.0616429 -0.354927 -0.107697 0.330665 0.341689 -0.537074 -0.0490284 0.0835569 0.443934 0.439201 0.423875 0.0547985 -0.20027 -0.230907 -0.144271 -0.614461 -0.409236 0.547469 1.02195 0.130768 0.153818 0.00412699 0.989346 -0.143284 0.0278275 0.298057 0.165125 -0.50887 0.466792 -0.178807 0.0460232 -0.0372158 -1.46489 0.380538 -0.232612 1.28798 
0.0819786 0.643648 1.12227 0.0294098 -0.171749 0.520755 0.556176 -0.865566 0.0867067 0.429527 -0.554032 0.0815555 0.920022 0.445354 -0.114461 -0.162007 0.120905 -0.0342968 -0.315861 0.0612133 -0.0988781 -0.546139 -0.0627985 0.559194 -0.0955362 0.426883 0.384362 0.959327 0.0902249 0.833478 -0.220351 -0.472164 -0.192584 0.535901 -0.105 0.649517 0.065086 0.0581939 -0.282169 -0.152218 0.90522 -0.189301 0.0802601 0.865442 0.433797 0.789149 0.505977 0.516662 0.134013 -0.51508 1.15229 0.438415 0.953232 -0.155756 -0.833964 -0.0912042 0.176823 0.107343 0.656079 0.154016 0.0614427 0.0767419 0.104248 -0.281166 -1.18473 -0.580081 0.371091 -0.0458765 -0.377454 0.602713 0.258265 0.388538 0.167744 -0.418224 0.537042 0.949773 -0.505884 -0.367619 -0.158015 0.738495 -0.242137 0.593976 -0.384464 0.131336 -0.444492 -0.334678 0.266981 -0.574776 0.00939447 -0.330736 0.111406 1.20082 -0.109396 -1.18485 1.14134 -0.495994 
0.935578 0.963859 0.331237 0.83159 -0.238856 -0.153289 -0.687343 0.312072 0.216 0.173385 -0.496877 -0.228361 0.42567 0.621618 -0.226126 -0.178945 0.181911 -0.50125 -0.420905 0.294207 -0.702482 -0.160391 1.21093 -0.0469947 1.37166 -0.29073 0.545119 0.126773 -0.305677 0.459712 0.474124 0.886805 0.224172 -0.303792 0.273316 0.693868 -0.539204 0.281922 0.0428194 -0.530701 -0.630238 0.0943828 -1.26264 0.16574 0.0309855 -0.952463 0.51322 -0.216276 -0.130466 -0.644532 0.0252214 -0.671049 -0.397691 -0.0700757 0.354443 -0.249107 0.51611 -0.0638461 0.140776 0.557213 -0.2327 -0.242575 -0.332534 -1.05693 0.154159 -0.520405 -0.0913855 0.00378231 0.538241 0.258966 0.63435 0.0798071 0.291863 0.141493 0.57865 -0.412696 0.252702 0.158609 -0.357409 -0.18168 -0.342327 0.397724 -0.345766 -0.852024 0.664612 0.0134442 0.0746544 0.630189 -1.15565 -0.186778 1.02596 0.469751 -0.020379 -0.132533 -0.604507 -0.593449 
0.189495 0.151387 0.238721 0.165986 -0.275412 -0.609345 1.3076 -0.242546 -0.0645442 -0.910968 -0.369964 -0.880826 0.205164 -0.343421 0.11176 0.252774 0.0153195 -0.20102 0.337863 -0.307696 0.207889 -0.0187406 -0.111516 -0.118536 0.868069 0.0345798 -0.394907 -0.352356 0.15572 -0.611391 -0.0853113 -0.24698 0.392989 0.789098 1.35291 0.448926 -0.697389 0.532776 -0.600244 0.86721 0.61443 -0.468697 0.0555971 -0.141054 -0.775991 -0.269903 1.26108 0.187312 0.135088 -0.498742 -0.777655 -0.452447 -0.140154 -0.216667 -0.284516 -0.689702 0.0423748 0.468107 -0.126603 -0.421206 -0.16097 -0.00738249 -0.417127 -0.295493 -0.278118 -0.102934 0.52476 -0.723506 0.10188 0.145896 0.837918 0.266995 0.26007 0.385673 0.63006 0.286598 -0.0491197 0.150375 0.104562 0.664891 0.411286 -0.151567 0.88239 -0.632071 -0.120788 -0.200821 -0.338706 -0.221171 -0.233095 0.0446348 -0.826738 0.0213596 0.785594 -0.397869 0.0306998 0.633137 
0.114376 0.15255 -0.396237 -0.950225 -0.766057 -0.0488079 0.702037 -0.81939 0.391775 0.314817 -0.435536 -0.303242 -0.347736 0.506292 -0.14413 0.0103253 -0.247759 0.623817 0.0932788 0.0720552 0.35848 -0.465662 0.272973 0.13603 0.170494 -0.101298 -1.01356 1.28388 0.0194087 0.0440514 -0.725943 0.623619 -0.261746 -0.319568 0.620878 0.656852 -0.0208906 -0.458609 -0.260525 0.513077 0.263184 -0.846465 0.0343219 -0.0395852 0.384708 -0.54815 0.6169 -0.240663 -0.439596 0.137602 -1.40704 -0.16827 0.81633 0.0938657 1.0911 -0.237238 0.17478 -0.102182 0.100754 -0.407095 -0.70872 0.177317 1.11534 -0.765792 0.174576 -0.605563 0.464255 -0.747385 0.688055 0.709854 -0.0572037 -0.0672214 -0.238726 -0.42121 -0.0169511 0.0844186 -0.34834 1.09414 0.161169 0.360583 0.0781467 -0.255083 -0.416498 0.885507 -0.293223 0.136427 0.0559848 0.366396 0.648421 0.119165 -0.38309 0.734794 0.213321 -0.492017 0.653866 0.30099 
-0.51107 0.0333231 -0.32003 -0.159478 0.566415 0.174816 -0.75287 -0.199989 -0.888643 -0.105083 0.132792 0.32656 -0.480096 -0.553638 1.12167 -1.16977 -1.07597 0.902949 0.29495 0.0841914 -0.626753 -0.741553 -0.188102 0.352178 0.0440143 -0.550958 -0.361405 -0.00463293 0.206615 0.233177 0.497688 -0.349939 -0.0575738 0.168487 0.024436 -0.450806 -0.445863 0.248859 -0.246675 0.0588674 0.0735525 0.13225 0.558616 0.120761 -0.164947 0.602553 -0.852277 0.00258588 -1.37222 -0.103635 -0.859251 0.289461 0.458313 -0.179709 0.345234 0.213819 -0.319272 -0.15389 0.238717 -0.968223 -0.504922 -0.00560707 0.47055 1.23434 0.339167 -0.0194711 -0.999479 0.576051 0.131542 0.71466 0.273185 0.680286 1.40451 0.71872 0.501298 -0.743868 -0.348115 0.876624 -0.221406 0.197642 -0.555827 -0.298735 -0.807991 -0.683251 -0.355429 0.440172 -0.252227 -0.656742 0.224384 -0.138437 1.07545 0.356664 -0.898647 0.5639 0.162756 0.335245 
-0.683682 0.45624 0.30926 0.075596 0.52606 0.901438 0.900232 -0.396793 -0.00201474 -0.489889 0.567089 -0.309799 0.145506 -0.620827 -1.21415 -0.0724879 -0.153292 0.279706 0.0295134 0.245227 -0.293022 -0.632052 0.089511 0.0179574 -0.247208 -0.176376 -0.235865 0.623667 -1.46685 0.57251 -0.0556969 0.753003 -0.314376 -0.176722 -1.25042 1.04889 -0.301316 -0.0782909 -1.50509 0.0926837 -0.612911 0.788652 0.481097 -0.474613 -0.0423759 0.498088 0.83228 0.659934 -0.0170608 -0.374728 0.534322 0.45919 -0.00566682 0.25174 -0.395472 -0.759723 -0.170311 -0.750598 0.888536 0.818009 0.225412 0.850012 -0.0996237 0.153019 -0.0433897 0.0162886 -0.484402 -1.07044 -0.532121 -0.290431 -0.727386 -0.795607 0.0173773 -0.178569 -0.261891 -0.111764 0.229498 0.576088 -0.28512 0.520543 -0.341641 -1.64238 0.297506 -0.147241 -0.350876 -0.316093 0.336814 -1.00103 -0.395717 0.326321 0.827846 -0.277521 0.917462 0.414171 0.7729 0.157686 
0.423013 1.0034 0.0559831 0.0243468 0.71225 0.994957 0.0892386 -0.898212 0.200817 0.745732 0.430383 0.546406 -0.732193 0.603454 -0.457938 0.189855 -0.203073 0.180907 0.235968 -0.033077 -0.358742 0.487595 -0.432 -0.146879 -0.570051 -0.154851 -0.333447 1.52894 0.578056 -0.473246 0.449667 -0.174539 -0.453682 0.957821 -0.121904 -0.833758 -0.113962 0.982464 -0.529928 -0.696164 -0.17153 -0.072706 0.140785 1.0773 0.287144 -0.146738 0.432807 -0.226388 0.128051 -0.165163 -0.222274 -0.190032 -1.27804 -0.340832 0.453276 -0.30322 0.0915015 -0.170405 0.628106 0.705697 -0.149284 -1.66863 -0.532823 0.278615 -0.115569 0.375027 -0.842965 -0.163454 -0.538796 -0.556714 -0.564902 0.297221 -0.217538 -0.161908 0.933628 -0.162398 -0.959418 -0.352169 0.414154 -0.84434 0.709728 -0.306817 0.0662507 -0.527018 0.227185 -0.224287 -0.308473 0.751142 0.70461 0.272203 -0.236892 -0.336503 0.443463 0.236608 -0.497204 -0.2374 
-0.215282 0.101379 0.191021 0.519117 1.06199 -0.0446077 -0.0504942 -0.301646 -0.455367 0.865041 -0.323247 -0.00508276 -0.102781 0.156176 0.225648 0.603815 -0.163629 -0.234729 -0.485011 0.439048 -0.441743 -0.459972 0.324889 -0.0986847 0.283941 -0.594441 -0.246856 -0.683908 -0.396712 0.119832 -0.874093 0.57439 -0.529866 -0.168517 0.391105 -0.0849226 -1.00531 0.945287 -0.946199 0.5118 -0.727107 -0.623177 0.239159 0.0298116 0.173044 -0.986771 -1.10233 0.171364 -0.242137 -0.2304 -0.00366424 -0.851136 0.109804 -0.752857 0.549958 0.425718 -0.509448 0.178431 -0.259671 0.404565 -0.749071 0.740022 0.110943 -0.344695 0.366911 0.563831 -0.00354275 -0.720484 -0.368261 0.345741 -0.635518 -0.17403 0.505388 -0.121568 -0.892663 0.125216 -0.0124135 0.72183 -1.06227 -0.0587674 0.312904 -0.489369 0.0154542 0.121462 -0.0107233 -0.508964 -0.154907 -0.226949 0.925129 0.226563 0.318582 0.149683 -0.333358 0.603935 0.159243 0.153071 
0.382951 0.037052 0.0976525 0.0486157 0.401957 -1.22721 -0.0204997 0.478715 -0.831027 -0.447853 0.296399 0.51861 -0.135215 0.195497 0.537145 0.703969 -0.110189 -0.819533 0.0507865 -0.33121 0.390723 -0.445249 0.164254 0.461558 0.0975051 -0.63471 0.866786 0.268932 -0.718517 -0.410913 -0.15273 -0.294089 -0.875347 1.2039 0.351165 0.176146 -0.843078 0.465264 -0.0584452 -0.480012 -0.536824 -0.207225 0.300896 -0.394896 0.488654 -0.411694 -1.21971 0.695214 -0.0811758 1.20803 0.00209375 -0.904205 -0.303623 -0.111066 0.383634 -0.223184 0.219805 0.0605907 1.15742 0.163137 0.42163 0.0868004 -0.594728 -0.665302 -0.427414 -0.507922 -0.51701 1.47904 -0.252633 0.196268 0.119337 -0.436603 -0.337634 0.0898777 -0.455013 0.247969 0.0299812 -0.140684 0.353215 0.104591 -0.350513 -0.0110089 0.337979 -0.0724535 -0.733176 -0.680073 0.918161 0.0779296 0.033409 0.217935 -0.136437 -0.066376 -1.07201 -1.01976 -0.103329 -0.180169 
-1.69364 -0.0762526 -1.01331 -0.394336 1.00604 0.300072 -0.356884 -0.12977 0.0836844 0.0532153 0.53453 -0.118772 0.413795 0.797026 0.0719381 -0.320793 0.276608 -1.43981 -0.972899 -0.00390151 -0.585505 -0.384811 0.262038 -0.783595 -0.707445 0.473462 0.241645 0.203035 -0.34578 0.253926 -0.305063 -0.902563 0.740316 -0.220376 -0.814276 0.593658 0.722496 0.939151 -0.347019 0.523982 -0.363731 -0.165681 -0.177932 0.160985 0.182869 -0.361147 0.340252 1.33679 0.176516 -0.555116 0.915513 -0.00400195 -0.524338 1.16125 0.253163 0.156706 -0.826872 -0.0576034 -0.187561 -0.285427 0.511365 -0.784362 0.320817 0.156622 -0.471923 -0.364194 0.206096 -0.0169518 -0.265545 0.0158687 -0.62328 -0.0100575 -0.503587 0.627173 0.14819 0.0772531 -0.178141 -0.247323 1.21735 0.78142 0.315668 -0.614609 -0.558481 0.566288 -0.279039 -0.526748 0.142661 -0.247108 -0.334003 -0.497214 0.489657 -0.416961 0.345634 0.0386617 0.585189 -0.490222 
-1.30618 -0.134515 -0.317219 -0.254531 0.115538 -0.551537 0.412602 0.225335 -0.658367 -0.499 -0.57121 0.262768 0.715225 -0.0214094 -0.793539 0.475203 0.417937 -0.169228 -0.460194 0.38051 -0.207378 -0.655122 -0.637876 -0.0114184 -0.270269 0.33875 1.03762 -0.446375 -0.129085 -0.0925725 0.184791 -0.376364 -0.928895 0.776007 0.0506839 -0.591494 0.0540377 0.617504 0.515438 0.190487 -0.0275978 -0.322036 0.50621 0.36173 0.0706429 -0.578591 -0.381429 0.320895 -0.604979 0.781672 -0.734616 0.177653 -0.606464 -0.539816 -0.189018 -0.0509462 -0.507411 0.472425 0.0243005 0.317432 1.29883 -0.321055 0.0504939 -0.0609789 -0.306353 -0.205881 -0.565376 0.65431 0.476506 0.921226 -0.481992 -0.718214 0.243172 0.376522 0.190783 1.33237 -0.849673 -0.281256 -0.011131 0.454854 -0.344075 -0.638636 -0.66414 0.505453 -0.19909 -0.473607 0.637966 0.0578905 -0.483814 -0.172743 -0.15811 -0.179696 -0.472377 0.545672 -0.0279381 0.0581089 
0.676876 0.313882 -0.762083 -0.186871 0.286709 0.214379 -0.402342 0.382895 -0.294692 -1.47701 0.850286 0.223531 0.672263 0.750081 -0.821668 0.414149 0.235852 -0.372839 -0.588172 -0.375196 -0.815117 0.583489 -0.473249 0.184657 0.118977 0.28113 -0.762145 0.418528 0.0520216 0.176356 0.205853 -0.49826 -0.0227815 0.0166862 0.42731 0.671128 0.892935 -0.689888 0.718615 -0.278892 0.513384 0.859322 0.522082 0.907749 -0.129507 -0.0126189 0.944485 -0.625327 -0.5108 -0.233844 0.396115 -0.117251 0.658533 -1.2407 -0.00613485 -0.75097 0.57924 0.0955446 0.566574 -0.24213 0.3725 0.11442 -0.280089 0.0347233 -0.913668 0.399127 -0.458657 -0.515622 -0.0515872 0.160372 0.470234 -0.122418 -0.572653 1.10527 0.495523 0.85435 0.72879 0.262074 -0.188441 -0.178937 -0.38903 0.480471 0.201691 -0.21192 0.201532 -0.840438 0.420084 -0.400964 -0.0796378 0.00649706 -1.25674 -0.716793 0.590358 -0.457702 -0.18224 -0.154256 
-0.253356 -0.178474 -1.16619 -0.904155 0.771796 0.896846 -1.23967 0.293438 0.303685 -0.366306 0.645843 0.101277 -0.251702 0.131967 0.366495 0.332692 -0.575986 -0.236559 -0.0692612 -0.325719 0.797934 0.342357 -0.061778 -1.03536 -0.497146 0.242587 0.426267 -0.18975 -0.841685 0.214154 -0.0619037 -0.43446 0.958516 -0.227205 -0.324834 0.149641 -0.32846 -0.726108 -0.396125 0.689614 -0.260993 -0.710835 -0.13317 -1.06202 0.465721 -0.392236 0.308196 -0.762424 0.47781 0.426718 -0.509012 -0.159562 0.191338 0.111944 0.597415 -0.545962 0.233433 0.22754 -0.0959966 0.53404 -0.167045 0.705584 -0.293738 -1.01106 0.0450024 -1.15009 0.527434 -0.587679 -0.835441 -0.582319 0.951147 0.524451 -0.0247593 -0.00534902 -0.580404 -0.716389 -0.236176 -0.571899 0.0495508 0.916457 -0.0210134 -0.711581 0.655876 0.248376 0.745481 0.146216 -0.792219 0.48762 -0.113701 -0.0313544 -0.00983247 0.453313 -0.724447 -1.16428 0.325941 0.938307 
-0.736912 0.672323 -1.08084 0.241845 0.00966734 0.201519 -0.0213786 -0.916421 0.11322 0.130171 -0.299189 -0.125855 0.22777 -0.669155 -0.566352 -0.321207 0.995694 0.0266132 -0.121696 -0.175732 0.656516 0.0227265 -0.163688 -0.487203 -0.614232 0.0433885 -0.844421 0.0295349 0.410837 -0.420231 1.06654 0.0560476 0.00931116 0.734539 0.356454 -0.807972 0.339175 0.145678 0.0886724 0.151618 -0.234493 -0.0334537 -0.447773 0.41732 0.70249 -0.68147 0.294168 -0.312802 0.245915 0.556461 -0.319161 0.172008 -0.125345 0.405742 0.317953 -0.171704 0.762617 0.119881 1.07886 -0.561451 0.387846 -0.401668 -0.000316437 -1.26473 0.166249 0.0502529 -1.16541 0.52372 0.815662 0.120367 0.0260229 -0.485823 0.937723 -0.559435 -0.16057 -1.04765 -0.371146 0.545219 0.188256 0.0594945 -0.0921834 1.27627 -0.380474 0.151375 -0.283284 0.0982219 -0.2988 0.424755 -0.546787 0.163873 0.0618095 -0.00331011 0.712117 0.806808 -0.358645 -0.431172 
0.392519 -0.874489 0.271167 -0.559717 -0.0949722 0.4256 -0.0105883 -0.27625 -0.227082 -0.414601 -0.489733 -0.59165 0.601303 0.596376 0.222785 1.03972 0.305867 -0.511168 0.316369 -0.0849815 -0.852271 -0.390143 -0.0521227 0.732847 -0.519524 -0.0682527 -0.365188 0.811393 0.675748 -0.277574 0.559858 1.00369 -0.557321 0.091632 -0.655143 0.120571 -0.478722 -0.696412 -0.633603 0.142764 -0.203229 -0.4466 0.078748 0.063264 -0.77881 1.11792 -0.58973 -0.39849 0.534456 0.860511 -0.793658 -0.746823 -0.339885 0.494838 -0.0804303 0.734577 0.408851 -0.375329 -1.37616 -0.471492 -0.226683 0.629097 0.82946 0.222061 -0.858794 0.832732 -0.547686 -0.754013 0.40184 0.263068 0.155482 -0.279403 0.170499 0.614647 0.270118 -0.273182 -0.78274 -0.529132 -0.501541 -0.25264 -0.138074 -0.824811 -0.439804 -1.04852 0.432811 0.0035428 -0.168324 -1.37425 0.189335 -0.370862 0.563762 0.778915 0.00710744 0.79875 -0.723358 -0.643475 
-0.334705 -0.298771 0.125791 -0.0545681 -1.23733 0.616942 -0.0839742 0.537743 0.192609 0.476419 0.721621 0.176747 0.625353 0.636884 -0.230675 0.531528 -0.451484 -0.136352 -0.766577 -0.658779 -0.183521 -0.0567255 0.0773933 -0.0860569 -0.556173 0.58601 -0.0475446 -0.414214 -0.650534 0.152349 0.831306 0.0737053 -0.00680087 -0.17473 0.318966 0.238805 -0.630703 -0.512765 0.408296 0.361713 1.50306 -1.40002 -1.00432 0.453148 0.343794 -0.12156 0.0554247 0.213962 -0.55187 0.41201 -0.0353525 -0.402369 0.439313 -0.213047 0.571364 -0.189442 0.127417 -0.290965 -0.302004 0.835991 -1.00722 -0.486675 -0.263095 -1.21227 -0.307899 -0.623726 -0.258568 0.364017 -1.08159 -0.486595 -0.400742 -0.668911 0.841654 0.327776 0.81594 -0.842331 -0.297417 -0.203684 0.902762 0.546031 0.103702 0.320035 0.228771 0.609765 -0.106577 0.358903 -1.12264 -0.0107876 0.0605277 -0.716425 -0.179621 -1.21593 -0.164685 -0.547531 0.276959 -0.0225609 
0.122838 -0.593376 -0.14931 -0.0804609 -0.628337 -1.25818 0.0328162 -0.21948 -0.429236 -0.0954063 0.435899 -0.719246 -0.30871 0.0804304 -0.12558 0.883128 0.164479 -0.57685 0.613309 0.231972 -0.121665 -0.245236 0.51596 -0.109937 -0.218604 -0.320186 -0.634656 0.321926 0.360117 -0.471422 0.103915 0.000685891 -0.594319 1.00333 0.479442 0.416786 0.51194 0.0823469 0.782905 0.202016 -0.0427941 -0.297901 0.273803 0.825631 0.635644 -1.07526 -0.786105 0.618318 -0.345094 -0.188696 -1.07813 -0.350668 -0.678908 -1.11322 0.0411705 -0.125205 -0.38717 0.015195 -0.582242 0.972948 0.400735 -0.540404 -0.0607403 -0.218661 0.614836 0.0250773 0.98824 -0.794385 -0.443122 -0.15038 -0.605914 -0.27003 0.166754 0.500212 0.0921643 0.634938 -1.28657 -0.69897 1.03102 0.537736 1.10889 0.146222 -0.00280164 0.280867 0.533874 0.159334 0.00342148 1.33943 -0.810693 -0.0891599 -0.22733 -0.201434 -0.433385 -0.323954 0.52379 -0.380115 
0.109149 0.316734 -0.121469 0.410726 0.492432 0.133054 0.638919 0.580088 0.530814 -0.342338 0.0964593 -0.55056 -0.417277 0.948871 -0.0491775 0.477262 -0.0314488 0.639607 -1.24259 -0.183016 -0.346604 -0.175349 -0.835659 0.246132 0.801693 -0.348957 0.203751 -0.267232 -0.219538 -0.130825 -0.262435 0.136703 -0.0497462 0.943881 0.309167 -0.148845 0.645773 0.0238106 -0.711228 -0.110811 -0.96671 -0.125909 0.886641 -0.866176 -0.580537 0.946963 -0.270436 0.744674 -0.159287 -0.690649 -0.251078 0.185014 -0.919927 0.48335 -0.783359 -0.085858 -0.120238 0.271351 0.941593 -0.435867 -0.410382 0.546911 0.345491 0.626044 -0.895036 -0.0867208 0.103808 0.52461 -0.288409 0.875899 -0.228472 -0.478108 0.0630534 -0.0726292 0.0541876 0.0824498 -0.772932 0.227773 -0.454046 0.489231 0.0746135 -0.563852 -0.629961 -0.188133 0.947028 0.742398 -0.576208 -0.715502 -0.548996 -0.713927 -0.193205 -0.706451 -0.0875707 -0.993361 0.109023 -0.0179901 
-0.359274 -0.142549 -0.489873 -0.0916036 1.28368 -0.534172 0.0185993 0.866678 0.454172 1.14423 0.563598 -0.00626294 -0.215778 -0.169188 1.31813 0.658354 -0.113077 -0.260502 0.033233 -0.149349 0.207056 -0.261267 -0.164433 0.588811 0.464925 0.454078 -0.702501 0.571599 -0.607954 -0.205423 0.122259 0.536796 -0.231145 0.161404 -0.446132 0.261557 0.175102 -0.882475 -0.667417 -0.0945434 0.336646 -0.404935 -0.0813409 0.236722 0.528621 -0.876633 0.460558 -0.717371 -0.347835 0.19175 0.211521 0.632762 -0.637946 -0.878321 -0.630654 -1.0302 -0.381198 1.56153 -0.060117 -0.548274 -0.140757 0.657182 0.928379 -0.555907 -0.809442 0.316757 -0.355678 -0.534216 0.329138 1.06442 -0.28278 0.143396 1.14554 -0.0128694 -0.339524 -0.328604 0.107895 -0.119236 -0.265123 -0.597548 0.769657 0.41592 0.137168 -0.317271 0.669197 -0.176845 -0.826242 -0.226023 -0.204927 0.548028 -1.294 0.0989238 -0.186116 0.384205 -0.430042 0.0926466 
-1.26762 0.634698 0.340546 -0.0241499 -0.304164 0.723218 -0.181939 -0.450638 -0.27267 -0.086133 0.801044 -0.202887 0.470239 -0.00432628 -0.040377 -0.864737 0.333974 0.100464 -0.174859 -0.182967 -0.490526 0.524703 -0.827384 0.68757 -0.294187 -0.379209 0.108925 0.428627 -0.619683 0.448415 0.236045 0.095387 0.00195585 1.08664 0.416334 0.68592 0.0439648 0.105577 0.38615 0.10435 -0.822524 -0.455601 -0.16643 -0.0911561 0.666056 1.37946 0.796698 -0.167982 0.321316 -0.155891 -1.11742 -0.089233 0.395819 0.0418062 0.00660594 -0.0852122 0.26387 -0.438477 -0.241338 -0.130513 0.453024 -0.162048 0.865926 -0.139713 -1.38314 0.116222 0.28828 -0.88883 -0.174658 -0.31939 -1.11962 0.686698 0.40355 -0.429388 -0.211475 0.110659 0.971527 0.255134 -0.182802 0.326845 -0.251287 1.05345 -1.4648 0.0150351 0.0487328 -0.497829 -0.0831427 -0.450176 -0.0930504 1.12567 -0.344579 -0.137796 -1.00412 -0.243382 -0.631621 -0.315481 
-0.646878 0.119403 -0.694775 -0.101878 0.0952231 -0.275758 -0.391889 -0.42841 0.514579 -0.134627 -0.558861 0.000904114 -0.0192237 -0.225066 -0.494168 -0.33662 -0.271117 0.555946 -0.757953 -0.960997 -0.126974 0.206689 0.771397 0.265707 0.0423083 -0.11606 -0.736997 0.385843 -0.485812 1.05998 0.0994042 -0.697924 -0.182943 0.169274 0.357706 -0.614724 0.537046 -0.324848 1.26527 -1.06336 0.133644 -0.802852 0.0781343 0.196374 -0.36804 -0.161525 0.34682 0.156366 -0.730995 1.02605 -0.38061 -0.185711 0.0120195 -0.347585 0.00381722 0.598465 -0.0539111 0.612801 0.588329 0.346435 0.47925 0.403496 -0.195626 -0.34152 0.88262 0.313377 1.28628 -0.257828 0.21321 -0.0397623 -0.338871 0.379961 -0.151256 0.765974 1.02068 0.981684 -0.0985613 -0.090109 -0.623841 0.580845 -0.11028 -0.492909 0.519161 0.244278 -0.101259 0.0148313 -1.16588 -1.45996 -0.021926 0.179715 0.643036 0.245011 -0.267284 0.0348013 0.227402 -0.384906 
0.287998 0.0727001 -0.00596953 0.119807 0.00587375 0.0106625 0.446704 -0.761499 0.168607 0.176251 0.815126 -0.069031 1.05787 0.201956 0.609877 -0.367466 -0.914162 -0.157621 0.384218 -0.0877351 -0.107109 0.212392 -0.882052 -0.163937 -0.019385 -0.524943 0.169222 0.594587 -0.414149 0.807562 -0.369017 0.091404 0.449922 -0.48736 0.218012 -1.23077 0.466634 0.335461 0.0870642 0.342953 -0.46366 -0.00145687 -0.49282 -0.930383 0.525156 -1.09496 0.129025 -1.01031 -0.201403 -0.0460436 0.482081 0.226947 -0.731017 -0.252228 -0.713282 -0.0235799 -0.35525 -0.456212 0.88614 -0.266633 0.590545 0.333295 -0.26581 0.0733365 -0.80542 0.741115 0.23143 -0.37224 -0.0871469 -0.408252 -1.12105 -0.813323 0.532551 0.468677 -0.644951 0.66887 -0.281518 0.218311 -0.384362 -0.177519 0.677301 0.0970773 0.688734 0.0751143 0.364152 -0.523971 -1.16983 0.96838 0.472422 -0.729836 0.224039 -0.403419 -0.212511 -0.0483447 -0.356777 -0.209455 
-0.0215113 -0.104233 -0.66635 -0.12264 0.306808 0.413329 0.0114493 -0.189048 -0.86776 -0.656953 -0.669021 -0.554265 0.473484 0.751177 0.0935034 -0.0525101 -1.02059 0.0302044 -0.688402 -0.178743 0.88238 0.311176 0.474153 0.271213 -0.0491556 -1.40253 -0.165523 -0.116813 -0.213037 1.3814 0.183724 0.299025 -0.0802351 0.459048 -0.644041 -0.817996 0.392263 -0.242049 -0.240099 -0.339921 -0.175767 -1.36765 0.803956 -0.445475 0.726493 0.657633 0.305832 0.153357 0.381292 0.247021 -0.282099 -0.221762 0.906596 -0.00249455 -0.220389 0.625094 0.311713 0.686623 -0.0188225 -0.220032 -0.213417 -0.193932 0.655737 -0.211442 0.133162 0.368339 0.302004 -1.01195 0.306191 -0.0530825 0.159808 0.0718994 -0.451664 0.193246 -0.194558 -0.00240346 -0.542038 -0.00720087 0.12372 -0.205332 -0.0384156 0.299619 -0.292538 -0.425545 0.376026 -0.418417 1.07011 -0.391323 -0.160305 -0.485395 0.201754 -0.267434 0.578967 -0.594893 -0.345794 0.307146 
0.319995 0.56333 -0.29381 0.309478 -0.046973 -0.186414 0.499724 -0.80858 -0.915446 0.601938 0.497345 0.239259 0.107972 -0.583997 -0.316715 -0.0643828 -0.0285214 -0.0676401 0.800471 0.0518849 -0.115316 0.00450373 0.529527 -0.878026 0.408926 -1.1385 -0.24666 -0.432253 0.0209935 -0.148828 -0.124223 -0.842276 0.682105 0.464789 0.482992 0.920942 1.21992 0.202641 -0.577059 -0.786194 0.235517 -0.576669 -0.66367 -0.772324 0.19703 1.18823 0.433947 0.383756 0.890285 -0.512092 -0.411207 -0.453332 0.135173 0.862659 0.0274148 0.235215 -0.109001 -0.0546571 -0.729157 -0.504285 0.213774 -0.696755 -0.728506 -0.480914 -0.115134 -0.619273 -0.605973 -0.007266 -0.162345 0.418976 0.157628 0.343109 0.550272 0.0572054 -0.0380624 -0.356795 0.281897 -0.367309 0.0129545 -0.306429 -1.82581 -0.312959 -0.247384 0.87753 -0.0295481 0.136815 0.583109 0.381244 0.270986 0.604995 -0.547459 0.198261 0.218793 0.444115 0.616954 -0.0501184 
0.711976 -0.604417 0.208811 0.376776 -0.274712 -0.0646382 0.0394314 -0.375249 0.175289 0.404482 0.22144 -0.423068 -0.0856114 0.337268 0.529784 0.209593 0.275793 -0.284467 -0.0334433 0.153809 0.144113 1.06157 -0.285522 1.16986 0.502236 -0.124837 -1.04773 -0.739065 -0.0861424 -0.147843 0.219484 -0.0957941 -1.21884 0.654613 -0.180375 0.888969 -0.348833 0.702843 -0.226487 -0.430467 -0.623298 -0.214679 0.204279 0.344445 0.0383898 0.505361 1.09055 -0.0186887 0.0952506 -0.127608 0.336715 -0.0517671 0.275758 -0.432151 -0.164654 -0.467982 0.23231 0.19726 0.937849 -0.161676 -0.0616485 -0.173656 -0.486646 0.563879 0.206377 0.806432 -0.543233 -0.326151 -0.465574 0.623142 -0.0915219 -0.353235 -0.244023 0.192494 -0.460249 0.301315 0.345606 -0.491865 0.306376 0.86535 0.745653 -0.802133 0.851521 0.366922 -0.85791 -0.501601 0.0505035 0.304482 -0.0900296 -0.0676926 0.30359 0.449646 0.510163 1.32724 0.518408 -0.498596 
-0.399369 -0.301032 -0.685215 0.774598 -0.814883 -0.801682 0.0312838 0.0346481 0.224788 0.161067 -0.473394 0.221123 0.0531889 0.581734 0.436824 0.369963 0.61338 -0.170896 0.00664817 0.46965 -1.1186 1.15472 -0.157038 -0.550049 0.436672 -0.0850619 0.87643 1.00289 -1.4485 -0.206622 -0.0220971 0.290292 -0.40063 1.2394 -0.242896 1.46688 0.0622053 -0.149489 -0.427756 0.29852 -0.26217 0.51974 0.624819 -0.180949 0.272525 -0.148184 -0.355212 -0.0870787 -0.159733 -0.330091 0.165479 -0.266947 -0.217279 -0.160712 -0.0696767 0.106862 0.110956 1.35522 0.326323 -0.164836 -0.00609798 0.368192 0.229842 -0.682268 0.024016 -0.259529 0.4388 -0.663192 -0.141123 0.0786727 0.442498 -0.37208 -0.152444 1.13175 1.10368 -0.170996 -0.475785 -1.18129 0.169978 0.32126 -0.501238 1.02177 -0.336574 -0.0570706 -0.382115 0.127406 0.714196 -0.389888 1.00882 0.260494 -0.173043 -0.864737 -0.468791 -0.622909 0.101975 0.693458 
