-0.349991 0.00800629 0.319027 -0.116713 -0.695642 -0.400789 -0.184321 -0.781544 -1.10809 -0.213131 0.256632 -0.512547 0.519471 0.0641473 1.23927 0.136413 -0.422987 -0.0283471 0.650682 -1.26218 0.401855 0.260594 -0.927971 0.405175 0.261763 -0.0340267 -0.582346 -0.766105 0.275197 0.0621286 -0.757931 -0.251457 1.02805 0.516021 -0.526191 0.134574 1.24862 0.693032 -0.0820175 0.678721 -0.723727 -0.616484 0.114364 1.15272 0.22642 0.78328 0.0626045 0.823478 -0.0160192 0.117763 -1.23605 0.518422 0.523121 -0.944072 -0.288099 0.260774 -0.533273 0.0797959 0.627741 -0.646192 0.456346 -0.451908 0.468304 -1.21029 0.751883 -0.338276 -1.26629 0.345796 0.313891 -0.931622 -0.296858 0.0919699 -0.516812 1.30812 0.327834 0.244566 0.295793 -0.146832 0.204358 0.422374 -1.18503 0.858218 0.674153 0.346046 0.396709 0.998542 -0.833307 0.337236 -0.449577 -0.732286 0.366633 0.237938 -0.218739 -0.791388 0.591938 -0.496561 0.318575 -0.605475 0.719303 -0.535842 -0.37427 -1.25303 -0.360316 1.49126 0.438175 0.890854 -0.439142 0.731792 0.874365 -0.323591 -0.785501 -0.0822537 0.922967 -0.354041 -1.03323 0.0946723 -0.436144 0.795116 0.0512987 -0.0988511 0.988864 -1.21565 -0.101368 -0.087022 -0.370808 0.495789 -0.940954 0.0169294 0.552177 0.150877 0.587518 -1.54529 -0.0857774 -0.565381 1.06235 0.656618 -0.203888 -0.573528 -0.894179 0.0469833 -1.22971 0.506923 0.898326 0.329026 0.90653 -0.596963 0.464954 0.123895 -0.169432 -0.363668 0.364923 0.847858 0.795788 -0.12446 0.184881 0.167854 0.320146 0.252817 -0.23656 0.164945 -0.623726 -0.0808337 0.91998 0.826412 -0.354055 -1.92419 -0.504235 0.74396 -0.172663 0.547928 0.154346 -1.48115 -0.0952624 -0.566425 -1.25102 0.303791 0.669464 -0.81151 0.73965 0.045973 -0.296111 0.22543 0.145788 0.290858 -1.0574 -0.217473 -0.0977667 -0.312693 0.342955 0.455874 0.353532 -0.931604 -0.18705 0.0268497 0.771951 0.901274 0.916795 -0.260246 -0.739687 0.434175 0.168173 0.347877 -0.0363996 0.0320776 -0.686742 -0.379687 0.488683 -0.228152 0.641494 0.437589 -0.0752358 -0.246359 -0.0632852 -0.338722 0.0248521 -0.0712792 0.173114 0.339779 -0.53066 -0.924394 0.0834981 -0.931369 0.297926 0.288925 -0.96524 0.115672 -0.579866 0.853104 -0.665714 -0.877741 -1.09933 -0.030812 -0.574294 0.389556 -0.61304 -0.816223 0.230855 -0.572742 -1.32071 -0.127075 0.447187 -0.389134 -0.229816 -0.664867 -1.62832 -0.179061 0.266111 -0.0505514 -0.411186 -0.403588 -0.697508 -0.127401 -0.490131 0.309115 -0.243322 -0.846477 
0.447504 -0.0628527 0.163336 -0.180717 -0.38169 0.501241 0.307231 -0.435268 0.138498 0.966976 -0.601227 -0.414796 0.141516 -0.172834 1.05354 0.387264 0.643647 0.607184 0.320505 0.229782 0.115566 -0.499438 -1.34235 0.178957 -0.222268 1.29597 0.186259 0.283873 0.561172 0.920501 -0.676436 -1.01007 -1.06548 -0.126364 0.0314168 0.157812 0.328996 1.17718 -0.406531 -0.141352 0.777409 -0.418451 -0.448474 -0.179842 0.316203 -1.34067 -0.490843 -0.00380002 0.565131 -0.351591 -0.576311 -0.710381 0.619363 0.0851403 0.160321 -0.978119 0.81249 1.43875 0.193806 -1.57878 -0.251459 -0.822786 -0.84588 0.219169 -0.799731 0.156885 0.117821 -0.161235 0.735616 0.856392 -0.454874 -0.597132 -0.257859 0.125477 0.700956 -0.243493 -0.856295 -0.439176 -0.588842 0.139427 -0.466004 -1.28604 0.102297 -0.142477 0.230414 0.672124 0.333828 -1.40795 0.699624 -0.173692 -0.429661 0.593368 -0.761147 0.100515 0.366561 0.108884 0.0203543 0.0609778 -0.205819 0.329612 -0.571501 -0.89266 -0.336662 -0.454811 -0.254416 0.177315 0.33254 0.39766 -0.809929 -0.95215 0.0131005 0.824897 -0.901402 0.518372 0.26718 0.676118 -0.294537 -0.910541 -0.51355 -0.422789 0.452273 0.240337 -0.724833 1.5784 -0.580589 0.575514 0.57386 1.32705 -0.328983 0.0855168 -0.151077 -1.14471 0.903069 -0.21589 0.492847 1.56645 -0.295518 -0.692717 -0.237615 0.115954 0.235987 0.0536042 -0.924565 0.267727 -0.115293 -0.140447 0.275893 0.219898 -0.878505 0.464136 0.0297256 -0.393609 -1.0637 -0.00677906 -0.229266 0.400332 0.713551 1.30915 -0.0327721 -0.526255 -0.436493 -0.32108 -0.454525 0.622146 0.537446 -0.0491564 0.639297 -1.18642 -0.60247 -0.31109 -0.214757 0.235768 -0.326383 0.770584 0.574016 -0.482549 -0.588229 -0.094991 -0.113026 0.437735 -0.141221 -0.587458 0.703266 0.179115 -0.25748 0.156762 0.517424 0.0139314 -0.47196 0.29509 -0.745024 0.783886 -0.0572845 0.42692 0.226715 1.14178 0.625094 -0.206966 -0.039603 0.0789613 0.342793 -0.990857 -0.281736 0.526436 0.521468 -0.123783 0.388681 -0.135659 -0.119889 0.257068 0.697273 -0.420923 -0.29153 0.545492 -0.394122 0.140319 0.372597 0.226289 -0.0388246 0.606738 -0.0441816 -0.149187 0.744187 0.226825 0.271275 -0.447609 -0.0592736 0.0967304 0.95475 -1.24512 -0.0555292 -0.890931 -0.618397 0.0613713 0.180858 -0.361672 1.63054 0.365986 0.668897 -0.945633 -0.577753 -0.151071 0.693096 0.068211 0.0903403 -0.495475 0.609354 0.750365 -0.355554 -1.20246 1.54095 -0.725914 -1.13803 0.601605 -0.152393 -0.468917 
0.884522 0.740196 -0.166307 -0.424505 -0.105671 0.25164 -0.743962 0.253869 -0.168433 0.281753 0.600895 0.32731 -0.25476 -0.0570472 0.583944 0.404175 0.0702785 -1.00997 0.52663 -0.618495 0.966783 -0.155768 -0.177802 -1.02703 0.209808 0.31503 0.885191 -0.57202 0.527983 0.281206 0.653544 -1.01585 0.527191 0.113957 -0.277907 0.567255 -0.49917 0.264935 1.02014 -0.680997 0.517765 0.732694 -0.224427 0.769097 -0.540389 -0.170287 -1.15174 0.0903765 0.395637 1.00487 0.219039 -0.0987478 0.0939985 -0.0719635 -1.12119 -0.479249 -0.0147086 0.0489242 -0.416939 0.0512605 -0.0680862 -0.631783 0.751359 -0.656144 0.745779 1.14517 0.487477 1.00568 0.231056 0.0497988 0.880082 0.101759 1.5497 -0.0919727 -0.178281 -0.468489 -1.77745 -0.227103 -0.100049 0.859181 0.658601 -0.0213449 -0.380618 -0.584412 -1.13266 -0.536991 0.0493514 0.288596 -0.605687 0.431861 -0.711269 -0.104537 0.128197 0.671965 -0.573879 0.951427 1.26349 0.567159 -0.142809 0.468382 -0.390994 0.137589 0.819107 0.751099 -0.21702 0.912118 0.175921 -1.30499 -0.246008 0.23727 -0.0911616 -0.543601 0.251277 0.38266 0.215574 0.494774 -0.0926326 -0.0883934 -0.59208 0.333918 0.0467276 0.0125701 0.65706 -0.47507 -0.912127 -1.8058 -0.15777 -0.246259 0.410089 -0.214425 0.45113 0.680316 0.376814 0.306187 -0.756993 -0.274813 -0.109941 -0.274489 -0.0564858 0.382619 -0.383145 -0.909985 -0.0385126 -0.813799 -0.228239 -0.427901 0.685149 -0.509107 0.737514 0.172757 0.315265 -0.501163 -1.15099 0.528712 0.833361 0.539167 0.0928706 0.655085 0.0346788 0.475743 0.311831 -0.090387 0.483035 -0.530403 -0.391491 -0.65506 0.979136 0.191598 -1.212 1.18708 -0.327659 -0.565388 -0.407906 1.17955 -0.290667 0.263816 -0.985319 0.108006 0.455604 -0.215571 0.347338 -0.621987 0.287652 -0.788141 -0.618377 0.0180102 0.384941 -0.723572 -0.718182 0.918554 -0.220148 0.549071 0.413253 0.882775 -0.886671 -0.987484 -0.653708 -0.295468 -0.482846 0.0346785 0.694125 -0.449871 0.123426 0.310598 -0.521797 0.264131 -0.259877 0.10127 0.30159 1.37199 -0.494904 0.167663 -0.269162 -0.348107 0.21487 0.281126 0.176686 -0.561216 0.243274 0.162024 -1.43804 0.0660353 -0.507146 -0.563265 0.726476 -0.568382 0.0782829 0.457271 -0.429782 0.523497 -0.230273 -0.882171 0.078228 -0.491056 -0.619356 -0.113804 -0.870864 0.895134 -0.314734 0.348498 -0.258392 0.595408 -0.592668 -0.605878 -0.244866 0.162525 0.370645 -0.462237 0.450914 0.477979 -0.0179397 -0.500465 -0.318244 0.471603 0.284044 0.132833 
0.2779 0.0700483 0.0814077 -0.0413786 -0.849899 0.372438 -0.952612 0.184004 -0.646276 -0.105021 -0.675105 -0.97754 -0.61537 -0.25457 0.340404 0.942729 -0.107376 -0.874407 -1.29982 -0.334729 -1.05878 -0.288136 0.465963 -0.119107 -0.385892 -0.305979 -0.284837 0.615995 -0.380405 -0.50232 -1.7445 0.660961 0.51644 0.100546 0.550207 -0.388801 1.3883 0.723141 -0.0895654 0.21994 0.369943 0.210318 -0.451574 0.190677 -0.641796 0.13597 0.232423 0.607592 -0.300954 0.383488 -0.543312 0.539602 -0.918906 1.13182 -0.63776 -0.828842 0.14383 -0.222434 0.91696 -0.693506 0.686449 0.00900185 -0.925262 -0.126973 0.151783 0.177926 -0.168289 0.463817 0.636702 0.476877 -0.0253644 -0.710793 0.278539 0.587379 -0.952933 0.468214 -0.318928 -0.741235 0.43472 -0.0240269 -0.814796 -0.0852985 1.18433 0.314668 0.347383 -0.585935 -0.592658 0.370399 0.546111 -0.239173 -0.945367 -0.257461 -1.43074 -0.221171 0.604285 0.929265 0.321258 0.580395 0.540962 -0.897838 0.233691 -1.16176 1.17329 0.535268 -0.311647 1.36274 0.25983 0.126702 0.192254 -0.312894 -0.455956 0.0621634 0.976413 -0.67028 -0.70694 0.729261 -1.57321 0.25589 1.16209 -0.665816 -1.37143 -0.0796412 -1.56985 -0.578939 -0.429879 -0.21193 -1.17698 0.103047 0.572158 0.846684 -0.748521 -0.0648175 0.44313 0.904046 -0.604762 0.177752 0.449598 -0.351586 0.723799 -0.874282 0.267445 -0.627956 -0.0613324 -0.521777 -0.0679091 0.139765 -0.128803 -0.747484 0.268633 0.177296 -0.49972 0.000868925 -0.0580118 0.46695 -1.53178 -0.0492345 0.668382 -0.455963 -1.00675 0.295777 -0.0657867 -0.892173 -0.149567 0.731773 -1.14735 -0.724074 -0.360152 -0.783361 0.141545 -0.659827 -0.0826817 0.769784 -0.356047 -0.10374 0.394901 -0.245655 1.35306 0.0925348 0.916653 0.0884576 -1.15232 -0.15603 0.565754 -0.198863 -0.284927 0.41556 0.708789 -0.0719875 -0.515765 0.450737 0.104483 0.36998 -0.323195 0.652838 -0.969762 0.484886 0.308214 -0.425803 -0.384562 -0.157198 -0.431502 -0.894332 -0.0452676 0.0391022 -1.02929 0.19165 -0.284767 0.553481 0.046425 0.602974 0.0281859 -0.890417 0.310239 -0.124863 0.0478616 -0.643425 0.47544 -0.55724 -0.859985 1.37217 0.201593 0.72114 -0.540603 0.272446 -0.525518 -0.103371 0.0393537 -0.600829 0.010359 -0.820717 0.47595 0.175791 -1.06834 0.0658876 -0.312676 -0.168194 0.0975972 -0.0414786 -1.23931 0.0954327 0.558707 -0.226918 -1.34894 0.0607395 0.507594 -0.513039 -0.552977 1.36024 -0.419106 0.715248 0.586637 0.210357 0.0373566 0.695251 -0.382684 -0.657249 
0.15639 0.202404 0.631863 -0.114865 0.414762 -0.206619 0.151059 -0.787317 0.0365209 0.103035 -0.307986 -0.620873 -0.598708 0.00556558 -1.00224 1.56115 0.179576 -0.432545 -0.0853497 0.0350874 -0.826063 -0.221868 -0.554154 1.14032 0.907568 -0.701773 -0.23518 -0.616403 0.468219 0.711786 -0.329784 -0.158452 0.731666 0.00698521 -1.2428 -0.366825 -0.788571 -0.349658 -0.376147 0.183606 1.1346 1.66552 -0.267709 0.304913 1.11605 0.678049 -0.524284 -0.455723 -0.481235 0.827048 -0.221213 0.143208 -0.746708 0.82946 0.219752 0.606504 0.681791 -0.102183 -0.193267 -0.126733 -0.355902 1.05731 1.06691 -0.319608 -1.12965 -0.983342 -0.948365 -0.37296 -1.04367 -0.547121 0.651302 0.917403 -0.769004 0.0944243 1.18374 -1.04947 -0.130413 0.510576 -1.07337 -0.290386 0.730932 0.850816 -1.04169 0.530429 0.291963 -0.562306 -0.328007 -0.236116 -0.348426 0.464207 1.54161 -0.511248 -0.561878 -0.0777724 -0.77848 1.40354 0.24173 0.756731 0.131087 -0.285422 -0.374312 0.815097 0.671329 0.00370423 -0.0970125 0.835819 -0.200664 0.0579085 0.0398716 -1.34326 -0.0303373 -0.0179711 -0.96847 0.290824 -0.850676 -0.139121 0.577152 -0.385431 0.618561 0.0798478 0.569731 -0.0900994 0.471922 -0.7417 -0.918754 -0.760255 -0.0602498 -0.347166 1.35193 -0.998852 -0.310075 -0.736433 -1.06349 -0.314483 0.666697 0.911662 -0.892865 -0.851288 0.112334 -0.091495 0.319274 -0.895621 0.0239738 -0.258035 -0.7762 -0.604549 -0.312379 0.81093 -0.221868 0.227018 0.687331 -0.280669 -0.619648 -0.564842 -0.657172 0.256483 0.482102 -0.866353 0.0593238 -0.190609 -0.266776 0.374598 -0.40847 0.850901 0.847748 -0.509134 -0.355768 1.08298 -0.818269 1.57859 0.132994 0.167487 0.435299 0.0868462 0.28649 -0.910165 -0.0611542 0.0581328 -0.625586 1.32823 0.907667 0.25735 0.28509 -0.719964 0.0325939 0.156329 0.292954 0.204675 0.831228 0.257813 0.560612 -0.338601 0.114916 0.152494 -0.0173396 -0.175583 0.12955 -0.352871 0.068192 -0.336562 1.08031 0.663851 0.580294 0.14907 1.11683 -0.0583155 -0.619186 0.14937 -0.929987 -0.146842 1.19576 0.614883 0.34198 0.274969 0.431033 0.512609 0.233859 -0.724669 -0.035978 -0.175313 0.54018 0.190851 -0.104712 -0.558571 1.57393 1.03757 -0.429701 -0.264058 -0.518902 -0.657332 -0.417482 -0.151984 -0.114768 0.0400608 -0.760786 -0.467841 -0.274496 -0.179188 -0.872267 -0.0272671 0.00253223 -0.349583 0.370077 -0.814373 0.443903 -0.488378 0.931245 0.563521 0.456103 -0.473077 0.312718 -0.196204 0.964695 0.0610183 0.270975 0.710242 
0.0836117 -0.664552 0.165005 1.01908 0.996906 -0.910059 -0.438189 0.155648 0.0951564 0.138514 -1.05343 -0.349171 -0.191861 -0.213943 -0.472158 0.400572 -1.01539 0.0295202 -0.191829 -0.268438 0.360862 -0.572029 0.0496681 0.446912 0.655286 0.244759 -0.199096 -0.523059 0.133454 0.0621794 -0.412929 -0.817944 -0.362974 0.969579 -0.543101 -0.71229 -0.810261 -0.272989 0.450121 -0.301603 0.0998514 0.518024 -0.69229 0.58347 -0.522478 -0.653186 0.281903 -0.0874953 -1.12882 0.15539 0.264295 -0.511197 -0.194806 0.883776 1.47325 -0.720843 0.52322 -0.0563157 1.44223 -0.791383 0.159804 0.522729 -1.2547 0.250027 0.311565 0.336422 0.722639 -1.1198 -0.700321 -0.27105 0.0110339 -0.0945955 -0.045001 -0.336911 0.0382166 -0.0765968 -0.435356 -0.0269078 -0.701059 0.816957 0.831856 0.0516968 -0.253635 -0.610822 -0.413994 0.328994 0.38027 0.961143 0.725155 1.12522 -0.171804 -0.313097 -0.143857 1.10862 -1.07655 -0.0629425 1.10907 -0.96666 -0.747293 -0.00727662 0.268877 -0.620351 -0.291316 0.777405 0.841381 -0.806138 -0.062951 -0.367825 -1.1601 1.00494 0.167963 -0.833597 -0.00687281 0.539604 -0.0310284 0.388842 0.394265 -0.125375 0.985335 0.134507 -0.167317 0.973116 0.0060388 -0.815104 0.112855 -0.806444 0.907 -0.28541 -0.331726 0.322348 0.127101 0.62246 0.056057 0.808795 -0.509808 -0.101443 0.628205 0.38309 -0.41356 -1.39537 -0.192325 -0.133068 0.130524 0.336317 1.66742 -1.05707 0.564688 1.68112 -0.327289 0.654307 -0.237442 0.2229 -0.135732 -0.335063 -0.00431337 0.555569 -0.388696 -0.143492 -0.308672 0.413183 -0.13563 1.53999 -0.459634 -0.179098 -0.0774481 -0.406743 -0.35342 -0.806648 -0.669884 -0.00487504 -0.302724 -0.19816 0.159729 -0.0228595 0.566062 -0.50918 -1.05077 -0.0124432 -0.833831 -0.195145 -0.18199 -0.253751 0.820677 -0.216118 -1.48316 -0.0365515 -0.615109 0.526386 -0.706116 -0.978689 0.974137 -0.497213 1.14831 0.212563 0.550722 -0.37867 0.704066 -0.247678 1.86921 -0.298233 -0.481101 0.633991 -0.573466 -0.370296 0.183218 -0.88964 0.554513 -0.107584 0.276833 0.765168 0.284993 -0.623233 -0.0311275 0.333012 -0.646725 0.74488 -0.826407 0.842052 -0.369512 0.66803 0.181125 -0.109022 -0.927807 0.617052 0.919188 -0.199799 0.133006 0.0244928 -0.0342932 1.04588 1.04487 -0.491137 -0.436446 -0.473713 -0.343435 -0.210513 0.114686 -0.113684 0.542518 0.729816 -1.54987 0.57919 -0.682104 -0.779072 0.422839 0.772695 0.935033 0.680839 -0.134623 -0.742739 0.898281 -0.368223 1.37839 0.424269 0.164184 -0.634783 
-0.718828 -0.811602 -1.15021 -0.558971 0.502788 0.307032 -0.613016 0.507188 -0.487636 -0.363258 -0.897983 -0.227825 -0.399055 0.27071 1.06652 -0.0486841 -0.41303 0.417208 -0.0439558 0.706419 -0.352096 -1.09042 1.37478 -0.186045 -0.0362033 -0.53758 0.408446 -1.533 -0.33386 0.45642 0.0214715 0.378688 0.0222803 0.264166 0.380899 -0.295075 -1.27911 -0.23486 0.542098 -1.01009 0.227653 0.0467567 -0.0416462 0.718405 1.27074 1.29531 -0.645229 0.968576 0.136779 0.882449 -0.994237 -0.133801 0.390215 -0.341128 -0.0583844 -0.231926 -0.377404 0.255282 -0.334162 -0.307418 0.369186 0.288765 -1.11477 0.336077 0.339594 0.400116 -0.378395 -0.117243 0.630241 0.475125 0.60802 -0.106676 0.634879 -1.09353 -0.187483 0.0206492 0.619655 -0.3688 0.213695 0.311737 -0.35561 -0.66932 0.114574 0.0767677 -0.392446 -0.286674 0.196765 -0.757054 -0.457607 1.16207 -1.17572 0.0659171 -0.0831987 0.371064 1.20249 -0.282345 0.156895 0.184741 -0.536594 0.111821 -1.06375 -0.747257 0.406047 -0.370165 -0.944172 0.301877 0.0498792 0.491387 1.15463 0.0379369 -0.316158 0.985629 -0.0516489 1.15001 -0.490256 0.483603 -0.41631 -0.274839 0.357031 -1.14319 0.865623 0.185744 0.0443565 0.239382 -0.257 -0.75205 -1.00465 -1.07437 0.927331 0.40553 -0.190879 -0.380296 1.29403 -0.659405 -1.05628 -0.289613 0.0472444 -0.532088 -0.8416 0.877259 1.23911 0.463269 -0.379191 0.373644 -0.441447 0.0580903 -0.5024 -0.551023 -0.504549 0.518543 -0.252032 0.108618 -1.24074 -1.15973 -1.22229 -1.24273 -0.463942 -0.381153 0.914943 -0.0588394 -0.704846 0.287225 -0.528903 -0.0630171 -0.0893949 -0.319293 -0.684877 0.19122 -0.636978 0.197481 0.0580718 -0.22527 0.0558876 0.435687 0.252495 0.607165 0.381934 -0.163258 0.213648 0.76732 -0.122904 0.577279 1.21434 0.16701 -0.65575 0.708329 0.012385 0.286994 0.294731 -0.909031 0.399306 1.01112 0.89792 -0.532447 -0.640785 -0.320583 0.212911 0.316362 -0.65004 -0.313904 0.555587 0.118629 -0.0866429 0.881037 1.29333 0.19552 -0.286005 1.06424 -0.355797 -0.43985 -0.752995 0.732326 -0.830328 1.70684 0.23338 -0.461459 0.681986 0.643389 0.596099 -1.35965 -0.823963 -0.153086 -0.536183 -0.139509 -0.519238 -0.0146486 0.140885 1.26626 0.203602 -0.375017 -0.410663 -0.455625 -0.333694 -1.08341 0.167424 0.571696 0.0463021 -0.391369 -0.133121 0.470155 -0.113447 -0.608149 -0.389271 -0.108996 -1.2066 -0.370862 -0.469181 -0.123236 0.508624 -0.179871 -0.00425657 0.882502 -0.514303 1.09277 -0.583837 -0.240065 
-0.938594 0.308532 -0.56605 0.00136207 0.339599 0.0442662 -0.345788 0.389771 0.12417 0.437743 0.0149979 1.24311 -0.677465 0.921409 1.10488 0.278473 0.262696 -1.1692 -0.526324 -0.486446 0.331437 0.461685 -0.534112 0.433158 -0.823004 -0.72416 -0.219754 -1.15066 -0.744955 -0.330551 0.115059 -0.49448 -0.0937231 -0.0373823 -0.36321 0.997768 0.799444 0.0349597 0.117223 -0.487422 0.581386 0.762452 -0.971869 -0.298633 0.572091 -0.1077 0.32852 0.459836 0.270636 0.328699 -0.10515 1.05806 -0.432262 0.0123795 -0.400466 -0.365226 0.947549 -0.762769 -0.403642 -0.564184 -0.529725 -0.917573 0.829104 0.480785 0.445658 -0.426982 1.14326 -0.0877346 -1.1342 -0.40948 0.19568 -0.00919932 0.71555 -0.17393 0.0581957 0.727259 0.0613236 -0.805612 0.715468 -1.46868 -0.606765 -0.359683 0.593574 0.26135 -0.0837721 -0.186981 -0.25699 0.597171 0.40911 0.218251 0.770982 -0.500736 0.0114446 0.312071 -0.653709 -0.682606 0.454717 1.16229 -0.615098 0.584639 0.414098 -0.768851 -0.748 -0.492021 -0.328845 1.16491 -0.373977 -0.0369956 0.331632 -0.75748 -0.953455 -0.534182 0.425328 0.948075 1.12175 -0.495371 -0.128834 0.860438 0.787605 -0.012751 -0.352656 -1.01637 0.0443559 -0.209438 0.139398 -0.482952 -0.0442003 -0.886762 0.337079 -0.426947 0.352121 0.294302 0.250979 0.0305916 -0.679297 0.43495 0.7639 -0.177282 -1.20716 -0.297455 0.474494 -0.0890788 0.268438 -0.110723 0.178958 -0.190338 -0.0994554 -0.269765 0.0818083 0.365934 -1.36051 -0.0600583 0.375988 -1.31656 -1.00074 0.68632 -0.536486 -0.516786 -1.2338 -0.573335 -0.433076 0.156694 -0.17858 0.927061 0.23567 0.235769 0.361726 0.2724 0.0287885 -0.494835 -0.000403765 -0.355729 -0.346098 -0.137695 0.115177 -0.0470482 -0.106616 -0.0398152 -0.110814 -0.200421 0.349519 0.885103 1.44421 0.578243 -0.18201 0.610057 -0.949545 0.0772445 -0.510285 0.855792 0.359361 0.759763 -0.0683137 -0.705605 -0.157409 -0.6182 0.140208 -0.457469 -0.27106 -1.48772 -0.632629 -0.788859 -0.220661 0.246372 -0.924607 0.0447529 -0.802298 -0.414384 0.847066 0.00831288 0.147668 -0.335137 -1.03105 0.982424 0.492087 -0.728289 -0.193838 0.340248 -1.058 0.286495 -0.277211 0.201013 -0.394373 1.33916 -0.0100269 0.537146 0.426044 0.238146 -0.941451 0.578843 0.602522 -0.781418 -0.951724 0.926297 0.501754 0.241888 -0.755367 0.490781 -0.580763 0.0796141 -0.128569 -0.120637 0.648221 0.0141816 -0.155312 -0.224451 0.901112 -1.29487 -0.0968499 -0.292228 -0.208302 0.663766 0.590484 0.694822 -0.986974 0.262247 
0.215554 0.707595 -0.39007 0.0149435 -0.984901 0.261411 0.602746 0.446808 0.0949485 -0.204285 -0.542819 -0.540926 -0.417984 -0.567929 0.226038 -1.03966 0.310221 -0.201013 -0.590834 -0.0444425 -0.817406 -0.389155 0.0994464 -1.29443 0.158225 -1.39862 -1.4425 -0.567414 -0.0371419 -0.643318 -0.661638 0.708302 -0.199084 0.93199 0.286531 0.645023 -0.763569 0.469635 -0.000760554 0.912363 -0.380549 -0.148897 -0.00535112 -0.22033 0.14714 0.316668 -1.32917 0.35661 0.0165048 1.12112 -0.0312815 0.546229 -0.0950955 0.898655 -0.116548 0.262248 0.308703 0.451816 -0.443237 -0.0260685 0.68309 -0.00820602 0.2696 -2.15514 0.913878 0.286192 0.210707 -0.559274 0.604288 -0.227056 0.6327 -0.379897 -1.45172 -1.83168 0.0232553 -0.68437 0.0480282 -0.226897 0.37613 -1.31328 -0.980521 -0.171036 -1.0931 1.07501 0.403772 -0.674726 -0.348455 -0.246807 0.404581 -0.545 -0.511359 -0.524934 -0.341802 0.370674 0.933688 -0.409441 -0.0530316 -0.946022 0.348391 0.780503 0.770324 0.0416753 0.150965 -0.387254 0.770413 -0.637678 -0.139805 0.427015 0.107962 0.435488 1.45409 0.0547904 0.0914061 0.33406 -0.183187 -0.585718 -0.448315 0.454699 -0.459275 -0.403468 0.110469 0.631475 0.349318 -0.199187 0.662604 0.857259 0.199859 0.772815 0.79156 -0.119012 -0.528839 -0.0752272 0.541646 0.410959 1.05626 0.94588 0.977658 -0.16273 -0.207002 0.125409 -0.157396 0.646434 0.719417 -0.591851 -0.24148 0.55377 1.18245 -0.034861 -0.504719 0.30151 0.572166 -0.762773 -0.512968 -0.11922 -1.03548 0.0424249 -0.160545 -0.363664 -0.472616 -0.777163 0.959375 0.542619 -0.360562 0.408852 -0.495004 1.1275 0.586468 1.00057 -1.44829 -0.7246 -0.210398 0.357516 0.144223 1.27373 1.07059 0.836272 -0.0933277 -0.17442 -0.8103 0.812014 -0.953895 -0.745601 -0.363167 0.251645 -0.000692953 -0.711892 -0.11127 0.695838 -1.24472 1.10765 -0.236914 0.35906 -0.126446 0.868504 -0.224746 -0.773438 0.194585 0.668859 0.0227591 0.613039 -1.6582 0.333499 -0.311253 0.551824 0.699473 -0.211716 0.341058 -0.212358 0.64058 -0.381627 -0.249536 -1.25135 -0.580361 -0.0246511 -0.263809 0.295081 -0.488016 -0.110525 0.184445 -0.783252 0.0491308 -0.373453 -0.442879 0.239745 -0.138234 -0.0317511 0.328681 0.136096 -0.570856 0.999243 0.721815 0.159016 -0.322954 -0.746709 -0.15177 -0.987316 -0.948922 -0.803221 0.569128 -1.34811 0.0418492 -0.504897 0.94927 -0.451349 0.153135 -0.458296 0.260644 0.165738 -0.0843791 -0.0650905 -0.56652 0.136051 0.372698 0.36614 0.361141 -0.685729 
0.910083 -0.554705 0.00844478 -0.57234 0.145558 -0.855905 -0.997388 0.707099 -0.138104 -0.183392 -0.719109 -0.574032 0.209647 0.34305 -0.110028 0.42224 -1.14358 -0.248814 -0.140521 -0.223652 -0.838441 -0.56084 -0.675299 -0.589717 0.382512 -1.05924 -0.00788046 -0.787306 -0.769992 1.11566 -0.689184 0.112297 0.663405 0.570378 1.21671 -0.970721 0.0289968 0.588315 -0.0725793 0.123663 -0.556523 0.456464 0.31465 -1.29162 -0.827424 -0.297675 -0.975404 0.319824 -0.239871 -0.660961 -0.302861 -0.447465 1.08646 -0.380742 -0.471573 0.630537 1.03468 -0.365529 0.637068 -1.35472 -0.403563 -0.178681 -0.156033 0.208939 -0.272464 0.650906 0.179141 0.0926468 0.10055 0.326748 0.686098 0.935764 0.500629 -0.244666 1.16599 -0.26908 -0.315205 0.121242 0.192321 1.03795 0.340798 0.524492 0.44769 0.941331 -1.28745 0.837042 0.395827 0.590587 0.392955 0.328289 -0.242417 0.948152 -0.139817 -1.06711 0.503993 -0.555535 0.442113 -0.975224 0.230915 -0.0550834 -0.411304 -0.48207 -0.198756 0.226399 -0.35967 0.706756 0.146938 0.311691 0.405255 -0.236671 0.689061 -0.472183 -0.364647 -0.35782 -1.04114 -0.364152 0.391312 0.231212 0.0984942 -0.0349339 0.0658063 0.35915 -0.181577 -0.709229 0.187534 -1.18106 -0.35571 0.436604 -0.952975 0.000141125 -0.840156 -0.276047 0.491733 0.734504 -0.410916 -0.225303 0.625249 0.233126 -0.965137 -0.449333 -0.317733 -0.193896 -0.0483595 -0.416888 1.17145 0.0550456 -0.165029 -0.0615212 0.442967 1.40178 0.346003 -0.0814545 -0.5633 -0.483071 -0.259263 -0.103025 0.0656883 0.363532 -0.418202 0.0715886 0.138324 -0.889166 0.631452 -0.114237 -0.309677 0.0829662 -1.68004 -0.60417 0.00164145 -0.309472 0.0132919 0.00567291 0.0374307 -0.0792663 0.427399 0.0527259 -0.64108 0.642216 -0.454444 -1.25192 1.1159 0.508954 -0.00747631 -0.594192 -1.21336 0.20144 -0.013931 -0.128048 -0.332469 -0.219251 -0.0242458 0.0741373 0.665074 0.918134 -0.169232 -0.0041858 -0.517589 -0.629412 -0.699173 0.682462 -0.464921 0.0394024 0.0617603 0.941566 -0.737836 0.172261 -0.327319 -0.377508 -0.376629 -1.15041 0.163958 -0.0531274 1.02068 0.79155 0.320557 0.00116769 1.48937 0.613514 0.0701598 0.272814 1.32555 0.474971 0.556529 0.301845 0.248888 0.0145465 0.137707 -0.551989 -0.0954702 -0.733176 -0.0933488 0.920065 -0.335182 -0.0662259 -0.316609 -0.0928576 1.22532 0.309234 -0.193638 0.297991 0.589954 1.65424 -0.285782 -0.351597 -0.912051 -0.238284 0.75207 0.756604 0.30006 -0.616894 -0.14871 1.05634 -0.457978 -0.0937833 -0.0449396 0.472116 
-0.410866 -0.53956 -0.548917 -0.104484 0.663065 -0.195064 0.658396 -0.0844974 0.525422 -1.00814 -0.482927 0.311151 0.399908 -0.604966 0.630473 -0.423029 0.745548 -0.147528 -0.958225 -0.249004 -0.211832 -0.880514 -0.150026 -0.748523 0.46017 0.388909 -1.01582 0.0609978 -1.29881 1.19852 0.764928 -0.624387 -0.246983 -0.938403 0.524858 0.106928 0.561023 -0.192704 -1.22933 -0.0903124 0.0678052 -0.795703 0.396423 -0.277293 0.180917 0.498445 -0.586001 -0.917431 -0.286786 -1.37045 -0.391622 -0.0410627 -0.735977 0.129532 0.0922707 0.0729464 0.121311 0.122887 0.119006 0.318865 0.334427 0.41347 -0.248377 0.322433 0.534131 0.619822 -0.268548 0.0972367 -0.475708 0.289648 -0.698792 0.0105739 -0.420933 0.355801 -0.146591 0.163218 0.46758 0.644003 0.0758439 0.238517 -0.00929216 -0.296656 0.196873 0.657458 0.522573 0.918222 0.272583 0.174145 0.157036 0.252115 -0.793382 -0.318018 0.0927183 -1.46758 -0.654801 0.387717 -0.199496 -0.588333 0.473817 -0.365881 0.438198 -0.017157 -0.202345 -0.22693 0.697783 0.0598838 -0.461853 0.435749 -0.250264 0.560061 -0.315039 -0.224267 -0.798306 0.242308 0.541741 1.00458 0.144973 -0.0982648 -1.01297 0.131547 0.434964 -0.555469 0.151267 -0.785104 -0.854181 -0.986818 -0.463069 -0.568666 -0.146934 0.248074 -0.487584 1.34517 0.230697 0.705377 -1.35041 -0.40398 -0.493458 0.067488 0.031708 0.41938 0.0349511 -1.42424 -0.918933 0.589357 -0.098817 1.4971 0.0707384 -0.00447749 -0.555475 -0.230563 -0.342094 0.852428 0.696937 -0.229478 -0.236564 0.348213 -0.0288397 -0.533385 0.0492521 0.437301 -0.391382 -0.325648 -0.0974257 -0.00153137 -0.668816 -0.552321 0.680874 -1.04555 -0.763173 -0.0624872 -0.632318 1.23651 -0.378538 -0.0736855 -0.251351 -0.922432 -0.992881 0.735784 1.11476 -0.75192 0.0328752 -1.32512 0.303286 0.631192 1.21022 -0.491899 -0.283442 0.619824 0.780715 -0.171888 -0.893614 1.01779 0.32488 -0.494687 0.952494 -0.182475 0.190716 -0.0877729 -0.543808 -1.19873 -0.470513 1.17255 0.453195 -0.401073 -0.252641 0.572335 0.135908 0.0216604 0.174744 0.349382 0.680296 0.457684 -0.0781352 0.0224494 -0.0912057 -0.936238 0.6459 -0.411808 -0.124122 0.0625932 0.448024 0.351982 0.613886 -0.547907 -0.408052 0.71962 0.409568 1.3968 -0.630991 0.784369 0.371844 -0.349409 0.872501 -0.58335 -0.0280376 0.0888508 0.15991 -0.38353 -0.552961 0.865492 0.525184 -0.084463 -0.696176 -0.26323 0.0139904 0.176407 0.687331 0.287977 0.405013 -0.232029 0.321002 -0.455639 0.0896338 -1.05669 0.22038 0.0545301 
0.325639 -0.939386 0.329479 0.397053 -0.224005 -0.993489 -0.116749 0.294794 0.178662 -0.760081 -0.135078 -0.583082 -1.12896 -0.320183 -0.233264 -0.323399 -0.642121 0.205829 0.393617 -1.22742 -0.592308 0.0801311 -0.977601 -0.167668 -0.13402 -0.520545 -0.480467 0.765412 0.219002 1.12616 0.221882 0.248795 0.212748 -0.457184 0.200125 -0.287381 -0.362912 0.926192 -0.254714 -0.193504 0.847284 -0.117227 -0.168843 0.0510265 0.604495 0.218374 0.752904 0.261717 -0.216934 -0.228485 -0.772501 -0.572586 -0.0216498 -0.682157 -0.674929 -0.369131 -0.265476 0.0200375 0.409546 -0.158021 0.36189 0.766307 -0.364628 0.546395 -1.0312 0.214663 0.112648 0.318021 -0.533277 0.336974 1.18738 -0.321222 -0.398471 -1.06788 0.0768992 0.376355 0.0222205 0.0446127 -1.20164 0.226185 0.0660282 -0.950278 0.910805 0.277335 -0.0795818 0.0883412 -0.312737 -0.455484 -0.277458 -0.141651 0.370925 -0.159158 -0.558852 0.0494694 0.280621 -0.623282 0.0904004 -0.0786408 -0.603846 0.322957 0.600512 -0.40738 0.210209 0.720645 0.026344 -0.160143 -0.423172 -0.169857 0.254893 -1.17678 1.17386 -0.0549864 -0.921735 0.808735 0.0629028 0.399586 0.0176418 -0.294856 -0.473386 -0.120448 0.136913 1.21333 -0.474021 0.782374 0.299187 0.0333155 -0.258469 -0.155102 -0.801328 0.251317 -0.510963 0.689998 -0.0228716 -0.108973 -0.200327 -0.253113 -0.16062 -0.122395 -0.739717 0.136932 0.824796 -0.394755 -0.939802 0.293581 -0.472013 0.42074 0.41256 -1.04156 -0.495733 0.375169 -0.966786 1.0785 0.0981436 -0.786806 0.402284 -0.197687 0.178909 0.39308 0.905016 0.219033 -0.547028 -0.105887 0.0990086 -0.66725 -0.672303 1.02074 -0.466613 -0.568867 0.695976 -0.0976666 1.19316 -0.0789582 -0.0898039 0.663459 -0.872945 0.0785917 0.410468 -0.840557 0.158367 0.0473917 -0.443837 -0.567874 -0.221176 -0.928423 -0.967707 0.735634 0.591601 0.216535 1.05184 -0.60632 -0.244684 0.168459 0.0668783 0.689771 0.934505 0.523805 -0.199149 -0.341694 -0.0478625 -0.0654465 -0.596975 -0.556534 -0.791514 0.396701 -1.29485 0.787918 -0.507796 -0.303583 1.07773 0.204836 0.144022 0.603866 -0.684211 -0.125998 -0.305416 -0.993488 0.706505 1.37087 0.277326 0.480031 -0.138199 0.272078 -0.526631 -0.504483 0.531469 0.52711 0.891844 -0.058878 0.929406 -0.567525 1.1207 0.243824 -0.449481 -0.822763 0.236257 -0.417316 0.0477776 -1.20804 0.686976 -0.109024 0.664359 0.0306967 0.14995 0.400008 0.296097 -1.0725 -0.561029 -0.891044 -0.0425778 0.404285 -0.751035 0.0172407 1.03006 0.443722 -0.150145 -1.46219 
0.380417 -0.694328 -0.174734 -0.406984 -0.35296 -0.110266 -0.727263 0.644659 -0.396519 0.103224 -0.119195 0.599137 -0.560047 -0.088791 0.67143 -0.602872 -0.406784 0.678712 0.079471 -0.0840288 -0.648491 -0.00702343 -0.978259 -0.748385 -0.779347 -0.145974 -0.268726 -0.556062 -0.593059 -0.911268 -0.74212 -0.969369 0.396375 -0.726019 1.04156 -0.279284 0.669276 0.0112911 -0.322149 1.4476 0.750312 0.392741 -0.0137856 0.565552 -0.420077 0.71418 0.277632 0.396374 -0.292505 -0.138683 -1.03299 -1.21397 -0.0862995 0.907551 0.214036 0.263169 -0.0122018 -0.723081 -0.419714 0.123566 0.763499 0.239522 -0.0381631 -0.738268 0.203581 0.0238503 0.540724 -0.281948 0.0427974 -0.235011 0.20328 -0.232549 -0.901712 1.07678 0.616748 1.28525 0.646307 1.82496 0.611162 0.556015 0.817343 0.894849 -0.620432 0.569458 -1.2945 -0.140601 0.264176 -0.126952 0.425037 -0.162321 0.695895 -0.40763 -1.18025 0.245314 -0.0951261 -0.0186316 -0.492256 0.589435 0.534327 0.127226 0.189615 -0.653061 1.15801 0.365073 -0.295815 0.202091 1.55334 -0.597719 -0.1865 0.0683347 1.17379 0.436883 0.59635 -0.257858 -0.281231 -0.549227 -0.49846 -1.3277 -0.00380441 0.0561894 0.097057 0.411054 -0.17087 0.593589 -0.782322 -0.0420587 -0.113021 0.936824 1.1584 0.140977 -0.154511 0.11526 -0.861134 0.218184 -0.246999 -0.22662 -0.311012 0.833621 0.683025 -0.384772 0.725858 0.0174927 -0.853063 -0.271351 1.34899 -0.434074 -0.229615 -0.878599 -0.0714954 -0.608625 -0.365429 -0.00964589 -0.0238954 -0.416267 1.13575 0.744176 -0.229576 -0.767736 -0.995728 -0.374295 -0.724542 0.812377 -0.541072 0.852842 -0.144781 0.270424 -0.205323 0.198638 -0.418466 -0.0209913 -0.860256 0.251703 -0.624658 0.660939 1.40938 0.940225 -0.202232 0.123058 -0.484378 -1.09785 0.498329 -0.407546 0.378719 -0.484309 -0.652078 0.105077 0.116234 0.837991 0.101386 -0.230747 -0.988961 0.273254 -1.0115 -0.268915 0.392067 0.43309 -0.328893 -0.777556 0.104872 0.208891 0.617832 -0.221199 -0.827966 0.726132 0.191495 0.884102 -0.812448 -0.444868 -0.694555 -0.412921 -0.154877 0.00986676 1.17066 -0.262266 -0.519108 -0.0810989 0.713404 0.032784 0.831043 0.896914 -0.377211 -0.350452 -0.386056 -0.0357695 0.736984 0.279903 -0.277816 -0.09815 0.904373 0.191974 -0.60122 -0.791712 0.722841 0.115862 -0.0546078 0.347451 0.50719 -0.638228 -0.56558 0.21216 0.0054342 -0.657048 -0.423941 -0.873037 0.016714 0.533783 -0.162679 0.209241 -0.565856 -0.17803 0.497668 0.0288044 0.0956006 0.124609 -1.43627 -0.150956 
-0.463839 -0.826479 0.0137652 0.159993 0.166329 -0.378108 0.790482 1.22999 -0.378281 0.343458 0.511641 0.129161 -0.574139 0.182098 0.18055 -0.208619 0.681496 -0.253781 0.48691 -0.0214872 0.408056 -0.79817 -1.15458 -0.398153 -0.0421032 0.972712 -0.154558 0.621994 0.456054 -0.388538 -0.336041 -0.620345 0.53313 0.473782 -0.572338 -0.386471 0.123494 1.39699 -0.813148 -0.716741 1.33521 0.044442 -1.4138 -0.547327 -0.5914 -0.464228 -0.177613 0.383452 -1.02721 0.459276 -0.0440302 -0.482767 0.618543 -0.193522 -0.516924 -0.664197 0.308088 0.580784 0.735742 0.276599 0.0371554 0.0399164 0.915662 0.348288 -0.0854109 0.0151559 -0.55015 1.08275 0.134531 0.306948 -0.117373 0.1313 -0.548352 0.00659093 0.298817 0.0358153 0.441301 0.630359 -0.129956 -0.829927 0.140388 -0.727679 -0.816642 -0.25533 -0.14372 -0.716831 -0.921168 0.517947 -0.808014 0.667591 -0.250546 -1.29718 0.0438416 -0.430119 -0.533904 -0.170645 1.36077 0.539385 -0.740922 -1.13944 0.161945 0.286042 0.331313 -0.117323 -0.0937111 -0.0402071 1.50577 0.298632 -0.144713 0.359705 0.0610581 0.20731 -0.805524 -0.283509 1.22572 -0.0415144 -0.0123932 0.0883869 0.151191 -0.689396 -0.770268 -0.176909 -0.616559 0.048089 -0.899829 -0.401377 -0.203226 -0.519129 -0.231973 1.07256 0.264032 0.23695 -0.294069 0.18552 0.347628 -1.02671 0.55645 -0.397785 0.106605 0.80282 0.770381 0.443472 -0.210312 0.144067 -0.12421 -0.358256 -0.0442305 0.0765655 -0.176455 0.392963 1.43528 -0.660739 -0.342209 -1.14312 -0.795358 -0.840085 -0.0579669 0.0328979 1.03998 -0.551441 -0.293301 0.889871 -1.03208 0.314154 -0.0460691 -0.391499 -0.9541 -0.964318 -0.92611 -0.202555 1.05308 0.0606017 0.467244 0.784548 1.63214 0.25069 6.06289e-05 0.463373 -0.248957 -0.47124 -0.0163808 0.478993 -0.428757 0.69583 0.573967 -0.0912768 0.336471 0.136352 1.31491 -0.742387 0.416175 0.163636 -0.166354 0.993135 -1.30689 0.0903765 0.17459 0.620732 -0.580308 -0.793613 -0.0534092 -0.0534508 0.368567 0.357861 -0.521528 0.445488 0.648874 0.164129 -0.954659 0.365522 -1.60265 -0.273279 -0.0721438 0.331776 0.980795 0.0435247 -0.848953 -2.07628 1.12515 -0.606207 -0.0747455 0.138611 1.07021 -0.147463 0.0472384 0.413905 -0.660728 -0.066787 -0.596108 -0.08732 -0.467026 -0.331867 0.450899 0.286226 -0.627148 1.27499 -0.325231 -0.155782 -0.0761789 0.163479 0.817885 0.517211 0.167816 1.01676 0.854336 -0.181042 0.565963 0.496835 -0.597103 0.513105 0.733648 0.589205 0.0741511 -0.0537841 0.552168 0.681318 
0.261532 0.468127 -0.554425 1.02276 0.00709891 -0.621077 -0.974393 -0.193604 0.0390191 0.234615 -0.759759 0.751032 0.25862 0.492917 0.508926 0.853782 -1.13901 1.32877 0.707171 -0.348097 -0.514923 0.877354 0.295212 0.763797 -0.155122 -1.21992 -0.810297 0.550496 -0.892645 -0.142641 -0.631332 -0.682088 -0.702116 -0.275308 -0.817682 0.53296 -0.202223 -1.1722 0.24848 0.104476 0.423024 -0.519089 0.61424 0.0508408 0.200397 0.435269 0.542187 -0.712123 0.431656 0.872094 0.140936 -1.264 -0.346174 -0.367325 0.0402916 0.269031 -0.399643 -0.0288195 0.705072 -0.991813 0.621697 -0.122486 0.918626 0.562535 -0.444014 0.453314 0.339228 0.323225 -0.224171 0.346518 -0.637938 0.485041 0.382669 0.0826012 -0.890837 0.730831 -0.613963 -0.053142 0.0492373 0.370095 -0.0989901 -0.874915 0.0730444 0.186779 1.02797 1.54244 -1.03531 -0.244897 -0.0307639 0.921197 0.956768 -0.521414 1.35478 0.489123 -0.109054 2.05337 -1.28525 0.104047 -0.617602 0.223697 0.740815 -0.197395 1.19028 1.06643 -0.475698 -0.339083 -0.546857 -0.786888 -0.156004 0.191196 -0.142891 -0.464902 0.0559204 -0.101253 -0.302251 -0.701953 -0.715277 -0.633042 -0.48072 0.362459 0.562411 0.0816343 -1.23742 -0.170133 -0.504064 0.985292 -0.300007 -0.167176 -0.472815 -1.00818 1.01762 -0.0372454 -0.516453 0.176395 0.185054 0.206057 -0.95982 1.16111 0.438796 0.0996332 1.10447 -0.114627 0.310141 -0.180401 -0.565916 -0.639595 -0.738764 0.0427006 0.210314 -0.744339 0.760576 0.438645 -0.783898 -0.0969668 -0.596675 0.788118 -0.0738602 0.211039 0.269817 -0.160083 -0.589623 -0.0217859 -1.58354 0.330728 0.0288362 0.233778 -0.154464 -0.0195143 0.0710564 0.989903 -0.309185 -1.00872 -0.20037 -0.31136 0.414956 0.646184 0.112315 -0.751899 -0.0129021 -0.490744 -0.366556 -1.22913 -1.75093 0.0585613 0.386333 -0.588589 1.27086 -1.41523 -0.179487 -0.539448 -0.0339569 0.225259 0.494637 -0.499516 -1.14028 -0.652777 -0.379869 0.0500857 -0.509606 0.958525 1.22761 -0.00643625 0.89195 0.0361432 -0.221984 0.833217 -0.0742727 0.223494 -0.456283 0.013751 -0.260879 0.28729 0.214307 -0.128694 -0.178295 0.587823 -0.224228 -0.0468412 -0.577633 0.12936 -0.634395 -0.0753779 0.50264 0.0849404 -1.19311 0.0830311 -0.188665 0.401781 -0.033004 1.43623 -0.892622 0.421731 0.635819 -0.442259 0.00703246 0.456875 -0.722619 -0.591111 -0.178712 -0.743563 0.214672 0.483486 -0.652437 1.16257 -0.673294 0.358243 0.0221929 -0.617597 0.291195 0.737047 -0.294176 1.77398 0.195651 0.307068 -0.0946913 -0.101463 
0.986115 -0.68314 -0.345977 -0.18933 0.115222 -0.560425 0.485156 0.362803 0.00605811 0.745006 0.518803 0.010133 -1.19319 0.182904 -0.00108225 -0.222488 0.340176 -0.34086 -0.716724 0.713395 -0.0504324 -0.544852 0.604911 -0.319757 0.192186 0.176444 -0.50613 1.02655 0.534093 0.873653 -0.273116 0.781494 -0.165151 0.114064 -1.8312 0.328592 -1.01823 0.225536 -1.37375 -0.488459 -0.0181224 -0.403291 1.02697 -0.717343 -0.321895 0.0947258 -0.641107 -0.16294 -0.907748 0.174573 -0.478253 0.00533967 -0.518021 0.882422 0.575553 1.30011 0.0837 0.485212 -0.0989566 0.194764 -0.257966 1.14585 -0.817244 0.752548 0.6133 -0.708507 -0.0142446 0.0433439 0.140449 0.521247 -0.124862 0.706632 -0.942489 0.01895 -0.235648 -0.825019 0.460534 -0.313812 0.199173 0.344384 0.788845 0.570791 -0.444347 -0.583165 -0.800187 -0.178793 -0.130416 0.285866 -0.270571 0.23363 0.246866 0.224851 0.325828 -0.87617 -1.05153 -0.448109 -0.568438 -0.135728 -0.331128 0.424822 0.109583 0.739771 -1.31639 -0.247186 -1.26978 0.907384 -0.14525 1.237 -0.64613 0.106786 0.238081 0.236887 0.643759 -0.649102 -0.771258 -0.0858294 -0.418486 -0.193058 1.96724 0.875258 -0.419907 0.607348 -1.14515 0.261101 0.316243 0.483961 -0.667355 0.701207 -0.520913 -0.827487 0.818644 0.281784 -0.479408 -0.884097 -0.884059 -0.531792 0.456174 0.694184 1.15906 -1.86316 -0.310374 0.556007 -0.374904 -0.112795 0.26596 -0.802947 -0.142954 0.462243 0.261575 0.0127359 -0.427042 -0.304832 0.558456 -0.183057 0.19731 0.200318 -0.22796 -1.15566 0.443547 -0.266798 -0.540219 -0.263855 0.606991 -0.513635 0.649624 0.00297614 0.610754 0.00893866 1.05688 -0.419523 0.591392 -0.344817 -0.0931207 0.138794 -0.698055 -0.744138 -0.199724 0.571169 0.168476 0.766136 -0.109872 0.708347 -0.104334 -0.287655 -0.319959 -1.06862 0.4995 0.131065 -0.683091 -0.825557 0.232879 -0.486695 -0.255601 0.978404 0.750832 -0.683894 -0.3571 0.530736 -0.284107 -0.21772 -0.292666 -0.168621 0.0618137 -0.968272 0.18871 -0.883673 1.00054 -0.173181 0.510013 -0.593024 -0.988498 0.910719 0.448771 0.190952 -0.469536 -0.225996 -0.506437 -0.307489 0.124695 -0.459093 -0.258696 0.319425 0.887431 0.875098 0.282184 -1.05853 0.84452 -0.0149593 0.0272153 -0.405901 1.1714 0.0688418 0.0473165 0.00389469 -0.07602 0.81974 -0.518829 -0.845347 0.574609 -1.1138 -0.259401 0.0995063 -0.769535 0.521435 -1.28475 -0.218232 -0.263484 -0.187329 -0.40625 -0.0656869 0.115963 -0.55958 -0.177665 0.0537629 -0.687392 0.0353456 
-0.087205 -0.249545 -0.293035 -0.415082 -0.685748 -0.508656 -0.595082 -0.748199 0.120473 1.25997 0.0687804 0.639949 -0.243774 0.742651 -1.02528 0.648696 -0.0707481 0.176485 -0.675645 -0.662483 -0.52119 0.515956 0.478337 0.27374 0.0797855 -0.149714 -0.0424466 -0.859878 0.360429 -0.292847 0.549246 -0.974998 -0.617367 -0.106732 -0.525021 1.10164 -0.134568 0.301195 0.0782452 -1.12429 1.05669 0.321543 -0.470415 1.08858 -0.0468299 -0.453658 -0.842693 -0.0436601 0.404533 0.59971 -0.743369 -0.633339 0.628218 0.5345 -0.787901 -0.668588 -0.161201 0.417942 0.462291 0.832181 1.46016 0.670157 0.0746394 0.478619 0.0993012 0.203183 -0.590324 0.967772 -0.812253 0.323989 -1.1666 0.257187 0.0830379 0.761236 -0.711222 -0.623404 -1.92098 -0.131352 0.0374447 0.42831 0.6765 -0.0148845 0.669397 -0.38494 0.616571 0.079714 -0.665958 -0.16242 -0.579416 -0.92014 -0.143071 0.499182 0.489984 -0.0395723 -0.663261 -0.933877 -1.84061 0.163092 0.266768 -0.881807 -0.985891 -0.503851 -0.126366 -0.392193 -0.414342 0.368554 -0.282888 -0.363033 -0.51312 1.67704 -0.663489 -0.879183 -0.502912 0.137636 0.176632 -0.163127 1.03904 -1.31478 0.684653 0.349943 -0.707777 -0.37985 -0.723883 0.432387 0.184682 -0.0463818 -0.548103 -0.290625 0.18152 -0.17934 -0.0828534 0.0591833 1.09799 0.0862996 0.113737 -0.699796 -0.219365 -0.341179 0.183381 0.0303872 0.599232 0.360888 -0.689691 -0.676762 -0.658847 0.526844 -0.564899 0.145467 0.084935 -1.40197 -0.436238 -0.473057 0.816403 0.265016 -0.170819 -0.958697 -0.0357207 -0.0429733 0.612518 -0.324606 -0.488926 0.340929 -1.07221 -0.727219 -1.12623 0.737456 0.426812 -0.196876 -0.0469033 -0.014465 -0.152604 0.821335 0.059523 0.602318 -0.311323 -0.0527553 -0.171715 -0.106162 0.544153 -0.466955 1.30454 -0.300618 -0.662597 -0.661595 0.228859 -0.116062 -0.191971 -0.23508 0.422093 -0.496932 -0.698843 0.275058 -1.00256 -0.100215 0.0277914 0.778845 0.92605 0.496947 -0.10254 0.143989 -0.544783 1.53647 -0.54598 0.198662 0.466007 0.205034 0.366864 -1.15746 -0.104007 0.584902 -0.882486 -0.122907 0.776949 0.138015 0.0651589 0.0185701 0.216925 0.339546 0.99826 0.188068 0.395835 -0.000791713 0.0417839 -1.12937 0.0316404 -0.229566 0.177095 -0.27682 0.363213 0.284638 -0.169813 -0.00421225 -0.116393 1.82251 -0.264243 -0.230026 -0.480879 1.10164 -0.214388 -0.670661 0.506746 -0.0407761 0.251694 -0.210541 -0.337972 -0.366707 0.150572 0.672214 -0.572716 0.24189 0.425885 0.00466543 -0.282523 0.12368 0.213486 0.470557 
-0.0910329 -0.907309 -1.32404 -0.589926 -0.893515 -0.253701 -0.733244 -0.354077 -0.317784 -1.26403 -0.435266 1.0574 -0.560633 0.113916 -0.0933394 0.377152 -0.672122 0.362598 0.449489 -0.519036 0.636706 -1.16668 -0.207005 0.167489 -0.71328 -0.449089 0.350532 -0.163475 0.454513 0.248197 0.104683 -0.261593 -0.00308323 0.360263 0.869147 -0.323121 -0.112718 -0.487901 -0.399169 0.319191 0.489046 0.303365 0.738063 -0.525452 -0.693396 -0.15393 0.11868 -0.381509 0.929881 0.61898 -0.530745 0.355497 0.707996 -0.123614 1.41109 0.139434 -0.243839 -0.598857 0.939878 0.607326 0.248556 0.952021 0.257112 -0.233659 -0.261995 0.633783 0.965935 -0.0342015 0.914454 -0.260073 0.491413 0.687866 0.823027 -0.544579 1.13135 1.03186 1.1954 -0.184825 0.627228 -0.482709 0.819098 0.718823 0.0873152 -1.23274 -1.21622 0.566822 -0.533517 0.300692 -0.428367 -0.64978 -0.327093 0.287037 -1.44339 0.337979 0.0687614 0.424588 0.562438 -1.00419 -0.796754 0.0777207 0.751654 0.0772232 0.0332225 -0.0451853 0.854752 -0.472848 -0.0245664 -0.82945 0.691043 0.331127 0.703083 0.0445318 0.7601 0.522558 0.611172 -0.0234965 -0.429479 1.06587 -1.22189 0.0956411 -0.222213 -0.492511 -0.978859 -0.554174 0.691179 -1.03709 1.41588 -0.65642 0.809096 -0.113042 0.309249 -0.752574 -0.0464571 0.154334 0.549166 -0.138757 -0.612145 -0.649084 -0.324967 -0.0375247 -0.0325859 -0.490561 0.153963 0.82643 -0.0141501 -0.144569 0.0425951 0.177039 -0.721702 0.446126 -0.121745 -0.517012 -0.636906 -0.737695 -0.669701 0.553852 0.184887 1.16066 -0.058738 -0.117318 -0.222386 0.453009 -1.24587 0.387868 -0.245426 -0.219339 0.470093 0.0196471 0.296531 0.513854 1.22529 -0.139769 0.221164 0.387592 -0.187197 0.0611354 0.272959 0.18508 -0.310091 0.679513 -0.20954 1.24757 0.808206 -0.313688 -0.633918 0.895035 0.0671428 -0.808521 0.834165 0.754108 -0.108067 0.301371 -0.0670953 0.245149 0.431728 0.910992 0.0985378 -0.00723269 0.429474 -0.298744 -0.233557 0.998793 -0.171448 0.035143 0.520651 -0.171246 -0.23117 0.861985 0.385543 -0.241004 0.701889 0.494823 0.497005 -0.985154 0.810276 0.386165 0.635726 0.813172 0.0924597 0.416653 0.678832 0.352935 0.37247 -0.826586 0.737576 -0.409632 -0.395754 -0.254953 0.636115 -0.266741 -0.350082 -0.0506169 -0.0949744 0.0132248 -0.0957298 0.308942 0.692206 0.502604 -0.512393 -0.602444 0.204088 -0.417225 0.319486 0.804539 -0.739892 0.384745 -0.0437796 1.02918 0.987691 0.0151137 0.280603 0.107597 0.390592 -0.0295291 0.152964 0.36456 
-1.1283 0.246876 -1.31211 0.549741 0.422657 -0.0520845 -0.810148 0.363122 0.151923 -0.475086 1.11588 0.227762 0.603224 -0.73867 0.132199 0.750053 0.143727 1.02741 0.0389219 -0.303875 -1.03317 -0.131786 0.670383 -0.13982 -0.118925 -0.0642488 0.00993534 0.229765 0.424071 -0.0967389 -0.378194 0.39449 0.504234 -0.296221 -0.124016 1.02135 0.821313 1.3765 1.22042 -0.0440117 0.962098 -0.572552 -0.28864 0.702838 0.0806629 0.230127 -0.36661 0.238741 -0.247845 -0.124423 0.165008 -0.519321 -0.631058 0.751733 0.91568 0.266936 -0.29194 0.051066 0.331307 -0.181474 0.757176 -1.18742 -0.589217 -0.365538 -0.761532 -1.67578 0.224427 0.597359 -0.0300149 0.24567 0.232779 0.100911 -0.331804 -0.259421 -0.796644 -0.158793 -0.691563 -0.455696 -0.0630917 -0.741806 0.243899 0.105912 0.279379 -0.918969 0.294593 -0.59837 -0.348044 0.275608 -0.423622 -1.52338 -0.483924 0.551375 -0.63735 0.470659 0.614908 -0.48137 0.674118 0.6971 -0.136608 0.56889 -0.159388 -0.591948 0.504667 -0.310283 -0.15513 0.100244 -0.484101 -0.318807 0.833596 1.11449 0.476969 -0.357606 0.54125 0.853849 -0.0554646 -0.695194 0.86955 -0.694716 0.130036 -0.0172952 -0.0266504 -0.970774 0.422439 -0.340806 -0.295899 -0.137437 -0.834638 -0.774716 -0.365952 0.9136 1.03149 -1.08857 -0.426612 -0.134271 0.222226 -0.73904 0.30501 -0.584035 -0.00232691 0.395405 1.46588 0.305913 -0.879391 -0.845361 -0.180997 -0.242405 -1.07179 -0.462401 -0.327447 0.105016 0.227471 -0.442704 1.22581 0.392191 -0.225517 0.714262 0.395 -0.731567 -0.874034 -0.762172 -0.504272 -0.422697 0.0167908 0.0405359 -0.110199 0.396642 -0.451289 -0.0234946 -0.172293 0.766596 0.103147 -0.273379 -0.18545 -0.254173 0.317324 -0.414113 0.82052 0.145372 0.198577 -0.327927 1.05949 0.199743 -0.439183 -0.205121 0.182565 -0.144089 0.345476 0.263504 -0.122746 -0.663526 1.08287 -1.2047 -0.644839 0.497868 -0.0672663 0.668007 0.532502 0.511548 -0.129784 -1.12009 0.236151 0.879 -0.765776 0.107669 -0.537565 -0.713526 -0.172739 -0.880983 0.203372 -0.189198 0.664175 -0.270754 0.320859 -0.82411 -0.365769 0.286505 0.884931 1.00819 0.554739 0.640573 0.17597 -0.42705 -0.354947 0.544997 1.18354 0.00745148 -0.46427 0.517884 0.230649 -0.141042 -0.390367 -0.593799 1.1646 0.0289901 0.479487 0.540154 -0.497301 -0.23588 -0.615194 0.337032 0.107935 -0.00593246 -0.000121588 -0.585642 -1.04777 0.166868 1.08918 -0.211943 0.0985645 0.105675 0.997416 0.650559 0.721028 -0.505008 -0.788498 -0.561574 
0.780648 -0.000567509 -1.32373 -0.244895 -1.14182 -0.300317 0.963871 -0.306941 -0.879075 0.268757 -0.331911 -0.466257 0.29374 -0.83852 0.741586 0.833943 0.274993 1.09656 0.594493 -0.180749 -0.112141 -0.397009 -1.38698 -1.01956 0.842416 0.0606561 -0.695813 -0.166154 0.454109 -0.0920568 -1.18714 -0.0598954 0.684012 -0.281737 -0.0534643 -0.167645 0.351069 0.299095 0.0600541 0.281973 -1.21425 -0.296658 0.135453 -0.248746 0.236544 0.546251 0.377232 -0.758811 0.189017 0.0502684 -0.571897 0.916311 0.563376 0.0911331 -0.290068 -0.168063 0.0755736 0.43096 1.48303 -0.767503 -0.194886 -0.207508 0.597817 0.893036 -0.241546 0.347917 1.06087 -0.43847 1.06224 0.606632 -0.55976 0.64896 0.345732 0.0694365 -0.0428248 -0.469606 0.046242 0.679359 -0.480144 0.607455 -0.738542 0.0365263 -0.306823 -0.547245 -1.09579 -0.49854 0.323857 0.574779 1.18626 0.87227 -0.454261 0.110444 0.775375 0.309884 0.769036 -0.669713 0.383448 -0.283379 -0.298593 -0.354291 -0.23314 0.939308 0.851665 -0.0576009 -0.940897 0.225259 -0.31807 -0.880511 -1.02456 -0.13344 0.26369 -0.00513497 -0.692278 -0.376395 -0.810122 -0.942032 -0.189408 0.0419326 0.405383 -0.0692342 -0.362626 -0.263189 -0.00623716 0.697568 1.42212 -0.628684 0.0175735 1.00177 -0.12892 -0.173469 1.34677 0.452156 -0.0469686 0.681673 -0.221464 -0.00515649 0.313863 0.117755 -0.586102 0.266246 1.43975 0.0360716 -0.114026 -0.694702 -1.42438 0.618471 0.811274 -0.55316 -0.214902 -0.245166 -0.293865 0.369821 0.590231 0.294127 -0.437495 0.832062 0.0541605 -0.817902 -0.0358778 -0.3085 -1.45248 0.273832 0.356617 0.577616 1.13542 -0.025168 -0.593388 -0.79448 1.24168 0.227447 -0.169639 0.0183466 -1.29995 0.147828 0.391087 0.572948 0.805628 0.39167 0.875823 0.170146 -1.0832 0.562069 1.05754 -0.370667 -0.579929 -0.0124029 0.309574 0.292639 -0.48861 -0.227826 0.0766695 0.66613 0.110124 -0.434289 -0.0256109 0.211601 0.672465 -0.275762 0.162934 -0.883174 -0.0557164 -0.269259 0.804454 1.2157 0.584043 0.0235129 0.456579 0.262299 0.273566 0.915942 1.1754 -0.321356 -0.277908 -0.318342 -0.11912 -0.160862 -0.079057 -1.01451 0.204256 -0.116168 0.193303 -0.196964 -1.13215 -0.157074 -0.552623 0.819108 -0.364472 0.519062 0.0646945 0.979625 -0.315493 0.111885 -0.716778 -0.225172 0.192829 0.685126 -0.536101 -0.537444 -0.39932 -1.34142 0.586918 0.45855 0.267516 -0.399717 0.600421 0.412229 -0.418023 0.0309795 -0.343385 -0.0321532 0.0428393 0.159056 0.00637421 0.567752 -0.468394 -0.192436 
-0.243056 -0.0437052 -1.52788 -0.17621 -0.482103 0.84974 0.452061 -0.304154 -0.875478 -0.986626 -0.465106 -0.684085 0.326887 0.467419 -0.258897 -0.397339 0.302163 0.503748 -0.170068 -0.854045 0.0574317 0.594399 -0.295918 -0.0711384 0.919264 0.321359 0.28404 0.156733 0.292715 -0.892205 -0.970185 -0.827277 0.256651 0.0600252 -0.100264 -0.112358 0.114501 -0.49863 0.231802 -0.905837 -0.0286699 0.349207 -0.281913 0.273656 0.918637 -0.201196 -0.92317 0.532779 0.318321 -0.119201 -0.983457 -0.311579 -0.0355308 -0.433586 -0.897645 -1.26192 0.960187 0.3528 -0.395596 0.226364 -0.319581 -0.656443 -0.649966 -0.0116557 -0.739334 -0.749304 -0.734931 0.596254 0.14153 -0.333108 -0.334073 -0.666376 -0.137624 0.419307 -0.79553 0.972799 -0.349345 0.104568 0.542145 -0.901596 -0.840584 -0.0608732 0.0590278 0.171969 -0.269781 0.907243 -0.102305 -0.754032 0.338753 0.66577 0.454067 -0.0903174 0.573799 0.496884 -0.289368 0.322507 -0.277216 1.17649 0.100252 -0.919435 -0.326332 0.0149487 0.711506 -0.133085 -0.0318801 0.909577 0.177284 -0.704377 0.566318 0.283341 -0.329012 0.254173 0.453772 0.891151 -0.829708 -0.323912 -0.599108 0.0357348 0.068958 0.654436 0.313822 -0.619999 -0.128885 1.10884 0.183417 -0.189378 0.623016 -0.156036 -0.214991 -0.670689 0.702431 0.122913 -0.231334 -0.0739925 0.0969667 0.875503 -0.297218 -0.45366 0.680225 0.88266 -0.92945 -0.908513 0.00326339 1.38105 0.534208 0.465873 -0.384899 0.761246 -0.176834 0.0973492 -1.11903 0.923907 -0.552829 0.507032 -0.627658 -0.587498 0.00107575 -0.429332 0.749089 0.439547 0.705527 -1.17371 0.990619 0.1585 0.335525 -0.511706 0.0158067 -0.580769 0.284907 0.260118 1.2566 0.0750193 -1.19794 -0.481416 -0.580323 0.505677 -0.88113 0.610369 -0.189389 -0.325631 0.0683428 -0.317353 -0.0973299 0.443045 0.816743 -0.0245407 -0.340003 -0.108931 -0.499809 -0.386399 -0.40812 -0.136058 1.04448 -0.396919 -0.668348 -0.262447 0.811052 0.285169 0.269283 -0.409517 -1.27343 -0.34478 -0.142655 0.517288 -0.977143 -0.10417 0.03652 0.353604 -0.720746 0.160963 0.574571 -0.611484 -0.0250501 -0.0755423 0.272927 -0.866689 0.191389 0.634947 -0.124193 0.872508 -0.157819 -0.0385876 0.152132 -0.080243 -0.714978 1.00056 0.317474 0.208134 0.157779 0.146459 -0.887214 -0.523438 -0.019348 0.0137564 0.196891 -0.239112 -0.21921 -0.0490642 0.24521 0.525397 -0.0800367 -0.0550573 -0.338548 -0.104721 -0.837895 0.776034 0.746854 -0.721033 0.308029 0.730245 -0.242783 0.110143 0.163038 -0.239539 0.468758 0.238432 
-0.0629065 -0.375531 0.196007 -0.128304 -0.364786 -0.625168 0.197453 -0.321655 1.31121 0.453471 -0.0832836 -1.51365 -0.859386 0.197799 1.1277 0.0716386 -0.621457 -1.05049 0.826398 0.348471 1.01285 -0.438088 0.0565338 0.376648 -0.445525 -0.139141 -0.262289 1.6088 0.0480149 -0.117689 -0.722146 0.425156 -0.599114 -0.0496774 -0.337324 1.18131 0.242985 0.540829 0.74929 -0.381815 -0.808416 0.203372 0.0980847 0.244791 -0.376461 0.0316417 -0.127859 1.02868 -1.17539 0.202224 0.577031 -0.0501987 0.656371 -0.00162973 0.917533 0.122109 -0.612451 0.276289 0.581239 0.385827 0.430209 -0.74734 0.843706 0.329893 0.840102 -0.153017 -0.528093 -0.916442 -0.517132 -0.349739 -0.232883 0.588898 -0.701994 -0.534473 -0.0888302 -0.633923 -0.814364 0.706201 0.361934 -0.228898 -0.18239 0.390043 -0.528004 0.842394 -0.321809 1.06945 0.463975 -0.0988542 1.45113 1.06249 -0.718555 -0.109193 0.847038 0.197918 0.0601652 0.243808 -0.450587 -0.10906 -0.273718 0.812303 -0.521361 -0.525876 -0.594985 0.60271 -0.260181 0.0630568 -0.994137 -0.00337097 -1.51466 -0.135308 0.152177 0.317506 -0.461122 -0.347383 0.661993 0.167711 0.569598 -0.454311 -0.0994885 0.301716 -0.921723 -0.621114 -0.949898 -0.305398 0.0181702 1.84064 0.832965 -0.781353 -0.186779 0.11559 0.38544 -0.00211018 0.185857 -0.028228 0.293524 0.116169 -0.385084 -0.713848 0.99504 -0.539113 -0.174532 0.402547 -0.571576 -0.435647 0.368227 0.640855 1.35379 0.305945 0.534631 0.555073 -0.162184 -0.258518 -0.405967 0.351894 -0.702511 0.27083 0.401638 -0.683995 -0.498449 0.479172 0.108209 0.154887 0.44755 0.270706 1.26834 -0.685011 1.31613 -0.0585847 -0.0366922 0.215795 -0.0164284 0.282301 -0.585139 -0.616546 -0.0240836 1.14116 0.642161 0.994558 -1.00236 0.257418 0.741287 -0.616329 1.49169 -0.388945 -0.136964 0.256686 -0.0326666 -0.694301 -0.621388 0.249308 0.434757 -0.920008 0.481194 -0.326934 1.46003 -0.738019 -1.08099 0.563756 0.558849 0.412838 -1.15666 -0.279263 -0.406241 0.3863 0.814033 0.724058 -0.922795 0.0791599 -0.492901 -0.0733314 0.126978 1.1413 -0.389515 0.476213 -0.346162 0.261771 -0.474173 -0.0361736 0.473981 0.932231 -0.213381 -0.178315 -0.3064 0.193975 0.0775078 -0.375135 0.108073 -0.238915 0.0258834 -0.541386 -0.465234 -0.685832 -0.745476 0.137473 -0.704294 0.0920756 -0.269014 0.282724 0.225969 -0.22209 -0.482249 -0.23345 -0.503657 -0.198817 0.740175 -0.237049 0.257286 0.44692 0.0474264 0.818308 -0.684267 0.744842 0.225778 0.703407 -0.0181407 0.186369 
0.338446 0.453773 0.278401 -0.0113634 0.96974 0.168503 0.535762 -0.727852 0.251305 0.156449 0.404205 0.321718 0.763123 0.0837561 -0.460044 -0.35629 -0.37954 -1.36993 -0.269239 0.87849 0.846016 0.344389 0.85882 -0.204939 -0.715737 0.0463805 -0.575918 -0.725925 0.219513 0.18916 0.548516 -0.95754 0.306729 0.481509 0.267226 0.213295 -0.862149 -1.1795 -0.685081 0.462855 -1.05885 -0.80697 0.504503 -0.401828 1.2355 0.946992 0.406597 -1.15279 -0.870974 -0.606431 -0.0660552 -0.315918 0.880988 1.27315 0.747454 -0.18093 -0.067606 1.01723 -0.375483 -0.163479 0.369066 -0.545952 -0.166387 0.161421 0.761169 0.880784 0.506451 0.0961054 0.786442 -0.380505 0.403875 -0.306804 0.281285 0.45445 -0.115123 -0.300594 0.417091 -0.607244 -0.18544 1.06276 0.720109 0.670939 0.869764 0.605203 0.916352 -0.515137 -0.18553 -0.155018 0.122944 1.14737 0.0756801 1.10329 -0.751613 0.514421 -0.35195 -0.251261 0.179657 0.450469 -0.630084 -0.254136 -0.334274 -0.160734 -0.445766 0.603358 -0.353892 -0.70149 0.670343 -0.201942 0.0724664 -0.24876 -0.19421 -0.405102 0.344487 -1.64169 0.341334 -0.127701 0.693736 -0.707357 0.209591 0.139566 0.0933375 0.412958 0.234778 0.1033 0.0827331 -0.406279 0.0320356 -0.0122226 0.916532 0.49359 -0.378243 -0.445037 0.427846 -0.418293 -0.296274 0.559603 0.128294 0.662734 0.0796429 -0.752337 -0.427402 0.364823 0.749806 0.500128 0.161943 -0.22161 0.496806 0.110737 -0.133689 0.142132 -0.0891592 1.78412 -0.213761 -0.02899 -0.52142 0.0354552 -0.320981 0.926333 -0.543389 1.01496 -0.203368 0.0802502 -0.150744 -0.711906 -0.0384347 0.112115 -0.272109 -0.610861 0.532682 0.644997 -0.50873 -0.325502 -0.925553 -0.112701 0.0803346 -0.0788923 0.336062 1.48021 0.149416 -0.320905 -0.874256 -0.504331 0.300921 -0.534814 -0.0459613 0.580727 -0.530535 0.906965 0.78544 0.200535 0.352802 1.26559 0.32274 0.625761 0.333637 0.348123 0.486682 0.289817 -0.681215 -0.0900746 0.388887 0.0691118 -0.235672 1.45779 -0.272133 0.5951 -0.194447 -0.600857 0.0108036 -0.416958 -0.116288 0.400122 -0.184148 0.497874 0.224207 -0.147858 -0.890623 -0.180317 0.792916 1.21839 -0.098501 -0.434973 -0.445667 -1.00956 0.841216 0.798053 -0.0320596 -0.226408 0.891795 -0.401397 0.0883534 -0.96013 -1.41698 0.490309 -0.877487 -0.141439 0.188735 -0.0760954 1.00439 0.469606 0.557088 0.0791795 -0.279567 -0.0435467 -1.08836 -0.937314 0.853515 0.564373 0.852696 -0.320039 0.187676 -0.469767 0.647251 0.609395 -1.52229 -0.0506932 
-0.529596 0.606775 0.156387 -0.471942 -1.45849 0.292575 0.752396 -0.0552616 -0.398566 0.537442 -0.965168 -0.527256 0.323579 0.628249 -0.477829 -0.198463 -0.668095 -0.0966044 0.652543 0.782201 -0.836308 -0.150173 -0.284033 -1.18774 0.3091 -0.0597937 -0.453382 0.615565 0.0608264 0.614433 1.63973 -1.50524 -0.0671274 0.223534 0.25519 0.411327 -0.486147 0.378677 0.998148 -0.0998435 -0.127955 -0.284502 0.562996 -0.269211 -0.302921 0.669991 1.23647 -1.47043 0.0772286 0.36263 0.231537 0.0707309 -1.10858 -0.371735 0.586501 -0.322275 -0.5152 0.357375 1.1273 -0.7555 -0.740134 1.2619 -0.237476 -0.476698 -0.202097 0.118741 0.577086 -0.379992 0.167702 0.113875 0.269594 -1.00415 0.170827 -0.851105 0.225547 -1.51324 -0.203379 -0.167537 0.376401 0.772955 -0.622953 0.327477 0.785196 0.124568 0.655434 -0.407066 0.736047 -0.249893 0.745448 0.380671 0.316291 0.393699 -0.397392 -0.494484 -1.00011 -0.195812 0.119827 -0.906988 -0.206488 0.524177 -0.0909079 1.22525 0.0892989 0.0206295 -0.356255 0.573966 -0.28462 0.448948 0.201055 0.388055 -1.2875 0.834446 -0.662804 -0.466691 -1.2129 -0.567019 -0.952462 1.26427 0.714105 -0.606217 1.08113 -1.04452 0.799004 -0.270059 0.0277339 -0.312977 -0.254155 -1.11716 0.465036 -0.138472 0.342796 1.23562 -0.173283 0.133691 -0.50753 0.623995 0.596827 -0.508716 -0.193737 -0.849224 0.217899 -0.596454 0.162174 0.309555 0.520387 -0.471727 0.405211 -0.116662 -0.497535 0.659524 0.51825 0.851127 -0.262758 0.363272 0.406194 0.937467 0.981299 -0.509917 -0.0563784 -0.349285 -0.102493 -1.17053 -0.44492 -0.946253 -0.425035 0.191457 0.0517785 -0.0129095 0.502058 0.130095 1.58962 0.23215 -0.898979 -0.102305 1.07527 -0.00722458 -0.132818 1.30003 -0.585947 0.980827 -1.85139 -1.03924 0.241141 0.727928 0.144468 -1.61346 0.0702422 0.488168 1.04887 0.175234 1.03734 0.187203 -0.297263 0.699262 -1.06837 -0.359967 0.678173 0.117785 -0.05289 -0.121523 -0.390321 -0.372238 0.228519 0.728405 0.334979 -0.893007 -0.193634 0.122879 -0.562274 -0.625823 -0.319863 0.165638 -0.524575 -0.50661 -0.0926119 -0.379973 -0.247011 -0.619196 -1.08386 -0.216686 -0.803391 -0.409805 -0.908643 -0.0679252 0.47085 -0.829102 0.0390356 -0.647732 0.0161377 -0.319683 -0.158088 -0.530178 1.00045 -0.114789 -0.599861 0.00135259 -0.643319 -0.152605 1.17233 -1.04848 -0.304181 0.19925 0.260768 0.35345 0.956259 -0.640145 0.838966 0.0410118 0.219044 0.346115 0.650872 -0.971896 0.0405286 0.75863 -0.747155 -0.910201 
-0.725504 0.693804 1.99615 0.428516 1.28755 -0.0620612 -0.000712156 0.204795 0.364838 0.164514 0.629784 -0.432822 -0.309742 1.14854 0.245825 0.124669 0.41799 0.221773 -0.599681 0.161231 -0.0563769 0.266872 0.339049 1.03646 0.331349 0.218227 0.455601 -0.463136 0.665047 -0.146022 -0.201018 -0.23706 -0.405446 0.488435 1.51165 -0.24405 0.0391236 0.163666 -0.237009 0.872129 0.361142 -0.352634 0.190204 0.256042 -0.162902 -0.752438 -0.100646 -0.0760531 -0.627237 -0.832558 0.616547 -0.0634914 0.261557 -0.155434 -0.048205 0.396549 -0.489643 0.0832333 -0.101572 -0.0879797 -0.778453 -0.470459 0.40141 -0.0708092 0.393274 -0.220163 -0.346578 0.56964 -1.04705 1.01922 0.331315 0.135419 -0.176162 -0.726715 0.556791 0.625245 -0.693542 0.534477 0.218347 0.245623 -0.0911462 -0.280106 0.812128 -0.170974 -1.4102 0.936738 0.613026 0.435527 0.617645 0.152944 -0.114766 0.798955 -0.984551 0.00374266 -1.08471 -0.601847 -0.680459 -0.36586 0.534264 -0.669622 -0.220782 -0.159798 -0.0680872 0.445063 -1.38218 1.05001 0.120173 0.119728 -0.211664 -0.327996 -0.08598 0.0358282 0.95139 -0.662708 0.13282 -0.16051 0.236782 0.611793 0.20079 -1.2767 0.477862 0.910618 -1.26614 0.15959 0.0473416 0.321689 -0.745291 -0.743515 0.0407545 -0.311702 0.438821 0.228133 -0.595913 -0.00697705 -0.903916 1.00223 0.739771 -1.02059 -0.447524 0.091209 0.7982 0.492688 -0.879553 -0.82207 0.465632 1.41991 -0.02859 -0.259596 0.188955 0.305721 0.168502 0.171493 -0.4202 -0.286911 -0.757317 0.515011 0.163384 -1.48183 -0.6591 -0.294929 -0.0415743 -0.0137999 0.640285 0.210955 0.283437 -0.542625 -0.0664783 -0.928402 0.208221 1.28391 0.632008 -0.076605 0.35553 -0.454965 0.363505 0.661341 -0.287676 0.428187 0.517456 -0.0103835 -0.700844 -0.531078 -0.150884 0.0733814 0.447077 -1.08404 -0.910728 -0.178389 -0.433032 0.443114 0.320979 -0.390789 -0.652926 -0.420707 -0.370795 0.564257 -0.590909 -0.154145 1.48803 -0.529226 -0.908689 -0.272379 0.989913 -0.0624953 -0.25973 -0.248074 0.211092 0.526262 0.490749 0.439216 0.902159 -0.607138 -0.141012 0.0535469 0.579841 1.31441 -0.280642 -0.0495135 -0.533604 0.410837 -0.46954 0.287324 0.62916 0.641309 -0.178501 1.28384 0.817033 -0.768208 -0.127284 0.41447 -0.479733 -0.690352 1.46508 -0.161008 -0.00417448 -1.39224 -0.651061 0.0883306 0.725659 -0.570434 0.787344 -0.598978 0.408412 -0.269494 -0.0377151 0.146948 -0.20836 0.0987355 1.18496 0.386868 1.27642 -0.81113 -0.474813 -1.6478 -0.301936 -0.419978 
-1.21571 0.134308 0.223293 -0.319942 -0.567237 0.185591 -0.340134 0.226955 -0.748329 -0.721523 0.738583 0.264858 -1.00376 0.503459 -0.209389 -0.750803 -0.369166 -1.21833 0.334922 0.0629524 0.754467 0.273212 -0.0269549 -0.316514 1.37874 0.262809 -0.218262 0.484686 1.07651 0.27825 0.470781 -0.861479 0.939669 -0.566069 -0.127649 -0.954203 -0.160764 0.416124 -0.274109 -1.07915 0.700052 0.227497 -0.253255 0.970479 -1.33265 0.440821 1.0337 -0.507343 0.442671 -1.00225 -0.566865 -1.01776 0.603755 -0.620644 1.39828 -0.136334 0.561644 0.29802 -0.0134541 -0.976754 -0.179889 -0.0314155 -0.0621207 -0.272718 -0.151138 -0.201001 0.433465 -0.868695 0.0535477 -0.00624896 0.040476 -0.536634 -0.186795 0.129484 0.881062 -0.0665585 -0.624937 -1.56177 -0.636185 -0.0911274 -0.254741 -0.629289 0.564215 0.602525 -0.220188 -0.443301 0.72683 -0.466799 -1.05076 0.365785 1.05461 -0.337625 -0.351429 0.319445 -0.589726 -0.437456 -0.170629 0.249127 -0.342647 -0.682234 -0.9956 0.43591 -0.596923 -1.16897 -0.066038 -1.75186 0.831185 0.481461 0.985579 0.57546 -0.733459 0.522327 -0.851757 0.311336 -0.210379 0.0591335 -0.274404 -0.434841 0.494789 -0.176465 0.0481607 -0.0188433 -0.203074 1.06927 0.109376 -0.576117 0.152744 -0.713167 0.120122 -0.486419 -0.143123 -0.144981 -0.431344 -0.813644 0.319717 -1.02228 -0.285705 0.20319 -0.133036 -0.0720582 -0.676602 0.419795 0.634709 0.161105 0.224752 -0.615082 -0.328952 0.107166 0.368314 0.0934177 0.788766 0.931215 1.51085 -0.178719 0.217905 -0.0694481 0.148488 -0.448853 -0.359734 -1.09012 -0.40474 -1.19969 -0.705957 -0.108783 0.282657 -0.0943289 0.759352 -0.584763 0.135307 0.288737 -0.0706997 0.106521 -0.0405471 -1.37217 0.087088 -0.99707 -0.0345381 0.623789 -0.720985 -0.35592 0.335487 -0.228134 -0.97958 0.373269 0.270808 -0.83793 -0.343845 0.517227 -0.00487915 -0.429772 -0.173815 0.945423 0.424114 1.07288 0.377025 0.120374 -0.0206625 0.11872 0.677588 -0.38555 0.458666 -0.168636 -0.155875 0.475583 -0.790491 -0.722211 2.07167 -0.00374508 1.25343 -0.50028 0.446287 -0.168568 0.193512 0.811003 -0.707154 0.754566 0.185482 -0.496868 -1.11223 -1.5484 1.16258 0.550076 0.149713 0.57216 -1.3023 0.846277 -0.18144 0.416752 -0.724944 1.14481 0.928266 -0.307004 -0.309888 0.0290593 0.50978 -0.667053 1.07102 -0.810028 0.254309 0.0830672 -0.650373 0.484726 -0.27267 1.04285 -0.211103 0.269614 0.346302 -1.25005 1.1318 0.844895 0.146575 -0.0112292 -0.617469 0.823452 -0.776472 0.0223673 
0.446686 0.0421966 0.888183 0.647984 -0.789545 0.149376 -0.33168 -0.18895 0.811118 0.588349 0.141618 -0.353987 -0.2543 -0.560752 0.52406 -1.13979 0.134999 0.0157481 -0.0893004 -0.603128 -0.477569 -0.00800707 0.0106074 0.610872 0.109803 -0.453941 -0.281806 0.394986 -0.145029 -1.34907 -1.03495 -0.609145 0.728172 0.622361 -0.447871 0.160791 -0.659786 -0.45178 -0.818701 0.149581 0.290332 -0.372635 -0.257007 -0.355577 0.475413 -0.291956 0.312179 -0.968603 -0.826273 0.267863 0.161921 -0.0490145 0.213396 -0.352323 0.403002 0.0147384 0.127663 1.09606 -0.0830844 0.95556 0.353873 -0.279092 0.157055 -0.77152 0.923319 0.230966 0.997341 0.0353689 -0.30328 -0.799582 0.177921 0.875347 0.316615 -0.191994 -1.38625 1.30741 -0.350514 -0.726123 1.27519 0.102667 0.144521 -0.706577 1.16876 -0.527327 -0.455522 0.144844 0.0910228 -0.325943 -0.245449 -0.421097 -0.764409 -0.852794 -0.154501 -0.314186 -0.228406 -0.545561 -0.439515 -0.47419 -0.819428 0.53859 -0.0626808 1.35088 -1.02015 0.958756 0.293579 -0.400494 -0.187348 -0.659324 -0.0827343 -0.201576 -1.12273 0.803478 0.425495 0.294297 -0.367252 0.326074 -0.865334 0.223151 -0.648158 -0.0960958 -0.0975249 0.810814 -0.0627277 -0.725495 0.639229 -0.739709 0.180164 -0.168088 -0.503958 -0.0325412 -0.464442 0.0150755 -0.401944 -0.455267 -0.604394 0.323009 -0.657936 0.685023 0.0975336 -0.57067 1.15516 -0.660007 1.06091 0.00382636 0.410145 0.250721 -0.210712 -0.140697 1.05212 0.354095 -0.401624 -1.26988 -0.196492 -0.0304584 0.709367 0.558041 -0.360741 0.229298 0.0495927 0.0731392 0.368822 -1.1273 -0.0412331 -1.11778 0.579762 -0.981503 0.0121568 -0.413878 -0.669223 0.396686 -0.321833 -0.794893 0.672608 -0.311776 -0.35079 -0.0181097 0.682032 -0.644706 0.154421 0.0104595 -0.832238 0.343464 -0.0144737 -0.210249 0.0201949 0.690665 -0.298623 0.161918 -0.0109163 0.114377 -0.500737 0.163769 0.602066 0.233805 0.367876 -1.11818 0.142561 0.561128 0.388149 -0.0248713 0.049638 0.660857 -0.653881 0.230065 -0.930075 -0.091113 1.01451 -0.358227 -0.530639 0.299009 0.598703 -1.03772 -0.0167208 0.133548 -0.652825 0.390042 -0.323306 -0.273634 0.400617 -0.398102 0.208127 -0.669653 0.931544 -0.3037 0.0636387 -0.320428 -0.308571 -0.110734 -0.704837 -0.412249 -0.662031 0.866178 -0.142149 0.497209 0.647451 -1.26863 -0.268657 0.128436 0.0175811 0.485699 0.675311 -1.03136 0.202357 0.839079 0.191618 -0.0174625 -1.1368 -0.359534 0.0637294 -0.277929 -0.154393 -1.12302 0.174531 -0.0265194 0.655063 0.160077 
-0.310957 0.0049716 0.302913 0.0409473 0.735474 0.615249 -0.126288 1.44196 -0.971046 -0.448881 -0.0802851 0.556843 -0.282347 0.570898 -0.456247 -0.0231666 -0.973233 -1.18287 1.01781 0.0717425 0.323171 -0.191844 0.022722 0.436129 0.565628 -0.288252 1.54798 0.514367 -0.730973 -0.175499 0.759218 0.259501 0.161175 0.020338 -0.62574 -0.0672509 -0.663793 -0.734656 0.292619 -0.218387 -0.133634 0.93939 0.10166 -0.404898 -0.32329 0.873542 0.404814 -0.811422 1.50067 -0.279109 0.535041 -0.556658 -0.133226 0.308803 -0.0190212 0.399804 -0.170213 -0.489477 1.46393 0.106621 -0.248333 0.424417 -0.401652 -0.246716 0.31664 0.0963539 -0.403882 0.238011 -0.296915 0.497058 -1.22585 -0.337141 -0.881175 0.256225 -0.174194 -0.118463 -0.106776 -0.180395 -0.689763 -1.86941 -0.000482115 0.400257 -0.635145 0.672029 -0.509293 0.811409 0.923413 -0.205205 0.369337 -0.705357 -0.0897796 0.0603662 -0.531199 0.779787 -0.258168 0.215384 -0.0674535 0.805847 0.990613 -0.105104 -0.374946 -0.638689 -0.338465 0.104706 -0.0196542 -0.544558 0.151245 -0.227486 0.095034 -0.237318 -0.4084 -1.01645 -0.217277 -0.344729 -1.23554 -0.620747 -0.12084 -0.311482 0.781796 0.517925 0.415845 0.0625509 0.949457 0.444942 -0.207389 0.320168 0.0790409 -1.26073 0.0371532 -0.0884434 1.02009 0.518057 0.535117 0.159433 0.643228 0.227425 0.92564 0.0541443 -0.224416 0.0709377 1.46659 -0.052069 -0.482605 -0.427469 0.0350003 -0.0268756 0.778716 0.709954 0.0112032 -0.154557 -0.071267 0.423754 0.91592 -1.38337 0.445516 -0.570949 -1.08719 -0.131241 -0.00132929 -0.887735 0.256719 -0.600835 -1.08116 -0.925211 -0.30274 -0.0664126 -0.870414 0.036107 0.0763451 0.516593 -0.878201 0.499058 0.0377965 0.967052 -0.314433 0.675288 0.75299 -0.388104 0.711694 -0.197659 0.35316 0.783718 -0.549018 1.40012 0.666944 -0.543163 -0.253169 -0.688957 -0.157344 -0.297908 -0.141105 1.36388 -0.144426 0.873172 -0.496686 -0.210923 -0.221768 -1.09779 0.00442184 0.788133 -0.453695 -1.05397 -0.0349381 0.427373 0.0300026 -0.997865 -0.955325 0.184818 -0.591929 -0.853482 0.585111 0.115236 0.482136 1.2553 0.86871 -0.624353 -0.639573 -0.331124 0.382186 0.445404 0.109369 -0.373238 -0.205866 0.166139 -1.09593 0.680813 -0.455991 -0.410956 0.420386 1.8401 0.533551 0.0830902 0.109932 1.00954 -1.29141 -0.0687921 0.629149 -0.266147 0.938788 0.363893 -0.0481565 -0.102554 -0.667302 0.0558645 0.435744 -0.133577 0.642757 -1.06019 0.67873 -0.596748 -0.215423 -0.321567 -0.0629474 -0.226032 0.254578 0.49035 
-0.595037 0.308155 0.645668 0.250759 0.642967 -0.652203 0.0771135 -0.0520828 -0.0317964 -0.773636 -0.194932 1.11802 0.220289 -0.425709 -0.109023 -0.298862 -0.283928 0.461699 0.0152675 -0.982331 0.113526 0.968276 0.195966 0.640692 -0.273708 1.52795 -0.725933 -0.566819 -0.725157 0.213711 -0.255538 0.896525 0.486315 -0.000306849 0.76693 1.01748 0.0634019 0.0893432 0.274982 0.57389 0.123519 0.356586 0.380413 0.628381 0.00962156 -0.180799 0.169565 -0.689353 -0.103878 -0.352454 -0.17881 0.370413 -0.784418 -0.30909 0.724208 0.408981 0.400882 -0.164869 -0.500558 -0.570973 -0.132077 0.0376821 0.283133 0.445078 0.223781 -0.964476 -0.348312 -0.509112 -0.0201001 -0.550727 -0.384238 0.475323 -0.607457 0.0743466 -0.417549 1.00058 0.631286 0.501039 -0.803543 1.21999 0.678718 0.235056 0.748491 -0.383893 -0.853436 -0.949048 0.442241 -0.644574 -0.286331 0.37062 -0.416704 -0.552654 -0.82572 -1.03416 -0.423048 -0.614526 -0.0377816 -0.121346 0.725939 -1.48744 -0.537228 -1.0651 -0.755791 0.0630409 0.489284 0.547595 -0.307933 0.932114 -0.275448 -0.22108 -0.0427392 0.705394 -0.201973 -0.269024 0.628078 -0.484608 1.34693 0.684987 0.385221 -0.141353 -0.63369 -0.294121 0.0890937 1.19847 -0.650979 -0.0261316 -0.0210766 -0.720688 -0.82177 -0.366367 0.550808 -1.00565 0.687274 0.714669 -1.73356 0.388451 0.72366 -0.0447542 0.592955 1.26753 0.702019 0.585995 -0.686168 1.07075 0.817163 -0.170527 -0.114238 0.152635 -0.165666 -0.517555 -1.15036 0.628097 -0.172266 0.257855 -0.790928 0.519313 -0.714821 0.632303 -1.24301 -0.242628 0.705979 0.0745843 1.71284 0.748622 -0.338137 -0.845996 1.18546 0.335266 -0.598521 0.208017 0.538578 1.16907 0.182118 0.758201 0.422408 -0.506621 0.436169 0.732203 -0.250753 0.324008 -0.407965 0.314079 0.00984669 -0.191543 -1.50194 -1.05257 0.28755 0.370519 0.618018 0.487041 0.795175 -0.662453 -0.433543 0.205959 0.357928 0.0853184 -0.816109 -0.286633 -0.336198 -0.371931 -0.387368 1.08936 -0.491287 -0.00505168 0.704057 -0.730164 -0.11749 -0.311872 0.361776 0.130467 -0.384298 -0.259799 -0.538154 -0.35874 -0.574703 0.729074 -0.826564 -1.08586 -0.502219 -0.378325 -1.03819 0.0142025 0.934478 0.105133 0.592266 1.05509 -0.348622 0.837311 0.351629 -0.47386 0.650246 -0.354604 -0.315716 0.34596 0.20647 1.32773 -0.444324 0.705593 0.326618 -0.735285 -0.747061 -0.112692 -0.445963 -0.506206 -0.0442757 0.757802 0.0861252 0.845708 -0.0307369 0.99773 0.52636 -0.0718987 0.206779 0.512877 -0.0625415 -0.353435 
0.304628 0.552358 -0.348949 -0.997035 1.24178 0.179017 -0.521778 0.130268 -0.937892 0.0807431 -0.224582 -0.0286709 0.476404 -0.70835 0.00889222 0.040291 -0.332974 0.937404 0.55566 1.60415 0.0992082 0.610606 -0.391692 0.199689 -1.07288 -0.0372578 0.631711 -0.249105 0.822485 -0.372143 0.00260288 0.0817901 0.773446 0.282337 0.0523685 -0.12212 -0.28316 -0.0575522 0.8429 0.317488 0.332088 0.558089 0.807307 0.277638 0.027393 -0.283738 0.508254 -0.0485232 -0.0902957 0.885755 -1.32838 -0.110302 -0.15276 -0.295848 0.471431 0.378125 0.337898 -0.265212 0.209032 -1.37351 -0.802144 -0.2162 -0.0200962 0.594987 0.509048 0.0302742 -0.189834 -0.237866 0.0233646 -0.937289 -0.93563 0.827646 0.384651 0.0737659 0.063496 -0.35418 0.297473 -0.369922 -0.834675 0.0374097 -0.430686 0.296728 -0.669541 -0.701779 -0.299878 0.266768 0.0507136 -0.0610758 -0.249597 -0.318972 -1.51431 0.0662164 -0.0651647 0.852758 0.0670507 0.574279 -0.257333 0.806604 -0.978074 -0.316042 0.658463 0.717959 0.61411 -0.547982 -0.0135843 -0.326433 0.208018 0.363988 -0.899018 -0.82282 0.620802 0.0100002 0.0568139 0.0165025 0.425153 0.825357 0.914884 -0.310234 -0.815233 0.00150655 0.589685 -0.688621 -0.659945 -1.32261 0.0257517 -0.437563 -0.192849 0.340505 -0.596105 0.0086198 -0.381391 -0.203322 0.11403 -0.0857875 1.02522 -0.254614 0.968579 -0.189846 0.259418 1.00869 0.581309 0.569006 -0.128843 0.611546 -0.544433 1.94651 0.331637 0.522368 0.112768 0.186506 -0.683296 -0.0629057 -1.67209 0.203201 -0.147308 0.556331 -0.0442729 -0.191225 -0.232706 -0.227218 0.427863 -0.0724315 -0.361952 0.159807 0.0382025 0.373238 0.452223 0.427539 -0.13966 -0.448522 0.191712 0.275249 0.286331 0.194698 0.299431 0.513025 -0.399 -0.202385 -0.28618 -0.245089 0.566231 0.767049 -0.288844 0.227882 0.391708 0.312743 -0.272105 -0.185072 0.178922 0.518326 0.219675 0.134476 -0.613748 -0.241208 -0.085467 0.0948719 -0.373019 -0.403743 -0.421339 -0.317557 -0.802803 0.214729 0.458521 0.321441 1.82617 0.26867 0.23906 -0.0518846 -0.869694 -0.295037 0.213956 0.175016 0.120054 0.0966105 -0.00643556 -0.404281 0.791196 -0.374111 0.36696 0.259948 -1.0979 -0.814538 -0.326355 -0.193188 -1.17643 0.628279 0.399949 0.0577335 -0.558584 -0.0457783 0.4252 -0.925045 0.563254 0.561445 -0.479225 -0.455375 -0.242768 1.12797 -0.0756042 -0.0237786 0.509074 -0.715044 1.08795 -0.593607 -0.966085 0.0774666 -1.02518 0.19272 0.156839 0.501316 -0.90033 -0.194407 0.0737609 0.642126 -0.188644 0.332924 
-0.0834096 -0.679714 0.807717 -0.353781 0.115335 -0.662836 -0.353825 0.925832 0.689595 0.389438 1.27013 -0.65909 0.329026 1.46344 -0.0430759 0.118681 0.483923 0.508957 0.362356 0.536547 0.250459 -0.128652 -0.733171 0.129703 -0.326172 0.153549 -0.663392 -0.230912 0.907334 0.679661 -0.709433 -0.526086 0.0312929 0.11287 -0.652195 -0.123047 0.323872 0.568764 0.427552 -0.478392 -0.224114 0.403896 0.794429 0.685159 0.040476 -1.4152 0.014853 1.01457 -0.267785 -0.497009 0.181765 -0.054023 -0.0501154 0.117582 -0.240184 0.00308299 0.244081 1.33018 -0.091401 -0.330361 0.228879 0.0729391 -0.576611 -0.159302 -0.492409 0.236544 -0.740004 -0.461326 0.749436 -0.780606 0.668874 -0.16691 0.0241017 0.507175 -0.306928 0.0468281 -0.10691 1.89287 0.284722 -0.641506 -0.32613 -0.445713 0.521918 0.546546 0.739138 0.231458 0.222718 -0.725789 0.612631 0.979108 0.987775 -0.0658632 -1.06616 -0.458179 -0.448899 -0.337629 0.684474 -0.0219992 0.0619576 0.569627 0.24004 0.491421 0.461865 -0.359509 0.334091 0.743385 0.1809 -0.145476 -1.20776 0.438126 0.125324 -0.105914 -0.495315 -0.00691952 -0.817354 0.519599 0.293841 -0.704082 -1.26897 0.349047 -0.497869 0.696562 -0.000180147 -0.229769 0.531713 -0.0681458 0.291555 -0.106002 0.270973 0.120658 0.404727 0.0358003 0.441675 -0.574756 0.647974 -0.297404 -0.0993896 -0.0411471 -0.858879 -0.594816 -1.06292 0.214653 -0.0292311 0.0134458 0.726187 0.822614 -0.202042 0.298726 -0.616547 -0.405324 0.182864 0.329031 -0.384178 -0.407404 0.404396 -0.642726 -1.21564 -0.0109845 0.18786 -0.747655 -1.54351 -0.315844 -1.16257 0.912931 0.227642 0.279975 0.467268 0.768785 -0.0670274 0.534555 0.67601 -0.201858 -1.1327 -0.105987 0.0573794 -0.0520701 -0.955576 0.30795 0.743966 -0.523293 0.118673 0.908235 0.0231701 0.565463 1.14975 -0.730391 0.231808 -0.678591 -0.312586 0.987909 -0.350392 -1.75245 -0.0317937 0.342245 0.141109 -0.379873 0.173533 -0.35392 -0.612706 0.0198739 -0.0862484 -0.125308 -1.13925 -0.0587119 0.186272 0.389928 -0.617435 0.0643846 0.603076 -0.444265 -0.283147 -0.0186575 1.36543 -0.402886 -0.369257 0.743819 -0.580234 0.481045 0.326861 -0.410092 0.325985 -0.485327 0.242472 -0.507561 -0.147222 -0.446994 -0.288485 -0.826683 0.35427 -0.117946 -1.10529 0.977518 -0.683409 0.189135 0.391319 -0.164569 -0.698552 -0.8796 0.297966 -0.439984 -0.0684702 1.04217 -0.7173 0.480481 0.0360626 -0.243304 -0.256822 0.371243 -0.517132 -0.469794 -0.0101461 0.76266 -0.0888747 0.652926 -0.0540479 -0.744492 
-0.39883 0.10557 0.921461 0.486653 0.161184 -0.302807 -0.452812 -0.906928 -1.25094 0.409361 -0.552231 -0.0279768 0.353423 0.647183 -0.0429728 -0.0560044 -0.794744 0.315964 0.141003 0.601293 0.0572842 0.0357139 -0.0448768 0.319185 1.01515 -0.0603229 -0.285316 0.0467223 -0.948822 -0.0530862 1.0746 0.485105 1.79168 -0.140831 1.2194 0.207565 -0.436414 0.492607 0.371338 -1.08972 0.20021 0.000241083 1.06177 -0.369348 0.652528 -0.138668 -1.14926 0.760046 1.12954 0.361834 -0.0851853 -0.218627 -0.392391 -0.325865 0.469336 0.0176999 0.656239 1.31101 -0.246066 1.12209 0.60683 0.249851 0.439629 0.262544 -0.548397 0.307765 -0.271645 0.374991 0.327471 0.0793108 0.192942 0.833001 1.25252 0.374155 -0.17089 -0.204295 0.412833 -0.473523 0.322246 0.0095256 -0.507199 -0.627001 0.798606 0.120611 0.365255 -0.577948 -0.543154 -0.0302162 -0.136053 0.404916 -0.399474 -0.147881 -0.496896 -0.599239 -1.01461 -0.826504 -0.365324 0.997598 0.605772 -0.70496 -0.0359989 0.925849 0.969165 0.299766 -0.245709 -0.689859 0.772398 0.520601 -0.639133 0.37041 0.0169896 -0.0487343 0.647536 0.733593 0.582632 -0.185288 -0.657509 0.0303555 1.22573 0.814234 0.794655 -0.157557 0.903795 0.600398 -1.07673 -0.91898 1.40077 0.114423 -0.247218 -0.0724052 -0.142431 0.245827 0.138427 -0.566796 -1.04882 -0.729678 0.174075 -0.649724 -0.635325 -0.459019 1.16106 -0.506017 -1.10155 -0.60181 0.465918 -0.2149 0.713705 0.0511334 0.403685 -0.273659 1.28848 0.418017 1.026 -0.60503 0.143674 -0.371461 -0.493364 0.171177 0.674848 0.411258 -0.156374 -0.693256 -0.331112 0.551307 -1.1699 -0.10606 0.81046 -1.30348 0.327831 -0.220412 -0.509347 -0.219457 -0.6798 0.211823 -0.374572 0.265298 -0.565243 -0.794744 -0.0968693 -0.403127 -1.13162 -0.00654488 0.428457 -0.254275 0.715601 -0.156292 -0.963834 -0.0344769 -0.547159 0.0382557 -0.311254 -1.00907 -0.710552 0.0215914 -0.32604 -0.0750324 0.625377 0.455232 -0.321148 0.39498 0.852202 -0.0929486 0.852447 -0.0072205 -0.438622 -0.512999 0.0138098 -0.440352 -0.127521 1.03219 0.518868 -1.08936 0.295575 -0.419521 0.834035 -0.553158 0.0317105 0.535505 0.463166 1.01101 -0.206556 0.0292732 0.811918 -0.535537 -0.211513 -0.0855395 0.756978 0.688995 -0.610584 -0.220189 0.771787 -0.0646153 -0.713536 -0.998847 -0.369745 -0.506847 0.574556 0.258953 0.0572152 -0.0842659 -0.0564792 -0.0953327 -0.0699958 -0.493234 0.0111802 -0.848648 0.324216 -0.0375846 0.947137 0.662014 -0.16264 -1.87189 0.537577 -0.190086 0.564784 0.597425 
-0.469628 -0.694704 0.705239 0.799837 0.217972 0.750195 0.616462 -0.632883 -0.0462458 0.0170994 -0.416918 0.0900319 -0.278391 -0.303201 0.545523 -0.0196296 0.583225 0.0185138 -0.433396 0.22915 0.526953 -0.0551091 -0.43087 0.557157 0.240874 -0.237154 0.167631 -0.341552 -0.197106 -0.0638022 0.894172 0.266019 -0.397587 0.592199 0.320517 0.654555 -0.0281703 0.108044 -0.134189 0.765706 0.428692 0.366529 -0.062685 0.449804 1.15848 -0.346994 0.161525 -0.124415 0.392049 -0.980859 0.387368 -0.477308 0.14578 -0.178311 -0.121189 0.287741 0.0994217 -1.21323 0.0852621 0.176889 0.687178 -0.675722 0.66516 0.294055 -1.06794 -0.19561 0.505886 -0.872009 -0.330433 0.376795 0.392986 -0.00401044 0.570489 -0.26756 -0.124397 0.420025 -0.0585854 0.15641 -0.133677 0.211136 -0.657947 -0.369195 -0.85995 -1.10527 0.288206 0.886222 0.585334 -0.732776 -0.0419663 1.05964 -0.952533 0.643854 -0.396645 0.5828 0.657645 0.714402 -0.291551 -0.410293 0.0900466 0.430305 -0.125194 -0.0931901 0.696385 -0.181223 0.404816 -0.536203 0.964491 0.242912 1.1925 0.0332915 -0.354755 0.0352393 0.305534 -0.236702 -0.272528 -0.0300401 0.867087 -0.998036 -0.693872 -0.90096 0.309476 1.12858 -0.458865 0.701145 -0.529292 0.678341 0.310051 0.51793 0.23215 0.0976858 0.299803 -0.454542 0.466689 0.61174 -0.00896225 0.0757283 -0.792538 -0.218671 1.14884 -0.438407 0.260348 0.00804251 0.135398 0.182849 -0.155969 -0.230494 0.369449 -0.935129 0.195822 -0.257589 -0.339232 0.324631 -0.0605522 0.815359 -0.224868 0.163652 0.553578 0.383729 0.359567 1.11823 -0.247263 -0.172609 0.30805 0.203124 -0.21288 -0.306516 -0.454909 -0.398808 -1.16969 -0.356028 0.411493 0.145183 -0.43933 -0.176427 0.335898 0.312091 -0.641316 -0.121604 -0.282644 -0.233183 -0.282392 0.602275 0.804864 -0.284022 0.65932 -0.0902214 -0.458292 0.707032 -0.143216 -0.565856 0.514965 -0.367893 -1.56834 0.829028 -0.414391 -0.966886 -0.00204826 -0.230273 -0.374399 -1.07407 0.33279 -0.133024 0.269689 0.215871 -0.438944 1.29463 -1.1135 0.0483153 -1.24954 0.579939 -0.188331 0.247287 0.109035 0.218292 0.545331 -0.000197243 0.0276849 -0.514808 0.725819 -2.25136 0.290186 0.341025 0.404627 1.39811 -0.265332 0.0707554 0.0575248 -0.544814 0.651515 0.865468 0.172517 0.278968 0.69587 0.00930982 0.207271 -0.690853 0.219576 -0.00283507 0.377222 -0.616645 -0.756621 0.333788 -0.794918 -0.076625 -0.503895 0.00268951 -0.3225 -0.421172 0.856293 0.40423 0.599031 -0.348033 -0.115642 -0.299334 0.290295 -0.741194 
-0.9427 -0.374505 0.147568 1.15881 0.649167 -0.326385 -0.486008 0.327835 0.599025 -0.873831 -0.607534 -0.347252 -0.629049 -0.309874 1.10285 -0.537891 0.638843 0.190923 -0.385262 0.343797 0.0440359 0.0687047 -0.0075595 -0.448129 0.748868 0.171778 -0.559107 0.69487 -0.422264 1.3191 -0.0538491 0.313314 -0.350318 0.316172 -0.289248 0.44523 0.127904 -0.276337 -1.28565 -0.196173 0.0328446 0.875078 0.124281 -0.185389 -0.060426 0.671906 0.268722 -0.139567 0.450479 0.779835 0.308914 0.201872 -1.28451 -0.37679 -0.35663 0.325856 0.145818 -0.582667 -0.271462 -0.242087 -0.410211 -0.336611 0.338969 0.913758 1.04028 0.993721 -0.00604953 -0.321525 0.502014 -0.299341 -0.0754402 -0.158682 -0.397843 -0.771841 0.999246 -0.013856 -0.636449 -0.528457 1.0029 -0.014444 0.0198075 -0.27406 0.659467 -0.523285 -0.344152 -0.512116 -0.0379669 -0.827492 0.885438 0.39085 0.928229 -0.171761 0.978785 -0.716485 -0.532117 0.338138 -0.416764 0.439752 0.0202216 0.271476 0.090383 -0.210162 -0.137371 0.372643 0.330252 -0.530658 0.815217 0.30009 -0.081367 0.598066 -0.304257 -0.395674 0.342074 0.0660652 0.0164506 -0.0281136 0.278526 -0.0485997 0.318112 -0.887358 0.600537 -0.441742 0.304709 0.590019 0.109522 -0.330745 -0.211924 -0.202329 0.360998 -0.337549 -0.194455 -0.213821 -0.250347 -0.256027 0.584511 -0.717403 0.335 -0.584464 1.13465 0.0609511 1.12832 -0.652143 0.915933 -0.453046 0.55322 -0.341345 0.812296 -0.389629 -0.857235 -0.0325775 -0.405539 -0.629137 0.0892846 0.329355 0.463827 0.0563192 0.291039 -1.19309 0.0361864 0.0423256 0.101372 1.1746 0.844872 -0.275274 -0.556594 -0.428016 -0.670891 -0.215449 1.27474 0.353125 -0.163904 0.446932 -0.947558 0.299137 0.0108395 0.512568 -0.371008 0.61876 -0.0650818 0.221927 -0.120718 0.0195483 0.440269 -0.430116 0.00270068 0.540904 0.464923 -0.184729 0.729064 -0.782563 -0.352158 -0.730601 0.00562806 0.750807 -0.488292 0.412173 0.017878 0.254757 -0.301243 0.0133109 -0.000367528 0.403597 -0.586768 -0.00357318 -0.475271 -0.137685 0.0568752 -0.387684 -0.759199 1.568 0.238733 0.66854 0.622503 -0.216412 -0.841161 -0.599678 0.793672 -0.728945 0.0045195 0.0288524 1.05234 -0.368677 1.16891 -0.446524 -0.676996 -0.528528 0.228618 0.302019 0.0512945 -0.387359 -0.0329079 -0.526345 0.0298918 -0.133872 -0.878138 -0.575002 -0.748229 -0.466642 -0.57531 0.129562 0.356319 0.25373 0.497046 0.658809 0.318067 0.627924 0.790617 -0.114413 -0.267412 -0.496707 -0.653815 -0.153888 -0.304261 0.405134 -0.554429 -0.318552 
0.443322 0.496659 -0.159946 0.0798612 0.110839 -0.246368 0.200884 0.385273 0.864104 -0.156252 -0.365229 -0.556945 0.0176924 0.988028 -0.625853 -0.172527 0.07115 -1.52538 -0.687307 -0.468753 -1.49384 -0.337388 0.709839 -0.465195 -0.227138 -0.646912 0.60768 0.197789 0.588203 0.116842 0.291602 0.677338 0.22342 0.00654938 -0.477373 -0.369764 0.13749 -1.79907 0.0356697 0.337189 0.211676 0.509157 0.212313 -0.173146 0.0116773 1.3282 0.0800886 -0.328318 0.339109 -0.349572 0.955952 0.251299 -0.587843 -0.0969915 -0.0508274 -0.75916 -1.51488 0.48239 0.339406 0.416438 0.823611 -1.70005 0.365478 -0.109562 -0.720768 0.425634 0.279911 0.491022 -0.132269 0.477402 -1.40821 -0.156858 -0.344823 0.922543 -0.417947 -0.312832 0.269153 0.554357 -0.739791 -0.377988 -1.14759 -0.226853 -0.263388 -0.144166 -0.646974 -1.17902 0.241885 -0.0492133 -0.332052 -0.005561 0.569826 -0.282489 1.07342 -0.037705 0.474518 0.904812 -1.07425 0.750574 0.0983905 -0.165409 -0.549647 0.0400609 -0.511568 -0.992691 0.340002 0.334287 0.498335 -0.747108 -0.26435 0.144885 0.106367 -1.23329 -0.615711 -0.584356 -0.805408 0.257299 0.214346 0.487327 0.117923 -1.01858 -0.925536 0.360262 -0.780658 -0.106366 -0.124376 -0.481433 -0.492208 -0.868754 -0.372735 0.206914 -0.468401 0.00186058 1.01969 0.774395 -0.649446 -0.192482 -0.529686 1.02502 0.401596 -0.455222 0.282121 0.328876 0.724201 -0.154636 0.554836 -0.796036 0.587321 0.291802 -0.667344 0.174479 -0.12162 -0.746201 -0.150619 0.164427 -0.8835 -0.701442 -0.0906695 -0.00545791 0.288707 0.685202 0.0835738 -0.736481 -0.0976639 0.210058 -0.280521 0.0247358 -0.0411148 0.362816 -0.279078 -0.0838063 -0.566206 -0.00138675 -0.373092 0.42013 -0.322562 -0.399744 -0.471983 -0.448409 -0.764128 -0.199485 0.32225 0.330167 0.113229 0.663646 0.13648 0.0989035 1.11495 -0.733335 -0.477635 0.775856 0.777013 0.300466 -0.509566 0.302196 0.158444 -0.887883 -0.0942475 0.0550982 -0.724565 0.668698 0.0912567 1.49506 0.4039 0.293614 -0.392176 1.34774 0.0192126 1.42106 2.1467 -0.13392 -0.383208 -0.129279 0.557299 -0.71244 0.220433 0.0869801 -0.180931 0.00830174 0.163872 -0.430596 0.659802 -0.0504476 -0.288808 -0.265953 -0.696336 0.281071 -0.464833 0.417473 0.0334675 0.163754 0.771482 -0.301619 -0.0591103 -0.452892 1.19726 -0.551584 0.410833 0.998161 -0.572784 0.705357 -0.0558292 0.96004 0.0753046 0.802418 0.0230997 0.420817 -1.26795 -0.208832 -0.335229 -1.00811 0.60696 0.803926 -0.793391 -0.735474 0.144438 -0.734086 
-0.118745 0.0504603 0.546301 -1.12446 0.0249701 -0.812338 -0.376525 -0.464052 -0.594081 0.756727 -0.436011 -0.0742948 0.312754 0.280346 1.09707 -0.248029 -0.288168 0.0106652 0.0156296 -0.257106 -0.00141337 0.173852 -0.0932459 -0.257674 -1.21694 -0.644884 -0.259808 0.535725 0.679381 0.168826 0.121787 0.38299 0.767293 0.898995 -0.989481 -0.071825 0.791086 -0.473626 -0.707826 -0.88833 0.970285 0.347206 -0.530332 -0.195031 -0.490962 0.504256 0.307329 -0.362243 -1.02355 -0.273381 -0.413603 0.202722 -0.174361 0.292915 0.228568 0.00124721 -0.285603 0.570793 -0.0855876 1.0193 -0.159549 0.93161 0.533813 0.326804 0.809424 1.17277 -0.115435 1.63341 -0.151274 -0.127689 -0.172212 0.8632 0.13778 -0.193384 0.64434 0.266783 -0.224718 0.490253 -0.609472 -0.167237 -0.128917 -0.0520029 1.10039 -0.586968 -0.14767 -0.41001 -0.425773 0.599288 -1.19295 1.50357 -0.154576 0.648019 0.711047 -1.1737 0.465479 -0.34849 -0.450015 1.3285 -1.87261 -0.238961 -0.284618 -0.518509 -0.0746692 -0.184303 0.959686 1.18809 -0.194144 -0.159739 0.357695 -0.555851 0.974271 -0.426613 -0.239758 0.774858 -0.463535 0.33281 0.969065 -0.550288 0.642211 -0.719393 -0.541273 -0.112097 0.300555 0.620285 -0.212275 0.917429 1.10568 0.268235 -0.271747 0.0109247 0.12653 -0.370894 -0.0329414 0.452446 -0.181431 0.162229 0.236578 0.524015 0.241416 -0.282709 0.0569279 0.395113 -1.05111 -0.171104 0.463236 0.231038 0.0692837 0.685123 0.534475 -0.534036 0.5561 1.00241 -0.425986 -1.29002 0.413306 0.145046 0.88303 -0.650425 0.825888 0.237376 0.572734 -0.363561 -0.388535 -0.610773 -0.332139 0.583493 0.0639766 0.305701 0.167016 -1.48016 0.946608 0.193577 0.483804 0.625377 0.535595 -0.191265 -0.0228438 -0.173463 1.17946 -0.382011 1.29939 -0.2069 0.380102 -0.0984441 -0.518832 0.358051 0.404022 -0.160389 -0.942498 0.473547 0.357001 -0.643724 1.20129 -0.00276548 0.28698 -0.123341 0.342608 -0.38328 0.504813 1.12613 0.661087 0.413813 -0.313127 -0.564322 0.143999 0.0658077 0.0650696 -0.784811 0.269048 -0.366506 -0.153097 -0.421928 -0.837333 -0.966005 0.492207 0.717287 0.129417 0.732987 0.412093 0.120648 -0.895615 0.0619056 -0.148747 -0.356065 -0.181826 0.310068 0.829613 -0.234602 0.00667502 -0.335971 0.511312 0.631377 0.68628 -0.105562 -0.0631884 -0.425969 -0.131622 -0.416664 -0.905251 0.298777 -0.131468 -0.907754 -0.206816 0.270472 -0.514224 0.389808 0.0997488 0.915473 0.533457 0.29441 0.270497 0.58596 0.190683 -0.542083 0.160197 -0.359533 
-0.380905 0.575612 -1.54241 0.485071 0.249482 -0.0526389 0.273365 -0.60078 0.401486 -0.662366 -0.914312 0.742667 0.606568 0.0727096 0.110416 -0.878867 0.432917 -0.38426 -0.0883723 -0.433441 0.16088 1.53502 0.185708 0.314531 -0.688669 0.0556793 -0.418812 0.653038 0.213082 0.607188 0.97005 0.667037 -0.0713195 0.144259 -0.196124 0.151361 0.149559 0.336102 -1.09938 0.943924 -0.43283 0.225726 -0.216951 1.35075 -0.0837134 -0.675336 -0.300418 0.346782 -0.483512 0.404846 0.395805 0.608266 0.489162 0.0834944 -0.362575 1.03591 0.996985 0.0191159 0.967766 0.788761 -0.51976 0.0110097 -0.532921 0.882588 -0.461511 0.0583486 0.00318084 0.631997 0.775131 -0.155013 -0.487573 -0.623287 -0.2683 -0.99275 -0.239176 -1.14301 -0.0504628 0.408588 -0.166639 0.640151 0.369141 0.498174 -0.0441742 1.12411 0.206417 0.214573 0.509272 -0.344904 -0.569186 0.201677 -0.703735 -0.871999 0.133947 0.730334 -1.10067 0.00727713 0.585908 -0.338096 -0.032806 0.115292 0.677449 -0.666222 -0.96837 0.253779 -0.62926 -0.308334 -0.683328 0.062117 -0.911586 -0.591939 0.395831 0.331247 0.445874 -0.216247 -0.349488 0.319133 -0.65389 -1.32186 0.308035 0.635305 0.724826 0.0975415 -0.488028 1.38046 0.690875 -1.20789 0.270662 0.146992 -0.262986 0.458208 0.139928 -0.0673138 0.105469 0.298807 -0.137297 -1.18961 0.545877 -0.481979 0.0878884 0.43597 -0.99878 0.391757 -0.397498 0.571309 0.446902 0.0539831 -0.475967 -0.653935 -0.248545 0.835216 -0.0445004 1.22367 0.551735 0.266613 -0.318677 -0.413764 -0.673125 0.200468 1.23457 -0.607267 -0.256934 0.181473 0.339351 -1.2523 1.07275 -0.124307 0.408689 0.177182 0.49466 0.378228 -0.397033 -0.744773 -0.641918 -1.1354 0.553941 1.03282 -0.779647 -0.670993 0.371165 0.445627 -0.169466 0.575022 -0.369501 -0.507713 -0.98461 -0.847551 0.0457816 -0.482017 0.279579 -0.287016 0.28645 -0.131222 0.0511983 -0.00723627 0.188844 0.135832 -0.321323 0.435473 -0.42045 0.157994 0.01227 0.388079 -0.399478 -0.411948 1.28652 -0.148294 0.202477 0.495122 -0.428991 0.764163 -0.0293276 -0.103161 0.630406 -0.51646 -0.128583 -1.07985 -0.103406 -0.221977 -0.658263 -0.882062 0.606905 0.419027 0.0513329 -0.739297 -0.732865 0.109434 0.671189 0.478298 0.330067 -1.26417 -0.319462 -0.000583016 0.18738 -0.515001 0.358116 -0.206638 0.123971 0.322535 -0.834292 0.752507 -0.850013 0.507549 0.158234 -0.261819 0.996576 0.283213 0.103405 -0.265327 0.383055 -0.297559 -0.512524 0.68001 -0.155898 0.166053 -0.776279 -0.520105 
-0.370781 -0.864457 -0.20822 1.20474 -0.12097 -0.320703 -0.163011 -0.972501 -0.015728 0.881999 -0.360892 -0.670715 -0.176718 0.149115 -0.21118 -0.00858993 0.555088 0.616173 0.224661 -0.0139786 1.10547 -0.173819 -0.341881 0.337679 -0.0723152 -0.687734 0.716334 0.569782 -0.205061 -0.550027 0.521976 0.0202049 -0.0784692 -0.0983585 0.279764 -0.536255 0.0238704 0.0893438 0.185249 -0.192695 0.257954 -0.362223 0.157225 0.205559 0.186338 1.1141 -0.174018 0.654487 0.121264 -0.525462 0.291392 0.875198 -0.495279 0.952823 0.0731352 -0.25781 0.00317366 -0.163377 -0.162084 -1.1243 -0.791643 -0.367658 -0.505938 -0.0683341 0.717933 0.505493 1.0843 -0.278239 0.331407 -0.351678 0.494781 -0.772639 0.361771 -1.20319 0.449681 0.340109 0.746184 -0.31645 0.327043 0.315148 -0.623063 0.760836 0.227173 -0.18616 -1.35057 0.704484 -0.11859 -0.281839 -0.044892 -0.588702 -0.187738 -0.349436 0.626059 -0.200257 0.557963 -0.597919 0.131259 0.244219 0.219386 -0.214038 -0.597759 -0.468051 -0.53503 -0.453494 -0.785152 0.521188 -0.767801 0.367453 -0.551808 -0.0519491 0.988789 -0.0552668 -0.463357 0.388379 0.0996263 -0.425663 -0.108414 -0.79414 -0.475277 -0.743262 -0.122883 -0.0878478 0.535127 0.520648 -0.541857 -0.694518 -0.29531 -0.0265747 -0.290556 0.104841 -0.535777 -0.353094 0.595709 0.471209 -0.164229 0.105795 0.387359 0.107827 -0.127884 0.767051 -0.628114 0.500272 0.347058 1.08001 -0.904452 0.539873 -0.735672 -0.808097 0.0347056 0.0813529 -0.59168 0.0466733 -0.488681 -0.193869 0.508838 0.601812 -0.309301 -0.648725 -0.2996 0.0568475 0.200257 -0.40995 -0.323324 -0.533216 0.69634 -0.430366 -0.210142 0.0095362 0.388366 0.681724 0.122847 0.40695 0.0853848 -0.104436 -0.612015 -0.56888 -0.778253 -0.244166 -0.496758 1.62295 0.427245 -0.280392 -0.100795 -1.40258 -0.0929036 0.102123 0.537555 0.603673 -0.722514 -0.592968 0.204913 -1.03202 0.129038 -0.119797 -0.23779 -0.650337 0.263625 -0.0886484 -0.61684 0.169853 -0.354587 -0.135798 -0.306193 0.127262 -0.699431 0.00516192 0.259901 -0.0887261 1.37132 -0.479275 -0.0632269 -0.381332 1.43545 1.35696 0.652055 0.45261 -0.152629 -0.300837 0.216479 0.151824 0.238299 -0.0116468 0.206189 -0.391299 -0.5594 0.0979126 0.587794 -0.410607 -0.576638 -0.0566887 0.4624 -0.291925 1.19021 0.885567 0.377563 -0.0687636 -0.902347 0.355847 0.802302 0.0798148 -0.669946 -0.254182 0.342428 -0.497396 0.429776 0.480851 -0.135355 -0.0223555 0.201078 -0.457742 0.37104 -0.333934 -0.222821 0.781035 0.327078 -0.406339 
-0.0671108 0.010834 -1.00364 -0.752141 -0.274398 -0.857872 -0.248931 -1.14154 -0.0298487 0.494929 -0.161548 0.737241 -1.0116 -0.561532 0.168237 -0.958526 -0.188229 1.01933 0.00317183 0.703319 -0.0585392 0.562172 -1.12914 0.0233128 -0.182432 1.01184 -0.808062 -0.501106 -0.142462 0.842531 -0.676761 -0.25367 -1.50231 -0.164421 -0.880052 -0.124977 0.747973 0.264373 -0.559606 -1.08698 0.683097 -1.14107 -0.767965 -0.011648 -0.277447 0.827303 -0.203999 -0.364246 0.586145 0.0423332 0.492952 -0.884258 -0.426587 -0.0748841 -0.158705 0.0954086 0.0197774 0.603382 -0.225484 0.0988532 0.0577305 0.347704 -0.261992 -0.00610022 -1.21786 0.176574 0.239855 0.318744 0.590065 -0.377474 -0.132641 -0.77467 0.753242 1.25685 0.58596 -0.661201 -1.04667 0.667172 0.458666 -0.438406 0.217486 -0.167022 0.241415 0.178749 -0.262413 0.0259835 0.0417799 0.594567 -0.282922 -0.195348 -0.0768485 0.120783 0.808396 -0.319653 0.696839 -0.0953335 -0.687972 0.133969 0.067245 -0.1132 -0.00187473 0.707144 0.166514 0.17236 0.963654 0.0967808 -0.839789 0.0887615 0.32659 0.595675 0.00553967 -0.481338 -0.0591744 -0.679448 -1.34768 -0.636819 -0.62489 0.505171 -0.789766 0.161032 0.027719 0.59184 0.524153 -0.520747 -0.191872 -0.380991 0.768653 0.465945 -0.14937 0.0048892 0.737523 -0.137665 -0.0446379 0.0152408 0.154095 -0.0369334 0.2567 -0.584073 -0.415241 0.0045961 0.443488 0.363052 0.0864932 0.230244 0.0531926 0.131601 -0.357744 -1.17509 0.471666 -0.256928 -0.48541 -0.0368023 0.14697 0.637088 -0.354086 0.184925 -0.708649 0.4002 -0.549266 0.206359 -0.317416 -0.191302 0.495775 -0.708671 -0.389211 0.372877 0.129729 -0.0184409 0.150405 -0.876721 0.0622467 -0.604327 -0.269193 -0.627006 0.607498 -0.353848 -0.0162914 -0.350667 0.30016 -0.753318 0.000270591 -1.00611 0.127241 0.616592 -0.437697 -0.0853444 -0.139554 0.313817 -0.211954 0.71161 -0.47731 -0.244829 0.16717 0.615271 0.629896 -0.482717 -0.83299 -0.407395 0.479756 -0.797728 -0.194368 -0.40739 0.657578 -0.144696 0.320657 -0.660205 -0.617339 0.0943062 -0.679626 0.0733819 -0.170544 0.777119 -0.53544 -0.316581 0.625851 0.330317 0.508008 0.583263 -0.493402 0.0492572 0.400231 -0.123638 -0.390493 -0.674374 1.29039 0.732848 0.356438 0.306876 -0.495375 0.0853326 0.514293 0.819608 -0.202581 0.3794 -0.164049 0.777144 0.178554 0.152504 -0.449421 1.34077 -0.612979 0.0922761 -0.795238 0.0858505 0.293469 -0.113668 -0.27499 0.247053 -0.719227 0.155771 -0.667386 -0.819501 -0.662801 -0.536041 0.86836 -0.438463 
-0.6703 -0.494099 0.136523 0.133853 -0.0796812 0.305338 0.500254 0.1566 0.471412 1.08595 -0.0356733 -0.435263 0.557426 -0.578847 -0.777296 -0.65009 0.372204 0.547479 1.10633 -0.233006 -0.0534453 0.515128 -1.01391 -0.313154 0.547517 0.315572 -0.398949 0.1014 1.41953 0.694972 -0.371465 -0.0584197 -0.278132 0.0362929 0.378163 -0.677664 -0.128711 -0.223379 -0.206305 0.2456 0.260555 -0.0976462 -0.544577 -1.17094 0.1791 -0.504739 0.307226 0.342397 -0.850923 -0.243191 0.126724 0.398625 0.256709 0.211495 -0.13326 0.410334 0.07546 -0.098007 0.510819 -0.565067 1.14208 -0.908695 -0.384357 0.318213 0.0121558 0.12428 -0.124205 0.375676 0.268547 -0.180138 -0.000721841 -0.456087 0.193565 0.195867 -1.0438 -0.366368 -0.375644 -0.15338 -0.566449 0.104044 0.369053 -0.415516 0.925967 0.585322 -0.549823 0.576544 -0.871755 0.340744 1.18984 -0.536664 1.16936 0.490293 -0.490585 -1.34379 0.647701 0.196669 0.476455 0.165257 0.565349 1.01992 -0.319419 0.195395 0.305137 -0.191598 -0.957323 0.692766 -0.395753 -0.275486 -0.084171 0.221778 0.246274 -0.249204 -0.14581 -0.610638 -0.275944 -1.25766 0.349405 -0.482426 -0.119695 -0.3663 -0.249137 -0.753703 0.384217 -0.0761145 -0.214077 1.35021 1.19513 -0.742321 0.825391 0.62103 -0.629393 1.78631 0.657087 -1.0654 -0.675643 0.42938 0.467001 -0.797858 -0.0417029 -0.273931 0.26599 0.406641 1.02053 -0.081541 0.366472 0.591614 0.479268 -0.000812165 -0.0162984 0.583985 -0.537786 -0.0453559 0.51247 0.781476 0.26284 0.0901618 -0.6345 -0.489909 0.0280635 -0.482031 -0.787101 -0.0267038 0.511877 0.676363 -0.281075 0.347157 0.516455 -0.0297981 0.118251 -0.290025 0.458104 -0.712639 1.22984 0.503471 -0.178957 -0.201778 0.0423677 0.19229 -0.399725 -0.192755 0.841223 0.938873 -0.500564 -0.162899 -0.588926 0.00365315 -0.0181822 -1.10999 0.890466 1.0978 -1.03413 0.273293 -1.01231 -0.915205 0.580671 -0.245967 0.498194 -0.898093 -0.375993 -0.609323 0.196676 0.404351 -0.46322 0.245309 -0.343612 0.336728 -0.126972 -0.405873 0.220107 -0.794389 0.676383 0.357344 -0.0224923 0.752216 0.259291 0.0676461 -0.0373992 0.173928 0.982832 -1.07894 0.285666 -0.472419 0.239576 -0.0721481 0.80021 -0.502482 -0.354244 -0.00363958 0.0454855 -0.0907427 -0.701776 -0.489349 0.560051 0.0681007 0.0234588 0.160579 -0.33978 -0.315613 -0.224088 0.958192 0.161328 0.189863 -0.197362 -0.412335 -0.0420873 0.608155 -0.40609 0.0224395 -0.108321 -0.891218 -0.266206 0.175299 -0.0229955 0.0698637 -1.35494 -1.55485 
0.0462934 -0.552952 -0.460889 1.09507 0.324217 1.53868 -0.855717 0.156609 -0.56815 0.673855 -0.165489 -0.727221 0.869919 0.071654 0.158906 -0.993998 -0.353605 -0.450944 -0.327789 -0.0788348 0.498558 -1.06359 -0.949625 -0.259421 0.511504 0.83475 0.15977 -0.858853 -0.0553238 -0.0244937 0.641272 -0.123869 0.23335 0.0242315 0.452536 0.917521 0.00177521 -0.638651 0.182406 1.32793 1.23027 -0.259314 0.220301 0.0303446 -0.0130973 0.202601 1.02721 0.0478787 -0.0600698 0.0829123 0.995946 -0.652577 0.34782 0.594321 -0.354523 -0.14356 0.0241673 0.363118 -0.227623 -0.0673044 -0.720067 -1.20828 0.946897 -0.785948 -0.633686 1.59099 -1.44965 0.681136 0.0548048 1.137 0.707714 0.288034 0.202558 -0.696059 0.454515 0.422719 -1.39729 0.322621 1.12263 0.502512 0.362226 -0.905276 -0.600139 1.18067 0.181096 0.351268 -0.371993 -0.495191 0.78961 -0.35505 -0.492863 -0.157565 0.222578 0.281151 -0.675377 -0.0283601 -0.439765 0.0184332 -0.395216 -0.457873 -0.361379 0.656976 -0.0878135 -0.0427529 0.300918 0.482154 0.260304 -0.689629 0.0951623 0.502772 0.189286 1.04001 -0.144768 -0.282385 0.923494 -0.210253 -0.084061 -0.0748108 0.169844 0.189747 0.238172 0.0798521 -0.699404 -0.184442 0.0140945 0.0281557 -0.201753 -0.739837 -0.406097 -0.587997 0.245772 0.997967 -0.948644 -0.331472 -0.162905 -0.311105 0.395368 0.558857 -0.734143 -0.156534 -0.939698 0.624807 -0.206403 -0.659946 0.471247 0.729674 0.683984 0.0163417 -0.446051 0.0830762 -0.581272 0.0275373 0.522017 -0.933678 1.80037 -0.342273 -0.386349 -0.141744 -0.572263 -0.0594831 0.403023 0.287244 0.387046 0.706486 -0.632552 0.0187703 -1.00486 1.70651 0.0998134 -0.192294 -1.07424 0.722012 -0.912781 -0.338717 -0.303814 -0.226789 0.103376 -0.173849 1.57448 -0.153301 -0.1012 1.35234 0.65543 0.15189 -0.0122484 0.871189 0.285465 0.621216 -0.0414509 -0.222476 -0.192517 -0.353336 -0.419374 0.381373 0.625156 0.149964 -0.249641 0.75238 -1.35794 -0.273733 0.368344 0.397219 0.0152901 0.0674196 -0.84564 0.0345279 0.985066 0.0646205 0.528258 0.540244 0.461757 -0.345013 0.0536564 -0.883208 0.907787 0.0706212 -0.974799 0.45248 -0.021783 -0.292062 -0.361008 0.748193 -0.523027 0.0217035 -0.422653 -0.179698 -0.810097 -0.455808 -0.83168 0.271638 -0.735883 0.712842 -0.594939 0.188744 0.826421 0.999741 -0.931746 -0.436895 -1.37553 -0.18899 -0.869942 0.742766 -0.906444 -0.374556 -0.676424 -0.697429 0.566333 0.297274 -0.215498 -1.32943 0.0736771 0.08711 0.859245 0.491968 0.10129 -0.77894 
